0.00799351,-0.09714813,-0.12963459,-0.13164979,-0.1712738,0.2178934,-0.207184,0.15910453,-0.018062579,-0.19400555,0.032262474,-0.18906222,0.17582017,-0.10729299,0.22730295,-0.17547281,-0.096551955,-0.25787967,-0.09853087,0.12809451,-0.26811093,-0.13147241,0.09698875,-0.14683913,-0.15615737,-0.12010494,0.30735937,-0.092635915,0.2012034,0.20741732,0.192963,-0.22171322,-0.25273794,-0.10848205,-0.059827797,0.2508563,-0.10595818,0.24346362,0.22277443,-0.1261102,-0.15176679,-0.25343505,0.09074874,-0.20160885,-0.14519718,-0.04481197,0.25779343,-0.07677249,-0.009169612,-0.0991936,-0.07591751,0.16634768,-0.13018738,0.2029516,-0.23248246,-0.114127696,-0.04698266,-0.24975781,0.13789915,0.17952496,0.15816166,0.12848508,-0.035991564,-0.21637718,-0.16872208,0.097308144,-0.0045560035,-0.010466133,0.2087133,0.015593057,0.27137974,-0.18375403,-0.30736965,0.2243343,-0.226015,0.19677962,-0.22050133,0.16214445,-0.16431604,-0.1648931,0.02576116,0.26634866,0.15997754,-0.19785199,-0.19554202,-0.0008760022,-0.18901193,-0.19800822,-0.1472049,0.27114674,-0.072925285,0.027866151,-0.12444323,-0.10540935,-0.24295948,0.15565272,-0.00440629,0.25931817,0.14471734,0.1649032,0.22284494,0.19807729,0.09287686,0.18083513,-0.17183176,0.18725504,0.015234067,-0.100998946,-0.006827707,-0.03322483,-0.085785106,0.055451013,0.08977836,0.18104056,-0.080724366,-0.09448586,0.083134145,-0.010667287,-0.0992597,0.057491917,0.08377908,-0.23766123,-0.03747305,0.13944145,-0.15804233,-0.002738933,-0.0964304,0.21320854,0.12569737,0.120572396,0.0774868,-0.0014101821,0.22155635,-0.1153159,-0.086966835,-0.1824507,-0.18716349,0.24585028,-0.15444036,0.12722586,-0.05413426,0.14167681,-0.081315175,-0.14993042,-0.08705271,-0.24719718,0.23181619,-0.06237699,0.13640814,-0.08166287,0.20176889,0.0026139403,-0.06419719,0.013952579,0.085239254,-0.11215382,0.3249849,0.0037245646,-0.022944149,-0.12528704,0.21043597,0.19997852,0.1783095,0.17471905,-0.20296822,0.19565001,-0.18398856,-0.069028236,-0.09744692,-0.114786044,0.19553807,0.21845925,0.08426632,0.018815069,-0.13293514,-0.035398293,-0.06971955,-0.025473949,-0.12922119,-0.13275461,-0.020996476,-0.12378535,0.17456985,0.20568445,-0.019161219,-0.0015862731,-0.15306512,-0.012089366,-0.088391595,-0.21530852,-0.08935717,0.23086993,0.2251874,-0.0030146928,-0.08122038,-0.07779243,0.019444983,-0.12545067,-0.16789441,-0.11509596,-0.21614182,0.24019004,0.2926427,-0.17378223,0.27459654,0.1091311,-0.13003626,-0.28061935,0.043533396,-0.21967354,-0.1493053,-0.004952401,-0.33727837,0.004105173,-0.009902605,-0.14724258,-0.022120673,0.26828638,-0.004093563,-0.19942564,0.24061815,-0.062077317,0.17952721,0.12931125,0.25762028,0.22859547,-0.11695968,-0.047650017,-0.110908516,-0.051085584,-0.20329347,0.22615477,-0.09143993,-0.08183217,-0.20480151,-0.16431572,0.1496904,-0.117953345,-0.09950868,0.009356009,0.31088188,-0.1781279,-0.08672716,0.025391381,0.26351988,-0.07330697,-0.19900852,0.033057787,0.26486307,-0.018720862,-0.13555108,-0.08341791,0.15654919,-0.19403015,-0.115357384,-0.23768896,-0.06587785,0.09567704,-0.13617009,-0.07086188,0.1991575,0.08931208,0.1107558,-0.23566209,0.16443276,0.20283268,-0.10682728,-0.18178579,0.09866161,0.090333864,-0.18882775,0.21032302,0.17850219,-0.24082685,0.21360742,-0.110933065,0.016913157,-0.08557205,0.09308356,-0.21074937,-0.11254393,-0.08385171,-0.31786036,0.26868138,0.15037565,0.2314098,0.2188019,-0.1764556,0.2455489,-0.07479382,-0.12865458,0.20050669,0.16731648,0.2536958,-0.005152447,0.12970652,-0.22447109,0.19000591,-0.025965843,0.21651173,-0.18687405,0.25925398,-0.045725953,-0.24793929,-0.10444325,-0.051214516,-0.11973546,-0.16785912,0.18690355,-0.030329531,-0.13127558,-0.10050198,0.17526889,-0.24148107,0.19987534,-0.030785605,-0.16690674,-0.1656426,-0.11260173,0.16912667,-0.14736843,-0.21354784,-0.08440144,0.0119651025,0.27081117,-0.1476371,-0.045020625,0.20733286,0.18068813,-0.061606426,0.059676092,-0.2061059,-0.24901713,-0.1984117,-0.17035636,-0.095440686,0.25397652,-0.089546256,0.30189553,-0.085507,0.41177097,-0.31347305,-0.15205254,-0.14382195,-0.21914488,0.16947754,-0.01943484,0.046061143,0.2759248,0.1923314,0.20346181,-0.17379725,-0.11267305,0.21296166,0.27516907,-0.08521453,-0.2083838,0.1575244,-0.09811227,0.18994066,0.13014832,-0.24157046,-0.22028092,0.2678494,0.048406176,-0.270758,-0.12006906,0.037683114,-0.12593739,-0.32501855,-0.12803149,0.040901273,0.14462642,0.063154355,-0.22556017,0.22808583,0.2439,-0.08920337,-0.21878521,-0.098205715,-0.131531,0.27232307,0.18421721,0.08633848,0.12858433,0.21506526,-0.18739922,0.18467718,0.028244548,0.2943582,-0.15092415,0.092855774,-0.22333333,-0.036979806,0.18806072,-0.15196197,-0.008498228,-0.16356118,-0.19807236,-0.16867393,-0.050679587,-0.17765333,0.09742021,0.1485868,-0.042458966,-0.14251341,0.00040714763,0.13054834,-0.02743937,-0.07242937,-0.099340335,0.17797169,0.08803393,0.0766687,0.10322439,-0.114344984,0.25464168,0.23254876,0.098361745,0.10384149,-0.022640709,0.13094829,-0.23504922,0.16231515,0.16725156,-0.17394923,-0.10803858,0.12426952,0.0016157551,-0.027772926,0.21883428,-0.09590914,0.1686424,-0.06733775,0.14285322,-0.009330938,0.18853235,-0.049574092,-0.13668682,-0.02706913,-0.012026208,0.051521014,0.13818815,-0.06847937,0.09700189,0.1321209,0.15304618,-0.19373812,-0.13877085,0.2037244,-0.15401813,-0.13201794,0.28305256,-0.18271798,0.30489916,0.17423846,-0.1495537,0.1279843,-0.02643723,0.007854155,-0.1110436,-0.16585553,-0.24588808,0.25836867,-0.102050304,-0.17728724,-0.10290314,0.33635908,0.10260985,-0.2883057,0.031008145,0.036339678,0.17365493,-0.22057447,0.049585965,-0.052757178,0.14680563,-0.21231076,-0.24582972,0.028968716,-0.17928253,0.25785577,0.061779153,0.08251113,0.1488315,0.21182236,0.19102897,-0.16890052,0.025642354,-0.015285271,0.051304065,-0.009339866,0.20452417,0.07102265,0.1820896,0.07344977,-0.14665379,0.0077947197,-0.09232038,-0.22496288