-0.078422375,-0.03232937,0.001089154,-0.18951601,-0.005542828,-0.07728627,0.17960681,-0.16720605,-0.1747185,0.015489299,-0.18231644,0.21642248,-0.16513257,-0.040913675,0.009950568,-0.09852278,-0.13701473,0.07272092,-0.2118285,-0.20285422,0.2655042,0.22667395,-0.1106628,-0.08806337,0.063303575,0.0735379,0.22430767,0.18175212,0.100979105,0.03309622,0.11303686,0.117012806,0.27167055,0.23126505,0.31821707,-0.3825367,-0.32894525,-0.080205865,0.13805152,0.3331625,-0.098291725,-0.10865621,-0.19286764,-0.25269586,0.025749944,-0.2276346,-0.18697327,-0.14152539,-0.3350315,-0.10922554,-0.15858197,-0.16588545,-0.098659195,0.041375224,-0.09767393,-0.0036420182,-0.19659993,0.111810245,-0.12524149,-0.21281694,-0.06793263,-0.081886865,0.023908714,-0.2398712,-0.105181165,0.06623576,-0.022776954,-0.06232124,-0.15180801,0.18538114,0.13697873,0.18487146,-0.06991593,0.08943963,0.20446332,0.03459455,-0.011508651,-0.15289646,0.14104499,-0.21020958,-0.04082825,0.016105356,-0.007405783,-0.024808858,-0.15039991,0.27312952,0.124918774,-0.23020737,-0.18444599,-0.24221805,0.30490547,0.22962207,-0.12811816,-0.2560276,-0.21198808,0.011988295,0.27398866,0.021062722,0.0228385,-0.22333391,-0.02543225,0.12834726,0.39553228,0.3885224,0.16374613,-0.14416689,-0.119628236,-0.006799399,-0.022998726,-0.08110213,0.089751214,-0.0418388,-0.25577447,0.028763115,-0.10319469,-0.09550257,0.10375312,-0.22834615,-0.2916621,-0.18475562,-0.13048875,0.06358136,-0.16254802,0.052405827,-0.039924186,-0.25224647,-0.17824681,-0.30179828,-0.31651217,-0.049556214,-0.07381693,-0.25006464,-0.27939042,-0.3127264,-0.1386936,0.08356997,-0.052324142,-0.048871703,0.0026987395,0.13154529,0.23555957,0.05826166,0.3960574,0.20432582,0.16642301,-0.11388622,0.13670334,0.13067709,-0.16675219,0.0016472137,-0.0010875253,-0.018663296,-0.12402495,0.034934606,0.1944404,-0.14967711,-0.20615533,-0.049270872,-0.07475507,0.30692074,-0.099174574,-0.12763792,-0.19625708,0.10647044,0.19184971,-0.08989441,-0.20716943,0.0163918,0.01134476,0.2620605,-0.06859166,-0.14762914,0.13912867,0.09924349,0.020898042,-0.045977652,-0.18397368,-0.16524738,-0.04780031,0.1878459,-0.1906271,-0.02020262,-0.16893938,-0.047153395,0.23417754,-0.16030702,-0.24125548,-0.12935826,-0.17200355,0.2831512,-0.22325808,-0.24385294,-0.21926223,-0.07508458,0.19778682,0.041675016,-0.18184213,-0.24833083,0.13727936,0.32097554,0.15276547,0.10359568,-0.27461955,-0.08245528,0.09272747,0.1371575,0.047499437,-0.050915882,-0.29341936,-0.035506718,-0.04597494,-0.077122994,-0.016870666,0.121133745,0.063711606,0.018214589,0.17765874,0.17053832,0.16851309,0.09420525,0.2638445,-0.08365221,0.12545618,-0.022690978,0.041709974,-0.07797892,0.05627775,0.092378005,0.043085426,0.0992591,-0.110944666,0.16489287,0.24783275,-0.055804018,-0.04266989,0.15057012,0.15571558,0.022037892,0.043204516,-0.26654744,0.069905564,0.2545919,0.0010312094,-0.17809941,-0.281666,-0.0371691,0.04235221,0.11034028,-0.037689775,-0.081491254