0.008865656,0.014763023,0.051169675,-0.021483295,-0.070188396,-0.029484486,0.046641417,-0.051114697,0.032466605,0.042498704,0.0003891278,-0.041056175,-0.06154852,0.047218703,-0.06404596,-0.06705928,0.037367288,0.027156817,0.04617891,-0.002989268,-0.04737833,-0.009664327,-0.019396156,0.020766795,0.06495585,-0.11839285,-0.13807027,-0.092328526,0.017266855,0.034816377,-0.14749543,-0.13192134,-0.00989578,-0.07871238,-0.035879362,-0.15063831,-0.1505432,-0.013820106,-0.117803864,-0.13523604,-0.24989201,-0.15186742,-0.098029986,-0.09436687,-0.1564969,-0.18305896,-0.08011561,-0.16581564,-0.16518332,-0.08407006,-0.066302806,0.026811866,0.016001582,-0.0018710158,-0.01773489,0.021289885,0.054619446,-0.030378995,0.00777308,-0.016912473,0.06110782,-0.025884107,-0.086405195,-0.07748421,0.010261562,-0.017701872,-0.05974892,-0.02471399,0.04176078,-0.053722702,-0.043125376,-0.005779213,-0.043652836,0.07209118,0.03750715,-0.14705117,-0.08425264,0.0025366652,0.027473371,0.06652327,-0.08081708,-0.004969818,0.07400007,0.024378167,-0.021228518,-0.022271963,0.006088376,0.041576196,0.08181721,-0.0028754224,-0.096390486,-0.010716973,0.09953472,0.0065234317,-0.04608856,0.024079701,-0.011161798,-0.012278602,-0.02536844,-0.01812139,-0.0016784774,-0.08016469,-0.04472497,0.023194935,0.024518546,-0.045049462,-0.02605164,-0.03420058,-0.004570537,0.0041337544,-0.016928028,-0.05748652,0.023842452,0.042756006,-0.02606575,-0.060160004,-0.037684515,0.007895524,-0.021478698,-0.038948286,-0.0063882465,-0.0018372468,0.012312035,-0.057098377,-0.06440588,-0.13485269,-0.09764929,-0.026429594,-0.012778556,-0.07959395,-0.08270484,0.049413703,0.026198361,-0.09788973,-0.09859321,0.03470927,0.009764785,-0.009416683,-0.08269846,-0.052807372,0.03198293,-0.010699176,-0.15434882,-0.08636633,-0.031461615,0.071389936,-0.077726975,-0.034077592,-0.004504833,0.030151779,-0.051461183,0.10221952,0.061321866,0.06261051,0.11216279,-0.05589072,0.076010466,0.09222483,0.05397372,-0.010484165,0.1283425,0.11768009,0.0014295056,-0.061368074,-0.021529684,0.11564682,0.06415676,-0.033335347,-0.10409025,-0.08925253,0.059980173,-0.03456279,-0.10290864,-0.012328155,-0.040605415,0.07773186,0.12646426,0.07431391,0.07474237,0.044379428,0.08766756,0.10642019,-0.015400875,0.0783014,0.06703859,0.08899495,0.07285982,-0.02454229,-0.01421429,-0.03601048,0.046236504,0.03954588,0.021386873,0.051962066,-0.00934605,0.04157031,-0.04719619,-0.026516994,-0.074138,-0.083105646,-0.22406273,-0.090932004,-0.115376696,0.023020402,-0.08733088,-0.14611661,-0.047031213,-0.13859013,-0.096907556,-0.13124292,-0.14003907,-0.042138502,-0.036171354,-0.10302351,-0.1079883,0.014869556,-0.025591962,-0.02606078,-0.07362795,-0.11033181,0.057135057,-0.06629437,-0.072197676,0.06264701,0.035699382,-0.10040432,-0.09252214,-0.037743315,-0.004933314,0.0714976,-0.15751998,-0.06428745,0.09096112,0.07116164,-0.012426797,-0.17487179,0.049463816,0.029907722,-0.012678614,-0.0731076,-0.06487638,0.07900758,0.086024605,-0.055328883,-0.18202096,0.05548832,0.052483045,0.018984772,-0.10409985,-0.08280597,0.013863319,0.021663258,0.029403763,0.0327871,-0.026515856,0.012590357,-0.02120051,0.008910268,-0.046954576,0.0029549764,-0.015083911,0.0069627427,-0.017921016,-0.012729431,-0.03512271,-0.046511468,0.012016289,-0.0038517467,0.051914487,-0.057542283,-0.053066242,-0.041312702,0.027577508,0.00962152,0.035723086,-0.0829558,0.013646623,0.057605013,-0.0039698104,-0.075643264,-0.14478481,-0.10646046,-0.057463106,-0.048499532,-0.059530824,-0.111411266,-0.09448979,-0.09257552,-0.0547038,-0.006057472,-0.12159163,-0.08390173,-0.070253745,-0.015178297,-0.013595587,-0.09745017,-0.012372814,-0.022398591,-0.1561148,-0.16300301,-0.051262565,-0.09725929,-0.031554703,-0.05122004,-0.05164004,0.03658988,-0.066440605,-0.001101033,-0.06222497,-0.022772036,-0.0012696355,0.0042557037,-0.047642473,-0.07946136,0.012306169,0.04991675,-0.06582953,-0.04807512,-0.10195566,0.016579999,-0.011399084,-0.06440577,-0.060185563,-0.043030865,0.023643712,-0.07026264,-0.11720696,-0.06508711,0.006944021,0.024801528,-0.03949822,-0.052646108,-0.040638447,0.06421802,0.049562175,0.026402056,-0.06131991,0.096876204,0.06473465,-0.018887697,-0.07205251,0.04907107,0.022920169,0.08446863,-0.056443557,-0.03297705,0.03684984,0.080553584,0.07138128,0.04626592,0.04466296,0.091110654,0.01781637,-0.0048927,-0.061970152,-0.0028781965,-0.0941828,-0.071254484,-0.08506453,-0.04284122,-0.0017861177,-0.09080212,0.008676141,-0.027984362,-0.084168196,-0.009413009,-0.03919219,-0.045905128,-0.06020685,-0.045429002,-0.013629036,0.01069136,-0.010581413,-0.10760657,-0.063394144,-0.06550831,-0.07761699,-0.16793734,-0.025635017,-0.095845826,-0.03602818,-0.092784256,-0.05896202,0.0024773243,-0.11033855,-0.010175921,0.0246047,0.000448964,-0.02458656,-0.11305487,-0.01904988,0.07751008,0.008079986,-0.20243104,-0.18781172,-0.045009647,-0.07142535,-0.091136426,0.009168864,0.009817954,-0.05536741,0.061657116,0.05472827,-0.06552364,-0.0043943035,-0.06885917,0.1017428,0.098941475,0.0106431525,-0.0015323121,-0.026074974,0.12512808,0.010276251,-0.061694354,-0.11582179,0.030965468,0.0816609,-0.018459056,-0.055278633,-0.1399591,0.07667008,0.030730506,0.032415632,-0.056328036,-0.056648344,-0.0014197717,0.14378288,0.0030747016,0.010809619,0.057541393,0.033054862,0.08799048,0.07162489,-0.058019236,0.04559406,0.07012731,0.14875674,0.043478943,-0.03316074,0.00805301,0.08850976,0.12194657,-0.0028049182,-0.0020846052,0.0591116,0.014649632,0.07600581,-0.045023277,0.0015342165,0.0058813896,-0.095299974,-0.082300864,-0.006975798,-0.035890274,-0.054312192,-0.10375789,-0.11259059,-0.0041709114,-0.05374599,-0.08831447,-0.042914942,-0.04524292,0.05608844,-0.043472227,-0.07216324,-0.09095124,-0.025201079,-0.027456552,-0.058279254,-0.0986815,-0.0036071038,-0.07465463,-0.088018626,0.046558544,0.023625396,-0.06298383,-0.15219495,-0.009471224,0.076177746,0.024672568,-0.046846118,-0.11856195,-0.027794413,0.028487531,0.008655449,-0.111292034,-0.08817587,0.108800516,0.03527322,-0.02516623,-0.121777765,0.03758906,0.07254486,0.106476896,-0.055390257,0.0042139646,-0.04256063,0.114060774,-0.023550825,-0.037117213,0.039246667,-0.049662918,-0.0654056,0.018541196,-0.018262675,0.0040677357,0.06208556,-0.019095484,-0.0022565564,0.043132838,-0.06666673,-0.024984496,0.047698725,-0.072235905,-0.005110587,0.009408184,0.013858808,0.06241447,0.062168997,-0.072809696,0.03981594,0.030554462,0.026046088,-0.013215383,0.034816034,0.11491308,-0.05108654,-0.014493637,-0.010667485,-0.08616799,-0.05248436,-0.005215849,-0.018463135,0.044637967,0.079025954,0.09589373,0.092985585,0.062816106,0.0310765,0.11455811,0.009925992,0.12485646,0.17224187,0.12091183,0.094564445,-0.03844642,-0.10402828,-0.07151913,-0.12832654,-0.1403603,0.047684725,0.04386408,-0.06367402,0.023689738,0.0021869245,0.08774155,-0.008551274,0.026740367,0.053407963,-0.0013166931,0.053194698,0.013161848,-0.04268996,0.028366327,0.018075837,0.010298013,-0.0021092657,-0.02928478,0.0279012,-0.017849991,-0.02547369,0.09295167,0.026882745,0.07317709,-0.021149315,-0.087993644,-0.12162605,0.030030841,0.06696365,0.08171627,-0.015604163,-0.077990234,0.11346495,0.033708423,-0.004036999,-0.03841603,-0.061912168,0.0062941,0.016828848,-0.0120003885,0.06374882,0.043573145,-0.13124734,-0.12539312,-0.15869763,0.034366183,0.08752659,0.077450246,-0.0011643952,-0.10467342,0.058449175,-0.05219964,-0.08230107,-0.03702652,0.039167807,0.0058044405,-0.020941408,-0.052452385,0.03618716,-0.066153646,0.08047422,0.0444458,0.028139122,0.05227634,0.115062356,0.04135073,0.09750741,0.06916824,0.13880187,0.14256501,0.008913329,0.0055848174,0.064061075,0.015562131,0.015685664,-0.098851874,0.007974626,0.032346457,0.03746833,-0.040669512,0.013393892,0.012235014,-0.0037514358,0.001502408,0.11963077,0.0077720485,0.060198605,0.01788076,0.061450772,0.050279945,-0.040382463,-0.06650155,0.013824599,-0.03853694,0.034747753,0.06199627,0.0067793448,0.081599325,0.05153209,0.06524526,-0.004653755,0.02284473,0.085506104,0.0543534,-0.18220182,-0.0004051853,0.071993575,0.062199615,-0.032843858,-0.10799711,-0.07542034,-0.055463396,-0.007430924,0.035928737,-0.059251424,-0.037037805,-0.038410593,-0.08694026,-0.065009534,-0.031496923,-0.08058455,-0.12135317,-0.0755741,-0.0900675,-0.093481295,0.08145095,0.008420929,0.06475291,-0.014564076,-0.12312873,0.03244433,-0.01980851,0.08383661,0.08270674,0.017786734,-0.06927112,-0.08955677,0.060865905,0.021195246,0.0064472025,-0.038001962,-0.042026132,0.052773487,-0.030850435,-0.07187564,-0.08649745,0.053471245,0.037754875,-0.0024513702,-0.11407384,-0.07078135,-0.0668351,0.015066071,-0.072953954,-0.034243308,0.019908309,0.01235782,0.015803399,0.029879197,0.029078638,0.02021158,-0.09027271,-0.07933834,-0.020597475,-0.0057358984,-0.022964532,-0.1378409,-0.14118335,-0.11204523,-0.047227427,0.00900166,-0.030465705,-0.09690041,0.0012085267,-0.070983924,-0.028967783,-0.11882218,-0.039420888,0.055331,0.13680217,-0.051821325,0.043893475,0.13832477,0.03367814,0.0044780085,-0.075064756,-0.051353186,-0.005328235,-0.07334718,-0.048152007,-0.012050189,-0.13729823,-0.065931976,-0.083758436,-0.14023073,-0.04861437,-0.0015971701,-0.0458813,-0.10418095,0.010292891,0.03766194,-0.072200246,0.020274065,-0.053801715,0.020688605,0.04097845,0.018598465,0.040521614,0.016421286,0.07226259,-0.009531254,0.038659886,-0.011910515,0.052664593,0.045753404,0.03627161,0.024516633,-0.011294569,-0.04084884,-0.060266912,0.055352744,-0.06568768,0.022018952,0.001812753,0.01064479,-0.10218681,-0.046599083,0.049515348,0.06473489,-0.100985624,-0.13026732,0.008695746,0.092946164,-0.01722469,-0.07724987,-0.026334658,-0.07772824,-0.031925313,0.015059799,-0.027077036,0.012388877,-0.012507855,0.12664507,0.07556276,-0.008232011,-0.016512156,0.12043207,0.086160794,0.042874515,-0.04101111,-0.019409725,0.03276713,-0.025376659,-0.04726434,-0.09076368,0.04952451,-0.08013725,-0.05160788,-0.00841276,0.035626832,0.0044295294,0.081646055,-0.0016566652,-0.017831564,-0.009941632,5.621343e-05,0.02762796,0.079879366,0.021739148,-0.016407615,-0.003649264,-0.060677093,-0.08249806,-0.07768209,-0.053346988,0.04043701,-0.07890099,-0.02171141,0.040497307,0.08275497,0.05611442,-0.06665103,-0.047326166,-0.007938916,0.111855224,-0.07505561,-0.049173545,-0.08726341,-0.009526282,0.14976257,-0.063275985,0.029067589,-0.030303497,-0.040579975,-0.058819145,-0.05175007,-0.005512033,-0.11933076,-0.09940365,-0.011531055,-0.08390082,0.011315465,0.0048537985,-0.054903477,-0.010844677,-0.051498033,-0.020393765,-0.014554267,0.0048600016,-0.097319126,-0.04898646,-0.008554457,-0.029028164,0.034866642,-0.007493323,0.028856058,0.012421448,0.04940429,0.032110646,0.050511766,0.0834569,0.06193939,0.098682426,0.06748091,-0.017631615,0.05441721,0.007668673,0.031650133,0.020130947,-0.10038708,0.054271746,-0.04148897,-0.1560048,-0.06259131,-0.08147795,-0.086729564,0.022845816,0.16011307,0.13544379,0.11028359,0.0121434145,0.11059308,0.11428832,0.022226004,0.01807991,-0.0021263643,-0.09402225,-0.023377154,-0.023331974,-0.034546662,0.054283574,-0.019650562,-0.010371449,-0.084697515,-0.08925154,0.08399678,-0.012485159,0.029429143,-0.05625954,-0.0073580537,0.042574093,-0.024447793,-0.050931998,-0.040729173,-0.009969076,0.067486905,0.038981427,-0.019420413,-0.028561411,-0.037980236,-0.06254546,-0.09502604,0.06252213,0.06292242,0.06356065,-0.001175205,-0.052562613,-0.11874151,-0.08417198,-0.024246413,-0.07646976,-0.10080431,-0.10323631,-0.016020989,-0.02285529,-0.017981423,-0.012497057,-0.080713995,-0.064919814,-0.0026399142,-0.033796083,-0.077730745,-0.12690042,-0.11710728,-0.07383194,-0.010130544,0.051140893,-0.041960735,0.023792464,0.025198588,-0.045391817,-0.0037171107,0.03979062,-0.06568374,-0.070418395,-0.0363218,0.007356358,-0.058579966,0.0693164,-0.012490901,-0.04056875,0.07742446,0.10758893,0.10612544,0.06789236,0.00862278,0.08627958,0.10829477,0.03532337,0.021567585,-0.023849513,-0.15713175,-0.1423955,-0.048119195,-0.036563605,0.076674744,0.07099574,-0.013250698,0.0688674,-0.054852147,0.10028056,0.038080197,-0.00065396144,-0.09799745,-0.06912066,0.041343246,0.02118059,-0.029499967,0.049406473,0.0887054,0.0004476334,0.031978708,0.027752291,-0.027991509,0.07278726,-0.06210616,-0.06435039,-0.06365783,-0.078461744,-0.01756124,-0.06974964,-0.057062864,-0.034758642,0.049421337,-0.03989205,-0.03459235,0.0570558,-0.042701457,-0.027380941,0.0433168,-0.021618761,0.030792406,-0.054895654,-0.038172353,-0.05214526,-0.027244262,-0.06034856,-0.022921426,0.020267766,0.040721882,-0.07598038,-0.06804284,0.063321084,0.0031330797,-0.0030876687,0.08178558,0.049387768,0.010265878,-0.09590714,0.019239226,0.06205715,0.011391958,-0.056582842,0.02171482,0.020572474,-0.008898682,-0.03254968,-0.019187639,0.037299294,0.11907796,-0.027674038,-0.027838709,-0.048806556,0.029351352,0.07542215,0.08421598,0.057412073,-0.03795822,-0.07724571,-0.02316667,0.013180855,-0.022613373,0.029119682,0.008511481,-0.018235896,-0.006444479,-0.07130902,-0.00077055796,-0.06506505,0.0025445765,0.0063143442,0.011010207,-0.0626176,-0.0054388917,0.026876237,0.038590554,-0.06663705,-0.030692043,-0.0774473,-0.07002474,0.013372191,-0.019962663,-0.012460257,-0.016285965,-0.049233243,0.0045163296,-0.026616868,0.090752035,-0.057352003,-0.10198662,-0.014358517,-0.08463749,0.070638195,0.023421017,-0.044145726,-0.056788944,-0.0974338,0.057836127,0.09538848,-0.0009927971,-0.061093807,-0.027187197,0.0011149345,-0.00063961744,-0.059064094,-0.00877621,-0.099589534,0.00046451902,-0.0044010775,-0.02620495,0.06565952,0.046689857,0.031991187,-0.067138255,-0.040313378,-0.009220457,0.009189557,-0.045943186,-0.009484565,-0.005697169,-0.09427919,-0.086677276,-0.049110796,-0.04883331,0.05574912,0.01788464,0.0666904,0.009254837,-0.05513988,0.05379418,0.07565063,-0.025375139,-0.010465648,0.03984578,0.058451045,0.084334634,0.041995574,0.15776105,0.06543379,0.11225603,0.012310301,0.031598933,-0.047202688,-0.071013965,-0.019901264,-0.033401597,-0.05713389,-0.13535847,-0.11406995,-0.00040263563,0.051760264,-0.057252616,-0.132709,-0.021915784,-0.008496752,-0.06821436,-0.06816307,-0.12037671,-0.086190596,-0.058735184,-0.100966126,-0.016557528,-0.11674519,-0.07070373,0.05325568,0.026077548,0.09165195,0.06911318,-0.01234704,0.0691423,0.011345193,0.07582215,0.0069506145,-0.01606288,0.19450803,-0.13544211,-0.058316972,-0.0070730103,0.017037082,0.11891991,-0.062493015,0.016334852,-0.08962607,-0.02381389,0.11995356,-0.11942756,-0.087437615,-0.002004455,-0.087870754,0.048006903,-0.009265154,-0.06819847,-0.052890975,-0.0725436,-0.0037295418,-0.09449403,0.018511498,-0.09416472,-0.06471241,0.101544276,-0.107591994,-0.1149808,-0.06411901,-0.026462784,0.08352101,-0.09711429,-0.06259654,-0.011806978,0.020032356,0.07592636,0.0096747875,0.051219244,0.0048990734,0.013432801,0.09439838,0.07172188,0.066013455,0.026142307,0.06253975,0.06450777,0.121636495,0.04593317,0.035721596,-0.044295266,0.047994208,0.17489995,-0.01329388,-0.019389346,0.007269272,-0.017882973,-0.059994016,-0.13539012,-0.03563938,-0.11204923,-0.10206332,0.041891523,-0.046052445,-0.094449036,-0.11953313,-0.04297293,-0.023417167,0.018077724,0.04396106,-0.0055659353,-0.030906564,0.01244637,0.10125992,0.056746576,0.11903412,-0.09521712,0.048263486,0.10718072,0.04994112,-0.04786064,-0.063374795,0.11784136,-0.017421095,-0.028668953,-0.11306667,0.011423982,-0.032981474,0.031214183,-0.036252506,0.013928643,0.05087474,0.048890393,-0.027283704,0.011691934,-0.025203923,0.004448136,-0.06730815,0.033239,-0.032425795,0.034939535,0.018003305,-0.047615055,0.047296464,-0.033305913,0.013822067,0.030643344,-0.023576519,0.005092967,-0.038170725,-0.034447763,-0.017244825,-0.032831617,-0.114594184,-0.047027867,-0.019309344,-0.049683556,-0.025224533,-0.005665311,0.03505462,-0.06976922,0.03091158,0.06505727,0.10603201,0.18764694,0.13755125,0.08840236,0.041786857,0.15238798,0.11684647,0.07400234,-0.04955494,0.00010709003,0.011439335,-0.045856215,-0.06314802,-0.07076255,0.031449262,-0.031423982,0.01582411,0.035994537,0.051653445,0.027282609,0.018645091,0.060924076,0.04884924,0.04394259,0.08250208,0.042870637,0.03792841,0.008593549,0.04883112,0.04118614,0.00500424,0.04841319,-0.015035104,0.00074781856,-0.049537994,0.080106206,-0.037298,0.02242595,0.037855566,-0.0643432,-0.017570803,0.034580417,-0.07818525,-0.044358164,-0.04999529,-0.017148485,-0.01265401,0.008581921,-0.06151834,-0.06886802,0.019118706,0.04540024,0.013652914,-0.04209111,0.057880692,-0.06255301,-0.07210543,-0.0038559232,-0.08052551,-0.039409112,-0.029199647,0.03651676,-0.010986274,-0.056082923,0.03411052,-0.043036457,-0.03788799,0.02866065,-0.049316414,-0.012443478,-0.0030934808,-0.052882873,0.017343583,0.072362654,0.050869107,0.04194222,0.11467541,0.12405389,0.07494471,0.05789028,0.08684369,0.12815005,0.00065923063,0.03718448,-0.047701698,0.0049634166,-0.012414066,0.035625316,0.09191355,-0.033852767,0.026330203,-0.0471096,-0.010973977,0.0055531957,-0.03718835,0.049784128,0.10938241,0.105500095,0.10746092,0.019831676,0.10532785,0.09288951,0.10575713,0.06825781,0.08962793,0.0066675763,0.09803341,0.049589127,0.07688013,0.040366065,0.022189591,0.01460848,-0.007034342,-0.081176795,0.032596085,-0.050350755,-0.10918416,-0.0668781,-0.008946814,-0.07688356,-0.05841122,-0.014291953,-0.06095634,0.0244387,-0.07750985,-0.10842903,-0.07208779,-0.031022878,-0.00018255781,0.0017094905,-0.10587524,-0.011275592,-0.019947272,-0.035743903,-0.085175425,-0.06766768,-0.05979995,-0.057125416,-0.059854597,0.013815262,0.0021441125,-0.008404133,0.02553424,0.022952525,0.018979574,0.03799788,-0.08278024,-0.051542185,0.0006810621,-0.060912393,-0.11082616,-0.046514597,-0.050364856,0.027259355,-0.13589944,-0.013311782,-0.015695347,-0.03924699,0.02528806,-0.08009462,-0.052393835,0.00085309934,-0.007079791,-0.05804208,0.048686422,0.0066897813,-0.07234414,-0.057518773,-0.077887714,0.021929119,0.03758073,0.07221193,0.011378487,-0.06786987,0.09749457,0.045956243,-0.0014577358,-0.045011614,-0.04831588,0.057686117,-0.06618559,0.028577674,0.04892799,-0.063812084,0.0021106403,0.022075683,-0.00055843283,-0.09108214,-0.088608995,-0.008294984,-0.05142485,-0.0027514014,-0.12688084,-0.068715334,0.001223276,-0.047174033,-0.009382721,-0.08370466,-0.0069765733,-0.013621237,-0.008481658,0.0036872297,-0.05867749,-0.05295232,0.011957702,0.041236438,-0.044705,-0.041309368,0.015785975,-0.03341513,-0.089728124,-0.08732512,0.010665227,-0.059422754,0.020334851,0.023448408,-0.047424734,0.027598286,-0.06101685,0.029371617,0.009750419,-0.071910806,0.043508872,-0.07093542,0.034019064,0.021968149,-0.045359958,-0.038670063,-0.06453535,0.05727377,-0.025335897,-0.015956039,-0.055646934,0.004762128,-0.006542352,0.064650305,0.03811714,0.053501587,0.029958868,-0.13405362,-0.1260633,-0.044614002,-0.01783418,-0.04605696,-0.11041987,-0.036988277,0.03941286,-0.02225171,0.038083423,-0.099880256,0.06461854,0.10547201,-0.009049608,-0.022621183,-0.12456976,-0.113403626,0.0015399836,-0.052392557,-0.026141683,0.017750194,-0.033912707,-0.06518563,-0.06378528,-0.044079237,0.040886987,0.037209086,0.04316737,-0.028029757,-0.057466947,0.0010862323,-0.023759952,0.044737797,-0.02602343,-0.06498015,-0.009371887,-0.093443386,-0.011858945,-0.0143734235,-0.000264869,-0.035546996,0.061397526,-0.016470348,0.03802458,0.011790477,0.004089454,0.048924364,-0.045920607,0.046516903,-0.01757325,-0.047950555,-0.043199513,0.046648134,0.11163044,0.07487557,-0.07135306,0.05599204,0.02880321,0.06651712,0.033846743,0.010804423,0.0072891004,-0.0868905,-0.09033099,-0.1359655,0.07023295,-0.0012595196,-0.09405345,-0.08732076,-0.123349495,0.0635809,0.06077741,-0.012121052,-0.087899216,-0.050087366,-0.07143948,0.0027084183,0.031721886,0.03107529,0.011283354,0.015847279,0.015399095,0.102463596,0.03160318,0.03343004,0.046442,0.11507485,0.114884466,-0.018719574,-0.049279924,0.023870759,-0.006513608,0.044770844,-0.058057968,-0.009992592,-0.058848094,-0.0420218,-0.025683822,0.0009403561,-0.0015409807,-0.029475462,0.09974239,0.060221225,0.10347973,0.043952174,0.095594384,0.086449236,0.07451277,-0.0072593237,0.02123534,0.033278853,-0.040741272,-0.011955567,-0.081660844,-0.0023456188,-0.039482903,-0.02311342,-0.056797765,0.03581283,-0.019460354,-0.016513588,0.0044922368,0.034346208,-0.022324296,0.012551051,0.03236002,0.11936194,0.085152335,0.017962039,0.00019104837,-0.017373504,0.09327516,0.053552426,-0.03959725,-0.06508996,-0.012915389,-0.014887415,-0.08149613,-0.11756762,-0.00044042582,-0.019917829,-0.04235187,-0.07624812,-0.08341987,-0.087744296,-0.016444787,-0.1001933,-0.06807184,0.0026518411,-0.06946336,-0.0028425006,-0.010235853,-0.04068933,0.032483865,-0.005401288,0.08818938,-0.04276465,-0.008458543,-0.063222766,0.0006278074,-0.037418596,-0.02410399,-0.100099646,-0.055190407,-0.062739044,-0.037453227,0.0039351773,-0.011399678,-0.089062266,-0.025174547,0.005295711,-0.035606008,-0.022828005,-0.047237303,-0.00770567,-0.04595259,-0.008625861,0.020374058,-0.0068511837,-0.0671865,-0.012731404,0.023702588,-0.046608448,-0.056877878,-0.13989078,0.050024938,-0.07294155,-0.050465193,-0.1303352,0.002031847,-0.036162317,-0.08532116,-0.03352759,-0.029653938,-0.038157888,0.098856546,-0.000536496,-0.005558697,-0.077944115,-0.08324083,-0.04949716,0.012555176,0.123868786,0.088753946,0.07158344,-0.0211791,0.018387612,0.11377312,-0.007817136,-0.00316251,0.08804643,0.07032699,0.025147744,-0.07698235,-0.034563635,0.04474499,0.00672104,-0.15595476,-0.100012116,-0.14275253,0.07454797,-0.00069236977,-0.0189745,-0.09739688,-0.022608655,-0.017427357,-0.032264587,-0.036815427,-0.028067196,-0.008513025,-0.034931432,0.004514787,0.038692415,0.111357555,-9.066252e-05,-0.0816277,-0.022727292,0.015055092,0.048032064,0.089891165,-0.07373019,0.030924719,-0.059379525,-0.0012147991,0.02974305,-0.051580958,0.03552686,-0.04510214,-0.075795844,0.006254385,-0.08006499,-0.10682474,-0.021937191,0.10207259,0.031036148,-0.085323825,0.033523235,-0.03413615,-0.06960652,0.039240554,-0.0049486374,0.11422497,0.033420134,-0.17087537,-0.107596114,-0.0686201,-0.027085742,0.09384518,-0.018789994,-0.033922456,-0.03425175,-0.036003202,0.017935831,0.055885974,0.0016302242,-0.016135331,0.0217539,-0.033903733,-0.04063956,-0.032574806,0.029242873,0.058557592,0.082577206,-0.0040925853,0.024386976,0.023598526,0.047586817,-0.07838483,-0.0043043992,0.11620986,-0.08585094,-0.06728809,-0.101066925,-0.048783366,0.06470825,-0.07151423,-0.010821396,-0.065933876,-0.0014575887,0.000110227935,-0.035910003,-0.1251752,-0.0077862456,0.040682666,-0.1055205,-0.106653556,-0.015300114,0.013239689,0.11749873,0.005120766,-0.05496009,-0.015955398,-0.029856103,0.13962357,0.062479082,-0.0063219094,0.009493942,0.048821464,0.021212157,0.017556258,-0.10953768,-0.05798894,-0.043130286,-0.07082872,0.015357016,0.03529603,-0.079055525,-0.023680566,0.108943895,0.07948643,-0.080368616,-0.027308617,-0.0047179735,0.026493873,-0.0073811146,-0.046920154,0.054689184,-0.013134631,-0.014977694,-0.080048,-0.071305536,0.05466343,0.09028045,-0.061672576,-0.057993118,-0.009129574,-0.010782148,0.010534943,-0.0770547,-0.06734372,0.06146177,-0.0123071205,0.06253306,0.005270338,0.008070434,0.015123128,0.05341683,0.05099243,0.09028399,0.0039304425,0.049971763,0.09842781,0.07910915,0.062301815,0.029177826,-0.04161396,-0.055809837,-0.08620771,-0.087967254,0.07101103,-0.028987022,0.04379592,-0.0056340187,-0.123052776,0.011791582,-0.051388197,-0.023510648,-0.097148135,-0.07109893,-0.013899236,0.031808004,0.028910704,-0.10896602,-0.014766481,-0.08353785,0.055799842,0.0013547251,-0.029498117,-0.061733637,-0.084094815,0.062729664,0.04653063,0.0668328,-0.016407838,0.035359025,0.0030606568,-0.058571294,0.074168906,0.022295961,0.020927686,0.0010664274,-0.09000374,-0.1578003,-0.013834045,-0.043033153,-0.04253302,-0.040770676,-0.019133208,-0.048827406,-0.0243652,-0.023415219,-0.12039529,-0.06292644,-0.15607575,-0.06880746,-0.042757258,-0.0430688,0.060909286,-0.08660228,0.032691084,-0.00022902593,-0.026631413,-0.001055028,-0.02549537,-0.014642231,-0.094873644,-0.034188148,-0.0028549202,-0.11517268,-0.1292153,-0.027523974,0.06482531,-0.045938227,-0.07112091,-0.16533403,-0.0123604,0.052425437,0.06392357,-0.006189646,-0.01704408,0.03716159,0.060939547,0.06171962,0.13368101,0.21229327,-0.028117392,0.10498805,0.07778761,0.07047255,0.031219741,-0.16693062,-0.116688095,-0.01327607,-0.059409454,-0.03512088,-0.019455945,0.052542236,-0.013767457,0.0043395255,-0.06634021,0.041740555,-0.04327518,-0.11136167,0.0851702,-0.04281743,0.006867288,-0.05527462,-0.07876051,0.07131804,-0.043996513,-0.108850054,-0.013842994,-0.02624662,0.02618235,-0.011006167,-0.03728446,0.012030782,-0.058637243,0.020476338,0.06565028,0.036264926,-0.065216355,-0.014135533,-0.037294008,-0.03416463,0.059773415,0.062127303,0.030038292,0.041292958,0.036636874,-0.022926467,-0.04111414,-0.04996064,0.057772473,-0.06640084,0.03580316,0.024318423,-0.028548509,0.04689222,0.019936334,-0.036169633,0.04977229,0.040714975,-0.05373562,-0.16485177,-0.02827866,0.037654042,0.20241985,0.14268099,-0.020153588,-0.034380864,0.056520015,0.07599048,0.086916,0.08772158,-0.063498676,-0.11025418,-0.16042377,0.018913036,-0.024454169,-0.0022090313,-0.028494183,-0.04896167,-0.107173994,-0.10808301,0.020789236,-0.025935354,0.0008612384,0.06305465,0.06838135,0.024468873,-0.07495202,-0.04725889,0.0064348225,-0.026085194,0.043024924,0.050804555,-0.07022175,-0.006554993,-0.013302899,0.049621843,-0.009131855,0.021572677,0.008653787,0.042818017,0.040821765,0.07317997,-0.027671147,-0.022812808,-0.024758415,-0.045087017,0.018325891,0.024889508,0.047428366,0.10360373,0.018307664,-0.043262374,0.0075817574,-0.04935291,-0.0067717503,-0.0683871,-0.10088561,-0.15403426,-0.06755725,-0.026558664,-0.05458172,0.021102684,-0.020911118,-0.06956456,-0.110001735,0.052102707,0.07156784,-0.013815467,-0.020744083,-0.04740266,-0.0027676355,0.020995516,-0.014708484,-0.012592916,0.008633277,0.05918227,0.056188256,0.02311287,0.012307047,-0.08659764,-0.02015369,0.013008688,0.015918907,0.055191364,-0.07408027,0.06505594,-0.02923439,0.002069586,-0.025351508,0.06567285,-0.033953268,0.022076713,-0.08652177,-0.005868837,-0.04521263,0.050729807,0.06751286,0.11842849,0.13083406,0.11516337,0.06753974,0.034634273,-0.10601892,0.04727207,0.13847196,-0.09532609,-0.0848239,-0.053672865,-0.050750405,-0.013588398,0.029294409,0.0037187377,0.07899932,-0.030852474,-0.03773289,-0.038746726,-0.04138327,0.09290605,0.027621837,-0.069653295,0.009412295,0.028354624,-0.012144991,-0.09794531,-0.16256066,0.0020993997,0.014440958,-0.0009837952,-0.00043854522,-0.10787317,-0.10792919,-0.08653975,-0.024524283,0.040489323,-0.08506549,-0.082687445,-0.030663941,-0.004726434,0.08290755,-0.068669856,-0.04178484,-0.059258666,0.039002463,0.0053412304,-0.029686501,0.056990985,0.030322397,-0.077134,-0.06683036,-0.029326921,0.035866026,-0.027802523,-0.042990535,-0.020630017,-0.0423556,-0.0027811506,-0.05725502,-0.04173799,-0.028471665,-0.05524825,0.0044121966,0.0057573267,-0.071181074,0.005624336,0.009325228,-0.05423349,0.006875467,0.020648295,0.016860535,0.019172309,0.009061529,0.096003465,0.121878184,0.009749393,-0.019939207,-0.063788116,-0.022433361,-0.06317603,0.044648238,0.050645795,-0.1164971,-0.18138666,-0.16450372,-0.006797937,0.022945542,0.052804038,-0.027409356,-0.03903914,-0.07776483,-0.07420538,-0.06436346,0.039912883,0.053022075,0.064285904,-0.03355349,-0.106539465,-0.06724857,0.106128775,0.0031264266,-0.079937786,0.033839047,0.09354672,0.00967606,-0.04681157,-0.044691514,-0.015947448,-0.11509367,-0.22266003,-0.09762686,-0.080168076,-0.06723782,-0.054903068,-0.11873071,-0.04644437,-0.05016106,-0.005813057,-0.014485386,0.051595807,0.039462928,0.07516738,0.07270607,0.060922638,-0.05027393,0.061791673,-0.014936659,0.08868529,0.01293359,-0.01553224,0.0021551964,-0.050650258,0.026053973,0.012242085,-0.030612143,0.04989551,-0.01181009,-0.033376463,0.054124277,-0.04239936,-0.019175962,-0.031735953,0.013472234,0.06231654,-0.019650292,0.008448102,-0.02303445,-0.013995524,0.037495717,0.06671698,0.0491516,-0.085172944,-0.05337631,-0.015619637,-0.1750549,-0.14052615,0.021928448,-0.08580042,-0.13316424,-0.15137723,-0.020819673,-0.019773334,0.0014540075,-0.1097879,-0.024696864,-0.09870512,-0.116125554,-0.07547452,0.016979594,0.08274939,0.12875102,-0.08954031,-0.07054232,0.043691497,0.030575765,-0.01928162,0.0025193475,-0.020782754,0.04771517,0.03437909,0.06362891,0.01217062,0.034500863,0.043844614,-0.054367375,-0.06254358,-0.013727948,-0.010443003,-0.04137367,-0.10486467,-0.08101679,-0.05065012,0.016350523,-0.105591804,-0.016107647,-0.04109097,0.047286216,0.12125787,0.06617048,-0.09298102,-0.015901214,-0.051699948,0.03997136,0.008424748,-0.02088432,0.008491455,0.07784892,0.15228508,-0.037866365,0.08611147,0.1182651,0.065418676,0.08902437,0.038503032,0.02182407,0.088974215,0.061365455,0.031642042,-0.007395236,0.09033498,-0.0143245105,0.12617227,0.0275455,-0.028536769,0.070728056,0.013984163,-0.09272221,-0.009018673,-0.06959829,-0.03601626,-0.072202384,-0.03729688,-0.010328684,-0.0010753155,-0.05266626,-0.048522536,0.06576328,-0.046938416,-0.06601233,-0.051473655,-0.03767038,0.0056902994,-0.03670536,-0.016836042,-0.0629572,-0.0535416,-0.07014349,-0.026354577,-0.043692116,-0.088483214,-0.077515736,-0.01159982,-0.0703662,-0.06256288,0.024087202,0.122450866,-0.050687972,0.025766473,-0.0078112017,0.027743313,-0.024498168,-0.10644253,-0.07380976,0.06781028,0.0029017231,-0.18051283,-0.049397714,-0.013467792,-0.033339575,-0.08781089,-0.06345393,-0.0053645805,-0.03198072,-0.0003391124,-0.008520107,0.03768083,0.013186401,-0.037505563,0.021826115,0.11257454,0.06626716,-0.038994096,-0.100576356,0.10957575,0.13623083,-0.031708952,-0.09501917,-0.08768688,0.107091665,0.057550084,-0.04856886,-0.087186195,-0.0008049069,1.904287e-05,0.090533614,-0.044764012,-0.13333364,-0.10438871,0.083426714,-0.025572624,0.102320254,-0.012256896,-0.08247687,0.019263664,0.13022584,0.10400058,-0.058107447,0.05043121,0.05378426,0.03030686,-0.089981236,-0.10081605,0.053690005,0.15734385,0.11907868,0.016123265,-0.08684955,0.020408629,0.030053098,0.07963964,-0.042054646,-0.049334932,0.011517079,-0.08475781,-0.1335073,0.036166493,0.019887438,-0.04279874,-0.07533681,-0.051970072,-0.012038784,-0.020115258,-0.051644597,-0.036182094,-0.0027800263,-0.07980266,-0.11139744,-0.045243416,0.00027114732,-0.075463966,-0.05182146,0.0069788867,-0.031571597,-0.062136725,-0.115771815,0.03674706,0.061740246,0.0043982416,0.020199405,-0.07866548,-0.09780469,-0.036410995,-0.00619743,-0.06647988,-0.09919453,0.056175906,0.046962358,0.047242712,-0.12098021,0.032820858,0.14219543,0.0895021,0.0049759666,-0.10221376,0.14974743,0.14999662,0.023129253,-0.031736396,-0.09061945,0.04183729,-0.018230654,-0.034854814,0.08994818,-0.040590968,0.06297564,0.034467462,-0.020641059,0.0646462,0.03883831,0.084306814,-0.027788812,0.02643707,-0.049263522,0.0094813155,0.038132936,0.018990578,0.034711752,0.019644994,-0.002197476,-0.03908487,0.009395273,0.036921747,-0.066480994,-0.08058557,0.013171107,-0.011286982,0.03612317,0.0047153,0.07494774,0.11878129,0.059569392,0.06466076,-0.067110114,0.05556363,-0.0091358,0.11744793,0.05455938,0.17515741,0.021326572,-0.058249805,-0.05291545,-0.020661213,0.033201575,0.10989583,-0.02347868,-0.09853581,-0.08006779,0.046859153,0.048977535,-0.046121083,-0.029848104,-0.052084412,0.051703937,0.03217223,-0.014796869,-0.07337873,-0.035912264,0.055186808,-0.015468883,0.0331631,-0.011834481,-0.08641545,0.009872044,0.047644585,0.07741689,-0.032802925,0.0238319,-0.07834757,-0.07229724,0.04746262,-0.045027003,-0.029901924,-0.0033633753,-0.106330514,-0.06595279,-0.037933562,-0.05587761,0.008827878,0.017142976,-0.048257716,-0.04914965,0.014127682,0.010966449,0.034147277,-0.032866057,-0.087165385,-0.028878944,0.008923832,0.03203048,0.0035025869,0.0045387875,0.04645319,-0.07490561,-0.0012844211,0.0565623,0.017587386,0.07598714,0.004484887,-0.048182335,0.0046570357,0.07071613,-0.038254842,-0.0708577,-0.07332621,-0.033118244,0.094721206,0.07905381,0.03079768,0.015710892,0.036109995,-0.04277202,0.009237322,-0.044448756,-0.03758021,-0.020181803,-0.049606442,-0.06572046,-0.0021218406,0.05178807,0.032676127,0.025735363,-0.012842167,-0.045270402,-0.017003201,-0.010140589,-0.038357545,0.06502146,-0.0053071217,-0.015320135,-0.055682722,-0.044401936,0.00935985,0.07176338,0.02682503,-0.07267261,-0.0026059602,-0.045744188,0.09598959,0.10595266,0.08331465,0.019460754,-0.039275367,0.0020985059,0.062377594,0.045297384,0.052277774,-0.076757684,0.038106482,-0.11159472,-0.08686875,-0.052900553,-0.08716778,-0.16665371,-0.003172036,0.01979108,-0.05711319,0.006249678,-0.123211734,-0.11949511,-0.100339964,-0.07784815,-0.055107765,0.00017653467,-0.07046277,-0.065845266,0.017530795,0.0026655844,0.04574759,0.051428486,-0.045271426,-0.021115372,-0.024177393,0.041483883,0.02666005,0.04524059,-0.096162364,-0.09059083,0.0032283629,0.078010246,-0.04579546,-0.09008074,-0.08561596,-0.05635282,-0.06422516,0.029133037,0.029530695,0.024595484,-0.0966196,-0.03732553,-0.047241557,0.033124905,0.022944737,0.015534297,-0.006994757,-0.03793718,-0.08394801,0.0073574875,-0.040932674,0.04656737,-0.099880844,-0.07702143,-0.020217774,-0.09035983,-0.03868357,-0.13660754,-0.041375183,0.025979014,0.033536717,0.03177845,-0.07495175,-0.042579755,-0.03486036,0.05171722,0.031252515,0.0122005055,0.09043769,-0.026204713,-0.004431278,0.10774373,0.024480231,0.060108,0.044673186,-0.07872854,-0.010734435,0.05169004,0.07523408,-0.05819314,-0.094868995,-0.14003739,-0.0530187,-0.04037214,0.0015660387,-0.06161929,-0.11908186,-0.12413788,-0.040213913,-0.029282855,0.011439587,-0.04716067,-0.008425149,-0.096105576,-0.025453284,-0.07635274,0.011477029,0.018284012,-0.027958559,0.03132584,0.011547386,0.025927177,0.018035358,0.08204271,0.07346038,0.021288505,-0.0062185237,0.03937112,-0.0018645982,0.008022552,0.036867786,0.028770765,-0.0014615166,0.05502647,0.09078213,-0.045391824,-0.032494318,0.05005032,-0.029964298,0.054692414,0.044746142,-0.025918705,-0.009376219,-0.024855804,-0.0018689634,0.014200158,0.0133781,-0.0037606978,-0.00874296,0.04059286,0.037689567,0.0056864014,0.029320624,0.05313071,0.08017828,0.021812716,-0.0666124,-0.027507795,0.020239405,0.14071432,-0.09927493,-0.108352944,-0.06120595,-0.018883904,-0.04322621,-0.09676522,-0.044696286,0.11775677,0.114939466,0.04594422,-0.06480646,0.060437217,0.007473629,0.020385787,0.09080417,-0.054478943,-0.04740427,0.00831259,-0.04181825,-0.101191826,-0.032942463,0.056978047,0.031835575,0.056124177,0.030003512,0.05243722,0.03110146,-0.015761128,-0.011417224,0.09529797,-0.027568284,0.058762655,0.003931672,0.03703819,0.002097818,0.0675795,-0.011088524,-0.057824086,0.022191947,-0.009671686,0.08057065,-0.04567412,-0.06743301,-0.06298003,-0.08474033,-0.006857476,-0.13416815,-0.0067999256,-0.07624559,-0.08943725,-0.04077773,-0.014991106,0.0066278265,-0.025755223,0.06963746,0.0058161886,0.05017291,-0.0052518514,0.09397352,-0.053998828,0.06917922,0.045072578,0.03206965,0.0368808,-0.032156844,0.062502824,-0.039374895,0.015636088,0.00916025,-0.010607792,-0.011369808,-0.010159222,-0.047224853,0.042357635,0.023093145,-0.015299721,-0.06281435,-0.05618143,-0.051598378,0.0072678393,-0.07384268,-0.036438886,0.09086756,0.033143625,-0.024991762,0.05276435,0.08423575,-0.013975622,0.026517373,0.024878224,-0.1017724,-0.097088665,0.001367443,-0.032433983,-0.07362348,-0.06923812,-0.031649984,-0.044013232,-0.038743425,-0.058597285,0.07287001,0.021393701,0.061681677,0.11380583,0.17234519,0.09161944,0.08918018,0.07871905,0.05779099,0.13421504,0.010371981,-0.011011744,0.057198387,-0.015064837,-0.003060922,-0.060370028,-0.112396315,-0.016840907,-0.074559934,-0.054637186,-0.060342453,-0.050382264,-0.045044232,-0.030846212,-0.009392695,-0.0065640723,-0.060568828,-0.06268782,-0.09157541,-0.0637841,0.09817491,-0.00871933,-0.008296715,0.043689895,-0.054089744,0.07127577,0.11096659,0.055656493,0.0021428226,-0.080918476,-0.10253148,0.018699244,-0.07214611,0.009769434,-0.072200954,-0.043102883,-0.0246939,0.018342588,-0.079118714,0.066717625,0.014949543,-0.0123947635,0.004781499,-0.01716,0.056639444,0.069919124,0.031342097,-0.04501697,-0.06530184,-0.09639623,0.05422958,0.020031473,-0.059659228,-0.06198958,-0.13687168,-0.035577558,-0.023987157,-0.12714793,-0.02444248,-0.07973323,-0.073492885,-0.045972817,-0.025009617,-0.107626796,-0.15132472,-0.059743214,0.019310897,0.03232681,0.051896125,-0.044191383,-0.035300672,-0.0034547965,0.0136902835,-0.010468385,0.05324375,-0.002388807,-0.033112083,0.11245638,0.00092997757,0.048017833,0.0458084,-0.034894396,-0.13766156,-0.10485937,-0.05363591,-0.03546061,-0.11649154,-0.1385583,-0.081160605,-0.10564333,-0.09978247,-0.023975711,-0.119261585,-0.12142277,-0.12610658,-0.02361628,-0.028487885,0.03694808,0.0569984,0.018088046,-0.015343053,0.079083994,0.018359978,0.070379905,0.026854346,-0.020945959,0.008633867,-0.08396372,-0.009637873,-0.08456511,-0.020666735,0.0039839703,-0.06610743,-0.0033580074,0.024412103,0.046208266,-0.061187807,0.020016503,-0.02311762,-0.026546808,0.03711941,-0.062163528,0.037496515,0.0008050101,0.004293775,0.06261883,-0.029587572,-0.055100035,-0.06574872,-0.004100562,0.030040026,-0.18781802,-0.1385923,-0.044411883,0.028297208,-0.054754667,-0.077796,-0.068372905,0.060571134,0.10811548,-0.08453725,0.02904446,-0.011935694,0.0693386,0.13707377,0.024673685,0.10622332,0.11878399,0.1335058,-0.02099251,-0.034086116,0.069988206,0.17560689,0.014545865,-0.023624606,-0.07360391,0.0070958547,-0.020187337,-0.085335,-0.0024989287,-0.0053164135,-0.0899686,-0.05911195,-0.082519345,-0.09086301,-0.050556615,0.0054991785,-0.11136931,-0.024251161,0.027470423,-0.1088427,-0.02440414,-0.012908884,-0.06933962,-0.0582851,0.031780377,0.035080653,-0.046140935,-0.025815215,-0.030471936,0.037710145,-0.08116256,-0.0075658388,-0.0530153,-0.077415936,-0.07933052,0.0069262814,0.048416905,0.05535522,0.044325624,0.050329674,0.05782877,-0.038362384,0.017033929,0.020930404,-0.007349703,-0.05068086,0.07674935,-0.0046765776,0.014824202,0.06338217,-0.014210042,0.04823252,-0.035219222,-0.008930383,-0.08269983,-0.11969788,-0.085035995,-0.04400243,0.0456061,-0.086831965,-0.048118215,0.012861359,0.073364615,-0.048569147,-0.07748146,-0.13107195,-0.054569796,-0.028359998,0.09565778,-0.018602373,-0.055066153,0.032655466,0.0030666597,0.13742977,-0.07119065,0.023159187,0.051370937,0.03976508,-0.019576482,-0.15064153,0.02463824,0.08279957,-0.04116184,0.044491526,0.025853228,-0.027915133,-0.09449727,-0.064972125,-0.051179122,0.053136203,-0.12040421,-0.14270677,-0.028067416,-0.002459251,-0.11842089,-0.12205968,-0.062273666,-0.019882265,-0.00040446615,-0.054516926,-0.094517946,-0.076381356,-0.04549435,-0.12427174,-0.00990704,0.121267796,0.06643416,-0.021452611,-0.034650516,0.064902,0.050691076,-0.081045225,-0.041504156,0.010739021,0.028940441,-0.009595447,-0.13739142,-0.03083029,0.032801133,0.068901025,-0.0070576044,0.0137962205,-0.01627502,-0.09627674,0.025329595,0.08356513,-0.010982274,-0.005959461,-0.063564956,0.03946525,0.097841404,-0.051172383,-0.003610998,-0.17911051,-0.004879972,0.011531649,-0.13016386,-0.06750244,-0.07721686,-0.013765693,0.06844641,-0.0908172,-0.07371654,-0.060337923,0.043083593,0.037259083,-0.100113966,-0.14748615,-0.11227795,0.043470223,0.13612047,0.01799008,-0.106866606,-0.1543787,-0.04397701,-0.007110955,0.0355673,0.09399186,0.0075580166,0.013362858,0.05212691,0.015053133,0.1570272,0.06727391,-0.02226914,0.022083666,0.04792246,0.11204394,-0.04489989,-0.16193584,-0.08141335,-0.013464691,0.05656039,-0.093922205,-0.029631652,-0.041779537,-0.0069604884,0.08412397,-0.012844032,-0.087012276,0.025453454,0.13379954,0.12065389,-0.0385124,-0.007212978,0.018845601,0.16953015,0.09704323,-0.027576039,0.019675527,0.07438666,0.07538253,0.03752909,0.025516817,3.2083788e-06,-0.07142821,-0.04125066,0.005897126,-0.01912257,-0.054368455,-0.10061495,-0.035969786,-0.083435185,-0.01731592,0.030393083,0.031775497,-0.05887193,-0.06035548,-0.06331949,0.00829756,0.028299455,-0.0046027317,-0.046881814,-0.029626837,-0.020865444,-0.027451206,0.061685223,0.016721467,0.014447828,-0.032762125,-0.0025569831,-0.028115446,0.032291874,-0.02738543,0.0009894284,0.037206598,-0.048344333,-0.0059177517,-0.007910825,-0.042484112,-0.004956416,-0.009537899,-0.0068823406,0.03345102,-0.03611768,-0.054783285,-0.011195962,0.039135147,-0.025042942,-0.009812333,-0.05592165,-0.063138224,-0.0058882823,-0.011394514,0.012636535,-0.041345432,-0.016836224,-0.03191209,0.019077003,-0.009690489,0.025468186,0.015494193,-0.01052293,-0.042203035,-0.030952692,0.061294693,0.037398923,0.058565814,-0.029746765,-0.06045368,0.041007627,-0.026445989,-0.06293311,0.02499476,0.008453895,-0.04678164,0.024218593,-0.044211484,-0.020429546,-0.0061584697,0.028611375,-0.00079115,0.031095602,0.0063362415,-0.020303035,0.013460886,-0.0446318,-0.047143742,-0.03281268,0.039691478,-0.015570431,0.0020023843,-0.04043699,-0.043103717,-0.027102862,0.014877492,-0.039032288,0.04819629,0.007615308,-0.050489828,-0.05606826,-0.013717245,0.015195773,-0.043467194,-0.04775784,-0.0089547755,0.029579204,-0.029566545,0.04743255,-0.056709297,0.012874264,0.0013636234,-0.010555724,-0.0048265145,-0.01673769,0.04702419,-0.039543312,-0.0577546,-0.020763025,-0.06235963,0.00952513,0.037046913,0.038324006,-0.031247636,0.01488216,-0.026488198,0.0031890343,0.007059702,-0.039598778,-0.054708365,0.045451693,-0.052594896,0.06114864,-0.03510774,-0.009615664,-0.05439673,0.008110646,0.0023846389,-0.013113421,0.045124993,-0.059764277,-0.051038604,-0.06327831,-0.0321976,0.044944044,-0.018575609,0.011875712,-0.009979534,-0.022200948,-0.03622411,0.029835142,0.051692035,0.053285293,-0.041303627,0.032993253,-0.034829915,0.01882277,-0.036746163,-0.021211743,-0.009186775,-0.013571578,-0.03352635,0.021904057,-0.01757564,-0.042360418,-0.015233349,0.0031741438,-0.026566295,0.015584459,-0.03837592,-0.0069721676,0.0110944435,0.03426002,0.004157792,0.05985262,-0.038796358,-0.015061553,0.01475707,-0.03080995,0.040098052,0.052545458,-0.04776426,-0.04496858,0.024399564,-0.061902475,0.03906177,0.04629809,-0.005792068,0.049840234,-0.008807087,0.028993474,-0.049722712,0.047342613,0.024158785,-0.049549278,-0.031837277,-0.010041744,-0.0134411715,-0.018371731,0.041178357,-0.018494891,-0.048120137,-0.037258957,-0.01627589,-0.041325938,0.023025114,0.0053133136,0.014490422,0.018273493,0.06074855,-0.043525096,0.030158374,-0.022108985,-0.012884843,-0.010078533,0.035874616,-0.018533332,0.02714442,-0.037479606,0.027490854,-0.04791055,0.04057161,-0.015920505,-0.0022779424,0.002857364,-0.025878413,-0.01408022,-0.0022123102,-0.032036066,0.01905742,-0.026351914,-0.013593914,-0.019654725,0.034449533,-0.06000504,0.04965428,-0.04635911,-0.035755325,0.0026297413,-0.026213272,-0.017127465,0.04044897,0.058122523,0.03490341,-0.008974035,0.058900006,-0.06037432,-0.006294181,0.009436208,-0.017672151,-0.01931779,0.008043003,-0.060530394,0.014324715,-0.02942312,-0.010411152,-0.010803542,-0.025789108,-0.06145184,0.024128681,-0.026574297,-0.037133668,0.022037253,-0.015969267,-0.016246716,-0.07102642,-0.084762774,0.022982448,0.026611637,-0.031912483,0.048148368,0.06077267,0.017582435,0.038641468,-0.029479155,0.0035150456,0.014616316,0.0085991705,0.023531653,-0.034506965,-0.043811183,0.022737268,0.016729584,-0.044813115,0.026109632,-0.036708694,0.039088283,0.040987022,-0.027985651,-0.047775213,0.03421013,0.06839445,-0.014794795,-0.016917916,-0.035708964,0.023964934,0.04922654,-0.01909839,0.010173164,0.0804143,-0.03733403,-0.08198695,-0.054524317,-0.012244714,0.16955741,0.105119504,-0.021158619,-0.067689694,-0.085648894,-0.019285247,0.075796284,0.04462723,0.0018538138,0.016861668,-0.06028406,0.0052811652,-0.04626939,-0.06850896,-0.0421384,-0.020871159,-0.0043535046,-0.026362706,-0.047145624,-0.012370318,0.037296556,0.044890314,0.11110562,0.055854734,-0.048840247,-0.024061657,-0.03598293,-0.009278286,0.045533415,-0.03673175,0.014760569,0.03244615,-0.043571744,-0.032718096,-0.03923172,-0.04298695,-0.07392256,-0.040026817,-0.03577074,-0.09392476,0.07041351,-0.0023975358,-0.11708366,-0.12173205,-0.1094916,-0.096511036,0.11810893,0.100936234,0.0065804436,-0.10925568,-0.05523417,0.006325547,0.031026687,0.10034886,-0.08602314,-0.052079026,-8.643574e-05,-0.035459753,-0.0057352544,-0.042813458,0.036497124,0.07294534,0.055752393,-0.02535874,-0.025005251,0.00818737,0.08892904,-0.0101962,0.022372367,-0.021194203,-0.038384292,-0.06685937,0.034463383,-0.033738237,-0.009792849,0.09134866,0.015164931,-0.06798871,-0.031383056,0.031860266,0.09169468,0.06618968,0.049104087,0.024154305,-0.06659727,-0.034349564,-0.06423674,-0.021827077,-0.028874626,-0.039184008,0.01211351,-0.053170085,0.00333059,-0.056236923,-0.05240137,0.0047929822,0.08829136,0.12284901,-0.03876955,-0.0020570895,0.0474307,0.07900995,0.068097696,0.098822944,0.04519276,0.08856097,-0.03855934,-0.08430936,-0.015481202,-0.020323275,0.030611737,-0.018482998,-0.054804776,-0.06013687,-0.08993395,-0.08297392,-0.122024186,-0.05700141,-0.041078847,0.017696656,-0.044008646,-0.04050496,-0.072680466,-0.06804224,-0.061140366,0.049254477,-0.010688299,0.023974609,-0.025681198,-0.0114469435,-0.02277675,0.09439478,0.02473171,-0.072679326,-0.01348172,-0.08271356,-0.015121719,-0.10980174,0.026084643,-0.005169835,-0.064959645,-0.10023065,-0.055037666,-0.009374707,0.024745302,-0.09980069,-0.08463469,-0.059600864,0.027052721,-0.0032362158,0.03638088,-0.09654192,0.033140425,-0.06465732,0.03405547,-0.048118215,-0.021794626,0.016086891,-0.024960363,-0.018192898,-0.0036851969,-0.04705036,-0.062342517,-0.016389964,-0.042738695,-0.007959964,-0.06449823,-0.08800989,-0.03342253,-0.025991775,0.09018079,0.0012955368,-0.06436333,-0.050011937,-0.04511641,0.030491354,0.052060403,0.024222385,-0.058015153,-0.028385928,-0.018870307,-0.012106919,0.066155426,0.031843893,-0.04450272,0.034701463,-0.028392911,-0.0016662339,-0.084047206,-0.0014260008,0.08014761,0.0011944352,-0.12974212,-0.025628716,-0.028660823,-0.090015225,-0.03365847,0.017722512,0.008428952,-0.03441989,-0.019517403,-0.039276622,0.017639952,-0.038884595,-0.10129706,-0.06703142,-0.0048666256,0.0665149,0.029117934,-0.12648758,0.006763487,0.04172174,-0.038799718,0.011071279,-0.0005919427,-0.03686995,-0.044770382,0.020792212,0.009667177,-0.013245919,0.05020958,0.00085198256,-0.0010006471,0.017356595,-0.004573106,0.05017327,-0.030921757,-0.00691034,0.03548633,0.060846142,-0.048354182,0.029224629,0.007935232,0.035393074,0.0423426,0.0071000736,0.009589409,-0.012781996,0.0063169347,0.017702108,0.036807355,-0.065878704,-0.02489065,-0.03705411,-0.04565519,-0.014246155,0.024546027,0.036314502,-0.06133788,0.050498165,0.029867839,-0.034242883,-0.008455383,-0.0149272205,0.020869933,0.061241575,-0.026515173,-0.028094742,0.016495267,-0.047970023,0.046228625,0.04427717,0.00754082,0.010168502,0.0022419405,-0.016684363,-0.058865495,-0.048869703,0.01669096,-0.050855458,0.057263777,0.03559141,0.03561935,-0.000736146,0.014125192,-0.023219466,-0.0637556,-0.0102988165,-0.007213004,0.019668672,-0.0039151544,-0.042934433,0.012806025,-0.0024192592,0.0452989,0.048702125,-0.06685303,0.010128338,-0.038862515,-0.025870863,-0.016706385,-0.050019484,-0.04234312,0.0104381535,-0.04247919,0.011640709,0.048686326,-0.030942563,0.0059839822,0.00056186906,0.030405104,-0.03262205,-0.007298424,-0.0029774413,-0.05716222,-0.02772005,-0.006702279,0.042133022,0.05865933,-0.037183505,-0.055077758,-0.0040486543,0.04815421,-0.057417367,-0.039694306,0.041894972,0.036081184,-0.065509945,0.04601852,-0.05479675,0.010226582,-0.056847543,-0.028494354,0.002245673,-0.021549616,0.012755463,-0.027144099,-0.052549895,-0.016314898,0.0069752806,0.05456968,0.053564265,0.024186265,0.012906261,-0.053680256,0.035584513,-0.038770378,0.048084285,-0.024158183,0.002375151,-0.010495389,0.03708738,0.03140006,0.035514567,-0.01604306,-0.058633696,0.035349797,0.032266103,-0.0077064554,0.033471294,-0.03491002,0.05660822,-0.060680494,0.029959753,-0.019985098,-0.01569892,-0.0647175,0.05065312,-0.043751236,0.018001173,0.01707789,-0.047343664,0.0026069183,-0.042099144,0.027729224,-0.04789513,-0.018460188,-0.023060838,-0.03534766,0.016324053,-0.038482662,-0.025900632,-0.045252178,-0.026600065,0.021556202,-0.035437867,-0.007381414,0.0138197765,0.0021597305,0.008926031,0.0006418913,0.062220834,0.04904403,-0.03112233,-0.026834168,0.02707912,-0.028606083,-0.017111113,-0.02447019,-0.032156575,-0.06452273,-0.060259983,0.03637822,-0.030635875,0.01026594,0.03692369,-0.057009093,-0.049511116,-0.054300155,-0.021485046,0.03620511,-0.05342049,-0.0113102505,0.0010422181,0.0021709648,-0.02444395,-0.016875971,-0.016576838,-0.060013898,-0.032787684,0.01010685,-0.053746305,-0.04372004,-0.00081081147,0.025098717,-0.061161675,0.023630463,-0.027511792,-0.0057051526,0.02400318,0.007138022,0.028114175,0.024659026,0.0032183707,-0.054315124,-0.053084426,-0.020450385,-0.048496954,0.040607072,0.03865603,-0.028373366,0.036577024,0.0042395038,-0.058537204,-0.009451626,0.0132956775,0.039290942,0.035048477,-0.055061664,0.027603509,-0.04765504,-0.052782223,-0.051122177,0.013863066,0.042481467,-0.042438395,-0.0321814,-0.022046713,0.03560575,-0.020854566,-0.058477093,0.010767626,-0.062432405,-0.057002462,-0.0046654143,-0.023678062,0.051348273,-0.011766788,-0.024745168,0.025284965,0.022498684,0.008721042,-0.0058295946,-0.074235566,0.04314232,0.0067124567,0.017463237,-0.060879584,-0.06776023,-0.061826777,-0.048628386,-0.0044693174,-0.038749434,-0.03181518,-0.029761879,0.016530113,0.0035155714,-0.016203413,-0.07294919,0.01859705,0.024093468,0.011141973,-0.043275226,-0.001097602,-0.0035845581,0.002769624,-0.024667379,0.008117366,-0.00754908,0.071313016,0.022651488,0.020511901,-0.014374176,0.1377077,0.040779505,0.12856954,0.12016729,0.06316459,0.010370402,-0.03454852,0.034616396,0.06213831,-0.027990138,-0.1026341,-0.11819649,-0.119464755,-0.011554235,-0.07844168,-0.059135705,-0.01913447,-0.028059714,-0.06756349,0.0023005877,-0.030501822,0.014389,-0.022349311,-0.044214018,0.012265232,-0.04571442,-0.0878867,-0.04301794,-0.029979503,-0.06275756,-0.082431376,-0.078191146,0.012229183,0.03733503,-0.017980747,0.013841605,-0.086017706,0.061102606,0.06285177,0.0726861,0.02566443,-0.024171682,0.023941498,-0.038444035,0.07257653,0.004719412,0.018939408,-0.05079761,-0.05967944,0.045566335,0.025987923,-0.021434523,-0.14314267,-0.01867606,-0.09881594,-0.0511852,-0.068107344,-0.12471649,-0.057494182,-0.061412513,-0.117703415,0.04754525,-0.040712822,-0.0908572,-0.0072826156,-0.072800405,0.07485898,-0.010339376,-0.0022555839,0.0110332705,0.042085912,0.055287223,-0.057971247,0.056436885,0.023627529,0.046940498,0.03449077,-0.019527065,0.009901153,0.002007091,0.07369169,0.010906151,0.092986695,0.071073756,0.013523557,-0.07025709,-0.059083067,-0.027718574,-0.055188853,-0.010868383,0.016525136,-0.022414884,-0.018308247,0.0032047394,0.08831668,0.01304575,0.13129807,-0.01042458,-0.00019499798,0.049288373,-0.069653414,-0.016336821,-0.02935204,0.012835342,-0.074044235,-0.0479818,-0.047610465,0.098694265,-0.05124291,-0.05359959,0.009373266,0.017489182,0.029789051,0.0047717886,0.14568567,0.07711051,0.0063812044,-0.0071403426,-0.043287717,0.03498784,0.053357743,0.027300317,-0.06964846,0.058319446,0.06828784,0.04247149,0.04626713,-0.062345255,-0.085116476,-0.057836045,-0.06550661,0.14371772,-0.068394035,-0.077934854,-0.094577454,0.063912965,0.1203976,-0.080307394,-0.009501985,0.10873699,-0.0045220973,0.026605442,0.0011319089,0.0404535,0.038893897,0.03710882,-0.063537836,-0.044327375,0.014473193,-0.0033566465,0.00013044439,0.05989094,0.0008762494,-0.021653391,-0.028341131,0.029000694,0.052923825,-0.0014881487,0.011852327,0.004399559,0.061315205,0.029019661,-0.053097874,0.0070419875,-0.014439047,-0.03383314,0.004505812,-0.06679478,0.025876857,0.07803799,0.091269985,0.031197233,0.0074636373,0.015066718,0.037111092,-0.044078775,0.050734185,-0.05211191,-0.015469777,-0.081468396,-0.046438426,0.018897204,0.0012933073,-0.086788945,-0.06278959,-0.011469155,-0.04742905,-0.060550284,-0.040145323,-0.0009671022,-0.012564373,-0.024142789,-0.054948237,0.05281647,0.08586701,0.03251591,0.026621157,-0.095356494,-0.049662396,-0.014138798,0.026770355,0.0039699455,-0.18013747,-0.0984381,-0.050291732,-0.10076629,-0.13360818,-0.10417111,-0.048138753,-0.078220725,-0.15751885,-0.039235,-0.012370658,0.031498272,-0.05645172,0.034187794,0.090872325,-0.087682605,-0.030732593,-0.0634553,-0.033786822,-0.029639378,-0.05867183,0.0010093942,0.03557691,0.014669778,0.07344595,-0.002417896,0.039850254,0.025867349,-0.041582894,0.041701104,-0.037495825,0.0060262242,0.034961227,0.042961,0.027772715,0.026826488,0.07777477,-0.041162785,0.044591468,0.047021113,-0.09917973,-0.061750554,-0.081817955,-0.1133613,0.014026206,-0.057409927,-0.11659316,-0.086758964,0.0049636783,0.020641586,0.039355047,0.0037100764,-0.011001661,0.10653741,0.07572421,0.085060835,0.06732924,0.14302701,0.1626313,0.09991738,0.045311127,0.04430558,-0.023513185,-0.108485825,-0.13673191,-0.099913545,-0.014673959,0.018854147,0.053679053,-0.035244275,-0.06785438,0.014295052,0.0269177,0.08313471,0.052267645,-0.029607847,0.039712925,0.136398,0.012169389,0.0033909332,0.011106108,-0.025035145,-0.05060007,-0.04457774,-0.014157227,-0.014862882,0.028745761,-0.01667302,-0.02059211,0.04499373,0.06454945,0.057444446,-0.007978897,-0.12347507,-0.08907773,-0.033857204,-0.03167714,-0.06435679,0.025531089,-0.032340854,-0.1573965,-0.10339242,0.080938295,0.088928446,0.08705946,0.008070699,0.029464254,-0.057866506,-0.07813079,0.007988947,-0.014001694,-0.018303674,-0.06539457,-0.028894898,-0.00067224493,-0.09918125,0.03352259,-0.08266329,-0.064297386,0.07336218,-0.110045016,-0.056918498,-0.026736274,-0.0174354,0.026597254,-0.0054632314,6.79197e-05,0.07861291,0.11139558,0.07150699,0.04307065,0.017980551,0.15657894,0.031367518,0.039149765,0.0036193652,0.039592456,0.039989095,-0.0009436578,0.011074314,-0.05412495,-0.12091663,-0.06621982,0.020978943,0.021855429,-0.21863206,-0.03100257,0.024358641,0.10937794,0.11189763,-0.14029594,0.068047345,0.1684281,0.1649696,0.13158952,-0.016765736,-0.009261399,0.017914368,0.009950512,-0.05075261,0.050221752,0.040547896,-0.06350812,-0.012881926,-0.021389447,-0.020843167,-0.02261305,0.017281847,0.041460816,-0.05818284,-0.15068208,-0.036192995,-0.062140357,0.02012393,0.024791844,-0.031461094,-0.039482407,-0.010234407,-0.042292226,0.02131856,-0.0063313334,-0.05858081,0.031466976,-0.013466251,0.021262774,0.050371584,-0.09048273,-0.0049389424,-0.10764785,-0.07994352,-0.03347471,-0.08470771,-0.0018075946,-0.0571647,0.020126572,-0.12691507,-0.07743534,0.028978225,-0.03368002,-0.064748555,0.002464311,0.023805313,-0.050588686,0.036187366,-0.06564889,-0.0028724538,-0.09258734,-0.021188242,-0.0019430433,-0.078549236,-0.04614185,-0.08765837,0.017649472,-0.07314763,0.03653612,-0.00031331897,0.0807475,-0.0670221,-0.0016121591,-0.1001309,0.008655763,0.10388797,0.028963078,0.065395735,0.003716785,-0.015628064,0.09447163,0.08227629,0.10672241,-0.04217423,-0.0458078,-0.05174199,-0.03403656,-0.045932252,-0.07425012,0.05006371,-0.03184728,-0.029026007,-0.09254797,-0.076554954,0.21218038,0.090921976,-0.0417172,-0.057873394,-0.05252813,0.0515676,-0.009751074,-0.0536762,-0.014091757,-0.056659047,-0.00985261,0.007392809,0.06434659,-0.05239944,0.026144857,0.03291693,0.11501308,-0.02514522,-0.034048527,-0.05563615,-0.034516003,0.08417384,-0.09860234,-0.0050257994,-0.024741372,0.035568587,0.038290337,0.03124616,0.0031700714,-0.028024934,-0.060939495,-0.034481157,0.01686596,-0.0067606685,-0.00053645094,-0.041501246,0.01868981,-0.0073975977,0.035815123,0.05851303,-0.048439965,-0.053880405,-0.049530655,0.05084377,-0.005672418,-0.0033810993,-0.0022842153,-0.063810654,-0.07036126,-0.004377748,0.012225745,-0.029351274,-0.122221865,-0.17179199,-0.022504108,-0.014692865,0.027425094,0.06881677,-0.084165074,-0.08430379,-0.0019055047,-0.06845403,0.04064857,-0.073102064,-0.11704809,0.03259588,-0.07301069,-0.054967698,-0.1268796,-0.068397515,-0.12367074,-0.13907225,-0.072141774,0.086192235,0.054522783,-0.051065583,0.024705205,-0.034003384,0.02694378,0.03784954,-0.014903945,-0.055659816,0.031373646,0.05834752,-0.028759066,-0.0074089365,-0.10874134,-0.099455774,-0.023257222,-0.006313093,0.04522183,-0.0281885,-0.012230283,-0.016878642,0.004339944,0.048384074,0.014615024,-0.0050899796,-0.05917326,-0.004969697,0.006105818,0.08237667,0.040735636,0.10197222,0.0025351972,0.06430925,-0.0010748105,0.017999507,0.13401641,0.14926848,-0.07886963,-0.02516175,-0.027102785,0.1335406,0.19954515,-0.11633858,-0.07228172,-0.026316544,0.11859214,0.03431215,-0.08120125,-0.03711851,0.022539817,0.019744977,-0.08281589,-0.035127196,-0.01881631,-0.046026435,-0.054905172,-0.07662804,0.030736307,-0.050144058,0.02355724,-0.056927506,-0.022871649,0.0018231692,-0.052234482,-0.13206387,-0.08230752,-0.054546215,0.049679257,-0.02829109,-0.15666282,-0.019066885,-0.14022973,-0.0798015,-0.09637328,-0.08103832,-0.027451437,0.010779311,-0.0009411839,0.05194962,0.007773972,-0.091221735,-0.033790752,0.018316783,0.07166171,0.052774675,0.013320059,-0.010388564,-0.056838617,-0.04460046,-0.043421146,-0.08512828,0.021637786,-0.08701844,0.021571094,0.017517261,-0.15690577,-0.13794765,0.13816196,0.029642146,-0.02147473,-0.022994792,-0.014254882,0.0144831315,0.04027659,-0.03576135,-0.055672206,-0.022774097,0.02605568,0.035979312,-0.038591076,-0.043680042,0.041552372,-0.008813465,0.03964139,0.077757746,0.039368294,0.033297792,-0.046351142,0.027784128,0.15567032,0.07979972,-0.013030444,-0.01680968,0.0059288503,0.0550244,0.061879314,-0.041996665,0.027174639,0.056272212,0.038829792,0.020471197,0.04137197,0.0045828577,0.06139649,0.10152017,-0.017494682,-0.011873522,-0.06496784,-0.06649575,0.13896155,0.13658808,-0.07865682,0.016817736,0.0098025035,0.06636773,0.17065017,-0.07956784,-0.076334886,-0.037577312,0.09583587,0.10672029,-0.05849266,-0.061348,-0.044687234,-0.025969751,-0.041032005,-0.03427325,0.08067246,0.0188979,-0.011989989,0.02909744,-0.037852377,-0.0019954238,-0.08416909,-0.012748246,-0.097902395,0.05411968,-0.035498194,-0.021507053,-0.004976508,-0.004089877,0.14296137,0.111449026,0.01670457,-0.042258464,0.034391087,0.038135383,-0.044325564,-0.07295748,-0.059176806,0.06733223,-0.045870826,-0.06745348,-0.027885115,-0.043540735,0.116890065,0.08257588,-0.0061608623,-0.05048311,-0.07584356,0.06804465,0.16018151,0.0140520055,-0.07641644,-0.0043106237,0.054687288,-0.04817815,-0.09140427,0.07868763,0.080645055,0.020095415,-0.022670662,0.024702149,-0.038461268,0.021717377,0.007262831,0.024685435,0.031094747,0.02435093,0.06774077,0.05231277,0.016715828,0.0176293,0.0057988064,-0.00982854,-0.06078367,0.0048318156,-0.060446244,-0.065838635,-0.035704944,0.01119112,0.051794868,0.02276247,0.040812016,-0.067766786,0.028681505,-0.023631671,-0.11109833,-0.092060305,-0.0030635938,-0.07733359,0.054019675,-0.03856827,-0.09519785,-0.14319491,-0.02948201,0.02418671,0.010819549,-0.07848014,-0.12183095,-0.06405943,-0.14077085,-0.16751727,-0.10272338,-0.030786995,-0.060414813,-0.01611397,-0.11115751,-0.10848212,-0.05402207,-0.08192555,-0.120917365,0.04894805,0.02630634,0.040710844,-0.068247475,-0.010776544,0.01468431,-0.05151368,-0.027695918,0.05104658,-0.06358596,0.0046252017,-0.063731715,-0.020899331,-0.01025321,0.018088507,0.0142744165,-0.008362574,-0.052897587,-0.06822965,-0.04145584,0.06851202,0.013697084,-0.05719067,0.015204621,-0.026389241,0.06987824,0.076297164,0.06433233,-0.015801577,-0.06542285,0.091166236,0.118420295,0.077327654,0.021745862,-0.04605264,-0.035173155,0.018734502,0.037167992,0.03356367,0.031139974,-0.086485066,0.0047828523,0.111736745,0.05560276,-0.05638767,0.06137932,0.046498813,0.016629426,0.028426785,-0.038441993,0.0036099562,0.007097755,-0.079343095,-0.049463954,0.016419627,-0.020928405,-0.029541293,-0.06533701,-0.054630067,0.053338792,-0.04295671,-0.08881267,-0.0068561085,-0.010895181,-0.018010747,-0.04774014,-0.058974847,-0.014402264,-0.012230215,-0.093179636,0.0025543298,0.026755288,-0.042879324,-0.04568681,-0.0025632237,-0.09685587,0.005459773,0.008783721,-0.044112243,-0.051514976,-0.04184195,0.0018115287,0.054394472,-0.01868238,-0.063206345,-0.07000348,0.008447395,-0.014862361,0.019644912,0.005406017,0.060810328,-0.028089592,-0.011428147,-0.102284715,-0.06340422,0.14426833,0.028454674,-0.12865147,-0.028100332,-0.017933274,-0.078018315,0.033096652,0.06631243,0.094054505,-0.012147628,0.008498288,-0.04221921,0.07262451,-0.026520427,0.018572524,-0.0036935473,0.06945221,0.088540465,-0.073332146,-0.041045852,0.043172665,0.035851568,0.07551453,-0.08151338,-0.021897664,0.046888612,-0.018325899,-0.03938164,-0.06451256,-0.021935588,0.04562444,0.028865494,0.008591111,0.00439851,0.036374316,0.016761078,0.11302353,0.086576976,0.05964596,0.030450061,0.018277844,0.11476912,0.03609456,-0.013988794,-0.05918283,0.02917252,0.07291889,0.06505689,-0.03058545,0.03441672,-0.013498457,0.053414304,-0.117110014,0.034652423,0.06938349,-0.114344604,-0.11401513,-0.097607516,-0.08485878,0.018326338,0.022240115,-0.064417735,-0.015955802,-0.015487402,-0.08945479,-0.098065235,-0.040492013,0.015049793,-0.033936348,-0.09395896,0.045898024,0.054298375,0.008258737,-0.034085162,-0.084045656,0.09823711,-0.051189646,-0.031454142,-0.08053522,-0.03223429,-0.040260922,-0.028399764,-0.087253235,-0.06949767,-0.06492063,0.020335943,-0.029348332,0.032377016,-0.015402701,-0.008290911,-0.008627456,-0.010622346,0.05878034,0.02480005,-0.01324913,-0.15500887,0.052994553,0.106972724,0.09909819,-0.08022071,0.039968845,0.15938926,0.04783441,-0.08177077,-0.110869385