0.14478962,0.067734435,-0.28438216,0.028969968,0.12946816,-0.08190862,0.087681465,0.26123527,0.18135343,-0.04376226,0.16408779,0.12669961,0.05253982,-0.12852587,0.036007043,-0.0089174295,-0.22752629,0.09093524,0.17664905,-0.044082858,-0.17758866,-0.117507555,-0.27781016,-0.12579264,-0.09871393,0.22667894,-0.0055380967,0.23132834,-0.0398776,0.23577383,-0.055642605,-0.13221699,-0.08443783,0.061125323,0.13984157,-0.085201934,-0.17534177,-0.1167175,-0.15054376,0.1476806,-0.10822245,-0.09474948,0.03869489,-0.22207204,-0.08616694,-0.113729246,0.012946891,0.05174711,-0.016278999,-0.05198785,-0.08803802,-0.20888408,-0.25792962,-0.2667582,-0.013722725,-0.24791403,0.016221588,-0.27481017,0.11782453,0.12367168,-0.21391839,-0.1094335,-0.15721403,0.0034189026,0.116814815,0.12834091,0.12128354,0.06393331,-0.0728704,0.24141736,-0.1892955,-0.11722677,0.114704266,0.22265357,0.31843224,-0.13909575,-0.0631136,0.09135038,0.08862783,0.11053552,-0.03234406,0.059395652,0.2233255,0.20603226,-0.24097857,-0.17088528,-0.007696732,0.2538634,-0.055217654,-0.2361538,-0.0064583514,0.20455664,0.09927153,-0.11748781,-0.14384232,-0.0416196,0.03485657,-0.10749487,0.055881698,-0.17120387,-0.03817831,0.0035959568,0.20599626,0.24874662,-0.10056788,-0.3321839,-0.23644622,0.18518446,0.20157431,0.18370432,-0.27149856,-0.062507756,0.16771728,0.25801647,-0.024077797,-0.12009504,0.113327384,-0.052496772,0.25560522,-0.11476057,0.02568259,-0.13367042,0.03529543,0.19109781,-0.1904067,0.05779968,0.14087023,0.153822,-0.085182056,0.027153946,0.20486572,0.008464562,-0.118884675,-0.07780105,-0.3005343,0.21375409,0.12082549,0.06279723,0.043929428,-0.19553688,-0.11714562,0.16110736,-0.1238852,-0.20101616,-0.17974514,0.120634414,0.084198356,-0.013092796,0.00012110339,-0.19356158,0.023303727,0.08730687,0.29977113,0.38201147,0.32592744,0.00047991847,0.059374996,0.3254538,0.23827668,0.29895255,-0.22145021,-0.27072152,-0.17336836,-0.17393471,-0.2649966,-0.27258155,-0.32605782,-0.28227818,-0.2811203,-0.26287347,0.026498755,-0.0894146,-0.2899346,-0.20354937,-0.14059047,0.072030574,0.22513174,0.05497176,0.079543106,-0.28026247,0.00951337,0.07265356,0.16737522,0.32252708,0.14505213,-0.22413507,-0.25384894,0.044100404,0.20941831,0.2519369,-0.01789046,0.042775996,-0.21507075,-0.09621138,0.21825844,-0.019773612,0.03179374,-0.26319492,-0.14804076,0.035636347,-0.011649581,0.01998282,0.23829171,0.058796775,-0.29676315,-0.03456412,0.2172486,0.0746804,-0.14645523,-0.2779931,0.13699017,-0.016520025,-0.11654326,0.003608848,-0.14951,-0.093830585,0.12543058,-0.025092606,-0.22457138,-0.07960662,-0.0879232,-0.014952789,-0.13614824,-0.053886607,0.041897725,-0.030069891,-0.06888617,-0.22894433,-0.3173293,0.0061304173,0.030913912,-0.26342183,0.0003209957,-0.17786124,0.06521816,-0.09483123,0.021301324,0.22558884,0.17213443,0.17659293,0.27282396,0.37488773,0.33601025,0.23511463,0.110116035,0.15624812,-0.17512067,-0.26739374,-0.08668114,0.07477146