-0.0058660097,0.060818516,0.037640426,0.023465091,0.04230713,0.0809012,-0.0024222818,-0.0035341228,0.046715226,0.011983296,0.008551145,-0.0683276,0.001502512,0.027984159,0.0076768766,-0.041316032,-0.033526555,0.025394242,-0.034765568,-0.06048032,0.02716921,-0.033219114,-0.018823624,0.03497462,0.050334346,-0.08260987,0.046122905,0.052979726,0.017596396,0.041298945,-0.023273926,0.042304613,0.022773895,0.018102609,-0.029556679,-0.05763276,0.022412475,0.027946008,0.042856157,0.037493087,-0.06976354,-0.029275166,-0.046124984,0.049874224,0.010747654,0.032577604,-0.007320085,-0.0374943,0.032159686,-0.05308213,0.0027562256,-0.0428039,-0.06369052,-0.042124458,0.02763004,-0.030123532,0.007021296,0.0034952858,-0.068578616,-0.020729853,0.006373844,-0.047524918,-0.019734737,-0.041300744,0.03436275,-0.035065822,0.023297688,0.038661968,0.013695916,0.0064842133,-0.033208087,-0.034466807,-0.050322868,-0.044045385,0.031855635,0.0030854247,-0.047131408,0.07062657,-0.044767186,0.057544466,0.053509817,-0.055503756,0.022750886,-0.009664555,-0.03249489,-0.005119756,-0.031584304,0.00046219793,-0.07206753,-0.035106946,-0.008276929,-0.014438394,-0.034174062,-0.008769455,-0.0006257341,-0.0090481145,0.007157398,0.037216723,-0.049798165,-0.0007523377,-0.003045287,-0.06500748,-0.035980165,-0.0074498407,0.026033022,0.024326405,-0.042643096,-0.09292938,0.036090624,0.008109879,0.054738615,-0.037903566,-0.058220044,-0.096393324,-0.06286828,0.042483076,-0.028282499,-0.05488536,0.0019368042,-0.012456887,0.07275774,-0.054104812,0.003469171,0.03565289,-0.011761483,0.058041625,0.0075074467,0.031137276,-0.017538367,0.007176491,0.10024194,0.03317926,-0.05514966,-0.011128259,0.001270047,0.048421632,0.042423032,-0.052569054,0.009524623,-0.062145628,0.06585757,0.061662886,-0.08526191,-0.030718064,0.017701343,0.018274741,0.07278632,-0.025050683,0.009986,-0.05519198,-0.049169783,0.0459686,0.05993987,-0.0029020605,0.020601746,-0.029663207,0.040940452,0.05862862,0.05786578,-0.017784044,-0.029873177,0.0040282155,-0.050686926,0.007464758,-0.028725186,0.026123941,-0.0131297875,0.047411308,0.021206187,-0.052509002,-0.07802557,-0.022648387,0.035075396,-0.014647849,-0.029907113,-0.008449809,0.04373223,0.042339653,0.009381991,-0.015990308,-0.057838418,-0.07343614,0.001996179,-0.04923371,-0.04229878,-0.054748114,-0.07247278,-0.0063090664,-0.042778756,0.007324013,0.01793842,-0.08307509,0.029624162,-0.060528032,-0.07149838,0.01032966,0.028665496,-0.026333384,0.034845583,-0.014512418,-0.03516431,-0.03761641,-0.013164654,-0.012817684,-0.005599557,0.043885946,0.070360675,-0.038999956,-0.028962731,0.058417786,-0.0150787085,0.011347735,-0.0579415,-0.0002197626,-0.066080056,-0.024755338,0.026284032,-0.029062908,0.032299995,-0.014693471,0.014091801,-0.017489597,-0.020502951,-0.035109274,-0.04860135,0.09017752,0.07449244,0.0034416565,0.040836178,0.026490316,-0.058740884,-0.03653042,-0.10399083,-0.05144582,-0.03333574,-0.0543706,-0.08801035,-0.036927093,-0.046018112,-0.030735448,-0.06561718,-0.044184238,-0.027829172,-0.075944595,-0.0036764822,-0.09286766,-0.0038001796,-0.033225354,-0.05214057,-0.0499934,0.06642237,0.053463597,-0.025723033,0.01949334,-0.008247268,-0.080881596,-0.032914057,0.03188894,0.08280847,-0.05776897,-0.07344657,-0.063204624,-0.043393876,-0.011774213,-0.055713817,0.0016414102,-0.07341079,-0.027650781,-0.085162945,-0.060457885,-0.066611305,-0.07676836,0.023615034,0.020391896,0.04785205,0.03198435,0.04754744,0.002879673,0.044525076,-0.08539052,0.059122737,0.027546221,0.007226615,-0.04148208,-0.03940806,-0.08675651,0.03807599,-0.030105377,-0.06189259,-0.023716614,0.032161895,-0.0653019,-0.051969077,-0.014592098,0.03571093,-0.0048876493,0.030112289,-0.04925007,-0.10129694,-0.022839498,-0.08145047,-0.08293264,-0.10775692,-0.01815589,-0.04096239,-0.070325054,-0.0010265197,0.02501163,-0.10247658,-0.06759372,0.06523601,0.11077599,-0.053127885,-0.109891474,0.015387681,0.03064349,0.071170144,-0.14055721,-0.13412258,-0.009066136,0.019149084,0.05716088,-0.094908126,0.05914059,0.076097794,0.018900191,-0.051245876,-0.03664271,-0.02976198,0.0182138,-0.11840438,0.07016572,0.11177064,0.05681889,0.06525107,-0.07857442,0.07314713,0.14795564,0.045763675,-0.013923582,-0.055571944,0.07072175,0.05159212,-0.007431981,0.050358634,-0.024931123,0.014383909,-0.058802243,-0.10394086,0.007637322,-0.008393354,0.06655572,-0.052498303,-0.10398682,0.09788054,-0.03897407,0.11780847,0.16747989,-0.0034619037,0.06347083,-0.06683485,0.12751848,0.13754308,0.017843029,-0.09774838,-0.0035379198,0.11268058,0.05018518,-0.044579044,0.0020355498,-0.123106,0.036007054,0.0075996397,-0.0031339377,0.064290464,-0.051841088,0.0074277334,0.08696136,-0.0124709215,-0.041187648,-0.10680161,-0.07497132,0.12317774,0.03630373,-0.014818593,-0.20497517,0.0031695517,0.12325834,0.099548705,-0.028625024,0.0037151226,0.07305006,0.055861864,-0.021215832,0.016925234,0.0017664179,-0.027863488,0.023345105,-0.08195692,0.0036313168,-0.006915553,0.015707552,-0.03036296,-0.123881996,-0.07228744,-0.006944369,-0.10168372,-0.07799101,-0.08798633,-0.032662872,-0.14316408,-0.15537916,-0.08898534,-0.10244859,-0.006361435,-0.028168974,-0.17899698,-0.14837326,-0.08411748,-0.019468509,-0.010900102,-0.1351532,-0.042430084,-0.08055767,-0.022905119,0.09423129,0.043008547,0.05613824,0.03985215,0.015103139,-0.03575934,0.06969563,0.061678816,0.013057051,-0.098608285,-0.11866506,-0.043598685,-0.035004713,-0.0056130406,0.017336102,-0.073839374,-0.0034103815,-0.006052696,-0.012267375,0.03482514,-0.029348671,-0.002717141,0.018448872,-0.0040185917,0.026451599,0.012698377,-0.063378945,-0.014265543,-0.053412057,-0.006349914,0.034108613,0.03963896,-0.019891657,-0.034377813,0.06481243,-0.0060412968,-0.03208918,0.0489536,0.034167442,0.032484163,0.033748597,0.09871549,0.08973267,-0.067733236,-0.034339778,0.012409648,-0.013054799,-0.024094552,-0.096136376,0.012634616,-0.17033589,-0.08451567,-0.063885756,-0.0627293,-0.059227765,-0.11024135,0.08339033,-0.0041080755,-0.0465394,-0.06541573,-0.04890622,0.06606795,-0.040079203,-0.08005368,-0.10737535,0.057742756,-0.07716295,-0.16826525,-0.085603766,-0.07502305,-0.022963911,-0.04113363,-0.0027771522,0.1769588,0.1710217,0.01603434,-0.033669148,-0.007538017,-0.0046540704,-0.0776808,0.04350824,0.016674522,0.021117397,-0.029701835,0.051630136,0.015900211,-0.006914933,-0.06978524,0.008436739,0.0059883823,0.036381736,-0.0192383,-0.011967072,0.029513199,0.033256575,-0.011657089,-0.059176937,-0.04713504,-0.025991304,0.0866988,0.030339371,-0.001638918,-0.08023277,0.024899373,-0.037191436,-0.023966538,0.033597928,-0.052763354,0.028029397,-0.055014145,-0.06984071,-0.00400761,-0.009786139,-0.04077437,-0.058271937,-0.017522058,-0.012696476,0.01243307,0.05648786,-0.032826394,-0.058405943,0.07303653,0.08096813,0.09533993,0.00828416,-0.07946552,0.019584993,0.06485372,0.0016359319,0.064363495,0.020979326,0.0051441686,0.003656679,0.090929985,0.015735738,-0.044533674,0.0033132534,0.09720269,0.023584232,-0.16460444,-0.027563347,0.0019672352,0.024946967,-0.017118288,-0.11019729,0.056333404,0.073197044,0.04500278,-0.03533948,-0.106802784,0.012808994,0.025164528,-0.09154413,-0.0059084664,0.043536138,0.044768594,-0.063419506,0.0025449248,0.10882452,0.09712496,-0.03878736,-0.080794506,-0.013696094,0.120687544,0.029392304,-0.036426805,-0.11883712,-0.045911398,-0.04675036,-0.02488221,-0.029501013,-0.016323974,-0.067608505,-0.06201574,0.015985297,-0.027096162,-0.04230931,-0.06810998,0.014327109,0.093402244,-0.029135933,-0.03896827,-0.057187412,0.110349916,0.07856965,-0.12017781,-0.076310255,0.035135258,0.09855227,0.02312606,-0.037657324,-0.10883822,-0.066485494,0.11934988,0.04960134,-0.0800187,-0.08366315,-0.053461924,0.11301236,0.009530493,0.059733655,0.027274322,-0.052354984,-0.060960867,-0.008057917,-0.027887316,0.030381655,-0.06015036,0.08728858,0.08548911,-0.03318192,0.028555466,-0.06812954,0.043215696,0.1331285,0.02661203,0.0067980196,-0.092379086,-0.03817308,-0.025758786,0.04990378,-0.076506995,-0.06861877,-0.030838015,-0.0019913302,0.061664693,0.084794775,-0.006597206,-0.030709375,-0.08907646,-0.0034083168,-0.046317615,-0.038069,-0.14773163,-0.0012235285,-0.013972008,-0.004167019,-0.14599682,-0.067855604,-0.111724146,-0.07428574,-0.03811855,-0.02611778,-0.016218446,0.10208781,-0.08518651,-0.023789063,0.004819265,0.10176584,0.08652049,-0.04821871,0.02037658,-0.09541701,-0.073391825,0.0028697094,0.005910994,-0.022459565,0.04900953,-0.019129047,-0.03981398,-0.037264235,-0.0022630978,0.04139019,-0.04655848,0.0016840287,-0.094099484,0.007399403,0.01136066,0.01969895,0.024497181,-0.08250417,-0.11933669,0.051724736,0.012156601,-0.051583774,0.021463078,-0.014827182,-0.02810754,0.061091766,-0.056942288,0.0067261783,0.08037543,-0.06398525,-0.049537245,0.005067966,0.02372446,-0.025630739,0.013723678,0.05993956,0.0135648735,0.004812233,-0.037511755,0.04004184,-0.07599072,0.005024529,0.068959326,-0.079731986,-0.054389037,-0.0046930113,0.021319514,-0.040932827,-0.07657076,0.0013607661,-0.033657502,0.1506433,-0.08756166,-0.072737634,0.019091872,0.06633649,-0.058789536,0.015738996,-0.034169532,0.02091925,-0.03361298,-0.11388695,-0.14084125,-0.022157876,-0.084763564,-0.0772321,-0.05773697,-0.055571474,0.008346845,-0.087984644,-0.11594993,-0.04601499,0.058016364,0.016841572,0.060086574,0.04350876,-0.021131344,-0.0009970391,0.0059935814,0.024263915,-0.034306422,-0.04347019,-0.0061597275,-0.046475153,-0.055037335,0.00879056,0.053514842,-0.1071302,-0.10962397,0.020123255,0.020375097,0.13269074,-0.10774997,-0.006276032,-0.04048358,0.014531601,0.058208577,0.0054377145,-0.0054755127,-0.07030543,-0.053942747,0.03871173,-0.045216765,0.072009146,-0.0024942013,-0.057612628,-0.0519619,-0.018134728,0.07372275,0.021583032,-0.10148087,-0.043224063,-0.033285722,0.05795357,0.016133698,0.0145074865,-0.1026847,0.009778525,0.007232099,0.01541758,0.023336755,-0.031004326,-0.025879147,0.041116055,0.039941598,-0.030301102,-0.0481524,-0.112923525,-0.17214602,-0.0875172,-0.11466543,-0.09473877,-0.110982195,0.0013247295,-0.0479366,-0.07341494,-0.010907074,-0.006428629,0.009089469,-0.06140684,-0.046907943,-0.1395757,0.122799,0.041097734,-0.015534029,-0.036859855,-0.10697786,-0.055237368,-0.024928464,-0.039574668,0.06322713,0.0139841,-0.036797915,-0.0746585,-0.041600395,0.06643051,0.06395572,-0.090309605,-0.051800463,0.051838372,0.04912092,-0.039839752,-0.053810958,0.056912374,-0.035530414,0.0065066917,0.01437583,0.06284344,0.03636382,-0.0017879191,0.030086726,-0.072855875,-0.03194477,0.04337459,0.08577231,-0.055436503,-0.07908864,0.0008362683,-0.058392867,0.14356942,0.08573946,-0.073908955,-0.16789626,-0.10261621,0.13555068,0.15574539,-0.06791085,-0.11674239,0.023358895,0.08499641,0.07945565,-0.006993208,0.13833427,-0.016130367,0.011890903,0.06947402,-0.060794856,-0.018675106,-0.061693925,0.027682524,0.07266605,-0.04105274,-0.039576236,-0.08813115,0.0064773187,0.13201626,0.06037118,-0.044964742,-0.13191248,-0.031220604,0.080491,0.031113366,-0.08290142,-0.06524213,-0.040494557,0.025892973,0.041485123,-0.0822903,0.10721253,0.027936304,-0.055583872,0.09876641,-0.057730976,-0.07278382,-0.11682335,-0.077260405,0.021590147,-0.020450331,0.038321223,-0.124024376,-0.13378857,-0.012220172,0.017082134,-0.051174406,-0.1465725,-0.045617998,-0.036919825,0.0033996552,-0.096879125,-0.047624346,0.041273937,-0.014663999,-0.14384976,-0.14308542,-0.1505269,0.06338216,0.04862954,-0.036201473,0.1038826,-0.030238807,-0.06314319,-0.028139494,0.02606224,0.14777443,0.17624903,0.020387439,-0.14329371,-0.10653036,0.024842853,0.13455069,0.05580665,-0.03606981,-0.13700594,-0.013483482,0.08893173,0.08554882,0.09369301,-0.15733476,-0.0029619085,0.03905847,0.018513845,0.066886574,0.024813235,-0.0017317015,-0.008382932,-0.076828904,-0.09797812,0.055006534,-0.061883107,-0.107174955,-0.015718617,0.06553334,0.019178694,0.020934287,0.009294407,0.039377045,-0.03406329,0.023961697,-0.030147204,0.030648062,-0.09421254,0.023434399,-0.040252227,0.070009075,-0.017350396,-0.050037708,0.07734576,0.10177849,0.1560143,0.106460325,0.054892696,-0.03493619,-0.03844207,-0.08297731,-0.07217115,0.0012540242,0.033160456,-0.16383825,-0.09231419,-0.055444874,0.0015157688,-0.023412537,-0.16148488,-0.0034655703,-0.053101767,-0.12171059,-0.049463324,-0.042674873,-0.068381816,-0.023552727,-0.07396961,-0.13902016,0.06168239,-0.02100981,-0.0022719484,-0.016387304,0.036929745,-0.01353859,-0.047041707,-0.060279477,-0.0685988,-0.028843122,-0.07128853,-0.06517591,-0.027397728,0.0076686414,-0.063719645,-0.09853865,-0.001952746,0.010301296,0.014361221,-0.09520029,-0.08782515,-0.1111749,-0.046223868,0.005006833,-0.033150934,0.012498103,0.049379487,-0.0039537637,0.056039643,0.048740063,-0.024010953,0.05660706,0.0074999067,-0.028031435,-0.030787034,-0.016767543,0.04750798,0.00089132466,-0.05562252,-0.020666158,-0.071186304,-0.021672584,0.022703353,-0.0076565365,-0.08744049,-0.060736127,0.020947717,0.022617368,-0.03974874,-0.019030329,-0.046209306,0.020184929,-0.042965718,-0.085194945,0.04440727,-0.085892856,0.08931842,0.08581145,0.023174979,-0.09287209,0.004730511,0.07634698,0.04226746,0.061567172,-0.090427704,0.044510413,0.10217681,0.101419225,-0.054688893,-0.0242116,0.12171105,0.09593777,0.051826343,-0.06450034,-0.065841764,-0.028006293,-0.035166495,-0.03914229,0.052147523,-0.06675907,0.0022372052,-0.044999443,0.0039406787,0.0642721,-0.050513633,-0.075244635,-0.09689411,0.07466402,0.012650198,-0.008392952,-0.07743059,-0.019338973,-0.004790118,-0.024696289,0.019629566,0.0025247177,0.06627558,0.08654697,0.041863095,-0.07864234,0.007138287,-0.013510294,0.051583014,-0.015959779,0.010101913,-0.07920336,-0.11981388,-0.010614253,0.010899937,-0.050220106,-0.074799255,-0.05009066,0.07294773,0.03011272,-0.10837534,-0.11884842,0.0019173094,0.1066967,0.03618136,-0.14475594,-0.07292269,0.07634121,0.08200657,0.047220208,-0.119828105,0.081841126,0.0040838826,0.020313619,-0.031659186,0.05673829,-0.02639545,0.02915492,-0.03850824,0.029487588,0.07901863,-0.059102897,0.018769395,-0.030346243,0.028318876,0.05597954,-0.07488547,-0.06695869,0.057877947,0.09740683,0.0021401262,-0.09561404,-0.061920058,0.027039032,0.11991971,0.033227503,-0.046451934,0.046022296,-0.016790602,0.033161357,-0.08540343,0.054963246,-0.0050552394,-0.04214351,0.015370926,-0.004324172,-0.060003053,-0.076711595,-0.06858708,-0.04133468,-0.09980781,-0.0100517,-0.059414204,0.0021292705,-0.014907758,-0.11640657,-0.1419147,-0.044581834,-0.051677283,0.02593565,-0.061887555,0.046474107,0.0022904768,0.04706829,-0.01625844,0.07101549,-0.10600195,-0.08374701,-0.002045273,-0.07764402,-0.026968759,-0.05543593,-0.03824168,-0.037900683,-0.013272137,-0.063455254,-0.08727926,-0.010220595,-0.018311458,-0.05008485,-0.081185244,-0.09223616,-0.027289936,-0.06120603,-0.11004129,-0.12284892,-0.016411504,-0.038501617,0.045193203,0.0721874,-0.031793278,-0.007394402,0.015497316,-0.049833648,-0.042440645,-0.04039892,0.053417392,-0.039748594,0.026877875,0.061243683,0.047668032,-0.011882528,0.0136099085,0.011556867,0.02170554,0.020467373,-0.01696091,-0.0003491563,0.014569863,0.0831108,-0.027466912,-0.036399588,-0.047193542,-0.07099041,-0.11234305,-0.06788748,-0.07652435,-0.09137777,0.022709277,-0.0630253,-0.103883855,-0.12119656,0.005928915,-0.07381482,-0.051910426,-0.12894937,-0.11274086,-0.049803797,-0.026320396,-0.1043857,-0.057779077,-0.08059915,-0.025433004,-0.07590569,-0.118862554,-0.048731066,-0.02494678,-0.013684268,0.02323543,0.07622404,0.050972104,-0.08073475,-0.015052439,0.024062296,-0.03299154,-0.047042627,-0.028305871,0.06193662,-0.030277902,0.031122262,-0.03227445,0.035032224,0.022163872,0.0025045786,-0.048729897,-0.019770905,-0.0658306,0.04309599,0.014922672,0.079349674,0.04344063,-0.008981419,0.04730652,0.054887556,0.024270276,0.012375335,-0.005916642,-0.033847965,0.04631485,0.017184688,0.008988026,0.016695075,-0.04260011,-0.029939683,-0.027644202,0.013277963,0.018297995,0.07120521,0.08568998,-0.01703841,-0.01917601,0.07083811,-0.043316096,-0.04639394,-0.0033667902,-0.07574801,-0.023880605,0.0021662721,-0.057773594,-0.09557765,-0.13115206,0.05764039,0.045431305,0.025617419,0.021866597,-0.02212691,0.030799435,0.049194045,0.02048707,-0.033946913,-0.056116097,0.10088616,0.09144512,0.06155325,0.038413946,-0.014054472,-0.0357328,-0.09609358,0.04488593,-0.02449107,-0.11799676,-0.041020237,-0.05547043,-0.0847613,0.027327243,0.009297966,-0.08372383,-0.0718276,-0.02479543,-0.022440009,-0.04728995,0.008803658,0.03455782,-0.08836667,-0.12073657,-0.03488998,-0.008838808,0.014599347,0.030576205,0.047650285,-0.041131612,0.048946828,-0.00649605,-0.047082286,0.044714127,0.008260271,-0.115244456,-0.18937036,-0.08554858,-0.03773979,-0.042199098,-0.11560253,-0.1630502,-0.1350933,-0.12164063,-0.11505222,-0.01598759,-0.08247806,-0.046968807,-0.03495989,-0.15768926,0.018578438,0.051501714,0.05203425,0.12473471,0.0041217376,-0.033405997,-0.06484622,-0.017861435,0.061993614,-0.053307615,0.03464517,-0.095449165,-0.07467739,0.015477025,0.029940542,-0.018447189,-0.16918938,-0.12968819,-0.09219245,-0.084336504,-0.05902743,-0.01552967,-0.09862797,-0.024604013,-0.020429637,0.035890963,0.021047411,-0.027835878,0.033554938,-0.04975612,-0.027780352,-0.026715217,-0.086174995,-0.034404848,-0.045930423,0.02651525,0.009194873,0.1162509,0.20122096,0.18329602,-0.09793033,0.0033842414,0.06181845,0.057845958,-0.01389076,-0.017559862,0.042221,0.10965385,0.03478041,0.010778234,0.021459676,0.07255178,0.0037894913,0.02632497,0.021091014,0.043476354,-0.06453982,0.010983692,-0.037612967,0.030653836,-0.006572341,-0.07548387,-0.07270384,-0.047716793,-0.03694744,-0.121392004,-0.12674886,-0.09169171,-0.024903597,-0.06116646,-0.07256764,0.079171054,0.08933771,0.08517582,-0.022765448,0.03944814,0.021666937,0.12637933,0.08344335,0.046279166,0.00018861401,0.062296048,0.04102564,-0.056851547,0.027293589,-0.0359908,-0.029590407,-0.06445887,-0.033433914,0.0695531,0.005642422,-0.06876946,-0.09974962,-0.089231096,-0.039938442,-0.07787424,0.010657723,-0.029347822,-0.10171378,-0.06666542,0.003995935,-0.05308606,-0.042995866,-0.013438432,-0.06265664,-0.06509551,0.021302752,0.03542295,0.021319037,-0.053749498,-0.05460786,-0.15052445,-0.111095525,-0.047434043,-0.14457354,-0.02881546,0.07179526,-0.0008435868,-0.007194026,-0.06033323,0.045497388,0.12842064,0.042325087,0.061484195,-0.10811373,0.054984286,0.11750533,0.06373593,0.083482705,0.0035801523,-0.042659696,-0.050553337,0.05235503,0.07848066,0.061318967,-0.08904792,-0.012740365,0.009037162,-0.0027871646,-0.043518737,-0.107750066,0.038542178,-0.03465177,0.01634894,-0.027567523,0.034097567,-0.00998422,0.040407278,0.028471638,0.03637262,-0.03737534,-0.045256946,0.019397695,-0.04934782,-0.082259275,-0.04611206,-0.035795942,-0.09833996,-0.035638146,-0.041680224,0.022272881,0.010638662,0.015798895,-0.051304407,-0.08291676,0.0015552088,-0.030259604,-0.008169671,-0.015322921,-0.004794948,-0.014665697,-0.045897476,0.045561433,-0.050470367,0.06101597,0.06543826,0.051340297,-0.038512457,-0.027396929,0.0014574785,-0.05345812,0.029463196,-0.08661653,-0.07439226,-0.075344846,0.055620834,0.077551685,0.036259327,0.03095751,0.022075592,0.068825506,-0.021643894,0.034783237,0.028942367,-0.061980397,0.042218477,0.039635293,-0.0001373668,-0.0066385493,-0.06835109,-0.0669693,-0.06408955,-0.012218467,0.0018949904,-0.041255537,-0.036483895,-0.061702445,-0.009179479,-0.101073034,-0.030942861,-0.08460637,0.08200698,0.017677857,-0.057327535,-0.08318297,-0.0827752,-0.004534873,-0.0049975496,0.0026629781,0.008431073,0.024705749,-0.0022103146,-0.0155939795,-0.046357445,0.031759717,-0.04052399,-0.03241998,-0.004220965,-0.11396668,0.011677995,-0.035392452,-0.0027032257,-0.0261108,-0.039328273,-0.09858112,-0.06469824,0.18098111,0.006929883,-0.007019867,-0.069862336,-0.023491813,0.13316634,0.11214025,-0.04943298,-0.028130371,0.011857107,0.078327425,-0.0007529128,-0.05533642,-0.00046223344,-0.030776588,-0.040760312,-0.025995335,-0.063505456,-0.081360295,-0.08834067,-0.072700895,-0.123656206,-0.13318372,-0.119833186,-0.07879096,0.018982572,0.06898939,0.029624045,0.00032252545,-0.08298516,-0.0137460455,0.0748703,0.09922421,-0.046171855,-0.06440416,0.050073512,0.006204109,0.029465726,0.06028481,0.0723897,0.0882746,-0.014470701,-0.0380282,-0.004358159,0.052926175,-0.060461603,-0.060460262,-0.06024854,-0.03220764,0.002796819,-0.08870901,-0.03598866,-0.063975014,-0.08797681,-0.054806285,0.001168323,-0.04820998,0.022591231,-0.015963718,-0.008789818,0.010410244,0.098320976,0.0073958873,0.051485043,0.01724883,0.054950878,0.092063464,0.08047554,0.054123215,-0.09473653,-0.07369866,0.0068844133,-0.07157079,0.02217703,0.009676309,0.034425683,0.06398428,0.051368497,-0.05292536,-0.07795395,0.024136389,0.026892468,-0.030259883,0.041282125,-0.014374061,0.07206688,-0.027259896,-0.07089483,-0.03813512,0.013632056,-0.046553902,-0.063927315,-0.05352682,-0.12489999,-0.026344642,-0.0911714,-0.0066511184,-0.0940436,-0.061386153,0.0034903688,0.023055367,-0.105185494,-0.076737694,-0.057925995,-0.09419288,0.02040492,0.028559053,-0.027520174,-0.04620111,-0.019050688,0.028533632,0.08257739,0.02039543,0.0022331907,0.0012606867,0.05335692,0.032469053,0.053762,-0.037387785,-0.081539385,-0.09056595,-0.05151862,-0.05433575,-0.054846354,-0.023513885,-0.023259802,0.09425484,0.016883664,0.096414514,-0.0027723457,0.038919307,0.0012411005,0.0089305425,0.029326681,0.08389763,0.046336535,0.018771052,-0.1013741,-0.080808334,-0.13701034,-0.16081496,-0.05769164,-0.15003332,-0.15575777,-0.10816307,-0.05085053,-0.14168577,-0.14179654,-0.11024103,-0.06678692,0.018721588,0.0124729695,0.003768761,0.006452355,0.034548834,-0.023748968,-0.04358346,-0.02464344,-0.031881645,0.054676212,-0.011856104,-0.002724988,-0.09062479,-0.027566465,-0.04654969,-0.0706397,0.057312794,-0.058866397,0.009485224,0.048399363,-0.040426806,0.025413835,-0.04054881,-0.049151845,0.0149994595,0.03387673,0.053732112,-0.049963746,0.09182284,-0.034553606,-0.052509118,0.050971825,-0.020985404,-0.040904693,-0.036032118,0.055902265,-0.04878966,-0.0017125594,-0.02323467,0.05385504,-0.006988286,0.012193838,0.013923347,0.038262695,-0.13011053,-0.040951677,-0.08300915,-0.04186714,-0.030558033,0.080175154,-0.03300988,-0.025482718,-0.0040779603,0.008004703,-0.011272485,-0.04183605,-0.00981958,0.035749923,-0.016969077,-0.16206056,-0.016120885,0.06754354,0.04549027,-0.0074605285,-0.0171463,-0.055207618,0.013415665,-0.030929225,0.019737978,-0.071045846,0.048828997,0.03919248,-0.008826917,-0.018452605,0.03454876,0.07634132,0.03918182,-0.037790228,-0.027183533,-0.044152904,0.04501166,-0.0359539,-0.11136465,-0.005083324,0.008480428,-0.05066186,-0.03161357,-0.016940262,-0.04555665,-0.034670595,0.058176477,0.11705445,0.11183353,-0.033577614,0.03221849,0.08885983,0.047653656,0.048340585,-0.03416767,-0.060550854,-0.109067604,-0.09466527,-0.07934763,0.012060769,-0.043453746,-0.12372167,-0.16296773,-0.0202495,-0.0094230715,0.057003807,0.077781685,-0.09353385,0.041753974,-0.04625794,0.002974152,0.14437532,0.06544841,0.053419445,-0.007400734,0.048230693,0.08967841,0.113924354,0.03587423,-0.07727333,0.02937479,0.076823294,0.057069402,0.01461142,-0.013375705,-0.043080755,0.043663703,0.025606763,-0.0444304,0.027577102,0.007059614,-0.012214189,0.041035842,-0.03906908,-0.014254924,-0.13141571,0.043881748,0.07731321,0.04229496,0.00776463,0.030966407,0.014381305,0.041066706,0.024253974,-0.03528059,-0.08494245,0.0312523,0.0451128,0.011837635,-0.030192347,-0.14154917,-0.045080975,0.052831143,-0.0073590414,-0.019127637,-0.057090584,-0.09322183,-0.077374734,-0.016912177,-0.01611871,-0.08634184,-0.07781737,-0.18922213,-0.07461338,-0.078135975,-0.07476138,-0.15911134,-0.1615057,-0.16297896,0.03720629,-0.01834687,-0.07313777,0.011347785,-0.0358638,-0.054214846,0.11931881,0.042489212,0.06491847,-0.07624139,-0.069012284,0.17567286,0.080682695,0.03387739,0.06012519,-0.040390927,-0.024964476,0.027755871,0.04333599,-0.01760748,0.12717989,-0.09974794,0.023129776,0.017916994,-0.03423728,0.08816388,0.047665942,0.025175931,0.06620768,0.012989641,-0.049478594,-0.03970177,-0.0737242,0.052465595,0.006562873,-0.04397845,-0.059675116,0.039313786,0.0058364985,-0.0771027,-0.0653769,-0.081391715,0.039241116,0.028088113,0.008017853,0.040543206,-0.025017174,0.03461579,0.1021618,0.018893765,0.017729336,0.0194859,0.0044747447,0.026382018,-0.14860904,-0.09556561,0.03514386,0.0089204395,0.016957756,-0.07235214,0.029755017,-0.109237686,-0.087670885,0.06206527,0.119193375,0.022936689,0.05960901,0.040816613,0.08187053,0.010773977,-0.06593437,0.13025756,0.0200849,0.001799875,0.03150118,0.11559341,-0.055718973,-0.045537785,0.0031539542,-0.018002342,-0.0056621814,-0.031091584,-0.015660342,0.056824747,-0.08223238,-0.036236968,-0.067803584,0.008156774,-0.02383915,0.023201233,-0.052550495,-0.09140965,-0.0076855216,-0.010801578,-0.060924396,0.030748658,0.016337452,0.03704959,0.018051684,-0.08693202,-0.02489713,-0.10691278,0.009893023,-0.021122305,-0.02880547,-0.0093600005,-0.014561534,-0.02693735,-0.063030556,-0.07096811,-0.019409155,0.015760385,-0.068544306,-0.06993718,0.009303787,-0.030001434,-0.02593555,0.0048123817,-0.06796,0.029069271,-0.062298093,0.0524432,0.02337319,0.012876425,-0.02885475,-0.012749287,0.04807161,0.061514303,0.008375958,-0.09829573,0.04868341,-0.0041097137,0.08803809,-0.03075661,-0.0050039524,0.05687312,0.083619244,0.070967376,0.031851627,-0.014358594,-0.03926813,0.019087458,-0.020020396,-0.036715593,-0.02140195,0.084374085,0.0437067,-0.0060697314,-0.039067585,0.077268995,0.04117949,-0.095090896,0.051655862,0.055224232,0.117234915,0.0013771979,-0.017987274,0.14728025,0.10043095,-0.027984124,-0.040331688,0.049270343,0.09715714,0.026504172,-0.07902826,-0.0066362387,0.07407865,-0.009575906,0.016139735,-0.06729511,-0.0060702246,0.018955205,0.035935935,-0.0038963961,-0.079440825,0.056366418,0.02615667,0.03310188,-0.035821334,0.017718852,-0.054730892,0.05513063,0.10459897,0.0023413524,-0.07017443,-0.010647675,0.081455655,0.11908874,-0.004998491,-0.038929146,-0.037955474,-0.0003882505,0.09711716,-0.013597698,0.008900437,-0.058237698,-0.038719576,0.11462126,-0.022743518,-0.030745005,0.06956464,-0.043153837,-0.015104659,0.09123231,0.027236506,0.049178965,-0.08656977,0.11121736,0.12234953,0.011295017,-0.03773632,0.010282008,0.0060091335,0.035825778,-0.0494428,-0.023319496,0.07016323,0.08465633,0.03964634,-0.07520787,-0.008197563,0.02217341,0.017166775,-0.027353708,-0.048779108,-0.058313612,-0.14441855,-0.13956672,-0.07065903,-0.04551642,-0.016567573,-0.09181461,-0.042739682,-0.05907357,-0.08914,0.02466021,-0.064198546,-0.088381834,-0.10807193,-0.088072084,-0.033554766,-0.09597135,-0.08944764,-0.055610664,-0.003307777,-0.0202055,-0.015573817,-0.104831174,-0.041460406,-0.115606055,-0.06261956,-0.059717912,-0.028131573,-0.048600256,-0.014287797,-0.05552254,0.006657001,0.051497422,0.01977916,-0.092269,-0.03051899,-0.04128635,-0.07331336,-0.09614485,-0.12671193,-0.025966238,0.020802237,-0.05631433,-0.114302605,0.020846497,0.039652333,-0.012825047,-0.017393708,-0.05667747,-0.036223505,-0.030132126,-0.04920141,0.0232896,-0.06589131,-0.035873737,0.06497472,-0.0052184328,0.08127042,0.07481425,0.056610554,0.03323246,0.06732796,-0.014809977,0.10258875,0.03963967,-0.032383397,-0.020129682,-0.043819364,0.038221084,-0.0044024265,-0.04805378,-0.037297066,-0.069494516,-0.04816777,0.02284227,-0.051109675,-0.026825799,0.050870415,-0.0033158625,-0.06345656,-0.13800359,-0.06596924,0.008603162,-0.06606865,-0.02275902,-0.0070019183,0.07017871,-0.07920955,-0.11313958,0.016122604,-0.05763292,-0.08195182,-0.08704075,-0.014059232,-0.01271973,0.026454696,-0.043580987,0.0066862158,0.08227657,0.089082696,0.12311053,0.013059888,-0.0024401946,-0.062191207,0.013291664,-0.0062600765,0.03839458,-0.04873786,0.0038502791,-0.06379944,-0.038242955,0.05943261,-0.019189488,-0.0979874,-0.039393812,-0.06415542,-0.028146615,0.0008075345,-0.041954696,-0.007664623,0.034234256,-0.055603474,0.05876022,-0.015638346,0.07746603,0.03380876,-0.048644185,-0.065818965,-0.028821092,0.006264589,0.029901354,-0.039878473,-0.07637605,0.028410466,0.0032350475,0.02904309,-0.013650161,-0.041075617,-0.007082711,-0.0584624,0.025171991,0.028853185,-0.013665757,-0.048203237,-0.006222381,-0.061728634,-0.028497465,-0.11209922,0.0076030674,0.015415501,0.02115259,0.0017048669,-0.030257622,-0.012699196,0.042188685,0.007133491,0.059651934,0.0779063,-0.052497506,-0.08918175,-0.015852816,0.021738278,0.023857875,-0.015027458,-0.06165145,-0.023595082,0.00029253607,-0.031302333,-0.051652346,0.038892593,0.08015408,0.043977365,-0.0066854814,-0.13690351,-0.12859039,-0.049968466,0.05961714,-0.06306338,-0.12710759,0.010173624,0.0173674,-0.0025421479,-0.026931267,-0.08798596,-0.012650358,0.052645426,0.013243553,-0.042506687,-0.09005478,0.00088341284,-0.024095658,-0.06787364,0.050286584,-0.06315489,-0.08195551,-0.032816134,-0.04296008,0.16416924,0.06120141,-0.07689357,-0.044900935,-0.026733099,-0.14408606,-0.09260879,-0.0076517514,0.049670637,-0.06874116,-0.08470649,-0.1308715,0.057561148,0.06536871,-0.042750567,-0.049657524,-0.087008454,-0.06620043,-0.028035335,0.07385189,0.057113953,-0.020627916,-0.10246111,-0.12074311,0.03542804,0.15330029,0.07956689,0.073700346,0.046928152,-0.017272195,0.069620155,0.0071175913,-0.040601097,0.003249459,0.039277658,0.016906228,-0.05037404,-0.03658067,-0.039650783,-0.0065698437,-0.027188668,-0.08135138,-0.034247696,-0.027236778,-0.031088747,0.017674452,0.020538725,-0.06292088,-0.08095981,-0.0060792244,0.02581591,0.12180614,0.037228838,0.0103030065,-0.005054924,0.022981288,0.03805764,-0.012236854,0.03896326,-0.13915557,-0.050900187,0.050673444,0.025709271,0.07147195,0.0032302658,-0.12211192,-0.10311235,-0.019983761,-0.015965713,0.01782462,-0.06278299,-0.025239617,-0.083606936,-0.018201182,-0.15013754,-0.121322,0.0016330247,0.0042459844,0.01046538,-0.12743929,-0.036672562,-0.08679304,-0.09443425,0.010933798,-0.0803224,-0.041341156,-0.026339483,-0.03993415,0.048532013,0.012374366,0.05628755,-0.09666541,-0.023295002,-0.03940571,0.030393774,0.14240344,0.039969005,0.0216403,-0.07703227,0.046566874,0.08250653,0.10570566,0.17580663,0.07929165,0.014437211,0.0573807,0.06078561,-0.022788385,0.015401245,0.042990085,0.049521327,-0.104419865,-0.01386859,-0.021390418,-0.050195545,0.015763855,-0.016435625,0.003912583,0.04728088,-0.03519779,-0.04994202,-0.014807201,-0.014976621,-0.048137613,-0.04022061,-0.056237437,-0.01827003,-0.089876845,-0.042072974,-0.07763647,-0.037665285,-0.059814893,-0.07109626,0.07001825,0.077911295,0.020689454,-0.024770588,-0.110239334,-0.13224174,0.086419635,0.002721004,-0.019919166,0.039653547,-0.10397268,0.0445071,0.05567108,0.050596885,0.056095418,0.09184414,0.124229595,-0.022983251,0.051489215,-0.074922584,0.080730796,-0.06797362,0.019518442,-0.017687399,-0.023618624,-0.030875046,0.008928344,0.06467148,0.023150865,0.065653145,0.0913744,0.01250633,0.010840078,0.028141942,-0.060871486,-0.05781583,-0.03288999,-0.08503633,-0.08668784,-0.09617702,-0.040590357,0.04571298,-0.08048513,-0.07259295,0.011634438,0.019295491,-0.06637663,0.04749115,0.015287312,0.0064099263,-0.09180113,0.018916715,-0.005519326,0.06803213,-0.033755712,0.023699978,0.027980115,0.021957647,0.06646987,0.056564745,0.061400857,0.053242292,-0.01983276,-0.07656767,0.050188303,0.041430812,0.012915916,-0.020196095,0.002891718,-0.0757012,-0.084395126,-0.019213473,0.12755759,0.061152216,0.048734248,0.07342369,0.026798548,0.04375366,-0.004359197,-0.0780986,-0.004218668,-0.06450937,-0.049946383,-0.11474357,-0.04345055,-0.040734496,0.0673909,0.029985188,-0.0051100818,-0.07729472,0.01148974,0.04984236,0.1266868,0.04726468,-0.017915254,-0.009510458,-0.042101126,0.03556366,0.0028261791,-0.08983463,-0.010605234,-0.05229692,-0.019920444,0.08108132,0.01038537,-0.07085503,-0.048690625,-0.04759431,0.013316307,-0.07033968,-0.028321864,-0.039330505,-0.06864428,-0.06192905,-0.044241097,0.06371252,0.03429687,-0.068632334,-0.042233933,-0.006758915,0.01598213,-0.13097027,0.003630019,-0.010781569,-0.109475836,-0.062090736,-0.061123535,0.047897674,0.012648061,-0.00160122,-0.031158682,-0.09998358,-0.029597355,0.02137307,-0.12670559,0.0026077097,-0.06595517,-0.13477308,-0.096273355,-0.027824001,0.059158508,-0.015357628,-0.1463673,-0.035613995,0.0013868592,-0.09943159,-0.048529074,0.010569835,-0.045871478,-0.07653382,-0.08584396,0.010514004,-0.0634782,0.030392174,0.020347724,-0.08777052,-0.064358234,0.033092994,0.0353395,-0.12089418,-0.123266034,0.011572712,0.032173395,-0.0322431,-0.17836513,-0.1448989,-0.051719774,0.06383453,-0.029005708,-0.06784668,-0.0038139874,-0.08523937,0.03370303,0.03824633,-0.04800505,-0.06622557,0.018179221,0.04265874,0.091259636,0.09141627,0.0163063,0.11202708,0.05863672,0.12673338,0.027581876,-0.09550865,0.03128196,0.113305226,0.051700737,0.048437875,0.09042302,-0.035916023,0.010078645,-0.13054448,-0.0423339,0.033046857,-0.063098304,0.026043065,0.06603404,-0.08168361,-0.13550422,-0.013708129,0.004923204,0.009823006,0.08137071,0.13345587,0.031490676,-0.0635521,-0.0146804,-0.017606718,0.101675585,-0.05411623,-0.13133758,-0.08279386,-0.09555781,0.07333374,-0.059761867,-0.06125857,-0.004261428,-0.1219229,-0.013576218,-0.05357751,-0.002974015,0.052669533,-0.028790234,-0.017094206,-0.08259191,0.033994272,0.05219831,0.007239503,-0.040968176,-0.04970944,0.064287804,-0.012633435,0.03276879,-0.06862412,-0.046050355,-0.005828899,-0.03864388,-0.06829854,-0.015200277,-0.009002969,-0.0019370462,0.02042816,0.011792704,-0.0005546939,-0.024548817,0.03808423,0.119429566,0.1431929,0.17149492,0.05037338,0.033821467,0.068300396,0.061648402,0.06480411,-0.0976212,-0.049032044,-0.11459644,-0.07150212,0.14291383,0.037756883,-0.07360538,-0.08614765,-0.029796693,-0.016320925,0.076399684,0.01354087,0.06414852,-0.040444136,-0.0694793,-0.048957616,0.0051661516,-0.062215365,0.06577434,0.040342793,-0.065925896,-0.030366246,-0.046121374,-0.010904158,0.06471825,0.06392642,0.06815271,0.08247151,0.04362197,-0.07414235,0.037380125,-0.07713774,0.042433426,-0.01064212,0.0023547502,-0.047590394,-0.027454082,0.007897762,0.0016150994,-0.05685775,-0.007871024,0.048333816,-0.057319492,-0.055342045,-0.016092882,-0.08645549,-0.046138372,-0.055340722,-0.06380648,0.061788972,0.006925986,0.004190724,0.014411391,0.019396422,-0.054962754,0.025321636,0.0040244507,0.0019143282,0.01911408,-0.024891097,0.03887097,-0.04367968,-0.059385035,-0.068810835,-0.013269124,-0.027989335,0.025345093,0.051434413,0.079410225,-0.009905808,0.055584442,-0.00029745972,-0.02198507,0.015584707,-0.10670451,-0.07600802,-0.0019628853,0.013808131,-0.039847825,-0.026105022,-0.09458847,-0.084175706,-0.079176396,0.019412892,-0.06657446,-0.012984792,0.044194765,-0.016628278,-0.014081259,-0.10067578,-0.019644268,-0.036225244,-0.02314869,0.03263631,-0.019626603,-0.02230504,0.05126833,0.13244902,0.14916205,0.026574407,-0.017273095,0.051455017,0.022944646,-0.007118849,-0.04410441,0.0012749485,-0.052793644,-0.10252088,-0.061376642,-0.048173655,-0.05046929,-0.08505913,-0.065681554,-0.035324875,0.029068716,-0.06552185,-0.10250243,-0.04024878,0.06371119,0.040922754,-0.027710993,0.048508838,0.099163905,0.009163738,-0.019619077,-0.14547998,0.006135715,-0.061428193,-0.037936557,-0.09202051,-0.057068966,-0.023355769,-0.14499469,-0.13246809,-0.09403539,-0.064475745,-0.11967458,-0.03736069,-0.08673581,-0.12659849,-0.032724906,0.03243353,-0.08697372,0.03404283,0.009801889,-0.022256246,-0.02886571,0.032584596,0.004439082,0.104990155,0.055814505,-0.01356418,-0.023588622,0.025431706,-0.023354704,0.021345641,0.024068873,-0.0072976234,-0.061842926,-0.087042384,-0.090499476,-0.063090004,-0.018416658,-0.056571227,-0.03968368,-0.006080788,0.010704558,-0.0022137526,0.005939888,0.03494214,-0.14645705,-0.04833489,-0.10344013,-0.060511786,0.11157835,-0.05533735,0.09315258,0.114302404,0.04726273,0.06350709,-0.0013552469,0.17543435,0.17367002,0.031101177,-0.035846874,-0.0009296035,0.02040443,0.07287694,0.00093397836,0.08773543,-0.021953307,-0.014602141,-0.004282325,0.040778477,0.074551776,-0.03243529,-0.019840695,-0.053931117,-0.04686358,0.015636275,0.0010530184,-0.023740755,-0.045642104,-0.0023103924,-0.036078673,-0.0075575877,-0.019197498,-0.0124498615,-0.018110305,-0.04251575,0.15825085,0.029334884,-0.003382394,-0.034545783,-0.0199015,-0.00047704714,-0.019545685,0.040209435,0.0029685022,3.31344e-05,-0.01694516,-0.050342824,-0.026062988,0.035053745,0.0142563665,-0.06570873,0.020972388,0.08113512,0.05377156,-0.029154323,-0.10875921,-0.025600445,0.021117616,0.0028857184,-0.042137448,-0.08762,-0.08863708,-0.056921896,0.013437783,-0.058270432,-0.04081975,-0.06442542,0.058058806,0.1841822,0.13487475,0.045392293,0.1003978,0.04106859,-0.019193541,-0.066087246,0.0052339635,-0.06257239,-0.01193381,0.009702849,-0.05079496,0.040567204,-0.016573692,-0.06957021,-0.0092796935,0.08181826,0.11887905,0.051017433,0.115534894,0.060076933,-0.0139075285,-0.056893338,0.06469489,0.04873897,0.017074347,0.060030196,0.038503997,0.040061496,-0.018459564,-0.0018297723,0.031397544,0.110506825,-0.0049700765,0.044442106,0.02410781,-0.0010262906,0.04244774,-0.01782627,-0.0027947484,0.046313763,0.09118412,-0.0203522,-0.059253387,-0.031966824,-0.07871341,-0.06513606,-0.0032253228,0.013594102,0.020136083,0.03146305,0.07156625,0.034133606,-0.015004214,0.044214156,0.023978243,-0.012256564,0.015963739,0.011632152,-0.047543105,0.043283727,-0.042592574,0.045190614,0.05330601,0.08551607,0.08748658,-0.017717814,-0.041629884,0.0053401412,0.018990863,0.0102391755,-0.032634377,-0.07430317,-0.057922106,-0.020617124,0.05309994,-0.042462144,-0.059458345,0.052573536,0.09328523,0.06479046,0.0013690137,-0.08319766,0.014995408,0.051352553,0.13196391,0.031791378,-0.0013105682,-0.03368963,0.0001956624,0.010724714,-0.045378912,0.02278088,-0.017182708,-0.048204627,-0.052372836,-0.062632695,0.00038001584,0.017402563,-0.028905163,0.025293337,0.071578324,0.026680768,0.037861597,-0.019296456,-0.010128646,0.09379307,-0.009943566,0.0127201,0.005088657,0.08183721,0.06546203,-0.029260937,0.005489895,0.024957968,0.017492026,-0.078819044,-0.1058948,-0.12683538,-0.1484758,-0.102265194,-0.02114957,-0.009158426,-0.08519213,0.035048075,-0.013428094,0.044843912,-0.027363595,0.022231784,-0.06095964,0.05290744,-0.072593525,-0.062675394,-0.031169506,-0.06095428,0.06591654,-0.009451731,-0.037260745,-0.07281728,-0.115193434,-0.003374805,-0.050032884,-0.1444915,-0.06477195,-0.08733896,-0.08078962,-0.10357009,0.021293486,-0.1007219,-0.04579962,-0.04060346,-0.015462958,-0.061573718,-0.060552143,-0.052813355,-0.035819817,-0.045503248,-0.033407103,-0.013413748,0.10345701,0.10993407,-0.03579248,0.03375953,-0.0052776444,0.018354652,-0.013741892,-0.14974743,-0.047013633,-0.103313096,-0.051893022,-0.0924332,-0.11755735,-0.0053039086,0.1044927,0.10082144,0.07614342,0.00775063,-0.06754267,-0.027333014,-0.012295869,-0.08373423,-0.043113288,0.08296246,0.0524401,-0.015024674,0.018549787,-0.01208639,0.022970814,0.13780332,0.064175345,0.15290491,0.11084308,-0.07466656,0.0027828072,-0.0003778366,0.16377896,0.23520933,-0.053653754,-0.018843068,0.02261059,0.029827306,0.0023438232,-0.010946896,-0.076087296,-0.047792986,-0.056270037,-0.050380483,0.05482135,0.021678733,0.001745724,0.011036801,0.03795638,0.028229445,-0.008465871,-0.047288895,-0.011746466,0.00509811,-0.028676819,-0.0063036643,-0.0621882,-0.09658755,-0.022985402,0.018691259,-0.014302162,0.052734047,0.047174413,0.04147591,-0.047414944,0.012893416,9.784655e-06,0.050980493,0.07526123,0.0104531525,0.066350944,0.027988445,0.048168894,0.06929817,-0.006243223,-0.045260515,-0.004851908,0.05038998,-0.013564525,-0.07156509,-0.026576804,-0.09417808,-0.07106172,-0.07036553,-0.037613902,0.0064304327,-0.033872906,-0.029580519,-0.073404096,0.07763468,0.105859466,0.017859798,0.051467776,0.04681987,-0.017027935,-0.014524255,-0.04280894,-0.019861823,0.08788817,-0.1122818,-0.111395955,-0.09367523,-0.04065677,0.08798162,-0.020248862,-0.023812765,-0.14619653,-0.12763795,-0.108448826,0.036674436,-0.06617392,-0.0032896434,-0.007690082,0.00876529,-0.028619254,-0.007100233,0.03272785,0.018933335,0.05359847,0.021129025,-0.062137607,-0.0013133722,0.055834953,0.013634238,-0.07636421,-0.0038202512,-0.045386113,-0.025906458,0.048312478,-0.025567146,0.017762566,-0.06931666,0.044269186,-0.042001124,0.022397226,0.03223069,-0.05150214,-0.07372567,0.044474993,-0.028931027,-0.06787132,-0.026425384,-0.027220316,0.026376061,-0.022805437,-0.04798252,-0.045810845,-0.030113187,0.06749665,-0.06919278,-0.031189363,0.027625514,-0.03510937,0.030002423,-0.03607749,0.02810874,0.0033821547,0.051491715,0.06286021,0.0019916468,0.051800933,0.020749236,0.07198978,0.110569164,-0.05929742,0.072318785,0.06730168,-0.016424716,-0.0059290132,0.01544773,0.0537994,0.084090285,-0.02859721,-0.086683944,0.057481706,-0.0010906007,0.02014092,-0.005846765,-0.021688089,0.070607476,-0.01529051,-0.0140770255,0.04247402,0.018141072,0.037945494,-0.015924687,-0.042075243,0.04371129,0.06770997,-0.0067708706,-0.09174001,0.08978005,0.033686742,0.13638794,-0.059033666,-0.028328871,0.005058,0.06853166,-0.040656295,-0.046637785,-0.04212667,0.060594052,0.006623643,-0.08010961,-0.053840313,0.0032194497,-0.03393014,-0.041509572,-0.019520488,-0.09478946,-0.05985923,-0.07478998,0.07474909,0.16727313,-0.047332253,-0.047824487,0.035070013,0.0656524,0.09788742,-0.07481059,-0.043593377,-0.001976315,0.024867538,-0.0009061272,-0.06097546,0.03998603,-0.038842376,0.0041842707,-0.0631963,-0.078572966,0.044947457,0.007438819,-0.09210691,-0.10252911,-0.015042517,-0.043210983,-0.0761029,-0.016246641,-0.032524582,-0.029700585,-0.03632355,-0.03755359,0.03662037,0.10635744,0.025873706,-0.045193195,0.007100315,0.03555597,0.03346317,-0.038261116,-0.046727125,0.06445769,0.027321493,-0.07768096,0.036436174,-0.01370745,0.0075270254,0.04404627,-0.059512578,-0.040431373,-0.008015958,-0.021854637,-0.04719749,-0.06810554,-0.048367675,-0.04849298,-0.005661701,0.044007927,0.01816452,0.01917061,-0.0019348752,-0.041399237,-0.048101895,0.049613595,-0.097115956,-0.043980666,-0.02653531,-0.0023708285,0.046565253,-0.05140316,-0.009851974,0.038606238,0.082467794,0.1151702,-0.06300289,-0.05484372,-0.13289142,-0.10092988,-0.03599634,-0.026586026,-0.03839256,-0.011047991,-0.028081413,-0.026689488,-0.1037656,-0.0075740707,-0.038277987,-0.020732284,0.0009339947,-0.03373058,0.0006561195,-0.030784326,0.036412187,-0.016815303,-0.046725444,-0.069534615,-0.056908105,-0.03983667,-0.040652003,0.091600336,0.0026522495,-0.045408294,0.02603386,0.022927687,0.011820174,0.055254903,-0.019116059,0.0029137575,0.08185336,0.018029189,0.03162436,0.010523552,0.09909788,0.04177251,-0.0086433515,-0.025570998,-0.012607074,0.02044722,-0.070849605,0.024760783,0.04906296,0.022075772,-0.047432844,0.019466136,-0.12212414,-0.10826839,-0.08429362,-0.0045343107,0.06878799,-0.109205425,-0.058770392,-0.049256105,0.051530365,-0.028719714,-0.0295649,-0.022960095,-0.050803754,-0.024453187,-0.13984798,-0.044051904,-0.051534325,-0.026884997,-0.057804305,-0.09434915,-0.029935578,0.040740497,-0.014263197,-0.11645249,-0.106364734,0.018237831,-0.022467757,-0.0011218631,-0.052804608,-0.05449212,-0.015354128,-0.064111724,-0.045994665,-0.0718059,0.013479953,-0.007423192,-0.0149707915,-0.09007705,-0.00576298,-0.030629419,0.0023700125,-0.042695597,-0.009517168,0.0049601677,-0.02204123,0.037158914,0.0060053747,-0.0019604883,-0.02850802,-0.06473536,-0.021146813,0.032082554,-0.009215109,0.06978553,0.028156415,0.0408752,-0.050943438,-0.018657986,-0.031503037,-0.031248968,0.011519329,-0.035294138,-0.045721374,-0.0062998105,0.04725207,-0.01028441,-0.05174427,-0.004838912,-0.021307852,0.016113428,-0.07789831,0.035009652,0.016286708,0.003975246,-0.020867283,-0.03717231,-0.040201474,-0.061475195,0.02199801,-0.08513598,-0.09656102,-0.0009559716,-0.058504287,-0.026279587,-0.037018027,-0.021500362,0.05435384,0.01381238,0.018559165,0.06318851,0.07387716,0.020208556,0.1572135,0.096581355,-0.055899005,-0.021461291,0.038533974,0.07292525,0.08928342,-0.056871694,-0.020013146,-0.016829573,-0.012699609,-0.040812228,-0.0106737055,-0.004414651,-0.0050480994,-0.07052068,-0.04471838,-0.022494923,0.0025120282,0.019071404,-0.0051971846,0.029697414,0.032847106,0.00062199845,-0.07445373,-0.017521886,0.050228246,0.1441062,0.06149764,0.011825426,0.06885508,0.10934873,0.0014308506,-0.058769714,-0.03130808,0.04852147,0.054663528,0.048987944,0.00861163,-0.0034850475,-0.059501737,-0.015438874,0.0061700433,-0.004731367,-0.062873274,-0.044801567,-0.00083422335,-0.030901931,-0.08879813,-0.08871907,0.015908273,0.029301398,0.067121595,0.042704966,0.010618944,0.040173125,0.07211312,0.020932635,0.0073969974,-0.015809247,-0.029485535,-0.056655478,-0.0021999418,-0.06541665,0.014545372,-0.067704335,-0.05139487,0.0042889155,0.048029244,-0.014789842,-0.031723488,-0.027178394,0.036940806,0.012010923,0.0031754249,-0.018354675,0.055334073,0.12900804,0.06821348,0.009626781,0.02808314,0.1324368,0.16427521,-0.07506687,-0.04318595,-0.023484653,0.027638676,-0.01711903,-0.03224903,-0.01350687,-0.06501073,0.023845138,-0.04917035,-0.04971411,-0.08683611,0.0030537485,-0.027315414,-0.064195976,-0.07555831,-0.059815675,-0.0019357416,-0.043895606,0.025689479,0.021520393,0.060554367,-0.08571355,-0.023349311,-0.09716047,0.01478441,-0.046311203,-0.0584379,-0.0041156653,-0.032423858,0.039004304,-0.02417109,-0.08242468,-0.0868987,-0.034970015,-0.07772457,-0.09145816,-0.044377275,-0.08587981,0.0087832315,-0.052604076,-0.04884808,0.00074021076,-0.015077456,-0.044289652,0.0046892697,0.06001001,0.049364325,-0.04655228,-0.06966459,-0.006884702,0.056543488,0.03927694,-0.03116959,0.058501314,-0.010957624,-0.0029705525,0.028909955,-0.047565,-0.024232628,0.064067796,-0.027982732,0.0071746726,0.036805537,-0.02757908,0.06560828,0.00780488,0.02460323,-0.018939082,-0.005064593,0.06592136,0.045147933,-0.03323771,0.0074434583,0.09590154,-0.083263904,-0.035067383,-0.13301733,-0.024392335,-0.06615707,-0.054426234,-0.10767724,-0.1151298,-0.112887785,-0.09031128,-0.07190141,-0.079060666,-0.011661392,-0.020463001,0.0028952402,0.0033220318,0.010815295,0.053598847,0.08656469,0.076479554,-0.005443364,0.025688283,0.003276822,-0.028036086,-0.041897483,-0.021729626,0.037425764,-0.03898557,-0.06840883,-0.08043251,0.02326436,-0.0009371023,-0.07332629,-0.06315052,0.045007367,-0.004820914,-0.048008144,-0.044703763,-0.033241734,0.0046752673,0.004287882,0.020904468,-0.0027406719,0.028978193,-6.165915e-05,-0.102651305,-0.08947768,-0.01938419,-0.070384204,0.0045027277,-0.014179941,0.024570972,-0.07497819,0.006905796,0.036862757,-0.051381405,-0.08502927,0.010871216,-0.036449946,0.0074713053,-0.00030914074,0.040574443,-0.07444878,0.041187745,0.022691328,-0.037658487,-0.014455076,0.0139652295,-0.037910413,-0.049403485,-0.051268514,-0.04292837,-0.069089584,-0.07063531,0.04476462,0.035330266,-0.008280443,-0.034877975,0.010097232,0.03428958,0.052528642,0.0057699396,-0.016561985,0.08119294,-0.031217285,-0.018320095,-0.06162694,0.030058412,0.05072863,0.049141735,-0.020598453,-0.08098488,-0.023550568,0.063193716,0.051614888,0.02985531,0.029305944,0.07822962,0.008563263,-0.04308994,0.10465428,0.022668611,0.035339255,-0.077953465,-0.02553436,0.090157375,0.065839514,-0.021576172,-0.05014779,0.06552415,0.06867785,0.0049834293,0.007076471,-0.020414699,-0.009089507,0.04504138,0.0098013645,-0.0619826,0.031184945,-0.017550947,-0.00096391904,0.026336541,-0.0027006313,-0.019886209,-0.07353229,0.09542283,-0.03528981,-0.0065370766,-0.013082949,0.010079263,0.082803026,-0.03274107,-0.09846655,0.002411686,0.05558817,0.085089125,-0.09017719,-0.035996914,-0.05128341,0.0024417508,0.05624877,-0.052368186,-0.07335737,0.07510975,0.017150415,0.0874012,-0.012620325,0.11240863,0.09858957,0.028552685,0.076449536,0.12875845,0.011203264,0.05930907,-0.104808435,0.14543952,0.08289888,0.05905474,0.021526618,-0.05079831,0.072710484,0.046295293,-0.033161994,0.026660487,0.015295156,0.023240197,0.024658745,-0.05363424,0.04385018,0.036708746,0.050314493,0.043392107,-0.068120226,-0.020799402,0.023579141,-0.05567898,-0.10704404,-0.038356084,-0.10090958,-0.058877442,-0.03684067,-0.056192033,-0.018002434,0.012836666,-0.06750107,-0.10346894,-0.109931685,-0.055951238,-0.034369327,0.013219622,-0.016513571,-0.014673565,-0.047823448,-0.06228646,0.026681365,-0.11524935,-0.09917984,-0.054769937,-0.033558473,-0.019492099,-0.04701063,0.006060785,-0.09377155,-0.06408293,0.020206207,0.0057910094,-0.037257075,0.0053108432,-0.06349728,-0.07083524,-0.064235404,0.003767963,-0.07520643,-0.03790524,-0.06461325,-0.0039274115,-0.075110376,-0.05736894,-0.053246073,-0.029969871,-0.09434733,-0.07798226,-0.03720034,0.059089705,-0.043146316,0.061402738,0.06289167,0.032898493,0.024737062,-0.038903624,0.082676254,-0.029741745,0.0139132915,0.029397177,0.032828216,0.058673233,-0.016257508,0.033458438,-0.071830824,-0.041807808,0.026360044,0.016246134,0.041456953,-0.055271555,-0.046049744,-0.036863007,-0.063095234,-0.040880397,-0.018686827,0.03874041,-0.0048810826,0.012316807,-0.11985493,-0.090410754,0.027398381,0.034713347,-0.10291446,0.016193105,-0.0027944962,-0.03442186,-0.016583983,-0.112461,-0.09581159,-0.030370658,-0.027004702,-0.12287037,-0.04164881,0.025355373,-0.06123167,-0.046940543,-0.03761799,0.10406951,0.07662291,0.14431313,0.10507191,0.0059778066,-0.08454209,0.0031189357,-0.02498056,-0.06726609,-0.06376179,-0.07544575,-0.11783294,-0.07295149,0.060315877,0.02399244,-0.081984885,-0.062838495,-0.04473385,0.062393893,-0.062452286,-0.03251983,-0.012727626,0.00621318,-0.024122039,0.052796733,-0.03152149,0.0017846903,-0.06970932,-0.016050315,-0.06236018,-9.135405e-05,0.047927383,0.07940753,0.021802519,-0.048709255,0.02343302,-0.049590055,0.01567615,-0.0002920632,-0.028146293,-0.08615327,-0.020717798,0.006002374,0.018996686,-0.03849704,-0.037460912,-0.056375816,-0.029819686,0.049345642,-0.08737723,-0.04335396,0.026473317,-0.087318845,-0.062497497,-0.09462938,-0.009486891,0.026326781,0.07510343,-0.0036282174,-0.061769255,-0.018524665,0.122713655,0.022299256,0.08302647,-0.04902505,0.028153695,0.13399367,0.027992675,-0.004341212,-0.050426096,0.06891127,0.05734673,-0.07459458,-0.13257957,-0.06512029,-0.013766618,-0.025979925,-0.12372821,-0.0190335,-0.024320958,0.04219111,-0.08821892,-0.013988398,0.08388138,0.040084932,-0.012511219,-0.07231112,-0.0010091248,0.11155735,0.06273875,-0.037876688,0.046891827,0.10390522,0.045929816,0.016294861,-0.029521964,0.13015276,0.11421129,-0.011742702,-0.083382115,0.009913662,0.027462844,-0.06239291,-0.018519515,0.025311023,-0.07247638,-0.04383381,0.07441922,0.10149052,-0.0161885,-0.17598289,-0.0552541,0.05609798,0.08440287,-0.052325666,-0.083346896,0.09599514,0.099138215,0.041638553,-0.0028585764,0.043114275,0.065677255,-0.024556106,-0.11663812,-0.05580811,-0.03629187,0.07956985,-0.022704067,-0.116660856,-0.019577153,0.07863437,-0.075172916,-0.070848025,0.05129199,0.06683223,-0.021569453,-0.0433863,-0.050514504,0.05454135,0.012158556,0.03445795,0.012471154,0.023561804,0.005710181,0.0972241,-0.00092632475,0.07807074,0.044981126,-0.013852089,0.07337803,-0.025953615,0.03165271,0.009291905,-0.04349343,-0.077201694,-0.07340101,-0.07880171,0.059959266,0.006254536,-0.0045269514,-0.10068539,-0.107644826,-0.06261896,-0.05587406,-0.105733894,-0.09375854,-0.060595714,-0.0612265,0.0015589135,-0.086742416,-0.16526937,-0.12247792,-0.13266343,-0.02431013,-0.07561215,-0.13550176,-0.14733976,-0.14462695,-0.0854884,-0.07045439,-0.1764386,-0.16033824,-0.062253222,0.029515108,0.003551563,-0.15825951,-0.13433546,-0.05402398,-0.05683969,-0.083826944,-0.0843569,-0.06557772,-0.03261842,-0.103811525,-0.05150967,-0.02550901,-0.008663206,-0.023321068,-0.1292468,-0.05285291,-0.028260142,0.09627571,0.002828589,0.009992016,0.057497546,0.0810277,0.047674157,-0.026301567,0.031205868,-0.0027197017,0.016547164,0.008023818,0.043949295,0.027476683,0.08653242,-0.02791996,0.06484577,-0.03385471,0.102435954,0.035441954,0.038251128,0.034636844,0.10065473,0.068357386,0.042006552,0.036444847,-0.007623731,0.03788649,-0.093527466,-0.11246378,-0.15145329,-0.051163867,-0.12453131,-0.13733767,-0.04968319,-0.103439994,-0.10125136,-0.055829894,0.07448998,-0.0747457,-0.0021286255,-0.061560474,0.070256695,-0.043203313,-0.023026275,0.053352594,-0.043076348,-0.0907099,-0.06244483,0.0808344,0.043961547,-0.0059470567,-0.0011326749,0.113813244,0.0048236502,0.04853987,-0.04878451,0.010094776,-0.026305685,-0.0030019034,-0.056315728,0.009861935,-0.01807105,-0.07467686,-0.045366663,-0.01975994,-0.109201804,-0.059628177,-0.029361071,-0.045847073,-0.020978902,-0.05055015,-0.053499885,-0.0028746524,-0.016277408,-0.035536658,-0.070924774,-0.01590759,0.0049638576,-0.023460235,-0.008909356,-0.030900469,-0.040566474,0.04403472,-0.037523262,-0.005771611,-0.011145706,-0.024186006,-0.025452381,0.050362613,0.049026504,0.0080846585,-0.06060814,-0.0037037642,0.019038115,-0.05770909,-0.08263183,0.010366847,-0.027434189,0.030692095,-0.0042926176,0.008621681,0.012099,-0.032425813,0.029800547,-0.076970935,-0.08570755,-0.027452292,0.059670765,0.0038290494,0.002989408,-0.019683622,-0.02319988,0.10945968,0.06863188,-0.019837102,-0.08430156,0.09040405,0.07401841,0.064559065,-0.087408185,-0.07533395,0.07172582,0.021475898,0.03790348,0.0065693078,0.00041297614,0.057344124,0.028976992,0.021801963,-0.016031258,-0.005763821,-0.07950236,-0.020845164,-0.035401408,-3.362151e-05,0.035913378,0.0030255301,0.047223594,0.08376582,-0.0061971103,0.040509157,-0.039482586,0.07744205,0.08623327,0.0012162214,-0.037563417,-0.0656946,0.06338697,0.024082653,-0.009427367,-0.086900815,-0.020702913,0.09378755,0.12477248,0.06585542,0.021301413,-0.06393827,-0.012333707,0.108128905,-0.035458893,-0.062464852,-0.02873448,0.09297964,0.07770588,0.050041433,-0.030914329,0.005536543,0.10836321,0.04488597,0.041293476,-0.100543216,-0.006746949,0.116781786,0.11085806,0.037190575,-0.045548957,0.052417662,0.08870039,0.016989404,0.122149445,0.048323594,0.035279118,0.044163402,0.083921954,0.11674633,0.06025673,0.01843614,-0.048247132,0.054807022,-0.0046956236,-0.015783811,-0.031648222,-0.033303186,0.045750175,0.017397009,0.019759448,-0.045661926,-0.036254883,-0.0026080967,0.03148793,0.038250174,-0.0054425905,0.025062963,-0.06835991,-0.025068734,-0.016825821,-0.0652308,-0.08958491,-0.02349908,-0.051314082,0.014095982,-0.07219119,-0.058179323,-0.05017555,-0.043744028,-0.059143994,-0.051361974,-0.096654326,-0.07479792,-0.05374934,-0.023030628,-0.092350595,-0.073877074,0.012030832,-0.06885527,-0.092324436,-0.11438935,-0.067973435,-0.037796315,-0.06520814,0.011989948,-0.015403481,-0.058746837,-0.024364019,0.027419914,-0.065753646,-0.09488503,-0.076405026,-0.028983118,-0.025527408,-0.07057291,-0.04076106,-0.06999996,-0.037611548,-0.071635835,-0.056268066,-0.092429146,-0.04847923,-0.06984622,-0.064773016,0.024457548,-0.04539664,-0.05370222,0.019197403,-0.011759817,-0.040884312,0.071662195,-0.052963097,0.0441365,0.01840597,0.059611958,0.06023413,0.056198355,-0.041659046,-0.005768841,-0.012815119,-0.044164594,-0.01448782,0.029909935,0.077624045,0.014015076,-0.049339127,0.025444778,-0.008069007,0.016226584,-0.015906733,0.0004468544,0.063383974,0.0842067,-0.05415615,-0.076772355,-0.093565576,-0.0899566,-0.08793803,-0.09230357,-0.11512172,-0.029713826,-0.043355722,-0.015487225,-0.06636373,-0.085591555,-0.032685097,-0.014967431,-0.08964007,-0.03174142,-0.042131536,0.023720847,-0.08171254,-0.090693586,-0.035321936,-0.07930428,0.035347417,0.02789729,-0.052890107,-0.062060475,0.0009382854,0.021759562,-0.045672256,0.044202052,0.051668253,0.030795984,0.013111999,0.05759056,0.07457166,0.08603553,0.08215999,0.07605556,0.016361637,-0.084547065,0.0038490535,0.039697543,0.011710793,0.08960304,-0.11416885,-0.028668901,-0.148591,-0.024398232,-0.01530729,0.0040255687,-0.050626602,-0.06569055,-0.07068631,-0.013281271,-0.019993553,-0.067044534,0.04355712,0.0520654,0.028116364,0.03354059,-0.004607062,0.00480409,0.07524564,-0.07762395,0.06962328,0.015102738,0.019812074,0.04747015,0.0907362,0.04685138,-0.019217925,-0.05323696,-0.054277197,0.03746105,0.030183075,-0.041610327,-0.0621154,0.037908755,-0.111695826,0.12342241,0.11692222,0.037779476,-0.03156128,-0.06616156,0.015343565,0.0445645,-0.067140654,-0.038783677,-0.07358644,-0.018376825,-0.049074747,-0.03227649,-0.052491415,-0.18339056,0.10053216,0.0953089,0.114107594,0.0009818092,-0.10790555,-0.09247996,0.031157805,0.061156552,0.0996611,-0.009563304,0.02291604,0.039790288,0.04756415,0.07296454,0.057296455,-0.05456188,-0.0076041874,-0.11750614,-0.052657805,0.009164403,-0.056680776,-0.046912283,-0.058689844,-0.012253849,0.00064767903,-0.107383676,-0.11162071,-0.08732154,-0.0013776056,-0.06987263,-0.039172903,-0.037472066,0.1050622,0.09397365,-0.072886355,-0.10353584,-0.0034406616,-0.0067708837,0.059449982,-0.14352679,0.0077256337,0.041689377,-0.019228278,-0.035568822,-0.0035494228,-0.019842763,-0.08903077,-0.042409103,0.027069643,0.05039711,-0.12630767,-0.13056272,-0.10503368,-0.046002783,-0.09635549,-0.028646328,-0.04958633,-0.03315362,0.05242005,0.062373802,-0.08541391,-0.01866049,-0.03784029,0.022782644,0.07124974,-0.039722383,0.047359332,-0.059213307,-0.059745643,-0.0538139,-0.098367095,-0.11170983,-0.12482379,-0.054691833,-0.06538492,0.0022614622,-0.03722776,-0.151865,-0.053882804,0.006100244,0.08154433,0.048430704,-0.1433063,-0.09099611,-0.10865053,0.04908299,0.00076005637,-0.07604055,-0.083001904,-0.034052394,0.09396157,0.03558311,-0.0006385711,0.119118765,-0.046778407,0.14479466,0.17063256,0.2402892,0.16510117,0.078847066,0.014022266,0.07016678,0.08174907,0.0016987037,0.019251151,0.008591354,-0.0696167,-0.04918264,-0.0030950059,-0.11707971,-0.031009937,-0.0001477401,-0.028989675,0.03408628,-0.07673382,0.10871158,-0.05754218,0.024409078,0.06604843,0.017403651,-0.02235514,-0.037275527,-0.025841193,0.12100394,0.041249532,-0.05911729,-0.08891652,-0.064371824,0.0008448856,-0.021539278,-0.039032657,-0.022833234,0.086210705,0.032907266,-0.03904813,-0.033391304,0.025884142,0.058378477,0.0255781,0.027783984,-0.04154704,0.011541691,-0.0465426,0.0170546,-0.037194617,-0.037654843,-0.08985363,-0.0783202,-0.048310935,0.032830555,-0.013763106,-0.028918607,-0.027333476,-0.03561093,-0.002689242,0.026330255,-0.06711386,-0.01712849,0.04752707,-0.09276186,0.052987527,0.013849454,-0.038801827,0.05801398,0.012214132,-0.073042706,0.025645796,0.094343096,0.08424765,0.050083637,-0.122159615,-0.19320996,-0.18177295,0.0209273,-0.016057888,0.06611701,0.031766303,-0.008987569,-0.00013973223,-0.106072254,-0.000101792306,-0.03197292,0.06116923,0.075979464,-0.042329818,-0.052339684,-0.026021574,-0.017675007,-0.022167774,-0.01616591,0.024406275,-0.012320111,0.06718565,-0.004510697,-0.010213612,-0.04443774,-0.00035343526,0.093271606,0.11227983,0.03316591,-0.016302085,0.06405145,0.086209655,0.035174895,-0.039289366,-0.029173065,-0.0046073967,0.00016293625,-0.008020101,-0.0015441134,0.03477476,-0.073262565,0.06346857,-0.029647881,-0.031846315,0.006979228,-0.06398007,-0.06872152,-0.069183886,0.046032913,0.04220921,0.039530326,-0.03218741,-0.044742916,-0.070833765,0.009535441,-0.057784304,-0.02734228,0.06550318,-0.015020267,0.008128078,0.019104011,-0.073213205,-0.09128025,-0.045773037,0.07722643,-0.062294893,-0.06348597,-0.015986824,-0.027685303,-0.09625482,-0.027431717,0.011333289,0.004588329,0.045573793,-0.063624606,-0.09707084,0.044038128,0.05222091,-0.050021276,-0.036492497,-0.1010087,-0.026787903,-0.058434024,-0.021829592,0.04417128,0.010385755,0.021305723,0.04171181,-0.051602192,-0.009106128,0.03140235,-0.05182651,-0.0349452,-0.084061846,0.014363772,-0.04350568,-0.03442139,0.06080805,0.0010181925,-0.022129424,-0.05325384,0.004711739,0.05171768,-0.04225498,0.0074741337,-0.019622289,0.010137394,-0.025963208,-0.05354864,-0.026470099,0.016235383,0.013181291,-0.029005524,-0.035444807,-0.063399576,-0.091467224,-0.06587565,-0.0041267057,-0.01444518,-0.053201996,0.024202202,-0.1533574,0.015937895,-0.0075547234,0.013662525,0.044408124,-0.006395969,-0.0017837624,0.06065015,0.0014269383,0.07002059,-0.06950708,-0.09715041,-0.11799471,0.01676752,-0.059019778,-0.12004836,-0.040194284,0.005582841,0.030134788,-0.025964838,0.00592524,-0.100348525,0.016302114,-0.0074935886,0.029569553,-0.05409349,-0.105360575,0.033263516,-0.10660609,-0.016567986,-0.059431233,0.080891185,0.06900385,-0.042084977,-0.045871425,0.039530672,0.066704124,-0.0021667373,-0.15089794,0.0068947077,-0.051416118,0.08557823,0.017134512,-0.11357273,-0.037483275,0.019155225,-0.003717119,0.046583876,-0.080696754,-0.068133585,-0.037304077,0.06984247,0.059329137,0.09247164,0.04670988,0.011444226,-0.0028501912,-0.00088415795,-0.03723477,0.05276277,0.027341988,0.030827597,0.044015493,-0.0921336,-0.057131544,0.05897237,-0.009423979,0.010210602,-0.016001394,-0.029706543,0.0007164899,0.03856921,0.01027864,0.09121581,0.039978072,-0.0069401534,0.032009106,0.022320893,0.09711259,0.1776662,0.010588069,0.05171109,0.0070968084,0.11410012,0.023237778,-0.055862594,-0.08966585,-0.12385249,0.015234746,0.057589516,-0.0068796715,0.044559464,0.066641375,-0.023806505,-0.006493991,-0.089896016,-0.0026600999,0.03838847,0.019269673,-0.022006163,-0.024897859,-0.0118302815,-0.035126735,-0.049257573,-0.0039476086,-0.054052863,0.00023257083,0.10156095,-0.07538709,-0.068110555,0.021143317,0.023001786,0.045709122,0.056228075,0.0212966,0.071580574,0.0019182569,-0.032033835,0.07302094,0.004517586,0.00088281615,-0.14303899,-0.09648085,0.033624332,0.08424545,0.13352782,0.15904886,0.16792972,-0.08913299,-0.029046055,0.07864751,0.18004923,0.11343089,0.014863005,0.021750508,-0.07953741,-0.13408254,-0.1087565