0.053298037,0.012825189,0.004119389,-0.061565313,0.015458898,0.010238452,0.02670521,-0.032698598,0.062716976,0.059113882,0.004236109,-0.01034198,0.0075174626,0.03678538,0.05973059,0.08411621,0.0007154255,-0.020842083,-0.039367978,0.07958388,0.013085576,-0.016365333,-0.085815474,-0.017830111,-0.061144114,-0.068717316,-0.061635554,0.046725653,0.015269939,0.08480651,-0.00064400886,-0.05165156,-0.078605935,-0.066494934,0.062201284,0.03880907,0.07075667,-0.018911753,-0.013524855,0.035315905,-0.05213464,-0.09067168,0.062972754,-0.0017533612,-0.043577135,0.10695598,0.012677845,0.04504543,-0.016096914,-0.05209119,0.0041918373,0.025830807,0.0783823,-0.06961436,-0.01897538,0.013078444,0.09375263,-0.038222324,-0.03625577,-0.02028693,-0.078387335,-0.026792582,0.047430154,0.058553293,0.07918235,0.041292455,-0.04293798,-0.00064334355,0.01995526,-0.080955155,0.003905843,0.06196705,0.00092734897,0.013950784,0.04310723,0.052718095,0.038892053,0.12993221,0.01836472,-0.00967286,-0.0037962198,-0.0073164236,0.08902778,-0.016647037,-0.008219601,-0.050575413,0.036681786,-0.083710544,-0.12693201,0.047930196,0.08171338,0.013802775,-0.040433355,-0.06098817,-0.06041269,-0.021383937,-0.0108711105,0.0041153785,-0.034337066,-0.02017962,0.015181171,0.013629967,-0.007953427,-0.03245929,0.032634888,0.08820453,0.05876712,0.11893089,0.029259877,-0.016141618,-0.0691101,-0.071440935,0.11982902,0.067913674,-0.06990063,-0.034059983,-0.023935573,-0.037903477,-0.074554384,-0.029246379,-0.08594509,-0.05569337,-0.03699451,-0.1103631,-0.032331865,0.010994205,-0.026082456,-0.017864719,-0.012116699,-0.011797129,-0.07002564,-0.045241732,0.08224456,0.00055427436,-0.05645312,0.011870194,0.026304306,-0.03196827,-0.038804796,-0.0047337664,-0.054059405,-0.054782838,0.05944395,-0.009561518,0.0690247,0.09928981,-0.07495961,0.045639616,-0.004971213,0.0331376,-0.021774983,0.07742033,-0.046157114,-0.048008226,-0.021661166,-0.108516,-0.103755265,-0.107634455,-0.008652642,0.03263323,-0.1227017,-0.009681788,-0.02227536,0.06378761,-0.053422045,-0.025780948,-0.03622542,0.01714964,0.10670899,-0.015903154,-0.014861799,0.06827347,0.016093396,0.037348427,-0.017626215,-0.09987653,-0.0817568,-0.05669905,0.0006178651,0.040643033,0.0060530175,0.050570663,-0.017868038,-0.03737082,0.057503287,-0.10277711,0.014493995,0.039491873,-0.0035883707,0.00736525,-0.05458317,-0.07492266,0.011750239,0.040029906,0.07304125,0.034629557,0.059687983,0.01620201,0.010864245,-0.0008835099,0.031081676,-0.08442254,0.05597833,-0.025758645,0.026053602,-0.005561767,-0.053814042,-0.035060894,-0.0011386313,-0.02925572,-0.023091638,0.016927663,0.050555184,-0.070609644,-0.005923875,-0.0020172428,0.055164233,0.013375298,0.0915402,-0.00564173,-0.005721671,0.06564549,-0.019140905,0.04913589,0.113335855,0.03739905,0.05868259,0.011266522,-0.08554971,-0.050829645,-0.00618407,-0.11692219,-0.02349205,0.039088953,-0.0134813385,0.014757672,0.08936081,0.0019540463,-0.0067969416,-0.037464745,-0.053471,0.046927337,0.0077883634,-0.044310972,0.025807273,0.0073546083,-0.050394747,0.0042459536,-0.03348742,0.017781943,-0.031087538,-0.009182715,0.020276608,-0.04393789,0.037503753,-0.018833857,-0.004549985,0.05076024,0.044560112,0.08814431,-0.031121565,-0.11487199,-0.02622532,0.0048543243,-0.12221173,-0.17002112,-0.03482404,-0.054827075,0.01039372,0.009157677,-0.016560635,-0.059406593,0.09795571,-0.0019834982,0.06557271,0.021427752,0.019001959,0.041334454,0.013774087,-0.023145372,-0.060169544,-0.03484121,0.004447577,-0.013200561,0.03864655,-0.016812839,-0.013088979,0.039489858,0.0439829,-0.091763504,-0.023373997,0.052533545,0.08859426,0.033261176,0.020727502,-0.0062135896,0.1684662,-0.078701556,-0.043149546,-0.04096089,-0.08567465,-0.096108355,0.019136745,-0.09648839,0.041611068,0.036368374,-0.019340213,-0.0119512165,-0.03195071,0.113356024,0.06332136,0.06446429,-0.038484946,0.07389306,-0.038929418,0.017561967,-0.11091301,-0.19443725,-0.09055633,-0.037260488,0.021581873,-0.01861424,0.012796494,-0.036087908,0.009570354,-0.040998206,0.01892224,0.015762275,-0.043864008,0.0040609865,0.048676435,0.06503445,0.00069577765,0.0035475662,0.035582516,0.039802723,-0.033516075,-0.028248692,0.015955586,0.023815164,-0.08483456,-0.032284055,-0.093428895,-0.060397428,-0.012988984,0.11045962,-0.01584349,-0.13823369,0.06506559,0.043223638,0.090086736,0.12609671,-0.016293893,0.07883905,0.034920968,0.023365732,-0.026753176,0.071447395,-0.0085963085,0.040332735,0.029747667,0.08713953,-0.101721965,0.009668323,-0.010614846,-0.08053426,-0.084379226,-0.007578289,-0.016508935,-0.05179827,0.04817175,-0.0065457365,0.045423284,0.1616418,-0.026391396,-0.028094195,-0.065805666,0.12467804,-0.008840334,0.042339414,-0.0012442484,-0.06214569,-0.051092513,0.016943881,-0.006779072,0.019093113,0.028253272,-0.025021585,-0.025292292,-0.043437246,-0.055792943,-0.0057128575,-0.023995101,0.023505712,-0.01654935,-0.028005525,0.04991296,-0.047136754,-0.021033812,-0.03975568,-0.05282542,0.008277435,-0.014341788,0.014570744,-0.08925668,0.003337375,-0.06874362,-0.04310196,0.014682042,-0.089980714,0.045611322,-0.026238898,0.10989553,0.08483214,0.015032256,-0.03411132,-0.04576916,0.023554921,-0.02434514,0.074588396,-0.027237026,-0.007744886,0.03456437,0.08516202,-0.035454243,0.033435006,0.009480767,-0.11270507,-0.08440455,-0.045322932,-0.056250557,0.00220333,-0.105463654,0.021143578,0.00073581684,-0.004716593,-0.06909459,-0.016493391,0.00012155333,-0.13530172,-0.010353684,-0.068778954,0.07291956,0.14268336,0.044337686,-0.021205809,0.19413902,0.089192875,0.021803185,0.007871371,0.0048464327,0.009005693,-0.032743122,-0.00023577067,0.001133842,0.013846588,0.04503427,-0.012821516,-0.017126238,0.009195916,-0.040823925,-0.00918304,-0.0075204065,0.060460676,0.01092238,-0.0478402,-0.02724245,0.009305638,-0.04416283,-0.07062303,-0.008386386,-0.066178076,0.026182503,-0.020180041,-0.030603943,0.07234179,0.1272957,0.10795431,0.033331435,-0.042845134,0.06581303,-0.035586845,0.030772392,0.065868266,0.06577425,-0.032643396,-0.036289696,0.16485415,-0.07423532,-0.056060847,0.022621637,-0.04301925,-0.008536237,-0.0721263,0.0031184775,-0.11097341,-0.07940453,0.0037009388,0.02355284,0.06792976,-0.051481046,0.0011019207,0.07955682,0.14030111,-0.0644196,0.0039239177,0.05718671,-0.017487582,-0.059627123,-0.009433537,-0.002169498,-0.019547872,0.057515115,-0.03035394,0.017263923,0.11891472,-0.059053287,0.040053412,0.06350403,0.010815111,-0.08093127,0.08683865,-0.012246547,-0.041580305,0.13504371,-0.019189373,-0.120399855,-0.041674756,-0.031202191,0.018143453,0.039238993,0.050096106,-0.023320233,0.091585234,0.005356024,0.04652415,0.021740224,0.022463813,-0.03854404,-0.07601582,-0.013608085,-0.049373467,-0.025609648,-0.010122086,-0.032226894,0.03813153,-0.0399142,-0.036496077,-0.054045852,-0.00414719,-0.040787864,-0.011496443,0.050197624,0.03586202,-0.06259674,-0.07974003,0.013256424,0.013530548,-0.006839203,-0.049743943,-0.04291972,0.040958602,-0.010749073,0.0063904664,-0.009345065,-0.0033030808,0.015868912,0.0337072,0.04266708,0.04735648,-0.02123767,-0.0012745182,-0.042287998,-0.035623588,0.01888383,0.07469281,0.064245164,0.032293852,-0.015745832,-0.035650257,0.0074980455,-0.027001174,-0.0448108,-0.07127105,0.02857598,-0.059674907,-0.11510437,-0.043715462,0.06837853,-0.017256543,0.09212676,0.036083374,-0.013269017,0.0038605174,-0.007683425,0.013754988,-0.0051724208,0.009781228,-0.070841566,-0.03850707,0.016488913,-0.04261681,0.024121849,-0.059618156,0.011924822,-0.038382586,0.012504518,-0.010689538,-0.035955194,0.002469783,0.03441381,0.11519541,0.0031372514,0.08227392,0.031943705,0.1040336,-0.12494955,0.027320739,0.056794576,-0.06369309,-0.004686024,0.060901392,-0.077770665,-0.098216556,-0.011767549,-0.009903658,0.09741402,0.075739056,-0.043116752,0.017812125,-0.017012391,-0.04173717,-0.062847696,-0.0076935245,-0.03138656,0.060162038,0.07824217,0.06455782,-0.0009589097,-0.124072164,0.038596135,-0.06105085,0.056408957,0.017646356,-0.043295003,-0.060695708,0.03393765,0.022306394,-0.009485686,-0.025317732,0.019761164,-0.022282798,-0.018638512,-0.011110071,-0.0047338107,-0.066222586,0.066736005,-0.021749498,0.025075737,-0.0126805445,-0.1438813,0.034189522,0.010323264,-0.02999215,-0.09212849,0.008114702,-0.05011599,-0.07947845,-0.011169284,-0.053461354,-0.00672096,0.08786313,0.013065872,0.03155003,-0.050676864,-0.044098653,0.015160521,0.040686265,-0.051893882,0.006360126,0.0633906,-0.013488099,-0.012155734,-0.026988255,0.10655902,-0.08685566,-0.04508422,0.022230566,0.06377151,-0.023741428,0.015089796,0.03021095,0.019633548,0.01494653,-0.087071925,-0.11534154,-0.033515863,0.0029441498,0.033798173,-0.05093006,0.068179965,-0.05781378,-0.20149925,0.037605256,-0.03930248,-0.01043114,0.03643584,-0.0397952,-0.043396875,-0.0008893469,0.003831539,-0.063114315,-0.005501524,0.0027750595,-0.00046008604,-0.029777415,-0.038386464,-0.05334325,0.011116529,5.010378e-05,-0.009203731,-0.021808278,0.012918637,0.007034868,0.008625743,-0.023970708,0.057591114,0.14954233,0.095847845,0.051189814,0.01319984,0.076052465,0.0519727,0.013077982,0.031815264,0.0064279307,0.07715045,-0.0012592454,0.042575084,0.15662004,-0.014584821,-0.08398199,-0.05876603,0.03630763,-0.024849787,-0.019118546,-0.092185736,-0.10095864,-0.04971807,0.10841531,0.13229246,0.09814266,-0.124241315,-0.11686536,0.008756571,-0.021660844,-0.07631721,0.042017296,0.0058202255,0.008263817,0.03198188,0.01117202,0.0050221197,0.170439,0.016756654,-0.06937714,0.02268624,0.023310408,-0.010516263,0.06134793,0.05000379,0.033665884,0.013524021,0.048238486,-0.028621789,0.021987846,-0.047596846,-0.05373659,-0.026239859,-0.02449654,-0.010476313,-0.02708342,-0.08576627,0.0188708,-0.07554389,-0.020157902,-0.011992849,-0.045530904,-0.0115637425,0.043708608,0.08307535,0.13654985,0.046953175,0.013903259,-0.04393694,0.14601758,0.06587793,-0.03475294,0.002650789,-0.0454709,0.030889705,0.045182284,0.0664396,0.09731555,0.08689113,-0.106713615,-0.027154999,0.0965879,-0.017885441,0.055541217,0.058086492,0.0005021689,-0.041411236,-0.038216315,0.032891314,-0.00052061427,0.122517824,0.06300535,0.09679637,0.054803982,-0.06012351,-0.097230844,0.0428093,0.040209457,-0.044870432,0.071087755,0.017233197,-0.064015105,-0.035072614,0.033896193,0.05758494,-0.030266028,0.028261213,-0.052542124,-0.039022733,0.068122536,0.04638318,0.015862608,-0.0050669108,0.047491495,0.024876239,-0.03164337,0.02180481,-0.010290436,0.019132106,-0.022245154,0.09053589,0.050614,0.035880458,0.10393875,-0.010002941,0.00070140825,-0.04146244,0.06362643,0.037854366,-0.03365014,-0.031684846,0.054956295,-0.045808,-0.060647737,0.01036906,0.0029692722,-0.06366955,-0.06353345,0.0080802115,-0.010352481,-0.044281416,0.0155712925,0.043662563,0.020399153,-0.0060748886,0.00027689242,0.08200188,0.014293987,-0.04217752,-0.036925387,0.033314466,-0.040337835,0.022337792,0.045345683,-0.021283632,-0.006868202,0.0067929826,0.03257448,0.021445429,0.02518259,0.052391633,0.04310351,-0.014665803,-0.046557523,-0.07196513,-0.075684056,-0.027886586,-0.042855494,-0.04858071,0.020994874,0.011764266,0.003349963,-0.051682834,-0.085893996,-0.010579242,0.0036281855,0.0480165,0.018285923,0.019595962,0.12156898,-0.021999834,-0.08294567,-0.026109949,-0.06656325,-0.042304486,-0.080057934,0.0038912583,0.0017095066,-0.01055662,0.013110953,0.030170051,0.0138403345,-0.051433343,-0.049316246,-0.012587949,-0.06051415,0.028857166,-0.026017545,0.037319563,0.03973172,-0.053757228,0.005290082,0.035024766,-0.023802975,-0.01215313,0.10608628,0.06390116,-0.031922664,0.0429333,-0.03543751,-0.04476173,-0.022108568,0.121156804,-0.014806817,-0.009216119,0.000491257,0.038690086,0.04614459,-0.014301132,-0.0099873915,0.032673456,-0.015285954,-0.04119659,0.05214564,0.022922534,0.039243296,-0.016372256,0.018382128,0.036769036,0.13569196,0.025893256,0.06955007,0.02861766,0.066286914,-0.0065898667,0.05251241,0.021502739,0.009862716,0.049976252,-0.019802768,-0.061910618,-0.024966445,0.042320754,-0.012364745,-0.016785907,-0.019128475,-0.029911982,0.044002045,-0.0015710266,0.050701044,-0.014330694,0.06087883,0.047419447,-0.01384058,0.10639991,-0.002824743,-0.011016182,0.03656506,-0.037092287,-0.1331811,-0.0679,0.031265717,-0.071710736,-0.034786344,0.05687888,-0.021381408,0.027238002,-0.021762017,0.03850141,-0.0061157276,0.060584787,-0.07709034,-0.01604696,-0.0017061837,-0.039215542,-0.066232175,0.029502857,-0.0045293863,-0.09722409,-0.009040783,0.012922544,-0.048019726,-0.03939213,-0.06264462,-0.016459411,-0.01847346,0.008740552,-0.040177245,-0.03665761,-0.015341128,0.07898119,-0.09540257,-0.024420077,-0.031538036,-0.07324154,-0.035149444,0.10503547,0.023865094,0.003186072,-0.0121754045,0.045899145,0.069124274,-0.0007801964,-0.078217536,-0.008932426,0.02794255,-0.07028879,0.011506027,-0.03363578,0.011391062,0.079483874,0.0778275,0.038000546,0.00139195,-0.013301971,-0.0018556913,0.07430805,-0.08564184,-0.054864038,-0.04447087,-0.0114152655,-0.020185411,-0.08411301,-0.027614228,-0.0138839325,-0.00030541775,0.050642565,-0.042208336,0.016279325,0.027020182,-0.022766432,0.022443598,0.004127366,-0.026684389,-0.04743926,0.020570775,-0.081890866,-0.0393089,0.052825306,0.06976348,0.03671618,0.051087387,0.05351728,0.008814923,-0.044498134,-0.025435803,0.11046011,0.07920519,0.007702607,0.059577655,-0.006711157,-0.08047665,0.030509472,0.042900596,-0.036141608,-0.10193439,-0.1077342,-0.08109954,-0.0378009,-0.0018770999,-0.07366547,-0.059992928,-0.0054429723,0.004625425,-0.04282485,-0.009460706,0.05465194,0.028356643,-0.031834148,-0.05335353,0.03416089,-0.047879755,0.02883319,0.059079513,-0.035392944,0.0041589225,-0.043801982,-0.008702672,-0.02463364,-0.04416041,-0.033872474,0.03722782,0.029056514,0.01757656,0.0096915485,0.014908394,-0.064945,-0.036894217,-0.086050935,-0.038511336,-0.085888356,-0.08680998,-0.029091064,-0.06247397,-0.039780572,-0.13113049,-0.079166844,-0.037156597,-0.11494162,-0.046225544,0.026289878,-0.094110705,-0.010763914,0.025323318,-0.025167214,0.04461838,0.043494016,0.1379244,-0.1098278,0.008113188,-0.058845554,-0.032995388,0.0014841029,0.03196793,0.04146511,0.06582712,-0.040927067,-0.06846377,-0.036132805,-0.050041456,-0.027191017,-0.022921465,0.06061726,0.022612171,0.014023274,-0.06804217,-0.034617387,-0.021445498,-0.03747196,-0.036181454,-0.026631676,-0.0051709753,-0.08409361,-0.054790664,0.08198852,0.07223694,0.052258987,-0.021166436,-0.07024004,-0.04236915,-0.021492798,-0.096938625,-0.032249384,-0.0056670164,0.0063353484,-0.00096083287,0.013988842,-0.024709208,-0.0017930671,0.038992383,0.032261394,-0.019196736,0.011995704,-0.006598244,-0.07863927,0.08108184,-0.05134129,-0.023149518,0.041875057,0.00838173,0.0650367,-0.07582115,0.013368905,-0.05764226,0.04567751,0.0063228044,-0.09607279,-0.0144202085,0.077539325,-0.028177096,-0.006870122,-0.049958427,0.0031671387,0.023648515,-0.01978554,-0.013252829,-0.032361165,-0.012446299,0.03375114,0.05607309,0.039083455,0.055439677,-0.060028154,-0.045753,-0.013289852,0.01601353,-0.058601055,-0.023867447,-0.038661417,0.00034206753,0.047870923,0.0070480173,0.1128468,0.016626377,0.06978379,-0.024499826,-0.021291574,-0.044138115,-0.104322515,-0.14884788,-0.12370607,0.038402293,-0.052546427,0.033054776,-0.0061347787,-0.010766739,0.014599582,-0.015361849,0.052755456,-0.031161522,0.020751284,0.0038456493,-0.057683785,-0.023841219,-0.00063288695,-0.05454189,0.012037293,0.05645021,-0.041776035,-0.058376443,0.025537789,0.0786007,-0.1057908,-0.081456974,-0.02772057,-0.07188568,-0.012564902,0.04447893,-0.027924463,-0.07007524,0.12093847,0.06968306,0.06613135,0.008578067,-0.11151635,-0.088488676,0.037826307,-0.09400153,-0.08122229,-0.06174155,-0.056181986,-0.035925575,0.009033009,0.08911601,0.022521645,0.052277684,-0.0006897091,0.12309309,-0.04513969,-0.04977717,-0.10001397,-0.11560583,-0.126935,-0.06810345,-0.0069596977,0.0062915953,0.010760336,-0.03548749,0.028982734,0.01863926,0.040604897,0.017693354,-0.023747336,-0.04487284,-0.02062848,-0.036612593,0.012154314,-0.0031318767,-0.030786477,-0.012574711,0.023842858,0.097948246,0.03381831,-0.096140675,-0.00863192,0.034429014,-0.10589128,-0.18881899,0.0052642412,-0.063542075,-0.046482243,-0.03675533,-0.005308934,-0.10286801,0.05756393,0.06594448,0.04710262,0.06719862,-0.027628448,-0.058809303,0.068426184,0.00577817,-0.039879758,0.0061959014,-0.070585914,-0.010456422,-0.02069226,0.0120256655,-0.08102847,-0.09379484,-0.07186519,0.010256838,0.030149909,0.008590368,-0.054496236,-0.07873966,0.047727846,-0.021552803,-0.12286359,-0.13378881,0.007121822,0.023364954,-0.033208624,0.027024264,0.008375179,0.0014761292,-0.010507886,-0.04042506,0.0013839497,-0.008691096,0.012893035,-0.08203171,0.06623352,0.045517523,-0.051347725,-0.01839298,-0.021683328,-0.04897349,-0.01743848,-0.05406897,-0.046122912,0.00078460324,0.03862146,0.028057935,-0.057023767,-0.01970829,-0.14863506,-0.05953882,-0.0008589014,-0.020768939,0.064794965,0.07729495,0.037390456,0.004531624,0.052099444,0.056022644,-0.0076583005,0.008629684,-0.08520399,-0.050830796,-0.04810505,0.020585837,0.1213793,0.15376543,-0.031598862,0.050515726,0.01501734,-0.027462149,-0.039872,0.018545527,-0.04774102,-0.14400552,-0.0238396,0.045250148,0.05938211,0.012237226,-0.03525401,0.009252346,-0.13137203,-0.14300258,-0.0026761454,-0.015009079,-0.042569462,0.0020435345,-0.020331807,0.028511878,0.05891809,0.07670583,-0.017735492,0.079631664,0.002536218,-0.029153913,-0.014564258,0.043577995,0.02037238,0.058849093,-0.010879706,-0.002208824,0.013513154,-0.07868865,-0.029612843,0.057946585,-0.035511293,0.031997643,-0.039496344,0.029404804,-0.05293748,0.091818385,-0.02384126,-0.0020931214,-0.004302701,-0.063650906,-0.044771813,-0.025218043,-0.027065648,0.12189866,0.0035254252,0.027021896,-0.031399153,0.044839542,0.0044132713,0.031982224,0.0074015902,-0.07179594,-0.10662026,-0.054907877,-0.04098514,0.16981333,-0.05192483,-0.071457185,-0.016149668,0.082586184,-0.023250926,0.006797815,-0.02285284,-0.088610545,0.037458293,-0.045793343,0.0108426465,0.021381298,-0.09191218,0.085918635,0.10709021,0.15647542,-0.047368433,-0.084554166,-0.022607487,-0.05160924,0.02101211,-0.051480718,-0.07320341,-0.054002184,-0.07900762,-0.0016188157,-0.01861991,-0.011663305,-0.05887573,0.065298244,0.048137624,0.106080584,-0.0063419305,-0.028767414,0.052777067,0.06982639,0.033495225,-0.0031806934,-0.030550675,0.001920491,-0.001980888,0.03148575,0.09245978,0.005021197,-0.014072225,0.063356735,0.11163574,0.05683311,-0.004308299,0.023083836,-0.004448065,-0.063155405,-0.055820893,0.03128367,-0.010550961,-0.098672286,-0.084587775,0.01415218,0.017713249,0.033299897,0.032073993,0.097822905,0.019565351,0.06807203,-0.011740981,0.028883893,-0.044038694,-0.034098797,-0.020038549,0.03183636,-0.06550802,-0.079067625,-0.079891294,-0.024615383,0.0163411,0.019663462,0.032834698,0.05143081,0.102083035,0.050795496,0.031299077,-0.021837857,-0.047328476,-0.077422045,0.05326654,-0.012222372,-0.03172614,-0.11053531,0.025941158,-0.061006278,-0.008441328,0.022966657,0.04699371,0.06753473,0.07295205,0.0141158495,-0.014134895,0.071781956,-0.05181847,-0.000532037,-0.022653418,-0.036291353,-0.0416143,-0.07873833,-0.07591615,-0.031281885,0.009058181,-0.003347085,0.017031375,0.08225101,-0.0043488475,-0.030827064,-0.01983312,0.04408904,-0.003311752,-0.0846466,-0.011189116,0.01924198,-0.027387286,-0.017207196,0.034925118,-0.034175687,-0.07711286,-0.06290145,-0.05919302,-0.08014978,-0.051756296,0.1245435,-0.053939924,-0.0016712535,-0.056831997,0.054396275,0.002872075,-0.05958089,-0.061805725,-0.09513928,0.005807518,0.062156722,0.058828034,0.03349135,-0.054411214,0.021357432,-0.014239458,-0.0036209836,-0.08410487,-0.04503602,0.01967499,0.006981996,-0.01715366,0.012062219,0.045852404,0.015339436,-0.005812377,-0.010541139,0.019678568,-0.0389253,-0.022051236,-0.0036968985,-0.058653366,-0.052045766,0.03077764,0.046790082,-0.0487043,-0.015011593,0.04324257,-0.021941442,-0.036860485,0.027091017,-0.029848369,0.051019646,-0.022274796,-0.045524362,-0.031846877,-0.15835336,-0.10661664,-0.1009475,-0.0444923,0.019140963,-0.014896149,0.078653514,0.08211619,0.01711218,-0.05495748,0.050481964,-0.011106522,0.104451135,0.039386228,0.06981516,-0.033592366,-0.06713843,-0.07319159,-0.005825689,0.101153344,-0.020769877,-0.045564573,0.049521104,-0.013851451,0.032930516,-0.04196899,0.0704704,0.035919704,-0.026616955,0.025661863,-0.048644274,-0.0206407,-0.039749116,-0.027136968,-0.0036048125,-0.033751287,0.034900296,0.117326885,0.08673056,-0.0342015,0.0005502777,-0.011533192,0.015758706,0.024293005,-0.046502933,0.00528645,0.012300566,0.009739915,-0.071285196,-0.07217949,-0.046945754,-0.006437949,0.00572777,0.028782902,0.11179914,-0.013668474,0.058362406,0.022056246,0.08426538,-0.016882332,0.044382364,0.009596956,-0.04826148,-0.038294837,0.09424994,0.08561602,0.036713496,0.029034982,0.004322792,-0.0992757,-0.13450663,-0.017607395,-0.043747257,-0.104440466,-0.07216622,-0.011718575,-0.024641257,-0.01117279,-0.078126736,0.029801663,0.035553206,-0.051052947,-0.08098214,0.008458147,0.043039836,0.010301933,0.045488786,-0.053083014,0.009133221,0.030485718,0.027515091,0.02226022,-0.0053886552,-0.07971692,0.009550663,-0.03659185,0.035376042,-0.076361135,0.120151624,-0.040664922,-0.084596604,-0.0908151,-0.049508993,-0.0046180654,-0.03328377,0.0038380134,0.043215003,-0.011656942,0.09484297,0.03894783,0.021095647,-0.060932808,-0.10178361,-0.06456255,-0.071898796,0.026298963,-0.02314254,-0.020637844,-0.0039056686,0.030223789,0.030447703,7.7231794e-05,0.060738955,0.08097719,-0.0117514925,0.00077356334,-0.04611208,-0.064731725,-0.01380221,0.0055570314,0.08654085,0.018595807,-0.054043137,-0.074340075,-0.13947164,-0.00069753936,-0.051070835,-0.04070734,0.037900835,0.05793851,0.06418631,0.072761156,0.02741415,0.035884622,0.07958478,0.0590327,-0.06418556,0.02082574,0.032030065,0.07132883,-0.052030455,0.028885085,-0.0054757637,-0.065957695,0.023928825,-0.051235933,0.006050697,0.0057052234,-0.0028059303,0.06765693,0.037644405,-0.101551,-0.10424093,-0.078327626,0.07359025,-0.043907892,-0.03558586,-0.065721676,0.009267582,0.0230505,0.08467024,0.013394895,0.029257022,0.02450678,0.02954786,0.058719512,0.05136379,0.05551624,-0.06732126,0.03301567,0.004219534,-0.00040565088,-0.047873657,-0.046907935,-0.0051044975,-0.0012688308,0.037669588,0.03670921,-0.055467803,-0.031473596,0.025779754,0.030798415,-0.03400711,-0.032646358,-0.08221419,0.0024511416,-0.004443024,-0.051298134,-0.035680052,0.083869934,0.06162309,0.06369895,0.09501364,0.0021462322,-0.046884723,0.065127745,-0.0029478124,0.09126915,-0.01967209,-0.06147182,-0.07186474,-0.026768187,-0.062213406,-0.072231986,0.027731411,0.02758465,-0.096851714,0.015322219,0.061691437,0.030260094,-0.01844598,0.058943547,-0.029324863,-0.054117206,-0.030804044,-0.13506936,-0.11981377,-0.02184346,-0.011711242,-0.037028965,-0.031019602,0.03092058,0.086369,0.046502,-0.002810584,0.041119285,0.018196264,0.020800672,0.066458896,0.0030828144,-0.04433759,-0.030619485,-0.046692703,0.045350403,-0.007048781,-0.058233872,-0.02342586,0.081354,-0.04028092,0.018237174,0.057247818,0.053526107,0.044262134,0.10671704,0.07978721,-0.05095373,-0.09982875,-0.015702222,-0.017389523,-0.024938155,-0.077094615,-0.04106164,0.034010515,0.019481713,0.07155561,0.003315782,0.08964109,0.05444682,0.0046558226,0.0075868126,0.013575862,0.036725722,0.08914776,0.048383668,-0.07590603,-0.06514195,0.00441996,-0.0024396642,0.08340636,0.02338246,0.00667455,0.015222474,-0.03696725,0.03302442,-0.028293582,-0.08235163,0.08841211,0.014467856,0.093042664,0.01954233,0.037508905,0.0010048719,-0.028036077,-0.08187046,-0.13080141,-0.011713998,-0.011091844,-0.06936572,-0.04180849,0.011495626,0.11037881,-0.019384485,-0.050861828,-0.0007040856,-0.041551147,-0.03948484,-0.060625087,0.04497271,0.027975226,0.010269772,0.005906757,-0.04131852,0.025658999,0.032385435,-0.029080143,0.048132844,-0.020034654,0.04161245,-0.02002951,0.014076408,-0.015921462,-0.011057085,-0.03900364,0.010547935,-0.021190906,0.0014078254,0.09717815,0.098598234,-0.018153043,0.02577644,0.11227707,0.08128251,-0.017241053,-0.028033897,-0.029813455,0.028946595,0.040766984,-0.03312331,0.02024431,-0.041792303,0.027100764,-0.039783373,0.0626553,-0.013610442,0.004591326,-0.025596814,-0.0037414203,-0.0049016504,-0.01372575,-0.010199203,0.03345962,0.016233692,0.028853301,0.03211888,-0.043562822,0.02573447,-0.040446695,-0.017553058,0.010510091,-0.024503661,-0.058265302,-0.027117563,-0.016352464,-0.023563974,-0.034463216,-0.04972485,-0.013537034,-0.0028266408,0.03209267,0.03272325,0.033863395,0.009957396,-0.03645045,-0.048334848,0.019161738,0.05488984,-0.020666715,-0.022805067,0.030604595,0.011243444,-0.05780575,0.032988343,0.050880585,-0.019283624,-0.019512767,-0.019998107,-0.026515858,0.039377525,0.0022843897,-0.0149479555,-0.047131747,-0.038518928,0.038424842,0.0026670943,-0.03708154,-0.0077170506,0.0046043745,0.067848586,0.017562803,0.006204337,-0.02472075,0.01216391,0.009007688,-0.014450729,0.022717329,0.023476755,0.01984572,-0.02062133,-0.0036445234,-0.04297055,0.0202576,-0.03871851,0.012305391,-0.022812296,-0.0034918226,-0.046189364,-0.010568013,-0.02409221,0.06584847,-0.027195074,0.019733505,0.00648783,-0.040452693,-0.007720136,0.015958434,0.035296377,-0.014282463,0.018181924,0.0059378617,-0.017967366,-0.009403685,-0.034785915,-0.006794128,-0.034058884,0.023065712,0.011241235,-0.0053494875,0.03047063,-0.075498186,0.06412453,-0.020319441,0.010897954,-0.046392564,0.013649064,0.03964236,-0.008913635,-0.034670822,0.0013757969,-0.06074234,-0.024713302,-0.038580652,0.03956405,0.015188853,-0.0032458561,0.002625344,-0.05447064,-0.00022124415,-0.040829547,-0.023047464,-0.023719365,0.056525856,0.048361663,-0.0013286558,-0.0384929,-0.027414817,-0.026183983,0.042270627,-0.022271078,-0.03234426,-0.017555138,-0.019602424,-0.032766856,-0.019715521,-0.02443138,-0.013860156,-0.049928874,0.021869358,0.05385317,0.04460658,-0.00040023052,-0.0037495103,-0.04498261,0.0341164,-0.03876984,0.05228121,-0.035022315,-0.04975267,0.02201709,-0.038576894,0.01793785,0.005619803,0.031126803,-0.02343651,-0.01065273,0.06282008,0.01724247,0.0051844027,0.036741685,-0.022467311,-0.018709758,-0.02882607,-0.014109337,-0.040853336,-0.0480657,0.004925542,-0.030454371,-0.008036568,0.0038122064,-0.038452335,0.04852929,0.035847805,-0.025203494,0.014886762,-0.0013583133,0.00846479,-0.012205862,0.0010408489,-0.026308978,0.0017776509,0.013203419,0.022162786,0.020117898,-0.01617438,0.023208667,-0.026710488,0.008792638,-0.009656454,0.06402738,0.011096206,0.010162536,-0.03924329,0.005502456,-0.0025276141,-0.021111712,0.05509557,-0.02408989,-0.03734086,-0.012476952,0.02335831,-0.045795232,-0.006053075,0.002585925,0.026539236,-0.005280038,-0.049021855,-0.045372166,0.0100807,0.039288852,0.004759631,-0.050015792,-0.038417272,-0.03488759,0.019656405,0.040603243,-0.046733767,0.050826944,-0.004781631,-0.0519857,0.0266142,-0.05618243,-0.022134652,0.023708243,0.01651624,0.028187918,-0.00044037632,-0.056727275,0.015904274,0.020401618,-0.026558021,0.026147729,0.06072,0.052602626,0.03544211,-0.03413795,0.055038713,0.004747238,-0.012637247,-0.03611075,-0.054038316,0.049081497,-0.062917046,0.005990059,0.04705126,0.0072942562,0.046675842,0.00085998466,-0.012109966,0.008808841,-0.008962252,0.01361559,-0.024309369,-0.03701036,0.000893773,-0.03728494,0.037722647,0.0015006673,-0.04209184,-0.030854061,-0.027342236,-0.043108307,-0.019086257,-0.046400625,-0.033521276,0.019707398,-0.02753889,0.011535093,-0.025387332,0.059155364,0.07543288,0.015562707,0.003949182,0.022043286,-0.060939103,-0.037512857,0.023717245,0.03968635,-0.00547426,-0.025929084,0.026169114,0.07838834,0.044886515,0.013236026,-0.008215822,0.048074804,-0.008902871,0.030215885,-0.023730403,-0.014387252,0.043441378,0.060582336,0.017742446,0.003970283,0.0036936358,0.032319687,-0.064245015,0.023486378,-0.009063749,0.006089806,-0.07213358,-0.05217427,-0.12966259,-0.09055962,-0.06569461,-0.076665245,-0.0026557362,0.020236474,0.061193284,0.04847366,0.049218886,0.023671241,0.043697227,0.057600833,-0.04962975,-0.110755436,-0.018851202,-0.030141888,-0.014220318,-0.010362918,-0.037171777,0.04152001,-0.03290553,-0.016154084,0.03809114,0.0017744908,-0.013294828,0.08807054,0.07990094,0.023127308,-0.034637805,-0.036788624,0.0324944,0.040211808,-0.006052245,0.13311298,0.05502043,-0.038525898,-0.06473986,-0.0073911916,0.13074514,-0.07914263,-0.108697586,-0.06802506,-0.0362315,0.03638367,-0.03434345,-0.05625435,0.031374454,-0.07894397,-0.07376664,-0.04522644,-0.011250478,-0.012962646,0.04621395,0.043078955,0.10008328,0.039651453,-0.028436352,-0.024243804,0.02350234,-0.020675186,-0.01206905,-0.07364004,-0.021515997,-0.028926019,0.040355686,0.08858171,-0.037246294,0.018618919,-0.033339556,-0.076415256,-0.054682042,0.07912116,0.011372937,-0.031981308,0.022874717,-0.102083385,0.03734712,0.03213769,0.16890007,0.048138145,0.066239096,-0.0485257,-0.057267897,-0.052862305,0.0092015965,0.0199058,-0.028739056,0.013670442,-0.0013462855,-0.047477003,-0.022094717,0.08535914,0.09886065,-0.046295334,0.024886247,0.03768638,-0.0051944973,-0.028928073,-0.07968616,0.14756288,0.05955256,-0.094014384,-0.038375713,0.19228652,0.041242354,-0.05781343,-0.01682211,-0.036958784,0.006187188,-0.013869592,-0.005210436,-0.015956817,-0.031017628,-0.04340158,-0.041574236,0.04072032,-0.06604971,0.027453141,0.015600536,0.06827039,0.093462415,0.028334556,0.015599174,-0.009555458,0.0023975882,-0.10453555,-0.075641036,-0.048759207,-0.058651917,-0.015550407,-0.030964639,0.073921576,-0.03456221,-0.13418844,-0.16430484,0.046682008,0.021542393,0.024586894,0.0751368,-0.016869511,0.057800382,0.039757773,0.02406935,0.073247835,0.017494606,0.031572565,-0.104304135,-0.035987172,-0.055245753,0.02822609,-0.06952498,-0.105372086,-0.13869178,-0.17103526,-0.010365834,-0.15253639,-0.0068977596,0.032564864,0.12850456,0.0496011,0.036891457,-0.123048246,-0.042791158,-0.021645585,0.02813846,-0.024676703,-0.048279513,-0.028309481,-0.053598996,-0.060440492,0.052287653,-0.031884905,0.035813928,0.021598628,0.10162959,0.010052447,0.027487725,0.013441475,-0.06887334,-0.1192005,-0.10917789,-0.017589413,-0.027046511,-0.15154877,-0.011181601,0.026621258,0.023625843,-0.05802839,0.0017023539,-0.011181941,0.07258464,0.043657474,-0.026537864,-0.06510301,0.012509167,0.025531013,-0.0014080196,-0.014724216,-0.026665814,-0.00025303083,0.0076569556,-0.004333531,0.03215525,0.04112969,-0.048601523,0.046913315,-0.034343332,0.006516477,-0.04650338,-0.12695858,-0.117651254,0.07827959,0.0039431974,-0.08742371,-0.025159601,0.025308741,0.047134887,0.030921968,0.026731053,-0.04428098,-0.051058203,0.048194427,0.070633434,-0.028670179,-0.029178215,-0.113762125,-0.024645168,-0.016018655,0.020717692,-0.07761152,0.002509534,-0.034062907,0.078972995,0.027376374,0.03691729,0.015938409,0.05270994,-0.077753596,-0.08136517,-0.0718442,-0.029318623,-0.023957454,-0.042988513,0.11617472,-0.035596956,0.013567091,-0.001925129,0.043696295,0.010611805,0.075599745,0.10676814,-0.053336404,-0.12645946,0.01777913,0.09364967,0.0109177595,0.014801339,-0.0498677,-0.036802452,-0.0449194,-0.07614822,0.04760561,0.048790503,-0.025284236,0.07796921,0.014663232,0.0008296488,-0.00048278537,0.0930605,-0.078109086,-0.06347312,0.011217013,-0.02132718,0.009847426,-0.052034248,-0.020092139,-0.051541172,-0.067509964,-0.021878831,-0.09019438,-0.109986804,-0.09312832,-0.041647885,0.030016454,-0.11287663,-0.06499569,0.12621473,0.002627916,-0.01784774,-0.027023625,0.049182627,0.042601608,-0.093961164,-0.09384521,-0.15780082,0.04129956,-0.050950985,-0.05359824,-0.05972716,0.04200486,-0.0015360978,0.045821745,0.091045104,-0.03817984,-0.05496727,-0.009632751,0.05070521,0.047556076,0.03419305,-0.06222809,0.014848028,-0.035063714,0.004065905,-0.016332015,-0.03541828,-0.008474809,-0.036592845,0.05243257,0.106436685,0.0004937829,0.12125717,0.008352848,0.08305686,0.11271306,0.015793305,-0.02679926,-0.024208168,-0.07820049,-0.08138984,-0.03692819,0.049993318,-0.04310693,0.13580616,0.07327496,0.022488328,0.030000681,-0.01200604,0.070700295,0.05911463,0.100243844,-0.06591577,0.05694283,0.033438858,-0.0063682697,-0.09177352,0.041951887,-0.043028682,-0.08849169,0.09710556,0.1000328,0.031270646,0.009618928,-0.055645388,-0.0018784335,-0.068019494,0.089954,-0.09949063,0.025445698,0.00012054983,0.0016348335,-0.015101027,-0.005843072,0.03176389,-0.114306316,0.012759427,0.045193426,0.008577675,-0.027317991,0.007491913,-0.07262429,-0.005776683,0.010756595,-0.07397981,0.00034519448,-0.041675426,-0.017179923,-0.047497697,-0.026419794,0.008147472,0.09626347,0.107983194,0.06652139,0.01171459,0.01077883,-0.002009145,-0.018846419,0.04028923,0.03783108,-0.0438062,0.046162203,-0.023112167,-0.017471181,-0.015469893,-0.007017814,0.037410963,0.044372868,-0.011149079,-0.029587405,-0.020278614,-0.049646985,0.009789928,-0.07079713,0.008003265,0.013161589,-0.03830489,-0.086570255,0.02012747,0.021738427,0.019172052,0.016948313,0.053431734,0.057544228,-0.076715305,0.05652606,-0.07020479,0.094949424,0.06919641,0.046817217,0.04667706,0.03617536,-0.055850025,-0.0011870107,0.045813426,-0.027345167,-0.039982866,-0.052891724,-0.11223802,0.057154223,0.0106858825,-0.104155146,-0.006773096,0.03536949,0.02766507,-0.03247359,-0.02215549,0.043098673,0.046924274,-0.052452214,-0.00378226,0.012125766,-0.042753637,-0.060574558,-0.020896707,0.033076543,0.030833371,0.030133143,0.007998886,0.052760184,0.024523312,-0.022031078,0.060487635,-0.04248078,-0.018656619,-0.035620917,0.036884412,-0.091691874,-0.06369359,-0.0004224673,-0.073982365,-0.019586025,-0.036888245,-0.052195266,0.04564445,-0.058170475,-0.025077067,-0.046474904,0.03522238,0.044003207,-0.02853962,-0.010097025,0.079457074,0.088365234,0.036750045,0.010416923,0.051463388,0.016406052,0.01823558,-0.027210243,-0.06380818,-0.024504727,0.00025648647,0.08455558,-0.019006453,0.09147149,-0.01788233,-0.046379063,0.043080855,-0.027819809,-0.038871348,0.04943655,-0.0048476015,0.07031815,-0.055839404,-0.03502648,-0.09115239,0.004002768,0.027634908,-0.015039665,-0.0036326,0.050180394,-0.07714336,0.012547338,0.046232603,0.16385594,-0.0025852057,0.04701658,0.08196055,-0.001540825,-0.026658028,-0.07137335,-0.11695287,-0.013172451,-0.037221238,-0.040071927,0.027195588,0.03811276,-0.022276562,-0.03769234,0.038761728,-0.008601402,-0.031231832,0.02244606,-0.035611387,-0.017806893,0.026804619,0.01945576,-0.017497735,0.0778378,0.0030031726,0.052846316,-0.020607192,0.014389247,0.0010022557,0.036009267,-0.0013402116,-0.07415831,0.037238847,0.02996835,-0.0015057462,0.062313773,-0.024867155,-0.013092268,-0.028988956,-0.028992616,-0.010886536,-0.005252313,-0.041056752,0.02295834,0.026464446,0.07553058,-0.092733026,-0.055462345,-0.0447395,-0.07478813,-0.005022813,0.049253624,-0.012043805,0.058427136,0.016588781,-0.060251363,0.013654506,-0.02708785,0.021744667,0.073429994,-0.043749582,-0.038367286,0.057845145,-0.12060401,-0.04940858,-0.019474367,-0.05074623,0.020408226,0.053180266,-0.039443564,0.026043797,0.08182133,-0.003274565,0.010600971,0.0015187395,0.013311818,-0.038032684,0.010061824,-0.035306346,-0.039834965,-0.04795269,-0.056027476,0.00833302,0.027219506,-0.05384642,0.06926106,0.039380763,0.03714423,0.023790132,-0.0029764294,0.055299915,0.08988818,0.03380618,-0.0094020385,-0.05301129,0.1297398,-0.020537453,-0.033257484,0.042174146,-0.10542416,-0.077670604,0.007077186,-0.060993683,-0.03530547,0.09215894,-0.05630445,-0.023675859,-0.012883111,0.12186764,0.013749472,0.041162353,0.0024504196,0.013398204,0.01581587,0.044938367,-0.03309474,-0.10571961,-0.13401039,-0.08913267,-0.0037233648,-0.011945973,0.03434441,0.035818562,-0.054190826,0.004924849,0.017716367,-0.027739512,0.053293627,-0.003876135,0.0044051567,0.08129112,-0.021585364,-0.03286513,-0.035924166,-0.050691027,-0.029350754,-0.08214456,0.03995407,0.018943723,-0.11098539,-0.10742798,0.05747591,0.0656617,-0.049937364,0.029684473,-0.018851867,-0.0112128975,0.041717328,0.019208092,-0.104872756,0.06244088,0.0047747223,-0.027616942,0.02390739,0.0014995926,-0.100434296,0.02627504,0.037281618,0.008722395,0.031510677,0.07111149,0.02549746,0.002345067,0.11958402,-0.06122863,-0.002984617,-0.052233603,0.0052040224,0.032255415,0.1381502,0.16750878,-0.018576164,0.08312425,0.017114444,-0.07404079,-0.065113746,0.049930423,-0.061825357,-0.032071345,0.04775308,0.00065509643,-0.04407447,0.06388845,-0.08099717,0.019533182,-0.014124669,0.053558365,-0.020038525,0.018196257,-0.009135978,-0.03925778,-0.020116348,0.03343161,0.0027653743,-0.027970714,-0.007085485,-0.062109206,-0.06889156,-0.03349372,0.031933367,0.06983366,-0.050406255,-0.079957984,0.018988274,0.033708982,-0.07164901,-0.08394147,0.012259823,-0.07030003,-0.11302789,0.028538967,0.022380657,0.05307117,0.0489761,0.013989832,0.037368592,0.052856866,-0.026643528,-0.0020452181,-0.024045747,-0.08927719,0.011062275,0.113094,0.016232807,-0.034179356,0.022764295,-0.07399862,-0.049308855,-0.027754873,-0.0504218,0.078522146,-0.13064742,-0.064265914,0.055646785,0.08750671,-0.03663453,0.037454613,0.1121202,-0.1495896,0.05986847,0.0057335394,-0.0014920831,0.04782351,-0.04446539,-0.08233389,0.10800813,0.0966809,0.016295958,-0.037450317,0.066836536,0.052559875,-0.071724944,-0.09784116,-0.025451727,0.090256855,0.01799574,-0.11355802,0.05003027,0.0022142716,0.04961221,-0.04724994,-0.049051326,-0.015224514,-0.0067838277,-0.036387835,0.023596974,0.003032909,-0.06768301,-0.0039039569,0.07685104,-0.064356774,-0.0015321684,0.0010274381,0.08795543,0.055574328,0.032199394,0.012442878,-0.006370204,0.102894306,0.08473768,0.06572025,0.026562678,-0.14682952,0.054350857,-0.12452607,-0.1071868,-0.041408025,0.016944816,-0.045672443,-0.022897128,0.013432593,-0.05341278,-0.052365396,-0.078685395,0.0058203354,0.103859656,0.062990084,-0.034694675,-0.09003023,-0.028875528,0.022976607,-0.0005296271,0.00035002956,-0.027664,0.089375764,0.066225536,-0.038163897,-0.012357496,0.06590422,-0.014432382,-0.021565927,-0.010047664,-0.051118717,-0.08445498,-0.1255428,0.10910255,0.03828286,0.00018943188,0.01973181,-0.061550617,0.022310192,-0.05896335,0.016573353,0.09339989,0.020129943,-0.01660925,0.04172746,-0.06576409,-0.034649614,-0.099475704,-0.013962605,-0.08473922,0.020801427,0.037430514,0.04491985,-0.018690586,0.05309944,-0.097348735,-0.026700327,0.06359109,-0.04741446,0.039968334,-0.073591225,-0.13331927,-0.02911505,-0.03651641,-0.06465456,-0.04032143,0.00967464,0.007078706,0.02992138,0.10212763,0.008343744,0.0006785406,0.049173146,0.04120083,0.052625563,-0.008368764,-0.0484955,-0.036369,-0.045856692,-0.03758183,0.101522006,-0.0026201117,-0.0045155846,0.021030435,0.042508554,-0.050021056,0.006423355,-0.017530268,0.04518299,-0.027134567,0.033693116,-0.010652089,-0.031660583,0.011503636,-0.040649533,-0.06408306,-0.0053247153,-0.10123103,-0.011652008,0.051989034,0.06765771,0.053960413,0.03375079,-0.046712067,-0.00076364784,-0.025831176,-0.051749744,0.006526445,-0.015585426,0.027845552,-0.008692891,0.020573054,0.069314405,-0.07944749,0.0231068,-0.041070633,0.033319283,-0.01739481,-0.10385862,0.024716934,-0.013800348,-0.027273502,-0.038448703,0.034317523,0.010353089,0.01980912,0.023035355,-0.07096155,-0.08547981,0.06761988,0.045225117,-0.023125751,-0.029527891,-0.014492584,-0.0064979615,0.047944445,0.045793314,-0.00863317,0.053853475,-0.050394043,0.07450087,0.06655471,-0.10182361,-0.0015178147,-0.038932376,0.021247786,-0.07625722,0.056251228,-0.037541594,-0.0204731,-0.04535771,-0.05393145,0.07022927,0.033864543,0.024075488,0.07232371,0.13077837,-0.036164336,-0.029413037,-0.019833151,-0.048320416,0.024485057,-0.035125695,0.04568942,0.019117039,0.016549656,0.054216392,-0.05562862,0.009171959,-0.03573308,0.044615593,0.008462123,0.016697418,-0.07315677,-0.019232849,0.003953856,0.011729117,0.02724311,-0.005732445,0.017934278,-0.011580632,-0.021065516,-0.01426376,-0.12255771,-0.061830338,-0.047343954,-0.04458179,-0.039249,0.038217504,-0.04792701,0.032763332,-0.038682926,-0.00722513,0.0031844273,0.07403791,0.028201982,0.032985963,0.121785454,0.018584987,0.04077301,-0.007819422,-0.052671213,-0.06291704,-0.012842462,0.04871118,-0.026888356,0.05172881,0.06554826,0.06726758,-0.067209385,-0.072970584,-0.03663104,0.07984726,-0.0875062,0.044106804,0.045520667,0.061589155,0.076105155,0.026469536,-0.03817599,0.00828156,-0.055531956,-0.03542445,-0.022505514,-0.046701,0.026011294,0.057173375,-0.102907285,0.036356624,0.012998811,-0.014938789,0.0021096729,0.02850455,0.04371049,-0.07219708,-0.0034051435,-0.01706143,0.048504204,0.0034269812,-0.043488476,-0.07605394,-0.003224414,-0.0250444,-0.10024285,-0.039203443,-0.07432194,0.01751613,-0.005403266,0.03085651,0.0693795,0.0047182837,0.028990313,-0.09361413,-0.027120128,-0.01735989,0.028562577,0.026950752,-0.03838063,-0.060590487,0.008340851,0.049762588,-0.048278578,0.014579901,-0.05066827,0.027036179,-0.04149632,-0.04205392,-0.06706574,0.105422795,-0.07974378,-0.010046358,-0.033285838,0.016838906,-0.042335466,-0.016884377,-0.06651549,0.03575726,-0.015463517,-0.07255187,0.06425344,0.10810313,-0.05198521,0.029575923,0.01384916,-0.07094018,-0.058669094,-0.03564614,-0.036675043,0.019743342,0.0035601512,0.032493014,0.020068532,0.054778967,0.035456177,-0.021832068,-0.08528369,-0.020191004,0.034078505,0.009878139,-0.07698306,0.034700453,-0.046792615,-0.047467608,-0.029321713,0.04661699,-0.015016037,-0.036776677,-0.037402656,-0.036534563,-0.0059434483,-0.07907525,-0.032369077,0.031327188,0.06983884,0.061694555,0.049836732,-0.080965996,0.05470081,-0.042837113,-0.028768066,-0.120687574,-0.02072116,-0.01118322,-0.052364834,0.008038809,-0.060786523,0.0882239,0.05325145,-0.07835616,-0.020244857,-0.0023122171,0.03533511,-0.045851685,-0.04684442,-0.07243127,-0.09058303,-0.12133616,-0.029225813,0.0237128,0.013222431,0.01901738,-0.016550666,0.04971597,-0.030793613,-0.027489053,-0.11097945,-0.021575738,0.10385005,0.06021822,0.022840092,-0.068930626,-0.067498,-0.049830504,0.0075451024,0.08701178,-0.025313955,0.015058373,-0.036969498,0.0641517,-0.0052793347,-0.04795253,0.044782043,0.015163905,0.006112286,0.03200793,-0.055745386,-0.011975783,0.03915653,-0.059317555,-0.00400493,0.007530777,-0.010092285,0.007844178,0.027763892,0.00012257758,0.037895855,0.029244052,-0.06735897,-0.04749987,-0.0057973084,0.029433379,-0.0171293,-0.014498245,-0.06569298,-0.018542595,0.06915629,0.0019402002,0.025622971,0.027464159,-0.027495846,-0.03267172,0.02800359,0.024562838,0.06293053,0.058843777,0.017493937,0.013261539,0.0066184797,0.023126764,-0.026778655,0.073933795,-0.03800969,-0.02313689,-0.022430114,-0.0150967045,-0.038543623,-0.011107355,0.020055141,-0.06034027,-0.050735276,0.03188741,0.01762331,-0.0018120352,-0.0755058,-0.0627348,-0.019684387,0.021064375,0.037834138,0.0068556326,-0.058389805,-0.051324986,0.010001201,-0.05184851,-0.016615538,0.022220327,-0.002964399,0.0012031327,0.027854344,0.04838008,-0.025706956,0.022511648,-0.044987984,-0.04726291,-0.06627566,-0.03565113,0.041793294,-0.015611223,0.026261186,0.046876457,0.012940027,-0.01096328,-0.044130597,0.048054494,0.005691487,0.031972196,0.0086825,0.03334019,-0.020170478,-0.10514998,-0.12387579,-0.0046663983,0.058765322,-0.0357788,-0.10299467,0.11761891,0.08159554,-0.011589804,0.025843471,-0.02939225,-0.05373559,-0.01827239,-0.00779087,-0.06780324,0.0142442165,-0.022926657,0.0038508968,-0.088852875,-0.050555985,-0.029188719,-0.05883688,-0.045738325,-0.019813351,0.09359764,-0.0042883498,0.108039066,0.041476697,-0.041120894,-0.009855453,-0.011845331,0.005546105,0.11596481,-0.02572927,0.02596287,-0.037296735,0.027952889,-0.042495914,-0.041615922,-0.0012279219,0.013213611,-0.011963363,-0.009843704,0.010922319,0.06065846,-0.022185382,-0.0015576793,0.06796601,0.10344862,-0.15658972,-0.040168405,0.037388217,0.030336265,-0.034238312,-0.08339497,0.013462269,0.062484656,-0.0051803584,-0.030704351,-0.03817041,-0.03292592,-0.050827987,0.00849017,0.02711195,-0.0091296295,-0.07143273,-0.091971725,0.051752675,-0.010849669,-0.027680272,-0.008729261,-0.00050008134,-0.033136986,-0.023953851,0.09532875,0.052648503,0.0015170356,-0.036691673,0.008274045,0.103898674,0.10528631,-0.10510643,-0.10535494,0.07103934,0.038361203,-0.13418396,-0.106395625,-0.04138328,-0.0015535317,-0.045008365,0.060773358,-0.029955039,0.005928259,0.062961526,0.08665745,0.029695915,0.0678932,-0.053260963,0.0071382816,0.07453346,0.023779193,-0.0090849595,-0.015097685,0.07688331,-0.023322081,-0.04582279,0.058356192,0.07369205,-0.011666405,0.02703284,-0.015332287,-0.007642634,-0.027040616,0.0880719,0.065380804,-0.00065035187,-0.0117402505,0.12988885,0.085674316,-0.012197717,-0.03914784,0.0062089236,-0.00804789,-0.013050382,0.012729679,0.06298483,-0.013332812,-0.052925244,0.07397807,0.106389634,-0.021828527,-0.046419803,-0.06667095,0.07546038,-0.049664877,0.0072131166,0.07540767,0.020986874,0.023652762,-0.0063427947,-0.0010934485,0.021776015,-0.05074641,-0.03238565,-0.029828638,0.0714126,0.058761578,-0.049590252,0.04986749,0.07920428,0.025785016,-0.054477833,-0.018400168,0.06894772,0.07265182,-0.05682209,-0.07030467,0.011342058,0.08620051,-0.016032131,0.10401576,-0.045614805,0.03823587,-0.034862187,0.13584305,0.047931887,-0.06776912,-0.038479384,0.04228287,0.022697182,0.005521229,0.0032061301,0.03708657,0.051117197,0.1146209,-0.015002789,-0.0594021,0.07705798,0.028991094,-0.015141147,-0.02246634,0.02634735,0.013497112,0.011399635,-0.036544506,0.021986613,-0.035119202,-0.05302824,0.017618159,-0.026060846,-0.028596817,-0.0059814807,-0.03722963,0.025683004,0.030948222,-0.052961033,0.017462028,-0.021622077,0.0048425323,0.029109877,-0.056634866,-0.010793182,-0.0066777547,0.077512436,0.092563145,0.065205194,-0.06928126,-0.06976135,0.007558709,-0.027037526,-0.063635156,-0.10334251,0.020944698,0.124062784,-0.008130054,-0.026495755,0.074530184,-0.00853218,-0.0070118387,-0.0155422045,-0.012792427,0.061813865,0.062384937,0.01738741,-0.031287238,0.023362435,0.007990576,0.014854996,0.034594964,0.011353151,-0.0246952,-0.01975032,0.078041464,-0.12507118,-0.027242796,-0.025329323,0.0046467837,-0.019121649,-0.03473875,-0.054455943,0.06303492,-0.053970993,0.0058431113,-0.006350349,0.004486637,0.0022846782,0.030843846,0.08171845,0.071510755,-0.020078508,0.018172875,0.05969224,-0.048680305,-0.028804354,-0.0723891,0.17003982,0.007426141,0.012835966,0.016731702,0.066945046,-0.023087919,-0.028483007,0.0044792634,0.07509625,0.054959685,-0.010627788,0.008219228,0.01848319,0.054265708,-0.045572557,0.023509622,0.07362903,0.057466164,0.03599656,-0.0066622347,0.057002712,0.040369023,0.04884483,0.01859315,0.0066792187,-0.0073513826,0.022547597,0.0027849441,0.05118488,-0.028482541,-0.1270977,-0.06664735,0.09247555,0.104075156,-0.033549257,-0.02091027,0.07364449,0.15173422,-0.09342362,0.05727088,0.1665941,0.021991123,-0.053824164,0.025423253,0.05619955,0.034505997,-0.052141104,0.028618345,0.11175146,0.01176929,-0.033950564,-0.0033811582,0.03408993,0.053688448,-0.0031245223,0.05642967,0.01582333,-0.005200086,0.045450427,0.026772002,-0.0034897472,-0.098741345,0.13481647,0.07414593,0.03839588,-0.015806388,-0.028525604,0.029958243,0.021750044,0.019275201,0.027837783,0.054805446,0.07073619,0.038704187,-0.05132064,-0.06113183,0.021221424,0.06486475,0.05180854,0.008363045,-0.07224503,-0.04392486,0.071655706,-0.029615909,-0.057084296,-0.06435914,-0.07160231,-0.055454835,0.15527602,0.0990604,0.014159817,-0.07064346,-0.053291388,0.026723351,0.029487042,-0.03918511,-0.0132376235,-0.053333987,-0.027192667,-0.04037041,0.008796409,-0.001228314,0.009343915,0.0064895,0.019103935,0.02810956,-0.012010781,-0.0057040458,-0.04524333,0.06359093,0.06436462,0.09946577,0.01872331,0.059590407,-0.03203523,-0.049455315,-0.02756477,-0.007363109,0.03449741,0.048946984,-0.062346295,-0.06574882,0.075074926,0.0166865,-0.035254307,-0.019729491,0.12245559,-0.02845957,-0.019098502,-0.038199376,-0.0025618828,-0.036969375,-0.0036538388,0.020744763,-0.100603856,-0.0115726255,-0.042513043,-0.009861061,0.09173117,0.018551463,-0.037304647,0.009498919,0.065471604,-0.10421261,0.004357268,-0.062460817,0.117693774,0.07521075,-0.081564255,-0.050439835,0.043351,0.07815628,-0.05621321,0.0070276926,-0.003710303,0.024887327,-0.05837695,0.0243801,0.014284699,0.042766403,-0.0400907,-0.012150307,0.020336093,-0.015010124,-0.060678788,-0.032980945,-0.046730258,-0.039664578,-0.008057071,-0.005150889,-0.020603219,-0.08661171,-0.07320713,0.01813576,0.0071453163,0.0141488025,-0.033727825,0.021090018,0.018820504,-0.03795513,0.12390451,0.05217949,-0.0023250147,-0.024038216,0.0008017308,-0.032261707,-0.018332545,-0.065457895,0.0026061325,0.0049023204,0.025043476,-0.05185077,0.03210568,0.09654391,-0.026739934,4.4710967e-05,-0.016400876,0.1367921,-0.020285511,0.02741833,-0.016983286,-0.017813759,0.026764829,-0.08411662,-0.07430115,-0.031071212,0.056947935,0.03476029,-0.0065843193,-0.03203012,-0.031803843,0.13049532,-0.020189343,-0.040188886,-0.012835047,-0.0130016245,0.010359901,-0.012643494,0.026751801,-0.0011000863,0.036498662,0.055705592,0.052125085,0.038216513,0.032727733,0.052763905,0.014337703,0.015301425,-0.068927296,-0.0008485487,-0.015360221,-0.07811867,0.026852904,0.038178526,0.008072488,-0.055978745,-0.055888724,-0.03742342,-0.048711065,0.06383273,-0.026591074,-0.019197999,0.02723308,0.03367261,0.058919176,-0.053139355,-0.011643622,0.011414224,0.03845699,0.014288134,-0.042176813,0.02906427,0.032953605,-0.032031853,-0.071788855,-0.028666567,0.042131502,0.06925329,0.030030496,-0.008813345,0.024192628,0.13940167,0.026606051,0.025123088,0.07232108,0.04979006,-0.025381144,-0.095919736,-0.0008296312,0.00894684,-0.0018391414,-0.0044157915,0.022869097,0.09497171,-0.057286568,-0.07426821,0.042198278,0.14595242,-0.012054699,-0.06823505,0.009319331,0.095131665,0.06787371,-0.007220199,-0.070800394,-0.005222286,-0.0076351203,-0.04090914,0.022667076,0.10925897,-0.023628384,-0.035998154,0.081910454,0.07470659,-0.050595805,-0.055393502,0.06092713,0.018704284,0.0852474,0.023530716,-0.12962598,-0.093559705,-0.026794331,0.059996743,0.0042300224,0.06833731,-0.052136637,0.007476037,-0.017935311,0.072083205,0.057641998,0.009841845,-0.04003283,0.009633609,0.10463161,-0.08690892,-0.019274747,-0.04955746,0.005949683,-0.051142935,0.02488885,0.11465029,-0.0015237947,-0.05910552,0.02499567,-0.06760386,0.056671154,-0.07472776,-0.086379066,0.019880548,-0.02663801,0.0053611374,-0.0017592676,0.054990046,-0.031281393,0.038080644,0.03577787,0.029369237,0.02384084,0.036712956,0.027094692,-0.05608578,0.039377403,-0.07724064,-0.07107462,-0.07167499,0.03390917,-0.054776266,-0.03254714,-0.0022224567,0.064101756,0.009823957,0.07426977,0.082868345,-0.05809779,-0.02365216,0.08926383,-0.01783904,0.06963484,-0.05381943,0.040700182,-0.09649609,-0.021862132,-0.047505155,-0.019807015,0.0055193137,0.016849345,0.10019799,0.08302977,0.00814515,-0.0075500333,0.039967682,-0.062062606,0.005688409,-0.05252386,-0.03962952,-0.050277624,-0.05632984,0.046668515,-0.025643272,-0.035878617,0.06089984,-0.051265273,-0.06932465,-0.02494431,0.054582316,0.083056204,0.04810587,-0.027153842,0.1591056,0.0074176765,-0.02211132,-0.023937467,0.052483432,0.007429322,-0.01721817,-0.05630484,-0.077084295,-0.047172118,-0.007300461,-0.008802196,-0.026997749,0.07199389,0.05873907,0.10132962,0.025557641,-0.035450935,-0.030702204,0.067622006,-0.012264213,-0.04693075,-0.009308012,0.01432515,-0.010628517,-0.0062621366,-0.02695059,-0.019433968,-0.089800715,0.05404497,0.06079173,0.07496744,0.0058859736,0.051392496,-0.017314523,0.09414646,0.00023856266,-0.042353235,-0.0065534962,0.03804256,-0.013378541,0.023667563,-0.0040970095,-0.06941445,-0.05626217,0.03478645,0.093297705,-0.10980641,-0.13335192,0.08134253,0.012667622,0.0050937925,0.0786192,0.024812482,-0.019543413,0.085031055,0.001051555,0.034581818,-0.006078719,0.025814736,-0.006187519,0.09359641,0.030584898,-0.049738776,-0.020725766,-0.0056430344,0.0063445433,-0.031133384,0.01950679,-0.13928205,-0.062378377,-0.013955188,0.0008387817,0.097758554,0.037999924,-0.10600989,-0.074783795,0.05734176,-0.012375769,0.056300078,0.03993705,-0.0023800377,-0.02211347,0.027737599,-0.004603925,-0.03006082,-0.019218745,-0.043898225,-0.007408816,0.01443417,-0.040760208,-0.008304645,-0.059568673,0.06366774,0.00916077,0.042739198,0.0591875,-0.0040557813,-0.018175738,0.092579834,0.071124844,-0.01832011,0.0297805,-0.049577873,-0.030513365,0.020678673,-0.039627407,-0.016337551,0.016339289,-0.055777673,0.04577815,0.057481494,0.048326105,-0.06533954,-0.05794702,0.029401649,0.019447682,-0.0027559656,0.008499545,0.014394949,-0.02237051,-0.00905186,0.048135143,0.034797348,0.055426173,0.023759462,0.08339074,0.03667485,-0.045565493,0.002664897,0.00078674086,-0.08016731,-0.073956236,0.024339117,0.012717416,0.03605251,-0.017504184,0.024722574,0.120719306,-0.07095572,-0.10665205,-0.0053386604,0.035898812,-0.20373526,-0.039356396,-0.009920309,0.029169712,0.05103619,-0.022546725,0.01994244,0.093620986,0.031248955,0.07309343,-0.057072222,-0.06829854,-0.069793105,-0.11903873,0.007519506,0.029374726,-0.021353958,-0.073076464,0.017405462,0.07252604,0.029650602,0.01617893,0.015027016,-0.040151175,0.055117223,0.029531356,-0.025139065,0.109779105,0.011834635,-0.076951824,0.0033040203,-0.04467828,-0.15586711,-0.04545196,-0.014918768,-0.020658346,-0.045256723,0.0019394963,0.013878988,0.11983937,0.06401056,0.035831537,-0.09170119,-0.047799718,0.09832774,0.099188566,-0.06748472,0.036250096,0.047067072,0.11064438,0.02132032,0.037379198,-0.022513192,0.022798665,-0.05787582,-0.09019383,-0.010809249,-0.033459585,-0.061956488,-0.02135791,0.0012631452,0.051763542,0.011206155,-0.0352886,0.063722365,0.067766756,0.06825144,0.0010471002,-0.0657705,-0.097755685,-0.1084775,0.07396871,0.059042376,-0.05436501,-0.09003375,-0.017736189,0.055096783,0.11215594,0.019497847,-0.021999715,0.10306758,0.035242897,-0.0310645,0.007891046,0.00578778,0.02232358,0.005391857,0.0728209,0.028096592,0.0035854192,-0.08410185,-0.017392483,-0.036805924,0.025666304,0.032001413,0.07808413,-0.03891962,-0.022124585,-0.03774599,-0.07818648,-0.010612325,2.1696995e-05,-0.092343725,-0.005933123,0.05465741,0.036004882,0.032307483,0.0539915,0.008272562,0.085045375,0.04729583,0.041291263,-0.043756403,-0.026239341,-0.03324386,-0.031958234,-0.068957396,0.047563788,-0.024549665,0.037144087,0.060618598,0.015662108,-0.01298103,0.037735164,-0.07207533,-0.083276935,-0.018811554,0.066182226,-0.03550876,-0.04683373,-0.039982114,0.042271722,0.069422916,-0.08416259,0.007286654,-0.008446859,-0.010588656,0.03389468,0.014129718,0.0035338332,0.07688007,-0.0049871164,0.04957122,0.040523432,-0.094124585,-0.025010172,0.024742216,-0.00410457,0.051732972,0.0069763213,-0.03392451,-0.0067230766,0.0280862,0.039641224,0.037534654,0.05998146,-0.01829775,0.019945512,0.008911529,0.0052634315,0.0021592625,0.018930933,0.053654294,0.13499738,0.03183487,-0.0010771081,-0.035207726,0.06793839,-0.04470809,-0.033886254,-0.06906545,-0.081711,0.05556889,0.11890815,-0.007484954,-0.014078196,0.028249543,0.13693045,0.013718314,-0.03074272,-0.118627585,-0.046682004,0.010595214,-0.015663547,-0.06661504,0.0060113426,0.019451015,0.07735407,0.03910796,-0.0023118453,0.014957001,0.008326699,-0.09738899,-0.06885018,-0.046038006,-0.048119143,-0.069321804,-0.04282352,0.043220524,0.019755922,-0.011387674,-0.010766044,0.0499728,-0.04913337,0.0514548,-0.04880602,0.04622946,-0.007600884,0.0642167,0.025933376,0.011030545,0.023803046,-0.016537245,0.043560825,0.027549932,0.03390963,0.061937176,0.018178795,-0.0031831884,0.038720816,-0.10797706,-0.06767944,-0.019875478,-0.033952076,-0.1387803,-0.12975459,-0.031164752,-0.035018258,-0.00240376,-0.040507693,-0.050023913,-0.004850325,-0.011934648,0.06265488,0.029991182,-0.04969627,0.018431177,-0.049721748,0.0926747,-0.051923513,0.03377228,-0.0040018363,-0.05344634,-0.07497119,-0.0058718836,-0.0565331,-0.112012535,-0.061152026,-0.057097137,0.011396532,0.0028983518,0.003922045,-0.06597503,-0.07453919,0.06237014,0.049228124,-0.072754726,-0.045594234,0.006127653,-0.015314526,-0.014911296,0.06028209,-0.093572274,-0.10160813,-0.018995155,-0.027495362,-0.017274946,0.04223596,0.04679206,-0.022011748,0.065527454,-0.0013733846,-0.049675602,-0.029021708,-0.011929516,-0.039711162,-0.017457332,0.005790094,-0.02289474,0.029560342,-0.018013978,0.08053372,-0.0710161,-0.036642488,-0.063198395,-0.012254859,-0.10504364,-0.0031706286,0.11319731,-0.020745378,0.054150753,0.031265184,0.036279324,0.06271367,0.076604374,0.035484646,0.025563795,-0.0123995645,-0.03916144,0.012498139,0.07589541,0.046411406,-0.041389253,-0.03144499,0.05570987,-0.021586029,-0.0008840849,0.022853605,-0.07827527,-0.09119605,-0.017958963,0.027129991,0.03574462,-0.0271518,-0.024543842,0.018397266,-0.007879539,-0.08153683,0.0039331564,-0.0038348953,-0.06964878,-0.01679677,-0.061495956,-0.027763942,0.084115446,0.004610071,0.044374477,0.0078970175,0.028120559,0.024545422,0.023937268,-0.027376711,0.017045226,-0.1057888,0.0075308424,-0.011993063,-0.024804609,-0.107719615,-0.070729,-0.08518069,-0.021350654,-0.035650793,-0.016768022,-0.069528304,0.017188715,0.0056910445,-0.03746656,0.05142017,-0.028992208,-0.16901048,-0.025122738,0.0055814455,-0.032308385,0.05843131,0.056272753,-0.075786516,0.021524651,0.0507427,0.07706629,0.041752703,0.0100895325,0.039401073,-0.05081334,-0.022107594,0.044741347,0.15276912,-0.10461875,-0.10461743,-0.05982736,0.1079161,0.011165289,0.006094856,-0.015503126,-0.04991561,-0.09138283,-0.020919237,-0.05354328,-0.072136074,-0.098501995,-0.02211653,0.04780715,0.10020105,-0.032022886,-0.04505777,-0.020449763,0.034501713,0.03097118,0.012525626,-0.11966617,-0.12284811,-0.07417777,0.011926795,0.032390058,-0.07455936,-0.013690748,0.016597994,0.06190309,0.14340521,-0.009096644,0.002798843,0.044062223,0.034262624,-0.020156411,-0.011206652,0.030966572,0.0071774507,-0.037332755,0.042022586,-0.056084517,-0.053202707,0.013047045,-0.004025752,-0.03235323,0.0014458662,0.023360169,-0.03768555,-0.0345676,-0.0010578615,0.011012984,-0.046638973,-0.06399549,-0.09221668,-0.04296611,-0.0066398024,-0.027775168,-0.028630782,0.0323394,-0.050359577,0.023650335,0.010415578,-0.035796486,0.008208051,-0.012588484,-0.044990778,-0.08939215,0.016626023,-0.057835802,-0.06378647,0.04460561,0.033442426,0.039892834,-0.00047744688,-0.035694975,0.026066126,0.034253724,0.007718873,-0.04262998,0.005712059,-0.06758314,-0.038965534,0.0026398601,-0.05118801,0.040272254,-0.0303609,-0.020472758,-0.0028068663,-0.0076347943,0.026172658,0.02027696,0.015772903,0.027239624,-0.08454229,0.0539003,0.077254556,0.013906482,-0.05196991,-0.060629923,0.025204763,-0.056611925,-0.08857784,-0.008187686,-0.012775781,0.048561435,0.0484342,1.6685886e-05,-0.04804766,-0.007418119,0.01717931,0.040440835,0.04751466,0.016589357,-0.008427203,0.014625843,-0.070344396,0.0051476536,-0.025218142,0.016819898,-0.049123153,0.028091395,-0.0041251746,0.011736801,-0.027797975,0.019514652,0.1830167,0.046562713,0.00385179,-0.03379985,0.047326166,0.034693286,0.008766192,-0.03342771,-0.045614924,-0.07608338,0.08162885,0.01857306,-0.02281366,-0.023225043,-0.008051031,0.072375394,0.014376425,-0.043904692,-0.023239145,-0.018977158,-0.016206358,-0.020734072,0.007890917,0.00032827756,-0.05451303,0.06015181,-0.028422432,-0.074204646,0.02965567,-0.026881684,0.009329107,-0.00090065016,-0.061478388,0.031045005,-0.03569917,-0.016440524,-0.037746686,-0.018370396,0.004923913,0.024828233,0.010170892,-0.05725953,-0.046964873,0.03571762,0.034313463,-0.027516754,-0.082003936,-0.13859835,-0.10697396,-0.056877844,-0.06443854,0.034099523,-0.016633132,0.12325754,0.039830934,-0.085485026,0.024060976,0.104342125,0.020419285,-0.022177167,-0.01576788,0.011241367,-0.018440738,-0.10590443,0.046242528,-0.022964694,-0.089018896,0.027200064,0.052832063,-0.10187763,-0.047930002,0.02634998,0.09457247,0.122140005,0.025808074,0.01873688,0.0016776907,-0.017402643,-0.08815664,-0.03936316,0.05864193,0.028733622,-0.017211843,0.05434993,0.17387947,-0.04324441,0.06439348,-0.095945746,-0.011053292,0.037739072,0.0036251477,-0.013501669,-0.062017847,0.017321665,-0.055330697,-0.065632954,-0.065097995,0.03111468,0.054248806,0.06072412,0.014741208,0.03577,0.0021803994,0.10232295,0.033937942,-0.017875541,0.011350243,-0.08846143,-0.04022819,0.09874812,0.04098913,0.11532244,0.028586183,0.027142033,0.058698434,-0.054819375,-0.057979673,-0.041441295,-0.07921066,-0.019643521,-0.051659513,-0.13628736,-0.1209408,0.06454239,-0.028739119,0.029170085,-0.01344926,0.027112331,-0.08302549,0.000822898,0.08317041,-0.02142888,0.03469874,-0.050055172,0.022968922,-0.008307262,0.11064882,-0.11761832,-0.103123605,-0.04439049,-0.0068428204,0.020285435,-0.02842243,-0.03300773,0.030072337,-0.02432886,-0.009926374,-0.04679159,0.02384438,-0.012234011,0.052676927,0.0038281684,-0.050282523,0.053420644,-0.009833177,-0.03065107,0.06828292,-0.0516909,-0.06567216,-0.041697033,-0.032811005,-0.02334783,0.0011026126,-0.0287353,0.0716168,0.0405463,0.11645865,0.029227572,0.035678808,0.07844656,0.03991608,-0.0045474893,-0.0014172168,0.06143261,0.051901076,0.026087232,0.056410972,0.0543793,0.008251758,0.05516592,-0.101954624,-0.072311655,-0.050300468,-0.044328112,-0.03170939,-0.0998116,-0.023066442,-0.019342048,0.029983616,-0.026087748,0.051790394,0.09000656,-0.08644532,0.07483781,0.07877728,0.0016381546,0.021365391,-0.023463491,-0.15895914,-0.020839948,0.06369814,-0.08159949,-0.049813256,-0.006510519,0.044805653,0.047100786,-0.023512993,-0.017927194,-0.061669566,0.049580246,-0.050892096,0.015078186,-0.036515456,-0.051433064,-0.12283556,0.0061714286,0.09864866,-0.012608398,-0.026424194,-0.02189603,-0.007393279,0.064927906,0.034679692,-0.033494085,-0.08239519,0.021642936,-0.009435838,-0.017237613,-0.018283572,-0.04047929,-0.07690838,0.03135162,0.042978004,0.076479144,-0.020186966,0.044466667,0.028587159,-0.04163707,0.017770797,-0.07193914,-0.06830326,-0.005241133,-0.030001702,-0.021189556,-0.027589409,-0.03903927,0.035565827,0.05552852,0.024179311,0.068866044,-0.07350382,-0.019933742,0.06105886,0.05523689,-0.09376581,-0.048072953,-0.052757267,-0.055027254,-0.013692677,-0.11353904,0.011878604,0.07479369,0.022484457,-0.031189535,0.0322158,-0.00052757654,-0.008849953,0.016919807,0.03789261,0.06616815,0.025062842,-0.043147337,-0.0014960784,-0.05719932,-0.08695966,0.0012620161,0.0028713194,-0.016457902,0.035527106,0.07548734,-0.0105093,-0.019440748,0.0023733866,0.011898998,0.03908156,0.032971792,-0.06781559,-0.06124322,-0.028720513,-0.032342274,-0.059558682,-0.09008357,0.030069338,0.10386818,0.004483087,0.051991668,0.064154424,0.10561438,0.0015448532,-0.0059196553,0.048792478,0.002757903,-0.027573982,-0.017619561,0.0068882536,-0.061579667,-0.01782472,-0.03230546,-0.021407396,0.041802213,0.061498974,0.048387546,-0.031030295,0.06507226,0.026819909,0.0050170836,0.050342865,0.012463596,0.045296326,0.11155878,-0.022625843,0.119516924,-0.08525836,-0.01051066,0.026485479,-0.07502678,-0.07169382,-0.11470667,0.08390366,0.036182415,-0.01436146,-0.04069853,-0.043941077,-0.010600002,0.026086792,0.02633726,0.08954305,-0.043837104,-0.121309236,0.036001317,-0.0023751622,-0.07904164,-0.04712532,0.019804602,-0.022795191,0.016511355,0.06838485,0.0050820103,-0.05109925,0.020990366,0.032079943,-0.055618823,-0.028975291,-0.007652995,0.0027544308,-0.08290009,-0.060121253,-0.022275757,0.027619094,0.028821366,0.044972513,0.035216175,0.00013048423,-0.05335992,-0.053289797,-0.05268619,-0.09119601,-0.12687452,-0.236431,0.0015262421,-0.04510361,0.085465975,0.16626163,-0.023729991,0.08527034,-0.04334631,0.018567676,0.07550408,0.0037717628,-0.013347594,0.034069847,0.0025075134,-0.049290918,-0.14167684,-0.04981218,0.035928424,-0.0050474415,-0.077346936,0.042274192,0.012375836,-0.016488787,-0.028083341,0.033945285,0.118270166,-0.09815167,0.0004652585,-0.043361492,-0.12648071,-0.09357005,0.038683258,0.17135148,0.02403055,0.031535868,0.056604233,0.051503945,0.046673257,0.06415833,0.012332212,-0.03363513,0.06352027,-0.027344884,-0.030760592,0.02825957,-0.0018900601,-0.13259412,-0.065869205,-0.04567608,-0.050622523,0.01564425,0.060828727,0.053301375,0.05837321,0.024103891,-0.08055462,-0.033528563,-0.05282403,0.056702647,0.0009187322,-0.037087794,-0.06810495,0.054461952,0.08853824,0.0015105573,-0.031229988,-0.029314574,-0.09347854,-0.116669245,0.03736278,-0.055958036,-0.045141637,-0.038824566,-0.012668106,0.059706572,0.06967663,0.0022059733,0.05474406,-0.055433374,-0.07398529,-0.08800322,-0.0376414,-0.13281237,-0.060661208,0.13579686,-0.024871327,-0.015252434,-0.025154136,0.038308013,0.00329382,-0.033726078,-0.062001426,0.10504975,-0.044636928,0.03156174,0.015628187,0.14771509,0.00918561,-0.11293782,0.04689209,-0.058856703,0.06420936,-0.085438654,-0.08122059,0.036198914,-0.012878021,0.016866498,0.054748524,0.09110611,0.030985434,-0.13146824,-0.07973877,-0.07131907,-0.030898882,-0.063012116,-0.060050957,0.059930447,0.043336187,0.0138901975,0.002161868,0.04987065,0.013045814,-0.07877802,-0.012673959,0.02902198,-0.035660688,-0.053900875,-0.018961621,0.0993927,-0.037585188,0.0772019,-0.04840369,-0.10990693,0.03525839,-0.02063409,-0.052836955,-0.042807378,0.047712512,-0.04859084,0.02471367,0.100721225,0.040814593,0.1256487,0.033364598,-0.13492547,-0.028261522,-0.029064825,0.028009702,-0.04859815,0.008979983,-0.0123413,-0.010269974,0.023258036,-0.012812983,-0.032185692,-0.021275027,-0.04598966,0.0341909,0.075198226,0.016467147,-0.102004535,-0.026512792,0.04864095,-0.009467497,0.011618026,-0.07326076,0.03423764,0.044420477,0.07776186,0.032856867,0.13230477,-0.048904423,-0.054888617,0.046082202,-0.05385243,-0.04323425,-0.10385051,0.060641903,-0.032594316,-0.05845064,0.016599152,-0.035649784,-0.008214612,-0.021327797,0.01707882,0.13233255,-0.03279676,-0.000486679,0.0067604687,0.09989875,0.042549197,-0.100649066,-0.12539534,0.06798748,-0.030373164,-0.054625075,-0.05540001,0.016674077,0.16088557,0.026216133,-0.031044146,0.019896537,-0.10764724,-0.06298323,-0.03837073,0.09687171,-0.08334079,-0.06962368,0.0027116677,0.011177981,0.005311356,-0.013372532,-0.022213614,0.05018101,-0.022036938,0.026215708,-0.03314863,-0.045836765,0.0017794498,-0.015323826,0.009544821,-0.0360371,-0.06939315,-0.04961128,-0.13821858,-0.0072974674,0.017065832,-0.086933054,-0.022348182,0.013138276,0.012236917,0.04264323,0.0752115,0.022611206,-0.030907921,-0.121964544,0.02419112,0.085540585,0.0047427937,-0.13922904,-0.06823813,0.03732547,0.0021661923,-0.03531965,-0.05214171,0.066046864,-0.021399746,-0.082648724,0.06010672,0.07535737,-0.014517454,-0.06395344,0.029450327,-0.04708026,-0.130206,-0.0805182,-0.05485726,0.027632765,-0.038058918,-0.015147571,0.041484658,0.018706443,0.02522484,0.009958285,0.043612976,-0.049181063,0.041656975,-0.012498986,0.056558352,-0.07862792,0.03829383,0.07686152,-0.10803327,-0.046464022,-0.09063848,-0.03846958,-0.061508186,-0.0030754437,0.031188156,0.035034638,0.04370812,0.058035325,-0.0069300868,-0.06939302,0.059176225,-0.009430514,-0.014623053,0.023047492,0.095404916,-0.03996827,0.028170496,0.016880423,-0.010395304,0.07639559,0.004867176,-0.086667836,-0.06826333,-0.053632736,0.0064970106,-0.026044095,-0.011496963,-0.027336713,-0.046278205,0.04210841,0.016305804,-0.002924296,0.06261562,0.031028923,0.05086337,-0.053418834,-0.033522274,-0.022990819,0.0046047578,0.013330897,0.027112057,0.07976299,-0.0519979,-0.07005919,-0.012735145,-0.023124518,-0.0033332163,0.084157944,-0.015489677,-0.008302605,-0.06485765,-0.06328741,-0.03633355,0.032006968,0.014258146,0.019514939,0.08571019,0.08729841,-0.04520434,-0.069192484,0.111919194,0.10107121,-0.03919855,-0.0076164505,0.044635277,0.031380408,-0.0109601095,0.04245779,-0.02530659,-0.008607945,0.00045343704,-0.13760251,0.044123653,-0.03783639,-0.045775052,-0.06832829,0.072756946,-0.04309039,-0.009718409,0.011731818,-0.0010817539,-0.010192136,-0.011511937,0.06338046,-0.0071257064,0.0044919853,-0.075079255,-0.079391204,0.043638475,0.13550147,-0.023700023,0.027197678,0.054697495,0.074031405,0.02154892,0.0064354385,-0.03505343,0.062022712,0.051001277,-9.421071e-05,0.0066350577,-0.021086385,-0.014113226,0.05081093,0.1382423,0.01904629,-0.018204222,-0.08683013,-0.03771923,0.034280762,0.023782263,0.006573257,-0.029404214,-0.017439255,0.03810123,-0.042703535,-0.057098016,0.08538183,-0.0015787624,0.06297823,-0.030479917,-0.06808437,-0.016106097,-0.025223454,0.021883646,0.054431066,-0.007641495,-0.02048118,0.0070346897,0.07066212,-0.057897035,0.019625185,-0.03671779,0.008535029,-0.02494334,-0.046948444,-0.055018287,0.11948633,-0.10316652,0.013091998,0.052648302,0.044035483,0.00032363535,-0.030711561,-0.062267233,-0.039098877,-0.051744774,-0.025290873,-0.021797623,0.039561335,-0.11454042,0.057540756,-0.017427312,-0.06573514,0.006176957,-0.037081063,0.014023692,0.03462198,-0.046146028,0.027527904,0.038014956,0.012191852,-0.075343035,-0.001151013,-0.03287166,0.012312986,-0.047258172,0.020016028,0.10387966,0.1048703,0.00048289157,0.026952678,0.04468087,0.069801845,-0.04761617,0.00871838,-0.026729641,0.06214098,-0.09752187,-0.043972198,-0.04216963,0.07112358,-0.09903408,0.037499458,0.0026977526,0.0013523459,-0.03525442,-0.05482715,-0.060970716,0.0006943732,0.06315018,-0.1075394,-0.07422472,0.03802249,0.048333697,0.074183404,0.00821181,0.023990225,-0.018645884,0.07655777,0.07754774,-0.033594828,-0.03811664,-0.0440224,-0.12270384,0.027668266,0.06387557,0.007050494,-0.021151755,0.04790779,0.030172443,0.008180664,-0.0044839187,-0.0020400258,-0.02694742,-0.03203971,0.055961438,-0.037699375,-0.08679207,-0.051364053,-0.06457899,0.0051173978,0.02333329,-0.08213304,-0.047937617,-0.036137704,0.015020666,0.04582669,0.05644109,0.0044103814,0.017427564,-0.005824864,0.059895262,-0.07844132,-0.022099994,-0.043932524,-0.001977699,0.04194494,-0.023011696,0.0025053557,0.029709762,0.064694054,-0.05121912,0.04927312,0.06032399,0.022269066,-0.046425298,-0.055651028,0.072596535,0.016116707,-0.060970344,0.06376086,0.07482043,0.023001112,-0.042586163,-0.01741102,0.047431584,0.03653376,-0.062107112,-0.11426528,-0.01356223,-0.014869198,0.008756104,0.04638247,0.011841886,-0.07773026,0.030442216,-0.03215865,-0.014849458,0.011485655,-0.011717973,-0.031941634,0.024440007,-0.02727035,-0.02652488,-0.008372585,-0.010274213,-0.04319965,-0.022105915,-0.04485983,-0.046753388,0.083573416,0.10819483,-0.04852956,0.046337537,0.03462622,-0.060501523,0.039562043,0.054225814,0.046031453,-0.035905194,-0.0666686,-0.038901992,-0.003742121,-0.023843063,-0.043536577,0.036315706,-0.041392617,-0.05639298,-0.011260961,0.022398232,0.00062934245,-0.033357125,-0.015844012,0.01326921,-0.0062366086,-0.013673026,0.050681394,-0.043215163,0.054121643,0.011056611,-0.014248484,0.043116473,0.07876725,0.09185689,-0.006302026,-0.071693175,-0.024384167,0.104726665,-0.039800942,0.042852804,0.0057461425,0.04633176,0.07986181,0.046755724,-0.005346938,-0.037081216,-0.10952056,0.00664561,0.01337949,-0.12466099,-0.03960682,0.0055511124,0.069943555,0.042553242,-0.046670645,0.07809025,0.05757687,-0.007117539,0.020663824,0.02174041,-0.01204157,-0.012699894,-0.0037836833,-0.09755904,-0.023238733,-0.035333544,-0.010580215,0.014060756,0.057791382,0.048243545,-0.0050403452,0.053388514,-0.038584717,0.038214527,0.000113786205,-0.025088927,-0.0014014072,-0.010564488,0.02615534,0.018123627,0.010593454,-0.00078600127,0.08852448,0.13034503,0.16025716,0.15816246,0.0679011,0.038419276,-0.095843315,-0.047460567,-0.030522374,0.0062561864,-0.046588458,-0.13498376,0.050678823,0.054632444,-0.034208253,-0.13733514,0.063271865,0.11692965,0.09552566,0.079535775,0.020051474,-0.03136684,0.0077267764,-0.004075164,-0.03702754,0.0057837465,-0.044387195,0.029770885,0.1022881,0.06801827,0.003068875,0.009497772,-0.005746221,-0.018590821,0.02755658,0.026058082,0.057184007,0.100060284,-0.09072389,-0.07179765,-0.014731741,0.022502635,-0.05148502,-0.008853066,0.070398115,0.042198684,0.040332727,0.052815452,0.09672753,0.182674,0.12276765,0.019058919,-0.025835795,-0.025952933,-0.03540655,-0.03898339,-0.02675245,0.01649851,-0.04213426,-0.006311419,0.030666573,-0.0045356085,-0.09574607,-0.053538337,0.03464588,-0.16865242,-0.0696506,-0.07097923,-0.010599661,0.0342725,0.06133217,0.037447196,-0.06022441,0.01411674,-0.015222823,-0.07921682,-0.052402258,-0.013424138,-0.033293486,0.01474237,-0.055250432,0.0017022064,-0.017478826,0.07400466,-0.03849024,-0.080069885,0.022961305,0.016204776,0.041562453,0.0016683823,-0.012365352,0.030974198,0.0038808812,-0.020020755,-0.013028613,-0.07599014,0.0078015523,-0.03951859,0.08328449,0.004715637,0.017976755,0.06299192,0.06017287,-0.014686496,-0.050158925,-0.01497325,0.006200235,-0.022239655,-0.018885793,-0.029568039,-0.004368436,0.01930763,0.03535923,0.086405486,0.062334962,0.06928134,0.06505326,0.0535261,0.050116785,-0.042365674,0.00070995756,-0.048653107,0.007368152,-0.053068947,0.0038491106,0.017383454,0.038719255,-0.07733101,-0.03415475,-0.013766372,-0.058303613,-0.033283174,0.038698394,0.10358988,0.090975754,-0.00384327,-0.032287408,-0.03998629,0.051868446,0.04067127,-0.03357738,-0.07814047,-0.046425283,-0.008883525,-0.036882777,-0.086604096,-0.011007478,0.05044556,-0.05962296,-0.20286822,-0.098300606,-0.03540641,0.020043563,-0.030714221,-0.0038477993,-0.0026359607,0.072452046,0.0038629437,0.012484311,0.029308569,-0.011401965,-0.0397836,0.009932058,0.0522252,-0.0701186,-0.029069582,0.058849912,0.011901936,0.009938276,-0.10604365,0.031335004,0.013072539,0.04901713,-0.024724882,-0.027405117,0.008521531,-0.10322419,-0.08858546,-0.018569052,-0.06815636,-0.0755943,-0.059944857,-0.073475145,0.018421428,-0.0059151403,-0.048185706,-0.030682877,-0.06288901,0.06472355,0.05034783,-0.0005034279,0.0038524747,-0.08972768,0.057472568,0.13612473,0.14848459,-0.031852555,0.00029328352,0.0898903,0.002287386,0.04146586,-0.034965284,-0.049457178,-0.026109952,0.08890734,-0.029704748,-0.07719469,0.021507427,-0.037796218,0.004348902,0.10197207,0.055590946,-0.017719747,-0.0035282283,0.08842161,-0.0794582,0.01160224,-0.02797166,-0.034331474,-0.04960611,-0.08055113,-0.09140883,-0.09135172,0.032801535,-0.02676882,0.109517865,0.10436795,0.07584477,-0.003948766,0.02779424,0.031686038,-0.026290301,0.048923455,-0.015703052,-0.032725796,-0.027021067,-0.021620693,-0.04274174,0.016689543,-0.09472241,-0.006427521,0.087789066,0.13941693,0.07286963,0.0054150387,-0.01482397,0.11575831,0.042703006,0.027568156,-0.028098404,-0.12130158,-0.021880021,0.028088307,-0.062158506,-0.033861443,-0.027301567,0.053607833,0.14069389,0.12508792,-0.027516829,0.04247207,0.0675402,-0.057839245,-0.00066390773,0.053859495,-0.05006447,0.008829066,-0.035690952,0.03109874,-0.040136226,0.059193663,0.0036904693,-0.012186585,-0.047732722,-0.122974284,-0.010425508,0.01397756,0.013402159,-0.10484958,-0.021638226,0.04085167,0.04950591,-0.01643662,0.013912855,-0.046151716,-0.027867518,0.046336673,-0.115646034,-0.08197053,-0.11227407,-0.04515072,-0.114839755,0.053497575,-0.044362042,0.12390363,0.031593606,-0.017788619,0.036425993,0.075189315,0.02118674,-0.14826772,-0.011932298,0.032979883,-0.04447912,0.017946953,0.014295333,0.053320676,0.019480405,-0.033261303,-0.018397348,0.016733138,0.064973645,-0.013199298,-0.061394457,-0.042699195,0.0029312677,-0.03386995,-0.05114099,-0.025291065,-0.007911503,0.05289637,0.034650214,0.009610327,-0.07282326,0.04057485,0.0020246592,0.010525782,-0.02811253,-0.0127614625,-0.0029296884,0.038296405,-0.09454816,0.011015217,-0.042996667,-0.090797625,-0.1243802,0.034373347,0.0068410193,0.017598541,0.00013670493,-0.095247954,-0.05144341,0.00042563106,-0.0012525867,0.008527804,0.075945176,0.004835107,-0.03565413,0.014640872,-0.025767917,-0.053417344,0.035672948,0.014616609,0.028934594,0.03125312,-0.008838872,-0.101533175,-0.076393135,-0.056224752,-0.08707979,0.013894606,-0.014043435,-0.030024838,-0.0652247,0.011512415,0.053374007,-0.032619014,-0.016936114,0.0618073,0.056252144,0.05134144,-0.052142322,-0.018627133,0.06725567,0.020566458,0.011063646,-0.014761397,-0.0120789595,-0.013199968,-0.04615807,-0.049192697,-0.024908034,-0.052052166,-0.03282834,-0.06964923,-0.07555986,-0.14767142,-0.038516153,0.0008801274,0.034467325,0.06654818,0.15253241,0.061264556,0.029355623,0.0086033465,-0.009261725,-0.058159366,-0.09580355,0.005095353,0.007032377,0.06005836,-0.0045584533,0.11907992,-0.001835313,-0.009028294,-0.037407532,0.037395187,-0.03021815,-0.09367581,-0.09302508,-0.00915214,-0.10665931,-0.07957251,0.106075846,0.07039864,-0.112525724,-0.118013464,-0.08172788,0.02487907,-0.07801391,0.052562226,0.05976274,0.05117749,0.040088914,0.004469641,0.089237615,0.013346665,-0.0010800009,-0.016897399,-0.07693898,-0.068062596,-0.055056088,0.012733472,0.033621635,0.08376164,0.01015927,0.023537153,-0.049772628,0.0106846895,-0.070516676,-0.07329628,0.003121212,0.009733179,-0.036358207,-0.037681732,0.045210116,-0.04836242,-0.12174037,-0.07870378,-0.09866882,-0.001785177,-0.05435624,0.03904108,0.013214076,0.12755948,-0.011857744,0.038928658,0.025046406,0.059563775,0.0041010026,-0.08218364,-0.09489697,-0.01912497,0.018170884,0.09265542,-0.0042180317,0.05268727,-0.026668232,-0.05046446,-0.026456043,0.0053505665,-0.035294782,-0.065288864,-0.11926522,0.039364558,-0.039522488,0.08660904,-0.06356905,0.011065195,0.04078652,-0.029676968,0.03055063,0.054763157,0.03901624,-0.063508265,-0.07271322,-0.04098418,-0.11386282,-0.07338218,-0.0143206185,0.00050868833,-0.085106805,0.032636587,0.026052538,0.050170355,0.06175331,-0.07596345,-0.059417266,-0.010870498,-0.0004590545,-0.09823076,-0.0632227,-0.07656404,0.01508773,-0.04885768,-0.024301248,-0.082526416,-0.06143781,-0.11329686,0.04180054,0.042825047,0.029315708,0.04444699,0.06244216,0.11641149,-0.036637664,-0.067627735,0.0014774963,0.07806297,0.005765504,-0.09913336,0.037249308,-0.035856,0.0027287826,0.028907903,-0.028406754,-0.07008131,0.01831379,-0.108699806,-2.6332518e-05,-0.034531724,-0.03879227,0.046263516,0.08608791,0.13239247,0.10697412,0.026973829,-0.04021658,0.039410654,0.014963096,-0.08589944,-0.07046175,0.017833827,0.04709205,-0.03325503,-0.032027047,0.07654944,0.08784404,0.01884108,-0.038709372,0.010872659,0.08223076,-0.05001337,0.01695826,-0.0025094459,0.006496116,0.05166232,0.004459007,0.036090568,-0.15249088,0.0065940893,0.0017761354,-0.07025299,-0.10841734,-0.037190802,0.06851985,0.080650575,-0.04022559,-0.017805085,0.13327818,0.029603658,-0.00475149,-0.0967692,-0.09544838,-0.08080951,0.0229502,0.0020709455,0.07465086,-0.000528129,-0.008692497,0.0133210905,0.041117724,0.019634312,-0.031443268,0.0018430332,-0.0021926244,-0.057328817,-0.01782154,0.008369935,-0.05478178,-0.033792593,-0.07815612,-0.031499162,0.038770717,0.0066556144,-0.013835746,-0.05028175,-0.022305612,-0.07496492,-0.07363292,-0.09338269,-0.05791203,-0.13543873,-0.05918084,-0.103778034,0.10432969,0.0808298,0.048375178,-0.06741171,-0.040979955,-0.072084926,-0.06264016,-0.002405181,-0.059504386,0.040290397,0.0040035695,-0.024833921,-0.09142673,0.0028079236,-0.032363113,-0.015019149,-0.038098264,0.12765923,0.061384585,0.036260564,0.024417493,-0.011223047,-0.063721284,0.04055435,-0.03327345,0.02368113,0.046865344,-0.04891462,-0.020367378,-0.019541632,0.098516084,0.028913362,0.012472202,-0.004252042,-0.031553145,0.046209022,0.04319222,-0.045720916,-0.040164765,0.03804894,0.0025044254,-0.022615653,-0.078446455,-0.06685563,0.025902426,-0.0011770538,-0.13548212,0.01639759,0.07305763,-0.00078385964,0.061539073,0.07913602,0.09265811,-0.026649375,0.022326505,0.028243925,0.03141119,-0.07232712,-0.05718376,-0.10318385,-0.04636061,-0.06428693,-0.02237061,0.06270048,-0.086299755,-0.09023276,-0.05414134,0.0809936,-0.054939218,-0.08792538,-0.037269734,0.1430429,0.06678967,-0.1155592,-0.16178139,0.068202734,0.020616101,-0.06928042,-0.001644272,0.0020609905,-0.037507724,-0.07581906,-0.002169634,-0.0026463103,0.062313583,-0.013996639,-0.05002162,-0.040097617,-0.054934155,-0.04916977,-0.06444979,0.009269881,-0.020099627,-0.011165526,-0.052942175,-0.046220046,-0.099349424,-0.047452796,0.047177266,-0.059262782,0.01485482,-0.058823533,0.040958084,-0.014327925,-0.014536023,-0.0024868667,0.12058452,-0.005381836,0.022125999,0.021137346,0.038354326,0.02933559,-0.053703588,-0.062075213,-0.05879919,-0.100634724,0.0057949456,0.11434504,0.09320404,-0.07880853,-0.07187917,0.0072177257,0.0841446,-0.055403292,-0.016163995,-0.059563532,-0.074585766,-0.0627979,0.016253075,-0.032828372,0.057387877,-0.029139109,-0.02041336,-0.07657787,-0.076969594,-0.055089112,0.031475678,0.0810462,-0.10119057,0.018786274,0.049566746,0.061466817,0.06617805,0.0009324438,-0.027573513,0.069585495,0.01477662,-0.023702187,0.057054393,0.035550404,0.028327832,-0.006002695,-0.027499715,-0.002010845,-0.08431801,-0.021393538,-0.032972343,0.024108836,0.037416916,-0.01851902,0.02319397,-0.007927815,0.015115357,-0.050741628,0.050251085,-0.04051101,-0.010606214,-0.029208612,0.09041581,0.04625587,-0.013622102,-0.012959391,-0.074321225,0.060783856,0.06778151,-0.08745246,-0.09749682,-0.058674928,0.009658197,-0.037980326,-0.0826245,0.050149508,0.13170269,0.10089587,-0.077683635,0.035317995,0.15319331,0.042640947,-0.06444245,0.07881201,0.0473467,0.02888036,-0.06704736,-0.02255236,-0.04374997,-0.04618876,0.042565204,0.08318788,0.16257033,-0.008963908,-0.06540081,0.08004773,0.13726029,-0.06660157,-0.041240137,-0.12984854,-0.091990314,0.051577717,0.026084738,-0.0135907205,-0.038737424,0.0132577075,0.008326041,0.007481589,0.097877875,-0.033807978,0.025850901,0.026556158,0.009839464,-0.13465859,-0.03550105,-0.0470844,-0.07003256,0.12978046,0.041050423,-0.029513871,-0.0075978003,0.032389153,0.049871843,0.009470051,-0.054031402,0.031444553,0.008428027,-0.04443945,0.03856374,-0.038711138,-0.03083387,-0.020169996,-0.09279357,0.056682765,-0.14087324,-0.07110193,-0.08473816,0.039933074,0.013159259,-0.0487599,0.11747705,0.04764553,0.059442844,-0.065366,0.018744,0.09292577,-0.11779263,-0.07466527,-0.073365174,-0.030962154,-0.08566474,0.004144315,-0.020720957,0.025765195,0.050876487,0.046788357,0.026352687,-0.033859454,0.018905506,0.03793951,-0.06593202,-0.028460313,-0.027610498,-0.0048117125,-0.045307398,-0.024842998,0.01646511,-0.0053117224,0.020349938,0.09888031,0.10575928,-0.024803903,-0.09946511,-0.041340005,-0.022575794,-0.025730224,-0.041224863,0.025270015,-0.05390775,-0.1712584,-0.03395526,-0.003025668,-0.09343977,-0.06570775,-0.045848083,0.10129029,-0.0061289216,0.031395666,-0.031264015,0.052142154,-0.03896755,-0.071946844,0.0076213176,0.022646196,-0.020935334,-0.0012623167,0.02913627,-0.046546932,-0.091025725,0.050245486,0.012930159,-0.07751242,-0.06074326,0.009891788,0.11226678,0.12557136,-0.060575508,-0.12637489,0.10723393,-0.06389006,-0.054262727,-0.011830715,-0.009798063,0.036105797,0.096207984,-0.046544462,-0.035815176,-0.116743214,0.021800283,0.09143125,0.012052422,-0.0040197526,0.039344996,0.041823387,-0.03408365,0.028169414,-0.05198795,-0.0066270037,0.009166022,-0.11159244,-0.03459973,0.050573487,-0.038755957,-0.027280623,0.01378366,0.014109961,-0.01827277,-0.015207629,-0.03916029,-0.06995936,-0.07122678,-0.046830483,-0.062040444,-0.052212093,0.0520491,-0.027256234,-0.04562836,0.024275437,0.021525735,-0.024199914,-0.062706746,-0.13431434,-0.1497222,-0.014300239,-0.05105898,0.053763006,0.15380765,-0.022814078,0.06274545,0.053159233,-0.034460753,-0.0030031316,-0.019048717,-0.001961219,0.00469987,-0.018528135,-0.0177598,-0.11206886,0.028344551,0.051478703,0.0394396,-0.11387113,0.0068590334,-0.0467494,-0.041653033,-0.025245061,-0.07664337,0.09149768,-0.015852643,-0.016294451,0.0481243,-0.09503072,-0.09072204,0.010114382,0.042379335,0.019771598,0.070080325,0.0071767326,-0.0069403886,0.06762585,0.023537531,0.012483874,-0.010751418,-0.011868158,-0.05098919,-0.010514583,-0.005859954,-0.036471207,-0.09904204,-0.08797068,-0.0545219,-0.108365424,-0.0022929404,0.031691946,0.0053218664,0.013938249,0.0023592387,-0.07823007,-0.06951467,0.0037107456,0.040728927,0.03321514,-0.014479124,-0.08660193,0.0722688,0.05095562,0.0050563216,0.003920446,0.009016914,-0.03191199,0.008409458,0.049592223,0.07366485,0.038990807,0.02140079,-0.060802765,0.020494912,-0.009172816,0.043522164,-0.012912953,-0.00029939314,-0.056446087,-0.020781586,-0.0456499,-0.067840956,-0.06553686,0.12273701,-0.003908995,-0.040942445,-0.045838945,0.05933216,0.03325817,0.058449395,-0.03987573,0.00022928715,0.037658732,0.04151725,-0.0059395037,0.0963902,0.009808948,0.007978266,0.02946919,-0.092380606,0.10736988,0.026197718,-0.04252572,-0.051726006,-0.078790724,-0.0798837,0.07990584,0.051609118,0.011845835,-0.07300631,-0.088769585,-0.11398612,-0.019830884,-0.10018576,-0.0179686,0.041174427,-0.07714747,-0.10022956,0.028936528,0.07729142,0.023946514,0.0025359823,-0.013984155,1.0799465e-05,-0.011368744,-0.032653905,-0.03817714,0.14783187,0.051999934,0.02122979,0.024759393,-0.030447364,0.021190291,0.028812716,0.012081949,0.09761945,-0.07025445,-0.057155576,-0.044957,0.0040691504,-0.042032268,0.038886555,0.045730572,-0.007379358,-0.052357513,-0.015571064,-0.005452112,-0.015428172,0.0067292773,-0.045669343,-0.028234914,0.07219804,0.019010562,0.04844633,-0.013374516,0.042257987,0.08505941,0.05129226,0.010150256,-0.07337802,0.023469802,0.004366618,0.0055515533,0.023798019,-0.061090734,-0.026751887,0.08322819,0.08164805,-0.010126355,0.011486328,-0.085357234,-0.033637613,-0.022708505,-0.053082924,-0.038263258,0.011562627,0.08742157,-0.016556343,-0.0019517742,-0.015027064,-0.036840875,0.09245846,0.06513501,-0.044134304,0.0834775,-0.07488807,-0.0711664,-0.010990379,0.11969611,0.03960198,-0.009121395,-0.07230608,0.046714135,-0.017309347,-0.0077854367,-0.04561917,-0.057997152,0.029571325,-0.03785923,0.032432657,0.16433,-0.046166267,-0.053696796,-0.023395788,0.09605084,-0.0036064093,-0.13195762,-0.07984502,-0.048347745,0.0027121538,-0.011449662,-0.01209707,0.07100977,-0.073537804,0.010223343,-0.024408618,0.054324426,-0.02562327,-0.0390091,-0.025654156,-0.051227104,-0.047669467,-0.057781912,-0.059930023,-0.012217044,-0.05155288,-0.042286064,-0.008850397,0.043738835,-0.020929288,-0.030106125,0.15524356,-0.0014565925,-0.06578453,-0.08624275,-0.027972616,0.04566385,0.049905438,-0.13618045,-0.1373913,0.008624782,-0.07579809,-0.04720294,-0.022694586,0.01742579,-0.008220919,-0.049479872,-0.063297786,0.14059864,0.004616565,-0.043428928,0.00080686255,0.034461174,-0.06233161,-0.07991335,0.0039010828,0.00017788734,-0.109157644,-0.041664403,-0.037182752,-0.07316219,-0.07350165,-0.05321124,0.119371615,0.021787925,0.008906903,0.019536112,0.06083596,-0.05318415,-0.0058987886,0.10999913,-0.0028211703,0.06065992,-0.066976056,-0.06842845,-0.00226227,-0.0049151345,-0.04758504,0.043499712,0.004690187,0.04183665,0.052756026,-0.0017044543,0.018340208,-0.021270992,0.0044797314,0.040781397,0.08380786,-0.050409604,0.12469183,0.05475444,-0.058373716,0.09536031,0.0036510322,-0.07222441,-0.043546867,0.03229104,-0.005439771,-0.015192256,0.06978331,-0.037288003,0.046946682,-0.012518262,0.0053120693,-0.0038503318,-0.020917831,-0.075209,-0.024045607,0.0317835,0.039301265,0.037562262,-0.029372456,0.015735557,0.036119465,-0.021767395,0.022905717,0.027525151,0.16202362,0.028051767,0.116530806,0.0058771074,0.062608406,0.010118015,-0.0069330274,-0.018074326,-0.106230125,-0.048491344,-0.018160848,-0.06028888,0.022781113,-0.03243737,-0.11185309,-0.035394147,-0.047586013,0.02547106,0.028643174,-0.032140743,-0.025338335,-0.037535973,-0.014028761,0.015652187,0.0135833835,0.047666688,-0.0029822139,0.008641426,0.08826429,0.06413009,0.024160258,0.009200703,-0.071595095,-0.06308157,-0.034160484,-0.040821698,-0.15142177,0.017146591,-0.00068120094,-0.02367533,-0.09347734,0.0056012245,-0.10170865,0.0040360424,0.081180274,0.09712216,0.01687226,0.04882938,0.044802528,-0.026037067,-0.003935889,0.07184358,-0.05494256,0.003642519,-0.059455592,0.044142433,-0.06690438,0.022855539,-0.00030982477,-0.052159853,0.048359245,0.05107905,-0.049855962,0.047816988,-0.079355694,0.05696882,0.038216263,0.053222883,0.02204303,0.025202587,0.04313405,-0.033809386,-0.01237941,0.034077335,0.008671687,-0.10438458,-0.107646905,-0.027732693,-0.04227742,-0.00222923,0.023456313,-0.012485922,0.10264773,-0.007840001,0.031874426,-0.1007685,-0.12728344,0.009807017,-0.038554743,-0.0019766376,0.13123663,0.063170336,-0.048864987,0.0125765735,-0.0001665491,0.011291204,-0.02507338,-0.08475666,0.050331756,0.018232448,-0.011226217,0.115736336,0.110338494,-0.14447054,-0.044743538,-0.034067437,-0.10703475,-0.05748303,-0.0061935503,-0.19695063,-0.10152942,0.055439852,0.060749684,0.036429487,0.038864885,0.05102577,0.11258536,-0.04689172,0.026939636,0.02875602,0.05214433,-0.08822383,-0.016875401,0.024591897,-0.066310614,-0.021099472,0.030308975,0.058059387,0.089410685,-0.038374547,0.046899367,-0.054679178,-0.029633684,0.04418886,0.14297187,-0.11111864,0.030982755,-0.04897397,-0.07652836,-0.1260819,-0.02545457,-0.06345452,-0.023051975,-0.07234995,-0.10004575,-0.06892498,-0.055352926,-0.03306602,0.051134136,0.023854703,-0.101514444,-0.01611306,0.019517364,0.06892869,-0.0011353476,0.08411139,-0.061273247,-0.02552153,0.027035406,0.0251,-0.096948944,0.044455778,-0.028346254,0.009584991,0.009947727,-0.050792724,-0.011983019,0.028001036,-0.058160037,-0.010158582,-0.0063639046,0.029002482,-0.059255105,-0.009069535,0.016827831,-0.014256309,0.03741759,-0.025584852,-0.03355594,-0.01920521,0.03759266,0.0058992244,-0.05456041,0.1223937,0.0199932,-0.04630341,0.038392432,-0.07895457,-0.045195874,0.06406876,-0.014636347,-0.037156977,0.021474501,0.022089701,0.06910371,0.033202216,-0.05924237,-0.041275617,0.049343914,-0.06375557,-0.06945038,0.013126465,-0.0013772324,0.015134453,-0.037988935,-0.040467095,-0.022645513,-0.0006295552,0.029731048,0.12375641,0.036245085,0.034418434,-0.09326305,0.0023149995,-0.03282505,-0.069872975,-0.031820666,0.03486654,-0.071221866,-0.07734994,0.019025741,-0.10096484,-0.016261818,-0.018886497,0.0823321,0.08625832,0.025630414,0.020521447,-0.00837204,0.06341518,-0.01120053,0.0012126941,0.04009754,-0.05252929,-0.08508759,-0.02116388,0.0008287593,-0.02590695,0.052135568,0.027185403,0.05037072,0.017727995,-0.0059271706,0.06655817,0.013329696,-0.03518457,0.0086117145,-0.014267336,-0.051102057,0.08796549,0.07894209,-0.059745755,0.042172603,-0.05505593,-0.05608708,-0.0075158896,0.003246458,-0.010000701,0.0580921,-0.049228303,0.060560655,0.015805025,-0.0305833,-0.065313086,0.084302485,-0.012988239,0.009779502,0.052110087,0.06383185,-0.07469983,0.05789581,7.9637466e-05,-0.022989409,0.0025511545,-0.09901183,0.038241263,-0.020765496,-0.0119186,-0.056228135,0.06613623,-0.07482269,-0.039008975,0.016390238,-0.0025609843,-0.013670435,0.02082809,-0.031474214,0.019695245,0.008746397,-0.08413367,-0.053950917,0.043505885,0.01818343,0.04533948,0.10598978,-0.031651855,0.016116785,0.04320874,0.039990287,-0.16944285,-0.033329893,0.032979205,0.004497482,0.042262383,-0.010491463,0.0024143516,0.041394472,0.031158471,-0.022089485,-0.0056610336,-0.039348032,0.04951922,-0.073576055,0.010990188,-0.03633711,-0.02200778,-0.00783939,-0.08630454,0.010286879,0.059627015,0.10512426,0.07108045,0.17337146,-0.0036881424,-0.0209374,-0.01171689,0.08802192,-0.095002264,-0.020427786,-0.076525085,-0.07568273,0.048365436,-0.035194553,-0.018851776,-0.06447639,0.052724604,0.04384349,0.066455916,-0.026962455,0.025293298,-0.025426991,-0.02315333,-0.009064651,-0.050291765,-0.051276945,-0.016722066,-0.062018402,0.18712446,0.06452822,-0.03422251,0.012618938,0.05867523,-0.11809736,0.033779312,-0.012923429,0.09887681,0.036286756,-0.082416825,0.014724869,-0.0016223413,0.08317083,-0.05866061,-0.07601229,0.09683353,-0.0019389755,0.03212478,-0.029160496,0.108727925,0.051257655,-0.0040621236,0.0013514562,-0.062278524,-0.034848046,0.04071952,-0.013662999,-0.06570186,-0.028111456,-0.009379288,-0.03846808,0.008589659,0.011092335,-0.006358465,-0.026144221,0.03400349,-0.0949397,0.0027681866,-0.035956983,-0.0043818164,-0.018999781,0.00383898,0.022586463,0.05760716,0.07169514,-0.012110174,0.06431695,0.007441261,-0.10505605,-0.035119966,0.002480817,0.0021354402,0.07048893,-0.03054602,0.02795836,-0.05485446,-0.049957823,-0.06284483,0.043785,0.04995773,-0.07162545,-0.08277433,0.041413195,0.020585414,-0.029483914,-0.020424314,0.06572712,0.020901194,0.0012999432,-0.118594594,-0.0024798156,0.06459224,0.07010592,0.05991636,-0.011234262,0.035129525,0.04230146,-0.021092081,0.008129683,-0.055155024,-0.073420145,0.07247449,0.08118326,0.0773342,0.16350457,0.08015781,0.07145058,-0.025098663,0.0032881368,-0.031892784,0.11674004,-0.02638116,-0.06389254,-0.07318046,0.053661034,0.029160121,-0.14179027,-0.015706018,-0.062306613,-0.02933936,0.01844641,-0.07996308,-0.012077542,0.011870083,0.15268403,0.09415759,0.054681346,0.0021238965,0.03444717,0.011042756,0.07612995,-0.07310445,-0.07863982,-0.011714314,0.072158374,-0.042089548,0.010435021,-0.010655488,-0.015798716,-0.035217863,-0.1332129,-0.03776728,0.05455875,0.050697725,-0.07084108,-0.07807246,-0.002216506,0.0388077,0.065799505,0.060563836,0.112006485,0.015121657,0.014326139,0.047592215,-0.02735998,-0.044597033,-0.042760327,-0.01599847,0.03299928,-0.0027334662,-0.11651927,0.029399712,0.020244125,0.09378822,-0.026988322,0.00016445138,-0.0040154937,0.02465329,0.05844273,-0.040599134,0.017020056,0.063552335,-0.074524105,-0.033972222,0.017249368,-0.013689986,0.08660155,0.016173812,0.03502614,0.08316249,-0.020626502,0.01640522,0.04319465,0.050679676,0.06769204,0.05518317,0.066834964,0.0153040495,-0.041205022,-0.03526447,0.06276623,-0.04516739,0.0036487645,-0.008189279,-0.011798856,0.053760927,-0.04123715,-0.06166865,0.0065607214,0.0075189755,-0.024104487,-0.03156461,0.011330046,0.0047562374,0.021053767,0.07230998,-0.009676996,0.08130382,-0.025406929,-0.087867744,-0.03272035,-0.05023547,-0.060829397,-0.013082895,-0.049485233,0.028656123,-0.022744229,0.062515944,0.011725093,0.04888232,-0.020438729,0.022871226,-0.053801768,0.033737533,-0.008285639,-0.0035181514,0.044355694,0.014681597,-0.028537363,-0.081789784,-0.046842165,0.0058974638,0.07335232,0.012273899,0.067470916,0.020538734,-0.0740535,0.09039134,-0.011869213,0.06622068,-0.0072532985,-0.05923988,-0.10507161,0.07003514,-0.07841578,-0.06649674,-0.025431734,0.019094944,0.07232825,0.09718436,0.07590725,0.06304045,-0.00762892,-0.06105737,-0.052017283,0.04446336,0.0015285613,-0.078141704,-0.04496263,0.054652523,-0.060887508,-0.078320526,-0.0073044715,-0.0073639853,-0.028197745,-0.03690438,-0.04767889,0.15715246,-0.0374528,-0.11826104,-0.05851841,0.038903937,-0.011929358,-0.016109603,0.0676949,0.065159656,0.046906814,0.011018844,0.04529892,-0.11797844,-0.12219066,-0.1022246,-0.048092816,0.0073519116,0.0073909597,0.06289911,-0.09095219,-0.0031649983,0.091188036,0.028750528,0.03753429,-0.07260002,0.039499603,-0.038985975,0.039804544,0.030615281,0.012273591,0.03338007,0.04522825,-0.060119495,0.059557196,0.004969163,0.034259386,0.05745219,0.021083338,0.020007143,-0.013187892,0.033301134,-0.015598215,0.023410054,0.038746312,-0.025393363,-0.04459954,-0.028235525,0.005006939,-0.09117446,-0.042376347,0.05976868,0.042828303,0.05338906,0.039724812,-0.008519147,0.016271383,0.033837464,-0.05981998,-0.0066927224,-0.03506055,0.046156954,-0.011044547,-0.03594015,0.04643396,-0.09423627,-0.07992885,-0.0034053228,-0.0049493546,0.039562836,-0.018230379,0.023322396,0.008115871,0.041383322,0.019643627,0.05854287,0.06069225,0.07810133,-0.031635374,0.067086525,-0.005746025,-0.0934046,-0.10459412,0.10036018,0.1547049,-0.124164835,-0.019806108,-0.059685692,0.040051736,-0.008817821,0.02903889,-0.010833432,-0.063178346,-0.012427448,0.012581851,-0.08887505,-0.017211935,-0.012553731,0.03145062,0.011141784,0.072113894,0.036668733,-0.0012743574,0.072942875,0.020421073,-0.012015253,-0.058988675,-0.013260665,-0.008356909,0.022576092,0.04267204,0.01844965,-0.008418511,0.09437599,0.079810426,-0.028407332,-0.031799052,0.048886687,0.020739164,-0.058880184,-0.027196964,-0.14623563,-0.019103583,-0.03576987,0.05820217,0.07314857,-0.045941833,-0.06344956,-0.07560309,0.06921762,0.05196807,-2.241849e-05,-0.058508586,-0.031688027,-0.020268738,-0.02405877,0.06048237,-0.056035135,-0.029764816,0.050666656,0.053512987,-0.03356638,-0.03291534,0.006115128,0.021811524,0.06517073,-0.041532494,-0.06464259,0.022549395,0.09729009,0.03140694,-0.043374605,0.0041356185,0.014780643,0.03211138,0.027839316,-0.03783191,-0.012325008,-0.020177417,-0.05648948,-0.013583579,-0.010833085,-0.06852629,0.015142759,0.09218299,0.0145426765,0.034316953,-0.072110265,-0.041049026,0.003245549,-0.030649474,0.048488006,0.032087628,0.03353932,0.03753888,0.01540782,0.06582526,0.030510131,-0.0006974654,-0.03594852,-0.066798754,-0.047068574,-0.03502509,0.0024511963,-0.027078876,-0.025491446,0.027909623,0.012034345,0.055541493,0.05159628,0.051274735,0.023138694,-0.09858631,0.036562562,0.03653153,0.07711508,-0.045995206,-0.095887534,-0.016881311,-0.05213133,-0.0073938104,-0.09219522,-0.015453393,0.021006446,0.08576699,0.062125508,-0.03476797,-0.103504784,-0.089594156,0.020859703,0.031856034,-0.031419985,-0.045090176,0.03016336,0.05982956,-0.10858415,0.033479046,0.015741803,0.03715121,-0.0053219213,-0.0032219177,0.08220076,0.033134993,0.05843258,-0.057953913,-0.046906702,-0.024018142,-0.04290381,-0.03223795,-0.033314817,-0.022616759,-0.009623076,0.035832368,-0.06258204,-0.05037463,0.0069544665,0.04478477,-0.065985985,-0.049307104,-0.050851047,0.025920954,-0.035302807,-0.04466101,-0.08895113,-0.0026071942,-0.014819211,0.07041677,0.031724006,0.02115909,0.055518813,-0.005419588,0.066155225,0.069120385,-0.052788757,-0.03298971,0.06591417,-0.017385263,0.060352754,-0.031532325,-0.019313408,0.06837946,-0.0023179979,-0.001966093,0.080805875,-0.00047351906,-0.0039865747,0.033090096,0.031145984,-0.027166357,-0.031892948,0.002991993,-0.05130939,0.0010766635,-0.0073873466,-0.015714787,0.019613013,0.037263304,0.00067112455,0.06478162,0.051167514,-0.036046583,0.048367746,0.053839143,-0.05436513,0.00050516654,-0.08172208,-0.06911403,-0.09233963,-0.039462835,0.014346195,0.02289376,-0.026847782,0.079510674,-0.00059260835,0.05339577,0.14864004,0.015747419,0.028998602,0.003929852,0.061085988,0.070502914,-0.016408421,-0.085184336,-0.05945879,-0.0360943,0.0017027406,-0.036612906,0.015432423,0.02832153,-0.022274371,0.026387015,0.03086029,0.020436887,0.040210534,0.073924586,-0.04049545,-0.03138118,0.09164459,0.12633277,0.08835318,-0.08510432,-0.027002739,-0.0501672,0.046744216,0.05016378,-0.08283459,-0.030528238,-0.108534224,0.04555888,0.026669677,-0.08522461,-0.019384054,0.11337545,0.041717958,0.13008744,-0.043042406,0.032472815,0.046091117,-0.0847975,-0.13942409,-0.055227574,-0.039842557,-0.114622,-0.019117672,0.0683403,0.008403752,-0.034749802,-0.044546057,-0.042182114,-0.012273831,-0.006972703,0.022908714,0.024104472,-0.011065922,-0.025529465,0.032863792,0.05623742,-0.032195915,-0.041046944,0.05795724,0.020889964,0.031255946,0.033998422,-0.008935431,-0.005386844,-0.08919344,-0.12829548,0.09620761,0.010003699,-0.0753857,-0.019670527,0.0347954,-0.07709796,0.055780265,-0.11523957,0.014432856,-0.02297867,-0.05298659,-0.08581484,0.13539876,0.109213755,-0.076029554,0.017870214,-0.04174485,-0.045216076,-0.032276426,0.105903745,-0.027844064,-0.061550852,0.047787488,0.058189455,-0.00580827,0.045942582,-0.086646944,0.013050184,-0.003093146,0.026935242,0.0061968067,0.045794748,0.06337917,0.012462867,-0.06578685,0.042106137,0.03635281,-0.05552256,-0.03270053,-0.012770855,0.00021647241,0.12563965,-0.063371114,-0.05215702,0.006552072,0.014423035,-0.04682174,0.031065248,-0.02042152,0.032924104,-0.021883707,-0.022249157,-0.022869537,-3.0432462e-05,-0.060868956,0.002376214,-0.015930045,0.048886057,-0.0764039,0.051097736,-0.0019165616,0.07624144,0.007021115,0.012383455,-0.05933927,-0.061739367,0.048701227,0.08874595,0.065544784,0.07010952,0.03752946,0.03763102,0.06518916,0.024543505,0.066745974,0.06869519,-0.00853927,-0.050366018,0.019379623,-0.045521144,0.0451096,0.03890202,-0.019508269,-0.046615053,0.099773854,-0.015663754,0.030780861,-0.049732354,0.036611825,-0.086991295,-0.04313349,-0.094800256,0.061928235,-0.005385613,-0.11228289,-0.023383943,0.0037931744,-0.040292576,-0.08114486,0.015312093,-0.0919846,0.016804736,-0.104686506,-0.0189626,0.09594144,0.10657118,-0.034712546,0.039282557,0.07940285,-0.07412932,0.032001704,-0.056070313,0.044051997,-0.046022963,-0.0060337116,0.018089008,-0.013082989,-0.05047207,-0.017998734,-0.0076090447,-0.057624042,0.02825994,0.010052164,-0.031413324,0.021543955,0.033789475,-0.001840147,0.03702292,0.11355657,-0.047100417,-0.028525643,-0.113399036,-0.0374031,0.07641077,0.04723526,-0.09657279,0.050809786,0.081055224,0.09358191,0.010197596,0.0454773,-0.007856629,0.04151116,0.03784006,-0.032173395,0.039414898,-0.04121903,0.07338701,0.037330363,0.03647015,0.01772126,0.11716032,0.0041572386,-0.022700757,0.040312283,-0.011803783,-0.1046703,-0.008104745,-0.00071908464,-0.0059882984,-0.047570262,0.04474467,0.05195106,0.028534519,0.04596587,0.082737066,0.022138873,