-0.051342282,-0.045523282,-0.043880645,-0.08785237,-0.059500165,-0.03721328,0.015524052,-0.011655585,0.08758206,0.13626985,-0.06435947,0.016484132,0.12740465,0.07204741,0.014697231,-0.01015137,-0.0278577,-0.053018935,-0.10817055,-0.074671306,0.06275261,0.043991305,-0.0691104,-0.005421934,0.100337744,-0.042028688,-0.022252524,0.0029467277,-0.077026024,-0.04418483,0.006978043,-0.06786231,0.042358976,-0.017309552,0.101201,-0.05303007,0.10187427,0.023848148,0.07899098,0.034353714,-0.045308203,-0.056217022,-0.04840955,-0.017103912,0.0053058057,-0.03979966,-0.07566468,-0.12464157,-0.08970718,0.031171398,0.029462392,-0.0068877577,0.036687046,-0.06862796,0.007783793,0.01583679,0.03376966,-0.018265389,0.0046982793,0.057054717,-0.06231002,-0.04214207,-0.055778675,0.024779046,-0.0018045153,-0.113572955,-0.026673846,-0.026788538,-0.14391941,-0.091957085,-0.11553996,-0.10150024,-0.055895876,-0.021728545,0.015432517,-0.053751383,0.0012746396,-0.04084837,-0.10205882,-0.031243997,0.016182257,-0.018325193,0.07693513,0.07365993,0.08603081,-0.051379774,0.085653886,0.12850341,-0.050492376,-0.012401681,-0.09165564,-0.036454104,0.036221307,-0.07001391,-0.087179765,0.053417668,-0.08024091,-0.13809653,-0.08974598,0.015976653,-0.060534786,-0.12231516,-0.044692524,-0.10118933,-0.06259332,0.0686889,0.04201407,0.014908071,-0.023963999,0.028578581,0.11190021,0.08748198,0.059317864,-0.018303897,-0.0020620727,0.07340023,0.074232645,0.05332205,0.0637251,-0.06373864,-0.022174258,-0.01691556,0.03051401,-0.05792407,-0.072819114,-0.06560154,-0.056895826,-0.052301116,-0.082390465,-0.04942121,0.08902886,0.018260831,0.061097365,0.0037610023,-0.027114715,0.035942253,0.026838733,-0.05187513,-0.12853904,-0.08031004,-0.052575078,-0.040757734,-0.06556615,-0.004676604,-0.10816126,-0.025860287,-0.0033411828,-0.08155848,-0.008202204,0.041344278,-0.044863496,0.025325721,-0.05826934,0.06204951,0.037330303,-0.0073671467,-0.02270818,0.053674616,0.091962,-0.00023276525,-0.014566743,0.035489056,-0.0159833,0.0013362968,0.009789522,0.06315213,-0.0017131933,-0.0713087,-0.090654545,0.024936551,-0.024467487,0.06905518,0.060580254,-0.033802517,0.02812192,-0.015382672,-0.017572885,-0.0339292,-0.026016487,-0.043220624,-0.055692352,-0.035536654,-0.020415977,-0.073552094,-0.04730108,-0.019974988,-0.002041518,-0.046565108,0.06627587,-0.0060027926,-0.010319607,0.085041195,0.025411624,-0.038066242,-0.03358295,0.035270557,0.00077930297,-0.017668305,-0.03519586,0.050419956,0.066438474,-0.06602671,0.035955273,0.015310785,-0.061958905,-0.010036677,-0.052770972,-0.01208248,-0.033359855,-0.009039224,0.033152718,0.026383786,-0.023220738,-0.028874408,-0.05953023,5.848124e-06,0.060103636,0.065436475,-0.029428378,-0.013042445,0.037700716,0.010752345,0.020824507,-0.055642866,-0.053493034,-0.028850373,0.0059805177,-0.08045962,-0.0052407873,-0.04390167,0.04912848,-0.02533302,-0.08093909,-0.03878823,0.10388123,0.087046064,0.124876454,0.12535387,0.17109708,0.041931022,-0.035109475,0.016426621,0.00011339242,0.03230932,-0.012658047,-0.04701793,-0.1344065,-0.09445648,-0.104016006,-0.11973515,-0.042209484,-0.0014341677,-0.103397995,-0.079642855,0.007922766,0.028493479,0.0070328973,0.1504105,-0.013517572,-0.020852478,0.01109787,0.07595214,-0.0007007234,-0.13713148,-0.055732436,0.028121157,-0.11164425,-0.14539124,-0.14751887,-0.112774625,-0.08835016,-0.09624688,0.013878246,-0.0059062853,-0.0015789679,0.04747945,0.041592672,-0.035424594,0.009680253,0.006551269,-0.056708112,0.017081441,0.04922594,-0.010954478,-0.011246265,0.005633748,0.0261388,0.0026361076,-0.03837738,-0.049465206,0.017153254,0.005769837,0.0031832147,-0.0659676,-0.023712194,-0.083499186,-0.0440736,-0.0009931055,0.05820122,-0.013612819,0.008347103,0.03887511,0.032099623,0.02476544,-0.042956613,-0.07911545,-0.025658118,0.09580539,0.097326435,-0.07823018,0.03194374,0.08014743,0.022582911,0.037789736,-0.111538,0.14846186,0.06444508,0.053105257,0.04075016,-0.06868308,0.08507218,-0.04115851,-0.039886534,-0.011047218,-0.04435372,-0.14276478,-0.044445455,-0.034224026,0.0793014,0.0015654288,-0.060087483,-0.055207208,0.03572201,-0.030204477,-0.035955347,0.021046236,-0.025970057,-0.09818396,-0.06681446,-0.14067927,-0.15329681,-0.1271584,-0.01828583,0.13694306,0.053143915,-0.15682305,0.0022086154,0.09984139,0.17390117,0.1598332,0.048869558,-0.056898292,-0.050552126,-0.09003437,-0.14479794,0.01255905,-0.031944323,-0.14603548,-0.089322515,-0.028470423,-0.09071433,-0.08626844,-0.05041773,-0.0871962,-0.021778455,-0.14248165,-0.03141947,0.011040923,-0.082831204,-0.024278088,-0.007776322,-0.040759806,0.028476808,-0.00063450995,0.07278606,0.0019915788,-0.021666382,0.07648662,-0.01822801,-0.06067477,-0.034213133,-0.0348412,-0.01435732,-0.045610942,-0.027441902,-0.057794165,0.013287709,-0.017860021,0.0398891,-0.05852363,-0.005407967,-0.010177678,0.02581827,0.08377973,-0.062411185,0.013054872,0.093442075,0.09034929,0.14902933,0.03557428,-0.009002773,-0.04567922,0.035815973,0.032430816,0.04332124,0.054021914,0.087680355,0.03577388,0.06093062,0.020542402,-0.029052423,-0.07744042,0.04460993,-0.0058397586,-0.0889731,-0.031427715,-0.0631106,0.023060186,-0.07269095,-0.06263048,-0.028654683,-0.03443213,0.029070426,-0.06861874,-0.018814076,0.04637889,0.023286076,-0.05886182,-0.013438842,-0.035479568,-0.030611424,-0.0703812,-0.051799282,0.028220765,0.019747756,-0.039894585,0.0046555577,-0.058809325,-0.074713394,-0.058557082,-0.0643624,-0.07843264,0.030619765,0.030779388,-0.0012733783,0.03138253,0.027456108,-0.032260627,0.109777786,0.011858078,0.0023104188,-0.06878802,-0.062944,-0.053112723,-0.04704259,-0.061026797,-0.03324389,0.040628318,0.04450533,0.06843356,-0.0057506445,-0.022314977,0.05501547,0.057654683,-0.03096461,-0.0058154687,0.014735608,-0.016516529,-0.07501846,-0.034136962,0.030376894,0.03509303,-0.033255987,0.04461463,0.08653895,0.031714305,-0.08921211,-0.05292544,-0.02440958,-0.09047319,-0.086887725,-0.11000491,-0.059047617,0.013266471,0.08478348,0.025496565,0.063336484,0.096431956,0.08837191,-0.046371225,-0.036669526,-0.08949312,0.0095565785,-0.07289245,-0.043221693,-0.06655804,-0.0013316544,-0.0045840386,0.17179678,0.13258263,-0.019732779,-0.0280083,0.09685992,0.041222297,-0.09445444,-0.054671206,0.013613285,0.010518363,0.0021382724,0.0070594815,-0.049238168,0.1209415,0.025440773,-0.05744589,-0.052349303,0.012716579,0.043578897,-0.019049037,-0.1256006,-0.10732763,0.040992226,-5.6818677e-05,-0.02858563,-0.092260145,-0.0040742885,-0.06506848,0.00058190996,0.052871577,0.05311853,-0.008946447,-0.055014975,0.013482856,0.09603769,-0.007974731,-0.040466156,0.030614333,0.07359952,0.03442579,-0.03401684,-0.0975712,0.016939797,0.1306815,-0.019897522,-0.09084736,-0.049075283,-0.017004974,0.03150259,-0.088425525,-0.051506165,-0.08553755,-0.0007658484,0.053135004,0.1024914,0.08990557,0.043223243,-0.0026363328,-0.051340647,0.09440353,0.085117735,-0.05082217,-0.06799479,0.078402035,0.07231571,0.024102634,-0.12083257,0.017324397,0.09466409,0.10022853,-0.096800305,-0.15409327,0.03815552,0.009235617,0.09816467,-0.0003907408,-0.11574131,-0.036497913,-0.01303624,0.033403378,0.049003556,-0.02982372,0.042290293,-0.1099894,0.04167238,-0.05939186,-0.05900571,0.117819786,0.0041039204,0.036990877,-0.075345635,-0.14430617,0.11792318,-0.09569744,-0.100055546,-0.12422149,-0.12201328,-0.015767995,-0.015631538,0.053286456,0.030913936,-0.06500657,-0.0245643,0.015678445,-0.06446693,-0.062980436,-0.06412581,0.00043494185,-0.09452336,-0.035250727,-0.044668987,-0.07043598,-0.0023046115,-0.109992124,-0.074132964,-0.024911257,0.017839165,-0.06903919,-0.115451075,-0.02725182,-0.044598214,0.0021535743,-0.083356775,-0.05751277,-0.06768745,-0.06354012,-0.026093375,0.018304331,-0.06933618,0.0897806,0.08094551,-0.0045303362,-0.045268588,-0.017907288,0.09213476,0.011080842,-0.061182037,-0.02256585,0.051581822,-0.00987649,-0.07695399,-0.034641538,-0.019575868,-0.06248321,0.016807785,0.012545153,-0.08875599,0.015636818,-0.037393663,0.056472473,-0.051409148,0.03210971,0.019461224,0.044300023,0.080437616,0.0066997614,0.009274522,0.009998417,0.08284389,0.009650991,-0.043417823,0.047453027,0.017635033,0.005006206,0.062237177,0.020818565,-0.0148433205,0.0021181547,-0.020726424,0.079182394,-0.021887382,-0.013388292,0.036502693,-0.0047329785,0.097545296,-0.050210275,-0.056672435,0.0018055062,0.07671999,0.06411531,-0.004373602,0.037399214,0.07634101,0.032376986,-0.08823158,-0.039928082,-0.06396942,0.021069665,0.002052019,-0.061827697,0.019440025,-0.033973344,-0.061771885,-0.015233748,-0.0026801864,0.045431487,-0.018491598,-0.018088963,-0.02882003,0.04112843,-0.04505823,0.0005403236,-0.041843783,0.042347047,0.03041475,-0.036869757,-0.019417569,0.065233916,-0.064407066,0.011333129,0.06426253,0.03357836,-0.010930966,0.019023573,0.06700124,0.06820905,0.02800699,-0.04571174,0.03121435,-0.05451554,-0.041914165,-0.0068332544,-0.025777651,0.015890287,-0.030198332,0.032806445,0.017734163,-0.111915246,-0.02007666,-0.05432386,0.009210089,0.008611211,-0.035338365,-0.09360574,-0.024512162,-0.019446021,-0.032358438,-0.023600752,-0.036986787,-0.024540782,0.019842098,0.034227706,0.017012576,0.011486033,-0.064836904,-0.0846242,-0.03867156,-0.067101985,-0.116239816,-0.090442255,-0.047316555,-0.14026876,0.07073766,-0.04619642,0.016323844,-0.036141045,-0.09875998,-0.022503681,-0.028361924,-0.042444922,0.030829974,0.075979635,-0.103536904,-0.01539401,-0.037656695,0.09919751,0.050448403,-0.034662437,0.009932349,-0.08306627,-0.049701642,0.0064076907,-0.091078624,-0.022622382,0.023580462,0.04556512,-0.029904254,-0.02014627,0.019398393,0.00862788,-0.003578323,-0.0010820974,-0.041100163,0.010263877,-0.025972899,0.031075308,-0.06158024,-0.07697837,0.019312674,0.061310608,0.0016230884,0.09779459,-0.026561903,0.036016587,-0.016585007,0.03919727,0.01841828,0.03923563,0.06483175,-0.005630766,-0.059116635,-0.07004819,-0.024982294,-0.035423897,-0.07118633,0.016615823,-0.10323978,-0.011898386,0.020987347,-0.0034817276,-0.00458851,-0.05302637,-0.08085192,0.011035859,-0.05852535,-0.10476241,-0.058310155,-0.154927,0.016300641,-0.082546294,-0.14682575,-0.031173222,-0.16384728,-0.15373062,-0.193148,-0.17231585,-0.051069148,-0.00896859,0.006491472,0.048094872,-0.1006558,-0.055342056,0.023789106,0.050925873,0.0068920082,0.030165156,0.06536894,0.015802395,0.10250379,0.08989982,0.09054568,0.16313593,0.108624645,0.04086901,0.027484337,0.022054495,-0.024512183,0.25918162,0.00074478606,-0.055629414,-0.07921825,-0.04972939,-0.10831449,-0.08432836,-0.026328217,-0.056118496,-0.019447375,-0.056553353,-0.004326346,-0.05916592,-0.027260955,0.017492402,0.005433622,0.066752374,0.042935397,0.13898659,0.03224665,-0.038743265,0.020457998,0.018614477,0.1186084,0.12342441,0.060914803,0.03499038,0.049072113,-0.051508132,0.00482613,-0.07786056,-0.027954152,0.016044408,-0.06541464,-0.14464295,0.010532069,0.08260243,0.06358244,0.032043118,0.009473492,0.04626701,0.10815443,0.045774896,-0.055034123,0.03256608,-0.021245213,-0.057192322,-0.06286869,-0.04742465,-0.07678743,0.046673246,-0.090680614,-0.15079768,-0.02905152,-0.034212183,-0.06604243,-0.11538473,0.00034333262,-0.054254718,-0.06923012,-0.06387622,-0.07740792,-0.056199387,0.035709683,-0.04780169,-0.013119727,-0.002112131,0.008113756,-0.06970025,0.009827887,0.00801092,-0.028767632,-0.07988788,-0.05982734,-0.05031659,-0.097380646,-0.050477494,-0.0947767,-0.0864894,0.028741652,-0.042691313,-0.07386948,0.020868307,-0.064552605,0.024533983,-0.073735915,-0.0060824845,0.008341249,0.047342442,0.013391155,-0.027129028,0.010650326,0.042178363,0.0056145266,0.026281014,0.013679798,-0.04609366,0.030160567,-0.007237858,-0.04631497,-0.0028544362,-0.05692922,-0.0054877074,0.010514365,-0.008156756,-0.016271407,-0.056467865,0.0003272699,-0.007989732,0.059601046,-0.015544184,-0.034253232,-0.034058522,0.04548937,-0.053878836,0.050081324,-0.030428104,0.042577107,0.02831296,-0.0742148,0.08350471,0.12962973,0.024935069,-0.04674382,0.039738107,0.007177451,0.062539935,0.10615902,-0.011141151,-0.04106324,0.054746658,0.06695749,0.032214027,-0.052224573,-0.047418494,0.061420497,0.024866572,0.07734224,0.05113891,0.014942927,-0.0026502993,0.045576815,0.058320303,0.19536774,0.2512999,-0.084221825,-0.0030317155,0.053070296,0.08016888,0.08258732,0.07598392,0.046715952,-0.03852558,-0.054456215,-0.065007344,0.031765014,-0.04999725,-0.0105800005,0.03842981,0.054624792,-0.041299213,-0.014933056,-0.03500583,0.013079374,-0.035973504,-0.03660184,-0.060665753,-0.043730993,0.058573347,0.042004824,-0.024049727,0.027121168,0.049910527,0.015595107,0.0035322101,-0.000639755,0.055449396,-0.017077794,-0.045568675,-0.047082238,0.001029543,-0.04170303,-0.05695288,0.031962816,-0.021032402,0.018825509,0.03320723,-0.005690632,0.013383458,0.016255472,-0.04028425,-0.0032994945,0.04845575,-0.044003665,-0.06573685,0.012690168,0.03439484,0.044886738,0.025881426,-0.038530514,-0.04241296,-0.045708388,-0.052140933,-0.01328829,0.05119593,-0.0088758925,-0.042458456,-0.046087433,-0.04477983,-0.042847835,-0.049394958,-0.04273716,0.006715759,-0.036250364,-0.05829908,0.012219634,-0.020888016,0.02441285,-0.0022862554,-0.029793158,-0.015641617,-0.04299998,-0.06329929,-0.0032702354,0.046237454,-0.04866727,-0.0635221,-0.0076215263,-0.04468468,-0.035215583,-0.0783189,-0.013315205,0.029180694,-0.05493747,0.07801286,-0.047724705,-0.027779011,-0.012943226,-0.035551436,0.05985386,0.06449909,0.025188398,-0.0018430006,-0.026087493,-0.049718395,0.029065624,-0.0343699,0.016178673,-0.049232345,0.0019768088,-0.0385035,-0.02011027,-0.05450986,-0.03978363,-0.030891966,-0.0075359545,0.06083908,-0.04040667,-0.037452195,-0.05723124,-0.0019055132,-0.040867314,0.022584427,-0.00053728744,0.026815103,-0.018234257,-0.02929273,-0.0023108101,0.034216054,0.00064922596,0.023744538,0.029344356,0.04872315,-0.03993375,0.008585183,-0.055383846,0.046703424,-0.04946375,-0.027464954,0.035532106,0.0048330864,0.0121262185,-0.009257762,0.07568014,0.021758785,0.007171129,0.008632187,-0.04747898,-0.010882212,-0.003823038,-0.041782748,0.006435425,0.053435955,0.054876793,-0.06507422,0.040006947,-0.04364427,-0.04180186,-0.011782213,0.0024143476,0.0598815,0.0020341151,-0.053528942,0.024199666,0.013230693,0.02807604,-0.041154355,-0.050824136,0.03714251,-0.034649916,0.024709908,0.057831563,-0.021679543,-0.0453909,0.009234467,0.006707934,0.037566684,-0.00015203675,-0.031869408,0.009688905,0.009979062,0.055455286,0.0591495,-0.03730012,0.0017850128,0.033693638,0.027586903,-0.06404161,-0.053832084,-0.008466767,0.047314163,0.04590162,-0.05793709,0.003034845,0.005355295,-0.055241942,0.03453779,0.05971382,0.045731194,0.05330996,0.022105008,-0.034296207,0.02462331,0.058715213,-0.058247108,-0.05965068,0.054508496,-0.024850884,0.015726836,0.018773764,-0.034823455,-0.0030666378,-0.00580049,-0.049197413,-0.06789023,-0.05618253,0.04973211,-0.028949585,-0.03919725,0.04691988,-0.010383579,-0.038943544,-0.0197292,0.019990964,-0.05192256,0.033478703,-0.059980217,0.04148387,0.0394206,-0.05671855,-0.028157191,-0.039974663,0.030743213,0.056655493,0.008774198,0.05241806,-0.015940597,0.026921704,0.04061224,-0.0519825,-0.04999039,0.047956906,-0.015731165,-0.028955566,0.04449571,-0.07470953,-0.015584562,0.00861097,0.050574955,-0.022090783,0.022721356,-0.058290888,-0.02938538,0.026575962,-0.06581316,-0.043140657,0.051925756,-0.010326585,-0.05130142,-0.054630943,0.037830114,0.013945681,0.00083342404,-0.04969593,0.018042529,0.045762096,-0.026964055,-0.039943952,0.10204957,-0.044033088,-0.017126935,-0.08347384,-0.017482724,-0.054208316,-0.11222667,-0.12519956,0.03627887,-0.06783444,-0.1145313,-0.066821754,0.0909283,0.06628351,-0.019258717,-0.041607577,-0.0709513,0.030179935,0.05486192,-0.014604384,0.013193226,0.12828657,-0.012469921,0.0067131077,0.035750296,-0.041222967,-0.02975346,0.038766157,0.0014297816,-0.010962252,-0.062941164,-0.062390566,-0.07453411,-0.033023663,0.027485326,-0.098489344,-0.051381644,-0.00013066288,0.12807742,0.012874936,-0.12100004,-0.0027345356,0.04089225,-0.010354595,-0.06881483,-0.056962088,-0.061002333,-0.06262351,-0.03734786,0.00032825454,0.044114895,-0.023934714,-0.059663747,-0.04928821,0.035273667,0.042448815,-0.007467206,-0.047556054,0.08888065,0.1706209,-0.019756041,-0.059677303,0.038727753,0.13618802,0.16225283,-0.049880713,-0.09975156,0.07462794,0.09741727,0.033988222,-0.07075653,-0.06537786,0.066029035,0.091853075,0.015681874,-0.03588772,-0.12563139,0.05406023,0.017314175,0.112147786,0.060268596,-0.098521344,-0.1798196,-0.06514742,-0.032898955,-0.014473656,-0.03608691,-0.027863465,-0.04756166,-0.027733438,-0.04497255,-0.07742697,-0.05567678,-0.18906195,-0.012606465,0.14664194,0.08717879,-0.043445926,-0.0155571485,-0.014032693,-0.04362901,-0.004834826,0.095098704,-0.034348115,-0.10147731,-0.033898614,0.0028575903,-0.031179365,-0.048576117,0.0007312005,-0.054920588,-0.06960393,-0.114888504,-0.033730853,-0.02700378,-0.0077977297,0.032073338,-0.02365961,-0.022456367,-0.016384762,-0.121605836,-0.028453596,-0.01892492,0.0639042,-0.008610197,-0.042893484,-0.017136058,0.043006655,0.08753884,0.034576666,-0.0006636054,-0.098084874,0.08998235,0.057460852,-0.0047279415,-0.05026485,-0.09520674,-0.02832194,-0.0031901367,-0.029546192,-0.06002736,-0.06321622,0.0013355067,-0.06897535,0.062990546,-0.044899423,0.0072028413,0.020204343,-0.09718081,0.010215196,0.0070333113,-0.052472074,0.018229691,-0.022596048,0.0019095906,-0.07707179,0.0023243001,-0.0046768053,0.10939526,0.09064125,0.04166418,0.045788217,0.068837546,0.05406589,0.123506695,0.03242477,0.066160746,0.019208925,0.10625515,0.046843927,0.055792063,-0.0075787148,0.00012312846,0.052655492,0.0017914135,-0.041786477,0.05763617,0.011072949,0.050456423,0.0048228395,-0.018774115,-0.02797348,-0.021732265,0.03505708,-0.07510646,-0.04129749,-0.022726806,0.043349326,-0.039811492,-0.10987397,-0.07313718,0.0011014773,0.036823418,-0.079330355,0.0005442966,-0.0005636206,0.033164706,0.047262274,0.049945954,-0.04323467,-0.015920902,-0.011442611,0.031051068,0.010784787,-0.021429004,0.0016811223,0.05022763,0.022154965,-0.051310398,0.06599446,0.021218142,-0.047104593,0.03697396,0.04990204,0.035791278,-0.07094847,-0.051486295,0.03496418,-0.051774457,-0.07735829,-0.054618526,-0.027496845,0.03128641,-0.02294198,0.036339182,-0.100580715,-0.068117246,0.03901988,-0.0057102153,-0.05049298,-0.07116402,-0.047916852,-0.06073977,-0.0895584,-0.093456335,-0.01917412,-0.04677535,-0.060710292,-0.020403609,-0.039728977,-0.029767415,-0.08180867,-0.085907556,-0.07170907,-0.041307654,0.012530253,0.01968951,-0.0074116727,0.056721374,0.07321931,0.05422096,-0.011505087,-0.041251052,-0.014630438,-0.015879512,0.0073840446,-0.095958725,0.047105253,-0.07977415,0.01713502,-0.009090197,-0.04675555,-0.12139731,-0.051262747,-0.025468187,-0.060766265,-0.09949292,0.06225822,0.014135436,0.06687368,0.04969471,0.03270877,-0.024595344,0.078351416,-0.03628559,0.08712142,-0.009090734,0.05521133,0.010436879,0.06162863,0.057140205,-0.009246442,0.039228085,0.057634544,0.06991008,0.056705445,-0.041037504,-0.05705543,-0.086775824,-0.0015607347,-0.01867254,0.039154828,-0.010202846,-0.018829666,-0.05687971,-0.010354287,0.0059351786,-0.09130359,-0.046071164,-0.071368836,0.024748743,-0.10576928,0.0341489,0.0811443,-0.10626086,0.074005365,-0.04773811,-0.080149174,-0.106436454,-0.07048844,-0.0421257,-0.07510242,-0.10517901,-0.16232474,-0.091600776,-0.060945142,0.045245383,-0.0800816,0.0064536636,-0.07606676,0.03859512,0.056608994,0.0107149,0.042409748,0.07174948,-0.06294782,-0.063265,-0.033317164,0.031723622,0.08770162,0.09590303,0.024954133,-0.0250651,-0.06967116,0.043965854,0.09883582,0.1149914,-0.15452844,-0.08006225,0.035431724,0.044947222,0.017001152,0.0033476413,0.09360237,0.058888804,-0.07294393,-0.12240513,-0.12283614,-0.09618574,-0.007079548,-0.0922755,-0.035542253,0.03979101,0.05886831,0.049415767,0.0013271536,0.003170464,0.041569505,0.097802095,0.036451716,0.014124442,0.027240125,-0.010577082,0.09592033,0.10803296,0.08480497,-0.061085757,-0.07262131,-0.058668528,-0.11710971,0.0015527611,0.011105698,-0.050519552,-0.05075513,-0.0020402335,-0.026694018,-0.088922255,-0.032460757,0.080685064,0.082034506,0.11618487,-0.06673869,-0.035171594,0.044322453,0.057030898,0.0898047,-0.008025078,-0.062370624,0.013282813,-0.073829286,0.020872915,0.041575026,-0.02321748,-0.04240348,0.00040662268,0.0034257302,-0.044522732,0.05048557,-0.010154261,-0.00027035107,0.045382682,-0.051654022,0.037552726,0.05972237,-0.027941216,-0.002616319,-0.08663168,0.016440164,-0.015791731,0.02941281,-0.040172786,-0.021327334,-0.033493813,-0.016736768,0.03971594,-0.0031584755,-0.09902143,-0.04099456,-0.0104766,0.03390654,0.011817714,0.014192248,0.025397668,-0.0034786381,-0.06066306,-0.0054561514,-0.019055897,-0.042428646,-0.07096336,-0.027399141,0.019630117,-0.0089447005,-0.010251886,-0.0027664157,0.038743325,0.041769303,0.005846016,-0.010258978,0.003080674,0.02053022,0.06253957,-0.018169183,-0.008425343,-0.049053367,-0.031177206,0.027217519,-0.083825074,0.012967875,-0.07422017,0.055839166,0.016147504,0.08030288,-0.07087257,-0.03378769,0.06710068,-0.014421721,-0.019669523,-0.026225785,-0.012271653,0.01358808,0.02444251,0.031410687,-0.029661097,0.034768056,0.047452208,0.05406474,-0.032677244,-0.045351177,0.007189079,0.0050293915,0.08064366,0.077106535,-0.06066597,-0.009114606,0.023370622,0.011117863,0.002567308,-0.015636293,0.07323935,0.08447953,0.08562703,0.027258025,-0.010521066,0.059651997,0.1267766,0.09818889,-0.0005751047,-0.03816463,-0.09805809,-0.005614234,0.13241473,0.08455321,-0.034564678,-0.09375776,-0.05892144,-0.0034480188,-0.07099449,0.017605694,-0.055275034,-0.08852836,-0.028469158,-0.016331764,-0.019746058,-0.06292345,0.12596437,0.13767639,0.1165591,0.09414297,0.12913647,0.09983642,0.05383319,0.008019782,-0.03143514,0.025110124,-0.04995568,-0.09106905,0.03808573,-0.06788457,-0.17008696,-0.082909994,-0.08573736,-0.0065004877,0.04500913,-0.073869765,-0.044727378,-0.02762606,0.0024159816,-0.10820612,-0.04639398,-0.03770821,0.021932218,0.08633293,0.031639494,0.07170348,0.017177213,0.114482135,0.03398178,0.035316166,0.045792274,0.029267902,-0.041091505,0.012193031,0.06132625,-0.026684547,-0.02691453,0.042111263,0.0459305,0.0424701,-0.063333146,-0.02504561,-0.018832352,0.071767285,-0.06275752,-0.15200078,-0.04612119,0.03210079,0.013932045,-0.032326557,-0.067234,0.006448114,0.044206273,0.07296573,0.010134583,0.030619621,-0.03734412,-0.06832586,-0.05363232,0.030457746,-0.15087573,-0.06735961,-0.07336951,-0.11830778,-0.03287109,-0.054308567,-0.03675654,-0.10025854,-0.087239034,-0.10961674,0.04193201,0.010774171,0.013823725,-0.048167028,-0.024451602,0.013267966,0.035721257,0.063758515,0.0118647115,0.016876958,0.07787466,0.0701013,0.049480647,0.045814287,-0.09138502,0.006245656,0.04346574,0.08347584,0.035231363,0.033438824,-0.020871764,-0.0039244676,-0.06818818,-0.014109509,-0.056868523,-0.0057908217,0.025464388,0.01793108,0.03772038,-0.060140375,-0.09913066,-0.004198434,0.03952995,0.105032064,-0.11096368,0.01184928,-0.0090174265,0.035467304,0.09198,-0.07495904,0.051338773,0.033296693,-0.029033994,0.059381202,0.029242871,0.002553754,0.04332305,-0.0405254,0.010290743,-0.0757323,-0.045525488,-0.058795698,-0.013744842,-0.083140776,-0.029920986,-0.05590532,0.03369549,0.008829942,0.023364704,-0.029475927,0.04534764,-0.035154555,0.005962717,0.05374189,0.0653821,-0.0031656749,0.03761738,0.048368406,-0.01141501,-0.032444656,0.020065919,0.046698816,0.015127987,-0.013800699,-0.06507537,-0.054854278,-0.027042113,0.0068673845,0.014452814,0.033898484,-0.08531768,-0.081484035,-0.08052491,-0.07324722,-0.011925472,-0.093710296,-0.08439342,-0.01095464,0.0019597963,-0.093447395,-0.009123768,-0.048966732,-0.08526109,0.027008561,0.017393894,0.0122715775,0.056178905,-0.05373975,-0.063882194,-0.050220214,0.010484211,-0.053673398,0.030257676,-0.022950342,0.0084970165,-0.00904886,0.042962365,-0.046720345,-0.064904,-0.08689396,0.032005083,0.01165279,-0.06678882,-0.0026179191,-0.05942137,0.044822395,0.006116634,0.01290702,0.0137214,0.015573881,0.040292144,0.015738877,0.016883867,-0.048107315,0.01240701,0.03858805,0.035471804,0.011848902,0.046882927,0.036075648,0.022942353,0.04824585,-0.0023161187,-0.036865856,0.02123627,-0.04553949,0.03060555,-0.026129492,-0.033724904,0.07633634,-0.051169436,0.047853194,0.05143839,0.001399634,0.10539844,0.035866637,0.07386745,-0.040309533,-0.036071207,-0.022188207,-0.037991628,-0.085828304,0.0049822605,0.03884104,-0.023767803,-0.019418962,0.14594997,0.07306289,0.06984231,0.08000068,0.052159842,0.10175041,0.049745325,0.026552144,-0.005610852,0.027759032,0.1216286,0.020727374,-0.019743362,-0.16013171,-0.12959756,-0.08551337,-0.03208823,-0.14203884,-0.02011575,0.012353667,-0.051339228,-0.04781674,-0.021304894,0.10206501,0.110403106,0.102321915,0.038593106,0.051377345,-0.0026958208,0.036289837,-0.031051578,0.09193586,0.018662762,-0.015959106,-0.021746216,-0.002618274,-0.10424705,-0.09024085,-0.0072843023,-0.07612193,-0.08835841,-0.014818057,0.03884218,-0.045372695,-0.057159346,-0.07649131,-0.16001838,-0.13380775,0.085109904,0.06023488,0.046513002,-0.018455971,0.05372387,-0.0029220085,-0.09480177,-0.052678235,0.048691694,-0.005273241,0.02225782,-0.010303376,0.04963438,-0.0005278911,0.025755767,-0.14242819,-0.10066259,-0.043446727,0.0614416,0.12320346,-0.21850722,-0.10337319,-0.17744975,-0.0790915,-0.004215835,-0.11157707,-0.071192436,-0.06326779,-0.04767605,0.0035662502,-0.007953698,-0.08587025,-0.0076194503,-0.008291886,0.0070316656,0.0064960183,0.015338399,0.10204935,-0.035431337,-0.05752911,-0.22041446,-0.17514026,-0.12743676,-0.07972882,-0.0881777,-0.06209278,-0.102138534,-0.07256917,-0.122976534,-0.05368989,0.06403634,0.0797932,0.022711497,0.13164002,0.067624085,0.022531921,0.04488278,0.12719573,0.06636372,-0.008426236,-0.14588533,-0.009073543,0.057650626,-0.015952215,-0.022234835,0.10315645,0.05233484,0.15628737,0.12943405,0.23275965,-0.01429009,-0.0025505389,-0.021230277,0.008552394,0.10739953,0.019571472,-0.030930735,0.06696447,0.019627143,-0.026307918,-0.018237866,0.03166437,0.025562223,0.044247627,-0.02696727,-0.041092418,0.010521366,-0.017002743,0.04969155,-0.01534692,-0.028094273,-0.0010162722,-0.022311728,-0.0041569816,-0.0013310631,-0.052487988,-0.13356307,-0.11681387,-0.046259485,-0.026845926,-0.07816335,-0.029967802,0.029297547,0.0084266355,-0.06853241,-0.010581256,0.036225073,0.091791295,0.08237556,-0.054374974,-0.028020058,0.0043031056,0.04610557,0.028823934,-0.030754197,-0.006933069,-0.060810145,-0.015342974,-0.05538617,-0.033803888,0.0010757238,0.041363988,0.012178183,0.030020367,-0.0068998463,-0.0088018095,0.022837369,0.015954886,0.026589025,-0.026252065,-0.0860369,0.014688032,-0.062493816,-0.0661036,-0.05817383,-0.04525691,0.02393495,0.03214852,-0.057693534,-0.0131633,0.028559117,0.054597933,-0.0040317946,-0.015066929,-0.04990888,-0.00035902412,0.029707149,-0.03976193,-0.016507784,0.008122438,-0.02659367,0.041977603,-0.048146762,0.07947775,-0.044078417,-0.0063491166,-0.07587768,0.053258456,-0.009274594,0.044958938,-0.041910358,0.0681913,0.037326667,0.05382184,-0.010772703,-0.057054132,-0.050431803,0.027212726,-0.07317925,-0.009176126,0.012775525,0.011818401,-0.011880062,-0.04043635,-0.061164528,0.051617734,0.01964841,0.0519079,0.053470872,-0.03393336,0.029135935,0.024246713,0.05172156,-0.00386115,-0.017624285,0.026120082,-0.01693174,-0.019913524,-0.024767816,-0.037260104,-0.057526484,-0.06604882,-0.054712925,0.07819126,0.11747522,-0.022419954,-0.13830481,-0.11477585,-0.1106936,-0.07957362,0.059924137,0.047622167,0.16803554,0.10389897,0.088167906,0.10508167,0.034341946,0.026509313,-0.028732788,-0.06628832,0.017823054,0.0009273163,0.047682323,-0.0010994998,0.037034575,-0.042095393,-0.07419556,0.047731433,-0.0013774758,-0.065967835,-0.0118556395,0.08910888,0.10241785,-0.06097764,-0.021803522,0.022541251,0.024442986,-0.008731775,-0.025343517,-0.07809806,-0.07116403,-0.043639492,-0.06103444,-0.121547066,-0.06058851,-0.010980055,0.056923945,-0.027618984,-0.018046677,-0.0766131,-0.026162859,0.025779065,0.01809488,0.0037780397,0.05673014,0.019805368,0.024843229,0.0050137723,-0.044930708,-0.04527921,0.1238704,0.113579646,0.007937592,-0.01780569,-0.09147345,0.021362273,-0.031049997,-0.11119198,-0.085844934,-0.06904506,-0.044789497,-0.02705973,-0.08619298,-0.07304782,-0.07477216,0.046391726,0.11261701,0.1810183,0.110597275,-0.1046104,-0.06470153,0.15987647,0.13490938,0.09346753,-0.07441314,0.0028594073,0.08330932,0.031495955,-0.08250613,-0.11226841,-0.03951943,-0.011043978,-0.1047999,-0.18985711,-0.13898079,-0.0069106747,-0.02725743,-0.08008978,-0.091112584,-0.033933762,-0.0992555,0.024982352,0.031660225,-0.012639215,0.025560234,0.07885867,0.06267481,-0.04041954,0.0056225937,0.023776894,0.07548763,-0.0229629,-0.089054994,-0.08538937,-0.16763946,-0.13801527,-0.145822,-0.10733973,-0.14395857,-0.16617092,0.01258029,0.07137144,0.060828786,0.030765066,-0.08912099,0.022434503,-0.10613495,-0.008682839,0.007681299,-0.046344128,0.019238919,-0.06931867,-0.018324526,-0.039954126,0.038353954,0.039633505,0.09290574,0.08168289,0.07018945,-0.022361964,-0.05305767,0.014233044,-0.032936707,-0.018693466,0.006272992,-0.14758606,-0.07630625,-0.117699996,0.0017424461,-0.025547681,0.058702543,0.07946287,0.05830111,0.047670513,0.025068043,0.06952682,-0.022989545,-0.055180002,-0.04759267,0.025576225,-0.06401907,0.0062567904,-0.061528496,-0.089542545,0.0149081005,0.00032667234,-0.041893236,-0.09611305,-0.028724937,-0.03395595,0.040142216,-0.03494711,-0.043482073,0.0036395965,-0.027950393,0.049498294,-0.006252473,0.07389268,-0.033399552,-0.06621151,0.025583267,0.05598913,-0.029729698,0.012677264,-0.024064783,0.07151482,0.009096973,-0.02486442,0.05908497,-0.024137236,0.06531239,0.033055287,0.01828345,0.02271617,0.022990895,0.034439843,0.070134915,-0.024642752,-0.06757916,-0.071548596,0.034141548,-0.015542131,-0.07082062,0.00404004,-0.034969237,0.044920273,0.032381188,-0.019998511,0.024146298,-0.04597479,-0.040285736,0.041018333,-0.0038113163,0.004394272,-0.033763614,0.026782593,0.04443301,0.03684587,0.029219491,0.040220723,-0.013647967,0.033728298,0.01717617,0.031429406,-0.0129221445,0.03743813,0.015518134,-0.013856491,-0.0068962113,-0.047851335,0.052999094,-0.0072000646,-0.02556865,0.06748747,-0.03701242,-0.01994126,0.027767075,-0.04156275,-0.06862149,-0.071568236,0.023471728,0.009803614,0.0056395535,-0.04439039,-0.074151434,-0.026741426,-0.0024317827,-0.060799334,-0.07337893,0.012851052,-0.039221354,-0.042548135,-0.007927434,0.07170851,-0.048024017,-0.030345436,0.020245625,-0.027117709,0.054269128,0.057489034,0.09436131,0.12287692,0.14373939,0.05063955,0.0060216077,-0.061274737,-0.022768633,-0.075477935,-0.07541817,-0.048465706,-0.05005863,-0.08275459,-0.056533765,-0.016997894,-0.117808774,0.04774066,-0.024837337,0.00089449895,-0.07395834,-0.110999204,0.046391986,0.0050097415,-0.013368481,0.03127083,0.058585618,0.023047065,0.053550154,0.041492794,0.12098794,0.008823675,0.014308262,-0.07643085,0.024920328,0.007085498,-0.0680545,-0.050026666,-0.0121927615,0.007393782,-0.10385432,-0.14865999,-0.06435093,-0.054219212,-0.00073519186,-0.07411822,-0.095329195,0.046005912,-0.08172972,-0.04163714,-0.008199789,0.0020705569,-0.058247145,-0.089084685,0.027564406,0.07728595,-0.0038007118,-0.08063888,0.023809897,-0.043828353,0.07792574,-0.023922384,0.0022223277,0.034916636,0.04594437,-0.020386172,-0.10576577,-0.02533276,0.07562841,0.040938992,0.013044959,-0.07980287,-0.04814269,-0.07962722,-0.065964416,0.023663182,0.041600533,0.06890492,-0.07699843,0.10108501,0.14750627,0.04669546,-0.025053406,0.0015585072,0.11003585,0.068336695,0.06004755,-0.08921063,0.008765492,0.16508338,0.16563758,-0.065561235,0.032201175,-0.020197736,-0.10643273,-0.03215638,-0.0798751,0.043356284,-0.104861125,-0.10634478,-0.09063752,0.04401669,-0.03822067,0.02893834,-0.048791308,-0.05300397,-0.059020754,-0.05663759,-0.02264744,-0.008258623,-0.10071245,-0.058929574,0.009854072,-0.15970585,-0.18703437,0.0060417634,0.0483284,0.03612204,0.09936658,0.05153681,0.068300955,-0.010593522,-0.04776021,0.044567045,0.07149849,-0.022037508,-0.0390845,-0.02584008,-0.051401954,-0.04140735,-0.09008982,-0.043775458,-0.053734522,-0.060084265,-0.050532743,-0.13182832,-0.065379195,-0.07320356,-0.016394751,0.001445556,-0.048405778,-0.01633152,-0.05604116,-0.036572006,0.022575293,0.068806596,0.051915087,-0.035189923,0.008674955,-0.011310586,-0.061617732,-0.021304471,0.02056751,-0.037058286,0.027691051,0.020122958,-0.087556586,-0.0859159,-0.03582313,0.04879368,0.041579854,0.04101688,-0.102349065,0.014132657,0.04933887,0.13110265,-0.030727355,-0.027274182,0.08340938,-0.034587476,-0.026104929,0.047711384,-0.057642836,0.047920343,0.05539674,0.012286925,0.019726286,-0.049939077,-0.02075317,0.04178365,0.010888302,-0.07128348,0.008372762,-0.00893544,0.080629066,0.08582541,-0.026765924,0.018452669,0.06437231,0.079373255,0.036983564,-0.0046912907,-0.014902493,-0.04023886,-0.007912383,-0.050809804,0.01633252,0.0048574777,-0.032333113,0.040962644,0.027667295,-0.0401951,-0.0141762765,-0.0061783055,0.040506817,-0.048442062,0.008998014,0.023486324,0.041530345,0.003347086,-0.0153366625,0.049805988,0.010270179,0.0004306565,-0.020709218,-0.006583087,0.050611656,0.024260586,0.008892719,-0.028505994,0.00020038927,-0.027581466,-0.0101112295,0.04013931,-0.05340021,0.0035678041,-5.741658e-05,0.07290038,0.050074857,0.010760393,-0.06948924,0.028225873,0.064555235,0.04041311,0.027665112,0.03310747,-0.048982415,-0.026714157,-0.037315752,-0.07003047,-0.068595074,-0.06722074,-0.10716591,-0.017870905,-0.069159016,-0.026112586,-0.037756197,0.013486226,0.015015147,-0.0081806425,-0.10036022,-0.036670182,-0.02977826,0.008776096,-0.027678723,-0.041351,0.070846446,-0.012987214,0.003803234,-0.11624886,-0.040613014,-0.01815622,-0.07650679,-0.09792319,-0.03143745,-0.016452475,-0.0060521094,-0.06582863,0.009725876,0.0077868286,-0.15741213,-0.06675432,0.009703572,0.001661708,0.010617221,-0.112748,-0.16769443,-0.06543673,0.0017564739,-0.03295014,-0.08293145,-0.16785787,-0.012368919,0.0013114467,0.068578795,0.07398385,-0.048595354,-0.039809585,0.088568985,0.10566478,0.0140765095,-0.019107623,-0.023272337,0.029784577,-0.07854844,-0.0039311657,-0.08484404,-0.07243381,-0.06005499,0.028338626,-0.03784197,-0.041620634,-0.027018078,-0.018343376,-0.05796898,-0.08734157,-0.022570523,-0.029701915,-0.0030317148,0.047749776,0.055092275,-0.050174043,0.031175377,-0.032308377,0.04827947,-0.016999934,-0.05859958,-0.082784034,-0.034904845,0.112798065,0.03995474,-0.08804224,-0.08251322,-0.035488263,0.071335256,0.056068227,-0.08349212,-0.08597488,-0.09248993,-0.026601763,0.12629019,-0.04555157,-0.06732665,-0.09703645,0.020469015,0.1262442,0.031210987,0.021519236,-0.04547557,0.096327744,0.08655723,-0.056439336,-0.0062893736,-0.07104809,-0.12861294,0.00030998452,0.02247305,-0.008343456,-0.07791509,-0.10787504,0.10597973,0.11598341,0.040855434,-0.09417672,-0.059534583,0.003931361,0.08496468,0.055383813,-0.030609654,-0.04114315,-0.11189295,-0.009373907,0.011895091,-0.051165555,-0.02107223,-0.1540384,-0.13557746,0.01362775,0.0257194,-0.032995854,-0.05731723,-0.021604985,-0.0634862,-0.03326709,0.042811397,-0.07276064,-0.02796914,-0.086725116,-0.012693441,0.061140314,0.015749158,-0.0691764,0.0075490153,-0.0098290825,-0.025146587,-0.06704187,-0.077745244,-0.057282,-0.08169244,-0.054832812,-0.06654024,-0.1132845,-0.011128294,-0.07220463,0.14209956,0.10531991,-0.0005531169,0.010723682,-0.040565673,0.11618018,0.11263878,-0.02839966,-0.015658125,-0.012374982,0.021301432,0.07147473,0.0700804,-0.027730346,-0.029740613,0.032073107,0.0735863,-0.017181203,-0.06600984,0.028905297,0.0037366517,-0.04726267,0.031098569,0.042019453,0.03655154,0.11753469,-0.0042417855,0.04245001,-0.024655107,-0.05372871,0.10678604,-0.00818903,0.014121886,-0.04819855,0.051689267,0.087080956,0.08627456,0.002232898,-0.0066015837,-0.042426713,0.07219175,0.109534256,0.0041394425,0.018843105,0.055277906,0.02736128,0.00020490737,0.0072570695,-0.009329036,-0.017127682,-0.014214171,0.072223365,0.06820119,0.033471417,-0.033909198,0.025720593,-0.0055794884,0.05551473,-0.031221546,0.037870444,0.041840237,-0.038284894,0.05610717,0.002706384,-0.012063636,-0.01753605,-0.050414715,-0.007165773,0.006418798,0.0097662555,0.006328963,-0.037121974,-0.06339649,0.024661655,-0.011250442,-0.01588277,0.024003992,-0.03290816,0.005797615,-0.038508374,0.051997706,-0.011309549,0.009407591,0.035137493,-0.0073683397,-0.05745831,0.0013944547,0.051776193,-0.043526478,0.019146428,0.01930895,-0.035159577,0.053759754,0.024040071,0.02581771,0.000939674,0.06381086,0.00030605524,-0.03827155,-0.11466084,-0.019734195,-0.072480276,-0.10121666,0.015838524,-0.090816356,-0.050296634,0.031686313,-0.034752488,-0.049908634,0.020476716,-0.09693788,-0.0062261843,0.020872505,0.008300452,-0.025355961,-0.14797227,0.006182772,0.0027829774,0.00033186807,-0.12083895,-0.00119293,0.053148676,-0.032330886,-0.09501741,-0.09166063,-0.0005686385,0.06292491,-0.08228142,-0.030001923,-0.028626833,0.11595148,0.16208485,0.04208553,0.024569685,0.044939257,0.04983659,-0.0052006235,-0.16453893,0.058865108,0.06834333,-0.02503315,-0.10114039,0.016335411,-0.008430174,0.0066316216,-0.057449978,-0.08668472,0.01379952,-0.08339986,-0.060579643,-0.021394923,-0.049546763,-0.024716247,-0.06823126,0.0032924912,-0.0062533543,0.051262587,-0.007239721,0.036060907,0.0035894066,0.047890443,0.067376696,-0.041616675,0.050689295,0.02632278,0.044054452,-0.101907514,0.016684115,0.07210209,0.03248333,-0.021560524,0.02343903,0.069042645,-0.016035266,-0.07184126,-0.076329134,0.11594272,0.05664919,-0.09650534,-0.04219909,-0.047933843,0.07151701,0.056202475,-0.09396191,0.08803433,0.080097616,0.07691461,-0.10148338,-0.046712432,0.08830349,0.09831959,-0.07030296,-0.12987588,-0.0115518775,0.12690844,0.05503982,-0.16355316,-0.07329135,-0.08799598,-0.15590134,-0.14141034,-0.07775573,-0.087058984,-0.16505517,-0.025890825,-0.021380674,-0.07945141,-0.11426846,-0.093001954,0.012548663,-0.076852046,-0.13144115,-0.05188814,0.041193493,0.0058409544,-0.018242488,-0.06953409,-0.10895002,-0.0023012485,-0.040506408,0.11938148,0.121752456,-0.018024309,-0.009931713,-0.06566774,0.018790249,0.020730086,-0.04843443,-0.032189336,-0.026809411,-0.055865794,-0.1121784,-0.09826379,-0.077821806,-0.10107669,-0.10781785,-0.0024674814,0.05478314,-0.09753626,-0.024902157,-0.10483781,-0.11961015,-0.006225378,-0.033736143,-0.08543394,-0.012029016,-0.0043518087,0.018074892,-0.09949594,-0.11500516,-0.06763657,-0.013726532,0.09700008,-0.03232507,0.032875393,0.0513412,0.0059600896,-0.00469624,-0.016839508,0.05455119,-0.07158088,-0.04468693,-0.014102094,-0.051714413,0.040255956,0.028838318,0.011787922,0.028553454,0.032647107,0.11493901,-0.012939387,0.017633138,-0.09789331,-0.04358909,-0.004378022,0.09600247,0.09534844,-0.052604124,0.023193862,0.09126398,0.06301256,0.07396198,0.02635215,0.006085319,0.07970472,0.03169608,-0.033706225,-0.033860497,0.031642906,0.07842681,0.037992932,-0.019018361,-0.05971508,0.011545672,0.071437836,-0.073378764,-0.058323093,-0.06469662,-0.06474592,-0.006244152,-0.056521736,0.016708659,-0.08718082,-0.0709601,0.05384962,0.0072361236,-0.0113021955,0.0013734685,-0.014106454,0.03173727,0.018526578,0.0008202745,-0.053698942,-0.077150844,-0.03773612,0.009818835,0.046986666,0.0462271,0.0034984548,0.011809707,0.035022482,0.008834386,-0.01986909,-0.022313321,0.0036062752,-0.020802585,0.029863767,0.01434787,-0.0048805615,-0.029620036,0.021380635,-0.051561564,0.040231846,-0.0066340435,-0.02233233,0.044492424,0.016940357,0.02907861,-0.06511813,-0.0025779498,0.019499244,0.0075313305,0.045872666,0.027495224,0.013325956,0.045689482,0.06531794,-0.04775399,-0.046755075,-0.17937969,-0.14506173,-0.084147856,-0.019372072,-0.080125086,-0.10572409,-0.07417563,0.0007087559,-0.019827187,-0.10821929,-0.036429457,0.01760487,0.01991436,-0.008276061,-0.03425033,0.03798656,-0.019533467,-0.0030158765,-0.053344995,-0.030296274,0.038777165,0.095550925,0.16789187,0.059669893,-0.024753489,-0.022671929,0.04418146,0.07653126,-0.03385459,0.019235354,0.058947925,-0.0054761907,-0.16223346,-0.09998383,-0.020128423,-0.03278478,-0.099260494,-0.094072655,-0.06449156,-0.10000023,-0.05894841,-0.09170512,-0.10086206,-0.089429215,-0.020838005,-0.054363497,0.05129023,-0.05865682,-0.054720413,0.0644995,0.067027435,0.03818911,-0.00016037835,0.027636174,-0.037449215,0.0623122,-0.03527452,0.041927394,-0.09937934,-0.011595608,0.07202576,0.06659799,0.035456922,0.042072494,0.04979736,-0.07012877,-0.06868182,-0.03112893,-0.016331194,-0.09044357,-0.028146835,0.048016176,0.03751677,0.016121075,-0.027861392,-0.011692468,0.0074458253,0.028127104,-0.08379785,-0.029302815,0.12457398,0.10817003,-0.048658088,-0.074979216,0.06694836,0.033894055,0.0796829,-0.050403792,-0.030078992,-0.07031077,-0.04338914,0.024792798,-0.040791526,-0.021747,-0.080298595,-0.060510226,-0.07138118,0.04011384,-0.10703231,0.005279974,0.02960608,-0.08679988,-0.011647095,-0.060347807,-0.03508043,-0.03467066,0.007963658,0.0050733634,-0.07954968,-0.039303485,-0.07553362,0.07776718,0.16434394,0.12539415,-0.13120309,-0.053722408,0.0035647235,0.21257336,0.10769264,-0.11519342,-0.09232529,-0.09893738,-0.105815485,-0.10903815,-0.021836817,-0.094965346,-0.12126844,-0.04904562,0.04282476,0.041954696,-0.072070085,-0.008856664,-0.03639412,-0.030772466,-0.08372383,0.039629444,0.082860336,-0.033684593,-0.026807828,-0.033706713,0.11393896,0.06975522,0.015338556,-0.017456694,0.010065677,0.011007185,0.057179198,-0.0024858394,0.021785045,-0.08202882,0.003089084,0.046352185,-0.02162209,-0.011219234,0.051379256,0.0044940547,-0.00015841176,0.024597451,-0.020005025,-0.0061255675,-0.007668448,0.0883308,0.07022933,0.010653004,-0.05650119,-0.059668995,0.11367423,0.093735665,-0.041348834,-0.009100857,-0.061707623,-0.021083815,0.059435703,-0.027647626,-0.05366528,0.02438853,0.05363831,-0.082697555,-0.02513615,-0.03646409,0.07714056,0.037150014,-0.08746431,-0.04285287,0.041762605,-0.0095887445,0.017704109,-0.037431777,-0.012278645,0.023610909,-0.06587923,-0.051159095,0.009661714,-0.027023397,0.026529647,-0.077515855,0.05857241,0.03161739,-0.030817183,-0.041385315,-0.025148176,-0.048609223,-0.025566787,0.020269718,-0.020314993,-0.04164419,-0.043223806,-0.04752287,-0.02872278,0.043842245,-0.05891588,0.022554997,-0.036619335,-0.064686835,0.041791614,0.027123004,0.053471856,0.077765524,0.011699171,-0.054084167,-0.055684995,-0.0494663,-0.013238711,-0.030349787,0.017638661,-0.07318681,-0.06165942,0.04782433,0.0042254124,0.016260253,-0.022400377,-0.0061742915,-0.029677019,0.008922957,-0.023262437,-0.0152991675,-0.005399273,-0.05641623,-0.03704914,0.052103266,0.034563147,0.07473306,0.044988573,-0.03897088,-0.04605648,-0.02020004,0.03155731,-0.00807325,0.026977833,-0.04461497,-0.06794055,-0.038514867,0.028097145,-0.0132113835,-0.029632533,-0.07595329,-0.00817066,-0.076096736,-0.09685731,-0.008315428,0.03444063,0.0991309,0.116638415,0.033608407,0.019181123,0.028443664,0.108840466,0.18860582,0.057893705,-0.059947975,-0.020545343,-0.010467731,0.043895602,-0.02222695,0.030032113,-0.014997358,0.02437103,0.07748251,0.15215705,-0.08530519,-0.06540178,-0.021208243,-0.07646587,-0.10429847,-0.03937451,-0.106058575,-0.08057037,-0.0966881,0.033558466,0.019043792,0.025560241,0.07646846,0.10482613,0.018478803,0.12771907,0.1062778,0.0012316657,-0.032246582,-0.11422994,-0.05441404,-0.017753618,0.08743994,0.034841433,0.10254675,0.011473981,-0.025568679,-0.007994278,-0.022554785,-0.023240589,-0.115548156,-0.17729256,-0.06992918,-0.071911976,-0.02514761,-0.006212734,-0.01375138,-0.019507794,-0.0450438,0.0065577277,-0.024283273,0.022854812,-0.03976816,0.036082756,-0.039489064,-0.0761426,0.030357651,0.016497273,0.11123944,0.0185875,-0.06554548,-0.068351954,0.0004289137,-0.087257065,-0.09085103,-0.19061023,-0.12250653,-0.15193433,-0.13347714,-0.11949815,-0.2053608,-0.09252095,-0.109957136,-0.077469565,-0.02173788,-0.03458438,0.065440975,-0.004689044,0.043670215,0.047161154,-0.040912043,0.0910062,0.08959249,0.05156838,0.06805247,-0.20382962,-0.06306451,-0.028943758,-0.03719608,-0.07442398,-0.11705927,-0.049157165,-0.1145179,-0.086269386,-0.09948535,0.05584443,0.094210096,0.033823475,0.010957735,-0.029167272,0.06746552,0.08459743,0.029122725,0.045362923,-0.016921334,-0.054002285,-0.030718418,0.029755088,-0.020775104,0.058098037,0.064968325,0.18864231,0.11126625,0.14152443,0.15335499,-0.025998158,-0.0048309374,0.023267819,0.052459303,-0.060473997,-0.041157532,-0.070419565,-0.050352,-0.063563876,-0.011973102,0.01470384,-0.043270662,-0.023681235,-0.0025121386,0.00404883,-0.042068403,0.07299954,0.051648073,-0.06304595,0.005758512,-0.01848261,-0.02447147,-0.0685292,-0.033984117,-0.121693276,-0.09123417,-0.04318998,-0.11139986,-0.120471515,-0.09424695,0.0021669785,-0.080666065,-0.035286393,-0.069692865,0.015505595,0.04818638,0.0019297523,0.040054467,0.0422571,-0.06416394,-0.04091725,0.009017605,0.018705616,0.07305634,0.011491675,-0.008935639,0.015051149,0.016472632,0.03339472,-0.08037819,-0.061982695,0.033314645,0.0077739554,0.022633824,-0.05397862,0.05328649,0.0141904205,-0.03280056,0.033448093,-0.02670961,-0.011977526,-0.046189953,0.002731771,0.015618251,-0.019287525,-0.02280953,-0.046308897,0.04429944,-0.05622002,0.014031829,0.064614214,0.009875073,0.09495832,0.0509111,0.03837364,-2.6087897e-05,0.02685142,0.031708203,0.03342626,-0.04418461,-0.0016806538,0.009256712,-0.017404301,0.026201038,0.062300574,-0.048774827,-0.05022617,-0.010115952,0.08554056,0.030560482,-0.08929577,0.04084182,0.005533347,-0.032422245,0.0004788012,0.008895179,-0.072820865,0.020161932,-0.059048586,-0.0478528,-0.017586315,-0.023502767,0.05052269,0.00011244599,-0.033920042,-0.00095686055,-0.03740251,0.093380496,-0.023136545,-0.0420202,0.04889068,-0.03703864,0.051677275,0.03395103,-0.03805623,-0.044123787,-0.0007914159,0.049570628,0.06973522,0.17346989,0.03055004,0.025839357,0.038530946,0.16452478,0.0494651,-0.101485096,-0.05965729,-0.09216458,-0.09336201,-0.121039465,0.048842207,-0.002308355,0.02220405,0.016170185,0.044088077,0.06412179,0.054105368,0.0437795,-0.03789858,-0.02005347,-0.06991198,-0.013033582,-0.015719606,0.023295442,-0.09269162,0.04438627,0.0031666236,-0.07583612,0.0029206006,0.045286797,-0.028811576,-0.0052353893,0.053507514,0.14245038,-0.035799075,-0.030776417,-0.052144602,0.10987537,0.11938004,-0.14457896,-0.10093803,0.0025320947,0.09435119,0.023567997,-0.07399084,-0.047740348,-0.055240765,-0.084211916,-0.04489723,-0.11499255,0.028058933,-0.08033796,-0.03345856,0.022908105,-0.046499066,-0.0024852266,0.00089909363,0.013293978,0.08277708,-0.022874437,-0.01719706,-0.062003013,0.06672724,0.053589813,-0.06135786,0.022357704,0.025941005,0.074468635,0.0825139,-0.07251892,0.05693222,0.0002316664,-0.0057651303,-0.028573545,0.004183246,0.060824137,-0.05413449,-0.070436195,-0.011762817,-0.0126898205,0.09726929,-0.06653346,0.017997244,0.116621286,0.07190942,0.005010204,0.02178207,0.15769543,0.17670698,0.0012932202,-0.09248259,-0.021768682,0.08509167,0.21393041,-0.058703918,-0.0050953967,-0.107063726,-0.13874973,-0.06983417,-0.123614155,-0.043271046,-0.10875772,-0.10221627,-0.03166912,-0.08718484,-0.0066149887,0.0065272897,-0.04119031,0.057779532,-0.100521185,-0.00535894,-0.033683285,-0.024276854,0.023758667,-0.130723,0.034707084,-0.12307176,-0.0753181,0.039643783,0.053248875,0.051160544,-0.0075231465,-0.03918183,0.06579358,0.00021150302,-0.06143828,-0.073445514,-0.077548385,-0.08126856,-0.11962024,0.019982437,-0.02843857,-0.06782,-0.078279726,-0.07641177,-0.035927262,-0.05092851,-0.109487124,-0.16207814,-0.06102472,-0.0124936355,-0.06559368,-0.010574793,-0.14031641,-0.038572,0.041686848,0.00659669,-0.0449114,-0.009969482,-0.0016448458,-0.0014361513,0.021227347,0.017160224,0.023718026,0.06884051,0.05417529,-0.08918151,0.017203651,-0.016819242,-0.10489698,-0.02741646,0.011710417,-0.003948014,0.03663186,-0.10797683,-0.080598995,-0.0410542,0.012211161,0.07027304,-0.070482224,-0.029704293,-0.0009277495,-0.034056474,0.1255945,0.013766968,0.013380163,-0.047413148,0.039770976,0.07055016,-0.042085126,-0.0002109077,0.041015655,0.097082846,0.024086226,0.05917718,-0.018403333,0.0826781,0.10845773,0.052183527,-0.026447488,-0.059276063,0.022843335,0.0811345,0.029408082,-0.09168468,-0.048452407,0.019570062,0.0294331,-0.024851419,-0.036318332,0.02660823,-0.03900468,0.053222746,-0.014460732,0.06215793,0.028072393,0.055083897,0.049487602,0.05901565,-0.059952267,-0.006097358,-0.06739969,0.022838552,-0.043216433,0.0027672811,-0.022706272,0.051355816,0.042357568,-0.041827578,0.019463073,0.0131645715,-0.046641674,-0.03317037,-0.04465265,-0.038467966,0.061308328,0.05375587,-0.050792854,-0.040494338,0.06573836,0.07995599,0.0028566003,-0.0015573465,-0.023852767,0.06499806,0.017115857,0.032960765,0.036066197,-0.014749711,-0.053420503,-0.010676626,-0.050999753,-0.067967854,-0.03132591,-0.026610196,-0.051027257,-0.10370476,-0.13621095,-0.16070609,-0.05551207,-0.08792447,-0.087385185,-0.023136856,-0.0502959,0.030722443,0.012246976,-0.033189356,-0.10841072,-0.046546053,-0.031326633,0.036767233,0.0047119176,-0.0018491226,-0.087642804,-0.06935768,-0.06756023,-0.044338543,-0.0789199,0.07707074,0.06690779,0.06603723,0.122645386,0.11894099,0.010733113,0.03150329,0.0050673746,0.002318865,-0.016992418,-0.029588994,0.013036277,-0.008137807,-0.10903651,-0.08438584,0.0125109665,0.02076116,-0.008832502,-0.0016101755,-0.049930226,0.019742532,-0.03149176,-0.03871335,0.040313818,-0.018874785,-0.08223224,-0.05721118,-0.025088683,0.026247652,0.068763785,0.02572196,0.032162245,-0.0068760556,0.083082765,-0.021989526,0.007697289,-0.040925223,-0.08670608,-0.095790446,-0.013399315,0.027841127,-0.02884505,-0.0503676,-0.10355062,-0.028646277,0.010937457,-0.05416731,0.037861094,-0.072323315,-0.03851218,-0.04839291,-0.06132048,-0.055070043,0.098397166,0.100291684,-0.05704629,0.013406822,-0.0071223285,0.07994509,-0.01908201,-0.07944512,0.016887533,-0.075437866,-0.09750688,-0.14603674,0.045427516,-0.023357887,-0.10750382,-0.06116057,0.03180939,0.06533591,0.075361714,-0.05584002,-0.0007610536,0.015327491,-0.044087436,-0.050685193,0.04856752,0.11266894,0.057813015,-0.0035197295,-0.013702892,0.025830546,-0.035406083,-0.08787892,-0.024478521,-0.028120317,-0.061184205,-0.09036487,-0.090412155,-0.046652697,-0.06112536,-0.08627598,-0.13015126,-0.12922737,-0.11675139,-0.040050685,0.060133982,-0.006305126,-0.04812373,-0.08047807,0.0036071755,-0.012372304,-0.00069800264,0.039555572,0.058483887,-0.022563046,0.07983054,0.057524264,0.034715403,0.07788479,-0.0027018238,0.03347228,0.034554493,-0.032998223,-0.018396832,-0.03650761,0.022225821,-0.029003728,-0.018449042,-0.026006825,-0.03477764,-0.05554959,-0.058127463,0.043573067,0.005087686,0.005269023,-0.053954676,0.023395322,-0.0336046,-0.008368523,0.05501845,-0.07755096,0.015664022,-0.047660362,-0.058676966,0.078776255,-0.06849846,-0.05851162,-0.011937445,-0.06529351,-0.02017571,0.0367197,0.011587152,0.02632733,0.0362981,0.0006515514,0.060874164,-0.016142849,-0.034382373,-0.018652722,0.031344492,0.01718559,-0.028361391,-0.05393173,-0.031649377,0.01266997,-0.026404358,-0.07879625,-0.065346956,0.0010886276,0.02599525,-0.044095077,-0.04105502,-0.03611056,0.051940154,0.05696055,-0.06701871,0.024859445,-0.028918095,0.04772774,-0.01945198,-0.04187272,0.022514313,-0.04098501,-0.007399506,0.015831344,-0.040756997,-0.04186603,-0.04542981,-0.0030470171,0.02883058,-0.0012941055,0.035081577,-0.01687775,-0.033531047,-0.06229434,-0.030536598,0.053418875,0.019135624,0.032836564,0.030625958,0.06974381,-0.03334053,0.0003988062,-0.033817485,0.040382586,0.006349075,0.028686374,0.06364704,0.040719695,-0.03783202,-0.0710198,-0.034658875,0.069608785,0.047189124,0.0068676397,0.01778283,0.031648397,-0.027909286,-0.00044716324,-0.05855623,-0.023286918,0.055880696,0.0033539655,-0.005658762,0.03141715,0.026889825,-0.053104807,-0.04197858,-0.010432837,-0.0701381,-0.055149764,0.066996165,0.057017595,0.050729092,-0.07911711,0.032840047,0.00142413,0.1522336,0.09443568,0.09746914,0.03209451,0.060499642,0.06331946,0.007237924,-0.041258566,0.066648774,-0.09173704,-0.0709083,-0.09928552,-0.06897104,-0.06265983,-0.029594583,-0.021213533,-0.049388323,-0.05677884,-0.054060128,-0.07854924,-0.13467869,-0.07839077,-0.070135124,-0.053883698,0.051232647,0.030951545,-0.008200756,0.055534195,-0.06697398,0.02540306,-0.04201803,0.035614148,-0.027213197,0.038106106,-0.044252872,-0.059142802,-0.04487755,0.007224053,-0.04949507,0.04611913,-0.024925256,-0.060763717,-0.012434455,-0.047876097,-0.063552916,-0.07613524,0.003270425,-0.004126795,-0.051509894,0.059921846,0.048099644,0.061632864,-0.016314138,-0.02863553,0.0049235458,-0.041002873,-0.0014824285,-0.02599739,-0.030384606,-0.042383123,0.0057766214,0.02950332,0.06100197,0.04108586,-0.044488136,0.055703565,-0.052003797,0.03697985,-0.025922043,0.031620383,-0.04825758,0.033382054,-0.020810299,-0.044648886,0.07301923,0.044869747,-0.010578666,-0.049178455,-0.09058561,-0.061635137,-0.049091257,-0.07017097,0.02868595,-0.07979307,-0.07203652,-0.03092268,0.010287638,-0.015348806,0.05314696,0.044200983,-0.04262488,0.0071297176,-0.013181506,0.061911605,-0.036355272,0.021006078,-0.05788848,-0.0033814013,-0.050460216,-0.021370335,0.038258445,-0.0038973722,0.027442843,-0.07619192,-0.054033354,-0.010808837,-0.04784591,0.07296988,0.06288031,0.0020097198,-0.023871182,-0.043588992,-0.06927866,0.08524525,0.056597542,0.04941132,-0.030181272,0.00023684672,0.023102466,-0.012152647,0.032844532,-0.038292833,-0.0011357354,-0.021733502,0.004882294,0.031410765,0.087117,-0.01620017,-0.058029905,0.042374957,0.011234686,-0.0032368456,0.09932078,0.040484566,0.025879554,-0.030684736,0.0059951493,0.0049061175,-0.0044713384,-0.056534063,0.0043668137,0.035178702,0.05243982,0.062943175,0.026006585,-0.020650454,-0.046619736,0.023090249,-0.014499969,-0.012171783,0.067640856,-0.064465694,0.026989339,0.026028758,-0.072563216,-0.011232833,-0.06480513,0.011557571,0.002240195,-0.015699325,-0.053005345,0.025065498,-0.047398135,0.02150158,0.025747549,0.027314961,-0.03461537,0.028804231,0.054855876,0.049571462,0.025870495,-0.045260906,-0.0045550945,-0.05970371,0.03643517,-0.0074288566,-0.056072436,-0.009616372,0.041236468,-0.030413205,0.038389385,0.04754274,-0.036996767,-0.06435964,-0.017699594,0.0158053,-0.00015784439,0.0083989315,-0.06865705,0.02449751,-0.0105300145,0.02166701,-0.025543455,-0.05830186,0.032585457,0.0009850063,-0.022921707,0.032010414,-0.005480096,-0.05043184,-0.015649507,-0.04226616,-0.009513225,-0.044942223,-0.042194963,0.010878265,0.0359124,0.05410318,0.027734784,-0.021195946,0.011621078,0.068631135,0.010198305,-0.04998736,0.025029821,0.06590729,0.05367527,0.0022887457,-0.03664807,0.008428214,-0.00854586,0.031106625,-0.03585517,0.0349635,-0.017777037,-0.0028961361,0.009969319,0.052003883,-0.04523081,-0.025851911,-0.049672756,0.039749436,-0.057738032,0.049655657,0.038651146,-0.008232697,-0.0038959507,-0.008379263,0.031805657,0.052492987,0.062384546,0.02082326,0.05232034,-0.044397805,-0.02369978,-0.015952295,-0.053658254,-0.025027936,-0.04808357,0.028849192,0.06819174,-0.025980975,0.01943577,-0.021202907,0.020373987,-0.007804371,0.03346756,0.088895895,-0.04034395,-0.044378575,-0.06924006,0.022872582,0.038973227,0.05383504,-0.0135376025,-0.043060243,0.047622208,-0.05626173,0.009481037,0.05299938,-0.011261538,-0.044319756,-0.010993127,-0.058708906,0.023109956,-0.04826431,-0.073421784,-0.004523262,-0.0921834,-0.026832359,-0.06404107,-0.07655487,-0.036328726,0.01487575,0.040213313,-0.033732567,-0.030284462,0.019554853,0.027394412,-0.07399158,-0.071550876,-0.03763671,0.04807874,0.06649421,0.063334025,-0.04773108,0.046078186,0.08171527,0.08922247,0.033277065,0.0003453534,-0.045626666,0.016584843,-0.050484464,-0.022610337,-0.09191286,-0.07089646,0.0061907787,-0.023504175,0.00017705394,-0.10726569,-0.015539854,-0.073716484,-0.0113425655,0.017386436,0.008847717,0.029949257,0.016844988,0.11179853,-0.006231402,-0.016355617,-0.051501803,0.0015125427,-0.06680003,0.004179464,0.035302967,0.020020228,0.11372224,-0.15565285,-0.16636033,-0.009596937,-0.0906839,-0.038085196,-0.03125196,-0.105515234,-0.074102886,-0.08720323,-0.0005369408,0.12480258,0.065640025,-0.0033914782,-0.013475482,0.15406832,0.100401476,0.06501245,0.019104123,0.015411082,0.06271049,-0.09411701,-0.22439463,-0.1004205,-0.12594509,-0.09539115,0.17079575,-0.035166405,-0.18641266,-0.05831055,-0.027037837,0.20292677,0.14558154,-0.031581573,-0.08413299,-0.029859941,0.07367476,0.09019041,0.037802197,-0.028813444,0.0399306,0.04042082,0.051177148,0.023575779,0.07708917,-0.015359686,-0.0034367363,0.124338426,0.20754355,0.06806863,0.056994103,-0.0920783,0.0014138963,0.00334395,-0.0133528765,-0.0094621405,0.012940901,-0.052846633,-0.064348176,-0.044338115,-0.020111192,-0.043885954,-0.0115416795,0.0021921995,-0.08001242,0.014880877,-0.029497718,0.010660704,-0.032096878,-0.0022624135,-0.00998694,-0.13827272,-0.050287686,-0.032260995,-0.00476211,-0.039038748,-0.027173415,-0.11976108,-0.12474563,-0.06346388,0.02578867,0.14124899,-0.012194322,-0.037323073,-0.01828334,0.073845215,0.06591214,0.094153896,0.059220858,0.05841541,-0.023717962,0.009468511,0.06928505,0.03199876,-0.009573826,0.06391719,0.025284013,0.043839935,-0.053841252,0.015667638,-0.016150163,0.021839177,-0.03731785,0.033498447,0.016422272,0.0022980766,-0.0183672,0.0053817662,0.01372033,0.03699568,0.04293187,0.034019202,-0.010608367,-0.004033285,0.03514249,-0.012730851,0.03171269,0.0059290123,-0.037554823,-0.022539606,-0.00032676163,0.045584317,0.024301764,0.0983476,0.009623701,-0.052873284,0.02017182,0.04995796,0.09333023,0.05884555,0.045073945,-0.049835294,0.009641222,0.055652194,-0.025690319,0.016362194,-0.009895524,-0.011738739,0.052087806,0.039714348,-0.03772659,-0.026224222,0.02462813,-0.010746644,0.038138274,0.043064944,0.06302176,0.00408162,-0.008136874,-0.057206344,-0.022032902,0.02117394,0.032888096,0.019264415,-0.024971338,-0.062353462,-0.03989469,-0.016737567,0.027386388,0.0400985,-0.049497448,-0.006198277,0.06221289,-0.059932187,-0.044434182,0.02247226,-0.0009182484,0.055159952,-0.023162022,0.04356549,0.030691141,0.09904062,0.062728286,0.08399434,0.053897377,0.025678826,0.0026048853,-0.060207184,-0.07677523,-0.003356449,-0.01797177,0.12927759,-0.024487017,-0.09829708,-0.063694365,-0.038951144,0.069135144,0.030400196,-0.04879813,-0.07269789,-0.0451173,-0.010802747,-9.672496e-05,-0.037880357,-0.03289887,-0.07090457,-0.1392599,-0.0679958,-0.030877715,-0.007594353,-0.022984793,-0.053137768,-0.0014709125,-0.010552495,-0.016242824,-0.06710161,0.09107991,0.082992494,0.089910775,0.07974509,0.0017410624,0.099352896,0.086680636,-0.0068988204,-0.017010147,-0.03936283,0.14596018,-0.01924345,-0.07652249,0.031401504,-0.046496607,-0.041551672,-0.059459917,-0.023894131,0.035248447,-0.058140002,-0.1134217,-0.1411471,-0.14312375,-0.09423748,-0.054130793,0.0394776,-0.0129094245,-0.06310232,-0.031915158,-0.039663885,-0.015847772,-0.03625401,0.101839356,-0.005080359,0.08772954,0.050902605,0.059809987,-0.043566845,0.04366011,0.032581124,-0.17643435,-0.056961283,0.027456844,0.0059810937,-0.0036293156,-0.18213145,-0.14281653,-0.065101475,-0.05678028,-0.118490554,-0.07626294,-0.08962565,-0.106847525,-0.090657756,-0.053927697,0.038308218,0.01899964,-0.06508156,-0.047966044,-0.0073212385,0.08408766,0.04024856,0.011437297,-0.05996984,-0.05632999,-0.11913635,-0.14082354,-0.10273314,-0.03419023,-0.015124596,-0.07049071,-0.0755328,-0.14959168,-0.027305134,0.033498056,-0.010376204,0.06407941,0.033117544,0.003935699,0.027496634,0.031349085,0.086784095,0.15239522,0.15919617,0.06506456,0.06049957,0.015646916,-0.028044742,0.005711052,-0.0069225165,-0.019083152,0.09243696,0.11293122,0.03188366,0.10253847,0.016317295,0.048026156,0.0047901613,0.021321286,0.044972595,0.021499157,0.0053210896,0.0070522204,0.030968793,-0.03624192,0.018925032,-0.05743627,-0.05043158,0.03168083,-0.00830769,-0.048032336,-0.019269032,-0.007167936,-0.023069298,0.03914663,-0.13120927,-0.052097548,-0.08008732,0.07585886,0.049150985,-0.025862578,-0.02139959,-0.03667963,-0.0037819685,-0.017624209,-0.02071502,0.017582856,-0.036462456,-0.029400721,-0.010702871,0.017573195,-0.008920251,-0.0038001123,0.0018363155,0.054667536,-0.025160035,-0.0028647368,-0.037088107,0.05031352,-0.03671213,-0.002191462,-0.037098024,0.044779584,0.0012998366,-0.07822729,-0.021773025,-0.018173596,0.016635211,-0.032841556,0.037854843,-0.037100505,-0.05234419,-0.028102357,-0.031806916,-0.07675709,0.056784954,-0.027011598,-0.027454048,-0.012759752,-0.073297024,0.0255311,-0.029573804,-0.0041875695,-0.10458843,-0.016445221,-0.01171323,-0.0039544324,0.04777599,0.009825388,0.0012108522,-0.033954278,0.006490095,0.035829928,-0.052780405,0.04353735,0.021998547,0.008286424,-0.048032347,-0.01059114,0.010122387,-0.021605203,-0.008764423,0.038180318,-0.018754594,0.03650874,-0.065716065,-0.053741924,-0.01359529,0.014237879,0.028640648,-0.00044726414,-0.08187026,-0.03118396,-0.026062556,-0.046143997,-0.06959144,0.03653816,0.008271718,-0.017823625,-0.063285336,0.042550687,0.049231116,0.046465296,0.0024495278,0.0329799,0.024416832,0.01833892,-0.006236545,0.0028590208,-0.039650135,0.029073492,0.044947885,0.035133906,0.021643555,-0.012305082,-0.040264253,-0.083288044,0.018952303,0.054204803,0.092175856,-0.05855534,-0.12681782,-0.0664918,-0.038284574,-0.051970076,0.034627248,0.021839624,0.031436343,0.09528499,-0.015847279,-0.027261456,0.10553751,0.14856994,0.110241026,-0.021067372,0.060084052,0.007411153,0.07815978,0.030506799,0.08137282