-0.05648855,0.08875247,0.1391949,-0.21025525,0.15882042,-0.20646407,-0.13526864,0.098920695,0.25034353,-0.17831191,-0.27996832,-0.26706153,0.013038128,0.085218295,-0.14674343,-0.10785105,0.21660283,0.092458546,-0.26659104,-0.034954052,-0.1881647,0.18972851,-0.11057255,0.31015617,0.279701,-0.10787515,-0.18725814,0.22533229,0.029504446,-0.22210233,-0.20125495,-0.0941838,-0.17805573,-0.2221317,-0.05643323,0.021238424,-0.11226332,0.04584311,-0.08102855,-0.07497266,0.29059708,0.28835306,0.16885917,-0.15055582,0.013541059,-0.21158771,-0.072788596,-0.11636766,0.17579792,0.065727405,0.0015105704,-0.1222333,-0.20036928,0.124835394,-0.16231067,0.27689782,-0.04524544,-0.2389573,-0.12389038,-0.14460792,0.007254302,-0.04579057,0.27647832,-0.11496343,-0.14507332,0.11914193,-0.227565,-0.016877176,0.13338768,-0.18080194,-0.1952938,-0.24174254,0.31864554,-0.070997484,-0.18468541,-0.13636947,-0.24456753,-0.053181544,-0.1845097,0.16179132,0.29583544,0.15117864,0.10974711,-0.15701565,0.28638056,-0.118123725,0.18429954,0.19880667,-0.038969945,-0.17849858,-0.019275492,0.02275142,-0.246446,0.103487015,0.14053456,-0.19997284,0.2609068,0.09006261,-0.21456915,0.031339243,-0.19154467,-0.01349965,-0.15329546,-0.14637914,0.15321855,-0.24326593,-0.017659782,-0.067017965,0.14796631,-0.24143751,-0.26120257,-0.10939637,-0.104124546,-0.13044052,-0.037024125,0.20776837,-0.08129531,0.034102876,-0.11219367,-0.09311193,-0.15588214,-0.17500584,-0.05782139,-0.02786423,0.091143206,0.22695982,-0.122985035,0.14332071,0.19893903,-0.000688789,0.019264026,0.1373696,0.20486094,0.08391911,-0.08482488,0.16251403,0.2955938,0.25419748,-0.16671109,0.057609994,-0.08773133,-0.1132662,0.17498985,-0.11746166,0.16659266,-0.022952158,0.059486117,-0.19305268,0.22898942,0.26123947,0.001787471,0.17003052,-0.1467751,-0.0072169974,0.17865261,-0.0748711,-0.118523926,0.14799947,-0.07771905,-0.023367304,0.2254549,-0.08823991,-0.1609534,-0.055052105,-0.043247763,-0.021406574,-0.2193967,0.10826454,0.14025967,0.19034535,0.111956574,-0.13253649,-0.14944418,0.16209115,-0.052866284,-0.12774402,-0.22647376,-0.0011807112,0.12630524,-0.0804296,-0.11867464,-0.18938157,0.18437466,-0.025330836,-0.14408188,0.17066729,0.2985618,-0.09459709,0.27291417,0.18079476,-0.13291317,-0.22572337,-0.20967919,-0.12809166,0.140634,0.16107167,0.24948287,0.08538448,-0.053237673,-0.16486886,0.33308318,-0.18149038,0.14202988,-0.0021540343,-0.24755515,0.010474262,-0.14615655,-0.23145653,-0.124592006,0.15951596,-0.14339234,0.3404891,0.20824762,-0.10037197,-0.08369191,-0.18731752,0.13566923,-0.07363751,0.19120327,0.27607355,0.15366517,-0.19399427,-0.02471618,-0.08236354,-0.18365534,0.23807365,0.19741642,-0.020375786,-0.053293478,0.12751949,0.2858305,-0.10713776,-0.11627139,0.18598002,-0.063123345,-0.32710686,-0.1289657,-0.11852897,-0.14421232,0.062445827,-0.03499663,-0.048572667,0.2579334,0.04301926,-0.38191813,0.14983603,-0.14152925,0.042296104,-0.16998628,-0.029507916,-0.0006616788,0.18133296,0.16247526,-0.21904452,0.05672498,0.20540257,0.10539106,0.12878904,-0.13089822,0.20512117,0.21845362,-0.0059719924,-0.007981877,0.16158251,-0.15493758,-0.07346094,-0.18615699,0.032828372,-0.10468016,0.10396762,0.1674372,0.23286195,-0.032489303,-0.026419168,0.15734418,-0.21530461,0.09835302,-0.01618374,0.0086001195,-0.2262033,0.089515984,-0.13006836,-0.09519413,0.0060186707,-0.09513549,-0.26722968,0.07573092,-0.18224715,0.28490975,0.095033266,0.23446868,0.0002704131,-0.18773755,0.20567378,0.035567887,-0.13264912,-0.10315355,-0.21181197,-0.2225191,-0.17776552,-0.14589094,0.047848254,0.17011015,-0.3028707,-0.20793104,0.17458937,-0.01663194,-0.15595986,0.1462128,0.22274108,-0.048138876,0.26291907,0.019026186,0.053566325,-0.15759008,0.29890198,-0.18084678,-0.08969204,-0.2274386,-0.026922476,-0.37911943,0.17130701,0.056949165,0.19286343,0.24625897,0.08997354,0.12624277,-0.10419232,-0.19181365,-0.28187445,0.2676227,-0.13812311,-0.106872484,0.25778228,0.21167724,-0.25858998,-0.085849084,0.14659569,-0.064829946,0.1262634,0.21363239,-0.0066618454,0.23273039,-0.23672326,0.09261328,-0.27522194,-0.08693049,-0.2674463,-0.17405449,0.18191996,0.110250615,0.16766748,-0.1258041,0.25694552,0.06660625,-0.08870638,-0.03868296,-0.019049026,-0.21609698,-0.18346223,-0.25535378,-0.16875765,-0.17089836,-0.1453392,0.24266131,-0.09344851,-0.13521954,-0.0036373895,-0.16033787,-0.12398231,0.15847553,-0.1256,-0.06385296,-0.104700245,-0.11884681,-0.011821486,-0.059219867,0.19682589,-0.15162046,0.2607617,0.0027352353,0.18494007,0.25846905,-0.07459825,-0.026852058,0.15783194,-0.08008877,-0.08274461,-0.21372333,-0.09027638,-0.13999607,0.24188058,0.05946454,-0.07574295,-0.1148709,0.24925609,-0.047719624,0.14530125,0.10217703,-0.18481775,0.018202396,-0.029133257,-0.112919845,-0.14852701,0.18957841,0.1829616,0.005965292,-0.15772974,0.21623431,0.2097247,0.15931977,-0.014072123,0.09395853,-0.040464398,-0.026702294,0.0057544406,-0.028445238,-0.035857484,-0.20440489,-0.12732317,0.19014005,0.062782936,-0.034846283,-0.08417306,-0.10547882,-0.030711517,0.13022278,0.15115185,0.29185492,0.11548627,0.030518612,0.16067335,-0.023015538,-0.0781423,-0.048693113,0.16764437,0.057736088,-0.06539166,0.29810113,-0.07522929,0.020548105,-0.116493545,-0.030153455,0.251876,0.19675717,-0.092988834,-0.030581115,-0.1512941,-0.086327255,0.21286504,0.32505614,-0.15813684,0.09542987,0.20704477,-0.09123767,0.053108927,0.07708572,0.10633933,-0.10803472,0.16449809,0.090583146,0.101742014,-0.28682807,0.15511084,0.21450496,-0.017065542,0.15783158,-0.056568097,0.041682746,0.2382619,0.18915434,0.18165119,0.009999082,0.06884303,-0.08274614,0.046755344,-0.04715443,-0.04248612,0.22267018,0.15139467,-0.1422368,-0.12131477,-0.2235004,-0.16580163,0.02112199,-0.09660412,-0.11552129,-0.25456774,-0.049730837,-0.11878223,-0.13025038,-0.04832528,-0.057369765,0.25009656,-0.2569869,0.11550591,-0.19031075,0.14287277,-0.082498364,-0.13153003