-0.09832469,0.1141731,0.10945172,-0.23631957,0.19338049,-0.25992006,-0.16157226,0.15424602,0.27348155,-0.13578545,-0.2822625,-0.28490043,-0.061394364,0.12801632,-0.18268839,-0.10361447,0.21460086,0.013148226,-0.30157587,-0.06960165,-0.22543316,0.2210671,-0.121084616,0.3689696,0.30990735,-0.13325907,-0.23059015,0.3626491,0.037823454,-0.23754226,-0.21630359,-0.14670475,-0.2033284,-0.22698435,-0.11249704,-0.010294893,-0.14139661,0.051316753,-0.11383182,-0.1877475,0.28803352,0.31817365,0.15637732,-0.19583508,-0.0049848226,-0.26007533,-0.12874435,-0.16038181,0.1630331,0.11998734,-0.019907003,-0.1663664,-0.25081167,0.22894824,-0.18024813,0.27532417,-0.13608208,-0.26650706,-0.107859395,-0.1961661,-0.017148444,-0.07699108,0.28764787,-0.15279354,-0.17594364,0.18706693,-0.2455183,-0.04888371,0.22591586,-0.1976333,-0.2752697,-0.26501018,0.39687067,-0.1074845,-0.1426594,-0.097068295,-0.2026889,-0.09940772,-0.20605573,0.26365477,0.30592197,0.1492524,0.22517662,-0.19398932,0.2791748,-0.08808849,0.28313127,0.26370743,-0.07407824,-0.14426097,-0.05316632,0.06282699,-0.23148315,0.12655674,0.14231312,-0.24482113,0.28550676,0.16172771,-0.17578153,0.01995435,-0.19321032,-0.00128585,-0.2028088,-0.09772651,0.20469847,-0.2619564,-0.11839209,-0.105224535,0.20236796,-0.27234244,-0.29982507,-0.07764263,-0.08222431,-0.1617264,0.001644915,0.2887139,-0.033369664,0.15432273,-0.115063876,-0.11526876,-0.19321111,-0.21264282,-0.061823517,-0.017318048,0.009269948,0.35682648,-0.1748943,0.15344776,0.26322582,-0.03175392,0.046039037,0.19075955,0.28702316,0.1287966,-0.054464366,0.21911015,0.33097813,0.2385992,-0.1559813,0.0848376,-0.13109878,-0.112690255,0.21223955,-0.19211683,0.20307478,0.13296182,0.09862369,-0.1832268,0.246072,0.22789599,-0.06660401,0.20109956,-0.1426896,-0.040520065,0.19455709,-0.10048206,-0.17528,0.15018088,-0.074200176,-0.018379034,0.22589886,-0.112311155,-0.24282978,-0.09679006,-0.011249337,-0.06214018,-0.2792579,0.1454597,0.1548353,0.17841431,0.16849612,-0.124956265,-0.16585152,0.13582627,-0.049878307,-0.16099212,-0.2542607,-0.024880975,0.16183253,-0.14945292,-0.1489015,-0.074697606,0.19317807,-0.05582333,-0.13202858,0.1938803,0.22010982,-0.10545324,0.19249313,0.15412506,-0.084828965,-0.21322137,-0.17065313,-0.07139836,0.20921163,0.14872417,0.2625569,0.097310774,-0.12386921,-0.10420291,0.3027336,-0.27086848,0.2042084,0.022603238,-0.3160649,0.04347491,-0.16408463,-0.20275621,-0.163082,0.17084643,-0.1229802,0.33762345,0.23531137,-0.08003658,-0.14440562,-0.15621032,0.14060502,-0.14800449,0.23915051,0.35302636,0.20433132,-0.19896986,-0.033296186,-0.085715435,-0.24828106,0.2918856,0.25839943,-0.07607881,-0.11444726,0.16034746,0.3213635,-0.064506434,-0.10374778,0.18340953,-0.05412108,-0.35075897,-0.08952363,-0.057962548,-0.17012905,0.11298992,-0.091159165,-0.07610176,0.21118711,0.08691109,-0.4220473,0.24607368,-0.16807291,0.021164645,-0.16052018,-0.04321061,-0.028887128,0.21829234,0.17893007,-0.24947606,-0.0028925803,0.27608544,0.17658818,0.13813156,-0.14138876,0.16345875,0.22931793,-0.021424884,0.028813064,0.24049959,-0.18665008,-0.14759818,-0.20940128,0.0812227,-0.13555324,0.10786516,0.21967593,0.13776329,-0.011611601,-0.103139676,0.17147899,-0.22792101,0.029613646,-0.06419094,-0.025592603,-0.25379777,-0.007537538,-0.16337945,-0.17010368,-0.04412447,-0.1249376,-0.3115979,0.0690252,-0.21048893,0.31043968,0.15607378,0.25954914,-0.078727506,-0.24107361,0.23132242,0.039183494,-0.15042724,-0.082619324,-0.25797918,-0.28827748,-0.1221465,-0.18363918,0.045888253,0.19829898,-0.31415257,-0.19667158,0.24716972,-0.06295042,-0.23193613,0.14676239,0.2450549,-0.0045616953,0.31338507,-0.02509757,0.051428728,-0.17778225,0.27920744,-0.13694195,-0.16129786,-0.2268661,-0.09716758,-0.4065167,0.21727736,0.05609997,0.29854688,0.30147254,0.025213331,0.1729913,-0.12218492,-0.21697013,-0.30946916,0.32167554,-0.19899121,-0.1385108,0.3279501,0.34200543,-0.30249518,-0.0838857,0.15440908,-0.03859683,0.1990866,0.24313596,0.034313746,0.3113546,-0.19144996,0.11847275,-0.30931962,-0.056132264,-0.3110639,-0.1765711,0.09984619,0.20517442,0.1535251,-0.15161872,0.21034954,0.061575137,-0.15286374,0.1736477,-0.028470043,-0.27926347,-0.2079766,-0.25613508,-0.18155798,-0.20874761,-0.100523464,0.30511147,-0.09324903,-0.13684018,0.16633318,-0.18120278,-0.13907042,0.15561624,-0.05866074,-0.093634546,-0.14163929,-0.10515125,-0.022603882,-0.022395473,0.26743045,-0.1199955,0.23256409,-0.01660185,0.16588683,0.23193967,-0.10230575,-0.07680761,0.19094624,0.019591657,-0.14383148,-0.18973354,-0.07966814,-0.1685885,0.28292972,0.036976922,-0.1007916,-0.11989193,0.1868694,-0.021177076,0.14768718,0.2594725,-0.16262266,0.08030923,-0.09815144,-0.1479005,-0.19090453,0.22340855,0.17787698,0.015061272,-0.1557144,0.25627252,0.27076668,0.18846841,-0.018419923,0.15741955,-0.08132247,-0.0058916635,-0.011215545,-0.050768018,-0.089686245,-0.2275803,-0.13298187,0.18322302,0.07349092,-0.039856993,-0.05687566,-0.063654505,-0.0755099,0.15003821,0.16116047,0.28770962,0.11315537,0.043078173,0.165218,-0.1120911,-0.015854558,-0.07158005,0.26907963,-0.050961845,-0.096529864,0.33754015,-0.10764676,0.032646775,-0.1786035,-0.025299847,0.24284662,0.19770007,-0.15583748,-0.09050601,-0.15652272,-0.089803785,0.22874509,0.39766043,-0.045168392,0.17501575,0.21957545,-0.087176256,0.045417458,0.123337485,0.15992787,-0.13356663,0.17093685,0.052238323,0.12810056,-0.20893487,0.12209423,0.24001084,-0.049944717,0.1880693,-0.121228874,-0.0011732674,0.3339709,0.2214564,0.18009275,-0.0139609035,0.046265975,-0.13633554,0.015364174,-0.061637163,-0.07891366,0.22910725,0.2179509,-0.11957874,-0.16888493,-0.19499405,-0.19039412,0.0052916096,-0.19753759,-0.16783476,-0.24639997,-0.0014042394,-0.20340215,-0.08044069,-0.044688284,-0.09703435,0.20953283,-0.33056617,0.1461474,-0.20257357,0.20722748,-0.14998125,-0.19964638