-0.11427953,0.041234765,-0.21438491,-0.09062015,0.07805873,0.23597778,0.24828635,0.2763235,-0.22152033,-0.19300863,0.26254064,-0.07441963,-0.1377192,0.28653458,-0.049183473,0.23695242,0.16298991,-0.21810527,-0.13676903,-0.24553718,-0.04658506,-0.12411838,0.098010466,-0.10946405,0.28328204,-0.057096567,0.06345078,0.29548535,0.26554924,-0.29903406,-0.13752182,0.24779275,0.05508257,-0.16663286,-0.14380187,-0.14971814,-0.065790735,0.3194516,-0.09951052,0.2752664,-0.2162097,-0.17140928,-0.20960931,-0.17366806,-0.225995,-0.0031686977,-0.17291075,-0.015592867,-0.01475956,0.23512511,-0.28477684,0.20241162,-0.18806823,-0.18119918,0.0011835068,-0.11919646,-0.06378898,-0.0659708,-0.28122744,0.20254938,-0.16311291,0.22460622,-0.017757816,-0.21381512,0.075588435,-0.24705638,-0.29930276,0.24844125,0.2777139,0.30049643,0.016136808,-0.29846463,-0.3111336,-0.02329645,0.020202972,0.1662828,0.19867164,-0.076405935,-0.1835235,0.24735634,0.14795467,-0.124455996,-0.037538715,0.29034606,-0.09145655,-0.2759351,0.2567913,-0.20211467,-0.18304236,-0.29981965,0.20225634,0.15950008,-0.021194775,-0.04990478,0.33309516,-0.09016419,0.23505646,0.22896196,-0.106820084,-0.19414985,-0.1230029,-0.26249853,0.02927097,-0.12146965,-0.20486139,0.17320502,0.15686612,0.21652749,-0.20504177,0.29334053,-0.090216644,0.2063768,-0.1351459,-0.1913238,-0.16092092,0.2342385,0.16995725,-0.2617687,-0.051642742,0.20766063,-0.1205205,0.22939251,-0.011968964,0.115354,0.30184758,-0.1912289,0.28376254,-0.09483962,-0.14333887,-0.1675267,-0.05576296,0.17244467,0.04413266,0.1818813,0.20791197,0.066588685,0.25941053,0.032705646,-0.14478685,0.09775146,0.22821797,-0.11970704,0.018162606,0.18347208,-0.084309116,-0.19309188,0.3286527,-0.18448105,0.22626446,-0.19038334,-0.19385414,0.27360862,0.22503522,-0.20223272,-0.072518215,0.26538283,-0.074249774,-0.14045809,-0.11067393,0.3132013,0.24268688,0.067409396,-0.15608932,-0.09449225,0.030204194,0.041081585,0.17083049,-0.17719087,-0.20476623,-0.09254325,-0.04702334,0.16270915,-0.21216173,-0.1495804,0.07617265,0.2036195,0.07318712,0.1370877,-0.1462169,0.20624925,-0.041816633,-0.11559647,-0.10504012,-0.14069515,0.25403073,-0.031992603,-0.13607123,-0.03530087,0.30794498,-0.21394894,-0.07075969,0.17575222,0.2703282,0.21599483,-0.035763025,0.33201084,0.08175837,-0.20178725,0.19628939,-0.19734985,0.2472103,-0.2020283,-0.0946387,0.34813446,-0.037604272,-0.32723695,-0.07901589,-0.054612495,0.20780507,-0.14470507,-0.091782436,0.1778777,0.21598877,-0.25985065,-0.07345928,-0.2225996,-0.27494875,0.18585691,0.31566858,-0.022716088,-0.07194452,-0.09876324,0.2603589,0.27148032,-0.142744,-0.17630816,-0.15915827,-0.16549073,-0.13348527,0.3255155,-0.02220878,0.14408997,0.33439818,0.09497207,0.041007526,0.034253985,-0.16861568,-0.014059676,-0.011689753,0.28105715,-0.07571478,0.2053931,-0.09208256,-0.114731215,-0.18257627,-0.13632476,-0.10396972,0.18491355,0.2770848,-0.09467623,0.14629859,0.23194999,0.22694057,-0.04912277,0.30087733,0.07421258,-0.05354675,-0.0844853,0.10409388,-0.13256732,-0.03926436,-0.21977149,0.25802627,0.17723726,0.335665,-0.08285409,-0.16545705,0.1973325,-0.0751156,-0.15074424,0.31853274,-0.03008206,-0.257875,0.05089114,-0.13491733,0.21955833,-0.14239785,0.19231103,0.27228352,-0.11687681,0.12386896,-0.13852593,-0.013479009,-0.14780444,-0.02375603,-0.19891563,0.05033128,-0.08105978,0.17482427,-0.012648282,-0.10259486,0.013891998,0.28171054,0.15097518,-0.02626537,0.37366027,-0.12061132,-0.010036645,-0.25015748,0.175857,-0.24108173,0.12728287,0.23272829,-0.058260214,0.35974348,-0.26176727,-0.08513687,-0.15815279,-0.2633873,-0.072547406,0.118547,-0.13523048,0.116169974,0.054384552,0.028289689,-0.28226715,-0.32951382,-0.07621652,0.28948903,0.19481814,0.27925757,-0.17872036,0.2292457,0.25976717,-0.20223676,-0.09088598,-0.24800803,-0.17199886,0.30694067,-0.18278506,0.05519988,0.2345845,-0.13065888,0.14720583,-0.1237325,-0.22193804,-0.079397924,0.27826837,-0.25824487,0.32890722,-0.18052794,-0.2836625,-0.19181001,-0.2580742,-0.19989762,-0.20586962,-0.24435699,0.085569784,-0.1459244,0.2474668,0.1752993,-0.28699955,-0.18482439,-0.012543985,-0.27549085,0.17028949,-0.049902674,-0.052499816,0.19312671,0.07879192,-0.17635186,0.20035951,-0.05201948,0.16490802,-0.18829116,0.20976235,-0.051766127,0.007734802,-0.12855187,-0.07184684,-0.34085658,0.058675285,0.25567418,-0.18780075,0.2874353,0.13492164,0.2868107,0.29055604,-0.1913839,0.014539745,-0.12802926,-0.1677854,-0.16928813,-0.1711052,0.21099764,0.27424395,-0.03585262,-0.18273559,0.23328401,-0.21744134,0.23411623,0.1860059,-0.1896396,0.016907874,0.321801,0.137881,0.21709874,-0.14325157,-0.13272707,-0.10035306,0.15078837,0.19355029,0.16600086,-0.11741946,-0.08644048,0.24268258,0.037198808,-0.23015866,0.0308078,0.30256596,0.046727818,-0.23047984,0.20102206,-0.039614026,-0.08702999,0.1999968,0.23803017,-0.081958525,0.08384318,-0.060811024,0.2906729,0.24871966,-0.11612313,0.19496225,0.016242635,-0.23311947,-0.0017328794,-0.15134965,0.22917935,0.026622096,-0.10671674,-0.15615869,-0.21955703,0.15432222,0.0036020158,0.2886455,0.23628156,-0.20955533,-0.09577251,-0.107090995,0.14980152,-0.18356904,-0.12010766,-0.0802741,-0.07377235,-0.01507733,0.026493236,0.2957578,0.056637585,-0.09010979,0.2877988,-0.029622417,-0.13298059,0.33907405,-0.16222414,0.21089023,-0.054072764,0.02584612,0.2120205,-0.1573986,-0.15578198,-0.20554791,-0.21172723,-0.032038413,0.050129622,-0.06382802,0.120600946,0.17789073,-0.17221405,-0.1720062,0.02442647,0.22076364,0.23249096,-0.21009617,-0.029596493,0.030601587,-0.1602721,0.006433611,0.07684349,0.27496552,-0.10409494,0.06263776,0.2374835,-0.18526629,-0.12163841,0.30564654,-0.28206125,-0.08148972,0.24195951,0.07790831,0.17506856,0.18036129,0.02847882,-0.05709979,-0.014356753,0.2674309,-0.26278096,0.272011,-0.06883727,0.18632609