0.11446725,0.0074429777,-0.40200436,-0.03225258,0.17342016,-0.0519303,0.08352921,0.22093774,0.16345775,-0.0061315536,0.20862241,0.19150445,0.083526425,-0.06334557,0.051466655,-0.008613855,-0.19159386,0.0923675,0.20662233,-0.06131895,-0.28932598,-0.1878381,-0.33704734,-0.16953936,-0.16468324,0.21698073,-0.0075016264,0.24443346,-0.007094816,0.24108021,-0.06482964,-0.13709536,-0.081169784,0.030159444,0.07572652,-0.083994836,-0.1799789,-0.12556545,-0.189235,0.13633902,-0.07264714,-0.1016599,0.004325551,-0.2476179,-0.09912629,-0.008189531,0.07085412,0.09777128,0.021410601,-0.058332916,-0.023115216,-0.19184703,-0.25923312,-0.33820522,-0.15647964,-0.21984455,-0.016557245,-0.29286066,0.04656789,0.034703493,-0.21899363,-0.14339057,-0.15459299,0.029188449,0.13755722,0.068165556,0.05231139,0.011382345,-0.06345527,0.28341696,-0.13813408,-0.0882878,0.112467155,0.24492358,0.3879812,-0.19095774,-0.16136885,-0.018387994,0.118675075,0.1185714,-0.12815276,-0.03663148,0.24198799,0.26283324,-0.28192174,-0.1761237,0.04107721,0.35444897,-0.038062897,-0.27910057,0.014330591,0.23700398,0.059405707,-0.1763358,-0.12896407,-0.0011635218,0.028969266,-0.1741174,0.005902275,-0.085513666,-0.09927172,0.03112718,0.26371345,0.1839678,-0.08590353,-0.31531188,-0.24658974,0.1117218,0.14809777,0.17026813,-0.28739667,-0.07125467,0.05307316,0.2517115,0.032042798,-0.1336976,0.09229734,-0.11117252,0.22479896,-0.061166205,0.07776588,-0.090500034,-0.048224118,0.13610646,-0.075101584,0.1473494,0.17286947,0.1563451,-0.055504005,0.05598983,0.2389066,0.019955179,-0.122853436,-0.10125781,-0.29537362,0.27648994,0.10307339,0.06083331,0.07374081,-0.1860811,-0.07036295,0.114712745,-0.1296457,-0.14857814,-0.16320586,0.06730629,0.07095155,0.0024153658,-0.017536221,-0.23015988,-0.015923033,0.068860464,0.29943913,0.3100064,0.33783165,-0.04905649,0.12082936,0.37769085,0.2436418,0.28964713,-0.3482665,-0.30652973,-0.18760926,-0.1585392,-0.273129,-0.3411232,-0.37632385,-0.30420515,-0.3203389,-0.3244092,0.14494127,0.04378442,-0.19736575,-0.18004523,-0.05817115,0.044512272,0.17588434,0.061573945,0.012254346,-0.42221266,-0.08536787,-0.02004963,0.18620814,0.41561255,0.10562377,-0.18079962,-0.24210787,0.005132034,0.3124164,0.29746267,0.09547204,0.07788861,-0.21439928,-0.08022343,0.24462536,0.042614672,-0.0022560244,-0.31941885,-0.20107453,0.027587462,-0.05280846,-0.00015335048,0.28462407,0.052502796,-0.34343264,-0.04221256,0.2669777,0.09196148,-0.20421351,-0.3171557,0.17919369,0.018510342,-0.14630367,-0.06294167,-0.1711826,-0.081661336,0.040617816,-0.063902564,-0.23498805,-0.06231214,-0.13933536,-0.090915516,-0.16115823,-0.07829844,0.095715515,-0.002634866,-0.050929267,-0.2452023,-0.3639422,-0.1509682,-0.019548254,-0.25859067,-0.026644534,-0.13817868,0.01524833,-0.20263745,0.034380473,0.32597476,0.27098316,0.14425452,0.20275174,0.41281444,0.36889628,0.18608013,0.042944666,0.19238979,-0.1927796,-0.40682536,-0.19052269,0.100590825