-0.0011330972,0.08570902,0.07398712,0.046197362,0.07687395,0.05319225,-0.002610759,0.016469466,0.0643235,0.02401531,-0.0049248533,-0.08202619,-0.004027497,0.018550957,-0.0034926303,-0.02495897,-0.0352463,0.024136016,-0.04221842,-0.072114386,0.033166327,-0.035558492,-0.03574126,0.015128441,0.029457195,-0.08600817,0.04401091,0.04569014,0.015706453,0.047639694,-0.025472103,0.058380276,0.04113257,0.032875214,-0.00775528,-0.07734893,0.019004649,0.028009405,0.046422046,0.052979264,-0.06790868,-0.038200922,-0.046415027,0.038739987,0.0056370036,0.059958782,-0.0038541325,-0.033146705,0.027598578,-0.049116895,-0.0014172408,-0.043970544,-0.07420448,-0.038198892,0.032899465,-0.033814732,-0.00075750705,-0.014285468,-0.08032847,-0.036214393,0.008377545,-0.07648816,-0.05144229,-0.07881766,0.010945705,-0.06716495,-0.029779326,-0.015876185,-0.034752436,-0.006885084,-0.040353697,-0.07710441,-0.076955624,-0.06413362,0.039530087,-0.030131457,-0.054341044,0.062889405,-0.029327549,0.073531166,0.019704372,-0.076311335,0.014804588,-0.015123745,-0.024588224,-0.051242195,-0.062189262,-0.027881201,-0.07571585,-0.048476476,-0.035773464,-0.035878588,-0.06888115,-0.020743998,-0.028598461,0.0014670156,0.006686343,0.007879535,-0.06433518,-0.033364296,-0.008823465,-0.06561139,-0.027282247,-0.003850497,0.04957697,0.010473413,-0.05430569,-0.09248241,0.01656113,-0.0046347557,0.034903463,-0.051530436,-0.07037877,-0.11889306,-0.0904287,0.070910506,-0.019303082,-0.06690939,-0.015156648,-0.04317157,0.1124292,-0.030037815,-0.005251683,0.0325164,-0.018635761,0.06249784,-0.002549412,0.043872904,-0.011303242,0.019172719,0.1345394,0.0434984,-0.043801986,0.006501997,0.01803717,0.058724813,0.062606275,-0.05826976,0.0012046436,-0.06263871,0.104001224,0.10482195,-0.08591307,-0.05176991,0.0045294235,0.051943485,0.114986524,-0.015913848,-0.015205173,-0.07338582,-0.061488498,0.045128938,0.056867547,-0.006624239,0.027316382,-0.022090206,0.0911968,0.10228277,0.108586356,0.030529343,-0.093793906,-0.010658862,-0.045211937,0.023699122,-8.2546576e-05,0.023743872,-0.014038887,0.05655093,0.019552527,-0.06920933,-0.0113879945,-0.004166182,0.05592569,-0.012857311,-0.045845136,0.01584036,0.086342305,0.057000004,0.020316467,-0.024673786,-0.046373896,-0.047820956,0.034905214,-0.042758606,-0.042913187,-0.052088257,-0.07078399,-0.0043317997,-0.06265858,-8.4042964e-05,0.077465855,-0.058574457,0.042125154,-0.060087062,-0.07500562,0.033371612,0.024967426,-0.03449851,0.043567978,-0.010674266,-0.053771075,-0.05351634,-0.012767305,0.0058221654,0.01102149,0.01917288,0.054126337,-0.039617155,-0.013436061,0.0739592,-0.062422216,-0.026868593,-0.07070966,-0.0052731996,-0.06659793,-0.054830287,0.0044053104,-0.05229568,0.023597391,-0.018682951,0.026236532,-0.016640585,-0.032780312,-0.041652128,-0.058601975,0.13121288,0.11854904,0.036195654,0.067801274,0.05325649,-0.09167693,-0.06782832,-0.11855122,-0.06605583,-0.050264284,-0.044702243,-0.09233248,-0.056420922,-0.077195786,-0.055701897,-0.08280844,-0.065899745,-0.063382715,-0.11715506,-0.04416229,-0.12230495,-0.053094193,-0.082513504,-0.10469715,-0.08253084,0.04160167,0.029438471,-0.044855725,-0.013160731,-0.012348702,-0.07788374,-0.050380472,0.011758789,0.063162036,-0.066130534,-0.06412447,-0.0730221,-0.0495446,0.0039852355,-0.024370752,0.06385014,-0.072460406,-0.02802698,-0.083849065,-0.061318748,-0.06812643,-0.060007,6.678163e-05,-0.008495302,0.05795779,0.019951912,0.050683904,0.022233643,0.030373506,-0.09511585,0.03376923,-0.006207591,-0.019196285,-0.07058256,-0.057515383,-0.0877146,0.009068845,-0.023013514,-0.0829987,-0.01359528,0.010786989,-0.06296957,-0.035544068,-0.013848761,0.060845245,0.048856948,0.06632623,-0.03899915,-0.11155856,-0.033206765,0.004830532,-0.13188557,-0.14608824,-0.06019066,-0.07196784,-0.08251058,-0.02602253,0.09615419,-0.09622111,-0.06225371,0.02675164,0.12668811,0.05970944,-0.12420844,0.030157924,0.0075000357,0.12820137,-0.112777546,-0.20805417,-0.011467234,-4.4604254e-05,0.055418286,-0.10522241,0.057724368,0.13564716,0.041887283,-0.039243624,-0.08338187,-0.0018429605,0.06984453,-0.12882052,0.09713529,0.07848676,0.13173187,0.0992081,-0.035974342,0.095950834,0.14949211,0.13389863,-0.035516597,-0.038343903,0.002161518,0.10206507,0.016200872,0.017727396,-0.09455934,-0.029090105,-0.08491093,-0.11902118,-0.02500269,0.11492668,0.051890995,-0.06289834,-0.08443723,0.1093702,0.11198389,0.1261635,0.16624972,0.011767079,0.045498513,-0.016276928,0.12557307,0.15419853,0.04770532,-0.13664067,-0.07680403,0.059513908,0.12201657,-0.05214112,-0.028759053,-0.16419673,0.005038224,0.049345918,0.011362827,0.054010455,-0.057680793,0.024131585,0.10841989,-0.0095550325,-0.03983238,-0.12160776,-0.056985516,0.1566829,0.04941097,0.0059060813,-0.24211207,0.04550765,0.13461323,0.19008754,0.020895606,0.027899837,0.11723008,0.045902267,0.041317977,0.07098872,0.0316565,-0.006838134,0.0015285686,-0.058056645,-0.00081567274,-0.003420985,0.013947723,-0.017003065,-0.13177681,-0.05297221,-0.042993445,-0.12571706,-0.15347677,-0.12175406,-0.04187017,-0.13040875,-0.1556971,-0.118021026,-0.106824405,0.005669113,-0.019347753,-0.2441496,-0.13986075,-0.076804444,-0.0056999773,0.07282249,-0.102212265,0.04691889,-0.04991299,-0.043735586,0.15394329,0.03441842,0.0677693,0.03503578,0.012486892,0.014214534,0.063915975,0.08268982,-0.014194862,-0.13535139,-0.13343342,-0.022528583,0.007272468,0.00079309195,0.008154031,-0.10221955,-0.044696484,0.0382433,0.0106207235,0.036110576,0.0023081678,0.032199893,0.10031369,0.05348405,0.04524044,0.0052015744,-0.08513417,-0.042090114,-0.056313172,0.02993751,0.042599175,0.058823384,-0.0045493343,-0.0005042248,0.11218587,-0.010159249,0.01490371,0.05779167,0.10272778,0.04084638,0.090352066,0.10384464,0.07982338,-0.055138912,-0.040512744,0.059814796,-0.046640724,-0.048363965,-0.13860653,-0.008880971,-0.09646059,-0.024363883,-0.05215863,-0.15855096,-0.062372714,-0.0120350495,0.112550385,-0.0029355658,-0.023431798,-0.04061427,-0.0052551334,0.051733393,0.028689627,-0.0036298118,-0.09625172,0.12817869,-0.026059756,-0.1260421,-0.064556606,-0.03868763,-0.04018086,-0.0905037,-0.069500394,0.18596727,0.20196043,0.02423149,-0.01944599,0.0014828239,-0.004501718,-0.072179236,0.06243426,0.03397688,0.019706296,-0.059024084,0.030102009,0.016290314,-0.018500945,-0.10191611,-0.02574223,0.0077653923,0.016565615,-0.047609743,-0.041237745,-0.019578349,0.025496567,-0.07454569,-0.11786953,-0.10619517,-0.030812267,0.10335934,0.051799964,-0.0036221202,-0.062740944,0.018971793,-0.062311262,-0.019771457,0.017172592,-0.059877094,0.024276631,-0.048705086,-0.061472014,0.008507535,-0.009035128,-0.04869458,-0.058246013,-0.025853682,0.0069843954,0.028353686,0.047396593,-0.016240273,-0.075674534,0.0628535,0.0866972,0.09914655,0.0025990212,-0.06554405,0.020663735,0.07807516,0.030986952,0.10333125,-0.014962789,0.025922794,0.0527781,0.12630828,0.029095164,-0.06591984,0.033179767,0.09471389,-0.047327686,-0.21549074,-0.03232949,0.0063142274,-0.00741472,-0.06411997,-0.13433824,0.07609113,0.06307299,0.0010685523,-0.063476466,-0.14227529,0.03659359,0.06446442,-0.10824156,-0.0068607097,0.032157224,0.08576718,-0.035675623,0.010306154,0.16628763,0.12040719,-0.0010466287,-0.081408285,-0.012891321,0.15195484,-0.01954712,-0.03340056,-0.14880906,-0.031777043,-0.06770726,-0.060703073,-0.062206406,-0.027983155,-0.09753397,-0.12230964,0.010684347,0.031805523,-0.044226315,-0.055257447,0.059572168,0.10757185,-0.0038557858,-0.063341714,-0.040978916,0.13930334,0.057883166,-0.13848518,-0.084340796,0.08937779,0.11124822,-0.019826964,-0.06577046,-0.102927856,-0.012545649,0.10362816,0.047247935,-0.07922692,-0.070269346,-0.038848717,0.11054215,-0.012305997,0.022090888,0.049234334,-0.06473026,-0.0769888,0.014152719,-0.019238595,0.07301366,-0.048264768,0.09958418,0.08971467,-0.0011452633,0.07015354,-0.07323619,0.08133244,0.106576405,0.05071883,0.0016750145,-0.10473332,0.0150035545,0.020652153,0.0444575,-0.09779254,-0.051387507,0.0054766093,0.05761787,0.08640647,0.08146519,0.016668947,-0.05724456,-0.14134365,0.054841038,-0.05573075,-0.09940952,-0.17725956,0.023693534,0.0107694855,-0.013361683,-0.19579156,-0.100105375,-0.12477712,-0.116047844,-0.076534264,-0.06064554,-0.0639966,0.17974405,-0.16438533,-0.10354962,-0.07081831,0.062189303,0.10471077,-0.02092403,0.004321415,-0.114415,-0.07367972,0.10155365,0.024173772,-0.0478246,-0.0017466891,-0.087480396,-0.05845292,-0.053314988,0.00057520054,0.024617966,-0.06842905,0.03483759,-0.12638597,-0.010056137,0.0022546547,0.000522115,-0.014602219,-0.13200518,-0.16418554,0.05321255,0.04861871,-0.086239815,-0.007878152,-0.0014330285,-0.049117927,0.0499312,-0.06608013,0.0043324977,0.122132435,-0.055404607,-0.034922186,0.005695805,0.059799362,0.0063264472,0.0035621019,0.055697497,-0.04544752,0.042960823,-0.036544066,0.032861326,-0.064531796,-0.049042493,0.07122457,-0.09738674,-0.04311323,-0.0074194977,0.024054985,-0.028577654,-0.060072634,-0.010830699,-0.07872519,0.15128325,-0.08763751,-0.081294596,-0.035064533,0.013866231,-0.06708691,-0.025224768,-0.09569974,-0.05764315,-0.118752345,-0.12204659,-0.193194,-0.08630834,-0.1675772,-0.17653097,-0.088070564,-0.085236415,-0.04660211,-0.20300323,-0.17575607,-0.09398347,0.060534824,-0.0043672146,0.03872401,0.027284546,-0.023015767,-0.008001988,-0.025570344,0.0005878673,-0.060149375,-0.041113134,0.016609978,-0.049674828,-0.07804996,0.0010701002,0.07597359,-0.09782674,-0.1130008,0.03814173,0.01528135,0.1372644,-0.1411668,0.001469845,-0.019626897,0.045146257,0.060453825,0.019078897,0.017250434,-0.07481025,-0.08274536,0.019206718,-0.050063763,0.06349992,-0.020260882,-0.076924324,-0.048749622,-0.011889458,0.07207543,0.018947491,-0.11966478,-0.049108468,-0.025448846,0.0423595,-0.00013662089,0.009216978,-0.091450855,0.012726937,0.020413468,0.018842563,0.02332459,-0.0395423,-0.014430186,0.02611828,0.017986191,-0.026097922,-0.01793329,-0.116093144,-0.21675675,-0.09489759,-0.10807795,-0.058000095,-0.087492436,-0.0047371164,-0.09422132,-0.09101275,-0.0071897674,0.04365389,0.040846825,-0.051023148,-0.043708544,-0.15492421,0.14735255,0.030838195,0.040465523,-0.01682915,-0.12423829,-0.042169593,-0.034932554,-0.048833318,0.06354642,0.029556282,-0.06537062,-0.09993745,-0.04511267,0.06351198,0.05768822,-0.12320099,-0.069571555,0.05140617,0.010960824,-0.0481531,-0.075802706,0.052258402,-0.05147375,-0.079429306,0.0066405884,0.07624758,0.07735765,-0.034136504,-0.0013078083,-0.056528874,-0.01365798,0.11157745,0.14227317,-0.053505454,-0.07135646,-0.042301994,-0.009826339,0.1774213,0.042334218,-0.0687058,-0.19887589,-0.06399302,0.12631969,0.13344832,-0.107413016,-0.11306171,0.068551384,0.05971647,0.07540027,-0.038606238,0.16133273,-0.0056918976,-0.004067818,0.07408421,-0.10736951,0.02717104,-0.036151234,0.082766354,0.123240314,-0.05231261,-7.353044e-05,-0.09373364,0.030527685,0.1555907,0.03378155,-0.042104535,-0.15677136,-0.0145905,0.06146779,-0.021770177,-0.09450686,-0.07859471,-0.0051706294,0.025447883,0.026800819,-0.06861752,0.14413837,0.05771813,-0.07049109,0.1225592,-0.007752973,-0.017927641,-0.113918506,-0.119577385,-0.018379541,-0.08838534,-0.024621261,-0.20963676,-0.18717536,-0.0224257,0.03357692,-0.059777185,-0.16930182,-0.083404526,-0.041851096,0.0005020908,-0.115409896,-0.06207899,-0.017855387,0.047655642,-0.14618446,-0.04433179,-0.10039475,0.057164483,0.050475482,-0.062094085,0.13966347,-0.0038126109,-0.053598657,-0.0063477494,-0.0054782145,0.09004623,0.16377886,-0.042959988,-0.17073666,-0.116235,0.006344313,0.11495826,0.062930934,-0.038042452,-0.15086372,-0.017737627,0.049768746,0.082284264,0.10119602,-0.19503574,0.0009679359,0.061032,0.017330118,0.038111493,0.05604746,0.0019242394,-0.011319762,-0.07309916,-0.10502651,0.056861427,-0.0664222,-0.11652388,-0.011356606,0.06972558,0.016383428,0.021631254,0.010797234,0.025656637,-0.07867596,0.03430585,-0.03734487,0.05038909,-0.122850746,-0.027844489,-0.055463027,0.082919024,0.015627492,-0.074611835,0.0705668,0.06532247,0.08723877,0.07070056,0.031752218,-0.013380429,-0.04238648,-0.09502789,-0.09211689,-0.05458866,0.07546956,-0.160423,-0.113986924,-0.0934991,-0.011829632,0.02856067,-0.14659496,0.0178991,-0.04675522,-0.14448023,-0.037942793,-0.0047568274,-0.06122087,-0.03458932,-0.06506837,-0.116759345,0.043126464,-0.03664308,0.0008697603,-0.014400185,0.04035406,-0.015246324,-0.0604946,-0.082056224,-0.07951883,-0.030846251,-0.0811804,-0.0753361,-0.040019274,0.0051424545,-0.07835927,-0.121347666,-0.02111458,-0.008796128,0.007959861,-0.10901271,-0.14100803,-0.14397855,-0.058797486,-0.019819021,-0.06970582,-0.0015450809,0.056133136,-0.0012826301,0.08206666,0.057126284,-0.04420531,0.04801021,-0.004982417,-0.021637682,-0.02209757,-0.019047491,0.030955363,-0.012896618,-0.0542878,-0.0221799,-0.08075071,-0.027324622,0.0064730793,0.0003990294,-0.09159654,-0.064171694,0.016460761,0.021226568,-0.036237758,-0.021816907,-0.075155534,0.015565735,-0.06933273,-0.100119136,0.028356833,-0.11064004,0.13453546,0.11559758,0.053069223,-0.13522989,0.018525135,0.11479352,0.0542656,0.048057403,-0.103011556,0.08053987,0.13076538,0.07616212,-0.035569936,-0.03715937,0.1336875,0.07583438,0.044646744,-0.075934306,-0.042867444,-0.039028425,-0.036945876,-0.033133946,0.009458141,-0.04599762,0.001134885,-0.05452972,0.0064376127,0.056947224,0.00857714,-0.07518875,-0.10469921,0.12130348,0.01955588,0.020360308,-0.087807946,-0.008976915,0.025160227,-0.029797636,0.011865649,-0.0059776483,0.08139027,0.06912612,0.039034285,-0.11251339,-0.007053754,-0.0037258698,0.02058334,-0.033404704,0.065795794,-0.109488815,-0.124332905,-0.025529247,-0.015496517,-0.029716704,-0.09183408,-0.018241389,0.06921443,0.0005459549,-0.12756975,-0.10275757,0.026731994,0.122049965,-0.009724974,-0.17624742,-0.03971234,0.10511187,0.06825334,0.022602374,-0.15298715,0.06557835,-0.018917993,-0.0033259585,-0.050367367,0.02226406,-0.013034897,0.04072468,-0.05394249,0.0121513335,0.093804166,-0.04696654,0.019668555,-0.04461255,0.054077294,0.07988274,-0.071462765,-0.073590316,0.08436854,0.12385229,0.025870303,-0.105994575,-0.046625264,0.059384927,0.139331,0.026507461,-0.08528692,0.06784303,0.046316117,0.06641743,-0.06066513,0.037906047,-0.029939583,-0.05133939,0.012797668,0.026222257,-0.06297004,-0.11890989,-0.06581071,-0.04256176,-0.11596627,-0.049910385,-0.06788511,0.0039658803,-0.027127014,-0.15960728,-0.16397564,-0.030357158,-0.05152679,0.008829849,-0.08621096,0.014567972,-0.020496815,0.004730673,-0.030582124,0.08366497,-0.13974637,-0.10890348,-0.03238142,-0.08592036,-0.064036444,-0.06564539,-0.04665881,-0.053632565,-0.028256547,-0.10745574,-0.102650456,-0.027467282,-0.035128213,-0.081729546,-0.10532993,-0.11018772,-0.059262864,-0.09926617,-0.16330089,-0.14618562,-0.027845811,-0.035386395,0.037344377,0.060404267,-0.056656383,0.020631598,0.0445556,-0.040209915,-0.045266848,-0.023029737,0.08575855,-0.046644792,0.02690701,0.07119951,0.09479278,0.004090452,0.012024149,0.03746676,0.06594911,0.046863187,-0.016473075,0.02364531,0.052940816,0.096229136,-0.030529598,-0.07830684,-0.10480041,-0.12483161,-0.15219665,-0.12066335,-0.11033768,-0.12318013,-0.00065821875,-0.052936375,-0.177418,-0.16160132,-0.022731332,-0.06988614,-0.062250715,-0.17532203,-0.13893026,-0.078165315,-0.033661015,-0.115134425,-0.07001155,-0.106775165,-0.07090907,-0.12962522,-0.15525386,-0.08805389,0.0061648055,0.008267646,0.064797856,0.12908284,0.06854717,-0.07611526,-0.0111307055,0.034446068,-0.008713432,-0.023999276,-0.02771193,0.070475794,-0.0055309352,0.03801682,-0.026648793,0.03637146,0.03363364,0.040301386,-0.031819806,-0.017409302,-0.0807492,0.021166693,-0.00565271,0.08115855,0.059303254,-0.004151306,0.05886652,0.05826808,0.02261026,0.0071954876,0.013552363,-0.013884571,0.09393344,0.056346506,0.002761256,0.012422163,-0.056547638,-0.033627056,-0.020211881,0.003686419,0.014539553,0.0829019,0.07429093,-0.018488962,-0.01926116,0.06194181,-0.017670417,-0.030473646,0.001412142,-0.08223087,-0.09413223,-0.06363614,-0.08622406,-0.11733319,-0.14459723,0.07144269,0.06647231,0.020262992,-0.018906254,-0.06555522,0.0950592,0.10979388,0.025431667,-0.07583055,-0.09350441,0.11411127,0.1043969,0.057652034,0.0034656452,-0.07062532,-0.03899442,-0.08155178,0.026735542,-0.05491699,-0.16769,-0.048113283,-0.07264024,-0.09394089,0.026952688,0.03141614,-0.12707776,-0.09460742,-0.07677568,-0.056370933,-0.08202406,-0.013259585,0.016102137,-0.10619194,-0.1456433,-0.08247345,0.02490506,0.029309839,0.04419715,0.036405664,-0.06546656,0.076974444,-0.006721173,-0.0021551687,0.053689044,-0.0140764145,-0.17587315,-0.23148373,-0.11485657,-0.029121723,-0.0480214,-0.17618123,-0.2037223,-0.17101282,-0.14781971,-0.15037817,-0.04612538,-0.0634375,-0.055740595,-0.09064421,-0.16850828,0.019262059,0.06777786,0.091756955,0.088188514,-0.009390559,-0.036030147,-0.06188061,0.040701363,0.0030823913,-0.10336248,0.05881044,-0.08981723,-0.07776341,0.008504099,0.057703666,-0.024108613,-0.21913567,-0.16216946,-0.12433349,-0.12539126,-0.09242609,-0.06209763,-0.11283548,-0.028649887,-0.077924296,0.047264177,0.020685472,-0.020149456,0.05751988,-0.096019074,-0.006172924,-0.029481456,-0.10326189,-0.013650955,-0.0754927,0.034569323,0.019089354,0.13850395,0.23116046,0.21747649,-0.077863,0.015685963,0.11861648,0.16927111,0.056828182,-0.043788433,0.011241329,0.074759886,0.024011102,0.008949588,0.034058746,0.09942134,0.024382599,0.01550514,0.027718995,-0.004068133,-0.072385795,0.045599777,-0.019497449,0.0105587365,-0.015759172,-0.07336502,-0.05865474,-0.08014355,-0.074340455,-0.12875065,-0.1387147,-0.088019006,0.00777472,-0.045530334,-0.08572075,0.119028255,0.089062095,0.073880926,-0.011328094,0.0046519097,0.06314703,0.15559159,0.066143565,0.013153744,-0.03936686,0.038783368,0.057815198,-0.069954805,-0.010830077,-0.026776893,-0.018078178,-0.052544132,-0.025505219,0.096488245,0.0062931865,-0.0894109,-0.13236617,-0.13501564,-0.05839307,-0.09023343,-0.0033182923,-0.070738085,-0.13355708,-0.09704092,-0.009662445,-0.06187054,-0.044704992,-0.0025693285,-0.08235368,-0.064504206,0.012500961,0.034800485,0.041059494,-0.06792193,-0.08130647,-0.17294577,-0.0992945,-0.03101112,-0.13764139,-0.050347596,0.020521859,-0.0055320314,-0.009660016,-0.0785895,0.05391339,0.18131419,0.104433306,0.08651903,-0.12693547,0.06461974,0.104232796,0.050580643,0.08025184,-0.016522277,-0.074091926,-0.112272285,0.030288644,0.086853705,0.09212655,-0.08468573,-0.025479654,-0.011302067,-0.018979821,-0.035443876,-0.10296981,0.021164926,-0.032281186,0.020501835,-0.02276836,0.012443457,0.026405176,0.045854393,0.03835645,0.03892453,-0.05407618,-0.03130222,0.021349967,-0.045752227,-0.099774145,-0.076842315,-0.05585233,-0.11851967,-0.053397723,-0.052859817,0.007185039,-0.012705553,0.014652996,-0.066241995,-0.0921602,-0.0046821926,-0.043768372,-0.026094552,-0.02753578,0.009249755,-0.021618713,-0.054693103,0.04511192,-0.033775542,0.075618304,0.059144385,0.064651765,-0.025031596,-0.024757689,0.004670748,-0.06426526,0.044988547,-0.08875164,-0.0890871,-0.08627497,-0.0060793757,0.08644714,0.025328878,-0.017326755,-0.025805494,0.006536004,-0.065864526,0.0038984849,-0.0018758157,-0.06385968,0.00339447,0.036661364,-0.0042859153,-0.01422123,-0.07828392,-0.0681657,-0.08227224,-0.02156155,-0.011057304,-0.05963695,-0.08475483,-0.10567894,-0.050249204,-0.1095932,-0.062292863,-0.07423725,0.05504625,-0.0031124593,-0.027152596,-0.09643746,-0.08517895,-0.040034488,0.048135154,0.03908988,0.0067046043,-0.014436126,-0.0023234948,0.009593662,-0.05038315,0.02771635,-0.032057464,-0.06333299,-0.030440664,-0.12375829,0.0035467753,-0.05285742,-0.05434589,-0.07220751,-0.05342418,-0.10405042,-0.05615869,0.1266947,0.0196791,0.0069040856,-0.11353027,-0.024625022,0.106916085,0.109403156,-0.08393498,-0.06153277,0.010944247,0.03894967,0.013888413,-0.058637567,-0.01309716,-0.042959094,-0.07217675,-0.058224935,-0.07228992,-0.09978806,-0.10629007,-0.09688339,-0.14143825,-0.14904538,-0.13723083,-0.0082793115,0.028211378,0.037038047,0.03326163,-0.0039617056,-0.07215386,-0.021353187,0.039430954,0.10106651,-0.03557026,-0.07954942,0.03498324,-0.0032835156,0.061289508,0.059996825,0.10420454,0.12553608,-0.0038058478,-0.033596594,-0.0134463515,0.14124356,-0.005954097,-0.0661734,-0.0832334,-0.05326981,-0.044875357,-0.10379491,-0.05168887,-0.07170371,-0.07896808,-0.036116585,-0.020266261,-0.06735763,-0.00822475,-0.0065671587,0.008053253,0.0038307966,0.12892134,0.00041589548,0.06409215,-0.013249546,0.105165005,0.14024656,0.08119065,0.055935066,-0.12146261,-0.04759227,0.021676436,-0.08733145,0.011868725,0.023483958,0.026526593,0.041545425,0.06567989,-0.043301538,-0.079264104,0.018958986,0.048109483,-0.03882194,0.037591744,0.0107921045,0.08435892,-0.012401425,-0.057703093,-0.048944272,0.03157815,-0.039130002,-0.0696039,-0.066768326,-0.16065332,-0.028980676,-0.098189406,-0.022839926,-0.10705868,-0.07261581,0.00375022,0.02909443,-0.12433989,-0.070868045,-0.0407305,-0.0874174,0.0104361,0.025996724,0.008982098,-0.06049017,-0.042332638,0.022368262,0.12732384,0.052391585,0.005241407,-0.01216905,0.07327195,0.039869573,0.06843557,-0.033762537,-0.08579594,-0.11598052,-0.055983897,-0.057788003,-0.05718601,-0.016416337,-0.04917581,0.070916094,-0.004231255,0.041224364,-0.09885972,-0.024541946,0.008486115,-0.003529619,0.03002764,0.058073442,0.09577908,0.055365995,-0.05541145,-0.064708985,-0.16847837,-0.19490749,-0.06941166,-0.17184208,-0.18098941,-0.11891628,-0.07681483,-0.20706461,-0.18615973,-0.14506826,-0.053199284,0.005373102,0.017570872,-0.0050817654,-0.00062729866,0.04898985,0.00018551426,-0.031533904,-0.032406326,-0.046905626,0.03413019,-0.038044762,-0.035467412,-0.12240587,-0.042327955,-0.0557001,-0.10125311,0.040846895,-0.090612195,-0.008572555,0.059940234,-0.044846207,0.034793712,0.007457243,0.029134404,-0.005028052,0.02526194,0.07987788,-0.031205675,0.10179091,-0.02183745,-0.051972408,0.0450759,-0.04558327,-0.058645003,-0.028160503,0.06852695,-0.059267465,-0.026613256,-0.048369553,0.022612775,-0.043272693,-0.018502193,-0.0161392,0.030957535,-0.15710816,-0.057243127,-0.0777955,-0.0678163,-0.025767153,0.13880168,-0.030694528,-0.047542494,-0.00089831534,0.011067082,-0.01302799,-0.041139714,-0.015265498,0.055376403,-0.0015725008,-0.15802842,0.0023458635,0.09775223,0.07205489,-0.009800523,-0.10130615,-0.085021615,0.044948038,-0.057093285,0.0060380087,-0.12060345,0.078901745,0.0358801,-0.06404708,-0.0144210085,0.102590136,0.10210954,0.082543686,-0.01941229,-0.031904876,-0.040512726,0.006227895,-0.043054875,-0.13903253,-0.01133706,-0.011433099,-0.04567647,-0.009826312,-0.01624426,-0.0646333,-0.023182947,0.08721164,0.11152461,0.18715736,-0.044817712,0.11983803,0.08730365,0.05711386,0.101662986,-0.0497276,-0.04682922,-0.17742956,-0.10543721,-0.09679788,0.02900534,-0.09723053,-0.16763435,-0.17821668,-0.019807635,-0.009694477,0.020326277,0.07762406,-0.04267164,0.10564103,-0.028333617,0.03739875,0.11732339,0.09700569,0.09583692,-0.057459123,0.026134558,0.0026264538,0.13305102,0.045600202,-0.13961975,0.00092536915,0.113419384,0.05929174,0.04100589,-0.012989803,-0.042251054,0.063129805,0.014787913,-0.030022344,0.007634869,-0.009903436,-0.017198311,0.020462818,-0.028461216,-0.009096167,-0.18358907,0.03069166,0.08732723,0.05620319,0.008916732,0.030884989,0.06133171,-0.018260559,0.032625385,-0.030685453,-0.120938435,0.048376456,0.10154443,0.04565154,0.027320389,-0.066310704,-0.020145228,0.0816821,-0.0418613,-0.033660363,-0.05514222,-0.07331423,-0.08498797,-0.051396035,-0.04865112,-0.15431015,-0.16071302,-0.2668157,-0.121022835,-0.08914554,-0.04875343,-0.17496528,-0.15630716,-0.13595814,0.070257805,-0.05908987,-0.09218063,0.0021430901,-0.03286284,-0.06236037,0.1922384,0.12971337,0.13758044,-0.0708996,-0.08489706,0.20522074,0.09443785,0.047698967,0.049390275,-0.028937582,-0.03175595,0.046794802,0.0461649,-0.045423437,0.15084912,-0.13484716,0.0060612196,0.03245928,0.041683897,0.129952,0.04526809,0.057111032,0.07328884,0.0651947,-0.0195158,-0.060952675,-0.097117655,0.03825885,0.004090924,-0.060630925,-0.078914896,-0.010103127,-0.0054305685,-0.085238196,-0.06366011,-0.09265802,0.05854536,0.060139928,0.0061109536,0.030617155,0.0043965336,0.1049603,0.08215928,0.027617214,0.009283853,0.043281477,0.00023782885,0.016717559,-0.162688,-0.12298662,0.08550808,0.04625964,0.04492096,-0.09559883,0.020725394,-0.05429338,-0.03159831,0.07116554,0.17233142,0.10218312,0.036590844,0.0350393,0.08292974,0.020507788,-0.055717982,0.15917976,-0.04221267,-0.09112734,-0.0007588376,0.16550252,-0.062496018,-0.050335206,-0.030639727,-0.039110925,-0.014014922,-0.04318354,-0.037583306,0.041859213,-0.10054739,-0.056166742,-0.082503326,0.0034052774,-0.027271338,0.022237102,-0.062159643,-0.10715772,-0.026623758,-0.033510365,-0.083995275,0.020483185,-0.010377498,0.021564843,-0.021436322,-0.10063427,-0.031626966,-0.10363171,0.010070221,-0.02308846,-0.050511703,-0.036614586,-0.020064397,-0.036741976,-0.07663614,-0.08592861,-0.028904283,0.022936787,-0.07534965,-0.065080754,-0.012653347,-0.051596172,-0.010305084,0.012873846,-0.063956626,0.012745838,-0.0718816,0.054121252,0.0066829645,-0.01738194,-0.049732205,-0.021406183,0.02648706,0.0691341,-0.0010038967,-0.12462819,0.023226986,0.0396034,0.14387432,-0.008923247,-0.025275737,0.051481344,0.1302575,0.122196764,0.026084684,-0.021983864,-0.019265225,0.04819704,0.002689643,-0.06003434,-0.031421855,0.09615687,0.0642715,0.016088422,-0.0351469,0.098380275,0.05560154,-0.115851514,0.01608301,0.037884533,0.12193211,0.012134999,-0.044435173,0.14146411,0.10298362,-0.024802098,-0.043550894,0.023659436,0.08057578,0.034747347,-0.071850546,-0.024338609,0.08010792,-0.05670194,0.0070835156,-0.08715459,-0.01316333,0.010173576,-0.03596225,-0.020344418,-0.090302505,0.044073842,0.02934581,0.027564872,-0.03033855,0.02317359,-0.052838624,0.051585484,0.14337437,-0.0005340473,-0.087868355,-0.02159093,0.05814802,0.15217134,0.0003664342,-0.06909524,-0.053094476,-0.007513705,0.13247876,-0.0036491833,-0.011335692,-0.049154725,-0.035848804,0.1418745,0.004215192,-0.035439074,0.09203358,-0.030595843,-0.016799763,0.1270206,0.039885256,0.040851597,-0.1258887,0.0907228,0.14640732,0.0422827,-0.031990223,0.0043106196,-0.0012520081,0.055263717,-0.018461801,-0.025525702,0.09283078,0.09557381,0.051611636,-0.054770384,-0.014711249,0.035705633,0.007514202,-0.045801636,-0.005501657,-0.054876797,-0.12006494,-0.16362369,-0.11684627,-0.100115895,-0.05694339,-0.115463026,-0.08288564,-0.08391118,-0.112490445,-0.00031419322,-0.06586909,-0.101010524,-0.12106857,-0.12986268,-0.07749319,-0.12072817,-0.10052511,-0.04106091,-0.013596822,-0.03494028,-0.042140137,-0.14555492,-0.06636645,-0.13945323,-0.07051143,-0.038711466,-0.04112259,-0.039960403,-0.020291634,-0.08905756,-0.012498179,0.03365467,-0.004593294,-0.13228004,-0.07513338,-0.038921557,-0.060637515,-0.09757341,-0.13676234,-0.053495888,-0.01938162,-0.042986102,-0.12910311,0.014243849,0.04542861,-0.028228298,0.0038314303,-0.07680948,-0.046788476,-0.031227976,-0.035048913,0.021665394,-0.076342516,-0.03976914,0.08629646,-0.014366766,0.06478711,0.0856269,0.08478736,0.051857546,0.07191367,-0.020922694,0.10717457,0.04397166,-0.02697983,-0.0044417954,-0.06039985,0.020638457,0.0056494926,-0.04780025,-0.023408946,-0.12088571,-0.07341156,0.02269383,-0.05280835,-0.042055294,0.028142318,-0.05457436,-0.11005191,-0.19429785,-0.08693749,-0.0059180283,-0.086531006,-0.059862994,-0.04915849,0.06752998,-0.08276502,-0.104513615,0.05270324,-0.06461322,-0.12471993,-0.13446704,-0.04774935,-0.0041711433,0.043328512,-0.055809896,-0.022782976,0.09383811,0.122045964,0.13579796,0.024606632,0.014281113,-0.026491717,0.062462687,0.029243605,0.03347178,-0.04045544,0.000591144,-0.081647635,-0.039964054,0.06253415,-0.035727557,-0.113232516,-0.07701144,-0.08742017,-0.010610626,-0.00022951466,-0.03217429,-0.023901837,0.008132162,-0.08385942,0.030202324,-0.023805115,0.0855625,0.05595807,-0.050268095,-0.05247703,-0.02667523,-0.008648563,0.011840068,-0.035831414,-0.06149511,0.057272088,0.037245426,0.05837281,-0.004183302,-0.050504074,-0.020627381,-0.06709028,0.0043873196,0.032514185,-0.007896698,-0.06569327,-0.02304156,-0.07605541,-0.029157067,-0.12353411,0.014878501,-0.009256723,0.0091314055,-0.0014172832,-0.054062717,-0.044859834,0.04085543,-0.012694144,0.11516562,0.06386927,-0.078842774,-0.10616229,-0.021718457,0.029960107,0.0006856721,-0.0053444514,-0.027190503,0.027717352,-0.028701384,-0.088053145,-0.05378385,0.027790135,0.061647877,0.0073901666,0.0004535726,-0.16223757,-0.16411884,-0.07640118,0.10223146,-0.0313383,-0.111442074,0.041531537,0.05059312,-0.0007421823,-0.025943499,-0.115867466,-0.020557674,0.06609792,-0.011215183,-0.069609545,-0.14312465,-0.019283988,-0.023000453,-0.06853723,0.030021427,-0.114386685,-0.099989474,-0.029347166,-0.020323856,0.15769632,0.057965755,-0.072227485,-0.014978444,-0.010197333,-0.15622418,-0.073159255,0.03653521,0.06413635,-0.06623012,-0.1214396,-0.16912393,0.10229646,0.12006926,-0.007036609,-0.049182963,-0.12698951,-0.050983265,-0.0056339516,0.12559278,0.08522617,-0.010015302,-0.123819806,-0.13132837,0.044472437,0.16669282,0.09936956,0.06387334,0.034707353,-0.057855967,0.07411166,0.023378555,-0.042492997,0.050564542,0.013866614,0.014331549,-0.047377244,-0.061819367,0.00062770414,-0.023864744,-0.023143249,-0.100184664,-0.09620979,-0.020255456,-0.031823464,0.016254157,-0.020565059,-0.098685086,-0.067063525,-0.03252481,0.011868934,0.112265244,0.049443573,0.03909543,-0.009033676,0.012867532,0.017105341,-0.04186783,0.03915702,-0.18577212,-0.0673923,0.09267239,0.10286535,0.11135966,-0.057686105,-0.16735359,-0.15037204,-0.06460063,-0.064395525,-0.013999245,-0.08828453,-0.070776485,-0.11401349,-0.060116272,-0.15423377,-0.1411317,-0.031501345,0.007610473,0.02482114,-0.14122066,-0.016152775,-0.019520307,-0.021276178,0.010329834,-0.04889187,-0.06782474,-0.032168485,-0.0140465945,0.06522668,0.057703014,0.06927043,-0.103050195,-0.022433145,-0.043854777,0.059642073,0.17027102,0.050240513,0.0120717995,-0.06835409,0.011326675,0.07947376,0.13646194,0.17557521,0.02174468,0.020803975,0.08579195,0.077352665,-0.024717089,0.013859857,0.0248129,0.042601816,-0.11207404,-0.033415798,-0.017503632,-0.07131834,-0.001486172,-0.04500623,-0.031334143,0.037560686,-0.046713926,-0.054484665,-0.059107494,-0.035234287,-0.06718023,-0.060411155,-0.055603005,-0.067256406,-0.10967992,-0.041714694,-0.0981547,-0.04929673,-0.0523308,-0.066366665,0.07410888,0.11675829,0.019464089,-0.06557046,-0.16728035,-0.15411694,0.18572034,0.06270721,0.01949758,0.08415016,-0.024888571,0.058491115,0.027985876,0.02840012,0.05041326,0.12926567,0.11124978,-0.062455058,0.019604007,-0.09232977,0.05283715,-0.063039646,0.023751209,-0.021499742,-0.029477678,-0.042260557,0.034627434,0.04696405,0.021103833,0.084200524,0.11408061,0.016190056,0.018238533,0.039297037,-0.03817566,-0.038321406,-0.004693894,-0.05873784,-0.086599775,-0.11166535,-0.060449556,0.070072,-0.07626118,-0.07825624,0.027994229,0.019145664,-0.06506935,0.061171856,0.01902791,-0.0021712012,-0.10058054,0.024766928,-0.01160208,0.07109238,-0.029493865,0.04088679,0.032718435,-0.0018559765,0.071917914,0.064777985,0.050431438,0.074437775,-0.025976507,-0.07887713,0.055883843,0.031544324,0.039746217,-0.02190367,-0.0027687543,-0.09185256,-0.10760117,-0.08570516,0.078049175,0.055365793,0.06594079,0.11738174,-0.014864132,-0.0013272519,0.005126606,-0.0673828,-0.021225844,-0.015671512,-0.06571813,-0.156573,-0.11225214,-0.13134386,0.076496825,0.006064402,-0.011684581,-0.03785217,-0.03777973,0.061980885,0.1174631,0.095943175,0.027192336,-0.06292619,-0.0050429413,0.02088713,0.0035649417,-0.06900722,-0.030613711,-0.059818704,-0.01516995,0.022581158,0.010309357,-0.079242095,-0.092938565,-0.052256946,-0.0063615046,-0.07301481,-0.04156262,-0.05829958,-0.051224593,-0.068095006,-0.0912479,0.04802785,0.048772123,-0.08561215,-0.06992318,-0.028607456,-0.0013962984,-0.15304133,-0.041861933,-0.017832039,-0.11665007,-0.10184072,-0.111646295,0.026241515,0.048611857,0.03710083,-0.06445855,-0.076208554,-0.039643046,0.030143669,-0.08943997,-0.018262567,-0.009538006,-0.1538253,-0.13187076,-0.0065559666,0.06196528,0.01809509,-0.11664897,-0.014303535,0.042150073,-0.1374021,-0.024592973,0.033525966,-0.037168343,-0.032920234,-0.0047472785,0.025286226,-0.041391972,0.007874386,0.012671128,-0.09144504,-0.076063424,0.049002603,0.01768086,-0.17123757,-0.15742736,-0.030261535,0.049545966,-0.029025512,-0.21926904,-0.18057492,-0.06084813,0.1093102,-0.015020438,-0.10833418,-0.022157481,-0.057033185,0.059561823,-0.0010257164,-0.08978838,-0.08886878,0.04526632,-0.0070616985,0.017618325,0.075215064,0.040165883,0.13752672,0.026968684,0.13374603,0.053794943,-0.08649741,0.1226078,0.11729288,0.04142084,0.011677034,0.03321576,0.070598446,0.022182856,-0.1438034,-0.030520951,0.00046753962,-0.055023972,0.03817995,0.07173305,-0.10506829,-0.17253631,-0.0150676975,0.008535596,0.060304146,0.113351956,0.061759707,0.0685889,-0.08833579,0.006630176,0.041105274,0.07556345,-0.014673386,-0.14138809,-0.10793808,-0.12610091,0.022614079,-0.010342316,-0.048913106,0.031355217,-0.10403706,-0.032840297,-0.046467327,0.010793642,0.059352893,-0.0043880367,0.010590474,-0.07552273,0.041308776,0.041580018,-0.00013277984,-0.03722154,-0.08735069,0.059295703,-0.036307894,0.03006724,-0.07257095,-0.069034025,0.0014186256,-0.028750468,-0.067761585,-0.029783724,0.008164806,0.027653474,0.013775773,-0.021163626,-0.011944619,0.021186393,0.06771891,0.072742656,0.08244142,0.22262733,-0.019627534,0.014773207,0.06842897,0.09875608,0.13159633,-0.11006971,-0.035215206,-0.12061258,-0.08358159,0.11999229,0.08341825,-0.06934053,-0.08910155,-0.02671156,-0.034315307,-0.020800097,-0.06528095,0.08577119,0.030301703,-0.02080457,-0.007068684,0.022031618,-0.06360124,0.07751541,0.035727292,-0.06403346,0.0020137902,0.004803425,-0.012331028,0.044911146,0.045902137,0.06298984,0.08165464,0.08344324,-0.035492923,0.028100807,-0.09097632,0.06444293,-0.020161869,-0.004933575,-0.06324911,-0.0464444,0.0022413495,-0.00029153284,-0.06991779,0.01980083,0.027284782,-0.08717757,-0.0824438,-0.02417606,-0.058062613,-0.03197511,-0.056932144,-0.062290646,0.055079173,0.033903573,0.024770847,0.050112605,0.02633396,-0.06335836,0.027771104,0.003616935,0.00039619717,0.015541598,-0.023245735,0.056572642,-0.04777755,-0.07890308,-0.08654933,-0.040037762,-0.05980124,0.014975587,0.051647056,0.085316725,-0.050699767,0.08176752,0.0020485024,-0.007212007,-0.004331314,-0.11605027,-0.03716422,0.034281936,0.010403425,-0.057855308,-0.07660861,-0.05924831,-0.08318529,-0.057892572,0.026902558,-0.08797343,0.013062884,0.052101757,-0.0012293522,-0.006433385,-0.11453532,-0.03373415,-0.036055032,-0.03806905,0.06679312,-0.01231635,-0.04132242,0.13148034,0.16346593,0.13653216,0.0063517564,-0.023839576,0.083805226,-0.0066694664,-0.021320317,-0.06892995,-0.051668644,-0.05231876,-0.10932474,-0.0898568,-0.07860909,-0.06883371,-0.086423844,-0.11333028,-0.060561426,0.025502486,-0.09949542,-0.082078196,-0.0054739597,0.12899175,0.024918558,-0.045904465,0.1128348,0.10783784,0.023785202,-0.052921936,-0.1394813,0.058294002,-0.013510004,-0.04442953,-0.09786589,-0.05376736,-0.053439584,-0.19762233,-0.16230614,-0.08172913,-0.08011816,-0.14855084,-0.06225613,-0.08803289,-0.15945898,-0.006695922,0.013199483,-0.06721387,0.027641227,0.06391321,-0.053585365,-0.038964678,0.04514625,0.013117213,0.104799934,0.004126037,-0.012253389,-0.0016321606,0.020509193,-0.05552534,-0.0357691,0.00421239,-0.00700816,-0.0945053,-0.118683085,-0.13419494,-0.048927695,-0.00793674,-0.11395215,-0.07454539,0.060859133,0.022282006,-0.042883407,-0.034402978,0.009606861,-0.09020336,-0.020723306,-0.06797228,-0.10773456,0.07879443,-0.010259542,0.15075171,0.1718208,0.052026708,0.06960644,-0.015372237,0.19669253,0.2059889,0.043231927,-0.05909711,0.030537818,0.033040337,0.056988,-0.014157871,0.080427505,0.052064233,-0.01680904,-0.024172232,0.03724547,0.044146955,-0.052719332,-0.023659253,-0.07072528,-0.09623389,0.014327849,-0.014522714,-0.042784687,-0.040556233,0.00903931,-0.048636094,-0.002694154,-0.032989796,-0.059099127,-0.079421364,-0.07822716,0.17362219,0.033509903,0.005911731,-0.05723709,-0.07386224,0.02180723,-0.01183131,0.0366699,0.042901408,0.05162279,-0.025551043,-0.04230337,0.03359215,0.06633879,-0.011961036,-0.052715287,0.081063904,0.12283549,0.045650862,-0.044243652,-0.1322421,-0.026395401,0.005269789,0.008012761,-0.057861526,-0.15147486,-0.09709057,-0.066166885,-0.017018823,-0.05752372,-0.11471201,-0.08486502,0.08157423,0.16509493,0.064347655,-0.00799886,0.05006829,0.0053374264,-0.13077162,-0.08740119,-0.0439261,-0.06928085,0.015760535,0.0051163994,-0.06569878,0.06648265,0.011723918,-0.0521707,0.013474416,0.08304929,0.14334285,0.04422976,0.09009883,0.060559757,-0.021006986,-0.04732339,0.08267531,0.06408865,0.021156756,0.053707346,0.027620077,0.042393688,-0.011080894,0.039617196,0.090428114,0.07908351,-0.012120736,0.059529904,0.0064105326,0.024973547,0.030575356,-0.015991054,0.03586557,0.095365964,0.093530476,-0.00027599224,-0.060846873,-0.031352814,-0.08551186,-0.06338232,-0.0086864475,-0.009500301,0.019427808,0.03759829,0.057043716,0.046499573,-0.025205236,0.05246827,0.010598258,-0.03999109,0.021092214,-0.009472095,-0.045661315,0.07103253,0.005622525,0.046326965,0.05576346,0.08533179,0.06959264,-0.013934231,-0.039191317,0.011247351,0.03225145,0.015316729,-0.056346554,-0.06333454,-0.104611546,-0.051144537,0.009489968,-0.121524416,-0.04672409,0.0037210118,0.0661804,0.049122937,-0.0011122117,-0.074636914,0.0021690482,0.07775667,0.15124123,0.026176045,-0.019856397,-0.06377886,0.0013095363,0.02578754,-0.03847158,0.03976692,-0.01993951,-0.024440859,-0.012636634,-0.069616884,-0.0067737657,0.07104898,-0.020995472,0.012840627,0.06444371,0.054715313,0.07939259,-0.04975297,-0.008724132,0.1257108,-0.015254756,0.013195793,0.03208905,0.11952067,0.08977501,-0.05165499,0.0047936062,0.016897146,0.0196115,-0.08841411,-0.10920371,-0.15092161,-0.17342381,-0.12399659,-0.018540641,0.03967369,-0.08563043,-0.012515034,-0.053667586,0.0063332864,-0.013084002,0.016619997,-0.06722451,0.063058965,-0.10393204,-0.07978479,-0.013280612,-0.053513136,0.097561106,-0.013725777,-0.06116624,-0.07005105,-0.13342512,-0.0422922,-0.11017321,-0.13057962,-0.08666322,-0.12491549,-0.060645334,-0.13403408,-0.018494226,-0.08157186,-0.006702158,-0.05170671,-0.04695379,-0.080038905,-0.019804314,0.0043701543,-0.07084949,-0.08741915,-0.046154268,0.012011419,0.13390717,0.15441604,-0.0059414976,0.015658248,0.026903367,0.06021411,0.03001767,-0.16037306,-0.0567909,-0.07843117,-0.04058246,-0.117758214,-0.15738998,0.0030022992,0.08092027,0.1148001,0.084202036,-0.021273552,-0.029696696,-0.03711619,0.0042044353,-0.067840874,-0.058050416,0.06332754,-0.016348017,-0.05281636,0.0864777,0.14169694,-0.0072063794,0.12532327,0.06656687,0.1683906,0.10759565,-0.10364075,-0.0010437185,0.050019205,0.22690019,0.28753474,-0.026232846,-0.02516127,-0.008909312,0.0058278968,-0.019859057,1.50563665e-05,-0.10782719,-0.046892755,-0.04137309,-0.08493331,0.087951645,0.029334946,-0.052762765,-0.03700363,0.021963863,0.036446393,0.02375038,-0.0008363172,-0.03522078,-0.10386356,0.010884519,-0.021573637,-0.06688125,-0.0584989,-0.04414316,-0.016263064,-0.032464918,0.06865099,0.042858403,0.040746555,-0.06549398,0.027168931,0.0041433685,0.028740617,0.077288754,0.01294799,0.07288399,0.03545835,0.06090908,0.09577467,-0.04153244,-0.05759258,0.006926054,0.06726844,0.0016746117,-0.11272195,-0.040896934,-0.13366964,-0.098526426,-0.071236975,-0.028954234,0.026210519,-0.049021635,-0.081164904,-0.09647054,0.057254173,0.070395105,0.031416766,0.0627525,0.0803714,-0.028600836,0.033144496,0.012799122,0.0053098137,0.088629134,-0.095996596,-0.1049695,-0.054687597,0.05140696,0.18776225,0.067076035,0.039001606,-0.120036826,-0.10193722,-0.06635192,0.032352336,-0.084277965,-0.017055659,-0.0076041785,0.022689383,-0.021409104,0.0026022196,0.028121602,0.0002572579,0.038054492,-0.002693138,-0.07096636,-0.011019475,0.039341826,0.01537151,-0.0833288,-0.0035807802,-0.0137137715,-0.023089875,0.053292632,-0.04746189,-0.015687276,-0.099435344,0.050465964,-0.04351508,0.008158171,0.010731437,-0.048160817,-0.08302738,0.02175575,-0.034886576,-0.09810826,-0.03404682,-0.02357726,0.035369378,-0.009093292,-0.053120982,-0.05430216,-0.04337595,0.051070437,-0.08135502,-0.014503546,0.046531774,-0.020031346,0.032529924,-0.06049623,0.014654896,0.020789059,0.061431993,0.044489253,0.028746849,0.08580277,0.039422903,0.072169304,0.12184468,-0.017478785,0.115770355,0.063469395,0.01344074,0.02173517,0.05691324,0.057533596,0.051360853,-0.032750264,-0.13052566,0.082606934,-0.010472714,-0.015007473,-0.04353809,-0.08464022,0.07148302,-0.05602299,-0.042754866,0.016506527,-0.020973774,0.046749163,-0.019579956,-0.07546482,0.050602306,0.05189599,0.020208275,-0.08617859,0.09430313,0.015766475,0.13600175,-0.05289873,-0.02588336,0.0127407415,0.050752785,-0.04440866,-0.068541154,-0.034616243,0.052158695,-0.016066829,-0.07374429,-0.04689467,-0.035578385,-0.094705135,-0.046949293,-0.020890478,-0.09895479,-0.08559066,-0.06655537,0.08720654,0.19388615,-0.045480672,-0.0367946,0.016591322,0.022591146,0.13169196,-0.071316026,0.010023431,-0.004870322,-0.021669121,0.025208525,-0.053450216,0.041375734,-0.07482747,-0.05574498,-0.05177386,-0.08032672,-0.027397828,-0.023951914,-0.13506259,-0.13991813,0.0047520734,-0.04752472,-0.10709173,-0.02381339,-0.022021232,-0.019994115,-0.03240285,-0.03833173,0.06368959,0.10118679,0.026579954,-0.06364244,0.011909478,0.046781663,0.028241945,-0.054164834,-0.04116261,0.08892581,0.05569903,-0.07814983,0.009851944,0.03549572,0.020430837,0.03812529,-0.071447276,-0.069972135,-0.057944182,-0.026760308,-0.044967763,-0.09354644,-0.053919505,-0.07555705,0.011514779,0.057651524,0.005519752,0.013147972,0.02019633,-0.08664995,-0.114096954,-0.0043579894,-0.11019941,0.0067594405,0.020465916,0.051439002,0.124960296,-0.091966346,-0.028978668,0.044766463,0.1350479,0.17098457,-0.09007161,-0.1197397,-0.16156991,-0.115415916,-0.034212954,-0.0046951543,-0.050923053,-0.055070117,-0.07386038,-0.02697742,-0.12897255,0.0022432907,-0.07495252,-0.038535163,0.01954002,-0.079545505,-0.00089110836,-0.046400674,0.02831836,-0.0070035476,-0.094419755,-0.14408092,-0.07101776,-0.0551778,-0.09121264,0.11467348,0.0125309015,-0.06518288,0.03145829,0.051137198,0.028662108,0.0592793,-0.027322534,0.029009266,0.08239261,0.03205168,0.027774302,0.011160931,0.10615686,0.011957118,-0.022355234,-0.031003451,0.0017871042,0.021505577,-0.07056933,0.014122258,0.069170475,0.01720696,-0.047900885,0.06895278,-0.08487819,-0.07547755,-0.027668262,0.0093786465,0.11857467,-0.10583744,-0.055516414,-0.06650164,0.0077089886,-0.0337089,-0.053034518,-0.027397837,-0.047313724,-0.05150783,-0.20124592,-0.019022817,-0.059742626,-0.08436173,-0.10083769,-0.09635439,0.008827393,0.0052408036,-0.0455251,-0.11817483,-0.15625148,0.005016808,-0.03508005,-0.0055112434,-0.037946623,-0.06430263,-0.00096826005,-0.060968805,-0.058448013,-0.0774995,-0.014645107,-0.016257467,-0.029937692,-0.0973911,-0.014252116,-0.024963409,0.016599016,-0.031254567,0.004603625,0.011349874,0.00036257665,0.065139875,0.041234422,-0.02673385,-0.078845836,-0.0925956,-0.006331008,0.03419761,-0.022728508,0.052150976,0.024152374,0.0463791,-0.036439694,0.011310456,-0.015093999,-0.02759534,0.016962985,-0.038039315,-0.035495788,-0.020061666,0.025665328,-0.025213681,-0.064166516,-0.022716979,-0.04730379,0.0136535065,-0.04690526,0.03934113,-0.0005175203,0.011190157,-0.017703775,-0.061042972,-0.060726713,-0.030676674,0.0073173693,-0.092841655,-0.14562698,-0.04803179,-0.0004339351,-0.025899954,-0.030166531,-0.032399405,0.08193656,0.06623619,0.060725003,0.06198314,0.13077907,0.06929471,0.1808499,0.09986229,-0.06968411,-0.019760469,0.02898635,0.063801214,0.092079535,-0.08990078,-0.018003851,-0.023258567,-0.010671854,-0.032151166,0.010499215,0.016676268,-0.011216108,-0.09297056,-0.062334307,-0.074039996,-0.009514482,-0.020422123,-0.058386512,0.013285636,0.041333083,-0.017405016,-0.09770782,0.0107687665,0.02741902,0.2101131,0.08092641,0.060503416,0.064204566,0.08101321,0.026204634,-0.030786846,0.0029138955,0.061611373,0.066473946,0.031609986,-0.006361162,-0.01646435,-0.04782832,0.008765365,0.006438683,-0.045948148,-0.12502892,-0.040320355,0.04485714,-0.000689423,-0.1297321,-0.11530075,0.018275805,0.039959744,0.061471697,0.034709144,-0.008129192,-0.005958811,0.04849478,-0.01974008,0.0070040044,-0.009032417,-0.038722098,-0.07577379,0.0009988946,-0.08929698,-0.0009899769,-0.111422114,-0.08811374,-0.013578396,0.028702252,-0.04356271,-0.08668804,-0.07454015,0.0040585706,-0.011082159,-0.0064896652,-0.04618611,0.035847202,0.14268713,0.08633958,0.03207006,0.07644768,0.17441368,0.17488606,-0.059935506,-0.037215937,-0.040333465,0.009841094,-0.017108046,-0.008381856,0.022578228,-0.0071827024,0.07908521,-0.07828056,-0.05364639,-0.13628496,-0.01089875,-0.027559027,-0.13301544,-0.11198091,-0.093724705,-0.006386474,-0.050249632,0.0068704556,0.11059901,0.13893664,-0.102316655,-0.03026667,-0.088144735,0.0051711523,-0.040423263,-0.03940839,-0.0062602535,-0.0337128,0.031650435,-0.055002026,-0.07551521,-0.032185912,-0.015266201,-0.099296175,-0.121136,-0.06325664,-0.0547907,0.044672005,-0.049181003,-0.06383873,-0.03382477,-0.056841962,-0.034478772,0.051110752,0.066198476,-0.030082788,-0.10731414,-0.09228555,-0.009560759,0.059127316,0.047469106,-0.04001589,0.058661632,0.00038509982,-0.0015084759,0.019397827,-0.06314655,-0.054481916,0.07433701,-0.03577511,-0.026562897,0.020967077,-0.05003095,0.059003394,-0.010368516,0.0016336471,-0.018819625,0.018570976,0.056336693,0.049418192,-0.010934296,0.0045613777,0.10633998,-0.115071505,-0.05363956,-0.16519737,-0.050619207,-0.088888824,-0.053280726,-0.1297799,-0.13644545,-0.12180561,-0.0631903,-0.07161501,-0.11621845,0.0004268125,0.033074975,0.073287934,0.043628592,0.06499059,0.11665996,0.11341163,0.05836847,0.02106904,-0.014932303,-0.08630684,-0.10839193,-0.114997566,-0.042920955,0.026423482,-0.05783914,-0.071137406,-0.080441505,0.026303487,-0.0056453915,-0.09842462,-0.08238816,0.029607233,-0.018624581,-0.07221575,-0.06232666,-0.04344547,-0.009261111,-0.0022422255,-0.009848158,-0.031281214,0.01798367,-0.0082071,-0.14031208,-0.14040856,-0.07250997,-0.110859364,-0.0035272532,-0.01692112,0.023575198,-0.09602697,-0.011441778,0.044718754,-0.06687759,-0.09346395,-0.009259198,-0.05011173,0.009578221,0.011846443,0.03430801,-0.0959885,0.018721888,0.01158994,-0.029370327,-0.03480105,0.0021902502,-0.046026263,-0.047965385,-0.045259804,-0.06705371,-0.08975706,-0.080805145,0.05469708,0.068267524,0.009710644,-0.049655426,0.0061594825,0.054752827,0.08601349,0.02881174,-0.026364284,0.109152384,0.003051987,-0.009056469,-0.08106041,0.03895596,0.06313068,0.06818713,-0.022023842,-0.09903357,-0.010298051,0.058621235,0.08279943,0.056297746,0.0729635,0.12712067,0.009193015,-0.025886294,0.08812501,0.017179875,0.08464346,-0.06146429,-0.025194893,0.057332978,0.10148045,0.008700037,-0.054573834,0.08906843,0.02424113,0.019653225,0.009497571,-0.022076147,0.017163416,-0.016022822,0.010365063,-0.060760092,0.063176036,-0.0011575235,-0.043897003,0.021141307,0.01807867,-0.015790807,-0.09072085,0.05370187,0.03789658,0.017020684,-0.018464925,0.017282445,0.068094574,-0.0025383064,-0.11590662,-0.004308759,0.052054446,0.039143477,-0.062678844,-0.06161792,-0.05004401,-0.0038076849,0.02305217,-0.00847437,-0.08295277,0.06507661,-0.00870633,0.07711842,0.05153129,0.124987796,0.08948265,0.003964111,0.12057118,0.12665133,0.027110945,0.09649935,-0.09802845,0.18859658,0.07755359,0.099829994,0.04287652,-0.05835131,0.11236548,0.0650982,-0.0016013127,0.016287573,0.0056426153,0.05962398,0.02024107,-0.025625015,0.028922617,0.029716581,0.029959658,0.020693492,-0.041478902,-0.0044156755,-0.0032882546,-0.074810006,-0.12937872,-0.06824505,-0.14059184,-0.061063223,-0.058716327,-0.079856604,-0.055618394,-0.0308674,-0.07719511,-0.088682696,-0.11632084,-0.10515495,-0.068759575,-0.0068482426,-0.06735407,-0.063597225,-0.07238711,-0.05426255,0.02447103,-0.13740028,-0.12448617,-0.09277874,-0.039226614,-0.020192523,-0.0653982,-0.007432801,-0.11002982,-0.10467949,-0.0035589407,-0.017792536,-0.064055696,-0.038352966,-0.11070006,-0.106291994,-0.07131124,-0.0030852237,-0.09897855,-0.065163225,-0.09085435,-0.03539107,-0.08911949,-0.08487045,-0.06879127,-0.042171467,-0.08306989,-0.08673005,-0.079170614,0.023441087,-0.057863273,0.08281464,0.06434044,0.06812554,0.07841433,-0.024275042,0.098081425,-0.013911648,0.06522217,0.05534092,0.039044566,0.08424345,0.00069984153,0.058469336,-0.07157445,-0.019959703,0.033296335,0.004913154,0.05776861,-0.04705233,-0.014360352,-0.054000136,-0.09172358,-0.040262297,-0.005467834,0.036247026,-0.0048984084,-0.0070188427,-0.16192806,-0.12935191,-0.0006405525,0.09887634,-0.10511169,-0.012544172,-0.02531945,-0.051497113,-0.025469283,-0.14100172,-0.12821768,-0.046301235,-0.05245678,-0.100159176,-0.059718736,0.0120215835,-0.101975486,-0.08319289,-0.14868055,0.041201957,0.07953965,0.16801845,0.13564396,0.01973268,-0.09473439,-0.018189905,-0.037130885,-0.07632303,-0.024765555,-0.06896234,-0.12302951,-0.08151627,0.04138237,0.027950294,-0.090696074,-0.08434297,-0.049398296,0.10273001,-0.0717858,-0.05163467,-0.0368268,0.013233484,-0.020503843,0.01511097,-0.08002442,-0.005651284,-0.058103874,0.009717956,-0.08191054,-0.02226266,0.012122405,0.060320813,0.009941204,-0.033022415,0.015412753,-0.07353509,0.012019934,-0.0062373164,-0.010777771,-0.08224196,-0.041803353,-0.0038731992,0.017135484,-0.047428433,-0.041780014,-0.06708327,-0.030652307,0.06446197,-0.08488007,-0.062532775,0.04179224,-0.07470905,-0.0824303,-0.105433635,0.012336622,0.054600857,0.03419026,-0.06307392,-0.08340865,0.029320288,0.15326937,-0.0057315435,0.09026664,-0.06859355,0.034145165,0.11390325,-0.027559204,-0.0051033585,-0.037570585,0.077074885,0.007991435,-0.09236602,-0.15714447,-0.05188363,-0.014730051,-0.03932097,-0.13857393,-0.04690407,-0.012973715,0.013739411,-0.09609626,-0.02774544,0.120508336,0.06264749,-0.010153381,-0.06744529,0.02550495,0.089291446,0.08625726,-0.04258876,0.07180918,0.10687216,0.027928406,0.010122328,0.00029401897,0.1690402,0.156553,-0.010098045,-0.097612776,0.01610433,0.010059555,-0.076080695,-0.031783443,0.019836158,-0.10346518,-0.03698243,0.07636674,0.11507364,-0.0026929157,-0.1694384,-0.023356946,0.010570206,0.03351121,-0.07378232,-0.039752807,0.14740358,0.031354003,0.016996935,-0.028915001,0.05598008,0.0862132,-0.09186708,-0.13027525,-0.09614748,-0.033284895,0.06752592,-0.031417854,-0.120004654,0.009081071,0.095973656,-0.100314565,-0.08986666,0.050604414,0.11188049,-0.0033361395,-0.052338507,-0.026236758,0.09075473,0.031162227,0.044936463,0.0034180894,0.07139623,-0.024394274,0.10113202,-0.002282199,0.11466425,0.064519465,-0.03254999,0.07406664,0.028545555,0.0723023,0.022823075,-0.078261785,-0.11587574,-0.14535561,-0.14849694,0.01954891,-0.005056436,0.050258324,-0.13518831,-0.12650341,-0.07054622,-0.09416075,-0.06869716,-0.10250428,-0.06873638,-0.087548085,-0.011733197,-0.12657109,-0.18908018,-0.15860072,-0.16663769,0.006831139,-0.069930784,-0.20057379,-0.21767208,-0.12688103,-0.07294048,-0.07262071,-0.2142626,-0.21561317,-0.087725185,0.0118941385,0.012901246,-0.14016736,-0.14636146,-0.085469835,-0.06899084,-0.09484632,-0.08468122,-0.060602933,-0.030695109,-0.062724,-0.076446846,-0.051017035,-0.007515152,-0.023172276,-0.09763986,-0.075351015,-0.07640898,0.1160568,0.045706462,0.02133435,0.083862185,0.08935163,0.045320023,-0.03674208,0.03265961,0.041448623,0.028238516,0.0152564235,0.054513384,0.057789933,0.1099909,-0.032069083,0.07411841,0.00041849242,0.09072673,0.03619663,0.030925155,0.071092814,0.10990438,0.040495608,0.01749182,0.07224675,0.01762741,0.01696375,-0.09885236,-0.112137765,-0.15730035,-0.07553784,-0.10151477,-0.14562863,-0.022915458,-0.08514355,-0.11436123,-0.11592055,0.041732606,-0.08084314,-0.016210927,-0.07543225,0.12861225,0.07014213,-0.015413798,0.0102451155,-0.087666705,-0.10625696,-0.039300747,0.098178424,0.021346329,-0.066948265,0.021190295,0.12192045,-0.009484846,0.04257817,-0.086035065,-0.018333053,-0.049682505,0.027349869,-0.044436824,-0.006825335,-0.032632638,-0.08700687,-0.041428138,-0.024341684,-0.12464825,-0.075531185,-0.047123495,-0.07745143,-0.031069146,-0.06581009,-0.0804256,-0.012535523,-0.05759481,-0.06448167,-0.12772757,-0.07714465,-0.021795036,-0.041348744,-0.011882495,-0.061309025,-0.0649169,0.017323572,-0.048234493,-0.0019868102,-0.021222796,-0.046334222,-0.04774679,0.06469359,0.06404297,0.010145362,-0.06932714,-0.014154332,0.03361229,-0.062354263,-0.09266852,0.0028222292,-0.041047484,0.036962282,-0.008275647,-0.008795198,0.010073876,-0.033918295,0.059189167,-0.085130334,-0.08944931,-0.0002629781,0.08123884,-0.011180058,0.028427243,-0.0042000706,0.006707494,0.16631624,0.094770536,0.0059862826,-0.076959915,0.1294612,0.10511596,0.08499909,-0.09245481,-0.07422358,0.09581399,0.065375835,0.047063142,0.014800027,0.04665568,0.075234525,0.053429224,0.0053569446,-0.03888902,-0.0067271986,-0.09422081,-0.015802672,-0.04842447,-0.013934631,0.036042966,0.01032195,0.051966105,0.054375432,-0.035600536,0.05377273,-0.032098163,0.06039968,0.087853394,0.0076779444,-0.032914847,-0.039129294,0.07381068,0.028575715,-0.0140345115,-0.10096042,-0.003114866,0.08393028,0.12852298,0.052151434,-0.008324204,-0.07785991,0.0031965016,0.06154344,-0.079610184,-0.062442537,-0.018116584,0.09484548,0.08295067,0.059605204,-0.021759657,0.039476067,0.1560607,0.096643,0.066007614,-0.08277625,0.026194468,0.16368741,0.096652724,0.088844,0.013780017,0.08615172,0.12657158,0.027537668,0.14558001,0.08838616,0.056004994,0.009235385,0.10615288,0.14025833,0.0970287,0.036913056,-0.05141563,0.09209757,0.03238354,0.006316902,-0.033309817,-0.026103534,0.060450938,0.041226026,0.04446248,-0.038384456,-0.01905502,0.06452914,0.024812186,0.04864943,0.032669418,0.047240365,-0.1001293,-0.056620285,-0.08989534,-0.15553613,-0.123968124,-0.01982873,-0.022553315,0.01269125,-0.11515935,-0.087175384,-0.011476253,-0.032781642,-0.05792731,-0.06827117,-0.11432247,-0.07038977,-0.06983252,-0.046247132,-0.10509413,-0.11874393,-0.020118356,-0.0802437,-0.123670064,-0.13845196,-0.102658786,-0.060291763,-0.08432488,-0.003038373,-0.054993182,-0.12406669,-0.05165757,0.026708227,-0.06330783,-0.11918403,-0.11703835,-0.028258981,-0.031731654,-0.073551126,-0.038173318,-0.06892334,-0.021322077,-0.061542645,-0.059186492,-0.09438245,-0.04238543,-0.105937935,-0.06482352,-0.0048607197,-0.08038994,-0.023514144,0.004818543,-0.02303277,-0.026435582,0.0708167,-0.049673706,0.03610487,0.0259965,0.08389189,0.067037664,0.07648727,-0.019365843,-0.0031782992,-0.019630548,-0.041858714,-0.0035165553,0.050463833,0.07934547,0.016445938,-0.045657564,0.03703066,0.027241256,0.0074645304,-0.019883525,0.010881962,0.07190908,0.13045894,-0.07091101,-0.1501821,-0.14391722,-0.11748303,-0.07138763,-0.13196336,-0.15325525,-0.039338917,-0.05036456,-0.05891234,-0.07912006,-0.1083563,-0.042342942,-0.0031135052,-0.075575,-0.046633013,-0.062778555,0.01199178,-0.09245876,-0.18253349,-0.1344629,-0.13181722,-0.013136974,-0.0012938792,-0.089421965,-0.08829908,-0.036078878,0.01534948,-0.0056588785,0.026660617,0.07670827,0.057045158,0.04751339,0.062105365,0.09807156,0.06590631,0.046786837,0.059214536,0.022745263,-0.08478344,0.015451444,0.06610521,0.018876078,0.07239331,-0.111380085,-0.0416672,-0.17540143,-0.06488953,-0.029928414,-0.016254565,-0.07068238,-0.07946492,-0.08001576,0.00014583315,-0.029584913,-0.06839266,0.06149672,0.066106655,0.05031855,0.0183356,-5.5501674e-05,0.03248561,0.10335152,-0.06628896,0.09069791,0.0051426115,0.0122430455,0.03813225,0.07955789,0.05231023,-0.0118668275,-0.059557706,-0.0739533,0.006866362,0.03362508,-0.016992854,-0.048673388,0.06473908,-0.11185866,0.13055985,0.12761487,0.028105663,-0.037225254,-0.07906568,0.039760172,0.11965016,-0.0497708,-0.07731462,-0.1257954,0.013256573,-0.04492646,-0.04784514,-0.08039561,-0.19799063,0.19973356,0.15535209,0.14132674,0.019058863,-0.08316568,-0.11859807,0.0014708441,0.085101396,0.114683874,0.027807372,0.030611778,0.059626963,0.050180312,0.08116067,0.083975546,-0.071666166,-0.012032393,-0.15581664,-0.051162623,0.015561453,-0.11712766,-0.065833926,-0.062453214,-0.069155864,-0.009181189,-0.13630538,-0.11068686,-0.1324104,-0.021210289,-0.04603973,-0.054837342,-0.015664732,0.10147829,0.076498814,-0.11606295,-0.10313714,0.049513683,-0.014056227,0.019233633,-0.20541517,-0.03758169,0.0512996,-0.008734129,0.0032096633,-0.008075115,-0.026636915,-0.10439165,-0.09905682,-0.015125321,0.06177655,-0.13724433,-0.13891499,-0.14111747,-0.060218427,-0.09784425,-0.06110105,-0.06596645,-0.03625171,0.112165295,0.053929094,-0.058058,0.0046427394,-0.0024733057,0.082723044,0.08534123,-0.014374677,0.06263074,-0.06986354,-0.044794176,-0.040662877,-0.12164765,-0.117062345,-0.1273374,-0.06658073,-0.08467199,-0.040205162,-0.034964357,-0.14875491,-0.09387619,-0.042927265,0.054996945,-0.029583665,-0.1897156,-0.08165234,-0.036715202,0.035301674,0.051367328,-0.021373624,-0.073594645,0.018996166,0.100081064,-0.010912589,-0.022276387,0.15869616,0.010379684,0.20625731,0.16432051,0.2322906,0.13014433,-0.005650468,0.001384318,0.099407285,0.081670694,-0.016503165,-0.046889637,-0.020132119,-0.122802965,-0.097351395,-0.023125408,-0.103204705,-0.046053637,0.043629944,0.010211847,0.063723296,-0.08467329,0.047933076,-0.12968883,-0.013396609,0.11580657,0.026332568,0.0151034985,-0.03668162,-0.060240947,0.0958469,-0.023954961,-0.075259075,-0.13628629,-0.107058674,-0.05175029,-0.06132508,-0.037026327,-0.017378205,0.089863695,0.035035327,-0.05530388,-0.020161942,0.03694712,0.08036133,0.02584201,0.041447632,0.0010962024,0.042158384,-0.06392966,-0.0058583175,-0.006649615,-0.06548184,-0.11753894,-0.085499376,-0.027913498,0.07241192,-0.06608953,-0.04705413,-0.019700274,-0.04562856,0.022399753,0.03299344,-0.044040363,0.002212904,0.07846388,-0.07088336,-0.012837412,-0.07737577,-0.109464176,0.06451801,0.09354428,-0.07362975,-0.015430257,0.091432385,0.091621764,0.010320912,-0.09846391,-0.16282424,-0.16528623,0.0034466218,-0.015877746,0.16392164,0.096514635,0.015972704,0.025608953,-0.07795748,0.014883395,-0.018505886,0.08157162,0.08169595,-0.048439033,-0.076115206,-0.06601688,-0.036486987,-0.02700409,-0.02090646,0.023790441,-0.0147593655,0.11059233,0.0323496,0.03543032,0.011369985,0.018101873,0.13239491,0.104143165,0.011899775,-0.074642025,0.05217751,0.14865072,0.07704027,0.003736476,-0.039113667,-0.02845067,-0.0374338,-0.04934001,-0.022864893,0.038875483,-0.08226134,0.06526615,-0.022692282,-0.031905096,0.0037122904,-0.08339203,-0.075986564,-0.061589792,0.03915522,0.066153646,0.063664265,-0.01750166,-0.003115871,-0.042487126,-0.010002281,-0.041091863,0.003755307,0.07161153,-0.03344695,0.018855037,0.046752702,-0.0919667,-0.11662704,-0.052007627,0.100518666,-0.01928405,-0.07723983,-0.038302626,-0.004553803,-0.08532147,-0.07655299,-0.033386383,-0.03841607,0.0725431,-0.1012879,-0.17274849,0.026852615,0.112003684,-0.042536933,-0.053399883,-0.13649699,-0.032394443,-0.09080572,-0.066319376,0.07163835,0.044964623,0.12848009,0.060425796,-0.07984506,0.0009169416,0.113407895,-0.00051222614,-0.018525245,-0.05636498,0.008425664,0.037725978,-0.03539845,0.091850534,-0.03545621,-0.06175989,-0.065621234,0.0032912206,0.07117655,-0.08938477,0.032986376,0.007769991,0.024166064,-0.01922902,-0.05361123,-0.052658923,0.035523754,-0.012496992,-0.058312565,-0.044267047,-0.09260317,-0.022810511,-0.089429066,-0.014978045,-0.017873885,-0.057073515,0.06593838,-0.18685478,-0.011433523,-0.02040777,0.051456485,0.0019789115,-0.03644238,-0.024553271,0.09310387,0.06772272,0.038711872,-0.122588776,-0.12533696,-0.11108875,0.03969986,-0.029538825,-0.086860284,-0.010780482,-0.044547748,0.09731506,0.02777088,0.039265484,-0.08528346,-0.025959574,0.023513377,0.061350074,-0.06475574,-0.12342924,0.021586338,-0.14727382,-0.013721386,-0.07931461,0.06519653,0.03772408,-0.061544634,-0.036714043,0.003448085,0.06747572,-0.03077421,-0.13992345,-0.019945916,-0.12109365,-0.0035198033,-0.036188737,-0.15418217,-0.07906649,-0.039662506,-0.027658552,0.067371346,-0.10993512,-0.05806975,-0.031652257,0.053065825,0.057377815,0.071005344,0.04811401,0.02516507,0.034467597,0.006636133,-0.0002805234,0.057871692,0.06331881,0.06755738,0.0034084234,-0.05282432,-0.057230968,0.043483824,-0.021192348,0.022408875,-0.029626647,-0.05439835,-0.015187373,-0.006225447,-0.037449285,0.093795024,0.0502697,-0.0032906039,0.022984967,-0.0055038463,0.12616988,0.16480844,-0.034933988,-0.019856129,-0.03450336,0.12632541,0.038408034,-0.061998613,-0.11233457,-0.15080579,0.024426335,0.083402246,0.04327375,0.081328966,0.012277071,-0.0036461353,0.025990086,-0.03633387,-0.014684589,0.02411106,-0.018173037,-0.043504335,-0.032148816,0.0011757686,-0.017029168,-0.10724991,-0.02326126,-0.07184659,0.036368515,0.0748744,-0.08737519,-0.056847077,0.06314409,0.05820397,0.033404496,0.110811904,0.08283359,0.16095817,0.035478804,-0.0074107847,0.027201368,-0.06434407,-0.026264979,-0.13507749,-0.10561558,-0.00176166,0.051423624,0.11401806,0.1453031,0.18297878,-0.0634517,0.014816132,0.0997573,0.17719491,0.13614503,-0.022279138,0.0033078317,-0.09099436,-0.14613529,-0.14122564