-0.09558921,-0.047668874,-0.16806151,-0.17761831,-0.17479964,0.22551303,-0.20901793,0.26124918,0.08742277,-0.22401167,0.0018495294,-0.2124773,0.18935484,-0.13930127,0.27499026,-0.22937953,-0.16111629,-0.26359114,-0.1296087,0.12353855,-0.28197947,-0.22241911,0.13388187,-0.22973311,-0.14464669,-0.15397458,0.3254507,-0.097890556,0.16168244,0.17246686,0.22075279,-0.28250498,-0.25365305,-0.1481455,-0.0060732923,0.24751846,-0.11439823,0.29994273,0.2922802,-0.14265382,-0.07837882,-0.2655601,0.08745172,-0.22792014,-0.19924518,0.055294514,0.25673234,-0.059382413,-0.034985226,-0.10821756,0.020706335,0.2520606,-0.17425165,0.17684454,-0.25077975,-0.11353546,-0.06347975,-0.30074468,0.18156247,0.22196844,0.15708484,0.12093889,-0.11701439,-0.20183058,-0.2319563,0.09850505,0.042316183,-0.042742044,0.27477136,-0.079596974,0.2539715,-0.20790263,-0.32188407,0.20446827,-0.26892853,0.18111165,-0.24767497,0.20499186,-0.22551605,-0.14026159,0.014516525,0.2750709,0.25665167,-0.2392677,-0.24438463,-0.037011344,-0.26095724,-0.14594524,-0.17952503,0.33513498,-0.11878575,0.008078093,-0.17933185,-0.14534919,-0.23473012,0.17212434,-0.054033473,0.2493234,0.16377954,0.18409766,0.23496768,0.15752351,0.14270262,0.22204275,-0.1585514,0.2222773,-0.020518769,-0.124730125,-0.09047563,-0.03254032,0.013068525,0.10013276,0.17602895,0.21732482,-0.16552246,-0.14436011,0.14200556,-0.057698783,-0.14888555,0.024672259,0.045360275,-0.19747251,-0.039047547,0.2756403,-0.17939462,0.020474505,-0.111265756,0.25333178,0.1557793,0.18055987,0.08044721,-0.04275606,0.31211367,-0.10717751,-0.068869434,-0.18021758,-0.19617717,0.23759629,-0.17441344,0.1461762,-0.050919022,0.22374505,-0.08207569,-0.14249681,-0.09333013,-0.27733073,0.24742693,-0.03275905,0.21883859,-0.100235745,0.22620732,-0.026074959,-0.034860745,0.056387443,0.15143397,-0.09207794,0.36188006,0.019634802,-0.08582087,-0.086582154,0.20458227,0.2533999,0.2125132,0.2361725,-0.21970442,0.2155173,-0.14402044,-0.061373793,-0.123253934,-0.20527123,0.1917982,0.13448231,0.1346546,-0.04020374,-0.18859376,-0.0394318,-0.06713261,-0.0014677349,-0.123348735,-0.13207112,-0.05069174,-0.072668165,0.13042054,0.26415727,-0.0263207,0.014076295,-0.094802804,0.018619386,-0.096605666,-0.2122429,-0.103617445,0.19608378,0.2557162,-0.034564808,-0.088290796,-0.16748476,0.011807885,-0.10682249,-0.19829482,-0.1549951,-0.22667328,0.2265333,0.40440857,-0.21051948,0.3162597,0.16781151,-0.14016281,-0.31437793,0.052905668,-0.22559683,-0.162339,-0.060492173,-0.32343313,0.0028076603,-0.015332,-0.16813932,-0.03586096,0.29315877,-0.036369503,-0.26699746,0.326033,-0.0055005737,0.19361545,0.19861007,0.27941915,0.22788002,-0.15209453,-0.07650981,-0.0920683,-1.7400867e-05,-0.23981024,0.24888201,-0.164297,-0.07545961,-0.22863957,-0.21923342,0.2160121,-0.12407726,-0.10219985,0.0015429653,0.34163785,-0.23470794,-0.15991072,0.062746175,0.25154096,-0.022837192,-0.1975076,0.055363722,0.27664593,-0.06151694,-0.13501093,-0.08462752,0.11303052,-0.18385442,-0.14401992,-0.256468,0.0262783,0.06875067,-0.17181605,-0.12000566,0.28047705,0.005316838,0.08305499,-0.251429,0.15211132,0.17391466,-0.09891371,-0.21353096,0.07624688,0.17746064,-0.22072035,0.19624615,0.17560484,-0.28028196,0.27688405,-0.14807275,-0.0892896,-0.1244323,0.15127267,-0.25075063,-0.1450757,-0.16936521,-0.33472246,0.24363327,0.15581642,0.28155294,0.19552559,-0.20597592,0.20111434,-0.10166314,-0.12278549,0.16090056,0.17031041,0.23472133,-0.06634012,0.14390418,-0.21744762,0.2664341,-0.004595513,0.22164017,-0.20798746,0.270727,-0.07625484,-0.24636208,-0.1366373,-0.1256879,-0.13167676,-0.21716695,0.23079151,-0.09615228,-0.17850761,-0.11862051,0.1584417,-0.28483024,0.24518664,0.096727245,-0.24939106,-0.16508105,-0.13214938,0.21709077,-0.113513686,-0.23748393,-0.10910311,-0.001797938,0.27971324,-0.1701616,-0.08751675,0.2862343,0.19592509,-0.06954352,0.09633362,-0.21971919,-0.30621672,-0.15648142,-0.22694786,-0.07504002,0.26171017,-0.17888506,0.34890983,-0.092611425,0.4133284,-0.3191682,-0.13641681,-0.15315188,-0.24505427,0.17565504,-0.118697405,-0.03004808,0.20279844,0.26101872,0.24677612,-0.17903626,-0.12781581,0.18072529,0.25438505,-0.10590335,-0.22818759,0.16037779,-0.1358174,0.29254416,0.11391249,-0.17653129,-0.30311376,0.20026664,0.022634663,-0.2777981,-0.16252838,0.08218792,-0.14017384,-0.31450236,-0.13255177,0.014803536,0.1265909,0.06706845,-0.2527647,0.35960498,0.32665992,-0.05047603,-0.23091565,-0.1059483,-0.18411885,0.26606888,0.21627186,0.07310306,0.14276218,0.24466415,-0.23045182,0.23361036,-0.013113392,0.32853663,-0.12773797,0.17672679,-0.23948482,-0.116042145,0.23177432,-0.19330099,0.063076936,-0.19449061,-0.12516752,-0.18864168,-0.05773937,-0.19272017,0.03966542,0.18352643,-0.038461607,-0.16034046,-0.0020900308,0.12961653,0.0013613955,-0.04013903,-0.13774864,0.23380949,0.13909237,0.14597724,0.14079888,-0.12574957,0.27992153,0.28745213,0.19765002,0.13517316,-0.049368445,0.19989575,-0.2903767,0.19224602,0.20297334,-0.16943862,-0.10394229,-0.014157559,-0.019054478,-0.110877,0.30791914,-0.05933814,0.15745613,-0.09478215,0.16197965,-0.0072503807,0.2489116,-0.08308507,-0.14939499,-0.024106208,-0.03455927,0.09536908,0.1538478,-0.04193999,0.16951874,0.10388254,0.2099973,-0.15815523,-0.15804712,0.2076969,-0.18876949,-0.17426896,0.3215596,-0.17200454,0.28322494,0.18401587,-0.18015148,0.19271831,-0.037770964,-0.0579756,-0.13896382,-0.19622104,-0.23639815,0.2367794,-0.024334533,-0.15382327,-0.07856033,0.3206269,0.13224877,-0.17462264,0.048314758,0.13380963,0.18933691,-0.24491976,0.05550344,-0.098049946,0.26511413,-0.22551465,-0.2405296,0.06633309,-0.17319836,0.34623724,0.045661822,0.1144045,0.17466691,0.18609424,0.15405995,-0.19033787,0.07082073,-0.08009954,-0.004013972,-0.050546836,0.28798744,0.20486307,0.22410133,0.07543078,-0.14172775,-0.07512533,-0.1512528,-0.19168472