-0.065703474,-0.01584253,0.01616496,-0.16246454,0.01594424,-0.09836945,0.16121589,-0.17703311,-0.17210518,0.017036093,-0.22309405,0.18071164,-0.18605642,-0.05525982,0.004881562,-0.10327971,-0.18137264,0.05306898,-0.20943768,-0.197311,0.3079191,0.20544744,-0.10980812,-0.097592555,0.07666339,0.013485943,0.21136987,0.19925481,0.09986356,-0.026383247,0.17861933,0.15912506,0.24172652,0.31970194,0.3428424,-0.3518509,-0.3050153,-0.08614862,0.21928592,0.4092603,-0.094175585,-0.09921853,-0.2631925,-0.24466813,0.017607942,-0.24857934,-0.22650652,-0.16851924,-0.34646878,-0.064935945,-0.16625038,-0.13388617,-0.059539355,0.07761239,-0.11706754,-0.021176843,-0.20591466,0.07216377,-0.1335169,-0.26298127,-0.05323153,-0.081546925,0.02461288,-0.23688093,-0.1422819,0.07673572,-0.003002309,-0.07309843,-0.14619868,0.18147251,0.16684909,0.16626011,-0.08387197,0.1385875,0.21774276,-0.017170424,-0.021273315,-0.14711693,0.16821034,-0.17392752,-0.0047323406,-0.03550381,-0.040469695,-0.05440794,-0.14623316,0.2448174,0.10152107,-0.25162098,-0.19996566,-0.22724417,0.2875062,0.24828963,-0.08621734,-0.20807815,-0.19081777,-0.06993977,0.33383065,0.1257916,0.026477208,-0.19936068,-0.06590278,0.09613624,0.4799339,0.47517297,0.24706371,-0.23814626,-0.08760475,0.001615483,-0.080647856,-0.1922092,-0.0041831112,-0.11914513,-0.32578173,-0.07388597,-0.21766508,-0.13219813,0.07920711,-0.25628036,-0.31155017,-0.20207506,-0.12189518,0.019716145,-0.21270402,0.09572315,0.044635132,-0.3031077,-0.18753193,-0.28351754,-0.32181826,-0.12501878,-0.023237797,-0.20690703,-0.22092892,-0.29314852,-0.20849888,0.13688667,-0.0264293,-0.04681752,-0.03309669,0.05595789,0.22682795,0.039553512,0.4054739,0.22247975,0.18614766,-0.09844546,0.20811015,0.17567775,-0.11843695,0.082599595,0.03885478,-0.018194348,-0.06092851,0.15244415,0.19964461,-0.17966712,-0.20699523,-0.0013852122,-0.013285115,0.25354043,-0.18690953,-0.16647649,-0.19085686,0.105370454,0.14173102,-0.1830261,-0.2144638,0.030959636,-0.011455479,0.27240184,-0.11065225,-0.12513682,0.13102989,0.10616332,0.060917974,-0.045631774,-0.19658512,-0.18697035,-0.026991293,0.20224823,-0.16661501,-0.07584649,-0.18947792,-0.026995651,0.21444905,-0.15815185,-0.26099852,-0.12117797,-0.15213329,0.23969284,-0.1979377,-0.21518567,-0.18375671,-0.13234335,0.1854447,0.014204528,-0.14295383,-0.2626936,-0.0052138255,0.31418183,0.13590682,0.038805947,-0.36133537,-0.1802381,0.10520835,0.21820696,0.15814294,-0.026495367,-0.3748297,-0.06344227,-0.07913733,-0.033081133,0.028215712,0.10725879,0.05743673,-0.090027094,0.21119781,0.246423,0.21001878,0.09175195,0.23976026,-0.03694535,0.06761619,-0.09783983,0.05777972,-0.06583748,0.027170662,0.024193013,0.0031369785,0.10661099,-0.13534263,0.15830451,0.19579954,-0.106556214,-0.047472894,0.13111362,0.22446275,-0.04572822,-0.012115115,-0.24629517,0.035218727,0.20294274,-0.026118876,-0.16751257,-0.24425566,-0.06224776,0.027791498,0.100184165,-0.099568255,-0.10664962