-0.06919518,-0.052102275,-0.011132745,-0.1404374,0.04571191,-0.124361485,0.118900076,-0.20029035,-0.16881765,0.028805431,-0.25660038,0.1519431,-0.1932376,-0.08123488,-0.013956083,-0.07742714,-0.19614898,0.03346323,-0.22983147,-0.21606466,0.35177568,0.22520697,-0.09868069,-0.10969423,0.055694744,-0.10807761,0.14162406,0.21346068,0.15290658,-0.007822464,0.16997828,0.16394474,0.22394721,0.3240121,0.2634387,-0.28288826,-0.20294856,-0.054505304,0.28302813,0.44836056,-0.14912395,-0.12344259,-0.29301438,-0.20852944,0.07184784,-0.24523653,-0.1910899,-0.1915667,-0.39791664,-0.18100065,-0.14730012,-0.10798867,-0.037557915,0.11601776,-0.11255003,-0.031922214,-0.21503325,0.043250218,-0.14864881,-0.306017,-0.068541914,-0.07830859,0.012658265,-0.25327623,-0.19976863,0.08340083,-0.0045225974,-0.06961052,-0.12863138,0.19944255,0.1650638,0.16574019,-0.07527248,0.20125158,0.2891377,-0.033322733,-0.023599928,-0.14652455,0.18832757,-0.1540781,-0.017742401,-0.077121295,-0.08127037,-0.045593664,-0.093477935,0.19125019,0.047860947,-0.2805135,-0.13779242,-0.19592644,0.24432264,0.2870333,-0.04661774,-0.18505675,-0.21604523,-0.10219955,0.36644572,0.106794946,-0.025678815,-0.24869142,-0.010960505,0.22131501,0.5490595,0.48814404,0.31791177,-0.2575981,-0.057982124,0.032404255,-0.009060789,-0.15130378,-0.10737003,-0.230571,-0.3672646,-0.06885745,-0.25001383,-0.2039273,-0.017397612,-0.2774474,-0.32058826,-0.20402636,-0.19572963,-0.062130917,-0.238339,0.08229153,0.070478,-0.32639137,-0.1580125,-0.26905528,-0.3018108,-0.1140823,-0.12202789,-0.22882459,-0.22750966,-0.27340382,-0.19962719,0.12935469,0.01982564,-0.017592689,-0.026443128,0.040387653,0.1855013,0.04733054,0.35751173,0.19212362,0.1209692,-0.17317379,0.1875376,0.16311224,-0.100861564,0.028404146,0.03853643,-0.01998028,-0.019299852,0.21958597,0.061624665,-0.19119154,-0.16980608,0.041145556,0.008247079,0.16529071,-0.23870279,-0.14880545,-0.16400856,0.15198846,0.13133888,-0.21671313,-0.18278079,0.024766246,0.02535896,0.27346608,-0.14555873,-0.11911912,0.06551334,0.15760873,0.08114031,-0.082432404,-0.26300865,-0.18089555,-0.039577857,0.19593732,-0.17976092,-0.13941416,-0.20150644,-0.07113637,0.18218885,-0.16019145,-0.27772844,-0.10578593,-0.17927678,0.1727402,-0.20555863,-0.21262503,-0.14570858,-0.15251102,0.19658743,-0.06725042,-0.18315095,-0.3218412,-0.10430065,0.33275053,0.12063651,0.02903577,-0.4320729,-0.23526633,0.15841573,0.19254643,0.1658883,-0.048594784,-0.43446153,-0.047534607,-0.19700865,-0.061715875,0.05939784,0.10167176,0.059323836,-0.16750626,0.21413118,0.19862732,0.21344647,0.015743092,0.20785831,-0.065919995,0.03168701,-0.09274976,0.008639835,-0.099222094,0.04526335,0.11096592,0.015030018,0.08505931,-0.14925635,0.23292868,0.25320724,-0.095597215,-0.052512873,0.15441455,0.2640554,-0.05855233,-0.00040451862,-0.23236978,0.09446387,0.18533291,-0.11273406,-0.14646894,-0.2678742,0.01255475,-0.017777175,-0.040406052,-0.12414529,-0.13645716