0.009028512,0.012150416,0.072693095,-0.030974226,-0.101170026,-0.028426055,0.041599102,-0.06952033,0.021822216,0.0344767,-0.012401055,-0.03215791,-0.060753275,0.048436835,-0.07407427,-0.07417572,0.04108663,0.027084699,0.034549903,-0.009625695,-0.051937416,-0.021569377,-0.02568365,0.010484064,0.059621364,-0.1814116,-0.18609384,-0.1117617,0.0063115177,0.054853037,-0.20339887,-0.20655812,-0.046687007,-0.13580403,-0.08936209,-0.19168966,-0.2197436,-0.06336825,-0.1679511,-0.22645526,-0.23621379,-0.1721243,-0.12132576,-0.114651,-0.20177239,-0.25324905,-0.13496494,-0.24119489,-0.19503686,-0.12263452,-0.036781605,0.022477543,0.080190055,-0.015687741,-0.060504463,0.02684215,0.048202842,-0.058362205,-0.021964762,-0.046519082,0.038467076,-0.046727743,-0.115353964,-0.06839513,0.0095520895,-0.061351366,-0.068209454,-0.026730372,0.021212373,-0.033807747,-0.056686584,-0.027075222,-0.04939814,0.09171489,0.0645775,-0.14939387,-0.08140421,0.031660683,-0.017491,0.062651984,-0.062654585,-0.02126286,0.054132566,0.049938302,0.011399378,-0.00919201,0.026999189,-0.005295652,0.10339423,-0.00047300433,-0.11844334,-0.02649904,0.09342594,0.012074457,-0.07042752,0.027175777,-0.057046622,0.022560589,-0.06319891,-0.0265711,-0.028904026,-0.09629216,-0.05169462,0.016045207,0.05136918,-0.122767225,-0.06552977,-0.06912237,-0.0060843495,0.057452127,-0.08767632,-0.0713021,-0.009782577,0.052541576,-0.061778717,-0.10067598,-0.051823966,0.009864755,-0.042486228,-0.07649799,0.00081080006,-0.0343763,0.0122856,-0.057735324,-0.08701192,-0.17312793,-0.09480364,-0.0045353724,0.04078578,-0.105352715,-0.09501177,0.08149241,0.05118878,-0.1430742,-0.18224646,0.009949146,0.0032497724,-0.046484813,-0.12958094,-0.07766287,0.008042421,0.013088463,-0.19704074,-0.11903966,0.021372724,0.018474065,-0.09863119,-0.079115994,-0.010189004,0.08225432,0.005668812,0.09503684,0.058099322,0.106697924,0.1304839,0.02610258,0.042971995,0.104442306,0.03204943,-0.006234034,0.18447596,0.07252046,0.019863147,-0.079554066,-0.023185648,0.13439654,0.006207441,-0.06562188,-0.10461077,-0.051685184,0.03090836,-0.06032675,-0.1589303,0.02751841,0.047392886,0.18446349,0.096379206,0.11926223,0.1075535,0.03725646,0.18383373,0.051076125,0.019996008,0.07693729,0.06851876,0.1294581,0.014047897,-0.02203298,0.0066205123,-0.0386705,0.04964018,0.034486566,0.010661446,0.068397276,0.017863564,0.072403245,-0.04879438,-0.047606274,-0.044644,-0.047828365,-0.27242166,-0.11314584,-0.098867536,0.039259378,-0.13388573,-0.14873342,-0.055216476,-0.113635205,-0.101880826,-0.17936128,-0.14178221,-0.03449338,-0.010700401,-0.13882937,-0.12273424,0.030843927,-0.003195884,-0.06336684,-0.0684729,-0.092337996,0.015387025,-0.06819072,-0.04200093,0.11061989,0.05409474,-0.105481066,-0.096535005,-0.06388108,-0.0044523957,0.13110271,-0.18567947,-0.034658074,0.054859545,0.11752219,0.087778464,-0.18267813,0.097587705,0.022845717,0.024963684,-0.07913009,-0.03948219,0.08841473,0.0787929,-0.03418171,-0.22736542,0.08790007,0.038371515,0.028011598,-0.14593107,-0.1270496,0.027291287,0.0076121767,0.050217155,0.043574393,-0.08561511,0.011448621,-0.033524636,0.02181583,-0.040576648,-0.018765507,0.00022543824,0.007499853,-0.0207502,-0.027145613,-0.0499641,-0.048350014,0.024836093,-0.004892038,0.038940884,-0.053701032,-0.04929505,-0.02185447,0.018803375,0.020495158,0.05493253,-0.08301806,0.05390543,0.10217116,-0.061610032,-0.16807868,-0.14594594,-0.07056802,0.048351046,-0.06347699,-0.16045989,-0.10648188,-0.1213756,-0.13055691,-0.02726226,-0.042513434,-0.16522446,-0.10949619,-0.13050374,-0.004492809,-0.005792245,-0.1673944,-0.05328496,-0.10271344,-0.21053234,-0.21226738,-0.045739494,-0.14031403,-0.059127174,-0.009955621,-0.06683374,0.032391224,-0.0765083,0.0090998225,-0.057001583,-0.04065528,0.003421969,0.016418517,-0.073151425,-0.06915309,0.023531817,0.037253138,-0.07044659,-0.060136586,-0.11423427,0.021992395,-0.022239674,-0.062603325,-0.072669625,-0.012714144,0.03776738,-0.07234397,-0.12503864,-0.06925515,0.032027796,-0.07344969,-0.04717561,-0.0869585,0.030934026,0.069819294,0.0012956876,-0.0010124686,-0.08402716,0.10087526,0.04816688,-0.03417055,-0.090662494,0.050508667,-0.017440202,0.028878292,-0.042845014,-0.018249165,0.04267767,0.06977415,0.044731997,0.060294125,0.012288958,0.058255453,-0.05670134,-0.0759851,-0.11815125,0.005720826,-0.0699035,-0.07777447,-0.12023927,-0.06725452,-0.00017235444,-0.083843485,0.010408592,-0.023396341,-0.12450692,-0.029502945,-0.0533419,-0.075223476,-0.071307816,-0.11277287,-0.043136675,-0.03195901,-0.046042666,-0.13591036,-0.10897812,-0.09721674,-0.11927,-0.2379315,-0.024882033,-0.034506228,-0.07637993,-0.106963664,-0.057581972,-0.010385887,-0.106951945,-0.06294571,0.017372087,0.043242864,-0.04611815,-0.11978616,-0.01490234,0.09286998,-0.043307964,-0.22505139,-0.18551306,-0.07613989,-0.08034926,-0.12261375,-0.034116786,0.02106275,-0.027086517,0.08967605,0.06510206,-0.10962543,0.07909156,-0.049400836,0.16180018,0.16773388,0.029639779,-0.0009911634,0.046254687,0.15844099,0.097552665,-0.034423754,-0.115323365,0.1169975,0.08214724,0.0007887867,-0.021753049,-0.0852979,0.1058147,0.022495363,0.060993984,-0.0260163,0.025078233,0.044987995,0.13817836,-0.058953192,0.05228156,0.10386569,0.06864075,0.059276894,0.086443216,-0.03520209,0.059392434,0.1418031,0.16602352,0.0866006,0.0034656136,0.0018433818,0.17249602,0.13421224,0.07914929,0.030244388,0.10700475,0.03628728,0.13457796,0.03324532,0.030077506,0.04514748,-0.12952182,-0.120338485,-0.02296604,-0.032634027,-0.07741391,-0.14094567,-0.12740459,-0.05192603,-0.0064416756,-0.1261267,-0.08132446,-0.064137004,0.069133475,-0.05164947,-0.097073816,-0.08720671,-0.037648164,-0.06925912,-0.06216827,-0.091426924,0.00090607617,-0.1033458,-0.12296496,0.121007495,0.0946929,-0.10290321,-0.18490633,-0.02113803,0.056359068,-0.023818802,-0.039718375,-0.12999581,-0.036512673,0.0028239351,0.04715143,-0.15271665,-0.06533526,0.15091428,0.025807707,-0.0066776676,-0.16205874,0.051051155,0.04985454,0.088667795,-0.0955131,-0.015217828,-0.047335822,0.08694466,-0.0694362,-0.088023804,0.055903886,-0.029939702,-0.09080485,-0.007589639,-0.04290183,-0.02940659,0.07478354,-0.02993471,-0.026701534,0.07627352,-0.08825633,-0.037265293,0.02135015,-0.076938175,-0.0034931381,0.01764621,0.01819033,0.0823119,0.06459389,-0.08691712,0.06593971,0.038902648,0.019693118,-0.01974457,0.019275025,0.18004413,-0.028087817,-0.107294105,-0.12111179,-0.17803608,-0.050839704,0.0041870866,-0.09344367,0.008755292,0.08840507,0.15490913,0.04101777,0.0327614,0.050548535,0.2120801,-0.018549899,0.07187119,0.16451824,0.112493254,0.03901633,-0.06964559,-0.11893588,-0.047002554,-0.091495655,-0.13678768,0.05601102,0.039581917,-0.09722494,0.043586496,0.00026276286,0.08379754,-0.005892879,0.022677721,0.035054184,0.024115274,0.074037515,0.032867342,-0.023694964,0.027704913,0.019461676,0.0017176,-0.004426394,-0.00616136,0.06261237,-0.062202998,-0.025729496,0.09934639,0.05415676,0.14295721,-0.0103375055,-0.09580827,-0.13307925,0.03412635,0.013961215,0.09852573,-0.052705303,-0.016826538,0.13041827,0.066729896,-0.025518823,-0.113258526,-0.028443297,0.004817838,-0.011823905,0.01278699,0.015569698,0.01898124,-0.1426437,-0.16886215,-0.20480941,0.0074539445,0.110407494,0.09361177,-0.028633181,-0.20841907,0.12021704,-0.061487213,-0.11000382,-0.08430063,-0.019349955,0.006637838,-0.050800737,-0.12878725,-0.056201436,-0.09598875,0.11502293,0.15727898,0.05465104,0.10216473,0.18885484,0.055841357,0.05882155,0.01754546,0.17801358,0.17566031,-0.0035198955,0.077159576,0.17324167,0.13670321,0.03756122,-0.11123843,-0.067662224,-0.035052493,-0.029695584,-0.06899303,0.011765062,0.013396486,-0.040662743,-0.042734176,0.101423725,-0.017247712,0.060949326,0.015875258,0.09304036,0.087884545,0.03378516,-0.044790782,0.030204864,-0.022507036,0.053951316,0.08186299,-0.018092267,0.103890985,0.10121099,0.12562698,-0.07309288,0.011453405,0.049612515,0.09458233,-0.1947928,-0.06745851,0.07860618,0.091223516,0.006298496,-0.12073649,-0.13120338,-0.03860295,0.057202272,0.04856231,-0.0033836572,-0.14703022,-0.117775634,-0.10820842,-0.08172604,-0.06912036,-0.19647491,-0.18069617,-0.12530762,-0.0807864,-0.089316644,0.031483788,-0.010805406,0.093756236,-0.021040684,-0.15826955,0.009136102,0.03632466,0.15651521,0.10800976,0.011414324,-0.082664706,-0.070260525,0.14040466,0.04524553,0.017344048,-0.08692952,-0.10840822,0.05968086,-0.046480414,-0.1460115,-0.15523793,0.03290366,0.005785593,-0.0075053466,-0.18176022,-0.09272096,-0.08104653,-0.015458078,-0.090990506,-0.04276323,0.02066293,-0.00609911,-0.007676726,-0.06773789,0.041545447,0.024114568,-0.08086714,-0.10776389,-0.07481987,-0.013859179,0.009381068,-0.1211132,-0.15254594,-0.16214393,-0.053331416,0.014829524,-0.06723494,-0.11762687,-0.005147792,-0.09963326,-0.03216064,-0.12911692,0.030524546,0.11625441,0.13935569,-0.07426387,0.1041286,0.19753912,0.080747955,0.047411658,-0.06889844,0.023430642,-0.019767154,-0.07375917,-0.07262541,-0.0013399251,-0.176178,-0.11658746,-0.1226107,-0.17378935,-0.12181524,-0.04556152,-0.08129363,-0.13481227,-0.023681099,-0.00874252,-0.10340456,0.021805638,-0.06925842,0.036171786,0.0208764,0.00834731,0.05290585,0.06582847,0.11602727,-0.011592368,0.059323024,-0.01225993,0.071449354,0.025160557,0.030243892,0.010787222,-0.012131807,-0.023749378,-0.058146004,0.044859443,-0.06530753,0.015569543,-0.0071332594,-0.013402137,-0.10864698,-0.15072465,0.042893637,0.13138506,-0.048976563,-0.16900964,-0.047583453,0.06327304,-0.042138625,-0.10777476,-0.07582043,-0.06919578,-0.012307561,-0.006591205,-0.028237691,0.024347108,-0.029832784,0.12846117,0.033837434,-0.03350254,0.058413025,0.16342129,0.10076321,-0.07156364,-0.15965202,-0.01178224,0.040751062,0.00081743504,-0.047302537,-0.08880424,0.100669086,-0.06288172,-0.002782164,0.015068398,0.057320878,-0.009681741,0.072397165,-0.019450188,-0.045623615,0.012051158,0.004196093,0.050153308,0.09534756,0.024698993,-0.029324122,-0.015914919,-0.059162956,-0.09477648,-0.087008,-0.08772404,0.011523988,-0.1220334,-0.040896405,0.027434329,0.11701157,0.047124546,-0.08541471,-0.061938453,-0.0039595272,0.17071791,-0.036000565,-0.026003554,-0.14804631,0.011198534,0.18304771,-0.05155464,0.04397384,-0.044852316,-0.051888816,-0.10905264,-0.047918774,-0.0050886436,-0.175809,-0.13216394,-0.014184413,-0.115505405,-0.040589288,-0.022834042,-0.034768954,0.039259072,-0.017358923,0.011643522,-0.038129244,0.00435314,-0.09025689,-0.10323301,-0.045580763,-0.09297318,0.037227135,0.018474588,-0.027303891,0.10430272,0.16975082,0.08794603,0.0079755355,0.017749878,0.11730155,0.102947615,0.03423021,0.028174879,0.01359344,0.009001679,0.08457151,0.07540412,-0.079072945,0.048715226,-0.022392774,-0.11666289,-0.045371905,-0.033458874,-0.086746514,-0.030313155,0.1645328,0.123033576,0.08378859,-0.07630469,0.10997224,0.134183,-0.002254391,-0.012231709,-0.06701622,-0.13367009,-0.029076627,-0.010777254,-0.03459404,0.01078703,-0.07230457,-0.07604037,-0.023484318,-0.09518936,0.1346363,-0.025186872,-0.0043144627,-0.013305497,-0.039813437,0.06633249,-0.036691517,-0.08403903,-0.03197732,-0.020938888,0.09467014,0.035006043,0.013213862,-0.03320463,-0.06264367,0.007777542,-0.14063205,0.04174218,0.058746047,-0.0034039505,0.043202322,-0.07430169,-0.14814669,-0.06704062,-0.084539406,0.04485077,-0.13979243,-0.15089525,-0.014766391,-0.07567882,0.033761,-0.027727451,-0.074244075,-0.061056722,-0.035452466,0.026132286,-0.12165943,-0.1755231,-0.16688518,-0.09108257,0.01831001,-0.0009891156,-0.008771346,-0.04859924,-0.019115942,-0.069908015,-0.0031585444,0.06435782,-0.054165244,-0.13444383,-0.0301013,0.024870886,-0.002599865,0.1260061,-0.0024848448,-0.0049088933,0.078263685,0.15387772,0.011042903,0.010268611,-0.011911913,0.107426465,0.10044661,0.010901887,0.040855702,-0.07842133,-0.19146344,-0.21359311,-0.10166205,-0.12005208,0.09836631,0.10156712,-0.007650941,-0.0048908256,-0.043372765,0.07494336,0.009338515,-0.0724781,-0.16975795,-0.029932296,-0.015239645,-0.026765378,-0.07102174,0.092270486,0.14869538,-0.04383696,0.024330737,0.058376107,-0.0022208868,0.09348476,-0.12053242,-0.04695549,-0.024338752,0.009815888,0.08820391,-0.10773418,-0.051752776,0.0016994264,0.07820843,-0.0317535,-0.038123515,0.069504425,0.0048183575,-0.015160616,0.03952369,-0.060381573,0.019877478,-0.06589701,-0.051665973,-0.061312348,-0.029976234,-0.06717292,-0.035163358,0.012239485,0.04075237,-0.0765656,-0.078292646,0.0695543,0.019957734,0.0018659602,0.050602905,0.052262668,0.07808437,0.058175378,0.11739641,0.086780764,-0.035577375,-0.11926668,0.0004543746,0.06815939,-0.08356483,-0.115102336,-0.054152977,-0.025485808,0.10536198,-0.0280397,0.012620588,-0.062203582,0.014680314,0.071417406,0.18057506,0.05369393,-0.07563166,-0.0925911,0.018978737,-0.016275095,-0.02258149,0.01139242,-0.016543973,-0.052205853,-0.024587555,-0.11852224,-0.021962712,-0.10433641,-0.05340954,0.004952759,-0.004439593,-0.07655401,-0.05225987,0.0035477658,0.037947834,-0.09988597,-0.06081768,-0.11087171,-0.10945326,-0.0052845674,-0.012365835,-0.017595047,-0.027533598,-0.09416657,-0.004954532,0.08093693,0.19037244,-0.012461612,-0.0932126,0.0033345958,-0.03336101,0.07383039,0.05888922,-0.047382977,-0.09622962,-0.053112827,0.0546968,0.074552104,0.023449624,-0.070012964,-0.05917736,0.0107141035,0.004246414,-0.05393751,-0.07329979,-0.12411765,0.010412557,0.017335301,-0.018171575,0.0635837,0.08785981,0.033508398,-0.082227916,-0.06502458,-0.03231975,-0.031096246,-0.114519656,-0.0363013,-0.050540775,-0.10159865,-0.08476147,-0.1097101,-0.11693823,0.0012892017,-0.004559981,0.04410649,0.01651987,-0.101252474,-0.045246843,0.10971986,-0.020726213,-0.024873465,-0.033317987,-0.015217902,0.13423276,0.14843886,0.21156882,0.033966012,0.0693587,-0.05130423,-0.0692482,-0.10688662,-0.10458647,-0.05777617,-0.07098946,-0.112477235,-0.20755565,-0.19001071,-0.070431806,0.027496088,-0.1391797,-0.20906587,-0.09469525,-0.07934249,-0.06295306,-0.08963982,-0.1302414,-0.0957411,-0.119114056,-0.13882872,-0.06199856,-0.1498782,-0.07911282,0.027564656,0.029569188,0.10832228,0.045187548,-0.029347664,0.06022622,-0.014373561,0.10231458,-0.004029894,-0.051800754,0.24328049,-0.22281918,-0.101703085,-0.049930263,0.03971434,0.20857622,-0.18689731,-0.035042882,-0.05328375,0.043357637,0.22499864,-0.20470242,-0.1323506,-0.018506257,-0.06963172,0.051187858,-0.045768727,-0.05868406,-0.03753985,-0.065337636,0.012255731,-0.10050566,-0.014188276,-0.12824076,-0.08722666,0.15896486,-0.17918068,-0.17849325,-0.07042968,-0.018795274,0.17030573,-0.15390675,-0.06961865,0.0010107877,0.06909297,0.16220655,0.047057007,0.060786273,0.027600242,-0.025958462,0.070274286,0.04861679,0.072500244,0.040356595,0.1044472,0.05382299,0.20396146,0.10194645,-0.014486684,-0.06882293,0.01332827,0.22225869,0.0011814364,-0.065755814,-0.05271438,-0.011630456,-0.089109585,-0.15769115,-0.032676492,-0.11171838,-0.12555276,0.046506844,-0.030724999,-0.15340568,-0.21302149,-0.12316702,0.0079276925,-0.023624627,-0.04827372,-0.03966433,-0.12063451,0.0051963055,0.06951059,0.07650728,0.14625219,-0.1432099,0.092883185,0.15397121,0.061448716,-0.022057215,-0.1176094,0.12004437,0.003768519,-0.034309074,-0.153094,-0.04065147,-0.06749454,0.009804148,-0.003844286,0.08184901,0.084264405,0.015288644,-0.045205124,0.05702323,0.0432429,0.034667585,-0.093791164,0.013081005,-0.034328252,0.06238982,0.0522518,-0.052412707,0.052706614,-0.00094355195,0.02648408,0.047949977,-0.006676246,0.027863417,-0.049514316,-0.045031056,-0.017768092,-0.10829751,-0.17841865,0.002457576,-0.007386392,-0.067186,-0.1483413,-0.07149947,0.12176642,0.07052911,0.10574806,-0.034009285,0.07434587,0.26079705,0.17411207,0.02720067,-0.042266853,0.13912088,0.049660288,-0.07655252,-0.19914374,-0.15910666,-0.035820827,-0.023828316,0.017665194,0.0056650704,0.016909175,-0.027138943,0.021547254,0.07363531,0.09578901,0.06218508,0.007294576,0.089212365,0.08672136,0.074690685,0.08418391,0.07422313,0.04559271,0.028980864,0.045581087,0.03115049,-0.007765526,0.053488325,0.00043362193,0.030216468,-0.059477422,0.08537105,-0.057067256,0.034976188,0.042850006,-0.118764035,-0.032576565,0.07666084,-0.088878095,-0.069193795,-0.14557134,-0.11092768,0.08732782,0.062815115,-0.10640291,-0.19628121,-0.069518715,0.07006865,0.07215593,-0.09381217,0.05124649,-0.11190648,-0.087641515,0.01952104,-0.1377093,-0.0011368577,-0.03795,0.05380522,0.01336033,-0.084485926,0.040214133,-0.025570488,-0.060318712,0.005959327,-0.017619397,-0.06618398,-0.053063724,-0.037233938,0.07893457,0.13053283,0.044916444,0.1055091,0.17637423,0.19915274,0.11169626,0.08191217,0.15637696,0.16253193,-0.00032332988,0.00078348216,-0.029831747,0.023312014,0.061101753,0.15001097,0.16221146,-0.03129758,0.021272294,-0.06409414,-0.0417495,0.017733805,-0.088225566,0.06940112,0.13159798,0.11173628,0.13326071,0.06555523,0.12954591,0.12454227,0.08202701,-0.023322126,0.06926487,0.011157749,0.10821752,0.12851544,0.07046442,0.0041824915,-0.07538319,-0.044826306,0.011696068,-0.04897217,-0.048238244,-0.0939044,-0.066258706,-0.06711363,-0.061057404,-0.13673304,-0.12050171,-0.048759047,-0.085581824,-0.019494643,-0.12328875,-0.22774604,-0.12592086,-0.02646604,0.02747314,-0.078920886,-0.19840474,-0.022860503,0.0026832838,-0.059181366,-0.19284087,-0.08792807,-0.0052288105,-0.008511572,-0.13290177,-0.03434546,0.03030885,0.039576538,0.023565583,0.04718332,-0.02121293,0.020821253,-0.060140178,-0.076246776,-0.009054151,-0.1047061,-0.1550701,-0.0667536,-0.058287606,0.006524651,-0.19482495,-0.07364291,9.959443e-05,-0.043650076,-0.0058665434,-0.14639993,-0.031178737,0.056523677,0.017363265,-0.11471156,0.043704256,-0.020540355,-0.06837407,-0.080366716,-0.09405614,0.01331801,0.08184826,0.085352,-0.031558577,-0.05205256,0.08628247,0.046961542,0.008936242,-0.058180604,-0.08964227,-0.0030210551,-0.09047815,0.050296888,0.080156736,-0.07381863,-0.010474676,-0.007958027,-0.054767903,-0.098425865,-0.13175733,0.014805063,-0.020167096,0.009066919,-0.119417235,-0.05837803,0.0016918713,-0.07475749,-0.02169508,-0.1098206,-0.098176375,0.0015777923,0.011750311,-0.019417612,-0.10692067,-0.118759856,0.116268076,0.04213108,-0.03445914,-0.027070282,0.03324501,0.030054346,-0.11827181,-0.01998296,0.07173929,-0.02099337,0.0049600396,0.051367372,-0.059370518,-0.0017064138,-0.042403173,-0.0013513818,-0.0030817932,-0.10064468,0.03166038,-0.09343664,-0.0046605393,0.0011893379,-0.05553616,-0.051576294,-0.07094073,0.052702185,-0.009613693,0.0052886824,-0.04380077,0.019167969,0.0008794445,0.06678467,0.016857142,0.029703569,0.0034756449,-0.17617007,-0.18916519,-0.08716352,-0.0029205245,-0.032139093,-0.15963092,-0.097757384,0.01740281,-0.06045317,-0.008738619,-0.104082264,0.11647179,0.0877428,-0.076582454,-0.06747281,-0.23306584,-0.13493209,-0.04384934,-0.1255205,-0.091950215,-0.024894426,-0.07035232,-0.062378682,-0.068793885,-0.07268498,0.062406126,0.06755371,0.054705665,-0.073559225,-0.08094715,-0.009294987,0.008901923,0.031275235,-0.044006266,-0.109338105,0.011801847,-0.12863207,-0.01726149,-0.0312308,-0.0044804397,-0.067636535,0.048474506,-0.008381467,0.051370613,0.030945482,-0.048722524,0.016041502,-0.088472776,0.033681896,-0.04381744,-0.076561324,-0.052725937,0.015688451,0.09127104,0.16049498,-0.11786492,0.044017807,-0.0065977382,0.069538645,0.074417174,0.029768467,-0.036518045,-0.12474763,-0.09535573,-0.17809483,0.08850871,0.05375946,-0.0662059,-0.100431785,-0.13122419,0.04789888,0.15349364,0.016175244,-0.119163364,-0.06014443,-0.09258902,-0.0037004624,0.061681703,0.027211817,0.011656632,-0.051282603,0.006413919,0.09817914,0.016078526,-0.003094753,0.063751385,0.13503426,0.170853,0.029869363,-0.06347064,-0.051240847,-0.0073272483,0.06592387,-0.11654411,-0.059812848,-0.16022103,-0.048698947,-0.03420965,-0.018952865,-0.008179705,-0.05517395,0.08006127,0.022536155,0.07827692,-0.0070266495,0.10502122,0.08045537,0.08402396,-0.063104406,-0.0632704,-0.020375235,-0.028267259,-0.02593923,-0.117079146,-0.039968524,-0.040491827,-0.03273698,-0.069620065,0.032229483,-0.0055910493,-0.078279756,-0.04907724,-0.004925625,-0.025135573,0.018201929,0.050776485,0.18424977,0.16884382,0.045925282,-0.05261755,0.048755158,0.16498071,0.09462257,-0.06103889,-0.043603145,0.059213094,0.03854234,-0.1568326,-0.17226627,0.018695079,0.027194912,-0.08797375,-0.1683164,-0.12334518,-0.082107484,0.004452539,-0.17109737,-0.11457634,0.0035735115,-0.08194951,0.061772477,0.0027343463,0.017086936,0.012477312,-0.04134578,0.1759398,0.02344662,-0.019993346,-0.08027321,0.016827049,0.08763671,-0.04386972,-0.15073514,-0.09134301,-0.03285738,0.026456561,-0.027515853,-0.065714724,-0.08746928,-0.0070863324,0.0011020987,-0.080318406,-0.048271254,-0.03571063,-0.040274914,-0.06516697,-0.046984743,0.017427968,-0.034212206,-0.07826554,-0.006911645,0.016867116,-0.034939643,-0.12019286,-0.17442745,0.01396679,-0.07162305,-0.070863426,-0.17087302,-0.017002137,-0.042572558,-0.06472318,-0.046191286,-0.034561053,-0.04633312,0.10229623,0.010268586,-0.020222815,-0.09200615,-0.07785118,-0.076028824,0.018263107,0.14057349,0.13848186,0.09272329,-0.05024951,0.030802418,0.13972144,0.0825266,0.021385835,0.1079507,0.085735425,0.049990382,0.013939558,-0.082152456,-0.025210865,-0.02552476,-0.14219396,-0.15571672,-0.17971593,0.015416521,0.01082865,-0.039281826,-0.15315448,-0.06148214,-0.055379327,-0.02925552,-0.014670104,-0.05637467,-0.03964117,-0.08162496,-0.037944786,0.052035354,0.15803687,0.016466338,-0.08440958,-0.024359653,0.026323747,0.09616885,0.12391758,-0.08015883,0.02840855,-0.056320928,0.02577133,0.017142437,-0.06182655,0.017360061,-0.036380176,-0.08322313,0.011563255,-0.10030792,-0.14707802,0.029471675,0.11996321,0.06806631,-0.1470078,-0.029956225,-0.054349177,-0.07009217,0.09516552,-0.032379508,0.13849843,-0.025773956,-0.22536206,-0.1226528,-0.06014254,-0.052319765,0.050082095,-0.10879146,-0.046238367,-0.0037039088,-0.09779278,0.050871477,0.19022524,0.08460356,-0.002644035,0.056846753,-0.013543812,-0.041892536,-0.04152204,-0.044136547,0.011291954,0.040934216,-0.011192243,0.009482749,0.015005999,0.057645887,-0.07225187,0.060159538,0.17392887,-0.088017255,-0.07822178,-0.17170319,-0.041258454,0.06798136,-0.02831397,0.041710347,-0.09357968,-0.02724992,-0.009971587,-0.070055485,-0.1462789,-0.0015730585,0.00026453397,-0.10122742,-0.15905763,-0.029451333,0.15079431,0.17518769,-0.04739511,-0.057708554,-0.02360186,0.016977407,0.2445308,0.03832918,0.030772561,-0.033302158,0.056527805,0.04628284,0.01145558,-0.13005912,-0.12163171,-0.04215776,-0.088745214,0.020278843,0.043583665,-0.0922501,-0.0061454605,0.13377489,0.053776406,-0.09411944,-0.040639263,0.004987427,0.057729445,-0.01886905,-0.05347416,-0.03116041,-0.08723762,-0.037948113,-0.11809688,-0.08728373,0.023458444,0.00908202,-0.0958866,-0.04607633,-0.017099833,-0.016330536,-0.01695179,-0.06460442,-0.011496914,0.12315739,0.037484854,0.09487953,0.08694018,0.118768334,-0.03305459,0.05606106,0.03310687,0.08147063,-0.06585913,-0.037857145,0.03065468,0.042385284,0.09652732,0.053080004,-0.049759604,-0.062259726,-0.12298751,-0.06356191,0.1186983,-0.022797693,0.022159865,-0.10907766,-0.1585005,0.0057763746,-0.067749396,-0.08235335,-0.10297515,-0.055558812,0.051996775,0.0388352,-0.0435406,-0.13282499,-0.019269625,0.021574669,0.067269035,-0.027396565,-0.053677414,-0.082495265,0.052291404,0.09271541,0.0334333,0.09094805,-0.08963831,0.036683198,0.03961662,-0.025783405,0.11031324,-0.064498946,-0.08953144,-0.07404219,-0.12892446,-0.1252857,-0.012609773,0.028365338,-0.12245474,-0.055422485,0.013277104,-0.041705474,0.06949277,-0.07816695,-0.118918486,-0.029705685,-0.2086868,0.02339583,-0.04232169,-0.03200253,0.10839404,-0.15137312,0.014159012,0.03833506,-0.042557806,-0.017702596,-0.097230546,-0.04780965,-0.052230477,-0.007293065,-0.08231798,-0.12784696,-0.07650623,0.018518604,0.046850253,-0.06879838,-0.11683062,-0.18549131,-0.06384856,0.026299467,0.13700771,0.026990581,-0.029019006,0.040085044,0.106731646,0.0859865,0.23081085,0.21571709,0.015987292,0.18873434,0.08654159,0.0910776,0.0035988858,-0.15930519,-0.12820081,0.0033814167,0.00491912,-0.031863164,-0.016334375,0.027724886,0.0117279515,-0.010964084,-0.091909096,0.0852296,-0.03693695,-0.12894759,0.031725015,-0.08302378,0.008727122,-0.10471828,-0.13545695,0.080132656,0.015220659,-0.097579084,-0.011138759,0.023877302,0.10736421,0.09343384,-0.012188814,0.039810643,-0.059701446,-0.023933908,0.033776302,0.04210314,-0.06348115,-0.015172565,-0.05269163,-0.05078148,0.10924312,0.07759344,0.0390785,0.03143994,0.038318954,-0.0067921556,0.00011629897,-0.030961266,0.027279442,-0.07420632,0.03778752,0.070095815,0.0012796281,0.034893252,0.019456534,0.012888476,0.043146558,-0.012271485,-0.07864021,-0.21474521,-0.010924074,0.022577701,0.08235114,0.13565278,-0.0039818906,0.043756723,0.14661935,0.08744918,0.13395704,0.097617656,-0.008942367,-0.06706946,-0.12914889,0.020835267,-0.017675497,-0.07097887,-0.06739669,-0.052804306,-0.15242137,-0.18086575,0.019148879,-0.045070194,-0.007408685,0.06913046,0.090997875,0.030372294,-0.02788842,-0.024215087,0.017296072,-0.04391454,0.057776388,0.038626008,-0.102133274,-0.052993488,-0.055607207,0.059420124,-0.014663463,0.036720376,-0.02336517,0.016262705,0.025024982,0.089724496,-0.011979513,-0.01864694,-0.027366014,-0.024221022,0.0477596,0.027041208,-0.09102071,-0.010445387,0.036452252,-0.017171247,0.012368585,-0.10701045,-0.12638749,-0.06472405,-0.1249151,-0.19906576,-0.10152092,-0.09327136,-0.043408122,0.0816043,-0.03673995,-0.1416432,-0.09831972,0.011536382,0.17784424,0.03625179,-0.05934909,-0.015715294,0.00066152896,-0.009030718,-0.09422737,-0.06573745,-0.040940713,0.10000207,0.10207984,0.051987603,0.09228295,0.022292743,-0.027276104,0.016310697,0.025706284,0.06752464,-0.11759585,0.16704622,0.133607,0.18802056,0.048472185,0.08573717,0.01781871,0.010046558,-0.1157063,-0.034498673,-0.08628069,0.030670367,0.052597996,0.074217886,0.077903695,0.16029732,0.0381491,0.05940628,-0.06498173,0.04724641,0.0857373,-0.08908714,-0.08754799,-0.070669815,-0.087518826,-0.10010855,0.07764928,-0.0440799,0.03086247,-0.07182073,-0.11286359,-0.071164146,-0.039247822,0.11119489,0.007513026,-0.06813764,-0.056358058,-0.031861223,0.0075478014,-0.0529205,-0.18417758,-0.015364431,0.059861246,0.00920004,0.01466183,-0.14165261,-0.14264156,-0.091214284,-0.11165557,0.045118816,-0.12280727,-0.14303629,-0.051646616,-0.006512755,0.16223882,-0.07331613,-0.051790096,-0.001875567,0.082815155,0.023530992,-0.07074561,0.07408861,0.032234583,-0.013567941,0.0023846272,-0.09617382,0.09886064,0.02346038,-0.013756488,-0.035893336,-0.12371019,0.012904853,-0.05147892,-0.115531944,-0.04917538,-0.10602493,-0.022568982,0.026687061,-0.057667848,0.030345796,-0.0021231817,-0.029141566,0.06438455,0.06257758,0.054127898,0.014217405,-0.037488766,0.08915343,0.10883962,0.023279143,0.042650446,-0.11435243,-0.04321071,-0.043045335,0.039654072,0.058377743,-0.10632864,-0.17740512,-0.1921103,-0.04004814,0.025186054,0.02070437,-0.08725006,-0.0996967,-0.08809143,-0.13341197,-0.11014655,0.04586537,0.07633046,0.01518668,-0.08067925,-0.06367919,-0.07336215,0.050139748,-0.058732253,-0.04922823,0.026352653,0.02031861,-0.042961694,-0.079012774,-0.058734037,-0.08699484,-0.17458291,-0.2032005,-0.13737722,-0.10500489,-0.07485422,-0.07220352,-0.15843739,-0.094667055,-0.0033494714,-0.026081102,-0.030498952,-0.026256183,0.029732497,0.13648072,0.12133023,0.06795058,-0.07023115,0.08324333,-0.024248468,0.09761521,-0.012089535,-0.0036169651,-0.021620655,-0.060470723,0.04335647,0.0039154314,-0.028399372,0.016525999,-0.01866567,-0.042353895,0.034448683,-0.027928157,-0.01738326,-0.014263289,0.00031254507,0.040666826,-0.005891508,0.0171634,0.043997087,-0.035365153,0.012174053,0.07168743,0.0479014,-0.14385718,-0.01214829,-0.09477629,-0.17805153,-0.19328095,-0.09721755,-0.08988826,-0.16341057,-0.13375309,-0.01834659,-0.0064750477,-0.07555651,-0.16057305,-0.09610439,-0.064976595,-0.113966115,-0.101794645,0.007885083,0.0770147,0.21941459,0.011139391,-0.063866064,0.06914315,-0.029581169,-0.061745316,0.028234808,-0.036962535,0.01078309,0.018899271,0.11957572,0.034812152,0.062656656,-0.003688339,-0.030762503,-0.016975103,-0.042995427,0.032797404,-0.06023334,-0.100430995,-0.064454734,-0.08528581,0.014421522,-0.144401,-0.050157916,-0.033229075,0.049661506,0.23524335,0.097185545,-0.1558891,-0.02333538,-0.058678653,0.09308254,0.041316006,-0.08116681,-0.03400805,0.022234213,0.15875454,-0.06177333,0.029126983,0.00027400846,-0.018168014,0.10547519,-0.019178258,0.056624696,0.06832999,0.05867989,0.07462561,-0.02250445,0.14721635,-0.032040566,0.16589078,-0.073341385,-0.07121224,0.059556138,-0.08529214,-0.16082242,-0.023124171,-0.055298474,0.0003328303,-0.10961244,-0.08891789,0.0010764854,-0.02428889,-0.06655404,-0.037867535,0.010721881,-0.09015833,-0.09622004,-0.06716189,-0.027907584,0.05233751,-0.08699418,-0.046355102,-0.11171365,-0.06713674,-0.040506262,-0.07112446,-0.10827676,-0.12946703,-0.17473906,-0.055424377,-0.09180009,-0.085497856,-0.015237582,0.1092899,-0.028628651,-0.026793633,-0.092819594,0.02246194,-0.036439177,-0.16897614,-0.046582785,0.05436745,0.021824485,-0.20654349,-0.074184835,-0.0040038214,-0.042978473,-0.12795769,-0.07111047,-0.056529634,-0.046672132,0.05228838,-0.010156204,-0.020949097,-0.0041402206,-0.0445193,0.0429806,0.08569696,0.077839926,0.008192624,-0.11417656,0.07542837,0.11074171,-0.0018377318,-0.10503978,-0.08172401,0.087709405,0.008367152,0.021512914,-0.1622048,-0.033645198,-0.025068093,0.07839583,-0.0009064859,-0.21888681,-0.090929724,0.14641738,-0.07119786,0.08230974,0.06792173,-0.063672766,0.008131489,0.13052978,0.12018321,-0.02072794,0.100077346,0.04549361,0.05932155,-0.0666103,-0.143617,0.11181103,0.11457069,0.1598238,0.09349536,-0.11302673,0.01978378,-0.005594863,0.14423211,0.043802828,-0.095965795,-0.0202738,-0.12094786,-0.16911307,0.03862747,0.01328407,-0.0672075,-0.09273123,-0.091589205,-0.03808389,0.01576571,-0.0616019,-0.054529242,-0.052266534,-0.1080622,-0.12993611,-0.036909483,0.013145679,-0.07885346,-0.1099303,0.00872324,0.05587755,-0.045359977,-0.1723757,-0.0456927,0.046074316,0.07900942,0.017251126,-0.09111899,-0.12556851,-0.04554692,0.06287306,-0.042842522,-0.11985837,0.09596577,0.04085406,0.055688728,-0.13577366,0.086709484,0.12070867,0.12414849,0.03854714,-0.14176622,0.19996598,0.1082964,-0.039449364,-0.025930569,-0.070301995,0.09924807,-0.10443854,-0.097648405,0.08986942,-0.029402863,0.06795007,0.051089775,-0.034219824,0.05220535,0.03723909,0.08416233,-0.01655946,0.030119848,-0.06803474,0.0066131614,0.037735876,-6.738828e-05,0.0073955753,0.020308156,0.0056129755,-0.005359716,0.013246595,0.040111035,-0.090448074,-0.0860022,0.009871548,-0.05309567,0.011389083,-0.008947451,0.09902771,0.11131883,0.08591119,0.15573901,-0.1284066,0.08618924,0.13224085,0.21743079,0.084440894,0.10765928,0.04826095,-0.034013096,-0.062045738,-0.116047546,0.04428227,0.17155217,0.035100482,-0.06368562,-0.19424859,0.004758643,0.031149343,-0.011746965,-0.018726746,-0.09049735,0.020791857,0.023028297,-0.023801276,-0.078801446,-0.07098161,0.06263539,-0.00896843,0.021925764,-0.02575709,-0.1052903,-0.018984122,0.011119711,0.034876414,-0.048388243,-0.0011850892,-0.081108026,-0.06281155,0.084361084,-0.009684593,-0.022530248,-0.011336897,-0.12587829,-0.09311392,-0.06210546,-0.068188086,-0.031756993,-0.0145957535,-0.061037883,-0.033275694,-0.010939784,-0.064272076,0.00810671,-0.029648822,-0.054420732,0.012131168,-0.06547888,-0.0041795974,0.014192639,0.0054950733,0.09739595,-0.16179565,0.015946316,0.112165235,0.01900581,0.15702291,-0.050152574,-0.05065436,0.0025995795,0.07804848,0.016015109,-0.11992429,-0.15420508,-0.047167625,0.16321535,0.1791774,-0.04449696,-0.008243006,0.09481717,0.018740207,0.10265961,-0.06727034,-0.049035553,0.03727652,-0.0101356255,-0.049941402,0.0039554,0.06984626,0.03964161,0.04426945,-0.020487549,-0.057344038,-0.010136226,0.058620803,-0.013362378,0.0037707458,-0.07470828,-0.076529734,-0.03226413,-0.0003791331,-0.017163068,0.09535881,0.050573602,-0.032396648,0.026958996,-0.028024605,0.09000039,0.08335137,0.052903663,-0.041856624,-0.050260376,-0.020181106,0.04948636,0.034508992,0.011096244,-0.058494303,0.08446434,-0.07535186,-0.018518714,0.0036561328,-0.056332745,-0.24760985,0.021131674,0.09351702,-0.03741836,0.00744162,-0.20904881,-0.13223779,-0.05818657,-0.09665544,-0.100120455,-0.11013865,-0.1705232,-0.10341522,0.024303319,-0.01443265,0.02704307,0.0212459,-0.08543995,-0.0028101082,-0.049545128,0.06295099,0.020796683,0.0026859697,-0.10493512,-0.15106896,-0.019675065,0.16936837,0.06379028,-0.09306913,-0.11546052,-0.09132545,-0.043115612,0.029035743,-0.026568897,-0.0027950183,-0.17808646,-0.10360154,-0.10178524,0.009186634,0.021146325,-0.01705478,-0.0451921,-0.10624085,-0.1057431,-0.03507021,-0.05231759,-0.011450459,-0.1539658,-0.106011145,-0.09611942,-0.16495655,-0.09830971,-0.15539135,-0.024844214,0.0147986375,0.07913459,0.046728116,-0.061378155,-0.009292878,-0.04765887,0.065501556,0.035513215,-0.018834015,0.049954373,-0.049870152,-0.009968564,0.10476216,0.060274195,0.06844453,0.042587526,-0.053839102,-0.011165314,0.102199405,0.10456924,-0.020322386,-0.14500159,-0.15681541,-0.07142352,0.0006596526,0.03787278,-0.16693674,-0.19093631,-0.18403798,-0.062346637,0.004028899,-0.04863824,-0.12574044,-0.07937188,-0.11626063,0.03290716,-0.072379015,0.0062225796,0.0040627285,-0.0635395,0.092090406,0.038076892,0.052780923,0.006779973,0.049367465,0.08758607,-0.011914219,-0.033958025,0.02965008,0.009980809,0.0035610902,0.023873689,0.0058978265,-0.026393035,0.04831532,0.08835097,-0.06376497,-0.05276268,0.022169635,-0.040918674,0.049266394,0.07080801,-0.010723168,-0.031266466,-0.058327768,-0.005584406,0.007090241,0.017032914,0.000112285525,-0.013745208,0.039937187,0.099437274,0.066415794,0.013371846,0.048326895,0.08400938,-0.008918877,-0.06947699,-0.013076929,0.10745452,0.14880286,-0.14412463,-0.1511148,-0.0697611,0.007822254,-0.053911973,-0.18740617,-0.05756718,0.061522607,0.10694247,0.087761596,-0.14399251,0.07064388,0.039664537,-0.0006950595,0.12088264,-0.07880549,-0.071059965,-0.021419553,-0.063282944,-0.13665558,-0.015883476,0.06012871,0.037982773,0.087291196,0.06263878,0.01853322,0.0145513015,-0.005255612,-0.015140234,0.07686848,0.038772594,0.1307763,0.016216548,0.050229378,0.033811998,0.048009705,-0.0009928426,-0.07380007,0.015755624,-0.015434607,0.11504346,-0.037417494,-0.055838257,-0.07387614,-0.10111002,-0.0019728967,-0.20390297,-0.04695847,-0.11533857,-0.09751128,-0.07803474,-0.09815638,-0.08213832,-0.09283589,0.10680171,0.034533318,0.034218445,-0.052076552,0.108175166,-0.002007676,0.09831362,0.07495692,0.044680383,0.050050452,-0.019334743,0.12303961,-0.007586473,-0.021201313,0.0054835505,0.08737845,0.01185584,0.012757258,0.005620788,0.10592147,0.07530067,-0.026066031,-0.059722163,-0.056529347,-0.06441787,-0.0003756027,-0.102002226,-0.013419022,0.1389276,0.13449757,0.080744766,0.04068442,0.06550476,-0.06363128,-0.023549316,0.012552271,-0.15253764,-0.11862901,0.011756231,-0.038064945,-0.11756608,-0.05249752,4.978045e-05,-0.008318444,0.03254054,0.015066261,0.02356973,-0.028179785,0.06656399,0.19722147,0.25568795,0.075772434,0.045951243,0.08362116,0.06785362,0.19712387,0.0904274,0.04534889,0.042435165,-0.008572826,0.0073507414,-0.06165343,-0.108937435,-0.06588733,-0.07384463,-0.035140064,-0.081453755,-0.05865545,-0.09972135,-0.038441222,-0.013139099,-0.068170026,-0.08645229,-0.107584134,-0.10495545,-0.08719152,0.035231143,-0.008434096,-0.018379869,0.044754386,-0.054786302,-0.013340652,0.038874123,0.039578248,-0.007888861,-0.10484754,-0.12011212,-0.007609121,-0.104561865,0.040403567,-0.042763975,-0.088908665,-0.055191964,-0.021031342,-0.06676861,0.021726353,-0.017854426,-0.02845495,-0.018674098,-0.045872193,-0.005479357,0.06667377,0.058098882,-0.06800252,-0.10317172,-0.16135025,-0.018664801,0.00968663,-0.08423237,-0.051240124,-0.17263143,-0.05065765,-0.026657641,-0.13037388,-0.048902422,-0.15959729,-0.051604457,-0.04234562,-0.00734268,-0.08825522,-0.09581988,-0.07933325,-0.077025294,0.016610395,0.086825415,-0.044126555,-0.0605153,-0.05143416,0.0125696,-0.008451287,0.07368671,0.025486805,-0.034482934,0.09728989,0.011222333,0.12370457,0.13169661,0.007801663,-0.1263285,-0.07948227,-0.014972554,0.022427652,-0.15783449,-0.16910616,-0.14381339,-0.1560437,-0.090552196,-0.04583238,-0.15675814,-0.15099518,-0.08756303,-0.046886966,-0.02631607,0.042955056,0.08772894,0.042112052,-0.047264162,0.077221215,-0.016375246,0.05218305,-0.03173596,-0.06342816,0.004238791,-0.1062981,-0.052092496,-0.10582028,-0.028546983,0.004657085,-0.064151846,-0.013165644,0.040797643,0.038335364,-0.07229067,0.042458817,-0.03648942,-0.05271297,0.029856473,-0.060888752,0.023291225,0.013570552,0.0059792167,0.06949274,-0.009930343,-0.042725157,-0.061248273,-0.021771625,0.009572462,-0.25353462,-0.22518317,-0.0038893986,0.054299854,-0.10979378,-0.15946954,-0.1705245,0.08432025,0.1786485,-0.04427033,0.044892296,-0.03368525,0.076047294,0.15515333,0.10523967,0.17482929,0.1148593,0.123829015,-0.065048665,-0.11815543,0.1043432,0.2316434,-0.017476372,-0.19478245,-0.11468364,0.057781152,0.010801128,-0.11657112,-0.0715977,-0.06010244,-0.0844044,-0.054824326,-0.08091948,-0.08624622,-0.07300623,-0.010098086,-0.11703951,-0.01258579,-0.026875975,-0.19107287,-0.08482811,-0.054414507,-0.0740891,-0.12670252,0.01704092,-0.0050974954,-0.098749824,-0.073737115,-0.08716382,0.0382167,-0.08361527,-0.03850983,-0.17268385,-0.10972309,-0.106196985,-0.018641043,0.07244627,0.010777543,0.040192038,-0.013357615,0.06148495,0.01947495,-0.011367639,-0.0050351415,-0.040976245,0.01714957,0.16116266,-0.004025396,0.013466728,0.13592196,0.101540804,0.045977782,-0.08539134,-0.03279028,-0.07583022,-0.18118232,-0.11574212,-0.060379487,0.029167883,-0.11087288,-0.10326078,-0.005250885,0.080916874,-0.035417162,-0.12190174,-0.22461374,-0.09765522,0.022605708,0.1463822,-0.066473,-0.1276114,0.09501293,0.10239291,0.15849464,-0.13896763,-0.026419489,0.0040140813,-0.0034110895,-0.06594339,-0.19521202,-0.017274996,0.143687,0.051787414,0.0034143846,0.054080676,-0.04593453,-0.087650046,-0.1219384,-0.1379971,0.03226459,-0.18188152,-0.20838122,-0.033806708,-0.011782505,-0.1818305,-0.17039078,-0.066990174,-2.5595577e-06,-0.11668073,-0.07943282,-0.13193865,-0.17987925,-0.098203056,-0.1748981,0.03154254,0.1175554,0.072036,0.02376327,-0.040924452,0.08838537,0.010246766,-0.12356061,-0.05318178,0.042057626,0.055366278,-0.07846266,-0.19132692,-0.021066533,0.10468664,0.12236079,0.031758085,-0.018858254,-0.058145754,-0.09236132,0.04256818,0.13561277,-0.01423093,-0.09038286,-0.15413126,0.015611306,0.021132462,-0.03540483,-0.034386754,-0.21069948,-0.06683349,0.019578574,-0.114465125,-0.06287415,-0.028077513,-0.035000414,0.04280386,-0.11584498,-0.06526596,-0.0463617,0.056910876,0.0681415,-0.18185544,-0.16889507,-0.09346768,0.03866928,0.16901742,-0.00903611,-0.11753902,-0.17047015,-0.0051600817,-4.9134924e-05,0.09521341,0.13382937,0.0074126376,0.11023097,0.08392686,-0.023256281,0.16463917,0.09066622,0.03949039,-0.028666256,0.026099533,0.09355102,-0.085780606,-0.20829149,-0.12819207,0.045528308,0.05802976,-0.1622641,-0.035948265,-0.0455638,-0.025804618,0.06650257,-0.05004621,-0.03169171,0.0983483,0.17757672,0.09520729,-0.0146242315,-0.05362431,0.049666595,0.16187164,0.010459378,-0.0014078709,0.005738107,0.08252078,0.07268502,-0.06868459,0.059823357,0.0041889995,-0.0824829,-0.10661857,-0.047668897,0.01929514,-0.005251707,-0.069635995,-0.08644457,-0.10340145,0.006434704,0.029574122,0.030985296,-0.05928518,-0.060520433,-0.0634357,0.007989512,0.027468324,-0.005577438,-0.04688097,-0.029619066,-0.021198906,-0.027693754,0.060723837,0.016193401,0.014259564,-0.032989528,-0.00248137,-0.028312966,0.031796984,-0.027719872,0.00064893067,0.037274454,-0.048378497,-0.0061575356,-0.008034647,-0.042629875,-0.0057868953,-0.011188919,-0.009124303,0.031276736,-0.0363093,-0.05506785,-0.0121802725,0.03775208,-0.026071988,-0.011426222,-0.055934027,-0.06312385,-0.006013397,-0.0116344355,0.010823661,-0.04241293,-0.016949194,-0.0322863,0.0183575,-0.01141373,0.020477386,0.011836694,-0.01181149,-0.04305859,-0.03230791,0.060439564,0.03664804,0.057501998,-0.030125273,-0.061023094,0.03964497,-0.028818974,-0.06371862,0.02491245,0.0077767707,-0.048274774,0.022267038,-0.04473878,-0.020501694,-0.006654488,0.02745547,-0.0014506376,0.030276006,0.0062021366,-0.020558456,0.01325185,-0.04449466,-0.04762751,-0.032808434,0.037330758,-0.01624045,0.0016909984,-0.04082174,-0.043450218,-0.028252022,0.013205889,-0.039894957,0.048423123,0.007333398,-0.050496187,-0.057555784,-0.016051147,0.014844128,-0.04401991,-0.047755826,-0.008933925,0.027535038,-0.030901367,0.046597343,-0.05671859,0.012931316,0.00034757244,-0.011593365,-0.005962102,-0.017319227,0.046155617,-0.040397923,-0.05824013,-0.021162635,-0.062657334,0.009091043,0.0357674,0.037451677,-0.032002255,0.014381763,-0.026731687,0.0031336413,0.0069365106,-0.03959874,-0.05530452,0.045371007,-0.052591283,0.060756218,-0.03524015,-0.010421798,-0.055019457,0.007947412,0.0021067907,-0.013301612,0.043484375,-0.060568344,-0.051372107,-0.06368808,-0.032946113,0.04319495,-0.020030791,0.010151675,-0.012064932,-0.022994544,-0.036786743,0.02702945,0.047934286,0.050708804,-0.04130157,0.032534,-0.036224976,0.016549742,-0.03739981,-0.021605035,-0.0092048505,-0.013869048,-0.03375268,0.021037752,-0.018374875,-0.042411517,-0.016431948,0.0019069947,-0.030614763,0.011634162,-0.038705435,-0.0075424463,0.008977055,0.029955488,0.00068311306,0.05762873,-0.04037843,-0.017817045,0.011625705,-0.031904846,0.036844257,0.048559424,-0.050934624,-0.04633128,0.023719752,-0.06470145,0.034644242,0.043007184,-0.0069040665,0.049264025,-0.009525635,0.027451001,-0.051847696,0.043472677,0.022105109,-0.050320912,-0.03319166,-0.012741746,-0.016769337,-0.01918275,0.039490897,-0.020695664,-0.05000244,-0.03865243,-0.016795905,-0.04373912,0.020254724,0.0037349388,0.013825251,0.017811572,0.058401022,-0.046575297,0.028578231,-0.022749279,-0.012954043,-0.0106954845,0.035508506,-0.018500363,0.02670506,-0.037772812,0.026158782,-0.048228577,0.040179648,-0.017457273,-0.0032037643,0.0015746971,-0.02762014,-0.0161317,-0.0038152677,-0.032434784,0.018936932,-0.028080009,-0.016018247,-0.02052474,0.03322888,-0.059794392,0.049370132,-0.048013862,-0.037175484,0.0011464685,-0.027253872,-0.017311787,0.039315563,0.057094466,0.033875637,-0.009517568,0.05788593,-0.06139031,-0.0066245683,0.008015456,-0.01769307,-0.019967712,0.006897353,-0.06095748,0.012663125,-0.029583147,-0.011694113,-0.01248464,-0.026930895,-0.06248036,0.023455665,-0.02807702,-0.038550664,0.021268288,-0.01826469,-0.04978345,-0.11602115,-0.11250219,0.007962377,0.015178459,-0.06438283,0.022473503,0.050289888,0.015489236,0.051082388,-0.026778368,0.04690214,0.007459511,0.031778008,0.039394446,-0.042804435,-0.03491161,0.02661827,0.04685705,-0.022670878,0.021019842,-0.0398181,0.03345136,0.0005479965,-0.041099224,-0.077644095,-0.0036529994,0.0850444,0.035817876,0.0039610122,-0.04914391,-0.0006337057,0.023104027,0.004395732,0.015184695,0.21013997,0.04312351,-0.08498062,-0.061374664,-0.0034553516,0.14969786,0.10344376,0.015443706,-0.050823882,-0.04311338,-0.12821567,0.00047716932,0.050409243,-0.019444134,0.02598316,-0.051491015,-0.036501624,-0.09009034,-0.09092826,-0.047379345,-0.058235817,-0.07898837,-0.05798308,-0.055983555,0.008296347,0.0061168913,0.0088685155,0.10231209,0.050220672,-0.022828348,-0.030966096,-0.006613556,0.009165225,0.060973063,-0.016753012,0.021046933,0.017079048,-0.06891932,-0.0755098,-0.057774883,-0.084415175,-0.16102819,-0.06655915,-0.041620158,-0.14035924,0.00017896238,0.019725546,-0.032192808,-0.11192194,-0.14443985,-0.15926541,0.13967168,0.18987574,0.026092578,-0.106675684,-0.10130865,0.043940425,0.042978544,0.10740403,-0.053111188,-0.13336472,-0.02190057,-0.12652886,-0.03621737,-0.026162311,0.0044109696,0.051012244,0.07919635,0.0034923516,0.02137691,-0.055288464,0.081104,0.021630064,0.052651256,0.028665755,-0.064539425,-0.100831464,0.017924057,-0.058783904,-0.007095094,0.15676963,0.11404102,-0.031248871,-0.0010113897,0.03191711,0.08680039,0.06207704,0.02788151,0.021050677,-0.088162184,0.0029038563,-0.05055488,-0.041041013,-0.05074959,-0.04547529,-0.007839155,-0.104258716,-0.032356888,-0.07680834,-0.061374124,0.004930019,0.039474934,0.09681835,-0.014743828,0.027403932,0.12064348,0.11587906,0.057251047,0.109443426,0.07766109,0.040358648,-0.07370532,-0.09756477,-0.024479572,-0.021699777,-0.011770861,0.03387954,-0.07098365,-0.09669948,-0.15249124,-0.108049266,-0.13706003,-0.08321302,-0.073589794,-0.04860726,-0.084132105,-0.0761991,-0.08343309,-0.09283721,-0.10704197,0.04605577,0.0024109834,0.062497318,-0.048608508,-0.02526652,-0.06722869,0.035110433,0.023674995,-0.082806535,0.010437597,-0.0780329,0.019671075,-0.134571,-0.018428622,-0.053273108,-0.061364524,-0.10974305,-0.07325204,-0.034540333,-0.01661011,-0.108595476,-0.10865129,-0.059657387,0.007862221,-0.028820202,0.008443254,-0.084487505,0.031867564,-0.07919622,0.029976616,-0.12591447,-0.041701417,0.038231313,0.006305469,0.00803251,0.033170603,-0.04376226,-0.07610656,-0.020683775,-0.044551805,0.03956781,-0.06792578,-0.08382706,-0.045873243,-0.047388587,0.070328504,0.0024243512,-0.032969248,-0.04617977,-0.051684026,0.06885139,0.06882428,0.07822112,-0.038247313,-0.028302513,-0.0026122152,-0.020186396,0.038423758,-0.013152015,-0.04675923,0.03037334,0.015040012,0.10306944,-0.03004102,0.020851318,0.039989207,0.044005554,-0.07748223,-0.028088788,-0.047321472,-0.14815395,-0.04962388,0.009573013,0.0015682409,-0.0695319,-0.052380994,-0.03775179,0.004915912,-0.03874992,-0.12536344,-0.0727476,0.024113566,0.063200474,0.047925655,-0.12219367,0.029362986,0.058737557,-0.036351033,0.009184946,-0.009661816,-0.033811253,-0.042349704,0.02045865,0.008374578,-0.016952384,0.059065677,0.010084634,0.013098483,0.027885726,0.00032449365,0.052222427,-0.030548062,-0.0058215377,0.03673332,0.066854656,-0.049235467,0.024646608,0.003066964,0.033311386,0.047113832,0.0274268,0.010793052,-0.03612118,-0.010950235,0.00027074592,0.046023026,-0.08212333,-0.040690698,-0.049853224,-0.07070531,0.048857104,0.049036983,0.04252748,-0.0667996,0.03255135,0.07125463,-0.0072133527,-0.01739507,-0.035468414,-6.783515e-05,0.05244744,-0.01199552,-0.014595431,0.012596532,-0.055691075,0.06663888,0.051329736,0.0010915472,-0.008989587,-0.00887744,-0.023876175,-0.06656867,-0.051647708,-0.0017250781,-0.065216705,0.055628408,0.043451972,0.047271322,-0.00016362821,0.010455921,-0.01390015,-0.058181018,0.003668432,0.0060261427,0.02858689,-0.0053062756,-0.045295514,0.007225706,-0.002407536,0.040966384,0.08529859,-0.05405308,-0.009384664,-0.04491287,-0.032078892,0.009901798,-0.036362186,-0.038095098,-0.0017630102,-0.050853338,0.021235077,0.064927064,-0.011585675,0.00089522597,0.00040794094,0.030490462,-0.047214594,0.01206623,0.016171053,-0.054641716,-0.02604032,-0.014484017,0.03405965,0.060522914,-0.027366366,-0.03237309,-0.016246045,0.01998737,-0.07263617,-0.048709527,0.036284275,0.023732442,-0.07485426,0.029480949,-0.077504426,0.04247155,-0.055196278,-0.03384159,-0.011069545,-0.03434172,0.04172179,-0.027154464,-0.05066501,-0.02448974,-0.009681209,0.07217185,0.070931755,0.02592889,-0.0089326855,-0.07175042,0.06002091,-0.024881644,0.03751998,-0.044685025,-0.025440523,0.030815102,0.05299773,0.013072421,0.0064125275,-0.048315044,-0.05860615,0.021706818,0.016772812,-0.036610223,0.0029734212,-0.012659095,0.08885914,-0.033638727,0.044072602,-0.01615792,-0.009385433,-0.073504545,0.04339742,-0.03569658,0.024264984,0.0004759777,-0.06099559,-0.006736682,-0.044006523,0.020004388,-0.076825865,-0.032594413,-0.033787962,-0.035223734,0.0031248904,-0.06264079,-0.027183356,-0.04759984,-0.026098745,0.0127663165,-0.03358991,-0.007080153,0.0073200483,-0.0050263098,0.0039505363,0.0091064125,0.07163574,0.046962034,-0.03227123,-0.033507027,0.008586483,-0.03977317,-0.016182313,-0.023758277,-0.039381567,-0.09125358,-0.07225111,0.04198641,-0.028673125,0.0024142512,0.011740111,-0.057542097,-0.044701178,-0.047552247,-0.018241001,0.03730316,-0.05105678,-0.011214012,-0.0002697755,0.0008582818,-0.014153925,-0.011370697,-0.012077008,-0.063068286,-0.03917693,0.013310147,-0.048023,-0.045144018,-0.010882596,0.008498708,-0.026546257,0.03016516,-0.04632299,-0.016511792,0.009078379,0.017624466,0.025999485,0.033149943,-0.008859076,-0.07985928,-0.04446554,-0.0068825535,-0.02595444,0.037351523,0.040820252,-0.023246765,0.01951332,0.01466922,-0.04119031,-0.010174459,0.004195609,0.015405121,0.00919974,-0.056463707,0.022906655,-0.058553085,-0.061795656,-0.05669969,0.009082125,0.03399228,-0.045531187,-0.03921251,-0.024829805,0.02418949,-0.0274011,-0.08155233,-0.009581163,-0.04995863,-0.06661657,-0.019443577,-0.036669202,0.039942555,-0.012453275,-0.034138944,0.01612052,0.036103122,-0.0010698411,0.0017450994,-0.063666165,0.07670137,0.032316197,0.025931818,-0.06010231,-0.065989375,-0.04821172,-0.01686054,0.018167546,-0.030944549,-0.033498567,-0.009852324,0.04802245,0.017718311,-0.013331294,-0.08531347,0.014850343,0.02955828,0.0067340126,-0.038547542,0.0069685676,0.008812084,-0.009458628,0.0008836036,0.037208732,0.018409546,0.060723547,0.037597172,0.0284254,0.010843845,0.13616332,0.047110945,0.20635703,0.14512473,0.04843543,0.034519285,-0.07641654,0.13575652,0.062567405,-0.095640376,-0.20463337,-0.24382539,-0.1765,-0.025022358,-0.1183815,-0.0782776,-0.053489663,-0.031905353,-0.089492485,0.009950275,-0.030920452,0.054447375,0.0041696914,-0.015898999,0.06447743,-0.019858224,-0.13962927,-0.022856139,-0.011531792,-0.055399243,-0.12917425,-0.1756166,0.08908219,0.14501807,0.05305214,0.033753335,-0.110433474,0.09584356,0.109085724,0.09988742,0.04939553,0.0054090675,0.028701484,-0.028616056,0.06424805,0.036920626,0.06694288,-0.057421014,-0.059763025,0.06787395,0.077490434,0.041857794,-0.19095016,-0.057817478,-0.10429259,-0.081787996,-0.07140432,-0.19834755,-0.12628132,-0.12700596,-0.16775587,-0.017866468,-0.072557315,-0.13314584,-0.033524264,-0.09312316,-0.028160848,-0.021327442,-0.008491389,-0.046355575,-0.02144578,0.030061217,-0.06710373,0.082293496,0.07136702,0.10950984,0.07503364,-0.039351247,0.011688324,0.03015423,0.07883868,-0.12792037,0.20842533,0.22876671,0.1471089,-0.0638534,-0.09481711,0.088662215,0.0035682078,-0.010293459,0.011686362,-0.02377738,-0.07658106,-0.08644148,-0.041503426,-0.066634454,0.19350763,-0.058235597,-0.036793098,0.064401954,0.0077656554,0.06664965,0.024874954,0.054914903,-0.08493535,-0.11223371,-0.20011638,0.18943088,0.04372028,0.031878874,0.042420037,-0.10362106,0.07338772,0.042930003,0.24970056,0.14789946,0.008294314,-0.03355704,0.021618223,0.0018825959,-0.00616104,-0.052135017,-0.07023129,0.115588576,0.10936481,0.04467398,0.012726417,-0.087178,-0.10381954,-0.109504,-0.09082477,0.12429047,-0.111142494,-0.1461986,-0.15790665,0.04899293,0.14825615,-0.13176624,-0.03608676,0.067607835,-0.10720613,-0.09016802,0.03980618,0.10170229,0.048255198,0.068620466,-0.06477833,0.022116344,0.07701836,0.04137394,-0.02418643,0.055466454,0.009823863,-0.039343856,-0.0291402,0.020694958,0.055610955,-0.012286942,-0.04164921,-0.062271867,0.03311731,0.034160342,-0.05848757,-0.0020042954,-0.049910102,-0.108117595,-0.041416615,-0.1038825,-0.055454604,-0.013106057,0.12601587,0.06272255,-0.04904762,-0.012255958,0.0021740752,-0.05041682,0.06559369,-0.04478531,-0.011429892,-0.13277678,-0.10973271,-0.015000193,0.011220298,-0.10818592,-0.037660535,0.005839326,-0.09470766,-0.102525815,-0.07135982,0.00908728,-0.0017259009,-0.054455485,-0.0490978,0.032682613,0.052404564,0.061110817,0.030741422,-0.12021104,-0.06085934,-0.018513804,0.05031323,-0.02809105,-0.2664553,-0.09288474,-0.024097048,-0.103539966,-0.19234042,-0.15371525,-0.030628303,-0.09123095,-0.20221053,-0.08771637,-0.025834251,0.024943933,-0.083728924,0.0070803645,0.03941577,-0.11808006,-0.058492176,-0.08169785,-0.028057648,-0.013270088,-0.0576983,-0.0034955938,0.0040981527,0.0049197795,0.0585987,0.012640547,0.046713173,0.03040901,-0.036015205,0.017033705,-0.0679109,0.003426699,0.03542622,0.043245234,0.027261551,0.028213982,0.082739525,-0.059214815,0.033498764,0.033843216,-0.19797066,-0.09389967,-0.07829113,-0.1511614,-0.029846417,-0.057900827,-0.13755248,-0.12349553,0.01085863,0.02877199,0.10210259,-0.06510733,-0.012604913,0.18121655,0.06956561,0.060963333,0.080945626,0.08660072,0.14097163,0.08566276,0.08312081,0.13421711,0.0008482014,-0.16421288,-0.1415438,-0.15524466,-0.012197827,0.04139237,0.092961594,0.014556407,-0.101374164,0.005602019,0.032985643,0.11792952,0.10706623,-0.041385245,0.030338923,0.14235227,0.028707458,0.004997847,-0.01475593,-0.0336139,-0.079789855,-0.04766926,-0.017781666,-0.04940605,0.021200348,-0.014243417,-0.025653997,0.026239531,0.04190221,0.03861438,-0.011101383,-0.12043683,-0.09380515,-0.05695504,-0.03729993,-0.066551685,0.03574934,-0.026454085,-0.18382564,-0.09639892,0.13571715,0.11713228,0.0842129,0.021415152,0.027352102,-0.061658762,-0.06662918,-0.050383713,0.007949746,0.011796911,-0.03517862,0.037485015,0.019562785,-0.13929021,0.027320493,-0.084784076,-0.084171295,0.05161563,-0.1709028,-0.07483382,-0.030446086,-0.031156618,0.05103451,-0.052975144,0.009046515,0.069760926,0.13891758,0.108489394,-0.0059643304,-0.041209064,0.1184112,0.10899991,0.09682343,-0.09337772,0.05929544,0.073195346,0.054495707,0.044161934,-0.12847626,-0.18280107,-0.039809473,0.04793455,0.0222176,-0.30951312,-0.053373154,0.015423102,0.14506918,0.18072174,-0.20750123,0.048447616,0.090775415,0.10135574,0.08617047,-0.05027993,-0.013962903,0.071074516,0.079533055,-0.041649118,-0.024167528,-0.030549511,-0.08713547,0.003701764,-0.029088223,-0.0431733,-0.0767503,0.044990107,0.032058824,-0.08893236,-0.19637707,-0.09081413,-0.05481336,0.022575313,0.0012763166,-0.029900068,-0.10562032,-0.029972471,0.032746162,0.03716035,0.03662504,-0.15106906,-0.03304452,-0.015920853,0.009999996,0.05402468,-0.1373356,0.011583127,-0.10634305,-0.06092176,-0.08809031,-0.089935884,0.01608002,-0.10136555,-0.0061776694,-0.17150192,-0.14800861,0.026716502,-0.054247152,-0.07940634,0.04229159,-0.043579653,-0.05249266,0.083050944,-0.06545639,0.037381954,-0.17305303,-0.048256826,0.010904764,-0.09911995,-0.04696239,-0.11017508,-0.023202851,-0.12893777,0.059993397,-0.0038432858,0.05413617,-0.044543438,0.012756765,-0.12379949,0.014199761,0.15046111,0.057129987,0.05663291,0.025637522,0.007830961,0.087085165,0.057999928,0.11032179,-0.06049826,-0.04255119,-0.017162578,-0.0045140265,-0.031504393,-0.06320319,0.053147823,-0.034732524,-0.045371115,-0.10168129,-0.11166533,0.23535039,0.09430111,0.01682524,-0.080351695,-0.028338179,-0.002973218,-0.09172063,-0.05115102,0.00037900588,-0.019708725,-0.10739398,-0.012267577,0.123789154,-0.025922313,0.103342354,-0.0069564786,0.11318207,-0.001737923,-0.0073966165,0.0109311715,-0.08686407,0.121970475,-0.08200812,0.042751983,-0.017504904,0.057793867,0.05453361,0.035168152,-0.027166178,-0.038832463,-0.024149662,-0.011603721,0.06843972,0.03413786,0.027108189,0.005621265,0.045374885,0.021515071,0.056187496,0.07417988,-0.025770003,-0.043299858,-0.03684192,0.027623434,0.0048581823,-0.0050540357,0.00982188,-0.060147256,-0.07775375,-0.018523706,-0.008167955,-0.013530436,-0.10469837,-0.2296958,-0.13152657,0.013066699,0.062483616,0.11417069,-0.04618818,-0.1226873,0.1243059,0.030621126,0.046584066,-0.06985431,-0.1773547,0.033796176,-0.034858,-0.12063058,-0.18739626,-0.15549815,-0.11358771,-0.1361022,-0.03577422,0.1091406,0.09008816,-0.019321406,0.06793944,-0.029942075,0.035129707,0.080599844,-0.026961023,-0.057203945,0.0314061,0.12951244,0.022750353,-0.015273157,-0.13000537,-0.12802707,-0.014430576,-0.00013050494,0.0891958,-0.038352672,-0.056884527,-0.058004968,0.03376453,0.07600994,0.01812217,-0.0026842821,-0.051994238,0.0463233,0.06838736,0.13705297,0.012436214,-0.034306865,0.01078524,0.12255054,0.09732372,0.12917098,0.06864729,0.09631634,-0.0424014,0.0008396181,0.0611877,0.111190826,0.2209087,-0.080166705,-0.101975836,-0.019144518,0.08911068,0.018368676,-0.09591565,-0.04187861,-0.034169506,-0.04714231,-0.21242633,-0.09536289,-0.028662013,-0.057401907,-0.11142627,-0.16973387,-0.004989907,-0.042711888,0.03561912,-0.102984145,-0.045075297,0.020129185,-0.091383725,-0.25192314,-0.115385465,-0.09441891,0.058794595,-0.054715108,-0.21582265,-0.083125606,-0.20541762,-0.073583096,-0.06864218,-0.10140578,-0.1135536,-0.117757514,-0.018099762,0.06555635,0.025985634,-0.10404094,-0.06298915,-0.04980237,0.03157304,0.028823849,-0.005344877,-0.012617351,-0.09747129,-0.12002606,-0.051952835,-0.0078000757,0.00079467223,-0.025204282,0.065105475,-0.02236481,-0.18987489,-0.20580277,0.19313543,0.070410095,-0.024136348,-0.024663817,0.040427268,0.08220815,0.08707526,-0.07746662,-0.20142776,-0.09764942,0.0737598,0.05855123,0.024738226,-0.048473474,0.054208845,-0.0051753903,0.06190215,0.070340425,0.09738409,0.041929737,-0.08369554,0.0888956,0.18221487,0.14574923,0.01319166,-0.04672588,0.053881362,0.005686277,0.045142382,-0.004312127,0.14589258,0.10456374,-0.052731942,-0.04478938,-0.0019319757,0.1339108,0.10216514,0.10184901,0.030132113,-0.015108393,-0.03833539,-0.03980579,0.12937844,0.1634327,-0.062809475,-0.050863195,0.009311627,-0.021454921,0.18736951,-0.041032173,-0.078163095,-0.014681122,0.014540139,0.096422575,-0.038805634,-0.13841231,-0.02656634,-0.005545776,-0.06791298,-0.014600618,0.010055172,-0.027236974,-0.07558331,-0.05254782,-0.018490842,-0.04187865,-0.11981054,-0.018955555,-0.09370059,0.026372116,0.026292752,0.01977361,0.0506245,0.012444394,0.15734036,0.1600949,0.03761669,-0.06296721,0.110659376,0.14500925,-0.06409883,-0.05678315,-0.054381255,0.008946436,-0.0715109,-0.122992,0.0021063033,0.008869143,0.039955456,0.09229074,-0.07154458,-0.118301995,-0.092783794,0.05336959,0.21328053,-0.0127308555,-0.17716251,-0.010406265,0.037311126,-0.043343347,-0.100187995,0.082181156,0.04655914,-0.055669267,-0.0921619,0.053843517,-0.035903916,0.04076943,0.008297596,-0.026981369,0.060632966,0.03800213,0.10567292,0.029199924,0.007265045,-0.0045894897,0.040338606,-0.0055522276,-0.0673678,0.008892922,-0.1147551,-0.05265218,-0.053618744,-0.008143296,0.04987103,0.024060806,0.028505681,-0.08204117,0.020283012,-0.03325266,-0.17884248,-0.17380512,-0.028479874,-0.045825746,0.0848898,-0.048174914,-0.15446414,-0.18379354,-0.05076544,-0.02384969,0.0076800724,-0.10385022,-0.19573636,-0.15120122,-0.19027741,-0.25565585,-0.16615216,-0.1427864,-0.16617203,-0.07678739,-0.13710333,-0.1932141,-0.14078054,-0.106435604,-0.14559886,0.054379776,0.013698448,0.051505417,-0.07880734,-0.059453283,0.011622453,-0.089335516,0.024195973,0.038169682,-0.11994187,-0.025266876,-0.07707989,0.03324654,-0.028905729,0.025273869,-0.0078086075,-0.021018317,-0.056940466,-0.08013603,-0.035701342,0.058417536,-0.0044534416,-0.09083973,0.022943543,-0.019634193,0.12115216,0.059898827,0.024788385,-0.07890618,-0.11906127,0.17124024,0.13137248,0.11941607,-0.034051612,-0.06658597,-0.014996951,-0.025291257,0.06234659,0.029454438,0.07435069,-0.1480017,-0.028625738,0.056458674,0.07850696,0.0073959935,0.025463954,-0.046241306,-0.001433586,0.0359999,-0.05272153,-0.06503122,-0.07168733,-0.09070613,-0.02402789,0.0068555945,-0.1331659,-0.10616273,-0.08584896,-0.08369135,0.020914966,-0.13162994,-0.103105865,-0.039934605,-0.051544737,-0.03498777,-0.0791757,-0.049863286,-0.083674304,-0.07782743,-0.13952619,-0.03810391,0.019081723,-0.058717873,-0.057810623,-0.06911223,-0.19647837,0.0065417564,-0.025060149,-0.07170037,-0.072057225,-0.069076166,0.030645935,0.042754136,-0.050519124,-0.13622606,-0.13499293,-0.009409493,0.039527565,0.031118674,-0.03141734,0.046821486,-0.0025403532,-0.027191002,-0.1404851,-0.086029164,0.13075347,-0.0037968508,-0.16329849,-0.022540234,0.05135125,-0.06630154,0.052006125,0.07079251,0.15937363,0.06219396,0.050228763,-0.021103023,0.041112773,0.018217845,0.020760302,0.07047609,0.073939666,0.13654922,-0.02949803,-0.061032716,0.13768719,0.09716603,0.082555294,-0.07389767,-0.023311267,5.6252473e-05,0.05479612,-0.08559621,-0.11813476,0.024881432,0.09099628,0.07352229,0.025374245,0.0701368,0.027718514,0.11035138,0.10168778,0.11617176,0.13176614,0.030385774,0.11854732,0.1047807,0.052287336,0.024761332,-0.041223194,0.035513896,0.10317355,0.08136299,-0.022519855,0.057524662,0.02316485,0.14459974,-0.12704901,0.04573628,0.09064462,-0.16078101,-0.1084354,-0.10501915,-0.12300725,-0.00033509516,0.03433122,-0.06627455,-0.0640925,-0.04691715,-0.14101982,-0.094644785,-0.038740266,0.049800206,-0.015740858,-0.17341936,0.083326496,0.05355919,0.052072074,-0.071218945,-0.09872668,0.10176165,-0.052394163,-0.012745998,-0.035673738,0.052204195,-0.021174215,-0.049701035,-0.15142107,-0.107719004,-0.0980346,0.022279574,-0.07591765,-0.0021453372,-0.10436089,0.025674064,-0.028328363,-0.012192185,0.022317896,-0.014989452,0.06998847,-0.1830814,0.04205967,0.07648493,0.124540605,-0.04067371,0.014809971,0.15233347,0.05369463,-0.073129945,-0.18537027