-0.019893263,-0.105404355,-0.06301109,-0.034801085,-0.004918293,-0.06228591,-0.015594111,0.026375271,-0.071785375,-0.0034502365,0.0032059387,0.08846577,-0.045147512,-0.054249395,0.044266373,0.020412745,-0.15608522,-0.13467483,-0.056731414,-0.03504921,-0.098495096,-0.04571562,0.1453403,0.084186435,-0.015166139,-0.053576533,-0.062079266,0.041556854,-0.043390397,0.018263465,-0.00190088,-0.0026643171,0.17442931,0.05566085,-0.074877664,-0.21966602,-0.02387911,0.057641573,0.11508345,-0.040088575,-0.117752865,0.11842831,-0.025451908,0.058872785,-0.116644144,-0.13934666,0.06990958,0.10071093,0.060862582,0.11058225,0.0037061174,-0.08505114,0.023002481,-0.029103689,-0.061500624,-0.046132755,-0.08097442,-0.08099446,0.052421257,0.15736361,0.004150869,-0.036227368,-0.082639016,-0.04758078,-0.045649752,-0.028968181,0.046601202,0.03898284,-0.032194037,-0.12355512,-0.09312262,-0.034420375,-0.07119995,-0.03292457,0.06072386,0.004209975,0.0268495,-0.025639908,0.030127276,0.044136833,0.18866764,0.027732527,0.003971649,-0.11669408,0.063922614,0.062910415,-0.037410006,0.010792048,0.0014700623,-0.014901511,0.06779252,0.08034957,0.04564067,-0.031135114,-0.031665113,-0.012324606,0.10156385,-0.121476196,-0.09573124,-0.13724014,0.045499396,-0.039775215,0.026986796,-0.012554526,0.11980596,0.06930292,0.080176264,0.04121136,0.022709092,-0.020413874,0.028704325,0.08763828,-0.06178102,-0.005761414,0.05153523,-0.0075838654,-0.09429361,-0.017060732,0.047168247,-0.057424366,0.019497896,0.11510754,-0.00978463,0.0030773566,0.055641696,-0.0054373215,0.059022076,0.09352234,0.107425645,0.043361206,-0.030217327,-0.12485088,-0.010694572,0.04497202,0.05943822,-0.08554665,-0.088173404,0.07181743,0.046509087,-0.08725759,-0.16201997,0.06354643,-0.0034122888,0.102861755,-0.17587079,-0.16794741,-0.10286126,-0.0048932275,-0.100935325,-0.04834204,0.0685336,0.031901218,0.022790374,0.05791951,0.05800212,0.005646918,-0.08245013,0.015001929,0.025358316,-0.027741043,0.016223999,0.078007266,0.07056572,-0.0010876643,-0.017575288,0.0377448,-0.04532664,-0.028281441,0.017841972,0.07083295,0.07330108,0.03974695,-0.03631571,0.11978667,-0.05289959,0.01193747,-0.015025908,-0.036900897,-0.08646094,0.008304246,0.106155485,0.111687206,-0.0944049,0.024573259,0.11104129,0.114797756,0.016876793,0.11645281,-0.028721804,-0.03026945,-0.009490879,0.0071696974,0.0015468015,-0.090129,-0.071940444,-0.11615789,-0.22290741,-0.13924359,-0.016525788,-0.04677395,-0.07699071,-0.016515793,0.020298194,0.029883659,0.06824003,-0.0069494653,0.071159266,0.012221729,0.023881167,-0.032375254,-0.0406672,0.04829114,-0.015544292,-0.0077205305,-0.009847915,-0.018136708,0.03884115,0.0066210586,-0.021271257,-0.03093865,0.051395357,0.022521816,0.010743803,0.028706964,0.08984325,0.028890159,-0.0028893733,-0.029852387,0.0060115103,-0.092705764,-0.059143838,0.011698137,-0.06280742,-0.060787067,0.032610666,0.10243469,-0.06065104,-0.05614332,0.024820164,0.017225659,0.05995021,0.0076312143,-0.013463239,0.011897238,-0.024824321,-0.016405324,-0.02935841,0.012693808,-0.04732004,-0.011550267,-0.02098347,0.010791964,-0.02891011,0.04518623,-0.011110961,0.038067184,0.059561864,0.14984764,0.05553507,-0.011831803,-0.046651315,0.14342682,-0.05744328,-0.03690564,-0.1425441,0.003094374,0.019866003,-0.075185835,-0.13233605,-0.00062174606,-0.00656247,-0.006099483,0.13135341,-0.0013747115,-0.019917022,-0.13217115,0.12570953,0.04967805,-0.05167546,0.01173228,0.061417002,-0.12493625,0.017931227,0.13720116,0.0030673337,0.017598832,0.0012387669,-0.012042721,-0.1630708,0.047006577,0.12381326,0.0077163973,-0.17019176,-0.077247515,0.0354698,0.03435955,-0.06863536,-0.13891026,-0.006340093,0.0040717823,-0.0356306,0.06651273,-0.06471302,-0.083794035,-0.07528167,-0.19251017,0.020774877,0.07864263,-0.051591534,-0.04414856,-0.04232673,-0.048838302,-0.1171959,0.016042158,-0.017784493,0.036944844,0.041131154,-0.02229648,0.0038276326,-0.08090143,0.068199866,0.097342975,0.14979118,0.08357182,-0.026124375,-0.018143369,-0.019815486,0.059396546,-0.07510145,-0.09765491,-0.06575746,-0.108681984,-0.053329468,0.06630875,-0.041134086,-0.057930432,0.071418166,0.04768894,0.06782327,0.15425223,0.01936471,-0.041404877,0.028104108,0.03403644,-0.01711993,-0.061513387,-0.04069164,-0.025753722,-0.03552519,0.0012155828,-0.050497506,-0.055894315,0.039184295,0.0028708186,-0.043091822,-0.08529783,-0.06907638,-0.06453474,-0.0793702,-0.02728894,0.03793685,-0.057352893,0.068824284,-0.06037304,-0.01299371,0.16001754,0.09198804,0.009155774,-0.076457046,-0.20458035,-0.20436709,-0.11456096,0.055743642,-0.013123712,0.05119889,-0.021824492,0.0036423053,0.053726844,0.07368873,0.1955953,-0.08727264,-0.013945726,0.060532287,0.022729566,0.042578008,0.005397311,-0.027155278,-0.02121306,0.06639534,-0.05015785,-0.09973772,-0.082065426,0.09512463,0.04348214,-0.0043014935,0.015456136,0.0058623916,0.032838114,-0.008709074,-0.005887153,-0.015109781,-0.18524024,-0.16396023,-0.123255625,-0.015876083,-0.026511488,-0.045323182,0.024455063,0.026154596,0.10535259,0.085173935,0.10546575,-0.016101062,-0.03375477,0.09905624,0.09224253,0.053087033,0.06246756,0.059979934,0.08496086,0.055128686,0.018954286,0.009997132,0.018526101,0.028068809,-0.02992256,0.054242123,-0.07591285,0.008298748,0.020688279,-0.004788859,0.037239864,0.036597107,0.028226111,0.049527574,-0.056981634,0.07177394,0.026595565,-0.025167536,0.079916075,0.03919305,0.076137446,0.047891892,0.028269101,-0.09979053,-0.07859227,-0.025048101,0.011690115,-0.027919386,-0.09609446,-0.10252896,-0.051890295,-0.095743984,-0.16388425,-0.14029047,-0.052820973,-0.038099125,-0.057810508,0.0027501485,0.03277015,0.08230464,0.13250968,0.031604685,0.10204598,-0.07542536,-0.0025274262,0.11120669,0.092674315,-0.05614965,-0.07696776,0.14026195,-0.00049877557,0.026090661,0.044432256,-0.03205233,0.0055172266,-0.100436054,-0.038105633,-0.053449474,-0.11627433,0.0015456876,-0.04090226,-0.087583125,-0.15339404,0.008978646,-0.074550316,-0.009929953,-0.04668311,-0.01439796,-0.048510958,0.13297465,0.021276983,0.0360402,-0.057352386,-0.006141862,-0.025727984,-0.097268604,-0.1263429,-0.016196344,0.1400763,-0.004397072,0.03804964,0.050114717,0.07032748,-0.023704048,0.040810138,0.03503991,0.07246951,0.009718356,-0.0967715,-0.012036034,0.07200929,-0.018292455,-0.03474608,-0.021388896,0.054186985,-0.22851767,-0.13353306,-0.044338383,0.005972485,0.029098937,-0.024325939,0.013351553,0.014978516,-0.0585153,0.025340833,0.069953,0.07706362,-0.022407582,-0.022944672,0.054793723,-0.015952118,0.0026300875,0.014095983,-0.024324663,-0.015143477,0.040641323,0.017491544,0.04099906,-0.01778242,0.022298995,0.026772043,0.053001106,-0.012286127,0.0052511743,0.014724359,-0.09830281,-0.08937275,3.8307746e-05,-0.042681504,-0.023323102,0.00031936946,-0.019017207,0.0065807295,-0.04233317,-0.035560444,-0.014722482,0.01876037,-0.040061165,0.11503694,-0.015473274,0.010056245,-0.057416476,-0.035479475,-0.005810518,0.015276858,0.02467875,-0.044939063,-0.028960917,-0.049171243,-0.047414504,0.015747206,0.016816026,-0.011479611,0.028768405,0.0047096396,0.11527602,0.13485883,0.01232154,-0.037470438,-0.08777221,-0.054331157,-0.037030168,-0.07323206,-0.038329773,-0.035450842,-0.07277736,-0.012882421,0.030175166,-0.027570622,0.012810703,0.07646375,-0.051060833,-0.12170754,-0.18896085,-0.048873655,0.0017315714,-0.00023924292,0.014436448,0.052569326,0.05644504,0.0907061,0.051483367,0.04089361,-0.02962484,0.028935207,-0.018986383,0.17747925,0.04628699,0.12446653,0.06056646,-0.011039149,-0.107328214,-0.085511975,-0.0062572537,0.016296186,0.06260616,-0.035445463,-0.057730157,-0.06815839,-0.04014238,-0.13096584,-0.06475285,0.007902283,0.08203165,0.043382276,0.11462531,0.007210526,0.07399879,0.08196611,0.00826598,0.065172926,-0.043674573,0.0041886927,-0.057019155,-0.1486376,0.0031688795,-0.0052579073,-0.16373605,-0.16249925,0.03170682,-0.02940975,-0.023504589,0.053253934,-0.023602385,0.049588792,-0.005216394,0.1409879,-0.07491721,-0.12246058,-0.07394467,-0.06883702,0.06304308,0.022165136,0.022583049,-0.025044292,0.014643229,0.04366411,0.120010994,0.066891044,0.03819936,-0.009343539,-0.024397185,0.07762857,-0.105580516,-0.08257606,-0.1481975,0.018652035,0.024705691,0.08966577,0.08328256,-0.015541258,-0.15723978,-0.052463975,-0.022989767,-0.03265739,-0.06910105,0.01495067,-0.03938891,0.014273827,0.06861289,-0.049161825,-0.07364341,0.07472673,0.09051771,-0.1067655,-0.019513868,-0.093893394,-0.12806891,-0.007877584,-0.13403606,-0.05459421,0.01314096,0.16567692,0.08153791,-0.036955643,0.116222285,0.117506385,-0.05047141,-0.03759201,-0.05803099,-0.10270427,-0.19084078,-0.07027768,0.011300966,0.0718301,0.064514086,-0.113288835,-0.020036902,-0.06501966,-0.022358786,0.09112187,0.036653332,-0.0009558356,0.061855648,-0.009564558,0.032257307,0.1015887,0.057379376,-0.16549213,-0.16453703,-0.03221866,-0.052040398,0.073762156,-0.07974779,-0.040505182,-0.0792382,-0.06694141,0.0015551902,0.18522437,-0.016889662,0.08344192,0.00058849645,0.055220842,-0.08899432,0.0024836378,-0.035021067,0.0012881038,-0.07306128,0.017629009,-0.04714712,-0.0124600325,-0.016972788,0.0762678,-0.06996684,-0.06528566,0.005412718,0.038055796,0.039320078,-0.03222606,0.011930638,-0.084376834,-0.12687092,0.037828173,0.040860202,-0.011151916,0.057197955,-0.024181075,0.061570942,-0.09714878,0.0804913,-0.024997396,-0.09111256,0.019527832,-0.09071939,-0.025023626,-0.078970276,0.03096666,-0.1131403,-0.10229,0.025332592,0.009524425,-0.11789695,-0.11435066,-0.051776085,0.017573819,0.06981252,0.014903768,-0.07553017,-0.015037593,0.06486978,-0.07005616,-0.025081862,0.018705279,-0.06744738,0.06877828,0.1438682,0.104543105,0.030482499,-0.040504847,-0.05138139,0.09128261,-0.026818762,-0.20177004,-0.13266425,-0.07225578,-0.008818384,0.1186311,-0.060210213,-0.029989982,0.003286358,-0.09344072,-0.088621035,-0.061934702,-0.0031619582,-0.13458759,0.044486947,-0.073984265,0.055864602,0.04791605,0.012859044,0.07204347,0.22476618,0.030411156,-0.041055296,-0.04817673,0.06494391,0.03619892,-0.00876571,-0.050788123,0.033406306,-0.07098589,-0.029523537,-0.05453514,-0.07437922,-0.09883512,0.0068192407,0.033048,0.04851343,-0.011983875,0.007717881,0.040838543,-0.0005309618,-0.061865203,-0.00041168448,0.0071211113,0.04237231,0.047141723,0.013619606,-0.025277093,0.03531104,0.0475101,-0.035896372,0.09786694,0.07457181,-0.15191516,-0.08119914,0.021590233,0.049878296,0.026014991,-0.00044342267,0.006892986,0.05301527,0.020045824,0.020753156,0.027754495,0.05389126,0.030133024,0.0105607305,0.049953133,-0.011764141,-0.045302186,-0.022367677,0.005696982,-0.04265503,-0.08619354,0.02916636,0.0060288594,-0.0014584847,-0.009703363,0.018685214,0.016993409,-0.016318962,0.06848982,-0.00891507,-0.03815388,0.009953429,0.015232063,-0.10111468,0.047179826,0.017885279,-0.01258955,-0.058426213,-0.0055837287,0.047299128,0.042258784,-0.0005730723,0.047871944,0.009796036,0.015664196,0.045238536,0.02346676,0.028226888,-0.028025713,-0.0144239385,0.054707322,-0.073445335,-0.08592147,-0.030340048,0.030330949,-0.10869935,-0.073846735,-0.014449207,-0.016302025,-0.07852477,0.09730844,-0.039191954,-0.013066404,0.028554643,0.063704394,-0.057148647,-0.06379717,-0.05904482,-0.023395771,0.034420818,0.032294493,-0.0706033,0.0074177147,-0.004246716,-0.029786952,0.040752158,0.20312715,0.007121794,-0.0126975,0.008245633,-0.038823772,-0.10493321,-0.0809145,0.04740699,0.04325638,0.020152476,-0.016246004,0.050681636,-0.018855574,-0.011085324,-0.023404805,-0.11540583,-0.10669636,0.005678412,-0.08039265,-0.12944898,0.007093182,-0.023275224,0.093575746,0.012175826,0.0631893,0.043205824,0.07679364,0.010923438,-0.07815738,0.0008508873,0.0036757693,-0.041065827,-0.0737077,-0.07300368,-0.067354366,0.0325515,0.04095554,-0.083782114,-0.13614966,-0.0530545,-0.063673876,-0.028549127,-0.10006723,-0.06603152,-0.1666145,0.035448465,-0.009142159,-0.08789017,0.043787584,0.14046672,0.030430997,-0.010377205,-0.037814006,-0.038112123,0.043324783,-0.05450325,-0.028388174,-0.061125584,-0.015435484,-0.18813653,-0.058371525,0.026743602,0.009650024,0.07211631,0.06792872,0.12242668,0.011703518,-0.0040542395,0.006754825,-0.027057195,-0.07428572,0.09519855,0.03831891,0.018479042,0.00051248766,0.12503196,-0.07373976,-0.09555964,0.08227582,-0.117346935,-0.060774956,-0.01204822,0.17102316,-0.025317123,0.0851809,-0.025691206,0.043241914,0.05854736,0.08908855,0.051486757,-0.021254878,0.0067885807,-0.083572015,-0.16191229,0.0068464945,-0.011127673,-0.06943633,-0.092942014,0.008561042,-0.061647408,0.00090403826,0.063157916,-0.011259345,0.025692467,0.0116523765,0.042811923,-0.03366714,0.0025743316,0.08762733,-0.06675389,-0.054084055,0.043571882,-0.047308754,0.08975283,-0.05789954,0.061824635,0.0048988294,-0.034290887,0.022874156,0.0454175,0.0021725078,0.1445373,-0.011456941,-0.019727856,0.009570028,0.034751296,-0.04072099,-0.031369206,-0.07534825,0.05372832,0.045256544,-0.13813664,-0.09831206,0.025663754,0.12520649,0.033137098,-0.046005145,-0.13879527,0.026571412,0.03789021,-0.058017343,0.030044777,-0.020178447,0.12691921,0.029311994,-0.027298285,0.049051363,0.016099008,-0.036325768,-0.060382433,-0.0043787938,0.106220715,0.09152181,-0.018877896,0.05317805,-0.05037349,0.08194006,-0.0605031,-0.14010333,-0.036621727,0.010708706,0.110691816,0.006604103,-0.08788106,0.07587923,0.18481566,0.020830475,0.014268568,0.04484925,-0.01244204,-0.0029368617,0.10982439,0.0065594246,0.08223689,-0.042413194,0.038567692,-0.11225827,-0.074280106,-0.016609062,-0.14611185,-0.054420453,0.0014804361,0.09911005,-0.019407315,0.027252968,-0.07361994,0.0017441204,-0.07658506,-0.018981336,0.023071049,0.010505099,0.013277293,0.15346326,0.011123172,-0.0096090315,0.06328867,-0.047598083,-0.12050479,-0.07080957,0.09143848,0.07789386,0.037597023,-0.015888527,0.025222693,0.11525933,0.10581451,-0.049756184,-0.046214707,-0.079116404,0.058049325,0.04895177,-0.120169446,-0.087322496,-0.078311555,0.020909702,0.047582507,-0.014322269,-0.009159896,0.008604026,0.032881074,0.029095098,0.03191743,-0.02568171,0.19930686,0.044494096,-0.027893724,0.026154092,-0.13027208,-0.11558622,-0.029195394,0.03716761,0.05706859,-0.0200429,0.008604497,-0.0616876,0.024549231,-0.011475871,-0.08073756,-0.06359563,-0.15301389,-0.18303974,0.053666614,-0.0039534513,0.10570088,0.085375816,0.058894724,-0.049951185,0.008169447,-0.0015406106,-0.015834248,-0.0063814204,0.011601535,0.017094431,0.018751668,-0.04009744,0.035111934,0.008126753,-0.020670218,0.006351609,-0.03199809,0.04554402,-0.036772314,0.020297138,0.008146732,0.11792907,-0.021887653,-0.048581284,0.014714114,-0.02483912,0.026168684,-0.11746423,-0.029836534,-0.07790739,-0.05106385,0.034589898,-0.044746347,-0.036527194,0.007749485,0.13318416,-0.04279581,-0.041183613,0.0080451,-0.048898418,0.0076648304,0.037647072,-0.009653775,0.03005644,0.034540467,0.0009979756,0.013966286,-0.032757435,-0.0052103265,-0.048461843,-0.07208656,-0.023372175,-0.010300552,-0.0055891606,0.009746628,0.053519618,0.22192313,0.08621314,0.07517385,-0.02522166,0.11865866,-0.1558254,-0.06947609,-0.02689979,-0.059090916,-0.13805069,0.022679266,0.009028243,0.054208763,0.10421437,0.0063939234,-0.016726876,-0.05887314,0.016899053,-0.025342878,0.0017898511,0.030129984,-0.08114097,-0.018384164,0.110254966,-0.010568279,-0.09063651,-0.044601567,0.23383218,-0.04326069,-0.06354757,0.011669302,-0.0058164704,-0.12001165,0.056079064,0.13986404,0.0103183845,-0.060365953,0.022069527,-0.09869325,-0.05780315,0.019407656,0.12104631,0.04023917,-0.03271632,-0.11634968,-0.09936314,0.0004759797,-0.021165872,-0.09482646,-0.09757167,0.08226414,-0.041221913,0.028656986,0.08397775,0.10710843,-0.020553688,-0.034383513,-0.08451796,-0.020719236,0.054577887,-0.015912646,0.04039966,-0.022692984,0.10976408,0.081645675,0.10129824,-0.10327722,0.047523256,-0.06605619,-0.13356832,-0.117800154,-0.039227005,0.029335596,0.11235762,0.11814662,-0.007894482,-0.044062786,0.041111607,0.105489336,0.11768485,0.032262612,-0.012070803,-0.10315569,-0.02906465,-0.07518427,-0.13623886,-0.036761038,-0.01821941,0.00487167,0.14173608,0.041854482,0.02003053,0.07610058,-0.016024448,0.024045736,-0.1252972,-0.030525379,0.04368011,0.035177898,-0.0565688,0.09156848,-0.035013653,0.041023817,-0.039002273,0.009031334,-0.107401855,-0.0032426978,-0.047336474,0.06030045,-0.045766257,0.0062801493,0.055944484,0.016917491,-0.048628837,0.09991526,0.12431414,-0.0016313387,0.040033888,-0.001003769,-0.041655883,-0.033397045,-0.21543597,-0.266174,-0.054549128,-0.035373595,0.0022052557,-0.08109499,-0.02417113,-0.001657372,0.009108994,0.0103686685,0.11374247,-0.08662714,-0.052112885,-0.016089441,0.09898165,0.050427213,0.012622151,-0.052041203,-0.16612308,0.055737767,0.101665094,0.018764632,-0.007323296,0.010508075,0.007064159,-0.040818945,0.004540029,0.025580399,0.006765108,-0.069938116,0.104827575,0.03767309,0.003987255,-0.08842414,-0.082433656,0.033966627,0.0020529346,-0.009869983,-0.022610579,0.054059483,-0.035419513,-0.039924715,-0.042151716,-0.0012477715,-0.1063714,-0.0035262392,0.0733071,0.0018492145,-0.056390833,0.10434401,-0.081785,0.08781121,0.049395744,0.05629858,0.119595215,0.0801394,-0.09111007,0.03938509,-0.058931272,0.00014308745,-0.10460688,-0.109247655,-0.069803506,-0.08109265,-0.07764585,-0.15091917,0.008034656,0.0068068723,-0.018863203,-0.049349234,-0.03942214,0.0036908241,0.058947228,-0.026809271,-0.15014736,0.103731446,0.052752968,-0.061640378,-0.008782734,0.018800037,0.012309441,-0.12879859,-0.04885313,-0.090915546,-0.045614168,0.06697513,0.014392999,-0.0068469937,-0.09206413,0.01927592,0.04705259,-0.12985454,-0.07693228,-0.0887987,-0.066188395,0.047245394,0.12536408,0.030048924,0.021514267,-0.0010528122,0.039778423,0.056187775,0.12303299,0.04337516,-0.05930999,-0.027586102,-0.037887562,-0.017999055,-0.03798172,-0.0845526,-0.10001103,0.11290817,-0.03768088,-0.04135267,-0.0978115,0.075248525,-0.008626805,0.035030548,0.025463196,-0.06618575,-0.025227925,0.018812338,-0.062646106,-0.0611643,0.0068428386,-0.009749637,-0.11888983,0.075491264,0.054094307,-0.0648959,-0.0460477,-0.081070386,-0.0035408742,-0.10805079,-0.039159328,-0.002738657,0.06126249,0.0060813734,0.06801683,0.03586989,-0.024441613,0.09125545,0.17311774,-0.18189242,-0.25125125,0.009708956,0.09612922,0.025764577,0.010829296,-0.031809393,0.00043060794,-0.016694833,0.012938599,-0.009433308,-0.017130531,-0.016030062,-0.038135596,0.010816758,0.022571167,-0.038317766,-0.0092504965,0.02011952,-0.0271039,0.06760919,0.013068214,-0.015932297,0.0142107345,0.05519511,0.027262202,-0.024400402,-0.020648452,0.0130023835,0.0797112,-0.12827756,-0.09500579,0.019357828,-0.07008888,-0.09588036,-0.094059065,-0.0205224,0.013210949,-0.015676344,-0.00026966477,0.0020770335,0.022693442,-0.06259129,-0.06630367,-0.054694206,0.029842373,0.04728395,0.029861698,0.009452667,0.038415797,-0.044837497,0.045029346,-0.027876452,0.004777404,-0.015810087,-0.06416563,-0.039087154,0.06924016,-0.0037170516,-0.100537226,-0.07245588,0.015457577,-0.025479464,-0.037761644,0.1065661,0.01494649,-0.092523165,-0.07451051,0.04204474,-0.020657325,0.07581773,-0.062469397,0.060649425,0.02623539,-0.0041668853,-0.015947869,0.12664798,0.08816212,0.01586375,0.072994895,-0.03739926,-0.079312004,-0.1516548,-0.1494225,-0.0064533437,0.07140862,0.05947977,0.09302348,0.11519715,-0.031682357,0.003543737,0.02355201,-0.114735775,-0.1732298,-0.06079233,-0.06809383,-0.09342091,0.09618264,0.05230426,-0.029922657,-0.032939997,-0.0081140585,-0.016125979,0.10890822,0.024959957,-0.014193177,0.018601263,0.026456833,-0.069396615,-0.11784069,-0.10481339,-0.054941423,0.055491712,0.11357111,-0.019748174,-0.071540356,0.003992144,-0.11228232,-0.11991336,-0.02077745,0.09121511,0.09291822,0.05274676,0.11420058,0.016641406,0.07192407,-0.014399456,0.08578682,-0.08710355,-0.16037872,-0.022846349,-0.040159155,-0.053142514,-0.117307566,0.023022454,-0.046475064,0.023345796,0.054157138,0.050003856,0.1484887,-0.02830824,0.037155494,-0.054381914,0.096469775,-0.06558606,-0.11023679,-0.07070721,0.032043815,-0.050171122,-0.002999569,-0.021608835,-0.15001415,-0.15962985,-0.0073006046,-0.03980696,-0.14207897,-0.04855009,-0.105873525,-0.042541403,0.012195173,0.09814435,-0.050069164,0.019922743,0.045637973,-0.0420529,0.0070289676,-0.013818995,-0.078735024,0.05761533,-0.0669474,-0.19465333,-0.09640516,0.088364534,0.037985057,-0.041103613,0.04703979,0.09009638,0.09677692,0.0020878736,0.07918606,-0.0069791344,0.15297794,0.06902447,-0.07946061,-0.042209335,-0.10426888,0.06550143,-0.07434974,-0.03449938,0.026624616,-0.008081131,-0.08747064,-0.029278403,0.031096978,0.027184365,-0.1434895,-0.0049142535,-0.008912634,0.03118426,-0.042298,0.002647438,0.019203527,-0.07406836,-0.14940129,-0.02858375,0.11224647,0.073173486,-0.049799066,-0.036042858,0.09263913,0.051084507,0.08385569,0.083375715,-0.016680364,-0.053106602,-0.10478448,0.027070338,0.13929158,-0.03376589,-0.105352454,-0.0076731797,0.050611902,0.012544685,0.014928018,0.05769987,0.075870074,-0.085562676,0.0029758424,-0.07064085,-0.053442504,0.05653928,0.10939727,-0.042202417,0.024410749,-0.056037817,-0.041815843,0.012899663,0.052019276,-0.10635214,-0.11719524,0.039894123,-0.051468793,-0.04882,0.051774718,0.033145815,-0.015892984,0.04052269,-0.065304935,-0.08000756,-0.05310519,0.07894906,-0.020090794,-0.11714334,-0.10152569,-0.1084239,-0.10684976,-0.009605001,-0.012091401,0.04718469,0.15782712,-0.049295053,-0.14200033,-0.018253874,-0.023682544,0.098762825,0.002233082,0.06117305,0.18639101,0.12245154,0.0045761345,0.01637686,0.0808539,-0.0399628,-0.03563789,-0.052879423,0.039432995,0.012472087,-0.08712162,-0.04476452,0.15025999,0.09926379,-0.015310467,-0.012204755,-0.062178403,0.0673489,-0.03757057,0.005561953,0.05074849,-0.0025595792,-0.10128364,-0.041750178,0.056669407,0.049353465,-0.021268591,-0.05599859,-0.1056109,0.0140696345,-0.0023793057,-0.09548465,-0.09679456,-0.003115168,0.027131518,0.08252891,0.098771885,-0.1238112,0.017020702,0.008138255,0.12298296,-0.009544122,0.022805938,-0.040202662,-0.050577536,-0.08980483,-0.008509138,-0.056695577,-0.07521889,0.10633708,0.022542184,-0.16106407,0.102027684,0.13043311,-0.036148865,-0.09247286,0.024151975,-0.054101348,0.04010842,-0.01045866,-0.046915613,-0.02898038,-0.0027352462,-0.025038667,0.044423163,-0.047538612,0.008460771,-0.02762768,0.030163525,0.0073307734,0.0023319914,-0.023980854,-0.021422138,-0.040961515,-0.042380624,-0.05574035,0.02046301,-0.041922085,-0.027352314,-0.056848504,-0.14832827,-0.048449922,-0.004801491,-0.046681646,-0.09221663,0.036519554,0.051543865,-0.038953975,0.07000024,-0.025828008,-0.055815294,-0.0356495,0.07913367,0.04336141,0.0014594933,0.0420702,0.0020247926,-0.0037394727,0.018626837,-0.006959001,-0.050457526,0.022829438,0.03697329,-0.033869084,0.054540258,0.07253031,0.005588,0.058722597,-0.016803674,-0.17054655,-0.022845916,0.064476065,-0.0540141,-0.19952855,-0.0655719,0.004623577,0.009648786,-0.0797579,0.09926412,0.047096103,0.0061346213,-0.10245287,0.0011437058,-0.056525957,-0.0825265,0.033645257,-0.10399188,-0.12591991,-0.16009162,0.043654524,0.036056854,-0.03290767,0.014386268,0.0036658726,0.07926663,0.0054187495,0.04719382,-0.034720086,0.030001322,-0.0006281984,0.045385957,-0.10727669,-0.042714264,0.031044831,0.11881554,0.0060828673,-0.09361955,-0.09908131,-0.032451954,0.08117137,-0.1260734,-0.05559138,-0.051310245,-0.02204343,0.042707503,-0.10934676,-0.035362616,0.07545881,0.019483501,-0.00918502,0.05585746,-0.020367442,0.056998756,-0.026389908,0.016538758,-0.045557175,-0.108928464,-0.052265435,-0.024208374,0.011178987,-0.090291984,-0.03110868,0.032362193,-0.07432694,-0.1307058,-0.06361838,-0.08411488,0.019092033,0.014530452,-0.08475097,-0.00288687,-0.0157452,-0.08168688,0.042110484,0.03914455,-0.12767607,-0.094772615,-0.07421334,0.022415282,-0.023062106,-0.069026135,-0.061770845,0.010146783,-0.03153321,-0.12453823,0.002574008,-0.055961117,-0.0036712475,-0.0008117948,0.086028546,0.029553747,0.18033063,0.037275422,-0.068584785,-0.17210034,-0.147181,0.054015014,0.09405971,0.06817359,-0.009470858,0.1188988,-0.043056637,-0.07052806,-0.09011229,-0.02735212,0.01574175,0.026925132,-0.021676425,0.04818383,-0.07258649,-0.0996257,-0.0272496,-0.02658761,-0.08031497,0.055240307,-0.09639456,-0.09959158,0.0169391,-0.062216636,0.07530383,0.042682264,-0.009870121,-0.037455555,-0.04622901,-0.10951789,0.0041630636,0.13083947,-0.004317592,-0.082627535,-0.05180133,0.08003629,-0.023166066,-0.04724854,-0.029153097,0.028995913,-0.07723016,-0.076129474,-0.047352854,0.14453682,0.09476605,0.09148901,-0.035192408,-0.10557029,0.05188104,-0.060869806,-0.03117823,-0.014152269,0.0652045,-0.004820712,0.07284068,-0.007859948,0.11292352,0.04792561,-0.023805514,-0.10606297,0.026685528,-0.09240085,-0.11222761,-0.07429946,0.009959644,0.050940532,-0.036277536,0.05984726,0.013507742,0.072056755,-0.015716579,-0.009890754,-0.04557388,-0.013646674,0.023481233,0.057308238,-0.114246815,-0.06048516,0.0018383347,0.10032422,-0.1202147,-0.067264505,-0.07249837,0.034320228,0.015257083,0.039191544,0.0322687,0.073980674,0.1732847,0.04977676,0.02770791,-0.046426453,0.12614402,0.06436385,0.05967142,-0.14206442,-0.015329532,-0.05876115,-0.10251214,-0.13111593,-0.062394913,0.14718589,0.038612403,0.026339939,-0.029360102,0.07668565,-0.013860431,-0.08547256,-0.08900695,-0.13996993,-0.0002647592,0.0387354,-0.13846092,0.09255308,0.030386243,-0.037242096,-0.057109833,-0.06748069,-0.026244251,0.058314405,-0.07880974,-0.05161306,0.14748092,0.028920485,-0.0521338,-0.009032466,-0.0008969779,-0.024818232,-0.062563345,0.01833432,-0.06629449,-0.08115377,0.0117537,0.06467394,-0.07936604,-0.030957071,0.020088954,0.109764494,0.022993535,-0.04790322,-0.09834429,-0.030563679,-0.089409895,-0.09796782,0.026930016,0.0116293235,-0.10076412,0.040889908,-0.009246466,-0.08076642,0.017632023,-0.060718454,0.09638789,-0.03277805,0.023094002,-0.1257213,0.076438524,-0.038849074,-0.1262024,-0.10963145,-0.15635943,-0.11176983,0.025132108,0.104905725,-0.12069881,0.06659282,0.15372959,0.031164978,-0.09643229,-0.13314329,-0.0821782,0.0072322707,0.052622598,0.009251853,-0.051937748,-0.010645759,-0.0032479165,-0.048010018,-0.03210029,-0.039478123,0.01705672,-0.042782195,0.023512363,-0.008056739,0.010958693,0.034849085,0.007469613,-0.008455035,0.017957523,-0.024512142,-0.09797532,0.01858979,-0.052990276,-0.05167744,-0.04313946,0.11660119,0.056134854,0.046033453,0.083885536,0.0637329,0.026599953,-0.018841319,0.012696769,-0.10171066,-0.05351188,0.044346076,-0.0073915953,-0.01571159,0.049896758,-0.0038279388,-0.004956402,0.0003082308,0.0032317652,-0.012534527,0.05251316,0.036100328,-0.050799914,0.046582058,0.034741983,-0.00097070786,-0.009534173,0.07882935,-0.031280905,-0.058594424,-0.062746376,-0.12244652,-0.12371085,-0.04575447,-0.09905258,0.025170887,0.011247818,-0.04957567,-0.042613626,0.025159644,0.0070968554,-0.0747935,0.1300995,0.021137236,-0.043861877,-0.095878996,0.07978765,-0.07967262,-0.08121251,0.038593434,-0.0106264725,-0.113703035,0.027363393,0.013218154,0.14126684,-0.015793882,0.06370602,-0.082360655,-0.23140001,0.07319664,-0.012184557,0.056034178,-0.20136738,-0.09324211,-0.17468217,-0.101485744,-0.07951792,-0.027065324,0.07647735,0.08137362,-0.0066130143,-0.01156815,0.030923877,-0.014014809,-0.053972,-0.18709028,0.018331768,0.10900281,-0.093888044,-0.12641531,-0.068972,-0.035956886,-0.022007016,-0.0857365,-0.055098172,-0.10167892,0.0029914638,0.059016023,0.048762392,0.02242996,-0.07695839,-0.111072846,-0.14815915,-0.12845655,0.043121252,0.11047923,-0.043392587,-0.015833616,0.008744725,0.09091374,0.00049117097,0.101812944,-0.02310021,0.031721924,0.14591974,0.063001074,-0.032168534,-0.0267473,-0.10284163,-0.14646254,0.09329567,0.06383306,-0.015021682,0.004756237,0.0853893,0.06588491,0.01934146,0.017906385,0.07811479,0.01336822,0.06706873,0.055195335,-0.078450434,-0.016257659,0.034896765,0.035909817,0.010907939,0.013636349,-0.014261701,0.036503803,-0.025815496,-0.15134989,-0.02858398,-0.024259103,0.05162609,-0.05600058,-0.068284355,-0.038658556,-0.024063818,0.05726789,0.18098874,0.07532475,-0.07333653,0.08573106,-0.03856296,-0.010930807,-0.05033941,-0.013780836,-0.08858853,-0.11099805,-0.025103588,-0.024715755,-0.061277404,-0.10998284,0.0020350541,-0.033442806,0.024860714,-0.05210653,-0.033653267,0.069872834,0.11695635,0.033227492,-0.059727617,-0.028726103,0.022298431,-0.06945577,-0.07307949,-0.017009068,-0.06432732,-0.055873748,-0.06701544,-0.06807141,0.07216005,0.058351394,0.017668081,-0.082062036,-0.031051772,-0.10615792,0.043466453,-0.064871185,-0.10873484,-0.17783406,-0.049126558,0.0057042134,-0.07140629,-0.13472655,-0.041789077,0.02477527,-0.109554574,-0.12358198,-0.0797871,0.06687847,-0.08490432,-0.06363801,-0.0022024186,0.07783456,-0.009869618,-0.026891029,-0.095745526,-0.018571334,0.13897853,-0.023614977,-0.022547314,-0.019354468,0.07593477,0.049583513,0.023825057,-0.01905135,-0.036408506,-0.10796255,0.027952425,-0.09702605,-0.065171145,-0.12703356,-0.043100525,-0.020723645,-0.036099233,-0.10375968,-0.10803464,-0.028026212,-0.0073967194,-0.04752784,-0.07342224,0.07386347,0.07119928,0.02892727,0.01494857,-0.05323004,-0.024851868,-0.019473836,0.013028383,-0.12936734,-0.12503438,-0.15526901,-0.04082135,-0.07236633,-0.1669602,-0.19757362,0.14273532,-0.0050522275,0.022019232,-0.10579282,-0.037238978,0.015820188,0.07500755,0.0084124645,0.050841432,0.02454595,0.035478935,0.026915364,-0.008578426,0.0075334995,0.03793168,0.14333011,-0.027447935,0.033775285,-0.05253818,-0.038272567,-0.050955508,0.05458675,-0.05257388,-0.06159847,-0.029870365,-0.0701217,-0.050000638,-0.040468305,0.042523034,0.09688341,-0.052066375,-0.19127996,-0.08980236,-0.10904867,-0.060172003,-0.064742655,-0.09961242,-0.027521595,0.006380612,-0.06266936,-0.07787328,-0.008387383,0.05950492,-0.07786962,-0.09079123,0.009159054,0.020272223,0.008531683,0.08097139,0.17964722,0.07134509,0.02423523,0.011220071,-0.06686598,-0.077180825,0.00034068635,0.07142962,-0.07276535,-0.12172677,-0.029180836,-0.048737716,0.03978,0.019612005,0.048001707,0.029993057,-0.025489962,0.054235604,-0.02810836,-0.030330308,-0.029440867,-0.05170636,-0.028076233,0.027925478,-0.039781578,0.0378769,0.0013295494,0.0038820095,0.012488276,-0.005723126,0.07153479,-0.0022775875,-0.0009876988,-0.045639805,-0.090906315,0.055339374,0.07109776,-0.048896678,-0.14121905,-0.025790196,0.034172986,0.018165594,-0.17047654,0.04919035,0.043117307,0.025289034,0.05536212,-0.024647458,0.038580544,-0.035153475,-0.0459815,-0.048050717,0.02566609,-0.04265222,0.0058688787,0.05960273,0.03395121,0.054226242,-0.037895564,-0.036357522,-0.05531262,-0.008942425,0.016202074,0.0034895306,0.053663805,-0.00988471,0.023157693,0.04380496,0.044010416,0.050106984,0.004510305,-0.04171618,-0.035777576,-0.05412066,-0.07567575,-0.10679439,0.042627327,0.12910499,0.04828607,-0.06892379,-0.084928334,-0.10717628,-0.08229667,-0.027015993,0.026607437,-0.053358298,0.01907085,-0.07268125,0.0028043226,-0.01573859,-0.055694878,-0.1210242,-0.13120104,-0.007956806,0.002382316,0.09774178,-0.044674158,0.0039095874,-0.060283203,0.045311444,-0.012805049,-0.027963651,0.024271743,0.071684524,0.011482314,0.041488107,0.033659153,-0.019974967,-0.007770526,-0.116968505,-0.0030963207,0.08648683,-0.009511561,-0.09078535,-0.044266608,0.0047195875,0.05964039,0.006608457,-0.01886245,0.059857666,0.003185715,0.042230323,0.10294801,0.0274122,0.021400707,0.08049527,0.043380085,-0.012895521,-0.035071865,0.03899278,0.05247835,-0.008155699,-0.021433344,-0.012744729,-0.023462072,0.034813486,-0.021245414,0.028992632,0.031981662,0.100192845,0.10028936,0.03303701,0.13767569,0.067451246,-0.034145016,-0.0018862481,0.005181411,0.05536884,-0.03755359,0.022713203,-0.0047577056,0.043660298,0.054101508,-0.054258212,-0.050254963,-0.045138806,-0.03393797,-0.011450892,-0.0046243872,-0.066253595,-0.052534178,-0.0010452156,-0.016075708,-0.06294887,-0.069013126,-0.020784697,-0.08538553,-0.018745797,0.13020872,0.04509254,0.031730063,0.006242949,-0.07640787,-0.03391552,0.010387852,-0.03762489,-0.033334933,0.0075112693,0.034194898,-0.033672985,0.020116176,-0.04799308,-0.007567181,0.04761975,0.017769653,0.11352583,0.036796942,0.048726995,-0.025002206,-0.04781982,-0.04850052,0.06675792,-0.009757627,-0.052065462,-0.023066266,0.072830655,0.000651468,0.001705843,0.07315432,-0.022553662,-0.03007613,-0.087537035,0.04121248,-0.039356753,-0.0068374234,-0.10717712,-0.12796897,0.0018211915,-0.050644968,0.04386817,0.00777344,0.022606941,-0.019521384,-0.03310442,-0.00900219,0.06403952,0.03025744,0.016863232,0.03351993,-0.031928044,0.021839224,0.078949526,-0.031556442,-0.032734804,0.036032517,-0.045790356,-0.090599604,0.019092677,-0.029408317,-0.030658497,-0.075728185,-0.07394055,-0.064756416,0.034596566,0.0013787381,0.00079180766,-0.040108364,-0.10311314,-0.06156262,-0.084049076,0.013609453,-0.052374948,0.14835736,0.050109867,-0.0066024815,-0.05302636,0.018821534,-0.054193825,-0.0040819384,-0.0026915472,-0.029916584,-0.043575726,-0.105127595,-0.054505974,0.00015865412,-0.03217356,-0.0674066,-0.007837254,-0.093510024,-0.0501915,-0.075139776,-0.0046762084,0.014813353,0.08838615,-0.01193075,-0.047431834,-0.0021606483,-0.03683855,0.0013023253,0.06377654,0.014885644,-0.016806925,0.02626506,0.033332687,0.052399393,0.02558107,0.0048662517,-0.014464204,0.0054643443,-0.021711258,0.0064820806,0.016003035,-0.030116998,-0.04279902,-0.05568831,0.008763655,-0.07368355,0.017179146,-0.076955274,-0.06538188,0.061016794,-0.064253196,0.0062584644,-0.036705162,0.013982938,-0.037137747,-0.09084829,0.013501568,-0.022560487,-0.032854185,-0.04856975,0.039997075,-0.013939259,0.009000685,-0.020771582,0.08718522,0.083879136,-0.11727623,-0.051251113,-0.025181146,-0.04940635,-0.058596987,-0.04671806,-0.05515983,-0.06770384,-0.007105014,0.015122951,0.003461731,0.030933274,0.027187558,-0.08942769,0.015010841,0.0022268894,0.05844636,0.033112478,0.052902885,-0.037042763,-0.04743394,0.02385399,0.07466077,0.02768562,-0.025910413,0.029750083,-0.045536626,-0.0004385707,0.02699953,-0.017148292,-0.0071472684,-0.029330868,-0.0360172,0.01779118,-0.0385106,0.031901747,-0.00448906,-0.05575949,-0.0028624916,-0.004541599,-0.055375297,-0.011801764,-0.039392177,-0.009856496,-0.014016733,-0.07403313,0.01565465,0.09621582,0.032793473,0.01756421,-0.07361738,-0.05311483,-0.0059841136,-0.036719617,0.017320937,-0.008969553,0.016208317,0.015740696,-0.02324565,-0.030690605,0.031970344,-0.008058622,0.043822303,-0.03589413,0.011933683,-0.005592828,-0.0013474465,0.0028854138,0.0016464273,-0.013081696,0.0078507755,-0.023705507,-0.03772762,0.006736771,0.016876712,0.0015942813,-0.01218247,-0.0777504,-0.013371249,-0.06830653,-0.02506526,-0.050144237,-0.05192774,-0.015616064,0.06688409,-0.10365996,0.017774144,-0.008702319,-0.04499057,-0.023404246,-0.09609497,-0.08535741,0.016834736,-0.070835456,0.009802939,0.036703046,-0.032957632,-0.00013554528,-0.021281822,-0.0029511594,-0.0066124974,0.028550448,-0.014252196,0.030014485,-0.07748752,0.036919896,0.034592293,-0.08063566,0.031172402,-0.037170745,-0.08097681,0.029317552,0.11222468,0.009369876,-0.03284831,-0.035180174,0.05111598,0.0268526,-0.04501438,-0.014193505,0.09148532,0.021454766,0.17146386,-0.13010342,0.05404066,0.0033655257,0.022422304,0.0072619533,-0.013015176,-0.016031079,-0.045461778,-0.083273955,-0.026069023,-0.0057103126,0.01902894,-0.028135542,-0.025257904,-0.12602457,0.08360895,0.01874665,-0.014059249,-0.093165435,0.043128815,-0.0015057265,-0.03544197,-0.0057663787,-0.0005827012,0.040313512,0.03754535,0.044044077,-0.0008923109,0.08473136,-0.07006593,-0.05926759,0.07200074,0.048532795,-0.10120001,0.007169872,0.0059333905,-0.007555672,-0.027456602,-0.03867591,0.03674859,0.1647725,0.10700321,0.018206565,-0.015732843,0.13387372,0.039166808,0.10213866,0.09532458,-0.00010504058,-0.03209509,0.047020767,0.09541253,0.01782638,-0.018706689,-0.01618286,0.05591149,0.008619605,-0.102814145,0.017727885,-0.050096158,-0.028335841,0.038915385,-0.0005829563,0.07328071,0.113285795,0.03173468,-0.159645,-0.12806046,0.056441404,-0.13127944,-0.13315764,-0.055019014,0.03382112,-0.049986947,-0.18100506,-0.16161993,-0.1357184,0.05969121,-0.060201366,-0.07504413,0.077899,0.05622407,0.09201367,-0.061501585,-0.1050555,-0.0072113974,0.028183492,0.014253528,-0.006057885,0.04347533,0.021416921,-0.11480694,-0.1308409,0.018355707,-0.005583948,-0.009913892,-0.014077212,0.07793239,0.02147089,0.045456234,0.0011075514,-0.053243518,-0.116961256,-0.05036015,0.011127683,-0.06511969,-0.11696466,-0.15469223,-0.06638304,0.020953713,-0.024553008,-0.05649424,0.05119341,-0.038481515,-0.028053073,0.054136567,-0.039202143,0.005184902,0.002663726,0.0987569,-0.116189554,-0.009757542,-0.01178927,0.056500908,0.03507652,0.10538035,0.028021988,-0.046901457,-0.0057982793,-0.10545725,-0.06753985,0.00096288876,0.040054448,-0.07426743,-0.07414418,-0.13548239,-0.04917532,-0.117858686,-0.12204814,-0.0178045,-0.030895855,-0.0701175,-0.020834262,-0.08090545,-0.036694113,-0.0017879108,0.020315334,0.111146435,-6.3370804e-05,-0.08492668,-0.12083579,0.02599381,-0.012438419,-0.07004729,-0.08059209,-0.06674786,-0.021205701,-0.1789384,-0.0622974,0.057780363,-0.022899862,-0.07154612,-0.0102454685,0.01845689,0.030267872,-0.07416363,0.04638813,0.06686694,0.01086974,-0.022391288,0.0027484733,0.0098852,0.0003898822,0.03717563,-0.020752126,0.07542523,0.027701268,0.012626614,0.018983614,-0.04422306,0.0265204,-0.012162759,-0.06716831,-0.027411364,-0.045532543,-0.11165197,-0.18429963,-0.0777697,-0.049350854,0.060610496,0.03168854,0.0304078,0.061557032,-0.0133530665,0.08708259,0.022997953,0.009260104,-0.012382691,0.033840682,0.054173674,-0.0038644492,-0.120712906,-0.018816695,-0.06401546,0.001672968,-0.091368854,-0.054450285,0.059126962,0.05941176,0.017147575,-0.05483123,-0.05155215,0.0049371566,-0.036471356,-0.0005155338,0.13580026,0.04679559,-0.113758236,-0.041724864,0.1538397,-0.007503864,0.019988114,-0.02361896,-0.030753188,-0.013654128,0.034039494,-0.042248998,-0.03626655,0.017553138,0.002384112,0.051580526,0.011231455,-0.013175251,-0.026993012,-0.019450026,0.018700128,0.02670326,0.122892454,0.046926267,-0.049971193,-0.033156313,-0.047486085,-0.008058099,-0.03077944,-0.0060812715,-0.06445979,0.0189837,-0.0359491,-0.032157484,-0.0683494,-0.04298274,-0.011647085,-0.09795497,0.03606267,0.0034044613,-0.0012308822,-0.014670979,-0.01899434,0.023893893,0.05216232,0.009601043,-0.01469044,-0.0010385388,-0.04637039,-0.051238284,-0.042392023,-0.0049977596,0.02157026,-0.0097649805,-0.03934318,0.08736087,-0.0046854955,0.046403516,0.0349021,0.09846426,-0.0101573495,-0.0014293976,-0.002205648,-0.015735464,-0.019901145,-0.0071530943,0.1745669,-0.14878872,-0.04526281,-0.0370356,-0.018706312,0.048477534,0.03931351,0.046644814,-0.029514804,0.03743109,0.017405616,-0.051072948,-0.025389055,-0.08398115,-0.1533951,0.060943197,-0.008061992,-0.094522566,-0.13576867,-0.04222064,-0.07137405,-0.020873785,-0.027333604,-0.06287733,-0.141974,0.10392749,0.0766183,0.085875176,-0.028679866,0.08480753,-0.12908551,0.010692349,0.029258756,0.12746124,0.046660785,0.0061217705,-0.037148286,-0.07124451,0.037057742,-0.1347217,0.035885632,0.088163204,0.0020569428,-0.073708415,-0.03287047,0.05500883,0.08693584,-0.023731446,0.057621293,0.12518987,-0.0032417653,0.019538114,-0.07050688,-0.06375596,0.024314951,0.026887193,-0.07811191,-0.05607907,0.0042180857,-0.06456877,0.050587825,-0.0699954,0.10821987,0.051764756,0.052348346,0.058211476,0.06432898,0.1225894,-0.13099256,0.011305882,0.0028651927,0.00585389,-0.004036667,-0.0036264812,0.031270213,-0.029988637,-0.0352104,-0.083738506,0.12973367,0.028623022,-0.013121435,-0.022449257,0.06709928,0.044881813,0.10078494,0.034767624,-0.010123341,0.11918086,-0.08607928,0.1775754,0.15187998,0.0823505,-0.021344671,0.14353257,-0.04495564,-0.14791593,-0.16157384,0.020058623,0.013177919,-0.058164813,0.04672215,0.0279581,0.12188531,0.13536942,0.044144426,-0.08286611,-0.045788787,-0.022004807,-0.116841495,-0.11565874,0.034761578,-0.03961713,0.1141117,0.0146051645,-0.0141863655,-0.058910765,0.07513586,-0.012322958,-0.04085582,-0.0036151935,0.10005557,0.115420416,-0.10370865,-0.07017017,0.07540848,-0.027668413,-0.0067757186,0.056980684,0.0055040917,-0.027862733,-0.086290926,0.06005376,0.066214904,-0.014698069,-0.06325654,-0.010972922,0.013605678,-0.07450435,0.0127236275,-0.0050896057,-0.027069204,-0.04119895,-0.011871736,-0.028578235,0.11747363,0.048815425,-0.047918856,-0.083804384,-0.07831832,-0.072105646,-0.08843976,0.009446098,-0.009446988,-0.06720193,0.051488712,0.0219613,0.07105688,0.016846625,0.07098136,-0.10265804,0.03659611,-0.0032650651,0.022007821,0.066603936,0.094504155,0.028604874,-0.09411461,-0.10032999,-0.11136897,-0.090959996,-0.008416371,0.034982763,-0.016913464,0.036235422,-0.014951394,0.040861018,0.17677039,-0.01605691,-0.006377214,-0.04866847,0.08219363,0.012189005,-0.029615117,-0.04515264,-0.05477662,0.052971255,0.11565642,0.009223219,-0.074049056,-0.005630379,0.15152259,-0.012850776,-0.05400599,-0.003928308,-0.01615049,-0.05382266,-0.12283197,-0.0753363,0.0026460248,0.096217826,0.07240448,0.114235684,0.05552953,-0.05390873,-0.09396928,0.06286083,0.07951566,0.0012982875,-0.06654012,0.029529229,0.14634775,0.0010059148,0.0028700274,-0.027804377,0.025987132,-0.10565892,-0.083238624,-0.026609058,-0.005089398,0.052369636,0.03356783,-0.024996115,0.040668417,-0.01645609,0.02928003,0.08195706,-0.04243824,0.015666308,-0.013084358,-0.03721687,-0.051886752,0.036685206,-0.026288046,0.08159624,0.0747406,-0.014776805,-0.03731526,0.001962597,-0.010565949,-0.09388652,0.17814237,0.02468915,-0.03344428,-0.029973267,-0.09024444,-0.019184496,0.044838592,0.0013226338,-0.009734816,-0.06393724,0.11154898,0.13280675,0.0022616338,-0.021237826,0.06420379,-0.027030928,-0.03773315,-0.15219346,-0.030578371,-0.01816215,-0.009525358,-0.0032971082,0.055594124,0.020341737,-0.039518192,0.043546744,0.027869508,0.04582742,0.03724209,0.023276405,-0.040131878,0.039021872,0.004485636,-0.00714492,0.021557266,-0.04582372,0.010822536,0.079945154,-0.016444702,-0.10662835,-0.04604677,-0.0434684,0.06272844,0.09740648,-0.022039838,-0.044664543,0.12453685,-0.02497949,0.06916093,0.04822722,0.024917146,-0.06517574,0.02535,0.062968135,-0.05387678,-0.032098833,0.045881294,0.050893158,-0.01935025,0.053036917,0.0074640745,-0.0077738455,0.059582755,0.030533932,-0.04282134,0.03016308,0.0061619505,0.02317098,0.034170367,0.11347215,0.042790152,0.06392269,-0.0694741,0.028368164,-0.03945736,0.1126199,-0.11023781,0.08390146,0.038439095,-0.039895747,-0.063758574,-0.020228656,-0.026871147,-0.04876302,0.06697468,0.064579144,0.01573461,0.05646248,0.0644487,0.079610825,-0.009912984,0.013865742,-0.018660996,-0.10422713,-0.07722662,-0.06606432,0.13320898,-0.031767305,-0.13581347,-0.057608165,-0.087088995,0.006073053,0.011626048,0.024389952,-0.14962697,0.025995255,0.012715554,-0.041221075,-0.112715065,-0.017911455,0.06555574,0.1912412,-0.045543384,0.05268646,0.0657371,-0.062223323,-0.09335691,-0.09816172,-0.07089246,-0.02543986,0.014410882,0.05484168,0.025260119,-0.11541139,-0.058970895,0.019444184,0.11698645,0.076551236,0.03125651,0.07092857,0.091422476,-0.015433154,0.05427366,0.057731166,-0.05168696,0.10547746,-0.1095751,-0.06818138,-0.03895711,0.0044194744,0.031343553,0.0526797,-0.031163532,-0.043579012,0.012445171,-0.03537133,-0.08085407,-0.08115501,-0.027048584,-0.024874419,-0.045298543,0.009883403,-0.065675505,-0.0971735,-0.07403461,-0.03680063,0.09703753,0.1795054,-0.08275236,-0.14401719,0.03506225,-0.024116818,-0.08408295,0.038096536,0.0023329493,-0.04764421,-0.058479663,-0.14369537,0.0015374763,0.014749693,0.028087554,0.11427895,-0.1205819,0.09725074,0.046013363,0.0136084575,0.03422068,0.04179011,-0.0848943,-0.02119686,0.076458655,-0.03453282,-0.09093489,-0.07991108,0.040872864,-0.05008031,-0.0010911241,0.0025613997,0.005465187,-0.071899235,-0.040436197,-0.055787556,0.037775915,0.05308394,0.05048681,0.0061129876,-0.02017217,-0.08662505,-0.037794482,0.053014025,-0.023735862,-0.09190011,-0.055118646,0.03942154,-0.03410249,-0.00037034493,-0.058450773,-0.08135793,-0.030152721,-0.08104258,0.012752029,0.13873543,0.059070945,0.0013107652,0.03609801,-0.027750619,0.018832367,-0.09415179,-0.05102616,0.04622187,-0.038140375,-0.031056508,0.07076984,-0.05324008,0.080624,-0.07114958,-0.08520089,-0.105019115,0.019449439,-0.037876103,-0.11318866,-0.045094736,-0.010426993,-0.08323364,-0.08268697,0.13463709,-0.0069896416,0.12794743,-0.08365019,0.033345167,-0.013747583,-0.050141804,-0.12978952,-0.08651769,-0.052782927,-0.006348639,0.033725284,0.016287088,-0.16267045,0.019272367,-0.07272885,0.0012399188,-0.077820554,-0.07924706,0.04698976,0.07664213,0.03447806,-0.026151532,0.035696223,-0.08955625,0.058527514,-0.0042888443,0.035272848,-0.13740288,0.14968793,-0.06692797,-0.12364422,-0.09950713,-0.057701312,0.06753879,0.012592724,0.06353028,-0.12539028,-0.0008640611,0.0037377863,-0.11522167,-0.03800942,0.010820483,-0.077903725,0.077311516,-0.17523107,0.026271185,-0.010295617,-0.03561483,0.05909904,0.006466592,-0.10532419,-0.06522611,0.0597774,-0.03254101,-0.07365055,-0.040446505,-0.010898224,0.10530016,-0.054722495,-0.038244702,-0.045192346,-0.015147575,0.009081997,-0.054911587,-0.023893733,0.03935356,-0.045497976,-0.028780818,-0.04945845,0.12760103,-0.033180993,-0.011000256,-0.023303313,-0.005712342,-0.08593941,-0.042524606,0.041241553,0.041942906,-0.09405257,-0.099737436,0.032729138,-0.006635741,-0.08050165,-0.09323592,0.07878571,-0.035148986,-0.04676104,-0.09171575,0.05409694,-0.017485714,-0.0677921,-0.048995007,-0.08071717,-0.051980857,0.07592679,0.103783265,-0.058157932,-0.0040425966,0.15510371,0.03516427,0.0648187,0.013121291,-0.2205627,-0.03658218,-0.00019035013,0.023769861,0.0027553434,-0.045986153,0.0038790985,0.0072479793,0.0068992954,-0.051002227,-0.009966726,0.035609785,0.055421975,-0.035926055,-0.012806421,-0.01811392,0.054742523,-0.0053228796,-0.07060478,0.0008548543,-0.045176506,0.017149094,-0.0056170705,-0.023037923,-0.055584267,-0.019235523,-0.0029790385,-0.002875441,-0.023551593,0.18040639,-0.01629741,-0.026159825,-0.01090568,-0.0043564923,0.031762328,0.015628604,-0.019923633,-0.022528986,0.021358037,0.010086036,0.013176068,0.030056957,-0.036606796,0.020625068,0.028299134,0.036513217,0.006807942,-0.040743485,-3.8295795e-05,0.02870808,0.017251799,0.027176803,-0.0066214837,-0.008529509,0.15933123,-0.14059067,-0.08460227,-0.011520557,0.05119286,-0.096740864,0.067387834,-0.015620814,-0.08676662,0.07587574,0.04856236,-0.07808132,0.037029244,-0.032327954,-0.096050866,0.027207017,-0.033296753,0.003088701,0.016639449,0.08547198,0.00091714633,-0.027847458,0.0043793465,0.07838133,0.05125861,-0.053387463,0.03629286,-0.0121916095,-0.029878514,0.034326456,0.06850941,0.14194001,-0.10229382,0.07978057,-0.16563013,-0.090339854,-0.06939052,0.015470245,0.01644525,0.075510256,0.010298425,-0.099507205,0.035116903,0.0104740085,-0.09988596,-0.15410124,-0.08619273,0.19658367,-0.059371337,-0.06998163,0.005270692,-0.13383025,0.057040133,-0.025220936,-0.028059544,-0.0059286705,-0.00743183,-0.11255767,-0.04069888,0.054897044,0.053656198,0.06773789,0.017188305,-0.16625729,0.047267534,0.0042130076,0.0019141941,-0.08344665,0.05804858,0.041295793,-0.082888775,0.031834863,-0.03633287,-0.09165753,-0.05368084,0.050632294,-0.03864357,0.0119117685,0.061430365,-0.121226445,0.008522291,-0.004600275,-0.004276193,-0.057392012,0.057386816,0.017237041,-0.0926696,-0.0143724,-0.04560655,-0.13319656,-0.013697419,0.019234104,0.0075943093,-0.020859638,0.035314877,0.06613081,0.031480543,0.013787912,0.04869936,0.01690966,-0.09748786,0.050446622,-0.08367612,-0.055363543,0.012520596,0.0020776838,0.029124439,0.16597372,0.004858276,0.0045552365,-0.046802167,0.047416255,-0.026963154,-0.08447764,-0.002591068,0.0059291325,-0.028821131,-0.022649363,-0.01169291,-0.039915014,0.044058118,0.12401045,0.044039052,0.03984856,0.0043166084,-0.022597246,0.013378425,-0.0046617314,-0.060366485,-0.054690287,0.07270565,-0.034091327,-0.04083944,-0.12681417,-0.010466205,0.039977875,-0.010345926,-0.018841583,0.09090327,0.17495456,-0.028222634,-0.045554485,0.012756794,0.07471424,-0.050882783,-0.0289937,0.0005654956,0.08390159,-0.011347713,-0.010298692,-0.022423057,0.027169405,0.00030305109,0.05714304,0.03989155,-0.021219714,0.0496889,0.019105818,0.088847965,-0.090669505,0.05400554,-0.040270586,0.03958099,7.9213205e-05,-0.044719405,0.012080074,-0.08316363,-0.042891677,-0.041706093,-0.0144755775,-0.03250811,0.040714484,-0.15038191,-0.14994651,0.030034954,0.0632312,-0.06493278,-0.06550455,-0.11380287,0.05087594,0.005648202,-0.0106030125,0.1437219,0.0054149455,0.17198277,0.077253565,0.04210531,-0.024254328,0.019815788,0.11212326,0.04074071,0.06625733,-0.064641364,-0.07754987,-0.023171987,0.11702592,-0.09954205,0.06668434,0.01005714,0.05364339,-0.039563075,0.07172365,0.0027999333,0.016777692,-0.02123583,0.05588656,-0.01661942,-0.07584704,0.0033648976,0.045501024,0.0029233897,0.021245906,0.051472988,-0.0071648187,-0.0030604666,0.010483332,-0.021342298,-0.072552666,0.057937093,-0.04923273,-0.048477907,0.0053343726,-0.090532504,0.052215926,-0.016594643,-0.055743594,-0.06490159,0.01679588,-0.021967577,0.005157459,0.022302998,0.106147416,-0.03704112,0.079858065,-0.03329945,-0.053137854,-0.054649353,0.015681306,-0.06497857,-0.062008884,0.07136547,0.021536103,-0.053211257,0.037685767,0.08450358,0.059194695,-0.017089264,0.06825788,-0.03898474,0.03999583,0.033098828,0.025082085,0.07572402,-0.03255799,0.019562399,-0.024338009,-0.08770086,-0.0041209413,-0.081164956,-0.06063331,-0.006304827,0.03552928,-0.109337755,-0.10761785,0.18493065,0.12476613,0.021646155,0.012372898,-0.02183946,-0.041962873,-0.046342935,0.052851956,0.003204146,-0.0545575,-0.038995698,-0.04723186,0.041821145,0.029524479,0.022133062,-0.026206965,-0.04502139,0.040077675,-0.011712868,-0.028738651,-0.021954918,-0.09509493,-0.08534653,0.013944576,-0.0022804977,-0.058915533,0.02257517,0.06338231,-0.04256206,0.0017022231,0.022680046,0.027037004,0.0031235476,0.09202876,0.08146481,0.024108605,-0.027137086,-0.04302224,0.061107095,-0.008410877,0.03681519,0.015765034,-0.048878063,0.044825092,-0.040724043,-0.007388882,-0.016321862,0.04586038,-0.04267353,-0.01327887,0.03187362,0.01712571,0.050360557,0.14180923,0.037054293,-0.0316676,-0.06184512,-0.0471113,-0.019483881,0.011160823,-0.11648124,0.043041617,0.03035402,0.07224189,-0.085513525,-0.0030546144,0.23011506,0.036663633,0.034948707,-0.036231488,-0.03023029,0.025283795,0.044617906,-0.026457926,-0.012004605,0.033268552,0.026693616,-0.15403637,0.04234003,-0.04390978,-0.03289803,0.055289634,0.120805964,-0.072920404,-0.054097645,0.018521562,0.023913527,0.03834885,-0.0790802,-0.120399535,-0.086787835,0.034213305,0.118283756,-0.044401266,0.09632339,0.057587754,0.05008466,-0.10823801,-0.09416876,-0.05050772,-0.064077914,-0.013947793,-0.029178306,-0.047580913,-0.0070018363,-0.045972228,-0.024268275,-0.017584978,0.008945094,0.006253083,0.0007620983,0.04746123,-0.112275906,-0.118176,0.026168792,-0.031608064,-0.029619988,-0.10038836,-0.09529853,-0.100990854,0.014662671,-0.07417086,-0.09704885,0.020816803,-0.08420718,-0.061832394,0.005838509,0.024140509,0.06474817,0.109960735,0.11146309,-0.011707522,-0.037707455,-0.041862857,-0.13303265,-0.15548982,-0.037070975,-0.11528764,-0.008317561,0.07406409,-0.027045395,-0.082142554,-0.035433583,-0.0113499705,0.023685753,0.07320038,0.04366345,-0.020428736,0.1471897,0.08773667,-0.049810927,-0.14328407,-0.0065614386,-0.05422994,-0.037194017,-0.057091232,-0.0520981,0.033837587,0.028167048,0.00096342945,0.024096692,-0.058802634,0.01938784,-0.05842973,0.040399157,0.17345986,0.022291668,-0.099186204,-0.0951007,-0.024321496,0.10346893,-0.013210717,0.005663878,0.012097378,0.03569252,-0.050012145,0.014447851,0.054557707,-0.045625966,-0.014833724,-0.035538524,-0.07480314,-0.06467743,0.04560479,-0.06638845,-0.14396979,0.061339743,0.2619052,-0.11098874,0.023413071,-0.0038518629,0.010714087,-0.0409706,0.056903277,-0.04075571,-0.0603066,0.092746764,0.06258052,0.08158931,-0.031102896,0.01619263,-0.029654969,-0.08691363,-0.07103961,0.045495592,0.037290454,-0.06371093,-0.030478228,-0.034514897,0.02082637,-0.045090098,0.0099351145,-0.0022261343,0.015154595,-0.0031797464,-0.11068555,0.037785817,0.036680162,-0.037647307,-0.016038964,-0.052943144,0.0030483918,0.03975596,0.07434126,-0.015352344,-0.0047011958,0.010412327,-0.022368442,-0.12047095,-0.037800852,0.11685737,0.026755925,-0.005591889,-0.041406173,0.021233425,-0.10638294,0.040143184,-0.10537256,0.062941656,-0.006827626,-0.081791855,-0.08078482,0.021823233,0.08545824,0.04999947,0.10962418,0.024929289,-0.045534834,0.0092619825,0.035088748,-0.033644937,-0.14828373,0.013658235,-0.088525705,-0.03698759,-0.03578187,0.023306226,0.0021356298,0.05328287,0.005111868,0.0020805104,-0.01274015,-0.21096386,-0.1636066,0.03766011,-0.08193254,0.0595174,-0.03015284,-0.072201245,-0.0025663262,0.03326784,-0.06938214,0.104056105,0.056123737,-0.006954406,-0.03438178,-0.059435476,0.044584114,-0.0042188475,0.11158234,0.03293649,0.01586302,0.04908419,-0.08117741,-0.0025073572,0.049123667,-0.025106054,-0.067998216,0.010564858,-0.023374902,-0.07622038,-0.017071683,0.07477515,0.048963778,0.012340967,-0.14262815,-0.018045222,-0.014879408,-0.031581935,-0.055170514,0.14388345,0.048363253,-0.047389414,-0.017035525,-0.014727092,-0.040342312,-0.052239712,0.014966538,0.009495025,0.04160385,-0.07293649,-0.11067821,-0.09077175,0.081046,-0.095598735,-0.005927869,-0.06336086,-0.0007235343,0.105870605,0.08021674,0.020225944,0.017341536,-0.01708979,0.004919856,-0.025968218,0.038630046,-0.012677646,0.034671716,0.019169895,0.038784206,-0.023587083,-0.04943777,0.039974142,0.026415678,-0.016460562,0.025779767,0.041323185,-0.03684352,0.016503686,-0.0037978766,0.035895705,-0.018237911,0.05679061,0.14085095,-0.0044274693,0.0067076567,-0.08284386,0.00939485,0.017845806,-0.012889614,-0.07503471,0.06554036,-0.035436,-0.016321044,-0.0042807963,0.06609287,-0.03176836,-0.032918595,0.06654986,0.02467853,0.037742376,0.0013182246,-0.0047142203,0.055605505,-0.0082287155,-0.019521553,-0.0084669525,-0.03555736,-0.027115135,-0.01366191,0.0010091641,0.027602147,-0.0050787497,0.095219314,0.055776928,-0.052711703,0.016416049,0.083123446,-0.020852005,-0.047816116,-0.14508437,0.015825512,-0.01142014,0.02254541,0.02182312,0.0033933334,0.031479064,-0.0017061721,0.056772072,0.03572637,0.07002296,-0.084046535,0.111501224,-0.04458734,-0.09705727,-0.04345605,0.10509602,-0.011325109,-0.030561427,0.101253845,-0.06749705,-0.07561376,-0.036431104,0.04252732,-0.10310395,-0.045431867,0.10252462,0.1064891,-0.03465839,-0.07037635,-0.03209471,-0.018072799,-0.06289405,-0.07728072,0.04202057,-0.044207413,-0.05177787,0.14004004,0.009678711,0.0043886546,-0.07001733,-0.08792232,-0.041792076,0.14220881,-0.029796196,-0.11912608,0.035968274,0.07678404,-0.018431097,-0.03036328,-0.07137,0.016796619,0.061371956,0.08388489,0.026812816,-0.02847001,0.0789797,0.023682738,0.08538947,-0.046778027,0.046580326,0.02838155,0.0012209166,-0.11328416,0.09009954,-0.040393546,-0.017254325,0.01490586,-0.093847804,-0.051151596,0.058094766,0.035935126,0.075188324,0.0006025827,0.064799376,0.032807928,0.010108242,0.017917247,-0.06623179,-0.08019077,0.048479367,0.07916438,0.014717933,-0.021860588,-0.06697644,-0.07560654,-0.07495728,-0.0557002,-0.14788958,-0.05703697,0.03720894,0.115906015,0.01843484,-0.092657104,-0.06633517,0.057133272,-0.11669803,-0.03865002,-0.017924769,0.013859089,0.029185953,-0.012219747,-0.06527002,0.053366102,-0.1378796,-0.06829638,0.04159755,0.18109125,0.018317614,-0.08421767,0.017088722,0.020798806,-0.07269599,-0.05656434,-0.061051086,-0.054122735,-0.02000689,0.10008995,0.03132079,-0.12077084,-0.043878186,-0.0105930725,-0.10861675,-0.0472876,-0.00154271,0.037053097,0.016310604,-0.117985025,0.026384382,-0.0037332445,-0.025113374,0.04874328,-0.06630342,-0.14277662,0.05014122,0.035980135,-0.17600289,0.017880987,0.07385658,0.05233797,-0.06933704,-0.03973049,0.026990132,0.09745512,-0.026814444,-0.18035288,0.008686292,-0.0815116,-0.055148244,-0.018691627,0.08733533,-0.08595753,0.0043522622,0.11872116,0.093475245,0.059232548,0.007352889,-0.08859193,0.012742622,0.09911618,0.0036553715,-0.029150229,-0.16188411,-0.036192656,-0.06706506,-0.041267306,-0.028886503,0.021479571,0.069177456,0.019974511,-0.14503641,0.053226277,-0.07365245,0.0032045762,-0.021046462,0.101417944,-0.029212398,0.01600924,0.10083339,-0.012103345,0.033631362,0.05403013,-0.0009913859,-0.10754405,-0.14973444,-0.11915459,0.04331655,0.094970345,0.006451504,-0.092757754,0.009727099,0.084570505,6.5215776e-05,-0.12257152,0.07405993,0.05325882,-0.0005431734,-0.04466955,-0.022993313,-0.05649306,0.07368651,0.08771807,0.020983636,-0.022321118,0.022395628,0.05492147,-0.09940181,-0.020631807,0.027006818,0.012494349,-0.011408196,0.034059513,0.05465982,-0.16398722,-0.024331078,-0.03706181,-0.009188568,-0.051513027,-0.092645794,0.04333255,-0.020538334,-0.045004427,-0.046744183,0.039305978,-0.020664226,-0.010059114,-0.031364303,0.029134216,-0.006994053,0.13201891,-0.0005026812,0.007842108,0.044848047,0.07572138,0.010080599,0.089276016,-0.090738885,-0.08412713,-0.011079994,0.08395105,-0.043020543,-0.03947575,-0.048752155,-0.11417739,-0.047543325,0.028195128,0.038846754,-0.073483795,-0.035797093,0.021584991,0.0946042,0.08872116,0.018627383,0.04080833,0.00501276,-0.11075254,-0.004493293,0.039814744,-0.073599234,-0.10551526,0.028740998,0.12983271,-0.015097354,-0.016682714,-0.041666858,-0.014077631,-0.024043169,0.043754984,-0.04773694,-0.008282286,0.054894876,-0.016226748,0.023706075,0.026296237,-0.035762917,0.029059062,0.03558843,-0.028458472,0.020545807,-0.008626383,0.009985338,-0.03830979,-0.008119842,-0.017489567,0.0038005821,0.008303619,0.054415863,-0.028151093,0.04017884,0.044637755,0.03692775,-0.0092933485,0.05852758,-0.0011978779,0.050630223,-0.07597852,0.048505347,-0.031283382,-0.021686096,-0.014512749,0.03732992,0.010636863,0.0010341973,-0.03254851,-0.0011887704,-0.031887054,0.053140577,0.011481704,-0.02111463,0.019668229,0.030892413,0.04458426,-0.025170885,-0.13538966,-0.07512894,-0.0051959325,-0.020940857,-0.10410023,0.0070952266,0.102092765,-0.0047701234,0.019160468,0.029975563,-0.0042278557,-0.035514098,0.014201229,0.041113596,0.07192372,-0.10888152,0.0029640875,0.030807216,0.020503473,-0.08535803,0.0621687,0.014485813,-0.051843923,-0.040431976,-0.135545,0.068442166,-0.07028738,-0.0974913,-0.020473352,0.06977743,-0.13845237,0.10107889,-0.023214977,-0.24261175,-0.053193543,0.09216641,0.07487384,-0.093794726,0.013942575,0.1330623,0.030065395,0.08359224,-0.0022461354,0.11636974,-0.060018487,-0.074936226,-0.019936748,0.0695689,0.12591292,-0.08701748,-0.13707809,-0.0071576936,0.08499567,-0.06142134,-0.13467014,-0.028757362,0.023923308,0.036844674,0.08717515,-0.07775286,0.005177536,0.038531803,0.085478395,-0.0227089,0.026014034,0.040334642,-0.024988344,-0.08223233,-0.06891476,-0.010735426,-0.024978366,-0.032108326,-0.031052385,0.08634221,-0.02716059,-0.05297932,-0.03840128,-0.050045732,0.018576343,-0.044614583,-0.043472465,0.092892334,0.04183589,-0.09212228,0.08636519,0.12388784,-0.08803592,-0.11402701,-0.026454316,0.024354925,-0.042194866,0.0066299383,0.028290393,-0.01694848,0.020256406,0.03403673,0.015423495,-0.039555203,0.032800395,-0.08200923,0.081495725,0.0710435,0.09797768,-0.07807537,0.10265349,-0.006178284,-0.08201124,-0.08335816,0.16964439,-0.044858605,-0.07237861,0.0637277,0.05210689,-0.014908515,0.015421332,-0.020721361,-0.0033918452,-0.0029017304,-0.051851686,-0.04493503,-0.057710066,-0.029568369,-0.035852395,0.0564685,-0.03440095,0.0150808245,-0.025744596,-0.013923626,-0.03430368,-0.07567174,0.06808082,-0.002386887,-0.0688346,-0.1273835,-0.06315156,0.0041624513,-0.07395061,-0.043865446,0.12148341,-0.109372385,-0.07538929,0.064370915,0.085364856,-0.022369372,0.020754527,-0.051155,-0.00061851915,0.0020482661,-0.05217249,0.052591447,-0.01255241,-0.023469012,0.020939155,-0.016730482,-0.061408915,0.12324081,0.018943407,-0.06761524,-0.068280675,0.0051138815,-0.003211599,0.0005111895,0.121239915,-0.016443502,-0.029075325,0.055025265,0.07826739,-0.02290995,0.09259223,0.03231082,-0.13801505,-0.044398695,0.06370654,0.094952665,-0.077472605,-0.07968876,-0.08153792,-0.079697624,-0.077846386,-0.09960376,-0.06794304,-0.014377178,0.031303998,0.04298805,0.10329603,0.06272233,0.10872095,0.20033304,-0.0005892031,0.038258117,-0.059424885,0.05640972,-0.0138548715,0.016602796,0.008492946,-0.16307516,-0.08319068,0.016750706,0.050638877,-0.08250215,0.06548798,0.14712673,-0.03067828,-0.03836559,0.026187083,-0.054817036,-0.11364889,-0.0639663,0.03668705,-0.053491343,-0.025758045,-0.10396615,0.16340932,0.014062092,-0.04202842,-0.104295425,-0.05569163,-0.088917986,-0.081884,-0.12422254,-0.04372939,0.102343954,-0.009524934,-0.09297098,-0.03124983,0.04804938,-0.11844104,-0.056576926,-0.061534163,-0.05727325,0.061690982,0.029970476,0.0045282254,0.056348685,-0.034635175,0.11087195,0.11524335,0.015354491,-0.010387846,-0.12572382,-0.053966627,0.0015549432,-0.00052024005,0.021068659,0.03766962,-0.003233631,0.021982862,-0.03262274,-0.037068773,0.02377616,-0.028165484,0.16778961,0.08204395,-0.02018727,-0.054451607,-0.005552596,-0.021315211,-0.007960154,0.061371397,-0.050363947,-0.044394776,0.11351531,0.13600722,-0.1060784,0.022778984,0.025929851,-0.1380843,-0.13969879,-0.12026043,-0.03712739,0.026861722,-0.02752585,-0.010887973,0.017766954,0.032576073,0.023905687,-0.037256334,0.024155233,0.04800947,-0.042312965,-0.041748956,0.024387427,0.005483252,0.0077532083,-0.054977737,0.04753574,0.031245768,0.022932325,-0.014394316,-0.07903718,-0.00319714,0.022709493,-0.06960696,0.05764276,0.13984075,0.048808306,0.012154446,0.13888158,-0.002860851,0.024664108,-0.047384676,-0.015742581,-0.028080596,0.017083371,-0.025680508,-0.012761506,-0.041675143,-0.04633871,-0.0019983654,0.075005405,0.008369867,-0.025405249,-0.024274554,0.03737199,0.029469535,0.05142776,-0.022693789,-0.00088504166,0.040561274,0.0125509165,0.13568677,-0.042041786,0.029464556,0.0052911225,-0.050046697,-0.08924711,0.059883177,-0.066070646,0.1209737,0.10742886,-0.008141234,-0.06555569,-0.021156546,0.008940205,-0.052611373,0.0043094694,0.007214398,0.024735311,0.16141291,-0.054134194,0.009309253,-0.040651336,0.06671019,-0.04686195,-0.08812277,-0.03218376,-0.033825725,0.13604778,0.004241829,-0.04171664,-0.054218978,-0.1169053,0.10758555,-0.0523751,-0.034929756,-0.059691407,0.024831537,-0.07093554,-0.058919214,-0.07204622,0.07598076,0.09016285,0.073991366,-0.08190288,-0.035581175,-0.036248047,0.0026123612,-0.052213848,-0.110285096,0.04724968,-0.081888385,-0.025318237,-0.06206881,0.023392811,-0.18734446,-0.14037254,-0.013936069,0.11139335,0.08047203,-0.040639445,0.008050097,0.031088946,-0.06603247,0.001683393,-0.039593194,-0.07366226,-0.04080863,-0.049404513,-0.09467082,0.07236501,-0.0040102806,-0.039388068,0.081971064,-0.021605272,-0.04748921,0.018968109,-0.05246292,-0.06787717,-0.03674933,0.007946537,-0.005538466,-0.122057796,0.039804373,-0.10247153,-0.10808681,-0.047076624,0.07980742,0.06099452,0.21691935,-0.08099636,-0.101288356,-0.0047290702,-0.03945948,-0.0855143,-0.06408189,-0.07615841,-0.044218134,-0.0025004272,-0.012892712,0.09016588,-0.08494257,-0.13199209,0.09302547,-0.057932522,-0.06292493,-0.033509027,0.065739095,0.11478519,0.0210093,-0.11385012,-0.058216512,-0.007983595,-0.052503787,-0.07571383,0.067540884,0.041579187,-0.04577921,-0.08258366,0.065620735,-0.044367205,-0.036573004,-0.0891308,-0.012743784,-0.069110334,0.09240548,0.036095772,0.04356737,0.08254604,-0.036319602,-0.0007539034,0.004378724,0.0608732,-0.062395208,-0.018424831,0.09342475,0.013337554,0.060106352,0.04932013,-0.18755043,0.06650532,0.014210699,0.013138823,-0.020021265,-0.041611467,-0.09540844,0.018356755,0.014766154,0.032671344,0.02018322,0.004530201,-0.037131887,-0.043051183,-0.06128447,-0.025725875,0.039164457,-0.1080384,-0.026198909,0.015259856,0.059035342,0.0047145016,-0.062708996,-0.068967834,-0.006714539,-0.021972984,-0.06730838,-0.08900013,0.099526465,-0.02198821,-0.024383781,0.00785557,0.054660432,-0.033615887,-0.08139729,-0.14422667,-0.04909264,0.06893018,0.057982717,0.012189275,0.007242181,0.07685994,0.085892424,-0.11930194,-0.10701325,-0.04996173,-0.036309447,0.01915889,0.06936798,-0.018421253,0.09044026,0.1436643,0.04400935,-0.0460363,0.020825054,0.06673128,-0.07239893,0.07549697,-0.05508503,-0.053939313,0.024773454,0.16871029,-0.1624329,0.007501166,0.08728323,-0.06573166,-0.11696142,-0.067687914,-0.0051260698,0.010995681,0.06140766,-0.07240724,-0.01686929,-0.16049817,-0.100894704,0.010536776,0.022993905,0.035246212,0.061362535,-0.056896728,0.006678561,0.15393506,-0.114190385,-0.11096668,-0.06373769,0.0191795,-0.01778057,-0.030701805,0.03167658,0.052365463,0.10419931,0.06732439,-0.01222987,-0.0072122216,-0.017951256,-0.010263413,-0.0027536054,-0.16640052,-0.04628224,0.0020948476,0.08621026,0.035965234,0.046712123,-0.09289103,-0.048612654,0.023640499,-0.0048612566,-0.03053912,-0.043503772,0.12637028,-0.09184685,-0.11183858,-0.017761506,-0.16250516,-0.09340623,0.04992791,0.05007572,-0.023770193,0.029373337,-0.008729958,-0.10676543,0.037415545,0.052765746,0.012391071,-0.024953749,-0.05527897,-0.040263247,-0.00023710758,-0.018194128,0.13125665,0.09774,-0.09289268,-0.18528856,-0.0071065114,-0.040770885,-0.04883845,-0.009518271,-0.039985005,-0.048716478,0.0061154324,-0.0086025065,-0.04891478,-0.043051142,-0.05153671,0.024223834,0.0132608125,0.026719688,-0.028036509,0.0538971,-0.044162445,0.02070045,-0.05470479,-0.03381826,0.0068217996,0.10970151,-0.07296238,-0.09360902,-0.03216607,-0.073071614,-0.013924894,0.056750912,-0.04711446,0.0026712103,0.08325369,0.07060597,0.019472009,-0.025260914,0.0442911,-0.030426005,0.0020799926,0.04651825,-0.05562318,-0.05679881,0.038357735,0.04041773,-0.055649575,-0.02327386,0.014488318,-0.031432204,-0.024921102,-0.04597232,-0.029056186,0.02573155,0.045958817,-0.07194197,0.04517198,-0.074749,0.03852961,-0.026035631,0.17612998,-0.21947473,0.018205458,0.09767599,-0.08863905,-0.047747944,-0.012787832,0.062300775,-0.020157823,-0.07465714,-0.012703504,0.011574714,-0.010337285,-0.00165618,0.017544042,0.023523899,-0.044232752,-0.019085063,0.009462755,0.061728336,-0.10248356,-0.043986276,-0.0036105718,0.09708164,0.050330017,-0.01857895,-0.016866894,0.09210672,0.0367139,0.10582658,0.0029404797,-0.018178638,-0.028448042,0.053796425,-0.080859184,-0.01445983,0.04137903,-0.017724313,-0.044113792,0.048211545,-0.07130889,-0.031442937,-0.13464376,0.115507394,-0.073834285,-0.07203471,0.107782684,0.07257053,0.08920337,0.08946589,-0.07956759,-0.027773013,-0.009907163,-0.12769164,-0.043232024,0.03867847,-0.019539803,0.01724096,0.017466556,0.1489001,0.07158222,0.03207123,-0.07177184,0.054286074,-0.053258732,-0.043400437,-0.08343924,-0.07311856,0.0119872345,0.042549603,-0.0053701005,-0.03175232,0.12601566,0.017850809,-0.01827171,-0.0026855113,0.046699822,-0.049836505,-0.07855352,0.05635449,-0.10315074,0.08790269,-0.15026528,-0.0032188513,0.02060907,0.13449879,-0.01008396,0.019953769,-0.13045667,-0.10892566,-0.052631367,-0.102761775,-0.010988794,-0.032582,-0.16267814,-0.057946216,0.081198946,-0.18008767,-0.04074977,0.07782077,-0.0043216073,-0.15883946,-0.060691163,-0.17980386,-0.06840573,-0.013874032,-0.07491197,0.0043228036,-0.016484741,0.06785345,0.07313011,0.059091125,0.004601702,0.08126599,0.012870001,-0.13557823,-0.06669603,-0.024177909,-0.018227952,-0.054085955,0.06733961,-0.06069164,0.002020756,-0.04496548,-0.009127717,-0.17806716,0.12107629,0.19802602,0.0025710221,-0.027867882,0.02311066,0.0112107955,0.028028442,0.052402385,-0.027854053,-0.0557674,-0.09431353,-0.026537381,0.10922955,0.007997639,-0.08954213,-0.0007736587,-0.11115665,-0.088389985,-0.0058513414,0.0076593608,-0.026499372,-0.010835415,-0.0004916677,-0.05170786,-0.028121633,-0.056275442,-0.033258338,-0.013114479,-0.017808925,0.06046667,-0.02986292,0.024561606,-0.08643173,0.05957402,-0.11124961,-0.0068626595,0.0046049654,0.17468537,0.010073289,-0.03374724,-0.051066887,-0.07700507,-0.018944385,0.06804841,0.11641868,0.04872796,0.12817687,0.13129829,0.022333872,-0.1031979,-0.05956343,-0.18365519,-0.10538881,-0.11217769,-0.124967515,0.011345286,-0.06735018,-0.050387166,-0.123709604,-0.047424093,0.00021821901,-0.057999562,-0.0316063,-0.08271802,-0.02225854,-0.106843226,0.249354,0.028951872,-0.08282463,0.019180981,0.09625782,-0.07495742,-0.07686713,-0.025596825,0.07401582,0.069952786,-0.008812295,0.048482686,-0.0018990651,-0.107588574,-0.014747465,0.07718372,-0.10403866,-0.057451904,-0.07858044,-0.04832458,0.14949629,0.0044314414,0.078702,0.021989707,-0.027728032,-0.053511325,0.019665953,0.03639057,-0.042625725,-0.0050378703,0.020418191,-0.05241955,0.0052856603,0.018456906,-0.10773202,-0.1175003,0.050625913,-0.029254569,-0.034497306,-0.014646314,0.07654536,0.09154354,0.039891373,-0.07792942,-0.041398622,-0.09989636,-0.07398542,-0.07156262,0.043587867,-0.040946346,-0.10374331,-0.076718494,0.0011204962,-0.11226669,-0.029752055,-0.057311587,-0.07532029,-0.026674408,-0.0543237,-0.08413535,0.014830054,0.051664274,-0.022384439,0.035343137,-0.040806897,-0.07703847,0.14122945,0.09507197,0.007949374,-0.006637196,-0.106633775,-0.034569483,-0.03596777,0.039279327,-0.027983785,0.007292121,0.024935575,0.04325981,0.032580785,-0.0036817612,-0.0018516564,0.035880897,-0.03540316,0.0012590435,-0.019631876,-0.04237691,-0.0225461,-0.054839168,-0.033067387,-0.07068676,0.025974605,0.023130815,0.034391757,0.06771533,0.017729715,-0.07362872,0.03091468,0.07491323,-0.06997434,-0.03915188,-0.034148257,-0.092441045,-0.009266632,-0.03840094,-0.043502726,-0.01600852,-0.03601296,-0.01695243,0.007841246,0.0239272,-0.04517257,-0.027562328,-0.048859723,0.035630364,-0.034385927,-0.03699345,0.04348055,-0.040966418,0.015405761,0.015913256,-0.08060285,-0.1352177,-0.019838048,-0.045274794,-0.057260577,-0.05107198,-0.00038129705,-0.07916341,0.09214489,0.039640676,-0.008965369,-0.01763681,0.07978622,-0.025770364,-0.10894924,-0.05560753,-0.09735952,-0.017124943,-0.007611078,-0.023349958,-0.07067178,-0.02945931,-0.030899035,0.029029515,0.013486461,0.056976434,0.0078846505,0.13197228,-0.059113834,-0.116945066,-0.033914212,0.06100699,0.01663598,0.02457136,0.0049200305,0.13660097,0.12722334,0.039887734,-0.043938633,-0.053761657,-0.0732015,-0.018638005,-0.10438866,-0.11260595,-0.0015641782,0.010865472,-0.013026895,-0.011361864,0.0066215987,0.09101925,0.012840612,0.15892202,-0.001816379,-0.07696128,0.03962944,0.07430655,0.044635583,0.004841713,-0.14408778,-0.012821653,0.050366096,-0.010073086,-0.092664115,-0.03493025,-0.037192002,-0.003629502,0.017738575,0.035805345,-0.086503625,-0.13646166,-0.049438294,-0.025473217,-0.021007245,0.033222504,0.02138826,-0.06565687,0.0022770981,0.022350058,-0.016935976,-0.029054495,0.011742387,-0.005583599,0.02171384,-0.058748323,-0.07482344,0.017143605,-0.019597672,-0.057938907,0.054057352,0.0112261325,0.021738045,-0.08185078,0.014149162,0.10392997,0.08988974,0.03265746,-0.14602475,-0.10493353,-0.027771158,0.1655711,-0.03855022,0.056801762,-0.021175928,0.17515402,-0.04672462,0.10904811,-0.064994395,-0.022750888,-0.09448456,0.1559579,-0.036426835,-0.062118158,-0.061812244,-0.019884242,-0.03243573,0.034461744,-0.00852737,0.025181385,-0.017638149,-0.068844296,0.008604875,-0.018433567,-0.05973405,-0.045517545,0.057536624,-0.013579419,0.0051163374,-0.016735451,0.08506596,-0.0830122,-0.020215042,-0.017317608,0.06490938,-0.085412376,-0.009017163,-0.028507639,0.08109778,-0.0064744353,-0.029603487,-0.032699518,-0.007869893,0.017970903,-0.07124755,-0.056232814,-0.08187431,-0.1317869,0.0825166,0.05110766,0.007241386,-0.06587272,0.04169116,0.011387209,0.04548119,0.03488184,-0.04056303,-0.081460424,0.049042992,0.040664833,-0.07778418,-0.07749344,4.164693e-05,-0.051952235,-0.03402732,0.01969526,-0.02649367,-0.05344881,0.036238477,0.077057,-0.031889964,0.009668454,0.0439889,0.01643761,-0.0007865012,0.0869896,-0.028676081,-0.12309586,-0.055265687,0.059319373,-0.0021928109,-0.00095599744,0.027810784,0.020860227,-0.01929206,-0.056944624,-0.06226879,0.04486695,-0.022383478,-0.04394796,0.061945003,-0.022118699,-0.0028053836,-0.041909367,-0.06703583,-0.06653644,0.034873333,0.0008044969,0.005745779,-0.036969945,0.0027777732,0.082659066,0.009636729,0.039993465,0.01821082,-0.055954613,0.026044253,0.007056129,-0.06436584,-0.059795015,0.03563355,0.105142005,-0.0625306,0.06986395,-0.10729092,0.034411002,0.0027660334,-0.010189136,-0.04774997,0.0242724,-0.14017642,0.026865022,-0.03791523,0.04006394,-0.03088844,-0.014337916,-0.064309664,-0.031192424,-0.02697649,-0.016406098,-0.038158644,-0.05768467,0.10035536,-0.02900087,0.040556543,0.047392398,-0.009894571,0.00339483,-0.018314201,0.051149283,0.00065521116,-0.00863374,-0.11862618,-0.02165785,0.06905248,-0.021411093,-0.05502315,-0.033261333,-0.019829383,-0.036341388,0.08641852,0.015778562,-0.043532807,-0.05291295,0.02934791,0.005552933,0.013750093,-0.013146596,-0.023282796,0.11647159,0.06425966,0.026555363,-0.03952847,0.194612,0.07138189,0.03059788,-0.04212359,-0.11308117,0.06856513,-0.07856305,0.033976614,-0.033240892,-0.079542585,-0.06265797,-0.00984142,-0.049047694,0.026558885,0.049480394,-0.04281527,-0.03860135,-0.031175965,-0.013125292,-0.05488397,0.036509067,0.048500586,0.013391246,-0.009634115,-0.011971535,-0.023138413,0.03502834,0.030015456,-0.032588687,-0.0355097,0.02955318,0.030128162,0.016394023,0.092529126,-0.055608783,-0.070679836,0.021534948,0.044444982,-0.032413024,-0.023946006,-0.022629673,0.081428744,0.063903034,-0.04206083,0.051930636,0.011646918,-0.049383942,0.03216501,0.04686609,0.015345032,-0.014451592,0.05035268,0.043389954,0.06709668,0.0051904633,-0.019725261,0.003062476,-0.0044990038,-0.015152678,0.0054390365,0.0026254784,0.02815981,0.022251848,0.13039467,-0.11862558,-0.006382706,-0.008859947,0.08179279,-0.009114096,-0.022709586,-0.052308507,-0.01796337,0.0023293067,-0.008297039,0.010534577,-0.12745228,-0.05316205,0.023164835,0.102221645,-0.07268041,-0.002944275,0.056948077,0.09911123,-0.056579255,-0.031015476,-0.05717913,0.008762519,-0.021835849,-0.08600634,-0.044248674,0.1324266,-0.011227184,-0.0081161875,0.023012277,0.016029036,0.105294324,0.06950414,-0.05402141,-0.048076216,-0.0011671816,0.11239063,-0.040745128,-0.07419771,-0.035821896,0.08447026,0.004010855,0.072665356,0.0035233134,-0.10637751,0.06627623,-0.07056581,-0.044439,0.029166313,0.019685142,-0.050124828,0.08128141,0.09145611,0.022140728,-0.04458898,0.030047158,0.011270931,-0.02476442,0.006423901,0.112353645,0.023128971,0.06642901,-0.059208795,0.011192169,-0.0891709,-0.0047993516,-0.1291842,0.04697964,0.031195033,0.0075020706,-0.0028126608,-0.026817797,-0.09078282,-0.100555204,-0.01658522,0.098621026,0.05212752,0.0053098835,-0.06290501,-0.033695325,-0.060766302,-0.10500858,-0.099757686,0.10521849,0.1320749,-0.030217322,-0.07807649,-0.046254918,-0.086469255,-0.118110225,-0.009570019,-0.07905887,-0.051730175,0.08883209,0.10135591,0.046965748,-0.08078854,-0.026469233,0.10476387,-0.12045522,-0.05398333,-0.04916006,0.011352733,0.026703445,0.041699294,-0.06707422,0.058012493,-0.030294096,-0.06880532,0.11760109,0.06524666,-0.040673804,-0.059493605,-0.03123791,-0.020631725,-0.0034410674,0.004677919,-0.0178405,-0.06697842,-0.049686637,0.078644566,0.12540238,0.057870634,0.0055279895,-0.023031894,-0.047457892,-0.039277457,0.04324955,-0.0029106692,0.026001872,-0.08175016,-0.007881358,-0.024430837,-0.04804408,-0.026143514,0.040362973,-0.09095872,0.0063682655,0.051759873,-0.13932803,-0.13552094,0.07392592,0.021329287,-0.020772036,0.027334189,-0.02684709,0.14266036,-0.053895745,-0.040164348,-0.00072209485,-0.026529344,-0.0056623,-0.013661528,0.033961296,-0.06879737,0.053257886,0.08665874,0.12702891,0.12218112,-0.04558668,-0.015629925,-0.04023363,0.08781449,-0.036564607,-0.027085697,-0.088554375,0.053835507,-0.079876624,-0.060114708,-0.06903364,-0.05173173,0.003345401,-0.021682251,-0.15375233,-0.059220348,-0.06788137,0.081966914,-0.041112855,0.12727278,-0.07454792,0.09401162,0.144154,0.06287765,0.027556892,-0.008226454,0.034632612,-0.047315896,-0.082044326,0.007184986,0.020331116,0.061835967,0.03733571,0.022334212,0.056257233,0.08263352,0.017759304,-0.09058691,0.046223134,0.033261776,-0.012388509,-0.10848272,0.030772813,0.04682714,0.20671625,0.12283714,-0.019791262,-0.07255195,-0.017562112,-0.06918793,-0.041431017,-0.09845053,0.10044864,0.021367302,-0.08012653,0.02089166,0.16179372,-0.07830673,-0.11092811,-0.037302736,0.010906164,-0.044989057,-0.04862508,0.023466118,0.010991804,0.05486394,0.06313379,0.08961156,-0.014883775,-0.013295522,-0.01179734,0.03468683,-0.06842085,-0.031423084,0.078660615,0.049971335,-0.10380192,0.011618222,0.0004490948,0.010428389,-0.07027753,0.0112092355,0.04107508,0.062833115,0.04965655,0.04589606,0.05689416,-0.0053346157,-0.028186375,0.040268112,-0.00563875,0.030042324,0.03634141,0.03984065,0.08951012,0.004945181,0.039359067,-0.0070241014,-0.046920743,-0.17693673,0.032401636,-0.01974284,-0.055421516,-0.13633458,0.07607199,0.16552274,0.041202847,-0.073014304,0.04290923,-0.029523801,0.0436655,-0.027341211,-0.0028149744,0.036922555,-0.049687296,-0.040169485,0.0062193642,-0.029735535,-0.006345892,-0.02609827,-0.0055282987,-0.03277195,-0.013270022,0.010861211,-0.042380467,-0.027925773,0.007545153,-0.0129108075,0.0040859673,0.07789741,0.03855193,0.052345067,-0.0026824332,0.007113274,-0.0002807804,-0.004308424,-0.01664083,0.029008474,0.072666965,-0.006523936,-0.041062716,-0.011594189,-0.04786372,-0.034428302,-0.0126261795,-0.0287304,-0.034688957,-0.057211775,-0.0050039957,0.064117394,-0.0020659224,-0.027278319,0.0439388,0.03202453,-0.017859925,-0.023221048,-0.057484012,-0.06870506,-0.0652039,0.034103256,0.077023044,-0.01771681,0.029631598,0.10513172,0.077988885,-0.073368326,0.07404691,0.030414801,-0.07588582,-0.09649883,0.013942786,0.04941258,-0.02742544,0.0070949406,0.065563634,0.064790286,-0.048748717,-0.040555336,-0.016597573,0.050061338,-0.0912198,-0.04215454,0.0047376165,-0.062770456,-0.08157571,-0.053499024,0.061385315,-0.014817455,0.09112665,-0.11615922,-0.09740305,-0.051876772,0.077405244,0.114283316,-0.13256261,-0.021117784,0.09983991,0.021243906,-0.046786334,0.081426844,0.109395176,-0.046384294,-0.0854119,0.08340945,0.0905583,0.09941405,-0.07282259,-0.11159066,0.025482606,0.0049706264,0.009853529,-0.0683512,0.068022795,0.033533536,-0.022120886,0.053980865,-0.023692548,-0.13020433,0.051377803,0.12962194,0.01686226,0.023447184,0.041618314,0.1632898,-0.06953725,-0.080592185,-0.04427808,0.09317957,-0.0009115513,0.014916031,0.024124986,-0.04633397,0.063440755,-0.010605616,-0.03848042,-0.030174172,0.00816059,-0.04306103,0.019419484,0.16732009,0.003325049,0.01451296,0.04381746,0.09103275,-0.086204715,-0.0972941,0.004101931,-0.01699234,0.015049741,0.04713487,-0.028158393,-0.08552519,0.07112719,-0.08350791,-0.17218092,-0.14074127,-0.15482497,0.07741478,0.10811354,-0.061952177,0.0722113,0.12487797,0.069684654,-0.00015215744,-0.043432523,-0.019817013,-0.030021613,-0.040047437,0.019450532,-0.09679303,-0.1092131,-0.20283456,0.009155652,0.0024712058,-0.013117973,0.053295,0.03259273,0.042491045,0.037987642,-0.041920755,-0.025566014,0.0021876786,-0.014002709,0.017542059,0.015668975,0.005829953,0.09195306,0.13952947,0.105421916,-0.0523607,-0.07854212,-0.025681496,0.034646068,-0.027315024,-0.08598736,0.04082608,0.0093906475,0.0411221,-0.06963823,-0.015789421,0.008430874,-0.06805277,-0.11363265,-0.165575,-0.06983786,-0.096593715,-0.05086897,-0.072091475,0.045063555,0.07972003,0.009858065,-0.0128761055,0.045884382,0.06780375,0.030277051,0.08923704,-0.005614675,-0.0047540185,-0.16248187,-0.011722974,0.059000574,0.06555461,-0.03278166,-0.018022794,-0.0002656118,0.054388385,-0.033930507,0.04647274,0.0069425916,0.03038984,-0.09601628,-0.053796783,-0.0497702,0.07835327,0.009876636,-0.07013097,-0.03320587,-0.019248564,-0.00018104159,-0.061906848,-0.013031366,-0.019101512,-0.006517247,-0.0055897874,0.07581138,0.027819473,-0.009760348,-0.02264319,0.12847982,-0.020561382,-0.13232952,-0.13437843,-0.102139935,-0.18962193,-0.1363487,-0.13809879,0.031685602,0.111728266,0.043946806,-0.046607587,0.06691235,0.08807723,-0.007004873,-0.0053988723,-0.109799825,-0.03033677,0.18437767,0.19341937,-0.04341065,-0.028872544,0.11806948,0.053750202,-0.05822391,-0.036201157,-0.054534983,-0.05089162,0.03369141,0.042922057,-0.01368186,-0.032619532,-0.0054308516,-0.043545175,0.061609484,-0.097811885,-0.064956665,0.020692732,0.062646754,-0.13886353,-0.037480894,-0.022994936,0.07118019,-0.043680217,0.14441548,0.067553796,-0.014037234,-0.012438356,-0.041899472,-0.05522055,-0.07987263,-0.03349039,0.0326485,0.02793053,-0.0024194052,-0.06241679,-0.10265909,-0.03931805,-0.0064930073,-0.025112716,0.1597048,0.12719558,0.0057882736,0.08466548,-0.05611917,0.009085697,-0.075777404,0.0072812024,-0.17830162,-0.1344893,0.107143015,0.114388235,0.025614077,0.005275371,0.06118804,0.11302709,-0.11703265,-0.13831823,-0.052769087,0.14055513,-0.031247774,0.02378281,-0.01120981,-0.010365095,0.013090102,-0.030505007,0.013599395,0.049167138,0.017931487,-0.026041508,-0.03546685,0.02913925,0.022171259,0.023972178,-0.03652101,-0.017634707,0.0007499631,-0.0023404264,-0.11816266,-0.09420677,-0.03904787,-0.0844379,-0.016750215,0.007961953,0.049414366,0.019324401,-0.02670002,-0.0008455112,0.015444459,0.061173923,0.016001727,0.13409936,-0.027154265,-0.03686568,-0.022660024,0.017975876,-0.039432283,-0.0013288952,0.009118247,-0.048697148,0.0055283164,-0.039781842,0.04789023,-0.038796112,0.0526194,-0.013480542,-0.019578055,0.012133367,0.06370414,0.12766166,-0.020975575,0.001205459,-0.07589205,-0.15239763,0.047215167,-0.059797898,0.05668014,0.002101537,0.07723068,-0.01251991,0.02773218,0.049502093,-0.04552703,-0.027035406,-0.085007094,-0.16654299,-0.13385656,-0.12840441,0.025141388,0.02130899,-0.07458908,0.11353512,0.056498647,0.072073445,-0.08543405,0.048713002,0.038671575,0.010426193,-0.03113866,-0.0021544588,0.012909763,0.17118885,0.11046571,0.10712646,-0.05444065,-0.07312476,-0.019044086,0.01861041,-0.10685705,0.024074458,-0.010817031,-0.032835554,-0.10791321,-0.09145661,0.08818012,-0.028704358,-0.046294067,0.01411305,0.20415118,-0.003273672,-0.07041154,-0.032014757,0.008721141,0.06742735,-0.028225608,-0.031667914,-0.06076865,-0.032123573,-0.0060347402,0.025331961,-0.11652455,-0.0042972686,-0.045688663,-0.041482225,-0.098923616,-0.0033732916,-0.04211242,-0.14009094,0.030011073,-0.089924514,0.008935535,0.06978829,-0.050650064,0.015574921,-0.014553343,0.01880742,0.061151728,0.07138245,0.040607236,-0.023183046,-0.120282926,-0.060946513,-0.08658872,-0.046377167,-0.01366963,-0.07087533,0.054857682,0.16734381,0.04739593,-0.097544886,0.008315167,-0.015863437,-0.015584293,0.09067132,0.039162453,0.050417934,0.008824114,0.022385657,0.032113418,-0.05354955,0.015934644,0.13498385,0.04628818,0.115169965,0.018491141,-0.029374668,-0.093399115,-0.05559127,-0.077024214,-0.09421206,0.05995814,0.039554644,0.022875588,0.045357626,0.01481204,0.03088822,0.036654055,0.009405881,-0.0062994636,-0.03551411,-0.055161286,-0.08759112,0.026090948,-0.0015146856,-0.006187679,-0.079395875,0.048610415,-0.057210498,-0.019579845,0.08003916,0.034501392,-0.02983718,0.017928896,0.12324398,-0.044783097,-0.011282409,-0.005111625,-0.08039875,-0.020468831,-0.093228176,0.008042935,0.1172339,-0.002042518,0.0077302936,0.055696473,0.12412469,-0.08134267,-0.07401777,0.03919419,0.08520317,0.049399734,-0.07730048,0.02675543,-0.06169413,0.10076384,-0.053357627,-0.07014051,-0.1178704,-0.006172823,0.02257305,-0.042736147,-0.036922514,-0.07768745,-0.14542739,-0.10771796,0.16749418,0.0024988523,0.07324661,-0.049385987,0.03670766,-0.03712508,-0.06657973,-0.05850495,-0.008336269,-0.001177281,0.02053785,0.024873536,-0.06683989,0.06374528,0.020695446,0.03005904,-0.020192161,-0.020683356,-0.100348994,0.07644323,0.1229431,0.07965258,0.0006673923,0.009781381,-0.08478171,-0.043533366,0.038493022,0.074166186,-0.06274582,0.0051715574,0.009943264,-0.052831825,0.07284726,0.117086574,0.031837516,0.05015749,0.06411972,-0.122056976,-0.026701014,-0.0129572125,-0.056096744,0.049772322,0.0012879256,-0.12599583,-0.09467726,-0.11810844,0.053000726,-0.055066973,-0.059045833,-0.001589858,0.0095617585,-0.07985042,-0.08378601,0.07071939,-0.051398866,0.016109185,-0.011541759,-0.04809215,-0.0222589,0.018853601,-0.0057983883,-0.013976868,0.03858189,-0.0012858551,-0.040680595,0.044426396,0.10831987,-0.017370572,-0.02835201,0.07144451,0.15054508,-0.0012101763,-0.07293911,0.0047087786,-0.060140483,-0.0003157879,0.019128824,-0.10358421,-0.0075419242,-0.013376659,-0.0151015315,0.14768836,-0.08410508,-0.06986973,-0.092477426,0.15063968,0.064711854,0.04331205,-0.039294194,-0.009938091,0.06981058,-0.04514367,0.00935904,0.057978954,0.03522219,0.13973208,0.031892084,-0.13506587,-0.02513852,0.14396948,-0.013832182,-0.027095143,-0.09669942,-0.14083707,-0.15174817,0.036060628,-0.040644288,0.039297193,0.004320976,0.01000907,-0.039359298,-0.024930296,-0.027270207,0.018680261,0.027506484,0.005929812,-0.027212353,0.04522538,0.05257128,-0.03833284,-0.034746073,0.0007244227,-0.061677516,-0.0393557,0.06744634,0.020352269,0.07706647,0.0134046255,-0.003925475,0.0072795493,0.019380461,0.12046526,0.08866902,-0.014132119,-0.05405465,0.052697692,-0.12782934,-0.04625555,-0.03540257,-0.014843714,0.022894304,-0.047795225,0.018796038,0.0055097723,0.037939932,-0.003734275,-0.0336052,-0.046567675,-0.02117729,0.03874184,-0.047301635,-0.0055364715,0.039481968,-0.07204619,-0.0077702925,0.07828546,-0.011454317,0.11630907,-0.07525674,-0.11937039,-0.03763821,0.012024334,0.100682065,0.06054806,0.092656344,-0.08421272,-0.024423065,-0.00068453286,0.0016102867,0.06590547,0.00054920465,0.11857007,0.12761742,-0.078963585,0.061084628,0.12423879,0.00638021,-0.01587715,0.0010878808,0.002440436,0.13177104,0.04856621,-0.103833556,-0.02039027,-0.06128034,-0.020548318,-0.14277805,0.058699664,-0.0031808598,0.111224115,0.05680206,-0.11302082,-0.16814616,-0.014029867,0.036066856,0.098174475,0.06668279,0.04414591,0.05152731,0.07955443,0.10582506,-0.021150345,-0.12180764,-0.07584298,0.10838087,-0.1068516,-0.07413993,-0.013207903,-0.122593634,-0.011650246,-0.008185308,0.04481545,0.095421135,-0.053440243,-0.0068389904,0.06657565,0.1282746,-0.059420954,0.018821716,-0.05608019,0.07243552,0.006326406,0.075342566,-0.06697147,0.080209635,-0.038261846,0.03171785,-0.06544841,0.061136838,0.004027101,-0.008447667,0.12369505,0.108791605,-0.01688165,0.0418418,0.00758262,0.09813051,0.039462145,0.038517825,-0.011780971,0.00026275404,-0.061880004,-0.10119887,-0.08917604,0.034431014,0.007845769,0.023935437,0.10017913,0.010646879,-0.0031001407,-0.06609397,-0.0570286,0.08230101,-0.04177971,0.09510343,0.029979853,-0.096761785,0.091202304,0.03524233,-0.05601729,-0.10636491,-0.016662765,-0.14589125,-0.046245422,-0.04225801,-0.008932364,-0.03962251,0.095886834,0.046854842,-0.021504367,0.041951478,0.029808575,-0.03441382,-0.024037715,0.08424691,0.049267028,-0.021745589,0.043172635,-0.018673358,-0.07939535,-0.05607406,-0.03361919,0.073069155,-0.0029349956,0.021091972,0.05207854,0.16392304,0.039552037,-0.02549379,-0.03812281,-0.05369092,-0.056168966,0.0490602,0.0039645005,0.0342755,0.04916632,-0.025746102,0.10340456,0.040161368,-0.048911594,-0.040289007,0.0069090608,-0.06106043,0.018599765,-0.040539812,0.054375984,0.008309734,-0.09584965,0.028259316,0.11819493,0.053138778,-0.040875196,-0.13303287,0.021298857,-0.048413087,-0.05736984,0.048888538,-0.041372474,0.03160605,0.05000951,0.021000417,0.056149032,0.08106529,-0.09876596,-0.02746335,0.06868735,-0.014396885,0.090735175,0.07599473,0.08766359,0.05434575,0.019386707,-0.04406097,-0.031751446,-0.07431569,0.053614173,-0.023171768,0.07568118,-0.022257904,-0.0576061,-0.0060616895,0.06584715,-0.01377664,-0.053579576,0.01331027,-0.010994777,-0.023008604,-0.046834335,0.022863293,-0.061911657,-0.03611915,0.06601282,0.06267069,0.0060252515,0.12641838,0.06239797,-0.11005711,0.018130708,0.090284556,-0.08218952,-0.0529365,-0.04199338,-0.0071515623,0.018788178,-0.011270763,0.027101139,0.067092165,-0.00010528585,0.042444304,-0.02057307,-0.10704686,-0.019084875,0.047689367,-0.13203132,-0.006089982,0.14507781,0.08607923,0.06802785,0.0438277,-0.021903161,-0.038812086,-0.025771776,-0.091239534,-0.014630993,-0.007119828,0.040566586,0.03961013,0.003586082,-0.02311014,0.1451792,0.05873524,0.002034513,-0.0039851163,-0.009579931,-0.034668844,0.024052015,-0.006289773,0.06440075,0.048303936,-0.06517793,-0.048073776,-0.005680172,0.012337163,0.00031982365,0.016031733,0.0499938,0.09018657,0.0025134522,-0.026132379,0.00043413445,0.0106987655,0.035573706,0.08007754,-0.06298998,0.06885934,0.10696143,0.054281846,0.050889242,-0.003339952,-0.10576212,0.055780955,-0.08043097,-0.18663363,-0.13840953,0.05594008,-0.009123518,0.0010132015,-0.020920949,0.04315422,0.053122383,0.03391159,-0.034585636,-0.021728361,-0.039039493,0.049961124,-0.009833803,-0.01959465,-0.001250932,-0.024513805,-0.04834689,0.052385192,0.06064208,0.046052936,0.017479338,0.03988665,0.025897427,0.028507182,0.033792406,-0.0071782465,-0.046014935,-0.0063421354,0.12348608,-0.035126824,0.06254532,-0.033301443,-0.06627048,-0.064716995,-0.020249717,-0.046399284,0.018814929,-0.012423697,-0.019312553,-0.015622565,0.009773296,-0.012798579,-0.03295277,-0.04245582,0.018659158,-0.015260663,-0.055374432,-0.012575001,0.03357624,0.0152817555,-0.026088113,-0.027365122,-0.027439075,0.07925008,-0.0805677,0.0130947055,0.069096945,-0.010256466,-0.04925049,0.08646118,0.012562554,-0.04770485,0.04429585,0.124340296,-0.042873476,-0.11088562,-0.00085284,-0.03290535,0.0016120281,0.08445516,0.05108,0.030297136,0.018721443,-0.06423898,-0.034859367,0.009736595,-0.098046966,-0.017550135,0.0046211835,0.039213177,-0.10172181,-0.19187206,0.003090299,0.07459107,-0.092473954,-0.07940152,0.090654,-0.035611097,0.09666431,0.068531446,-0.09115312,-0.18646286,0.0653784,-0.025967358,-0.0980417,0.06776575,0.100342646,0.073774874,-0.04025847,-0.028125403,-0.05616758,0.009234609,0.052801073,0.09914411,-0.11050128,-0.015036419,-0.079722844,-0.064608395,0.024085646,0.053133864,0.0131011335,0.046968464,0.05768086,0.003632388,0.03807519,0.03219137,0.057677865,0.15281631,-0.030528901,-0.09899357,-0.052893534,0.116967306,-0.007943315,0.015609971,0.04787061,-0.06288561,-0.02667132,-0.11895352,-0.12871814,-0.025006317,-0.0027209267,0.022124596,-0.021459198,0.10365591,-0.108990386,-0.07400899,0.040941115,0.14195101,0.097481914,0.1865765,-0.04205799,-0.052532084,-0.034961708,-0.003864776,-0.0842766,-0.00799536,-0.013590246,-0.015185763,-0.01687704,-0.100561485,0.06038854,-0.049441162,-0.088906474,-0.016476525,-0.0175373,-0.008187846,0.069120966,0.11530366,0.0046277903,0.036940496,-0.057857376,0.07285262,-0.015596537,-0.0396297,-0.088036194,-0.07093835,0.053173024,-0.011772328,-0.07993266,-0.04038286,0.0212586,0.059446983,-0.09219147,0.056233108,-0.06837027,0.045258425,0.051417176,0.0817603,0.05166859,0.03940193,-0.021108018,0.08066598,0.007496387,-0.08305024,-0.039417543,-0.07331713,0.06442672,0.13228965,0.026401825,-0.15362412,0.049029354,0.05154394,0.034765378,-0.032252736,-0.011242169,-0.0892323,-0.06236528,-0.10898333,0.0033185945,0.010993105,-0.065455906,-0.00540073,0.006417664,0.16851567,-0.010399496,0.07308244,-0.008417371,-0.07726408,-0.059963483,0.16227336,-0.019859558,0.013284385,-0.12865853,0.0087036155,-0.10177982,-0.052478507,0.02607796,0.11719876,-0.0071742963,0.020569751,0.09170154,0.12088756,0.05773234,-0.06409489,-0.16969654,-0.082195,0.11478599,0.06625671,-0.11438336,0.04594375,0.05711915,0.17445888,-0.06012738,-0.08725425,-0.031084962,-0.030953117,0.05792823,0.0127755795,-0.054940004,0.027417362,0.08927077,0.08408401,-0.04968699,-0.03103847,0.004539145,-0.088502176,0.113453925,-0.13775556,-0.05849715,-0.11097889,0.09933691,-0.06738254,-0.11258178,0.10305573,-0.0019235526,0.008232716,0.045144644,0.17278725,0.08470785,0.03500635,0.100449264,0.13293403,-0.058193266,-0.15365714,0.07764905,0.08508421,0.008978312,0.040794812,-0.106646575,-0.086680345,0.09995652,-0.037369855,-0.14268407,-0.07170488,0.047351733,0.059022572,-0.12324312,-0.029203143,0.09791429,0.06862764,0.12898673,-0.061080195,-0.044508684,-0.031386495,0.052984774,-0.04597839,-0.068885736,-0.119996056,-0.07849199,0.014076323,0.074227534,0.08380964,-0.055872284,0.029653283,0.034626123,-0.033850387,0.0061525805,-0.09765068,0.11950786,0.032950174,-0.021970391,0.04028817,-0.090772524,-0.11342031,-0.0066343592,0.041678395,-0.030902484,-0.03267916,0.016649764,0.0039794412,0.021020202,0.046342343,-0.041537218,-0.008034213,0.00559247,-0.09127469,0.08014393,0.026892852,0.10216916,0.044778023,-0.09076702,-0.069249175,0.03365069,0.0018973079,0.045614462,0.0039863223,-0.008229159,-0.02381313,-0.042395685,-0.020847574,0.008793644,0.04692141,0.009503195,0.008444062,-0.012203582,-0.040590875,0.03506489,0.04914186,0.02646665,0.06896807,-0.086409494,-0.11111611,-0.02322539,0.049477883,-0.06449034,-0.1306158,-0.0191811,-0.053381175,-0.062519506,0.10159601,-0.035395775,0.047135986,0.010313871,0.11418193,0.015698133,-0.01107298,-0.029650038,-0.009331516,0.0070812562,0.04500752,-0.0344733,-0.059009597,0.05014768,0.058653582,0.0034362234,0.017129762,0.0005200904,-0.046891443,-0.033507414,0.012205898,0.031925086,0.040175624,-0.004521497,-0.00284938,0.07523266,-0.07594216,-0.035641856,-0.055149533,0.1236621,-0.14373875,-0.04199309,-0.011005503,-0.030399013,-0.03937627,-0.04755994,-0.014733547,-0.08053925,-0.06946486,-0.06880757,-0.032496195,-0.034261443,0.030707277,0.033025187,0.012641072,0.0104302615,-0.022484917,0.021928962,0.042711943,-0.05739133,-0.040009953,-0.077133276,0.20497741,0.15915762,0.059325226,0.101062745,0.111066386,-0.014102916,0.08215588,-0.097585,-0.047288995,-0.043540187,0.06333363,-0.12753305,-0.011438963,0.07052225,-0.0694345,-0.07035037,0.05532236,-0.05798985,0.013944378,-0.038953587,0.12546974,-0.024029203,-0.117182486,0.08876409,0.02306398,0.09610424,0.09105351,-0.08141328,-0.09228409,-0.08414069,-0.091676846,-0.032757953,0.040254205,0.11422236,0.13523307,0.07179898,0.17637081,-0.02763587,0.0205283,-0.018458383,0.04325826,-0.05745038,-0.17202112,-0.05931531,-0.13106667,-0.105008125,-0.04642421,-0.11508752,-0.09554484,0.107078806,0.06769427,0.06251527,0.118360184,-0.02964178,0.0143776275,-0.06995689,-0.043674063,0.004366358,0.038839035,-0.122907095,-0.12873925,-0.05553857,-0.049129084,-0.053875033,-0.09248271,-0.1760332,-0.0844968,0.070597894,0.2118843,0.106883526,-0.16064271,-0.1243105,0.14687549,0.02900972,-0.12462793,-0.029106645,0.020064536,0.059448186,0.028307512,0.08341897,-0.0893351,-0.13038671,-0.11097937,-0.058013648,0.15699376,-0.05545901,0.0137305455,0.051499955,0.11774008,0.020078838,0.12941036,0.020208329,0.018719343,-0.073189765,-0.089492895,0.09002233,-0.044914804,-0.042252254,-0.09709589,-0.061211422,0.0024156256,0.0010273689,-0.0426003,-0.046530407,-0.11803852,-0.030234983,0.0047727786,0.03771909,0.060276493,-0.03150848,-0.07952171,0.024038957,0.043341447,-0.14451733,-0.10729218,-0.044339452,0.15319298,-0.07832632,-4.298941e-05,-0.012146508,0.1423029,0.021027952,-0.040947996,-0.053177673,0.07883637,-0.0061588967,0.01617887,-0.04821737,-0.0072349957,-0.020588856,0.02199656,0.045738965,0.04215545,-0.04191655,-0.07498066,-0.11125303,0.21301556,-0.06388911,-0.08931152,-0.07605901,0.087446086,-0.027909657,-0.087895826,-0.07573791,-0.025302785,0.07715636,-0.032495957,-0.11797492,-0.10035967,0.06733465,-0.026726084,-0.023775697,0.041510317,0.041686665,-0.024470888,0.15295951,0.00990332,0.055785276,0.026302043,0.06030285,0.012046794,-0.16907007,-0.11337179,-0.08513292,0.07158349,0.0028368807,-0.14481507,-0.13803025,0.09727564,0.07323392,-0.02645099,-0.026465433,0.09174637,0.08658324,-0.054626245,-0.061681267,-0.13620357,0.09163264,0.06025753,0.15461367,0.059283793,0.026749825,0.010440938,0.020625537,-0.100032605,-0.012137713,-0.07905093,-0.035653107,-0.082082435,-0.0016086033,-0.087764,-0.057182513,-0.02254096,-0.008429322,-0.08041104,-0.10282381,-0.07875465,-0.054070335,-0.053267796,0.058817185,-0.00040341594,0.04540051,-0.0105344,0.13237625,0.028770719,0.10860172,0.047602013,0.0030168588,-0.0019620438,-0.056575138,0.0416029,0.010488565,0.09045928,-0.017330298,-0.038936142,0.02453856,0.07214768,0.017314812,-0.02082858,-0.044018123,-0.07282478,0.06052434,-0.10081343,-0.018123742,-0.07604355,0.026227623,-0.020891218,-0.029317206,0.060021475,0.024285756,0.09152211,-0.0793816,0.009661519,-0.041679256,-0.01591339,0.0047810115,0.0020684612,-0.024547871,0.07482425,0.017527563,-0.08191105,0.009929367,-0.033170182,0.00023993549,-0.013514156,-0.019734949,-0.047894225,-0.0014881849,-0.04223945,-0.021885427,-0.045664955,-0.01341062,0.014184707,-0.0055918503,-0.019541048,0.04832151,0.017055776,-0.039808236,-0.08726371,-0.079360716,-0.057717837,0.018616516,0.05658558,0.0037767466,0.11926669,-0.016535182,0.05761232,0.0710806,0.08557699,0.027995251,0.016114285,0.030200627,-0.021270122,-0.015787369,-0.04818615,-0.06685545,-0.034950726,-0.030591484,0.05233501,-0.023991203,-0.053470224,0.009248766,-0.0437788,-0.0034823895,0.05625448,0.0035051752,0.05029887,0.05110938,-0.042243045,-0.03144819,-0.15212628,-0.040209293,0.07783604,-0.06403394,-0.10216347,-0.09757395,0.08906879,0.0726232,0.014272595,0.016125202,0.010852905,0.08169413,-0.050604753,0.008269556,0.031789582,-0.09432975,-0.11224031,0.0015952032,0.1618785,-0.07511726,0.053065844,0.11222702,-0.014354845,0.002104755,0.004546713,0.13284898,-0.021496689,-0.0713183,-0.054819535,0.026964176,-0.03634006,0.23227508,-0.06737196,-0.059234113,-0.14038949,0.122384965,-0.011629691,-0.09467501,-0.107295625,0.03885974,-0.06261656,0.0024880702,-0.13183288,-0.010360928,-0.08195486,-0.0063484046,-0.014586532,0.078815416,0.1266598,-0.05800856,-0.061662994,0.006370266,0.05564351,0.12363211,0.042019583,-0.026982045,-0.08057443,0.0017236983,0.035851337,-0.11635251,-0.06723245,-0.07453845,-0.121940024,-0.007856992,0.086289346,0.058736343,0.14626855,-0.020390878,-0.091730215,-0.030398712,0.099416085,0.030087754,0.008981596,0.030665064,0.0073090196,0.020124976,0.05509237,0.036119226,-0.021029333,-0.054752596,0.020677414,0.1055967,0.18494523,-0.014999825,0.06113653,0.020996332,0.0026128003,-0.041520774,-0.07067273,0.031190872,0.08860295,0.0069433427,0.059025012,-0.008889462,0.023494106,0.08453343,0.04772302,-0.012173982,-0.087313905,0.0062561654,0.005194469,0.06485406,-0.006599478,0.040907744,-0.0013703668,0.036581762,0.050506976,-0.19020373,-0.022093046,-0.020396939,-0.054805472,0.09532636,-0.07479917,0.045780785,0.037656933,0.096865185,0.017853895,0.0073773833,0.052291293,-0.012157082,-0.02671476,-0.009953669,0.07308384,-0.08923464,-0.12191524,-0.16064975,-0.035053,0.043676376,-0.025488801,-0.008034094,-0.033848975,0.081634596,0.15711825,-0.14902705,-0.1189863,0.08060322,0.050447095,-0.028597848,0.07660842,0.05208651,-0.03901405,-0.11308165,-0.11634751,0.0452838,-0.026089702,-0.055552892,-0.069659874,0.062953986,0.039590914,0.08930419,-0.072906196,0.00021864586,-0.033141196,-0.05614897,0.10463451,-0.00042702717,-0.13989174,-0.13396211,-0.01650313,-0.05462102,-0.080926515,-0.078218006,0.07655563,-0.0045578284,-0.08090727,-0.02402849,0.035844553,0.12148145,-0.022516733,0.06121787,-0.03858663,0.04435988,-0.044021167,0.04358375,0.09865013,0.27114666,0.09136937,-0.12819338,-0.051665526,0.027499901,-0.03700559,-0.053811494,0.059789754,-0.07691215,-0.01947515,-0.12359665,-0.10751543,-0.12554166,-0.083658114,-0.051427916,-0.0077821,-0.00990761,0.04224465,-0.033198006,-0.06710053,0.077456765,0.055493142,0.060176346,-0.07629175,0.014379589,-0.0029150378,-0.03481023,-0.010587748,0.007194163,-0.021454655,-0.025743924,0.06695231,-0.15190044,-0.04360246,0.1958267,0.18364732,-0.11550186,-0.05752014,0.055218115,0.07643844,-0.061670315,0.02479862,0.035098832,-0.061946936,-0.017802889,0.061379872,0.011322866,-0.004902081,0.056310024,0.077101804,0.0074659553,-0.058441434,0.020869879,-0.024370078,0.08946306,-0.02974551,0.012021188,0.025292518,0.121615805,-0.062150415,0.041770775,-0.11396745,-0.028171936,-0.09368242,0.031199818,-0.0765884,0.01720565,0.12302218,-0.0086563155,0.07016942,-0.013338852,-0.044562466,0.0037609173,0.06262267,-0.048965763,-0.0759466,-0.08546984,-0.014346617,0.022222612,0.038989983,-0.105416425,-0.074236065,0.027742371,0.11620974,-0.10075731,-0.036520027,-0.006293059,0.050478157,0.08548135,0.0021166808,0.03702639,0.063074216,-0.0662438,-0.15878876,0.11218456,0.023621123,0.0077637755,-0.013124725,-0.052217092,0.002975781,-0.052918516,-0.041271657,-0.0044326438,-0.010806729,-0.028320987,0.0071691596,0.04918568,0.021429019,-0.055017117,0.01753769,0.037882544,-0.01897056,0.1364618,0.10669094,-0.04158732,-0.061863292,0.013807725,-0.016929004,-0.06042615,