-0.12480008,-0.016516712,0.008486355,-0.013696104,0.01960632,-0.038380563,-0.008394621,-0.022134604,0.09356247,0.118379064,-0.05743696,-0.012772031,0.1004203,0.095416516,0.022504421,-0.06288754,-0.05145256,-0.06333636,-0.08947133,-0.0491391,0.0045919297,0.012964329,-0.038176868,0.10616111,0.13816112,-0.065584294,0.0064454325,0.012059544,-0.067993514,-0.02601983,-0.0050193598,0.010018031,0.037835382,0.034359626,0.11075912,0.019041974,0.03954055,-0.018674275,0.076214544,0.016627181,-0.019556005,-0.122959584,0.004548953,0.023890177,-0.007242877,-0.061413825,-0.14012939,-0.14895302,-0.111895755,0.08141837,-0.03828312,0.009593729,-0.0008379234,-0.057415284,-0.039020836,-0.055458963,0.04009813,-0.08973031,0.026565338,0.045823622,-0.05002021,-0.08709906,-0.10122485,0.056827333,0.022773575,-0.10794965,-0.14307597,-0.021685576,-0.13434847,-0.0809551,-0.1630243,-0.13882041,-0.02971075,0.01285293,0.04801929,-0.0065111266,0.0876836,-0.023032216,-0.100013524,-0.026356272,0.069652215,0.0052676355,0.074346095,0.09496536,0.15561867,-0.040447578,0.056979965,0.11596664,-0.07516739,-0.064308986,-0.097127035,0.00071721384,0.0652513,-0.13989048,-0.22514315,0.06588561,-0.047848225,-0.11768213,-0.09133755,-0.005412799,-0.12454491,-0.20024167,-0.1655702,-0.20761067,-0.13557325,0.05659253,0.06574795,0.04723759,0.06389797,0.10693812,0.089719065,0.07711838,0.11877751,0.02538969,-0.020240162,0.0164867,0.10263775,0.16510847,0.11076071,-0.14329793,-0.06376869,0.012281942,0.09357759,-0.09758773,-0.15512593,-0.012294541,-0.058770068,-0.07968156,-0.09418453,-0.0879962,0.07483976,0.022342304,0.045143235,0.02404892,-0.009392078,0.016616726,0.051631257,-0.08457536,-0.14525697,-0.124830745,-0.01023922,0.0015801588,-0.10083181,-0.06484905,-0.19788268,-0.010269785,-0.0031593621,-0.07555022,-0.035896335,0.015078283,-0.071646094,0.016138142,-0.04220917,0.067617066,-0.002584341,-0.028963404,-0.06155849,0.04781759,0.07732997,-0.059534002,-0.010306474,-0.01783499,-0.007858359,-0.008822206,0.0023313274,-0.0024800263,-0.03685002,-0.06040877,-0.10530801,-0.025282692,-0.084430315,0.078440934,0.0713589,-0.010563712,-0.052717812,-0.032851037,-0.04146301,-0.053341724,-0.03799454,-0.0406687,-0.06533174,-0.014160633,-0.010282008,-0.060810015,-0.05972185,-0.09197598,-0.043305643,-0.064879455,0.07257857,-0.031699266,-0.031068364,0.09716522,0.06852564,-0.03460316,-0.07432941,0.030560866,0.012330887,-0.009720916,-0.051381107,0.03860716,0.08088251,-0.10299697,0.08322389,-0.007546986,-0.050070237,-0.017305018,-0.05043331,0.009048949,-0.034091055,-0.00022871971,-0.020185094,0.02521359,-0.11554936,-0.06978672,-0.07127515,-0.0132796,0.07459432,0.01633426,-0.022897756,-0.036061287,0.06871578,0.0102553265,0.030541902,-0.043545455,-0.07500426,-0.03159206,-0.050063957,-0.11241467,-0.0070990114,-0.043773185,0.051492695,0.02284549,0.05662906,0.06593823,0.17923552,0.05515576,0.053109758,0.10583572,0.14302483,0.018646874,-0.062207215,0.040772837,0.08289338,0.078116305,-0.092495956,-0.07229218,-0.15331504,-0.11430527,-0.14299092,-0.14079237,-0.06110787,-0.0038290329,-0.22262923,-0.16152437,0.04385555,-0.037440248,-0.064505786,0.07580462,0.008023484,0.0855621,0.03498056,0.037712682,-0.008783237,-0.06475259,-0.029587187,0.008817592,-0.1428573,-0.17981364,-0.2672564,-0.22244981,-0.11235168,-0.120160975,-0.055470932,-0.022306496,-0.0026514216,0.024998168,0.06922715,-0.0010058306,-0.015031016,0.026827963,-0.076336525,0.030016001,0.07130768,-0.010926587,0.01251046,0.012547559,0.07433494,0.016884133,0.008109127,0.008555747,0.046660926,0.026676299,-0.034238532,-0.03079323,-0.009373939,-0.12257346,-0.03523771,-0.06891293,-0.0013839693,0.03966216,-0.0117005585,0.10917791,0.13203096,0.016670382,-0.060498804,-0.08848091,0.028832445,0.11397622,0.12660277,-0.0075293905,-0.081931025,0.065005004,-0.017703157,0.08461818,-0.092728786,0.14593339,0.032487333,0.029113164,0.09490794,-0.0991111,0.08742568,-0.018681582,-0.073787265,-0.07016968,0.0016661314,-0.10128262,-0.0484566,-0.0555366,0.018809205,0.038996946,-0.04434758,-0.17440544,0.0051224064,-0.058009293,-0.0038448798,0.12690654,-0.042204533,-0.057587296,-0.06302234,-0.038492005,-0.10320807,-0.15151876,0.023506872,0.09654833,0.10469071,-0.1622863,0.094534166,0.15720901,0.11649902,0.26511386,0.12863001,-0.050697546,-0.10830933,-0.15988705,-0.19123012,0.0948508,-0.020797977,-0.14729044,-0.1570809,-0.065952614,-0.0031449622,-0.09182875,-0.15139464,-0.17382413,-0.04721916,-0.13327676,-0.086449236,-0.090241,-0.16494682,-0.05713613,0.061817367,0.047771066,0.05879712,2.9643248e-05,0.116479725,0.011256906,0.060573768,0.071351446,0.009009595,-0.06711649,-0.072290935,-0.021069566,-0.022571636,-0.07158048,-0.0005571914,-0.036598783,0.00058691023,-0.044674832,0.0243076,0.02052621,0.02425832,-0.007038306,0.026467241,0.109660305,-0.010909726,0.02881633,0.16501057,0.06304699,0.19089921,0.07722732,0.025404459,0.034236267,0.026268695,0.019991582,0.059541754,0.07273494,0.12197068,0.02561459,0.12686129,0.026973583,-0.103553526,-0.09637239,0.02341351,0.073447734,-0.11084688,-0.060947627,-0.030220885,0.028219845,-0.0048745917,-0.087020315,-0.0018936808,-0.022858066,-0.03333203,0.0004666041,-0.06323116,0.09673269,0.02681388,-0.08284197,-0.04622713,-0.07140103,-0.0049702916,-0.050010752,-0.06138355,-0.013087364,-0.0022591758,-0.03508748,-0.016944952,-0.10029502,-0.1188119,-0.06427188,-0.05322391,-0.11536807,-0.002152858,0.026317855,-0.0010862596,0.06963936,0.050523657,-0.04552668,0.13676602,0.030776035,-0.034324564,-0.07675927,-0.05097638,-0.020461807,-0.074194126,-0.10298745,-0.029280158,0.1173406,0.102901,0.049643714,0.01776101,0.023393024,0.16509838,0.088837415,0.019815912,0.014751804,0.035851166,-0.020263888,-0.12616634,-0.018755363,0.037826836,-0.018145006,-0.03848791,-0.004367241,0.1002693,0.08509719,-0.044343323,-0.052547317,-0.04146553,-0.059324034,-0.080336444,-0.10216717,-0.032028593,0.039526615,0.032701593,0.08822606,0.046816695,0.10184469,0.109766215,0.007900557,-0.07190462,-0.10331123,0.01562673,-0.11086363,-0.10621633,-0.076510176,0.02176223,-0.012927056,0.1622316,0.12314959,-0.041414976,0.05166666,0.19225885,0.10493388,-0.13242254,-0.08585612,0.014039887,0.019161757,-0.0139344605,-0.037519146,-0.06967345,0.12683433,-0.0036214986,-0.057271622,-0.08465007,0.05796566,0.09272713,-0.0132819,-0.13925132,-0.1301114,0.06320879,-0.0058319164,-0.0541783,-0.07912352,0.01958785,-0.12744713,-0.0028766727,0.07573149,0.042683337,0.016620114,-0.09001666,0.011397882,0.07443592,0.019966267,-0.054106764,-0.016563768,0.03994865,0.058374565,-0.04397733,-0.1803767,-0.02786962,0.12001164,-0.038491704,-0.13382426,-0.11453238,0.020613793,0.00879267,-0.1024099,-0.07262084,-0.14691427,-0.06523549,0.09369228,0.09694301,0.044665363,0.038826324,-0.024545748,-0.027438274,0.041971754,0.08454653,-0.057569403,-0.11502212,0.070908844,0.041923985,-0.016277244,-0.16738082,-0.022562847,0.092965186,0.07278859,-0.10647049,-0.23300843,0.020026758,-0.02180672,0.1463424,0.024264093,-0.18311855,-0.07095566,-0.00910781,0.028637664,0.033695433,-0.0819368,0.0065237135,-0.115075715,0.083222196,-0.08385036,-0.16141658,0.080660045,-0.01620119,0.07060366,-0.06802702,-0.21782584,0.16388957,-0.09849831,-0.10597244,-0.08848817,-0.119221956,-0.027529586,-0.044320565,0.07567962,0.11073032,0.0074812816,-0.13934024,-0.1178107,-0.107625015,-0.07412078,-0.067357935,-0.023464551,-0.13208528,-0.08450349,-0.065794066,-0.04775237,-0.007270358,-0.1196987,-0.13172093,-0.055775356,-0.016950551,-0.097027816,-0.18002132,-0.11926336,-0.08512287,-0.043880362,-0.09815868,-0.09170572,-0.09668615,-0.10165931,-0.067325205,0.005155734,-0.08405415,0.031052858,0.08223337,-0.043251585,-0.058637753,-0.018448839,0.08372348,0.013403617,-0.11169373,-0.064071424,0.052213185,0.010304755,-0.06217913,-0.08844434,-0.04458555,-0.070678934,-0.01729924,-0.010109909,-0.12831913,-0.017974347,-0.06706395,0.07982292,-0.0016373367,0.040015757,0.051096424,0.13143015,0.09832938,-0.012299848,0.014932555,0.01598381,0.10319947,0.013398702,-0.055503145,0.037896033,0.06467033,0.044798065,0.106119305,0.014740197,-0.034689806,0.02501229,-0.010834426,0.12530994,-0.027842868,-0.041818656,0.02455254,-0.006193407,0.14297421,-0.059519507,-0.09092589,0.03018297,0.09121773,0.07190418,-0.0074038967,0.028844725,0.10693654,0.04433991,-0.09779047,-0.055910785,-0.075653546,0.039284788,0.003247253,-0.089043595,-0.004481724,-0.03394515,-0.07559274,-0.029250419,-0.04050855,0.042075295,-0.0020132903,-0.0492828,-0.044582017,0.014041534,-0.0660016,0.0052710683,-0.019757478,0.028415395,0.03522343,-0.05369611,-0.029497081,0.06875156,-0.09212069,-0.020623611,0.042112675,0.06523931,-0.024741,-0.019588018,0.042021092,0.04802791,0.016461048,-0.074309714,0.067256324,-0.03611597,-0.04999006,-0.033238,-0.010081315,0.05870163,-0.0761388,-0.012692804,0.0018153194,-0.14248888,-0.07137925,-0.041556228,0.021876916,-0.0555377,-0.105958365,-0.10786245,-0.054138362,-0.064583875,-0.089811265,-0.06938516,-0.10888082,-0.06783504,-0.06568237,-0.072987996,-0.048019808,-0.056840293,-0.09686753,-0.10870116,-0.06712957,-0.099313885,-0.108853474,-0.094210654,-0.0548011,-0.1507787,0.0142570855,-0.016293176,0.10286745,0.0039191507,-0.13921686,0.01841165,0.0050794957,0.025142685,0.034196954,0.0917204,-0.1964622,0.02289026,0.008684989,0.08628942,0.028050926,-0.08804033,-0.008787525,-0.06430654,-0.0011374588,0.024600701,-0.11544632,-0.08091546,-0.007945618,0.081110045,0.005997715,-0.043705374,0.05016389,0.0777631,0.07055957,-0.02125978,-0.07885969,0.038527623,-0.067860216,0.007474572,-0.09000487,-0.03918708,0.031753514,0.08709831,-0.023927338,0.09808501,-0.027738353,0.1541344,0.026618259,0.0136690615,0.028959183,0.07272753,0.12248462,-0.0406367,-0.09012708,-0.048095904,-0.12905206,-0.086587004,-0.0966652,0.0047679413,-0.12760153,-0.027928885,-0.032033987,-0.019257065,-0.0054104063,-0.1373576,-0.07427574,0.010867105,-0.02884834,-0.06985351,-0.12190662,-0.21134342,0.006298702,-0.06302087,-0.15189771,-0.016057236,-0.14870566,-0.18224311,-0.26604798,-0.13415456,0.03346547,0.0326289,0.010645564,0.077594176,-0.13730432,-0.10917124,0.06807315,0.0057351775,-0.002175901,-0.0150393415,0.023287067,0.0059303767,0.13027719,0.025437174,0.102870785,0.11024811,0.079566024,0.11701006,0.0031015673,-0.033619724,-0.07780381,0.1663617,-0.14035769,-0.1245838,-0.10379388,-0.036320265,-0.12055194,-0.05727494,-0.0070948736,-0.064601414,-0.038831737,-0.1490906,-0.00515603,-0.07508196,-0.06233204,0.04408498,-0.015004944,0.05653604,0.010849702,0.13275029,-0.018724289,0.0457135,0.045781855,-0.062233254,0.17284042,0.09338771,0.16798179,0.12244658,0.15587248,0.016169978,0.039088365,-0.06947576,-0.023579845,-0.0022295003,-0.117624156,-0.18498114,-0.03490036,0.06766768,0.13159089,0.026706848,-0.042803086,0.07300326,0.09596059,0.056030095,-0.042950924,-5.505364e-07,0.078906916,-0.01430764,-0.11384189,-0.055721562,-0.12393377,-0.013801886,-0.11402341,-0.19460166,-0.002029422,-0.02630252,-0.105161466,-0.17039593,-0.01625787,-0.05649732,-0.0762596,-0.093621224,-0.06992471,-0.05855328,0.0053106737,-0.07814461,-0.032177046,-0.0125468,0.022875769,-0.0919509,-0.0034692774,0.02428097,-0.065075986,-0.076124474,-0.039998244,-0.049921673,-0.16169846,-0.13405041,-0.091010585,-0.010489638,0.026593082,-0.08986291,-0.10018753,0.04018932,-0.059366137,0.02814775,-0.14811818,-0.015928635,0.022104224,0.04628636,0.015414142,-0.04516047,-0.019495383,0.063306265,0.029328106,0.008247505,0.06677311,-0.037268072,-0.0018219594,0.046349857,-0.058298275,0.041553516,-0.0063722786,0.0071963454,0.04587863,-0.013144267,0.007147621,-0.086175956,0.02345975,0.03417353,0.079271786,0.010922947,0.0019297333,0.012790956,0.052189477,-0.058504976,0.03358946,-0.037553526,0.16606283,0.0802087,-0.10977546,0.018203044,0.12012618,0.036694188,-0.048889667,0.020002399,-0.004038395,0.14003815,0.10149878,-0.022822311,-0.061520554,0.06244575,0.12068254,0.0926157,-0.037396304,-0.07977077,0.068550274,0.020105973,0.012960899,-0.03479679,0.038961552,-0.009768296,0.016520945,0.03953119,0.13281861,0.26964843,0.0012009668,0.0394939,0.07229287,0.08812849,0.07007043,0.066387035,0.120376624,0.014658626,-0.049883023,-0.074876405,0.033490874,-0.056008037,-0.011707155,0.061176483,0.087742954,-0.047651697,-0.022386648,-0.042286452,0.012400929,-0.042393684,-0.040508807,-0.06921915,-0.04452602,0.051117335,0.038281165,-0.016004996,0.027259946,0.04843739,0.020050263,0.016097574,0.008217909,0.055406004,-0.008850528,-0.03034231,-0.03137563,0.014365236,-0.046501264,-0.06575614,0.031282093,0.0046602637,0.017470112,0.023130165,-0.009802823,0.036956497,0.04938303,-0.04218246,-0.0059163095,0.045471057,-0.04610674,-0.07669839,0.028343504,0.040173993,0.03705712,0.011108722,-0.03532853,-0.040370807,-0.051074345,-0.06131233,-0.016382469,0.053943876,-0.014460267,-0.06002642,-0.062516026,-0.045778736,-0.030516217,-0.06482244,-0.06974462,-0.0042022998,-0.028756598,-0.05108097,-0.007891488,-0.03433146,0.017363733,-0.0051083253,-0.044136386,-0.014331766,-0.046969105,-0.08641415,-0.02118471,0.03057366,-0.035926733,-0.055767566,-0.018391138,-0.047322482,-0.032237925,-0.08676065,-0.018526556,0.027360933,-0.032490365,0.107959054,-0.04919909,-0.03350596,-0.01643638,-0.03271081,0.05473141,0.10066376,0.042017207,-0.011947421,-0.047432054,-0.06171324,0.05420655,-0.013373857,0.021693556,-0.05644245,0.012087601,-0.026474645,0.0066825813,-0.038717896,-0.03278983,-0.023216251,-0.012222994,0.06353873,-0.030738777,-0.030256476,-0.039094966,0.00045355412,-0.039918546,0.042346545,0.047170803,0.0921793,0.0023375202,-0.019714672,0.01427511,0.057543375,0.021257108,0.068117045,0.05089403,0.052532375,-0.044253252,0.007408712,-0.041089207,0.05428404,-0.052283436,-0.043590393,0.013857665,-0.007405235,0.00983996,-0.008729467,0.07658528,0.032860678,-0.008314614,0.0058249845,-0.052087378,-0.012283243,-0.01564704,-0.03035894,0.0069632735,0.044030894,0.039774027,-0.08451249,0.06292099,-0.033587348,-0.054235015,-0.019704767,-0.004158337,0.078227796,0.021743376,-0.055951394,0.017242428,0.013926336,0.014812834,-0.05750206,-0.0543673,0.04197283,-0.046244103,0.007400394,0.03947117,-0.029356848,-0.045055766,-0.008438753,-0.0030007386,0.024986718,-0.0135196475,-0.033326585,-0.0090301,0.0040215575,0.038702674,0.047125775,-0.04418025,-0.013693007,0.039741382,0.02151905,-0.071012944,-0.048554495,-0.016445883,0.04517685,0.04079824,-0.05818332,0.0061590876,0.008291115,-0.056803327,0.039964814,0.070838906,0.06787899,0.061213475,0.022970699,-0.027707381,0.032124635,0.05883144,-0.0631249,-0.044466745,0.055917718,-0.025820939,0.0144996755,0.023327881,-0.02992945,-0.0033462886,-0.0039135884,-0.051924046,-0.07515712,-0.03464961,0.05288126,-0.027610239,-0.045459725,0.043404136,-0.0043107593,-0.042137757,-0.027740752,0.028056206,-0.0442567,0.022641204,-0.05325813,0.05314856,0.044244718,-0.06990396,-0.030998947,-0.021631334,0.043263886,0.04444168,-0.0009534229,0.06949068,-0.006492542,0.022783006,0.03247945,-0.05859083,-0.04447057,0.046252724,-0.03069179,-0.035126917,0.067597665,-0.06957364,-0.014407489,0.0037128914,0.08752141,0.024884447,0.027210074,-0.061354335,-0.02929168,0.020261886,-0.0723977,-0.01571152,0.0692073,-0.012661399,-0.053927805,-0.0505189,0.042125497,0.006596258,-0.001683923,-0.055978183,0.008994069,-0.015154025,-0.030169295,-0.028387347,0.08219114,-0.14177336,-0.060748026,-0.100707166,-0.018160881,-0.056285083,-0.17706616,-0.1517509,0.016691847,-0.059500612,-0.14919138,-0.03682687,0.05682093,0.037276395,-0.06018449,-0.069588326,-0.052291006,-0.03725667,0.026892299,-0.08710457,-0.047107633,0.119398564,-0.02998497,0.038933348,0.0460102,-0.049238067,0.023003845,-0.030916406,-0.041688893,-0.07149586,-0.09348467,-0.048824344,-0.0873301,-0.007174331,0.020317415,-0.09778779,-0.13649435,0.09077688,0.07818753,-0.017051922,-0.17081206,-0.012513689,0.078569405,-0.018134164,-0.07347512,-0.09569052,-0.0814377,-0.124624155,-0.07850626,-0.052279875,-0.03157469,-0.0067422986,-0.15711384,-0.066731624,0.002735893,-0.006492775,0.00096565636,0.0015477621,0.094119586,0.13350108,-0.031513922,-0.11830029,0.113886945,0.12895656,0.18451606,-0.07615587,-0.085554205,0.058043752,0.10160976,0.0619155,-0.08711116,-0.04268734,0.105447106,0.0706798,0.008177288,-0.029002378,-0.22967696,0.13997962,0.03856588,0.048357554,0.018189173,-0.2312031,-0.15963544,-0.035328005,0.06378024,0.0018508853,-0.04324749,-0.047204375,-0.10083707,0.0064764954,-0.040627126,0.042828705,-0.14196876,-0.254852,0.0315109,0.14177486,0.10884687,-0.0905965,-0.04895881,-0.021266926,-0.050080054,-0.02068035,0.14520946,-0.07948266,-0.13797136,-0.029860552,0.006795699,-0.052596785,-0.103488415,-0.05995164,-0.06840625,-0.15442765,-0.117901064,-0.07865388,-0.10888775,-0.054034196,-0.038762923,0.09580487,-0.013046979,-0.0899523,-0.15968233,-0.084253,-0.0027767844,0.04482811,-0.04923525,-0.04473521,-0.0757356,0.11404206,0.112556174,0.0052329684,0.0069392784,-0.1506327,0.13543113,0.123355076,0.041816466,-0.052684262,-0.1152115,-0.07542547,-0.0008821837,-0.028718667,-0.03152244,-0.040392186,-0.03458141,-0.08311464,0.0540246,-0.046373226,0.066938646,-0.032006662,-0.11225946,-0.011293447,-0.031355828,-0.054062054,0.0420739,-0.0105207665,0.0123288985,-0.10810392,0.04337496,0.047661543,0.14133401,0.105821945,0.035597183,0.113671094,0.07554841,0.068553746,0.16384165,0.029855223,0.11546577,0.01799958,0.14150631,0.05662993,0.05002923,0.048594262,0.03826652,0.08646862,0.026692485,-0.04335554,0.054700222,0.07037281,0.03802154,0.015435493,0.018555515,-0.01973188,0.04175596,0.039467476,-0.103152566,-0.053287078,-0.025937168,0.03167544,-0.091737896,-0.13629352,-0.060751695,0.021900345,0.060337964,-0.10014163,-0.061324544,-0.01241158,0.06874107,0.06387682,0.049439725,-0.061370835,-0.080980964,-0.022460133,-0.011152912,-0.035934433,-0.05139885,0.010862514,0.0668103,0.002725163,-0.04156146,0.09034659,0.029626718,-0.072717026,0.045071445,0.11867454,0.057243984,-0.077392444,-0.10686987,0.056567412,-0.07629267,-0.08098787,-0.063239336,-0.031275097,0.0683581,-0.0065808706,0.059635714,-0.16699156,-0.16332667,0.060769703,-0.056686834,-0.100464016,-0.15539466,-0.15929961,-0.0103934035,-0.055607688,-0.1349234,-0.12863488,-0.1450306,-0.056319505,-0.08429842,-0.096889675,-0.04522851,-0.07172691,-0.06856345,-0.09965573,-0.07961076,-0.058821417,-0.047718782,0.0049120462,0.034452364,0.079211116,0.09998699,-0.02951822,-0.04490832,-0.030397825,-0.020039113,0.0046134335,-0.10450786,0.15907082,-0.008375875,0.047469344,-0.052321106,-0.12548973,-0.13836934,-0.060811117,-0.024312899,-0.091241464,-0.1624648,-0.0018381204,-0.01899255,0.06288017,0.04789534,0.0069180126,-0.029023565,0.052410968,-0.06468317,0.104983084,0.036327314,0.002527396,-0.065487586,-0.004186931,0.030617218,-0.035203815,0.007002432,0.040557727,0.030049784,0.011755665,-0.036023464,-0.045853842,-0.10752143,-0.0063320617,0.0056576915,0.01908976,-0.041480586,-0.0635517,-0.0382945,0.0113558965,-0.007833666,-0.10934532,-0.093364716,-0.14059755,-0.003443545,-0.10016401,0.020969808,0.03324803,-0.1349907,0.028342832,-0.10081482,-0.057060186,-0.07529732,-0.0637248,0.0025061767,-0.0803882,-0.08954448,-0.16479306,-0.110301316,0.005151188,0.1240818,-0.16342154,-0.018336281,-0.057928734,0.08763309,0.11345911,-0.023556763,-0.0023852303,-0.006883548,-0.08654403,-0.1527956,-0.07741597,0.06018884,0.07177146,0.030110765,0.16777271,-0.037545815,-0.029205125,0.07587249,0.024435233,0.13523832,-0.18552496,-0.054064497,0.08973716,0.012156857,-0.039453704,-0.120058104,0.03878956,0.0074154455,-0.15607573,-0.11415985,-0.14705406,-0.12414192,-0.041335367,-0.16033112,-0.037203606,0.11593035,0.0879666,0.11707802,0.031088829,-0.067970164,0.10588202,0.11512783,0.050122965,0.00742639,0.05176093,-0.0027615165,0.1499266,0.15233736,0.09058631,-0.06818623,-0.06619121,-0.038884252,-0.11024075,-0.0017755907,-0.031746894,-0.043324936,-0.08725321,-0.07989309,-0.10963152,-0.17362566,-0.027151592,0.07137148,0.06544983,0.14000309,0.020932117,-0.038855795,0.088499844,0.043252982,0.034681432,0.05806446,-0.0827133,0.028244644,-0.062179938,0.0060431464,0.033428423,-0.09173262,-0.052610062,0.028421506,-0.038782932,-0.056247097,0.01734686,-0.039301664,0.008450338,0.0015917461,-0.06839259,0.07830796,0.052122634,-0.029979441,0.0097689945,-0.13258529,0.0350763,-0.023946075,0.0071078716,-0.010401671,-0.08607708,-0.07102547,-0.028950583,0.008236251,0.011177902,-0.119148,-0.10978632,0.0410925,0.0469431,0.0072890096,0.013831638,0.023173815,-0.006832446,-0.04979838,-0.020782959,-0.024147931,-0.017188746,-0.04130341,-0.0025342025,0.057724055,0.009815102,0.016910365,0.056152686,0.050815996,0.038227636,0.06798907,0.023375375,0.05359637,0.07799933,0.055285413,-0.008877195,0.017310984,-0.021835657,-0.005641318,0.024865376,-0.10748093,0.016582187,-0.08552239,0.010385175,-0.04538595,0.096086904,-0.088115714,-0.044738337,0.07181964,-0.03131856,-0.10024197,-0.081439815,-0.03875103,-0.0044681462,0.0031208491,0.012255727,-0.015591532,0.042184304,0.04410591,0.012840189,-0.006125874,-0.03026523,-0.012954711,-0.0015802953,0.049482018,0.083034866,-0.06531129,-0.054029107,-0.0013837771,-0.015325755,-0.03277036,-0.044164207,0.03789444,0.07335461,0.12756835,0.005870191,-0.04073983,0.064174995,0.09069569,0.13893598,0.0701537,0.012623774,-0.06681806,0.07328878,0.17758171,0.036711246,-0.023401892,-0.10248878,-0.064774394,0.012091974,-0.081683435,-0.041568786,-0.06486747,-0.11726896,-0.07262274,-0.0907271,0.031289257,-0.0002658877,0.18324937,0.15565622,0.029474095,0.12372118,0.1482244,0.10613187,0.03769101,-0.04463857,-0.08799105,0.059666306,0.005753986,-0.042908337,0.085122764,-0.14254981,-0.18410656,-0.008963926,-0.061208237,0.013551389,0.07530106,-0.08841773,-0.0076887137,-0.04011033,-0.04247351,-0.15260234,0.014144239,0.0048724636,0.021371813,0.052632026,0.08722373,0.1219569,0.011272452,0.0687911,-0.026490673,0.07835895,0.02955716,0.004071817,-0.0594854,-0.021705754,0.039881688,-0.047443647,-0.054826945,0.06276203,0.015648203,0.024968242,-0.005284196,0.021965733,0.00017977091,0.150961,-0.082287006,-0.11330334,-0.12271425,-0.044296738,0.0059911897,0.004462425,-0.066995546,-0.06673474,-0.033694725,0.034011852,0.009719906,-0.005666264,-0.023111928,-0.052610397,-0.059440747,-0.016733373,-0.14658974,-0.046048876,-0.054377165,-0.18819009,-0.13256326,-0.072483025,-0.0011595698,-0.20992978,-0.15051882,-0.10169871,0.06757142,0.02873067,-0.030345637,-0.08309868,-0.068644755,0.013291188,0.008241734,0.01867116,-0.041274067,-0.08178239,0.030575348,0.14399949,0.07109406,0.055989016,-0.108391605,0.001515021,0.040258046,-0.0044221315,-0.027113514,0.03503519,0.04122726,0.080577604,-0.047811493,-0.040495653,-0.11986801,-0.022872148,0.0019916617,0.014465948,0.054427866,-0.10550401,-0.14748687,0.03673345,0.1072224,0.09558333,-0.24233133,-0.007196896,0.026872952,0.046370037,0.092411205,-0.12464591,0.12135701,0.06642166,0.0560175,0.1254743,0.02969906,0.059190296,0.033312343,-0.07511611,0.0031139012,-0.09182922,-0.06580168,-0.096195355,-0.06536147,-0.13979596,-0.06262327,-0.08981793,0.022777753,0.0124078365,0.041222326,-0.045450922,0.095723875,0.037532445,0.00170463,0.076442644,0.08394102,0.041363224,0.09477644,-0.015978983,-0.017648794,-0.007041328,0.06626845,0.036670644,0.0682793,-0.0035334984,-0.065627575,-0.07010893,-0.097639665,-0.0030239183,-0.012855059,0.03781555,-0.092420354,-0.12182717,-0.10514434,-0.09004023,-0.062497336,-0.08207053,-0.09205343,-0.008852864,-0.06040151,-0.11373295,0.035217978,-0.020824973,-0.09462603,-0.01136292,0.03944913,0.06760451,0.1018424,-0.025489034,-0.071191326,-0.06719258,-0.005327634,-0.05449882,0.036310416,-0.0069984617,0.022447472,-0.023915684,0.03796581,-0.0107945185,-0.06031779,-0.11565171,0.05320374,0.011322855,-0.064107865,-0.006254786,-0.10004846,0.0660999,0.01387133,-0.0027399652,0.037779048,0.04245773,0.020450287,0.011794771,0.046740882,-0.045790866,-0.027394613,0.044208292,0.0798766,-0.013002662,0.06926748,0.020290306,0.09633594,0.06682482,-0.019969508,-0.07434589,0.06414857,0.006397061,0.015855545,-0.04088324,-0.07146163,0.120289735,-0.04612352,0.09061497,0.04765761,-0.0016402317,0.08348943,0.041928496,0.05434814,-0.0064844736,-0.059546866,-0.06751082,0.0060735424,0.043700937,0.11895672,0.0082683945,-0.033758752,0.053397816,0.24759522,0.08654711,-0.044338245,0.027881749,0.11827617,0.1367047,0.009816633,-0.0066426494,-0.074481465,0.059504576,0.13647857,0.016560595,-0.024416476,-0.20876198,-0.15729277,-0.091621704,-0.0062740715,-0.10862621,-0.0322741,0.036211777,-0.047316544,-0.09535076,-0.0743468,0.21414024,0.19396263,0.13954037,0.035039604,0.068644956,0.10869124,0.05045233,-0.03353388,0.08929631,-0.012795928,-0.07158079,-0.06449977,-0.028045774,-0.12532467,-0.106300764,0.019803897,-0.09043559,-0.08579078,-0.015784051,0.0314729,-0.055826403,-0.08501829,-0.1183493,-0.19902378,-0.16078168,0.08196714,0.0778365,0.03981332,-0.05145262,0.029418826,0.043200094,-0.058905024,-0.0640215,0.07133824,0.03487241,0.09471071,0.0063919164,0.06836761,-0.008085574,0.01321338,-0.16596274,-0.17583181,-0.08083968,0.09150588,0.17307127,-0.296008,-0.17085221,-0.23493,-0.1900257,-0.09381165,-0.13894275,-0.07924535,-0.1439992,-0.13033125,-0.07454273,0.03494243,-0.061722275,-0.044306785,-0.022875547,-0.016252397,0.03255628,-0.023827711,0.09110267,-0.050744694,-0.11257228,-0.32439095,-0.17552409,-0.13658865,-0.09230998,-0.17900163,-0.13971747,-0.116485596,-0.08505744,-0.1368547,-0.08895665,0.038453892,0.10498323,0.025618179,0.17355919,0.123605214,0.030518683,0.064335905,0.057560313,0.06510097,0.065513805,-0.1823671,-0.012915126,-0.045144305,-0.11653023,-0.039673015,0.13800341,0.04985107,0.111117974,0.08072366,0.21605524,-0.013240978,-0.001593224,0.01770978,0.03759876,0.07972583,-0.026066834,-0.06988815,0.06540101,-0.0044429624,-0.09876942,-0.14102171,-0.00024661707,0.01992012,0.027402807,-0.062478323,-0.055442825,0.050485954,0.06167846,0.12511447,0.05421146,-0.041817274,-0.012747164,-0.049182832,-0.059196748,-0.110576555,-0.08872016,-0.16137135,-0.11965867,-0.047220543,-0.056979593,-0.088248156,-0.04707864,0.015953325,0.024390861,-0.05402851,0.01611888,-0.000851393,0.07633133,0.08631414,-0.034660973,-0.01154351,-0.007263733,-0.00051441573,-0.016608525,-0.04155708,-0.061311938,-0.10233973,-0.010642499,-0.03312832,-0.005497313,-0.008657373,0.026977826,-0.02514244,-0.020922132,-0.056747254,0.0014993222,-0.014494858,-0.039825108,0.0045226174,-0.083979405,-0.09003924,-0.012218438,-0.10550146,-0.07955894,-0.14238773,-0.05633217,-0.0043125213,0.025793191,-0.0690116,-0.05934414,0.002215166,0.07606099,0.04607419,0.019970091,-0.04023098,-0.009261012,0.01665243,-0.04348992,0.0051132306,0.03528043,-0.05031698,0.02549037,-0.03360813,0.073200144,-0.062416095,-0.03649075,-0.11392175,0.04552305,-0.020661222,0.02022687,-0.052168835,0.06237187,0.031793937,0.046059106,-0.03156491,-0.030839939,-0.07945563,0.004802087,-0.08691361,-0.026092146,-0.018886197,0.00038706374,-0.050420363,-0.049055107,-0.083772175,0.04078175,0.046607204,0.048273504,0.04422051,-0.046860587,0.08824228,0.08613939,0.06931506,-0.013130939,-0.020158885,0.082150824,0.006488518,-0.003203499,-0.02159602,-0.06268791,-0.028232768,-0.050688736,-0.022051966,0.06594322,0.06125149,-0.016498642,-0.13536459,-0.10728362,-0.09188567,-0.06543983,0.043723207,0.08017067,0.20685974,0.106618635,0.08248011,0.09574672,0.006555859,0.035478264,-0.00329818,-0.0016140931,0.08261696,0.049804218,0.12963925,0.07087884,0.09007375,-0.14599612,-0.10642202,0.07654175,0.011474155,-0.10839309,-0.06469902,0.07123482,0.05076199,-0.124000564,-0.048079208,0.01144719,0.09199566,0.044481996,-0.0123891765,-0.08492505,-0.08078014,-0.032968525,-0.07082352,-0.12584084,-0.096975036,-0.02162624,0.016446242,-0.056149993,-0.10291155,-0.21297352,-0.05284007,0.034689825,0.025197776,0.015077489,0.025100434,0.054082617,0.09247046,0.0027598392,-0.032422397,-0.08358211,0.17192781,0.13775025,0.020267438,-0.039458614,-0.1300911,0.020045144,-0.016758276,-0.09441148,-0.13690902,-0.10812488,-0.10577777,-0.052872244,-0.10776905,-0.12104733,-0.15268026,0.03141504,0.108326085,0.112425454,0.15388949,-0.11408131,-0.11029225,0.16473666,0.097004816,0.10892557,-0.13584875,0.00712872,0.01433009,0.084913045,-0.09153979,-0.16545132,-0.06371738,-0.0057364167,-0.07552012,-0.23330404,-0.21388735,-0.117767595,-3.2877655e-05,-0.0758882,-0.1334776,-0.15573701,-0.06640428,0.09864202,0.044119637,-0.03631734,-0.04317412,0.10271165,0.00411513,-0.09472784,-0.019534249,-0.012152031,0.019672442,-0.03968658,-0.11429104,-0.089261524,-0.20097902,-0.13191071,-0.09953749,-0.11478484,-0.14754985,-0.1758457,0.090917125,0.1349915,0.14616972,0.06656586,-0.20237768,0.035531983,-0.11311158,-0.045256935,-0.03538116,-0.13950273,0.01939845,-0.1275431,-0.087673,-0.08478404,0.008940272,0.102945805,0.09408372,0.13422091,0.07803852,-0.0015212729,-0.08890917,0.095855296,0.03384145,-0.03596899,-0.013055268,-0.15636708,-0.06819975,-0.124964364,-0.0288001,-0.08588879,0.1004594,0.16710551,0.08382544,0.04476134,-0.0151407495,0.089527555,-0.009161331,-0.05476965,-0.042054746,-0.0014889261,-0.054917704,-0.009110154,-0.09809124,-0.13125357,-0.020616887,-0.036282264,-0.036613476,-0.09791139,-0.052307293,-0.07403638,0.032394405,0.04337215,0.031972554,-0.02452813,-0.055775695,0.037692394,-0.051808182,0.08311168,-0.05547088,-0.118411824,0.031817548,0.04885477,0.009447096,0.006704209,-0.042543076,0.103107005,0.06598641,-0.0027657168,0.05933399,-0.023462089,0.09629338,0.082534276,0.012389863,-0.004519414,-0.035300724,0.027794432,0.13592793,-0.030804226,-0.10216481,-0.1529849,0.047211267,-0.026890201,-0.11518446,-0.0105672795,-0.030325608,0.10428285,-0.0015196347,-0.061896645,-0.001725675,-0.056041904,-0.021103295,0.01716101,-0.043017417,-0.023524536,-0.040241912,0.03618823,0.05675233,0.03573621,0.032456763,0.060025968,-0.035156958,0.04302819,0.041008636,0.039384477,0.026585774,0.00020348173,-0.011083697,-0.012840602,-0.0150849465,0.0020272036,-0.04394432,0.056017064,-0.0336395,0.0960687,-0.026162155,-0.078955464,0.07155165,-0.07127505,-0.014309989,-0.104945675,0.07318691,0.0028403704,-0.009451526,-0.04123106,-0.09572197,-0.009886213,-0.05336223,-0.069398224,-0.06908211,0.013543494,-0.039187543,-0.06385071,-0.025829319,0.039472345,-0.087411895,0.034739252,0.073319204,-0.028757969,0.0561554,0.052430127,0.026653768,0.089647,0.14636816,0.026923463,0.053934373,-0.10885072,0.026685493,-0.08709772,-0.109429836,-0.068819486,0.02508694,-0.011774257,-0.07920632,-0.050238106,-0.14883205,0.084131315,0.015066096,0.046524636,-0.08441864,-0.16865368,0.100218005,-0.0089066075,-0.008089439,0.06470625,0.17797989,0.03542351,0.023541078,0.020382863,0.18973184,0.15588465,-0.05116079,-0.12782231,-0.0066268905,0.043562595,-0.035374105,-0.06558573,-0.08071403,-0.03104583,-0.13833728,-0.18054545,-0.0651507,-0.022230083,0.006696883,-0.07220269,-0.15274952,0.064600915,-0.07896652,-0.019208306,0.009692166,-0.04834223,-0.014708443,-0.11411172,0.102481365,0.07081439,0.05781721,-0.10940057,0.03477628,-0.04600844,0.06505389,-0.01949529,-0.04096377,0.04910598,-0.019955458,-0.057705943,-0.13033335,0.04285086,0.17383446,0.08833499,0.048259337,-0.11193898,0.043358266,-0.01138566,0.056182794,-0.010106097,-0.050282836,0.13356769,-0.033565003,0.21374315,0.1412777,0.022836355,-0.010176741,0.10732818,0.15552585,0.019613571,0.10381826,-0.1142645,0.03703723,0.09416224,0.10875431,-0.04332103,0.05541465,-0.06250661,-0.13868426,-0.012847801,-0.16999508,0.11253812,-0.13552722,-0.20998465,-0.11420152,0.12044191,0.060285397,0.052879103,-0.14355417,-0.07060284,-0.01758572,-0.047433108,-0.021519251,0.01267362,-0.1628398,-0.12247131,0.04465079,-0.15305561,-0.1354276,0.042188406,0.07515637,-0.03913671,0.08604494,0.03215421,0.036547586,0.022391448,-0.023560492,0.040146,0.0010143274,-0.089154564,-0.10604956,0.040844776,-0.07816879,-0.028226426,-0.06463208,0.030318106,-0.050915472,-0.08711992,-0.05597983,-0.14317378,-0.064904876,-0.107737884,-0.0013069187,-0.04575226,-0.08771937,-0.034525618,-0.070329204,-0.066464595,0.098337606,0.07847438,0.008495342,0.00579719,-0.038796585,-0.011614791,-0.11588105,-0.089715295,0.054462496,-0.0739322,-0.04900452,-0.081776604,-0.14811699,-0.09311081,-0.06082722,-0.036736142,-0.039769996,0.025371227,-0.1257893,0.021151893,0.023806551,0.11002898,0.021565238,-1.6907879e-06,0.16505864,0.023602545,-0.015311863,0.032388844,-0.06174672,0.11785351,0.12159085,0.016228776,0.082808726,-0.059832342,0.061014052,0.10840171,0.029021226,-0.03541702,0.0070772287,0.057757955,0.04402285,0.15143093,-0.04622736,0.017947178,0.1051629,0.049302004,0.12291254,-0.009945889,-0.017884208,-0.006981488,7.725413e-05,-0.08782023,0.016205162,0.017761344,-0.029070197,0.038420253,0.01730156,-0.0592265,-0.00910244,-0.018341348,0.05685951,-0.034094315,0.014542434,0.012071207,0.039256707,-0.019649154,-0.019593246,0.05375383,0.017435087,0.03724341,0.0069040507,-0.025488967,0.10231366,0.0109915985,0.052439153,-0.011309436,-0.010787071,-0.013409876,0.03389028,0.09742558,-0.04034918,-0.00038379245,-0.031105837,0.13664392,0.08349212,-0.0050914134,-0.060660396,0.027483368,0.08690723,0.02259224,0.0038437215,0.05055715,-0.06965476,-0.008922894,-0.06577167,-0.091042906,-0.10336714,-0.1003851,-0.17751716,-0.07383897,-0.081905104,-0.06272549,-0.08431375,-0.009474907,-0.0723167,-0.11385026,-0.12908737,-0.045912396,-0.036884952,-0.055707335,-0.07567475,-0.02362047,0.18436214,-0.07555558,-0.05990802,-0.21133946,-0.07250242,-0.01809449,-0.15280467,-0.18417938,-0.09009466,-0.109986596,0.04177502,-0.098637134,-0.05542687,-0.045598716,-0.19004862,-0.09759406,-0.03730751,-0.07060201,-0.043115266,-0.13502645,-0.21000904,-0.07469498,-0.02516552,-0.029934622,-0.09328615,-0.25769544,0.019430751,0.022977693,0.07622921,0.07405083,-0.103939526,0.007655154,0.08905431,0.074423276,-0.06420627,-0.04624222,-0.047710326,0.00026206835,-0.11115021,0.0123855835,-0.066401005,-0.10716666,-0.10865205,-0.057574783,-0.06779156,-0.03494019,-0.06340438,-0.058464743,-0.0947325,-0.08539196,-0.0022118841,-0.02039079,-0.0032499898,0.08666686,0.07565327,-0.064095035,0.03498965,-0.023842288,0.08645328,0.013264348,-0.13997559,-0.08575687,-0.046333257,0.07260118,-0.017002953,-0.06073074,-0.0755078,-0.022696557,0.017474167,-0.0118400445,-0.047000244,-0.09684075,-0.0811231,-0.016158797,0.14638795,-0.014592838,-0.08016105,-0.093418546,0.0594336,0.1178143,-0.012678481,0.014136769,0.014021702,0.12190866,0.0015005623,-0.13639724,-0.046187986,-0.12675782,-0.10258729,0.047822144,0.051421,-0.021122787,-0.13743575,-0.13634576,0.19187623,0.13230816,0.08025464,-0.10436039,-0.06909241,0.07023417,0.10530868,0.0885586,-0.001932975,-0.020358318,-0.08703671,-0.017245011,0.07410038,-0.044356976,-0.049718257,-0.19568495,-0.14087826,-0.037568767,-0.044298176,-0.10403898,-0.055286184,0.018438885,-0.07597157,-0.016248852,0.05417122,-0.05259439,-0.026616672,-0.106784835,-0.056794554,0.029739063,0.0052579353,-0.040170625,0.0005704716,-0.03968455,-0.06488451,-0.093529835,-0.053490754,-0.1459555,-0.13844422,-0.10382537,-0.12306354,-0.14059721,-0.02318238,-0.06571085,0.20724711,0.07649972,0.05677987,0.005087775,-0.051205453,0.2272784,0.21036804,0.003944317,0.00030329652,-0.008618845,0.06558974,0.1337415,0.06667681,-0.03735417,-0.029624594,0.021468448,0.06915865,-0.06481455,-0.08685673,0.0034241856,-0.06330295,-0.094164245,0.0050485255,0.024676153,0.08330639,0.122673936,0.031572107,0.011270088,-0.033997465,-0.010543765,0.1291876,0.0008757616,0.00599599,-0.04711469,0.082182884,0.11580855,0.061426725,-0.015295776,-0.0067128525,-0.014951778,0.06939126,0.060179126,0.024671692,0.032335345,0.047934324,0.0013488967,-0.03415273,0.01869836,0.0052262493,0.0029982093,0.0062946547,0.10530917,0.10348339,0.048243873,-0.006266412,0.07412715,0.037502516,0.06729523,-0.045327887,0.04371914,0.061476942,-0.010799386,0.08389365,-0.0023164947,-0.013197502,-0.02645088,-0.06503722,-0.029589178,-0.05020552,-0.012201314,0.002424467,-0.05998123,-0.07198377,0.009813869,-0.04538022,-0.027798299,-0.010979887,-0.029772086,0.014990743,-0.05927111,0.03326197,-0.05269971,0.02571498,0.04049477,-0.015281328,-0.08736864,-0.029160269,0.10749862,-0.022010647,0.013076516,-0.009182845,-0.011915338,0.09745384,0.044578973,0.027795386,0.027932925,0.13602853,-0.015131474,-0.094067395,-0.18037094,-0.06376544,-0.08515286,-0.06584373,-0.037429065,-0.18405467,-0.11615953,0.016811589,-0.0593046,-0.07249849,0.0036430855,-0.106521614,-0.032703765,-0.030879231,0.0020230915,-0.010804704,-0.15787798,-0.033768907,-0.07086537,-0.06818272,-0.20050478,-0.08634969,-0.02416488,-0.094277,-0.100269035,-0.0423377,0.030247027,0.0022802942,-0.11619128,-0.05589921,-0.016952425,0.13821973,0.17545012,0.067860514,0.054887034,0.1251541,0.08299901,0.031531114,-0.17059785,0.103188075,0.101655684,-0.08151873,-0.14698415,-0.029631827,-0.014325352,-0.035010517,-0.14113057,-0.106557764,0.03699215,-0.08190923,-0.072538555,-0.0046392074,-0.06847168,-0.06352786,-0.07295183,0.0050522555,0.037235353,0.04563446,0.004432824,0.0075223865,0.0035099802,0.07365409,0.07230314,-0.08063752,0.05001083,0.06571203,0.07835938,-0.12501478,-0.034958676,0.051593304,-0.0050772973,-0.09531545,-0.045680776,0.054949958,-0.007831092,-0.12285708,-0.07667713,0.1043323,0.036994256,-0.12157571,-0.06799971,-0.044248972,0.031098662,0.07855705,-0.12519313,0.09406101,0.098928556,0.016076842,-0.09724703,-0.0402203,0.10152275,0.08428946,-0.17413789,-0.17398873,0.002333762,0.098319955,-0.0544461,-0.2677651,-0.15151416,-0.07637363,-0.17084034,-0.19523454,-0.17471814,-0.19613579,-0.16837478,-0.03178965,-0.027683912,-0.053865526,-0.23110563,-0.072326474,0.05326196,-0.07538776,-0.13539766,-0.14958848,0.10681245,0.03553038,-0.054509882,-0.05731351,-0.19196683,0.0056738476,-0.11252992,0.026338471,0.09246104,-0.033313405,-0.033672642,-0.10291305,-0.0023104744,0.02725733,-0.059294354,0.01240015,-0.032935318,-0.05845933,-0.10963338,-0.07071737,-0.078788444,-0.13310204,-0.15364353,-0.047033094,0.003389079,-0.12114749,-0.08578788,-0.20704584,-0.16886877,-0.010226607,-0.0055095046,-0.17610231,-0.052741833,0.05824771,0.04661957,-0.110741444,-0.16026795,-0.123522334,-0.06526959,0.10462524,-0.04162693,-0.020570185,0.015677461,-0.06386897,-0.0585527,-0.03217216,0.009763687,-0.10960396,-0.11464289,-0.039330155,-0.05349371,-0.031470884,0.001989066,-0.024815712,-0.04090048,0.024796383,0.07361755,-0.05471081,-0.010018878,-0.14904432,-0.055264633,0.02186551,0.085597076,0.07608836,0.01550438,-0.015978137,0.08722294,0.05800382,0.05266783,0.065123655,-0.013502888,0.09275199,0.019105978,-0.0381152,-0.04946876,0.016981412,0.028576035,0.024487106,-0.027460076,-0.06379811,0.035954252,0.07888657,-0.05494509,-0.093780026,-0.09156038,-0.060481656,-0.0054429583,-0.051524244,0.020797295,-0.09534983,-0.06819026,0.049838737,0.016318012,-0.01106823,-0.007075257,-0.025806105,0.010997115,-0.013288306,-0.022035016,-0.04500697,-0.1114609,-0.077726915,-0.009766901,0.036238007,0.046775132,-0.036702197,-0.05826437,0.012756079,0.06266232,0.016608905,0.03611311,0.0077799875,-0.049025364,0.061302043,0.029771924,0.037393484,-0.048078008,0.035949145,0.011539476,0.050850496,-0.013898726,-0.05035432,0.040815525,0.0816015,0.03135661,-0.08569277,-0.0028391932,0.096025996,0.041217208,-0.0045687724,-0.027311645,-0.01044878,0.033448357,0.016503915,-0.09791285,-0.060330916,-0.18859959,-0.1271059,-0.10254821,-0.056315947,-0.09649107,-0.11339808,-0.071435794,0.031775802,-0.028151933,-0.15796609,-0.10979351,-0.06918312,0.00083489256,-0.019964568,-0.046221036,-0.036714282,-0.0008325829,0.06713374,-0.06787797,-0.12727891,-0.128761,0.011350527,0.21303211,0.046557378,0.0063079614,-0.06962309,-0.0020456675,0.11585375,0.04654831,0.066656224,0.05111675,0.0353828,-0.12051536,-0.13256972,0.031506334,0.007330461,-0.12700753,-0.20025712,-0.13218148,-0.10997509,-0.047646645,-0.1439811,-0.11110912,-0.079846516,-0.024196023,-0.030914761,0.09427694,-0.05442709,-0.11139427,0.03570603,0.07997631,0.045609392,0.019219091,0.07533219,-0.033089958,0.0070883487,-0.11350717,0.08851826,-0.08143146,0.062623195,0.0026284033,-0.012877577,0.050783213,0.11410522,0.033702303,-0.08041598,-0.0847636,-0.05293327,0.011086247,-0.13047482,-0.013137718,0.038945984,0.08776016,0.08594247,-0.0965044,-0.06716801,-0.07443834,0.029035682,-0.0862422,-0.0044877385,0.10443732,-0.0050965175,-0.04272021,-0.088521756,0.12109785,-0.041843645,-0.009705707,-0.054567266,-0.045307267,-0.10890379,-0.060683064,-0.0043856027,-0.04994118,-0.033342212,-0.16398859,-0.0146312835,-0.08475384,0.021998188,-0.09885229,0.040464535,0.059226308,-0.13401194,-0.060931176,-0.04785687,-0.037390444,-0.06840779,0.04579027,-0.060506605,0.00033922747,-0.011389409,-0.053248093,0.10188443,0.17415544,0.15295628,-0.19626041,-0.03437342,0.06157233,0.2107161,0.045231067,-0.15754455,-0.119777225,-0.15331572,-0.1549669,-0.15684848,-0.0045052194,-0.115293175,-0.20377314,-0.14986436,-0.07265351,-0.014088869,-0.07754055,-0.024321342,-0.08812174,-0.08640862,-0.07681462,0.03951922,0.07403018,0.04039699,-0.024992092,-0.030052915,0.17585464,0.09658556,0.047315937,-0.047134735,-0.03251664,0.022057204,0.061677746,0.023315903,-0.020640785,-0.060989037,-0.019126626,-0.038391586,-0.07377796,-0.039012957,0.006087061,-0.05310128,-0.054049365,0.028398708,0.013077133,-0.088075936,-0.048800506,0.1344887,0.12995224,0.04687325,-0.078351684,-0.023677258,0.24297617,0.1441819,-0.048946887,-0.057546698,-0.046100795,0.036200937,0.06478126,-0.10392715,-0.09122798,-0.018657308,0.03441,-0.043358788,-0.062360946,-0.08635764,0.008280513,0.025640571,-0.070754685,-0.08258281,0.012373034,-0.0625397,-0.027462851,-0.040188868,-0.02766289,-0.014737219,-0.071962275,-0.07507136,0.025551764,-0.08426414,0.027097814,-0.023995485,0.06509466,0.0034646322,-0.04696228,-0.034259733,-0.009034475,-0.042495713,-0.06854312,-0.03136393,-0.06288939,-0.03813311,-0.03088091,-0.031065792,-0.043327484,0.031894103,-0.10138101,-0.007287819,0.028750133,-0.05664727,0.057029296,0.08019083,0.07209677,0.048859224,0.016902504,-0.032040432,-0.0329198,0.00011648219,0.04311409,-0.03844721,0.018905222,-0.10036901,-0.017426303,0.078469515,0.040641084,0.02684856,-0.015442392,0.0061296993,-0.0068251807,0.033744946,-0.044168837,-0.008689696,-0.040006824,-0.064047456,-0.0036457463,0.030538658,-0.020456783,0.024165139,-0.004069858,0.019099604,-0.069022395,-0.0066464148,0.09773775,0.00041905808,0.051416636,0.050505836,-0.060709387,-0.11529668,-0.005716633,-0.017676532,-0.038403787,-0.06913386,0.014691154,-0.039844614,-0.1101478,0.011167454,0.042650107,0.083709694,0.1839781,0.11905982,-0.017110992,0.0025008677,0.06264351,0.119955264,0.019513967,-0.07173403,-0.04968851,0.047852065,0.18108657,0.068927325,0.058406815,-0.041796945,-0.006454401,0.04031233,0.18315208,-0.13394459,-0.101647414,-0.029219802,-0.05547547,-0.14019297,-0.0155196,-0.10873446,-0.053258415,-0.04005914,-0.008175039,0.097683385,0.07072931,0.109344795,0.13765961,-0.006840728,0.23443407,0.14077021,-0.020860849,-0.041600246,-0.111785024,0.033333544,0.03902036,0.081693515,0.03124159,0.111514606,0.06576257,-0.054115526,-0.00090514595,-0.012894698,-0.005380488,-0.13196698,-0.1976218,-0.114966124,-0.12418357,-0.042584132,0.04513896,-0.014446608,-0.027091663,0.009194265,-0.01362457,0.00060674263,-0.0066433386,-0.061903983,0.016339263,-0.07492215,0.07110474,0.120738454,0.080424406,0.154378,0.05179207,-0.050826732,-0.07600193,0.06542215,-0.058783446,-0.041517287,-0.26609588,-0.15172623,-0.19286011,-0.15334189,-0.12960343,-0.2575185,-0.16101322,-0.16695386,-0.057355896,-0.040288012,0.028958015,0.07326563,-0.0148568,0.055950273,0.040719595,-0.09653233,0.06500626,0.040720668,0.045978174,-0.0011065843,-0.3126542,-0.084956884,-0.04470517,-0.09497871,-0.19319691,-0.115276515,-0.032426924,-0.10637822,-0.10028882,-0.1452991,0.06222428,0.19560382,0.13177407,0.02451185,0.018628366,-0.01982603,0.083799765,0.038730856,0.09896384,0.08182675,-0.04005031,-0.0098509425,-8.786491e-05,-0.04831833,0.03810327,0.09954592,0.24474351,0.20839769,0.20580709,0.12731451,-0.030019084,0.0069416417,0.06516255,0.033211015,-0.14617063,-0.03207865,-0.055615306,-0.042720146,-0.054736968,-0.023037015,-0.06695667,-0.02616599,0.020736802,0.034181774,0.01991733,-0.04734955,0.09510598,0.06862338,-0.07976859,-0.04751757,-0.05955947,-0.018548958,-0.09189496,-0.052873686,-0.2160915,-0.10808459,-0.07555375,-0.14420523,-0.12036305,-0.124992326,0.03677443,-0.059106678,-0.020663196,-0.089587376,0.04233152,0.03212541,0.006153402,0.11157861,0.056335162,-0.031243242,0.0010633736,0.026352689,0.086763725,0.08295524,0.0070543406,-0.027211199,0.010733791,0.06154323,0.037470434,-0.11809627,-0.08703788,0.0028879377,0.011798153,-0.004324631,-0.15184306,0.042290274,-0.03327646,-0.09582703,0.03465709,-0.08439085,-0.015131577,-0.061274096,-0.04327354,0.0027459348,-0.062422175,-0.026413785,-0.07046888,0.022094598,-0.07590298,0.004591551,0.05316708,0.023373486,0.15209085,0.094331175,0.03902829,0.013521972,0.02137113,0.028677205,0.0063784616,-0.0558439,-0.046710476,-0.021175694,-0.025129538,0.04242201,0.07450415,-0.118595004,-0.080129854,0.031833004,0.08173325,0.018510817,-0.100487895,0.12906384,0.051207606,-0.04318844,-0.05314216,0.006916011,-0.061559983,-0.010961564,-0.06650029,-0.082087584,-0.043753974,-0.024926469,0.04177338,-0.0255628,-0.047015026,-0.006770937,-0.039157864,0.040828247,-0.031022424,-0.018674573,0.09033511,-0.03677445,0.012227178,-0.028099058,-0.0077067805,0.022469182,0.0878591,0.06525199,-0.014728268,0.13745102,0.027005956,-0.011549725,0.009944413,0.16995712,0.0102054775,-0.100079544,-0.07264094,-0.09553301,-0.1226379,-0.16080663,0.1479497,0.06868069,0.059300933,0.10608346,0.08418896,0.022863206,0.035716154,0.0611138,-0.07693121,-0.09742412,-0.045993276,-0.027677665,-0.048684914,0.030050863,-0.08729357,0.054193173,-0.011445608,-0.08133552,0.014938602,0.09641659,-0.026077004,-0.018433532,0.021533908,0.19060446,0.040925246,-0.045578457,-0.09280077,0.10220255,0.15324312,-0.15458374,-0.11189684,-0.09575884,0.04241172,-0.055972315,-0.1427354,-0.007127025,-0.060564365,-0.09637058,-0.095228925,-0.14346577,0.054710966,-0.104503326,-0.05696744,0.051202174,-0.0086902585,-0.009419327,-0.017651342,0.040169388,0.091502436,0.014345617,-0.039750163,-0.07183632,0.044165406,0.101232775,-0.03613963,0.0006363618,-0.005549525,0.025842566,0.06872733,-0.15373674,0.15623687,0.06863854,0.017031837,-0.09037506,-0.05364625,0.13163573,-0.033384655,-0.013563587,-0.028327808,-0.08679812,0.122879624,-0.022154301,0.05934255,0.13384229,0.053780742,0.03348898,0.06830262,0.12630415,0.19767894,0.004394457,-0.07150017,-0.014396823,0.055818703,0.24341178,-0.084798805,-0.019033346,-0.115104154,-0.18629687,-0.083704896,-0.13897562,-0.0005781974,-0.090463035,-0.13971816,-0.03911632,-0.044320095,0.005260542,0.01916269,-0.07913203,0.054797154,-0.078769326,-0.042060208,-0.074737586,-0.027525239,0.00037109453,-0.1808408,0.034821045,-0.15143,-0.07295782,0.04437652,0.047628768,-0.00085091783,-0.017214343,-0.027633125,0.05641244,0.026183696,-0.06561101,-0.078020446,-0.07979905,-0.09910816,-0.14304996,0.009110714,-0.0773651,-0.08203388,-0.05405731,-0.056823064,-0.11656529,-0.11512819,-0.17755404,-0.26731908,-0.06875906,-0.09389189,-0.092302434,-0.09013732,-0.2832291,-0.07541736,0.036962714,0.00038424542,-0.054167952,-0.033162892,-0.03873721,0.03170232,0.013981131,-0.009897366,-0.02454992,0.026825212,0.062896974,-0.120970346,-0.00025746846,-0.101511516,-0.11921734,-0.0592617,-0.02323307,-0.028848832,-0.06596717,-0.15448305,-0.11035978,-0.06953271,0.013593122,0.09794221,-0.12331534,-0.011301667,0.03300119,0.0054796347,0.117096536,-0.034543015,0.0017730605,0.04590717,0.087126225,0.082862385,-0.0041210414,0.012622476,0.12570406,0.14058979,0.051808115,0.06250557,-0.0043318043,0.1180824,0.13394511,0.09249021,-0.07010876,-0.077991694,0.047225084,0.13451861,0.09543807,-0.1201675,-0.061982125,0.03969374,0.05338062,-0.038156066,-0.015562296,0.027051724,-0.017528882,0.06566162,0.006577506,0.07756217,0.026548484,0.06002798,0.08557164,0.05120255,-0.07387,-0.030858563,-0.06494309,0.0067109903,-0.077452466,0.014912313,-0.043996006,0.080082126,0.053382844,-0.07690141,0.02818148,0.0214117,0.015667152,-0.010500496,-0.07120634,-0.06277519,0.12669809,0.09223432,-0.060283087,-0.043212872,0.08714506,0.14313076,0.022752257,-0.015211277,-0.026340226,0.097024985,0.045185965,0.03587731,0.02602255,-0.0058764513,0.036969464,0.017020958,-0.04815181,-0.11006095,-0.048238054,-0.0021841011,-0.05903961,-0.16918476,-0.1944255,-0.18816788,-0.07638418,-0.13180105,-0.18881014,-0.10377622,-0.05563926,0.030069498,-0.06540897,-0.10904378,-0.15254237,-0.059413396,-0.02870421,-0.026363235,-0.03909818,-0.07997047,-0.111152194,-0.016432483,-0.14917818,-0.1151001,-0.18579876,-0.013438626,0.021879638,0.061058465,0.090867974,0.06998723,-0.031203214,-0.04477961,-0.049610242,-0.045729786,-0.035819344,-0.08518053,-0.056579858,-0.014155796,-0.105806574,-0.06663055,0.035675563,0.038859285,-0.0407224,-0.034824125,-0.07928141,0.009452528,-0.060694166,-0.04162208,0.021084642,-0.053638462,-0.14870855,-0.1525636,0.004938859,0.044894554,0.0856071,0.032472227,-0.01589783,0.031223327,0.14134817,0.01118263,-0.04150606,-0.09127781,-0.096450664,-0.135382,-0.027629657,0.037866883,-0.03213704,-0.0783703,-0.11292783,-0.020434434,0.020748293,-0.046373345,0.0013098203,-0.1287346,-0.088846065,-0.073367044,-0.11497123,-0.009439902,0.18688895,0.1641847,-0.05229718,-0.026287215,0.00426149,0.10340922,-0.018664805,-0.06226413,0.016837226,-0.077817254,-0.120692775,-0.16998725,0.1112526,-0.0120881125,-0.15837327,-0.098811954,0.062959805,0.16487528,0.06515448,-0.049964204,0.018333288,0.0680202,-0.013907389,-0.122795984,0.03465992,0.12170997,-0.018351283,-0.03171229,0.010557889,-0.033282902,-0.01273118,-0.14453623,-0.084431686,-0.094491504,-0.067526855,-0.09179058,-0.11298709,-0.092856824,-0.079722665,-0.023039278,-0.102252476,-0.17039587,-0.10085478,-0.011352099,0.07222557,0.0040596994,-0.06607718,-0.15535177,-0.060230594,-0.011359606,0.002101387,0.14183807,0.16818222,0.064135596,0.14215013,0.20735076,0.12516163,0.066656515,-0.06827305,0.09893626,0.06608192,-0.07395811,-0.09340314,-0.1091473,0.079314664,-0.092555076,-0.032458555,0.076789625,0.0851279,-0.05763385,-0.11095091,0.055230193,0.09481565,0.079205126,0.016489753,0.023993552,-0.05444481,-0.034249965,0.0823055,-0.047312044,0.044027556,-0.0848841,-0.035479564,0.057246037,-0.056944814,-0.06473071,-0.05789267,-0.045615062,0.004119767,0.0475615,0.006153188,0.030948816,0.061526865,0.03396909,0.11692501,0.0055081896,-0.036058463,-0.0413771,-0.001876854,0.013919658,-0.06700881,-0.0573741,-0.071930975,-0.04789301,-0.0168161,-0.09297132,-0.07156224,-0.02070282,0.01594451,-0.05916911,-0.07360798,-0.020292832,0.09675299,0.049106777,-0.112528935,0.009663322,0.0023817332,0.09105154,-0.07775684,-0.027781071,0.05861336,-0.012620269,-0.03129595,-0.035583492,-0.01826386,-0.04856761,-0.031018578,0.009757095,0.050316885,0.023379803,0.056203406,-0.043894187,-0.054161403,-0.07273888,-0.033346172,0.051033866,-0.004600703,0.03474621,0.012003737,0.07167794,-0.023197051,0.04302934,0.027778238,0.07820956,-0.020184344,0.032697707,0.08995836,0.07449924,-0.0320824,-0.0720124,-0.03176741,0.08127226,0.050498463,-0.009290866,0.0051622037,0.054866713,-0.04217514,-0.0099375835,-0.094856076,-0.047592662,0.0878221,-0.0019241086,-0.008513873,0.0076144463,0.013436348,-0.03604241,-0.055315956,-0.0387181,-0.10034782,-0.04925462,0.10727243,0.029823728,0.056083236,-0.09519895,0.06498396,-0.03439709,0.15167762,0.073106065,0.09170794,0.040226154,0.14297254,0.13467455,-0.0026392392,-0.115729116,0.03346733,-0.12878123,-0.122943796,-0.13770638,-0.08086922,-0.038573213,-0.05206394,-0.0110776555,0.008019176,-0.016918356,-0.1163059,-0.16191839,-0.20935659,-0.10362079,-0.08694043,-0.03730362,0.0960772,0.030249652,-0.013940318,0.058982924,-0.11726724,-0.001144385,-0.07232803,0.037830587,-0.024024313,0.05426425,-0.046915036,-0.07159542,-0.050636753,-0.031635184,0.035074804,0.08511517,0.009744454,-0.04677207,-0.03846482,0.0045555644,-0.031783096,-0.05998608,0.018170161,-0.0057132863,-0.030068247,0.077568255,0.059714146,0.06672092,0.028166818,-0.046272818,-0.012504639,-0.05170573,-0.020638818,0.0077425595,-0.07384733,-0.081818245,-0.03790667,0.020751102,0.06567003,0.024614822,-0.054122653,0.043590035,-0.052716725,0.0011381347,-0.003827446,0.008788327,-0.025172073,0.031054577,-0.062415216,-0.066243336,0.17642878,0.13995859,0.0061707376,-0.049816478,-0.19553834,-0.056411304,-0.015012168,-0.08864895,0.04055783,-0.21586934,-0.12912486,-0.055023115,0.015487919,-0.04194317,0.0027943451,-0.022439737,-0.06334946,0.028334178,-0.07834937,0.09075504,-0.08174977,0.0023460316,-0.07674775,-0.08714849,-0.1313507,-0.11934988,-0.041698225,-0.04990699,-0.010813322,-0.115840115,-0.115401246,-0.054617874,-0.07247283,-0.015414887,0.110729694,0.02035573,-0.085411124,-0.061995745,-0.084446326,0.1440479,0.108786464,0.10647621,-0.030122297,-0.041827925,0.07308839,0.012533133,0.09074989,0.005535893,0.0154978465,-0.08532951,0.03026893,0.06870096,0.13404751,0.08504806,-0.0730588,0.11468073,0.07730872,0.009101371,0.1741298,0.029659718,0.037717786,-0.0100528505,0.02179162,0.025037564,-0.09151108,-0.09151778,-0.006911649,0.05344328,0.057585374,0.036044367,-0.0119215455,-0.009989671,-0.047916755,-0.0060778176,-0.11249652,-0.058498837,0.055350162,-0.116073824,-0.012661681,-0.03149448,-0.104785,-0.021608539,-0.088913366,-0.08093772,0.007984767,-0.077258945,-0.07125897,0.054582782,-0.09576906,0.03980271,0.041800596,0.018085422,-0.05165128,-0.014428712,0.073539555,0.048406877,0.038985,-0.02379018,-0.025527306,-0.045804393,0.11067359,0.0136363795,-0.05883584,-0.013572647,0.011386137,-0.0057004546,0.044205375,0.04295887,-0.0633531,-0.111115225,-0.02675774,0.029864172,-0.0098966295,-0.055462737,-0.09864072,0.011712505,-0.009434584,0.014386586,-0.09368695,-0.10910704,0.0057917694,-0.0043842434,-0.052340366,-0.02576429,-0.0001389571,-0.016545836,-0.00047716676,-0.038114443,0.008028496,-0.02093629,0.006347033,0.06293383,0.038135044,0.04798353,0.03901254,-0.0041366215,0.054614723,0.11579182,0.036047187,-0.08814399,0.020010216,0.06523165,0.07204618,0.02650862,-0.06720419,-0.009182779,0.0023691498,0.03792297,-0.024182344,0.02255341,-0.00065217126,0.02712518,-0.0029560786,0.038830884,-0.09066582,-0.039803617,-0.07083231,0.0023986117,-0.078614704,0.015688265,0.03070865,0.015817387,-0.010128589,-0.014492463,0.049992032,0.047440767,0.064212546,0.05475429,0.073504865,-0.007615453,-0.013989107,-0.029927086,-0.04007398,-0.02725255,-0.08312965,0.024965584,0.062149823,-0.021478798,0.14893837,-0.062437654,-0.009824806,-0.004617268,0.04344329,0.10141151,-0.041190185,-0.07679581,-0.06749062,0.049660183,0.046012394,0.056432497,-0.016237278,-0.07042423,-0.0005769646,-0.08891508,0.0036080729,0.04277098,-0.028846486,-0.05351764,-0.018129934,-0.039321844,0.0047243503,-0.04419233,-0.023767041,0.02616768,-0.11159277,-0.04569533,-0.10508742,-0.11967369,-0.039459452,0.014479021,0.019310717,-0.096865065,-0.1057335,-0.022941116,0.03049698,-0.091300815,-0.10505013,-0.09569286,0.08812688,0.024001973,0.07471537,-0.08437608,0.02904307,0.15976328,0.15120624,0.04573601,-0.01940653,-0.03560032,0.012364831,-0.06850786,-0.077292405,-0.11358573,-0.0782234,-0.0065426524,-0.05368949,-0.03253254,-0.15427814,-0.083004184,-0.1098761,-0.03117226,-0.0024484005,-0.02618523,0.03442253,-0.042338572,0.14256819,-0.05106143,-0.021268493,-0.12209734,0.004590595,-0.110329695,-0.02750091,-0.034409624,0.047019854,0.13997181,-0.23933683,-0.22766335,-0.06438656,-0.107732095,-0.03528114,-0.12006796,-0.07589972,-0.1072544,-0.116170496,-0.02755353,0.12653983,0.14486007,-0.01276918,-0.03219306,0.09692129,0.042613838,0.090854086,0.10123386,-0.07038391,0.08219104,-0.19666451,-0.30522993,-0.12658465,-0.1818571,-0.21289635,0.1409051,-0.03877294,-0.17970556,-0.11258297,-0.008708782,0.21600905,0.18716751,0.0072069606,-0.13204224,-0.031575575,0.05254812,0.008302269,0.0419874,-0.0074277488,0.056150943,-0.017846338,-0.020986173,0.041370817,0.14480859,0.0029783342,-0.03926399,0.12839372,0.22924182,0.083960235,0.08539849,-0.13194142,0.018384278,0.06956793,0.03693065,0.03195861,-0.005847418,-0.04189112,-0.06286589,-0.04477673,-0.019604234,-0.16295266,-0.06433703,-0.04269917,-0.10707561,-0.053591516,-0.033726506,-0.010526541,0.031064877,0.00086601044,-0.04317672,-0.22394788,-0.07077455,-0.09571329,-0.08214906,-0.06345158,-0.066842824,-0.112477936,-0.13035704,-0.06987652,0.009540888,0.20394556,0.07304462,0.012512406,-0.02959633,0.09557749,0.03940496,0.085253574,0.14176835,0.03699636,-0.007405719,-0.075238414,0.0028867864,0.060588643,-0.004600429,-0.009739911,-0.0023266247,0.008783976,-0.092753515,0.05545461,0.0219388,0.026995322,-0.07108332,-0.033553585,0.004051209,0.0041410583,-0.018216679,0.015021106,-0.012287257,0.036498476,0.07851171,0.0628392,0.050684206,-0.0021364782,0.011893765,0.032437537,0.006206373,0.08127476,-0.017634448,-0.021875298,0.079151094,0.034384347,0.03747284,0.09568108,0.007466504,-0.04635194,0.017377352,0.06972387,0.11360438,0.077996254,0.033147573,-0.069892794,0.014485663,0.052860998,-0.012963984,0.026985765,-0.07064659,-0.020640502,0.07897737,0.033061985,-0.049900547,-0.0865275,0.005897337,0.020187197,-0.0010585589,-0.034142815,-0.020306703,0.0461651,-0.03149739,-0.08890532,-0.037967313,-0.017384227,0.053512327,0.006581109,-0.03159697,-0.11219704,0.00505431,-0.002069399,0.021204093,0.03217137,-0.075428374,0.10356918,0.088544555,-0.10282879,-0.10213835,-0.013347516,0.07289906,0.05407545,-5.0423587e-05,-0.015303396,-0.039196786,0.050278723,0.027326228,0.08026261,0.03553481,-0.026647443,-0.002509458,-0.064316586,-0.066094376,-0.02594372,-0.03833059,0.07685694,-0.049411636,-0.16337241,-0.13056098,-0.07024057,-0.03245115,-0.04558753,-0.07370802,-0.10706039,-0.04397766,-0.044427905,-0.043867018,-0.03830232,-0.054317977,-0.089172386,-0.18402433,-0.08397578,-0.0032507023,0.03329348,-0.0018400373,-0.04481503,0.0009806358,-0.040776055,-0.07078874,-0.116161354,0.1491396,0.10856709,0.08702771,0.07847236,-0.00047085912,0.14602081,0.10687573,0.051326793,0.024805509,-0.072620004,0.14923352,-0.0038229732,-0.07946888,-0.011588987,-0.10023673,-0.08470788,-0.082487315,-0.0008836798,0.08301161,-0.06347316,-0.14725393,-0.16055584,-0.16586894,-0.1312198,-0.0807228,0.03688525,0.0031588934,-0.064798236,-0.03972517,-0.04286086,-0.0031226135,-0.08398409,0.053634755,-0.020663137,0.097956665,0.0071490216,0.048556227,-0.024803301,0.07650727,0.0027057834,-0.26106277,-0.06328303,0.07177405,0.127026,0.07180655,-0.24509306,-0.19390632,-0.119860426,-0.08500177,-0.15900426,-0.061296456,-0.1251954,-0.17359559,-0.16855025,-0.0932511,0.050760224,0.0129189715,-0.071598515,-0.0677453,-0.04265366,0.058736492,0.026478853,0.064559035,-0.046675503,-0.13245137,-0.2417681,-0.18260008,-0.11807969,-0.049005065,-0.08923945,-0.16143301,-0.08381463,-0.15384682,-0.049269028,-0.010490871,-0.089568935,0.045461804,0.032772567,0.015092784,0.04488275,-0.0073418845,0.06305395,0.13020374,0.14275901,0.09024137,0.0347896,0.02912265,0.039078616,-0.007487391,-0.01923217,-0.0371228,0.095691554,0.16462539,0.09070638,0.10736046,0.031825785,0.07544046,0.09405879,0.0907326,0.044808008,-0.019244045,-0.0047925347,0.016876949,0.010797416,-0.09868097,-0.028683519,-0.076878585,-0.06450149,0.043525316,-0.030464552,-0.10909617,-0.019151729,0.04560249,-0.0064313244,0.053711277,-0.16798392,-0.0664875,-0.08536935,0.04496222,-0.024044557,-0.040172644,-0.01668914,-0.048936438,0.021235928,-0.0433576,-0.06485012,-0.01956381,-0.06472258,-0.040391613,-0.013148106,0.006614706,-0.040910464,0.05641554,-0.004360378,0.07164223,-0.031583544,0.017425492,0.00056058227,0.048834503,-0.05505399,-0.015739506,-0.039546367,0.05574975,0.0054700742,-0.07778736,-0.019908378,-0.05582891,-0.019920029,-0.086346075,-0.021471595,-0.0380168,-0.08276036,-0.09622908,-0.071546,-0.13447039,0.07192715,-0.008962394,-0.041614465,-0.05525786,-0.16936599,0.012281934,-0.0044353893,-0.028472006,-0.14751,-0.112192094,-0.034839015,0.032841727,0.12874408,0.057574645,0.0062296754,-0.023641448,0.016897785,0.06272321,-0.025893409,0.030761441,0.019624949,0.029675465,-0.03794256,-0.012575889,-0.003942905,-0.039038166,-0.02600852,0.043052968,-0.012007866,0.038661055,-0.11598094,-0.06104016,0.0044734506,-0.007779627,-0.0049810885,-0.020871025,-0.11674664,-0.026369698,-0.027336972,-0.063397445,-0.09836697,0.022346035,-0.017560888,-0.017749403,-0.096609205,0.031936005,0.07051536,0.020625804,0.012960847,-0.005631555,0.038267877,0.0555244,-0.024490312,-0.019374639,-0.029506695,0.062011596,0.03151269,0.057966124,0.013205243,-0.019298255,-0.08418241,-0.111860625,0.08607842,0.076341785,0.075812966,-0.0376232,-0.10294946,-0.015903002,-0.0026047209,-0.005858839,0.013429555,0.075097725,0.10226686,0.1775852,0.0007874927,-0.011470736,0.06521928,0.09464747,0.06086436,-0.040948674,-0.049201626,-0.025018146,0.117388904,0.042912547,0.032252446