-0.122746654,0.078605264,0.10773146,-0.246101,0.2638288,-0.21287541,-0.15139829,0.18391314,0.29843113,-0.1468343,-0.2985444,-0.23999222,-0.047076702,0.07658099,-0.16279091,-0.09302158,0.2458951,0.040990774,-0.3088633,-0.115047395,-0.27321798,0.14962049,-0.11775442,0.33118132,0.31392848,-0.11523186,-0.2549638,0.37015727,0.061853904,-0.2334171,-0.23130547,-0.14621739,-0.18577683,-0.25150943,-0.13638628,-0.017326703,-0.15876372,0.0874487,-0.15160057,-0.2182818,0.27266186,0.31291088,0.21254726,-0.2121371,-0.049954664,-0.30511814,-0.14842765,-0.2227977,0.22072129,0.10944323,-0.04772526,-0.18298215,-0.2831089,0.22445717,-0.21492879,0.2486882,-0.1745852,-0.28134656,-0.13582458,-0.18308187,-0.041835126,-0.09370925,0.27559695,-0.16719532,-0.2010087,0.16707519,-0.257206,-0.048352905,0.2548242,-0.18283153,-0.2993464,-0.26816416,0.47494996,-0.112608075,-0.09161191,-0.07643411,-0.19007702,-0.034770485,-0.23537913,0.2135418,0.32037497,0.11204167,0.18400127,-0.21860844,0.29666123,-0.07842279,0.27001143,0.22282243,-0.09551291,-0.19999775,-0.057365306,0.18582527,-0.22155811,0.2199559,0.12735519,-0.2254384,0.29826927,0.13532953,-0.1674261,0.03485467,-0.19170085,-0.039626975,-0.22078769,-0.092435904,0.23231967,-0.27442318,-0.16337276,-0.12752979,0.25625134,-0.25286573,-0.3246631,-0.070324495,-0.018346585,-0.16679513,-0.0040589245,0.27915996,-0.04802178,0.18675305,-0.15472083,-0.12633525,-0.23234445,-0.24472204,-0.08727571,0.0060233707,-0.064166635,0.35683668,-0.18184134,0.19704936,0.24000329,-0.069425024,0.11352035,0.21442395,0.3048138,0.19130544,-0.026295176,0.1778162,0.32204187,0.22190873,-0.15465523,0.10419467,-0.17074916,-0.039475564,0.2714262,-0.18745464,0.25633958,0.11692217,0.048228372,-0.1584731,0.30428362,0.21882215,-0.10103378,0.29611954,-0.14719908,-0.061007798,0.2262004,-0.10170366,-0.18177487,0.19113003,-0.11712737,-0.057097122,0.22952223,-0.15242505,-0.2686106,-0.117318854,-0.017186549,-0.049004115,-0.2916103,0.17967625,0.17309994,0.26977098,0.204883,-0.13668819,-0.18407857,0.08365257,-0.08924749,-0.14763364,-0.28906614,-0.112538844,0.19238421,-0.16822036,-0.17798138,-0.09376869,0.2579743,-0.07763893,-0.15987663,0.15944333,0.25564823,-0.098227054,0.2475761,0.14829518,-0.11515223,-0.24553318,-0.2133676,-0.0901554,0.2702292,0.18542826,0.2751728,0.13559657,-0.14215907,-0.12691203,0.4249392,-0.26302734,0.23959206,0.11928807,-0.33823,0.039059028,-0.13256094,-0.19314145,-0.17719185,0.15143533,-0.1449383,0.31950095,0.27735758,-0.06835717,-0.12069229,-0.1177338,0.16748619,-0.21006201,0.24958871,0.31981564,0.21808706,-0.21148115,-0.030136991,-0.09313478,-0.25065374,0.34620637,0.23057467,-0.07563297,-0.12803543,0.19515218,0.38360673,0.009257154,-0.10623694,0.24001683,-0.019764997,-0.34572342,-0.06933917,-0.02124383,-0.18492043,0.11073501,-0.111479364,-0.11141406,0.25442973,0.03910459,-0.42037973,0.19330223,-0.14872475,0.10582166,-0.18337649,-0.052955274,-0.09771488,0.2123029,0.23684843,-0.28468668,-0.076694086,0.29938117,0.15375136,0.12665628,-0.15970953,0.25224856,0.22822164,-0.007931024,0.023878569,0.24218708,-0.23467244,-0.15514228,-0.24669312,0.15763132,-0.11335464,0.16536799,0.2537585,0.22474375,-0.020874467,-0.0864193,0.27487764,-0.23843426,0.022250948,-0.11181941,-0.07162383,-0.25769183,-0.0178405,-0.16499983,-0.17878507,-0.07745014,-0.15145372,-0.31062052,0.044279724,-0.19655581,0.30054826,0.29616207,0.30910906,-0.10774647,-0.18011437,0.23213612,-0.0042708637,-0.18375024,-0.10331654,-0.27997637,-0.2914968,-0.16611008,-0.17911713,0.018808555,0.21778019,-0.34139028,-0.21580258,0.21624064,-0.1252244,-0.26129833,0.14043431,0.18426357,0.10632052,0.33569166,-0.010105945,0.052712236,-0.21302602,0.2930799,-0.1509912,-0.19717374,-0.29700148,-0.15221465,-0.43805018,0.23572838,0.042594794,0.3780913,0.29108936,-0.0066602207,0.21990469,-0.13172767,-0.2466849,-0.36185527,0.3359162,-0.26575574,-0.17205481,0.32647344,0.31849134,-0.32958704,-0.11788653,0.21000265,0.06356464,0.13903937,0.31674302,0.036725003,0.20489223,-0.24768811,0.08608505,-0.3206237,-0.09985457,-0.33679667,-0.19472425,0.11023995,0.22272263,0.18858896,-0.13100651,0.29359746,0.033978883,-0.21038814,0.16380426,-0.049889863,-0.28357235,-0.19656244,-0.3049814,-0.15462014,-0.24036066,-0.14539786,0.3195457,-0.12610029,-0.15019608,0.17786604,-0.1441205,-0.08287232,0.20481415,-0.07844398,-0.120556995,-0.15770768,-0.12774669,-0.01622919,0.035232272,0.22811823,-0.07139761,0.19758783,-0.006243375,0.15252656,0.2464898,-0.09973688,-0.1342185,0.3357996,0.0865758,-0.13918288,-0.22206718,-0.126051,-0.17575064,0.24221164,0.050994214,-0.04873275,-0.116243534,0.2678764,0.05679456,0.1471312,0.21805823,-0.095222294,0.07141331,-0.102572516,-0.14779411,-0.23885812,0.20000003,0.24145389,0.11568813,-0.13315633,0.26163954,0.2105614,0.18101068,0.02598045,0.14953575,-0.12359362,0.018660983,0.018218681,-0.021414105,-0.19821377,-0.2486404,-0.1451073,0.17824158,0.10251472,-0.03630132,-0.053454846,-0.06998611,-0.13913465,0.18738703,0.20549172,0.32299653,0.1890123,-0.024558635,0.21479543,-0.17012602,-0.026234495,-0.01736909,0.19671926,-0.07568453,-0.16697866,0.27699822,-0.0382206,0.034609277,-0.1984736,-0.05499594,0.22850768,0.22468503,-0.16584837,-0.072456546,-0.1646944,-0.1145784,0.24597861,0.4162701,-0.05507798,0.09802035,0.17951363,-0.016106727,0.04469334,0.16594554,0.15654019,-0.10380786,0.22834527,0.08289884,0.043691784,-0.26190618,0.28602424,0.27738693,-0.08551595,0.2039302,-0.09773047,0.020073282,0.27100763,0.23554154,0.19634324,-0.008715308,0.041812785,-0.14031294,0.008650007,-0.11482628,-0.055297352,0.23251961,0.30097258,-0.16633552,-0.17835107,-0.16575879,-0.19593571,0.03024743,-0.17585349,-0.16764915,-0.27262726,0.016787106,-0.23148786,-0.0885453,-0.080819316,-0.16166194,0.21204138,-0.34137973,0.17754592,-0.20882247,0.20480117,-0.14552827,-0.21353957