-0.01664114,0.09108412,0.10637807,0.05940147,0.10788051,0.019475544,-0.026266333,-0.010588539,0.060329072,0.015079131,-0.035545003,-0.093934484,-0.033816148,-8.2494946e-05,-0.01912913,-0.031958565,-0.057230145,0.004358111,-0.056082126,-0.07929126,0.02157129,-0.034267668,-0.043399107,-0.0069533405,0.0032768117,-0.103533596,0.044178728,0.046300407,0.03321911,0.056599516,-0.029041825,0.061730977,0.041291695,0.04889809,0.024283065,-0.082643576,0.013795234,0.021915143,0.032855794,0.051951334,-0.076875456,-0.04151883,-0.05597258,0.026951838,0.0052230363,0.05185066,-0.016852677,-0.050365407,0.015825924,-0.053255804,0.031096892,-0.038673095,-0.07769387,-0.040116325,0.043140646,-0.005909815,-0.007787749,-0.019000977,-0.081083074,-0.044296265,0.009991359,-0.090778515,-0.06968025,-0.09854589,0.029194722,-0.0696862,-0.040024057,-0.02959642,-0.055779558,-0.0044668107,-0.04559604,-0.08924143,-0.09463014,-0.06207959,0.07276117,0.0036891818,-0.027378626,0.06047723,-0.04762567,0.06400044,0.015386287,-0.0670393,-0.0031900937,-0.037463482,-0.032154,-0.08014018,-0.08907491,-0.05690955,-0.10176525,-0.055942528,-0.05378712,-0.069084495,-0.091706015,-0.035969924,-0.03960759,0.0007325854,0.020602567,0.00044634283,-0.06358937,-0.035980098,0.012622538,-0.060955964,-0.04335983,0.010612457,0.06747535,0.0042699114,-0.05769383,-0.11595225,-0.007651503,0.00074777525,0.04827853,-0.061185595,-0.09059127,-0.13907133,-0.11577896,0.065914765,-0.021085752,-0.079588965,-0.02420349,-0.059910018,0.13094899,-0.048786864,-0.019299172,0.023210537,-0.026901264,0.038317755,-0.0314004,0.07242178,-0.014558007,-0.025333332,0.17646198,0.034080405,-0.037990917,-0.01470998,-0.018822845,0.09368209,0.04769348,-0.091701694,-0.034315042,-0.09815232,0.111885525,0.11923234,-0.11476864,-0.09006458,-0.014308916,0.053945765,0.13554813,-0.037783142,-0.043600235,-0.077668644,-0.06507352,0.07867762,0.069079444,-0.009307696,0.019933645,-0.06251771,0.072077945,0.08781123,0.13271843,0.10436245,-0.11740365,-0.027300205,-0.07546399,-0.011232162,-0.011210117,-0.0005723197,-0.03459772,0.040919695,0.009325252,-0.07167764,-0.039351977,-0.028439036,0.04467489,-0.024161948,-0.06932093,-0.01299215,0.103305206,0.041096818,0.041111,0.01657411,-0.08698012,-0.079702504,0.016168976,-0.0941156,-0.06127499,-0.07031391,-0.09011097,-0.022780817,-0.08498234,-0.027946115,0.04870149,-0.08758475,0.027280062,-0.06010038,-0.08021828,0.001788673,-0.017677873,-0.06900627,0.030126883,-0.04489112,-0.02449602,-0.020352334,0.04088156,0.007529087,-0.018484132,0.029622352,0.048645884,-0.04360853,-0.044468712,0.043046124,-0.07630205,-0.037708327,-0.08171356,-0.032855257,-0.09131781,-0.064898305,-0.036492046,-0.08865899,2.419367e-05,-0.030962754,0.04066093,-0.021598447,-0.032953933,-0.046122115,-0.058553655,0.07612653,0.10355611,0.02005387,0.07174713,0.10684184,-0.1140446,-0.078861915,-0.13486917,-0.0875776,-0.07651337,-0.054238144,-0.13317345,-0.09550134,-0.09639662,-0.07183052,-0.10344443,-0.095310174,-0.0850031,-0.14769393,-0.0720382,-0.109483406,-0.055209354,-0.1069637,-0.1284956,-0.11759929,0.08162142,0.044902753,-0.037459496,-0.019870516,-0.016490798,-0.07332888,-0.08144102,-0.01779982,0.021358784,-0.082623966,-0.05149285,-0.07996429,-0.036899853,0.02377671,0.03404874,0.108247295,-0.0900478,-0.026412794,-0.08391234,-0.053518396,-0.06879858,-0.04525573,-0.034504857,-0.014476392,0.023010807,0.018734518,0.046446044,0.017542351,0.02256562,-0.12456247,0.053368874,0.008989607,-0.00873062,-0.0748566,-0.05404204,-0.06277337,-0.025728662,-0.037450578,-0.09991332,-0.02329686,0.024091538,-0.07898153,-0.04937995,-0.017642317,0.079033256,0.04294456,0.060347386,-0.030363679,-0.10785365,-0.020310411,-0.01039238,-0.14237633,-0.18429683,-0.114735074,-0.07700528,-0.07220867,0.03518892,0.084076576,-0.11612144,-0.068821445,0.09213076,0.16679624,0.040341124,-0.14775309,0.05006466,0.05977123,0.1436922,-0.16336149,-0.23261902,-0.042606957,0.11457076,-0.012254692,-0.1341666,0.040259063,0.13750719,0.06871948,-0.01860254,-0.12465897,-0.02404464,-0.011281653,-0.13922237,0.15616858,0.1509803,0.12937367,0.08427381,-0.04287906,0.11054728,0.15024166,0.16726112,-0.020151217,-0.034085907,-0.056398943,0.07377582,0.016150188,0.020359436,-0.14276177,-0.060344566,-0.11331444,-0.13374956,-0.020588133,0.17154028,0.07979463,-0.07738189,-0.13344136,0.07218036,0.1585735,0.15089414,0.1984435,0.0014743727,0.031099647,-0.0027719375,0.17097403,0.14573136,0.04744917,-0.113148466,-0.07210879,0.05917234,0.07059999,-0.08191778,-0.020198124,-0.14260043,0.019248186,-0.037483722,0.010551289,0.028788991,-0.025624083,0.04299423,0.12718333,-0.005552889,-0.06825746,-0.11887369,-0.044322338,0.17394319,0.007112867,-0.016797815,-0.30286917,0.054341353,0.13289642,0.12952822,-0.011074944,-0.041002437,0.11842693,0.04125703,0.035559013,0.058643926,0.00417749,-0.036032937,0.009084267,-0.07167364,-0.01515569,-0.0025893168,-0.0070232917,-0.055676967,-0.13804758,-0.107889615,0.011717131,-0.12663831,-0.14631912,-0.10264973,-0.020032872,-0.1339712,-0.18425968,-0.14368957,-0.09120752,0.01051555,0.040204037,-0.2881524,-0.17861071,-0.06996603,0.023228971,0.08771908,-0.13565654,0.004054387,-0.049960654,-0.044428285,0.14137515,0.04743524,0.113490604,0.05628397,0.02206362,-0.009268653,-0.013773151,0.056922525,-0.0006495766,-0.124138325,-0.14757271,-0.055025786,-0.040814463,0.024847018,0.0611516,-0.088674895,-0.080689095,0.031243395,0.0052240873,0.032802276,0.006183001,-0.06081641,0.1574844,0.038257267,0.0036891631,0.00265086,-0.08633052,-0.038943417,-0.06729277,0.020083722,0.084868304,0.084106654,0.018286936,-0.016264569,0.06075989,-0.013033307,0.05068439,0.07959389,0.07853,0.018206934,0.12790978,0.1110735,0.066514365,-0.07416051,-0.021050615,0.038343642,-0.084922016,-0.07288433,-0.12859572,-0.019946923,-0.10419574,-0.050805125,-0.048585445,-0.13781969,-0.034097962,-0.08851809,0.051030543,-0.03520244,0.034394857,-0.031292804,0.053452455,0.050414782,0.008065494,-0.0019321567,-0.08418108,0.13051845,-0.0624608,-0.16726576,-0.08930123,-0.011019868,-0.008597041,-0.090169415,-0.0816743,0.16245194,0.18390146,0.06379122,-0.019347522,-0.026774328,-0.010296578,-0.06807301,0.054187827,0.01350594,-0.0019372208,-0.06966051,0.029854918,0.018390816,-0.004313493,-0.08694372,-0.035988,0.007641275,0.016786635,-0.048165303,-0.03910766,-0.020527525,0.029594973,-0.09037349,-0.13583827,-0.114172496,-0.031810574,0.14314601,0.046363916,-0.012015864,-0.082249604,-0.026505264,-0.07287584,-0.008905449,0.024865346,-0.04871437,-0.01041982,-0.06655684,-0.05471947,0.011204816,0.006773429,-0.057971787,-0.046366595,-0.019720534,0.011277226,0.047296137,0.036887232,-0.01403822,-0.08096677,0.062984295,0.09087273,0.11673147,0.024867812,-0.055321295,0.008583482,0.094387345,0.042102322,0.13380042,-0.016677445,0.03859367,0.0727712,0.08355121,0.049629558,-0.06727116,0.017229088,0.07947219,-0.11083789,-0.21981385,-0.021383392,0.0010192597,-0.008878525,-0.065760545,-0.14051728,0.109848686,0.1181393,0.03626455,-0.053929117,-0.18756956,0.033447392,0.11128744,-0.12784517,-0.018303432,0.022775818,0.09550034,-0.017845629,-0.0051389053,0.20426394,0.0716029,4.596584e-05,-0.066220924,0.01475765,0.1731531,-0.07253549,-0.008253453,-0.13375662,-0.03825935,-0.076467864,-0.095449604,-0.051328298,-0.006482712,-0.083554834,-0.09309844,-0.025713066,-0.004225347,-0.03231494,-0.03819522,0.078421004,0.06609113,-0.013928007,-0.055093724,0.017063495,0.17487985,-0.0003105252,-0.12656716,-0.067440234,0.122547515,0.12887183,-0.0568188,-0.04800349,-0.11694782,0.006658209,0.14274824,0.03800092,-0.07465979,-0.076606356,-0.052716523,0.15761998,-0.012389592,0.047248192,0.053297054,-0.06526161,-0.079950586,0.0060104374,0.011444908,0.093987845,-0.055352725,0.08698147,0.13272333,-0.0032554895,0.0813083,-0.07882133,0.09003244,0.14814228,0.044119842,0.013014308,-0.085036494,0.037254747,0.044005595,0.025016375,-0.081379205,-0.029550096,0.043707266,0.07896813,0.06939279,0.08080311,-0.040778857,-0.10450036,-0.16257375,0.092159405,-0.058041174,-0.11879046,-0.18143032,0.040514152,0.011970859,-0.021732183,-0.16277367,-0.08897709,-0.12779704,-0.09794072,-0.039708875,-0.055459093,-0.12975,0.10104143,-0.1791382,-0.11540185,-0.084176674,0.050817944,0.09038364,-0.035079367,-0.0153726125,-0.09252409,-0.15403274,0.10573047,0.008444294,-0.05700415,0.035050876,-0.10481986,-0.07321013,-0.056176096,0.0053411266,0.037538983,-0.06403165,0.016040085,-0.13519493,-0.026505167,0.014071019,0.045292716,-0.03979864,-0.1402947,-0.16795668,0.023815071,0.08874884,-0.07033614,-0.014879921,0.027069738,-0.030433271,0.044931073,-0.06812429,0.027751736,0.15388003,-0.06781119,-0.021851024,0.02119717,0.08201446,0.008472439,-0.013156262,0.09085509,-0.05062652,0.041882247,-0.030077064,0.040940672,-0.045665283,-0.056129873,0.07174553,-0.09636127,-0.027594585,0.020887312,0.02963886,-0.036442146,-0.116200425,-0.033006,-0.08820422,0.16217498,-0.120443456,-0.09711477,-0.008736452,0.039838657,-0.04284055,-0.025787067,-0.090010546,-0.049738694,-0.1645061,-0.18141872,-0.2088582,-0.10397478,-0.15091352,-0.18398988,-0.07199257,-0.08169928,-0.015108683,-0.15905398,-0.18132581,-0.08389999,0.05074575,-0.017334344,0.03282492,0.053519342,0.045282874,-0.014794901,-0.041530155,-0.021881565,-0.089392185,-0.012865961,0.058528356,-0.03531638,-0.06725015,-0.014413325,0.06988394,-0.08407232,-0.14245258,-0.019094074,-0.049348474,0.075489484,-0.15657805,-0.0014325648,-0.0285216,0.08987513,0.1236475,0.003994776,-0.022433514,-0.08588147,-0.07860833,0.025733527,-0.038243562,0.04102688,-0.029964197,-0.07607771,-0.021482173,0.018297419,0.08320966,0.0105062155,-0.12176077,-0.044448346,-0.016388517,0.07190856,0.02539106,0.003356645,-0.082181536,-0.017178247,-0.0018718977,-0.01257549,-0.00084012724,-0.07514403,0.03684779,-0.0031162729,-0.0053369296,-0.038259156,0.00889211,-0.12733896,-0.29292426,-0.10430836,-0.07868981,-0.024470508,-0.17348434,-0.12426446,-0.09497687,-0.09714029,-0.012391848,-0.009329766,0.031345792,-0.031206058,-0.073131226,-0.15034147,0.14930592,0.046998084,0.024649056,-0.062261634,-0.13987309,-0.029390477,0.0040677125,-0.058387812,0.082739785,0.0359095,-0.076050386,-0.07183205,-0.051818054,0.077364616,0.0870668,-0.122737564,-0.057875592,0.031188034,0.036499817,-0.019800931,-0.07992956,0.00093061157,-0.0640834,-0.0453655,-0.021755053,0.074455015,0.03133818,0.016105082,-0.016314635,-0.06797645,0.044028334,0.10982831,0.087103784,-0.04697387,-0.10192217,-0.0180034,-0.030411974,0.0617935,0.007854615,-0.06899357,-0.20604801,-0.053183887,0.08222974,0.078191474,-0.14463888,-0.16666262,0.03624364,0.10320285,0.057045143,-0.06783039,0.10529802,-0.067537844,-0.013951197,0.07482321,-0.11214957,0.016456265,-0.016722744,0.13216728,0.106440194,-0.023160975,-0.0010415612,-0.107659124,0.098933674,0.21733862,0.04489452,-0.03176428,-0.1853635,0.015403596,0.13198401,-0.04448946,-0.07812896,-0.1001674,-0.034831524,0.06331947,0.019895166,-0.094643414,0.07610458,-0.0029268197,-0.08665709,0.10365509,-0.04611541,-0.059337255,-0.13661659,-0.07590024,0.01378519,-0.073213845,-0.048461545,-0.26639807,-0.1790495,0.0244024,0.11789893,0.02650508,-0.19724861,-0.091397844,0.0019380637,0.06569501,-0.058618233,-0.090892985,-0.07003921,0.041226067,-0.16025187,-0.06687403,-0.113865025,0.038744245,0.02220372,-0.045635246,0.10640074,0.01362623,0.010370372,0.050941415,0.035682783,0.15537472,0.1453497,-0.06594533,-0.17044413,-0.09544562,0.10014806,0.14332013,0.024494702,-0.0457287,-0.182755,-0.034895584,0.04715869,0.04280923,0.04892566,-0.17292954,-0.027293101,0.0789699,0.075063765,0.06525792,0.040831346,-0.0020888073,-0.022847867,-0.102318436,-0.09223503,0.020089967,-0.088150024,-0.13067356,-0.02938879,0.08948916,0.010317796,0.02431395,-0.019174283,0.03865597,-0.07686568,0.050980292,-0.032383956,0.01859384,-0.12602997,-0.08546039,-0.050557867,0.037536792,-0.004116762,-0.091197155,0.022932637,0.07996894,0.12228753,0.08549777,0.019757915,-0.011475701,-0.06951025,-0.103526674,-0.10103347,-0.058267962,0.11301507,-0.17617285,-0.14259872,-0.12516493,-0.040176857,0.006188376,-0.12369538,0.012767985,-0.060191628,-0.10424134,-0.0184954,0.03114262,-0.017055755,-0.0032342575,-0.021356901,-0.055404782,0.0374993,-0.05858671,-0.017974418,-0.00059799117,0.040478893,-0.019967292,-0.068402074,-0.091934405,-0.08414923,-0.07476329,-0.08715945,-0.0713632,-0.041507892,-0.014100667,-0.12167122,-0.112776,-0.020213101,-0.02488692,-0.03525412,-0.13994232,-0.18222623,-0.17313886,-0.051714264,-0.033279452,-0.078433,0.011622749,0.075672165,-0.0027351598,0.08316351,0.0669529,-0.052455135,0.03621346,-0.008084988,-0.0036898,-0.020845244,-0.020183483,0.021222172,-0.01632129,-0.059876658,-0.031310897,-0.07980304,-0.022310385,0.010319992,0.0021284344,-0.09637981,-0.055434596,0.019119604,0.019419784,-0.048056524,-0.035974666,-0.07136679,0.014066737,-0.096764274,-0.12522598,0.011458434,-0.10185705,0.13762331,0.089428075,0.01927873,-0.14185436,0.032449085,0.11561904,0.05638809,0.038853716,-0.09856749,0.083778195,0.12531504,0.10722208,-0.033368144,-0.032532692,0.13587457,0.06445457,0.08254395,-0.09839338,-0.07609538,-0.05966127,-0.0595515,-0.062367555,-0.04343985,-0.04897612,0.0001531356,-0.0513579,0.00972974,0.028383547,0.011361884,-0.057272337,-0.09395125,0.12219129,0.017454494,0.018640589,-0.06937626,-0.014583845,-0.018112635,-0.031180076,0.0028742924,0.017909054,0.05112895,0.025903845,0.024646936,-0.13660297,-0.034461312,0.015725542,-0.0009951463,-0.07873088,0.103034526,-0.12551548,-0.10975243,-0.018631166,-0.04003494,-0.038358774,-0.10273884,-0.018334255,0.06833544,-8.6872125e-05,-0.15032682,-0.11002227,0.022572221,0.14730953,-0.0037683481,-0.18442076,-0.055697653,0.111098565,0.11330429,0.048301518,-0.17304529,0.0989521,-0.027867805,-0.010549429,-0.07763027,-0.014877584,-0.0012981492,0.028785737,-0.061567545,-0.0027012601,0.115997195,-0.045406405,0.022544123,-0.033950802,0.07966427,0.086921595,-0.056052484,-0.076255225,0.105287984,0.1364503,0.03883005,-0.092711195,-0.056228023,0.075916,0.1397786,0.041255906,-0.12926963,0.06278824,0.035726942,0.07460206,-0.028133184,0.004286223,-0.048349265,-0.032204952,0.027626952,0.04349776,-0.089346014,-0.1349976,-0.054371305,-0.04097373,-0.13321319,-0.058228243,-0.051193498,0.00025302058,-0.038793113,-0.18580198,-0.16924104,-0.008452476,-0.053965688,-0.024664687,-0.117663465,-0.014158865,-0.013048329,0.033887755,-0.063028134,0.039699357,-0.16513032,-0.11977148,-0.030786213,-0.11458553,-0.09705487,-0.08343671,-0.038172565,-0.07172805,-0.07426291,-0.13559434,-0.10809961,-0.010058208,-0.025312228,-0.09695314,-0.13527916,-0.13551147,-0.046896767,-0.08843005,-0.13464557,-0.16086048,-0.0043578683,-0.048625533,0.033374216,0.061518595,-0.07429602,0.038492437,0.04713075,-0.034643184,-0.050884828,0.004716294,0.11243029,-0.04188509,0.033271573,0.07954586,0.11078186,0.034766987,0.025995117,0.04888036,0.071729116,0.04330135,0.0010827885,0.03607363,0.052637737,0.080823444,-0.018249677,-0.12178038,-0.12530261,-0.09500637,-0.12758271,-0.16169791,-0.13550842,-0.12719913,0.014110205,-0.0788921,-0.27887806,-0.16063681,-0.016948795,-0.072956465,-0.07028407,-0.2013222,-0.14608076,-0.05409759,-0.027981542,-0.11134052,-0.09303691,-0.12005883,-0.064908855,-0.1392144,-0.16987027,-0.08154194,0.0075088018,-0.0041674008,0.049104065,0.18049861,0.08922617,-0.07900016,-0.0075986804,0.045821395,0.014244811,0.0053191734,-0.014570761,0.052762114,0.035337932,0.07646862,-0.0067799147,0.083783984,0.043953992,0.04942752,-0.013977726,-0.013719786,-0.046513945,0.039819635,0.014889725,0.074247845,0.080214925,0.0035786792,0.080497585,0.06569442,0.016713468,-0.0011022413,0.007792992,-0.012346941,0.09627969,0.06828185,-0.0035370884,0.022965519,-0.05040679,-0.022389634,-0.016118497,0.0025465868,0.0106973965,0.06443878,0.091138974,-0.0107556265,-0.021496765,0.0812298,-0.021251088,-0.04045962,-0.025447907,-0.11638822,-0.08239154,-0.06612142,-0.03863326,-0.06517073,-0.11436732,0.09260046,0.07576302,0.04431162,0.027139166,-0.04503792,0.08514327,0.076452285,0.05758819,0.009130115,-0.078197345,0.11187446,0.099769905,0.1573075,0.08534004,-0.04786477,-0.100836344,-0.088037275,0.083132066,-0.027744617,-0.16395411,-0.01995145,-0.07880296,-0.096537486,0.06303061,0.064569995,-0.13011448,-0.093332596,-0.1073777,-0.059577245,-0.09110329,-0.018100917,0.042713374,-0.1326493,-0.18581773,-0.06941838,-0.003863015,0.047026414,0.010972368,0.023890799,-0.06431057,0.040981147,-0.025564,-0.033708367,0.05298828,-0.021067763,-0.19311658,-0.24511617,-0.104775436,-0.006350504,-0.015145488,-0.1991744,-0.21695359,-0.17660615,-0.13195899,-0.14834861,-0.082501546,-0.048421446,-0.046261948,-0.0524955,-0.17667198,-0.0275266,0.05618133,0.092726886,0.12480029,-0.01986091,-0.072418995,-0.0899437,0.022831248,0.010975769,-0.1487881,0.13216722,-0.026609587,-0.062358275,0.03233784,0.08230271,-0.0025289734,-0.24042343,-0.18747841,-0.13826483,-0.14457697,-0.106357075,-0.060491685,-0.10994068,-0.04797379,-0.0639286,0.022576204,0.046863995,0.012447732,0.043942567,-0.035674535,-0.027940892,-0.030461801,-0.09967425,-0.040282752,-0.04798263,0.04356332,-0.004721343,0.11620587,0.24391693,0.1950094,-0.09548551,-0.012449879,0.12911724,0.22344024,0.062833354,-0.01896565,0.03151197,0.11766021,0.08212866,0.07027577,0.030642724,0.05981127,0.062621236,0.08377913,0.05408355,0.084840745,-0.046181124,0.062168367,-0.023354223,-0.0018634788,-0.032348122,-0.09189462,-0.036732495,-0.103841305,-0.13371949,-0.12030748,-0.13954492,-0.074329644,0.033869084,-0.00514073,-0.11791686,0.1393816,0.14731751,0.07068579,-0.0009897258,-0.012151478,0.023281423,0.12793925,0.051766355,-0.022341974,-0.0008372609,0.058964074,-0.035420563,-0.097708635,-0.02432399,0.062233858,0.020840326,-0.026682759,0.005770454,0.12674148,0.041912574,-0.086815275,-0.14249586,-0.13117552,-0.05933129,-0.09258274,0.005517469,-0.07940306,-0.16568716,-0.093779616,-0.0218834,-0.052589495,-0.04079922,-0.013019013,-0.045041855,-0.07411189,0.027986133,0.030092126,0.037086215,-0.06268657,-0.1301417,-0.21902737,-0.10135775,0.0047340174,-0.13727506,0.009163739,0.03555415,0.018336346,0.013840389,-0.0008796076,0.032956198,0.14831401,0.08745786,0.10460878,-0.11630169,0.12826161,0.10603499,0.035969548,0.12093698,0.015686236,-0.07173437,-0.10062065,0.035923958,0.07462637,0.16779818,-0.09727673,-0.038435932,-0.037857156,-0.026033718,-0.03487906,-0.10129234,0.046195712,-0.020184465,0.055102516,0.00480579,0.028687337,0.08830732,0.10598223,0.040265307,0.023273204,-0.06348844,-0.0028768717,0.0645322,-0.01210912,-0.091774836,-0.074541,-0.06500148,-0.117238425,-0.052653577,-0.0638455,0.016922478,-0.020489724,0.00471776,-0.079758115,-0.0990029,0.014970267,-0.04058877,-0.011365252,-0.019930348,0.01630306,-0.031044211,-0.055139646,0.058742367,-0.018318174,0.090931565,0.060135446,0.08100047,-0.034301117,-0.03171759,-0.0046869614,-0.049603283,0.077572204,-0.08112668,-0.08139855,-0.09151907,0.033124756,0.107510135,0.046238042,-0.024144314,-0.042134017,0.08200118,-0.070909545,-0.021368103,0.0027511802,-0.090670355,0.053030536,0.0819983,0.0061310506,-0.011360476,-0.07735588,-0.028747292,-0.07867013,-0.018273441,0.011454956,-0.06753363,-0.039786905,-0.06212998,-0.03835031,-0.091614835,-0.09402174,-0.07429116,0.075173244,0.029007724,-0.066357814,-0.09990531,-0.099572346,-0.0064387904,0.033512365,0.04393296,0.0449413,0.011152739,-0.017610209,-0.0069067073,-0.04149863,0.024250817,-0.025358384,-0.04506295,-0.026577294,-0.13854665,-0.0059926216,-0.08690348,-0.053106282,-0.10173187,-0.064840205,-0.103351004,-0.016123604,0.16761361,0.0052651335,-0.014144152,-0.13037437,0.046925966,0.14752375,0.109219685,-0.080726184,-0.062112562,0.059871107,0.0628357,0.008980523,-0.061391752,-0.013392154,-0.03379755,-0.04747481,-0.06135447,-0.09567431,-0.101578616,-0.062332965,-0.060126353,-0.13329524,-0.16366984,-0.14596193,0.015254207,0.06625114,0.06632738,0.0425238,-0.064044856,-0.08292481,-0.027346719,0.058546625,0.0912872,-0.06343506,-0.13281755,0.020882705,0.03154146,0.09111379,0.055099055,0.092161514,0.14128125,0.051259186,0.005672284,-0.026580056,0.14460588,0.014354464,-0.020536445,-0.038902316,-0.05463008,-0.02680149,-0.09376778,-0.018882034,-0.061325323,-0.07433033,-0.040436327,-0.03321848,-0.041545924,0.04355101,0.05536843,0.043961834,-0.03864001,0.09610318,-0.023738941,0.045053497,0.011918307,0.14730896,0.16297641,0.06664809,0.036779203,-0.09053498,0.0028096105,0.04307678,-0.08366495,-0.0013354067,0.056240037,-0.008955869,0.04860439,0.07180359,-0.020102192,-0.07600381,-0.0719283,0.04180298,-0.027487066,0.03289389,0.05969701,0.09117664,-0.026702477,-0.075113155,-0.07534875,0.07033327,-0.0258806,-0.057071086,-0.066848114,-0.19180611,0.017466966,-0.09212276,-0.022415144,-0.12029891,-0.090369806,0.033640143,0.04816215,-0.09789276,-0.072997026,-0.056433234,-0.088560276,0.02210769,0.030551026,-0.00208012,-0.048635434,-0.032364026,0.055816054,0.15583323,0.114162505,0.043618936,-0.018167794,0.06569279,0.075528406,0.11217743,-0.02673064,-0.08042393,-0.10851125,-0.03665226,-0.052558187,-0.05239356,-0.093622394,-0.09843205,0.032455865,-0.05237841,0.06959981,-0.11118724,-0.035231456,0.017424349,0.0044393977,0.01100142,0.10556362,0.13634633,0.08927387,-0.036048226,-0.05524591,-0.16889378,-0.20064907,-0.06686151,-0.1784407,-0.19265124,-0.08820687,-0.053688467,-0.19629352,-0.16672601,-0.15752181,-0.078357816,0.027224915,0.055453666,0.014310151,-0.0013605901,0.045119837,0.006302185,-0.017198201,-0.03935155,-0.05698025,0.045706682,-0.03156525,-0.03195306,-0.15154245,-0.05385929,-0.065737076,-0.0889364,0.028815059,-0.0840782,-0.012738517,0.042851847,-0.059937913,0.017981647,0.023399504,0.038044434,0.0024044027,0.007232825,0.054699082,-0.038803916,0.09021275,-0.020081282,-0.029612496,0.054071646,-0.021688435,-0.04345947,-0.03613067,0.08479751,-0.0553468,-0.037922002,-0.051707514,0.014373054,-0.058121093,-0.035044376,-0.029622054,0.032965563,-0.17622826,-0.12071383,-0.09741009,-0.06442782,-0.019934071,0.12309356,-0.027551483,-0.036634877,-0.010235053,0.0046868897,0.019662509,-0.016012935,-0.026292598,0.049945414,-0.008010528,-0.1313523,-0.0040010693,0.09641201,0.06990179,-0.035969187,-0.09387572,-0.109264486,0.03622758,-0.06035822,0.009996602,-0.08110307,0.056015506,0.0339797,-0.056130815,0.018871514,0.076905034,0.1152069,0.116749436,-0.015743656,-0.033924017,-0.037261236,0.0058248504,-0.063929334,-0.1650591,-0.016077884,-0.0033734841,-0.076126836,0.013369298,-0.010270057,-0.07800523,-0.05070133,0.07768319,0.1499367,0.21399108,-0.053476557,0.11174866,0.09604781,0.10507409,0.0683061,-0.08011462,-0.056203026,-0.19672558,-0.1662796,-0.13564242,0.027817896,-0.16157153,-0.16177179,-0.19490181,-0.044256676,-0.04712412,0.0061971266,0.060599174,-0.051225986,0.07969992,-0.043393504,0.03907344,0.08388753,0.042741396,0.08937714,-0.066419326,0.012547667,-0.00381897,0.06814593,0.031425685,-0.1549291,0.029838065,0.112409726,0.03283005,0.04738909,-0.0030326534,-0.025564665,0.06306521,-0.021003263,-0.07636258,-0.02091923,-0.024857368,-0.0258054,-0.010444311,-0.019227443,-0.06349392,-0.18768029,0.013151579,0.09473045,0.080146335,-0.021027956,0.018119669,0.05007975,-0.003992477,0.047512054,-0.07650149,-0.15840699,0.033368193,0.10283719,0.004778591,-0.032337658,-0.07162178,0.059889745,0.16159122,-0.006480765,-0.015912952,-0.07469975,-0.057329528,-0.0718112,-0.05729602,-0.06373997,-0.19302288,-0.17884913,-0.28218442,-0.13099435,-0.1041771,-0.11473733,-0.26165053,-0.22839859,-0.13275877,0.0607494,-0.07986659,-0.12081119,-0.042237643,-0.05226368,-0.061923705,0.14471577,0.1512173,0.14136174,-0.060319092,-0.08496952,0.25965697,0.13077776,0.032238342,0.02918012,0.05216443,-0.01841443,0.036145158,0.03137065,-0.09428826,0.19836806,-0.15514396,-0.047995213,-0.0017223648,0.05791268,0.13188714,0.050472625,0.07153695,0.12891605,0.1485123,0.030956194,-0.10481437,-0.11047869,0.037475787,-0.01418148,-0.07072328,-0.11405631,-0.049155828,-0.05144279,-0.10732546,-0.108437546,-0.09997179,0.046114013,0.078480795,0.046837475,-0.00721323,0.00856382,0.10320695,0.1608743,0.059945006,-0.03407033,-0.044031613,-0.05584269,-0.04414857,-0.16080764,-0.1348811,0.08669994,0.062403012,0.062346548,-0.0845703,-0.0059582116,0.036678817,0.06672413,0.085103616,0.14960411,0.16388835,0.05351326,0.007589137,0.057489548,0.044733174,-0.07252269,0.19301423,0.0017283495,-0.1090903,-0.043533716,0.13191687,-0.05131754,-0.054889247,-0.034080245,-0.042542156,-0.009866431,-0.063707046,-0.028402653,0.04565565,-0.102651216,-0.05994609,-0.08365113,-0.0024802485,-0.056460254,0.005317624,-0.08023545,-0.118245676,-0.040133692,-0.063175775,-0.099934824,0.004921806,0.007903407,0.021476133,-0.08562242,-0.13781424,-0.06515411,-0.1389228,-0.003734274,-0.030823698,-0.057138268,-0.048701316,-0.019203335,-0.039742466,-0.077412434,-0.07832072,-0.02048387,0.009261503,-0.074176416,-0.06500777,-0.0119159175,-0.04871903,-0.010459224,0.015615591,-0.07501016,0.010863506,-0.07145844,0.059577465,0.014413296,-0.019860256,-0.043788627,-0.011854769,-0.010926796,0.062608436,-0.013798148,-0.11785343,0.026707409,0.016760148,0.15545587,-0.018645845,-0.031529743,0.026471121,0.1404381,0.14529198,0.012444443,-0.031318773,-0.020333957,0.05719925,-0.008906109,-0.08376339,-0.046495806,0.08742553,0.004690989,-0.026900075,-0.058460508,0.083740175,0.06370612,-0.09808325,0.023654534,0.05194316,0.14869753,0.03502332,-0.04789665,0.1394034,0.115755916,-0.013456217,-0.029042816,0.023750193,0.058844134,0.051594876,-0.057567578,-0.03769502,0.03362841,-0.053641934,0.01842851,-0.11302786,-0.026680652,0.0062826485,-0.040298697,-0.0650856,-0.10274942,0.05393292,0.062214285,0.009718881,-0.03271781,0.031046556,-0.03248882,0.07933584,0.15481134,-0.004393721,-0.09099289,-0.0073996414,0.054617126,0.16115531,0.0065892963,-0.08342697,-0.061874457,-0.022303803,0.12976131,-0.023159409,-0.03970978,-0.04127297,-0.024276046,0.14079966,-0.013155177,-0.03946665,0.09072192,0.016925886,0.010709555,0.10977798,-0.0022350221,0.041672442,-0.07324446,0.1037469,0.1649263,0.009110389,-0.017151034,0.064857595,0.04482637,0.057571385,-0.025371931,-0.030425048,0.14708988,0.10835877,0.08313114,-0.0621101,-0.048524935,0.045863014,-0.032273594,-0.01830429,-0.025501797,-0.07691781,-0.13839346,-0.19521557,-0.12770253,-0.10797469,-0.061254703,-0.12227698,-0.10381658,-0.07435051,-0.07915287,0.02135339,-0.08339452,-0.0990383,-0.12102156,-0.13323246,-0.08358116,-0.17709258,-0.14134596,-0.058569964,-0.0154771395,-0.047880583,-0.061581954,-0.14113775,-0.082293555,-0.15713963,-0.06867868,-0.039579105,-0.0888914,-0.08040515,-0.015260799,-0.09677893,-0.012441433,-0.017243566,-0.032691542,-0.15269306,-0.08701824,-0.070935085,-0.09792071,-0.10927915,-0.14250508,-0.06787597,0.044872474,-0.017599069,-0.13005888,0.0073014093,0.04714395,0.031083038,0.013569638,-0.052540302,-0.048444342,-0.038671654,-0.019704815,0.04005381,-0.079847,-0.045863073,0.120851755,0.003308027,0.10042378,0.105307974,0.11024781,0.08020857,0.11913304,-0.016167501,0.10139792,0.055536475,-0.015760653,0.0037990634,-0.10524168,0.022045372,0.004510516,-0.059999187,-0.030079693,-0.12885128,-0.088611074,-0.010672791,-0.060478512,-0.05522674,0.061245345,-0.02820444,-0.11697611,-0.21967307,-0.08276516,0.0018792565,-0.09760499,-0.07370381,-0.06942873,0.078376085,-0.11388442,-0.12281769,0.03260563,-0.084667474,-0.13242322,-0.12139372,-0.060901653,-0.038295284,0.04596177,-0.018840821,-0.054642536,0.08240584,0.111413844,0.14596124,0.046555452,0.027200196,-0.009578341,0.0957564,0.009357082,0.030926362,-0.05126233,-0.003141597,-0.092118435,-0.050922416,0.07092585,-0.037938863,-0.1175392,-0.087209955,-0.086459495,-0.06326702,-0.017579366,-0.046969883,-0.06223563,-0.00417693,-0.012349502,0.10304696,0.03362995,0.13092981,0.08508782,-0.039362382,-0.055285007,-0.026955614,-0.0071820603,0.029785864,-0.012372009,-0.040748768,0.10936156,0.06153957,0.06713912,0.010359794,-0.059211694,-0.012376339,-0.04452179,0.004326061,0.032675665,-0.0221297,-0.074673675,-0.024285652,-0.08091804,-0.061586753,-0.12640078,-0.00607547,-0.025504349,-0.012042944,-0.045847587,-0.11470666,-0.05116681,0.06418988,0.0038349996,0.085462175,0.055752173,-0.10143429,-0.12438368,0.008737625,0.04011433,-0.004779007,-0.022717364,0.002025332,0.015961304,0.047075845,-0.045559812,-0.02749495,0.04392408,0.06650864,0.019034838,0.027654717,-0.15892394,-0.18941624,-0.10054083,0.13925453,-0.0015895724,-0.12174511,0.06883848,0.10244952,-0.01925292,-0.0624407,-0.1477402,-0.023980951,0.061770957,-0.017790716,-0.10104125,-0.14677702,-0.016730651,-0.048924815,-0.036492437,0.046029482,-0.1311418,-0.13129883,-0.012168383,0.040063523,0.16757685,0.044658735,-0.07568375,-0.029896725,-0.004745739,-0.17834586,-0.103418596,0.043551184,0.107925445,-0.11198529,-0.16183501,-0.20761211,0.11385159,0.13983715,-0.039551307,-0.070832394,-0.18164076,-0.051285904,0.04728334,0.10638683,0.08948852,-0.036771104,-0.14826992,-0.14456664,0.004031432,0.13875055,0.07090878,0.024271626,-0.00801509,-0.05283165,0.09708491,0.034906223,-0.059658114,0.08721925,0.017034417,0.014223036,-0.07991851,-0.06989089,0.020102711,-0.041413553,-0.062411193,-0.14856805,-0.12998632,-0.040617283,-0.028111681,-0.0044203694,-0.030968655,-0.10738832,-0.09655735,0.011460836,0.004325788,0.11371387,0.06401307,0.04601369,0.006481778,0.0032812194,-0.02366506,-0.04487775,0.055816617,-0.14479674,-0.05687976,0.1220192,0.13310581,0.08355484,-0.018057652,-0.18625516,-0.13585806,-0.024176927,-0.051908817,-0.050692186,-0.08150779,-0.07300177,-0.10143975,-0.0679387,-0.17309682,-0.116378926,-0.019461945,0.034539636,0.033844415,-0.13485667,0.01441635,0.01694504,-0.04272933,-0.017715847,-0.045686837,-0.058697045,-0.016462455,0.021352168,0.06687958,0.106203824,0.09697147,-0.108924024,-0.010199173,-0.056253936,0.003524543,0.18223868,0.012776547,0.015325361,-0.08194752,0.0012349155,0.08247922,0.12717143,0.19367859,0.060284384,0.03946594,0.15211914,0.11463933,-0.044921715,0.02958507,0.025594668,0.038903013,-0.1477388,-0.038180254,-0.0017390549,-0.08742895,-0.024372716,-0.062460568,-0.030320473,0.02272683,-0.048958298,-0.072769985,-0.059431206,-0.060671154,-0.09484034,-0.049914107,-0.030525604,-0.06311048,-0.13191144,-0.065012544,-0.07372151,-0.07663025,-0.056775562,-0.09037954,0.0018330339,0.098379314,0.0035301566,-0.11464854,-0.18809736,-0.1534448,0.22388627,0.08201998,0.048713468,0.09876062,-0.019027036,0.08994965,0.05387183,0.061423697,0.05657366,0.08660679,0.16804612,-0.019611308,0.04935751,-0.04456862,0.048736088,-0.02179375,0.03922508,-0.012182178,-0.010805806,-0.02174589,0.037979826,0.04412452,0.0073090065,0.057450123,0.08634924,-0.006451238,-0.0014535561,0.043885183,-0.03996568,-0.044142574,0.04714025,-0.034838706,-0.08600402,-0.12598348,-0.079311945,0.10932654,-0.08375679,-0.092746995,0.042055152,0.041150346,-0.078286536,0.03365659,-0.0012135383,-0.025425471,-0.1252648,0.074134454,-0.0006620713,0.06671467,-0.021455193,0.04234409,0.053447645,-0.0048665227,0.051615313,0.050489515,0.048748184,0.05407891,-0.035075072,-0.10711131,0.024638014,0.014541495,0.028256584,-0.019356359,-0.010617686,-0.09828899,-0.10788758,-0.07289126,0.094312124,0.041040882,0.054402493,0.15687343,-0.0007019086,0.017194096,-0.009190956,-0.07692844,-0.04705727,-0.023268448,-0.08093656,-0.17336778,-0.14539139,-0.12011185,0.056506608,-0.0016294507,-0.057241302,-0.015422263,-0.0015064443,0.054869656,0.06484724,0.05279773,0.039086655,-0.0546077,0.011965691,0.03198538,0.024480848,-0.06488472,-0.056514274,-0.080360994,0.015267193,-0.0017491225,-0.009842363,-0.11289744,-0.101013385,-0.070711926,-0.0031420786,-0.058670655,-0.053421065,-0.05651692,-0.07288072,-0.076089844,-0.12956339,0.022021877,0.05375679,-0.08170529,-0.0778144,-0.06603156,0.002066462,-0.19259253,-0.005928485,0.028618932,-0.117179066,-0.12615196,-0.11929277,0.068743296,0.05269402,0.037071336,-0.062436704,-0.069070175,-0.0076147737,0.02270507,-0.12609908,-0.0052664108,-0.04779269,-0.18130097,-0.15265647,-0.02851331,0.10242753,0.0038534733,-0.15643832,-0.041009344,0.04007629,-0.092998266,-0.028991042,0.024997717,-0.0628927,-0.041264966,0.00110507,0.011232929,-0.05223126,0.049142785,0.009330345,-0.11698525,-0.113818504,0.0031821043,0.0049687875,-0.19650532,-0.21885006,-0.043319885,0.043083977,-0.051462848,-0.24282594,-0.2163714,-0.032626383,0.14673623,-0.0006514852,-0.13540804,-0.07419414,-0.047115434,0.077165775,-0.018877225,-0.093480945,-0.126049,0.10839584,0.024421941,0.009949882,0.10238697,0.048880406,0.06401865,-0.006125298,0.1046428,0.05097491,-0.13874489,0.12757267,0.13574287,0.05133012,-0.042684358,-0.039329212,0.07931811,0.025018258,-0.12863539,0.010882804,0.042382266,-0.030960824,0.014382829,0.10037206,-0.07796171,-0.18189332,0.0022366266,-0.011139164,0.019146262,0.14444229,0.09518274,0.019768637,-0.0768882,-0.036497023,-0.018659124,0.04241556,-0.028449923,-0.14715275,-0.109479785,-0.14440636,-0.024875885,-0.009897105,-0.09824585,0.021413293,-0.09279761,-0.011556757,-0.03751697,0.013807834,0.058355186,0.0019339735,0.006499195,-0.07119178,0.04193192,0.025166398,-0.040071063,-0.05238556,-0.119000256,0.05620011,-0.036251046,0.019386135,-0.07293475,-0.08144141,0.007887895,-0.008315281,-0.053135805,-0.06004831,0.0055701067,0.031073723,0.034305267,-0.043740924,-0.059930503,0.0428082,0.07792948,0.080831066,0.0937473,0.26826555,-0.09024477,-0.018530162,0.01074626,0.06723731,0.14726496,-0.0721707,-0.03456999,-0.11320883,-0.09305003,0.09034888,0.13453259,-0.08938342,-0.08329306,0.00010293528,-0.01936464,0.047063302,-0.07295647,0.028546318,-0.04184833,-0.081451274,0.0026161687,0.043942865,-0.028038813,0.09086339,0.058496233,-0.034481138,0.046710443,0.035950582,0.019941587,0.06277513,0.014432598,0.06714105,0.09484174,0.09945695,-0.05481709,0.018614087,-0.09927605,0.05900287,-0.01173672,-0.003184622,-0.090796225,-0.08392472,-0.029646365,-0.031988483,-0.13159004,0.01802354,0.028147025,-0.093936816,-0.09436469,-0.030301176,-0.081800915,-0.026016593,-0.029925538,-0.043479506,0.04720795,0.04387872,0.037257455,0.07789081,0.051760226,-0.0690807,0.013247686,0.0030902366,-0.016323883,0.007851677,-0.031782396,0.06342845,-0.030155193,-0.08715415,-0.108674414,-0.04450181,-0.11092605,-0.009982683,0.05561688,0.07833853,-0.088624954,0.0032516795,-0.014766677,-0.019809712,-0.026875878,-0.17179078,-0.085849926,0.016652316,-0.0044714613,-0.083354674,-0.0976514,-0.118224286,-0.10581878,-0.094110794,-0.015156539,-0.14425685,-0.00827976,0.079243585,0.014979559,-0.02944802,-0.13185032,0.0077563166,-0.02383561,-0.07122096,0.058427967,0.05023676,-0.0057011866,0.122059315,0.10206287,0.12581487,0.025909971,-0.037572987,0.059886478,-0.03158212,-0.043000977,-0.09062563,-0.098941796,-0.11143928,-0.13030209,-0.0963434,-0.12834078,-0.09970058,-0.13491751,-0.12017352,-0.09606442,-0.028839238,-0.08313752,-0.12683716,-0.020816177,0.114033125,-0.007518494,-0.021877306,0.091598004,0.10950767,0.008352084,-0.11681552,-0.16694255,0.042519826,-0.032245424,-0.09841951,-0.14724416,-0.107789904,-0.083303906,-0.20649637,-0.22418058,-0.11132917,-0.13956563,-0.14712492,-0.058013774,-0.13298276,-0.19490181,0.0161637,0.020423306,-0.069808066,0.0012513119,0.0907154,-0.025315423,-0.0030581504,0.008376957,-0.0027131133,0.1432168,0.032539155,-0.011033567,-0.009227835,-0.01862007,-0.073376,-0.030794907,-0.004390542,-0.048467867,-0.10979921,-0.14186734,-0.13873444,-0.09276809,-0.042876914,-0.107695684,-0.084689125,0.09480712,0.049464405,-0.07395228,-0.08398226,-0.05647824,-0.11983863,-0.012102935,-0.045886416,-0.07498489,0.1069196,-0.006237358,0.13096386,0.14627825,0.053826325,0.04929288,-0.0025598407,0.17651004,0.18355629,0.03717134,-0.055948596,0.021252105,0.037993398,0.047556695,-0.054567,0.031226784,0.07747655,-0.022365948,-0.03778749,0.017085148,0.022806976,-0.028588045,-0.047598623,-0.07529006,-0.099747874,-0.01801965,-0.009920616,-0.04976004,-0.05389162,0.0068977512,-0.020700345,0.005526462,-0.030554604,-0.07520537,-0.108199574,-0.057758357,0.14499542,0.048381627,-0.0076122726,-0.13674513,-0.14813821,0.011081541,-0.02870267,0.029715504,0.020544576,0.07137652,-0.011514868,-0.033328395,0.0012386246,0.04969293,0.021993432,-0.046856094,0.074606575,0.07723743,0.03165924,-0.04807342,-0.16196926,-0.06815753,-0.02281474,-0.010299042,-0.07053513,-0.18607013,-0.15887818,-0.11027385,-0.024217116,-0.091642976,-0.077337466,-0.096141085,0.09761538,0.19319315,0.0893637,-0.06430934,0.043415487,-0.006020267,-0.15443411,-0.11381534,-0.12204181,-0.09447349,-0.012443563,0.0255239,-0.024206173,0.018774226,-0.0051348475,-0.058887135,0.013035614,0.07798355,0.10111818,0.07398826,0.07847258,0.05506707,-0.029508568,-0.055424552,0.07116143,0.06076376,0.0649239,0.073223695,0.009540146,0.06474047,-0.015279955,0.019111129,0.08999092,0.07066127,0.0033386108,0.10475123,0.029856687,0.08289809,0.015370536,-0.032400884,0.044375036,0.07559451,0.105791256,0.0077221864,-0.023398928,0.004746471,-0.053763356,-0.035332162,-0.03232946,-0.0055596493,0.023662154,0.022452826,0.011837603,0.03189752,-0.014633898,0.057890967,0.0016553178,-0.052442275,0.03692364,-0.013326825,-0.04979976,0.068093024,-0.009399224,0.047028817,0.06776866,0.0927828,0.07293044,-0.0069952644,-0.057679776,0.020384796,0.04589353,0.0077455724,-0.06314667,-0.11873121,-0.10417835,-0.014849107,0.021723447,-0.18938251,-0.07823125,0.010887447,0.07431545,0.031990044,-0.033529744,-0.07521066,0.03736452,0.10416771,0.14426653,0.036628272,-0.05863381,-0.07281348,0.00056380173,0.0316941,-0.04163379,0.06553014,-0.026216678,-0.043321006,0.018152341,-0.08807678,0.033086732,0.040246498,-0.03809918,0.06828785,0.07782343,0.08297516,0.083896965,-0.059496835,0.0050907875,0.15887582,0.013300687,0.0069880616,0.028902968,0.14519836,0.065432124,-0.040851716,-0.03583003,0.017044485,0.021178352,-0.10518026,-0.10125386,-0.19269028,-0.19571437,-0.15855576,0.009422487,0.015073546,-0.12365782,0.024614729,0.001888154,-0.021419814,-0.00844175,-0.008737389,-0.017677663,0.0969001,-0.16324465,-0.082748026,0.0010380766,-0.025506018,0.1231516,-0.051628858,-0.06163753,-0.06196514,-0.15123808,-0.028338922,-0.103738345,-0.14867787,-0.11008014,-0.17041671,-0.042966437,-0.14370953,0.021754498,-0.0426922,-0.038863417,-0.10934763,-0.04523668,-0.08200071,-0.022719754,-0.037960082,-0.06665127,-0.06616515,-0.05540997,-0.009798014,0.11526628,0.20260322,0.03336063,0.026218675,0.022500286,0.0603751,0.073826015,-0.17214905,-0.03678092,-0.08531766,-0.0937692,-0.16823334,-0.20956104,-0.011839237,0.06341776,0.13351646,0.09804571,-0.06626824,-0.067342915,-0.049532592,0.011086746,-0.04839061,-0.07259387,0.05226115,-0.012577686,-0.027032878,0.09504563,0.10980667,-0.0300351,0.14645712,0.08958986,0.17983569,0.07782039,-0.11432203,0.033485044,0.09191273,0.21952415,0.2676973,-0.04191058,-0.015554004,0.014173447,0.008558181,-0.056197293,0.015995821,-0.108746506,-0.07397714,-0.07065157,-0.11411459,0.11787096,0.03782271,-0.085420325,-0.017593404,-0.009778774,0.030548317,0.020560775,-0.020949552,-0.04876961,-0.1135047,-0.011503332,-0.034806084,-0.027825113,-0.049249843,-0.15166688,0.037615307,-0.03330367,0.04473724,0.024720114,0.08267951,-0.052003626,0.023964664,-0.0012645319,0.044800054,0.11105351,0.027052192,0.0719819,0.020032585,0.116155416,0.14221846,-0.031970967,-0.083205834,-0.005545453,0.103548184,-0.029365765,-0.10892952,-0.06144049,-0.1368334,-0.1069911,-0.100134276,-0.0760661,-0.0039416696,0.015085188,-0.03211217,-0.08871604,0.028499428,0.041784916,0.0056810686,0.058053154,0.06121633,-0.049624015,0.05359215,0.0059542297,0.000999195,0.064063706,-0.10436324,-0.115368,-0.058311433,0.044778008,0.1800439,0.11928809,0.050387807,-0.1292314,-0.09148042,-0.04813408,0.019565566,-0.0854503,-0.018833756,-0.008386115,0.07880395,-0.053685233,-0.008431744,0.011429837,-0.01205803,0.024539448,-0.014903183,-0.091292374,-0.0645978,-0.007649882,0.015531889,-0.10861479,-0.031635772,-0.031732943,-0.033813316,0.04166532,-0.07921532,-0.024638457,-0.08909273,0.031994294,-0.043171436,-0.008735033,-0.0046099224,-0.066785894,-0.1023786,0.013465525,-0.034406107,-0.09562619,-0.048418887,-0.049710445,0.04604363,-0.026723705,-0.06187841,-0.0490046,-0.035134,0.04703493,-0.08712104,-0.03950408,0.03784586,-0.02105973,0.030207606,-0.07193703,0.001766065,0.0068123136,0.060115162,0.06158654,0.0156097105,0.11286921,0.033204693,0.08369935,0.14948124,-0.011429508,0.09531299,0.054393757,0.06654793,0.048405554,0.055712637,0.041458357,0.07667896,-0.018042762,-0.14439124,0.09789398,0.011658611,-0.01389721,-0.044773627,-0.09159547,0.09920922,-0.008050055,-0.025731843,0.043974217,0.004382168,0.053766266,-0.031041458,-0.037014,0.08287689,0.09502905,0.03414988,-0.07352686,0.1693829,0.033521693,0.18311141,-0.048484825,0.026493361,0.030957846,0.044844117,-0.027780816,-0.054296404,-0.0044410466,0.06566398,0.015996432,-0.10462371,-0.05630846,-0.042283934,-0.05206105,-0.063225664,-0.041584656,-0.11979792,-0.06588801,-0.057370864,0.07264817,0.19084057,-0.068042405,-0.005378889,0.0037684275,0.03317935,0.14831734,-0.10170533,0.020966457,-0.011243141,0.035296444,0.039654274,-0.08293433,0.058117297,-0.08028368,-0.027831415,-0.025339253,-0.10024547,0.019635217,-0.026387552,-0.13476811,-0.11304448,-0.015869781,-0.06683863,-0.09900496,-0.019436518,-0.023781667,-0.03436609,-0.041686703,-0.020070853,0.118109226,0.1395974,0.018699728,-0.0701654,0.032544713,0.08025289,0.044894475,-0.061566,-0.056603767,0.08774658,0.06536512,-0.076647945,0.020481994,0.030041985,0.00889186,0.05431135,-0.11622626,-0.08098561,-0.08624507,-0.024583155,-0.05543404,-0.059184182,-0.060218506,-0.06866307,0.0039319363,0.00038778147,0.0019161409,-0.010984816,0.023234503,-0.12355549,-0.17054638,-0.013263882,-0.1312271,-0.04994465,-0.06295408,0.014106422,0.11853752,-0.13602802,-0.06365744,0.023345722,0.12023219,0.19579042,-0.10451984,-0.13227683,-0.21209966,-0.1335652,-0.04809728,-0.037528265,-0.06615028,-0.07615169,-0.11796642,-0.07260008,-0.16987279,-0.062560014,-0.111425035,-0.026939817,-0.007768483,-0.104621515,-0.027644224,-0.08162686,0.011459604,-0.009191631,-0.13510925,-0.15349299,-0.089418806,-0.03865354,-0.06421052,0.14078529,0.028927088,-0.04731961,0.056703806,0.06147437,0.043873083,0.059988033,0.017961847,0.09241471,0.111178555,0.04818107,0.04325295,0.060032412,0.10468866,0.007851529,-0.009469258,0.002198211,-0.008424139,0.031188315,-0.058383137,0.032767396,0.08502719,0.027339332,-0.0063568773,0.041365497,-0.11998856,-0.086299196,-0.04263095,0.025738204,0.1302281,-0.12725872,-0.0868305,-0.09654949,-0.03629833,-0.06501868,-0.06075086,-0.062011536,-0.115777105,-0.08359631,-0.2292877,-0.05563445,-0.0649558,-0.06596328,-0.11125336,-0.07885979,0.013779921,0.0452605,-0.016511396,-0.0870106,-0.118410304,-0.0016482607,-0.020682365,-0.011604876,-0.038481183,-0.06848716,0.018240841,-0.04222962,-0.058613863,-0.09161245,-0.043853056,-0.0152461305,-0.032190282,-0.099618405,-0.015283677,-0.034105223,0.030871235,-0.00023460122,0.029844433,-0.009701374,-0.038311534,0.068284854,0.034544263,-0.0702479,-0.11129411,-0.13866468,0.0045635677,0.047729205,-0.018208971,0.04186184,0.031453114,0.06323586,-0.025381695,0.007830473,-0.030058214,-0.01883977,0.036213994,-0.027684053,-0.033330116,-0.031553477,0.01415826,-0.020539783,-0.068862386,-0.02716691,-0.06464151,0.009492362,-0.033636235,0.035909053,0.016463105,-0.0034706306,-0.037853867,-0.069331385,-0.0571981,-0.008579486,0.017848818,-0.09452685,-0.13360204,-0.05580779,-0.027393993,-0.059558235,-0.02111932,0.009295388,0.063403785,0.04587151,0.066626824,0.08026862,0.16417877,0.05703715,0.20849542,0.13716118,-0.061507527,-0.008709166,0.04630163,0.11862424,0.11251228,-0.12851174,0.0136594465,-0.046177134,0.008970661,-0.012849252,-0.006028414,0.037548874,-0.014478711,-0.07620485,-0.04452852,-0.06399609,-0.020623911,-0.0032564674,-0.06850523,0.026854848,0.022157703,0.028421964,-0.07949115,-0.009286863,0.021954928,0.18954471,0.11294782,0.040686805,0.038870662,0.026129032,0.012472696,-0.0056830165,0.025710914,0.12759764,0.093540154,0.032539867,-0.00706717,-0.004158342,-0.023222366,0.024263095,0.031131336,-0.04242251,-0.11913681,-0.046619512,0.057605956,-0.0033544279,-0.14903514,-0.12437275,-0.0022373907,0.042889573,0.051473282,0.00018821904,-0.015261548,0.011790304,0.074576594,-0.07282109,0.016558636,0.012486385,-0.030295255,-0.074328065,0.034551486,-0.10401519,-0.0065838043,-0.10740753,-0.08414309,0.012596684,0.00233984,-0.064773634,-0.090343066,-0.081890196,0.008007809,-0.010311403,-0.0007291199,-0.04665553,0.020212429,0.1283699,0.12404498,0.066888474,0.07532223,0.14387389,0.16926846,-0.056926474,-0.06294706,-0.042865142,0.023111312,-0.016077608,0.0067160325,0.019535054,-0.0011562242,0.07628517,-0.10540475,-0.035297327,-0.14449808,-0.03553469,-0.046396825,-0.15211025,-0.11789666,-0.08504582,0.004838657,-0.073624134,-0.0028324863,0.18250969,0.18419574,-0.13298249,-0.09102714,-0.13838878,0.011763908,-0.055675242,-0.048570037,0.016708454,0.026288027,0.04111562,-0.06318478,-0.08727708,-0.04990155,-0.031600025,-0.10381202,-0.121419296,-0.07465567,-0.095054194,0.0506717,-0.038988173,-0.060547993,-0.034812517,-0.08868314,-0.042015318,0.05002343,0.0649337,-0.009063621,-0.10547331,-0.114110775,0.02478036,0.080154456,0.040071204,-0.034311898,0.059134472,0.02289716,-0.009535637,0.022088412,-0.047162343,-0.04397913,0.0797292,-0.058592685,-0.021142252,0.03817797,-0.040934272,0.06734537,0.016116334,0.020313676,0.022200437,0.019500453,0.09539789,0.06397191,0.0025933972,0.012723397,0.06412062,-0.1284439,-0.07476596,-0.19082206,-0.052560665,-0.11726453,-0.072448194,-0.13101493,-0.13049118,-0.13072434,-0.048509147,-0.044037264,-0.09530929,-0.027892519,-0.032073867,0.09332109,0.10306924,0.054328855,0.10909817,0.113136336,0.10842684,0.03729855,-0.024808366,-0.07746836,-0.14335394,-0.15092096,-0.017139595,0.03182709,-0.08798236,-0.08052971,-0.07327156,0.039446887,-0.006714323,-0.103731744,-0.08371891,0.03536124,-0.009103224,-0.057868265,-0.063409895,-0.059622135,-0.019437453,-0.0040539163,-0.00091302855,-0.044181153,-0.0064940196,-0.007073469,-0.161605,-0.18506914,-0.13542469,-0.13365199,0.001408796,-0.02400575,0.015264872,-0.10804029,-0.040066775,0.013980826,-0.06708762,-0.08890922,-0.007299455,-0.05265408,0.012893446,0.022768853,0.021905972,-0.107403345,0.008327949,0.023030063,-0.022929339,-0.043460146,-0.011020464,-0.061803017,-0.046916295,-0.045983717,-0.061204292,-0.11341138,-0.089961305,0.05902375,0.07050941,-0.007143229,-0.03240713,0.008852147,0.08826087,0.10495587,0.024772424,-0.020343551,0.10792592,0.021135429,0.009149176,-0.07904894,0.049099084,0.07743704,0.12651888,-0.013913204,-0.07131699,0.010387894,0.07214734,0.09049355,0.04472344,0.09816202,0.11713356,-0.006119645,-0.035435885,0.07569437,0.025441427,0.057914585,-0.042109895,-0.018747177,0.011358939,0.08767489,0.011164093,-0.042257674,0.084122516,-0.0103625655,0.026668863,0.008440062,-0.009786648,-0.009595467,-0.001242414,0.009449693,-0.077206105,0.051094014,-0.002382358,-0.054207426,0.0020116132,0.03900392,-0.026007177,-0.07827594,0.05991996,0.0611119,0.05021458,0.021638604,0.02051511,0.09766919,0.021895768,-0.10324467,0.013681793,0.0587749,0.10664068,-0.044950433,-0.06121386,-0.043795116,0.016783357,0.053571206,0.016056739,-0.07684759,0.08393183,0.015466394,0.07674441,0.07027048,0.14877574,0.06728912,0.027948922,0.13626021,0.12460128,0.044811156,0.10216963,-0.07175961,0.19580652,0.100071646,0.098030545,0.026862727,-0.052075274,0.11518559,0.043416835,0.0003799979,-0.013548307,-0.0061048935,0.04252395,0.010336934,-0.02214022,0.016920932,0.008388697,-0.0019095886,-0.033713125,-0.061501205,0.02299644,-0.023932472,-0.08895183,-0.13057743,-0.09958371,-0.20269503,-0.110824965,-0.021061188,-0.049554795,-0.053949643,-0.030073691,-0.060078695,-0.028570112,-0.10306159,-0.12393162,-0.08107401,-0.02499151,-0.045651805,-0.060910583,-0.084684014,-0.07396809,0.014036955,-0.14738563,-0.13695386,-0.12673599,-0.05874579,-0.011303931,-0.0916161,-0.047014784,-0.11133756,-0.114256226,-0.022224233,-0.018487072,-0.104545325,-0.054082718,-0.11597226,-0.10804983,-0.05741971,-0.014115286,-0.121868245,-0.08167007,-0.08841786,-0.0072644423,-0.0607464,-0.11537513,-0.044820845,-0.015439032,-0.12340704,-0.084156014,-0.10951792,0.00946891,-0.026042257,0.06180544,0.07286263,0.09088219,0.08120352,0.0027081487,0.111479856,-0.004575714,0.05911752,0.07004671,0.051049333,0.07493645,-0.008430672,0.06620947,-0.05527523,-0.017589483,0.03700677,0.022441061,0.05711704,-0.041552514,-0.039726976,-0.043992102,-0.121811256,-0.06903391,-0.01247548,0.03306063,0.011465036,-0.03425963,-0.20959939,-0.15776989,0.014702769,0.09398927,-0.119685076,-0.026621984,-0.059129775,-0.06523086,-0.00803593,-0.12779564,-0.14071858,-0.041681632,-0.034047052,-0.08175395,-0.063469276,0.0061656176,-0.07710982,-0.022980032,-0.20153272,0.016320022,0.06589383,0.15800881,0.10750539,0.011997102,-0.1137313,-0.028184889,-0.05221727,-0.08894621,-0.026771067,-0.07304146,-0.11996936,-0.08158525,0.0513011,0.0069840075,-0.09376401,-0.09365487,-0.056747247,0.1136031,-0.08565664,-0.0634454,-0.0758332,-0.008431176,-0.019680148,0.017857805,-0.09569733,-0.012139192,-0.04918897,0.03914526,-0.082442954,-0.020074973,0.027199043,0.058765315,-0.006728331,-0.031695865,-5.6113044e-05,-0.07483663,0.0038975817,-0.02204845,-0.009440461,-0.08503013,-0.045096975,-0.01094986,0.0038156416,-0.052122872,-0.059037905,-0.05964906,-0.040018886,0.051366337,-0.061654355,-0.055414945,0.068596825,-0.06899055,-0.10173103,-0.09950113,0.03623184,0.057626814,0.01591526,-0.0661959,-0.0975786,0.046630993,0.15819314,0.015186673,0.13038453,-0.03129097,0.03813777,0.15985748,-0.0007291864,-0.00492195,-0.06294899,0.076639526,0.037641946,-0.08020899,-0.17785417,-0.10788149,-0.032919638,-0.04333779,-0.16164319,-0.027466407,-0.0358383,-0.01860434,-0.09761698,-0.03871794,0.10445163,0.05635035,-0.014635261,-0.07222296,0.0066925483,0.11603399,0.13131982,-0.02828416,0.09052598,0.103572644,0.01980431,0.037320137,0.0046532187,0.16593571,0.20001487,0.014731636,-0.11708772,-0.01939758,-0.016098028,-0.08158292,-0.03419555,0.018087085,-0.105985835,-0.026668863,0.11427455,0.1162611,0.021852735,-0.15800221,-0.0272439,0.037411492,0.027207224,-0.077579044,-0.016458103,0.1503432,0.06306098,0.03084179,-0.043465313,0.047880538,0.11590255,-0.06504273,-0.13611218,-0.14976674,-0.019780105,0.094134375,0.0083636455,-0.13610198,0.039953277,0.08775284,-0.10315721,-0.11730091,0.05098672,0.11337551,-0.0074532484,-0.047759656,-0.048783846,0.08369698,0.03203668,0.061284527,-0.0055508637,0.05411872,-0.013914036,0.13026218,0.017521938,0.12657163,0.06261333,0.013618882,0.105699815,0.012070044,0.07871291,0.05343883,-0.0746951,-0.13756827,-0.17331235,-0.13841097,0.01524904,-0.048992258,0.060693644,-0.15330918,-0.13006495,-0.079948425,-0.103110604,-0.0675216,-0.104291126,-0.059515167,-0.09535897,-0.019544635,-0.13376917,-0.1919086,-0.19810185,-0.1944709,0.006220933,-0.064699344,-0.20203707,-0.24612513,-0.12759802,-0.06270513,-0.09962952,-0.24230282,-0.2323262,-0.07027994,-0.00062969915,-0.007964738,-0.14314409,-0.16183776,-0.08446371,-0.05785103,-0.12912688,-0.09665662,-0.07061039,-0.052851792,-0.020745853,-0.042276092,-0.06313177,-0.006266459,-0.034498513,-0.10783972,-0.028127724,-0.04495759,0.13431899,0.10813345,0.050843764,0.08513272,0.09028182,0.029586125,-0.03348958,0.03295991,0.038794488,0.03385133,0.017883921,0.042371254,0.04545992,0.11896435,-0.018804993,0.08654269,0.012559493,0.09978122,0.04612063,0.03960625,0.09648762,0.103722215,0.068401635,0.03055274,0.06662717,0.0030793506,-0.01901801,-0.09953331,-0.13782863,-0.17034149,-0.06404465,-0.11900833,-0.154606,-0.03979623,-0.09336511,-0.12088911,-0.118382454,0.055771384,-0.037180282,-0.024699137,-0.033617795,0.19825745,0.16549323,0.0088096,-0.021164197,-0.05113177,-0.09230901,-0.044499528,0.05580668,-0.020703373,-0.08892428,0.022260418,0.17178597,-0.04622476,0.056796763,-0.07974785,-0.021351656,-0.07024159,0.014854096,-0.033823453,-0.02916638,-0.040972814,-0.10448827,-0.040110823,-0.03283758,-0.15186201,-0.100511216,-0.05915218,-0.07159363,-0.024416294,-0.07254639,-0.0885827,-0.014962119,-0.082994685,-0.069684535,-0.169411,-0.11438967,-0.054989092,-0.07136407,-0.011007776,-0.057107214,-0.06759643,0.011380962,-0.070034415,0.010349916,-0.0034621656,-0.050890528,-0.05804198,0.05340622,0.061511073,0.009766687,-0.07672665,-0.021069331,0.026739877,-0.072300225,-0.10250141,-0.01831893,-0.049487785,0.04353003,-0.025720807,-0.022678578,0.0080740135,-0.020640299,0.080191225,-0.058029026,-0.10791439,-0.020959023,0.049741287,0.044564653,0.043775912,-0.0409109,-0.008883166,0.1506039,0.14797163,0.0012550683,-0.111101046,0.12479195,0.14151226,0.13431267,-0.11225351,-0.08184816,0.102696694,0.09212335,0.03862771,-0.017140899,0.029967343,0.053169183,0.082829684,-0.034836233,-0.048903547,0.03304989,-0.11298668,-0.036495525,-0.069403365,-0.0316127,0.024918746,-0.00807032,0.03087667,0.040477492,-0.0034254314,0.061094906,-0.024420792,0.05651588,0.09606036,0.07430751,-0.011598878,-0.016831513,0.10049294,0.051602047,0.004155843,-0.077370964,0.027384091,0.09013506,0.11811771,0.056274313,-0.018624848,-0.0821271,-0.010645499,0.044327654,-0.08071904,-0.08435659,-0.034818616,0.06450449,0.08864334,0.07881909,-0.039541714,0.0051618153,0.13613582,0.13904724,0.09775889,-0.109359786,-0.02915981,0.13369128,0.16757843,0.12030578,-0.014210654,0.03138894,0.112748876,0.045710757,0.13122045,0.085019425,0.07302779,-0.00193203,0.1376578,0.12897338,0.07574677,0.034080625,-0.08102914,0.16311727,0.030150143,-0.007395746,-0.046593934,-0.0533991,0.083349064,0.049984656,0.040692206,-0.035752572,-0.049013622,0.0701878,0.015565422,0.042060044,0.025326716,0.01147279,-0.16169208,-0.045775708,-0.074079156,-0.1714976,-0.15580629,-0.032243457,0.028943583,0.06753279,-0.11150115,-0.091060884,-0.027586583,-0.048542514,-0.08010431,-0.07797991,-0.12595503,-0.10290536,-0.095988564,-0.067606956,-0.11982754,-0.13174562,-0.07101227,-0.11795596,-0.14535525,-0.1575113,-0.12561357,-0.08317067,-0.07345359,-0.014358239,-0.0809974,-0.1637813,-0.07496365,0.006497394,-0.0632063,-0.14688155,-0.14390366,-0.036994435,-0.051884264,-0.09872386,-0.07007465,-0.06831066,0.020986347,-0.06266909,-0.06990968,-0.13894999,-0.042939402,-0.06696217,-0.07754953,-0.02458346,-0.111673266,-0.023382733,-0.0032940437,-0.04315007,0.02986487,0.10511817,-0.05203278,0.037501346,0.0016007272,0.10661744,0.05672689,0.07142898,-0.009999563,-0.012895629,-0.024521593,-0.04387128,-0.008878474,0.06339276,0.09468624,0.009265163,-0.03120258,0.042948164,0.037482116,0.012930297,-0.024966879,0.019484742,0.056901958,0.08539685,-0.08861776,-0.18608107,-0.19203083,-0.14133993,-0.05477077,-0.12757207,-0.15767533,-0.07928509,-0.08212999,-0.00636984,-0.052534185,-0.13648254,-0.07908821,-0.017681623,-0.058495943,-0.023393642,-0.08609715,-0.009451523,-0.077854365,-0.20855702,-0.17888102,-0.15691088,-0.014323137,0.0077926894,-0.10638968,-0.10451205,-0.07370223,-0.025623888,0.0034331765,0.051176053,0.121930294,0.07003959,0.010072072,0.06765404,0.085991785,0.036612384,0.036849976,0.05629064,0.006406357,-0.12855668,-0.0060503343,0.085335456,0.026765417,0.11349256,-0.08526103,-0.039609306,-0.16764276,-0.059515607,-0.017053835,-0.01406844,-0.08661356,-0.08544818,-0.09851443,-0.03308793,-0.02004229,-0.07101275,0.06074714,0.06332624,0.04111058,0.04633696,0.04432296,0.05722554,0.12011102,-0.029122371,0.0677121,0.0025763484,0.0069587748,0.042072944,0.08192309,0.030331708,-0.013865557,-0.07291839,-0.07208348,0.001618384,0.018875021,-0.052580763,-0.044502206,0.09627104,-0.15111105,0.06588524,0.054583047,-0.029547544,-0.0639286,-0.08451311,-0.009726164,0.08040661,-0.05939624,-0.08977856,-0.13548572,-0.016838273,-0.04978034,-0.025200002,-0.06925856,-0.23294249,0.17284013,0.17758423,0.1917936,0.065899566,-0.040602066,-0.10058986,0.0064262445,0.07249944,0.12592912,0.09255745,0.05791368,0.036754783,0.020932376,0.13131647,0.14659469,-0.101567656,-0.031240458,-0.16105506,-0.0535171,-0.027263094,-0.15349679,-0.07887582,-0.09159755,-0.09422103,-0.007830478,-0.13619858,-0.13672388,-0.16038357,0.010628912,0.00464186,-0.05934407,-0.004606515,0.083751634,0.11730286,-0.14289133,-0.09056678,0.09361677,-0.0038290925,0.0026882256,-0.21539752,-0.06522569,0.09695728,-0.0069867168,-0.0045220884,0.015147922,-0.06287274,-0.118418284,-0.0880069,-0.015530383,0.0550459,-0.1692124,-0.15257144,-0.120659284,-0.07421319,-0.12510408,-0.05713441,-0.060665075,-0.023606924,0.10565839,0.062753975,-0.06593801,-0.012416129,-0.0050115245,0.085834414,0.12376535,0.0007446331,0.035488073,-0.06319476,-0.011673315,-0.041874636,-0.11714666,-0.16104567,-0.14701025,-0.08379117,-0.1458902,-0.018634401,-0.037641957,-0.18310502,-0.12087929,-0.03184715,0.036895454,-0.042504374,-0.21917951,-0.1186927,-0.04911627,0.019772287,0.014037912,-0.09119234,-0.10919443,0.038666677,0.12180839,0.05129414,-0.0051521077,0.1357502,-0.0025826623,0.121379964,0.15592334,0.23069905,0.06809511,-0.0157866,-0.021567773,0.10984063,0.10656018,0.050255,0.007847042,-0.042226646,-0.1599896,-0.11546726,-0.0007001266,-0.087549634,-0.016004339,0.060294803,-0.01534519,0.061457768,-0.048118938,0.028381085,-0.09408299,-0.009662301,0.09876623,0.040449355,0.0061905035,-0.03847965,-0.056290712,0.1251923,-0.03800798,-0.07814699,-0.14429322,-0.12331562,-0.088751845,-0.11846394,-0.03455284,-0.013171765,0.090654716,0.042893074,-0.019680597,-0.01103315,0.030518018,0.04393676,0.005428515,0.059752107,0.015425839,0.0118081365,-0.08256509,-0.0024748086,-0.004188346,-0.08318143,-0.13766357,-0.08785136,-0.0327604,0.023910174,-0.08546098,-0.042775325,-0.028799748,-0.047677465,0.07262283,0.0446949,-0.045287896,0.012358732,0.090397015,-0.06181126,0.004628012,-0.060462363,-0.16554892,0.006007623,0.10346046,-0.12857582,-0.06574732,0.056662444,0.1021919,0.017918902,-0.1125,-0.15326832,-0.12699962,0.03868792,0.041309055,0.18431206,0.09986413,0.020826655,0.033100165,-0.0991748,-0.00838311,-0.017417308,0.09381991,0.10200888,-0.048745457,-0.13287584,-0.11591517,-0.072443485,-0.03799697,-0.019412756,0.032455716,0.0101571595,0.108496815,0.035526752,0.0591467,-0.022386016,-0.047043253,0.08022724,0.075928055,0.0061076544,-0.10387362,0.04969716,0.18850301,0.10668066,0.026362171,-0.06850239,-0.03964519,-0.046346657,-0.03778358,-0.0072333175,0.019223908,-0.09152513,0.07546941,0.008191003,-0.010537857,-0.014687485,-0.090766765,-0.09389138,-0.079273194,0.029394636,0.09928281,0.094084285,-0.030589145,-0.017311113,-0.057829484,-0.008999811,-0.044071343,-0.005263488,0.050921768,-0.068586744,-0.011636719,0.021552833,-0.08367557,-0.12402473,-0.07794852,0.026240544,0.0476704,-0.04915109,-0.032935783,0.0024939245,-0.08561358,-0.10595049,-0.032496743,0.0057831085,0.13436082,-0.060492583,-0.1890829,0.029241115,0.14386018,-0.053091194,-0.016425999,-0.1331722,-0.02326257,-0.108248346,-0.110997215,0.10986685,0.023307098,0.114792466,0.046409223,-0.07702776,-0.028214438,0.09720003,0.015068064,-0.0049694595,-0.04090653,-0.03941053,0.036136024,-0.0066873897,0.13290223,-0.04308912,-0.10160847,-0.11414975,0.0048405,0.08289495,-0.0740745,0.031868666,0.0008225717,-0.03791852,-0.005376013,0.0030943118,-0.05535644,0.013477273,-0.04018297,-0.035517722,-0.030992808,-0.14634864,-0.054217096,-0.076703586,0.039406523,0.01859682,-0.11852824,0.07489782,-0.2089897,0.034714565,0.0058377655,0.046365123,0.041129,-0.046711676,0.011049738,0.11199298,0.086684145,0.08266885,-0.119140424,-0.10432626,-0.14402936,0.10495082,-0.029753089,-0.11381865,-0.017818177,-0.02504385,0.10765905,-0.005187602,0.001133262,-0.09846901,-0.006265232,-0.027773857,0.004451925,-0.12299014,-0.14076595,0.04541167,-0.13385557,-0.05612495,-0.09827063,0.08638759,0.081931055,-0.030124512,-0.057688966,-0.03278667,0.05111631,0.0077137696,-0.16996092,-0.01437343,-0.1250993,0.02958209,-0.002300805,-0.22881389,-0.13213456,-0.07121794,-0.04188616,0.06433597,-0.14375576,-0.090947434,-0.062283646,0.01290915,0.045695126,0.056662742,0.008456762,0.0010749174,0.0037622545,-0.03811514,-0.053208765,0.025958352,0.01083962,0.052935287,-0.018176055,-0.04014714,-0.037285686,0.088131905,-0.0015802837,0.08181101,-0.025766658,-0.08990876,0.020614486,-0.0018963909,-0.039857533,0.18089496,0.08529583,0.00042970065,0.019948898,-0.039276768,0.17895478,0.20494679,-0.030285355,-0.03525716,-0.04904271,0.07809744,0.060862888,-0.035756186,-0.14166111,-0.17762853,0.053162277,0.0711672,0.010426846,0.029732909,-0.0271421,-0.039376467,-0.019280927,-0.05624472,-0.060208187,0.004801439,-0.056840423,-0.087836064,-0.05539113,0.0060662306,-0.01802991,-0.12951456,-0.066026516,-0.10046847,0.042689346,0.06113666,-0.09049215,-0.0740314,0.050507367,0.03419644,0.027448554,0.097373635,0.038822185,0.13208918,0.03417197,0.011245173,-0.020882716,-0.102828026,-0.0291579,-0.13129058,-0.11986828,0.008948376,0.02910052,0.08250079,0.103560634,0.1677674,-0.084056355,-0.0023317502,0.11243824,0.1689589,0.12817067,-0.018601786,-0.030420937,-0.080999956,-0.113072485,-0.14739242