0.11726056,-0.017043568,-0.44636735,-0.065041944,0.18777773,-0.029277483,0.08041502,0.25829452,0.20208924,0.06791884,0.21572323,0.19400641,0.08811777,-0.060888536,0.06376531,-0.041150995,-0.19078963,0.10702119,0.13858311,-0.14837131,-0.29817578,-0.19120489,-0.33945686,-0.2952036,-0.25960267,0.19401453,-0.05029903,0.20576476,0.023784513,0.25909117,-0.11042202,-0.18104728,-0.12142376,0.01922366,0.07162744,-0.0959427,-0.18660957,-0.15549974,-0.19700204,0.14590012,-0.08911258,-0.13645375,-0.047322083,-0.2299964,-0.09972838,-0.02374081,0.057775594,0.063744605,0.03419638,-0.060972556,0.0077735465,-0.16975,-0.23323248,-0.30863422,-0.091248915,-0.19659121,-0.025335085,-0.3260257,0.009057446,0.054688472,-0.24414815,-0.18337798,-0.15354994,0.021507232,0.16733976,0.038974524,-0.02461923,-0.018946886,-0.08447689,0.226488,-0.15863426,-0.13680835,0.067502886,0.18559976,0.3238486,-0.2342787,-0.19423036,-0.07371696,0.12083395,0.07553153,-0.17945999,-0.048858248,0.2834195,0.28798914,-0.26631448,-0.19745103,0.06759929,0.39275184,-0.08714227,-0.29134327,-0.0010886722,0.21070972,0.011357508,-0.23279196,-0.15802442,-0.032172,0.003664662,-0.1506887,0.009067153,-0.07333268,-0.14928362,-0.0071204915,0.2280001,0.18204068,-0.08516211,-0.3410931,-0.25501576,0.03142782,0.1718443,0.16185452,-0.33110127,-0.0885811,-0.003495643,0.23476456,0.014710136,-0.16876078,0.06624461,-0.19509369,0.27351508,-0.012279169,0.010067739,-0.18413445,-0.08309813,0.29038,-0.057138827,0.1260621,0.17680293,0.17097981,-0.022035947,0.08946681,0.17550413,0.0031658367,-0.1512087,-0.11855589,-0.2606396,0.20448509,0.114048645,0.023464618,-0.014846373,-0.24322134,-0.14458531,0.13800341,-0.13836879,-0.17438519,-0.19506153,0.031128721,0.15261997,0.001709919,-0.032464493,-0.26991877,0.013847447,0.1215889,0.21373546,0.1549588,0.2772133,-0.058423728,0.18764415,0.35385156,0.23000066,0.24833937,-0.34346247,-0.24238285,-0.14647344,-0.10735609,-0.29839256,-0.35881883,-0.4110749,-0.3424917,-0.32413018,-0.39003843,0.22267464,-0.036639325,-0.2532997,-0.14171337,-0.014530122,0.098594174,0.16823225,0.020220464,-0.107560955,-0.507438,-0.024418028,0.029876271,0.21641822,0.49480543,0.14474761,-0.10860039,-0.24941394,-0.045086138,0.35841998,0.3324891,0.11694095,0.051456135,-0.28246695,-0.048942126,0.2910234,0.08108267,-0.010657655,-0.3067993,-0.20968288,0.015286903,-0.18370055,-0.029377509,0.27727503,0.023872785,-0.38662493,-0.037608318,0.34283927,0.16710895,-0.18048276,-0.3230589,0.17389882,0.03777347,-0.1463352,-0.10398544,-0.17466018,-0.07544081,0.029801808,-0.087207854,-0.27464443,-0.05961026,-0.16998076,-0.08870051,-0.15634699,-0.08798043,0.0659383,0.04924314,0.01858186,-0.20244402,-0.29319996,-0.15365694,0.022338053,-0.24944428,-0.09312508,-0.18476564,-0.05429085,-0.2667305,-0.011141786,0.36671117,0.3103824,0.18255958,0.08150503,0.33057192,0.3744416,0.17855065,0.08480634,0.18003707,-0.1797863,-0.3844042,-0.18908338,0.075797014