-0.046313364,-0.046857584,-0.016501402,-0.12637565,0.095339864,-0.12833752,0.09106162,-0.20093578,-0.13975193,0.05553196,-0.2725794,0.13235234,-0.19655086,-0.092705935,-0.02113896,-0.07599816,-0.19753087,0.025715154,-0.23169401,-0.20217386,0.36154085,0.2312478,-0.09642834,-0.10783886,0.026516065,-0.073323846,0.1543177,0.2532953,0.1561631,-0.027945235,0.08856317,0.072098635,0.13470547,0.2711517,0.21820205,-0.3205537,-0.27516982,-0.07985872,0.22991069,0.41535017,-0.17010812,-0.13864468,-0.27907225,-0.24970177,0.09573587,-0.16130859,-0.14353915,-0.21691284,-0.44126374,-0.22324641,-0.08968035,-0.013106312,0.03491919,0.17835653,-0.069388755,-0.02108318,-0.19042864,0.020526359,-0.14840935,-0.29872313,-0.06670746,-0.119504765,-0.04635414,-0.25571945,-0.22114699,0.101625,-0.04501218,-0.09621676,-0.10881685,0.18412034,0.14390814,0.07861454,-0.12892091,0.19703247,0.22085795,0.011672011,-0.0006684362,-0.10866141,0.17231295,-0.11820114,0.04535304,-0.016562955,-0.07513803,-0.10347708,-0.10749072,0.25701645,0.03663067,-0.31914708,-0.17576028,-0.2185745,0.26656514,0.24483362,-0.08080415,-0.21287613,-0.22761816,-0.061800793,0.3853783,0.041875895,-0.088925466,-0.2508847,-0.03959031,0.21605,0.4755592,0.35701755,0.2869936,-0.33391896,-0.014979503,0.075016305,-0.06351088,-0.30850935,-0.18515287,-0.26312602,-0.33767164,-0.13434114,-0.3173741,-0.20950924,-0.025649378,-0.2726911,-0.3522225,-0.17940043,-0.19741088,-0.06744021,-0.17463675,0.17334057,0.09676237,-0.3373813,-0.14782304,-0.23433197,-0.2718053,-0.11057543,-0.17544986,-0.21566267,-0.21187784,-0.23712482,-0.27154008,0.15084791,0.0985169,0.038560417,0.0031525686,0.021702431,0.2079353,0.044898275,0.31221095,0.16832964,0.19928557,-0.25512177,0.056795307,0.07533967,-0.058854237,0.06638874,0.10605716,-0.05114513,0.0014130962,0.22825126,0.024768118,-0.14931493,-0.20104223,0.060412124,0.05726497,0.16519071,-0.21445215,-0.10471804,-0.071110785,0.21001175,0.087717034,-0.2244207,-0.08616928,0.111943595,0.053458262,0.14173898,-0.21220471,-0.104922146,0.083721116,0.2149284,0.011790643,-0.08879706,-0.29508302,-0.21499859,-0.019096786,0.17788012,-0.11379154,-0.13548803,-0.22407123,-0.061864514,0.21398623,-0.118593715,-0.30626968,-0.13735822,-0.1286366,0.25019902,-0.1661478,-0.21163864,-0.14918208,-0.10462044,0.25181928,-0.055283334,-0.15687509,-0.3111344,-0.11672503,0.37952593,0.17667724,0.08843259,-0.4978487,-0.2651335,0.22344407,0.19503218,0.21285157,-0.08356408,-0.5140367,0.0075789355,-0.25586656,-0.06451511,0.0371036,0.12067604,0.09658818,-0.17409521,0.23678327,0.22758834,0.2182569,0.016535625,0.25568786,-0.097792335,-0.043054618,-0.13852833,0.04524858,-0.08838639,-0.004955659,0.10088049,0.078313984,0.12610666,-0.17664808,0.18024875,0.24508594,-0.09797101,-0.106912166,0.12872088,0.25192106,-0.05144265,0.036814857,-0.2206824,0.09396284,0.10278477,-0.10554447,-0.12641878,-0.28294447,-0.022837717,-0.09272041,-0.06487336,-0.120279014,-0.1332369