-0.002353939,0.0028533603,0.08021403,-0.017435642,-0.080725305,-0.02638165,0.0361888,-0.07499739,0.041372333,0.04309117,-0.0040158043,-0.033488687,-0.051369138,0.059317864,-0.07402431,-0.0816951,0.040155884,0.011248315,0.021298338,-0.0038580797,-0.053678833,-0.02921358,-0.03367485,0.020648537,0.07028933,-0.18180437,-0.22954577,-0.14327367,0.0035604124,0.058158543,-0.18497206,-0.21787421,-0.06571848,-0.16596857,-0.12523249,-0.19138464,-0.23404483,-0.08679128,-0.18865904,-0.23536809,-0.22915702,-0.2127043,-0.13586873,-0.104751915,-0.20127666,-0.261231,-0.17221089,-0.25299934,-0.18369421,-0.12253739,-0.056301475,-0.020301351,0.0905609,0.0008879804,-0.05504621,-0.024709743,0.044338368,-0.039057758,-0.017851979,-0.034572553,0.044492118,-0.018539023,-0.11751228,-0.05255638,0.022179898,-0.032186583,-0.09611073,-0.037689365,0.021185769,-0.02830874,-0.06629542,-0.019532723,-0.0524245,0.102328315,0.07742975,-0.1368675,-0.044555448,0.120463856,0.0029853932,0.0650938,-0.053365935,-0.01682871,0.093729064,0.042556264,0.0040236404,-0.007203845,0.027996304,-0.014251966,0.11829723,-0.0060333097,-0.124045506,-0.06586023,0.10236901,0.019284952,-0.081576005,0.008107803,-0.1108153,0.039645992,-0.06824665,-0.009629916,-0.036315206,-0.13244171,-0.04918432,0.03314005,0.060941204,-0.15910725,-0.07039969,-0.07228778,-0.031322993,0.024578117,-0.091480464,-0.07146473,-0.024444401,0.027024623,-0.07324747,-0.10783339,-0.060247503,0.0034524282,-0.047484845,-0.07763469,-0.016858958,-0.045230545,-0.00097649277,-0.064719856,-0.0900243,-0.1710947,-0.08090231,0.00017542369,0.046852954,-0.11955363,-0.17526291,0.014785282,0.030050697,-0.120094776,-0.16210008,-0.036496002,0.018467741,-0.039741118,-0.11360994,-0.065613635,0.04422315,0.027450118,-0.21660326,-0.11300376,0.049537852,0.019764626,-0.121012226,-0.11299171,-0.014470547,0.099452406,0.060122542,0.046847105,0.012503496,0.072311774,0.13478579,0.027294572,-0.002874458,0.09161891,0.018538976,-0.003443212,0.1550782,0.053419597,0.0284592,-0.08136214,-0.026594177,0.12881382,0.008960721,-0.10094289,-0.09878321,-0.048073016,0.068235524,-0.054151427,-0.19283856,0.039481346,0.07391265,0.18648937,0.06538785,0.11745448,0.13425581,0.055357926,0.18444058,0.04535255,0.03699094,0.09047935,0.08050143,0.15360048,0.045425486,-0.030240083,0.019991118,-0.03499743,0.08156399,0.032353446,0.010272914,0.0647406,0.012081791,0.18618862,-0.07526676,-0.059741415,-0.034880817,-0.031191846,-0.2764521,-0.08951197,-0.1368575,0.014871449,-0.15391839,-0.1659251,-0.09253396,-0.124335326,-0.06521855,-0.17874013,-0.16498643,-0.045106206,0.034766685,-0.14301166,-0.13249063,0.021586021,0.019118862,-0.06762965,-0.058946162,-0.08671276,-0.010834498,-0.098003075,-0.023160461,0.13890743,0.044709496,-0.11315336,-0.071171455,-0.019912565,-0.048946206,0.04467026,-0.18652695,0.0044374866,0.00963649,0.04478703,0.06976278,-0.1971656,0.05219931,-0.009963078,0.01525962,-0.06716677,-0.07312045,0.01327592,0.11845452,-0.01649194,-0.24917227,0.060495123,0.04504847,0.05675152,-0.16876404,-0.16979143,0.017348582,0.0021081606,0.05422255,0.05923814,-0.08442399,0.010144925,-0.037684146,0.02985904,-0.027235694,-0.003384645,-0.0054499405,0.0027037896,-0.018833008,-0.032148022,-0.05027581,-0.047337368,0.03270405,-0.006956493,0.03878985,-0.054502524,-0.047649927,-0.01912086,0.029699348,0.061266426,0.08215577,-0.14586765,0.00061900134,0.16018812,-0.013496382,-0.17829958,-0.15611327,-0.10196468,0.020849936,-0.03685252,-0.14669219,-0.12681146,-0.11127242,-0.117005266,-0.014049479,-0.031687483,-0.16718556,-0.13226207,-0.1430009,0.0062561007,0.0038232496,-0.2175611,-0.070753686,-0.0929599,-0.20985912,-0.21143079,-0.04145155,-0.13404427,-0.07351406,-0.021670757,-0.06757712,0.032105234,-0.06082565,0.026033595,-0.0580504,-0.042905647,-0.027077176,0.016809247,-0.072393544,-0.07353503,0.02245024,0.031727985,-0.078161344,-0.05828898,-0.117040366,0.025898498,-0.058370333,-0.055371344,-0.050320435,0.006823822,0.036270246,-0.048289713,-0.12895627,-0.051344752,0.018301805,-0.057727784,-0.031781077,-0.09132138,0.054115806,0.052854445,0.0061710663,0.002753322,-0.07666155,0.10631763,0.033532564,-0.03541886,-0.09054373,0.05445051,-0.0056972983,0.049394898,-0.08268935,-0.019908177,0.06499964,0.08550422,0.10757128,0.06122262,0.0070728566,0.050103225,-0.032150973,-0.065835506,-0.10016907,-0.028638177,-0.118734,-0.08889281,-0.11893067,-0.073416136,-0.020507846,-0.08228355,0.018416254,-0.009448016,-0.10304995,-0.05286641,-0.064366706,-0.07523106,-0.068981715,-0.12416688,-0.049969517,-0.042727467,-0.06426282,-0.15298153,-0.1066244,-0.08611569,-0.09176049,-0.23743999,-0.028250858,-0.037022684,-0.09898967,-0.09682214,-0.040176775,0.006602783,-0.1104563,-0.09037614,0.023113888,0.05687478,-0.036053587,-0.11495374,-0.061955027,0.07383188,-0.0781942,-0.23984909,-0.18415159,-0.1107522,-0.10652546,-0.13601124,-0.03827875,0.013714939,-0.058115244,0.052826256,0.056940477,-0.13195853,0.0443592,-0.045479435,0.13391955,0.12841421,0.019153146,-0.03248486,0.06453967,0.13330145,0.0719032,-0.04458784,-0.12894978,0.13360855,0.061272055,-0.005638335,-0.029078564,-0.046250053,0.12039266,-0.02183343,0.050933193,-0.059671257,0.038702462,0.017057942,0.13931838,-0.03946339,0.06581408,0.09897502,0.07109357,0.0324306,0.10406435,-0.0310891,0.0573441,0.18792929,0.15978979,0.07703222,0.0031000841,0.0031821167,0.21744117,0.13304162,0.087674625,0.022069704,0.10851801,0.042275645,0.17864218,0.05280428,0.018900082,0.03268831,-0.13011791,-0.13080001,-0.06063288,-0.03351282,-0.06660131,-0.14089851,-0.1067732,-0.05071602,-0.005636015,-0.1118195,-0.079559736,-0.056874152,0.069071464,-0.07647587,-0.1152868,-0.07545035,-0.06091765,-0.0969613,-0.07873959,-0.07790441,-0.011079237,-0.11000765,-0.11504175,0.1505059,0.06191378,-0.08272571,-0.16725767,-0.032739677,0.026412023,-0.014919429,-0.018875606,-0.12545088,-0.03272684,-0.008566017,0.0819263,-0.13239384,-0.047300704,0.17841303,0.064515084,0.025496038,-0.18312836,0.09714496,0.093233444,0.13429807,-0.1247832,-0.038279284,-0.022976918,0.047474146,-0.09800139,-0.12999116,0.04774819,-0.037626397,-0.09395417,-0.0063575665,-0.036811553,-0.012852984,0.09405008,-0.005126495,-0.015229147,0.038174115,-0.09895789,-0.03818305,0.029259818,-0.04710347,0.022008695,0.036121864,0.02915916,0.10332577,0.07735425,-0.08487438,0.07100079,0.024215883,0.020326583,-0.0007008054,0.042938534,0.14159645,0.0059366333,-0.11918957,-0.18505782,-0.20117736,-0.05524446,0.03311886,-0.07159548,-0.07967626,0.03194753,0.2214694,0.033144582,-0.10021999,0.030902172,0.15957949,0.042789318,0.16763085,0.16989082,0.07865639,0.014043388,-0.070829384,-0.08184879,-0.0020422793,-0.10926948,-0.15570323,0.067741685,-0.0019640638,-0.09647711,0.052902672,0.011431918,0.06647277,-0.002471666,0.037359282,0.04168609,0.022648538,0.08733937,0.046091393,-0.008038933,0.048152838,0.01891235,0.036683455,0.020852135,0.00053762074,0.043151435,-0.07110424,-0.0067964527,0.11733454,0.068939224,0.14003314,0.0356804,-0.11870273,-0.10296101,0.066908434,0.047856692,0.048227992,-0.066853024,0.020024326,0.17756854,0.1000415,-0.02392514,-0.13979423,-0.030061804,0.049786285,0.05106189,0.020171246,0.0019931498,0.044695582,-0.14286503,-0.14382118,-0.20495683,-0.040117074,0.13060074,0.14533083,-0.0021909,-0.20260331,0.09111694,-0.07318866,-0.10934148,-0.060152866,0.020800967,-0.011824271,-0.03953706,-0.14175215,-0.051907748,-0.068897575,0.07698587,0.12834251,0.023187365,0.07699946,0.18795396,0.03890509,0.06939985,-0.0028931422,0.11896598,0.14994583,-0.0060453285,0.11629329,0.2668835,0.20950444,0.08529816,-0.07809186,-0.10380005,-0.076896854,-0.033623353,-0.10953286,-0.019082027,-0.033162996,-0.07928554,-0.039298724,0.081176594,-0.014073336,0.1312899,0.06970132,0.07184028,0.04060128,0.048713632,-0.04797583,0.033751845,0.03217708,0.043821994,0.16361146,0.035041742,0.14648537,0.13356018,0.14224325,-0.060003545,0.056612473,-0.010133023,0.020440463,-0.20866624,-0.0816275,0.09925193,0.10076508,-0.05136347,-0.14757964,-0.15000404,0.011922093,0.073350325,0.029947162,-0.036175415,-0.17603661,-0.0814139,-0.1314761,-0.15287936,-0.1390481,-0.22620422,-0.17217682,-0.15835689,-0.15441489,-0.15652527,0.06651157,-0.01579887,0.036980778,-0.05290804,-0.16561355,-0.0074831927,0.042168602,0.14343093,0.09309945,-0.017810278,-0.0664446,-0.029022042,0.11518562,0.0024425709,-0.026725762,-0.099673375,-0.10615179,-0.021073133,-0.099928804,-0.2183844,-0.20041203,0.00036849425,-0.085387796,-0.08887704,-0.23951083,-0.088561945,-0.081242315,-0.0389769,-0.10370109,-0.104602955,0.046468526,-0.044733386,-0.014345663,-0.031681053,0.03310459,0.035920847,-0.06026196,-0.107047245,-0.11595135,0.00867981,0.031698823,-0.11865178,-0.12863605,-0.14994648,-0.063120134,0.048100296,-0.044440947,-0.11136633,-0.008846433,-0.14957489,-0.0034385798,-0.07803547,0.08763011,0.11999841,0.105295025,-0.034057487,0.16646715,0.19907378,0.06827178,0.009463188,-0.041028395,0.011044143,0.015395925,-0.021714993,-0.085948214,-0.07267694,-0.194146,-0.066712305,-0.08032471,-0.17245959,-0.21690173,-0.061274283,-0.051451996,-0.13013372,-0.052255467,-0.025394872,-0.1336068,0.009309876,-0.08140801,0.051386837,0.02227754,2.4202513e-05,0.06136742,0.099909715,0.1190538,0.004829449,0.081737116,0.0071036434,0.06446765,-0.022251215,0.03107162,0.008062561,-0.011016844,-0.019103989,-0.073515676,0.044765882,-0.06863226,0.007045443,0.0041216896,-0.012507243,-0.12868334,-0.20417905,0.008227882,0.14386533,0.00904125,-0.18472883,-0.120732464,0.012599136,-0.06274265,-0.061491776,-0.004494202,-0.10147198,-0.030623127,-0.031193119,-0.08756235,0.017028645,-0.10350726,0.05256296,-0.028837578,-0.052184902,0.05265003,0.22955999,0.0801039,-0.12638551,-0.14712168,0.014015343,0.04020839,-0.021056002,-0.06977243,-0.095715255,0.09632235,-0.06512518,-0.004496357,0.034987535,0.07949232,-0.019674486,0.096976124,0.0118617155,0.03464953,0.0005933303,-0.016786633,0.08391299,0.14852983,0.041587487,-0.050031774,-0.02610094,-0.05298882,-0.097031556,-0.07024011,-0.06445093,-0.017201886,-0.15936065,-0.061690178,0.013738634,0.11992623,0.032795805,-0.07995131,-0.05689825,-0.028357832,0.1673585,-0.027241629,-0.018423947,-0.14483461,-0.016107423,0.1345192,-0.053815283,0.0446035,-0.057962943,-0.087073974,-0.17200762,-0.02821073,-0.04965875,-0.20249131,-0.13126749,-0.032231484,-0.11488249,-0.0628941,-0.02647662,-0.043087937,0.06508401,-0.076380834,-0.046943672,-0.07814933,-0.011045587,-0.08830827,-0.12508585,-0.050550543,-0.10362412,0.0282225,0.0035752133,-0.0077741505,0.11833045,0.16813324,0.075227275,-0.008419803,-0.023340397,0.114084594,0.08420285,0.008101063,0.08282833,0.015531795,0.015799152,0.08952752,0.08009311,-0.06513771,0.03126805,-0.07030665,-0.19690824,-0.12378115,-0.0764062,-0.13036118,-0.105597086,0.107744835,0.09331436,0.08880012,-0.07409872,0.108072706,0.13942505,-0.0066206297,-0.067072526,-0.07523408,-0.12584706,-0.0031679124,-0.007243633,-0.054173928,0.03251868,-0.069116354,-0.11880605,-0.044165526,-0.06840953,0.118093155,-0.06683355,-0.049404446,-0.012480664,0.015352603,0.0680198,-0.07274929,-0.1097638,-0.029797556,0.046433117,0.06621563,0.015374239,0.0030229113,-0.076140285,-0.05876271,-0.025762295,-0.12393551,-0.0054879053,-0.007821501,-0.0045656753,0.04385568,-0.1060915,-0.2120392,-0.07957153,-0.051692925,0.0682113,-0.17597693,-0.18728632,0.005419107,-0.007076554,0.048644282,-0.055860072,-0.07659509,-0.026603596,0.008468119,0.035664715,-0.11591219,-0.19764495,-0.2018089,-0.07604459,-0.003697728,0.0067976573,-0.052942183,-0.07315303,0.026289945,-0.053065006,0.013563796,0.08391449,-0.052774426,-0.1562558,-0.04359862,-0.032586034,-0.040456433,0.12462983,-0.041545946,-0.055850368,0.061858136,0.16056766,-0.027422624,0.019734532,-0.017264215,0.09412174,0.1032105,0.028137203,0.037073437,-0.08640717,-0.1783233,-0.21156597,-0.13121495,-0.18014592,0.06385951,0.123077795,0.011778749,0.0008723827,-0.039285935,0.020253552,0.05145614,-0.05751595,-0.18408747,-0.0334227,-0.040323142,-0.025960773,-0.11207596,0.09219338,0.09602406,-0.066968195,-0.016799396,0.023190496,-0.0019129214,0.09201701,-0.08771104,-0.06374124,-0.00823284,0.06254286,0.09204098,-0.10254432,-0.039487224,0.0015540237,0.06286496,-0.026478723,-0.053658616,0.06656024,0.026519539,-0.012615802,0.048463598,-0.08407029,0.021025812,-0.06880858,-0.0573058,-0.07533732,-0.022223122,-0.07330376,-0.04549226,0.008697584,0.039747383,-0.07251712,-0.05889491,0.08331115,0.02425725,0.018053256,0.014548439,0.028470691,0.053238023,0.016436784,0.04722427,0.109639764,-0.03776761,-0.040540967,0.030915404,0.0674149,-0.058209635,-0.09255544,-0.03382783,-0.0010311329,0.14428711,-0.053292833,0.031386618,-0.070342205,-0.01403929,0.1035201,0.15559636,0.07798407,-0.071711764,-0.113105856,0.07366538,0.004530629,-0.021556595,0.019543363,-0.011943164,-0.04987905,-0.034013905,-0.13444856,-0.009045236,-0.11296441,-0.030205417,0.009790606,-0.010452064,-0.08772127,-0.064015314,0.008950119,0.05943185,-0.09844081,-0.071482696,-0.11177417,-0.1185832,-0.0010923917,-0.020176277,-0.027676802,-0.04701805,-0.09249563,0.015714487,0.09925413,0.18401474,-0.0067409626,-0.08206633,-0.01910847,-0.029418906,0.08879416,0.04662665,-0.030936247,-0.1509763,-0.10058249,0.08107277,0.094936736,0.04308922,-0.0668926,-0.10330733,0.013729939,0.029795734,-0.037605442,-0.045535196,-0.13302891,0.0014501413,0.05868633,0.00898712,0.0457424,0.056823023,0.013597065,-0.10271532,-0.08132636,-0.09967577,-0.042690273,-0.15462448,-0.05348311,-0.03938027,-0.06717563,-0.055537194,-0.08017842,-0.060820773,0.002147657,-0.0045220186,0.051193286,0.011524619,-0.12918524,-0.07607556,0.087384544,-0.026719203,-0.030675368,-0.065991186,-0.006794622,0.153877,0.16017215,0.18165568,0.02086745,0.06415223,-0.03561484,-0.055232707,-0.10002733,-0.109685756,-0.07951192,-0.1446882,-0.12799138,-0.21442218,-0.21393931,-0.09536923,0.008282693,-0.14644054,-0.21057285,-0.09658992,-0.09997932,-0.057190135,-0.102110595,-0.14986052,-0.10505466,-0.13279624,-0.1774983,-0.057951767,-0.16040964,-0.12424214,-0.041942928,-0.0020935088,0.11854182,0.049265478,-0.060955703,0.011117902,0.008264979,0.124651656,0.020773426,-0.038504623,0.28607625,-0.24814744,-0.08741076,-0.06598851,0.032625213,0.2344132,-0.18205266,-0.013564138,-0.048025567,0.04332976,0.22785473,-0.22877015,-0.13153966,-0.05104274,-0.11115013,0.016552363,-0.04353892,-0.04219589,-0.06288373,-0.09354128,-0.05047037,-0.06742291,-0.013968406,-0.1372182,-0.10243185,0.15681049,-0.15036616,-0.21904625,-0.07395997,-0.015116724,0.20543265,-0.14729512,-0.102235995,0.017785681,0.045767795,0.18925294,0.08190769,0.03234461,0.037124168,-0.014188665,0.09615313,0.06464693,0.06296376,0.033881553,0.122174226,0.05908986,0.20426553,0.08338595,-0.019707413,-0.09268845,0.017721677,0.22967596,-0.024266388,-0.046764597,-0.040975466,0.010368962,-0.09088208,-0.17569917,-0.012607809,-0.10780886,-0.13480125,0.037033815,-0.060826242,-0.18062645,-0.25180575,-0.13480984,0.0101639135,-0.074705474,-0.06847824,-0.033755545,-0.14261954,-0.043656524,0.023470711,0.11158482,0.19894165,-0.17319192,0.05255346,0.13572633,0.054814354,-0.0006755117,-0.13252519,0.10663246,-0.03677149,-0.0364304,-0.12956354,-0.017619736,-0.08746181,0.0012804841,0.03272374,0.14863195,0.09964181,0.014796929,-0.014066779,0.105618894,0.07089699,0.05825901,-0.10396356,0.018409168,-0.038534053,0.061014224,0.056648146,-0.07309069,0.042805854,0.0035468668,0.03604093,0.029141001,-0.014797839,0.02449302,-0.03635374,-0.056165554,-0.016384473,-0.08982819,-0.11830808,0.05637377,0.010430711,-0.05697112,-0.16861315,-0.11688715,0.16569863,0.13046034,0.09210454,-0.106437676,0.05973676,0.26434794,0.12386816,-0.02771957,-0.064778246,0.13424218,-0.0078303525,-0.084918685,-0.25509295,-0.24554586,-0.07137333,-0.05148499,0.05053086,0.03619479,-0.01733763,-0.048553936,0.011296353,0.09229383,0.11703563,0.07973034,0.03445851,0.11325289,0.09849818,0.07456217,0.086680435,0.08639103,0.04201563,0.017699236,0.06558139,0.0145256,-0.022693345,0.05044719,0.022830473,0.04690268,-0.08262869,0.054340962,-0.057006467,0.05849119,0.057779636,-0.080128424,-0.038465988,0.06550146,-0.049545456,-0.09732224,-0.12957966,-0.122347586,0.081006505,0.10010859,-0.09310003,-0.20583045,-0.065619595,0.04088956,0.05960965,-0.06787149,0.054903902,-0.08974083,-0.09794463,-0.0009518395,-0.12407763,-0.01176037,0.0065503414,0.06056311,0.037044987,-0.099947326,0.069569536,0.008874392,-0.059654813,-0.028213486,-0.035030756,-0.050314333,-0.053547915,-0.04433497,0.06900245,0.1166241,0.015402371,0.07295923,0.1341681,0.22443342,0.13375907,0.07023088,0.146986,0.16210209,-0.025446584,-0.05460392,-0.06297235,-0.018647289,0.037981067,0.16962616,0.16404003,-0.055580907,-0.02808696,-0.14072758,-0.09207441,0.012343594,-0.09885136,0.07276013,0.13909519,0.11764635,0.105452515,0.09719855,0.18028918,0.13765948,0.051733956,-0.061570875,0.026211575,-0.0056750453,0.09394226,0.12007467,0.0474585,-0.029975632,-0.12310974,-0.066947706,0.03624792,-0.020270457,-0.05417271,-0.099840865,-0.05799491,-0.045983963,-0.06857962,-0.10460546,-0.11356572,-0.04750473,-0.069929644,-0.035371862,-0.118090205,-0.23255487,-0.1332605,-0.07623674,0.012068681,-0.10025498,-0.18088746,-0.036151968,-0.03468432,-0.07550757,-0.22666372,-0.09860592,-0.031159718,-0.017129214,-0.14763197,-0.021157047,0.012706498,0.05688935,0.026429797,0.04538677,-0.016933845,-0.010874449,-0.045960832,-0.09016936,-0.024597593,-0.13995838,-0.19590403,-0.09483014,-0.092798404,-0.0009209326,-0.21313876,-0.0823497,-0.0239263,-0.04968473,0.002861187,-0.17701802,-0.03306736,0.051757712,0.029707074,-0.14578813,0.041280374,-0.02741051,-0.075880945,-0.07879684,-0.10432428,0.05706989,0.12951277,0.08617645,-0.015876997,-0.06684677,0.16301376,0.040112082,-0.0029895457,-0.03959144,-0.10886745,-0.037332825,-0.07794537,0.059611075,0.0760208,-0.065949515,0.023078764,0.010544684,-0.072814636,-0.10628991,-0.08232529,0.05456263,-0.022254163,7.112291e-05,-0.109850004,-0.06386864,-0.011639441,-0.11704854,-0.07634144,-0.13031642,-0.09467692,0.00014857833,0.008314087,-0.0629561,-0.093002945,-0.114632934,0.15632896,0.05296604,-0.041052938,0.0045760027,0.053115077,-0.009039431,-0.14732903,-0.025210118,0.04747016,-0.014497822,0.019625101,0.07709222,-0.043069374,0.0059393733,-0.034813765,-0.0071526673,-0.009485064,-0.09079065,0.033847935,-0.09764532,-0.005619875,-0.0022350166,-0.056068603,-0.057861187,-0.07638588,0.05697547,-0.016898677,0.0043131555,-0.05306029,0.01985663,0.014163003,0.05742997,0.0038300143,0.012824758,0.0023164393,-0.24269606,-0.20329165,-0.041649148,0.041730877,-0.01606218,-0.17928256,-0.12088059,0.041953754,-0.0129025085,0.030646948,-0.083144456,0.14430986,0.11019849,-0.08706981,-0.046691034,-0.30451956,-0.12080748,-0.018005405,-0.14188795,-0.112549655,-0.10540109,-0.097493656,-0.09471975,-0.10014278,-0.08496772,0.06370248,0.09152997,0.08349534,-0.08367262,-0.07465567,-0.024650538,0.024573725,0.032252196,-0.057551585,-0.11438024,-0.0012328251,-0.1316348,-0.021182874,-0.043470718,0.004641759,-0.07965596,0.037884127,-0.022591645,0.040930245,0.024613464,-0.048889097,0.017519401,-0.0855705,0.043056082,-0.032822117,-0.07176275,-0.05747593,0.042222008,0.10487948,0.18760806,-0.12638015,0.028784452,0.006135825,0.09317909,0.07213245,0.047735225,-0.06639889,-0.14473167,-0.08801092,-0.17425361,0.110602975,0.052852105,-0.08673275,-0.114185184,-0.13463771,0.06655785,0.1301823,-0.008749858,-0.13946421,-0.04786285,-0.1601125,-0.022292703,0.09436013,0.048953813,0.030796763,-0.07576886,-0.0033528232,0.1071322,0.01792391,-0.020032698,0.092147894,0.17675675,0.20165916,0.037533425,-0.031589463,-0.038069144,0.061727874,0.10874508,-0.1458759,-0.07994318,-0.19277354,-0.039326444,-0.024411017,-0.016485313,-0.0036631627,-0.05411473,0.09765147,0.06832972,0.093398094,-0.00027119118,0.10282886,0.10031827,0.08809524,-0.08177768,-0.08666391,-0.040463444,-0.020257331,-0.029685937,-0.12361329,-0.041503217,-0.028995452,-0.029017814,-0.082048945,0.0059590284,-0.0061726472,-0.10497149,-0.049267203,0.0018053919,-0.026635738,0.020564402,-0.015642589,0.15518254,0.20334946,0.08767767,-0.05342392,-0.0024653433,0.16160534,0.13083963,-0.053262264,-0.042228393,0.014296348,0.011711016,-0.14338885,-0.1881066,0.019713718,-0.046293482,-0.13029787,-0.17659055,-0.12889974,-0.099673904,-0.060368348,-0.1960488,-0.11269031,0.02283084,-0.095433004,0.0134182945,0.037589494,0.084792465,0.010279466,-0.044788096,0.1463365,0.052499596,0.018750027,-0.08537616,0.023832532,0.09812713,-0.027312467,-0.1382627,-0.103382364,-0.034696206,0.0050133467,-0.018218774,-0.049969915,-0.07758076,-0.020076886,-0.010013789,-0.056697544,-0.009875231,-0.012886762,-0.053672485,-0.019958615,-0.050066456,-0.012430344,-0.020513939,-0.08838042,0.01842304,-0.021862637,-0.05097309,-0.12988259,-0.1670006,-0.003535606,-0.09020491,-0.088368505,-0.17285278,-0.027130894,-0.03592643,-0.10279356,-0.0833297,-0.04102841,-0.04915231,0.057428796,-0.029652823,-0.05367367,-0.10612731,-0.08311461,-0.08340756,-0.0056737936,0.13699704,0.14361888,0.10270412,-0.052205037,0.027994083,0.14464825,0.12120265,0.05799072,0.07853096,0.07530941,0.056724016,0.051912837,-0.084811084,-0.028983003,-0.047352307,-0.15004806,-0.16515748,-0.19695677,0.045628075,-0.023482991,-0.059290856,-0.1897001,-0.0750615,-0.06431861,-0.06044903,-0.06345214,-0.08791012,-0.05006922,-0.09231841,-0.046722565,0.019524712,0.1308702,0.0026902275,-0.092114866,-0.03827599,0.027342739,0.08108192,0.06047024,-0.07544611,0.028135976,-0.049444087,0.049419217,-0.026878009,-0.0832204,-0.010171936,-0.042348575,-0.086721934,0.005412704,-0.06864564,-0.16854697,-0.013127134,0.07929133,0.011290193,-0.150467,-0.06563923,-0.07781069,-0.006165318,0.12622654,-0.10412201,0.1299796,-0.04695244,-0.2179819,-0.12115733,-0.082706116,-0.006630175,0.061757017,-0.055135008,-0.030464808,0.06064381,-0.0663479,0.039803773,0.16320539,0.061948534,-0.013152741,0.07716833,0.012260197,0.0010363354,-0.030200964,-0.045147263,0.011419309,0.052856762,-0.01916376,-0.019200081,0.0028736878,0.044475235,-0.11724257,0.02104073,0.16867098,-0.089147,-0.087261,-0.19487543,-0.047111887,0.05062252,-0.03361479,0.060006347,-0.090805694,-0.013367576,-0.029278312,-0.08784609,-0.16636969,-0.0091286795,-0.018102866,-0.10677131,-0.17476402,-0.06858021,0.14363863,0.13436724,-0.07208253,-0.07818697,-0.017478066,0.025489995,0.21814588,-0.03896725,0.01827206,-0.05248199,0.0877663,-0.0078121983,-0.08101486,-0.15571336,-0.1741926,-0.051276576,-0.11601235,-0.0118196625,0.0504811,-0.11804238,-0.06671528,0.075278215,0.0020163576,-0.09178555,-0.061475042,0.004825474,0.047087766,-0.059658717,-0.11773503,-0.08403493,-0.13100241,-0.03503321,-0.088186584,-0.13738835,0.010238024,0.021697773,-0.10351637,-0.04230696,0.024094116,0.04519894,-0.03235626,-0.113790914,0.013936735,0.12870567,0.10053456,0.15799622,0.16135585,0.17581671,-0.059707664,0.035702083,0.03742309,0.10802287,-0.05134355,-0.042631667,0.047392897,0.015740003,0.03964444,-0.009901782,-0.05524073,-0.11679962,-0.17576957,-0.12584981,0.057508092,-0.025477946,0.004320408,-0.12037507,-0.14563484,-0.017647313,-0.08926317,-0.078608766,-0.09759455,-0.014306775,0.09118501,0.06501666,0.010852067,-0.10071756,0.029555706,0.025734419,0.07889333,0.03716928,-0.013816882,-0.08431159,0.044660147,0.070965506,0.0765653,0.1382216,-0.08966834,0.03277483,-0.0063466076,-0.026895875,0.14280938,-0.07730216,-0.11733936,-0.09499328,-0.13087939,-0.111209266,0.030842198,0.022118708,-0.108925246,-0.046515435,0.04858128,-0.053121638,0.011757074,-0.06349528,-0.08712914,-0.028246552,-0.23983857,0.0069328854,-0.07640005,-0.024496052,0.08572859,-0.17184953,0.0029628647,0.01031925,-0.04128307,-0.033636723,-0.088780284,-0.06589952,-0.026179701,0.028327636,-0.094266966,-0.10717961,-0.053845406,0.0022526646,0.054420374,-0.04918544,-0.05714764,-0.18995795,-0.057260364,-0.005980699,0.15028656,-0.006331086,-0.029413953,0.057411633,0.11122483,0.0383834,0.2284617,0.23972875,0.020507248,0.2128947,0.09928982,0.05873756,-0.0041217157,-0.18403715,-0.16005476,0.010200962,0.044174116,0.00654938,-0.037619285,0.009282941,0.035138663,0.010180434,-0.048003457,0.06623263,-0.00967193,-0.10946336,0.042004354,-0.055220205,0.016496172,-0.10366154,-0.11012108,0.060769603,-0.017559359,-0.10279468,0.006467612,0.08540032,0.11697182,0.11884504,0.0025842097,0.059956,-0.040356737,-0.030358994,0.017073382,0.041312683,-0.066294886,-0.013096875,-0.051538274,-0.051366936,0.12400872,0.08588701,0.04728586,0.036295615,0.029184245,7.997954e-05,-0.008196903,-0.03069949,0.02318785,-0.089699194,0.06307583,0.076098636,0.003201492,0.035863683,0.022627577,-0.057877105,0.011639866,0.0066866134,-0.061836407,-0.25826737,-0.019153588,0.007391441,0.04449865,0.23555961,0.033383694,0.06758827,0.10817985,0.017811134,0.114108324,0.12277672,0.013716214,-0.07460605,-0.1616745,-0.018840674,-0.06399046,-0.087326676,-0.042150814,-0.015541507,-0.12769493,-0.1523322,0.07513833,-0.003787257,-0.015807005,0.10101229,0.1313978,0.041504048,-0.04213374,-0.04951572,-0.0010737799,-0.04932341,0.060897365,0.033202544,-0.122648664,-0.06933831,-0.0579167,0.058598667,-0.0103560025,0.04041724,-0.030028516,0.016084824,0.03155339,0.061084934,-0.046933375,-0.026327185,-0.036822002,0.0054714866,0.08826728,0.016750498,-0.09178159,0.055927604,0.07590192,0.009609006,0.021063631,-0.11383948,-0.12099807,-0.045779802,-0.09792807,-0.2023372,-0.1164558,-0.1447014,-0.058610853,0.086849794,-0.023429735,-0.16067672,-0.13040265,0.021848567,0.1855499,0.06147479,-0.0703844,-0.026510073,-0.042936694,-0.046070173,-0.11295066,-0.084536284,-0.030236868,0.066044286,0.08096305,0.0711761,0.07693155,0.023239244,0.0062035853,0.0042739767,-0.01639525,0.041315585,-0.072532855,0.1792158,0.10633871,0.14095971,-0.0045607993,0.06934671,0.018854652,-0.008455815,-0.14882955,-0.03802128,-0.080705255,0.09683245,0.107361816,0.09291455,0.039694216,0.19634885,0.022472946,0.05976163,-0.09021925,-0.023758197,0.05546532,-0.0816443,-0.09285528,-0.087483086,-0.09402204,-0.10324996,0.11492473,-0.02947755,0.06690127,-0.063389055,-0.13171636,-0.040099673,-0.067890316,0.09540348,-0.0035412218,-0.10664602,-0.07628754,-0.03565744,0.029565435,-0.061717328,-0.2146304,-0.012827478,0.076055154,0.00071945076,0.023702946,-0.12822604,-0.10945201,-0.081264116,-0.14551623,0.069848605,-0.08374077,-0.12167595,-0.048468545,-0.016998023,0.14959924,-0.10100467,-0.043435734,-0.008302267,0.08104755,-0.028096428,-0.08810156,0.03944702,0.047956057,-0.0012692233,0.038340297,-0.13448806,0.0920544,0.02629743,-0.032561745,0.007463382,-0.14071438,0.005899407,-0.08007862,-0.17515534,-0.01054311,-0.115604706,-0.017990965,0.01900139,-0.11048845,0.023557907,-0.028981853,-0.041496914,0.059872262,0.021572186,0.028822811,-0.00845647,-0.016516179,0.095323995,0.11229887,0.00031447783,0.06384236,-0.12372433,-0.031496998,-0.068235554,-0.0017301709,0.11493003,-0.08253246,-0.1695222,-0.20146279,-0.037325013,0.070653275,0.03994995,-0.073880546,-0.07814329,-0.066279426,-0.16209087,-0.12151969,0.062713,0.080079265,-0.004462899,-0.13855694,-0.042667102,-0.06118385,0.020184191,-0.060699325,0.0025911385,0.09924204,0.07014121,-0.03038127,-0.10996918,-0.13196614,-0.056724202,-0.13797325,-0.17466672,-0.1793443,-0.14623277,-0.07247617,-0.0647433,-0.16602993,-0.13136314,0.003873237,-0.015910799,-0.016827343,-0.01475266,0.030734,0.14651167,0.12678865,0.051704515,-0.07807181,0.11933569,-0.029133374,0.12292249,-0.007028401,-0.00097065006,-0.039685056,-0.1192531,0.03243237,-0.019161,-0.027668415,-0.009540696,-0.03925546,-0.030287024,0.035606556,-0.02441565,-0.010755755,-0.012654355,0.0073663546,0.03973209,0.0008549534,0.04365093,0.063571095,-0.06023679,-0.062299892,0.043253608,0.031731676,-0.1425506,-0.007588953,-0.11952017,-0.18306772,-0.1819711,-0.06916207,-0.101062804,-0.17677535,-0.1277118,-0.05054383,-0.030356113,-0.06466664,-0.15616232,-0.09015283,-0.11648429,-0.1816329,-0.17458689,0.012568033,0.069338106,0.23362364,0.040846508,-0.07121162,0.0657503,-0.024128545,-0.067091234,0.059008613,-0.007667916,0.04404986,0.021679524,0.13549328,0.016061103,0.09288658,-0.024648333,-0.04637239,-0.020123364,-0.08890856,-0.001794712,-0.08952528,-0.10640417,-0.03337381,-0.034542058,-0.0009101662,-0.16165698,-0.07212132,-0.016003974,0.061777856,0.2510265,0.06530014,-0.17521109,-0.0023752323,-0.061780527,0.10479108,0.01402558,-0.0925936,-0.037230324,0.006987031,0.139438,-0.100372665,0.039699975,-0.032135937,-0.03240693,0.08180763,-0.08028319,0.04329489,0.07222651,0.050931256,0.077246204,-0.06580431,0.12886417,-0.0053844927,0.15226482,-0.09433401,-0.08405026,0.04053954,-0.112940244,-0.1902372,0.002005726,-0.104192466,-0.042532474,-0.117371514,-0.08380204,0.009122948,-0.046117112,-0.08968983,-0.057770498,0.02833743,-0.12018322,-0.08626062,-0.10320766,-0.06256364,0.028371813,-0.094334416,-0.071705505,-0.19043528,-0.11721736,-0.053663094,-0.10675691,-0.15150084,-0.14234728,-0.1673839,-0.05072301,-0.09980954,-0.08294878,0.017347792,0.13519345,-0.024929754,-0.0040120357,-0.06339431,0.042607546,-0.049694758,-0.17655717,-0.09209407,-0.014938827,-0.017654894,-0.2031943,-0.09054393,-0.013807471,-0.059115414,-0.13905513,-0.07031943,-0.0087834615,-0.01714499,0.045915913,0.0040787663,0.007021147,0.012888918,-0.029256834,0.06843862,0.10125717,0.09906027,-0.0059995875,-0.06779648,0.08944858,0.05175661,-0.04218064,-0.13613394,-0.033000536,0.1175488,0.0031781557,-0.015318521,-0.18575288,-0.010944941,0.0059095086,0.1289867,-0.042432908,-0.22862966,-0.08046959,0.14905502,-0.016926074,0.09985951,0.108451486,-0.03293511,0.030642513,0.12717466,0.12144208,-0.016050573,0.16150495,0.06002303,0.034485616,-0.115326546,-0.15342273,0.12770797,0.11322432,0.1794321,0.08803346,-0.13139261,-0.014407155,0.024501903,0.18875967,0.025620235,-0.14863507,-0.059225697,-0.14939342,-0.18100645,0.059992954,0.057573956,-0.08294907,-0.11731038,-0.055973418,-0.0439229,0.07779154,-0.058270555,-0.03838765,-0.04157263,-0.14278889,-0.12085128,-0.041156724,-0.031951282,-0.102402784,-0.12218785,0.021538418,0.033122312,-0.10101124,-0.15635994,-0.021826515,0.09684235,0.10806962,0.023797268,-0.11942226,-0.13369825,-0.07116062,0.08068883,-0.043384686,-0.09068227,0.11039211,0.030379714,0.06186319,-0.15668017,0.1068651,0.10983088,0.1301811,0.032629684,-0.12015371,0.16670012,0.07762088,-0.05978332,-0.016999774,-0.07712675,0.031667702,-0.13518015,-0.13549967,0.08458421,-0.017360298,0.08117128,0.038501363,-0.041761596,0.0683325,0.05797228,0.09801104,-0.0151541,0.016818529,-0.071581654,0.004270565,0.032091606,-0.015628513,-0.037534505,0.024012486,0.0090876175,0.030849136,0.013217887,0.005090739,-0.10189197,-0.086941764,0.022782981,-0.051588707,0.008586001,0.00940241,0.1258751,0.10838953,0.14393179,0.1477516,-0.12604046,0.12378543,0.19540404,0.24734652,0.099378124,0.09193918,0.07944528,0.012425542,-0.03786582,-0.13131757,0.005317574,0.11985559,0.05889584,-0.03674181,-0.20335726,0.014048893,-0.019712966,-0.05987637,-0.060102254,-0.09971936,0.026673904,-0.0040464248,-0.016221639,-0.08986671,-0.07569153,0.07067128,-0.023338322,0.03198962,-0.0035004052,-0.074990675,-0.010647786,0.023360841,0.032478496,-0.038014468,0.0006525024,-0.06363173,-0.052140523,0.08849127,0.0072103892,-0.018632015,0.018746069,-0.10745565,-0.07411222,-0.05399042,-0.051717684,-0.03750817,0.016496953,-0.03765482,-0.007499179,-0.035246987,-0.1010167,0.017020598,0.020110304,-0.0637353,-0.030205455,-0.08608213,-0.031438623,0.05043811,-0.044738892,0.02704674,-0.17677046,0.011368042,0.1723909,0.00028402338,0.09278136,-0.0528526,-0.05403164,0.035940204,0.08727054,0.007887062,-0.0955616,-0.18033743,-0.069413446,0.13306583,0.19986995,-0.061877705,-0.02181581,0.09405371,0.046237655,0.15322682,-0.023261636,-0.016317116,0.10990825,0.046450693,-0.01651337,-0.012939058,0.08153328,0.09867333,0.05109857,0.0014915592,-0.05493784,-0.050245453,0.0024498038,-0.08986404,-0.017079754,-0.04865226,-0.0720804,-0.045009185,-0.04404746,-0.04586713,0.09593377,0.027274773,-0.053015597,0.02584361,-0.0014526978,0.09988916,0.06196525,0.04721294,-0.033104885,-0.019103125,-0.04306243,0.015537095,-0.0033825296,-0.039475184,-0.06510263,0.080476105,-0.056865986,0.01604266,0.022083387,-0.058894467,-0.260186,0.06321572,0.13033172,-0.024386805,-0.024983607,-0.23512016,-0.13132913,-0.024487065,-0.100943565,-0.11750754,-0.120123915,-0.17950945,-0.10357877,0.024955148,-0.024545481,0.075172104,0.015904076,-0.11161812,0.021811051,-0.036575876,0.14923114,0.03088719,-0.044230413,-0.07734008,-0.12878728,-0.024926918,0.2381655,0.055581186,-0.096774854,-0.14244121,-0.107469045,-0.00010723554,0.04301127,-0.040805664,-0.055744514,-0.21600394,-0.09922811,-0.103334844,-0.0006969156,0.019207785,-0.0076397536,-0.025422249,-0.11836572,-0.08658838,-0.015806679,-0.006400039,-0.034177255,-0.14979605,-0.0669011,-0.06879776,-0.16556424,-0.099416696,-0.19881643,-0.045348108,-0.00541729,0.07453754,0.054513328,-0.07667958,0.0066982177,-0.061611596,0.039053828,0.03600954,0.0044689886,0.06168923,-0.066465914,-0.038788117,0.10186907,0.040808257,0.030928748,0.022004642,-0.03182485,-0.033615023,0.16048492,0.09979204,-0.042942774,-0.16548006,-0.17324196,-0.05981489,0.0076396572,0.036617775,-0.2239878,-0.19102165,-0.1631912,-0.035846356,-0.019603558,-0.07717173,-0.15414861,-0.06098426,-0.15519296,0.017409015,-0.0935329,0.006042135,0.028795121,-0.106920615,0.099724874,0.03711677,0.09181184,0.0384038,0.03047473,0.14062412,-0.014073097,-0.035090324,0.03400193,0.010907788,0.0059372094,0.017055599,-0.026232265,-0.039181966,0.042538136,0.06351356,-0.044517737,-0.061569616,0.021514567,-0.02509686,0.04216849,0.07628895,-0.010225272,-0.018996868,-0.05724836,-0.014633804,0.0112639805,0.014198099,-0.003741683,-0.0066393986,0.03675037,0.09574827,0.045594316,0.01782346,0.026241455,0.015669925,0.021825468,-0.0791119,-0.009230139,0.11147679,0.09920576,-0.17030613,-0.18897392,-0.08686078,0.009751879,-0.04902683,-0.25653422,-0.07581321,0.036624335,0.100005716,0.0761028,-0.1455842,0.09387814,0.027753357,-0.0046956087,0.08529667,-0.079875804,-0.063764684,-0.008318504,-0.07141037,-0.14342384,-0.027063772,0.07162985,0.040134568,0.067371964,0.03151122,0.05621516,0.033544734,-0.0022379048,0.010695383,0.05733299,0.08566898,0.13858484,0.024020385,0.05337399,0.02225938,0.03370831,0.0022229014,-0.067337945,0.03064542,-0.006041198,0.08808795,-0.05665262,-0.07847728,-0.08904722,-0.11338911,-0.05343927,-0.24956682,-0.066162825,-0.13151221,-0.13393617,-0.12474886,-0.14200641,-0.061225705,-0.07456845,0.069834486,0.027947301,0.039418023,-0.006941645,0.14832188,-0.00996637,0.08768539,0.07959276,0.08586117,0.09788919,-0.017439863,0.079949304,-0.03251664,-0.023468452,0.00573319,0.10626915,0.061752073,0.050114796,0.021497771,0.07928346,0.017513352,-0.014519173,-0.051872317,-0.05977224,-0.08370544,-0.026828092,-0.14669119,-0.070121,0.110160425,0.1281982,0.09250661,-0.0267226,0.022484938,-0.068873815,-0.02302354,4.7056234e-05,-0.17164883,-0.12413369,0.022731438,-0.02866725,-0.14484729,-0.059602555,0.014857674,0.013912322,0.015945625,-0.025975743,0.0042942376,-0.042405535,0.043863382,0.14472276,0.18061815,0.14754073,0.062598936,0.06783525,0.07416899,0.22573712,0.116026424,0.024010414,0.025862673,-0.015961936,0.007545443,-0.08661591,-0.13096991,-0.07394014,-0.036823936,-0.0015431995,-0.09999455,-0.06399587,-0.08143078,-0.016443392,0.011561971,-0.073457554,-0.04580514,-0.061895095,-0.078207865,-0.047634166,0.057775095,0.018602261,-0.01258176,0.0636433,-0.052338194,0.002947633,0.057910204,0.030691152,0.01560612,-0.11967822,-0.11944814,0.0030053288,-0.07101123,0.0715612,-0.026862463,-0.0866763,-0.041667584,0.009314388,-0.06652471,0.015586083,0.04006016,0.031577587,0.014312825,-0.034508627,-0.03364092,0.13607512,0.107231274,-0.04726118,-0.08875454,-0.2081006,0.013380768,0.044945795,-0.065614544,-0.03900806,-0.23275833,-0.058847893,-0.044354104,-0.114740476,-0.027103009,-0.1749049,-0.07061163,-0.052013494,-0.0011247459,-0.08969777,-0.12006044,-0.124032035,-0.11486078,-0.003893231,0.0671573,-0.06940247,-0.08440663,-0.05883059,0.011518011,-0.018959,0.041235458,0.03501368,-0.05127133,0.10277914,0.017809825,0.10581762,0.14517516,0.013427291,-0.099522024,-0.07060798,0.02475168,0.029873343,-0.16811545,-0.17428559,-0.14665523,-0.15971486,-0.11741343,-0.040430434,-0.1268829,-0.12267917,-0.11104238,-0.06732085,-0.05185866,0.06533981,0.11150157,0.065032296,-0.061955336,0.051184326,0.016968641,0.037302982,-0.033519723,-0.07211481,0.017632414,-0.11241284,-0.035992008,-0.0702729,-0.019688392,-0.0022119978,-0.06527154,0.016066318,0.058076184,0.040618394,-0.072422795,0.033229966,-0.021268973,-0.039986406,0.034702215,-0.05408294,0.027952284,0.020430073,0.019412039,0.08445096,0.0046458137,-0.036375962,-0.07925649,-0.048454825,0.037029136,-0.20912488,-0.19814178,0.025809105,0.103861235,-0.122755796,-0.20358725,-0.20010261,0.0813141,0.18990858,-0.052303676,0.0048252763,-0.089778066,0.10389776,0.1789214,0.06013576,0.14808805,0.085842356,0.13460872,0.0044923574,-0.09179454,0.06899135,0.21158229,-0.08152616,-0.22501205,-0.14321212,0.054292735,0.081966825,-0.074343234,-0.08945258,-0.07919215,-0.041868348,-0.028793307,-0.04883621,-0.087784864,-0.061872795,-0.021464597,-0.09724549,0.012767843,-0.015247351,-0.18651493,-0.09778004,-0.036357272,-0.052297052,-0.10105131,0.026777606,-0.016425261,-0.09504383,-0.085150294,-0.10419011,0.03853361,-0.09344391,-0.022758003,-0.19883294,-0.106982455,-0.106083915,-0.006957859,0.099100746,0.0043563433,0.08037959,-0.03156546,0.06736081,0.08021492,0.03281977,-0.016652541,-0.024889085,0.062498763,0.18461393,0.0026893185,0.028757993,0.14985731,0.14511095,0.05369955,-0.12677795,-0.021745654,-0.07462236,-0.12078077,-0.10417275,-0.07914249,0.04732629,-0.1395757,-0.11837822,-0.0381922,0.075814426,-0.019882124,-0.13832603,-0.26518494,-0.11366041,0.00044681487,0.12147107,-0.12713826,-0.17022295,0.11265648,0.09811118,0.15535037,-0.22699827,-0.06493659,0.014564905,-0.011136996,-0.066362865,-0.23981437,-0.07559412,0.14493133,0.12691338,0.023450164,0.028426291,-0.035935495,-0.046603233,-0.08088092,-0.11966117,0.041036114,-0.17256524,-0.19221745,0.020931661,0.03148652,-0.18348399,-0.18873766,-0.091620095,0.017424699,-0.100889586,-0.05868915,-0.11334473,-0.15664165,-0.06092436,-0.15662557,0.09869855,0.09749176,0.026687935,0.028926272,-0.09728021,0.083774276,-0.03298807,-0.09450627,-0.036804464,0.065086775,0.019518558,-0.10823508,-0.19448847,0.004042951,0.16505262,0.10680484,0.04113025,-0.013839727,-0.03255637,-0.01580896,0.08498857,0.13596605,-0.024808487,-0.04405196,-0.11233338,0.017335493,-0.005666253,-0.008647113,-0.052608497,-0.25356087,-0.043083735,0.054836445,-0.08079666,-0.09053241,-0.040020924,-0.04930262,0.07837548,-0.11986655,-0.07969687,-0.0061439965,0.07812012,0.08023848,-0.20066732,-0.15075484,-0.06584177,0.05360798,0.10124708,0.0067718695,-0.07850276,-0.16845328,-0.020683413,0.01033627,0.12235562,0.15176162,0.013504571,0.122293204,0.076404095,-0.025557399,0.12991172,0.08229845,0.061576564,0.002405839,0.052178152,0.09698607,-0.045330502,-0.22070332,-0.14672653,0.11997608,0.14665498,-0.12139099,-0.009442426,0.0022353227,0.04810301,0.12989697,-0.018564818,-0.035067305,0.062923774,0.14873014,0.08374089,0.018870654,-0.09687918,0.029162595,0.16145904,0.06318336,-0.015831223,0.006834116,0.094246395,0.12046196,-0.09428879,0.05036261,0.061407626,-0.08699045,-0.09871281,-0.09249727,0.047288798,-0.024630766,-0.07651012,-0.08298292,-0.10773893,0.11341089,0.02799085,0.02967679,-0.05943652,-0.06066888,-0.063626245,0.008030538,0.026554925,-0.0061141346,-0.047809813,-0.030253775,-0.021169044,-0.02805002,0.06053153,0.015683891,0.013539393,-0.03283065,-0.002724878,-0.028400345,0.031862315,-0.02802773,0.0006821606,0.0370582,-0.048499353,-0.0060488125,-0.00827289,-0.0426369,-0.0053717066,-0.010182968,-0.008338537,0.03171471,-0.036322646,-0.05494468,-0.0114166,0.03849581,-0.025454443,-0.011372241,-0.055845283,-0.06312689,-0.006000291,-0.011571256,0.010950317,-0.042422373,-0.01695605,-0.032325186,0.018437622,-0.01128772,0.020485496,0.0111325,-0.011878075,-0.04293734,-0.033150073,0.059570163,0.036495116,0.057515495,-0.03013872,-0.061146125,0.03835374,-0.029567583,-0.06405864,0.024661668,0.0076799206,-0.04927687,0.021558082,-0.044961605,-0.020911831,-0.0069816583,0.027491521,-0.0015471714,0.030295264,0.0060322597,-0.020809958,0.013329745,-0.044645663,-0.047547277,-0.032977056,0.03498568,-0.01728179,0.0015408169,-0.04087095,-0.043472566,-0.030303756,0.011074478,-0.040074334,0.04779925,0.0071275868,-0.050491475,-0.059043556,-0.01606267,0.013645776,-0.04497257,-0.04778995,-0.0103502255,0.027519982,-0.031566445,0.04559474,-0.056966875,0.012054632,0.0003888278,-0.012064713,-0.006642662,-0.017316915,0.045973066,-0.040678814,-0.058491725,-0.021298902,-0.0626323,0.009217002,0.03619835,0.038173907,-0.031596046,0.014177045,-0.026776155,0.0031116665,0.006984732,-0.039680716,-0.055221476,0.045504063,-0.05273918,0.060675308,-0.03535741,-0.010448126,-0.055085886,0.00783481,0.0019857143,-0.013525541,0.042031698,-0.060646374,-0.051441386,-0.06372389,-0.032843556,0.041606754,-0.02101168,0.0097322175,-0.0121725965,-0.022885483,-0.036763147,0.026025217,0.046897642,0.049917772,-0.041631352,0.032482967,-0.03636649,0.016420467,-0.037597686,-0.021955214,-0.009252401,-0.0138484305,-0.033690773,0.021065196,-0.018540071,-0.04241453,-0.016217757,0.002374143,-0.030816302,0.011294493,-0.038833905,-0.00754037,0.009005623,0.029813174,0.0005957638,0.05622949,-0.040682524,-0.018129667,0.011494888,-0.03166995,0.035585713,0.048179794,-0.051515963,-0.046337586,0.024183664,-0.06503537,0.033907056,0.042459317,-0.007094104,0.04971918,-0.00952997,0.02748829,-0.05196368,0.04276089,0.021880694,-0.05028071,-0.03312851,-0.0129292775,-0.017458772,-0.019205347,0.039685756,-0.020752538,-0.050312538,-0.038901206,-0.016596826,-0.043888927,0.020254698,0.003493049,0.013721,0.018079646,0.058482423,-0.046317156,0.02836966,-0.022844171,-0.012773299,-0.010869101,0.03561509,-0.01841923,0.026854452,-0.037641954,0.025193365,-0.048377313,0.040041506,-0.017520502,-0.0030685018,-0.00018830044,-0.029152554,-0.016798396,-0.004350509,-0.032362238,0.018742934,-0.02910502,-0.01608135,-0.021132143,0.033086658,-0.05996334,0.048454177,-0.04771868,-0.03743684,0.0007506689,-0.02755497,-0.017466333,0.039465208,0.05760722,0.0344316,-0.009977175,0.05772761,-0.061049867,-0.0061403043,0.008154402,-0.017753541,-0.02021108,0.0069084615,-0.061341017,0.012477436,-0.02998942,-0.0126468,-0.012568997,-0.027437177,-0.06286386,0.021912081,-0.029356577,-0.03907533,0.02088537,-0.01839147,-0.08661855,-0.14738372,-0.117797494,0.0035740484,0.008148594,-0.06678338,0.024736527,0.04604097,0.01985384,0.0586903,-0.03091044,0.064019084,0.028720548,0.0005963263,0.037555315,-0.037158575,-0.02289677,0.037820395,0.044423927,-0.023325847,0.021009762,-0.03111787,0.041979264,-0.0010604152,-0.03824362,-0.106134966,-0.022177964,0.060090575,-0.0053520435,-0.028340522,-0.0022767524,0.0028967406,0.036721222,-0.023616174,-0.030513719,0.19565049,0.05448388,-0.07942635,-0.083220534,-0.032801893,0.20859843,0.12923186,0.030656138,-0.02236319,-0.04359059,-0.09110226,0.051341824,0.049135953,-0.0064986423,0.026838046,-0.07519664,-0.053720254,-0.09363415,-0.093675196,-0.0485865,-0.0677254,-0.09336096,-0.05835793,-0.0585186,-0.0026083637,0.0032776284,0.011964721,0.10703445,0.047653668,-0.031407624,-0.031395875,0.010482649,0.012834986,0.054067485,-0.02332868,0.030433126,0.019598652,-0.06633142,-0.06426553,-0.05058945,-0.0928597,-0.15622304,-0.08583487,-0.040278766,-0.15420538,0.009828519,0.06938779,-0.04733763,-0.11501716,-0.14418979,-0.17089023,0.18189178,0.16462253,-0.0051362915,-0.109632656,-0.104698546,0.062986806,0.043152295,0.05357452,-0.07313003,-0.15941067,-0.03412209,-0.15334198,-0.060137857,-0.055023145,-0.017115576,0.034369394,0.07789464,-0.0038898056,0.01874533,-0.081093825,0.08416687,0.0362405,0.019390864,-0.002888474,-0.027241377,-0.10268552,0.024664992,-0.07580838,-0.038869794,0.15808237,0.08182238,-0.021876134,0.0018491438,0.021556709,0.18240531,0.10280989,0.054444503,0.03390034,-0.09125494,0.052735433,-0.026578156,-0.04016374,-0.065958425,-0.06966573,-0.037102893,-0.14627218,-0.02460039,-0.08226315,-0.074086756,-0.005862766,0.00973837,0.0763521,-0.036692664,0.03002849,0.107889794,0.08711208,0.03634032,0.051843118,0.06738629,0.016842522,-0.08322672,-0.078096725,-0.022751605,-0.031803507,-0.025854457,0.014809138,-0.09419944,-0.11052986,-0.15713039,-0.111466594,-0.17605397,-0.09493133,-0.090825334,-0.09288785,-0.08767679,-0.08462632,-0.09083394,-0.10970328,-0.15240048,0.06152274,-0.0012600176,0.042746138,-0.059225146,-0.0578888,-0.044068865,0.04180879,-0.015215437,-0.083780356,0.021704216,-0.06094306,0.011658694,-0.14346407,-0.0149703305,-0.045806494,-0.055611882,-0.11622332,-0.068468936,-0.046960942,-0.03949613,-0.12337597,-0.119311705,-0.049412947,-0.011843221,-0.063110486,-0.018730985,-0.06717404,0.03538991,-0.07486581,0.008515555,-0.12072548,-0.04660475,0.033948544,0.022458766,0.016218433,0.09962718,-0.023147063,-0.11511971,-0.03945908,-0.048772898,0.053366337,-0.07554228,-0.098851755,-0.044038236,-0.06281422,0.053851876,0.017727552,-0.03858918,-0.060537465,-0.06517689,0.0468431,0.066871084,0.03383279,-0.058127414,-0.035621878,0.010924702,-0.029964902,0.017039564,-0.063767165,-0.06077346,0.02121917,0.0808568,0.14880706,0.007926778,0.008284041,0.062113266,0.061849393,-0.084554344,-0.04470092,-0.057054825,-0.16872895,-0.07591186,-0.01678003,-0.00931812,-0.09350895,-0.045511127,-0.021476159,0.0041429955,-0.07733418,-0.18066892,-0.06577368,0.026342144,0.06376097,0.019828495,-0.16001575,0.01673677,0.05430116,-0.043455143,0.0018854784,-0.01122818,-0.023341024,-0.034100633,0.018296493,0.00959104,-0.020016782,0.06381756,0.012571569,0.016804846,0.035182677,-0.011145352,0.05511315,-0.03299097,-0.0137583725,0.028227776,0.0648448,-0.052977394,0.026828865,-0.0011908197,0.027160566,0.055403255,0.05157157,0.031915627,-0.0400129,-0.021543127,-0.011896187,0.039952796,-0.09053364,-0.04526779,-0.055125,-0.08371647,0.10375578,0.0941383,0.056252103,-0.053438045,0.029863968,0.1486196,0.0583298,0.021908054,-0.025169756,0.013704705,0.044813138,-0.0049210014,-0.024508797,-0.029142354,-0.07804658,0.049852435,0.040512215,-0.0022486325,-0.0029113835,-0.010474078,-0.03154672,-0.059300058,-0.038663913,0.015528582,-0.060316917,0.0691333,0.057662617,0.063302495,0.0076724305,0.004931943,-0.020207217,-0.069524676,-0.010328914,-0.009151389,0.019405523,-0.0116808135,-0.049003497,0.0029841703,-0.009745858,0.043608755,0.091284536,-0.05340453,-0.020443501,-0.06723902,-0.05183163,0.00094847643,-0.025296474,-0.054111,-0.040041525,-0.06190343,0.014620707,0.066599734,-0.0148316445,-0.0072292103,-0.0243366,0.023604898,-0.05755751,-0.007231437,0.009446488,-0.06641879,-0.031887684,-0.025071532,0.004078652,0.05295158,-0.017495068,-0.0061193416,-0.0034457222,0.022310873,-0.06597987,-0.061651066,0.043264482,0.03257385,-0.05760557,0.030757653,-0.08728208,0.06704479,-0.057308853,-0.036968075,-0.0059672226,-0.040045667,0.107608594,0.03982942,-0.013592681,-0.0019171737,-0.009833118,0.10114075,0.12698205,0.055965483,-0.008878102,-0.078687355,0.054826,-0.029249005,0.03430347,-0.043905865,-0.027697178,0.016461574,0.037210252,0.005079456,0.013862678,-0.035636585,-0.04020987,0.035799664,0.044868905,-0.016875295,0.005232478,-0.01448766,0.086055994,-0.033164855,0.04096072,-0.040240824,-0.030502887,-0.09272866,0.031239463,-0.047918923,0.017074011,0.00096486066,-0.06521387,-0.030377032,-0.05159133,0.032239493,-0.09500886,-0.04649501,-0.04803079,-0.03636894,0.015896859,-0.06325061,-0.03517581,-0.047677934,-0.023378497,0.017349772,-0.02952608,-0.010848331,0.024818951,0.0062024966,0.0070545846,0.0053151455,0.07324243,0.07460882,-0.023220351,-0.032165356,0.001969656,-0.0560725,-0.03933164,-0.023998654,-0.02835051,-0.09813896,-0.07433969,0.037067916,-0.020798633,0.008881064,-0.014440157,-0.0604225,-0.046718057,-0.044122085,-0.019355563,0.020348925,-0.04024612,0.0028450168,-0.003144876,0.009867782,-0.008287976,0.012974038,0.034385495,-0.06647494,-0.024267413,0.010666565,-0.055423,-0.05479969,-0.0353027,-0.0012955137,-0.018406011,0.01751205,-0.061561152,-0.01652225,-0.0032247845,0.010018283,0.030836929,0.031876605,-0.014847466,-0.07888326,-0.069101475,-0.0135351,-0.038767744,0.030857038,0.02122477,-0.054423355,0.0005166876,-0.005381075,-0.051617254,-0.020006143,0.013616539,0.016520817,0.0033395607,-0.07025115,0.004767503,-0.082368255,-0.0717637,-0.06947142,-0.011775104,0.03890568,-0.05413474,-0.044458274,-0.030833902,0.021905396,-0.011573939,-0.08653696,-0.017441874,-0.05046972,-0.05678332,-0.0011786653,-0.054245293,0.01900462,-0.031181451,-0.035446975,0.020619838,0.03402997,0.007768173,0.018518569,-0.04824971,0.060428668,0.052748878,0.039744113,-0.045849115,-0.05051664,-0.042906076,0.0054719956,0.030139953,-0.028748652,-0.02001644,-0.0021545421,0.04081552,0.024575174,-0.008725599,-0.08922686,0.0041362755,0.017142536,-0.006321833,-0.047436014,0.0030770346,5.0549177e-05,0.035372563,0.050223563,0.09184068,0.03233861,0.027351832,0.105304435,0.063167505,0.0077938996,0.12767883,0.044896014,0.25745675,0.21002923,0.039469507,0.028252129,-0.06340248,0.14096463,0.07860652,-0.09571171,-0.20790964,-0.27048844,-0.1696514,-0.018447466,-0.04944727,0.0014145948,-0.017303301,-0.00955422,-0.05170228,0.013545236,0.0034760507,0.05825009,-0.0028106717,-0.021252586,0.07586246,-0.029413154,-0.16643687,-0.0056596436,0.0018491364,-0.06454558,-0.11962149,-0.18674242,0.082885556,0.15171395,0.056002177,0.054575052,-0.13570899,0.058039144,0.06688762,0.06664205,0.025453923,-0.028387401,0.02342687,-0.015280243,0.06246328,0.008887753,0.07903891,-0.057356652,-0.059088606,0.10458729,0.07328138,0.01789033,-0.18426237,-0.06402384,-0.09382991,-0.079954386,-0.073559545,-0.20727633,-0.113192305,-0.12605496,-0.17518948,-0.025315112,-0.09296232,-0.12627704,-0.039833132,-0.092970766,-0.08700561,0.0067296145,0.026341131,-0.054157376,-0.075745374,-0.02220108,-0.043010715,0.10207216,0.08924719,0.11115917,0.08663713,-0.0016428859,0.022788692,0.023508105,0.044506863,-0.15947688,0.2271484,0.23589219,0.13182211,-0.07043396,-0.09669314,0.076877885,0.0005866685,-0.007549679,0.035162386,0.027870156,-0.031832404,-0.029409515,-0.034369424,-0.06974088,0.2187031,-0.020443045,-0.009714679,0.05592769,0.039494194,0.07527508,0.038897704,0.062070016,-0.063783556,-0.1062032,-0.20391259,0.23664132,0.07470992,0.053669497,0.06310774,-0.13477273,0.03382856,0.015650379,0.21206063,0.13294756,-0.022298325,-0.0718018,0.033159975,-0.0072168764,-0.05608317,-0.0803264,-0.0630572,0.13223507,0.09175042,0.04902535,0.01282078,-0.07652165,-0.07593184,-0.12734024,-0.10708233,0.15870176,-0.10844626,-0.12930879,-0.16355844,0.057322145,0.17846693,-0.1406927,-0.05051348,0.05281283,-0.120944515,-0.09202403,-0.004035415,0.05778405,-0.015504489,0.063987285,-0.057109274,0.014841796,0.063666895,0.008062997,-0.022839107,0.056760505,0.034529552,-0.02457743,-0.06996541,0.0029234346,0.08104035,-0.029243946,-0.03985834,-0.09643088,-0.011970362,0.07461849,-0.061054558,-0.0016372887,-0.05594232,-0.12039703,-0.05111641,-0.077308014,-0.036105853,-0.059787054,0.11767065,0.090742685,-0.019251186,-0.0036343154,-0.029992951,-0.08531988,0.049776915,-0.055678807,-0.018870905,-0.10474708,-0.13808712,-0.043820776,0.02609664,-0.09922191,-0.024685618,0.018540539,-0.082660936,-0.105013266,-0.076235265,-0.007103059,-0.015531476,-0.057747047,0.0018939398,0.03493177,0.03995265,0.06109904,0.005245342,-0.1369734,-0.052229486,0.0033779247,0.024472965,-0.0456466,-0.25800017,-0.07588702,-0.0013550207,-0.13153811,-0.20064299,-0.15599443,-0.032132607,-0.09082488,-0.20975047,-0.06614786,-0.027597468,0.0335299,-0.06925933,0.029793706,0.036348756,-0.1296696,-0.06524654,-0.107665546,-0.035738163,-0.037363593,-0.034238357,-0.016008606,0.0033215547,0.019281117,0.06215705,0.021392096,0.047478862,0.014958641,-0.043393783,0.017696265,-0.07790115,-0.0046948036,0.028984977,0.046523202,0.021070676,0.021826597,0.07096988,-0.05665294,0.029769847,0.019788433,-0.18869168,-0.11342186,-0.10051669,-0.15453653,-0.01574592,-0.010680872,-0.15706006,-0.15345393,-0.0070813047,0.021757757,0.092393234,-0.066396765,-0.067572676,0.116248064,0.022356076,0.012476255,0.12234581,0.12185585,0.15672307,0.028764445,0.03904696,0.119293734,-0.020840265,-0.15560208,-0.17561625,-0.19650692,-0.039312195,0.027924672,0.083259635,-0.013128339,-0.091387734,0.024919908,0.08129168,0.15154341,0.11294547,-0.015257567,0.043899853,0.15171316,0.045430336,0.00945864,-0.011838657,-0.042989578,-0.107941225,-0.06432241,-0.014551315,-0.055591676,0.012629706,-0.022328636,-0.024301939,0.03153769,0.018510222,0.03908329,0.024973303,-0.14292921,-0.123670965,-0.07876526,-0.034958884,-0.03428412,0.044679485,-0.04905989,-0.19783837,-0.14055906,0.14994225,0.14293553,0.08833366,0.05653684,0.0021445248,-0.088259734,-0.07306567,-0.051906474,0.030157408,-0.0114711905,-0.06900996,0.03658357,0.015848193,-0.15851223,-0.00949797,-0.11607417,-0.08033202,0.07514142,-0.17832531,-0.05333319,-0.0072322343,-0.024489421,0.062461767,-0.027714409,0.028377764,0.052950036,0.10032487,0.073644,-0.0004205102,-0.03678403,0.09994402,0.08374887,0.06843118,-0.0997802,0.055035867,0.09722004,0.052822553,0.055262227,-0.14268416,-0.18561934,-0.044431556,0.049627215,0.010064104,-0.32828987,-0.067538835,-0.009070415,0.1316561,0.14954872,-0.18846957,0.07034908,0.12518449,0.10840025,0.09112849,-0.05106376,-0.027928386,0.047115643,0.05394544,-0.033574313,-0.043057133,-0.0589184,-0.13427576,-0.019703614,-0.025336415,-0.010357307,-0.10310012,0.05052516,0.010374153,-0.08155479,-0.19249254,-0.0925087,-0.05010284,0.02406668,-0.010708294,-0.034575175,-0.07441821,-0.024350787,0.0492745,0.027441474,-0.0026824293,-0.12261782,-0.04118372,0.0006849162,-0.023245333,-0.01618035,-0.14089525,0.026607879,-0.046686225,-0.056356046,-0.10638754,-0.080130264,0.0011624582,-0.08954856,-0.0060562682,-0.16927007,-0.15714595,0.012213694,-0.06309342,-0.091071986,0.07540186,-0.041619126,-0.06254454,0.08748283,-0.079350695,0.01862833,-0.16855736,-0.036221076,0.027837701,-0.123930484,-0.094370194,-0.10527808,-0.009666281,-0.079862386,0.03409905,0.019826094,0.09903343,-0.03334507,0.021180747,-0.13334233,0.0144887315,0.17626531,0.08916904,0.04213504,0.014390294,0.013967976,0.15297416,0.07621656,0.12609166,-0.09671197,-0.0057453574,-0.0134114325,-0.00903154,-0.026016135,-0.06092888,0.0722695,-0.042357564,-0.05107266,-0.1101723,-0.11537897,0.18009958,0.09197252,0.055103414,-0.05550954,-0.014070893,-0.054599296,-0.067275666,-0.011068608,0.025095569,-0.020190302,-0.084532276,0.0070673767,0.15838516,-0.005738498,0.11574296,0.06719629,0.16113137,-0.0073195114,-0.026720334,0.012009546,-0.030735744,0.08933351,-0.0980883,0.03196422,-0.008659931,0.041765384,0.045712586,0.037267648,-0.031910557,-0.048893884,-0.029277626,-0.020530079,0.070359215,0.023776328,0.0019973398,0.005425439,0.054225028,0.030419141,0.051840916,0.07127664,-0.03820253,-0.035464056,-0.031457905,0.023272313,0.015456189,-0.0011535572,-0.008311174,-0.068785876,-0.10137827,-0.015005805,-0.054749068,-0.014829446,-0.14132014,-0.22161683,-0.10656155,0.0058735237,0.067470126,0.11573378,-0.059048574,-0.08896673,0.10117354,-0.0022119891,0.06311965,-0.028528139,-0.16908067,0.06382003,-0.084230386,-0.16365501,-0.18677169,-0.15199515,-0.080016516,-0.15126449,-0.08693189,0.05596461,0.1075105,0.004754262,0.07972884,-0.029984571,0.06171401,0.10118865,-0.02630388,-0.10281321,0.017645309,0.14229225,0.012781935,-0.054388825,-0.18053965,-0.13480662,-0.035213493,-0.013074333,0.057073005,-0.043665446,-0.052627034,-0.08226675,0.06687887,0.09347557,0.02187988,0.007050112,-0.045162242,0.08134819,0.05693438,0.14873055,0.002304909,-0.0079633165,0.08397161,0.12252494,0.08558172,0.12862273,0.10196126,0.13222452,-0.025058053,0.0019368448,0.07280473,0.13657627,0.18022278,-0.085467964,-0.09688591,0.029080976,0.14788784,-0.014166142,-0.14959523,-0.07535342,-0.023824638,-0.030414866,-0.21053466,-0.11868467,-0.039446097,-0.05853606,-0.09998948,-0.16055375,-0.026538085,-0.07181387,0.0048029246,-0.10697269,-0.024542313,0.06959032,-0.06053451,-0.26545447,-0.105194,-0.06839339,0.055809673,-0.12953779,-0.26876688,-0.11055668,-0.21617913,-0.051249944,-0.08487281,-0.16801684,-0.15572849,-0.14778914,0.049437974,0.120069735,0.011317203,-0.1625629,-0.11776529,-0.0405707,0.016905969,0.025331205,-0.004775205,0.018570054,-0.091501735,-0.14981796,-0.071382076,-0.01695465,-0.03507849,-0.028614068,0.034789395,-0.041104164,-0.22322303,-0.22334461,0.12861273,0.065048896,-0.008413288,-0.020268451,0.07958245,0.06033229,0.06100737,-0.07381866,-0.1682656,-0.093106486,0.040813077,0.018736178,-0.005429042,-0.038166557,0.05680545,-0.03518232,0.044196457,0.075171195,0.13543813,0.029078111,-0.09486589,0.09582258,0.17323838,0.16581628,0.014369004,-0.011559918,0.09173481,0.0024762482,0.008097347,-0.033987194,0.1120173,0.12370663,-0.06216336,0.031251214,-0.012990202,0.065125845,0.083322,0.074861266,0.09831676,-0.041733827,-0.10584453,-0.013375053,0.18048267,0.21123075,-0.07464331,-0.079738125,0.033487167,0.029651077,0.21220297,-0.051483143,-0.040585455,0.018866716,0.034009866,0.066326864,-0.06852773,-0.14022714,-0.0010688537,0.010796385,-0.116449244,-0.08283527,0.0270934,-0.002850026,-0.0850399,-0.06030536,-0.0034425093,-0.059483,-0.13253476,-0.042821724,-0.108307235,0.050078444,0.0062002023,0.018328626,0.014455646,0.019812552,0.14911613,0.14398214,0.04459414,-0.050265715,0.11483818,0.22904569,-0.110087365,-0.085511155,-0.10831031,0.015841676,0.012995934,-0.12276927,-0.018300248,-0.012810243,0.07144975,0.12450957,-0.04459428,-0.14222236,-0.086403735,0.04256251,0.20283535,-0.034707032,-0.21862276,0.021555193,0.02835192,-0.08385006,-0.14949365,0.033112034,0.05920329,-0.10938247,-0.17301448,0.05612065,-0.017458273,0.044972442,0.031148827,0.011520916,0.06813827,0.033996366,0.09766467,0.032003798,0.027511355,-0.017927678,0.04526177,-0.01259407,-0.055397842,0.018231407,-0.11772309,-0.050830867,-0.051345732,-0.0046907314,0.033221588,0.023474557,0.029052071,-0.07930451,0.04056775,-0.0072826603,-0.19478722,-0.1957719,0.013316883,0.021895846,0.11904603,-0.07411965,-0.18788028,-0.2038298,-0.046948455,-0.027199505,-0.009672033,-0.1641315,-0.21235947,-0.14342073,-0.19176376,-0.25370342,-0.22533193,-0.15407512,-0.1773335,-0.054795828,-0.1731061,-0.23216681,-0.16671528,-0.14139193,-0.16877122,0.05482381,0.014767926,0.06177074,-0.072985075,-0.069818065,-0.022812707,-0.094498605,0.015689945,0.03854809,-0.11910122,-0.050338615,-0.07992626,0.04411575,-0.037196986,0.040680543,-0.02201898,-0.027612664,-0.065804355,-0.058313012,-0.022984505,0.045422267,-0.012243715,-0.05672623,0.07442537,-0.014265567,0.14354232,0.06507279,0.08785606,-0.036926433,-0.08428382,0.18122292,0.16296636,0.16328971,0.0007606691,-0.041650653,-0.033595596,0.032782212,0.095244266,0.0704858,0.098419845,-0.1802722,0.0037269448,0.106233105,0.108797565,0.010774358,0.021407925,-0.04641445,0.0152949765,0.077674456,-0.029627966,-0.069936804,-0.085802846,-0.059062496,0.011466654,0.021133088,-0.16446093,-0.105960436,-0.07766094,-0.06962389,0.012602582,-0.1543328,-0.10712758,-0.03799701,-0.052031998,-0.027708946,-0.14375284,-0.09626804,-0.110402435,-0.07052912,-0.14229877,-0.037492573,0.008841193,-0.09110355,-0.079766795,-0.072331615,-0.18187942,0.014473399,-0.0062390184,-0.07764339,-0.08544429,-0.06884738,0.04612142,0.048340958,-0.056709558,-0.15787917,-0.18249775,-0.028384713,0.01046181,0.023156576,-0.043041065,0.012093055,-0.01611314,-0.03462123,-0.14677568,-0.07924939,0.1253867,0.0010498477,-0.19935384,-0.040271398,0.03884512,-0.034986958,0.062193274,0.085167795,0.19276488,0.045144916,0.07184291,-0.039030008,0.041925047,0.048182856,0.010351079,0.10490739,0.053811092,0.1629785,-0.010265055,-0.050786603,0.1665675,0.051312372,0.112601295,-0.06508577,0.012277701,-0.014364942,-0.014833267,-0.07222756,-0.096502855,0.032770876,0.08284637,0.0742952,0.07286085,0.07591043,-0.0018860985,0.10803514,0.10514908,0.16521488,0.17099667,0.037170354,0.09298854,0.12325299,0.12085221,0.025359964,-0.008698899,-0.00045041225,0.10609191,0.11628266,-0.0028499144,0.10317449,-0.005591898,0.1533506,-0.06616967,0.059890445,0.11334089,-0.16104023,-0.08141041,-0.114207536,-0.11131985,0.010006067,0.07493223,-0.07725789,-0.0361132,-0.06739624,-0.15725882,-0.07786443,-0.04091251,0.06417621,-0.02192023,-0.18232867,0.08023957,0.053835724,0.021888759,-0.09551053,-0.104662836,0.11200097,-0.035619736,-0.011620318,-0.010583011,0.074993424,-0.029841231,-0.031036688,-0.10794845,-0.11037845,-0.095534876,-0.0147247845,-0.043158643,0.019037211,-0.109581955,0.041663993,-0.040322844,0.038118087,0.045715246,0.016351933,0.062371753,-0.18158454,0.11820305,0.09469504,0.16279505,-0.06335738,0.026469026,0.17771357,0.034114152,-0.04884891,-0.24662256