-0.11355859,0.028750032,0.043339547,-0.26695877,0.25647944,-0.21298666,-0.2040844,0.18377095,0.33091316,-0.15902297,-0.29080397,-0.23183472,-0.07236807,0.14060833,-0.1617118,-0.08682058,0.30709857,-0.0014569438,-0.30902594,-0.12843707,-0.30448917,0.24383467,-0.121768005,0.37510613,0.3586772,-0.11878327,-0.23315084,0.3509948,0.08313133,-0.22942913,-0.21688688,-0.1302554,-0.17231603,-0.26993278,-0.13204038,-0.07075717,-0.14918266,0.09035808,-0.16324629,-0.21637473,0.31529856,0.31652978,0.25357226,-0.21426092,-0.07784427,-0.3214751,-0.17064746,-0.26064074,0.2356195,0.12012994,-0.076085456,-0.17896673,-0.30318758,0.24225473,-0.23172897,0.2803849,-0.17565992,-0.31335628,-0.09155124,-0.17543185,-0.04557759,-0.09444657,0.26803374,-0.1617632,-0.20776783,0.16423695,-0.27985215,-0.07458849,0.13970639,-0.20045346,-0.31055304,-0.27827096,0.5178474,-0.13033994,-0.08870044,-0.048921082,-0.22355716,-0.037503507,-0.2543614,0.23975477,0.3364237,0.17968166,0.22223875,-0.25328162,0.32658893,-0.09731946,0.3092386,0.2654809,-0.12951599,-0.22399245,-0.086287856,0.22727494,-0.27113184,0.20280692,0.16818075,-0.25525862,0.31323949,0.14858095,-0.17346884,-0.008111992,-0.17485344,-0.03896274,-0.2203127,-0.07931309,0.22717185,-0.27954513,-0.11776026,-0.11615166,0.18493354,-0.26690918,-0.34563217,-0.101019345,-0.030310448,-0.17274074,-0.012452254,0.31140053,-0.0791153,0.2582377,-0.088459216,-0.10174161,-0.23798257,-0.2608229,-0.077208884,0.0033995488,-0.096514866,0.30870423,-0.1775565,0.19560552,0.3460669,-0.07182478,0.08809947,0.25685522,0.3175141,0.17749372,-0.057449505,0.20617504,0.28412303,0.3049232,-0.17622516,0.09660686,-0.15577038,-0.07955211,0.19382635,-0.1864221,0.22666869,0.10722072,0.040819436,-0.16768855,0.22213122,0.21865591,-0.10403472,0.29940382,-0.1365765,-0.09280429,0.25030202,-0.103066936,-0.1807389,0.13839303,-0.078579985,-0.01319534,0.25535005,-0.17289093,-0.28397295,-0.1363984,-0.038421314,-0.08752851,-0.31002846,0.21487471,0.24976507,0.20221594,0.2100509,-0.14921808,-0.2002462,0.09064792,-0.053913124,-0.16074668,-0.2977261,-0.12679256,0.16674167,-0.19287536,-0.18718664,-0.124830954,0.2233504,-0.09095846,-0.19600911,0.20387252,0.23449777,-0.121782646,0.2725758,0.17584948,-0.09561263,-0.21229614,-0.19113606,-0.13722692,0.30348584,0.20246047,0.2515489,0.16251005,-0.15459257,-0.1497114,0.3832419,-0.26867184,0.2028857,0.06665772,-0.35336345,-0.03224782,-0.20465067,-0.18434428,-0.21043192,0.1230889,-0.19428532,0.32848755,0.26536787,-0.09359086,-0.123748235,-0.09698608,0.17138408,-0.21334739,0.24882144,0.31943193,0.2228766,-0.16240053,-0.027028762,-0.09408878,-0.25545892,0.4022991,0.21625468,-0.0944359,-0.12286423,0.26198465,0.36299765,-0.02251862,-0.12969576,0.29380137,-0.046684783,-0.3423388,-0.09255352,-0.04420164,-0.20329674,0.16711652,-0.13892075,-0.14749737,0.35645133,0.10552681,-0.4405263,0.24315596,-0.13396904,0.09073317,-0.16820712,-0.055152107,-0.0826204,0.24299848,0.26066685,-0.2838045,-0.17735954,0.32836926,0.16364872,0.19229726,-0.100142695,0.2832961,0.23192252,0.011570548,0.016575545,0.24669611,-0.23318043,-0.095611155,-0.24220814,0.16505684,-0.14992632,0.15936925,0.2593943,0.16912645,-0.024897454,-0.06574574,0.2359677,-0.20395723,0.12173973,-0.12917052,-0.113156684,-0.2555881,-0.024387829,-0.18412761,-0.20010576,-0.019174922,-0.12914446,-0.292248,0.008356548,-0.16890322,0.3434372,0.2527801,0.29317313,-0.11034807,-0.1365391,0.19480124,0.01262152,-0.16401058,-0.10253267,-0.23807488,-0.30023184,-0.13688943,-0.19324572,-0.0048139915,0.23544794,-0.3550191,-0.16363604,0.3002897,-0.13192108,-0.23873433,0.15700291,0.22388446,0.09601516,0.37778252,-0.026241332,0.10204698,-0.21283677,0.2642114,-0.17586756,-0.19188263,-0.26579657,-0.17779534,-0.43097642,0.22427072,0.03650869,0.35471022,0.29440585,-0.047994126,0.22777066,-0.1656742,-0.27519706,-0.3662273,0.3253453,-0.29152787,-0.17602828,0.27529266,0.3051429,-0.32360518,-0.10892266,0.18358117,0.083424546,0.19623302,0.2901563,0.04692655,0.19800793,-0.23932004,0.0930332,-0.34003666,-0.100373164,-0.34485182,-0.22579685,0.1124403,0.24547191,0.23711102,-0.18013099,0.31926003,0.05109815,-0.23652646,0.20801918,-0.12507832,-0.29350936,-0.24502496,-0.32467207,-0.17650494,-0.25774083,-0.14345627,0.30694595,-0.103455424,-0.20405447,0.19667941,-0.08729094,-0.09822696,0.19770193,-0.1150399,-0.12395335,-0.17356795,-0.10045602,-0.004113434,-0.027173808,0.35783586,-0.040308062,0.24733324,-0.030089276,0.21033551,0.30233574,-0.10383021,-0.15018003,0.22717409,0.18249135,-0.18081528,-0.23048806,-0.16053218,-0.16120064,0.24861132,0.008559841,-0.12221357,-0.14612164,0.22244675,0.11445009,0.16766247,0.29198506,-0.14454988,0.09747209,-0.06948709,-0.10379476,-0.21973176,0.21446535,0.23645572,0.101955876,-0.12610577,0.23046492,0.23318577,0.19483565,0.031468447,0.21410838,-0.10125852,0.005022361,-0.026712876,0.0026838637,-0.20672467,-0.23295672,-0.0873807,0.20132168,0.09726271,-0.052863844,-0.04979902,-0.05160821,-0.14453089,0.2214278,0.18923087,0.25602156,0.19909959,0.053876296,0.1670025,-0.19641462,0.0128662335,0.079237446,0.25101015,-0.087923795,-0.19112268,0.27596432,-0.053743713,0.07800701,-0.2023297,-0.08175956,0.21943279,0.24235626,-0.17370525,-0.0791866,-0.18852428,-0.06805018,0.29082304,0.41351905,-0.096223086,0.17173886,0.22183707,0.021137793,0.008999248,0.21146439,0.20118734,-0.14957649,0.18654147,0.1358591,0.033251267,-0.21349087,0.18870404,0.34030926,-0.11171878,0.2611387,-0.15546349,-0.073951736,0.3345722,0.24502206,0.2007096,-0.01453712,0.027115108,-0.19622877,-0.010020086,-0.16345377,-0.061060365,0.250562,0.17342956,-0.17903894,-0.20666213,-0.17633845,-0.2115923,0.00057454355,-0.14971839,-0.19089083,-0.29015052,0.024088457,-0.24955535,-0.12476007,-0.09310755,-0.16725735,0.3224538,-0.34938756,0.21949811,-0.23648532,0.19623569,-0.15561302,-0.18303615