-0.12708797,-0.006138723,0.032023985,0.0077810353,0.029762948,-0.026434354,-0.016463503,-0.025245367,0.07737419,0.12236155,-0.07917736,-0.03688255,0.051021818,0.08138385,0.06999978,-0.06584917,-0.065841004,-0.06828746,-0.078938946,-0.046418995,-0.011297496,-0.030142995,-0.06666856,0.1096432,0.16479571,-0.06636691,0.02348924,0.018286044,-0.0509714,0.010804747,-0.017560061,-0.0008040884,0.0436411,0.073211275,0.10105091,0.014170702,0.04539801,-0.020518305,0.07329337,0.0025448431,-0.05943479,-0.15036704,-0.011807463,0.027691215,0.003784852,-0.07211972,-0.14534505,-0.16702113,-0.118148915,0.07719059,-0.018937593,0.021031799,-0.0022317613,-0.054816745,-0.05692391,-0.035675984,0.018950755,-0.09081323,0.05194929,0.010751333,-0.07956392,-0.11260689,-0.12398715,0.06063619,-0.0032164443,-0.10233079,-0.14372122,-0.009723892,-0.12708504,-0.13545467,-0.15901342,-0.16063166,-0.03780353,0.027534526,-0.016773012,0.036393244,0.099199764,-0.027560413,-0.06991905,-0.018546984,0.10841288,0.03213262,0.097265266,0.09848583,0.14773558,0.032780822,0.06327751,0.11349719,-0.113208964,-0.06875596,-0.113467894,-0.010601495,0.074568264,-0.13408424,-0.23004381,0.08000429,-0.039799016,-0.13261583,-0.09009455,0.004762723,-0.13987271,-0.21961996,-0.20803773,-0.2556246,-0.16072063,0.05398273,0.014634537,-0.005588191,0.025496947,0.10632544,0.10203722,0.077309534,0.121067554,0.037287187,0.035712123,0.05759419,0.14740132,0.22276191,0.16889769,-0.1285691,-0.029955273,0.07332113,0.1604505,-0.07035632,-0.15663958,0.016988358,-0.07274114,-0.087369755,-0.09201744,-0.117944844,0.11530508,0.02696911,0.07207274,0.044877183,-0.047762588,0.045684706,0.06464053,-0.06909447,-0.14951654,-0.15481737,0.00030030572,0.017252896,-0.09066903,-0.07793584,-0.21846364,0.02356795,-0.006458009,-0.08110303,-0.022425478,0.008977946,-0.0663249,0.040618144,-0.0052844808,0.061944675,-0.023431983,-0.026327744,-0.07349994,0.060867306,0.077521905,-0.07099586,-0.028319977,-0.031476434,-0.0025920118,0.004002974,-0.0108783245,-0.012196141,-0.03393836,-0.07482161,-0.10698328,-0.060258757,-0.11827331,0.067507856,0.08162428,-0.00487023,-0.07129935,-0.034883283,-0.05123532,-0.06276377,-0.04807669,-0.029125232,-0.0693272,-0.033136312,-0.012484536,-0.064033896,-0.051368725,-0.109701194,-0.06935237,-0.06770128,0.07615991,-0.009376641,-0.042795777,0.09759628,0.088028066,-0.02304623,-0.05666371,0.042202987,0.054764755,0.04406122,-0.036496155,0.049620677,0.06612204,-0.1352881,0.06420154,-0.013667139,-0.032651428,-0.022355288,-0.07267567,-0.0013102522,0.030529052,0.019689258,-0.015946476,-0.012726865,-0.113430575,-0.0591597,-0.07083373,-0.02836467,0.045289073,0.023574013,-0.013882797,-0.011642358,0.06566763,0.042054445,0.06526407,-0.045523975,-0.08979915,-0.061403695,-0.08967641,-0.14264369,-0.045098633,-0.024464183,0.019327713,0.023944652,0.050613858,0.030018639,0.11800038,0.09477265,0.102411345,0.10789674,0.12396595,-0.001457377,-0.07303546,0.007847127,0.076471046,0.07212155,-0.07513591,-0.049289193,-0.14038254,-0.07431328,-0.12969531,-0.10890754,-0.03554347,0.024894506,-0.21524122,-0.16637217,0.06276747,-0.014988066,-0.05107393,0.065534085,-0.008276975,0.12301844,0.064071834,-0.016965581,-0.07497819,-0.08843983,-0.025470134,-0.01104202,-0.19439471,-0.18737262,-0.28417107,-0.23807454,-0.099086896,-0.105189584,-0.025757827,-0.009141128,0.038462188,0.022048429,0.08833844,-0.025632858,-0.023644298,0.013501503,-0.06550601,0.026418922,0.081265636,0.008396424,-0.007063292,0.037404433,0.08247837,0.005335701,0.0024851908,0.04959707,0.032928165,-0.021310596,-0.06361231,-0.005678107,-0.030998921,-0.118253306,-0.044909123,-0.06829745,-0.006130131,0.061622445,0.012721781,0.17089799,0.13457026,0.025397126,-0.08420855,-0.012384505,0.050833624,0.10771982,0.15796964,-0.008185773,-0.07670549,0.030714257,-0.03614771,0.040792704,-0.092462935,0.14690189,0.008262528,0.047626376,0.080074646,-0.14027217,0.10002629,-0.030105684,-0.05197484,-0.11827427,-0.0039305864,-0.08116134,0.020352088,-0.0059942706,-0.008660623,0.0821005,-0.049183898,-0.137736,0.04289748,-0.046682633,-0.0076355613,0.11551084,-0.069135524,-0.017066361,-0.033783294,-0.038008623,-0.13669601,-0.22552708,0.015250852,0.09147881,0.10603419,-0.13948418,0.10566792,0.17579581,0.13315019,0.2753631,0.17206945,-0.035549734,-0.1422634,-0.18115912,-0.2314552,0.10401859,-0.026350873,-0.17504916,-0.12113681,-0.03697571,-0.006942049,-0.13224822,-0.20678905,-0.1764447,-0.019018644,-0.14204225,-0.10014592,-0.11545348,-0.13667968,-0.04122337,0.0037770264,0.032176174,0.054964814,-0.048888244,0.10936729,0.000103761,0.11892696,0.050798457,0.0021312644,-0.04886298,-0.08021087,0.036160477,-0.023509355,-0.09809626,0.007532857,-0.05112288,0.043557987,-0.019693991,0.035054605,0.03332676,-0.010910083,-0.03336271,0.04282582,0.07733273,-0.051585384,0.054762077,0.13443045,0.07747029,0.15695658,0.02236863,0.09330493,0.06348299,0.044757996,0.0028337091,0.054546323,0.108038284,0.102209225,0.011153342,0.079470605,0.024868984,-0.10863758,-0.124716505,-0.005405424,0.037041422,-0.09736506,-0.08454658,-0.06519145,0.010723665,-0.040319826,-0.06586358,-0.0031788207,-0.049427036,-0.07042892,-0.03301974,-0.06274112,0.11235306,0.02934359,-0.101073615,-0.059238836,-0.10585605,-0.0017061125,-0.07450488,-0.0801017,-0.035078023,-0.0075501166,-0.036027092,-0.043999057,-0.10967579,-0.1376202,-0.080782875,-0.068356976,-0.1363902,0.0029171451,0.026307346,-0.0037331532,0.04617936,0.044639505,-0.08412437,0.141133,0.0397461,-0.06811855,-0.06795859,-0.021102548,-0.0011559725,-0.060037047,-0.13439098,-0.035092104,0.047975305,0.077650286,0.03948417,0.021947106,-0.013153743,0.10245156,0.051562052,0.0022898472,-0.002794327,0.0013666357,-0.04472619,-0.0891257,-0.007952755,-0.01640898,-0.033096667,-0.01778322,0.031276885,0.079358965,0.11606338,-0.014208807,-0.025525577,-0.04677853,-0.025713062,-0.08363212,-0.11382564,-0.013842675,0.015062329,0.056270078,0.130152,0.061615817,0.10872976,0.09541523,0.048225146,-0.1420675,-0.16067034,-0.028237417,-0.12887345,-0.14798792,-0.09509092,0.056263376,0.0032945364,0.16080752,0.14098877,-0.045121513,0.079431385,0.21876723,0.062257033,-0.17950615,-0.08403078,0.035010893,0.019953791,-0.02495923,-0.069345206,-0.034158356,0.14091676,-0.0072774775,-0.058006935,-0.1020093,0.060829867,0.070666306,-0.0060773604,-0.13448472,-0.12275234,0.041273557,0.00079366594,-0.031977385,-0.05584589,0.01662686,-0.14616348,-0.0121702505,0.09859968,0.06252899,-0.024833493,-0.08978667,0.021213317,0.09716225,0.018520705,-0.08490849,-0.0023578499,0.07564032,0.084877536,-0.04858529,-0.21623863,0.0026742886,0.10758284,-0.05031237,-0.15825747,-0.144166,0.017513916,0.0035759907,-0.0995033,-0.065859795,-0.15816917,-0.1164501,0.090986505,0.13248102,0.07264892,0.05357833,-0.034327697,0.02801229,0.065102905,0.10112279,-0.059746914,-0.073580764,0.088364676,0.036950648,0.0048649847,-0.19382541,-0.020569777,0.06261484,0.054053675,-0.090660036,-0.24104303,-0.00032758882,0.009259639,0.14346844,0.040987283,-0.19502383,-0.08730274,-0.033745077,0.0007639034,0.003042996,-0.13646805,0.008895315,-0.12289981,0.08137776,-0.085660666,-0.16813532,0.063197225,-0.018299717,0.076648906,-0.070922345,-0.22178297,0.12348135,-0.09116483,-0.09130015,-0.09377553,-0.12282315,-0.022687336,-0.03759171,0.09532894,0.1091472,-0.010348751,-0.15395387,-0.11711979,-0.092903085,-0.06896117,-0.059882127,-0.05095135,-0.15768944,-0.108004555,-0.070711814,-0.05578589,-0.051674005,-0.1413869,-0.15601277,-0.0645842,-0.024368476,-0.10110617,-0.2148351,-0.14792624,-0.09392417,-0.052159607,-0.123331875,-0.088450804,-0.09594427,-0.12803644,-0.080717534,-0.023453515,-0.09317967,0.036129046,0.07281135,-0.039101724,-0.07201612,-0.013368669,0.09290055,0.04222141,-0.113771036,-0.07475403,0.04124564,-0.0020893612,-0.03969353,-0.09229681,-0.067981936,-0.04603527,-0.0011655281,-0.015727852,-0.13430513,-0.04907303,-0.032595318,0.08251266,0.020338707,0.038300715,0.053391162,0.18414065,0.11761925,0.0036693474,0.0033435677,0.04211517,0.107128344,0.020520765,-0.045734894,0.04052654,0.087371245,0.031675223,0.12133407,0.023937048,-0.029052017,0.037074033,-0.00042321687,0.13738003,-0.018459681,-0.025308786,0.048102338,-0.0030462882,0.1891674,-0.03140085,-0.06422076,0.036524463,0.10566907,0.08322487,0.0040352447,0.057917412,0.10794459,0.031417575,-0.09777964,-0.04581666,-0.06275871,0.02981557,-0.0109979315,-0.09414416,-0.0020646018,-0.009055875,-0.06666634,-0.048697527,-0.04912269,0.05223063,0.024470333,-0.06121986,-0.041335803,0.007889544,-0.06825502,0.047427822,-0.021674898,0.0175843,0.038299527,-0.016339917,0.016362363,0.0498116,-0.09745352,0.018229434,0.08261447,0.08862088,-0.03324917,-0.010325749,0.06024344,0.061963025,0.024490932,-0.026395645,0.08189603,-0.019808086,-0.047045898,-0.046001334,-0.004991207,0.069678076,-0.028992426,-0.007242118,0.035549592,-0.18865114,-0.11424878,-0.042726222,-0.0049247453,-0.10481493,-0.14483447,-0.14038849,-0.06530075,-0.08580272,-0.13376641,-0.07011895,-0.114929006,-0.087513834,-0.08196534,-0.087841116,0.0022089228,-0.07482481,-0.11947299,-0.14023273,-0.08423861,-0.105466776,-0.09430826,-0.09985247,-0.058788944,-0.13847217,0.035991594,-0.060234983,0.07265686,0.021493183,-0.104924835,0.10655883,0.04619567,0.04722513,0.035553996,0.07715254,-0.17980069,-0.018438919,-0.014468327,0.051000684,0.004233844,-0.17123157,-0.019674059,-0.057161044,0.013161978,0.026870862,-0.17001475,-0.08552085,-0.014517367,0.056695484,-0.00831279,-0.024673322,0.084822685,0.010436037,0.011036168,0.013146712,-0.08008366,0.03629313,-0.067563705,0.047420256,-0.044213112,0.0330226,0.027819471,0.046413124,-0.07741793,0.08870686,-0.055992674,0.09637564,-0.02208677,-0.024505261,-0.0032432755,0.08234226,0.11007604,-0.0700927,-0.11106358,-0.07520671,-0.101450786,-0.03893515,-0.13704051,-0.00095115363,-0.08734045,-0.005697641,-0.036294512,-0.010867678,0.021018283,-0.14054067,-0.050296128,0.0015645515,-0.056164354,-0.053117294,-0.12782036,-0.2592821,-0.006702862,-0.050157525,-0.13944195,-0.045297965,-0.23581949,-0.19888829,-0.2518938,-0.1610022,-0.033510968,0.004735881,-0.073583424,0.022901269,-0.10131513,-0.10555343,0.064875744,0.005109378,0.009212241,0.0015443502,0.0010737972,0.013762647,0.15919828,-0.023720725,0.024949467,0.02633914,0.070085466,0.1254327,-0.0016934591,-0.049005855,-0.10779577,0.16282155,-0.14779118,-0.09412293,-0.09218772,-0.06979981,-0.12468943,-0.057955567,-0.0055999258,-0.058489375,-0.052452687,-0.19671045,0.019727958,-0.03079226,-0.019825552,0.09032444,-0.0052336627,0.10303354,0.04633393,0.19209759,0.061898552,0.082481205,0.058859486,-0.096026346,0.13352661,0.09486284,0.17813157,0.13997796,0.08307013,-0.0040968596,0.057129845,-0.07694211,-0.02500057,0.02245443,-0.07551494,-0.20146608,-0.050363615,0.060256083,0.15500201,0.04804334,-0.08031192,0.0949825,0.12248215,0.03286022,-0.060424767,-0.06446787,0.067549266,0.0040132143,-0.12361065,-0.08163526,-0.17605928,-0.030432414,-0.14194933,-0.18405023,-0.03864129,-0.09038524,-0.07514755,-0.16960114,-0.0017481494,-0.05224206,-0.06276934,-0.05628443,-0.06539592,-0.04014942,0.03446348,-0.08253766,-0.04666104,-0.028126922,0.03928086,-0.056076046,-0.007526238,-0.018151421,-0.09922068,-0.05860956,-0.023335326,-0.059397813,-0.21028556,-0.15460125,-0.08835901,-0.029510211,0.025640791,-0.0770368,-0.10066075,0.041539237,-0.06307351,0.05491352,-0.18514097,-0.010776986,0.042789407,0.07318808,0.025848737,-0.06946954,-0.030365884,0.06526515,0.069658905,0.04193084,0.05902352,-0.038854823,-0.023525335,0.073075354,-0.031688437,0.05236569,-0.009836993,0.014779441,0.061151627,0.033219043,-0.0150076775,-0.04390279,0.03437714,-0.029807843,0.051919874,-0.0046504354,0.022879332,0.03626295,0.03321238,-0.051643264,0.037265476,-0.05184661,0.14731963,0.049791906,-0.14353211,0.014634758,0.10039138,0.0039523677,-0.053081825,0.030554999,-0.0786151,0.11258176,0.11774407,-0.011798823,-0.0633985,0.016065689,0.097720236,0.07596161,-0.06427476,-0.07928075,-0.03664858,-0.03524578,0.04066421,0.023563039,0.10881119,0.113986574,0.054248925,0.023637258,0.15096825,0.22054869,0.0072587947,0.028902147,0.018866882,0.069438405,0.028149173,0.122341365,0.13678113,-0.000768636,-0.056737255,-0.086492516,0.02556703,-0.068859644,0.003255101,0.09446821,0.115821026,-0.07124672,-0.042987615,-0.049622864,0.021468798,-0.036269825,-0.04688819,-0.08104065,-0.06218863,0.042649176,0.031441092,-0.015278501,0.036732122,0.06938177,0.033240385,0.012770834,0.0063157957,0.05860439,-0.0043386794,-0.031681094,-0.03067751,0.028481087,-0.047186144,-0.06776426,0.027465845,0.005117346,0.004225461,4.7837508e-05,-0.014056716,0.051258147,0.054755434,-0.052708473,-0.03146242,0.031392854,-0.05786505,-0.08895955,0.018334076,0.022442259,0.02533864,0.008911045,-0.02650755,-0.049103312,-0.052430466,-0.06285636,-0.0069740494,0.05676033,-0.035686616,-0.0896481,-0.07475463,-0.031328946,-0.022348976,-0.099815935,-0.10386789,-0.0068093278,-6.249509e-05,-0.05212078,-0.044077635,-0.07356515,0.018479124,0.003959237,-0.054277416,-0.047876846,-0.06870205,-0.08817774,-0.030820623,0.028516611,-0.06385027,-0.05776614,-0.004904564,-0.059204537,-0.04505433,-0.09384645,-0.019184278,0.016658166,-0.039381947,0.105420016,-0.06123729,-0.0479445,-0.0354624,-0.032187365,0.056591954,0.09202777,0.034997515,-0.010876263,-0.06086412,-0.075275496,0.046227872,0.008648421,0.050241828,-0.036711015,-0.0003871343,-0.040648814,0.0054918765,-0.012034573,0.0013237117,-0.009929555,-0.0052540326,0.06019414,-0.043269508,-0.034168657,-0.018457364,0.0034338431,-0.050020564,0.039269835,0.08432162,0.11898331,0.02823047,-0.019994123,0.03571211,0.100795306,0.030202404,0.106712125,0.066745244,0.037494384,-0.05842847,-0.007060672,-0.048762396,0.057584357,-0.035253454,-0.029710481,0.04254861,-0.018444795,0.00079346146,-0.03510959,0.0732059,0.02961909,-0.030004775,0.0055918344,-0.05822538,0.0015452302,-0.03130175,-0.040968873,0.007305417,0.026299091,0.03333324,-0.10521894,0.051637296,-0.025617516,-0.042530812,-0.0351482,-0.01208985,0.058523454,0.025441693,-0.024784865,0.037399735,0.0012437606,0.00021306844,-0.071962014,-0.04292873,0.058228973,-0.049306378,-0.010657718,0.028834034,-0.00061902736,-0.028630935,-0.016208466,-0.023797095,0.01630934,0.0074889,-0.038164202,-0.027694097,-0.015136521,0.02763237,0.047160745,-0.059032373,-0.028691815,0.027604394,0.033293907,-0.07109378,-0.06308072,-0.02588541,0.046007376,0.043249972,-0.05883379,0.0006742796,0.0007638728,-0.056317683,0.04317936,0.09238863,0.100450724,0.075233124,0.022668049,-0.02043986,0.04912815,0.083786815,-0.052183274,-0.035695728,0.06583151,-0.02659276,0.010887276,0.025558658,-0.029163575,0.0017990748,-0.0077907555,-0.058004424,-0.07690758,-0.017200125,0.048068374,-0.036948353,-0.050650008,0.04001101,-0.015103911,-0.06212767,-0.03980725,0.015717931,-0.053595208,0.0038255157,-0.055646796,0.034032397,0.03859627,-0.07869577,-0.04495929,-0.032745056,0.030034157,0.055115547,0.010680219,0.071849085,-0.010176616,0.012321603,0.024635844,-0.058530483,-0.013831663,0.06383239,-0.023920279,-0.0413033,0.06518308,-0.07021588,-0.03323663,0.0037498197,0.09842649,0.039676677,0.05373976,-0.05996592,-0.035771344,0.026617855,-0.07700172,-0.0077331234,0.076015666,4.156495e-05,-0.0483371,-0.04720594,0.031370908,0.017654885,0.01319822,-0.055930518,0.0045507704,0.052736092,0.011028819,0.0066653923,0.10745897,-0.13605389,-0.02226855,-0.07674379,-0.010134333,-0.05576515,-0.18464081,-0.16831504,-0.023049599,-0.09943969,-0.16857679,-0.02890458,0.07661909,0.0018149273,-0.06573359,-0.07794839,-0.014033653,-0.039667524,0.016565463,-0.0648604,-0.04891205,0.1268785,-0.008328745,0.070500694,0.045233052,-0.065038115,-0.005993063,0.002135719,-0.03112329,-0.061704356,-0.093518056,-0.062095646,-0.08074278,-0.016515907,-0.016053744,-0.12536275,-0.15540873,0.131307,0.029633624,-0.08226241,-0.16534483,-0.007343619,0.09070175,-0.06064375,-0.078630365,-0.09690066,-0.07075384,-0.12394475,-0.07026241,-0.087862365,-0.03781967,0.038486306,-0.20025367,-0.055563297,-0.010248082,-0.0037628403,0.017511584,-0.0045438465,0.12937395,0.1460702,-0.033395723,-0.09758512,0.1477772,0.12087067,0.18356058,-0.059702113,-0.029850036,0.016961223,0.06932312,0.07909418,-0.08418023,0.0028025222,0.09719949,0.04515287,0.006011996,-0.027981713,-0.2391744,0.16471018,0.0639184,0.112339795,0.046465773,-0.22305126,-0.14586598,-0.04140876,0.111066565,-0.014973134,-0.045155507,-0.076589234,-0.1394043,0.009426198,-0.02817494,0.023772577,-0.18218236,-0.2660795,0.06164882,0.16667514,0.061567742,-0.101650625,-0.044405095,-0.023992984,-0.04775063,-0.011772583,0.1416554,-0.113283694,-0.13856295,-0.031437457,0.01214156,-0.04693809,-0.13084112,-0.057410162,-0.08397471,-0.15556723,-0.124681644,-0.10343418,-0.12829596,-0.06490353,-0.029868316,0.10222134,0.005340427,-0.10323503,-0.17415176,-0.07449319,-0.027274335,-0.0029987441,-0.099218555,-0.07947863,-0.07979911,0.10676256,0.12049045,0.010548925,0.019274335,-0.15392749,0.1645028,0.1536604,0.03291422,-0.016461177,-0.120915815,-0.0811565,-0.021908464,-0.0343514,-0.03624114,-0.05432436,-0.09415658,-0.08706958,0.09254746,-0.067661926,0.056080133,-0.044984847,-0.11082806,-0.04768206,-0.0135297,-0.019131318,0.037423268,-0.023533348,0.005841887,-0.11403054,0.09161276,0.04099326,0.17447545,0.13190886,0.045332436,0.17755252,0.069156945,0.10023268,0.21682225,0.057736956,0.19559568,0.012223707,0.16870509,0.09926832,0.06341319,0.11037774,0.05784131,0.100535296,0.030706124,-0.03990685,0.07773981,0.08124845,0.030619528,0.023311695,0.032728635,-0.023541706,0.047618832,0.039221358,-0.1030555,-0.05350999,-0.01778202,0.039629683,-0.10522057,-0.13234743,-0.06343031,0.028538633,0.06551334,-0.093475275,-0.06996644,-0.0061244457,0.098437205,0.031941257,0.02096535,-0.05716703,-0.06889508,0.009759179,-0.022016205,-0.05248089,-0.063954465,0.012521002,0.08165021,-0.013363269,-0.048458684,0.08222368,0.016180566,-0.08260528,0.05876774,0.1456104,0.055386003,-0.07496833,-0.114853695,0.06884918,-0.098171405,-0.09105916,-0.05412761,-0.010633956,0.037097763,0.005828679,0.038020466,-0.2086469,-0.17283177,0.073030904,-0.058289696,-0.07037593,-0.14151517,-0.18156195,-0.0104088085,-0.09579699,-0.15434246,-0.14224003,-0.14332426,-0.052960634,-0.120353244,-0.11489402,-0.050192263,-0.058874294,-0.04745368,-0.122695714,-0.10519113,-0.07053726,-0.049728543,-0.017397905,0.0133063365,0.052585863,0.076247,-0.044808228,-0.06924156,-0.049539924,-0.016655209,0.027301755,-0.123200245,0.19134241,0.011504957,0.020906331,-0.08222132,-0.14628245,-0.11551444,-0.05616981,0.0109360125,-0.0850565,-0.19371073,-0.0045810807,-0.005406491,0.11022782,0.04199845,-0.02112141,-0.030594083,0.06569795,-0.03729077,0.112854555,0.056522693,-0.009188653,-0.053776316,-0.012343852,0.014772238,-0.023294969,-0.010383934,0.012981678,0.0026079256,-0.008219919,-0.043471254,-0.039660238,-0.1044154,-0.026119884,0.029869055,0.024072941,-0.020715602,-0.054918908,0.023091016,0.07687344,0.0011432493,-0.106803924,-0.051489223,-0.086909,-0.01363256,-0.12086579,0.0127868205,0.058853462,-0.09042787,-0.0013277944,-0.1177266,-0.05321131,-0.05138945,-0.06461687,-0.002619884,-0.08247757,-0.09897135,-0.1517028,-0.09132883,0.013513065,0.11996577,-0.1833042,-0.018613841,0.0021765346,0.0957391,0.07754072,0.016444603,0.002691157,-0.02760168,-0.10402854,-0.1759694,-0.06921786,0.07158969,0.041853327,0.053287145,0.16054167,-0.017776256,-0.032982077,0.08008461,0.044954736,0.16364151,-0.17592248,-0.04550199,0.1163264,0.02777392,-0.02567153,-0.10606182,0.05232685,0.03369059,-0.16755757,-0.13622849,-0.15503736,-0.16019103,-0.094644964,-0.17662229,-0.014058913,0.1395803,0.05833468,0.015769737,0.00012859408,-0.059344802,0.08269331,0.107950024,0.08130399,0.045671698,0.05358293,-0.05687496,0.12913439,0.14866881,0.06375433,-0.17333661,-0.0795612,-0.06317505,-0.11898254,-0.03293765,-0.08165698,0.007956239,-0.10116637,-0.04772696,-0.15554489,-0.20341273,0.021119071,0.067249045,0.08337574,0.13212772,0.025558611,-0.059598565,0.101294324,0.087227,0.06968768,0.06433315,-0.08122253,0.04300524,-0.047206573,-0.0020970916,0.032134276,-0.10507448,-0.0687501,0.029621588,-0.059325024,-0.08168993,0.009926328,-0.023811623,0.008118096,-0.0072251325,-0.07677148,0.089542784,0.07626303,-0.024440661,-0.00046471326,-0.14165846,0.003988159,-0.026986951,0.01979824,-0.025870312,-0.08390347,-0.10054389,-0.009565634,-0.00038803642,-0.018328328,-0.12469871,-0.13454854,0.040231384,0.048094407,-0.04492765,-0.0010422083,0.03798119,-0.012655689,-0.057079155,-0.030835867,-0.024883613,-0.00011870787,-0.046844307,-0.007999912,0.057341777,0.033691816,-0.021103432,0.074416354,0.093778685,0.064989194,0.0677615,0.013022215,0.069401264,0.11455296,0.059619714,-0.02778159,0.008524123,-0.016632361,-0.0017326528,0.028571652,-0.13966838,0.0033560167,-0.07268345,0.018027097,-0.06386487,0.07869418,-0.081646375,-0.06688776,0.055815797,-0.040621534,-0.09107698,-0.07977788,-0.028719934,0.030041704,0.02186541,0.02820441,-0.009504726,0.057292458,0.058862936,0.033074934,0.03813728,0.0012012831,0.027611464,0.009326998,0.042747695,0.09609195,-0.056567974,-0.09384326,-0.021292357,-0.02504505,-0.020760333,-0.00884862,-0.003271472,0.06919768,0.15987569,-4.8486116e-05,-0.121576875,0.026389867,0.15116991,0.1457637,0.030647304,0.0072136205,-0.0637005,0.06141146,0.1630743,0.05675358,-0.034016788,-0.101508856,-0.030314615,0.024427183,-0.089116655,-0.05402933,-0.088213205,-0.13049853,-0.10557191,-0.15094942,-0.006867874,-0.029129336,0.20674258,0.16922772,0.006128766,0.08846853,0.1504923,0.14111313,0.075453416,-0.020603687,-0.06873967,0.09594348,0.020768028,-0.022757314,0.09231301,-0.13127597,-0.18118252,0.0044774124,-0.08196921,-0.016821723,0.07807236,-0.09216895,-0.01683586,-0.028113957,-0.053420592,-0.14817724,0.0113601275,0.01707662,0.011655202,0.026784487,0.0276846,0.10120726,0.028522953,0.06909234,-0.021033252,0.029664746,-0.0049754153,-0.0085875215,-0.019922713,0.025567224,0.03647729,-0.065518625,-0.060299803,0.05596594,0.012814085,0.06541121,-0.030496547,0.023568038,0.053119466,0.22572303,-0.098202035,-0.1318364,-0.108669564,-0.03652783,0.049740043,-0.023734117,-0.056682125,-0.069010705,-0.038092338,0.051399797,0.00084723806,0.0017679561,-0.0040090773,-0.06765287,-0.059907824,0.0051914277,-0.13878886,0.008760322,-0.06355278,-0.24213521,-0.13643923,-0.0706155,-0.02103651,-0.21472886,-0.19409531,-0.12824513,0.0726283,-0.015980449,-0.054511245,-0.11697421,-0.098446995,-0.0120494,0.004492665,0.056806646,-0.04755525,-0.063144945,0.019655624,0.17360722,0.13427863,0.09701545,-0.06924138,0.0060753175,0.025618192,0.021799793,-0.036477115,0.078180484,0.04735268,0.0885645,-0.038445108,0.008762302,-0.08368965,-0.03838226,-0.015632097,-0.002318305,0.04679427,-0.16771707,-0.17552905,0.028061591,0.119706124,0.09731007,-0.34330523,-0.02076386,0.05862715,0.09974368,0.15343769,-0.10654999,0.17260315,0.08544404,0.07190238,0.1652169,0.06340372,0.06238235,0.0072358632,-0.046999853,-0.007812865,-0.07859643,-0.04996625,-0.12825751,-0.049907643,-0.19338027,-0.096008874,-0.09083813,0.036439087,0.016705476,0.0065783197,-0.05644377,0.06510562,0.062199224,0.06391945,0.056353737,0.1240526,0.030300833,0.11178495,-0.018402748,-0.0047876434,-0.03910427,0.038875066,0.076849975,0.07973289,0.06275401,-0.092685975,-0.0750326,-0.078839526,-0.0011140942,0.044283006,0.024769248,-0.069156595,-0.10975022,-0.11817344,-0.06970862,-0.051091097,-0.04847435,-0.10572146,-0.03261007,-0.08873677,-0.11179285,0.06043441,-0.030163683,-0.11739174,-0.02396354,0.017037868,0.06677186,0.12150863,-0.016554553,-0.050683204,-0.08255115,-0.01684787,-0.043840963,0.051769037,-0.011706924,0.015896255,-0.0059453845,0.04467147,-0.011067218,-0.061042093,-0.14563917,0.031416528,0.010166052,-0.055091653,-0.0018518304,-0.10410355,0.06263669,0.013790435,-8.671714e-05,0.04020771,0.04401959,0.050281055,-0.009195244,0.03807098,-0.045758206,-0.021250242,0.017666982,0.047523815,0.008958059,0.05283708,-0.02603456,0.06488997,0.03616713,-0.018516153,-0.045208473,0.047548402,-0.005400086,0.0021393348,-0.018819375,-0.050664924,0.09634043,-0.06560169,0.08587689,0.070905186,-0.014379821,0.058538478,0.04774314,0.0612338,-0.0057508647,-0.030208861,-0.054061487,-0.004308188,0.034571283,0.14315523,-0.016572585,-0.09973445,0.058411453,0.23827624,0.061851744,-0.058358584,-0.0023393235,0.097233154,0.17669278,0.05846187,-0.019579332,-0.073237754,0.07305543,0.10818449,-0.044920456,-0.053169627,-0.21666136,-0.15960294,-0.10555173,-0.0028039196,-0.09503431,-0.03137571,0.016284697,-0.07108174,-0.11890441,-0.11842984,0.16803592,0.14450032,0.1246453,0.018569872,0.048264,0.08981755,0.025990572,-0.062429756,0.06900187,-0.01895976,-0.05997123,-0.05850178,-0.04508171,-0.15172619,-0.119447134,0.02549676,-0.09189838,-0.07094077,-0.020260358,0.047872085,-0.056475088,-0.077501796,-0.13412637,-0.22151858,-0.18835136,0.085095726,0.051684584,0.011995623,-0.06601127,0.0041767233,0.02482461,-0.11501544,-0.08820325,0.042078786,0.032641605,0.07398432,-0.028258847,0.052574888,-0.024186699,0.0059168185,-0.16817366,-0.16590133,-0.109974355,0.064873345,0.18405549,-0.29679906,-0.14957324,-0.26617545,-0.20388168,-0.1103204,-0.15989615,-0.079709336,-0.15633151,-0.13095507,-0.097907424,0.017933607,-0.06764677,-0.009191352,-0.012386155,-0.03189035,0.030101066,-0.02712281,0.11144049,-0.08755158,-0.12651555,-0.34982973,-0.16999228,-0.158303,-0.09072061,-0.14241281,-0.13564682,-0.14672607,-0.09653217,-0.16247869,-0.09358294,0.023312664,0.079601,0.011791134,0.17802654,0.14606678,0.014334225,0.06748773,0.026354877,0.06922415,0.08153299,-0.18269444,0.0040650894,-0.0343621,-0.14568558,-0.05364397,0.19661087,0.098445676,0.11573109,0.099282406,0.24181218,-0.003255011,0.014563491,0.022285314,0.060492333,0.10538116,-0.047101635,-0.068593256,0.10211799,0.04231557,-0.06187893,-0.13422397,-0.0064415494,0.044258237,0.08101802,0.021918347,-0.11308868,-0.04102668,-0.01601752,0.08553638,0.06998056,-0.0531995,0.00043243583,-0.05094733,-0.0620567,-0.0866151,-0.10884179,-0.15659456,-0.12379159,-0.052083332,-0.021111116,-0.081439674,-0.054191343,0.01822083,0.06568727,-0.047996484,0.028518137,-0.0030055598,0.07501314,0.089671224,-0.030490905,-0.026158914,0.010203416,0.016792573,-0.061490726,-0.06868179,-0.06478488,-0.12112279,-0.037390716,-0.012121374,-0.013290943,-0.01648465,0.015241848,-0.046926927,-0.020250024,-0.08324199,-0.014092315,-0.025583282,-0.048002675,-0.015878437,-0.11506668,-0.12176635,-0.002229031,-0.10371728,-0.09678165,-0.16357523,-0.060306605,0.015821682,-0.0049083955,-0.08368821,-0.0663935,-0.013534629,0.07382706,0.048550908,0.034660913,-0.04819919,-0.033454455,0.019997722,-0.05655032,0.013214832,0.066467755,-0.06005392,0.021595793,-0.02264747,0.09251664,-0.05793907,-0.040924054,-0.121150136,0.050265342,-0.0014943095,0.026384952,-0.085536405,0.04054009,0.025849761,0.03741051,-0.038218368,-0.019045945,-0.09482879,0.0070158825,-0.10553255,-0.059056036,-0.019874072,0.02183441,-0.052296735,-0.06608651,-0.0938723,0.036505107,0.050143383,0.037878025,0.020283619,-0.07161404,0.10695838,0.07779389,0.05454313,0.013857428,-0.038999047,0.09549355,-0.009671725,0.010478312,-0.009895186,-0.09564527,0.0013365041,-0.0015483127,0.004647633,0.10094318,0.07253792,-0.015035706,-0.11990786,-0.107969455,-0.08303739,-0.039995153,0.039546728,0.02997013,0.18262352,0.10318482,0.075602025,0.079006694,-0.039983787,-0.013534469,-0.0015081962,0.037504695,0.027440408,-0.006111642,0.0748283,0.051331416,0.07583218,-0.17854677,-0.092831835,0.06974217,-0.028048374,-0.12194664,-0.04584469,0.09407721,0.042685073,-0.13255253,-0.04029372,0.021681845,0.11002402,0.04524024,-0.0032845163,-0.07424472,-0.09624904,-0.06179503,-0.07609368,-0.11740048,-0.10170236,-0.046986893,-0.043961383,-0.10222067,-0.14136517,-0.26928654,-0.0741228,0.076656364,0.05425153,0.012148804,0.0021157297,0.068507046,0.10726111,-0.017671024,-0.03646461,-0.11498683,0.22054763,0.1728952,0.04185752,-0.03619852,-0.1382725,0.057589762,-0.01393574,-0.10168094,-0.1462055,-0.10387132,-0.09217735,-0.10965384,-0.13825291,-0.13085686,-0.1653448,-0.026390014,0.13837364,0.1665936,0.11671296,-0.17284232,-0.11777185,0.17493612,0.09966301,0.094505005,-0.15016446,0.0356668,0.011232243,0.106240265,-0.1054365,-0.17395619,-0.09260482,0.0030222319,-0.061164845,-0.24863055,-0.21450338,-0.10388116,-0.002518636,-0.061259963,-0.14809127,-0.18219376,-0.062191583,0.07977521,0.07317477,-0.0055265916,-0.0737976,0.06579704,-0.04531776,-0.14171875,0.012047132,-0.020720253,-0.011297069,-0.024213232,-0.17775626,-0.06434024,-0.17711039,-0.14662276,-0.019389646,-0.105664626,-0.162532,-0.17715463,0.07065227,0.15925707,0.16046678,0.06283636,-0.23812227,0.06991238,-0.07835446,-0.03305224,-0.03788924,-0.12489891,0.0047097206,-0.14815052,-0.056407716,-0.05767125,0.013492511,0.10696008,0.072177276,0.08167362,0.06139618,-0.01806487,-0.01815833,0.099166796,0.01740629,-0.043401062,-0.0066798534,-0.13234301,-0.0437719,-0.13089313,-0.03144919,-0.09454775,0.09653197,0.19609615,0.08473256,0.07276103,-0.03650725,0.06521514,-0.044641674,-0.08439884,-0.03084747,-0.007217845,-0.067873046,-0.072473586,-0.121468596,-0.14585021,-0.008675132,-0.054661002,-3.5873414e-05,-0.12218234,-0.06513169,-0.07105538,0.03643524,0.101985455,0.051539015,-0.041325994,-0.06159272,0.042316485,-0.03563894,0.06906493,-0.07970762,-0.11709349,0.036734447,0.05259008,0.010399388,-0.0029118482,-0.033492077,0.088228725,0.03529184,-0.024074148,0.035771355,-0.017197227,0.077516414,0.046459466,-0.011752278,-0.026917154,-0.0316263,0.02547486,0.120377354,-0.025098184,-0.084192865,-0.16090773,0.057547405,-0.01409745,-0.1376715,-0.0164437,-0.023995358,0.10227567,-0.024741948,-0.081274316,-0.02363239,-0.07504006,-0.017962072,-0.017846914,-0.076015055,-0.03188792,-0.039818168,0.051512573,0.041098755,0.027107,0.039958917,0.076907404,-0.024715211,0.048666794,0.03996969,0.042313542,0.05449143,-0.041603263,-0.03754858,0.005727823,0.013801237,0.019544892,-0.06664515,0.077743225,-0.034311783,0.10322166,-0.025249444,-0.10671723,0.09283519,-0.046164867,-0.011337622,-0.10566046,0.022160482,0.0013086853,0.023106152,-0.039138347,-0.1080615,-0.031077672,-0.0027958492,-0.09007068,-0.09072802,0.013898606,-0.041896343,-0.054432184,0.024892803,0.0502076,-0.11593528,0.029283289,0.0371217,-0.030662956,0.054444116,0.02359984,0.09324845,0.10853151,0.18003795,0.09327381,0.09204876,-0.040826745,0.059297744,-0.098444685,-0.0983317,-0.050480835,0.053554546,0.008089184,-0.07427377,-0.07241413,-0.17295653,0.10282655,0.018584648,0.06099876,-0.026089542,-0.14745513,0.15229104,-0.008988312,0.010083946,0.058154806,0.12828396,0.061769273,0.011492534,0.044309363,0.19753462,0.124349944,-0.060853824,-0.120882966,0.026290238,0.05821027,-0.045050614,-0.11830641,-0.08893139,-0.028283946,-0.1878591,-0.1956899,-0.07752058,-0.035511367,-0.012788349,-0.09605728,-0.14567892,0.062108066,-0.08136173,-0.038404476,0.023462184,-0.048503883,-0.008455993,-0.121111296,0.09115235,0.076299995,0.040148187,-0.10919902,0.010378236,-0.04242497,0.086082526,-0.01407654,-0.050589986,0.0114825135,-0.040450323,-0.08872379,-0.15651987,0.048344146,0.1595547,0.086999595,-0.010391734,-0.09713976,0.060059488,-0.006427652,0.029557385,0.002723337,-0.053362697,0.14341207,-0.02756375,0.16751038,0.15635417,-0.045805752,-0.021825423,0.100202255,0.14285973,0.046926297,0.041907012,-0.10937385,0.014002769,0.111245275,0.13702992,-0.10753079,0.055973317,-0.1058167,-0.17166637,-0.02641826,-0.16618606,0.12583265,-0.13883495,-0.19066156,-0.13160548,0.05734961,0.042803355,0.016854662,-0.15070036,-0.078814454,-0.04354913,-0.044803135,-0.05221769,0.039257355,-0.13006121,-0.100290745,0.072621964,-0.17351662,-0.091941826,0.09117136,0.11291639,-0.06679393,0.09070673,0.05544131,0.061164774,0.025407208,-0.003200337,0.08665275,0.0036125975,-0.10147295,-0.11447341,0.054130793,-0.07608746,-0.027598932,-0.114382476,-0.021960245,-0.12774253,-0.15733531,-0.10196031,-0.21289742,-0.10910855,-0.15162286,-0.012151455,-0.06918365,-0.09789528,-0.03116266,-0.07330322,-0.112173684,0.06523367,0.059197206,0.004714638,0.002927821,-0.029614624,-0.0036973131,-0.13976952,-0.09600145,0.028796775,-0.090341665,-0.082801186,-0.044867896,-0.18356729,-0.12535477,-0.07886289,-0.09345979,-0.012323812,-0.00063076057,-0.11130187,0.03725854,0.0539883,0.13218313,0.017154833,-0.026703317,0.17170274,0.0038782333,-0.010480748,0.02852485,-0.061286427,0.1105931,0.10414559,0.0042660073,0.05882892,-0.046705503,0.05875184,0.12932967,0.06810056,-0.064200014,0.0073947427,0.053023282,0.042563174,0.16501068,-0.08640015,0.0015081571,0.14655429,0.066918686,0.13798478,-0.045638468,-0.034956574,0.0018845834,0.019583339,-0.08797969,0.0085925525,-0.0040710536,-0.025679966,0.03132358,-0.0032437064,-0.043557767,-0.02642448,-0.014816791,0.057815257,-0.06833781,-0.0161655,-0.008994358,0.033658165,-0.04833231,-0.029008586,0.039807756,0.0029038095,0.06469266,0.006084347,-0.021005435,0.11249698,0.016020646,0.0223225,-0.010810015,-0.029642345,-0.056948632,0.0630766,0.08360189,-0.028378567,-0.03553848,0.021843802,0.17586121,0.07975207,-0.004288214,-0.0759548,0.057580948,0.12924601,0.04456221,0.007914344,0.0835263,-0.039409764,0.012326985,-0.052345023,-0.114740886,-0.111689895,-0.09407185,-0.2283915,-0.13464053,-0.1383102,-0.084803,-0.116597965,-0.012688519,-0.08912314,-0.14165649,-0.13504592,-0.017899154,-0.058227237,-0.080088176,-0.069903046,-0.05583766,0.09568719,-0.124798134,-0.094615206,-0.2543828,-0.07149168,-0.019003902,-0.18064466,-0.1754322,-0.07547489,-0.14226341,0.039015867,-0.12151887,-0.096475974,-0.06251145,-0.19355388,-0.10186131,-0.053361706,-0.087207876,-0.04644468,-0.14646703,-0.23488064,-0.066674404,-0.033308502,-0.059230596,-0.13267925,-0.29976648,0.012660882,0.017701352,0.085642874,0.104712136,-0.12051796,-0.0020943005,0.061497573,0.06923505,-0.04524795,-0.074039795,-0.06753066,-0.029384024,-0.11764887,0.007952529,-0.09154125,-0.13459939,-0.12762438,-0.07423185,-0.090340145,-0.04247145,-0.07658435,-0.053181045,-0.09386842,-0.10869855,-0.031225242,-0.028037515,-0.015412834,0.07418015,0.073187806,-0.053363446,0.027905636,-0.016808549,0.075781964,0.038157776,-0.14419822,-0.08616408,-0.04892237,0.08272046,0.007815128,-0.0752005,-0.09821644,-0.0213141,0.036706977,-0.00918751,-0.06676661,-0.1044101,-0.08387656,-0.064653635,0.15945879,0.05288492,-0.06540509,-0.11382303,-0.015146172,0.16839655,0.06474831,0.024589378,-0.006515943,0.05588388,0.052280802,-0.12191007,-0.052561957,-0.16370039,-0.13425916,0.014481672,0.059036758,0.0047531547,-0.14132102,-0.16301966,0.15891959,0.13795692,0.10847471,-0.10243108,-0.08637923,0.03830724,0.031924818,0.108904056,-0.0172875,-0.016148245,-0.088075496,-0.029152816,0.09129777,-0.06940562,-0.050612174,-0.21278186,-0.13958332,-0.044605374,-0.054243647,-0.10458841,-0.061533343,0.008145469,-0.06153773,0.0047588376,0.08009542,-0.04969473,-0.05047624,-0.10133547,-0.0398053,0.06941506,0.05336403,-0.036331683,0.017224863,-0.027931921,-0.023819508,-0.031089725,-0.01852288,-0.16334327,-0.13361356,-0.089714386,-0.09807566,-0.122126885,-0.0054252786,-0.08452747,0.14884527,0.062293638,0.10194557,0.03166619,-0.053670287,0.16553831,0.1971704,0.05539641,0.036796354,0.0022899597,0.040851083,0.093570806,0.07512724,-0.020646323,-0.031887203,0.0005757815,0.0465064,-0.048938036,-0.05427191,-0.017860284,-0.08423497,-0.07618268,0.026673935,0.02132239,0.0659031,0.119152054,0.029704476,0.006511143,-0.038154483,-0.012456417,0.10696264,-0.027578954,0.0037056191,-0.04034767,0.06810109,0.1003618,0.09229673,-0.028436689,-0.004951687,-0.04092339,0.06816844,0.11569082,-0.0031343102,0.04391599,0.005425801,-0.0028928625,0.01180647,-0.0121081425,-7.060633e-05,-0.0010779961,0.021419274,0.10769475,0.0983284,0.035959493,-0.0020811844,0.08967594,0.050808817,0.07033085,-0.04694307,0.058572106,0.09619563,0.015201304,0.06362839,-0.007572773,-0.0032091525,-0.016414437,-0.051353443,-0.04259299,-0.055946697,0.005191,0.02617924,-0.060520183,-0.076096125,0.02986717,-0.056913763,-0.03945377,-0.056042027,-0.049869552,0.028182859,-0.07518288,0.021451637,-0.06979237,0.020164466,0.05032049,-0.026026212,-0.09180809,-0.05226125,0.08990505,-0.014485203,0.019737365,-0.01688293,-0.040662784,0.121382035,0.033948816,0.028407305,0.026418265,0.103490025,0.010460329,-0.14846708,-0.23428711,-0.087468,-0.102274075,-0.04929198,-0.067544624,-0.22245707,-0.14592488,0.015320503,-0.07358617,-0.074588396,0.01839945,-0.09261529,-0.026591888,-0.09457353,-0.0041912724,-0.009609169,-0.14756972,-0.0051262723,-0.07570123,-0.11270493,-0.221264,-0.058811348,-0.00017586711,-0.1040353,-0.08832231,-0.022626234,0.051238313,0.0070925844,-0.12297297,-0.029071756,0.030425724,0.16664998,0.16830379,0.043895487,0.085624345,0.15851766,0.084312305,0.007350229,-0.19729161,0.11178683,0.07478429,-0.13121405,-0.16083455,-0.042665992,-0.049229935,-0.032264024,-0.14755273,-0.07900731,0.07664654,-0.10872587,-0.07804284,-0.022169065,-0.0812746,-0.055341605,-0.06003204,0.018383548,0.04441849,0.05350501,0.010375915,0.013401614,0.005830185,0.08460449,0.07653934,-0.10375181,0.077816196,0.058494307,0.06993922,-0.16052374,-0.042656105,0.018262256,-0.0585968,-0.1135939,-0.030551445,0.084828995,-0.03678875,-0.10855649,-0.08180369,0.085238725,0.036228538,-0.11669181,-0.03948931,-0.046169594,0.029114075,0.07304207,-0.09726159,0.1399002,0.097691946,-0.021456499,-0.10847569,-0.019326782,0.14115484,0.10443074,-0.18708418,-0.16535486,-0.028636279,0.11783246,-0.078980565,-0.26623815,-0.15442866,-0.059955932,-0.1543383,-0.18453148,-0.14781184,-0.13719021,-0.15277521,0.0047121956,-0.0019990606,-0.061448254,-0.22105171,-0.086526774,0.052101225,-0.056709215,-0.16060774,-0.181615,0.08499769,0.022623314,-0.03419523,-0.07103546,-0.22966032,0.0032851167,-0.10443561,0.0729413,0.09941335,-0.006414217,-0.04385499,-0.123114064,-0.006709472,0.02807235,-0.057662133,0.029375076,-0.03385494,-0.065791585,-0.12570037,-0.065606914,-0.082146786,-0.13851088,-0.16412757,-0.057854023,0.010701261,-0.13091098,-0.09164016,-0.20038207,-0.17054273,0.0005670782,-0.050087474,-0.1865952,-0.026590832,0.10147778,0.051487602,-0.10910921,-0.17357704,-0.1099793,-0.04067119,0.1296923,-0.041868888,-0.00072814623,-0.0032079665,-0.07585911,-0.044388365,-0.039656013,0.037094533,-0.08542426,-0.13809797,-0.022399226,-0.06098596,-0.02539401,0.037832916,-0.038639706,-0.067470506,0.0052717603,0.10808949,-0.045456782,-0.030798534,-0.17741583,-0.04365457,0.050209794,0.08602382,0.062054124,-0.0051437737,0.017349647,0.106739186,0.034037013,0.030451378,0.04412495,0.0072626714,0.10602495,-0.0031197334,-0.034432773,-0.06960347,0.03074584,0.03743251,0.0062445095,-0.024313126,-0.06283188,0.065157264,0.09381016,-0.049971484,-0.09466514,-0.098811254,-0.067777604,-0.0020839905,-0.040598933,0.026622597,-0.090162076,-0.058173362,0.043969225,0.012344515,-0.0023652327,-0.018270891,-0.016644217,0.008203091,-0.025063872,-0.022476943,-0.040433515,-0.110177785,-0.09950986,-0.0067682914,0.029777871,0.0549833,-0.036801968,-0.07883389,0.034058005,0.06220921,0.016832726,0.01277003,0.0005712525,-0.044789866,0.035624538,-5.75987e-05,0.04085303,-0.045490287,0.05241879,0.027754812,0.030409602,-0.013524134,-0.05215931,0.008991724,0.07185392,0.01745059,-0.077734336,-0.0044519254,0.095240496,0.023381144,-0.015477093,-0.011071757,-0.050245814,0.040966026,-0.0023180128,-0.11093466,-0.08937221,-0.20990293,-0.14234951,-0.09979559,-0.016420027,-0.07711,-0.09960729,-0.06698305,0.062003456,-0.0010251944,-0.1584204,-0.097333126,-0.07626573,0.018960645,0.0036393902,-0.04453201,-0.07191117,-0.017025694,0.06317784,-0.08608898,-0.12509793,-0.17808382,0.02555294,0.27740806,0.060650837,-0.0074157803,-0.10274551,-0.005333969,0.13689953,0.06446424,0.10581606,0.043319352,0.049509045,-0.13598843,-0.2023318,0.074915886,0.029045973,-0.13020389,-0.21218805,-0.14616957,-0.124782234,-0.059956357,-0.12449225,-0.09798667,-0.061761055,-0.02682886,-0.028990323,0.052025434,-0.08949044,-0.1086875,0.022437159,0.08215987,0.07299029,0.02424309,0.1199337,-0.015316177,0.0014068515,-0.10995975,0.09523274,-0.06791838,0.07080525,-0.0007602499,-0.025639623,0.050386347,0.121916905,0.022291657,-0.09629515,-0.10991232,-0.020457301,0.043024085,-0.15617007,-0.02207997,0.036570624,0.063906394,0.10295722,-0.04733688,-0.031888343,-0.08629092,0.03844028,-0.06148066,0.03294001,0.13025305,-0.02172087,-0.015430474,-0.08946118,0.11768763,-0.07513044,-0.045280445,-0.05461492,-0.036511283,-0.12768468,-0.06353705,-0.019450074,-0.054559205,-0.035151504,-0.20210473,0.040462304,-0.0377233,0.022820285,-0.039591257,0.012476845,0.073940575,-0.08243885,-0.04062511,-0.026754392,-0.072030656,-0.10204847,0.02019353,-0.09590791,-0.026722394,0.026535485,-0.045350462,0.12907255,0.17552899,0.14747365,-0.21707428,-0.03955867,0.119660236,0.25153962,0.021816274,-0.23572694,-0.17201824,-0.16413163,-0.15911801,-0.21710014,0.03237463,-0.121997505,-0.21573275,-0.15169431,-0.07890215,-0.025946721,-0.10715555,-0.04420081,-0.097652964,-0.10284193,-0.10704021,0.033248745,0.022368127,-0.022218289,-0.0407851,-0.06205918,0.15920044,0.07426245,0.09474644,-0.029293077,-0.0740807,0.0066980035,0.059197772,0.0436687,0.00032544776,-0.047450464,0.03588236,-0.01823953,-0.08388656,-0.040415574,-0.008140783,-0.059413508,-0.105614334,0.016868612,0.019296186,-0.08902465,-0.04091595,0.11952516,0.103578046,0.024873164,-0.104521826,-0.017244194,0.29583794,0.14251195,-0.044114735,-0.11470131,-0.04686012,0.08868679,0.029200586,-0.12530056,-0.07104502,-0.045293685,0.028535586,-0.038217932,-0.08757771,-0.065938964,-0.00346059,0.008911376,-0.07438653,-0.08331816,0.01529918,-0.1008135,-0.040378008,-0.034743894,-0.010462105,-0.004579381,-0.08742206,-0.10830826,0.0076507996,-0.09372952,0.015420616,0.013391555,0.04793154,-0.012452064,-0.04144591,-0.050953526,-0.034797173,-0.05185402,-0.09993261,-0.05555655,-0.06695015,-0.06370115,-0.046176467,-0.025133977,-0.036080983,0.010231137,-0.08769023,-0.009320522,0.01781378,-0.06079717,0.030968532,0.059765983,0.089308284,0.07772501,0.02856493,-0.050389085,-0.05381259,0.02031299,0.046317466,-0.03661924,0.010389164,-0.08991512,-0.001985439,0.077638626,0.04654517,0.026044795,-0.016865892,0.0111429505,-0.0043447786,0.014291693,-0.072170556,-0.0410924,-0.048708696,-0.049593467,-0.0015374315,0.017735839,-0.042031422,0.019487731,0.009951627,0.038303837,-0.039227918,-0.034887988,0.09728491,0.010358024,0.018378774,0.06775933,-0.013736202,-0.033717047,0.031376135,0.03958983,-0.02963104,-0.0591668,0.010360384,-0.034197208,-0.14617184,-0.014749916,0.07470907,0.08805038,0.12412838,0.10970236,-0.013897363,0.014857952,0.07670249,0.17138413,0.034679532,-0.13360381,-0.11021768,0.01251705,0.11280719,0.029329538,0.020778574,-0.0495141,-0.0116853835,0.063208,0.22560331,-0.15845732,-0.1000834,-0.042353448,-0.05199257,-0.1426524,-0.0019749636,-0.101294234,-0.043825455,-0.024275586,-0.027307583,0.089993,0.03273426,0.09641851,0.1638084,-0.005843093,0.18923791,0.084580906,-0.04720708,-0.037089422,-0.11832609,0.026705097,0.05629226,0.08417455,0.021004604,0.12170681,0.054213643,-0.0632732,-0.0055170776,-0.010243276,0.0024250678,-0.12779243,-0.18892418,-0.122196674,-0.1277818,-0.021697897,0.066931546,-0.0222236,-0.03701768,0.01600747,0.0010579324,-0.0063536693,-0.038375806,-0.077506915,0.020826844,-0.07401443,0.038307965,0.122393124,0.08693841,0.14122178,0.05078568,-0.08559407,-0.07317037,0.09173928,-0.065575175,-0.03225354,-0.30347636,-0.12898917,-0.21220405,-0.17643729,-0.12732981,-0.27740434,-0.17813104,-0.17996782,-0.05917796,-0.0755617,-0.0047341576,0.05179316,0.0044228947,0.07702224,-0.003554559,-0.10507359,0.032037284,-0.030330213,0.0035003414,0.015847038,-0.34995505,-0.09680646,-0.0735686,-0.14534177,-0.21500085,-0.082292445,-0.023162847,-0.098567165,-0.11789853,-0.19559185,0.11255093,0.18892488,0.14018993,0.070001714,0.030395012,-0.035439495,0.06464695,0.033726998,0.11788828,0.07706542,-0.07330873,-0.070295386,-0.07844401,-0.10666492,0.018699663,0.09000227,0.23803087,0.20134689,0.2265124,0.15411046,-0.04196596,-0.0013194047,0.060786106,0.019340312,-0.14091472,-0.04160833,-0.07137457,-0.052391343,-0.030454714,0.029957978,-0.08762099,-0.035446078,0.042149704,0.06773413,0.0783145,-0.043155577,0.041708097,0.031446934,-0.07932514,-0.05637574,-0.08203789,-0.018100886,-0.09911687,-0.07879292,-0.22168432,-0.108234376,-0.07999674,-0.15811436,-0.1422643,-0.14349759,0.0662555,-0.061434537,-0.0041850447,-0.08010692,0.038846195,0.07820841,0.0072465152,0.11773845,0.09688904,-0.063133106,-0.009438797,0.043716144,0.09149182,0.10534768,0.013938726,-0.038056556,0.024943307,0.06509681,0.052793976,-0.1276562,-0.09613375,0.007713914,-0.0129631935,-0.029498825,-0.19099538,0.00797101,-0.05270718,-0.10015974,0.02321668,-0.114940844,-0.053698845,-0.05829215,-0.039700694,-0.02905457,-0.10487261,-0.03108373,-0.09704094,-0.01890375,-0.0734702,-0.025032435,0.053625885,0.022692593,0.16426328,0.10781705,0.0599939,-0.0016616426,0.014434154,0.02740491,-0.011961896,-0.06473078,-0.07131466,-0.024005579,-0.033094775,0.037135456,0.06321929,-0.120503925,-0.07078401,0.045947287,0.07926771,0.0074690334,-0.1062774,0.12579869,0.045494497,-0.037023496,-0.07003886,0.025215691,-0.07793338,-0.030053247,-0.06795727,-0.08360431,-0.05035754,-0.023710152,0.046161104,-0.049990043,-0.032932125,-0.0046442314,-0.0259783,0.024152162,-0.047578685,-0.019418404,0.10218744,-0.030304084,-0.018150978,-0.034596555,0.010759324,0.03358958,0.056104172,0.039238352,-0.022469712,0.11212151,-0.0052359183,-0.02162787,-0.008009257,0.17306437,0.056382935,-0.081851415,-0.05819325,-0.091971,-0.11213071,-0.14789386,0.19381881,0.081870586,0.077348,0.13524827,0.07547612,0.048730046,0.0525352,0.043721028,-0.08408992,-0.08815835,-0.022588711,-0.029497474,-0.048527796,0.032861788,-0.10004213,0.07148038,-0.0136454655,-0.069617935,-0.009279528,0.04784369,0.00853281,-0.027398348,0.0035097334,0.18865424,0.06277136,-0.023865016,-0.07279397,0.086205326,0.16284741,-0.13979462,-0.09430364,-0.11750969,-0.0035328676,-0.062363904,-0.15155302,-0.011874976,-0.0751496,-0.1382333,-0.11357658,-0.13360117,0.0557263,-0.1246584,-0.06413629,0.061223548,-0.061479256,-0.004672215,-0.009939215,0.04093466,0.061309077,0.0039012888,-0.020339575,-0.054266024,0.07219884,0.106179774,-0.0064964457,0.020770129,0.0010425807,-0.013898198,0.043908108,-0.15041862,0.15609646,0.048070546,0.026320701,-0.090888694,-0.014854306,0.14130837,-0.046110734,0.0124666495,0.020897256,-0.090080574,0.12265228,0.011424894,0.10667419,0.13088682,0.03691574,0.030421523,0.1007414,0.12785837,0.22315852,0.03676263,-0.047311075,-0.009918124,0.045530207,0.26635498,-0.0690863,-0.0064265975,-0.11195482,-0.18740022,-0.06859937,-0.11795609,0.034901936,-0.053337663,-0.12464112,-0.050249048,-0.07915605,0.020304536,0.035930976,-0.08258797,0.051797584,-0.047706712,-0.049102362,-0.06919644,-0.035672124,-0.013346882,-0.16121568,0.035052884,-0.16781746,-0.06660834,0.049939476,0.059276026,0.00049150194,-0.03121632,-0.038416978,0.042854406,0.021456983,-0.03467997,-0.08259071,-0.11340799,-0.11735825,-0.15277588,0.019395841,-0.07240031,-0.08820929,-0.07410252,-0.10081796,-0.13338551,-0.1270912,-0.18817191,-0.28664777,-0.073802866,-0.119191,-0.102440774,-0.11565277,-0.29282585,-0.076552175,0.04545552,-0.019911394,-0.061162487,-0.022192081,-0.028109463,0.071563505,0.03546306,0.0056198454,-0.025105035,-0.013477177,0.07087135,-0.11277223,-0.031342905,-0.08889669,-0.11775665,-0.078292,-0.019911911,-0.08316585,-0.060385887,-0.13123046,-0.13903685,-0.060299084,0.009199893,0.096801676,-0.07159102,-0.024264626,0.049598802,0.020337807,0.11801078,-0.008209359,-0.009067245,0.053496417,0.1307914,0.11494837,0.009675009,0.024087608,0.12183941,0.15468116,0.06389796,0.07459963,0.015348014,0.09303873,0.1269643,0.10169375,-0.068356864,-0.07517469,0.05107892,0.1309021,0.135544,-0.12507057,-0.06974685,0.030876793,0.041020237,-0.032751355,0.012928109,0.031409852,-0.025625477,0.061687265,0.0024848946,0.07680961,0.026437169,0.05599915,0.08576605,0.047012087,-0.08295682,-0.047971424,-0.075922124,0.0030236747,-0.07813991,0.00890767,-0.06229463,0.1087841,0.054921847,-0.074519284,0.044175696,0.025023626,0.011776772,-0.002031913,-0.09364585,-0.07597761,0.16091292,0.10498816,-0.054963935,-0.076767005,0.10826028,0.19543546,0.04790168,-0.014583084,-0.052503735,0.08209912,0.07791446,0.050762106,0.020447219,0.012917352,0.03522543,0.06243848,-0.033691034,-0.11338118,-0.08194246,-0.012036026,-0.07450687,-0.20976548,-0.23782362,-0.2181269,-0.090416454,-0.115239464,-0.20839441,-0.122773014,-0.069207184,-0.0052503184,-0.0917307,-0.10918412,-0.15076056,-0.07275513,-0.017693521,-0.028479991,-0.044944193,-0.09791832,-0.11061359,0.004064753,-0.19200352,-0.14579986,-0.21191445,-0.0636214,0.028949723,0.052199136,0.11044962,0.09858194,-0.00860334,-0.01337788,-0.036687694,-0.011347493,-0.01849018,-0.08825406,-0.032465626,-0.008369069,-0.092057645,-0.011843025,0.088962846,0.11297356,-0.030836131,-0.004499571,-0.044876862,0.031831976,-0.040157225,0.0152464695,0.046326015,-0.073765114,-0.16299216,-0.12941267,-0.0039110924,0.03782157,0.087183155,0.064602785,-0.012997968,0.04725108,0.16673,0.032013725,-0.051470794,-0.111656696,-0.07108115,-0.11000403,-0.026019424,0.071639895,-0.011566486,-0.093309626,-0.115483634,0.034149807,0.07196089,-0.036721703,0.012905102,-0.10696052,-0.07478683,-0.10213378,-0.11127563,-0.065730214,0.19698414,0.14783172,-0.057280328,-0.05074602,-0.03844947,0.1472787,-0.025021331,-0.065153144,0.0070336666,-0.08730557,-0.13305047,-0.18327948,0.1274819,-0.0112835895,-0.14793104,-0.11717303,0.08084723,0.17534478,0.044151623,-0.014361748,0.039956365,0.04583762,-0.054706454,-0.1489183,0.03874941,0.0837527,-0.028421374,-0.050663732,0.047497705,0.0048561757,-0.021667391,-0.18768199,-0.13418107,-0.08579553,-0.064559534,-0.094219066,-0.13202359,-0.15317114,-0.10216341,-0.064519316,-0.07493515,-0.1886533,-0.14288849,-0.050911594,0.053396184,0.04438473,-0.067684986,-0.15967141,-0.06879928,-0.04752849,-0.010978569,0.113181666,0.12185636,0.0504833,0.10993859,0.20774098,0.12734252,0.032908767,-0.098956384,0.114887945,0.04984701,-0.1418733,-0.11274247,-0.10514595,0.096008204,-0.11984879,-0.069855966,0.09400876,0.14180455,-0.045243625,-0.13764398,0.053720854,0.112362534,0.06834473,-0.0036809477,0.03305006,-0.063000396,-0.04849304,0.09569179,-0.055020224,0.019347169,-0.099711046,-0.073417306,0.045712266,-0.05546429,-0.08333622,-0.11875096,-0.101036124,-0.03923501,0.06845786,0.009705471,-1.599912e-05,0.043198045,0.0010900216,0.10471403,0.050189517,-0.0538589,-0.040308762,-0.020649627,0.035526793,-0.016545417,-0.0756537,-0.089152254,-0.030321125,0.0020561481,-0.10345162,-0.090323605,-0.01951705,0.05360303,-0.055951763,-0.06679616,-0.018127961,0.113330804,0.08220149,-0.11442775,0.0076280786,0.013852875,0.09620284,-0.04066145,-0.00042894523,0.050133083,-0.018203696,-0.026917767,-0.030168042,-0.0061202324,-0.05174776,-0.045534406,0.0039811977,0.066002,-0.0008113751,0.033121657,-0.06730329,-0.059657443,-0.06717014,-0.029905621,0.033653457,-0.02186847,0.031194866,0.019009834,0.06930962,-0.030849764,0.058403596,0.047197424,0.093769215,-0.0303093,0.019030878,0.11718491,0.10749937,-0.037800994,-0.064530335,-0.032910753,0.08121258,0.04731837,-0.010100183,-0.026592812,0.0523437,0.0034880654,0.009815845,-0.08377896,-0.08646152,0.08186685,0.026284287,0.019538708,0.049694598,-0.025219047,-0.026288904,-0.032911073,-0.0008854872,-0.0836975,-0.036297932,0.11395925,0.055244982,0.06562659,-0.12765975,0.068398796,-0.055307347,0.1649619,0.07756689,0.08850263,0.050782748,0.117324285,0.1539546,-0.02827158,-0.1293413,0.049976744,-0.14001061,-0.17148879,-0.16339079,-0.050034985,-0.035461117,-0.09516142,-0.017722497,0.03544022,-0.0065133083,-0.11174515,-0.16818184,-0.20130768,-0.08306813,-0.06953575,-0.031026313,0.13421327,0.07291185,-0.0061292523,0.07732387,-0.127096,0.007385623,-0.057517227,0.051385287,-0.0100974245,0.063294515,-0.061336994,-0.08580706,-0.062223107,-0.040413976,0.0531803,0.05279438,-0.02718861,-0.05871439,-0.053819623,-0.0046601817,-0.05171611,-0.07022161,0.02681581,-0.022832653,0.015584726,0.10239459,0.07725663,0.08494428,0.0268099,-0.0639716,0.010250689,-0.046300247,-0.031469453,0.010275091,-0.07213118,-0.08150581,-0.04405489,0.020884166,0.0767795,0.010028649,-0.088927105,0.027620925,-0.0603524,-0.018295117,-0.021262161,-0.02000039,-0.025090184,0.02508113,-0.06470975,-0.103065014,0.17269059,0.16315699,0.048404858,-0.08070216,-0.23099725,-0.05646724,-0.026422175,-0.09939807,0.013949122,-0.24973324,-0.14074078,-0.06261005,0.006056938,-0.07495806,-0.010173218,-0.047489766,-0.083904125,0.034768466,-0.094640836,0.056532294,-0.08739424,-0.007091178,-0.082694635,-0.10450663,-0.10782013,-0.10092628,-0.06326508,-0.11072861,-0.018708581,-0.08847957,-0.11422184,-0.06782051,-0.092795424,-0.020873116,0.12027572,0.052420657,-0.07529685,-0.07037926,-0.079299025,0.1150092,0.14145482,0.12458312,-0.03420515,-0.07129597,0.05633369,0.040236294,0.111625195,-0.0075729373,-0.007562657,-0.10359564,-0.00071351766,0.02352513,0.10528559,0.13192695,-0.0079906965,0.15915434,0.05284832,-0.03933817,0.11875742,0.09149089,0.067771606,7.2557246e-05,0.045302715,-0.00031172176,-0.052087143,-0.060277596,-0.008838535,0.066336304,0.06548573,0.07552969,0.024490701,0.03386649,-0.014560187,-0.0037430343,-0.115479514,-0.07191844,0.006881587,-0.13388571,-0.033389334,-0.0668661,-0.09837125,-0.047923964,-0.107643336,-0.10878288,0.013554648,-0.07443432,-0.08439807,0.059674945,-0.097772285,0.013854165,0.07370092,0.0290933,-0.068525046,-0.0046048113,0.06294583,0.09223192,0.042470228,-0.027523745,-0.02335277,-0.05619335,0.115421094,0.04463034,-0.026886635,-0.024590813,0.0037232544,-0.008708431,0.059345867,0.045241076,-0.07990246,-0.11545529,-0.057111472,0.024352694,-0.0118458895,-0.07403028,-0.1251655,-0.009085552,-0.0056101815,0.02838624,-0.109771326,-0.10520688,0.0031662462,-0.006754105,-0.054181483,-0.03703502,-0.009143133,-0.029246168,-0.014870162,-0.030492255,0.018603912,-0.012471452,0.03367043,0.06420775,0.024423862,0.04582459,0.059562188,0.0055870805,0.063136235,0.14322548,0.06618324,-0.06980513,0.042111948,0.079999074,0.08992767,0.04234993,-0.05565736,0.0053850557,0.03075333,0.06481038,-0.0020095278,0.02772114,-0.016847627,0.031117333,0.0062712017,0.050487645,-0.12190433,-0.06981915,-0.080196396,-0.015756398,-0.10182116,-0.031426925,0.03277704,0.02898206,-0.030281097,-0.03781824,0.032961983,0.050917048,0.04392757,0.05249861,0.06355828,-0.033558864,-0.040806334,-0.016510509,-0.04620023,-0.029285114,-0.020331576,0.055423163,0.03799424,-0.029710554,0.17235397,-0.05696578,0.0012866064,0.008604996,0.03668084,0.09468354,0.032111045,-0.056763787,-0.046526447,0.0719124,0.068855785,0.06938949,-0.042169895,-0.12211743,-0.030773582,-0.10630083,0.019842768,0.02947645,-0.02208137,-0.030159894,-0.010462955,-0.023069244,0.041236535,-0.021896023,-0.0047828793,0.050924037,-0.07809878,-0.01839142,-0.10099022,-0.14005129,-0.03518107,0.08379283,0.033809222,-0.099272355,-0.09536624,0.03693329,0.067468785,-0.069258355,-0.061405722,-0.05079757,0.15395416,0.0073250057,0.07272164,-0.056906614,0.035010986,0.1863065,0.14725384,0.07739876,-0.016948111,-0.0101198815,0.022741683,-0.07162367,-0.055029918,-0.09416248,-0.0678225,-0.008644981,-0.029765422,-0.02514929,-0.13873218,-0.09100901,-0.134326,0.0070889983,0.026307654,-0.021404676,0.052057765,-0.026699806,0.19854285,-0.011728839,0.014207136,-0.09391389,0.035322577,-0.1537507,-0.019510383,-0.047394328,0.06923927,0.14733107,-0.2634554,-0.24652217,-0.06714211,-0.11054605,-0.04029295,-0.11076879,-0.06942396,-0.11410706,-0.11943939,-0.04336128,0.14171813,0.13839194,-0.019518206,-0.026957015,0.12006432,0.059747715,0.03327431,0.07302968,-0.08047251,0.14761263,-0.21753393,-0.2834482,-0.14175819,-0.19492877,-0.22517161,0.072276436,0.0011967871,-0.12343353,-0.12571494,-0.02110848,0.18115479,0.21050952,0.06006404,-0.11194893,-0.0006727779,0.084573664,-0.005803762,0.065661065,-0.00096160325,0.108662836,-0.02311862,-0.0011243011,0.025537683,0.14657475,-0.0025083225,-0.026392424,0.13162838,0.21629323,0.05869606,0.06320357,-0.10030061,0.030292874,0.08432668,0.048212893,0.041534945,-0.014387028,-0.013323563,-0.066403024,-0.042904567,-0.028236749,-0.17011203,-0.055236567,-0.01725494,-0.084017076,-0.071929224,0.0052450546,-0.0014866939,0.082181975,0.09425123,0.009970099,-0.24969257,-0.086078495,-0.13350533,-0.1094653,-0.09841613,-0.08910493,-0.05117414,-0.14020932,-0.0749779,-0.007053588,0.17518982,0.111435525,0.06245972,-0.029789237,0.1062421,0.06729862,0.10041012,0.16150741,0.049175683,0.0046855034,-0.019140832,-0.036826633,0.062868215,-0.020172102,-0.0009162425,-0.0036623066,0.005790215,-0.0863388,0.09740893,0.036145773,0.0018267613,-0.087316446,-0.0520963,0.022180645,0.023622086,-0.033784118,0.011525929,-0.009111298,0.03452456,0.109892964,0.06321833,0.0865422,0.0198378,0.0065854774,0.0664388,-0.019929394,0.06575163,-0.014129257,-0.013099264,0.1519287,0.049787097,0.026311617,0.106411226,0.020264175,-0.03143399,0.046931837,0.081564,0.11345281,0.11334873,0.03549194,-0.092449374,0.02681653,0.053418543,-0.023223475,0.009456906,-0.07536676,-0.021810235,0.08055085,0.020605981,-0.084326364,-0.07473029,0.0092876,0.025545005,-0.00025899554,-0.047148556,-0.091327734,0.017594965,0.0086215595,-0.0896267,-0.021640612,-0.042836722,0.057361834,0.029815067,-0.005062417,-0.10832914,0.022204502,0.05061368,0.029668927,0.03630884,-0.096767865,0.12707321,0.14146762,-0.076374196,-0.12359915,-0.03648208,0.096920334,0.1262441,0.02502102,-0.036689054,-0.03226673,0.06201723,0.020953655,0.06278632,0.019544933,-0.049591534,0.06802207,-0.0070864493,-0.06543991,-0.024219127,-0.027264139,0.06385195,-0.039981812,-0.16809411,-0.13275012,-0.06321266,-0.002505962,-0.035405595,-0.040932093,-0.045712836,-0.0054688007,-0.05598919,-0.039223336,0.022088442,-0.008302945,-0.025197828,-0.18907918,-0.07866654,0.04045965,0.07695497,0.00012390345,-0.051940657,-0.0015335218,-0.058847267,-0.064230666,-0.1090631,0.16028345,0.10449256,0.09157733,0.10560752,0.007753253,0.1792071,0.08786765,0.053706773,0.050036788,-0.033738397,0.13636772,0.02654217,-0.07263461,-0.029776463,-0.12923633,-0.077865995,-0.092643335,0.023379466,0.11238429,-0.06643413,-0.14904405,-0.17139052,-0.16402268,-0.15203498,-0.049112286,0.023819031,-0.0024937545,-0.08536326,-0.027856536,-0.01952904,0.009277523,-0.09712297,0.047620974,0.019182622,0.103746384,0.022424575,0.013171675,-0.0010724212,0.07245672,-0.0028113562,-0.28952008,-0.08685132,0.08228825,0.15506694,0.11135099,-0.27648085,-0.1872822,-0.11824738,-0.08605434,-0.13511008,-0.09320263,-0.12456355,-0.19004178,-0.12348872,-0.058006097,0.06548545,0.0065803635,-0.06279253,-0.006747356,-0.012515792,0.053251766,0.015863752,0.117128104,-0.053055417,-0.109155126,-0.23481618,-0.18967089,-0.112842314,-0.06469255,-0.112031244,-0.11685752,-0.09201663,-0.155283,-0.057451587,0.026443718,-0.028000157,0.07173269,0.06112778,0.00927167,0.040554404,0.03913401,0.07334829,0.16316962,0.13341284,0.07163636,0.08528675,0.054656968,0.055282786,-0.033957686,-0.03869379,-0.008974184,0.12066065,0.17571893,0.08481224,0.05709133,0.03825341,0.08593551,0.1504689,0.12945244,0.03279616,-0.012091964,-0.0011934726,0.016710227,0.040446684,-0.07776758,-0.0018081592,-0.025024617,-0.051677458,0.036799304,-0.006310011,-0.14819457,-0.06125005,0.045903973,-0.024375672,0.058482282,-0.18833841,-0.06680603,-0.08864915,0.014596399,-0.070292585,-0.04932617,-0.026577057,-0.052124154,0.032097246,-0.011268996,-0.030474046,0.024406273,-0.055492274,-0.055751067,-0.004485966,0.03125033,-0.01639979,0.054062504,-0.016264154,0.037317146,-0.0054309154,0.01648001,0.03290773,0.033227064,-0.07457533,-0.030683098,-0.02505605,0.10582458,0.03580621,-0.058426365,-0.012649012,-0.04431316,-0.0044488753,-0.06836822,-0.0055376412,-0.025902959,-0.07667065,-0.096979186,-0.060194384,-0.12594995,0.058745313,0.006161879,-0.026111279,-0.051893942,-0.17104974,-0.014480081,0.033962958,-0.031454585,-0.15185118,-0.112384,-0.047228757,0.04308635,0.15796949,0.046889734,-0.012881138,-0.03825071,0.031518072,0.101455115,0.028206917,0.048906773,0.025543423,0.043746956,-0.040431015,-0.0037785505,0.0008058281,-0.028188052,0.0019705868,0.04539434,-0.008679445,0.01952896,-0.13570003,-0.10816606,0.00830506,-0.0022501536,-0.0018890328,0.032197613,-0.13273674,-0.031758558,-0.04070814,-0.05531529,-0.101454176,0.03171794,2.4843088e-05,-0.041753434,-0.100035734,0.025524933,0.07291108,0.018311545,-0.0040743453,0.019427452,0.062562905,0.08718429,-0.045858715,0.01259238,0.012050041,0.09146151,0.021814385,0.0817522,0.07959061,-0.033950828,-0.060239237,-0.06879788,0.15318154,0.060604446,-0.008757469,-0.015365256,-0.10227242,-0.006234738,0.039833795,0.043092344,0.05644201,0.0824541,0.092766285,0.19164975,0.039772846,-0.0122418385,0.0822988,0.06319039,0.06840936,-0.0014911238,-0.01383644,-0.041853268,0.08993853,0.03954748,0.020095408