-0.008897101,-0.0791348,-0.12439724,-0.089658275,-0.18620792,-0.21626006,-0.2895312,-0.2641044,-0.18847764,-0.13372123,-0.28432634,-0.056081165,0.004968866,-0.04101381,0.097069345,-0.1517051,0.017247595,0.06350076,0.16252942,0.19100109,-0.03009145,0.1069202,0.24446777,0.16377479,0.09172841,0.044028655,-0.1410293,-0.2781299,-0.13299862,0.07188254,0.09196451,-0.15787879,-0.19293246,0.10584576,0.18026732,-0.070767075,0.071416266,0.21942629,0.27871117,0.03106999,-0.053727172,0.046082705,0.22761467,0.020571433,0.08103529,0.13744245,0.06442099,0.024161577,-0.1082786,-0.10311139,0.008045745,-0.16339284,0.06404513,0.12813522,0.23822863,-0.2516981,-0.17018647,-0.24826406,0.02780454,0.17651944,-0.28736883,-0.16886348,0.1220564,0.19420354,0.05861034,-0.33164394,0.03173944,0.03871149,0.23660196,-0.039088655,0.12936054,-0.048501033,-0.04927577,0.21141955,-0.19146697,-0.027987933,-0.2088711,-0.30084747,-0.19601054,-0.31960338,0.1046446,0.28724936,0.013295585,-0.11355731,-0.38198534,-0.20629986,0.27561933,0.08516614,-0.12139104,0.1484956,-0.11220578,0.08017524,0.3104315,-0.21617395,0.15997449,-0.15859486,-0.074534364,0.16976947,0.16520916,0.07866452,-0.03498988,0.16827793,0.13729791,-0.023989199,-0.0010664172,-0.06737142,0.10507148,0.17054331,0.21243879,0.28073466,-0.4061315,0.2193407,0.038476277,0.21888907,0.17952754,-0.4928463,-0.13541538,0.07725011,-0.0800952,-0.11600842,-0.2679638,-0.48921528,-0.6118343,-0.5483674,-0.4214776,0.1896958,0.081953,0.02178677,-0.32270083,-0.16245635,-0.081871636,-0.05311253,0.3359258,0.0886082,-0.23720026,0.00867137,-0.19143856,0.39367706,0.299088,-0.2469815,-0.12213837,-0.24246612,0.17998736,0.21894686,0.093428195,-0.107062705,-0.029622568,0.085518435,-0.030718599,0.1802607,0.073912464,-0.37109128,-0.21151309,-0.024449354,0.17509945,0.23135523,-0.23716117,-0.24429582,-0.09642342,0.077504314,-0.17772588,-0.1754372,-0.20903437,0.185625,0.23202674,0.048120048,-0.2154392,-0.18561435,-0.08345078,0.04786698,-0.11675506,-0.11562209,-0.18621327,-0.047803283,0.31816915,-0.042310107,0.10198271,-0.04998578,-0.08509981,-0.14350739,-0.17523114,-0.17527169,0.13196678,-0.00672008,0.07822901,-0.30512896,-0.08997654,0.16094072,0.17548898,0.1314118,-0.22868288,-0.3090004,-0.25468567,0.09766638,0.042455714,0.30395016,-0.24594636,-0.1579945,-0.3708099,-0.26026824,-0.1386978,0.14886996,0.18698283,0.06901163,-0.15682968,-0.25110084,-0.20854522,0.060376957,0.1188417,-0.011226706,-0.0388026,-0.04094606,0.23522866,0.10963404,-0.065431796,0.19890337,0.09323692,-0.028940486,-0.19780286,-0.20146608,0.22450216,0.056730058,-0.17080976,-0.12807189,-0.029103562,-0.13531539,0.16293997,-0.06719124,-0.4731555,-0.3407289,-0.12540106,-0.11619343,-0.14363271,-0.08151272,0.16252436,0.05432155,0.23693149,0.54351485,0.5402941,0.13460179,0.12763068,-0.20044515,-0.1258959,0.15617807,0.05368531,-0.23726533,-0.024647443,-0.42828926,-0.45837355,-0.034019444