-0.10393505,-0.056026142,-0.10858876,-0.077071026,-0.033242483,0.09062852,-0.08984855,-0.032239076,0.06640426,0.07142721,-0.024849415,0.0073675695,-0.021927537,-0.043494806,-0.11421053,-0.05816816,-0.04451935,0.010960568,0.037722584,0.032213394,0.13368867,0.025204515,-0.03686607,0.026109641,0.037560143,-0.11273067,-0.0069172117,0.02740896,-0.12062675,-0.0040968824,0.16045892,-0.014069487,0.045088656,0.044469696,-0.001487182,0.12813868,0.102246955,-0.020891637,-0.0021084545,0.086024694,-0.06315659,-0.059819937,0.017847193,0.111884706,-0.004082748,0.06787388,0.008122536,-0.06511239,-0.05397907,-0.035798457,0.057605613,-0.07470094,0.096270315,0.06902105,-0.015145427,0.018952841,0.2007043,0.039590538,-0.026389109,-0.037179846,0.059221826,-0.067618944,-0.18117337,-0.06747104,0.028295591,-0.06845732,-0.018999554,-0.047950104,0.01198547,0.012595097,-0.014561811,-0.033230178,-0.022951141,-0.0384965,-0.023586463,-0.011905972,0.04853984,0.008107257,-0.044217363,-0.02374613,0.06121921,0.07896598,0.047244705,0.01972617,0.059039734,-0.091639906,-0.02824426,0.016249822,0.040227253,-0.084747374,0.06485684,-0.11783586,0.006554615,0.13341509,0.0391693,0.010653366,-0.119182065,-0.06494455,-0.009929267,-0.078335546,-0.09123998,0.095789805,-0.06524801,-0.10926478,0.10517595,-0.020603916,-0.12694581,-0.067362435,0.009829806,0.00080220745,-0.037847385,-0.07027,-0.0623164,0.06469024,0.045392532,-0.028639615,0.08369119,-0.032536384,0.030419352,0.045234676,-0.065268025,0.01936513,0.018754687,0.055102892,-0.080360174,-0.08597286,-0.13574386,-0.048523396,-0.024150781,0.015329187,0.017293869,0.04022166,-0.10718839,-0.08492095,0.0006210748,-0.048987802,-0.05143741,0.108434275,-0.046334077,-0.08645851,0.08168087,-0.030256335,-0.11860531,-0.09066823,0.019102456,-0.06595268,-0.08089557,0.03746003,0.02547526,-0.0061017424,0.018591478,0.031575706,0.072090715,-0.016172275,0.09194831,0.042443387,0.07086296,0.0013708759,-0.04838376,-0.12576033,0.036188327,-0.07815986,0.11793361,0.028467767,0.0020270932,-0.09890465,-0.024764664,-0.056820765,-0.16919075,-0.05687157,-0.01713467,0.031578984,0.016772788,0.03756952,0.111248374,0.014032581,0.0937046,0.027400263,0.046237815,0.0326278,-0.030814849,-0.05784093,0.030239921,-0.0008814338,-0.062351573,0.010471276,-0.080805324,0.0031564767,0.010971634,-0.023972217,0.11436012,0.044250682,-0.003578199,0.041345257,0.056078397,0.13012798,0.1349276,-0.020896554,0.00277459,-0.066438116,-0.03913339,-0.108103186,-0.08128742,-0.05852991,0.03254452,0.121807486,-0.10820072,-0.0022341136,-0.049286198,-0.043836664,-0.06540498,-0.12640326,0.055258367,0.073036425,-0.004622702,-0.08122277,0.17815122,-0.11130485,-0.04847028,0.08182325,-0.13956702,-0.17723182,0.062644325,0.020744987,-0.0073743206,-0.16350277,-0.08544632,-0.08894065,-0.18199053,-0.0881491,-0.05941494,-0.104477145,0.030663714,0.08836648,-0.03994347,-0.15095408,0.11075464,0.02152477,-0.07597396,0.0040087113,-0.0050553028,0.0197862,0.11627237,0.04037065,-0.024194706,-0.09367807,0.002084818,0.007615383,-0.15063842,-0.1833721,-0.02850361,-0.025598524,0.08171224,0.097855955,0.015555335,-0.06435947,-0.052852035,-0.02966183,-0.082496874,-0.08807682,-0.11946774,0.023548322,-0.107746094,-0.16952588,-0.044391356,0.1081906,-0.046610776,-0.024509028,-0.024761276,0.04406417,0.097769216,-0.12179849,0.0030092283,-0.025301855,0.007677497,-0.0025418948,0.065226756,0.026719652,-0.0919843,-0.079674415,0.00497654,0.014661143,-0.08262142,-0.0702788,0.098520145,-0.10134617,-0.15758762,-0.08321301,0.06034805,0.040484373,0.013308037,0.08850576,-0.1369265,-0.010158529,-0.061624035,-0.033067144,-0.005928572,0.009918426,-0.1339061,-0.18831643,0.034497254,0.08154961,-0.037011642,-0.004411439,-0.013942523,0.06333659,0.007944746,0.01516619,-0.06928924,-0.06710667,-0.021862641,-0.033302877,-0.033846967,-0.034404103,-0.07221521,-0.087573506,0.026633168,-0.059626207,-0.042732563,-0.042537242,0.13380578,0.072630055,0.00921722,0.09116603,0.0728873,-0.03604773,0.12731652,0.08708499,-0.0005514634,-0.061811626,0.037162818,-0.029191205,0.01438479,0.029614583,-0.053049937,-0.094665445,-0.08483886,-0.08837316,-0.039512094,0.011385257,-0.03342729,0.1021313,0.10063494,0.0108864335,-0.14487539,-0.092555694,-0.10000178,-0.036853734,-0.016652608,-0.045133512,-0.01149258,0.049388945,-0.026487105,-0.04835133,-0.081066564,-0.048062716,-0.037209168,0.045356944,-0.057746798,-0.12295228,-0.10175931,-0.10090731,0.015270981,-0.053707592,-0.040341232,0.029787933,0.1419682,0.100516446,0.14069495,0.07277425,-0.050512556,0.030072737,-0.10720212,0.05319137,0.06480128,-0.043718725,-0.10551511,-0.040384237,-0.006516852,-0.0053217253,-0.016486224,-0.031267427,-0.12048501,-0.13785192,0.048627574,-0.0011945425,0.009085999,-0.08288094,0.031509418,-0.031842936,-0.0036796976,-0.016839137,0.085176244,-0.010935997,0.053732168,-0.01985213,0.052551214,-0.012575993,-0.020127198,-0.009343734,-0.08616233,-0.06351642,0.019821024,-0.1287467,-0.02273177,0.07148308,-0.010022498,0.0886662,-0.09926005,-0.081619106,-0.011981743,0.12819326,-0.05022039,0.048878703,0.037325945,0.03095457,0.045652136,-0.03055968,-0.06622035,0.038187236,-0.1512154,-0.042928502,0.13884255,0.043934945,-0.04159732,0.10092028,0.09647016,0.0070887865,0.04370662,-0.09504403,-0.109001115,-0.13861033,0.032224704,-0.045569077,0.01796392,0.03717867,-0.059745464,0.011418223,-0.11864098,-0.045704704,0.060996987,-0.06223989,-0.11731787,-0.039802827,-0.0010565126,-0.019479176,-0.019205747,-0.07101771,-0.045640122,-0.012547535,0.08606098,0.05140438,0.01917029,-0.042367402,-0.1237712,0.03929101,0.040614907,-0.12696567,-0.07166852,0.10332269,0.097037815,0.030182146,-0.02489015,-0.086141996,-0.0053344094,0.010120629,-0.0015349458,0.10751534,0.062166672,0.10643837,0.022391211,-0.05831172,-0.03353627,-0.018611724,-0.015948163,-0.009758335,-0.026823632,0.0022352205,0.00645605,-0.030201467,-0.16473599,-0.0011759294,0.002240111,0.011064629,0.09244586,0.116004646,-0.05259124,0.0015815012,-0.14054993,0.039283015,0.017014835,0.015097957,-0.015839087,0.025311923,0.013296227,0.0647037,0.03238413,-0.021730436,-0.024812244,-0.061044246,-0.12449022,-0.16789027,-0.054067183,-0.04248523,-0.052739568,0.025550283,0.075860694,0.07151839,-0.042756226,0.06034608,-0.010720662,-0.011203719,-0.12483704,-0.046108007,-0.0834583,0.033874966,-0.05707809,0.02933742,0.00032673212,-0.03320155,-0.11113454,0.036217645,0.078297704,0.026382726,0.00019135972,-0.010914403,0.21427642,0.048189957,0.11896335,-0.07860326,0.046162244,0.040509347,-0.18311664,-0.01749458,0.10876663,0.07602299,-0.002150738,0.16689183,0.14457943,-0.02206978,-0.012636631,-0.124597676,-0.16784194,-0.14507794,0.07108486,0.06077081,0.07927792,-0.0037756904,0.08670798,-0.051345456,-0.05741771,0.068129316,0.057314456,0.002285645,-0.012299856,-0.0055466597,-0.013947147,-0.037114765,-0.079796925,-0.12532899,-0.0039949794,-0.056264866,-0.016851267,-0.0079795355,-0.031980865,-0.005730697,-0.040748753,-0.016722493,-0.2504576,0.06079494,0.10533934,0.038373414,-0.0072201276,-0.0078747235,0.06629616,0.050764762,0.012811878,0.00898895,-0.051256713,0.008098071,0.16837633,0.061878633,0.077569276,0.083393544,0.032800514,-0.013643409,0.015192342,-0.035765037,-0.09404584,-0.04089587,-0.051138416,-0.014551481,0.0365796,0.059050936,0.023353443,-0.068981275,0.023406012,0.022098865,0.03712268,0.05210671,0.09388556,0.07308235,0.030746842,0.045872822,-0.11632196,0.053119514,-0.04380527,-0.08144363,-0.070211485,0.07320405,-0.048813086,-0.08946877,0.0076835784,-0.047002766,-0.13559897,0.007958179,0.08164304,0.028816216,0.1335404,0.09783054,-0.037589505,0.04883005,0.006356608,-0.008848748,0.019884799,6.841867e-05,0.06589889,0.009018553,0.035142567,0.012675435,-0.039791495,-0.004146341,0.005394368,0.0060825828,0.02279709,0.044272926,0.05113249,0.15017922,0.024519516,-0.009327909,-0.17181298,-0.09274448,0.032880835,0.10949215,-0.102118775,-0.0031042993,-0.13532595,0.02322875,0.041013893,0.04633428,-0.02433092,-0.06303321,-0.05592287,0.10073347,-0.04316024,-0.07375358,0.14106357,0.030333389,0.009128663,0.025261562,0.11352537,0.06592082,-0.051283196,-0.08642416,0.10017885,-0.15483597,-0.08105306,-0.04739232,-0.039479703,0.0029932414,0.08654705,0.025622837,0.040780827,0.062268008,0.055983186,0.037989363,0.07949733,-0.0015746427,-0.015321704,-0.046842206,-0.1282891,-0.08661341,-0.08906493,-0.05566133,0.0047385725,0.044975445,-0.042655304,-0.033987295,-0.099585265,-0.06007463,0.09206468,0.002036072,0.0619443,-0.013184426,0.019635454,-0.036370575,0.15475819,0.027123183,-0.027612604,-0.08414945,0.051355254,0.009698828,-0.021009058,-0.14223741,0.022840044,-0.044851128,0.0018862517,-0.020864667,-0.0428148,0.044907887,0.06788383,0.024770707,0.047325153,-0.0028263694,0.0033803298,-0.009383183,0.0601172,0.00037206028,0.022744909,-0.06429005,0.1176232,0.032072853,-0.09380709,-0.09515344,0.16016194,0.071784906,-0.072116755,-0.0543533,0.012737993,-0.054367978,0.04977701,-0.031194396,-0.061762433,0.04226188,0.032075062,-0.030335706,-0.14763397,-0.17349117,-0.12782532,0.10481209,-0.051426537,0.009055716,-0.07231333,-0.015043504,0.039280392,0.06423866,0.012454921,-0.025764057,0.043333,0.024011951,0.044280384,-0.08821221,-0.08616048,-0.08377591,0.0042417943,0.093949735,0.00475404,0.07845382,-0.034732934,0.04584625,0.0389918,0.066677995,-0.059121285,-0.03710703,-0.08401094,0.045798723,-0.012674104,-0.0570512,-0.15502936,-0.03580567,0.013870165,0.06810153,-0.11514953,-0.088811494,0.14267091,0.09323962,0.02666146,-0.008237588,0.03193811,0.07617904,0.093856275,0.03759149,-0.007867955,-0.077745244,0.042403467,0.038566634,0.09072756,0.1508168,0.01793552,0.041527983,-0.085346036,-0.09578673,0.09178068,-0.10416195,-0.06835,-0.052501813,-0.030994995,0.07440358,-0.046299167,-0.17342784,0.042256266,0.032753386,0.15811664,-0.022802465,0.019739313,0.0056038336,0.03599978,-0.01993067,-0.121831715,-0.06975493,-0.113072515,0.020119742,-0.024370177,-0.028992128,0.03660996,0.04416325,0.0300693,0.0583294,0.04979486,-0.00784806,0.008692706,-0.051278256,0.05680633,-0.03265136,-0.015314757,0.018840723,-0.028614521,0.026271593,0.083435945,-0.02620998,-0.0006917499,-0.018958397,-0.0067763175,0.073866606,0.055217355,0.08437228,0.018601103,0.058427446,-0.021804389,-0.05027089,-0.110644914,-0.099764615,-0.14904559,-0.06836926,-0.16294073,0.04169628,-0.044797927,-0.068529956,-0.03344101,-0.14873838,-0.085879944,0.03812532,0.11862579,0.075799495,-0.011444071,0.050709363,0.11020468,0.0855619,-0.010288247,-0.02956929,-0.079188615,-0.054763228,-0.046783257,-0.03329077,-0.18048082,-0.09151451,0.0039568935,0.08095199,-0.15038373,-0.05225086,0.09895481,0.01936084,-0.029485242,0.011658228,-0.004648929,-0.09764869,0.046510655,-0.085819356,-0.22724281,-0.07929165,0.07049631,0.10550716,0.13638315,-0.039759316,0.0872343,0.11840164,0.0816622,-0.05861857,-0.12473335,-0.13085945,-0.06613654,-0.022431461,-0.08250725,-0.063958555,-0.0138373,0.0036890684,-0.10011356,-0.069988385,-0.014247085,0.18830217,-0.1557434,-0.013186734,0.009433437,0.025630528,-0.08245281,0.04861951,-0.027990485,-0.11909938,0.029103162,0.06371816,0.057452027,-0.049592588,-0.09156138,-0.04465683,0.04496579,0.051574126,-0.071748875,0.009912928,0.05140541,0.04583799,-0.009786199,0.026677385,0.049847268,-0.06451118,0.15747954,-0.06800266,-0.090897,-0.0069871135,0.073953174,0.09545229,-0.03404022,-0.12500006,-0.082689196,-0.014622381,0.0146823395,0.13041095,0.0047942083,-0.008732107,0.13313623,0.028412603,0.1008015,0.1716054,0.056706194,-0.08434804,-0.08093687,0.009702265,0.06351696,0.029866774,-0.10357742,-0.097284585,0.095239416,0.097300276,-0.018221172,-0.019968651,0.079334185,0.053172536,0.06299636,-0.0446109,-0.08354017,-0.07364528,-0.0083309775,0.065176666,-0.01699584,-0.049893893,0.022755321,0.0715935,0.038700942,-0.050048083,-0.0035563263,0.070476875,0.017272757,0.112378925,-0.10004455,-0.12282379,-0.112211004,-0.05247129,-0.12603572,-0.06170286,0.038564377,0.08902593,-0.01585988,-0.029391546,-0.049007032,0.025028465,-0.094798714,-0.04707308,0.061520934,-0.04949831,-0.176462,0.10737207,0.15396859,-0.05470234,0.006625626,-0.02917786,0.04784747,0.024008015,0.007903692,0.010761598,-0.119256146,-0.11021084,-0.024068518,-0.07761132,0.072066754,-0.020023316,0.03714003,0.14624621,0.0807995,-0.029388117,0.019744353,0.12709722,-0.012888131,0.0017220508,0.06499893,0.1432209,-0.07049051,0.098286286,0.11615195,-0.097322375,-0.08355714,0.14420198,-0.062440183,-0.26427418,-0.26372907,-0.11031755,-0.019062962,0.06323308,-0.018022344,0.058502793,0.09242257,-0.009225364,-0.011192992,0.0038675175,-0.028188314,0.0017251336,-0.00014421949,-0.04806823,0.04761286,0.014858369,-0.057344116,-0.047861468,0.031083018,-0.001647905,0.037903126,-0.093814954,0.024103511,0.11440926,0.09878393,-0.065389015,-0.010492668,-0.03459292,-0.008422559,-0.11107106,0.063375786,0.19966483,0.068264715,-0.1412205,0.0054126065,-0.01929429,-0.081522584,-0.0875606,-0.027659858,0.0012673629,0.11226291,-0.030908756,0.011022431,0.0028252588,-0.13644946,-0.028514534,-0.20509024,-0.10462327,-0.11389741,-0.071653515,0.043419532,-0.012078465,0.1242467,0.018534478,-0.018165054,-0.004047178,-0.014032773,-0.0019866468,-0.051411226,-0.02199272,-0.09658519,-0.09220656,-0.024423456,-0.10614002,-0.21128686,-0.10022272,0.047766045,0.028564751,0.0728702,-0.027797101,-0.005812381,-0.093886025,0.05089092,-0.01650318,0.014358816,-0.026106475,-0.028161084,-0.12453527,-0.11693854,-0.18902498,-0.10540887,-0.11453681,-0.025304379,-0.013398815,-0.0069348793,-0.041345183,0.006754091,-0.051916238,0.050305635,-0.21771167,-0.008841245,0.14812075,0.15103202,-0.07214806,-0.020961337,-0.04595564,0.03998323,-0.076110534,-0.16060545,0.004394932,0.030512962,-0.045089234,-0.022822514,-0.043803174,-0.055061646,0.043104384,-0.030217329,0.019059576,0.117790915,-0.021263767,-0.020532295,0.14617759,0.12018888,-0.032041427,0.013864993,0.029730916,0.02960742,0.015981758,-0.10055798,0.059366077,-0.02142431,0.004441067,-0.008405895,0.0105973175,-0.058571182,-0.058251332,-0.02387044,0.0026478493,0.040046692,-0.031470507,-0.03995137,-0.014913445,0.08741339,0.104608335,-0.023831468,0.042903565,0.019059114,-0.1496632,-0.10751851,0.02271819,0.016309343,-0.0053363102,0.12976842,-0.01745056,0.0663184,0.016088266,0.08303429,0.002029016,0.1020899,0.04116132,0.025634557,-0.0036187626,-0.06560297,0.031403095,-0.047464263,-0.024958972,-0.08597716,-0.023767404,-0.3582507,-0.20034356,-0.059876315,-0.12300886,0.0472794,0.028149346,0.059373084,0.024126295,0.003839038,-0.05479154,0.0013315772,-0.04091975,-0.037734687,0.012323999,0.00827039,-0.1789022,0.084466554,-0.045728132,-0.06818009,0.026557205,-0.05369103,0.031637367,0.020615656,-0.03340202,0.07435456,0.13464619,-0.08843202,0.0009963661,-0.14453949,0.035555482,0.09853182,0.033109967,0.08829629,0.053588357,0.120770104,-0.0965161,-0.033860486,0.027589004,-0.02701871,-0.04649931,-0.06593018,0.03430701,0.09420972,-0.04305251,0.042813987,0.019408692,0.045944862,-0.09363399,0.04527601,0.14399587,-0.015189989,-0.018030629,0.030212382,0.051570717,0.054510146,0.040467095,-0.02101352,0.018870391,-0.05099452,-0.105852604,-0.0023893642,0.009628088,-0.06959729,-0.13638169,0.030571556,-0.033404596,-0.08151735,-0.017728155,0.07964916,0.05047458,-0.08487929,0.029210482,0.06646239,0.05705081,-0.053146347,-0.06357355,-0.011589682,0.010327166,-0.10315707,-0.20648898,0.11934174,0.018623045,-0.11634155,-0.1176231,-0.0074164323,0.04003241,0.07483341,0.024825031,0.03816706,-0.010751777,-0.023824688,-0.023983916,-0.014279489,0.01919608,-0.05829821,-0.18760802,-0.065196484,-0.17592593,-0.09860501,-0.08041933,0.102291815,-0.06879513,-0.061349373,-0.025147883,-0.039396737,-0.10190596,-0.049821224,0.07991363,0.026936911,-0.0015598782,0.052762143,-0.030327965,-0.0016749995,-0.016203266,-0.057581663,-0.0671661,0.005247742,-0.08302376,-0.04658787,-0.07159824,0.006919773,-0.095664665,0.13484375,0.08469526,-0.031705603,0.052375343,-0.11273891,0.12639615,0.105054185,0.036760297,-0.06279289,0.018872028,-0.052684017,-0.10591939,-0.1602274,-0.13631281,0.00983116,0.03893185,0.111349374,0.08449822,0.066041574,0.028368752,-0.024775907,0.044220306,-0.124113925,-0.16460273,0.058106523,-0.010563487,-0.07242393,-0.046000946,0.0027597917,0.061145723,-0.03758837,-0.1505685,-0.054713733,0.050257914,-0.011843929,0.102567315,0.03358206,-0.08401048,-0.0037168767,0.097397976,0.028396582,-0.019007916,0.028694035,-0.013061782,0.037990674,0.053502742,-0.038906183,0.010183009,-0.0062830616,-0.06408368,0.018437494,-0.05349374,0.033383317,0.03035255,0.014461122,0.045648146,0.036386993,0.081636615,-0.1119582,-0.167611,0.0023773054,0.18210658,-0.034070164,-0.016653227,-0.06446184,0.043760695,0.039007835,0.08993886,-0.043999802,-0.014441559,0.05370654,-0.19081688,0.026472399,0.047398206,0.0166244,-0.056409188,0.09126179,-0.027833374,-0.01835014,-0.051953807,-0.11860224,-0.04890904,-0.094680905,0.058304686,0.019715616,0.07413691,0.019996265,-0.09788037,0.007957108,-0.09622301,-0.038886067,-0.008061423,-0.03741488,-0.039044045,0.04054478,0.03831787,0.0330904,-0.044681314,0.011434608,-0.042279515,-0.046895687,0.04192631,0.00076534675,0.018821882,0.111606665,-0.09206351,-0.056196272,0.052605752,0.025627254,-0.022660557,0.14873636,0.037237413,-0.17026646,-0.21359648,0.008300927,0.051163454,-0.055672724,0.0018407517,-0.08352785,-0.017773936,0.086291045,0.06393194,0.01598807,-0.07360247,-0.178405,-0.19103537,-0.037054762,0.014861411,0.026157629,0.20382582,-0.040506613,-0.05318919,-0.0005975021,0.13236725,0.008346092,-0.13935852,-0.07935875,0.10171814,0.057084266,-0.099757835,-0.12928034,-0.034645792,0.04052783,-0.047177352,-0.0800049,0.05206161,0.088267185,-0.040699724,-0.013100625,0.015872385,0.02396965,-0.050580934,-0.07241575,-0.015497342,-0.09154765,-0.13349657,-0.015195571,-0.00031016,0.0050272658,0.06261335,0.062980905,0.06321849,0.028359734,0.013210166,0.026714144,0.032956637,-0.14413756,0.020189416,-0.05819152,0.023231186,-0.01681319,-0.009655584,-0.2229417,-0.14674522,0.0010263277,-0.06489775,-0.016227733,0.022765044,0.17764841,-0.03273592,-0.002712761,0.117836565,0.1172126,0.006582936,0.049460597,-0.014291978,-0.07417131,0.0063657346,0.029156001,0.11042488,-0.0755181,0.010850998,-0.036516037,-0.0312739,-0.1687955,-0.01507704,0.05922493,0.012844533,0.08490972,-0.04020114,-0.046908338,-0.033172414,0.09140612,0.08669996,-0.08762548,-0.17677142,0.020093188,0.044734325,-0.09979842,-0.07440213,0.012629551,0.07211037,0.02114976,0.048663452,-0.034365457,0.11332669,0.14256132,0.024264429,0.05895362,-0.06517009,-0.14491677,0.049094215,-0.012044707,-0.07829862,-0.011518228,0.081424735,0.065209836,-0.10616926,0.08809858,0.0075505064,-0.043452725,-0.07754754,-0.020271933,0.036187667,0.06419376,0.04954447,0.041456494,-0.1948557,0.16746111,-0.07995281,0.028544713,-0.04353398,0.004536456,-0.049721636,-0.020810727,0.095524944,-0.06149639,-0.06000745,0.03788083,0.075837605,0.07863538,0.022530181,-0.029617297,-0.05585128,-0.0060491804,0.062526606,-0.027607441,-0.14437878,-0.060993634,0.029436454,0.03256041,0.08966374,-0.038675014,0.10238029,0.10466478,-0.026709978,-0.013660495,-0.07737029,0.068136446,0.21674801,0.027679978,-0.11343737,0.002090464,-0.1398581,-0.056284223,-0.0058362903,0.035523117,0.088005625,0.002439166,0.0394863,0.08219719,0.14249286,-0.017588343,0.00837553,0.012155791,-0.06076071,-0.0053541115,0.009988904,-0.110923864,-0.13919383,0.03929487,0.082944155,0.01159627,0.0026644268,-0.13745932,0.0872604,0.074457906,0.012014077,-0.13812068,-0.066813484,0.040274523,0.17596357,0.002315509,-0.009711215,0.051712565,0.029585559,-0.06127553,0.0009002444,-0.12231118,-0.09562583,0.03603743,-0.01825897,-0.0008653132,-0.06721093,0.12623268,0.07901066,-0.08923675,-0.05214754,-0.03596505,0.007023147,0.021163829,-0.013181563,-0.004842366,0.12391465,-0.0001959857,-0.10784738,0.074267805,0.05778961,-0.07826691,-0.0035952025,-0.019634882,0.14385852,0.1333126,0.013517462,-0.06266242,0.01135073,-0.012786204,-0.07562796,0.056749795,0.07564091,0.06807397,-0.14883274,0.049039204,-0.022356737,-0.014462619,-0.045888953,-0.20660555,0.030340472,0.08431826,0.106712766,-0.053250205,0.038197007,0.05633466,-0.014405807,-0.09454824,-0.01508377,-0.013288985,0.027642002,-0.035900466,-0.041936666,0.0046386407,0.04279596,0.007511871,-0.062192407,-0.0525498,-0.06332263,-0.04156432,-0.013204695,0.042232305,0.0073173125,-0.023573253,0.0031421205,0.030655138,0.020477617,-0.0904919,0.039503783,0.021601675,0.026987454,0.0135142505,0.05874003,-0.11375502,-0.08636086,0.038514044,0.11791827,0.081996486,-0.23379123,0.02334986,0.17467205,0.06382652,0.0304203,-0.0141894985,0.09158557,-0.016915554,0.16450116,-0.083379984,-0.006483516,0.03351528,0.054538768,0.10778397,-0.1122354,-0.04482389,0.045335338,0.027670898,-0.07413206,0.090003,-0.0030954217,0.030809997,-0.09098807,-0.0032580388,-0.08091723,-0.008836173,-0.060162343,-0.07976321,0.041272767,-0.06045927,-0.018693237,0.09736113,0.039717738,-0.023762187,-0.050502006,-0.050091032,-0.063126594,0.1739003,0.007933103,-0.07520344,-0.018481506,-0.1003581,-0.10075451,-0.018935941,0.050279453,-0.08601091,0.0058734696,0.09655411,0.10465326,0.09397166,-0.10168478,0.089000896,-0.031624034,0.095437326,0.029697439,-0.12216363,-0.06778037,-0.10224265,0.10027372,0.14886458,0.21437505,0.007393638,-0.011908768,0.055941775,-0.026749376,0.031806197,0.07221998,-0.08843907,-0.17396925,-0.09820414,0.011623145,-0.028910618,-0.08273906,-0.026852053,0.15964009,-0.01729277,-0.011624641,-0.08884506,0.12341234,-0.050062705,-0.014680748,-0.0040584533,0.00937459,-0.0054468643,-0.038199324,-0.04082725,-0.100918755,-0.10332539,0.07605279,-0.062465772,-0.011023945,-0.053819116,-0.0047285752,0.15892723,0.09176922,-0.102699935,-0.05820336,0.08062107,0.047941886,-0.09831764,0.0059271106,0.043279685,-0.028937502,0.015086418,-0.02868789,0.007015534,0.09506995,0.16981472,-0.04863405,-0.056821432,-0.02281898,0.046975322,-0.070219815,-0.04300231,-0.00225507,-0.01026704,-0.03951816,0.012992318,-0.1010687,-0.051321205,-0.07738307,-0.01060874,-0.01192151,-0.12094248,-0.04105624,0.119970605,-0.058980376,-0.036278088,0.074275866,0.03060986,-0.0038202538,0.024081992,0.016924622,0.0059497035,0.05371096,-0.017890628,-0.20279944,-0.12695074,-0.03114162,0.12042303,0.17184769,-0.1380458,0.0011830016,0.06899828,0.09735927,0.029087724,-0.09623736,-0.006912071,-0.010876051,-0.113059044,-0.0047209226,-0.013112361,-0.08554904,0.046096828,0.21081941,0.030650122,-0.086188376,-0.030586556,0.19764803,-0.0007486087,-0.03292356,0.029121518,0.003709216,-0.020275647,-0.027705546,-0.035869054,-0.07505627,0.05994347,-0.030613184,-0.08529076,-0.18528818,0.009401409,0.19603598,-0.09687557,-0.023102585,-0.08335507,0.1347763,-0.0035363995,-0.07596808,0.00967089,0.0025600516,0.029743364,-0.1389959,-0.055504918,-0.032864105,-0.021762745,-0.057648525,-0.000285902,0.008944765,-0.078451425,0.029307168,0.07866651,0.10828996,-0.08223026,-0.11270604,0.067896746,0.09863516,-0.048458654,-0.078938425,-0.084802605,0.051484786,-0.029534271,-0.060891524,-0.06994519,-0.13185775,0.091594934,0.012103407,0.004808581,-0.0014858323,0.040036462,-0.12712632,0.029165708,0.04928537,-0.059086416,-0.105422325,0.05093939,0.044622652,-0.11244299,-0.0867956,0.007487619,0.037743196,-0.080154605,-0.015485384,0.09725489,0.0507001,0.05933375,-0.09176923,-0.024869658,-0.04965598,-0.04529819,-0.0361055,-0.01904797,-0.00040833035,-0.042323384,0.006710074,0.07268012,0.18713774,-0.044377588,0.02701264,0.03017513,0.005885733,-0.054209024,0.046506483,-0.008666965,-0.08288078,0.054724395,-0.06525557,-0.09663959,-0.12808135,0.020320138,0.028850803,0.009227103,-0.030753452,0.05286727,-0.007177279,-0.13200043,-0.034599666,-0.06186954,-0.026419144,0.005419678,0.0031879228,-0.09534693,0.010600678,-0.020537041,-0.025656443,0.00518926,-0.0052600196,-0.2132728,-0.11702516,0.0034756502,-0.01116114,0.010033899,-0.078619085,-0.058549438,-0.013266493,0.088898696,0.03456846,-0.055906832,0.03855666,0.02100149,0.020774022,-0.072662555,0.096889645,0.051150206,0.09166956,0.010915697,0.05953251,-2.405385e-05,-0.044153094,0.015098329,-0.028663628,-0.055229943,-0.105864294,0.05056412,-0.094372615,-0.13778713,-0.062830195,0.019721722,-0.06509287,-0.04808242,-0.0330871,0.008004305,0.037403166,0.020409588,0.007233213,0.006514855,-0.01419294,-0.038815647,-0.03661143,0.06053866,0.0012723452,-0.013655066,-0.0546424,-0.04961331,-0.12220101,-0.09876599,-0.069994085,-0.010604228,-0.018413361,0.10417947,0.063465334,-0.061911523,-0.03955176,0.029511103,0.06988467,-0.004552025,0.06749879,0.0488701,0.048641767,0.012909958,-0.02562752,0.054709885,0.07043897,0.016708797,-0.036828622,0.06330289,-0.022126198,0.1081599,-0.060729746,0.051613934,0.022762243,0.03000401,-0.015237191,-0.14272408,-0.09326283,0.023582954,0.08612957,0.07262301,0.106526315,-0.08289964,-0.07357494,-0.019722275,-0.0061211446,0.00020878574,-0.06302433,-0.13029397,-0.11051694,-0.04014766,-0.12146244,-0.15669824,-0.08031238,-0.00024073213,-0.054746166,0.13388887,0.058656,-0.045042355,-0.028026711,0.04315954,0.06485744,0.0539084,-0.040201414,-0.09660017,0.018282883,-0.017733674,-0.12677048,-0.0048254067,0.0010866557,0.011179098,0.12854479,0.09131407,0.09404354,0.017075373,-0.025739394,-0.05845824,-0.09918608,0.036351677,0.03127158,0.12641737,-0.060910195,0.046301637,0.0020352132,0.018160516,-0.1598472,0.04884932,0.03268873,-0.17865412,-0.047352593,-0.07842052,0.005702556,-0.002221385,-0.005343717,-0.06124295,0.0011744412,0.09071241,0.08761462,0.07440584,-0.083308116,0.036426038,0.034556013,-0.023550697,-0.13501516,-0.13469608,-0.07361828,-0.051188193,0.07322097,-0.048529495,-0.023140237,0.098904625,0.079377666,0.05002518,-0.021905318,-0.048600245,-0.0805774,0.05106796,0.049987417,0.05696837,0.029748619,-0.09271346,-0.1352744,0.011534682,-0.035893433,0.020646926,-0.089355044,-0.05860827,0.012567986,0.026407892,-0.044581786,0.0032554502,0.022991844,-0.007924357,0.03548668,-0.024400191,0.027963996,0.0975092,0.019559339,0.005290062,0.009952521,-0.029607598,-0.047937404,-0.0046888515,-0.06647053,-0.040433943,-0.046484333,-0.07820975,-0.12664582,-0.11178723,0.008445336,-0.05182056,-0.0050382074,0.039404947,0.1434028,-0.03396179,-0.05297165,0.009502693,0.018035298,0.034318473,0.006678122,-0.03918353,-0.0532771,0.04710501,-0.044915818,-0.050958388,-0.090262674,0.03334995,-0.018461881,-0.16612954,-0.08459535,-0.008126835,0.017495468,-0.0072620767,0.009245656,-0.116241865,0.015051134,-0.030937139,0.031850386,-0.008932324,0.032194905,0.115971975,-0.042883914,-0.05082717,-0.035126068,0.09462715,0.03186985,-0.063532166,0.054382507,0.049312834,0.044041567,0.017577477,0.0075043286,-0.07037408,-0.035204258,0.019236684,0.07251675,-0.025080258,-0.12414395,-0.029446898,0.039868817,0.0741571,0.011360741,0.011314384,-0.074321926,0.07793799,0.09516308,0.018038968,-0.0042354246,-0.005084042,-0.11679262,-0.0155423265,-0.1352412,-0.04019293,-0.07052728,-0.06742769,-0.042871244,-0.043308776,-0.015774116,0.0353719,0.06919659,0.027102798,0.094150774,0.03566713,0.012430653,-0.024813157,0.0012137475,-0.0023464353,-0.034681592,0.0027328497,-0.071869105,-0.06287731,0.03352295,0.022222705,0.019071544,-0.12349413,-0.121608794,0.008274124,0.040386938,0.12016761,-0.01969325,-0.025231153,-0.064579025,-0.048601363,-0.022314996,-0.04897611,0.03271238,0.011175961,0.086407214,-0.06264593,0.063076414,-0.034544617,-0.021392385,-0.05267908,-0.03544189,0.07313875,0.06482833,-0.1124658,-0.14808741,0.025480175,0.16534495,0.024175324,-0.1677513,0.0048683775,-0.012194551,0.084920526,0.09104617,0.06895609,-0.038301546,-0.027544308,-0.03159034,-0.04317602,-0.09213704,-0.15167403,-0.058655668,0.034329966,-0.02164193,0.0739935,0.02342016,-0.0282687,-0.06764269,-0.11760454,-0.09704543,0.13112222,0.05986335,0.022942066,-0.04340317,-0.050867356,0.0074872947,0.004545335,0.018550156,-0.09460741,0.10506935,0.040883858,0.016546158,0.019249622,-0.06433422,0.039616767,0.098028846,-0.016241247,-0.058189325,-0.042717785,-0.029431768,0.069142014,0.17965381,-0.07366753,-0.10314156,0.026222833,0.06225529,-0.08030009,-0.17920889,0.016078703,-0.06595597,-0.0051949997,0.06849565,-0.027882118,-0.018265361,-0.03541998,0.020771192,0.101339646,0.0019134522,0.0045240666,-0.061666816,0.03846479,0.0032594271,0.029933838,-0.07316086,-0.1970065,-0.12478278,-0.008658907,0.05484881,0.110447966,-0.026707586,-0.00041570983,0.046719078,-0.026357641,-0.041254256,0.004432163,0.06328644,-0.044506542,-0.0024114195,-0.0043090116,0.0016612674,-0.063653074,0.06510488,0.06775934,0.02874665,-0.13691735,0.036633328,-0.0077352105,0.007150074,-0.07800835,0.11202616,-0.09709155,-0.08645762,0.058802165,0.04735669,-0.08473196,-0.15191339,-0.05153095,0.032483827,0.018513823,-0.068906225,-0.105941445,-0.029219808,-0.1272196,-0.12657718,-0.034270473,0.03434613,-0.028202685,-0.120788164,-0.059967387,0.10430405,0.07744539,-0.1291195,-0.081256606,0.07238236,0.10268363,-0.08141933,-0.027166676,-0.079383396,-0.06753755,-0.07904292,-0.083351456,-0.06836443,-0.050202057,-0.058187015,0.15039277,0.08745292,-0.001251753,-0.126617,-0.08810137,0.037873212,-0.05419987,-0.011600141,0.01565373,0.0685038,0.12924251,0.052028496,-0.088519126,-0.004818958,0.0321843,-0.07140343,-0.0718708,-0.0613385,0.0139754405,0.021642866,0.050671935,0.011638,-0.18157408,-0.0050170952,0.12651977,0.13796254,-0.056507166,0.09226104,-0.2482855,-0.16460104,-0.005381287,0.075669214,-0.037294615,-0.012436422,0.021711212,0.099482186,-0.0049029323,-0.050846536,-0.114808895,-0.089338735,-0.13065234,-0.081859894,0.039562926,0.007335753,0.03345882,0.08385029,0.023484152,0.054641567,-0.01103873,0.08063577,-0.07555141,-0.060788672,0.025294779,-0.046687584,-0.1296164,-0.12046104,0.07427898,0.06254299,0.00087843736,-0.10026419,-0.083134614,-0.031763196,-0.19997503,0.04746457,-0.037334,0.10346502,0.023957934,0.004665905,-0.11653002,0.037452962,0.07921919,0.10730026,-0.04530547,-0.013051799,0.0901733,-0.026947375,0.074946836,-0.015730765,-0.07022082,-0.03961841,0.06254276,-0.031793725,-0.15762313,-0.050091956,0.022605604,-0.02530288,-0.101036854,-0.12119196,-0.012293985,-0.033176582,0.01493792,0.055405088,0.013440621,0.14527257,-0.07777717,-0.111570455,0.044069335,-0.028634066,0.0006551592,-0.10969568,0.05999156,-0.043207027,-0.18432865,-0.04675311,0.093433335,0.008886029,0.03491251,0.08750684,-0.23576175,-0.16081347,-0.027988167,0.055045944,0.03698988,-0.013260124,0.037647538,0.052831084,0.04321883,0.095459074,0.0156588,-0.04136799,0.05622407,-0.0049098576,-0.0007218393,0.054791834,-0.15682533,0.0062408512,0.09721962,-0.071550205,-0.06412397,0.03426478,-0.024048427,-0.01149213,-0.035880044,-0.0022450704,0.009137398,0.017458923,-0.024523493,0.04684162,-0.029814225,0.02539474,0.08547427,0.17674239,0.018106498,-0.067609884,-0.059425958,0.121552944,-0.062370777,-0.017576264,-0.1105811,-0.19224614,-0.009646446,-0.013940292,-0.014277288,-0.10140526,-0.065174535,-0.016243076,-0.028437631,0.0381412,0.06411275,0.057129994,0.059558008,0.14435312,-0.014747621,-0.060597736,-0.071969375,0.0025689672,0.048682604,-0.11218522,-0.05209142,-0.08153032,-0.056812428,-0.07639982,-0.046921797,0.008903858,0.0036721332,-0.03288661,0.10184813,0.20543745,0.04452215,-0.07927232,-0.056897588,0.06083599,0.019291999,-0.03875147,-0.07864452,-0.06334203,-0.0823846,0.084162556,-0.08467355,-0.13097192,-0.0068954425,0.010514801,0.009440351,0.03227109,0.10049216,0.070585586,-0.07766106,-0.02709142,0.08633759,0.05588512,0.0036291487,-0.023095397,-0.08500679,-0.056304127,0.10921621,0.09015893,-0.026219368,-0.020383688,0.13746037,0.009360927,-0.1831182,-0.09490278,0.040023744,0.002191063,-0.03339737,-0.05581089,0.030072708,-0.02576023,-0.0033509512,0.02205088,0.15622817,0.07478488,-0.019496622,0.02546392,-0.15515359,-0.120370865,0.02052984,-0.06991308,-0.12316582,-0.10248481,-0.027603483,-0.025645226,-0.11174026,-0.23177183,0.054886755,0.13835384,-0.0962354,0.039595123,0.027191954,-0.129684,-0.018943585,0.16066535,0.16629867,-0.061870597,-0.045113884,0.035897005,-0.027339159,0.06498673,-0.0740641,0.051817495,-0.03136599,-0.05015844,-0.014673098,-0.074589156,-0.017505549,-0.011193357,-0.10158104,0.040789105,-0.025351256,0.017009806,-0.07753645,-0.052392688,-0.10585911,0.06716831,-0.023769649,0.067540005,-0.026608497,-0.01880837,0.1517821,0.11932342,-0.040490255,0.041382644,-0.047231622,-0.16177699,-0.048740778,0.026133573,-0.07490292,-0.022482816,0.079208486,0.098805726,0.10580229,-0.04926588,-0.12683074,-0.025407549,-0.10020036,-0.1212926,-0.06883586,0.08924922,0.06698901,-0.0047326335,0.031742256,0.012343102,-0.10473421,-0.020367267,-0.045494597,-0.010666724,-0.03870224,-0.087886915,-0.035835657,0.05569052,-0.020486536,-0.090479754,0.10426904,0.053650837,0.022658369,-0.032018427,0.14278963,0.065489344,0.057939533,0.006609501,0.042667415,0.03788391,0.04595625,0.009225707,0.0025360482,-0.054380365,-0.024916923,0.04096802,-0.06888811,0.008784221,-0.25990203,0.003001874,0.14117497,0.117015794,-0.08684828,0.02670332,-0.022496497,-0.096269846,-0.010534897,-0.026611857,-0.030342018,0.06479972,-0.03573537,-0.022293383,-0.041049834,0.08910874,-0.00454212,-0.10822132,0.012977056,0.17516162,0.034237944,0.04975847,-0.11192903,-0.030994527,-0.0395152,-0.076869495,0.01718828,0.027938655,0.17649223,0.02137979,0.010895801,0.0077132597,-0.12190839,-0.007385761,-0.16713737,0.012666539,-0.15795086,-0.01108706,-0.07525831,0.011948658,0.08825292,0.04258287,0.1389596,0.18053646,0.11731335,-0.031957913,-0.066184826,-0.028260628,-0.013401277,-0.056956254,-0.014777472,-0.037840053,0.0067559765,0.026349822,-0.08007734,-0.116582096,-0.0004937405,-0.016547931,-0.06719618,-0.060321335,0.078451864,0.02087746,0.030040342,0.09829121,-0.056128852,-0.17391881,-0.092362784,0.04240743,-0.08229775,0.0034522829,-0.01017265,0.03369972,-0.006954382,0.0020705888,-0.113023944,-0.098733276,-0.109697975,-0.027735988,-0.043845538,-0.087264135,0.15408175,0.12097287,-0.03290658,-0.04932576,-0.0016258026,-0.022899687,0.012536671,0.037105057,-0.06560487,0.021948861,-0.044379964,-0.026749143,-0.16579306,-0.03607639,0.05496376,0.083509564,-0.28381032,-0.050140746,-0.008507506,-0.03927602,0.10224414,-0.011722982,-0.15977864,0.048235785,-0.030127857,-0.16504674,-0.034533493,0.041128553,0.16562907,-0.0658902,0.0299671,0.028903741,-0.057836097,-0.1002614,-0.099545226,0.06849571,-0.031399608,0.019701833,0.083087355,-0.02986218,-0.058989286,-0.014336281,0.032451283,0.009322123,0.0006533007,-0.11353616,-0.1585801,0.17948364,-0.02235839,-0.22720115,-0.023260094,0.054372482,-0.035089776,0.035025205,-0.038167585,0.08281962,-0.0073965043,0.031150548,-0.0045508533,-0.046437193,-0.06817461,-0.089930736,-0.022221807,0.07570905,-0.111739986,0.022500237,0.12764755,-0.00088362576,0.13378388,-0.07047124,-0.04043495,0.0847352,0.023320539,-0.03985255,0.07315103,-0.087142944,-0.13062264,-0.03414739,-0.070594415,0.09046773,-0.17776133,-0.045536727,0.060170986,0.06722165,0.08663745,0.0022693549,0.03662846,0.0063269315,0.014939355,0.093481414,-0.034169294,-0.0544123,-0.16311322,0.017173706,-0.05418854,0.02698658,-0.23059976,-0.01682961,0.13656165,-0.00982393,-0.119496085,0.01441492,0.08680628,0.13836525,-0.103830464,0.06673381,-0.03581209,0.062400542,0.06252787,0.15018202,-0.073215455,-0.06946263,-0.11033453,0.018339964,-0.0027931975,-0.08159014,0.13795888,0.063540876,0.09846019,-0.04888527,0.14654593,-0.016690612,-0.007240826,0.006778069,-0.0735277,0.009211753,-0.045038775,-0.08607415,0.035288684,0.011003528,-5.8627743e-06,-0.06865199,0.008292753,0.00011429353,0.03705254,-0.008603275,-0.055041254,-0.038415562,0.047720015,-0.040876675,-0.024551744,-0.008731131,0.0016341615,-0.060968507,-0.04979342,-0.066001944,-0.021792088,-0.025520522,-0.10234559,-0.00031392378,0.051944736,0.0760714,-0.028745078,-0.06453008,0.081729196,0.017055426,0.07627096,-0.100339316,0.024144333,-0.019988425,-0.040298652,-0.04123932,0.03980366,-0.06407265,-0.039872628,-0.059435073,-0.06786543,-0.027657913,0.0064842254,0.036374375,0.07236217,0.07834588,-0.008626747,-0.0337008,0.07492554,0.04799229,0.078472465,-0.022682706,0.07070524,-0.0029556975,0.08613494,0.030997045,-0.07858032,-0.007257834,0.023461664,-0.0021515104,-0.096685596,-0.10029808,0.0011644124,0.051743317,0.004775651,-0.06517716,-0.024866374,0.036616165,0.14688867,0.13012148,-0.15668607,-0.066247195,-0.027400468,0.03352922,0.19679615,-0.023130683,-0.1329724,-0.03617477,0.14938034,-0.009989822,0.04277955,0.019377273,0.020339807,-0.045070246,-0.0108744325,-0.15013336,-0.079544276,0.056029055,0.0680199,0.077695526,-0.16579024,-0.023393769,0.104986854,0.13333488,-0.018931732,-0.085938826,-0.053142894,-0.054919984,-0.013364744,-0.057662714,-0.0053538266,0.0005592748,-0.038430624,0.014539178,-0.038216483,0.067442015,-0.054175142,-0.03425097,0.05417499,0.11156047,-0.02549989,-0.054249577,-0.0969495,-0.008351793,0.004970196,0.07410906,-0.022593137,0.050675564,-0.070913374,0.017954178,0.036340762,0.15474868,-0.1562881,-0.08316551,-0.048409674,0.14792244,0.006309914,-0.10459742,-0.0062379404,-0.056810673,-0.12424383,-0.03624243,0.06560923,0.053168368,0.15056401,0.071581714,-0.102897,-0.04970221,-0.06435186,-0.022481449,-0.11385935,-0.073008835,0.0006966394,-0.09474123,-0.11661354,-0.0023778598,0.048708525,-0.02283668,0.027538346,0.05467949,-0.033912126,-0.08118398,-0.12572733,-0.0007148137,0.08116651,0.08268445,-0.11778572,-0.13236168,0.16862741,-0.017176036,-0.082247935,-0.02373714,0.00038346983,-0.113336705,-0.06451538,0.08049011,0.08853242,0.07253201,0.052397046,-0.079704024,-0.042822413,-0.025309341,0.023505015,-0.03954673,0.016061649,-0.031165034,-0.12406989,-0.11001772,0.13383658,0.014566172,-0.102124095,-0.04178161,-0.10805317,0.0069408426,-0.08321713,-0.03791038,0.25367585,-0.017846964,-0.09067214,-0.0775515,0.07728185,0.003590597,-0.0023923651,0.008849002,0.04085522,-0.0018402049,-0.12813278,-0.04248092,-0.16171408,-0.05706895,0.0679092,0.114087336,-0.16509676,0.02321562,0.07625135,0.17940076,-0.00018932972,-0.036415886,-0.046693552,0.107925214,-0.084704764,-0.023096567,0.0045930888,-0.03360312,0.075296395,0.089057446,-0.0663277,-0.061977495,-0.021440703,0.034619052,-0.013159387,-0.05834233,-0.012175128,-0.09165156,-0.20780192,-0.02290305,0.019906431,-0.031618305,-0.08674818,0.12597376,-0.051681478,-0.012769562,-0.08339999,0.11990479,-0.08376564,-0.09408441,0.008529621,0.11869583,-0.030818183,-0.01846238,-0.09721437,0.14952688,0.005029223,-0.07980463,0.0028034276,-0.02215908,-0.06832164,-0.053413674,-0.027537826,0.030549023,0.0010489619,0.05050994,0.007988643,0.07946979,0.018286573,-0.046037648,0.07387905,0.017571708,-0.037524145,-0.058771376,0.02447148,-0.094161786,-0.038777515,-0.06820421,-0.10909961,0.13554455,-0.045837842,-0.023154112,-0.051366128,0.05789114,-0.017480925,-0.12796909,0.021754105,0.10147662,-0.026178906,-0.043847907,0.10103874,0.056634955,-0.0765162,0.011976009,0.04557434,0.119588315,-0.083508596,-0.008355926,0.11722017,0.084726445,0.05899687,0.0020437322,-0.07186105,-0.0344661,0.062202305,-0.035243526,0.12953702,0.0077738254,0.090568565,-0.056221217,-0.07038868,0.17004165,-0.010942388,-0.035227247,-0.061962754,0.14224291,-0.019447144,0.033140745,-0.061599154,-0.1155505,-0.030529303,0.11641647,0.012468535,-0.11214247,0.0010210876,0.054217894,0.026543427,-0.035133522,-0.047290735,0.0260101,0.13603777,-0.03939442,-0.1595118,-0.0289073,-0.09372634,-0.22271226,0.037886176,-0.054600656,-0.07999159,-0.036390673,-0.051408425,0.013078227,0.014375829,-0.031784587,-0.037661724,0.005817623,0.05552385,-0.05814222,0.0030509427,0.038109194,0.002135484,-0.13858578,-0.07949978,-0.04188231,0.0637421,0.090832025,0.08519243,-0.05360402,0.06208976,0.22569622,-0.07466948,0.017501242,0.042080265,-0.0042567076,0.059068464,-0.006892045,-0.013395334,-0.08943973,0.021768402,-0.03910694,-0.01872817,-0.019024208,0.056050144,0.055992417,-0.053901967,-0.026361376,-0.025999732,-0.028490536,0.011436754,-0.0058605215,0.044842176,-0.004298822,0.0394674,0.06601,-0.0029864628,-0.022970056,0.034232315,-0.012509479,-0.032423154,-0.047730654,-0.03716355,-0.074211836,-0.12145045,-0.044327505,-0.025763826,-0.14133453,-0.07384982,0.025400579,-0.010740057,0.23982848,-0.024283744,-0.08712535,0.0049036755,0.2661508,0.031995356,-0.03939113,-0.045692507,0.056936532,-0.0033782935,-0.10294178,-0.045816023,-0.031664558,-0.06411236,0.043427356,0.15664028,0.023012059,0.11338455,0.02690732,0.005714831,-0.19356203,-0.07705067,-0.05401505,0.08229202,0.097544424,-0.02780918,-0.017998544,0.11447951,0.055275347,0.10842432,-0.09200313,-0.07773072,-0.09461368,0.17588109,0.028332416,-0.054780398,-0.16578025,-0.09200036,-0.01344961,0.06986754,0.06258677,0.06346627,-0.060240805,0.0072885486,-0.03328354,0.06389924,0.0029322265,-0.020647518,0.054853808,0.057288937,0.048953976,-0.07726247,-0.07169548,-0.064189255,-0.088887736,-0.024966504,0.09628828,-0.13342571,0.010980629,-0.02054255,0.1809481,-0.07841783,0.17871216,-0.13584012,-0.25216544,-0.095597655,-0.08428007,-0.0024661259,0.05380988,0.0031445376,0.051724486,-0.10943462,-0.011549522,-0.045582652,0.0697302,-0.14746976,-0.077002205,0.024822647,-0.05761232,-0.078451656,-0.10448984,0.025620142,-0.0647545,-0.03867111,-0.004484823,0.00059450034,-0.11193457,-0.106098235,0.0071686953,0.04516079,-0.027961615,-0.1463634,-0.19797884,0.04385832,0.07588111,0.07812356,0.082035236,-0.09378889,-0.037562087,-0.011652901,0.10726865,-0.013724054,-0.0027987408,-0.02328416,-0.15098499,-0.12471137,-0.014437273,-0.021176383,-0.047328364,0.027607681,-0.06999232,-0.13513477,-0.101894476,0.10628591,0.056214616,-0.052490037,-0.060494605,-0.0045371163,0.0001848751,-0.08785569,0.08485448,-0.030796722,0.058484502,0.07927073,0.07324944,-0.07456385,0.0394915,0.09662894,-0.03508203,0.05092168,-0.00025519353,-0.19998087,-0.14624394,-0.011109726,0.05282711,0.012298415,-0.08744585,-0.073983215,-0.0062829964,0.009984993,0.14086045,0.050781395,-0.075232446,0.014418305,0.036856145,0.06286862,0.06162278,0.012405063,-0.11174042,-0.118115336,0.08342296,-0.1358494,-0.07255296,-0.09442698,-0.00039787588,-0.09872876,-0.11998595,-0.002129817,-0.02790081,-0.030242926,-0.11528647,-0.037250426,-0.06403273,-0.0006170148,0.12185449,0.08652973,-0.012660936,-0.04441346,0.043219365,0.16398714,-0.078759395,-0.055859443,0.11595524,0.05284527,0.0032872756,0.004013432,-0.030649241,-0.013699742,-0.04178469,-0.021388296,-0.09672135,0.01656657,-0.02057511,-0.041834507,-0.058242556,0.021090675,-0.018776584,0.07019857,0.04814703,0.016692262,0.06362818,0.18421079,0.09064357,-0.05494663,-0.009635182,-0.068268776,-0.0897259,-0.14125992,-0.13141981,-0.10271363,-0.029966997,0.0068165604,-0.12919724,-0.058728337,0.07858998,0.09014913,-0.081389494,0.0024750587,0.20782594,0.073139615,0.059037335,0.10665963,0.07153122,-0.09544407,-0.0009403514,-0.0010134699,-0.058524955,0.0716848,-0.038958166,-0.0522723,-0.021994567,0.090013616,0.021862032,-0.09190201,-0.047091857,0.107942306,0.065187626,-0.037917797,-0.024369234,-0.1922454,-0.16959646,-0.106346816,-0.14775622,-0.03916775,-0.044253495,-0.020681635,-0.10698013,0.004936779,-0.012685106,0.017319582,0.048517242,-0.06252002,-0.010040449,0.043738402,0.057607535,0.04229519,-0.026298033,0.08859192,-0.0027141178,-0.009284921,-0.013824542,0.035895333,0.044071183,0.06410975,-0.09278978,0.019592319,-0.05155555,-0.09856209,-0.011593727,-0.027462512,-0.04633582,0.080457024,0.04725412,0.16912334,0.07751717,-0.009451959,-0.035868343,0.038800575,0.097919226,-0.009047528,-0.15479971,-0.1550509,-0.0748589,-0.018117147,0.027882867,0.013773102,-0.07175868,-0.18887515,-0.1642663,-0.12565215,-0.13783781,-0.0010359242,-0.023602854,0.04394329,0.04710316,0.09509005,-0.057046916,0.0678239,0.11627032,0.016765272,0.010676267,-0.031197568,-0.021790963,-0.06570454,-0.005110656,0.026409207,-0.026690584,-0.03920535,-0.05506003,-0.012495993,-0.0028830655,0.029379409,0.018809382,-0.054589666,-0.0012696546,0.0020549037,0.025888713,-0.010528703,0.032104082,0.16861986,0.18440662,0.03245248,-0.05384952,0.07757927,0.064182214,-0.15376484,-0.14394432,0.028748576,-0.12274173,-0.00831676,-0.10919598,-0.0020242452,0.046910893,-0.01740466,-0.08202496,-0.1181398,-0.18118875,-0.23784426,-0.11915567,-0.09632184,-0.07913945,-0.06817526,0.029259162,0.067435,0.036439456,0.0069488348,-0.05939955,0.003714348,0.054532025,0.0037271334,0.045148,-0.1495337,-0.20276128,-0.12001377,-0.0016875289,0.089741975,0.054068696,0.16113113,0.14513938,-0.026052913,0.008288372,0.09132218,0.018044438,-0.10346351,-0.09079972,-0.019760432,-0.021124478,-0.048903335,-0.10915989,-0.071385995,0.07779802,-0.043542247,-0.13514085,-0.050796982,0.0991852,-0.13574487,0.031066142,0.07259674,0.07234943,-0.031005943,-0.10488957,-0.08845152,-0.047776125,0.06217563,-0.02263689,0.014428878,0.06673036,-0.043713517,-0.03623547,0.012107308,-0.008256745,0.076548815,-0.12894057,-0.0023509187,0.044092532,-0.07273476,0.048562724,0.018698236,-0.0015400121,0.034710094,-0.0015623438,0.17519331,0.010497286,-0.00423132,0.09349896,0.054243162,-0.036359128,-0.01609776,-0.03849271,-0.10559014,-0.07624262,0.059353054,0.08769278,-0.011254304,-0.05744738,0.05533371,0.00019335574,0.07566879,-0.0071657286,0.031336132,-0.073855124,-0.062122628,-0.048550174,0.065181576,-0.023526143,-0.15310495,-0.06501916,0.11973541,0.011138467,0.0049407566,0.0033592363,0.0163237,0.043579295,0.06167783,0.22543786,-0.0028497048,-0.04904614,0.04462013,0.080775104,-0.05681176,-0.16143438,-0.097118765,-0.08959652,-0.13131446,0.047138143,-0.10631344,-0.002631684,-0.09207861,-0.21522878,-0.17098807,-0.22855164,0.014894861,0.07348373,0.05375511,0.0523234,0.09056366,0.07411655,0.024227137,0.00032515908,-0.041739475,0.043516252,0.0037092913,0.021034282,-0.101219624,-0.110782914,-0.0669539,0.0463217,-0.098746434,-0.13518074,0.01666462,0.032408416,0.018176291,-0.062862694,-0.019306565,-0.08278054,0.09897411,-0.009315035,-0.024599485,0.04135706,0.011630571,0.045847774,0.16374652,0.05032401,0.006389113,0.027559845,0.016923226,-0.030886652,-0.0074428064,-0.082710065,-0.10832252,-0.0851,0.014385049,-0.030558985,-0.039943404,0.019534912,-0.07587532,-0.08723247,-0.08894512,0.005059358,-0.07905588,-0.04729117,-0.139955,-0.003564196,-0.030127052,0.07626216,-0.004965338,-0.0015801804,0.057225004,-0.0025570442,-0.017104993,0.09948071,-0.07807431,-0.013355725,-0.13884707,-0.07678243,-0.05417474,-0.017957518,0.018615399,0.015121405,-0.045246154,0.012042307,0.0064121997,-0.08827348,0.08462166,0.010961781,-0.07619533,-0.003332735,0.04103204,0.15429899,-0.08272934,-0.032708827,-0.061222915,-0.02059555,-0.076472946,0.057994436,-0.080686964,-0.049948547,-0.00736915,0.035172522,0.041727863,-0.06540526,-0.054310005,-0.03915749,0.017299403,0.00407708,-0.051152933,0.14847374,-0.02819588,-0.003314716,-0.012568729,0.058306802,-0.11315869,-0.09188194,-0.017008267,-0.029314991,-0.038042225,-0.09650219,-0.13111137,0.050166372,-0.15668553,-0.1060304,-0.054432478,0.08498473,-0.018520517,-0.042448323,-0.021991042,0.07008439,0.015863853,0.0044120294,0.08048506,0.04430776,-0.05612344,-0.1709558,-0.07621163,-0.054727577,0.100720935,0.00595503,-0.19207479,0.032403734,0.028147178,0.081783704,-0.0046087215,0.055061996,-0.08551289,0.07737018,0.019551931,-0.0669643,0.11326563,0.1481973,-0.1326284,-0.12452487,-0.015374168,0.0541332,0.021505762,0.15846336,-0.05418564,0.009032476,-0.03490885,0.11292933,0.020962859,0.094906196,-0.05709417,0.034083314,-0.00052896456,0.008702485,-0.11389429,-0.064974904,-0.11166934,-0.2298634,-0.017538067,0.14830099,-0.037402213,-0.07417712,-0.014237324,0.011712716,0.021706546,-0.069070846,-0.06543591,0.0061205453,-0.05159949,-0.10913758,-0.07327164,0.051035486,-0.06524851,-0.005574368,-0.030546583,0.02053733,-0.060896065,-0.065272555,0.009197633,0.037539575,-0.013783952,-0.030868592,0.02545455,0.019670064,-0.08647581,0.047002386,-0.046754092,0.04522761,0.1730858,0.04598751,-0.039850973,0.01312571,0.0017725376,0.01171404,-0.053951338,-0.15348189,0.06938886,0.12668829,0.01936155,-0.11174758,0.0071244994,-0.017163372,-0.1262522,-0.026957136,0.03557195,-0.034562007,-0.19838116,0.05861788,-0.029174348,-0.017636532,-0.14819437,0.0070716995,-0.03560741,0.01823543,-0.0898276,0.02138927,0.005637451,-0.03939912,-0.063959174,-0.02048609,-0.09394467,-0.09785519,-0.12334007,0.037864618,0.10909928,-0.015965965,0.0315106,-0.0072261426,0.071264595,-0.07264335,0.017310511,-0.017939238,0.0843594,-0.015661325,-0.07088291,-0.02948444,0.0029959008,-0.14741874,-0.07379367,-0.05709322,-0.058376823,0.0007311123,-0.023200212,-0.10788905,-0.029651953,-0.025029814,0.041644443,-0.14316419,0.107784145,-0.0147853885,-0.10159025,-0.050642148,-0.041137878,-0.060760867,0.0055072038,0.13146189,0.020732334,0.031702705,0.051564023,0.104728155,0.075026445,0.09007605,-0.0040280987,0.06793548,-0.057591595,-0.060682375,-0.106257305,-0.17233527,0.021521159,0.107499816,0.14840437,0.12973261,-0.086645804,0.0908663,-0.094971634,-0.018404521,-0.06880722,0.0761466,6.508747e-05,0.014702555,0.1168688,-0.0018880722,-0.016916104,-0.0044594873,0.04629434,0.105400145,0.1055946,0.032191608,0.13737917,0.07599731,0.017102536,-0.045145776,0.0661986,0.053976566,-0.02127613,0.018256472,-0.20796224,-0.043889627,-0.016443623,-0.06291187,-0.029422427,-0.0031145995,0.057270847,0.15154496,-0.018792452,-0.07983485,0.037359208,-0.04685985,0.04422196,-0.039414994,0.027988734,-0.0570994,0.047042847,-0.031535015,-0.041056722,-0.023304325,0.02159983,0.02508375,-0.1652877,0.036096387,0.07237844,0.11377728,-0.0678295,0.016332453,-0.0652654,0.030244466,0.026895462,-0.10837671,0.081140116,-0.023026552,0.056997087,0.030543588,-0.10592462,-0.04804098,-0.038789418,-0.06731811,-0.10590701,-0.0619004,-0.03219911,-0.039750885,-0.010073552,-0.04548059,0.03427853,0.0054353927,0.023686284,-0.038461514,0.01044229,-0.011115356,-0.026058774,0.10638086,0.20654814,0.017170195,-0.11438581,-0.08871244,-0.02289654,0.0047978517,0.016873723,0.06933013,0.039950777,-0.08863805,-0.034447763,-0.052187234,-0.060427833,0.020717403,-0.022782903,-0.15199102,-0.074337855,0.0074057747,-0.086513616,-0.12562618,-0.12747714,0.106811665,-0.009380909,-0.0064681913,0.06430419,0.04927396,0.12850292,-0.06403357,0.02962321,-0.03035088,0.02129536,-0.048980862,-0.005409357,-0.061978348,-0.07353236,-0.08430469,0.044876672,0.030704785,-0.05828842,-0.009167951,-0.015731398,0.04646141,0.026111254,-0.096763,0.002012392,0.06999854,0.018754072,0.18808779,-0.018681515,-0.14457145,0.05440883,-0.046865802,0.027536418,-0.063695595,0.11146381,-0.080843315,-0.063403174,0.0065991846,0.0036141432,-0.06567384,-0.012789461,0.11788387,0.0044050254,-0.057726476,-0.09991525,-0.028217195,0.012201014,0.022506984,0.042937633,-0.0704818,-0.050807066,-0.048660435,-0.060504887,-0.08336702,0.02715339,-0.07487199,-0.005963244,-0.041822445,-0.08422041,-0.0067452667,0.08283286,0.15918952,-0.05594327,0.022098342,-0.081784114,0.07061982,0.028652925,0.05696357,-0.115313925,-0.14651251,-0.0021310407,-0.00529598,0.021784555,-0.10892341,0.054943487,0.0504626,0.0012896403,-0.018945405,0.0138114905,-0.016262604,-0.14516811,-0.12191413,0.018363426,-0.119600765,-0.10969322,-0.13067791,-0.1664669,-0.05988143,0.030278644,0.020158768,-0.033400398,-0.020757573,-0.12968151,-0.11491402,-0.0054349783,-0.027925136,-0.069262795,-0.109516375,-0.11979357,-0.012548407,-0.024627523,-0.04958684,-0.054531414,0.09499703,-0.037987348,0.01703341,-0.112684906,0.009025035,0.16241232,0.07280493,0.01112236,-0.010867536,0.039740495,-0.124362074,0.060112435,0.100554466,-0.0743189,-0.100880034,0.031360313,0.042481557,-0.047905985,-0.081572674,-0.05189793,-0.023155952,0.01969935,0.0038634783,-0.03768462,-0.0286935,0.03622543,-0.01755981,0.0010733566,-0.0061909193,0.00639656,-0.036726262,0.0833779,0.075207844,0.038906142,-0.01625704,-0.07963918,-0.108470924,-0.08631834,-0.029105049,0.10154615,-0.065184124,-0.008526971,0.0249665,-0.06312983,-0.0698124,0.059778884,-0.04640097,0.030543823,0.08454693,0.015709668,0.051060077,-0.11811768,-0.015192932,0.067282595,0.10838643,-0.07767574,0.03835106,-0.0050602457,0.021597488,0.051783234,0.037002973,6.822821e-06,-0.057594772,0.09027257,0.08224265,-0.031499337,0.0067971824,-0.040606387,0.08047904,0.04525748,0.043640133,-0.047575932,-0.07901998,-0.073045745,-0.016554207,-0.030634116,0.044599097,-0.052561358,-0.17369178,-0.029446924,0.008527346,0.030792829,0.0020141602,-0.12078881,-0.016776295,0.10479263,-0.016589295,-0.1313235,-0.006539089,0.072763585,0.0033566458,0.031232432,0.095629744,0.06832447,0.04774654,0.08799415,0.00040638566,-0.035624,-0.010305722,-0.03917736,0.1519461,0.090940714,0.13140742,0.06196522,0.050313044,0.008948927,-0.041099694,-0.02927718,0.043478113,0.0142664835,-0.15193649,-0.0059126876,0.046632204,-0.021606917,-0.1194244,0.07822608,-0.013426719,-0.19249721,0.01111866,-0.03912573,0.008419165,-0.05215113,0.07379085,-0.20476083,-0.06256529,-0.09759293,0.036150377,-0.046915133,0.07058098,0.07544979,-0.0061869374,0.030034313,-0.07637514,-0.12040544,-0.082794756,-0.047812004,0.005177913,0.039289597,0.0035418046,-0.032470077,0.047613885,-0.049231343,0.04033668,0.042213514,0.010930253,0.07585106,0.0958387,0.09649642,0.09853699,-0.03225224,-0.21472463,0.026537888,0.01680906,-0.03504742,-0.16391523,-0.10439926,-0.05789062,-0.14107634,-0.05148221,-0.105893895,0.055709217,-0.05556853,-0.060561944,-0.07671656,0.050501555,-0.012604951,0.020700773,0.0043568346,0.06650529,-0.023950517,-0.054108147,0.12017681,-0.10948295,-0.10418878,0.02830254,0.054135066,-0.060810156,-0.07924408,0.03402665,-0.1030797,-0.020496804,0.008146662,0.034738854,-0.20181732,0.051226746,0.0056781424,0.052190848,0.012259343,-0.016326739,-0.03171096,-0.07221036,0.08430146,-0.026254462,-0.051983625,-0.052446958,0.06818206,-0.022344498,-0.14136037,-0.068209,0.045611635,0.049392536,-0.054452047,0.076235384,-0.11678955,-0.083229564,0.00045747065,0.024531145,-0.04528923,0.027910689,0.056790583,0.021323867,0.034019504,-0.037801977,0.041183304,0.13371195,-0.06947126,0.006930969,-0.025978798,0.14632104,-0.13765761,0.13924429,0.06896793,-0.06783842,-0.09297401,0.10351929,0.0153592955,-0.11610556,-0.084487356,-0.05773685,-0.013689356,0.08034084,-0.04138447,-0.0107927555,0.028412104,0.09885199,0.014432053,0.032349035,-0.0074131708,-0.05993205,0.018172685,-0.029353652,-0.08927642,-0.07951872,-0.09502777,-0.14733915,0.021952717,0.07229954,-0.046125,-0.040423825,-0.0006874949,0.0041494844,0.002446687,-0.0024484042,0.06895285,-0.06354871,-0.030965555,0.04272796,-0.007873041,-0.11816986,-0.05835659,0.0070883534,0.050938167,-0.029008217,-0.08349716,-0.036921144,0.044183027,0.02733579,0.042140886,0.03740987,0.07764275,0.026308557,0.05199456,0.040522456,0.041462928,-0.058092557,-0.0031839097,0.084721506,-0.025961576,-0.11013215,0.054518238,0.03981615,0.017838854,-0.075887114,-0.011114579,0.009735396,-0.016625457,0.06627844,0.006998948,-0.06285204,-0.14225432,-0.07211587,-0.0626936,0.025102718,0.01235192,0.05966526,0.09500419,-0.1337723,-0.076196425,0.026876675,0.01973776,-0.24935052,0.0007096818,0.08026709,-0.17615698,-0.0072619636,0.091845326,0.08248112,-0.04792595,-0.068427965,-0.08941198,-0.061737176,0.027340662,-0.10971782,-0.0594595,-0.099949345,-0.014374222,-0.02697179,0.048691,0.01599366,0.053308196,0.10978706,0.021426082,0.13276802,-0.0029515543,0.1536216,0.022388518,-0.07977419,-0.044607535,0.011273599,-0.06808482,-0.029905988,0.12481488,-0.056121152,-0.10562058,-0.07578973,0.0055181794,-0.17179197,-0.24557121,-0.12021471,-0.031245844,-0.038677085,-0.013128586,-0.017512564,0.059181105,0.0027073203,-0.045029853,-0.061896678,-0.055556133,0.055121146,-0.048330456,-0.0051472127,0.108413935,-0.061122093,-0.05120905,-0.06245842,-0.08113322,-0.12704186,-0.11706129,-0.08837588,-0.053389322,-0.12212662,0.08131875,0.038023863,-0.017739726,-0.12823495,-0.039487697,-0.08742639,0.023227386,0.069516085,0.12958868,-0.007102725,-0.0044271857,-0.10254614,0.0014764951,-0.07997705,0.0533503,0.08288848,0.005714406,-0.04721513,0.09957663,-0.029559115,-0.12937348,-0.03452237,-0.024667582,0.012368248,-0.08680329,-0.050711937,0.11593564,0.06426949,0.15931147,0.007162595,-0.11892232,-0.09564967,-0.09619405,0.009225026,-0.023489922,0.026506322,-0.09921361,-0.052871365,-0.11824908,-0.12674053,-0.12839043,-0.108730555,0.06685016,0.09250319,0.061822586,-0.015002745,-0.05654108,-0.026748808,0.029981626,0.03368859,0.077594146,-0.03021272,-0.08613744,-0.09849253,-0.16262223,-0.21171044,-0.05159304,-0.0979486,0.009326039,-0.057248183,-0.06737733,-0.039332956,-0.0070778686,-0.05421177,-0.010317546,-0.11025761,0.028480183,0.114896014,0.11850949,-0.011012082,0.0051137786,-0.03031862,0.05298142,-0.07895143,-0.061715882,-0.018938988,-0.12783062,-0.10921699,-0.029672908,-0.1126196,-0.025307529,-0.02641548,-0.05430317,0.007682703,0.020035882,-0.001381264,-0.0065311217,0.037003107,0.14729784,0.0335227,0.031553958,-0.12454001,-0.12187574,-0.09247106,-0.11248293,-0.015913656,-0.009936011,0.07394673,-0.0034243702,-0.029495554,-0.025326062,0.080256574,0.04599167,-0.05335337,0.0040881066,0.026720643,0.057659034,0.0704286,-0.033102244,-0.07240541,0.025340267,-0.091603965,-0.05511818,-0.101194575,-0.09994971,0.056536794,0.023503184,0.02021205,-0.030150648,-0.022214696,0.015125901,0.10193455,0.12958318,-0.04811666,0.15669289,0.033688504,0.034053367,-0.12841581,-0.04210333,0.035066016,-0.04184608,-0.07669405,-0.13844767,-0.061069373,-0.23586604,-0.2840644,-0.13926582,-0.052008457,-0.012280733,0.041847337,-0.04179978,0.028573565,0.08361879,-0.0711905,-0.037085738,-0.006962017,-0.04490565,-0.00083831034,-0.08024795,-0.18445493,0.107465446,-0.0014715648,-0.14544308,-0.06976937,0.032003876,-0.0815593,-0.1574599,-0.080325015,0.054778464,-0.025158394,-0.0073341695,-0.02724873,-0.110926084,-0.034172095,-0.01396538,-0.084228896,0.07786558,0.08094465,0.13803913,-0.011187734,-0.095796935,0.053769425,0.021370836,-0.079627775,-0.0072182855,0.12499983,0.08785693,-0.07840359,0.015948225,0.025077865,-0.026964976,-0.079322815,-0.020382466,0.1012661,-0.003333904,-0.023129718,-0.017720267,-0.025315005,0.029945273,0.05688507,0.080626436,-0.03796294,-0.11568693,-0.082873754,0.037025675,-0.013195563,-0.049356543,-0.09528629,-0.017613258,-0.045689076,-0.13404287,-0.0667303,-0.0030600517,-0.08814046,-0.010577519,0.12124548,-0.053241696,0.058120094,-0.08232988,-0.091119304,-0.057507854,0.048007425,-0.06886446,-0.1909,-0.037722375,-0.02669428,-0.07399864,-0.13972043,0.07606709,0.015474819,0.086971834,-0.010433826,-0.0063751196,-0.0065625873,0.03969981,0.039789792,-0.012387231,0.04693267,-0.07821496,-0.12376208,-0.045722645,-0.12447212,-0.1501967,-0.10116433,0.015337193,-0.05888939,0.025127491,-0.08224808,-0.06314565,-0.15807419,-0.022015564,-0.059900463,-0.022428608,-0.06424334,-0.04124222,-0.05049088,-0.056275718,-0.020721268,0.09512233,0.075256385,-0.1131804,-0.0024956064,0.0032711157,-0.07898905,-0.07988213,-0.026227133,-0.09163109,0.05961058,0.12188803,0.099564634,0.10666194,0.014002333,-0.026548997,-0.061528362,-0.05858269,-0.018057007,0.049375925,0.06934978,0.06641862,-0.12162269,-0.06512926,-0.034937475,0.08054428,0.034580212,-0.065257475,0.044607926,-0.05415853,-0.020381387,0.09056799,-0.045211207,-0.086499356,-0.065810286,0.0010632399,-0.047922168,-0.05610203,-0.18830144,-0.08717553,-0.04959085,0.007624626,-0.060813796,-0.10822263,0.008115715,0.10553592,0.00069141766,-0.11223871,0.0759808,0.14169985,0.088037156,0.023135243,0.009092648,0.027598966,0.027083125,0.01975905,-0.031567477,-0.0364311,-0.027421214,0.004406527,-0.015284791,0.048653472,0.022442272,-0.02676841,0.04503763,-0.030712998,0.039311536,0.0666871,0.10745147,0.10607548,-0.0612079,-0.036587026,0.03667975,0.005826239,-0.0654156,-0.048355646,-0.05147282,-0.00010599208,-0.09717465,-0.050961535,-0.04922579,-0.0876913,-0.06693348,-0.09610858,-0.11075829,-0.019571088,-0.06679597,-0.1191755,-0.07688123,-0.0148496935,-0.019420294,-0.1492574,-0.1171299,0.01831252,0.01776849,-0.06836062,0.062023785,0.15867291,0.104012474,-0.076461375,-0.0898836,-0.095803544,-0.10055537,-0.073042974,0.0027894848,0.0785163,0.014159328,-0.009642134,0.04512581,0.03160454,0.016425585,-0.020006675,-0.1230364,0.046190888,0.06901416,-0.079645015,-0.024340892,-0.060238324,0.009545071,0.009007504,0.09985257,0.04970083,0.0843844,0.011382941,0.06123051,0.019285703,0.031638715,-0.09011231,-0.16312483,-0.03822585,0.10162569,0.12634772,0.041117273,0.049262725,-0.0483446,-0.040777247,-0.07967477,0.022185188,-0.091030575,-0.013867081,-0.08406312,-0.09723416,-0.1449006,0.04572323,0.19718505,0.0052259164,0.06865468,-0.090503454,-0.015005723,-0.009668991,-0.062499005,-0.032646555,-0.021044144,-0.010094567,0.051086463,0.12027904,-0.020612871,-0.082484625,-0.0505088,-0.014223648,-0.029984502,-0.058603063,-0.04029977,-0.0046748742,0.042676628,0.06424283,-0.05619259,-0.16411977,-0.018603563,-0.021951864,-0.010176699,-0.051828317,-0.0571006,-0.15011477,-0.045107767,0.13772589,-0.027736109,-0.023023155,0.015419941,0.006619383,0.031925213,0.035588223,-0.085605755,-0.14459574,0.055990018,0.048998967,0.044265598,-0.049697496,0.12904765,-0.028718637,0.036380403,-0.06767409,-0.058455758,-0.098672315,-0.03768403,-0.11478084,-0.046490762,-0.09195648,-0.109537974,-0.068733595,-0.15023947,-0.1169371,0.103816174,-0.026320195,-0.0026091717,0.020957282,0.105020344,-0.0055446867,0.032818913,0.08733845,0.18134774,-0.0056029237,-0.013985921,0.03348047,0.1131825,0.10829647,-0.025352543,0.10880143,0.08364312,-0.096153714,-0.19150513,-0.00056526496,0.003250709,-0.14690444,-0.010715051,0.039459907,-0.012288822,-0.087145224,0.035595898,-0.040464457,0.009876353,-0.012270671,0.11929816,0.021883566,0.041921377,0.14323607,0.03379289,-0.11523885,-0.031312507,-0.07583991,0.006859089,-0.07175276,-0.04353782,0.07305928,0.03470623,0.10853969,0.101609536,-0.00095381483,-0.0041072574,0.0005542581,-0.032428358,-0.06488332,-0.041809462,-0.068605565,-0.027396146,-0.06782213,-0.008944097,0.027366268,0.08115469,-0.0020396223,0.007409042,0.03254242,0.12809077,-0.015361695,-0.06120753,-0.007615433,-0.022335978,-0.09744426,-0.05291802,0.0051616533,0.028521504,0.021850524,-0.008110007,0.016477676,0.058334727,0.023607956,-0.023420893,0.009939096,0.005180358,0.021966754,0.030548219,0.14301082,0.020093244,0.019609835,-0.06336652,-0.025517942,-0.007696182,-0.05785588,-0.11401365,-0.09597546,-0.04906813,-0.07217302,-0.11798468,0.000698905,0.05649919,0.03900576,0.0015626008,0.016817512,0.18307221,0.05904988,-0.020764317,-0.031474613,0.06053192,-0.12288953,-0.15164585,-0.037358493,0.05911264,-0.13239986,-0.103794076,-0.03556203,-0.046408776,-0.10070506,-0.05420583,-0.14004946,-0.08457482,0.12194085,0.13363887,-0.12099575,-0.032831416,0.032746967,0.05551886,-0.0081785405,-0.078423366,-0.017337453,-0.061820056,0.061537873,0.0607406,0.10317954,-0.015830591,-0.11529893,-0.07133011,0.012950631,-0.087564364,-0.098602034,-0.075863786,0.110749565,0.092650935,-0.014228656,0.040203094,0.019270819,-0.13444899,-0.08349321,-0.0026206407,0.03205447,0.089982696,0.046501722,0.08843904,0.04784343,-0.011874419,0.0038084555,0.07832111,-0.09759174,-0.04160262,-0.12541838,-0.07667828,-0.107896425,-0.059376936,0.033992823,-0.12802078,-0.07134447,-0.0480371,-0.06190727,-0.028856019,0.15660498,0.13964647,-0.12992606,-0.20527816,0.01578133,0.047367174,-0.013773821,-0.07426537,-0.076595224,-0.04288568,0.009040011,0.003838808,-0.09418663,0.021352375,-0.0011229615,-0.039815653,-0.0325295,0.028012095,0.014902937,-0.005725975,0.067588985,0.018045906,0.011095485,0.01996634,-0.07340804,-0.13231356,0.050945386,0.031795558,0.05700401,0.072665155,0.028857654,0.03928997,0.06732765,-0.00814174,-0.02089107,-0.09870735,-0.012254653,-0.022528417,-0.017140305,-0.10125835,-0.09675467,0.060072154,-0.009399171,-0.033954237,-0.06821584,-0.020407086,-0.09395168,0.014680971,0.083588555,0.060398366,-0.1318785,-0.053719748,0.099155344,-0.08086116,-0.022673149,-0.10459469,-0.077139504,0.00271443,-0.03918736,-0.04564381,0.06212505,-0.03391671,-0.1258675,-0.19283299,-0.053493466,0.040604815,0.029496627,-0.072914906,-0.07512332,0.093040176,0.08758058,0.0204269,0.02848642,0.012981008,0.054590333,0.004101577,-0.07694599,-0.07606255,-0.0035741783,-0.2438072,-0.18277079,0.06327674,0.07036255,-0.14444417,-0.1343933,0.031917106,0.04948154,0.0034017025,-0.06486025,0.014538648,-0.082780465,-0.15034184,0.037374873,-0.003944961,-0.036290657,0.025297612,0.032055005,0.03943041,0.12092787,0.11565278,0.063939616,-0.08522997,-0.039377898,0.028516386,-0.019002177,-0.06066674,0.033902273,0.035723753,0.07375834,-0.09875848,0.03706297,0.0911301,-0.107468024,-0.10709164,0.06542995,0.09925789,-0.0005111418,-0.11728919,-0.06063045,-0.01547545,-0.049456198,0.064512506,0.04774015,0.0370534,0.017879287,-0.045689456,0.07451824,0.08341003,-0.010251635,-0.04785472,-0.02612742,-0.016270809,-0.019492656,-0.056711465,-0.042918652,-0.061784573,0.0056394082,-0.1072526,-0.07499179,0.02503777,0.12602644,0.0793667,-0.071715415,-0.06504951,-0.0050251908,-0.014889849,-0.07315703,0.08630624,-0.06663694,-0.047879197,-0.020499928,-0.017751286,-0.11596128,0.016056456,0.048017267,0.046490777,0.06113497,-0.052875377,-0.06510624,-0.0406571,0.07104172,-0.10637106,-0.15503736,-0.09961887,0.07834429,0.009344572,0.007585946,-0.027603572,0.029028907,0.003519247,-0.10505237,-0.21243197,-0.16349809,-0.0778652,-0.0159923,-0.092982285,-0.11349854,0.06968094,-0.0041702604,-0.11798461,0.08234115,0.008534299,-0.047736913,-0.03346724,0.04171558,-0.0649395,0.08795007,-0.04122799,0.05783255,-0.08429722,0.061208986,0.027871398,-0.08785088,-0.12817603,0.11238022,0.07784227,-0.0028199619,-0.13049236,-0.038891762,0.054782007,-0.07321735,0.0058839596,-0.0709888,-0.046193246,-0.09084538,0.009121236,-0.022609005,-0.12343364,-0.14788827,0.0126499375,-0.0016693714,-0.097159065,0.05054273,0.15183218,0.03920613,-0.02734156,0.0016315682,-0.0672013,-0.064762205,0.0642156,-0.015137887,0.0012597794,0.031003585,-0.11699104,-0.0073544113,0.06357368,-0.007061249,-0.08333786,0.115357414,0.017107746,-0.0043497,0.011566895,0.096193835,-0.030507365,-0.044315144,0.08007182,-0.14757487,-0.0018454301,0.01642403,-0.16068107,-0.15357664,0.05753901,0.0081141945,-0.19057374,-0.06419737,0.1384746,0.020849809,-0.09158842,0.10657632,0.05893082,-0.0050470093,-0.04831125,0.0006262062,-0.048754916,-0.11363013,-0.11395373,-0.1689672,0.016267722,0.044311047,0.01810368,-0.10817584,0.049381543,0.046333995,-0.0012356889,0.14955123,0.07157891,0.033642262,-0.025021262,0.03299778,0.019943386,0.06961466,0.031039318,-0.030535903,-0.11479446,-0.040364817,0.021781858,0.009523308,-0.049502954,-0.0029306903,0.04541661,-0.10653575,-0.08113895,-0.083036065,-0.03159199,-0.14251122,0.023945043,0.03237712,-0.022353187,-0.00376823,0.007969071,0.013073185,0.067936935,-0.08126069,-0.02566878,0.039591104,0.0067128097,-0.03360702,-0.11573326,-0.10252366,-0.09813294,-0.077720344,0.013377453,0.01044627,-0.019908667,-0.084633105,-0.010207559,-0.023998747,-0.013059394,0.019666191,-0.038194995,-0.05429604,0.01771804,0.025343629,0.040874463,-0.09922674,0.0024386228,-0.022922518,0.12459669,0.005458421,-0.025844732,-0.04452919,-0.054649793,0.004069399,-0.023460405,-0.009595414,-0.021845577,0.028697211,-0.023889342,0.016029675,0.07887325,-0.026286606,-0.0613252,0.0098106805,0.038480274,0.02112486,0.019895563,0.019905992,0.06217976,-0.037417218,0.011849824,0.043943778,0.037540004,-0.022615854,0.041170813,-0.07354924,-0.034220226,0.02350863,0.07020565,-0.114617705,-0.07510141,-0.024126017,0.06813854,-0.1256755,-0.057869107,-0.04829936,-0.048366245,0.010203478,-0.032007724,0.011873715,-0.08247029,0.02330438,0.00029280814,0.14096452,0.04652691,-0.15088707,-0.052477334,0.06858367,0.11631251,-0.15254699,0.12445967,0.039891955,0.0022580968,-0.07340499,-0.039060395,-0.040663462,0.05035272,-0.03226675,-0.04303613,0.012906596,0.021466553,0.03936793,0.05521033,-0.082197696,-0.063327946,0.13918589,0.05949451,-0.04946627,0.026984453,0.00038321986,0.026751284,-0.020472948,0.045527462,-0.040385492,0.0038564403,0.03576148,-0.03787525,0.10450262,-0.021245534,-0.023774331,0.009503068,0.109051526,0.07881017,0.033414304,0.109327815,0.09820814,0.05073619,-0.02968819,0.07628409,0.068083055,-0.037464764,-0.07126389,-0.027532417,-0.02358906,-0.009776042,0.03655353,0.05541774,-0.06770681,0.011043655,-0.039078213,-0.008267221,0.11450606,0.06636825,-0.03217148,-0.106027864,-0.057139173,-0.049071178,-0.07659301,-0.08438332,0.032727387,-0.030472243,0.05274183,0.043677483,-0.013037292,0.0060145743,-0.0013086555,0.015937626,-0.038990468,-0.050963983,0.01255884,-0.02151559,0.043670118,-0.05286994,-0.011604232,0.0105038015,-0.104434446,-0.044123206,0.060353607,0.0428836,-0.06387403,-0.0690041,0.062000062,0.023863202,0.0089869145,0.007976675,-0.014910444,-0.066494286,-0.15129904,-0.016795583,-0.015335778,-0.05479632,-0.052382484,0.05140886,-0.0037731468,-0.052569352,-0.007572919,0.13593166,0.04911554,-0.014062848,-0.05816967,0.010893044,0.062137425,0.04780793,-0.024830686,-0.03175738,0.07174885,0.02376729,-0.15751353,-0.036270753,0.053170867,-0.038325503,0.0017099642,0.10197404,0.040009756,0.024321912,-0.027504947,-0.04559166,0.043421734,-0.052198827,0.043117482,0.09820566,0.049734104,0.038476508,0.072388716,-0.016399201,0.0039104926,0.1344723,0.10888529,-0.014259197,-0.05319273,0.0138770295,-0.0071024424,0.027567435,0.028001493,0.0037512581,-0.11479503,-0.055680092,-0.0758725,-0.07922663,-0.032543126,0.047154322,-0.05529467,-0.0020678442,-0.056686763,0.05011888,0.011207121,0.023024434,-0.04975119,-0.023508005,-0.04260267,-0.03394114,0.08110319,0.06847507,0.051096607,0.050994385,0.13011628,0.03485427,0.12329769,0.0600916,0.003863836,-0.06592809,-0.06666317,-0.08277844,-0.03601669,-0.028187519,-0.008716525,0.032659687,0.09008893,0.09619455,0.10009758,-0.007488773,0.0989174,0.022242142,0.05606524,-0.0034208463,0.092435084,0.16178243,0.062484372,-0.017852679,-0.017248426,0.117249854,-0.021433601,0.004483117,-0.08583613,0.050135944,0.087189816,-0.009993488,0.04522317,-0.02793536,0.032573823,0.1001675,0.079824,0.023736153,0.179929,-0.016496034,-0.0023699442,-0.0029162716,0.006773001,0.08321397,0.0032168292,0.03896894,0.017032687,0.010778374,-0.032286357,0.024136605,-0.04413237,0.009990484,0.07760011,0.039934114,0.11074875,0.072638996,0.05690464,-0.012765427,-0.022769792,0.06268215,0.10471737,-0.02884915,-0.14399627,-0.15988064,0.0030661712,0.0070699966,-0.021949427,-0.029710466,-0.004453884,0.05452575,0.038207635,-0.042777188,0.018030792,0.0124908555,-0.06856526,0.004679383,-0.10903947,-0.095940486,-0.118745714,0.010221566,-0.004076012,0.11015538,0.15984537,0.09931433,-0.079553895,-0.095284164,-0.071859546,-0.08012873,-0.043919217,0.03150802,0.025011187,-0.013860798,0.015421184,-0.027861552,0.13713062,0.09845185,-0.022158314,0.06653731,-0.00815224,0.029298933,-0.08171602,-0.017189128,-0.016279692,-0.005431641,0.0516782,0.05907909,-0.016648814,-0.06928705,-0.04436525,-0.18177503,-0.09587706,0.07044511,0.043670647,-0.041664194,0.004316175,0.060160328,-0.008025426,0.00016808446,-0.06938454,0.01654632,0.12717548,0.039140183,-0.051498346,0.017938986,0.0021232788,0.028764643,0.043726463,-0.009845268,0.056475684,0.03904079,-0.057687953,0.014539524,0.055038482,-0.016209584,-0.04312946,-0.008230166,-0.05879615,0.038479727,-0.032768685,-0.012667516,0.01274604,0.17729846,0.12168019,-0.025076233,0.016646376,-0.0513077,-0.030807106,-0.16070025,-0.063440554,-0.030094318,-0.019539708,-0.08095461,-0.028091537,0.13794516,0.014707931,-0.08704814,0.017959522,0.06754805,-0.086515,-0.20261125,-0.064740926,0.017790932,-0.035378005,-0.027031539,-0.046574228,0.06790467,0.0956891,-0.00354791,-0.040701278,-0.033795554,-0.020386606,-0.13253051,0.020727495,-0.13440411,-0.19886322,-0.09745898,0.15105386,0.062110264,-0.027177842,-0.095774636,-0.05011733,-0.07033508,-0.007449206,-0.040447205,0.15707472,0.036966797,-0.042222522,-0.021628533,0.03449716,-0.08920476,-0.106714584,-0.057136685,0.014377711,-0.033407707,-0.08493639,-0.1943416,-0.05687147,0.0660779,0.04867954,-0.14533083,0.22804205,0.119566634,0.024881277,-0.051379383,-0.0015330234,-0.070394315,-0.051444296,-0.008646571,-0.11046191,0.09109177,0.09272192,0.030298378,0.054949928,0.014391249,0.026776757,-0.035572726,-0.055136014,-0.031774566,0.021736784,0.036046002,-0.09894361,-0.040893093,0.21877502,0.1334525,0.05340806,0.07777761,-0.035520304,0.041752208,-0.2200426,-0.0011106579,-0.0417321,0.0019293656,0.09839371,0.04603038,-0.050955296,-0.026660297,0.048584208,0.09238224,0.062605225,0.081266135,-0.031968087,-0.0133476965,-0.008715449,-0.057231613,-0.069597065,0.04157649,-0.021244653,0.05215415,-0.13331965,0.035682064,0.08592471,-0.06918735,-0.13643897,-0.1194592,0.049083218,0.10209847,0.029218258,0.030915692,0.028039016,-0.009075642,-0.18765159,-0.050317097,-0.16420001,-0.040071562,0.08351973,0.065514304,0.03275063,-0.057877157,0.011679318,-0.04862809,-0.11227537,-0.20241737,-0.05083597,0.09332381,0.10500623,0.045649648,-0.013925145,0.0002324145,0.03251967,-0.07645577,-0.08880392,0.013276702,0.041413795,-0.07880743,0.08236849,0.03768445,-0.11628059,-0.22155105,-0.06439391,-0.10794448,-0.0699369,-0.08666283,0.03478378,0.06113512,0.04548557,-0.027180677,0.054693453,0.11019887,-0.022767393,-0.020862233,-0.09812072,0.0013192706,0.2095156,0.10553548,-0.10101371,0.021368949,-0.033063993,-0.00630396,-0.1350339,0.02052585,0.033566438,0.02251907,0.107594095,0.008475645,-0.052890405,0.05339026,0.075079635,-0.031936727,-0.095995985,-0.1514082,0.14546993,0.08391088,-0.14733157,-0.010756487,-0.06749587,0.0030498942,0.0922723,0.056184787,0.039722316,-0.060862083,-0.016109118,-0.078457505,-0.043219615,-0.045342308,-0.010032231,-0.11682827,0.06103275,0.03073559,-0.013087856,0.007182953,0.058840673,0.06143393,-0.052093487,0.016563244,0.043258466,-0.005457912,0.0023203879,0.010566609,-0.07924715,0.10688675,0.004098926,-0.059451178,0.03118863,-0.05425393,-0.1728467,-0.084834084,0.077830955,0.040265895,-0.11042663,9.849189e-05,0.09833775,0.09361352,-0.060408533,-0.018492198,-0.04080503,-0.037553944,-0.07424864,-0.019192826,0.019266352,-0.052370995,-0.15105408,-0.11155606,-0.03797454,-0.009612809,-0.021476792,-0.10396384,0.17375459,0.12208247,0.021521466,-0.07284469,0.07452264,-0.028040381,-0.15041138,0.01853662,-0.09725838,-0.0054788454,-0.1440328,-0.018590026,0.09504131,0.088498905,-0.006976528,-0.08039488,-0.02539822,0.06716092,-0.065671615,-0.118869424,0.027750032,-0.040647615,0.09112663,-0.031922698,0.112009205,0.09057325,0.14242034,0.014604079,-0.06702555,-0.17133468,-0.18150161,-0.028205214,-0.095143214,-0.07470337,0.0933796,0.110863276,0.012052155,-0.004666078,0.029820967,0.06796618,0.048535578,-0.0010881993,-0.019828103,0.0005050741,-0.15421209,-0.0984796,-0.10429692,0.010832139,-0.040473755,0.10054722,-0.021070026,-0.023372252,-0.07774402,-0.025135024,0.042734597,0.08771844,0.050472673,0.0050445637,0.0304755,0.036733523,0.13216025,0.045563694,-0.033457663,-0.07816589,0.021584332,-0.0039239074,-0.11145867,-0.1572501,0.0044234535,-0.0055723055,0.046649724,0.021675559,0.033652723,0.003318634,-0.0489202,-0.006554999,0.11267791,0.0782451,-0.039050918,0.006175189,0.07557875,0.013472538,5.8102218e-05,-0.061659005,-0.022128817,0.028002884,0.05911195,0.0748176,-0.0566174,0.036318175,-0.04466244,-0.0913787,-0.12544619,-0.17845218,0.015702348,0.033804085,-0.03800524,0.020526571,0.08372978,0.11915883,-0.105818205,-0.013786932,-0.047881503,-0.012274035,-0.11741706,0.057846818,-0.034531154,-0.115576245,0.027397579,0.11125629,0.04608063,-0.10265082,0.044880908,-0.03103591,-0.029177967,-0.1280233,-0.024413034,0.060352985,-0.008030808,-0.055436563,-0.028037881,0.04918843,-0.04985783,-0.08757006,-0.014007375,0.11019359,0.0409104,-0.10085693,-0.037661538,0.015092131,-0.043355674,-0.045852553,-0.072251245,0.020247567,0.07539276,-0.04786072,-0.031479478,-0.06958465,0.00033997322,-0.09759244,-0.09734468,0.03178488,0.060037676,-0.082085796,0.2181592,0.09430539,-0.05269426,-0.022992035,0.035269678,0.012913731,-0.03457579,-0.01914349,-0.08082568,-0.01170278,0.00072855,0.035439298,-0.04370826,-0.01543823,0.017271914,-0.038012333,0.037689503,0.017979719,-0.058161605,-0.039245777,-0.028396495,0.02485684,0.12065253,0.04595768,0.11119484,-0.05911023,-0.11382544,0.0012639406,-0.15092146,-0.18843812,-0.08071343,0.057589594,-0.04326586,0.030294158,0.060351618,0.020547623,-0.046242636,-0.056955148,-0.011216107,0.01733514,-0.06798656,-0.06894784,0.08503282,-0.04491575,0.0035147304,0.069981635,-0.06016874,0.0038864922,-0.027451172,0.0012625112,0.05713405,0.016222674,-0.017049707,0.005203826,0.031040564,0.03225715,0.027629755,-0.010149152,-0.004730134,0.030668072,-0.08709311,-0.08357739,-0.20365207,-0.012301429,-0.03498196,0.08732703,-0.099185966,0.0038551402,-0.0788527,0.003237877,0.00655404,0.023444997,0.097488865,0.115949586,0.08645025,-0.050406907,0.13185115,0.046393275,-0.025172435,-0.092127986,0.0034570878,-0.18857463,-0.061342712,-0.018508198,-0.0034400232,-0.12229004,-0.08940697,-0.18672423,-0.07605074,0.0223419,-0.082907274,0.06423821,0.0664455,0.22227466,-0.06668152,-0.16827375,0.14335454,0.0603531,-0.13968618,-0.09440941,0.06060325,-0.034149986,0.062364276,0.015438825,-0.01136384,-0.019737031,-0.01322439,0.009795565,-0.104737274,-0.16590023,-0.05838327,0.01385607,0.03269098,0.08178297,-0.02164908,0.062102035,0.025425602,0.006520268,-0.071485445,-0.07386567,0.097169064,0.02357882,-0.10255056,-0.0011713809,-0.09744706,0.02883342,0.016014632,-0.023382377,-0.07124863,0.08689859,0.12746815,-0.10619443,-0.03424059,-0.08889281,-0.05263176,-0.017051062,0.027710231,0.038478207,0.009183737,-0.07069773,0.091574036,0.09020268,-0.09548707,-0.09564381,0.022629706,0.017176338,-0.08002129,-0.05577251,-0.049853627,-0.038896825,0.009703764,0.04636618,0.009406128,-0.124254346,-0.088150196,0.04457764,0.050629478,-0.00803484,-0.08863643,-0.007123839,0.10853023,0.12572622,-0.010557904,-0.09093674,-0.088795625,0.016442604,-0.036099385,0.007278948,-0.04979677,-0.057644714,-0.02018024,-0.050306752,-0.057100788,0.05210108,0.019763201,-0.121933,0.13204281,0.0450881,-0.07454446,-0.013212082,-0.034811147,0.09993194,0.06035876,0.123823926,0.000521163,0.12819411,0.051041834,0.061777953,0.04888756,0.09405634,0.06330963,0.107841454,-0.09133115,-0.06262145,-0.0618644,-0.06480224,0.10997659,0.026465477,0.022599304,-0.030580586,0.085754044,0.06678998,0.116677925,0.047433734,-0.19540827,-0.0726691,0.029257212,-0.06737934,0.07102455,0.015666481,-0.096585095,0.006975389,0.021878472,-0.03552372,-0.109687075,0.07040438,-0.0951472,-0.06149285,0.083605506,0.00541817,-0.059608366,-0.030186031,-0.059214607,-0.032386836,-0.022291487,-0.023687758,0.08176543,0.03468389,0.12144935,0.04644973,0.024429185,0.12822758,0.09328956,0.07078781,0.017173469,0.030037388,0.06631449,-0.09470426,-0.06254196,0.029708955,-0.02733244,-0.08435628,-0.026586752,-0.06720589,0.04487258,0.0828111,-0.016560547,0.008793105,-0.030968633,-0.006613247,-0.06555157,0.036750674,0.06665985,-0.045300532,-0.02841716,0.0823805,0.029271774,0.018521406,-0.007711782,-0.0082341,-0.0014221728,-0.0167657,0.06763423,0.038555317,-0.036789898,-0.05359584,0.022022864,-0.010485655,-0.16616446,-0.02256489,-0.07720192,-0.05710007,-0.03910364,0.053394955,0.13582039,0.14333649,0.0087259915,0.0012421323,0.02740562,-0.010343754,0.09928682,0.084445104,0.0182932,-0.021462087,0.18277405,0.06327562,0.021267807,0.0016392798,-0.07058456,-0.058514893,-0.15952858,-0.16727117,0.17080225,0.024258532,-0.039744627,0.061205503,-0.008885622,-0.0019490476,0.1116505,0.05149661,0.00044300672,-0.030950813,-0.107306406,0.0057163355,0.04262097,-0.06490597,-0.08168414,-0.078589134,-0.018188898,0.033061992,0.029871222,0.008863994,-0.054944087,0.0027523597,-0.00224126,0.04860626,0.06323539,0.010805209,-0.08515462,0.040070716,0.15860465,0.026377838,0.008418666,-0.04492578,0.026106812,-0.062192492,-0.039042108,0.114658006,-0.012944078,0.0073367045,-0.032763876,0.15997666,-0.009450132,-0.035161633,-0.049985226,0.03820728,-0.20116141,-0.08521296,-0.0019453169,-0.046793837,0.080558315,0.01183988,0.032210812,0.037698407,-0.0721328,-0.07285537,-0.122617684,-0.062411264,-0.0031316997,-0.008566332,-0.077026926,-0.039783504,0.13582638,0.115867525,0.051581454,0.034836754,0.05483988,-0.11989216,-0.015847757,0.044703133,-0.031045651,-0.06589828,-0.111427695,-0.10372983,0.17858632,0.102502905,0.02437206,-0.028795429,-0.040326424,-0.022129351,-0.03348382,-0.018138394,0.010743436,0.025638858,-0.042558514,0.013863783,-0.06436123,-0.052765984,0.051170792,0.0144557385,-0.060757592,-0.1024119,-0.025148524,-0.07877428,0.18611076,0.090974286,0.039789476,0.020561706,0.13541958,0.03576229,-0.05800058,0.023046048,0.19221294,0.108790234,0.010261693,0.015017596,-0.06770499,0.00060852506,0.073540375,-0.03675814,0.0026054038,-0.023171527,-0.22466145,-0.13915385,0.048063435,0.036045276,-0.012002285,-0.066056535,0.049599413,-0.058676697,-0.090433955,0.08675044,0.013467707,0.008124131,-0.029536722,0.059944436,0.1128498,-0.0068213996,-0.13491945,-0.10676814,0.1013466,-0.0403225,-0.028569981,0.003219435,-0.12818582,-0.10953208,-0.112182945,7.324397e-06,-0.08585033,-0.07597009,-0.045046087,-0.08787723,0.1466163,-0.010265403,0.08617521,0.06574826,-0.03216442,-0.06709575,-0.053640217,-0.036054656,0.0088873925,0.0016086443,0.01392426,0.088567376,0.04927572,0.033658303,-0.026370104,0.14924182,0.037974626,-0.0548777,-0.050329395,-0.055885896,-0.019903328,0.006294724,-0.05022639,-0.10574318,0.050096817,-0.061897296,-0.06567299,-0.006242767,-0.0133477505,0.048469897,0.07228404,0.0001289083,0.024222089,-0.03408637,-0.058313604,-0.04237822,-0.07141242,0.078593835,0.022655087,0.04547708,-0.064351276,-0.013093793,-0.15171936,-0.06530123,-0.006917208,-0.03760201,-0.031098777,0.094339296,0.031253915,0.09231325,0.03215788,0.06765689,-0.027930709,0.047302406,0.014062137,0.06577608,0.0048691933,-0.009293392,0.034541536,-0.083387084,-0.02550416,-0.10452725,-0.07258062,-0.018834753,0.13659923,0.09844049,-0.042807337,0.0030222903,-0.12181468,-0.016153304,0.086484544,0.2108019,-0.04067224,0.015926236,-0.08292832,0.029194228,0.12022957,0.0010399686,-0.12671386,-0.14395516,-0.036133997,0.06477477,0.08597301,-0.049175378,-0.026062585,0.08464424,0.061736967,-0.02127499,0.08434107,-0.025638247,-0.14115718,-0.059734315,0.13825916,0.033443853,-0.09554102,-0.17821494,0.031251285,-0.051569674,-0.018933827,-0.059100207,0.028889814,0.027430877,-0.07488944,-0.10254233,0.12475457,0.00073293305,-0.035685766,-0.09762395,0.022638429,-0.004226284,-0.042340476,-0.038605385,-0.024959464,0.08840579,-0.03732736,-0.02734198,-0.12019929,0.017262984,0.10720786,-0.017063228,-0.060661662,-0.03537449,0.08300482,0.008063634,0.0102143055,-0.04525402,-0.06427599,-0.12353117,-0.06776798,0.09558544,0.04962276,-0.10559726,-0.077284425,-0.02913491,0.040262394,0.013206766,-0.010363304,-0.013980468,0.045351498,0.034855552,-0.017810099,0.07642934,0.011415476,0.007510561,0.06550991,0.034199238,-0.006907196,-0.057328682,-0.0064429287,-0.0994795,-0.14532621,-0.027495794,0.1814905,0.052444987,-0.053400993,0.009641316,0.09576548,-0.02404244,0.08401964,-0.0055568786,-0.026683267,0.08176724,0.014711423,-0.01693532,-0.18391064,-0.04693558,-0.059571072,0.1163622,0.019795712,0.057928152,-0.041852735,0.06733317,0.02875938,0.02044042,-0.043617237,-0.10303088,0.03855719,0.06675612,-0.06251765,-0.08115859,-0.06989016,0.06301563,0.0908771,-0.035311688,-0.16983865,-0.101768926,0.059254427,0.038818307,-0.09526791,-0.017533505,-0.033394545,-0.104772136,-0.04149496,0.13255268,0.069722705,0.01600702,-0.054395676,0.042503558,0.06558838,-0.021586865,-0.08373171,-0.014058769,0.026677964,0.07463919,-0.074465305,-0.03963201,-0.014327096,0.01139156,-0.04598518,0.01993215,-0.014592004,-0.090320066,-0.057806116,0.112375244,0.13802522,0.15908,0.033178795,-0.009941333,-0.073121056,-0.038895946,-0.054229375,-0.01944908,0.08608736,-0.11050017,-0.033802997,0.068016484,-0.019387975,-0.045737244,0.07868313,0.11239599,-0.24208207,-0.11161516,0.030197747,0.044480115,-0.0015987186,-0.005820955,-0.06562552,-0.12193068,-0.049606543,0.05055056,-0.10628656,-0.06803078,-0.0663245,0.009590674,0.028536594,-0.10236773,-0.10022849,-0.1353973,-0.032780588,0.00063969236,-0.03499289,0.0025190774,0.058654293,0.0542008,-0.048826408,0.037803065,0.1145855,-0.015565184,-0.025773792,0.0019524574,0.099475466,0.17708085,-0.01154255,-0.18427932,0.08231657,0.1362364,-0.063521296,-0.087024316,-0.045375954,-0.109111555,-0.10627886,-0.048575524,-0.06614803,0.0573559,-0.08811119,0.026177298,-0.11000085,0.021164095,0.0035004176,0.068730906,0.119033776,-0.006441526,-0.056133892,-0.018937033,0.042267006,-0.065446325,-0.12985179,-0.11409203,0.12019243,0.004744203,-0.10787927,-0.06194979,-0.17438586,-0.07410776,-0.004989638,0.19958515,-0.16444528,-0.034910604,0.043455627,0.081339896,-0.046443265,0.08202674,-0.07160905,-0.06382969,0.014071307,-0.014458214,-0.04020165,-0.05746231,0.11979951,0.09674546,-0.21735422,-0.2176775,0.059627227,0.008058451,0.023027472,0.050898355,-0.052636713,-0.073327966,-0.022882553,0.07122802,-0.099212974,0.0043048277,-0.004894045,0.05173457,-0.06814102,-0.03028665,0.002263592,0.12210271,-0.095637545,-0.046999164,0.024399923,0.025455598,-0.11406464,0.019836133,0.0077961767,-0.041586757,-0.06995179,-5.1869796e-05,-0.03843567,-0.0044136676,-0.08754971,-0.014437559,0.0113359345,0.12239791,-0.08116906,-0.011890991,0.0678201,0.13590285,-0.079154134,0.052254364,0.043210987,-0.049684566,-0.022325119,0.004128975,0.035350002,-0.06185442,0.06630569,-0.21878041,-0.07781082,0.1416061,-0.082142346,-0.10704412,0.09177125,0.09421008,-0.074824065,0.010436701,0.10397356,0.021392504,-0.060465716,0.039494034,-0.027279992,-0.0805145,-0.112764746,-0.017897291,0.035134498,0.06840097,-0.1538614,-0.078395545,0.066029996,0.06107729,-0.07499815,0.017939126,0.02677912,0.042912375,-0.038248938,0.013634034,-0.027549716,-0.03514601,-0.07914426,-0.080356084,-0.049544077,-0.028744368,-0.0052259974,-0.071679555,0.026743248,0.003438375,-0.026049482,-0.07282799,-0.055460177,-0.043642964,-0.023167582,-0.06342614,-0.03220176,-0.008528831,-0.11913438,-0.007912182,-0.0053203455,0.040783886,-0.059430003,0.0048873723,0.06209057,-0.048934385,-0.05436053,0.006475223,0.016679568,-0.027087376,0.005206409,0.12742208,0.051732074,-0.041017365,-0.049006626,0.04541621,0.12660323,0.065107316,-0.08268106,0.009927542,-0.12367075,-0.0016351197,0.04502099,0.018701753,0.022182925,-0.005450864,0.021773262,0.03724409,-0.046345543,-0.0078876875,-0.14319621,-0.11309614,-0.10011437,0.039268307,-0.03420006,-0.021083612,-0.08005376,0.005849817,-0.052382436,-0.055123102,-0.07994227,0.0749721,-0.061433293,-0.056432564,-0.1485828,0.040211506,-0.06215404,-0.04440009,-0.031921703,0.04120739,-0.01690469,0.03766869,-0.0054392614,-0.045275565,0.031297587,0.0080139255,-0.0066363984,0.023982314,-0.039101984,-0.035548344,0.0016899883,-0.011979237,-0.027196214,0.036149755,0.015061285,-0.061956998,0.03576678,-0.018959759,0.069286905,-0.08339613,0.024093904,0.06075867,0.0072685196,-0.11158223,0.04991333,0.08842307,-0.020095726,-0.08717831,-0.050115313,0.07749179,-0.08611178,-0.021278402,-0.152289,-0.016941428,-0.0011628433,-0.013216976,-0.06092965,0.008607837,-0.07223545,-0.06174996,-0.05701462,-0.010906804,-0.07079548,-0.0816939,-0.06518539,-0.06275997,-0.040928986,-0.025291745,-0.008042097,-0.032578744,0.0058179027,-0.09329068,-0.039498072,-0.055966295,-0.029865986,-0.082215294,0.1679198,-0.09886376,-0.05857683,-0.073493294,-0.05495441,-0.07159583,-0.051536806,-0.09581918,0.003945608,-0.055272847,-0.015781717,0.03642124,-0.061019793,-0.058216594,-0.054312818,-0.13466276,-0.067355,-0.030417629,-0.030394765,-0.036445946,-0.064253904,0.057621036,0.04382974,0.030930744,-0.015331598,-0.033873294,0.1187598,-0.0759893,-0.011478886,0.07352732,0.018390931,-0.14056692,-0.03249567,0.042111747,-0.051504888,-0.17949627,-0.13932645,0.10631747,0.06759364,-0.04073237,-0.07175206,0.04955654,-0.038916856,0.0700978,-0.032741245,0.022751557,0.032046966,0.016605714,0.029749757,-0.01577165,-0.027149756,-0.011427036,-0.05539039,0.086619504,0.13756895,-0.051021777,-0.054551426,0.0581536,-0.024693375,0.033784535,-0.042302992,-0.0982145,-0.016035121,-0.044572357,-0.06964291,0.07977537,0.02655923,-0.02267536,-0.049686197,-0.043785017,0.095338404,-0.034446783,-0.052559614,0.016552212,-0.0060252096,0.0052674487,-0.066324495,-0.05307126,-0.07561743,-0.0463211,0.018902889,-0.028128043,-0.032416448,-0.043675937,-0.07406759,0.08023244,-0.058287214,-0.03807716,-0.103332594,-0.0010228504,-0.07636175,-0.055352923,-0.11862466,-0.027577424,-0.0069988,-0.052688565,-0.057418603,0.07147928,-0.013723175,-0.09994333,-0.06279573,-0.05071433,-0.025866443,0.0172344,-0.08093071,-0.05783422,0.006068746,-0.08144134,-0.043524463,-0.04876397,-0.01589873,-0.059318107,-0.0062704356,-0.03416627,0.022564935,-0.047522586,-0.14867607,0.028738895,0.049647816,-0.011718213,0.017900936,0.049213,-0.025074229,-0.012045665,-0.03913093,0.08321136,0.02163441,0.04758323,-0.047839932,0.038271554,0.01915115,0.02240587,0.021742556,-0.1665541,-0.058123086,0.04059187,-0.03581078,-0.12046355,-0.049824055,0.05486968,0.019348852,0.020320918,0.108891174,-0.028122578,0.035164554,0.16843908,0.04869504,-0.13692255,0.014118482,-0.024125386,-0.016357608,0.023412656,-0.099659055,-0.0333012,-0.04002371,0.04475,-0.02312497,-0.061316904,-0.027873082,-0.029915882,-0.077009924,0.0008954017,-0.039223846,0.11721072,0.08023085,0.048929684,-0.03608003,-0.12822783,0.089708515,-0.07494759,-0.050545033,0.052655675,0.078935884,-0.098128006,-0.104369156,-0.055128187,0.012682743,-0.05571143,-0.020608705,-0.023067394,-0.035449136,-0.070780516,-0.031700574,-0.06082523,-0.050283585,0.011983604,-0.03683774,0.023536215,-0.07819737,-0.08475601,0.030076705,-0.05942406,-0.060354125,0.027179066,-0.004324158,0.018417785,-0.13356745,0.03568038,-0.059325643,-0.107536346,-0.10820963,-0.11859553,-0.050920323,-0.058273844,-0.06460158,-0.084891304,-0.098900005,-0.07694996,-0.005750878,0.05553365,0.10329926,-0.07986556,-0.13849513,-0.13574499,0.099533714,0.060224958,0.04158373,-0.00065796846,-0.09231872,-0.074933104,0.14014933,-0.047096442,-0.10436369,-0.013580263,0.05532839,-0.03903914,-0.02514165,-0.1082946,0.07811436,0.11305393,0.08727623,-0.042545587,0.013789039,0.034819487,-0.123823926,-0.098490715,0.042739004,-0.07043648,-0.042833865,-0.018820463,-0.0879469,-0.021995058,0.03969592,0.0026310326,-0.06150912,0.011572937,-0.003355284,-0.22992134,-0.0857124,-0.15319869,-0.026581777,0.035944417,-0.095817104,0.0066918996,0.011867311,-0.078384824,0.015446664,0.096799076,0.091663696,-0.11340546,-0.0370109,-0.00361842,-0.011255748,0.032386504,-0.052343775,0.001457767,-0.014830963,0.031534497,-0.017220935,0.038266696,0.02026286,-0.028422438,-0.024764188,-0.003995223,0.08139236,0.013628502,0.030939057,0.026597695,-0.09092369,-0.06657027,0.060116984,0.0958474,-0.15623584,0.035963234,0.10004532,0.04188378,-0.091763906,0.08397505,-0.0011574872,-0.13542317,-0.097174324,-0.11644552,-0.13245606,-0.06980421,0.041418314,-0.04111136,-0.17463115,-0.07683068,0.085062996,0.095446624,-0.12833248,-0.14623152,-0.14198911,-0.004788771,0.065581664,0.09765118,0.026421826,-0.06621004,-0.110511914,-0.01948104,0.0057581495,-0.009422239,-0.005212269,0.002504699,0.036933064,0.075732514,-0.14273998,-0.053927165,0.084795766,-0.007952145,-0.001367747,0.04444464,0.092144996,-0.014992335,0.055125646,0.0059472686,0.0034972127,0.032471497,-0.03692195,-0.095790036,-0.080198206,0.045805737,-0.122247376,0.048426036,0.012559341,-0.032386616,-0.09891926,0.03041528,0.0331986,-0.089739315,-0.0020624732,0.0050026854,0.09775544,-0.055969916,0.03759808,0.011032663,-0.020588087,-0.089026906,-0.008672138,-0.07547859,-0.04846004,0.051529296,-0.13540122,-0.004151185,0.025776735,0.07024801,-0.056239348,-0.016643072,-0.046990223,-0.0871758,0.031750437,-0.016663453,0.0025672328,0.06921551,-0.04177064,-0.015441465,0.09062039,0.05485746,-0.10713752,-0.0404707,-0.06178926,0.02769326,-0.027394615,-0.027186044,-0.00924157,-0.00057061604,-0.0447542,-0.09382328,0.080563225,0.022680402,-0.031356838,-0.06815548,0.02196766,0.06491327,0.16989546,0.03767869,-0.07774261,0.004152393,0.009155445,0.07914463,0.032404386,-0.0073896796,0.085788324,0.04027416,-0.052361134,-0.002035089,-0.104998946,-0.05695978,-0.004482196,0.04599734,-0.07629902,-0.07522438,-0.03611991,-0.005182444,-0.08647043,-0.09673117,0.00043665175,0.011174142,-0.1652981,-0.07451645,-0.007865389,0.05415163,0.037314627,0.025329128,-0.070905656,-0.031373333,0.0032750596,0.02791445,-0.059710145,-0.07727755,-0.016321305,-0.004008002,-0.010268326,0.12420356,-0.07957737,-0.0605695,0.043778088,0.039845925,-0.19037798,0.0014865728,0.024961164,-0.030374538,-0.14326665,-0.048094932,-0.017630573,-0.045402903,-0.0028459623,0.05331936,-0.08925262,-0.0029895438,0.016347941,0.025176484,0.060466982,-0.047717836,-0.0803147,2.8561044e-05,0.11493585,0.021254025,-0.066823296,-0.049274996,-0.08686002,0.07106091,-0.04931901,-0.053625446,0.06866691,-0.044081304,0.03106977,0.047290552,0.01885318,-0.09942822,-0.02993325,-0.038562115,-0.0040114163,-0.12003687,-0.09251134,-0.10146769,-0.0018265435,0.12085369,-0.04575862,-0.019442642,0.0226298,0.042340092,-0.007939822,0.010170463,-0.034557585,0.028167002,-0.14671035,0.024198217,0.023792429,-0.05527585,-0.017686926,0.04330178,-0.07727591,-0.0434123,0.076040946,-0.074249156,-0.08470621,0.06766295,-0.049447857,-0.05616097,0.026269272,-0.02430205,-0.09585556,0.10333515,0.0647114,0.058564745,0.0110490145,0.010957898,-0.067604125,-0.11977362,0.052763995,-0.023928508,-0.007930914,0.027022058,-0.032898813,-0.09090803,-0.015546252,0.057877213,-0.2368424,0.01201884,-0.030046308,-0.01767479,-0.116106614,0.06334618,-0.035347763,-0.070979,-0.1504107,-0.072242975,0.08599655,0.04390413,-0.023072595,-0.025940014,-0.0022923204,-0.016408619,-0.096014686,-0.07350812,-0.07402683,-0.08505055,-0.012552885,0.041844886,0.07165443,-0.03784693,-0.0057824748,0.010993699,-0.060439397,-0.005957382,0.03811119,0.1453095,-0.117717914,-0.18008943,0.052693684,0.003479773,-0.086706646,0.0062015583,0.042090774,-0.07406855,-0.08612561,0.031500254,0.04613828,0.04822818,0.1312452,-0.07367774,0.0708245,-0.022735508,-0.10721807,-0.1020756,0.09263759,-0.10106056,-0.027544716,-0.048333384,-0.005811929,-0.02301636,0.023275618,-0.020591794,-0.10863856,-0.01820928,0.08550058,-0.03893647,-0.0015151342,0.0040829577,-0.053606518,-0.07496898,-0.14331557,-0.009130765,-0.0025419148,-0.061516557,-0.09993065,0.040122095,0.05303,0.016389614,-0.023591697,-0.056916635,0.0011088718,0.0002185,-0.06823011,-0.012997469,0.07557643,0.054426383,-0.040808145,0.0324955,0.09438137,0.054164052,0.016218008,0.056876108,0.034547873,-0.008470849,-0.001254722,0.04993195,-0.15206932,-0.19551513,0.05436541,0.19803369,-0.106309615,0.013307184,0.062797815,0.030721271,0.06451719,0.059215866,-0.051025685,-0.14104237,-0.03195738,-0.052621614,-0.082412794,-0.10716347,-0.03616029,0.14210033,-0.10888403,-0.01904252,0.14316113,0.17913632,-0.06784429,0.022833778,0.012416101,-0.04653345,0.0415176,0.049004033,-0.0021446992,-0.028794954,-0.15047961,-0.06964644,0.023598192,-0.000895424,-0.008389387,0.020394022,-0.0635671,-0.053423814,-0.061798837,-0.12948179,-0.014322406,-0.058141302,0.06750941,0.07701945,0.100467205,0.051502697,-0.015005509,-0.013766546,0.025858374,0.062628575,-0.06478072,-0.039949637,0.048605807,0.108639285,-0.1272079,-0.05581134,0.073091745,0.064224474,0.13096148,-0.011898313,-0.008828932,-0.06847321,-0.0014647571,0.07017057,0.14904995,0.04596091,0.03222996,0.06671477,-0.0682545,-0.18604912,0.009849583,-0.15814054,-0.16386792,-0.014022705,-0.08446276,0.054187708,0.015294836,-0.025117494,-0.050386492,0.01108818,-0.081865914,-0.10201409,0.016677687,0.03669581,0.05488373,0.08555078,-0.09076796,-0.032781195,0.10665459,0.0533274,-0.08443738,-0.18910903,-0.039074842,-0.0053558713,-0.060902163,0.012217262,-0.10155125,-0.066703066,-0.014667916,-0.06586046,0.03139269,0.070094034,0.03294429,-0.042805303,0.084404685,0.037067104,0.088178046,0.0069550774,-0.07981103,-0.0706048,0.045608975,0.05529904,0.011482563,-0.08195,0.010056994,0.0797156,-0.10541169,0.027919404,-0.14010538,-0.019152807,-0.06360638,0.07011277,-0.1118516,-0.1600777,-0.017032703,-0.011498309,-0.06922219,-0.07287542,-0.040353954,0.07463723,-0.033196814,-0.012442553,-0.040906787,0.018054992,0.011942872,0.029314473,0.022959167,0.019102335,0.043495264,0.07763508,-0.05798775,-0.023377849,-0.06435811,-0.012293392,0.065633826,0.14095438,-0.07469781,-0.07027182,0.0873653,0.02037319,-0.045875687,-0.0014493307,-0.025584998,-0.056428716,-0.091632746,-0.069207326,-0.034670208,-0.10967527,0.08602401,0.002986969,-0.013918086,-0.060755964,0.025133397,0.059082825,0.07531112,-0.021842247,-0.024678918,-0.009175197,0.060083255,0.020329691,-0.08339289,-0.08305843,-0.0454075,0.023212226,-0.049542006,-0.073595375,0.0597988,0.20765406,-0.035611626,-0.057380285,0.05680519,0.14884497,0.00031941314,0.08850882,-0.025463508,-0.15904121,-0.078584835,-0.19471256,-0.08892769,0.032951616,-0.044242937,-0.026482191,0.032338332,0.0042648762,-0.118027665,0.0050657564,0.042433005,0.08801131,-0.08028595,0.052740857,0.12152517,0.00938828,-0.026151475,0.032809507,0.027655281,-0.023285594,0.06584889,-0.052258104,-0.037783522,-0.13207848,-0.0185198,-0.05145669,0.051456023,0.082937285,0.011390145,0.07893861,0.2586766,-0.009165061,0.028917475,0.07810833,-0.049366906,-0.15221025,-0.005990005,-0.016811332,0.07956218,0.059641223,-0.1674354,-0.07428766,0.013923333,0.09713708,-0.054593544,0.00017261066,0.07528442,0.054964285,-0.034481786,0.06623108,-0.0036522148,-0.050259497,-0.02497041,-0.007339941,-0.023461951,-0.08403599,-0.06124322,0.020437934,-0.051849775,-0.04166311,-0.015148334,-0.00464511,0.08488065,0.11957676,-0.03727544,-0.14255439,0.00029882946,0.19423272,-0.05660629,-0.08332166,-0.07965998,-0.06437936,-0.056672428,0.13145159,-0.05016003,0.040538654,-0.091379024,0.0029945334,0.012220701,0.1506434,0.022203445,-0.029767314,0.007052257,-0.12665191,-0.027489206,-0.04400042,-0.057755936,0.05360628,-0.058935527,-0.010766323,0.0733309,0.09308888,0.0026313264,-0.054725245,-0.051797394,-0.010138862,0.005952237,-0.06879237,-0.13591444,-0.07481197,-0.11507612,-0.11975491,-0.042871118,-0.10226835,-0.050703228,-0.10902839,-0.06720707,-0.07970547,0.12761967,0.05076477,0.03815844,0.059430845,-0.04519837,-0.03190278,0.035967868,0.069469266,0.03719369,-0.04768837,-0.021490294,-0.019034112,0.058283273,0.0261665,-0.008644496,-0.032316346,0.0034541776,-0.051219475,0.034428384,-0.029942174,-0.10145145,0.02711623,-0.042622745,0.120664366,0.014291293,0.08822373,0.16426839,0.15498404,-0.10464147,-0.047306817,-0.106019974,-0.03134355,-0.04993835,-0.030139169,-0.023242638,-0.15988664,-0.0469056,-0.035190456,0.027923012,-0.15183245,-0.013706681,-0.05045233,0.01732982,0.007997033,-0.050719313,-0.07878869,-0.06566109,-0.13580455,-0.046454865,0.14631812,-0.025687108,0.025282664,0.054883674,-0.034095295,0.13171726,0.22077274,-0.18971461,-0.11841361,-0.14423896,-0.1439894,0.07541997,0.054254822,-0.014445324,-0.12420211,0.14837755,0.06324702,-0.0032075003,0.08568235,-0.092303604,-0.0479851,-0.07457292,0.13976216,-0.07026356,-0.11125101,-0.053010214,-0.13963561,-0.00054723705,0.0105196005,-0.02152294,-0.10608303,0.025003452,0.06330061,0.037242804,0.083976775,-0.07268026,-0.07710844,-0.04001228,0.24413228,-0.062382307,0.020648345,-0.07834644,-0.03616668,-0.018646566,-0.07063018,-0.05668881,0.026579147,0.18523496,-0.074271426,0.004487716,0.03025877,0.1227474,0.002573077,-0.063704334,-0.03784559,-0.018547185,-0.11589975,0.12103778,0.06690086,0.0037309371,-0.030234158,-0.034320682,0.025057754,0.06497784,-0.07707529,-0.05270349,-0.027537037,-0.025304,-0.08420475,-0.08267303,-0.06646439,0.066102065,0.010924537,0.068585776,-0.010422101,-0.037713014,0.046102237,0.14691399,0.011867367,-0.10539892,-0.10015441,-0.10935266,-0.042259444,-0.102443434,-0.03325507,0.042092822,0.031322427,-0.12493668,0.026735203,-0.06837706,0.037124068,0.09229877,0.012590637,-0.003165469,0.11075468,0.056698035,0.118653804,-0.004617377,-0.053752463,-0.06339914,0.04742039,-0.1349583,-0.04083442,-0.10954385,-0.17286447,-0.04799816,0.0012730237,-0.09411307,-0.05078334,-0.059274968,-0.10281992,0.028792407,0.053058486,-0.006224623,0.096442044,0.014347397,-0.05563656,0.18731858,0.23707376,-0.033499613,-0.07336683,-0.0004232342,-0.120640025,0.03989918,-0.056368947,-0.052683167,-0.13098688,0.089280926,-0.083905935,-0.06321517,0.07707453,0.0242128,0.019757804,0.003541523,0.16899152,-0.042203143,-0.10419361,0.13660136,0.014308321,0.011842102,-0.046020214,0.029168434,0.11983385,0.115189105,-0.0025838641,-0.11630781,0.010166234,-0.011855607,0.016867526,-0.022126159,-0.020862453,0.11124259,0.0385416,0.020973701,