-0.18595557,-0.048960697,0.020486543,-0.010284505,0.0049100765,-0.038791027,-0.013199475,-0.030449815,0.039703485,0.10850518,-0.07167825,-0.023121169,0.037447058,0.061147373,0.046866,-0.07799499,-0.067715816,-0.07163194,-0.05016982,0.0064940997,-0.008018004,-0.049279127,-0.072255924,0.14550707,0.20514952,-0.042616747,0.02109314,0.05971027,-0.017240027,-0.030268827,-0.050109807,-0.036302213,0.057864763,0.07196242,0.09503921,0.0044286735,0.062032714,-0.039488267,0.060059465,-0.029284662,-0.05511238,-0.17028195,-0.03442581,0.01086632,0.013401804,-0.059710275,-0.14472589,-0.17629783,-0.102304116,0.118488766,0.013858828,0.065092266,0.017747246,-0.08838369,-0.11519662,-0.037482534,0.039934035,-0.061750527,0.029021375,0.006588792,-0.12047992,-0.09268079,-0.1159207,0.04301559,0.002305104,-0.069627576,-0.17305216,-0.016939055,-0.13355139,-0.12079065,-0.14177607,-0.16834691,-0.058525655,0.056609355,-0.013971133,0.011964559,0.053814664,0.0020967408,-0.08744976,-0.04557752,0.054329816,0.007237037,0.09264912,0.08987269,0.112634555,0.05932355,0.053346124,0.119972244,-0.12353824,-0.09574768,-0.12609977,-0.019751579,0.07244528,-0.13926272,-0.21911089,0.07202627,-0.05839995,-0.1295602,-0.10230122,0.04158354,-0.14235541,-0.23177923,-0.21448739,-0.26691923,-0.18203732,0.042054422,0.06637951,0.036424603,0.029660797,0.1033856,-0.020191986,0.04556988,0.1548322,0.049766652,0.012225063,0.017195165,0.103550926,0.19278137,0.1159982,-0.19477795,-0.06619668,0.045489714,0.1490395,-0.07465864,-0.13476956,0.018734667,-0.06703819,-0.04664901,-0.083323434,-0.12448898,0.07455366,-0.0025445232,0.13765237,0.033993352,-0.05655863,0.048849933,0.018841138,-0.08488215,-0.15849555,-0.18249574,0.025655525,0.008584946,-0.10822106,-0.088248454,-0.20717382,0.016302349,-0.006318469,-0.09097165,-0.0075860084,0.02827787,-0.07571584,0.05937262,0.00016340452,0.015953427,-0.056763057,-0.02227837,-0.036236264,0.055783603,0.057695452,-0.07425903,-0.038900156,-0.024917055,-0.037782256,0.004270616,-0.017084101,-0.026954845,-0.043380875,-0.0939455,-0.101823114,-0.052484483,-0.13674599,0.04777356,0.09493055,0.037743203,-0.0824666,-0.049118917,-0.053565126,-0.08010484,-0.049415376,-0.027211873,-0.0761296,-0.0065794163,0.009821262,-0.06293183,-0.045594804,-0.15274538,-0.072464705,-0.05885256,0.08167824,-0.011208412,-0.037091646,0.06842348,0.08214471,-0.041507617,-0.06041375,0.03784032,0.04907288,0.056678314,-0.032309342,0.05856828,0.08098221,-0.11646105,0.046507556,0.010749274,-0.03732899,-0.01701467,-0.08914869,0.014047532,0.04923252,0.026825923,-0.026867166,-0.01223341,-0.081267886,-0.056126464,-0.07121438,-0.00029298165,0.044529356,0.026327902,-0.021975935,-0.013329758,0.12016645,0.066635445,0.09941158,-0.06691594,-0.10997066,-0.0806496,-0.1109031,-0.13176137,-0.032250162,-0.038717438,0.007198354,0.0465533,0.10554775,0.046941906,0.15818997,0.08838189,0.11502919,0.1599354,0.14207003,-0.039405648,-0.052080963,0.012222666,0.087761775,0.07170589,-0.07206201,-0.055599753,-0.1553496,-0.080322795,-0.105858535,-0.0722918,-0.04427084,0.014017461,-0.22531594,-0.15830748,0.078948386,-0.045613833,-0.086484805,0.049888182,-0.0076058786,0.12233319,0.011800783,-0.041269407,-0.10210122,-0.096475735,-0.022254527,-0.018633895,-0.20023997,-0.19667813,-0.2972497,-0.24311525,-0.091245055,-0.1225227,-0.05561816,-0.042638514,0.015655695,0.0009881482,0.064508684,-0.03539645,-0.02841174,0.007815269,-0.06949393,0.020978559,0.09771568,0.01944084,0.0016727209,-0.01573333,0.06386072,0.043007314,-0.009174228,0.055181086,0.003878794,-0.003940186,-0.08797838,0.019660868,-0.0027881204,-0.08202674,-0.066596836,-0.096181855,-0.049764115,0.069710314,-0.040660296,0.12823679,0.13400714,-0.008543573,-0.13697287,-0.078337215,0.0037044808,0.12843955,0.11840901,-0.029941695,-0.12593438,-0.013439712,-0.029769259,0.07720683,-0.07163573,0.17276433,0.012998261,0.014439229,0.0780688,-0.15467387,0.18364777,-0.026553871,-0.04378076,-0.13643798,-0.02112751,-0.07656231,0.007805394,-0.034025148,0.046403326,0.16027045,-0.04925262,-0.13848753,0.0017826883,-0.0924739,-0.026349427,0.11182616,-0.0521941,0.010133787,-0.015189254,-0.03174362,-0.13297337,-0.22464415,0.038470164,0.11210526,0.15062971,-0.18302982,0.11735982,0.20914157,0.07583571,0.28371322,0.18241878,-0.021815917,-0.18295419,-0.22247832,-0.25296125,0.109168775,-0.04299855,-0.2200406,-0.15620036,-0.016253365,0.0021374114,-0.15948297,-0.21083032,-0.20088278,-0.035551596,-0.12541597,-0.10901903,-0.15661108,-0.1171571,-0.05351491,-0.10049044,0.007589723,0.094204165,-0.02084748,0.08729226,-0.02551681,0.07873318,0.053246636,0.06249243,-0.039898355,-0.056320626,-0.006879582,-0.067266986,-0.10649951,0.0023773678,-0.01847486,0.04307477,-0.060238287,0.04307668,0.009047094,-0.009253044,0.0088774655,0.026589077,0.1221164,-0.04308196,0.049381986,0.13624924,0.069754645,0.1703792,0.010944257,0.071640074,0.046254,0.050624106,-0.0009521075,0.044224143,0.06288812,0.10358321,0.019507864,0.070041075,0.014548607,-0.11599814,-0.13174595,0.007515704,0.015384499,-0.10489304,-0.055351265,-0.0850357,0.020501703,-0.051218648,-0.068198204,0.052563567,-0.076938756,-0.07246354,-0.047195077,-0.07644577,0.06812351,-0.0068448125,-0.11351754,-0.07667098,-0.11431923,0.012445809,-0.08536159,-0.10222515,-0.036885276,-0.015597758,-0.031999845,-0.062383387,-0.110804476,-0.17063586,-0.08838966,-0.053228233,-0.1247121,-0.028002951,0.06737862,-0.0010277446,0.027329223,0.04703852,-0.04924241,0.18202633,0.04898955,-0.08843357,-0.075833395,-0.019225234,0.005318287,-0.052388236,-0.14108597,-0.04925331,0.055181246,0.10743852,0.04661345,0.0033843892,-0.035141386,0.13164285,0.07480746,0.027075239,-0.01930575,0.024529979,-0.03123376,-0.07756502,-0.020425292,-0.03436887,0.009618548,-0.01792276,0.041292567,0.06831619,0.11146134,-0.05446628,-0.052215256,-0.059402794,0.020742422,-0.07051459,-0.13061576,0.023805326,0.035222292,0.13080071,0.08982108,0.0072853747,0.13180952,0.051901538,-0.0023169564,-0.17273636,-0.16023771,-0.033556964,-0.08709592,-0.08563463,-0.13059878,0.07863264,0.04913743,0.13899407,0.17799559,-0.029175716,0.083831064,0.2060666,-0.0014714225,-0.22174448,-0.08094171,0.006048289,0.0025565743,-0.05353511,-0.07117974,-0.056533854,0.11310138,-0.018447863,-0.06588479,-0.11182651,0.041427534,0.05074952,-0.014486572,-0.13928841,-0.12269209,-0.0022377905,-0.03741755,-0.037639093,-0.047062248,0.042929582,-0.1304152,0.013105675,0.12103289,0.04067678,-0.047038127,-0.08227925,0.02549446,0.06417739,0.014941467,-0.088002905,-0.0067887586,0.048577495,0.09058477,-0.021126436,-0.2278918,-0.015101002,0.11790748,-0.04490693,-0.17115492,-0.15554468,0.01262357,-0.012897969,-0.123693794,-0.07878166,-0.18026248,-0.09148291,0.122198895,0.13430966,0.03698199,0.032891195,-0.0049282364,0.054378346,0.058166336,0.09319516,-0.065625295,-0.086602405,0.057784226,0.031331237,0.016469687,-0.20155258,-0.052649423,0.031923145,0.059675995,-0.10025911,-0.25330546,-0.010999227,0.0006684259,0.14091401,0.025136719,-0.210659,-0.07550337,-0.010385716,-0.03271488,-0.016978119,-0.16973355,-0.00792782,-0.14588548,0.10629977,-0.0605742,-0.17252165,0.036932,-0.04990807,0.074877456,-0.07061475,-0.23459405,0.10689062,-0.12022597,-0.117571406,-0.11051648,-0.14143819,-0.059514586,-0.061445415,0.13145377,0.1439658,-0.02061329,-0.16656712,-0.12019849,-0.086532265,-0.07530678,-0.05862271,-0.0296606,-0.14412943,-0.11394564,-0.073738135,-0.05930076,-0.044695064,-0.13186629,-0.15730183,-0.064235985,-0.01208804,-0.067950875,-0.19793548,-0.1419614,-0.08818771,-0.043883756,-0.113020144,-0.066332646,-0.04386634,-0.09777305,-0.09419049,-0.014150761,-0.0609968,0.0041361917,0.08092428,-0.06209928,-0.07266171,0.014260866,0.070210084,0.07126391,-0.14999236,-0.08616,0.05025839,-0.04688874,-0.02589764,-0.1073031,-0.06811802,-0.05510322,-0.04347407,-0.04079122,-0.13505258,-0.055615786,-0.01195144,0.09034552,-0.0050051985,0.036378708,0.083061546,0.1612955,0.09167141,-0.035023764,-0.0055984505,0.045576677,0.068649404,0.009779895,-0.06347342,0.049984943,0.078680076,-0.0071956776,0.15678717,0.015023526,-0.020596588,-0.0057284515,-0.008179384,0.16529766,-0.02604209,-0.0030711812,0.033635177,0.006401165,0.20409405,-0.04636238,-0.043877903,0.032664634,0.105994776,0.073641814,-0.0009890769,0.057185058,0.108156286,0.023084732,-0.105239004,-0.04530609,-0.06508453,0.022813149,-0.020092523,-0.09576711,-0.006507464,-0.01877177,-0.07070851,-0.044639874,-0.046654675,0.06048087,0.038221765,-0.052121993,-0.03070529,0.022753155,-0.040349755,0.073484994,-0.012303421,0.02649948,0.027013518,0.018776326,0.06186713,0.06278226,-0.095429055,0.0065508024,0.10813684,0.11597881,-0.028785618,-0.028204415,0.061337993,0.119050175,0.025584392,-0.039737493,0.08844987,0.005088195,-0.026891107,-0.06582496,0.0017423778,0.079152614,-0.053652793,-0.0043765986,0.026202157,-0.18553445,-0.12960304,-0.049289145,-0.051160533,-0.1244082,-0.1416795,-0.15712948,-0.08528543,-0.08363532,-0.13818336,-0.055128124,-0.11718363,-0.07969569,-0.057529192,-0.08187193,0.029158976,-0.058795653,-0.11625,-0.13321286,-0.092284955,-0.10561988,-0.101091295,-0.07488361,-0.050394226,-0.14711463,0.065364316,-0.06137225,0.036857598,-0.04205242,-0.1367446,0.096346565,0.017084485,0.028691685,0.043634087,0.102273986,-0.19635418,-0.011618271,0.024518786,0.08706851,0.04464216,-0.17288841,0.01648174,-0.041137975,-0.0038913207,0.04770504,-0.17876054,-0.07051694,-0.013310413,0.052926272,0.030399421,-0.010557094,0.098448485,0.018224794,0.015702497,-0.01741934,-0.08586441,0.014673943,-0.08948454,0.021209305,-0.04865826,0.027777236,-0.009453941,0.06616647,-0.053086817,0.10759197,-0.0388949,0.14585677,0.034446463,-0.043109823,-0.010770038,0.06787046,0.117270336,-0.07524587,-0.14634174,-0.06527875,-0.0807582,-0.051112566,-0.11038919,0.040974986,-0.11963836,-0.0044999416,-0.047324367,0.012267281,0.0090996185,-0.16423705,-0.020106016,0.043903515,-0.0073799007,-0.03624828,-0.15014128,-0.2590833,0.07053072,0.013225374,-0.14918846,-0.071953945,-0.24012756,-0.13629258,-0.25262102,-0.16574004,-0.00053308735,0.069490805,-0.027591845,-0.006982017,-0.11203167,-0.13770615,0.028247423,-0.017668251,-0.0015752345,-0.020457007,-0.047436472,-0.023764124,0.14128253,0.008472137,0.056928355,0.025691202,0.08865965,0.11360045,0.007298858,-0.019935133,-0.06846138,0.18658316,-0.16827351,-0.10017126,-0.095570065,-0.06538914,-0.15608278,-0.10356036,-0.031288423,-0.05760231,-0.046359424,-0.1699738,0.032575514,-0.06999841,-0.072509766,0.06797502,-0.02811194,0.12932609,0.023868492,0.15644975,0.07509604,0.020618651,0.08450385,-0.04185323,0.18259534,0.118028395,0.058702007,0.14028908,0.13190372,0.056427844,0.08773234,0.014232841,-0.0074417973,0.030536423,-0.052088708,-0.21421567,-0.06491725,0.090633176,0.18093812,0.061682604,-0.09866794,0.032317974,0.121301234,0.08789496,-0.046446126,-0.09386269,0.06855874,-0.008093324,-0.11354573,-0.0663319,-0.1652492,-0.031441487,-0.13925473,-0.18401775,-0.04443275,-0.061082244,-0.09670536,-0.17107968,0.033813443,-0.07374545,-0.06942593,-0.045118637,-0.04306281,0.014468259,0.012376606,-0.07545747,-0.053156145,-0.0012689899,0.07274728,-0.06522737,0.017358273,-0.0045611677,-0.07145004,-0.06588449,-0.039206613,-0.07279102,-0.20668162,-0.1287465,-0.11212918,0.004644892,0.06105445,-0.08229139,-0.12394923,0.07115774,-0.03806403,0.07532436,-0.17841485,-0.0018333866,0.05737848,0.10101036,0.039814796,-0.09725015,-0.017564207,0.08401847,0.100449614,0.032920837,0.0622832,-0.012782572,-0.0134262005,0.09407235,-0.044386737,0.05103203,0.034467444,0.024625726,0.087781675,0.0625429,0.026560878,-0.03251199,0.03349485,-0.024735283,0.045177188,0.024629094,-0.02025772,0.007490474,0.02639327,-0.05943144,0.059457786,-0.054422654,0.16520604,0.092100255,-0.14956369,0.018588057,0.088942565,0.05216175,-0.02376677,0.0033963912,-0.089715585,0.093522735,0.13813171,-0.03067507,-0.05702905,0.07614541,0.096863285,0.03743541,-0.120671965,-0.123442076,0.00039797355,-0.06785489,-0.031909592,-0.04482984,0.08047273,0.102835596,0.019702444,0.0022009392,0.14225228,0.26877642,0.03863126,0.054029398,0.059699442,0.07634131,0.03542711,0.08937939,0.11524539,0.021713661,-0.083568804,-0.07505429,-0.005616955,-0.08333732,0.002846505,0.0929884,0.12270641,-0.056725394,-0.03665956,-0.046295654,0.03010023,-0.031523608,-0.04682953,-0.0962976,-0.077833876,0.025603779,0.008279526,-0.03142883,0.023486398,0.054827165,0.035081934,0.022828426,-0.0011339645,0.048752714,0.010693914,-0.010083331,-0.031261053,0.015450361,-0.053893756,-0.074169576,0.008932498,-0.012279726,-0.0079979515,-0.011806322,-0.021788452,0.032653272,0.06228686,-0.048916187,-0.037786372,0.019219229,-0.06247724,-0.09862118,-0.0013447504,0.01193107,0.017419,-0.009592714,-0.041510954,-0.060472142,-0.06755196,-0.07989974,-0.0016948167,0.06324155,-0.069164485,-0.08638997,-0.05936673,-0.023832975,-0.017870875,-0.13184965,-0.107722014,0.008551649,0.0098478375,-0.024913875,-0.07246714,-0.09032638,0.010270348,0.0122074485,-0.061139856,-0.038946882,-0.07815602,-0.092188746,-0.030464467,0.023827786,-0.038781654,-0.06687337,-0.018020986,-0.023868183,-0.03685585,-0.11292423,-0.049364276,-0.009938709,-0.05087694,0.11166735,-0.025234036,-0.056375775,-0.04881067,-0.059439573,0.028873403,0.14057466,0.063003026,0.0051179184,-0.07751205,-0.110635065,0.04262366,0.025669342,0.064375445,-0.05465618,-0.017773414,-0.04188157,0.002775448,-0.004937743,0.015050084,-0.019732228,0.0046659494,0.09514257,0.014259203,0.0041337535,0.018301597,-0.008011876,-0.056774206,0.051237833,0.10062795,0.16851334,0.034309614,-0.027393144,0.034463167,0.10656905,0.037102427,0.15704983,0.10102694,0.063269764,-0.07067753,-0.016717076,-0.0409719,0.06339277,-0.035009842,-0.042155534,0.035327673,-0.040459514,-0.017663414,-0.038535304,0.07980318,0.013784793,-0.04099996,-0.011204788,-0.075310946,-0.014851308,-0.073479295,-0.010218656,0.021898953,0.013740017,0.014033703,-0.1311936,0.08071274,0.0072203726,-0.051500883,-0.037716027,-0.015966162,0.07619848,0.022323642,-0.0063521415,0.051320527,-0.008046112,-0.018434873,-0.071379654,-0.041446477,0.06038914,-0.054385472,-0.030597253,0.01780532,-0.00902419,-0.020088125,-0.0237579,-0.0419051,-0.007201871,-0.009413171,-0.048176147,-0.04880682,-0.035302155,-0.0029117537,0.038225893,-0.062247466,-0.05020793,0.019856358,0.020758834,-0.059866644,-0.05682242,-0.046259347,0.039646775,0.05532823,-0.053852707,0.0016390492,-0.003412207,-0.061339986,0.057137843,0.102614716,0.11040133,0.080936134,0.022557717,-0.022989284,0.0565834,0.09040908,-0.05740776,-0.032035876,0.07580227,-0.03053658,0.010661558,0.0296548,-0.017976694,-0.001953122,-0.014730125,-0.056904666,-0.07574541,-0.018568786,0.04061036,-0.03437471,-0.059015594,0.01992696,-0.013723281,-0.049328078,-0.03655766,0.004627666,-0.066038035,0.002005697,-0.03961701,0.042293675,0.04147431,-0.07594544,-0.05467528,-0.034535512,0.032967117,0.07418547,0.0128827775,0.06173018,-0.007782367,0.0069188857,0.023043852,-0.043001845,-0.009616622,0.05947444,-0.021493627,-0.046763696,0.07426112,-0.08731988,-0.057319015,-0.016620032,0.09757861,0.05329394,0.1251204,-0.039396238,-0.03147653,0.021043051,-0.0915019,-0.008711551,0.07222423,-0.009025421,-0.072470956,-0.056491565,0.010953611,-0.010828247,-0.002207293,-0.074671686,-0.005120479,0.00047789485,-0.0017149294,0.029074956,0.10353194,-0.22216147,-0.036673468,-0.11770515,-0.064428814,-0.09807897,-0.21880151,-0.20323934,-0.042032987,-0.084374756,-0.16109826,-0.010720173,0.14699526,0.029665966,-0.021475188,-0.068024844,0.008357083,-0.04247586,0.025417192,-0.106384076,-0.05716121,0.08814262,-0.013028661,0.0874065,0.06454783,-0.04626111,0.019864341,-0.039635956,-0.028281003,-0.07156153,-0.083284415,-0.09389943,-0.081260525,-0.06772675,-0.056537773,-0.12732077,-0.16869205,0.18011351,0.015383928,-0.041328516,-0.1763289,-0.0018124664,0.14029063,-0.0330393,-0.057387117,-0.09167395,-0.052467726,-0.09829168,-0.06311482,-0.09424546,-0.034440197,0.046864957,-0.19692087,-0.049608544,-0.03824697,-0.013568351,-0.024807105,0.029269962,0.09640904,0.1829488,-0.013507995,-0.12404072,0.1571027,0.0866801,0.25367564,-0.049203612,-0.029775314,-0.029834287,0.12276302,0.11849436,-0.07373302,-0.016310882,0.10819398,0.022935884,-0.037173018,-0.05421036,-0.25864744,0.19693197,0.060179424,0.07187737,0.0540146,-0.24077071,-0.17585708,-0.024282552,0.07838441,-0.016221449,-0.043086905,-0.122448124,-0.1076812,0.021066703,-0.047115028,0.0066275923,-0.23949628,-0.25596657,0.12013441,0.160486,0.049379848,-0.102537535,-0.019909082,-0.013076734,-0.05320367,-0.036528215,0.11446862,-0.042058468,-0.123854615,-0.026571011,-0.009737822,-0.07461071,-0.16000956,-0.063772574,-0.079768516,-0.15995806,-0.14108469,-0.16151804,-0.14851385,-0.06881169,-0.034108132,0.12981762,-0.0076421592,-0.12025437,-0.21806051,-0.092722766,-0.024053361,0.016686704,-0.090608165,-0.070949264,-0.09180144,0.13828747,0.107280485,0.03862569,0.049946144,-0.18143,0.23202898,0.11742773,0.0237475,-0.014708263,-0.117055096,-0.07334391,-0.040547486,-0.051529564,-0.055312466,-0.035451084,-0.14630885,-0.06844091,0.07354193,-0.07463173,0.07642853,-0.029426273,-0.115253106,-0.07519197,-0.03021175,-0.06539845,0.055791702,-0.050940868,-0.006712117,-0.12406857,0.057525974,0.042497467,0.15557395,0.16455299,0.045570213,0.15302421,0.059399668,0.1029377,0.22687855,0.06898078,0.16251564,0.040194336,0.20688123,0.08157617,0.08266807,0.0831624,0.06447887,0.09807635,-0.01684362,-0.048106946,0.06743617,0.07551674,0.04977625,0.055161998,0.021509022,-0.036611628,0.06018817,0.023730291,-0.119832955,-0.06343016,-0.024433013,0.012847869,-0.15851489,-0.16048552,-0.075687796,0.034552325,0.07729037,-0.11151113,-0.09395197,-0.032914087,0.12574582,0.03077369,-0.00931036,-0.119928,-0.088495165,0.064984284,-0.051504117,-0.044986643,-0.09771822,-0.010057568,0.101883404,-0.039781798,-0.04805492,0.059879508,0.04343401,-0.06387423,0.11188637,0.1404815,0.060845513,-0.018259926,-0.12834407,0.116040856,-0.16864286,-0.06994674,-0.02391359,-0.021827308,0.05822366,0.032065433,0.045458004,-0.2323878,-0.20450239,0.010563593,-0.06681186,-0.03570518,-0.18276964,-0.26331586,0.012718563,-0.14167266,-0.15627252,-0.14772427,-0.14947438,-0.06124465,-0.09602818,-0.09393163,-0.06022332,-0.06922419,0.004449616,-0.067376755,-0.092203535,-0.06082954,-0.034346934,0.01595814,0.01774414,0.072658256,0.051998176,-0.09480555,-0.036883067,-0.01632781,-0.013880201,-0.0010638561,-0.15925038,0.2020886,0.0107440185,-0.0042650267,-0.121681325,-0.17720261,-0.10888266,-0.049220517,0.05362148,-0.086685196,-0.24192429,0.033686686,-0.013100285,0.101985075,0.05172481,-0.017666012,0.020360285,0.06509437,-0.026315687,0.14871381,0.03965516,0.031767752,-0.039531518,0.01354078,0.008508189,-0.050752427,0.022869281,0.042067353,0.0034063668,-0.024335254,-0.0848472,-0.04356568,-0.10205895,-0.048579413,0.020200385,-0.023307486,-0.02369405,-0.01892232,0.055368613,0.07536434,-0.012523321,-0.11137547,-0.04898931,-0.092395954,0.0070012426,-0.14393029,0.024079293,0.04221419,-0.07778674,-0.02282666,-0.13572493,-0.08034813,-0.081949346,-0.063495666,0.008450952,-0.112270705,-0.14142185,-0.16339804,-0.07772244,-0.03261992,0.048547182,-0.18474825,-0.038291354,-0.016058374,0.073986225,0.04151247,0.0018255134,-0.05623584,0.0052448595,-0.09589925,-0.20513204,-0.058299325,0.068193436,0.024349159,0.055240892,0.13159578,0.039853897,-0.019028964,0.07015552,0.033144545,0.18363586,-0.15664417,-0.028483378,0.122618675,0.028795961,0.02128825,-0.043932997,0.08950193,0.034164764,-0.17972408,-0.14179714,-0.15486513,-0.14542198,-0.093497925,-0.16381721,0.004126229,0.054924857,0.05662467,0.020465478,-0.014500573,-0.060917437,0.017896965,0.064346746,0.05334812,0.039190162,0.03355739,-0.032878786,0.10140793,0.1715266,0.121723235,-0.203671,-0.040346947,-0.07975661,-0.13124973,-0.05626907,-0.11377067,0.00337484,-0.10307733,-0.04816073,-0.15844637,-0.23627189,-0.0078442795,0.015302303,0.1086737,0.10975951,0.070663475,-0.08500528,0.05640325,0.14514896,0.08836919,0.083236456,-0.08649554,0.020703245,-0.057328515,0.02333957,0.053122666,-0.059184477,-0.060906533,0.014801525,-0.097836316,-0.07717727,0.014939968,-0.019777851,-0.0007531895,-0.0042825937,-0.09581989,0.056921232,0.07321237,-0.027595619,0.019879865,-0.14071357,-0.04737778,-0.038669012,0.02119684,-0.01593192,-0.08340612,-0.12709704,-0.021474123,-0.011894773,-0.021133302,-0.14496543,-0.17222291,0.0029206334,0.024450893,-0.026979119,-0.010760811,0.035475567,0.008497134,-0.06895699,-0.040481824,-0.022089293,-0.024045283,-0.03983781,-0.0081043,0.053692743,0.06520593,-0.06775107,0.073078856,0.13099048,0.09827241,0.080858864,0.004438466,0.053700004,0.12932488,0.11182342,-0.034256704,-0.013008793,-0.039068352,-0.016906438,0.0061031054,-0.13824384,-0.003340241,-0.07263878,-0.004448577,-0.026196383,0.12841241,-0.05571293,-0.050132964,0.06972785,-0.005214383,-0.09237762,-0.06138945,-0.004973232,0.053329144,0.0013572605,0.032664016,-0.0114028845,0.07150771,0.0688683,0.052710157,0.073375106,0.0052370066,0.033308655,0.019760244,0.031101603,0.11346828,-0.036177535,-0.11932716,-0.004148433,-0.00763098,-0.02781455,-0.05415386,-0.048324376,0.058632802,0.18051076,0.02081849,-0.15672523,0.01098503,0.17015837,0.14677921,0.017402256,-0.018498879,-0.09253959,0.014273271,0.16835682,0.05759663,-0.010158248,-0.08092102,-0.00201471,0.025635693,-0.071400724,-0.03485993,-0.055579957,-0.1004127,-0.09494523,-0.15655176,0.019345146,-0.018074553,0.25410604,0.20299561,-0.02711932,0.03254946,0.11465021,0.13428995,0.05347649,-0.059564915,-0.07488223,0.091281906,-0.017762052,-0.07390901,0.05752853,-0.16133106,-0.2158432,0.020905558,-0.049067162,0.017726855,0.075435884,-0.09434856,-0.038230486,-0.038545117,-0.04885281,-0.11961409,0.041053038,0.04002459,0.033521187,0.02296115,0.033796024,0.117742665,0.06531624,0.07324779,-0.015603565,0.0038419978,0.019897876,0.010965342,-0.033731427,0.009240567,0.02811329,-0.063738346,-0.096710816,0.041359734,0.00012305703,0.06982599,-0.025847021,0.038553298,0.09528527,0.25195888,-0.05962729,-0.1438039,-0.102034785,0.009608251,0.087563135,-0.023735937,-0.09103998,-0.062717915,-0.05086581,0.056590024,0.012967985,-0.018348323,-0.056993965,-0.09963613,-0.072525784,0.04165706,-0.1818997,-0.061505143,-0.04744994,-0.23585916,-0.084212966,-0.050706677,0.01796342,-0.20250674,-0.21143796,-0.058494736,0.1069413,-0.006000295,-0.014462018,-0.15670313,-0.025211101,0.015652718,-0.008505823,0.080474205,-0.032345284,-0.010351132,0.01421166,0.13421457,0.089776605,0.10633662,-0.07874719,-0.01886209,0.022201696,0.036306646,-0.027307179,0.0770032,0.027782705,0.06543001,-0.05674773,-0.035456527,-0.082764484,-0.04428613,-0.036844414,-0.0027566869,0.07002529,-0.15402608,-0.18836258,0.045115698,0.14660695,0.06460139,-0.3105597,-0.046109043,-0.004900182,0.054384567,0.13733551,-0.08148082,0.18940862,0.06183044,0.029890763,0.15114748,0.07245308,0.047535706,0.040214155,-0.04119405,0.036645852,-0.037883654,-0.10566447,-0.10272319,-0.036002383,-0.1997902,-0.064023554,-0.099501066,0.026111102,0.047523595,0.020998389,-0.007855554,0.08192451,0.03327108,0.095441364,0.065209866,0.14658108,0.050735585,0.11052072,0.008972182,-0.015625926,-0.0382647,0.04347203,0.11712796,0.13151178,0.08754653,-0.12834309,-0.08480979,-0.06392123,0.040780894,0.04742995,-0.014682471,-0.09578883,-0.15323757,-0.12711482,-0.06222654,-0.08650368,-0.08955372,-0.15314613,-0.05818723,-0.07531751,-0.118211426,0.03138395,-0.037067432,-0.14330113,-0.017980156,0.016566534,0.07727293,0.15357134,0.01576418,-0.0217813,-0.08862365,-0.014719605,-0.040905293,0.051364508,0.013347616,0.026487188,-0.0023138851,0.040899344,0.0060352134,-0.07201461,-0.16693176,-0.0055504926,-0.038719706,-0.06886673,0.0036742296,-0.066783495,0.037995137,-0.032726236,-0.040775232,0.026549874,0.0679715,0.08715535,0.002996847,0.03904844,-0.013892228,0.004703784,0.04242293,0.030151168,0.025559643,0.10851049,-0.020353775,0.056591626,0.046061467,-0.011409809,-0.017621435,0.03987884,-0.003643747,0.0391759,-0.013910592,-0.07062637,0.104305096,-0.059328232,0.066897884,0.08238553,0.013656001,0.059386924,0.039605897,0.06562559,-0.022499112,-0.0025711993,-0.022920841,-0.0011833444,0.06972523,0.1857194,0.022371521,-0.12275594,0.04635584,0.20929176,0.06888533,-0.060014974,-0.041260272,0.10224703,0.15344942,0.085112646,0.0014257045,-0.04664367,0.051222395,0.047398735,-0.10634489,-0.107001044,-0.23130177,-0.17256851,-0.11266992,-0.0034637488,-0.07957205,-0.050943516,0.009347015,-0.054931648,-0.11994272,-0.15051149,0.16548556,0.15110298,0.11826519,0.00047609847,-0.008175859,0.08142656,0.017786266,-0.096329585,0.0347578,-0.017304843,-0.09392743,-0.10612342,-0.07683986,-0.16008855,-0.13817106,0.0707111,-0.08327976,-0.0652825,-0.019911472,0.052392997,-0.06593663,-0.088447124,-0.14519271,-0.22892779,-0.19425692,0.063190915,0.05151798,0.031724986,-0.050030563,0.0015313864,0.032772947,-0.08234038,-0.08177612,0.016975656,-0.004362818,0.058587927,-0.051313844,0.027784474,-0.025675638,0.0056794942,-0.14237714,-0.16936772,-0.120462164,0.043316565,0.1821552,-0.30840564,-0.16081609,-0.27854976,-0.21407855,-0.0897929,-0.18077658,-0.09230307,-0.16698827,-0.1340152,-0.0995555,0.011629424,-0.054847557,-0.045519672,-0.042147066,-0.04385946,0.076601066,-0.027509457,0.084398136,-0.09610205,-0.13868052,-0.34469604,-0.15798143,-0.151561,-0.05143441,-0.10440561,-0.14905083,-0.14772834,-0.08076815,-0.15867847,-0.0953519,0.024732735,0.10912565,0.04166361,0.17068696,0.12139196,0.044271316,0.099695295,0.06174265,0.06057373,0.0827316,-0.20734465,0.012524447,-0.031250935,-0.11932402,-0.03771112,0.22421752,0.11718472,0.15388991,0.1211857,0.23727262,0.028820401,0.040892184,0.046249174,0.049943857,0.07666146,-0.014801955,-0.04709641,0.12240652,0.07483678,-0.043945055,-0.07583577,0.020578476,0.04322123,0.062325116,0.053141024,-0.094972044,-0.016418226,-0.0025593624,0.076090015,0.06138082,-0.037236895,0.0027871546,-0.06438577,-0.03859143,-0.108151324,-0.1029541,-0.1560077,-0.12926906,-0.046837788,-0.017243795,-0.071060225,-0.043281786,0.03202795,0.05376541,-0.047128424,0.07709908,0.03221899,0.09840094,0.09236308,-0.04040499,-0.0052980166,0.013585894,0.02733236,-0.0042418493,-0.05394463,-0.07548216,-0.12607095,-0.04533584,-0.010962724,0.019122565,-0.037333414,0.010591402,-0.04574787,-0.008720948,-0.07352665,-0.025879817,-0.034150355,-0.08367559,-0.017228823,-0.10909504,-0.12091888,-0.006898582,-0.13771135,-0.09301033,-0.17111953,-0.048448253,0.013825716,0.0015727591,-0.07354558,-0.063530795,-0.0067847376,0.078772604,0.056977343,0.07129733,-0.033600833,-0.025257023,0.039529435,-0.05236094,0.026638241,0.07663626,-0.048602555,0.026382323,0.0041867034,0.12432153,-0.03706364,-0.024873368,-0.112109035,0.050299704,-0.0025868434,0.041050304,-0.08536533,0.047239523,0.049699698,0.03834348,-0.02173643,0.016047474,-0.08015847,0.0013088214,-0.10764567,-0.07231404,0.0039745662,0.023423979,-0.07327101,-0.065738626,-0.099856965,0.038369365,0.04158237,0.04175626,0.04466647,-0.051296312,0.0833329,0.06490352,0.067697704,0.014256528,-0.038206477,0.09481584,-0.0070385262,0.028270032,-0.009750318,-0.099524714,0.03752471,0.025657455,0.029264968,0.121013984,0.10486442,-0.008318646,-0.118022576,-0.112923995,-0.08341649,-0.040838093,0.056055363,0.058293644,0.21664055,0.15010166,0.1230664,0.14031765,-0.007571828,0.012763651,0.011200924,0.030779772,-0.019272724,-0.01847063,0.06948799,0.07375781,0.09323221,-0.13961081,-0.041046664,0.101420015,-0.02660112,-0.1596571,-0.008201021,0.07729476,0.031139432,-0.15187702,-0.066416115,-0.025357451,0.11037488,0.038114153,-0.011767739,-0.08248549,-0.09691853,-0.028849512,-0.0647698,-0.11702654,-0.10276772,-0.05374816,-0.04430735,-0.09854103,-0.1569124,-0.27929133,-0.08582653,0.110728726,0.11050424,0.05937949,0.007854713,0.12421992,0.107619666,-0.05736828,-0.029200295,-0.12563087,0.22273764,0.13848549,0.050739728,-0.040704917,-0.13904037,0.004706335,-0.004076065,-0.11245253,-0.1398226,-0.10060172,-0.0712805,-0.11239172,-0.14242344,-0.120274946,-0.16925253,-0.043620944,0.14216758,0.14573169,0.12259029,-0.1631859,-0.10945093,0.13712654,0.09798288,0.09272399,-0.15641393,0.015787585,-0.018622605,0.17142144,-0.10650762,-0.17666624,-0.11549713,0.028918209,-0.044781763,-0.24211209,-0.20413956,-0.05980926,0.008232491,-0.058058195,-0.15873314,-0.18633738,-0.02115081,0.07784587,0.045251988,-0.00011641238,-0.09951661,0.07759435,-0.053089302,-0.19396287,0.012146851,-0.015206568,-0.020116827,-0.015189735,-0.19336735,-0.08845207,-0.19279099,-0.10553399,0.0057726153,-0.10118109,-0.16327055,-0.17101413,0.031925622,0.18092589,0.19627793,0.066479795,-0.23491369,0.018488111,-0.08541103,-0.039267436,-0.05101413,-0.14556324,-0.038954876,-0.1571389,-0.041682303,-0.03756151,0.004691746,0.105735645,0.04582321,0.12716088,0.093713485,-0.044503737,-0.05671157,0.06860493,0.015498488,-0.048443045,-0.025419533,-0.13953035,-0.04357015,-0.15467857,-0.04502333,-0.0958453,0.10391823,0.16489841,0.0799656,0.03750354,-0.04544748,0.07734293,-0.06430424,-0.09417655,-0.035845615,-0.024839697,-0.079313666,-0.07030326,-0.13580047,-0.13164094,0.009405043,-0.027122116,0.010861805,-0.13555032,-0.060422186,-0.051045958,0.040627062,0.14892645,0.08784994,-0.037809577,-0.05792553,0.042256746,-0.05841613,0.076339595,-0.057717875,-0.13157418,0.044935588,0.045538474,0.024501363,-0.019650761,-0.030338347,0.080656655,0.077225454,-0.011091792,0.021374071,0.005755073,0.10689405,0.076925226,0.0006421905,-0.023163192,-0.004848534,0.061077088,0.16369152,-0.015111753,-0.08288219,-0.13555585,0.039618537,-0.012703995,-0.1381657,-0.040975127,-0.010545596,0.11443846,-0.02820199,-0.08703568,-0.0037346156,-0.0757848,-0.009278351,-0.032436375,-0.06450679,-0.028094389,-0.041612294,0.04996238,-0.0017174695,0.038173735,0.060722556,0.08646683,-0.0010801342,0.04884071,0.007633585,0.056780573,0.06707704,-0.07525879,-0.043133706,-0.007364805,-0.034169886,0.040304508,-0.06802417,0.14156623,-0.070680395,0.09426111,0.02381053,-0.07007695,0.11188789,-0.051499464,0.013967632,-0.09643515,0.024020452,-0.023556357,0.044734575,-0.007823052,-0.10133932,-0.014981816,-0.00372734,-0.11075829,-0.06582527,0.012658244,-0.09810619,-0.071895905,0.03612478,0.03977867,-0.11891076,0.034717627,0.023155725,-0.017309705,0.05743713,-0.0108800335,0.08561975,0.13260008,0.1854833,0.08676915,0.093584344,-0.052892778,0.058883503,-0.13394259,-0.13951749,-0.061221976,0.07643151,0.068964735,-0.06619496,-0.06271022,-0.163794,0.07097534,0.024181277,0.070734695,-0.03822209,-0.16222754,0.153558,-0.008828726,-0.00399417,0.026017109,0.08709766,0.0767487,-0.005358216,0.02852541,0.19603981,0.080034606,-0.0883255,-0.15786475,0.015883498,0.07374188,-0.044488378,-0.12955484,-0.0824375,-0.048500665,-0.20034762,-0.21242695,-0.082233585,-0.0381489,-0.005807326,-0.102011725,-0.15377018,0.020328498,-0.087997995,-0.03544293,0.027578644,-0.030805407,-0.001318216,-0.13289271,0.09255314,0.069686875,0.06305361,-0.110667884,-0.011665024,-0.018928427,0.095023826,0.015868815,-0.06442049,-0.014788577,-0.06503829,-0.115819864,-0.18694985,0.029458404,0.1554602,0.09674286,-0.0097217085,-0.06776264,0.04038153,0.0054172524,-0.003972478,0.0038679743,0.0023391275,0.14009014,-0.05587459,0.14722586,0.1563733,-0.013027999,-0.010368414,0.07737189,0.09593251,0.04985742,0.05507989,-0.11914465,0.00951644,0.08922511,0.1506907,-0.12573333,0.062266637,-0.0946259,-0.17156574,-0.009264794,-0.15237,0.1373041,-0.14055431,-0.1910185,-0.12336002,0.067231655,0.08340555,-0.020441156,-0.17232974,-0.070901684,-0.10028265,-0.058170013,-0.07826785,0.047960304,-0.12898304,-0.12876584,0.07679035,-0.17589678,-0.11429636,0.055452578,0.123662494,-0.08587712,0.085226536,0.09245656,0.05927934,-0.03174438,0.03233681,0.13871954,0.0821294,-0.048755016,-0.12385104,0.0945671,-0.04854564,-0.015723422,-0.11443641,-0.050771132,-0.13604432,-0.14911039,-0.083364576,-0.1844962,-0.09258702,-0.17332646,0.0068911617,-0.073108286,-0.10759177,-0.0131808175,-0.061825737,-0.104677305,0.09643654,0.111370675,0.05562148,0.015777167,-0.024023835,0.021847052,-0.09633562,-0.07400904,0.022617284,-0.07700815,-0.081245646,-0.06130301,-0.21686475,-0.14448462,-0.08933958,-0.08842743,-0.015874831,-0.017735329,-0.1671904,0.022228617,0.010216488,0.15127823,0.007331342,-0.035012316,0.1892234,0.0024490203,-0.011815963,0.014818667,-0.049575284,0.111789495,0.08974213,0.012652786,0.07655266,-0.029962376,0.053710796,0.11143384,0.0712772,-0.05837309,0.0036519472,0.060984727,0.050740957,0.17332248,-0.087412216,0.0102018565,0.1306831,0.094393425,0.17735952,-0.024861638,-0.046951286,-0.0022803454,0.06215625,-0.07412403,0.010318899,0.024815219,0.006868891,0.08114106,0.03375104,-0.026739042,-0.007854907,0.02819626,0.0739807,-0.07418112,-0.021036414,0.00078876974,0.05254207,-0.03030339,-0.013586309,0.054835528,-0.004818705,0.08526736,0.020285884,0.0042502945,0.12631832,0.014935234,-0.029644668,-0.030747622,-0.032361403,-0.058203846,0.06982245,0.04978538,-0.021117512,-0.03944016,0.013932739,0.19855481,0.09115931,-0.014151656,-0.074773945,0.072332054,0.16049916,0.05131423,0.016620578,0.09476535,-0.015733732,0.020599661,-0.059128776,-0.12442874,-0.103941105,-0.08378186,-0.23450908,-0.15873018,-0.13938193,-0.0757544,-0.09839702,-0.06417518,-0.13018768,-0.14912902,-0.14232044,-0.0073696123,-0.10053417,-0.099429816,-0.06844881,-0.07661793,0.10239567,-0.11603171,-0.093410864,-0.23488013,-0.07055021,-0.005003637,-0.21346632,-0.21187878,-0.10587227,-0.15685536,0.075899534,-0.10204218,-0.1001489,-0.10006473,-0.22176543,-0.10888804,-0.051320557,-0.085563615,-0.045637693,-0.12807105,-0.23770358,-0.060462702,-0.040832005,-0.06319476,-0.13899979,-0.30965695,0.007194747,0.038491692,0.080373555,0.092143066,-0.11037137,-0.006858438,0.09266024,0.08082239,-0.052100852,-0.08855084,-0.07280591,-0.022461267,-0.14264996,-0.026584027,-0.09774896,-0.13951391,-0.15061083,-0.114362165,-0.10283292,-0.05801802,-0.056838322,-0.055445354,-0.09139406,-0.09956951,-0.037036624,-0.031788897,-0.02409088,0.08511762,0.039877538,-0.07343263,0.012279379,0.008033026,0.091857284,0.02228045,-0.16499148,-0.07736061,0.01188076,0.0683602,-0.036839273,-0.10827745,-0.08079183,0.008986976,0.04309306,-0.026671352,-0.07904024,-0.09538087,-0.051808972,-0.014832458,0.13924797,0.032272637,-0.058738016,-0.07217687,0.028641365,0.14129452,0.057865478,0.04281043,0.05483226,0.06788149,0.008486545,-0.13684271,-0.07020786,-0.17095058,-0.1612456,0.007279676,0.050206028,-0.0024346435,-0.14047082,-0.16826756,0.16752788,0.1575238,0.14085592,-0.10589829,-0.088271186,0.07222665,0.08522275,0.112040505,-0.037185647,-0.029354354,-0.0883865,-0.01497758,0.10438676,-0.075492136,-0.07447637,-0.20954774,-0.13352104,-0.06866769,-0.05204611,-0.1333673,-0.07737943,0.0061226557,-0.035223704,0.032147627,0.04122289,-0.0867806,-0.04725713,-0.072418496,-0.0018930534,0.09305201,0.058252167,-0.049788773,0.028380793,-0.014336427,-0.017811244,-0.011200396,-0.0068146302,-0.19032083,-0.14645828,-0.115461595,-0.11966034,-0.1401817,-0.0086379405,-0.06909604,0.18428129,0.07095497,0.09323273,0.021704921,-0.040548716,0.2135777,0.22870368,0.04542001,0.04357772,0.019886121,0.08247742,0.14002162,0.07591661,-0.016912745,-0.025910053,0.030458018,0.067498915,-0.044997886,-0.0513847,-0.038822483,-0.07327678,-0.064080074,0.024614407,0.051651966,0.09562581,0.09919176,0.009190532,-0.0022165761,-0.029235022,-0.0051872763,0.0990123,-0.030181952,0.0072890325,-0.038497318,0.10082931,0.095703766,0.08616739,-0.015956545,0.013991149,-0.003141992,0.0623553,0.07969461,-0.0025954717,0.07666805,0.029933702,-0.031694096,0.002321184,-0.009062406,0.018677048,0.0018993733,0.009526462,0.09117363,0.0993172,0.05405843,0.0026506677,0.06762571,0.00840643,0.07448059,-0.05092045,0.06551247,0.09597274,0.0028380326,0.06039757,-0.00790474,-0.001988111,-0.038245138,-0.05905035,-0.045293033,-0.065671176,-0.010284804,0.012384191,-0.07666906,-0.08183706,0.020113928,-0.07221622,-0.044861246,-0.06766752,-0.037158683,0.047289155,-0.076132946,0.008669291,-0.07730571,0.05966267,0.05268158,-0.017899625,-0.11512233,-0.051990017,0.11370008,-0.01737831,0.022176074,-0.03160718,-0.05619302,0.10589265,0.014390173,0.008736135,0.01979477,0.114473194,-0.008805069,-0.13970187,-0.24659243,-0.10600232,-0.108580686,-0.02432347,-0.067437075,-0.24747725,-0.18519647,-0.033048652,-0.073416896,-0.060970154,0.028161947,-0.10117853,-0.030009331,-0.11883382,-0.014157214,-0.023677243,-0.17223656,-0.052619584,-0.09388061,-0.12789913,-0.25947112,-0.07261889,-0.008251579,-0.13231046,-0.0655157,-0.061509814,0.023354556,-0.0013374297,-0.13756245,-0.041386783,-0.014435705,0.16542618,0.1649163,0.02129868,0.039376434,0.14531845,0.12762447,0.0002352078,-0.21728334,0.07043397,0.09430075,-0.11748366,-0.16736563,-0.047075603,-0.03955102,-0.03213912,-0.15449701,-0.05113431,0.08543996,-0.05922367,-0.073521435,-0.049466927,-0.07104758,-0.053771324,-0.053382564,0.01105934,0.039073117,0.054215517,-0.010841855,0.004773438,-0.028606255,0.07936669,0.09073567,-0.11434112,0.023106337,0.013154848,0.11217181,-0.14447,-0.027297674,-0.024859093,-0.043100603,-0.08809383,-0.007996342,0.11433737,0.017829396,-0.101865105,-0.14003162,0.10573415,0.041854292,-0.09709753,-0.07316039,-0.07913497,0.05015693,0.053716723,-0.10766658,0.1047993,0.07939246,0.009626442,-0.10714485,-0.036931172,0.117921844,0.11757688,-0.1725275,-0.13826925,-0.044504266,0.17285348,-0.04681982,-0.2689124,-0.14779292,-0.035706077,-0.14334093,-0.17509444,-0.16715103,-0.11604033,-0.15770467,-0.02039932,-0.005795924,-0.0688618,-0.20252244,-0.12384579,0.019421441,-0.06744262,-0.16853961,-0.15014991,0.033182777,0.018522277,-0.0845727,-0.08418184,-0.22486974,-5.545013e-05,-0.1072195,0.053656526,0.063261904,-0.024920294,-0.04662649,-0.09782607,0.013209311,0.016850935,-0.08865648,0.05487546,-0.0081569785,-0.064825825,-0.13027331,-0.078562975,-0.08344955,-0.14574443,-0.17540197,-0.063297585,-0.004459892,-0.13548237,-0.11174856,-0.24768963,-0.18967764,-0.024093416,-0.0719332,-0.20157199,-0.028997904,0.11072972,0.060245123,-0.08537332,-0.15062016,-0.13583882,-0.044986557,0.12901004,-0.056260075,0.02103613,-0.026338909,-0.05866092,-0.018431185,-0.0808597,0.025443459,-0.13814735,-0.12715274,0.0108331,-0.08106417,-0.007949092,-0.0049385424,-0.04928991,-0.028776404,-0.04377908,0.15174995,-0.05047697,-0.074278735,-0.16712204,-0.0146986265,0.02127589,0.075561926,0.06639499,0.010864741,0.028560525,0.054501597,0.06769077,0.060368866,0.03687241,0.036865506,0.10021773,0.03516318,-0.028025564,-0.07511418,0.09707184,0.07441286,0.058919255,-0.022914525,-0.038209043,0.13827935,0.13691248,-0.021482335,-0.082845554,-0.09086085,-0.08218361,0.010230999,-0.03713418,0.015880974,-0.121083856,-0.05672663,0.040972997,0.014760096,-0.007358313,-0.022457516,0.0016105633,0.012035474,-0.03453918,-0.030628644,-0.043689143,-0.09091564,-0.11610859,-0.016672675,0.031350456,0.049438953,-0.029375395,-0.0676201,0.026746077,0.06420421,0.008484091,0.03553066,0.018495815,-0.05486679,0.031629607,0.00094613637,0.07529091,-0.04969234,0.0341716,0.00045134348,0.009047621,0.007911779,-0.047778264,-0.008004561,0.084037945,-0.011007518,-0.07408922,-0.016720647,0.110106066,0.051523574,-0.004749665,-0.024466587,-0.05079063,0.055697612,-0.0041055367,-0.1177609,-0.059063856,-0.19105642,-0.13684808,-0.11453418,-0.057368428,-0.079119466,-0.11323664,-0.08417308,0.055886153,0.0033326442,-0.1725106,-0.122330785,-0.084084995,0.008835292,-0.022530364,-0.0862885,-0.10095269,-0.045732625,0.027914716,-0.12702587,-0.17252503,-0.19172262,0.013434466,0.29090858,0.03656323,-0.005300545,-0.09426027,-0.00037898344,0.1651314,0.088479415,0.10276767,0.09431794,0.110992074,-0.12611753,-0.19576718,0.083758876,0.03694398,-0.102661006,-0.18719588,-0.11714516,-0.12079935,-0.071044885,-0.14085484,-0.109522134,-0.07792242,-0.037539568,-0.03315817,0.039462622,-0.11305077,-0.12174775,0.030367969,0.04043564,0.017105076,0.0041929656,0.1283244,-0.013921452,0.01866545,-0.13093045,0.10782935,-0.0526119,0.08779437,0.030684818,-0.027202517,0.033451084,0.13259733,0.080386266,-0.07911631,-0.12172911,0.00035211197,0.063858606,-0.14786257,-0.019678187,0.050257403,0.02750232,0.05435917,-0.057548746,-0.052817002,-0.08122729,0.06572168,-0.07855772,-0.0045558824,0.104903854,-0.041223846,-0.0037268987,-0.0784308,0.11025203,-0.092567764,-0.07637196,-0.0449266,-0.00022808045,-0.10101152,-0.09023687,-0.026817193,-0.06066071,-0.030718636,-0.2329085,0.05758319,-0.030168355,0.020566572,-0.024388617,-0.043600176,0.010329601,-0.074031584,-0.020500742,-0.04457451,-0.016506627,-0.08963393,0.052039705,-0.094255015,-0.024619497,0.06836673,-0.032096278,0.18811844,0.17747034,0.15295684,-0.21419689,-0.010539785,0.19676988,0.30157045,0.013032913,-0.26332635,-0.1984672,-0.18909004,-0.17649047,-0.22359726,-0.0025247454,-0.13212866,-0.21654071,-0.14619064,-0.10851845,-0.028315116,-0.12588899,-0.056548104,-0.083940595,-0.080678135,-0.15010953,-0.033291098,-0.0081486525,0.017902488,0.0032955254,-0.08178764,0.14162593,0.01782755,0.05572858,-0.06371291,-0.017795758,0.04162231,0.08491095,0.05135465,0.019569628,-0.09488181,-0.012773705,-0.057541166,-0.10710619,-0.11125395,0.011927812,-0.0527226,-0.14262451,-0.016024314,0.013094197,-0.05496705,-0.02105014,0.11335228,0.10738171,0.04047481,-0.12400714,-0.017999344,0.36952922,0.18362744,-0.03760591,-0.14213859,-0.04966934,0.10254605,0.05712881,-0.13980652,-0.06646181,-0.06474313,0.041203946,-0.028983856,-0.07357746,-0.08481587,-0.026690671,0.015856517,-0.036933847,-0.081322275,0.013854858,-0.11910966,-0.049124014,-0.021535898,0.0038949377,-0.02617623,-0.093344234,-0.13385703,0.03327764,-0.0837299,-0.015418133,-0.01477567,0.020551126,0.0005275661,-0.030583752,-0.04226718,-0.039184067,-0.04225251,-0.08912883,-0.046409387,-0.074225396,-0.060671814,-0.03533321,-0.0011298225,-0.0057503507,-0.014735545,-0.0698866,0.0028686277,0.032327153,-0.050641846,0.029500894,0.063211344,0.08719854,0.06419192,0.049555115,-0.07553533,-0.07935499,0.049753353,0.032558043,-0.052816536,0.046380207,-0.08385888,0.009620178,0.05478103,0.02751336,0.04853334,-0.035504155,0.017584886,0.027886568,0.012066402,-0.09526548,-0.06510794,-0.04451596,-0.051307954,0.023847913,0.009146818,-0.038768906,-0.0059808134,0.0007260324,0.06364224,-0.052249964,-0.038402855,0.11933104,0.023067256,0.014742062,0.040106185,-0.05477685,-0.04802584,0.024476163,0.044913147,-0.012520547,-0.067824684,0.0058363196,-0.0319291,-0.12173956,-0.024382627,0.09626013,0.13647789,0.15566356,0.15814552,-0.0074758576,0.06880584,0.13831851,0.18610331,0.06737215,-0.14810185,-0.118413135,0.0483232,0.085667074,0.0023830503,0.05651666,-0.024703193,-0.008537555,0.062269337,0.26102313,-0.14267662,-0.11746188,-0.05479223,-0.038119104,-0.13695197,0.01583375,-0.10552467,-0.06059342,-0.03877639,-0.033252414,0.12504454,0.041354056,0.093589805,0.19393468,0.018264236,0.22676636,0.08921135,-0.048569363,-0.052829307,-0.1462854,0.05220378,0.111972205,0.12538873,0.010669585,0.07259934,0.08834264,-0.03945095,-0.01418953,-0.038059898,0.01006888,-0.13974914,-0.20563127,-0.13513169,-0.13099958,-0.011267219,0.03768978,-0.02331713,-0.057104304,0.025187064,0.04728192,0.020852707,-0.056888018,-0.07675489,0.053695645,-0.06833968,0.058057554,0.15457195,0.074454345,0.13436005,0.022349035,-0.1122952,-0.07812074,0.077677235,-0.075706705,-0.02469166,-0.33167896,-0.15233155,-0.22473525,-0.16433346,-0.074394636,-0.2632716,-0.19412541,-0.19663937,-0.010572463,-0.05443113,0.028391318,0.044204418,0.013572538,0.084420845,-0.035563823,-0.086810954,0.02148257,-0.048614893,0.0073695164,0.087787084,-0.33777723,-0.1231213,-0.0905055,-0.12905413,-0.185105,-0.097762965,-0.009131354,-0.117833994,-0.13677438,-0.20664918,0.08285416,0.21837245,0.1422654,0.06905758,0.03428529,-0.016463483,0.09473616,0.0801823,0.093477055,0.06603823,-0.053379394,-0.05496058,-0.05273968,-0.096946254,0.032992613,0.11504427,0.26672563,0.24596153,0.2418408,0.1589117,-0.031613987,0.011759649,0.07274479,0.021807974,-0.112337746,-0.044424344,-0.047015153,-0.05620161,-0.032235038,0.023320394,-0.0907169,-0.06692294,0.04824447,0.11995283,0.11741795,-0.09339786,0.02813941,0.030477656,-0.04415553,-0.028421707,-0.10756551,-0.031626284,-0.09664073,-0.05425283,-0.16656876,-0.105421506,-0.074592754,-0.16687444,-0.15281402,-0.124976486,0.07282671,-0.044885576,0.0045909625,-0.08163074,0.058047675,0.08702857,0.03139119,0.12905112,0.09777961,-0.038414378,0.016123535,0.03285927,0.08765216,0.11860456,0.03206387,-0.049427744,0.011236995,0.05429285,0.06754343,-0.114741325,-0.10505555,-0.0009096996,-0.018524136,-0.0013909282,-0.17711385,0.018453207,-0.07360058,-0.087695055,0.058919415,-0.12191968,-0.033625517,-0.04882932,-0.034738246,-0.017811693,-0.12487453,-0.04383862,-0.09435327,-0.024207868,-0.06571163,-0.022914084,0.07089795,0.026544934,0.19287924,0.14154576,0.09780632,0.0077873445,0.01934013,0.050957013,0.019929893,-0.053826068,-0.07056185,2.1937392e-05,-0.012783971,0.034034993,0.07784734,-0.113974154,-0.066484,0.055796895,0.1338622,0.040578973,-0.14875461,0.13969903,0.060955882,-0.008433273,-0.08078007,0.011742075,-0.07882902,-0.03460461,-0.08167902,-0.08851287,-0.063646205,-0.033556618,0.054038677,-0.037169755,-0.020997098,-0.028525326,-0.022700882,0.04544802,-0.054098517,0.016832415,0.12107254,-0.010614197,-0.001158661,-0.010037935,0.029011728,0.051361874,0.107823946,0.092978306,0.0093413135,0.11685004,0.06237913,0.0047704577,0.0013384661,0.18069407,0.0862198,-0.060800977,-0.05601769,-0.08838675,-0.10057244,-0.14063706,0.14942816,0.04156021,0.06813217,0.124994315,0.091981314,0.02774036,0.019227354,0.025088903,-0.006712884,-0.022695743,-0.033062235,-0.024280919,-0.0697143,0.023841051,-0.09836242,0.08284141,-0.010695236,-0.057731107,-0.018705724,0.02519541,-0.0023117568,-0.0042715142,0.0063783503,0.16620766,0.03712116,-0.022168215,-0.08808886,0.06266815,0.16772388,-0.127703,-0.08856093,-0.12364892,-0.018371692,-0.019148728,-0.13378784,-0.016193245,-0.05204882,-0.12540884,-0.14435667,-0.1563488,0.071102254,-0.1000581,-0.07703897,0.06033771,-0.065761544,0.022159945,-0.021794109,0.06606171,0.060361553,-0.040204655,-0.02477412,-0.055856217,0.10361433,0.062468626,-0.039549075,0.012755656,0.0009998152,-0.04607357,-0.001424203,-0.1761751,0.113269374,0.047719095,0.026950087,-0.13948107,-0.027159836,0.15778644,-0.03992851,-0.0003548743,0.019955745,-0.070483364,0.13086154,9.026844e-05,0.11785686,0.09880247,0.044347953,0.044904575,0.12404116,0.067068405,0.10940078,0.051724102,-0.022835156,0.032793388,0.00793319,0.23113948,-0.06146267,0.049918167,-0.04496718,-0.19477224,-0.060853757,-0.09010953,0.05622515,-0.0068880897,-0.1335566,-0.04759406,-0.08818532,0.030410055,0.05792446,-0.11043609,0.034939308,-0.09879626,-0.0843273,-0.06228542,-0.056310747,-0.048410255,-0.1404341,0.04282946,-0.17056902,-0.051013365,0.043310802,0.084401645,-0.021974208,-0.057556886,-0.069145635,0.022789683,-0.006073452,0.011644916,-0.05518501,-0.10180354,-0.101229504,-0.15651417,0.04895406,-0.06821206,-0.09323832,-0.07746155,-0.10014411,-0.14786656,-0.13949336,-0.20194456,-0.29842582,-0.07321684,-0.113698736,-0.09192747,-0.14030837,-0.32509077,-0.06902021,0.0937404,-0.021611353,-0.06381618,-0.003191543,-0.025975632,0.118620396,0.018309282,0.002524512,-0.043219548,0.008510885,0.09215055,-0.11656507,-0.025178475,-0.13838796,-0.14424737,-0.10432009,-0.034227893,-0.0683739,-0.090375364,-0.1202018,-0.17645983,-0.04875265,0.0516369,0.08202904,-0.028842714,-0.04777952,0.049468886,-0.010492066,0.0749879,0.0031582236,-0.013837984,0.053256772,0.10978916,0.08344203,0.030476935,0.03433046,0.15600248,0.1600758,0.037110098,0.089698315,0.04279825,0.14746976,0.1136774,0.13619411,-0.03590666,-0.06509374,0.06761172,0.119726904,0.20284608,-0.09498281,-0.07945024,0.025578277,0.04531603,-0.030145274,0.025507225,0.06418773,-0.010620738,0.08619681,0.020559786,0.1163981,0.047875777,0.052818872,0.09447113,0.063099675,-0.08107795,-0.04555745,-0.06444699,0.0065891454,-0.08049651,0.026010329,-0.05967512,0.11900264,0.06327182,-0.044745624,0.07506433,0.012320029,-0.015336994,0.005352157,-0.106268995,-0.094361775,0.17269997,0.1294019,-0.041480638,-0.09481145,0.1401387,0.24405438,0.0765037,-0.027488932,-0.03179914,0.0884402,0.12064254,0.075965025,0.03615488,0.037517138,0.004152388,0.06387246,-0.020043323,-0.08733497,-0.089585036,-0.012033242,-0.089341715,-0.22690414,-0.26400706,-0.23450112,-0.12622462,-0.113695115,-0.22567223,-0.1306352,-0.08362914,-0.007818488,-0.12709072,-0.13986614,-0.16270778,-0.091877945,-0.02115878,-0.03663687,-0.019211983,-0.08759119,-0.11926276,-0.03928114,-0.20188683,-0.1557668,-0.23700854,-0.0828903,0.041239586,0.041358754,0.09898309,0.08804288,0.0040081,-0.027425313,-0.008853103,0.0057153413,-0.031876877,-0.13000834,-0.057019383,-0.037319086,-0.11646775,-0.057078037,0.074587375,0.13170671,-0.044061445,-0.035960305,-0.083309256,0.004953343,-0.036319934,0.031446837,0.033097,-0.088895984,-0.17110166,-0.11614719,0.037133545,0.041853055,0.046904344,0.06762347,-0.026026428,0.08322217,0.1627879,0.038581997,-0.03159308,-0.13249807,-0.03247916,-0.112409845,-0.027583053,0.069306776,0.0041916003,-0.121059716,-0.13193762,0.019375503,0.06017403,-0.049193744,-0.0020238743,-0.12001848,-0.10032712,-0.14756331,-0.10959676,-0.024935901,0.24340744,0.15041502,-0.08157805,-0.06656704,-0.004735212,0.14915736,-0.046624452,-0.09226888,-0.023069337,-0.109811075,-0.1502885,-0.17696409,0.13010345,-0.0077204076,-0.20558962,-0.118158065,0.096534595,0.1682958,0.07846301,-0.010327346,0.035860147,0.020857947,-0.044146102,-0.12512481,0.014730055,0.04702567,-0.06726039,-0.028865077,0.051549114,-0.0045643323,-0.006369516,-0.19494997,-0.1379002,-0.0749482,-0.0971803,-0.10907898,-0.17690296,-0.16375491,-0.08847327,-0.065960474,-0.0684257,-0.22426562,-0.17541367,-0.053767648,0.06971838,0.046913046,-0.032860205,-0.14530623,-0.06966918,-0.107087776,-0.05131101,0.10741756,0.13883226,0.04899986,0.086128704,0.21808335,0.111125566,0.018052973,-0.16079019,0.13409847,0.06834086,-0.13304748,-0.099150315,-0.08963969,0.11189507,-0.14394905,-0.1007677,0.09075688,0.13945158,-0.024667392,-0.14267923,0.05644441,0.08132872,0.002035815,-0.011596506,0.032476746,-0.05257189,-0.03996965,0.07559018,-0.05636416,0.021782573,-0.08477441,-0.050866466,0.029118642,-0.10327628,-0.09988428,-0.1341625,-0.10397914,-0.055994194,0.047476478,0.010640257,-0.0023870545,0.017725985,0.028241532,0.11007462,0.09543947,-0.05358396,-0.07080655,-0.003014158,0.066705495,0.0010784122,-0.08990625,-0.115195066,-0.06281709,0.03143333,-0.12692809,-0.12887457,-0.06431146,0.05817273,-0.0761516,-0.07891064,-0.048380528,0.11870711,0.10169139,-0.14687751,-0.004035739,0.012802021,0.14440247,-0.016292473,0.0046593705,0.056672435,-0.00021566449,-0.003029678,0.00040491484,-0.013101292,-0.040620744,-0.040635478,-0.0053196684,0.0703205,-0.008535745,0.033503693,-0.06845451,-0.069642074,-0.07889658,-0.028768664,0.035530645,-0.020012965,0.047466256,0.018508669,0.05698541,-0.034533493,0.07352894,0.08647024,0.111809306,-0.036077455,0.04565225,0.12876476,0.1090189,-0.0457372,-0.069519594,-0.012672245,0.05422449,0.01914385,0.006861605,-0.019239707,0.08210842,-0.0018275265,0.016398905,-0.087843396,-0.08232048,0.078701235,0.02359031,0.035397314,0.050188474,-0.019493083,-0.024776326,-0.010387329,-0.007595246,-0.11089359,-0.026768716,0.12139822,0.04006871,0.056436162,-0.10409279,0.059600245,-0.06812427,0.18082798,0.07919543,0.07389201,0.058845375,0.17541009,0.2371979,0.031980302,-0.12642846,0.033915214,-0.13879138,-0.18202944,-0.13057633,-0.027141929,-0.028127909,-0.13310522,-0.062088568,0.025578286,-0.04225577,-0.092243075,-0.16818026,-0.21834676,-0.116829455,-0.055722862,-0.022032918,0.14396022,0.06566005,-0.010676414,0.07213662,-0.15636668,-0.022923404,-0.06453513,0.0546123,-0.028211243,0.08685903,-0.0476593,-0.06653999,-0.037264626,-0.01552083,0.0886306,0.07038773,-0.012832793,-0.03391398,-0.01928702,0.0026188747,-0.047887,-0.048707735,0.033525337,-0.02078163,-0.0015290045,0.12722552,0.09945672,0.082287505,0.021905916,-0.070452444,0.010335944,-0.054461684,-0.040199842,0.007601141,-0.10349376,-0.10261007,-0.03820373,0.006967538,0.061361145,5.0978233e-06,-0.10720864,0.03703133,-0.039052904,0.0018745384,-0.05272712,-0.06195177,-0.015930131,0.044388045,-0.050491076,-0.124581434,0.2189198,0.19490406,0.06686706,-0.07617185,-0.24728236,-0.043749765,-0.0030539671,-0.091303,0.0075691543,-0.29646626,-0.16990711,-0.055534046,0.024633361,-0.047945857,-0.0060093724,-0.070205785,-0.07675696,0.04698492,-0.08582573,0.07593193,-0.089439094,0.04097209,-0.06504514,-0.134566,-0.107773945,-0.09545129,-0.096552745,-0.1433642,0.0114699565,-0.11232521,-0.12829195,-0.09693588,-0.11190552,-0.03932131,0.1303205,0.094432965,-0.088033564,-0.0975763,-0.09888987,0.13847461,0.19367203,0.1609215,-0.0017733669,-0.063967906,0.051312566,0.085303105,0.15679233,0.0061958446,-0.008486264,-0.09438447,0.026677698,0.034583267,0.123983584,0.14971848,0.00059807126,0.23678577,0.1334917,0.026941895,0.16303766,0.087119,0.070169285,-0.013711185,0.045482162,0.004995536,-0.05042956,-0.04944098,-0.027658362,0.030924384,0.034162343,0.097333275,0.025069473,0.037099924,0.004587662,0.0049337205,-0.1453265,-0.08276747,-0.007985961,-0.1063421,-0.00043645618,-0.09849662,-0.117375456,-0.05347182,-0.093373865,-0.06667164,0.011030281,-0.09404876,-0.11867461,0.037087493,-0.09612073,0.015164116,0.0981926,0.01456948,-0.07034551,-0.028370475,0.051119607,0.12936002,0.057817593,-0.032158855,-0.02155098,-0.044490047,0.14526011,0.06920359,-0.005462635,-0.043004517,0.0029915334,-0.0044203666,0.05038311,0.04461121,-0.09350023,-0.13302974,-0.076994516,0.02118832,-0.020299774,-0.07323414,-0.12783362,-0.0118199,0.00922954,0.033244528,-0.11357245,-0.07856989,0.036549415,0.015577372,-0.057218984,-0.057202376,0.008655791,-0.0050267274,-0.0032102847,-0.008636661,0.04402807,0.0065128976,0.076609835,0.09171165,0.04037375,0.080067664,0.06497751,0.013423155,0.07482676,0.14109534,0.063195854,-0.081674784,0.054084737,0.092157215,0.08791079,0.020928733,-0.05949477,0.008573355,0.029879918,0.07153711,0.0024990032,0.023317657,-0.048005577,0.014565758,-0.012932463,0.048580747,-0.119824454,-0.070005864,-0.106974944,-0.031768247,-0.10153935,-0.048399992,0.020469591,0.020285722,-0.021490376,-0.045429822,0.03231375,0.027294492,0.047926698,0.072302125,0.062157597,-0.07259978,-0.077254385,-0.035393406,-0.02591765,-0.04301566,0.015319279,0.09011377,0.039619133,-0.02811029,0.20963982,-0.0503642,0.012449304,0.04547438,0.07535178,0.12650129,0.027507948,-0.05961922,-0.059860505,0.03455673,0.027701948,0.04183429,-0.043295823,-0.09079941,-0.032969568,-0.10955775,-0.019623706,-0.012342149,-0.0416709,-0.031026095,-0.0008478388,-0.033378344,0.011539706,-0.035493948,-0.014854069,0.03414775,-0.0980198,-0.017749805,-0.1002913,-0.13611482,-0.04414393,0.06375275,0.041286234,-0.10816654,-0.12378087,0.0052318447,0.034253962,-0.07624374,-0.09997077,-0.07991393,0.121572375,-0.0005248395,0.05767294,-0.053145204,0.058082607,0.19725768,0.20747457,0.073881574,-0.03423707,-0.01885734,0.013747476,-0.093605734,-0.08328806,-0.124510966,-0.078186005,-0.0044847718,-0.06146995,-0.047132913,-0.14112417,-0.088770695,-0.1574712,-0.03814293,0.0031660045,-0.041265912,0.022238063,-0.06366751,0.19748408,-0.036220875,-0.006830131,-0.104236856,0.047640584,-0.11893522,-0.059243716,-0.07549447,0.0490118,0.12384616,-0.27533573,-0.2843983,-0.089582615,-0.10752819,-0.022778923,-0.13711305,-0.090511225,-0.11806764,-0.112425126,-0.04361655,0.080100045,0.118996024,0.002733044,-0.044488415,0.0927965,0.024257086,0.03581735,0.10608623,-0.099471234,0.12993644,-0.22831964,-0.30280077,-0.19730857,-0.23636591,-0.2201113,0.029810298,0.028191594,-0.14229563,-0.14210476,-0.01852962,0.16429783,0.22539584,0.053524937,-0.1307326,-0.02262351,0.054147445,-0.013171317,0.0049426067,-0.03229542,0.08631286,-0.04747746,0.02184058,-0.023267563,0.13140216,-0.023070183,0.010537372,0.17965272,0.2861803,0.11272949,0.06732989,-0.101697564,0.02670473,0.09433239,0.06195546,0.061537314,-0.058595285,0.0077891895,-0.06353955,-0.04619391,-0.038549323,-0.18757945,-0.04078113,-0.008101367,-0.08641423,-0.10293704,0.05032094,-0.02936209,0.058063254,0.11031385,-0.013439486,-0.2693701,-0.13384338,-0.17420457,-0.10212832,-0.056636263,-0.075993426,-0.118359186,-0.16169761,-0.08836549,0.040896278,0.1670532,0.0701009,0.08341158,-0.03725789,0.13855988,0.03629953,-0.00783261,0.15929829,0.051895037,0.017839912,-0.017634718,-0.0770179,0.004644497,-0.057649918,0.007164547,-0.02615838,-0.017424509,-0.09516158,0.087031364,0.013873537,-0.025766721,-0.09621022,-0.05605879,0.021441877,-0.0004487617,-0.050981957,0.017802056,-0.010776295,0.03221537,0.10978664,0.035689503,0.094368614,0.03871855,0.024986785,0.059084363,-0.049224168,0.052068885,0.0038887928,-0.028855663,0.11682726,0.047564674,0.020578224,0.14115012,0.03421993,-0.052212752,0.02360042,0.054748088,0.11970753,0.11537282,0.026213294,-0.090541795,0.035313632,0.06556301,-0.039120357,0.0061618704,-0.106544055,-0.036248893,0.11927688,0.024443328,-0.10392591,-0.076904684,-0.011916881,0.033777855,-0.0124401385,-0.08256143,-0.06618005,0.063120164,-0.025666831,-0.1239242,-0.052620936,-0.064092696,0.038383994,0.006460725,-0.012240735,-0.1021356,0.05379406,0.05078029,0.010364002,0.025922019,-0.10049182,0.18043071,0.13025662,-0.06449519,-0.12955293,-0.05993806,0.112078264,0.09689981,0.047824584,-0.04472267,-0.046579275,0.07485587,0.011747222,0.08190116,0.047666527,-0.047116164,0.03561684,-0.02287553,-0.07594982,-0.024759721,-0.015836742,0.06562073,-0.0017981973,-0.12215071,-0.120945394,-0.047586944,-0.03195751,-0.07273436,-0.043966137,-0.022087464,-0.006524944,-0.05884515,-0.06636754,-0.015338089,-0.0003027252,-0.014674027,-0.17841615,-0.07942172,0.05123453,0.0971564,-0.013960003,-0.03836619,-0.009545029,-0.08342773,-0.098734096,-0.15114659,0.15759543,0.09114181,0.070644304,0.058839634,-0.045093853,0.1614364,0.10538025,0.032463077,0.017615844,-0.038769778,0.110678665,0.020361297,-0.06689787,-0.04691604,-0.14465974,-0.083268486,-0.06820443,0.020615924,0.13195929,-0.08822689,-0.14080091,-0.17178836,-0.18307203,-0.16780362,-0.107076734,0.01563916,-0.02348081,-0.09281329,-0.05269952,-0.056658786,-0.010284817,-0.13384765,0.03709392,0.001294283,0.09424368,0.009040851,-0.005102058,0.0011128754,0.089030206,0.008950488,-0.28963602,-0.07838349,0.07327167,0.20461665,0.07574886,-0.26068652,-0.18014649,-0.122297056,-0.06462808,-0.18840982,-0.10577199,-0.13726673,-0.19007453,-0.12798558,-0.091768004,0.039467152,-0.0028769907,-0.10963817,-0.013692288,-0.010175998,0.05735193,0.02585303,0.09184411,-0.047691863,-0.105011515,-0.19962375,-0.17791142,-0.1100299,-0.0923742,-0.107579805,-0.10852433,-0.09505316,-0.18296897,-0.10609165,0.014219001,-0.05308095,0.090683,0.050383296,-0.019571366,-0.0017534618,0.021417992,0.079565614,0.1657826,0.15644279,0.09602028,0.08282942,0.03016684,0.020535832,-0.0006657522,0.0068748426,-0.011762231,0.09610487,0.13216504,0.07148101,0.06716698,0.030488439,0.07518536,0.10983467,0.09952143,0.011331809,-0.031298604,0.0056774192,0.008015038,0.018412126,-0.11940061,0.025936838,0.0007283722,-0.038404707,0.025846161,-0.05213861,-0.10487492,-0.03751801,0.090396255,-0.0032461449,-0.0019126252,-0.1892099,-0.07280937,-0.12781264,-0.0035434759,-0.05281285,-0.0621404,-0.047900837,-0.051369745,0.045053273,0.0029104794,-0.044148535,0.040141046,-0.064831674,-0.051826335,-0.022468543,0.0034548528,-0.045140922,0.08107217,0.03559378,0.023716103,-0.0029370761,-0.0058782045,0.026494777,0.106654204,-0.008774148,-0.02741958,-0.016686164,0.14458972,0.051122338,-0.08188599,-0.01975994,-0.043403856,0.024495218,-0.050849814,-0.016477428,-0.035447605,-0.103982955,-0.10743372,-0.08248891,-0.12841259,0.056652077,-0.043564957,-0.056244336,-0.06448142,-0.1837776,-6.3861e-05,0.013881833,-0.043258842,-0.16498283,-0.13177477,-0.06405268,0.039374672,0.12693168,0.01662811,-0.0063450406,-0.057393502,0.03578564,0.12304184,0.016169837,0.07242788,0.008266194,0.055418488,-0.038582817,-0.0038270366,0.024445584,-0.045641392,-0.018721873,0.022133572,-0.024392448,0.020077938,-0.15318272,-0.1342975,-0.011368622,0.001276082,-0.004865522,0.028545475,-0.1387457,-0.0340088,-0.060293928,-0.06982573,-0.08374334,0.04036698,0.008126224,-0.07015759,-0.12506716,0.03742719,0.04259173,-0.0072243363,0.0011613837,0.03073839,0.052181404,0.07503732,-0.064985044,0.01659305,0.04949404,0.077846125,0.009678474,0.054713774,0.07742241,-0.034842882,-0.02995338,-0.05312101,0.14357226,0.04536017,-0.035331685,-0.013209346,-0.10061278,0.02089682,0.023440406,0.04827006,0.0756648,0.07548254,0.10657954,0.15320298,0.05902898,0.023094753,0.10881747,0.09852253,0.038835965,-0.016725004,0.02058301,-0.012858528,0.13091911,0.05759922,0.040850423