-0.11508156,-0.012481634,0.06398708,-0.2690037,0.21843344,-0.20349301,-0.20521182,0.21212281,0.34173593,-0.16800426,-0.28707862,-0.2578618,-0.07390418,0.17572401,-0.18116786,-0.08237522,0.29118827,0.021575307,-0.31219003,-0.13516828,-0.33668572,0.20045646,-0.1258357,0.4286941,0.26878086,-0.15230124,-0.28021616,0.35765722,0.0871395,-0.25981265,-0.23357534,-0.14045873,-0.1552114,-0.26201564,-0.14333642,-0.097002134,-0.16360487,0.12739137,-0.19271384,-0.25453764,0.30950642,0.31640625,0.18541329,-0.2444843,-0.08380686,-0.29541096,-0.17465153,-0.2596682,0.27793866,0.11375546,-0.056306656,-0.16660741,-0.30465433,0.25842392,-0.25591916,0.28141284,-0.19937275,-0.30564198,-0.10504951,-0.18304387,-0.05658919,-0.08665604,0.31087002,-0.15099032,-0.2209191,0.18075189,-0.30883247,-0.03688572,0.20288628,-0.19915904,-0.3068742,-0.27946353,0.5387463,-0.13701583,-0.09347614,-0.0668306,-0.22703797,-0.07429958,-0.2775925,0.19624491,0.3062191,0.21219316,0.20831715,-0.23860596,0.35482123,-0.0836304,0.30875748,0.23037665,-0.12222353,-0.22732748,-0.09664833,0.21630985,-0.2623857,0.19951569,0.13906324,-0.2435486,0.3135662,0.094467685,-0.21362872,-0.051274832,-0.18710499,-0.014408217,-0.2295668,-0.10168276,0.21526337,-0.3078859,-0.11240475,-0.03470496,0.23879012,-0.29084554,-0.33858246,-0.11509755,-0.033835433,-0.17966376,0.021121198,0.28618786,-0.018248472,0.24201874,-0.110577695,-0.046901572,-0.24396433,-0.28576845,-0.09760918,0.011319217,-0.08439084,0.3207889,-0.14557087,0.184365,0.30891466,-0.11075824,0.16749094,0.1792242,0.32226488,0.213037,-0.051068015,0.32274014,0.30905986,0.25441897,-0.1543597,0.0979988,-0.17833485,-0.09321488,0.2160438,-0.18968019,0.30501875,0.0962,0.09064343,-0.15454955,0.27353254,0.2795666,-0.10375594,0.3018594,-0.1490775,-0.14377742,0.23852763,-0.107932515,-0.14716524,0.23702273,-0.060262576,0.05457299,0.2650508,-0.19103758,-0.3022459,-0.14383034,-0.09993504,-0.082475156,-0.31233576,0.19443087,0.20017582,0.17474812,0.2528375,-0.15702808,-0.21051791,0.08686276,-0.07300687,-0.15970656,-0.312361,-0.12238473,0.1964521,-0.20960905,-0.20601684,-0.033928465,0.24304873,-0.105185896,-0.21658969,0.16892329,0.2549039,-0.13598557,0.27737883,0.20898785,-0.105081394,-0.22558108,-0.1956544,-0.09477977,0.23587637,0.16244511,0.2629513,0.11678576,-0.1492227,-0.116963945,0.45588776,-0.24161561,0.22815956,0.1519451,-0.34832025,-0.043310184,-0.14857836,-0.18731414,-0.23067066,0.13358141,-0.2276307,0.4462185,0.275002,-0.11316369,-0.062164184,-0.04259907,0.21252733,-0.21338116,0.20504953,0.33612812,0.24877505,-0.18644872,-0.01471494,-0.088464476,-0.28362015,0.40025428,0.2435126,-0.05051531,-0.1408065,0.26733303,0.2963842,0.022406656,-0.16278747,0.28636461,-0.080878064,-0.32761514,-0.093380585,0.014822999,-0.18951172,0.111760706,-0.1622586,-0.09152979,0.32740784,0.14433852,-0.44780108,0.2453581,-0.16406241,0.1040477,-0.10499329,-0.059906773,-0.09866422,0.23452967,0.25874987,-0.27516404,-0.17949994,0.29922158,0.17722131,0.06380071,-0.17294484,0.2623616,0.32992563,0.017351354,0.07254938,0.25490248,-0.23846439,-0.13914631,-0.26450133,0.17279588,-0.11669629,0.22558281,0.22165415,0.1861632,-0.009724641,-0.07314368,0.29813868,-0.2180073,0.03163166,-0.15380538,-0.12356139,-0.26689547,-0.018466437,-0.23645493,-0.20430256,-0.03803265,-0.117863625,-0.29330567,0.056162592,-0.12313326,0.31503376,0.28196645,0.27458158,-0.111676596,-0.16379863,0.2988776,-0.02829044,-0.2067104,-0.06707777,-0.25383812,-0.28351694,-0.0489783,-0.18454945,-0.040706158,0.21503061,-0.36646646,-0.16972959,0.25662515,-0.19034794,-0.2674244,0.15387589,0.12151919,0.13812912,0.33115873,-0.03049071,0.023461318,-0.21335787,0.23885612,-0.12657087,-0.21524571,-0.25659752,-0.20371719,-0.44891697,0.2614877,0.030713506,0.35123804,0.3247155,-0.01761045,0.21781835,-0.17581037,-0.28165376,-0.37501428,0.3419631,-0.27578962,-0.19337247,0.30011892,0.35167006,-0.349649,-0.14247479,0.17014772,0.1483953,0.21883011,0.32101688,0.052191433,0.2582496,-0.23883761,0.11860699,-0.3438188,-0.11407267,-0.3573671,-0.22957483,0.08987053,0.22741522,0.25545847,-0.20721418,0.33075315,0.05837105,-0.258721,0.24736314,-0.16554363,-0.3114464,-0.2872475,-0.33924085,-0.1749525,-0.2786562,-0.17278387,0.39222112,-0.11840769,-0.20675325,0.20402053,-0.09878876,-0.14608115,0.21692352,-0.13264747,-0.13007118,-0.15997343,-0.052797552,0.044740118,-0.037567154,0.28563467,-0.039581496,0.23270915,-0.015636472,0.22660778,0.31073433,-0.114352845,-0.1297664,0.23074858,0.1232226,-0.25047922,-0.2591066,-0.18626542,-0.14877489,0.27682123,0.07838972,-0.14132501,-0.14007606,0.25642183,0.102100715,0.27385414,0.20365107,-0.1757631,0.08030093,-0.09992476,-0.11151085,-0.2576582,0.30086848,0.33190534,0.076166384,-0.14751713,0.24675064,0.25788885,0.16096231,0.0033456276,0.15670778,-0.10664071,-0.033143677,0.020126658,-0.034840085,-0.2167766,-0.22409385,-0.07777237,0.22960226,0.15682921,-0.044010196,-0.09841796,-0.0765329,-0.1354102,0.2898241,0.2558766,0.29751098,0.26046816,0.040417366,0.14365782,-0.16464588,-0.02819081,0.033313386,0.2359157,-0.042932644,-0.14804012,0.26520777,-0.04958279,0.09911035,-0.22368847,-0.11675275,0.20302498,0.27159598,-0.19114049,-0.10930995,-0.23409656,-0.11259083,0.25658774,0.37716654,-0.06496652,0.20617181,0.22501041,0.01657195,0.042303912,0.1726028,0.20707749,-0.12125489,0.28962758,0.06806559,0.033396922,-0.21603443,0.28183213,0.2979701,-0.1299028,0.2195473,-0.16116609,-0.05828099,0.29389435,0.2190143,0.20587137,-0.025121791,0.016339496,-0.18164052,-0.043980066,-0.1154579,-0.027689485,0.269814,0.27099136,-0.14962849,-0.24350637,-0.18950453,-0.20245305,-0.00026588683,-0.19487984,-0.22048058,-0.2921531,0.008616857,-0.2174435,-0.09903471,-0.12182635,-0.16431846,0.20892797,-0.33771986,0.26050234,-0.24322252,0.23630683,-0.15781966,-0.22229631