0.035494056,-0.069252156,-0.09564495,-0.034955524,-0.16989407,-0.23153998,-0.29882085,-0.27532423,-0.124303654,-0.10586068,-0.33838055,-0.08471017,-0.014769068,-0.027940203,0.09666838,-0.15392761,0.026796686,0.01615677,0.08266274,0.19314656,-0.011753062,0.07066698,0.17640488,0.08942615,0.17299795,0.100148514,-0.14539662,-0.32423782,-0.09003823,0.032952797,0.088953145,-0.18406919,-0.1794186,0.14981297,0.15347622,-0.07679432,0.0076440405,0.19984952,0.28950295,-0.041598782,-0.03615081,0.028826397,0.20368713,-0.031130906,-0.002545561,0.10821259,0.042830132,-0.04446216,-0.16958942,-0.13233614,0.055473752,-0.099030085,0.047135644,0.047569126,0.15594266,-0.21690063,-0.08666988,-0.15855542,0.010414064,0.15465108,-0.30731395,-0.14334077,0.18778679,0.17649306,0.04710042,-0.41978687,0.023391547,0.08333142,0.27746877,-0.06267639,0.012930364,-0.07867437,-0.039952286,0.21677291,-0.17260711,0.071208626,-0.1756744,-0.30377293,-0.23859231,-0.28811106,0.12537831,0.30392158,-0.030663459,-0.13064526,-0.36847487,-0.25200573,0.24659753,0.062347,-0.095231414,0.20079257,-0.053677917,0.21131425,0.33686915,-0.2369297,0.22221208,-0.14739403,0.052339736,0.24565358,0.09944597,0.0806052,-0.012323096,0.20565279,0.16482984,0.035368387,0.033667136,-0.09720913,0.081595704,0.13720685,0.19459951,0.21935196,-0.36617118,0.26753452,0.037643466,0.22118342,0.14292774,-0.52306455,-0.1602633,0.088305965,-0.039720267,-0.12677962,-0.2609955,-0.4718512,-0.5942813,-0.5002724,-0.42092133,0.1766445,0.06989048,0.020479597,-0.32887876,-0.21296808,-0.11478819,-0.006861748,0.31505594,0.11379214,-0.27992347,-0.012067748,-0.1913514,0.36669713,0.29794037,-0.20036548,-0.12937003,-0.27010414,0.10785291,0.24890192,0.10409027,-0.11966817,-0.08164005,-0.01734941,0.014404794,0.231731,0.0830274,-0.3775219,-0.23354988,-0.075198576,0.14197241,0.24636914,-0.25551805,-0.25295517,-0.10291741,0.1025834,-0.16320407,-0.19561368,-0.22931044,0.17515984,0.23742996,0.096032426,-0.1970544,-0.20455731,-0.08645913,0.0469552,-0.11231484,-0.07573393,-0.19452561,-0.119007446,0.34404218,-0.1008879,0.10715217,-0.0052543133,-0.09317603,-0.15532747,-0.22534104,-0.16217677,0.181487,0.0048311297,0.059501715,-0.29321238,-0.0848229,0.2114762,0.23203981,0.17425399,-0.21203758,-0.3465715,-0.25403735,0.107643895,0.12151171,0.3855162,-0.22421527,-0.15725194,-0.3790266,-0.24838865,-0.13970123,0.119886234,0.14188644,0.00046396503,-0.17920537,-0.22836734,-0.22808613,0.019063268,0.08921524,-0.065141305,-0.0959105,-0.07429638,0.251416,0.111395136,-0.15506294,0.24604423,0.14589162,-0.025849,-0.22201148,-0.21817829,0.33895192,0.05773801,-0.23332128,-0.16523215,-0.014966706,-0.1626713,0.11157296,-0.089380205,-0.5034041,-0.45172518,-0.10630326,-0.1728259,-0.098222375,0.016241075,0.16929165,0.07314147,0.27192003,0.56072366,0.5831576,0.21258038,0.1326812,-0.236296,-0.16509289,0.09147279,0.10838307,-0.14429088,-0.040938456,-0.42090085,-0.47626564,0.024986777