-0.09075249,-0.076245554,-0.027979188,-0.08604234,0.103581734,-0.20193271,0.019752346,-0.21703936,-0.14466514,0.037435334,-0.266489,0.09613211,-0.23799284,-0.11984886,-0.011601556,-0.032112367,-0.16111615,0.02922955,-0.2525869,-0.22182596,0.43119887,0.29928064,-0.01150911,-0.089794815,-0.044990912,-0.033105638,0.067216955,0.35249752,0.24402961,-0.082849205,0.08780504,-0.11079797,0.07240034,0.19671842,0.17024931,-0.33984637,-0.34570408,-0.19063933,0.18915783,0.40090173,-0.19344589,-0.25317284,-0.35660985,-0.29832703,0.09641954,-0.06984699,0.0009058997,-0.09258098,-0.34269255,-0.28296494,-0.05416395,0.044491857,-0.0024176626,0.090732925,-0.0867842,-0.048256442,-0.18288343,-0.07545482,-0.19377275,-0.31727457,-0.07703044,-0.09577617,-0.02315724,-0.2728452,-0.21421891,0.05636013,-0.06959684,-0.050626323,-0.032840353,0.2622985,0.20244394,0.1067779,-0.09259152,0.2544281,0.25487816,0.032964624,0.010832526,-0.07491884,0.08944169,-0.18014523,0.0078001684,-0.09007871,-0.061040618,-0.21038987,-0.21217908,0.21163364,0.06109104,-0.20891123,-0.2001826,-0.2173902,0.18071304,0.30319154,-0.04247192,-0.20932493,-0.22482705,-0.10411274,0.465093,0.007640239,-0.08428554,-0.19036627,-0.017727058,0.23967507,0.40755105,0.43169945,0.29641753,-0.31703517,0.015735164,0.06018217,-0.12980367,-0.4088867,-0.26037344,-0.3007473,-0.35579762,-0.20778686,-0.38672617,-0.11578907,-0.029024264,-0.3160608,-0.30286565,-0.12381844,-0.16818988,-0.1313271,-0.20311314,0.18994898,0.019357484,-0.33418542,-0.14254157,-0.21549284,-0.21915804,-0.12436546,-0.26457164,-0.29012403,-0.25201228,-0.26488212,-0.3272428,0.09400604,0.01267514,0.015574468,0.071207255,0.07995699,0.14724952,0.022281742,0.16549401,0.18119515,0.15769553,-0.2735195,0.11463968,0.06493557,-0.035966475,0.046551485,0.16149928,-0.022365794,0.03557984,0.3012357,-0.043076053,-0.1875933,-0.19906572,-0.060721967,-0.0017327694,0.1083407,-0.226091,-0.11041067,-0.11664272,0.15425287,0.13563,-0.23779966,-0.053567577,0.09836836,0.041747242,0.16872871,-0.24765149,-0.06429725,-0.028851034,0.253466,-0.007360187,-0.114369065,-0.32695636,-0.23506196,-0.06138542,0.05194795,-0.06824804,-0.13388377,-0.18069771,-0.047659315,0.0836999,-0.041676,-0.28734672,-0.07869916,-0.090820454,0.18465102,-0.055007566,-0.22045195,-0.08543133,-0.14305991,0.25691327,-0.07645747,-0.19248034,-0.2913068,-0.19534405,0.38504514,0.061323255,0.14592688,-0.49708065,-0.23694311,0.2824659,0.118331194,0.32557157,-0.13857724,-0.56864285,-0.04867333,-0.3322839,-0.09283183,0.054851633,0.092596285,0.053504493,-0.13420585,0.25325254,0.3182522,0.20887923,-0.09793358,0.30842444,-0.09629069,-0.061556432,-0.06454504,0.10563624,-0.13730049,0.043761037,0.19029602,0.15072726,0.007863635,-0.10388087,0.23541069,0.27239996,-0.2179176,-0.2205178,0.15173285,0.26187098,-0.08673979,-0.027386948,-0.22025682,0.04839668,0.03674104,-0.15672873,-0.12522505,-0.30549014,-0.026232127,-0.13285989,-0.1029905,-0.103330664,-0.15453745