-0.0077102017,0.016141761,0.12142704,-0.010974372,-0.12888816,-0.027595727,0.0286755,-0.062908314,0.019884307,0.011261547,-0.00071075425,-0.034580834,-0.050158378,0.050752338,-0.10302957,-0.07410868,0.035474095,0.004349721,0.02276685,-0.029135961,-0.049839623,-0.034274805,-0.042853862,0.025851324,0.084352784,-0.20525984,-0.22678226,-0.1747882,-0.013025528,0.08171952,-0.23911035,-0.20645146,-0.079461046,-0.19660892,-0.14412424,-0.2183623,-0.236154,-0.101630874,-0.1872416,-0.2499078,-0.202601,-0.21233624,-0.14903063,-0.114802755,-0.21604104,-0.26043844,-0.12858644,-0.30073082,-0.23714621,-0.16894644,-0.041963447,0.024153851,0.10507061,-0.021748446,-0.11917792,0.014010134,0.077480845,-0.059188087,-0.024566302,-0.054776866,0.061724093,-0.022241501,-0.1185408,-0.06390996,-0.012787092,-0.005632118,-0.11952502,-0.054154772,-0.0063582654,-0.052269265,-0.10372653,-0.04990558,-0.055410706,0.088311,0.107202135,-0.118690014,-0.044787344,0.1252286,-0.015580282,0.02214462,-0.042122114,-0.010115373,0.12301875,0.05507049,0.0036486797,-0.011318382,0.044102382,0.016144525,0.112178504,-0.05188588,-0.12800165,-0.07175489,0.10905394,0.040094797,-0.11050142,0.025562938,-0.13140266,0.018033663,-0.025576506,-0.04105482,0.015110604,-0.0812707,-0.030510545,0.014323342,0.054484088,-0.18054903,-0.08827732,-0.066994466,-0.047674432,0.00614625,-0.12447974,-0.0873449,-0.028058514,0.007542118,-0.081886604,-0.11701174,-0.07590559,-0.013680281,-0.06591431,-0.06462613,-0.01563315,-0.09208259,-0.032623585,-0.09729568,-0.10308779,-0.18356727,-0.05683599,0.016056316,0.015060823,-0.20920916,-0.15471193,0.0653152,0.0589461,-0.1347645,-0.19208832,-0.036891136,0.017291062,-0.044214204,-0.141976,-0.08108881,0.075798355,0.044735834,-0.21762396,-0.13709147,0.0045571695,0.03583042,-0.15475678,-0.15051354,-0.053840537,0.07805498,-0.017609095,0.027898833,0.054815773,0.09617932,0.18506595,-0.04650999,0.013299021,0.10860351,0.011391159,0.03416904,0.096687846,0.074994296,0.043643236,-0.08336322,-0.0414556,0.096194565,0.06387029,-0.09160348,-0.10851358,-0.094604,0.0025400564,0.018842429,-0.1757648,-0.017782977,-0.0007453388,0.19646327,0.15363379,0.12496365,0.15123712,0.078888014,0.2061802,0.1335903,0.03432134,0.11852347,0.106312454,0.18137202,0.10099024,-0.037641894,0.032209475,-0.040064458,0.07282304,0.09031606,-0.0089993635,0.044386357,-0.0021573794,0.17369358,-0.00066802214,-0.08192216,-0.106594466,-0.046126973,-0.30772647,-0.118228525,-0.16246055,0.0019199143,-0.19928001,-0.16536538,-0.11958087,-0.11801157,-0.061523587,-0.20002273,-0.17496622,-0.053871293,0.0018699897,-0.114674464,-0.13925406,0.039862648,-0.010780203,-0.04368623,-0.02148083,-0.11826085,-0.032468114,-0.13946277,-0.02630399,0.1670202,0.022036223,-0.093410276,-0.08247856,-0.067705065,-0.062083583,0.09940013,-0.19850351,-0.03382854,0.003465623,0.07739491,0.11439119,-0.2059735,0.048941113,-0.018812262,0.02500599,-0.01578534,-0.06880256,0.0030180095,0.039192222,-0.028401779,-0.24603313,0.07245151,-0.020477194,-0.029436475,-0.17176631,-0.23372242,0.030165901,0.003251923,0.052044246,0.11585013,-0.038120203,0.020576913,-0.051619306,0.037528653,-0.023111476,0.01621836,0.005030522,-0.00018793382,-0.011180928,-0.071285725,-0.036455683,-0.041180614,0.0052638478,-0.027956972,0.019472478,-0.078558885,-0.03875266,-0.015976643,0.029660292,0.06273997,0.05494911,-0.09802337,0.019024076,0.15615048,-0.020664526,-0.2128067,-0.16618569,-0.045438763,0.060256008,-0.018453052,-0.15690266,-0.16584939,-0.12583996,-0.14252979,-0.04322982,-0.039240163,-0.14257868,-0.17371565,-0.2256804,-0.019572597,0.007797194,-0.18026884,-0.007236576,-0.09205423,-0.21119753,-0.22980992,-0.059363287,-0.11037445,-0.03934414,0.031305656,-0.030235874,0.03560884,-0.033558268,0.009085475,-0.05380008,-0.010640614,0.014359821,0.029332085,-0.04806092,-0.09872284,-0.008837098,0.027590208,-0.08792675,-0.064868964,-0.14492333,-0.025597297,-0.0902592,-0.09306654,-0.06653982,-0.008482846,0.03927322,-0.05198054,-0.14301874,-0.047267146,0.052553993,-0.035048578,-0.026085768,-0.09949214,0.022802861,0.0688799,0.06941319,-0.006998039,-0.06640152,0.12643544,0.016212923,-0.0016938449,-0.10337135,0.027075788,-0.028580196,-0.008957838,-0.04042541,-0.017959664,0.03697376,0.03125981,0.084939554,0.05514133,-0.0018599464,0.04645981,-0.027419576,-0.10038881,-0.121351846,-0.014371271,-0.097569436,-0.09368991,-0.1302512,-0.10168615,-0.008777011,-0.061238278,0.039860502,0.0047883173,-0.13961546,-0.08428914,-0.07530648,-0.105367765,-0.099094726,-0.17029673,-0.0050803875,-0.032239392,-0.10737423,-0.16131958,-0.108234644,-0.12003529,-0.09288248,-0.22501265,-0.0068296865,-0.049684852,-0.09985149,-0.081093766,0.011542462,0.05242736,-0.07268503,-0.075159416,0.047436573,0.042233687,-0.068839915,-0.09884743,-0.038272146,0.1216056,-0.05771013,-0.26563752,-0.22780979,-0.13632216,-0.13687038,-0.19240434,-0.121982455,-0.061537266,-0.044316117,0.044184953,-0.01183647,-0.1670201,-0.021026928,-0.11556385,0.14124176,0.1271554,0.045707356,-0.053723533,0.016174499,0.1019696,0.076200664,-0.011047664,-0.13214532,0.113470994,0.050763298,-0.0061369147,-0.0126190465,-0.031388443,0.0719223,0.033014387,0.079151146,-0.05559028,0.027743649,0.05392009,0.13128558,-0.07131758,0.051507805,0.09900996,0.080944315,0.019577809,0.08435293,-0.04329519,0.015939096,0.17076875,0.14348452,0.1143973,0.008939605,-0.032269284,0.22519302,0.07382334,0.12969266,-0.0016301547,0.09931148,0.011674451,0.15811853,0.08745848,-0.00885283,0.015366578,-0.15782413,-0.15529282,-0.055155087,-0.043009195,-0.0683796,-0.13950813,-0.16486913,-0.04546122,0.004615318,-0.05141503,-0.06305168,-0.04592155,0.025917327,-0.07763064,-0.042058885,-0.043669276,-0.08233843,-0.08550364,-0.07000407,-0.060161322,-0.050264146,-0.17430958,-0.10286432,0.12137256,0.120182335,-0.09902533,-0.16355307,-0.102763586,-0.022312645,0.05695366,-0.036914643,-0.1300576,-0.06855128,0.0074310848,0.06831075,-0.11814734,-0.053071916,0.15854378,0.04807332,-0.05831204,-0.17379916,0.10139131,0.060061097,0.057682224,-0.18023257,-0.007558997,0.007071493,-0.08498684,-0.11655452,-0.11134838,0.05632865,-0.03054035,-0.14276865,-0.06143506,-0.09574797,-0.0466004,0.07552585,-0.03104385,-0.068238795,0.046741184,-0.1305807,-0.06721067,0.022589628,-0.055157974,0.017293878,0.008777517,-0.00094060495,0.11080422,0.090316884,-0.08721035,0.06989666,0.015342237,0.017167876,0.0027249597,0.031519603,0.08715404,-0.03604417,-0.079672255,-0.17901736,-0.23501226,-0.0718419,-0.03799088,-0.14223187,-0.06182234,0.059357844,0.21379903,0.0066757696,-0.0726924,0.08013606,0.17360328,0.044930067,0.13790095,0.17583069,0.11728807,0.022761112,-0.053584784,-0.05555516,-0.011031405,-0.12087343,-0.1479196,0.10075946,0.0032762876,-0.06547704,0.06761977,0.0127916895,0.048431493,-0.022997841,0.0135717215,0.05457075,0.08544808,0.07803704,0.039982498,0.026245952,0.025595177,0.0041125757,0.009297262,-0.016914245,-0.026141262,0.027623806,-0.054692317,-0.017207881,0.092383906,0.063008614,0.18502232,0.09370683,-0.092725195,-0.08702492,0.0065988014,-0.000136507,0.08044685,-0.12076665,0.020745594,0.08578929,0.034661897,-0.021620864,-0.21976492,-0.021370903,0.03989155,0.0020402581,-0.012029388,-0.04967758,0.061481986,-0.12960151,-0.18047212,-0.2333795,-0.06404995,0.14072438,0.19287886,0.01643662,-0.21746199,0.04370334,-0.03327533,-0.09416351,-0.09890577,-0.06556144,-0.053117465,-0.07201463,-0.1594341,-0.076574326,-0.090442866,0.07687222,0.14311545,0.053616382,0.077761,0.16907874,0.04262285,0.068926334,-0.024874276,0.16239253,0.2343434,0.059012786,0.094162956,0.14519787,0.1635869,0.102581955,-0.032917265,-0.05963603,-0.03050458,0.014266315,-0.048321176,-0.011729336,-0.038048755,-0.10851181,-0.0856646,0.031427484,-0.026907997,0.10871815,0.059534073,0.07331457,0.086422324,0.033255972,-0.084611244,0.02756957,-0.029433046,-0.032272637,0.18483588,0.061566442,0.16328317,0.14832795,0.17097363,-0.105932355,0.089001745,0.034447335,0.0801704,-0.22742051,-0.09870349,0.08066141,0.07072627,-0.027098423,-0.1767349,-0.1877478,-0.038618498,0.020409117,0.03265893,0.00086728524,-0.24329811,-0.11314912,-0.13112335,-0.1485613,-0.10851292,-0.24738751,-0.17142269,-0.13877602,-0.15987088,-0.1495053,0.089190796,0.021113973,0.06677724,-0.021638805,-0.19487275,0.03104551,0.02910232,0.15423144,0.16971442,-0.058969878,-0.08365521,-0.08010879,0.12597233,0.05733716,-0.038089205,-0.12996295,-0.13149202,0.013107294,-0.04792211,-0.19706568,-0.21289285,0.0041255252,-0.026370304,-0.03515616,-0.1892141,-0.06409281,-0.018937638,-0.024089416,-0.048521016,-0.008627099,0.031088473,-0.01702598,-0.0037465445,-0.057549242,0.12977819,0.036171548,-0.025343137,-0.07877687,-0.13959108,0.101065814,-0.023819035,-0.11471202,-0.14614789,-0.19143254,-0.093714185,0.03189932,-0.03027955,-0.112522736,-0.045181815,-0.0928224,0.022954723,-0.118953034,0.108397104,0.13640152,0.14864288,-0.081187405,0.1987297,0.18157679,0.101188734,0.02749769,-0.090216905,0.027532673,0.019751934,0.0117027825,-0.051726855,-0.093261294,-0.13631335,-0.048952382,-0.103765756,-0.069406755,-0.19750577,-0.12930107,-0.093545586,-0.088595904,-0.04957875,-0.045331396,-0.18921255,-0.022738975,-0.11103454,0.03691044,0.03966682,0.015993938,0.062678516,0.10036076,0.13261895,-0.0031719662,0.057290148,-0.025221827,0.067668535,0.020300511,0.023195412,0.009955548,-0.017656168,-0.029821435,-0.062949665,0.02744031,-0.09446121,-0.0027632453,-0.0010296882,-0.038629666,-0.1516459,-0.25455338,-0.03241057,0.13482678,-0.04071004,-0.21906102,-0.10784496,0.073247835,-0.013250911,-0.065826274,-0.03631681,-0.08770589,-0.00085108244,-0.017779645,-0.058639977,0.08375521,-0.18912497,0.039033893,0.006696239,-0.08262482,0.093932845,0.17172396,0.06898937,-0.10253072,-0.14467134,0.051621273,0.014947284,-0.040000834,-0.054228343,-0.12735756,0.15185204,-0.009318794,0.056459893,0.050595917,0.06005191,0.028504368,0.17978321,-0.014027736,0.00941971,0.0019184867,0.01502621,0.10505097,0.16516295,0.06352568,-0.031030564,-0.08739129,-0.10416713,-0.103711165,-0.09732263,-0.10976345,-0.040370435,-0.2180442,-0.1043688,0.0070112855,0.08476833,0.059569485,-0.10555909,-0.16493358,-0.031266846,0.17844252,-0.014839207,-0.017786805,-0.21012968,-0.07061357,0.16104779,-0.060797308,0.027475715,-0.12318488,-0.12011864,-0.12198043,-0.0268537,-0.028328992,-0.23564397,-0.19275147,-0.06641332,-0.1026939,-0.07129023,-0.05201075,-0.081675,0.0673069,-0.08857934,-0.04026592,-0.034286287,0.0042143674,-0.036377445,-0.17100279,-0.057637777,-0.06930796,0.07541378,0.03085983,0.002631612,0.08925037,0.20897949,0.09571493,0.0033937446,0.02847009,0.13726924,0.0983086,-0.0059556705,0.08724343,0.021504855,0.021981189,0.07642576,0.05580379,-0.075477496,0.08535102,-0.060403846,-0.14946252,-0.11976574,-0.11335504,-0.09658305,-0.07567109,0.1403893,0.109000154,0.123084426,-0.056279205,0.06926736,0.08217075,-0.015334552,-0.031440787,-0.116584994,-0.14909792,-0.02664111,-0.025547488,-0.08526181,0.042147793,-0.06791976,-0.14461748,-0.024977539,-0.094916195,0.12923016,-0.075375326,-0.040413637,0.019223854,-0.040302195,0.06384531,-0.09694475,-0.09061385,-0.051285166,-0.017374834,0.052982856,-0.03906053,-0.051234845,-0.047593467,-0.047640186,-0.010061295,-0.16874711,-0.031081889,0.044057105,-0.03274535,0.019291008,-0.106236294,-0.22247176,-0.067691386,-0.10142501,0.05535368,-0.14710918,-0.19402847,-0.031676922,-0.09075561,0.0036744266,-0.040543098,-0.08196586,-0.056056913,-0.031499397,0.021605812,-0.1789782,-0.20435832,-0.21660851,-0.09699925,0.006618883,-0.015795572,-0.017730504,-0.04771581,-0.0073303203,-0.057724424,0.07363051,0.06118711,-0.14254725,-0.12930754,-0.0363966,-0.06984024,-0.046817888,0.20143509,-0.03854791,-0.018157633,0.07700964,0.16281547,-0.025617717,-0.024060497,0.02785818,0.11874587,0.031764455,-0.018383779,0.036306314,-0.091159165,-0.1838514,-0.2400859,-0.11924331,-0.1673002,0.13470478,0.096263625,0.0025683392,-0.007625164,-0.05157838,0.037617106,0.07318627,-0.054243706,-0.20503429,0.02328555,-0.03424506,0.023327183,-0.12977892,0.15087694,0.11533416,-0.046729777,0.017430762,0.08493253,0.0099957725,0.06354526,-0.050921895,-0.010530596,-0.0058659334,0.04893363,0.1559341,-0.12786746,-0.007808862,0.031029874,0.09715458,-0.02181334,-0.048464637,0.07916237,0.042627346,0.025986318,0.088068075,-0.09744853,0.019098788,-0.05196213,-0.058445804,-0.10520904,-0.028950749,-0.063656025,-0.0666719,-0.05094583,-0.0013708005,-0.096516505,-0.086148426,0.0606363,0.015751502,0.007378073,0.0017074167,0.059090424,0.051928684,-0.015118744,0.028004028,0.06203336,-0.071485445,-0.05409688,0.0457795,0.10268366,-0.113378696,-0.083571866,-0.06789626,0.03294177,0.18640597,-0.20006745,0.007899921,-0.10799581,-0.011495808,0.081393085,0.10431639,0.01620681,-0.08715358,-0.11362563,0.09759091,0.030309848,0.021920592,0.05872292,0.0047780587,-0.034938823,-0.061085008,-0.16359544,-0.026529865,-0.12123515,-0.07197881,0.033165224,0.03368111,-0.06897848,-0.08696163,-0.016284993,0.06088937,-0.12411294,-0.09783219,-0.13496403,-0.09221681,-0.03161929,-0.0124542555,0.0042161862,-0.04700172,-0.11114348,-0.02759922,0.15120038,0.17552194,-0.05179943,-0.116262846,-0.040784765,0.026312489,0.07539057,0.0078628035,0.00024224189,-0.16856,-0.07389109,0.06765022,0.07840716,0.072911315,-0.055977665,-0.11460349,-0.00350119,0.022647835,-0.043517813,-0.08868837,-0.11354688,-0.021465577,0.046730395,0.018074216,0.04911489,0.05867014,-0.034872808,-0.1321746,-0.12473588,-0.14860032,-0.034087807,-0.13424043,-0.07676242,-0.12840359,-0.07069097,-0.096838556,-0.10487703,-0.0818005,0.013374181,-0.01965664,-0.0048784497,-0.058230694,-0.16420929,-0.07731606,0.073657386,-0.012274481,-0.043756362,-0.10469463,-0.011254966,0.1303864,0.2135699,0.25410545,0.063526556,0.078083016,-0.04302289,-0.06183947,-0.109809555,-0.10579074,-0.10974083,-0.1479176,-0.10551043,-0.19988772,-0.23052871,-0.1186681,-0.008108374,-0.14417708,-0.22224213,-0.10391248,-0.12580252,-0.06734941,-0.10000579,-0.17997286,-0.15151252,-0.14596257,-0.18025434,-0.03966824,-0.18397957,-0.15744326,-0.069500364,0.023282563,0.107550114,0.033458322,-0.08211587,0.02971274,0.052111473,0.14940803,0.031672943,-0.06361831,0.2982069,-0.25117144,-0.1101169,-0.047645178,0.057892952,0.22927073,-0.16878788,-0.011287729,0.030166605,0.08938174,0.20882307,-0.18468693,-0.09829586,-0.08425107,-0.1253655,0.014206013,0.03396726,0.020418948,-0.05524986,-0.12679607,-0.06992338,-0.044047777,0.01741937,-0.15765755,-0.114260934,0.11207363,-0.13832247,-0.20750123,-0.10736774,-0.022429047,0.18352292,-0.15673938,-0.08037301,0.019599805,0.04446686,0.18738958,0.016638914,0.016931986,0.040210843,-0.008107242,0.11897106,-0.004971773,0.031701017,0.021386134,0.104917675,0.08333393,0.14983433,0.06574599,0.0046596145,-0.0821741,0.053932484,0.23634379,0.02120084,-0.059475597,-0.045743857,0.037328403,-0.06614136,-0.18712981,-0.0422912,-0.0965999,-0.15738901,0.011535382,-0.1084143,-0.22314408,-0.3431474,-0.2395934,-0.045862798,-0.091138214,-0.1446892,-0.098337635,-0.22027935,-0.03275877,0.0060887737,0.050523806,0.19487709,-0.15180452,-0.007964625,0.12178248,0.11688712,0.08827816,-0.09809453,0.06895646,0.055787828,0.078170836,-0.06918375,0.09255913,-0.09445004,0.041418597,0.07182421,0.17953989,0.14231122,-0.018984614,-0.030375736,0.14061163,0.093761936,0.08042083,-0.13022962,0.0025778448,-0.021380125,0.098353505,0.04282834,-0.104567595,0.03152451,0.0062234616,0.024206746,0.011131563,-0.015648758,0.018289797,-0.035299186,-0.07147926,-0.036667205,-0.111435264,-0.11332549,0.06596537,0.009834049,-0.01389859,-0.24055271,-0.10056112,0.19459456,0.20276369,0.19889306,-0.13074544,0.02456454,0.27870718,0.1717132,-0.0017263524,-0.028639022,0.12439973,-0.042078122,-0.10309578,-0.27661678,-0.25872603,-0.091971524,-0.06678745,0.03389743,-0.00647252,-0.010754757,-0.09214296,-0.027321845,0.09097389,0.16165613,0.024674289,0.017896878,0.13019802,0.13774946,0.058855668,0.09339509,0.10189077,0.016468076,0.0081125405,0.049164057,-0.02276631,-0.06265348,0.047192425,0.08377393,0.091268726,-0.070163265,0.0773115,-0.042316914,0.059143204,-0.004825679,-0.05890282,0.04429904,0.0975306,-0.027126886,-0.10919858,-0.14417255,-0.0547276,0.07017661,0.0960089,-0.04357495,-0.24257974,-0.096766114,0.07316493,0.022846758,-0.06165036,0.09731444,-0.08877825,-0.06193984,0.025632773,-0.16285892,0.047777034,0.042286057,0.07655404,0.06851021,-0.1294568,0.028140875,-0.061296657,-0.13384117,-0.04472583,-0.022737134,-0.045905728,-0.05697213,-0.04148207,0.054225124,0.15270582,0.0067910245,0.0565269,0.089730054,0.21254253,0.20447189,0.0974539,0.21706893,0.27387473,0.043766398,-0.013306576,0.015936578,0.04830434,0.06395516,0.174593,0.15849827,-0.044547856,-0.06432366,-0.21817781,-0.10925277,0.05952122,-0.15281996,0.024176419,0.10292598,0.17604944,0.122360274,0.0186559,0.15962696,0.11310869,-0.014671747,-0.09602989,0.009814587,-0.020958003,0.028416317,0.091557026,0.048077177,-0.066044666,-0.11262858,-0.047678497,0.061974008,-0.018680127,0.0017721014,-0.11065071,-0.06501465,-0.11071561,-0.059394427,-0.081295446,-0.12710394,-0.061709456,-0.10221332,-0.032444086,-0.12475453,-0.26658392,-0.15544008,-0.11581627,0.02267405,-0.0867892,-0.19769596,-0.033021938,-0.0103887925,-0.017185614,-0.2230125,-0.05708054,-0.03608321,-0.019717135,-0.1609426,-0.037935562,0.0064296895,0.06845959,0.07656091,0.104186125,-0.037783176,-0.03933104,-0.058504045,-0.076334715,-0.0662099,-0.14528997,-0.2423048,-0.16826594,-0.09569347,-0.0030234333,-0.2212308,-0.12623446,-0.038849484,0.005293151,0.017882915,-0.16111088,-0.045311887,0.030945012,0.07290768,-0.15595867,0.043365132,-0.009499201,-0.04416777,-0.023633976,-0.026792487,0.042943865,0.13275935,0.09553928,0.062119104,-0.011929782,0.09953849,0.08860056,-0.015888508,-0.067133404,-0.09967134,-0.094052084,-0.08609631,0.05588783,-0.012597021,-0.03141959,0.068947665,0.023572883,-0.029245751,-0.07385065,-0.054661114,0.03109714,0.030900318,0.013328512,-0.11025443,-0.094515435,-0.03359636,-0.14449707,-0.10990898,-0.14068167,-0.10303718,-0.0070139463,-0.007712037,-0.07924423,-0.0353704,-0.08208223,0.18692999,0.094386674,-0.054875497,0.06050263,0.0841973,-0.008130714,-0.1385797,-0.031326704,0.042364217,-0.030236246,0.027716879,0.06178658,-0.03459004,0.022766268,-0.039378062,-0.024644436,-0.021950208,-0.10214819,-0.006393849,-0.10949533,-0.041903064,0.009391043,-0.05032172,-0.06368043,-0.075381055,0.038183343,-0.022833128,0.0038234873,-0.06896738,0.0036685087,0.018626172,0.029000826,-0.02913391,0.016570779,0.03963903,-0.2585904,-0.22381893,-0.1008935,-0.0007748173,0.009997977,-0.17178474,-0.073491454,0.09229305,-0.029856326,0.003988973,-0.04737212,0.16338086,0.11774065,-0.13574123,-0.063851416,-0.31477332,-0.12931518,-0.053753957,-0.1800065,-0.07943189,-0.13944799,-0.11325436,-0.13585256,-0.14487244,-0.08275154,0.09723501,0.09077508,0.08765984,-0.12983987,-0.080937095,0.020997971,-0.006211595,0.024578683,-0.07710471,-0.10440168,-0.033386156,-0.15103492,-0.017244091,-0.027780462,0.03334212,-0.12247931,0.040514044,-0.024793962,0.03779857,0.020519713,-0.04085174,0.003483924,-0.090366594,0.061618548,-0.022816913,-0.05611948,-0.06968614,0.047130954,0.14272788,0.22142433,-0.1350735,0.019643096,-0.028000887,0.077153966,0.0935766,0.050036445,-0.056565538,-0.17768055,-0.108650014,-0.1612169,0.098589264,0.023319533,-0.078188546,-0.11340693,-0.1492634,0.036818426,0.032498535,-0.040716145,-0.12546003,-0.05135243,-0.17708348,0.006345653,0.06496831,-0.01919266,0.0077736615,-0.08365884,0.014986244,0.11480581,-0.010147833,-0.08178286,0.078125454,0.17957105,0.24758217,0.044436533,-0.08431668,-0.06300673,0.07639584,0.12536526,-0.16024047,-0.06746527,-0.19166547,-0.034031883,-0.016543716,-0.028572557,0.021302823,-0.073668115,0.09093336,0.10632568,0.100695625,-0.029234981,0.09009736,0.081201315,0.053600173,-0.11265976,-0.09972946,-0.037352774,-0.025196372,-0.030923804,-0.11343454,-0.018790768,-0.042214762,-0.023580048,-0.07412668,0.0045633246,0.00998029,-0.09809975,-0.028851323,0.026070213,-0.038511585,0.021788605,-0.073691376,0.1898954,0.24338223,0.15355948,-0.07558874,-0.03163691,0.19542618,0.1514696,-0.02894666,-0.05666757,0.006750075,0.014260613,-0.16015264,-0.22602409,0.010013397,-0.02943013,-0.15413004,-0.19587797,-0.14518474,-0.123902276,-0.01973311,-0.22412534,-0.116742685,0.012681115,-0.15428434,0.06529927,0.10311409,0.12380585,0.0015486138,-0.046046242,0.22048783,0.07785561,0.050662816,-0.10400665,0.044972304,0.14355052,-0.052587222,-0.12545237,-0.11590341,-0.017698256,-0.0029079062,-0.03060367,-0.04797729,-0.09032708,-0.014484391,-0.07720127,-0.052784868,0.0057628592,-0.031413183,-0.10351222,-0.055190332,-0.034165934,0.0047993087,-0.110214375,-0.15569766,0.037715077,-0.071836956,-0.10718556,-0.15609427,-0.17638777,0.04581965,-0.109507166,-0.10176516,-0.17446187,-0.01668666,-0.0045381305,-0.1066249,-0.084354945,-0.0664723,-0.05173314,-0.028346837,-0.05828814,-0.10486933,-0.13696058,-0.08906656,-0.091928996,-0.030033035,0.13709153,0.15024571,0.181362,-0.061447114,0.044400733,0.17681141,0.2053719,0.12453535,0.06625904,0.029186435,0.008729323,0.117431246,-0.059304412,-0.10696588,-0.14354996,-0.17042072,-0.13744794,-0.21829444,-0.0018767405,-0.04525486,-0.06759939,-0.21397129,-0.10413402,-0.1009915,-0.0725109,-0.08525002,-0.09864269,-0.026551472,-0.12797318,-0.06275024,0.008363515,0.15377294,0.052976232,-0.114766836,-0.03736234,0.027282497,0.077369034,0.03851686,-0.059661504,0.018012078,-0.056348283,0.06655089,-0.009891416,-0.08197354,-0.025114626,-0.047053818,-0.08334988,-0.017761856,-0.06769621,-0.19854338,-0.01217516,0.11584994,-0.04401099,-0.071551986,-0.050390527,-0.09072321,-0.041556325,0.047907468,0.011359243,0.19575556,0.0581553,-0.20513742,-0.13906269,-0.058415927,0.011757453,0.06870882,0.03483034,0.006196223,0.01715432,-0.02346418,-0.08666469,0.030526914,0.0047375453,-0.04272942,0.116076864,0.041916113,-0.028217424,-0.02801176,-0.006909059,0.02672069,0.099834114,0.026240433,0.013695975,0.0065229856,0.01196277,-0.13453603,0.04008924,0.19215491,-0.09428624,-0.09908153,-0.25452954,-0.04356171,0.0886015,0.030114556,0.09049601,-0.11325047,-0.017043905,-0.0010648457,-0.06772176,-0.14833216,-0.022042047,-0.029211897,-0.103529975,-0.19955066,-0.089297384,0.12270659,0.14783621,-0.01990252,-0.10962441,-0.04933649,0.0077937706,0.20607282,-0.03811462,0.02441453,-0.057736382,0.05347312,-0.056346588,-0.0956893,-0.17920081,-0.20143662,-0.13906087,-0.17826161,0.032525573,0.061013505,-0.12561658,-0.017589254,0.17419933,0.09624228,-0.08890729,-0.06255346,-0.02596259,0.054019265,-0.10248986,-0.14559534,-0.10370505,-0.1750775,-0.057709903,-0.14494842,-0.15866813,0.00043353424,-0.006541774,-0.07795823,-0.034990694,-0.07711708,-0.0086555,-0.09704288,-0.14583716,0.08428084,0.09635612,0.1286573,0.18954882,0.1577287,0.16570832,-0.10194795,0.032474894,0.06677177,0.14966406,-0.05258588,-0.054440875,0.008017349,-0.017506491,0.07592635,0.016157828,-0.10372558,-0.15830077,-0.21882392,-0.117955185,0.012845668,0.011472453,0.002086485,-0.1600353,-0.11410364,0.0279687,-0.11640346,-0.11468958,-0.07416536,-0.020957852,0.07527247,0.038274053,0.040699083,-0.10098532,-0.04721566,0.0422134,0.08570651,0.09561501,0.002355551,-0.11245149,0.09059533,0.06824117,0.089928076,0.14763957,-0.15249473,-0.031145973,-0.070623845,-0.012247942,0.14424479,-0.11767579,-0.18721162,-0.1200758,-0.11433517,-0.10083578,-0.017253503,0.027339065,-0.0879574,-0.06597999,0.044976,-0.09359217,0.013281755,0.0024722635,-0.10916668,-0.020309769,-0.25721094,-0.0062702256,0.01119332,0.057406113,0.10925558,-0.18281761,-0.02455383,0.035156384,-0.029626802,0.0029181964,-0.07872342,-0.07055741,-0.010556263,0.046945024,-0.1473808,-0.17437473,-0.046542577,0.0072273253,0.07867689,-0.03535803,-0.07982072,-0.22333129,-0.07633799,-0.030050797,0.114709854,0.028217966,0.04915668,0.003918877,0.05488365,0.073699564,0.23556776,0.23485999,0.03540666,0.21946453,0.11281425,0.067816496,0.03971344,-0.13531335,-0.15754059,0.02628465,0.09567926,0.121863306,0.0008023751,-0.042635106,0.003923478,0.07180169,0.0059056827,0.10065826,-0.01625547,-0.15211275,0.026615672,-0.06939029,-0.023686074,-0.09884742,-0.19404063,0.0010427232,0.0049238666,-0.13594763,-0.006314475,0.016841989,0.03165653,0.12462534,0.0005070224,0.043906715,-0.04715582,-0.0136715975,0.031456865,0.04179869,-0.0725464,-0.020116452,-0.0573123,-0.03039556,0.1477278,0.093775176,0.04200529,0.028881976,0.03244008,-0.016987408,-0.0028426077,-0.06493966,-0.013386299,-0.10800739,0.06965523,0.074064806,-0.005724811,0.013633722,-0.0077626766,-0.013651719,0.07788638,0.040090982,-0.07116581,-0.23613468,-0.061087105,0.039182507,0.095934324,0.19742781,0.03553684,0.016045894,0.096842825,0.06357676,0.109584786,0.09198596,0.04736044,-0.102416374,-0.20913318,-0.058821086,-0.10964122,-0.05526289,-0.033538457,0.011098162,-0.13916485,-0.19837476,0.08604196,0.023383338,-0.014460197,0.09628763,0.20140515,0.03871626,-0.07070671,-0.07726063,-0.035206992,-0.041314226,0.0447144,0.01267846,-0.14587116,-0.089601666,-0.10065635,0.026070816,-0.0194279,0.057972357,-0.02639077,0.024940938,0.03235241,0.057002235,-0.088575624,-0.04960352,-0.056814805,-0.038863197,0.048061714,0.016662404,-0.033586796,0.087561145,0.077515304,-0.008085191,0.0013018317,-0.09617506,-0.08697944,0.00459131,-0.08038815,-0.21325505,-0.13413669,-0.14278176,-0.032327723,0.124023214,-0.027219929,-0.19885032,-0.16583061,0.020703992,0.2148857,0.077154994,-0.092900954,-0.03819443,-0.070661426,-0.09777421,-0.1476052,-0.08876758,-0.012013179,0.05152712,0.10153714,0.103859566,0.058954515,0.0054889047,-0.02440046,-0.029703975,-0.024469014,0.060149524,-0.12344121,0.1613529,0.09141855,0.13552886,0.021774841,0.018930562,0.119380735,0.0047776853,-0.17133723,-0.09464883,-0.15075313,0.10550816,0.10174735,0.05255305,-0.047404386,0.19898911,0.027703824,0.04219676,-0.092165634,-0.035823744,0.12288928,-0.07509599,-0.10728741,-0.09661842,-0.107229345,-0.11867564,0.13103318,-0.04212187,0.049855474,-0.06893696,-0.1822178,-0.057011195,-0.081018895,0.050991848,-0.041992385,-0.13229595,-0.03615763,-0.034255538,0.011040727,-0.07786371,-0.2817155,-0.0068998374,0.08304931,0.010035963,-0.0526969,-0.16424805,-0.13095658,-0.09185922,-0.14121847,0.040485572,-0.06012199,-0.13292193,-0.088499986,0.022393266,0.17534451,-0.071944945,-0.06297455,-0.024406023,0.11119519,-0.035567388,-0.11259341,0.04863159,0.046782214,0.027478442,0.026448607,-0.17280716,0.0762366,0.024146682,-0.01876647,-0.02093249,-0.17971458,-0.029890573,-0.11483569,-0.22421877,-0.069611184,-0.08740033,-0.05487384,-0.0027382136,-0.108635604,0.015731553,0.02337391,-0.07556307,0.068049096,0.028012512,0.025269132,-0.0035182796,-0.08643359,0.07392447,0.15559344,-0.019455008,0.07226643,-0.17073362,-0.032355983,-0.05412448,0.06033378,0.14179642,-0.08761283,-0.20653024,-0.2185737,0.0010295265,0.17134868,0.028831787,-0.098355025,-0.07126608,-0.052680705,-0.13381451,-0.16359758,0.020832663,0.08629631,0.0058780517,-0.1473498,-0.076294325,-0.08978232,0.030118307,0.0067213094,0.09740555,0.060809497,0.05485117,-0.019032309,-0.11904338,-0.15974839,-0.032530956,-0.11813446,-0.14137235,-0.1615053,-0.22249317,-0.06669451,-0.0776395,-0.16966306,-0.16508378,-0.0040447125,-0.016883604,-0.025334777,-0.07848007,0.0060376725,0.13613355,0.13384634,0.036236968,-0.0740674,0.18092202,-0.09771248,0.14359875,-0.022852052,-0.014644062,-0.043205153,-0.15933143,0.033605177,-0.042793084,-0.058268074,-0.037655313,-0.04408654,-0.04113875,0.018136702,-0.019964142,-0.0068860236,-0.020291692,0.0101927165,0.028283834,-0.033599462,0.06706388,0.102708355,-0.046731472,-0.07057369,0.12629025,0.14705925,-0.13335717,0.018071692,-0.15688254,-0.2043077,-0.19742349,-0.121477626,-0.11389148,-0.16318165,-0.12434444,-0.054082096,-0.038733058,-0.05399622,-0.1757203,-0.14296411,-0.10097648,-0.14941135,-0.14395656,0.059711758,-0.008521255,0.21003926,0.06761026,-0.07236959,0.12697345,-0.025631668,-0.09822981,0.06975216,-0.018837119,0.100147925,-0.025626365,0.21592978,0.062132366,0.09825608,0.009108104,-0.0020824417,0.04194743,-0.07834481,0.03143199,-0.09783464,-0.07605571,0.033605617,-0.0028777416,0.028759131,-0.17429514,-0.09597063,0.017682593,0.1199545,0.37680256,0.07278763,-0.13204604,0.013197747,-0.10271164,0.16847292,-0.0336236,-0.07567753,0.0031630616,0.030780101,0.150665,-0.13343023,0.016297523,-0.037571386,-0.007891538,0.07402058,-0.15232994,0.002705965,0.011038525,0.026660768,0.079603516,-0.15144518,0.083811544,-0.024873098,0.15897617,-0.08677483,-0.0057839067,0.11884142,-0.09304979,-0.16534068,0.013539529,-0.10882081,-0.019842036,-0.07597221,-0.09603937,0.05326736,-0.006123614,-0.046880048,-0.037292976,0.024907164,-0.12843518,-0.04785726,-0.08198948,-0.089827776,-0.013208502,-0.037811328,-0.031850018,-0.21545827,-0.14579624,-0.016305137,-0.08632999,-0.11829703,-0.102867596,-0.19492327,-0.09131961,-0.12896925,-0.05964031,0.04692047,0.14949416,0.022532208,0.004540554,-0.08308447,0.034709733,0.04290254,-0.15408665,-0.09534188,0.0047500986,0.049661234,-0.19333649,-0.12609386,-0.02466054,-0.057060607,-0.14623989,-0.021238606,0.028160557,-0.006085983,0.007937021,0.0048717465,0.037245408,0.028006945,-0.04124336,0.062626176,0.021613706,0.102558546,0.045400716,-0.08461421,0.10241536,0.036298636,0.014356811,-0.11631427,-0.081519954,0.10886253,0.010640561,0.035514586,-0.16881126,-0.07579943,0.02758358,0.14587265,-0.018404063,-0.18240926,-0.10803135,0.2265885,-0.063372865,0.091775775,0.13392588,-0.03805018,0.048471484,0.06614787,0.18783583,0.009680345,0.15881622,0.035935596,-0.0066943318,-0.059263397,-0.19047847,0.13829255,0.04421347,0.19804144,0.12186349,-0.14441484,-0.04626126,-0.030052412,0.20145942,0.039252546,-0.18456447,-0.048455767,-0.14102773,-0.15352762,0.059257027,0.04753091,-0.059466794,-0.07055758,-0.034789946,-0.1402922,0.105933994,-0.07171106,-0.056065273,-0.065497726,-0.09000843,-0.083189294,-0.03797072,-0.026226675,-0.09602411,-0.10450873,0.12533924,0.07506968,-0.1018965,-0.13645303,-0.026772125,0.1806446,0.16101563,0.050089955,-0.112461254,-0.1673696,-0.047569137,0.1353882,-0.024239684,-0.08962877,0.12932263,0.062232938,0.12945127,-0.13925694,0.13808662,0.10906988,0.1382848,0.067934416,-0.13753958,0.18871638,0.077225156,-0.04560464,-0.024587352,-0.10818463,0.029315451,-0.14762339,-0.15304427,0.11110531,0.022108894,0.10129427,0.05815423,-0.04399346,0.07526838,0.09497986,0.13252783,0.04997203,0.012565665,-0.061420664,-0.027732465,-0.00068386947,-0.008038125,-0.03104292,0.020020548,-0.006218315,0.018270956,0.0016549906,-0.0002913203,-0.12798908,-0.10436451,0.009821478,-0.05000076,-0.00014044532,0.026322044,0.15664198,0.09847068,0.076691754,0.16459233,-0.17531873,0.07798662,0.21048854,0.23254484,0.06927553,0.15077108,-0.0003795194,-0.045329936,-0.07902124,-0.20733948,-0.035947833,0.14559211,0.040749576,-0.06687794,-0.23787999,-0.038781203,-0.016660437,-0.05671898,-0.03955248,0.0004438844,0.013680396,-0.025336556,-0.016464245,-0.104762934,-0.1042879,0.120267,-0.0054875477,0.012488599,-0.010617972,-0.10067718,0.0041231974,0.013663955,0.020963566,-0.009055083,0.0430493,-0.027460534,-0.029565252,0.091834396,0.03588032,0.011281104,0.060399853,-0.10032297,-0.09389473,-0.061214145,-0.041463908,-0.029847464,0.030856714,-0.01260002,-0.02955404,-0.07715571,-0.12579228,-0.004341714,0.060376983,-0.061772145,-0.008194897,-0.12738763,-0.11890863,0.037550505,-0.02367152,0.052551877,-0.17463467,-0.009561632,0.08686113,0.024767559,0.11131675,-0.010488332,-0.10365264,-0.051020276,0.09222455,0.050413564,-0.06256163,-0.19636428,-0.041144516,0.15738629,0.21670827,-0.07721313,-0.034078557,0.056060478,0.026579544,0.15053469,-0.024788659,-0.022186758,0.06788415,0.04003324,-0.037612937,-0.036873188,0.038479924,0.031933237,-0.005848157,-0.05673197,-0.12511735,-0.03223763,0.061378073,-0.039081838,0.037751317,-0.0027138551,-0.039800253,-0.021370048,-0.012912868,-0.04490237,0.13019504,0.05547162,-0.053789288,0.010655896,-0.053052172,0.11361963,0.085222,0.04743959,-0.016078899,-0.012427273,-0.06905001,-0.008215714,0.011074935,0.017191997,-0.0044187955,0.11525419,-0.014989593,0.01232115,-0.0019367994,-0.02371349,-0.3054718,0.03331207,0.11818063,-0.017444916,-0.01829897,-0.27516308,-0.14968204,-0.029890297,-0.10719955,-0.15895036,-0.117331274,-0.22469957,-0.14697452,0.05152443,-0.071187265,0.07676688,0.016122257,-0.10099707,-0.009577427,-0.092476696,0.082091,0.020452527,-0.028505834,-0.08987386,-0.13156517,-0.065206416,0.20629908,0.11470015,-0.056945696,-0.13088664,-0.1325993,-0.04949089,0.057874866,-0.060135435,-0.0901483,-0.28893688,-0.16002488,-0.08094324,-0.033600647,0.0056457953,-0.03341124,-0.048201226,-0.14586504,-0.15224782,-0.042189382,-0.017271997,-0.0717686,-0.19942443,-0.11611821,-0.0932047,-0.16232477,-0.12512982,-0.2056117,-0.05447923,0.010203074,0.0678841,0.10305493,-0.07312574,0.00596366,-0.07449901,0.08058985,0.05940606,0.035836138,0.04447847,-0.05482678,-0.056483258,0.036134195,0.105395675,0.078226045,0.069386914,0.025232619,0.028358823,0.1159569,0.10378601,-0.01755405,-0.16370209,-0.17530553,-0.040107958,0.025168002,0.039552752,-0.24269399,-0.23907214,-0.1996873,-0.06909169,-0.0266058,-0.0959021,-0.18542336,-0.090416014,-0.17468788,0.0043012686,-0.033837207,0.0401178,-0.0061848178,-0.10031369,0.11059461,0.18097253,0.14183639,0.051984522,0.059300076,0.089871645,-0.0138848955,-0.03004643,0.053461645,0.0641069,0.04656377,0.042285644,-0.024967294,-0.041148674,0.008709537,0.037137482,-0.03288482,-0.026649194,0.05586525,0.004372038,0.050902903,0.06402072,-0.00935826,0.016742751,-0.029771706,0.0019867972,0.0003373984,0.035951685,0.030641174,0.009107371,0.010849985,0.031267,-0.010144088,-0.02183421,0.03046474,0.10150595,-0.06831466,-0.12309122,-0.020952124,0.119382605,0.12384012,-0.20919366,-0.20828658,-0.093084715,0.015164135,-0.03317077,-0.25626588,-0.06695434,0.05000026,0.06848348,0.09782627,-0.12961565,0.08256237,0.030015953,0.041327305,0.13387297,-0.0629336,-0.02174072,0.01796585,-0.07168269,-0.15455782,-0.029157773,0.07285594,-0.0029184655,0.043581776,0.045531247,0.07221917,0.07243841,0.020872317,0.0737074,0.07786006,0.120481595,0.10588471,0.073361784,0.06936843,0.04711279,0.029502839,-0.0490137,-0.06000183,0.026284179,-0.06343525,0.056546114,-0.05180511,-0.093752824,-0.09591315,-0.12852643,-0.06669296,-0.23651879,-0.10458298,-0.17745517,-0.11536503,-0.13130227,-0.101254605,-0.030798916,-0.11708508,0.08927797,-0.012800728,0.056895066,0.0426572,0.16790366,0.049119722,0.06626371,0.0585304,0.11806675,0.12271898,-0.044776037,0.06103626,-0.038331505,-0.036476802,0.016545814,0.17682178,0.005809208,0.029842027,0.012129785,0.13516568,0.09817856,-0.014133484,-0.069538996,-0.042165108,-0.056272406,-0.020053506,-0.18916571,-0.09438158,0.12023367,0.12724085,0.08849282,0.008473477,0.07586378,-0.015348372,-0.018725723,0.011838614,-0.17511044,-0.09701232,0.056160744,-0.012041305,-0.13922234,-0.06103724,0.038027246,0.0130597,0.032286234,-0.011804672,-0.009063031,-0.08103545,-0.030850375,0.08256684,0.18497236,0.16211447,0.076406,0.09831742,0.16967712,0.31514865,0.0857933,-0.020255849,0.024842065,-0.004602215,-0.016034363,-0.09632321,-0.16334882,-0.07954405,-0.06598662,-0.0068639508,-0.13020311,-0.06786843,-0.07415639,-0.08425812,-0.036820676,-0.05578616,-0.0029477582,-0.07411397,-0.14880386,-0.07693562,0.115003355,0.017880734,-0.054577067,-0.012936802,-0.058959812,0.08252028,0.088396244,-0.043668993,-0.03134725,-0.15119071,-0.12932876,0.015409062,-0.056250643,0.07936265,0.016988643,-0.07947049,-0.022795511,-0.026987284,-0.099483855,0.017616328,0.043647725,0.0378527,-0.024013123,-0.023140483,-0.06497068,0.15755682,0.056936134,-0.04030862,-0.059927303,-0.2164328,0.008559331,-0.024849847,-0.04443063,-0.010078073,-0.19701438,-0.069845006,-0.05256822,-0.120654345,-0.025729526,-0.18882583,-0.103428945,-0.061069615,-0.0075618094,-0.064404614,-0.10927427,-0.13797283,-0.12055259,-0.059128832,0.05476749,-0.066928305,-0.04929837,-0.008401248,0.026296124,-0.07203949,0.04905021,-0.009457271,-0.036444135,0.1547999,-0.021293595,0.088833444,0.16949636,0.08131945,-0.09219282,-0.074862935,0.06430005,0.085659884,-0.11893388,-0.19467591,-0.14708693,-0.16237529,-0.09080251,-0.034317374,-0.12155054,-0.1215433,-0.121886,-0.06363439,-0.083396934,-0.0014795936,0.07779205,0.035523035,-0.042555757,-0.018817827,-0.01568362,0.053201046,-0.11486371,-0.08552959,-0.014698344,-0.14584292,-0.049439557,-0.056862526,-0.03686039,-0.042339467,-0.10403312,0.008081357,0.108975194,0.029853128,-0.0963222,0.020072114,-0.03470791,-0.057569087,0.028844673,-0.04193364,0.023320924,0.00867227,0.010404074,0.114322305,0.02261427,-0.04072218,-0.07661828,-0.072187155,0.08975939,-0.15651716,-0.24256524,-0.011743896,0.039112408,-0.103032686,-0.2032696,-0.2573527,0.028155847,0.15563487,-0.15775467,-0.06989809,-0.07476701,0.11267284,0.14110002,0.06869059,0.18007472,0.15018873,0.15859796,-0.011054592,0.00632034,0.12210782,0.29085878,-0.10233546,-0.24860641,-0.15070279,0.08440321,0.18298292,-0.06620518,-0.12755157,-0.043371454,-0.023709835,-0.010829277,-0.054087296,-0.14220686,-0.044057094,0.01989224,-0.079920754,-0.002789328,-0.041655947,-0.2262755,-0.11989695,-0.06303724,-0.056804642,-0.1507222,0.03135325,0.020592717,-0.10752386,-0.09614926,-0.1625623,0.042599145,-0.08620235,-0.027570466,-0.2108037,-0.088582434,-0.13151173,-0.074122824,0.06553716,-0.0032543584,0.08216168,-0.074674465,0.049106564,0.04153392,0.019461412,-0.013956843,-0.0068382015,0.07255166,0.20200509,-0.021182345,-0.018447282,0.19175595,0.18437235,0.067463234,-0.15725337,-0.112693414,-0.041535195,-0.080014415,-0.11557847,-0.100152455,0.0253844,-0.13694383,-0.08800702,-0.058271077,0.014019951,-0.07123251,-0.15732588,-0.24751152,-0.105364256,0.0062342393,0.11960105,-0.21572703,-0.21878393,0.12112449,0.18498898,0.10588478,-0.23908073,-0.05980382,0.12888739,0.0970817,-0.026925502,-0.28675324,-0.0583197,0.2251773,0.16778202,-0.043321375,0.03228251,-0.023907429,-0.024215097,-0.093860656,-0.19825989,0.039113093,-0.15702957,-0.21170901,-0.026693089,-0.021197738,-0.17631523,-0.16741411,-0.09157213,0.022056198,-0.15116921,-0.086442664,-0.11484477,-0.17647102,-0.10336056,-0.2520255,0.10586765,0.094452135,0.06571847,0.029386843,-0.16172178,0.08260779,-0.060142606,-0.02376462,-0.07595909,0.062138155,0.010208831,-0.13422643,-0.1252664,-0.05679687,0.17626797,0.14273705,0.019147098,0.04397563,-0.058572285,-0.013117331,0.13853432,0.20688215,0.029843332,-0.073238984,-0.11880022,0.04606029,0.02835029,0.043658163,-0.10915168,-0.32809156,-0.08430131,0.11493139,-0.05420955,-0.15180269,-0.072323546,-0.16195263,0.13772392,-0.124850005,-0.07636511,-0.02172246,-0.015873054,0.097136974,-0.18412185,-0.11976124,-0.089904994,0.016945673,0.07273346,-0.041333135,-0.06982401,-0.20918404,-0.028605893,0.0019455656,0.14371008,0.157207,-0.010455601,0.07533887,0.06275006,-0.073083825,0.07343276,0.11692174,0.07414008,0.017296938,0.009005811,0.14638993,-0.010593022,-0.24872863,-0.15149675,0.08052252,0.13387567,-0.09642225,0.0015564308,-0.012801124,0.019335901,0.1371556,-0.09750229,-0.062131725,0.060928885,0.15532275,-0.0012144418,-0.04868264,-0.11901433,0.030491693,0.1962849,0.08379566,-0.04182032,-0.046455283,0.07673472,0.16045256,-0.11534904,0.075773135,0.018747034,-0.06825458,-0.11273102,-0.05982235,0.087162994,0.05561957,0.02933891,-0.043759678,-0.05485689,0.17224582,0.02894985,0.030158512,-0.05958457,-0.060667954,-0.06351426,0.008103748,0.026818415,-0.005539723,-0.04743182,-0.03043317,-0.021196214,-0.028009497,0.059527464,0.015498339,0.014177223,-0.033044457,-0.002910314,-0.02947124,0.03104256,-0.027760314,-0.00017419296,0.037032973,-0.049270615,-0.0064815977,-0.008630313,-0.043129545,-0.00699408,-0.01202503,-0.009591952,0.031035658,-0.036312975,-0.0559074,-0.013440999,0.037051,-0.026109982,-0.0108277295,-0.05602256,-0.063320905,-0.006607604,-0.011738171,0.0072087324,-0.04247612,-0.017109927,-0.03208385,0.01863403,-0.011949466,0.0205696,0.0123799825,-0.009776547,-0.042196926,-0.03358371,0.06023741,0.037417464,0.057644654,-0.030169208,-0.060143974,0.039370228,-0.029096514,-0.06437801,0.024528889,0.007854449,-0.048968166,0.021420987,-0.0451594,-0.021290168,-0.0073913257,0.027202709,-0.0017592737,0.029633118,0.005223874,-0.020862622,0.013153585,-0.044952437,-0.048529856,-0.033547252,0.034472663,-0.016725587,0.0009815304,-0.04124779,-0.044298533,-0.031197736,0.010161099,-0.040617034,0.047116123,0.0061188582,-0.050469734,-0.06065844,-0.01648797,0.014609829,-0.046140846,-0.047784947,-0.010517754,0.025693415,-0.031973682,0.04471055,-0.057550713,0.012334687,-0.0017394752,-0.01306487,-0.008057787,-0.018172394,0.045732502,-0.039467648,-0.057998277,-0.021432953,-0.062865384,0.008059353,0.033812854,0.03516148,-0.033200298,0.012899407,-0.027501892,0.0019622855,0.0063191736,-0.040039778,-0.05662892,0.045400016,-0.052869156,0.0605702,-0.0356133,-0.008786122,-0.053921033,0.009298827,0.0025669357,-0.014029086,0.041677747,-0.06087726,-0.051075596,-0.06356288,-0.0329675,0.044011604,-0.018767944,0.010881994,-0.011526858,-0.022621775,-0.034347054,0.02877005,0.048730265,0.050663393,-0.041980565,0.03360403,-0.035891023,0.016774556,-0.03701078,-0.021938939,-0.009166421,-0.013944501,-0.033971604,0.020155517,-0.01954497,-0.042927846,-0.017860051,0.0022377237,-0.030041901,0.011935632,-0.039006025,-0.008268827,0.008294239,0.029899418,0.0011683309,0.05739491,-0.041700784,-0.018917209,0.011282585,-0.030747937,0.03360209,0.04509573,-0.052183222,-0.045871142,0.025001517,-0.06687062,0.03066647,0.043142665,-0.006334896,0.051546454,-0.009334899,0.027341217,-0.05167114,0.041990586,0.022460379,-0.050406903,-0.034100994,-0.013929391,-0.018600533,-0.0184024,0.038708266,-0.021763815,-0.05082641,-0.03997629,-0.016625572,-0.045332905,0.019163303,0.0029918535,0.012533965,0.017875435,0.05502392,-0.047072284,0.028159318,-0.024170447,-0.012598602,-0.011565823,0.034824483,-0.018366013,0.026312027,-0.037494235,0.023986874,-0.04757038,0.0414554,-0.016977634,-0.0033852577,0.001503001,-0.028445238,-0.01599997,-0.0043321922,-0.032637518,0.01994847,-0.029715942,-0.01656694,-0.020361299,0.032757413,-0.060089342,0.047785114,-0.04968285,-0.03710544,-3.4558296e-05,-0.028060002,-0.017628923,0.03860504,0.055122606,0.0314212,-0.010210287,0.057232764,-0.061651878,-0.007220053,0.0065747653,-0.018056942,-0.020289466,0.0071140365,-0.06093559,0.011981556,-0.030695047,-0.012555925,-0.012197952,-0.027430644,-0.064152494,0.023207769,-0.02744855,-0.038738526,0.020568058,-0.019446062,-0.1256071,-0.19180109,-0.14723372,-0.013826893,-0.006346713,-0.076079585,0.047164228,0.08365589,0.04959636,0.031144341,-0.00016828229,0.12254757,0.06787892,0.013710616,0.013347678,-0.021852806,-0.017910548,0.08693981,0.039996,-0.006021155,0.01974974,-0.020610448,0.062802084,0.006693677,-0.034693807,-0.11772385,-0.07638123,0.028053649,-0.0061648395,-0.069789484,0.033648755,0.01724926,0.041470252,-0.01962789,-0.06583899,0.24515599,0.13664657,-0.08012739,-0.052771248,-0.021676807,0.14739828,0.1286409,0.05551192,-0.0075657237,0.017322633,-0.14192976,0.014692497,0.089387424,-0.0005718486,0.03581824,-0.050474897,-0.08172647,-0.11956848,-0.10033889,-0.038307197,-0.09090517,-0.09304609,-0.028571595,-0.007546954,0.030349644,0.03530505,0.03579962,0.11928379,0.08329103,-0.03799557,-0.002206324,0.011967935,0.04258988,0.06840917,-0.039615273,0.0385997,0.025796572,-0.04659654,-0.086095154,-0.06782337,-0.115847416,-0.20586845,-0.18345617,-0.11056385,-0.1425249,0.015863245,0.12032937,-0.02090939,-0.16957356,-0.16879053,-0.15718661,0.16210382,0.15626387,0.021263553,-0.15705803,-0.12035725,0.079595365,0.033186857,0.08455601,-0.072060555,-0.17378812,-0.014775379,-0.09965614,-0.040051457,-0.046411816,-0.040843554,0.021127079,0.094482124,0.023747114,0.03662153,-0.043765258,0.08515299,0.06306069,0.049123313,0.036667466,-0.031655647,-0.12824956,0.046837658,-0.032523658,-0.024310324,0.18134542,0.12893747,0.042911626,0.07031833,0.08048134,0.16328253,0.07538853,0.05374368,0.024222404,-0.11962953,0.14634429,0.016824163,-0.042662162,-0.03662205,-0.057033505,-0.049292434,-0.1864783,0.0025607755,-0.06803681,-0.04619075,0.033487447,0.034571756,0.08093464,-0.025710635,0.024441294,0.14879188,0.12425966,0.041921575,0.041189976,0.03288459,0.032964427,-0.06359777,-0.06797251,-0.04149521,-0.05403263,-0.0046614846,-0.008220539,-0.13923058,-0.12249,-0.17468701,-0.0896093,-0.20956798,-0.11228166,-0.091342285,-0.11709145,-0.0939711,-0.048902676,-0.12631127,-0.122262396,-0.13927232,0.07009284,0.052891526,0.028057285,-0.06519838,-0.026887799,-0.02718493,0.03966446,-0.02500318,-0.07683975,0.04463765,-0.058801096,-0.023597194,-0.16388737,-0.023034537,-0.02996386,-0.03755728,-0.11895533,-0.06672119,-0.040079262,-0.05593839,-0.11612404,-0.1207861,-0.06493798,-0.01654725,-0.077633694,0.0034666038,-0.072895624,0.01575512,-0.07479959,-0.00855045,-0.10193621,-0.06695252,0.040276792,0.05079307,0.037978698,0.07602872,-0.011531856,-0.13104129,-0.038778763,-0.01308047,0.054340698,-0.035040095,-0.114592515,-0.03931833,-0.033872586,0.06745258,0.026595686,0.020879256,-0.086728305,-0.047876436,0.0476715,0.046821512,0.059550416,-0.023887072,-0.059855726,-0.002848792,0.00024145845,-0.020117644,-0.035482842,-0.08921343,0.059763234,0.115394235,0.12608874,0.026802491,0.044525634,0.022716431,-0.03952888,-0.13924278,-0.04904482,-0.018338041,-0.21963124,-0.115365416,-0.037119985,-0.0021733758,-0.112884246,-0.026908962,-0.02135345,0.026989184,-0.07386811,-0.19332561,-0.044834007,0.10136277,0.10401543,0.04410641,-0.14053598,0.0172671,0.040832464,-0.06465395,-0.013911482,-0.013405315,-0.029270021,-0.0286015,0.042842355,0.055708,0.034134902,0.062452614,0.013559308,0.027377788,0.050932806,0.004570512,0.047937885,-0.0320712,0.0024391683,0.021104855,0.05451056,-0.06855406,0.015915614,-0.0063147754,0.018553812,0.051488366,0.018491315,0.0045496193,-0.08137186,-0.038253672,-0.029172473,0.02321286,-0.111225925,-0.06837323,-0.07734147,-0.09476189,0.14689626,0.07966161,0.03524483,-0.073948,0.004345041,0.23192312,0.10588281,0.0670975,-0.025255192,-0.0051406138,0.10863182,0.01967686,-0.029584713,-0.03129579,-0.067146845,0.07079507,0.028074631,-0.010004866,-0.0066456106,-0.022079628,-0.031136753,-0.031255946,0.02362502,0.06687129,-0.039377365,0.061241664,0.071672335,0.0811572,0.025398668,0.0131464815,-0.035857204,-0.07424882,-0.02064138,-0.01602801,0.006255998,-0.030122733,-0.03730327,0.012058452,-0.017880082,0.043629065,0.12060631,-0.019914404,-0.044743966,-0.098078206,-0.10087196,0.02676048,0.016960988,-0.06983971,-0.05028243,-0.071881495,0.020824334,0.0852407,-0.023109792,-0.023982717,-0.006026747,0.029770005,-0.042408153,0.007951429,-0.047437556,-0.07119207,-0.032705452,-0.01665516,0.025824625,0.012431491,-0.04201889,-2.012315e-05,-0.0031786505,0.032434437,-0.05008337,-0.07635107,0.033621207,0.04538818,-0.03934848,0.035224438,-0.08706787,0.031110073,-0.07971946,-0.026068715,0.012616951,-0.049135607,0.12745121,0.051161934,0.029585471,0.019001849,-0.024694687,0.1121273,0.17500019,0.11088962,-0.014230972,-0.0943197,0.09524952,-0.018824793,0.02189932,-0.057360176,-0.055878185,0.016526101,-0.000906759,-0.009225218,0.029006701,-0.03408116,-0.043954264,0.046191547,0.09123928,0.048868995,0.040921185,-0.03711993,0.06794909,-0.049377166,0.034746397,-0.034838196,-0.057798732,-0.10002965,0.030893262,-0.06754819,-0.0039304923,0.0052439906,-0.052107196,-0.059556007,-0.0450377,0.049162943,-0.06416274,-0.0457741,-0.076491445,-0.041142743,0.014981079,-0.0070904805,-0.07012407,-0.08633836,-0.057112426,-0.001631025,0.022870487,-0.031751227,0.019928353,-0.004779559,-0.011833116,0.031843673,0.08193747,0.102130994,0.010553937,-0.030774424,0.035944395,-0.054779597,-0.048113927,-0.023234725,-0.020555386,-0.08164835,-0.087895446,0.03223978,-0.01680039,0.0072996467,-0.013583882,-0.08081658,-0.06501462,-0.06367594,-0.03533999,0.033486847,-0.07028569,-0.02154715,-0.020707728,0.0021160496,0.03927795,0.02786929,0.038851302,-0.062276036,-0.02388705,0.046211958,-0.06361727,-0.06768889,-0.08479914,-0.01365159,-0.016651707,0.014174398,-0.06664117,-0.018998679,-0.005824545,0.031445622,0.061315004,0.06139715,-0.001272153,-0.08165122,-0.0515972,-0.0015059621,-0.020770531,0.025711803,0.03324869,-0.07688623,-0.015210889,-0.01144973,-0.08403783,-0.019823676,0.024771139,0.05024174,0.0784582,-0.023097964,0.026075315,-0.07143071,-0.027851494,-0.036496658,0.0013511848,0.05542207,-0.047944464,-0.053966217,-0.054391406,0.028146775,-0.0032115697,-0.05757155,-0.0035442477,-0.036522746,-0.06284988,-0.002981909,-0.008197017,0.05814893,-0.012049018,-0.04304586,0.046264432,0.05864048,0.014404057,0.03246533,-0.05590374,0.06791492,0.07861198,0.051110603,-0.045362126,-0.047191575,-0.017912872,0.014102467,0.05613661,0.0021712708,0.007452387,-0.0035325165,0.054203205,0.018514335,-0.018399043,-0.09888418,-0.018887114,0.051876903,0.060454547,0.015900094,0.028089827,-0.043453872,0.026382362,0.063340485,0.029409103,-0.020230932,0.025867067,0.02016888,0.039243214,0.07790106,0.180087,0.094771825,0.21820217,0.11721447,0.09403709,0.054014005,-0.048917998,0.17244011,-0.011917258,-0.17500095,-0.2469897,-0.3579218,-0.18851192,-0.038410667,-0.043227557,0.030476848,-0.068736605,-0.0049651917,-0.07110355,-0.01476353,0.045683183,0.07919596,0.0032245277,-0.055108257,0.06022685,-0.030083496,-0.17268473,0.0070738792,0.008383975,-0.0829528,-0.11841752,-0.23874484,0.06213388,0.08050869,0.022530116,0.059756253,-0.16807063,0.12715812,0.08573137,0.11861446,0.023011863,-0.01813192,0.0066079344,-0.01917337,0.06590994,0.020876197,0.09013438,-0.057345074,-0.053880397,0.07621182,0.09581088,0.08453688,-0.19304243,-0.06796341,-0.11796845,-0.08754475,-0.091092326,-0.21019161,-0.12369969,-0.16100144,-0.1942576,-0.06307577,-0.049334913,-0.07498448,5.7509948e-05,-0.085112505,-0.13494919,-0.0069067404,0.018744394,-0.08129287,-0.10394669,-0.016360847,-0.06738308,0.07489242,0.05203872,0.08649901,0.08106805,0.0338847,-0.021523422,-0.030560218,0.060963757,-0.14098419,0.2703852,0.2314814,0.11570299,-0.07562777,-0.19810306,0.14712198,0.056019183,-0.053236004,-0.008656535,-0.032822724,0.0020646472,0.0016945848,-0.0077398564,-0.109685294,0.17919222,-0.0018624143,-0.03912813,0.048010755,0.069187604,0.09403727,0.07995256,0.020787928,-0.0842505,-0.12098019,-0.22854275,0.23753336,0.061363727,0.03953885,0.09273869,-0.17579666,0.06420935,-0.00058982306,0.13820836,0.08900222,-0.04305102,-0.14920844,0.018185059,-0.028319733,-0.042232815,-0.122286186,-0.12231167,0.13636822,0.13010657,0.070986964,0.0033912635,-0.10103856,-0.0883841,-0.13945527,-0.1525274,0.16901514,-0.11473244,-0.21867974,-0.2206547,0.03380806,0.20931175,-0.13858578,-0.11493005,0.020352898,-0.09800354,-0.1052337,-0.029834962,0.09272888,0.035593465,0.19016424,-0.10610737,0.014230476,0.12623444,0.08198038,0.06043274,0.031119898,0.0103459265,-0.023064153,-0.012377865,0.05928607,0.12055095,-0.05530954,-0.07481972,-0.04009822,0.02716923,0.13281512,-0.05924411,-0.07356667,-0.0016041363,-0.09169629,-0.013015732,-0.06750608,-0.01913525,-0.029069291,0.071709536,0.06258459,-0.07188583,-0.026505074,-0.043488555,-0.050452642,0.04598929,-0.0473133,-0.017345166,-0.15821043,-0.14527643,-0.014262244,0.023020206,-0.082526125,-0.022947166,-0.0319011,-0.07636525,-0.12377621,-0.0930408,-0.032092355,-0.036876053,-0.05046753,-0.011549207,0.010600888,0.051078312,0.12567206,0.06303226,-0.14757481,-0.028815355,0.016416889,0.082905024,-0.029795313,-0.28924212,-0.061908357,-0.025010781,-0.09260275,-0.22963162,-0.17415217,-0.036561187,-0.1350605,-0.23953545,-0.0721311,-0.017990164,-0.01630033,-0.1035051,0.007903998,0.059010845,-0.11117088,-0.009171104,-0.09943219,-0.037940074,-0.028882641,-0.027614398,-0.0026860512,0.035492726,0.046013337,0.057688106,0.01707339,0.022787154,0.025269452,-0.054402404,-0.020880204,-0.08815445,-0.008135432,0.031788215,0.041105248,0.027776206,0.012479166,0.06988703,-0.04925905,-0.02467917,-0.0054898793,-0.2280639,-0.09944557,-0.07944449,-0.13181756,-0.038037524,-0.014535588,-0.1693264,-0.21396422,-0.06303278,0.02566867,0.107994206,-0.0062838877,-0.05063788,0.10884316,0.009958248,0.002514467,0.12064677,0.09483176,0.080427125,-0.084180474,0.018304415,0.12765497,-0.010593711,-0.1781919,-0.23252508,-0.17423323,-0.01604709,0.11274324,0.0643325,-0.028070878,-0.1486929,0.0678828,0.15028398,0.18638147,0.112585105,0.0024817574,0.06920495,0.17691562,0.060967635,0.021811498,-0.00013598576,-0.055730563,-0.078940816,-0.014990065,0.028159743,-0.080343485,-0.03343257,0.007770378,-0.0014199644,0.027235126,0.10367366,0.07352607,-0.05292976,-0.1875854,-0.17530777,-0.020445695,0.045183226,-0.08386969,0.03047229,-0.0763677,-0.19478454,-0.17480506,0.14396918,0.10097522,0.0101621505,0.08503244,0.036467478,-0.055849414,-0.030201452,-0.09044519,0.053383525,0.056840923,-0.02639283,0.06686311,0.011772941,-0.18128182,0.0005034321,-0.037658513,-0.057830796,0.074398614,-0.22794022,-0.036964346,-0.030589618,-0.06846691,0.014283402,-0.0056000026,0.07146523,0.090057895,0.10526552,0.06639108,-0.04228115,-0.076699264,0.15180187,0.08593037,0.07784697,-0.18707733,0.06787057,0.15272051,0.052559968,-0.021616505,-0.13608146,-0.22117049,-0.04239057,0.04841036,-0.022586517,-0.30862316,-0.01832346,0.04795312,0.13247663,0.15340169,-0.24111179,0.0750417,0.11253157,0.03820991,0.09910748,-0.037643846,-0.008982949,0.064098775,0.046904445,-0.025010139,-0.100168124,-0.09335363,-0.1439936,-0.0091294795,0.0045403386,-0.021804111,-0.14767782,0.0474255,0.07038149,-0.058647584,-0.22081478,-0.14645931,-0.08349166,0.024129948,0.00938103,-0.024896488,-0.059377458,-0.039527006,0.057968143,0.043329034,0.032365084,-0.108575456,-0.052329734,-0.049786307,-0.022627862,0.01766117,-0.1310123,0.050924167,-0.01755179,-0.0105115315,-0.12201922,-0.117053606,0.010185292,-0.085008085,0.008003558,-0.18094526,-0.15171273,0.004380208,-0.09017741,-0.10066867,0.08655941,-0.04567423,-0.10430374,0.028446702,-0.085680254,0.0069528725,-0.1660481,-0.047071315,0.0085878335,-0.14174646,-0.088475384,-0.10985899,0.01624842,-0.07128582,0.013736442,0.0024963622,0.03721413,-0.07525172,0.024225721,-0.12794602,0.1063198,0.14316763,0.08635307,0.071305476,-0.0029024621,-0.06878943,0.21176226,0.080898575,0.10091579,-0.09226521,-0.005853794,-0.021967879,-0.016723875,-0.038577743,-0.07383502,0.08871211,-0.012403632,-0.071517006,-0.08791113,-0.07332838,0.16350417,0.14292395,0.1306291,-0.08154133,0.027756838,-0.16073059,-0.101548485,-0.0771713,0.031947922,0.050126437,-0.09544813,-0.040783696,0.13408308,0.08145087,0.17789644,0.06646434,0.1102586,-0.048044745,-0.0031994751,-0.008776753,-0.09334764,0.020382073,-0.080998704,0.013574458,-0.03544146,0.04687762,0.02673419,0.015047149,-0.04043208,-0.050087303,-0.0023901956,0.0016585932,0.092014134,0.06756331,-0.0030535944,0.061244912,0.08958209,0.06651954,0.06487111,0.07657724,-0.036376484,-0.017727466,-0.023777906,0.027209017,0.02037097,-0.0077372,-0.013802055,-0.07799439,-0.08909962,-0.0047384226,-0.065975726,-0.08187493,-0.1458654,-0.23752317,-0.06931691,0.17321652,0.08347469,0.077614225,-0.09238142,-0.08105298,0.098444395,-0.007102468,0.10786465,-0.10702113,-0.17945296,0.041357078,-0.08003423,-0.053934406,-0.19968395,-0.22357118,-0.07966653,-0.19767396,-0.06343836,0.061728146,0.055877395,0.008868235,0.056821942,-0.04135536,0.024331238,0.07961993,-0.016488133,-0.14428122,0.0053437096,0.07538125,0.0592163,-0.026324026,-0.16909754,-0.18184629,-0.02822205,0.0681174,0.02669248,-0.08897319,-0.072657235,-0.047627196,0.043105174,0.106972374,0.03889978,-0.016318036,-0.05742295,0.08207865,0.10109556,0.16211212,0.07367987,-0.0031626073,0.11104994,0.17780891,0.08841055,0.16701746,0.10272349,0.056054994,0.0047989762,0.079336815,0.12884839,0.15054,0.10385296,-0.12140535,-0.048844665,0.11497025,0.062362812,-0.07105721,-0.21305396,-0.047468543,0.00680538,-0.10349425,-0.24283801,-0.20189255,-0.051361095,-0.02477162,-0.05310053,-0.17555071,-0.008770133,-0.028713359,-0.009561869,-0.15834808,-0.025537651,0.032506097,-0.038965456,-0.37908846,-0.13308257,-0.06991046,0.035153415,-0.107518025,-0.28545877,-0.15746221,-0.26213318,-0.030972121,-0.09466422,-0.18142228,-0.17822647,-0.2319913,0.060881674,0.08282866,0.012511789,-0.18938738,-0.14070334,-0.11256799,-0.05955613,-0.033539794,-0.056803267,-0.009506626,-0.08445307,-0.10970734,-0.097333305,-0.022717297,-0.025312206,-0.036659315,0.043172505,-0.095993556,-0.20210811,-0.23849092,0.12899047,0.03803171,-0.022413598,-0.07035641,0.03159156,0.029967343,0.029662786,-0.080382295,-0.17663676,-0.12305698,0.04519886,0.032233514,0.04217372,-0.0610014,0.0040755966,-0.046247367,0.007685604,0.05223244,0.068606175,0.03934026,-0.07398142,0.025642779,0.16293514,0.17106521,0.008518139,-0.016392445,-0.007174038,0.024770547,0.02252033,0.005294026,0.21968135,0.082418635,-0.027299132,-0.011846387,-0.040188998,0.152795,0.05144334,0.09797156,0.03635039,-0.0014237738,0.012590734,0.014632567,0.20419216,0.2090166,-0.051474374,-0.06809796,-0.008988292,0.072817095,0.1949178,-0.04525646,-0.092517994,-0.017469436,0.09553707,0.091462106,-0.04810199,-0.15814032,-0.0046188547,0.021057,-0.19045103,-0.09129408,0.019344935,-0.01837175,-0.09932002,-0.14651114,-0.0032546227,-0.027884647,-0.16070417,-0.0381617,-0.109402835,0.013717456,0.024397733,0.02505782,-0.010935886,0.041950785,0.19743659,0.14921914,0.006162772,-0.0012874762,0.087243736,0.2457499,-0.12328367,-0.08586418,-0.113130175,-0.013326054,-0.06177319,-0.105780564,-0.011921047,-0.054913398,0.027408136,0.12209351,-0.09008577,-0.099457785,-0.1128517,0.078203835,0.15584947,-0.05006558,-0.2070613,0.00035929444,0.07462604,-0.17298694,-0.2070595,0.1445269,0.06389669,-0.113132015,-0.22790782,0.053162694,-0.04538658,0.05472132,0.058915008,-0.012258861,0.08214217,0.060869824,0.12570648,0.03738484,-0.046556287,-0.03394182,0.059192482,-0.012999732,-0.074343316,0.006257031,-0.13554312,-0.07114664,-0.04942353,0.0011802868,0.0115487315,0.020720514,0.015030282,-0.060233686,0.030675493,-0.0064080157,-0.23888272,-0.21061069,-0.02051275,0.07230597,0.1617417,-0.08754514,-0.21281524,-0.21601383,-0.06737122,-0.05344409,-0.029285876,-0.22017209,-0.2454779,-0.16500849,-0.26635382,-0.21376158,-0.2456421,-0.18150914,-0.1885652,-0.09168408,-0.21021466,-0.28975883,-0.22252436,-0.1563935,-0.16405493,0.013622035,0.0022515936,0.07034939,-0.10736256,-0.055070654,0.00421568,-0.061061457,-0.016206646,0.021847129,-0.18236828,-0.049232047,-0.054804627,0.03112956,-0.02869429,0.039691273,0.030840239,-0.057172365,-0.08876762,-0.040211286,-0.08536606,0.06616941,-0.105609626,-0.079553306,0.07998092,-0.052546415,0.20342426,0.07855989,0.084048435,-0.01844522,-0.121615574,0.3342921,0.16416278,0.16970964,0.059376534,-0.04240394,0.033907775,0.0032623778,0.10525803,0.10186718,0.0988457,-0.18407091,-0.018107258,0.124053955,0.06240857,0.0341499,0.020631975,-0.12185618,0.04433767,0.052623086,-0.041185316,-0.12522623,-0.10337155,-0.07136685,0.01187719,0.016621273,-0.1683557,-0.11791262,-0.07090785,-0.07115733,-0.020717556,-0.14850634,-0.10510566,-0.028148597,-0.07855054,-0.07643514,-0.1438794,-0.07254074,-0.09821142,-0.065057725,-0.2286668,-0.07803242,0.0155723365,-0.06429377,-0.087950505,-0.08544065,-0.21461365,0.0035736992,0.015358792,-0.09968035,-0.11592149,-0.09067563,0.030137628,0.011891445,-0.06741349,-0.18710513,-0.1280544,0.023800822,0.025572844,0.021692116,-0.081106305,-0.013106023,0.021993633,-0.038096763,-0.14548507,-0.08254487,0.1698063,-0.0413308,-0.24586421,-0.054621905,-0.01012629,-0.0511437,-0.01711297,0.123032,0.21867862,0.05737173,0.092320554,-0.06433949,0.06974435,0.045150995,0.035264824,0.13746452,-0.008663666,0.15472889,-0.045224026,0.004100938,0.15861766,-0.0006388565,0.05097575,-0.08315654,0.06480866,0.008221421,0.029374031,-0.18657133,-0.054941032,0.08393626,0.066927776,0.104956,0.07090555,0.050263442,0.024318364,0.122711614,0.13683525,0.12363847,0.19628794,0.091271855,0.16330178,0.088237524,0.076442905,0.05585457,0.01950427,0.10384777,0.052106205,0.06651348,0.087902695,0.085693054,0.08063221,0.056440577,-0.038892515,0.14254244,0.09963258,-0.15970568,-0.084979124,-0.094405584,-0.113307975,-0.03572076,0.026370699,-0.036760636,-0.037199803,-0.075907595,-0.19536792,0.018564466,-0.06170693,0.00733632,-0.037719734,-0.1717774,0.042144272,0.015594949,-0.0070390287,-0.076434426,-0.14705634,0.022781044,-0.09764614,-0.021155281,-0.07074969,0.10877464,0.0045248773,-0.011596117,-0.16941103,-0.120076634,-0.08292468,0.11612197,-0.06292288,-0.032918394,-0.11325813,0.034002353,0.03625497,0.026756436,0.030015804,0.002386539,0.034920204,-0.0961629,0.16259731,0.061216574,0.15038888,-0.04030246,0.117619894,0.16486154,-0.013874667,-0.038468245,-0.22365353