-0.18532546,-0.047183853,-0.20158894,-0.21198025,-0.2578517,0.22273247,-0.21538691,0.33067748,0.084048845,-0.26848367,-0.08047887,-0.31798723,0.1885694,-0.09915198,0.30938557,-0.22474337,-0.11591068,-0.24744888,-0.15617138,0.18689638,-0.24060215,-0.2852008,0.07706892,-0.23835604,-0.16494551,-0.18078817,0.31911778,-0.120333485,0.12667997,0.22807053,0.3229346,-0.27109292,-0.24761401,-0.24529618,-0.1073447,0.25426292,-0.17753778,0.24889426,0.38624462,-0.17771737,-0.09115651,-0.32606453,0.19925985,-0.28020075,-0.2648746,-0.062174905,0.23958673,-0.10289163,-0.08093662,-0.12665986,0.015896155,0.2575868,-0.25783917,0.13538168,-0.32294393,-0.16106097,-0.12229578,-0.33395612,0.23675412,0.35058907,0.21386261,0.0752385,-0.18186128,-0.25698233,-0.28723165,0.22402921,0.055127576,-0.05616332,0.22735956,-0.14969702,0.29886052,-0.2795783,-0.3274423,0.12584008,-0.23272385,0.12213045,-0.30096033,0.25996435,-0.30060044,-0.23688114,0.10135452,0.34407333,0.25362572,-0.29081956,-0.40413892,-0.14930862,-0.34674826,-0.22607204,-0.23186065,0.34145188,-0.20534863,0.04971819,-0.25205386,-0.21566522,-0.33380455,0.15479217,-0.077217795,0.3127048,0.18330765,0.20144837,0.30305937,0.23232132,0.19319524,0.24643798,-0.13464822,0.31017956,-0.039897386,-0.11459092,-0.09998702,-0.040345505,-0.03387757,0.11084925,0.15735245,0.26619676,-0.21459359,-0.14859895,0.23307055,-0.099524945,-0.24194625,-0.0441737,0.21965335,-0.23787779,-0.06861248,0.2449263,-0.23395029,-0.036789503,-0.06857058,0.3138392,0.15880673,0.18046732,0.04502071,-0.13779011,0.37115934,-0.14381129,-0.15991434,-0.13196224,-0.16826448,0.29976544,-0.22531545,0.094718754,-0.054252397,0.26894492,-0.050051175,-0.1880283,-0.10461718,-0.32913542,0.30204856,-0.0748869,0.2837697,-0.11009593,0.2765938,-0.08328929,-0.14533672,0.15360157,0.053579926,-0.17336097,0.35139373,-0.07027294,-0.14052755,-0.11002412,0.2390762,0.3311258,0.16511464,0.3141763,-0.23064786,0.28753033,-0.08388396,-0.06581066,-0.13287407,-0.14659873,0.20109919,0.21872754,0.19335176,-0.055642515,-0.20040475,-0.11862599,-0.055523343,-0.040888157,-0.12383154,-0.19316298,-0.03079935,-0.1507755,0.12468759,0.35643932,0.073553175,-0.036777083,-0.055462647,-0.020165127,-0.03918274,-0.13506079,-0.13326676,0.25115922,0.31023815,-0.011558363,-0.09396989,-0.22250894,0.046875913,-0.09554682,-0.1395022,-0.1328211,-0.24963433,0.27330682,0.417512,-0.1799564,0.3955631,0.21977617,-0.18165918,-0.29672974,0.13302386,-0.15957266,-0.16951571,-0.066801876,-0.30338198,-0.033682447,-0.07288921,-0.23827259,0.015248498,0.33598387,0.1268646,-0.28470755,0.24339165,0.0776653,0.14281827,0.24270801,0.31778198,0.3874504,-0.090306155,-0.051949196,-0.1193042,0.16722897,-0.25606418,0.33876243,-0.18709679,0.007775396,-0.20719314,-0.22003302,0.20267634,-0.06257726,-0.011781152,-0.010857802,0.36183086,-0.22693497,-0.12400689,0.16827326,0.33755848,-0.046874654,-0.24534789,0.040983357,0.265014,-0.03267425,-0.18115696,-0.11206528,0.21005435,-0.17627709,-0.15131854,-0.29230094,0.06958943,0.011962827,-0.14715862,-0.048951145,0.21654555,-0.02817826,0.2102547,-0.34325182,0.25774232,0.20128405,-0.12196532,-0.20867775,0.21070628,0.23290752,-0.20665413,0.21474557,0.24113934,-0.17423491,0.2833202,-0.18671615,-0.091064245,-0.14170542,0.20731099,-0.31097686,-0.1832558,-0.22314648,-0.35613552,0.2901891,0.18550521,0.24940075,0.24451596,-0.1502884,0.21283582,-0.09441577,0.012958233,0.18387373,0.17730045,0.27206653,-0.12986578,0.19074652,-0.16671251,0.37224358,-0.09760459,0.22923511,-0.23607913,0.20237601,-0.046670657,-0.40025637,-0.12363785,-0.081839636,-0.13601756,-0.25708336,0.3643624,-0.15695731,-0.22433178,-0.06429044,0.23091689,-0.3566778,0.2642463,-0.0068717864,-0.34835222,-0.2396082,-0.23407432,0.18799612,-0.17513749,-0.25592902,-0.2672528,-0.16896516,0.3437922,-0.22521357,-0.117763646,0.32372674,0.19978726,-0.08720074,0.048342463,-0.24594557,-0.34227717,-0.16276753,-0.1871312,-0.019713854,0.29752025,-0.15464482,0.34253326,-0.13972773,0.4035047,-0.33407962,-0.20810542,-0.2234785,-0.2512883,0.27455455,-0.13796218,-0.08981838,0.309157,0.23544098,0.3092629,-0.1289251,-0.099562176,0.26647,0.29419348,-0.094407596,-0.18001033,0.25136465,-0.20711583,0.3037864,0.22626835,-0.1427316,-0.3687395,0.21568726,0.110856764,-0.3452979,-0.15247464,0.07639409,-0.16234569,-0.30644518,-0.12187051,-0.066187285,0.22961304,0.121108145,-0.25096092,0.42932308,0.22164632,-0.07680295,-0.1942836,-0.08088982,-0.18216702,0.3576711,0.34610263,0.051409665,0.24129769,0.23666376,-0.22747433,0.17908959,-0.062729575,0.39452252,-0.14094101,0.19371276,-0.23014504,-0.06617161,0.3174732,-0.25063822,0.060058624,-0.19840427,-0.108716786,-0.26353073,-0.010891837,-0.11845379,-0.016426431,0.24051836,-0.060628157,-0.12297792,0.007674905,0.13451649,-0.064833224,-0.12763888,-0.11869015,0.25842264,0.12709348,0.22749867,0.16438775,-0.11521845,0.27231205,0.32812345,0.1670497,0.20452842,-0.11407803,0.22319247,-0.2982681,0.27549347,0.21055105,-0.18009822,-0.052443244,-0.05350921,0.038675953,-0.15607984,0.27917507,-0.031435635,0.18426639,-0.11187765,0.22579573,0.03128608,0.25479215,-0.01670433,-0.16093028,-0.060635127,-0.035907704,0.056546632,0.07313065,-0.08657205,0.12831984,0.2470803,0.23141782,-0.164878,-0.16252837,0.26545936,-0.22483622,-0.27322522,0.38678867,-0.24477391,0.4097504,0.11886342,-0.1405013,0.21944115,-0.12622419,-0.11088371,-0.115444645,-0.2063892,-0.24679288,0.22812712,-0.122383334,-0.14842698,-0.21932043,0.35614112,0.16590343,-0.2437609,-0.03731932,0.19890167,0.27085564,-0.23178113,-0.012293445,-0.0007262869,0.2941783,-0.25823113,-0.26001376,0.099317886,-0.21746725,0.30959174,-0.087032646,0.12274836,0.17356004,0.24133345,0.15541486,-0.23583823,-0.011941,-0.05426179,-0.0032464769,-0.12595518,0.26253,0.27220774,0.3450185,0.10949744,-0.19312334,-0.08516604,-0.26224074,-0.19664189