-0.19434108,-0.081216685,-0.2124373,-0.23827372,-0.2739665,0.21121617,-0.22013474,0.31538823,0.025270239,-0.26732084,-0.14869894,-0.32432058,0.22434543,-0.11642161,0.31263584,-0.23121223,-0.15784946,-0.25182292,-0.16999835,0.27547202,-0.24993435,-0.2923183,0.036224842,-0.2227585,-0.16567172,-0.19355567,0.30167285,-0.1023435,0.1638809,0.24593763,0.3603948,-0.28961807,-0.26292038,-0.2416869,-0.10270064,0.28609404,-0.16013996,0.22449598,0.3555975,-0.1923229,-0.08535978,-0.3132881,0.19506443,-0.30250356,-0.302272,-0.038192503,0.2784391,-0.095016554,-0.11561392,-0.13667503,0.02196142,0.29148147,-0.2529971,0.13580142,-0.30420926,-0.17794646,-0.12297239,-0.33618885,0.29025778,0.31290215,0.20309477,0.03133824,-0.24017477,-0.27216703,-0.29309782,0.22160025,0.010661031,-0.059999574,0.23539199,-0.14328593,0.28067008,-0.28186563,-0.349227,0.18389425,-0.2548466,0.19817291,-0.29885063,0.27242482,-0.30767253,-0.26827553,0.122545786,0.28344005,0.24422568,-0.3098585,-0.37476555,-0.18153037,-0.37888533,-0.20332009,-0.22406301,0.3644239,-0.21135567,0.007275093,-0.26194268,-0.222095,-0.300945,0.20621961,-0.12586698,0.3130985,0.24672134,0.18104205,0.2675752,0.2766834,0.19724056,0.27061874,-0.11342716,0.18313886,-0.053705133,-0.10740811,-0.10521831,-0.034410577,-0.00970336,0.073593564,0.19657025,0.25124857,-0.22475317,-0.180703,0.24671835,-0.11547119,-0.24367681,-0.062961526,0.20850441,-0.24535692,-0.05793526,0.2745618,-0.21517989,0.02858423,-0.08950596,0.35294285,0.17388253,0.20352687,0.037417814,-0.08128096,0.35623717,-0.1536867,-0.17021362,-0.1474354,-0.15928248,0.24109283,-0.2166273,0.1461305,-0.012518998,0.26113057,-0.092588775,-0.19710086,-0.10436587,-0.3450272,0.23944156,-0.06937594,0.2786798,-0.13686307,0.30377135,-0.08634945,-0.12868904,0.13019004,0.027439898,-0.15681663,0.39759403,-0.044149905,-0.13894251,-0.13007745,0.26930362,0.37760672,0.17062122,0.2894184,-0.21981166,0.23562238,-0.120035484,-0.048107002,-0.07914227,-0.15635318,0.24730769,0.23028296,0.2631153,-0.078426994,-0.1876183,-0.1383338,-0.08847192,-0.047680635,-0.13137121,-0.21222797,-0.07661276,-0.16688219,0.17159736,0.31130487,0.063482836,-0.012236981,-0.08795526,-0.09702829,-0.054021865,-0.16930689,-0.116868615,0.25234857,0.1721397,0.028314626,-0.09174837,-0.20724101,0.0010489419,-0.05761157,-0.14235441,-0.11938918,-0.21383275,0.19727212,0.43335876,-0.2025505,0.41192737,0.21617498,-0.17519744,-0.25334314,0.06723621,-0.16397206,-0.21342796,-0.09299133,-0.33409113,-0.08526991,-0.09709945,-0.24782313,0.002636316,0.3581398,0.12002891,-0.29372388,0.25660715,0.075116575,0.21343994,0.22255842,0.33510268,0.34358037,-0.047445077,-0.020434517,-0.120355666,0.17656831,-0.2770001,0.39497313,-0.20245893,-0.0026000345,-0.23141819,-0.24763764,0.24604934,-0.08773589,-0.01444591,-0.010594722,0.39955005,-0.22517176,-0.11948897,0.2279386,0.29380152,-0.09450823,-0.2568572,-0.019075345,0.24992265,-0.07068607,-0.13042693,-0.13428766,0.19421212,-0.1935236,-0.16273193,-0.3051445,0.06737806,0.00068269484,-0.17365575,-0.025716202,0.2995133,-0.059193205,0.18400052,-0.33795744,0.25239703,0.2433273,-0.13274837,-0.20331477,0.11922343,0.10657832,-0.25061882,0.2084485,0.24749736,-0.2360874,0.24527036,-0.20391628,-0.13269374,-0.17019804,0.10304206,-0.30535245,-0.17976935,-0.24672826,-0.3621963,0.28963006,0.30395135,0.27161872,0.20814556,-0.09356744,0.20977876,-0.11466626,-0.028140606,0.27140093,0.18073541,0.24716482,-0.17210326,0.1813014,-0.16379258,0.34915343,-0.11858197,0.25171995,-0.24674852,0.2980539,-0.07071173,-0.41163912,-0.12590183,-0.10355111,-0.14488709,-0.26526076,0.3961828,-0.18074493,-0.25414333,-0.049754962,0.27664566,-0.3643877,0.28522375,-0.0073477672,-0.3317116,-0.24598387,-0.30023107,0.23643692,-0.16965896,-0.26920888,-0.28933156,-0.19200124,0.32525834,-0.24174802,-0.09526234,0.29292953,0.2315969,-0.095349066,0.047152176,-0.24687453,-0.33989245,-0.19143412,-0.19111624,-0.035468273,0.27322885,-0.15722938,0.35657907,-0.15321818,0.35340416,-0.34471002,-0.19945523,-0.20925467,-0.25913963,0.27557698,-0.102398515,-0.09810367,0.26045516,0.28486317,0.26351085,-0.15530401,-0.11632802,0.2668274,0.40307984,-0.030937634,-0.17297879,0.18931301,-0.22989957,0.31958187,0.19843407,-0.12964202,-0.3351627,0.25877202,0.1350264,-0.35457498,-0.11571669,0.074576646,-0.14451145,-0.29889676,-0.07891949,-0.040687814,0.23527886,0.16347295,-0.24698716,0.36730072,0.26377568,-0.04916228,-0.177301,-0.106211424,-0.20072415,0.32128993,0.35567096,0.069907375,0.20301065,0.31590346,-0.23567875,0.24860063,-0.06689157,0.36995044,-0.14520024,0.24352534,-0.20071878,-0.10795505,0.34344855,-0.2722834,0.08970746,-0.19604547,-0.11781744,-0.27633047,-0.013099353,-0.1574593,-0.013044059,0.23904537,-0.061795313,-0.1404408,-0.010401526,0.14276098,-0.028169218,-0.124525465,-0.098185994,0.31148797,0.0978928,0.23460816,0.18742716,-0.06236384,0.2926526,0.35161173,0.22563976,0.21579298,-0.13192795,0.16563179,-0.30638745,0.19995303,0.20493478,-0.16214973,-0.031989552,-0.1035062,0.05740907,-0.16496898,0.2948928,-0.023069242,0.16259414,-0.10002762,0.15745306,-0.0043037636,0.27673832,0.00671376,-0.11663761,-0.07133836,-0.048184123,-0.0071116174,0.14803097,-0.11200915,0.19902171,0.19547339,0.25684306,-0.1623055,-0.17296696,0.26308778,-0.24148147,-0.24642612,0.40952316,-0.16732971,0.30164787,0.24991116,-0.15180093,0.23353629,-0.07071855,-0.074195825,-0.0927736,-0.18886587,-0.26212093,0.30409893,-0.15907411,-0.13111031,-0.16075438,0.3197831,0.20774789,-0.24211426,-0.044687342,0.25841835,0.20059782,-0.17407073,0.019904891,0.0120133795,0.2770829,-0.2708607,-0.25988275,0.13624644,-0.20122331,0.3446649,-0.063169904,0.20244396,0.17630544,0.21014921,0.1972111,-0.22056308,-0.0313941,-0.011040737,0.008850764,-0.15447636,0.3363225,0.28837729,0.3442555,0.16401847,-0.15693915,-0.050376777,-0.17872413,-0.1716094