-0.025239175,0.010036807,0.15851198,-0.015628373,-0.12994578,-0.04162254,0.033913203,-0.06292274,0.0034835492,0.024474097,0.0023427315,-0.029854978,-0.06114547,0.0647382,-0.09625932,-0.073438816,0.042306054,0.01037031,0.020438708,-0.021997452,-0.046823755,-0.031341974,-0.037540868,0.02403617,0.08570767,-0.19244412,-0.22246765,-0.17152801,0.0105563775,0.0988625,-0.24070473,-0.20811683,-0.08861066,-0.20632735,-0.1717777,-0.19955364,-0.25787008,-0.11519213,-0.19107339,-0.279691,-0.18008378,-0.23139328,-0.15113801,-0.11278212,-0.21615176,-0.2596436,-0.15784341,-0.30108806,-0.22637758,-0.17418885,-0.024701301,0.0020224007,0.09735313,-0.04014946,-0.14783725,-0.00087331515,0.038061064,-0.039847806,-0.030921567,-0.053763244,0.04212098,-0.017236235,-0.12103175,-0.07190927,-0.003301686,-0.015218578,-0.11741188,-0.05310973,-0.012732881,-0.03661016,-0.09937095,-0.057478048,-0.054051794,0.09154077,0.113804184,-0.12912989,-0.018444717,0.16241659,-0.0068765287,0.0017232514,-0.056885887,0.032248486,0.14387545,0.07347445,0.0010804544,-0.016153727,0.099989556,-0.0010831133,0.102230825,-0.04518832,-0.1298965,-0.037400752,0.109048486,0.006574698,-0.11361917,0.027873306,-0.1298894,0.0486843,-0.05179619,-0.05863933,0.045990672,-0.065344796,-0.022816489,0.0411647,0.09015775,-0.17979808,-0.094673686,-0.062237192,-0.04675307,0.022029914,-0.14521639,-0.08234262,-0.026779687,0.008055229,-0.10198347,-0.1238592,-0.07855466,-0.012150638,-0.055784814,-0.064256705,-0.020203244,-0.086802244,-0.022412209,-0.0851101,-0.08840871,-0.1786373,-0.058257695,0.019858928,0.015348995,-0.23895568,-0.15450741,0.085850336,0.06694258,-0.13863112,-0.20359409,-0.0394074,0.019039538,-0.04935353,-0.14193586,-0.07279805,0.090432785,0.059720166,-0.21891893,-0.14416392,0.012032263,0.043939676,-0.15183806,-0.15591104,-0.06305494,0.09670042,0.017159957,0.017194206,0.008129176,0.07623463,0.17013448,-0.0030087272,-0.05614765,0.058264863,0.005251751,0.026671706,0.10151066,0.0024959117,0.02480618,-0.09451553,-0.038899444,0.08856685,0.010257978,-0.11165836,-0.12379553,-0.088136196,0.0013828026,-0.016112687,-0.20783588,-0.00041482502,0.02938308,0.21877955,0.108784474,0.121785745,0.15939616,0.07328568,0.23463257,0.114684746,0.04901003,0.11915969,0.1109949,0.19976428,0.102274545,-0.031354353,0.045409273,-0.018219957,0.07607818,0.091626555,-0.005374435,0.05908349,0.019515902,0.20826812,-0.006693893,-0.07529002,-0.076931916,-0.020598533,-0.32508987,-0.117543675,-0.14998373,-0.002717822,-0.2235906,-0.16551653,-0.09524727,-0.11896415,-0.072769396,-0.1976863,-0.17663313,-0.030092804,0.03168108,-0.08600032,-0.12659317,0.014580429,0.02029528,-0.06925523,-0.022041187,-0.119516715,-0.04515886,-0.17104779,-0.04038001,0.15389973,0.03169202,-0.0921976,-0.07586914,-0.045400012,-0.04547777,0.076474056,-0.20699891,0.00242228,0.036757816,0.047797766,0.13033612,-0.22653902,0.0910633,-0.06881474,0.017465191,-0.00082603114,-0.07707658,-0.01718578,0.00017212136,0.0061742077,-0.2571595,0.09776928,0.009720764,-0.020537093,-0.21216808,-0.26609582,0.017706664,0.00736857,0.057696126,0.09706417,-0.053989314,0.0024802475,-0.05147953,0.043606,-0.023134,-0.0047938055,0.004045646,0.0012060428,-0.021022223,-0.06312169,-0.026843058,-0.04622153,0.0011454787,-0.033283886,0.015186659,-0.0737521,-0.03727633,-0.010812994,0.01878742,0.06351042,0.07062453,-0.109646484,0.008506336,0.20768377,-0.02159714,-0.20943135,-0.12272201,-0.04657408,0.04996906,-0.03597043,-0.16923442,-0.17412448,-0.12987562,-0.15776964,-0.055558026,-0.028605433,-0.15933391,-0.16982323,-0.24979049,-0.028786575,0.012747405,-0.17554882,-0.05949358,-0.07273714,-0.19282171,-0.23590773,-0.08126823,-0.13731726,-0.06651667,0.043656684,0.0007785476,0.011627761,-0.034011543,0.02581868,-0.0583685,-0.031670354,0.0204792,0.05905799,-0.022642452,-0.10498061,-0.02785178,0.04179664,-0.069534734,-0.053361144,-0.17226729,-0.05691391,-0.07483482,-0.10219635,-0.084575325,-0.046384774,0.03385491,-0.054481808,-0.1497754,-0.028720552,0.08549688,0.002765134,-0.034106515,-0.10103018,0.07458189,0.07912123,0.06360114,-0.017540619,-0.075152904,0.14466521,0.034483697,0.036986455,-0.112786196,0.02110449,-0.022340456,0.052831594,0.018323483,-0.03406578,0.03346679,0.0661924,0.10912184,0.08198852,-0.025208378,0.040988017,-0.0029208958,-0.09266927,-0.10693078,0.038172856,-0.06742069,-0.07397559,-0.14106528,-0.10832666,-0.03737151,-0.06330327,0.03454689,0.000626594,-0.12729876,-0.08259821,-0.07736174,-0.11016705,-0.089729324,-0.16368881,-0.018554864,-0.06178452,-0.12476668,-0.15370607,-0.10240607,-0.0797752,-0.07495088,-0.21485586,0.0031408996,-0.031653073,-0.11626302,-0.07329074,0.011351466,0.030405456,-0.117380105,-0.08003455,0.06351146,0.055817522,-0.075958975,-0.116986446,-0.03019941,0.14179234,-0.055656552,-0.276994,-0.2677321,-0.111668676,-0.112454005,-0.20719472,-0.16981214,-0.089637674,-0.06204749,0.010925723,-0.029203825,-0.14864935,-0.010601266,-0.0869813,0.1288864,0.122393,0.09794491,-0.035085518,0.023454364,0.08504853,0.07368022,-0.0034745233,-0.1583243,0.1459319,0.037807133,-0.0069617964,-0.026727263,-0.10397111,0.093995914,0.015682032,0.06001057,-0.08545657,-0.038272824,0.052442923,0.13808413,-0.04470277,0.077596694,0.11898757,0.08418239,0.012382107,0.154162,-0.019594276,0.01120064,0.20086865,0.13442573,0.14280951,0.0149602555,-0.05099889,0.24938262,0.048715338,0.15237604,-0.0010099184,0.06810225,0.04102758,0.15583408,0.11416373,-0.013689806,0.018444652,-0.16453415,-0.18469799,-0.06477896,-0.0043920255,-0.023573887,-0.16962379,-0.18594003,-0.07312252,-0.016808363,-0.0058286767,-0.055562213,-0.041246735,0.03690966,-0.053505775,-0.095420785,-0.065648034,-0.08172739,-0.05209057,-0.06703501,-0.06957636,-0.03324561,-0.18570498,-0.14200959,0.09418599,0.07120662,-0.093300216,-0.17204006,-0.085779816,-0.013663696,0.014612045,-0.019802976,-0.12692696,-0.04433101,-0.027551757,0.029117202,-0.12303247,-0.0538168,0.12514073,0.022554118,0.065886855,-0.178325,0.06415419,0.05596494,0.12868157,-0.10655363,-0.03419097,0.042070605,-0.020516988,-0.0642049,-0.14501876,0.09883246,-0.04264184,-0.16706708,-0.054739013,-0.0773055,-0.001014967,0.120523885,-0.026790608,-0.03952481,0.06202946,-0.11923951,-0.06264871,0.011691537,-0.054376256,0.055277966,-0.011897721,-0.026888285,0.10740401,0.090909876,-0.08191498,0.08857841,0.021275077,0.033794254,-0.004605,0.0151731325,0.1227309,-0.009161991,-0.13386089,-0.19720614,-0.2643801,-0.057714075,-0.03598926,-0.16604799,-0.09516786,0.07909803,0.18149088,0.010238455,-0.09599323,0.054874986,0.12309089,0.06640715,0.1962315,0.17723806,0.11866387,-0.04318719,-0.042797707,-0.07549737,-0.023425901,-0.08923459,-0.12947312,0.12477728,0.057119142,-0.006385103,0.085488684,0.0388988,0.1048244,0.020458682,-0.03411028,0.013963292,0.049959283,0.03934412,0.035543118,-0.01589438,0.028140295,0.02879295,0.0032007846,-0.018624501,-0.04311333,0.026425013,-0.057458557,0.001863556,0.0952433,0.059490297,0.16759804,0.088998176,-0.05832372,-0.13024673,-0.042641725,0.01752562,0.043667745,-0.059002496,0.008378559,0.056475576,0.10060241,-0.018659629,-0.19867432,-0.015302116,0.013396536,0.04291444,0.00893846,-0.045519374,0.0730138,-0.1432859,-0.19507173,-0.26611584,-0.036907077,0.15324965,0.2056926,-0.00091290264,-0.24573205,0.09699229,0.048596427,-0.078746915,-0.10159177,-0.092682585,-0.03611077,-0.067850605,-0.16344428,-0.08659678,-0.08558813,0.04002053,0.14222857,0.06143422,0.07392028,0.17052026,0.06104304,0.11969329,-0.005931236,0.1131653,0.19155627,0.09795499,0.11170828,0.16333702,0.15696199,0.11526091,-0.055125758,-0.055581067,-0.004327566,0.056248207,-0.016217403,0.048001025,0.025057996,-0.07504296,-0.09077689,0.02046652,-0.02277654,0.13369448,0.05432112,0.048157778,0.09061692,0.049066696,-0.050627206,0.022291522,-0.047151558,0.0012899269,0.1716375,0.07148655,0.17192563,0.14735568,0.16036208,-0.08552362,0.12142756,0.03942271,0.08465571,-0.25369775,-0.09687811,0.08368205,0.061551034,-0.08835824,-0.22429535,-0.20141456,-0.0493094,-0.004732886,-0.005211456,-0.0070836456,-0.27742007,-0.116142586,-0.15521358,-0.16130829,-0.11006965,-0.28892466,-0.19002804,-0.16133475,-0.1482143,-0.13406478,0.09397612,0.016396688,0.046854857,-0.0347356,-0.21991448,0.020553961,0.04261609,0.15397927,0.1443356,-0.07862142,-0.074374616,-0.06433923,0.11822176,0.04990613,-0.049449246,-0.14353482,-0.13865618,-0.014139706,-0.04947058,-0.21911407,-0.20480151,0.0073339837,-0.031993736,-0.03295895,-0.19793129,-0.07289676,-0.026426343,0.0018437247,-0.02801369,-0.037286002,0.038656693,-0.0041561113,0.0060609393,-0.090734,0.012183295,0.10985857,-0.036043502,-0.08707216,-0.1426472,0.048940368,0.0069471314,-0.10779982,-0.17415664,-0.14545293,-0.07596724,0.061616234,-0.010909026,-0.117260836,-0.051309556,-0.11467909,0.046191998,-0.10468443,0.07386537,0.103632,0.19889468,-0.097457245,0.11934097,0.12300429,0.1558069,0.038982235,-0.121032625,0.010088626,0.050556354,0.03713662,-0.10863475,-0.079961956,-0.12751707,-0.04706051,-0.1537032,-0.13967644,-0.19907853,-0.14058012,-0.12314763,-0.12071778,-0.05909271,-0.08940019,-0.19257906,-0.010478711,-0.09273455,0.0625363,0.01900101,0.0012981722,0.039777342,0.08345159,0.103072815,0.016625496,0.07316981,0.0070517496,0.081070356,0.014157862,0.035467308,0.023437003,0.024437552,0.009973023,-0.05450461,0.03434791,-0.10253378,-0.0070118615,0.00016966929,-0.03787668,-0.14296779,-0.2629202,-0.07462331,0.058455028,-0.03674921,-0.20537408,-0.088683635,0.05851442,-0.03213751,-0.08971528,0.039574858,-0.059551153,0.017566904,-6.408551e-05,-0.04767276,0.104932174,-0.15785575,0.02804045,-0.01021628,-0.10995731,0.105055906,0.21900067,0.1006666,-0.105081275,-0.1900388,0.035544395,0.0011878647,-0.037348412,-0.021078546,-0.10829766,0.13992308,-0.05302422,0.028425075,0.06489459,0.06002035,-0.017909374,0.17067657,-0.0019301976,0.01701478,-0.009552862,-0.0034808519,0.13390365,0.22226414,0.09212244,-0.04155209,-0.097547434,-0.11394336,-0.116662346,-0.11205522,-0.13089831,-0.05788558,-0.15775956,-0.06995096,0.017984347,0.09215586,0.05934532,-0.071549065,-0.13063625,-0.044964742,0.16536702,0.02702818,0.018966885,-0.17468771,-0.04409933,0.16319339,-0.06415652,0.021866882,-0.09973872,-0.08834147,-0.09594831,-0.025235122,-0.03986241,-0.22674468,-0.17499767,-0.07854991,-0.09265365,-0.06956366,-0.07336559,-0.073077165,0.0828157,-0.09754034,-0.04705813,-0.052160632,-0.035898943,-0.06934433,-0.21413381,-0.078641415,-0.08951432,0.08025406,0.019673305,-0.0135288425,0.09789175,0.20643786,0.07792137,-0.023332125,-0.021753017,0.089364216,0.09144241,-0.0023676187,0.05817188,-0.009716657,0.030151783,0.06488908,0.039267696,-0.09723717,0.04280802,-0.07413239,-0.15497056,-0.106674984,-0.07584789,-0.105519906,-0.11155481,0.11787126,0.083044335,0.104922414,-0.041792937,0.118810445,0.14273202,-0.0039337547,-0.07782731,-0.13373826,-0.13556777,0.004265486,-0.010471046,-0.11676811,0.06676606,-0.08448248,-0.14525291,-0.018030372,-0.08420771,0.19657387,-0.040456817,-0.041256297,0.04168801,-0.05086149,0.1157693,-0.119316496,-0.12303067,-0.064009815,-0.024144158,0.04960442,-0.07294136,-0.05806102,-0.061555624,-0.07035626,-0.037566856,-0.18829338,-0.024387527,0.027344571,-0.08305207,0.054521024,-0.11197035,-0.21290757,-0.05376149,-0.10046412,0.10839522,-0.1715585,-0.18839934,-0.030190056,-0.07138847,0.03242216,-0.04797355,-0.06514419,-0.04882126,-0.03739413,0.019287245,-0.17605719,-0.20562463,-0.21526526,-0.0990586,-0.014163117,-0.00051444984,-0.038398582,-0.069617584,-0.015475243,-0.0800273,0.08059434,0.07019543,-0.15607066,-0.13003896,-0.043572724,-0.017422136,-0.010245515,0.20342463,-0.010332718,0.0006502687,0.08344807,0.17631757,-0.075340234,-0.029720565,0.0406636,0.1314913,0.04610669,-0.008924885,-0.007356155,-0.11639015,-0.16979249,-0.23716338,-0.14730862,-0.18220101,0.16797,0.10657335,0.0011875427,-0.009126077,-0.057752464,0.059344456,0.055353932,-0.06845125,-0.21349588,0.040925324,-0.062247425,-0.021842716,-0.1484071,0.16418312,0.14128794,-0.103847995,-0.025337856,0.040640194,0.020334033,0.10600432,-0.09784317,-0.030457012,0.008663873,0.10389568,0.16115351,-0.14978331,-0.0037354368,0.045603395,0.10321202,-0.024481349,-0.061923288,0.12272908,0.09839403,0.056958545,0.09638253,-0.12057528,0.012424426,-0.028827308,-0.050806243,-0.11703388,-0.044342816,-0.06182142,-0.04597358,-0.025721783,0.014921543,-0.119136386,-0.07870668,0.08934989,0.06353358,0.024293618,0.026721617,0.07723694,0.074646294,-0.017482985,0.034967992,0.0059169773,-0.09789176,-0.01869163,0.080540225,0.11542568,-0.12993102,-0.08881217,-0.0771964,0.075512215,0.23347592,-0.17646587,0.037989043,-0.06302066,0.0205535,0.120928906,0.13861664,0.0012826382,-0.08271599,-0.112386815,0.12054489,0.0138696935,-0.025067275,0.049929187,0.0025114708,-0.07241556,-0.023062924,-0.11208487,-0.0048799915,-0.13446952,-0.10718118,0.048455067,0.076209895,-0.07602344,-0.105347596,-0.05663326,0.06814623,-0.1211797,-0.10344818,-0.1423125,-0.102930725,-0.027617091,0.008928275,0.030383259,-0.03947569,-0.117506295,-0.04419759,0.16089751,0.1596083,-0.101765595,-0.115489185,-0.04670528,0.07148034,0.10795989,-0.0050447844,0.004529245,-0.18210977,-0.018468775,0.09962655,0.07121799,0.07979832,-0.056410685,-0.0721275,0.046718925,0.014034878,-0.03129244,-0.08855835,-0.08308679,0.043405652,0.08571027,0.029167,0.07364183,0.07324909,-0.04191462,-0.13666086,-0.13151972,-0.10427822,0.010688728,-0.14088373,-0.07197478,-0.11618897,-0.11661061,-0.12174748,-0.12978466,-0.0626549,0.03002865,0.04828617,0.03451102,-0.025129303,-0.1507712,-0.07944935,0.12877381,-0.028889319,-0.03443315,-0.12425838,-0.021752138,0.09991743,0.17067842,0.22583725,0.0494995,0.063079275,-0.038962193,-0.07398402,-0.13416162,-0.12325588,-0.16653681,-0.1232524,-0.061092384,-0.18600497,-0.23473828,-0.15962835,-0.013284506,-0.12964818,-0.22731362,-0.11994295,-0.15852036,-0.070122465,-0.082475975,-0.16559468,-0.14753176,-0.15285468,-0.16859485,-0.06605106,-0.20597737,-0.1506926,-0.056350548,0.028466731,0.07771285,0.07744391,-0.06472549,0.023087692,0.026312595,0.11502292,0.050763547,-0.068318516,0.28816435,-0.23974916,-0.11660672,-0.0585481,0.056230363,0.21153578,-0.15382393,0.0035166654,0.054065306,0.07286505,0.16373935,-0.22900142,-0.15376271,-0.07541747,-0.10117578,-0.021218747,0.010941037,0.0165746,-0.027946193,-0.114657745,-0.12233755,-0.046830546,0.0075921607,-0.15213266,-0.10968165,0.06694926,-0.13999814,-0.22599176,-0.12145119,-0.05604407,0.1579596,-0.122738644,-0.09956826,-0.00021590249,-0.001915148,0.19569582,-0.0044550872,-0.015333259,0.048092768,-0.032404345,0.1429779,0.050052423,0.09275147,-0.008993453,0.094779946,0.09893392,0.17163554,0.1255053,0.017573413,-0.12954141,0.054550644,0.17889705,0.05997797,-0.07822346,-0.06438829,0.025711529,-0.08227912,-0.15003604,-0.013808711,-0.0747245,-0.1640891,0.10493216,-0.10453914,-0.2668572,-0.39576343,-0.24117559,-0.04012241,-0.06374682,-0.14654537,-0.121844575,-0.20492746,-0.009805984,0.06874145,0.07033595,0.2510145,-0.16432366,0.042544212,0.15426748,0.15382522,0.12068716,-0.11870468,0.055699658,0.044951517,0.08336068,-0.080241024,0.06430927,-0.083521746,0.00818856,0.044648435,0.21507035,0.17304653,-0.013301155,-0.019459737,0.11260891,0.10612787,0.091856726,-0.15002964,-0.007818266,-0.032090813,0.117127016,0.045254078,-0.106298685,0.03782549,-0.0020764016,0.023979373,0.018271051,-0.0360574,0.052798003,-0.048153758,-0.061672904,-0.013033893,-0.11674179,-0.12334147,0.08583201,-0.01899945,-0.023114841,-0.25441843,-0.123368904,0.16098306,0.19193785,0.20318455,-0.16075937,0.089798436,0.28095257,0.13078009,-0.02096788,-0.10571898,0.13885655,-0.008243903,-0.12684001,-0.3216561,-0.33503097,-0.07091616,0.026009643,0.07543435,-0.023218086,0.002698325,-0.073471114,-0.028424557,0.11514199,0.18317723,0.03239442,0.0050454736,0.08195209,0.101044886,0.08645645,0.08864949,0.12808172,0.013732204,0.00551001,0.067856155,-0.04184566,-0.100156344,0.045504816,0.07543194,0.093017615,-0.13046868,0.046196997,-0.0672402,0.06038969,-0.001950843,-0.1079232,-0.021850005,0.07537767,0.008967664,-0.11790106,-0.1538893,-0.09882961,0.023764584,0.15007791,-0.049305853,-0.24396035,-0.121743105,0.04633434,0.02477639,-0.06296002,0.13636832,-0.091305025,-0.07662922,0.011550295,-0.1715818,0.10785722,0.068351984,0.059978746,0.07912284,-0.115815304,0.044261727,-0.028917225,-0.119651385,-0.029887555,-0.028467424,-0.040954,-0.041224413,-0.015865596,0.05748419,0.18681869,0.0128442105,0.0804377,0.08028887,0.18175495,0.25068048,0.03437151,0.17612806,0.29235357,0.06855773,-0.021969967,-0.061900392,0.0016520425,0.081166714,0.19000782,0.14403772,-0.054482754,-0.060340762,-0.1953001,-0.07477565,0.09820348,-0.13394268,0.041409053,0.12604658,0.19648144,0.11131424,0.03009074,0.18825775,0.09975316,-0.036416072,-0.08147049,0.0050717616,-0.026596125,0.0408649,0.13186619,0.06637009,-0.09367452,-0.14470762,-0.044862635,0.07653671,-0.0026654513,-0.024280686,-0.0969034,-0.060563598,-0.16204342,-0.08934915,-0.11892189,-0.10775754,-0.04093499,-0.12892358,-0.059865825,-0.1573119,-0.24773848,-0.13373993,-0.13802615,-0.02984215,-0.09179593,-0.20748922,-0.019243173,-0.053431116,-0.053784765,-0.270051,-0.10347444,-0.015202872,-0.0083352355,-0.18221398,-0.042949054,0.020850461,0.02515267,0.0439116,0.080450445,-0.05104064,-0.026060438,-0.08913627,-0.09569489,-0.06436782,-0.15661404,-0.22565685,-0.18661518,-0.10592926,-0.033456143,-0.2366222,-0.10650404,0.0036589915,-0.016902504,-0.036515865,-0.20162256,-0.03540067,0.066740535,0.07118018,-0.17267728,-0.025464829,-0.009159468,-0.027378548,-0.028448662,-0.022273147,-0.014518325,0.1088982,0.077647544,0.083932385,-0.05389513,0.02918972,0.05185137,-0.071535416,-0.036633376,-0.107914284,-0.062369693,-0.088916324,0.05474699,-0.0025856718,-0.00073677476,0.0814639,0.03238643,-0.0466497,-0.06650923,-0.06496193,0.00024968365,0.034900967,-0.009337129,-0.0873177,-0.1483848,-0.036687627,-0.13115275,-0.097909704,-0.13399436,-0.10755287,0.009511912,-0.019971812,-0.059940536,0.015033105,-0.0718693,0.14828673,0.08237645,-0.024131434,0.049734272,0.018760094,0.028576145,-0.113722965,-0.026192926,-0.030133843,-0.08068766,0.02971321,0.07008086,-0.016774803,0.037343398,-0.024504066,-0.027177079,-0.008749909,-0.10434705,-0.0057684695,-0.11434804,-0.056424186,0.0014289222,-0.053792045,-0.06480274,-0.092151985,0.038522746,-0.010756706,0.0003657151,-0.07770904,0.0077952743,0.0049576554,0.034739804,-0.037937086,0.016677028,0.038879927,-0.2917224,-0.22626913,-0.08499281,-0.025452975,-0.006745496,-0.19086085,-0.106575586,0.10529693,-0.0049539744,-0.011073123,-0.026250271,0.13945493,0.093514666,-0.13844937,-0.0792713,-0.3084408,-0.114855364,-0.08387903,-0.20537324,-0.09032731,-0.16656083,-0.11168222,-0.15755308,-0.17036995,-0.09730335,0.13332208,0.09758088,0.07253429,-0.12472405,-0.09940347,0.0545179,0.00010140949,0.029960029,-0.079324275,-0.11657604,-0.053723693,-0.16092125,-0.018469831,-0.030950822,0.00063677743,-0.12536986,0.042332683,-0.011186983,0.034589913,0.006620832,-0.055892363,0.014659264,-0.08170334,0.059019983,-0.035993587,-0.06968485,-0.06069622,0.046465695,0.11210763,0.22916053,-0.13468352,0.022818396,-0.029187731,0.045198083,0.123073556,0.049876187,-0.0898065,-0.19568388,-0.12610161,-0.16492943,0.13322005,-0.00010976348,-0.09929352,-0.12112839,-0.1453091,0.02518332,0.036301736,-0.032182228,-0.12881276,-0.05198379,-0.16665915,0.01709366,0.07214046,-0.00610255,0.00387034,-0.08456604,0.02607025,0.14629315,0.009799804,-0.06643316,0.049349964,0.18279092,0.2409128,0.053194083,-0.093211435,-0.052494388,0.1434972,0.15490729,-0.16059434,-0.065001994,-0.16265766,-0.02024778,-0.032086786,-0.04540506,0.015081282,-0.056567885,0.11443466,0.13438882,0.124470115,-0.021055019,0.12616608,0.11407592,0.08205634,-0.11563456,-0.10152043,-0.02880269,-0.017941203,-0.031831816,-0.12213994,-0.033105787,-0.025553701,-0.0042909635,-0.06496224,0.013119482,0.005158719,-0.08618036,0.009079122,0.06445529,-0.025059184,0.036114287,-0.095787704,0.19003876,0.25740626,0.15187605,-0.083287895,-0.033330783,0.19320379,0.13819574,-0.023752725,-0.06643764,-0.011294376,0.010906052,-0.18799138,-0.21709456,0.0024316362,-0.03578789,-0.13024713,-0.2074819,-0.13061635,-0.13540532,0.022568678,-0.2230324,-0.09590477,0.017544022,-0.17708518,0.07145014,0.11761311,0.11655235,0.008099701,-0.047074597,0.2263244,0.051135205,0.04614534,-0.10375523,0.025281653,0.14632234,-0.07286244,-0.12513392,-0.11984444,-0.045690946,0.01398243,-0.053732276,-0.04075023,-0.10889521,-0.035874162,-0.0722114,-0.037553683,0.009672161,-0.060220465,-0.13076425,-0.039991688,0.020933747,-0.0060734563,-0.103337556,-0.17588009,0.06783712,-0.0600972,-0.12724191,-0.16976306,-0.18250868,0.0806566,-0.111369975,-0.10886853,-0.21005712,0.0135021135,-0.008471661,-0.115050115,-0.08231366,-0.07744934,-0.047187567,-0.013364035,-0.07401589,-0.111356355,-0.13225369,-0.07822491,-0.09720969,-0.035435278,0.14257424,0.09140833,0.14891985,-0.05574787,0.025915213,0.15791084,0.1510382,0.1792767,0.07962369,0.05129502,0.01434207,0.14062716,-0.032606117,-0.060029574,-0.15735994,-0.18122497,-0.12988216,-0.21502908,-0.027411181,-0.09572765,-0.049606822,-0.21807608,-0.124323554,-0.11431814,-0.08746244,-0.09600063,-0.089641936,-0.008428482,-0.13290964,-0.048344076,0.028649628,0.13653074,0.07726944,-0.1252318,-0.036917124,0.026965901,0.10282933,0.028960487,-0.07501307,0.016373208,-0.05670565,0.07509212,-0.02383085,-0.095442824,-0.02681831,-0.024942992,-0.07430962,-0.02750474,-0.06594247,-0.22111535,-0.039872497,0.08782355,-0.035713803,-0.1680422,-0.09024494,-0.09473501,-0.04195141,0.052119344,-0.043972522,0.13485174,0.069263674,-0.20211947,-0.121816315,-0.042120963,-0.042774316,0.07058507,0.05045251,0.0015671431,-0.0020684658,-0.08541779,-0.079170786,0.10385055,0.05903645,-0.020221828,0.11000438,0.053312745,-0.027752183,-0.065509714,0.002741564,0.03457499,0.10856548,-0.03083314,0.020912193,-0.00016607606,0.0026149794,-0.1449228,0.040852703,0.23261923,-0.11416052,-0.087879434,-0.25134376,-0.052683055,0.11289298,0.07587643,0.10583315,-0.12653159,-0.02773285,0.022528233,-0.06084972,-0.22115183,-0.07102622,-0.0021593806,-0.10342206,-0.20560911,-0.10270362,0.10938413,0.12584448,0.0371694,-0.1181435,-0.061683394,0.0029933813,0.16481645,-0.024034427,0.019577252,-0.056041066,0.028986273,-0.06442906,-0.106904194,-0.20014578,-0.20587105,-0.14186248,-0.19263169,0.032923568,0.11484079,-0.13430591,-0.04862292,0.15428255,0.083875045,-0.10084688,-0.061837405,-0.04901832,0.026374154,-0.13107032,-0.15796311,-0.10002227,-0.15984516,-0.074486844,-0.15555513,-0.15476565,-0.042371146,-0.031671863,-0.08169709,-0.03343828,-0.083083935,0.011300688,-0.06796309,-0.11786992,0.08068396,0.08560941,0.12627597,0.20058678,0.18175702,0.1706406,-0.076769575,0.038922828,0.04798921,0.122552514,-0.06859769,-0.05482389,-0.000818979,-0.02197832,0.060502715,-0.0038605821,-0.1434488,-0.18470863,-0.2018367,-0.07850692,0.012885325,0.02511206,0.027694443,-0.1636688,-0.13021466,0.03833881,-0.11076647,-0.10004243,-0.08762841,0.020796267,0.078670405,0.05563777,0.0074720574,-0.09411866,-0.008619724,0.01927677,0.0764415,0.033912826,0.03945111,-0.068965495,0.08996073,0.044408906,0.029142665,0.15366153,-0.13445456,-0.03868181,-0.10915113,-0.04099391,0.09873563,-0.13687837,-0.14337644,-0.10632076,-0.14775035,-0.062852055,0.019966725,0.013598531,-0.04891058,-0.111893594,0.06730348,-0.10955313,0.030112298,-0.0028059052,-0.1417914,0.02201967,-0.26707992,0.025355056,-0.040120605,0.021370327,0.1412306,-0.20061691,-0.014124942,0.02050658,-0.11061109,-0.04701836,-0.08661464,-0.04308902,-0.018536279,0.050404657,-0.12852246,-0.16265678,-0.040427964,0.05473597,0.058933917,-0.0722905,-0.060448278,-0.2540088,-0.09828776,-0.029734297,0.102470964,0.012530283,0.06857892,-0.011780376,0.031316403,0.12894797,0.21565445,0.26972264,0.09589491,0.2717109,0.10419513,0.049551062,0.05606101,-0.12517731,-0.19204444,0.02140889,0.10897393,0.12990388,-0.010878787,-0.017508997,0.03898187,0.05063196,0.03902881,0.13543819,0.054231454,-0.154628,0.0073006847,-0.03198465,0.01486797,-0.083009884,-0.24806355,-0.020817015,0.019223318,-0.14258434,-0.054508924,-0.015181732,0.045742787,0.14339793,0.0026605085,0.062282603,-0.042017575,-0.015116873,0.017683467,0.05437095,-0.07033082,-0.01774622,-0.04856871,-0.018984199,0.16112159,0.119418144,0.054966465,0.032609135,0.031229688,0.0022045344,0.03021346,-0.039392576,-0.021235645,-0.12529197,0.1055058,0.09613646,-0.018793814,-0.015206916,-0.00015947277,-0.008012288,0.038235947,0.0029295452,-0.053817023,-0.25935927,-0.024603752,0.042206433,0.020709317,0.18702789,0.066162616,0.088988826,0.15426983,0.10032917,0.10648339,0.073229976,0.039035592,-0.12292359,-0.176354,-0.00846514,-0.098501064,-0.07741376,-0.08357358,-0.04392134,-0.16707142,-0.21569665,0.10145408,0.048651394,-0.050656844,0.077610426,0.20392546,0.04460564,-0.087549955,-0.09904576,-0.06906028,-0.07195084,0.03506127,0.009741828,-0.15812995,-0.09796052,-0.10530156,0.039255608,-0.017519478,0.03567969,-0.04235951,0.0022277674,0.053993385,0.086215116,-0.06768358,-0.064055264,-0.06979177,-0.03221139,0.06428238,0.04171266,-0.026196618,0.01757812,0.07421755,-0.0037395896,-0.0057727387,-0.09597086,-0.120454274,0.001454991,-0.069244735,-0.24549487,-0.14705257,-0.17193133,-0.058280524,0.14841749,-0.04319211,-0.21668164,-0.1974242,0.02738912,0.22749124,0.061556842,-0.11167377,-0.05546214,-0.054218017,-0.090117194,-0.15514171,-0.10708567,-0.048051827,0.08341664,0.099753626,0.07122142,0.044566628,0.018263198,0.04440133,0.008564783,-0.036476586,0.036485676,-0.13328145,0.17974983,0.11509859,0.14947583,0.038893636,0.014624703,0.11889719,0.0048018494,-0.15843897,-0.101915255,-0.14032006,0.13577607,0.13356818,0.059127577,-0.059755486,0.2266164,0.05239197,0.068555765,-0.11486938,-0.07429509,0.060345188,-0.032912534,-0.11427042,-0.10209338,-0.09774537,-0.10126824,0.15809432,-0.044126425,0.020055862,-0.08531186,-0.2085884,-0.0306645,-0.089874,0.053566318,-0.04474351,-0.15911677,-0.06696925,-0.0036405306,0.047569226,-0.046275627,-0.28462824,0.004703822,0.14052552,0.04475637,-0.025374303,-0.13336883,-0.1183209,-0.08107558,-0.121807836,0.057886265,-0.008170441,-0.13919444,-0.10071152,0.035452105,0.22665304,-0.024404148,-0.04695309,-0.024593158,0.13439499,0.008702067,-0.105762176,0.030850518,0.07295285,0.061400544,0.055514045,-0.17711353,0.07792328,0.043124765,0.015404973,0.022821812,-0.18927294,-0.036651146,-0.120532915,-0.22383542,-0.030300887,-0.09236342,-0.053463735,-0.02796389,-0.0863772,0.07678321,0.00031996463,-0.08894235,0.053077392,0.06259567,0.08409817,-0.007037318,-0.07303016,0.07691523,0.14359947,0.011250168,0.11795699,-0.14644738,-0.0128798345,-0.06886513,0.056583285,0.1512129,-0.09791037,-0.21921977,-0.23092058,0.0037812802,0.19854392,0.03865637,-0.091825955,-0.093278505,-0.055023458,-0.14399073,-0.17330809,0.062283333,0.093669504,-0.010830779,-0.13899659,-0.028074864,-0.1003711,0.0451721,-0.020418277,0.07502578,0.03130005,0.027465783,-0.00034556404,-0.1484711,-0.16440436,-0.07184619,-0.1242583,-0.13308921,-0.1931952,-0.23447415,-0.086645454,-0.09406803,-0.1820807,-0.17503642,-0.042747058,0.0075015593,-0.027402045,-0.09648343,-0.022960884,0.10307636,0.15592067,0.052500352,-0.08194608,0.16588603,-0.13710833,0.12953521,-0.04417085,0.017500153,-0.011801922,-0.14253311,0.029297188,-0.07003901,-0.061074726,-0.020401252,-0.046514787,-0.0342019,0.014914229,-0.027222814,-0.0018681993,-0.02529042,-0.003011385,0.010086502,-0.041252874,0.078085616,0.122148044,-0.023629831,-0.07331016,0.09485677,0.115890816,-0.17730235,0.012814087,-0.13420229,-0.1728258,-0.19425969,-0.1503003,-0.13567981,-0.18130778,-0.13660607,-0.07190236,0.0044792546,-0.060281638,-0.173893,-0.12687273,-0.07089806,-0.07830399,-0.1679366,0.029168598,-0.017020179,0.19354545,0.13221143,-0.08262892,0.10694868,-0.072848454,-0.1360525,0.05485272,-0.022794275,0.10164497,-0.009544768,0.212267,0.06086149,0.116317496,0.003903974,0.03203558,0.07934406,-0.07495108,0.09210276,-0.07677204,-0.07890429,0.010374863,0.00066744385,0.046380382,-0.1971995,-0.15052512,0.00022085951,0.15868962,0.38938013,0.06926572,-0.15177856,-0.025435342,-0.114965774,0.13384071,-0.033275254,-0.07093367,0.016504768,0.024927342,0.090759136,-0.15352023,0.003934541,-0.0011806802,-0.0035332902,0.032390468,-0.17260109,-0.001780106,0.07121764,0.03500525,0.043256644,-0.18901874,0.12716377,0.02566802,0.17068729,-0.11298404,-0.050073627,0.072372854,-0.14937346,-0.15658571,0.044351768,-0.06830523,0.008038016,-0.085160166,-0.10420337,0.039534517,-0.028433446,-0.03577613,-0.033813495,0.016704587,-0.13805202,-0.05739422,-0.10141854,-0.11548382,0.0031204156,-0.02407131,-0.03683525,-0.25403437,-0.16088077,0.0042573526,-0.08208571,-0.123746045,-0.11793379,-0.20781113,-0.05635371,-0.1471424,-0.07777123,0.03427663,0.13136314,0.015481288,-0.017822493,-0.076526605,0.064631134,0.07410516,-0.14537542,-0.05723067,0.022194903,0.05683691,-0.18219122,-0.12847894,-0.00049661694,-0.052303515,-0.16740343,-0.027886525,0.041061573,0.0086291265,-0.00914274,-0.015070878,-0.0051827813,0.021414578,-0.05889383,0.054121394,-0.0051321923,0.07361537,0.047024526,-0.12037288,0.07066046,0.017099693,-0.01895787,-0.10096628,-0.08516679,0.08253751,0.0062096696,0.0014508279,-0.168854,-0.06838275,0.015876634,0.14002725,-0.059298113,-0.2191242,-0.09748562,0.25912836,-0.06959758,0.058267213,0.14035788,-0.034475904,0.05310124,0.05407496,0.18565148,0.032484937,0.12042699,0.052854218,0.009389092,-0.04043477,-0.2084143,0.09700132,0.022323417,0.20089757,0.13256377,-0.13890393,-0.058418177,-0.044851124,0.20332195,0.027799428,-0.16012594,-0.070634395,-0.14184181,-0.15586202,0.065281905,0.040376298,-0.06983289,-0.092173904,-0.062005177,-0.18967995,0.120676205,-0.09138275,-0.06314464,-0.087018535,-0.09129592,-0.068186566,-0.10762637,-0.046355423,-0.123589434,-0.07090824,0.14290242,0.05554519,-0.10843021,-0.13833891,-0.000523667,0.18463309,0.1437484,0.060358692,-0.09808675,-0.18116161,-0.030989958,0.2009641,0.008273078,-0.09336894,0.09964756,0.03916931,0.13093215,-0.14700763,0.10380035,0.13358374,0.16350155,0.054629616,-0.1667771,0.23622638,0.15091883,-0.07537829,-0.09079163,-0.12534842,0.040982854,-0.15302497,-0.19340432,0.14633322,0.026393702,0.089992054,0.08051544,-0.0025217927,0.089896694,0.07623857,0.092810676,0.03829988,0.04383219,-0.059324563,-0.00833082,0.030615661,-0.0027310268,-0.047360294,0.0072326967,-0.011408412,0.050911944,0.026477367,-0.009119585,-0.146907,-0.09843126,0.028406588,-0.020162482,0.033579297,0.06156827,0.1609255,0.031319246,0.023725977,0.16968714,-0.16149361,0.103297725,0.22405897,0.20378971,0.015346776,0.12388741,-0.035699256,-0.05568511,-0.11684727,-0.2711697,-0.011596287,0.09573243,0.008654208,-0.07865545,-0.2543918,0.06648303,0.08052855,-0.0017683334,-0.026203357,0.014889523,0.0158141,-0.007518571,-0.00094482594,-0.09925845,-0.1335316,0.1368187,0.027581418,0.031288285,0.0006186048,-0.07499149,0.048703045,0.06792836,0.08160426,0.024389137,0.052610233,-0.027361628,-0.04350291,0.10056838,0.04342571,-0.0038522303,0.03094896,-0.115198344,-0.09507032,-0.043040205,-0.027633265,-0.04403424,0.001385134,-0.039510205,-0.028353913,-0.08218424,-0.11849311,-0.03902178,-0.009909656,-0.045774706,0.027760204,-0.12287082,-0.091573715,-0.008969399,-0.044724844,0.030084863,-0.17818348,-0.0111948885,0.103157386,0.011004186,0.0493586,-0.031230519,-0.10277929,-0.033102483,0.1206545,0.042776447,-0.043800715,-0.20965987,-0.07279369,0.13156542,0.22243167,-0.03495844,0.016515698,0.08825538,0.047628004,0.18642165,-0.02777388,-0.014554373,0.05519981,0.017790524,-0.07735371,-0.09078326,-0.017371723,0.035111196,0.007847653,-0.054516137,-0.10342147,-0.027381195,0.05593813,-0.034923956,0.022612043,0.009815086,-0.034701426,-0.024927912,-0.02312699,-0.05727807,0.1408592,0.06050211,-0.04399258,0.047575124,-0.033178505,0.15590443,0.1075986,0.051048927,0.034797814,0.04571325,-0.060610034,0.0028774133,0.041524004,0.034123,-0.00018293702,0.08244804,-0.033739757,0.02973247,0.009397595,-0.022723485,-0.29646012,0.0441241,0.14829385,-0.021149026,-0.04771505,-0.2651467,-0.13569891,-0.02026644,-0.13133729,-0.15972799,-0.080172114,-0.20601441,-0.1643805,0.05365283,-0.065047115,0.12342421,0.05207754,-0.096242756,-0.026418127,-0.10475456,0.07506032,0.04314022,-0.035981987,-0.12996635,-0.14159024,-0.04293086,0.22061177,0.10426213,-0.07590771,-0.15866081,-0.10924472,-0.066806935,0.04257342,-0.09610149,-0.11516023,-0.26373503,-0.1944117,-0.10802118,-0.048910506,-0.020808801,0.021868747,-0.04918563,-0.15632717,-0.16927421,-0.066730864,0.030337958,-0.03543752,-0.21393234,-0.11760577,-0.10579938,-0.17732932,-0.13286144,-0.20256917,-0.089835465,-0.06415146,0.071520224,0.08503395,-0.0856105,0.031761404,-0.07048339,0.10326305,0.09128681,0.007990583,0.0558126,-0.001046136,-0.01791926,0.094093226,0.09816853,0.0629005,0.05331144,0.051140517,0.07017734,0.18868625,0.10755037,-0.05195163,-0.1591321,-0.16710106,-0.03335801,0.05266114,0.025301257,-0.22951382,-0.22825497,-0.21548833,-0.064655714,-0.061224412,-0.07033521,-0.2117189,-0.12506957,-0.17467555,-0.018557971,0.0063399575,0.039545897,0.012423976,-0.03898318,0.12780316,0.169973,0.14304869,0.07909723,0.09329265,0.11230479,-0.033400286,-0.044816803,0.026877698,0.06186461,0.06354088,0.035715956,-0.028126305,-0.026730424,0.051885676,0.053683814,-0.02792338,-0.026173502,0.035677128,0.006147601,0.032064788,0.09576818,0.019690756,0.008436042,-0.030265676,0.0038527115,0.012418223,0.057506777,0.018714642,0.00046841387,0.0038937647,0.061518457,-0.0040010167,-0.017942457,0.014408727,0.08421477,-0.039186507,-0.10809971,-0.0076719476,0.13291341,0.08324576,-0.2054733,-0.20819794,-0.07676411,0.032613352,-0.02764305,-0.24943404,-0.04229807,0.062278185,0.10075596,0.12891106,-0.100162365,0.094582155,0.019841457,0.025533846,0.10156231,-0.07841329,-0.038054194,0.010822157,-0.07529248,-0.13576588,-0.01985823,0.11127072,0.054589156,0.08609697,0.021704918,0.08393304,0.083991736,0.013913953,0.079531804,0.09266161,0.11830769,0.100069255,0.09093871,0.07500779,0.077000104,0.032318532,-0.03848214,-0.07714229,0.008480344,-0.027925279,0.050849296,-0.060346264,-0.11611766,-0.08884194,-0.1257776,-0.082480706,-0.23933932,-0.090204805,-0.16988109,-0.119210966,-0.14058125,-0.108705126,-0.0320309,-0.10796812,0.060206573,0.01416146,0.07288281,0.031660374,0.16591749,0.021236831,0.12131226,0.09026275,0.11785177,0.09176961,-0.074177526,0.07439879,-0.032210007,-0.039383903,0.00069593213,0.17555459,0.050224956,0.07984633,0.03814529,0.120168604,0.04766076,-0.019202527,-0.092334315,-0.045294702,-0.051177908,-0.035163637,-0.19269103,-0.059585094,0.16086164,0.1466289,0.15556018,0.024127528,0.07011754,-0.0668712,-0.03943029,0.01769623,-0.20084706,-0.110433035,0.04320168,-0.018933892,-0.13275641,-0.050694097,0.053129714,0.044111494,0.059505776,-0.017148992,0.014071662,-0.02577621,0.009820725,0.08955897,0.18689242,0.17738934,0.047798336,0.061887138,0.17047583,0.32852545,0.12652837,0.004956622,0.0326025,-0.0018309699,0.008161907,-0.086289026,-0.16557808,-0.09833122,-0.0631928,0.034934696,-0.13333943,-0.06806825,-0.059827056,-0.05520158,-0.025360579,-0.047589663,0.007962337,-0.07394863,-0.1741325,-0.09347551,0.12194668,0.00983723,-0.04080563,-0.010233001,-0.08109285,0.08933541,0.10210264,-0.02594168,-0.041733094,-0.20902891,-0.12235341,0.0066499948,-0.0452033,0.09880978,0.056408215,-0.04884731,-0.024679909,-0.020980364,-0.101765424,-0.005593834,0.07031742,0.032424837,-0.023537394,-0.036500268,-0.095656306,0.16964255,0.07208195,-0.03473063,-0.08535833,-0.25183064,0.02042703,-0.017869653,-0.024170352,-0.019918267,-0.18692186,-0.088664815,-0.07342119,-0.119857684,-0.035334293,-0.19942899,-0.12139602,-0.08392688,-0.015225462,-0.039084297,-0.07062926,-0.14873607,-0.09666088,-0.028859152,0.02630157,-0.07668512,-0.082893655,-0.06100235,-0.0032080938,-0.044397898,0.07325425,-0.016235322,-0.0517802,0.14886913,-0.039133675,0.08586423,0.17497511,0.09226294,-0.0417457,-0.061043587,0.066261806,0.07272826,-0.091209926,-0.19056301,-0.18332674,-0.15372178,-0.08067308,-0.01903756,-0.119192325,-0.1149881,-0.10364488,-0.04106206,-0.08198243,-0.005326714,0.08543691,0.045931216,-0.03081738,-0.037993025,-0.026960464,0.04760489,-0.10149935,-0.087305285,-0.012554913,-0.17635912,-0.077373356,-0.059550785,-0.035894632,-0.05137193,-0.13847421,0.0077388855,0.11954803,0.026191223,-0.10890756,0.01181767,0.007166839,-0.04274103,0.029075162,-0.03768201,0.02466263,0.039683066,0.031751342,0.13033082,0.067034885,-0.032420162,-0.078835204,-0.09065239,0.080116235,-0.17600302,-0.2815574,-0.010213877,0.1115006,-0.05187654,-0.17741406,-0.27856374,0.025031453,0.1870354,-0.09089021,0.00085464446,-0.008854597,0.13587442,0.19020857,0.05630882,0.22841588,0.1723162,0.20775923,0.03629486,-0.07326194,0.0016165284,0.26557425,-0.042910498,-0.21843629,-0.18040423,0.062090147,0.18339804,-0.08154012,-0.14553274,-0.064046785,-0.022946397,-0.030048849,-0.068737395,-0.13914454,-0.09094267,-0.00201173,-0.08937383,-0.0048588645,-0.013970973,-0.24895963,-0.12317498,-0.08072695,-0.03611733,-0.114562824,0.078762725,0.04933125,-0.14012574,-0.091888666,-0.18298428,0.021914884,-0.07870905,-0.050859183,-0.26285818,-0.116859205,-0.13452546,-0.075927705,0.030248214,-0.019366164,0.08254051,-0.08409841,0.055758704,0.085063934,0.058933,-0.058315992,0.015409825,0.078030966,0.21979979,0.012770839,-0.060923427,0.23665507,0.196907,0.10602836,-0.13374572,-0.1467982,-0.10901871,-0.08667962,-0.14486754,-0.10798409,0.022297228,-0.11012066,-0.08448961,-0.076006584,0.019274667,-0.014577986,-0.16042323,-0.26429307,-0.1373934,-0.010520949,0.088084586,-0.21894678,-0.18226667,0.12619561,0.23026879,0.13870898,-0.23509665,-0.08682339,0.1026344,0.1428694,0.014960109,-0.2187309,-0.023593603,0.23129815,0.17243055,-0.07059609,0.036160942,-0.046560675,-0.036620386,-0.08070387,-0.21621276,0.041181684,-0.16169623,-0.23066637,-0.045059852,-0.023015833,-0.19045071,-0.18546097,-0.085410304,0.062060393,-0.079636544,-0.054892063,-0.099219754,-0.19066453,-0.10348971,-0.23330344,0.12930809,0.02549696,0.03696568,0.039483123,-0.1491689,0.11332424,-0.11738973,-0.023122732,-0.11015255,0.10890611,0.047577575,-0.14103521,-0.15632233,-0.08716414,0.20380227,0.13779265,-0.025197413,0.032437686,-0.061774697,0.055281103,0.13361253,0.18506749,0.033085342,-0.038234748,-0.031432725,0.08787537,-0.0179611,0.049843594,-0.10362708,-0.3452733,-0.109427445,0.054961134,-0.052948024,-0.16266274,-0.037368122,-0.18782152,0.08528302,-0.10455611,-0.11334867,0.013105494,-0.051351182,0.07081437,-0.17914532,-0.13176738,-0.06081727,-0.014728995,0.05557097,-0.066501215,-0.052035473,-0.19209152,-0.050599016,-0.030058008,0.14050554,0.14961906,-0.05777081,0.05912978,0.058124173,-0.06551859,0.06636734,0.13931723,0.04885644,-0.018737769,0.009905805,0.17845063,0.0021183514,-0.28171244,-0.14026968,0.14864896,0.1699198,-0.08330243,0.021007331,0.022548713,0.03534199,0.17918594,-0.0845648,-0.092821665,0.08062416,0.13180707,-0.04170535,-0.014583247,-0.103061326,0.010483902,0.13040698,0.10142534,-0.03579786,-0.063238986,0.02141183,0.1494473,-0.10849071,0.021853695,-0.009709297,-0.110275075,-0.16302907,-0.113727435,0.05905056,0.035326224,0.01468704,-0.09443556,-0.091767326,0.13973397,0.029083017,0.030900333,-0.059401635,-0.060712397,-0.06329233,0.006579899,0.027812943,-0.005317009,-0.04834833,-0.03087115,-0.021185907,-0.027152905,0.06008822,0.014957692,0.013351895,-0.032739684,-0.0021249189,-0.02954147,0.031296812,-0.027890796,-0.000106177715,0.037360083,-0.048649173,-0.0060224207,-0.00820922,-0.043067988,-0.0061377217,-0.011370743,-0.00848583,0.032160845,-0.036180105,-0.05527761,-0.013215487,0.037646625,-0.025147514,-0.0100540845,-0.05596406,-0.06353297,-0.007181402,-0.011639908,0.0052650687,-0.04280364,-0.017394992,-0.032226875,0.018613322,-0.0140932165,0.017713077,0.011337975,-0.010248492,-0.04156642,-0.03388516,0.059848562,0.03735704,0.057325013,-0.03040007,-0.06207777,0.038492694,-0.029975286,-0.06543885,0.023537109,0.0078040548,-0.04941988,0.02101155,-0.045847155,-0.022025865,-0.007464112,0.02727845,-0.0019765776,0.029255612,0.0050977217,-0.02081744,0.013170182,-0.04505166,-0.04845203,-0.03305401,0.035764027,-0.015870987,0.00069761527,-0.04121704,-0.04445098,-0.030407328,0.012218437,-0.041905575,0.04614391,0.005655609,-0.05056872,-0.057223886,-0.017032342,0.013072979,-0.047618847,-0.047060832,-0.008401184,0.02418441,-0.032852206,0.043236803,-0.056296814,0.01377532,-0.0034820058,-0.014143734,-0.008713881,-0.01810172,0.046066403,-0.039075084,-0.05833106,-0.021520622,-0.06268861,0.00896557,0.034402322,0.03542736,-0.033075765,0.01459411,-0.02712428,0.0020734228,0.0064545805,-0.039812464,-0.056976814,0.0453124,-0.0528707,0.060476936,-0.035790976,-0.009353471,-0.053957205,0.009207866,0.0026654347,-0.013679953,0.042161882,-0.061255265,-0.051409647,-0.06360586,-0.033131063,0.043421824,-0.020011254,0.009679582,-0.01208052,-0.023243932,-0.035286006,0.026556201,0.04632675,0.049216762,-0.042525563,0.033206988,-0.035805054,0.017014595,-0.037323244,-0.022255266,-0.009301304,-0.013937855,-0.033904888,0.020164967,-0.019420981,-0.041879077,-0.01740102,0.002006975,-0.030496728,0.012607277,-0.038940188,-0.008665641,0.007367092,0.03015507,0.0018019048,0.060176577,-0.0427188,-0.018964803,0.011307752,-0.029646382,0.03450021,0.043640625,-0.052061412,-0.045875765,0.02630179,-0.06795199,0.03031496,0.042295463,-0.0072419867,0.052793458,-0.009548203,0.027639937,-0.052067056,0.042085245,0.021946779,-0.050711006,-0.03445967,-0.014053149,-0.018543927,-0.017725578,0.038690075,-0.021685788,-0.05027649,-0.03980601,-0.014876882,-0.046268973,0.019340074,0.0035348511,0.012688495,0.019630434,0.053958356,-0.04696047,0.02862656,-0.02386285,-0.010540854,-0.008674468,0.035822917,-0.017986422,0.026691211,-0.037946302,0.024280515,-0.047664955,0.041179664,-0.0174237,-0.0033816437,0.0032231286,-0.027122736,-0.017839521,-0.0049290196,-0.03239932,0.019603338,-0.027353859,-0.017983492,-0.0210396,0.032493576,-0.060406853,0.04870188,-0.050644156,-0.036809307,-0.0013753825,-0.028431168,-0.017393826,0.03958028,0.055669006,0.030166896,-0.010002163,0.05778702,-0.060682453,-0.008088843,0.0050883107,-0.018413147,-0.019566568,0.0069260434,-0.062296886,0.0116135795,-0.028151015,-0.009143508,-0.012951482,-0.028523877,-0.06452741,0.026339617,-0.026535926,-0.040379032,0.020499246,-0.01960468,-0.16011426,-0.21674886,-0.1580584,-0.013322884,-0.012740636,-0.07118224,0.039457943,0.089522704,0.06959498,0.022772186,0.0069960435,0.130824,0.035287272,-0.031409018,0.024820687,0.0026800584,0.02002246,0.10974149,0.042056356,0.009935878,0.010552038,-0.01768045,0.0674089,-0.0019256239,-0.057944246,-0.12612434,-0.07851947,0.051621877,0.013151158,-0.07725466,0.050960105,-0.0031608553,0.038231112,0.005791083,-0.039070647,0.22195826,0.14685193,-0.07452861,-0.05998769,-0.025537446,0.118664905,0.11924116,0.05524902,-0.027978042,-0.01110541,-0.16704427,-0.041324116,0.09596589,0.03892375,0.034828454,-0.06298587,-0.07942298,-0.12392537,-0.09212665,-0.020513622,-0.10466824,-0.082729764,-0.02515353,0.015269634,0.051474463,0.02662371,0.01805819,0.10921835,0.08671576,-0.042004522,-0.0073449137,0.0044544707,0.045621365,0.073417656,-0.035326533,0.05018481,0.015693355,-0.068798944,-0.12650162,-0.10006894,-0.11208521,-0.21045595,-0.20862854,-0.12656906,-0.1695266,0.028592952,0.10929607,0.0037935327,-0.16764522,-0.20804958,-0.12591964,0.1634266,0.120746836,0.019665468,-0.15112564,-0.10875403,0.11955041,0.003724167,0.054527402,-0.0623016,-0.1804448,0.0012191212,-0.08345336,-0.081062116,-0.04828293,-0.02423097,0.028429773,0.10317644,0.017284527,0.027980834,-0.027619077,0.09585199,0.07182265,0.08293964,0.07862406,-0.043190908,-0.12258419,0.036789194,-0.051359285,-0.038131397,0.13712095,0.12777872,0.02831622,0.04741668,0.079697706,0.1340077,0.044483062,0.050914146,0.0122292405,-0.14650908,0.124897026,0.02900589,-0.036234055,-0.028138496,-0.039543375,-0.08988577,-0.19200017,0.026495706,-0.049680658,-0.035204194,0.016801927,0.020161066,0.078459315,-0.013276325,0.018228767,0.1309345,0.11957976,0.033181895,0.035266012,0.030813972,0.029070305,-0.059477314,-0.0681669,-0.06204223,-0.06457556,-0.013679947,-0.0036171344,-0.14610328,-0.14043532,-0.17871845,-0.09859245,-0.21104902,-0.12152697,-0.096207276,-0.10719401,-0.1281572,-0.06554848,-0.14183517,-0.13491051,-0.15922444,0.0741943,0.051981095,0.037862077,-0.07727369,-0.0714971,-0.02115387,0.019241227,-0.020839566,-0.07299814,0.024400705,-0.06056203,-0.031565245,-0.16343668,-0.021130396,-0.035729446,-0.05163477,-0.11431799,-0.07998869,-0.04980669,-0.06687367,-0.13845214,-0.13546719,-0.06710031,-0.01977158,-0.09209838,-0.010773358,-0.076272346,0.022537017,-0.085897766,-0.023363808,-0.10435963,-0.05402048,0.051750027,0.0380373,0.028720088,0.09725967,0.011810842,-0.1514613,-0.05463469,-0.013557949,0.062445384,0.00775844,-0.10112166,-0.035132647,-0.025270237,0.044408746,0.003718495,0.05255494,-0.0769875,-0.07147232,0.08363977,0.05078618,0.054398417,0.018808894,-0.072097845,-0.0050662267,-0.0038694646,-0.04161277,-0.06136587,-0.08423241,0.09555421,0.15336321,0.18863,0.07045281,0.049665354,0.018441109,-0.027991677,-0.11800168,-0.049490377,-0.036288247,-0.23083386,-0.1066739,-0.049752187,-0.025517106,-0.13323358,-0.0045179417,-0.011080304,-0.0114694,-0.10078971,-0.1842898,-0.035193007,0.14349711,0.08825505,0.04982645,-0.14781621,0.015632289,0.039585203,-0.071940236,-0.016768139,-0.014384423,-0.023560394,-0.017636115,0.02789844,0.036351763,0.04610889,0.06789238,0.033368092,0.04427956,0.049782503,-0.010816688,0.051073343,-0.03605611,0.010711881,0.02246174,0.053514663,-0.07346253,0.0108983945,-0.028300684,-0.0010682878,0.039239887,-0.0049555623,-0.0074050515,-0.089521825,-0.042806853,-0.017037049,0.020393055,-0.109698415,-0.07157268,-0.08845019,-0.1105072,0.17459998,0.11239238,0.04788325,-0.08450198,-0.027156878,0.21734332,0.13449913,0.08035973,-0.025608564,-0.04535903,0.06875141,-0.0011594298,-0.052574307,-0.04214294,-0.070203915,0.06439888,0.019509245,-0.014814218,-0.006470657,-0.036320284,-0.042726405,-0.049101993,0.018307276,0.0911055,-0.019511301,0.06560768,0.07451289,0.08426047,0.030157056,0.0012395667,-0.021234117,-0.077713944,-0.028509323,-0.013350982,0.0051538083,-0.028384,-0.05638466,-3.3502914e-05,-0.031910416,0.028833287,0.10511402,-0.0304168,-0.057367053,-0.12141976,-0.113716014,0.040402193,0.007395057,-0.07753443,-0.05703983,-0.05859126,0.033793624,0.083176754,-0.017993657,-0.047990147,0.0053378656,0.017614916,-0.05723758,0.028106194,-0.055795405,-0.049132694,-0.05168569,-0.03275082,0.021566138,0.016299335,-0.029828448,0.0030571623,0.00015892272,0.027984636,-0.052046802,-0.08946277,0.021755666,0.0507034,-0.04074773,0.017174993,-0.09583563,0.002976502,-0.08722255,-0.04766457,-0.016371498,-0.06505304,0.16685165,0.086346276,0.06752572,0.005771577,-0.04618151,0.10006877,0.13243799,0.101640925,-0.034840688,-0.12283721,0.063855745,-0.03839908,-0.011560879,-0.08656011,-0.085681334,0.006929144,-0.027845727,-0.027046088,0.022300212,-0.04020662,-0.05171056,0.05647535,0.09240816,0.038825907,0.034965582,-0.016871653,0.09045296,-0.027541954,0.03927565,-0.055754445,-0.063286565,-0.109480724,0.022080053,-0.071604714,-0.012293675,-0.0111096585,-0.03734287,-0.048851106,-0.058830965,0.056346703,-0.08720786,-0.039895423,-0.0791325,-0.057400934,0.004340744,-0.07800258,-0.079572186,-0.104674995,-0.07688377,-0.029548524,-0.005173097,-0.009020191,0.03362094,0.00086632854,-0.01794786,0.044567164,0.10129176,0.13948983,0.034375533,-0.032292105,0.03857221,-0.046121147,-0.041958537,-0.045207445,-0.009822954,-0.08001477,-0.08224937,0.043632757,-0.030436063,0.008145681,-0.018119866,-0.08693815,-0.078485236,-0.082656816,-0.037777487,0.033210803,-0.087426536,-0.05963486,-0.05165118,0.00043934718,0.034754883,0.044099316,0.03535267,-0.07463694,-0.030493056,0.045627583,-0.070737466,-0.09640372,-0.09682787,-0.001359272,-0.05588059,-0.006154234,-0.06909561,-0.0010895326,-0.00021486955,0.03680069,0.012830441,0.057150792,0.011324712,-0.067202725,-0.042457443,0.020505324,0.01349688,0.0073418003,0.037970148,-0.096353315,-0.04543087,-0.008624448,-0.097609445,-0.027789997,0.027849691,0.06154276,0.118940346,0.01582581,0.027209962,-0.0486177,-0.046998825,-0.023423627,-0.008767351,0.06913839,-0.060932625,-0.08759645,-0.08484131,0.0105808815,0.017220847,-0.08658515,-0.048916854,-0.069146596,-0.061297253,0.021330254,-0.060152672,0.043434743,0.0025986624,-0.03076475,0.061588556,0.07311096,0.02076847,0.017777413,-0.04388905,0.034216087,0.10527563,0.035585295,-0.05932615,-0.062948875,-0.02189955,0.033211093,0.058828197,0.0006914723,-0.006911838,-0.0013658723,0.064009145,0.032430016,0.01322233,-0.091519035,-0.02446811,0.05336811,0.054576818,0.016668852,0.024304021,-0.02411055,0.062565096,0.07116269,0.056924213,-0.015443999,0.05302645,0.0780484,0.028951557,0.021198943,0.16184042,0.026532516,0.25386608,0.1404819,0.06984111,0.062936425,-0.087862045,0.16094384,-0.042484414,-0.19777626,-0.26442647,-0.36539635,-0.17430304,-0.052893974,-0.036652617,0.006337723,-0.13246763,0.0097906785,-0.07651193,-0.012885547,0.053782012,0.06675779,0.0150543,-0.056196496,0.07409738,0.011294237,-0.16936845,0.0007460168,-0.0054584974,-0.06830235,-0.14622982,-0.25142077,0.08753036,0.15131347,0.074144386,0.04500909,-0.16556567,0.13324219,0.06980511,0.0806943,0.026949184,-0.009669981,-0.013960215,-0.015542971,0.059211,0.0057828138,0.09072044,-0.05616324,-0.0680983,0.060830552,0.11296716,0.06481027,-0.18915601,-0.08816283,-0.16125931,-0.09355919,-0.118053935,-0.20882842,-0.10627233,-0.1787907,-0.21450397,-0.07641973,-0.045342647,-0.06488202,0.007923858,-0.09158957,-0.13300116,0.02549541,0.05869746,-0.08096147,-0.06318057,0.037181105,-0.057337448,0.07693928,0.04172226,0.09330383,0.121473946,0.055824816,-0.0020217528,-0.036140066,0.042564034,-0.12685023,0.3281739,0.29021642,0.124240115,-0.050068464,-0.21090789,0.1996267,0.077474244,-0.056115504,-0.024748962,-0.045916643,0.0038348928,-0.04119827,-0.07176614,-0.13750377,0.19264473,0.03925509,-0.03335739,0.032493856,0.066141225,0.06632914,0.097200856,-0.0017296695,-0.09865478,-0.119856544,-0.23401701,0.27886942,0.09406644,0.050922085,0.08931345,-0.18924119,0.069646716,0.007856118,0.16845955,0.110491455,-0.041837394,-0.12738408,0.037443746,-0.027944515,-0.027699554,-0.11398864,-0.11215618,0.11188512,0.11542389,0.08354877,-0.019085063,-0.11170084,-0.10186684,-0.1484109,-0.124109164,0.1334446,-0.11483054,-0.21367535,-0.2085742,0.022170255,0.15196526,-0.11817859,-0.09190053,-0.005527783,-0.13281849,-0.17678316,0.009627971,0.085301496,0.032975856,0.21680672,-0.10574539,0.025711246,0.14153183,0.10094442,0.07158312,0.0007766344,-0.0058571966,-0.02117685,0.0023855579,0.052401733,0.076235,-0.04299944,-0.0638419,-0.047987286,-0.0126098525,0.09353055,-0.028999332,-0.085205495,-0.0017202479,-0.068557605,-0.056945313,-0.112189315,-0.021880053,-0.04520244,0.10315958,0.106917776,-0.100672394,-0.021235177,-0.023555782,-0.037514612,0.070918486,-0.035897415,-0.041026935,-0.16292945,-0.14579153,-0.03493596,0.04298926,-0.0607932,0.01939383,0.010159323,-0.11597348,-0.10977906,-0.04330048,-0.03559495,-0.06852283,-0.057752628,-0.049359217,0.029130584,0.015995622,0.12612252,0.09354589,-0.1877569,-0.056114048,0.0100569045,0.1110166,0.019760692,-0.28666112,-0.053277936,-0.01758522,-0.051382862,-0.21201599,-0.17614336,-0.047701247,-0.13310046,-0.24197766,-0.062225122,-0.018847791,-0.018900555,-0.103634134,0.0046090093,0.05050343,-0.09817293,-0.0034575067,-0.09343684,-0.014253478,-0.016316524,-0.012035413,0.01316027,0.06480565,0.118259095,0.0761753,0.010146738,0.029595783,0.024875376,-0.060241066,-0.025343036,-0.09970529,-0.027634596,0.023282776,0.0360487,0.02556257,-0.00862164,0.07043196,-0.03259883,0.0017717298,-0.0010923113,-0.23838484,-0.11073521,-0.10876026,-0.16674837,-0.039511092,-0.02422489,-0.17227271,-0.20685226,-0.06266685,0.0052047153,0.07714383,-0.02235319,-0.019940212,0.10267415,0.0113969,-0.03206838,0.12105797,0.13074924,0.09452398,-0.044906568,0.035054874,0.07683374,0.014889879,-0.14295158,-0.2190184,-0.14484844,0.008130026,0.12126875,0.056415632,-0.05141925,-0.10188575,0.0970149,0.137356,0.21541551,0.13774617,0.01473599,0.08077894,0.18125688,0.080169976,0.036216445,-0.034136597,-0.06944003,-0.08408381,-0.00255844,0.02427151,-0.08367195,-0.048190676,-0.0061457073,0.009169001,0.004606093,0.075908415,0.075217545,-0.052775912,-0.17850298,-0.18444252,0.015462115,0.03131805,-0.085074976,0.054203138,-0.054840565,-0.18821485,-0.19485842,0.1551482,0.08760265,0.0148550505,0.10188061,0.0141880205,-0.043607116,-0.04696535,-0.1382399,0.07054795,0.05416273,0.030460337,0.084964275,-0.030159276,-0.17934424,-0.008819192,-0.0740296,-0.100062296,0.0614504,-0.22206938,-0.033928856,-0.046595715,-0.078826,0.004726226,-0.015056703,0.0956744,0.09754888,0.086431205,0.04086648,-0.04879534,-0.047910716,0.15234053,0.14722867,0.116737746,-0.19411913,0.06655438,0.17479482,0.08833382,-0.0039668214,-0.13341425,-0.2059664,-0.027310757,0.06011767,-0.032482203,-0.261122,0.011256925,0.08089004,0.16806932,0.15442747,-0.21109727,0.12039304,0.12778135,0.058192108,0.10636714,-0.05177477,0.007313763,0.0766712,0.051990233,-0.031225882,-0.10533428,-0.07852277,-0.12661055,-0.002412042,-0.0027795224,-0.05375971,-0.16321127,0.035285484,0.036410905,-0.08291612,-0.24783954,-0.14672324,-0.08142,-0.013457251,-0.011431417,-0.053979527,-0.027336495,-0.018800499,0.06056178,0.03737005,0.03532744,-0.08592954,-0.056599643,-0.05910315,-0.047874276,0.049292374,-0.12882428,0.018245121,-0.047306515,-0.030861944,-0.15045024,-0.13400108,-0.0014758494,-0.10388549,-0.00017947344,-0.19543664,-0.16854197,-0.013433007,-0.10906505,-0.123083085,0.083892316,-0.047475632,-0.12556097,0.015859764,-0.09945886,0.010054534,-0.16304038,-0.059977636,-0.0059007294,-0.15550724,-0.08718417,-0.13732703,0.009107878,-0.080471024,0.01986919,-0.008963651,0.04115706,-0.057263684,0.044741068,-0.15248872,0.12167916,0.116667464,0.08744924,0.067661405,-0.047393125,-0.05786442,0.22545923,0.07713254,0.07926311,-0.064526185,0.0023584617,-0.015671646,-0.02227291,-0.06406436,-0.11276827,0.10332644,-0.005570874,-0.0770215,-0.11944753,-0.09830766,0.13431735,0.17288224,0.15849799,-0.08610145,0.0025895382,-0.16742599,-0.09305323,-0.05478528,0.009018401,0.0067037996,-0.07152328,-0.009474091,0.14271884,0.059638903,0.13435648,0.07170549,0.13141876,-0.050358243,0.022180585,-0.009358552,-0.113622285,0.001517035,-0.044336062,-0.0030058573,-0.083273716,0.0753847,0.045625895,0.021786438,-0.06549254,-0.08682888,0.015125841,0.009337754,0.124364026,0.058815897,-0.03429619,0.06510059,0.11018117,0.09988055,0.1062603,0.07393523,-0.046552718,-0.012112954,-0.0060667945,0.06991125,0.028181314,0.010776552,0.002213719,-0.06939537,-0.07885441,0.02428061,-0.087682985,-0.083927356,-0.11841104,-0.25171578,-0.07606606,0.09784134,0.05723896,0.09373707,-0.12101053,-0.09167842,0.06592282,-0.04240118,0.092238136,-0.09822521,-0.17256135,0.08345448,-0.06079569,-0.06921954,-0.19017002,-0.2367123,-0.16031092,-0.21553841,-0.13482597,0.09530451,0.0926529,0.074573874,0.1100528,-0.073711425,0.05251441,0.08229894,0.024083449,-0.1392652,-0.025412766,0.103820905,0.01803283,-0.008330662,-0.14461209,-0.16020525,-0.0434086,0.04156475,0.039249912,-0.10765313,-0.09596335,-0.04746309,0.043059655,0.124629475,0.02041617,-0.039640956,-0.05205775,0.12033656,0.10560742,0.12628601,0.009250511,-0.045485925,0.14317209,0.20205338,0.06359528,0.13802503,0.07231346,0.07374243,0.015768146,0.09129011,0.16795306,0.1610377,0.096051015,-0.13929524,-0.033754975,0.15588376,0.10791238,-0.072075054,-0.20888455,-0.04714782,-0.023298103,-0.105817296,-0.18281609,-0.17226419,-0.030413153,-0.009464809,-0.027481152,-0.13287464,0.039646942,0.02856705,0.019069443,-0.16137852,-0.021547658,0.031994324,-0.065354645,-0.3986237,-0.14499038,-0.07272585,0.05914182,-0.08941362,-0.28193483,-0.15809384,-0.2574563,-0.038896516,-0.11691005,-0.1900939,-0.18400255,-0.22254296,0.034118064,0.058186553,-0.02370677,-0.2262003,-0.12636541,-0.048195936,-0.035633676,-0.036978368,-0.047094174,-0.0029986345,-0.057651073,-0.10226958,-0.083891705,-0.042624537,-0.035155445,-0.059674654,0.025772175,-0.10713664,-0.2024376,-0.23462255,0.12595163,0.029041106,-0.06468561,-0.07692013,0.053528734,-0.036520652,0.00032955752,-0.03902155,-0.20399195,-0.11287909,-0.02206283,0.0123399515,0.074217126,-0.059596177,-0.008754851,-0.09237059,-0.021650434,0.048741367,0.056518167,0.0075114444,-0.073012814,0.05555675,0.12076198,0.15697038,0.023566538,-0.014708084,-0.026479088,-0.028778572,0.0023874433,-0.0011423952,0.15871806,0.09008489,-0.09396798,-0.013713291,-0.06917946,0.09836306,0.009825924,0.070246354,0.057123348,-0.039384507,-0.0028133122,-0.008885049,0.17567869,0.20875244,-0.050230194,-0.03915378,-0.018386476,0.058836855,0.21589878,-0.03530029,-0.054188237,-0.036243133,0.1308307,0.120249785,-0.029623298,-0.17190857,0.070503406,-0.0063321246,-0.1914867,-0.11629624,0.08216562,0.017533598,-0.15565467,-0.14771596,0.034738686,-0.035755455,-0.13700859,-0.039342243,-0.13030845,-0.016012719,0.046474088,0.07892788,0.024809536,0.008323932,0.16171959,0.17296158,-0.021224573,0.028680762,0.0691403,0.22851206,-0.13104199,-0.11762893,-0.10726391,0.06506787,0.027956733,-0.104423076,-0.0019297187,-0.03500055,0.042606466,0.08707324,-0.013904345,-0.07627538,-0.09099563,0.07785188,0.2045248,-0.016602725,-0.20589238,0.00037957152,0.1591042,-0.14764436,-0.2172092,0.18724103,0.09386677,-0.07578337,-0.28164926,0.015926993,-0.03827735,0.106609955,0.037722956,-0.018092457,0.07805689,0.059471563,0.14479274,-0.0039164345,-0.07822393,-0.042095352,0.08463466,0.006917111,-0.05631446,-0.0035348346,-0.14121705,-0.058734365,-0.040091455,-0.0028422733,0.0026437573,0.014298075,0.0043766852,-0.074834384,0.025818182,-0.012986003,-0.24002697,-0.20464358,-0.061460935,0.029293803,0.13290764,-0.121768676,-0.20944318,-0.20310336,-0.09094454,-0.077230506,-0.08445362,-0.24250057,-0.2516731,-0.16353369,-0.26549566,-0.23907176,-0.25022054,-0.19475599,-0.19945964,-0.10928718,-0.26032454,-0.31720716,-0.20323503,-0.16293417,-0.17423898,0.012064754,0.0029071348,0.092739575,-0.12642995,-0.065003574,0.00049125863,-0.06996519,-0.037639976,0.010345608,-0.19692391,-0.051259186,-0.0266101,0.007851659,-0.034767713,0.017037313,0.044327367,-0.08128072,-0.07927044,-0.01951025,-0.07834955,0.021092648,-0.1477927,-0.09223803,0.095102616,-0.046038177,0.14249188,0.085243404,0.09266807,-0.04128973,-0.10279163,0.2571081,0.18773802,0.20438552,0.051577248,-0.053626288,-0.0012136275,0.020402638,0.0868314,0.11910343,0.09242308,-0.21508664,-0.00047985726,0.11063439,0.05596975,0.025672914,0.0033525594,-0.13706864,0.08688052,0.02482156,-0.05528228,-0.13090222,-0.124411486,-0.098688684,-0.0005903473,0.030610848,-0.15335177,-0.12133767,-0.08105693,-0.079997994,-0.047004428,-0.14742135,-0.09935018,-0.018380692,-0.08146572,-0.08872445,-0.1625969,-0.078204215,-0.11032701,-0.075456254,-0.2341608,-0.098181106,0.019216368,-0.065171055,-0.094426386,-0.10053689,-0.23069789,-0.014485726,0.015827468,-0.07569677,-0.115300454,-0.088037394,0.06457115,0.029200347,-0.07454973,-0.19572435,-0.14178456,0.028147647,0.013679598,0.015507175,-0.09658937,-0.0054162685,0.029182103,-0.022268819,-0.14368445,-0.08473856,0.15108255,-0.08623265,-0.25552076,-0.06460653,0.019270733,-0.058349196,-0.055724017,0.12692413,0.19509213,0.023431273,0.06679481,-0.110165454,0.044586197,0.021731103,0.036051802,0.12293551,-0.010692535,0.15703607,-0.099142976,0.030623985,0.18691999,-0.006859071,0.02732423,-0.10259079,0.07897497,0.03753377,0.034566376,-0.20788357,-0.049674902,0.09644539,0.04966607,0.08530413,0.10237794,0.031345543,0.04907708,0.07949488,0.13630253,0.13602582,0.15359813,0.1253431,0.16834004,0.08728671,0.05386445,0.062865175,0.05646574,0.1297343,0.033490323,0.05573558,0.0953566,0.10807203,0.094914556,0.05639254,-0.030264642,0.15604797,0.12655078,-0.17161515,-0.0656724,-0.099085025,-0.12330092,-0.057791084,0.03297914,-0.03305941,-0.08332242,-0.05979062,-0.15610626,-0.013318281,-0.048897382,0.028887806,-0.02130353,-0.1758324,0.07547996,0.060771752,-0.03117328,-0.06690138,-0.16240793,0.0058688843,-0.12556988,-0.042541128,-0.035984986,0.07826713,-0.02400201,-0.07990032,-0.20653741,-0.11620833,-0.1021593,0.05368894,-0.10574181,-0.055334717,-0.13963708,0.00042968578,0.0066528483,0.035047885,-0.015673012,0.006370981,0.04918016,-0.10354046,0.17913319,0.07677815,0.18271713,-0.04065873,0.16773294,0.19701281,-0.017607272,-0.082798705,-0.23747757