-0.046098296,-0.05249573,-0.052026495,-0.052260637,0.20368646,-0.20523188,0.0022788306,-0.27306134,-0.18278864,0.07864029,-0.24008307,0.10114082,-0.27261734,-0.18434684,-0.04752974,0.07271174,-0.16055426,-0.02843399,-0.30061236,-0.2557247,0.47147894,0.27587265,-0.05226968,-0.08621584,-0.029097166,-0.080431364,0.07082216,0.30137956,0.28692812,-0.0249119,0.058889814,-0.078562565,-0.0073571075,0.23248221,0.20839849,-0.29021418,-0.25445393,-0.06085551,0.21411447,0.36481565,-0.18755032,-0.28528425,-0.45168334,-0.30576682,0.09961679,-0.03075096,0.07227127,-0.10521046,-0.398339,-0.27083385,-0.083087355,0.06847573,0.065033175,0.17894863,-0.10405794,-0.13383614,-0.17179504,-0.061667424,-0.17619263,-0.36092216,-0.101512454,-0.040114094,-0.0031056956,-0.32456222,-0.32325837,0.049136795,-0.06993793,-0.08580761,-0.06496543,0.3174724,0.20083568,0.062629975,-0.17232344,0.24907693,0.3099409,0.06881379,0.008702255,-0.070524655,0.017858008,-0.15749587,-0.00035983088,-0.16220099,-0.06071431,-0.24774298,-0.17090346,0.1403205,0.029936962,-0.17208122,-0.20772366,-0.21240638,0.18122707,0.30510747,-0.037559897,-0.2474987,-0.19518566,-0.12137104,0.43414313,-0.08599168,-0.21441424,-0.16157436,-0.103608124,0.25582546,0.36121503,0.3669381,0.35793504,-0.27219516,0.041551862,0.076236084,-0.08515149,-0.4003923,-0.2919897,-0.25416407,-0.30179006,-0.24306995,-0.4437022,-0.14111637,-0.014638203,-0.30098662,-0.27573586,-0.09484815,-0.21117301,-0.15944697,-0.17699336,0.2690884,0.1001942,-0.36805102,-0.14344871,-0.19417517,-0.14921473,-0.059424087,-0.19990106,-0.26554552,-0.22753617,-0.26594383,-0.40606165,0.21601501,0.0699479,0.012486131,0.012778594,-0.022919089,0.29989985,0.11178367,0.15249209,0.11038757,0.14149559,-0.24943393,0.14880936,0.0762858,0.03728064,0.10691618,0.1529969,-0.09343582,-0.017984942,0.3115164,0.042318735,-0.201815,-0.22372721,-0.05824096,-0.031885356,0.19035345,-0.24507427,-0.14171576,-0.12676902,0.15866055,0.19123812,-0.24708474,-0.09974093,0.03487038,0.0025469128,0.1869233,-0.2321009,-0.055463057,-0.09451354,0.32084125,0.09775705,-0.052915733,-0.34112358,-0.26501316,-0.11319084,0.0704091,-0.034154914,-0.215929,-0.29786813,-0.04961673,0.049893796,-0.050872482,-0.37645698,-0.17376694,-0.054198835,0.17070645,-0.015445816,-0.22095788,-0.07809971,-0.17053318,0.27781934,-0.09851214,-0.20322211,-0.2971079,-0.18871048,0.45853624,0.058504652,0.22210027,-0.5381968,-0.33726853,0.3436378,0.18307772,0.5251923,-0.1974537,-0.59936494,-0.009659927,-0.24272741,0.015547758,-0.012924937,0.104742825,0.087175384,-0.11431907,0.21384405,0.31333575,0.24000324,-0.14947115,0.31400186,-0.08081188,-0.092735335,-0.07714099,0.15261272,-0.22392803,0.050734658,0.26888818,0.05526659,0.02055616,-0.1640289,0.18864286,0.32698104,-0.21115802,-0.19983539,0.1694747,0.3848448,-0.07745983,-0.04123493,-0.20455882,0.05125176,0.0053519104,-0.19847836,-0.1263033,-0.22687279,-0.053919815,-0.112393,-0.076355815,-0.112538986,-0.0868559