-0.008051315,-0.11382081,-0.05103964,-0.049987566,-0.078330696,-0.08546053,0.0061832666,-0.008056389,-0.1604014,-0.009219171,0.013588436,0.096872695,-0.06569361,-0.05000018,0.013301557,-0.015136909,-0.18610173,-0.185174,-0.041440323,-0.023759935,-0.1897588,-0.045603346,0.15926129,0.1334896,-0.056826968,-0.018418465,-0.080121726,0.048064265,-0.023647834,0.06333148,0.12172398,-0.01852114,0.16450757,-0.038803708,-0.12487023,-0.27476898,-0.117456205,0.00170937,0.10425053,-0.030516714,-0.10219505,0.10480965,0.017639017,0.10014397,-0.15194656,-0.07054702,0.046513565,0.021847982,0.08725182,0.086262695,0.076865844,-0.045330085,-0.042409822,-0.041557163,0.0042254687,-0.02217238,-0.07161737,-0.09513587,0.064094655,0.108978674,0.048405837,-0.09397384,-0.13526355,-0.01802697,-0.018469857,0.08024401,0.01062094,0.06753848,-0.066258535,-0.04313887,-0.08430016,0.0074682753,-0.084245354,-0.01860123,0.05279705,0.0544878,0.05540883,0.05174986,0.034229096,0.017684631,0.19436948,0.07241866,-0.06444523,-0.09932373,0.023079064,0.07445869,-0.0576617,0.009997247,-0.027410151,0.011135966,0.058921885,0.10501367,0.03211048,-0.029772615,-0.016948435,-0.093017615,0.1837326,-0.073531784,-0.1054183,-0.23412496,0.2112754,-0.0009158356,-0.026689887,-0.031827796,0.10415235,-0.006439514,0.08110594,0.054833226,0.01279625,0.013438498,-0.040604252,0.020278918,-0.11677872,-0.031130832,0.0012835407,0.045280185,-0.21081515,-0.1448897,0.035234246,-0.07058411,0.004351924,0.12211442,-0.015471711,0.030015497,-0.04302277,-0.03574816,0.143411,0.121808894,0.06769057,0.013844504,0.096568264,-0.14598566,-0.058024112,0.01968957,0.1151549,-0.10875726,-0.09941432,0.078690894,-0.03270387,-0.10256961,-0.11419808,0.09183554,-0.031715434,0.13849744,-0.18887869,-0.17113085,-0.12578169,-0.039012745,-0.1563567,-0.02020692,0.0892493,0.0533643,0.0122932745,0.021866782,0.08821551,-0.03806921,-0.09824568,0.032091685,0.031079214,-0.039429497,0.051138993,0.054200836,-0.060011692,-0.12065427,0.03086808,0.09832475,-0.05777189,-0.09133734,-0.06602546,-0.004316223,0.04446692,-0.011167327,0.00041969435,0.14651978,-0.07788221,0.031931464,0.02200815,-0.011178641,-0.08182954,0.012653788,0.07442878,0.048067126,-0.1040561,0.070140064,0.114609025,0.07075849,-0.05260159,0.18922873,-0.0019362001,-0.004192493,-0.01910523,0.06161509,-0.007382417,-0.11059576,-0.15555222,-0.13337465,-0.21092336,-0.18139349,-0.03309002,0.023576071,0.0028792538,0.0057765916,0.026908029,0.026788767,0.13275164,0.004632362,0.10518538,0.08400903,0.023862787,-0.03234705,-0.04078015,0.048930973,-0.015617613,-0.0077062515,-0.009877151,-0.018878559,0.038632873,0.006180813,-0.0216765,-0.030556543,0.05109769,0.022523362,0.011063504,0.028840506,0.13083827,0.055546936,0.0022607355,0.0006904541,-0.080716975,-0.13369365,-0.098149076,0.0036359802,-0.1063803,-0.11724195,0.01837462,0.050408795,-0.0041921805,-0.034233015,0.09590678,0.12986356,0.09863154,0.03115083,0.08244835,-0.00032446,-0.00686585,-0.04972778,0.046427105,0.05310311,-0.08050775,-0.035113018,0.026577925,0.034619626,-0.045643203,-0.09827225,0.018315861,0.08257657,0.09350082,0.14129461,0.09424374,-0.029878333,-0.039675616,0.13085604,0.009444936,-0.062575646,-0.23008908,0.020909328,0.07001616,-0.09624874,-0.14003822,0.06377733,0.019002246,-0.01514604,0.13291255,-0.033059407,0.0077960966,-0.13097379,0.08465461,-0.024271348,-0.069586076,-0.033989806,0.014849037,-0.1847041,-0.02972104,0.12216565,-0.047931444,-0.035605997,-0.03470097,-0.07342675,-0.20895006,-0.034617107,0.14362596,0.03779972,-0.23454379,-0.09210892,0.060775828,0.013558701,-0.074752785,-0.2313432,0.04233517,0.023513924,-0.054824922,0.09743511,0.0065608365,-0.14099918,-0.10548573,-0.26360428,0.0615859,0.19781654,-0.15412182,-0.1068092,-0.04689512,-0.022301767,-0.18456958,-0.046176102,0.036175285,0.06477033,0.03913812,0.05586265,0.05449135,-0.10042643,0.07035347,0.17094119,0.18327418,0.062787086,-0.06702778,-0.03409366,0.029788194,0.05813925,-0.046631895,-0.03029432,-0.025834708,-0.15898916,-0.07156537,0.070522696,-0.013442398,-0.1188606,-0.04264783,0.017546521,0.033957206,0.11823733,-0.011480768,-0.0064615095,0.062241275,0.01629283,-0.022948848,-0.00044177237,-0.021868238,-0.11892578,-0.0053530354,0.015577383,-0.06523999,-0.10700112,0.037211996,0.007839071,-0.08906612,-0.13217439,-0.039367896,-0.06378565,-0.106956266,-0.051920157,0.04071216,-0.103044465,0.0764053,-0.015091155,-0.0005116779,0.15837769,0.1105061,-0.04144835,-0.06810511,-0.2509026,-0.2076221,-0.10843717,0.042603992,-0.055581857,0.056924712,-0.0015978431,-0.014027298,-0.030731881,0.064535454,0.31937847,-0.008348782,0.044851083,-0.040632557,0.06455627,-0.0065734615,-0.004267878,-0.040793605,-0.012066282,0.055057626,0.011656703,-0.106951304,-0.016554072,0.09373443,0.040032443,0.008180783,0.03714669,0.011628298,0.01686764,-0.036742833,-0.11557066,-0.090819016,-0.24633689,-0.19649442,-0.21676028,-0.045868114,-0.08537777,-0.0996046,0.052423675,0.026756138,0.14829718,0.03589441,0.04996589,0.024303474,-0.089338265,0.09062177,0.18113966,0.053992394,0.045964163,0.09184144,0.075541615,0.010603816,0.048123304,0.036450133,-0.024845624,0.014043861,-0.06790586,0.050051253,-0.10955162,0.06059024,0.022179676,-0.061722785,0.036213987,0.11030453,0.025364779,-0.046706054,-0.009524532,0.045427583,0.017116884,-0.13580361,0.08060555,-0.038160723,0.037742563,0.04017516,-0.018893242,-0.07982702,-0.15844135,-0.05525347,-0.024079392,-0.04044357,-0.014218018,-0.035355296,-0.070734166,-0.12652789,-0.16615497,-0.1836782,-0.096685246,0.008045659,0.048896424,-0.038538225,0.060718715,0.032627307,0.1361508,-0.021776835,0.118286125,-0.17098899,-0.034018412,0.058141187,0.10691478,-0.053235322,-0.03650488,0.087373845,0.027022386,0.021193568,0.11928282,-0.111896716,0.01909897,-0.13762268,-0.02229432,-0.058234762,-0.12759016,0.03325311,-0.049992923,-0.1341554,-0.18751848,0.063283175,-0.03710022,0.016919877,0.025570512,0.03095673,-0.09252523,0.12391554,-0.010095214,0.15449038,-0.090969704,-0.041776046,-0.047703627,-0.039155345,-0.07624392,-0.060185187,0.1841105,0.04712095,0.08361547,0.07497411,0.0749558,-0.016145693,0.048959073,-0.048040893,0.08045695,-0.0029398017,-0.054959103,-0.028689085,0.098690845,-0.052623242,-0.058762603,-0.068511724,0.0249646,-0.25871685,-0.12778646,-0.046243403,-0.028407114,0.104607,-0.014700837,0.10932898,0.07533738,0.042870656,-0.01662051,0.121290125,0.118947305,-0.022405677,-0.022943638,0.05499566,-0.015152274,0.0033509396,0.014095978,-0.024543755,-0.015234953,0.03942048,0.017883169,0.041319117,-0.016983617,0.022512425,0.026577279,0.0529306,-0.011003752,0.00915938,0.035411086,-0.061240852,-0.16050869,-0.0038338308,-0.00615666,-0.019148042,-0.063835084,-0.060743213,0.018668061,-0.057377856,-0.08446541,-0.03539842,0.03936942,-0.0067363195,0.141777,-0.03946904,-0.03267073,-0.098868765,-0.06997861,-0.055880398,-0.029546654,0.03907188,-0.09366011,-0.043703593,0.014873918,0.026509361,0.001751512,0.010113014,-0.021942979,0.06346831,0.178922,0.06223885,0.0708536,0.026514301,-0.05853732,-0.074158825,0.008525317,-0.019837879,-0.11800788,-0.0179104,-0.004867673,-0.14796306,-0.06516645,-0.033145,-0.023228535,0.0146413,0.12293913,-0.1290258,-0.21374838,-0.23024987,-0.11698048,0.06278748,0.04426755,-0.028441506,-0.040536582,0.015006954,0.016968686,-0.027963627,0.08390844,0.014450215,0.030738454,0.024234284,0.20055869,0.07462883,0.110631235,0.09188831,0.042157013,-0.051521778,-0.040826757,0.053667303,-0.010820174,0.031430002,0.08897261,-0.033528514,-0.18076605,-0.073934816,-0.14448288,-0.10101087,-0.12719844,0.04063158,0.108290575,0.15208139,-0.0033382124,-0.06076185,0.040755406,0.072840214,0.0708746,0.007319753,0.09416764,-0.09260419,-0.133433,0.018454904,0.042030077,-0.15119569,-0.26283163,0.006425058,0.010578337,-0.01617227,0.099214956,0.016834425,0.08673987,0.03615888,0.17459363,-0.10471588,-0.19434789,-0.12352828,-0.08542807,0.050789192,-0.006058474,0.051916465,-0.023770757,-0.021261545,-0.016713746,0.09537864,0.113207474,-0.019430848,-0.05357484,-0.08736157,0.04527004,-0.14414401,-0.07500154,-0.16710898,0.031799234,-0.036514573,0.1300804,0.10832379,0.014541987,-0.214459,-0.08489754,-0.053440124,0.0009033725,-0.023092728,0.024594152,-0.040260106,0.017910074,0.12236934,0.020750353,-0.072843514,0.0288379,-0.021203486,-0.16254424,-0.09400614,-0.10374938,-0.13254549,-0.030757686,-0.15096766,-0.12805094,0.023000015,0.16624136,0.14202219,-0.06606989,0.12808536,0.12854469,-0.05852215,-0.03657496,-0.09778256,-0.11110166,-0.30985373,-0.081055455,-0.02846078,0.05316816,-0.023123248,-0.089259274,-0.050327916,-0.031456508,0.11005099,0.059523392,0.032261416,-0.027457878,0.06395134,-0.04322497,-0.01593588,0.13615452,0.15480241,-0.24816771,-0.1902197,0.027393075,-0.039686907,0.05933055,-0.18045963,-0.074065715,-0.16067366,-0.14057992,0.06684082,0.11870928,-0.027440578,0.014484667,-0.0029013802,0.029621158,-0.080003425,-0.010153715,-0.02984052,-0.024797488,-0.039453592,0.14011905,-0.061044622,0.032399744,0.008714051,0.10894551,-0.038450684,-0.10095603,-0.033692196,0.008072744,0.08992133,-0.05944997,0.019322567,0.015668143,-0.049479358,0.020514904,0.048991244,-0.0029372375,0.23650038,0.038018364,0.023761362,-0.16264704,0.12636897,-0.006545029,-0.086836375,-0.07654401,-0.1056738,-0.060748354,-0.14340357,0.031545695,-0.14443499,-0.1576288,-0.08063314,-0.030918805,-0.13261332,-0.120824516,-0.048061375,-0.0067218086,0.009356394,0.03767961,-0.054503974,-0.066260695,0.10457628,-0.006888308,0.0075139483,0.042814914,-0.013360337,0.07778298,0.16007134,0.014134335,0.17209987,-0.054293633,0.029152881,0.06415243,-0.022887504,-0.20256193,-0.13794531,-0.06589321,-0.023043545,0.11724607,-0.07909628,-0.05262676,0.005680219,-0.13786255,-0.062795565,-0.044719916,-0.054715145,-0.21047261,0.08746158,-0.035724662,0.0017055358,0.06691628,-0.03770949,-0.029247427,0.12961215,-0.05273148,-0.08141297,-0.09549852,0.06868644,0.09326692,-0.0028465032,-0.09184225,-0.009481415,-0.066753924,-0.045943074,-0.08224089,-0.08834463,-0.10087909,-0.04675697,0.015789472,0.051841788,-0.003472564,-0.038279418,0.040966257,-0.04129057,-0.08259404,-0.03240482,0.047391552,-0.006772638,0.11933682,0.0147218825,0.03976622,0.052843127,0.059317585,-0.05903135,0.0987709,0.054909658,-0.19724353,-0.08982858,0.059783958,0.049878296,0.026014997,-0.00030184237,0.0074332138,0.05248566,0.02007949,0.020457795,0.027854675,0.054514717,0.03094344,0.010944025,0.049851783,-0.010667627,-0.045238074,-0.021314722,0.005750954,-0.053270243,-0.13033044,0.010145519,0.023492197,-0.024056148,-0.027588628,-0.022115301,-0.015086133,0.037152927,0.078768305,-0.028210064,-0.18406884,-0.004148688,-0.0045663654,-0.1436952,-0.00404126,-0.025803158,-0.09193527,-0.13018264,-0.042542573,0.00043222102,0.056211583,-0.03352777,-0.03410833,0.038833283,0.017672194,0.0026352305,0.017420175,0.03377272,-0.080519214,-0.11454743,0.033025503,-0.13181776,-0.15150253,-0.052043904,0.019792398,-0.14556721,-0.12412813,-0.03215471,-0.028523076,-0.14121693,0.092033945,0.004978931,-0.0639102,0.08369594,0.11387082,-0.061855976,-0.09554912,-0.12128947,-0.07238914,0.010694675,0.09240639,-0.14824101,0.0019066774,0.007301889,-0.020673322,-0.036812376,0.14672275,0.050782565,0.07738585,-0.013715078,-0.00590804,-0.15040097,-0.08354988,0.043696538,0.09257301,0.01959581,-0.002112243,0.081048705,-0.052327372,-0.016871372,-0.0092934435,-0.19549172,-0.11903112,0.06359207,-0.11072795,-0.12538892,-0.028817043,0.07197666,0.017952627,-0.028119845,0.10082665,0.041439854,0.1299986,-0.014063462,-0.050922517,0.025517693,0.04816195,-0.068855435,-0.15648712,-0.10127995,-0.08753248,0.031351898,0.0850434,-0.12257865,-0.12067709,-0.06609123,-0.08517081,-0.018441273,-0.088538736,-0.13010594,-0.2379459,0.038087137,0.006314876,-0.11122814,0.07489203,0.11653335,0.029019421,-0.02142903,-0.054062165,-0.09393805,-0.020983092,0.022621557,-0.0007852973,-0.087468006,-0.025880136,-0.2726793,-0.08764817,0.0609924,0.051658288,0.14345108,0.026036682,0.02889726,-0.04761473,0.021111256,-0.050267976,-0.109680906,-0.1462899,0.05569815,0.015447545,0.037938997,-0.066163175,0.050405078,-0.104900196,-0.0845472,0.09718179,-0.15061584,0.02201701,0.056953974,0.20474006,-0.00838763,0.034064565,-0.09199653,0.020258442,0.1267499,0.0588448,0.10063492,0.11172708,0.02991717,-0.045589756,-0.055611253,0.06968338,-0.038656328,-0.11208017,-0.063037954,0.028718999,-0.05540593,0.08266213,0.012060786,-0.02112657,0.08084012,0.0072332555,-0.014237768,-0.016541418,-0.01780906,0.07594492,-0.122807994,0.07775509,0.010259832,0.014597372,0.08097341,-0.08157903,0.119314596,0.08802671,0.040290434,0.03956959,0.089232266,-0.0006931437,0.09882,0.0009357794,0.010851605,-0.04507305,0.0009119365,-0.00094187586,-0.17810243,-0.08271803,0.057409596,0.047214393,-0.19346291,-0.06063447,-0.04220665,0.015332901,0.0732,-0.013685698,-0.12500645,-0.021557774,0.045355253,-0.10064962,0.05395316,-0.051492363,0.1395928,-0.0023879355,0.06265596,0.07353752,-0.010399811,-0.06101078,-0.026895875,-0.06942285,0.065926716,0.049639042,0.030335778,0.034802675,-0.11118725,0.030413296,-0.076780125,-0.16237111,-0.062565625,-0.07133908,0.034322567,0.029166069,-0.028295457,0.041450776,0.22232744,0.0012997545,0.0054075914,0.11773667,0.023623934,-0.035873603,0.11229353,-0.029089382,0.1024503,-0.058023863,-0.020447664,-0.1514532,-0.04263048,-0.0075334413,-0.13784079,-0.009003636,0.06771202,0.116074435,0.017516121,-0.022304714,-0.1162691,-0.047773976,-0.21271251,-0.080086865,0.10803434,0.05253557,0.05098596,0.065649346,0.058299772,-0.043696716,0.1501407,-0.061763506,-0.17145313,-0.030284991,0.11983598,0.086067274,0.0075786137,0.07573646,0.054578204,0.08192273,0.09509898,-0.094310716,-0.07312467,-0.04595858,0.04958663,0.029554259,-0.21143624,-0.10715978,-0.019053785,0.037485834,0.029146703,-0.016345775,-0.032958798,0.005572657,-0.011560964,-0.018805757,-0.012744362,-0.06532306,0.20103522,0.008202666,-0.07031065,0.059910636,-0.16061017,-0.14483203,-0.028188601,0.033460114,0.03702,-0.033265278,0.018568844,-0.08230701,0.068660736,-0.045360785,-0.036547545,-0.0068201018,-0.22376424,-0.068735436,0.1778564,0.06593786,0.20605744,0.120803155,0.117442615,-0.009563975,0.00841439,-0.0011794999,-0.01572902,-0.007042137,0.011966881,0.017268423,0.020667257,-0.04008902,0.03615887,0.00796046,-0.019922784,0.0054533007,-0.03232005,0.04552818,-0.036258746,0.020437624,0.020357516,0.14662328,-0.035420194,-0.07083241,0.031878825,0.019522741,0.043123543,-0.091179885,-0.049600597,-0.117507435,-0.037397772,0.05272158,0.014845021,0.023481064,0.09128248,0.16259342,0.02423455,0.0069938414,0.11441417,0.04014822,0.064440496,0.06990113,-0.08217609,0.007099665,-0.03454583,-0.06463242,0.015361076,0.028223477,0.030344656,-0.04923228,-0.02914342,0.060472704,0.030838547,0.050010454,-0.03048301,0.038407534,0.20490058,-0.013822404,0.06196446,-0.030394737,0.14936887,-0.14264147,-0.1442582,-0.009431127,-0.08648444,-0.14122005,-0.037354294,-0.06561076,0.07452218,0.10438397,0.060219653,0.040535517,-0.052173316,0.007047169,0.031930536,-0.036546223,-0.03176432,-0.13407654,0.058081683,0.08901382,0.019338952,-0.091035806,-0.07603556,0.17886549,0.009497727,-0.015114586,0.021979172,0.031998456,-0.15124728,0.04526827,0.13421777,-0.015504754,-0.06754845,-0.0052350066,-0.09590047,-0.037613906,0.06116724,0.035555888,-0.0024632397,0.016999116,-0.079859346,-0.19042394,0.0035402146,0.1379334,-0.13758433,-0.14123054,0.11149515,-0.061499946,0.057117842,0.11819488,0.15830462,-0.0090058185,-0.03154396,-0.13351345,-0.08280453,0.08877294,-0.0550042,0.009041362,0.017320989,0.14337176,0.12423481,0.10936233,-0.098161116,0.055356182,-0.09815799,-0.17206678,-0.13775763,0.021713212,0.034377307,0.10664706,0.1249541,0.043285746,-0.059067275,-0.018604532,0.042779606,0.13199003,0.116133004,-0.022035314,-0.12317895,0.038037043,-0.13200079,-0.17421994,0.014541037,0.0522521,-0.01955814,0.12965272,0.078146145,-0.0019610606,0.10560669,0.044140488,-0.0054391664,-0.16863371,0.069690876,0.07704472,0.066166565,-0.1436733,0.2136112,-0.070482165,0.047420483,-0.08279349,0.04671325,-0.15225208,-0.062385432,-0.04465862,0.09699897,0.0150511,0.048881438,0.0029135607,0.02169735,-0.026745187,0.083854616,0.097719885,-0.041891724,0.036119793,-0.010655847,-0.0063411766,-0.09961519,-0.28182033,-0.35818404,-0.042906612,-0.097448096,-0.106056534,-0.12601358,-0.06620421,-0.035502095,-0.00027852916,0.045190286,0.06912075,-0.0764738,-0.020976527,0.005839742,0.022082541,0.11215159,0.09246978,-0.03521189,-0.32542354,-0.010583186,-0.03493968,-0.049678247,0.004671237,0.044741563,0.013495297,0.010908276,-0.008324152,-0.021881925,0.022151751,-0.058606695,0.11672069,0.058617506,-0.040266495,-0.18492736,-0.07794341,0.013803565,-0.028309971,-0.029497582,-0.030256381,0.06551968,0.0109134745,-0.032591447,-0.07275046,0.024029408,-0.14396045,0.032017455,0.026462309,0.022940218,-0.07064681,0.10437548,-0.06567427,0.15377672,0.008897729,0.016287977,0.10400829,0.14806522,-0.013734011,0.06555709,-0.014457744,-0.060543083,-0.15420939,-0.18201168,-0.11641772,-0.14390002,-0.113376625,-0.24073334,-0.027735587,0.024993218,-0.097972184,-0.091701366,-0.04310005,0.029847836,0.19273081,-0.03174394,-0.14143993,0.08836854,0.030837968,-0.0138935745,-0.023424825,0.074355006,0.015449204,-0.1720665,-0.052062944,-0.09331424,-0.043869477,0.09776234,-0.0085515,0.040488847,-0.1659102,-0.009117744,0.02680241,-0.11416326,-0.041686967,-0.09486388,-0.05269479,0.010586302,0.074081495,0.01461043,0.058263835,0.05509994,0.028953033,-0.035133284,0.08265741,-0.001411006,-0.116252266,-0.0674153,-0.054529633,-0.046267886,-0.089832276,-0.037191782,-0.13792662,0.1171119,-0.09387721,-0.1035832,-0.16555698,0.15429257,0.055218708,0.01970728,0.009673066,-0.13259678,-0.075889245,0.017051132,-0.07271022,-0.105186716,0.03932946,0.024038471,-0.146443,-0.07323743,0.011410526,-0.11887566,-0.06932357,-0.09211592,-0.02294694,-0.14407441,-0.061752297,-0.003017554,0.090778075,-0.051978894,-0.09684635,0.08276442,-0.0046259537,0.060924694,0.08104692,-0.22396891,-0.25544512,-0.0999285,0.18156646,0.025764577,0.010827319,-0.031678043,-0.0006180313,-0.017246742,0.012816258,-0.008282747,-0.015640123,-0.015481446,-0.03796813,0.010774148,0.022897167,-0.038388602,-0.009044995,0.019708533,-0.026682548,0.08523952,0.056121737,-0.038472436,0.1324295,0.044775277,0.04789028,-0.013424668,-0.06922389,-0.02797801,0.079767846,-0.13440126,-0.16766033,-0.03443696,-0.10549487,-0.16449244,-0.15587577,-0.021309124,0.04020984,0.06512685,-0.058657072,0.021431582,-0.011972048,-0.031415716,-0.12387144,-0.039113224,0.119075246,0.032685414,-0.06448945,-0.061468624,-0.0037127815,-0.1498179,-0.07294617,-0.09837091,0.005831055,-0.053897988,-0.11565511,0.00084614323,0.061243754,0.0651291,-0.12568152,-0.05704265,-0.0047789905,0.006367851,-0.04748003,0.14765695,-0.03115194,-0.12658955,-0.09332832,0.043020114,0.05097087,0.049555495,-0.08208375,0.068913154,0.0045221383,-0.028955897,-0.0018505284,0.04243417,0.024261577,-0.017149864,0.17078218,-0.04663859,-0.030021675,-0.14970621,-0.16730952,0.048284248,0.06636931,-0.010468807,0.03189383,0.065245785,-0.12725663,-0.090875946,0.0762924,-0.17082645,-0.1493102,-0.08332114,-0.07750029,-0.11639135,0.08305915,0.05452407,-0.054731634,-0.051531624,0.026846044,-0.015098975,0.11224498,0.063841976,-0.041165266,-0.052692205,0.072269894,-0.08557878,-0.16520302,-0.14444542,-0.03049336,0.12713979,0.22662036,-0.048617836,-0.08720928,-0.0017691392,-0.16048653,-0.17634422,-0.030350108,0.048231713,0.06986974,-0.008864925,0.15950884,-0.04171114,0.12192777,-0.008889089,0.06377127,-0.108511716,-0.1437615,-0.072979316,-0.092212446,-0.047916315,-0.10370635,0.010218267,-0.046167646,0.046202693,0.027332095,0.027058342,0.17030175,-0.04253542,0.065989174,-0.17634626,0.095542334,-0.066381656,-0.15026134,-0.12566356,-0.010136084,0.030491441,0.03834895,-0.036177635,-0.1909358,-0.10320272,0.036182724,-0.037161898,-0.10198205,-0.023307217,-0.08248769,-0.079940304,0.022395194,0.10972049,0.0086632585,-0.04288018,0.088528566,-0.03757804,0.013675046,-0.073249705,-0.17402075,0.07788933,-0.09502366,-0.21207264,-0.12283742,0.09904868,0.090160705,-0.0048178416,-0.061489455,0.02693325,0.08681991,-0.055807464,0.041070137,-0.055240225,0.09557932,0.14116603,-0.06595419,-0.090787835,-0.08356321,0.1283611,-0.08793574,-0.042250223,0.09505474,0.09044912,-0.10944347,-0.03259978,0.14464466,0.03264618,-0.20433997,-0.11863132,-0.07933768,-0.006101091,-0.029323637,-0.09780058,0.09025054,-0.04868002,-0.20752746,-0.063514695,0.17452663,-0.011712398,-0.06142388,-0.03210874,0.04493867,0.00457091,0.021775864,0.060412228,-0.028000403,-0.069408245,-0.12063148,0.013167632,0.15946162,0.0035809476,-0.080432005,-0.054111317,0.04964538,0.02594746,0.012162217,0.07742626,0.07059899,-0.11767309,-0.03815304,-0.09370995,-0.06798556,0.01799525,0.11106631,-0.00566636,-0.00936079,-0.0028303654,-0.025084786,0.08057159,0.07025653,-0.114173666,-0.16928245,0.031705182,0.0044202358,-0.0616785,0.08787919,0.015127722,0.019892192,0.13316928,-0.0549464,-0.03871761,-0.019434443,0.002365583,-0.02325883,-0.1258375,-0.08668747,-0.13512322,-0.12533869,0.07413012,0.04787174,0.031902257,0.15897688,-0.06881691,-0.22148474,-0.07206707,-0.04075803,0.06959938,-0.081550516,-0.018847104,0.18361758,0.14547843,-0.06295677,-0.05054635,0.08983707,-0.07068339,-0.07031266,-0.06992182,-0.04853038,0.07402847,-0.025174456,-0.024240434,0.057990324,0.08179101,-0.108406395,0.0059996727,-0.02613255,0.021028422,-0.025772832,0.056730688,0.032249622,0.05594329,-0.15249981,-0.06461135,0.0652029,0.10131892,0.07565464,-0.075294286,-0.11427174,0.06572959,-0.019204782,-0.16506593,-0.13099526,-0.06880912,0.018038616,0.08880104,0.100411855,-0.20514932,-0.005285087,0.02371575,0.1961111,-0.03919593,0.008033342,-0.040353764,-0.010274701,-0.029956248,0.089894,-0.058803003,-0.14468867,0.15139487,0.032837622,-0.22264305,0.045800194,0.108559415,-0.0075851684,-0.081629194,0.06527803,-0.05410107,0.04014176,-0.010431709,-0.046910122,-0.029140243,-0.0026765887,-0.024977291,0.044618685,-0.04754798,0.008724518,-0.02753673,0.030482206,0.007211763,0.0023672816,-0.02476002,-0.021501372,-0.025184805,-0.04322319,0.04571954,0.01804169,-0.02321012,0.0027906413,-0.05070289,-0.17400718,0.009782247,0.03320025,-0.08551009,-0.111297354,0.057010237,0.07366153,-0.0008344054,0.066046834,-0.06292135,-0.0635547,-0.073678106,0.10986827,0.019616852,-0.018502565,0.03960268,-0.028941784,0.018375952,0.024455141,0.00866859,-0.020862974,0.025668105,-0.05171202,0.0032015403,0.15728517,0.07123958,0.06320813,-0.009570739,-0.07021451,-0.11157036,-0.031360622,0.025643013,-0.02529685,-0.2921218,-0.09792169,-0.026028419,0.034552764,-0.06315623,0.104743056,0.015385798,0.029995041,-0.10990455,0.06734883,-0.02218109,-0.10235962,0.09035987,-0.09442766,-0.15331303,-0.18924493,0.06631446,0.04548846,-0.07562929,0.07826342,-0.0071371375,0.077979214,0.043146003,0.01978391,-0.062215954,-0.028587962,0.058245283,0.046669997,-0.07496987,0.006907505,0.047985815,0.14042161,0.05108064,-0.14234845,-0.14604017,-0.05275684,0.14481068,-0.21746081,-0.10086202,-0.14444521,-0.03654329,-0.03480475,-0.092907414,0.014403957,0.087336555,0.006125099,0.049720656,0.08942978,-0.012821146,0.11503265,-0.009499177,-0.036649153,-0.06363243,-0.1736105,-0.06963605,-0.08746486,0.016350599,-0.1078576,-0.042095676,0.035171665,-0.0761665,-0.15185525,-0.05875894,-0.081979476,0.005069574,-0.02968046,-0.06141097,0.0336352,0.00963499,-0.09881391,0.041350663,0.050557785,-0.14886022,-0.15925838,-0.07380079,0.022167359,-0.04264779,-0.055986006,-0.06335931,0.0048264493,-0.071588404,-0.16834937,-0.014519426,-0.03923473,-0.01102189,0.0026034203,0.09509898,0.09907391,0.11139852,-0.009186951,-0.07666205,-0.1939953,-0.16285595,0.11007841,0.14218387,0.06909085,0.027446968,0.20898993,-0.010419779,-0.108979,-0.11330406,-0.02445646,0.081944525,0.015010816,0.047805198,0.075041264,-0.07040573,-0.084958285,-0.047157638,-0.040082518,-0.025485102,0.07854641,-0.045953967,-0.122218266,0.003129588,-0.10219383,0.0025254227,-0.004361007,0.013776009,-0.010433797,-0.035284687,-0.13172081,-0.05457349,0.0076087,-0.02941787,-0.09470774,-0.09148916,0.011050892,-0.086681195,-0.13298498,-0.045997,0.09961386,-0.15728119,-0.114239424,-0.06844886,0.081204675,0.10406167,0.04801078,-0.12963836,-0.08784142,-0.0036632034,-0.01813216,-0.0054364973,0.039783046,0.047628574,-0.102461584,0.026524952,-0.09914688,0.089171275,0.020870976,-0.017228397,-0.13620298,0.034860767,-0.08881315,-0.1205682,-0.10939213,0.06179084,0.02582049,-0.05880509,0.00068402773,0.022420261,0.14458685,-0.007801724,-0.035891112,-0.049920935,-0.031608168,0.039669126,0.052352827,-0.16149417,-0.031757258,-0.019292997,0.034936633,-0.16262826,-0.11316947,-0.08796565,0.002075911,-0.024482803,0.085698575,0.026166458,0.16213751,0.043543883,0.0020901114,0.05682384,-0.026965972,0.09596968,-0.015033088,0.07258772,-0.18365833,-0.1125955,-0.120368324,-0.07249084,-0.15949573,-0.17850563,0.11759866,0.01181086,0.013206668,-0.034319893,0.092136264,-0.0019032992,-0.12997375,-0.15849991,-0.15471937,-0.023433095,0.07050328,-0.2127016,0.09329781,0.045319516,-0.026852429,-0.1192736,-0.074377194,-0.041949064,0.024601562,-0.12470939,-0.09624378,0.20035034,0.061716102,-0.051096633,0.04546272,0.08966894,-0.06752902,-0.06955979,0.06805092,-0.12252556,-0.11020449,-0.10013987,0.034406975,-0.10897141,-0.019279402,0.031080235,0.16686167,-0.007623273,-0.04354383,0.012319412,0.0038065575,-0.099337436,-0.07647,0.037005812,0.074078016,-0.12082573,0.036878213,-0.017867401,-0.064763926,-0.011322083,-0.061731458,0.10943458,0.013965038,0.030677754,-0.1567097,0.035643786,-0.15209922,-0.13845849,-0.1272666,-0.18484226,-0.10386661,0.026119288,0.16473316,-0.14757982,0.041697312,0.07418062,-0.025446115,-0.15172483,-0.16689923,-0.15819699,-0.018411854,0.052622054,0.009251853,-0.051893484,-0.011425389,-0.0034943884,-0.048007216,-0.032077555,-0.039356563,0.016961921,-0.043276314,0.023504432,-0.007710251,0.01055771,0.034876637,0.00747121,-0.0085729705,-0.0034413952,-0.075664304,-0.07174244,0.057718053,-0.09531613,-0.12093734,-0.0434431,0.10278899,0.03382928,0.0202742,0.098672435,0.10139364,0.047853816,-0.0008704496,0.0026135633,-0.12076934,-0.0070453705,0.05838315,-0.025743028,-0.109588146,0.015924167,-0.066235125,0.012572693,0.025620919,-0.0019450911,-0.057339985,0.08067724,-0.020360388,-0.049510572,-0.0014051824,0.035824563,-0.07238474,0.033910584,0.045829337,0.0062665236,-0.11491793,-0.10661856,-0.1383831,-0.10053749,-0.045295842,-0.09151988,0.0760032,0.14664197,-0.06585781,-0.051439624,0.08421441,0.02690587,-0.06968255,0.13673595,-0.06731615,-0.054433916,-0.12224601,0.039410103,-0.15292372,-0.04932611,0.03455582,-0.044749107,-0.09490078,0.013179157,-0.009956223,0.1338408,-0.005612637,0.07415823,-0.121330954,-0.33485717,0.06679383,0.068343274,0.05210097,-0.19444005,-0.0852557,-0.16293307,-0.09422194,-0.08905893,-0.04240347,0.08811988,0.12888345,-0.015498928,-0.0138700325,0.10053208,0.04835798,-0.08662061,-0.21783324,0.07853066,0.0571118,-0.12838165,-0.13761023,-0.045942366,-0.053139225,-0.09171771,-0.14271176,-0.122077465,-0.046249304,-0.006401568,0.056387268,0.07578554,0.09850736,-0.08401035,-0.15571758,-0.17086047,-0.19772254,0.08713659,0.13753548,-0.0789711,-0.025714345,0.06509578,0.12075965,-0.022659294,0.10119839,0.030478835,0.0354163,0.11870023,0.096253835,-0.03117757,-0.060998242,-0.12130284,-0.21854939,0.068926774,-0.00022585977,-0.0885793,0.009222221,0.040775865,0.05091399,0.026487745,0.035327137,0.04445409,-0.008281904,0.13556269,0.02894836,-0.09082613,0.017909208,0.06512905,0.009706149,-0.0013779874,-0.019145424,-0.038546693,-0.0037910375,0.018036732,-0.12012566,-0.077750936,0.0050705853,0.12823759,-0.06923251,-0.03454242,0.009581712,-0.018663311,0.028524637,0.13755794,-0.0410323,-0.04866593,0.0738098,-0.021431627,-0.03532405,-0.0066273557,-0.010228057,-0.074846156,-0.14109847,-0.0027231763,0.00896435,-0.121232584,-0.1511591,0.03187069,0.021728257,0.06142803,-0.07776488,-0.032513518,0.0453257,0.12852973,0.13650176,-0.068411626,0.0032641476,0.045905642,-0.09768719,-0.06709622,-0.094868936,-0.1809485,-0.13760427,-0.16506314,-0.011005049,0.16587171,0.058775306,0.01387253,0.027072385,-0.0031860375,-0.13997155,0.024893042,-0.08791142,-0.18619308,-0.21471192,-0.06037251,0.11053185,-0.046165787,-0.1732879,-0.08932023,0.0032652165,-0.07766606,-0.10125315,-0.16690648,0.094534166,-0.102882884,-0.08728399,-0.035031073,0.12326783,-0.008089389,0.0044293553,-0.08431324,0.03403211,0.14679554,-0.026188293,-0.062049247,-0.040320635,0.11041003,0.07429313,0.04275768,0.026641706,0.026918354,0.051258937,0.07152598,-0.117347635,-0.12360736,-0.13678515,0.0133373095,0.030646019,-0.13017116,-0.09948205,-0.11443801,-0.054917943,0.061747786,-0.021313585,-0.053243045,0.038556,0.030985383,0.013476999,0.07731937,-0.03784104,-0.03501947,-0.050021432,-0.00766675,-0.15368675,-0.105252385,-0.15529902,-0.037930936,-0.11833236,-0.27297974,-0.26100856,0.14256828,-0.03075034,-0.031768724,-0.09211719,-0.0057922583,-0.034124013,0.03783488,0.015969632,0.08113766,0.030866278,0.11030017,0.04563849,-0.0007185137,0.026135098,0.08378082,0.15568572,-0.0912349,0.08543496,-0.0465384,-0.014996755,-0.09768284,0.0585444,-0.08357365,-0.07449615,-0.1455484,-0.07604855,-0.05135413,-0.09283045,0.08341336,0.15712407,-0.00030048218,-0.19788377,-0.118108936,-0.110211775,-0.028820936,-0.07397142,-0.123849586,-0.036982004,0.052033342,-0.09933577,-0.11913797,-0.059093177,0.08836938,-0.07025472,-0.076803885,0.08582052,0.047957905,-0.00912753,0.06752808,0.14414763,0.07955476,-0.008380363,-0.070011795,-0.07592024,-0.1003779,0.025122235,0.08545948,-0.0697838,-0.095934786,-0.004945668,-0.048737716,0.03978,0.019574966,0.048164017,0.030177172,-0.025692446,0.05420047,-0.027163487,-0.030050373,-0.02945244,-0.05269166,-0.028783968,0.029041886,-0.039654266,0.037407972,0.0006703693,-0.010243588,0.01846935,0.0196339,0.12880345,0.011557131,0.021136636,-0.025096057,-0.07350975,0.040676795,-0.044036347,-0.10212473,-0.17417325,-0.044478387,-0.05025729,-0.052283343,-0.2246234,0.05011839,0.06441417,0.07587086,0.10844989,-0.013753756,0.024479495,-0.07193268,-0.093040325,-0.038405474,0.06477884,-0.09214389,-0.061288286,0.07359963,-0.031749003,-0.064953774,-0.14424044,-0.072159015,-0.040899765,0.037857257,0.0080801435,0.049653944,-0.005185043,0.013111271,0.014405755,-0.022026535,-0.009572308,0.08094103,0.055506047,0.0009538107,0.011684712,0.0006825781,-0.05762461,-0.102170326,0.070944324,0.13878788,0.036108673,-0.08398765,-0.08625309,-0.15062809,-0.09394086,-0.059662648,-0.0051792017,-0.061962597,-0.040616143,-0.046876144,0.09590245,0.055342473,-0.1420257,-0.1477713,-0.16631834,0.028367054,0.046122506,0.12803666,-0.00044738964,-0.021318717,0.05035759,0.045391154,-0.023106933,0.010928249,-0.056325406,0.13680089,0.03351624,0.00027507872,0.013739298,-0.032260843,-0.022900697,-0.19993506,-0.018940259,0.17184389,0.03843153,-0.10831684,-0.06770873,0.049690396,0.060301367,0.045575272,-0.0019778323,0.10336471,0.046136137,0.05058063,0.13426511,0.05287879,0.064649284,0.17558174,0.0024218448,0.009059906,-0.02127819,-0.0741823,-0.035616633,0.053546246,-0.0068568205,-0.09834797,-0.07878313,0.046638142,-0.00584873,0.033666708,0.025121232,0.0032319033,0.08467125,0.015206145,0.18600951,-0.026373796,-0.045934405,-0.087046884,-0.10040578,-0.036729235,0.029800586,0.03559246,-0.044548627,0.03909778,0.103489585,-0.035362273,-0.074376695,-0.1069443,-0.05460121,-0.03504661,-0.05001352,-0.13128519,-0.083654486,0.010963883,-0.08033013,-0.10742825,-0.121540144,-0.04500182,-0.13115007,-0.051755715,0.1111766,0.05273649,0.016759487,-0.0289517,-0.14414243,-0.08885892,-0.009683212,-0.07108447,-0.10752644,-0.007260189,0.0011381954,-0.07986634,-0.022867793,0.0060176323,-0.013117549,-0.034398925,-0.05977325,0.0871438,-0.036620244,-0.017434046,-0.072082326,-0.06729373,-0.058986295,0.088326804,-0.048471138,-0.04115349,-0.08753473,0.09037744,-0.040056054,-0.04475303,0.14964642,-0.020357065,-0.046440706,-0.058896225,0.04052728,-0.081396975,-0.07331195,-0.11037094,-0.115825444,0.015418949,-0.06373288,0.08976781,0.118680194,0.00043817185,-0.02228754,0.017195966,-0.05303778,0.043362416,-0.0032371033,-0.008596578,0.019589934,-0.05572493,0.07781192,0.15189497,-0.03326781,-0.03259873,0.10714472,0.019221773,-0.11820139,-0.00037452977,-0.064807884,-0.008140612,-0.081775375,-0.115607105,-0.08768578,0.082703225,0.06001124,-0.041976064,-0.06641531,-0.05982905,-0.10025175,-0.0799152,0.036981333,-0.06223175,0.21621723,-0.0047203135,-0.019019436,0.09298566,0.07143885,-0.055878572,0.01578601,-0.019253246,-0.017635155,-0.054212715,-0.11684283,-0.065969355,0.0768979,-0.08408641,-0.10476429,-0.0084623825,-0.06825903,-0.1296576,-0.081847996,-0.007283324,-0.0119583355,0.12493307,0.03211236,-0.046001837,0.00055586937,-0.028847301,0.027425362,0.05791286,0.087567575,-0.021356465,-0.022050748,0.046007108,-0.031292044,-0.012188139,-0.0057348222,-0.060690347,0.03991135,-0.030471807,0.05332254,0.09069861,-0.02881292,-0.06269556,-0.10267227,-0.055628702,-0.041353505,-0.02619058,-0.10968413,-0.112258725,0.13475822,-0.097376846,-0.040019978,-0.05307393,0.03049941,-0.09262852,-0.10676422,0.009915588,-0.048455577,-0.0660323,-0.12413811,-0.0042545986,-0.010460356,-0.0797159,-0.030560886,0.11704071,0.09822057,-0.2095897,-0.045857754,-0.029744746,-0.08379771,-0.094501734,-0.0638831,-0.08054174,-0.060399894,-0.04445888,-0.024871107,-0.045279525,-0.016097799,0.021926157,-0.15771052,0.012243102,-0.047968887,0.16961135,0.006768068,0.073774725,-0.09517634,-0.04373482,-0.030196799,0.0796183,0.052053258,-0.026121346,0.029750083,-0.0456885,-0.0005240813,0.027766407,-0.017155198,-0.0070885723,-0.029222121,-0.03574162,0.017576683,-0.038624182,0.03219839,-0.0045528077,-0.05583543,-0.0027516002,-0.0041696555,-0.05510351,-0.029144205,-0.07210553,-0.03168427,-0.02233603,-0.10157157,0.039450765,0.10539861,0.03895059,0.014767798,-0.082323104,-0.08070903,-0.07329369,-0.04637734,0.03523896,0.022602517,0.004287595,-0.011842526,-0.050363153,-0.06931011,0.012124671,-0.052172396,0.027524523,-0.04892562,-0.0006180854,0.0032435881,0.004840248,-0.060566004,-0.04805215,-0.021791771,0.018721258,0.0048308247,-0.051171303,-0.005110442,-0.021346215,0.01951493,-0.06667963,-0.1089386,-0.036659684,-0.10074294,-0.0652353,-0.07963534,-0.0702014,-0.025748461,-0.05260624,-0.18228325,0.040545523,0.03873807,-0.0646026,-0.02018699,-0.14048581,-0.107541986,0.013836493,-0.104150966,0.047724217,0.07757237,-0.023919035,0.054670103,-0.006942631,-0.021512419,-0.017072693,0.079106934,-0.05897441,0.02285218,-0.09843259,0.021486854,-0.015580035,-0.19000338,0.07376873,0.007828523,-0.13867564,-0.015112396,0.13369569,0.033723153,-0.06980953,-0.007261089,0.03300902,-0.009124444,-0.07375573,-0.07860137,0.1287479,0.096435875,0.20032242,-0.18173283,0.034348648,0.031338315,0.08192222,0.03526323,-0.0022254603,0.020247487,1.0164175e-05,-0.069452606,-0.0045322697,0.03240224,0.01172044,-0.04524428,-0.005802027,-0.12425834,0.11442742,0.07926629,-0.019060204,-0.10468786,0.05393824,0.007923494,-0.06346677,0.012041662,0.008402321,0.086496435,0.056912094,0.045778546,-0.04037203,0.119497664,-0.08595665,-0.020830903,0.108923465,0.08448143,-0.13850568,0.0031450936,0.08708506,-0.018318485,-0.060679965,-0.12843211,0.024481764,0.10866779,0.15079278,0.038041566,0.03401392,0.080488995,0.047704596,0.05632776,0.058403812,-0.030474491,0.016290782,0.008228268,0.06397007,-0.07254767,0.05175108,-0.06609865,0.0049063223,-0.075291246,-0.07704744,0.05673627,-0.09896399,-0.07473052,0.04217276,-0.015486478,0.16009377,0.13712297,0.03749898,-0.1927179,-0.14988244,0.0673428,-0.1785416,-0.20121576,-0.08369312,0.07484305,-0.10353924,-0.19012311,-0.09134883,-0.14873232,0.10092521,-0.08467381,-0.09154439,0.06297282,0.10685211,0.1236441,-0.11779232,-0.09964441,0.02722661,0.0073303366,-0.015964046,-0.06446218,0.050428618,0.032804597,-0.17456923,-0.18227023,-0.0357657,-0.063506,0.05098117,-0.052639253,0.06935082,0.04717144,0.049776375,-0.027081743,-0.112566166,-0.14770362,-0.05923012,-0.03660301,-0.12082316,-0.16058686,-0.17305556,-0.08904829,-0.032281972,-0.0555572,-0.020927891,0.080177546,-0.086625814,-0.09116079,0.07865791,-0.058828045,0.08018923,0.062125996,0.06358862,-0.23054375,0.02556716,-0.0026118178,0.068198286,0.025680372,0.13649562,0.11351388,0.027977083,0.008260019,-0.18665385,-0.12191141,-0.040812742,0.041113183,-0.0863615,-0.094712414,-0.14881407,-0.07911903,-0.12294378,-0.20146066,-0.06651789,-0.03428263,-0.13444853,-0.0040127826,-0.055505134,-0.03925914,-0.08031965,0.094845034,0.13918953,-0.036957372,-0.02806571,-0.11386294,0.06286174,-0.016491732,-0.056989744,-0.10502965,-0.091232985,-0.011320315,-0.23314078,-0.09587282,0.067226134,0.018651996,-0.115339555,0.042519122,0.017183289,0.04358201,-0.074334666,-0.005934119,0.05182157,0.082685165,0.026302684,0.08565146,0.03369096,0.030371958,0.05606564,-0.095019564,0.0131876,0.033999715,0.0008934979,0.02736651,-0.10556318,-0.027581155,-0.04916385,-0.18268335,-0.049641296,-0.08995159,-0.12672174,-0.23273861,-0.11277804,-0.08110322,0.04232019,-0.024337854,0.0769288,0.11806269,-0.029654892,0.108720526,0.055880144,-0.010277979,-0.02569968,0.029276673,0.010153491,-0.03632499,-0.07827365,-0.003903989,-0.0657271,0.0030411629,-0.13150576,-0.07043357,0.051334225,0.10056072,0.069358505,-0.053225536,-0.07800215,-0.049120698,-0.076047674,-0.07408696,0.08435631,-0.053658005,-0.10525458,-0.030437984,0.11738372,0.05485053,0.019833341,-0.023289843,-0.030837022,-0.0149301,0.03436785,-0.042528313,-0.03626655,0.016058048,0.0030919104,0.051600676,0.011195633,-0.013499619,-0.027343404,-0.01940834,0.018728377,0.026842993,0.14075345,0.12259618,-0.026076155,-0.008111575,-0.030729404,-0.029569402,-0.052968673,-0.0775903,-0.059180286,-0.026004339,-0.09783841,-0.03347841,-0.046720363,-0.07577193,-0.088943005,-0.1527289,0.044147663,0.06181368,0.10274249,-0.06810536,0.023349524,-0.026322637,0.084423326,0.025218157,-0.04653678,-0.08803517,-0.08692654,-0.095233105,-0.0705731,-0.07039174,0.025541687,-0.0051148115,-0.013013223,0.10748712,0.000968012,0.045364294,0.09540826,0.09621046,-0.0052704057,-0.01534653,0.08010498,-0.07506444,-0.014019617,-0.01533164,0.16412991,-0.1786868,-0.10741205,-0.03938476,-0.044123814,0.033789977,0.07515038,-0.0014782894,0.039423138,0.11317304,0.068878904,-0.06627933,0.0040094745,-0.123430185,-0.19183917,0.067688435,0.035603307,-0.120632514,-0.13567075,-0.055129178,-0.0027640234,0.060168214,0.07116531,-0.11109374,-0.14344087,0.09682381,0.0934522,0.10897837,-0.0056263297,0.05933094,-0.11856483,-0.037001558,-0.016163813,0.020809498,0.0024085303,-0.04785086,-0.018877402,-0.12298689,0.10818942,-0.030851755,0.014133846,0.091854334,0.04191899,-0.042488497,-0.06052443,-0.010903961,0.15457307,-0.04836633,0.060905885,0.1331522,-0.047497433,0.026193954,-0.0652546,-0.11549195,-0.0026653241,-0.009660449,-0.10945903,-0.10855315,-0.031811785,-0.118727975,-0.018064119,-0.09890051,0.1294061,0.043388132,0.048406813,0.08710362,0.03799345,0.14669687,-0.1749471,-0.016856974,-0.001574622,0.03384598,-0.06341197,0.032550927,0.11638537,-0.030886536,-0.15515436,-0.15384746,0.10106054,0.017564317,0.029071813,0.03547525,0.028011922,0.10645495,0.15781645,0.00949103,-0.094267614,0.13584068,-0.06320301,0.18748946,0.07994541,0.0023935416,-0.031504333,0.15652533,-0.036703307,-0.19877551,-0.16386484,0.022154791,0.013832134,-0.13113503,0.060493518,0.08296646,0.10843522,0.20719795,0.02009201,-0.105964065,-0.13463365,0.01829105,-0.170046,-0.15557517,0.047242075,-0.01612062,0.05671508,-0.06557298,0.0018289007,-0.053680066,0.07716879,0.018989006,-0.081105955,-0.034150846,0.1349652,0.1388033,-0.100397974,-0.018343981,0.01686996,-0.13957447,-0.017806588,0.090735026,-0.02835691,-0.058201935,-0.012191197,0.09755456,0.16537285,-0.0031191148,0.058400963,-0.023221737,0.021388723,-0.091718815,0.09695475,-0.008061787,0.039501414,-0.060079385,0.0025167884,0.0063413247,0.08262033,-0.05185003,-0.06564953,-0.10041867,-0.08898572,-0.048979163,-0.049577456,0.07287296,0.040054973,-0.06018156,0.08085087,0.022721145,0.14570436,0.11920148,0.15039994,-0.12373186,-0.04362824,0.015339492,0.040417023,0.048131164,0.13385,-0.0016743998,-0.10271348,-0.14998399,-0.17505187,-0.17964739,0.0035413073,-0.036661707,-0.025440909,-0.012411619,0.022216903,0.109196045,0.09780988,-0.07263509,-0.0242658,-0.09239083,0.0309297,0.019714223,-0.025073038,-0.015079599,-0.109523155,0.048132703,0.040168732,0.07985627,-0.2031426,0.074205585,0.20379852,0.020639382,-0.07060603,0.027900307,-0.012504319,-0.08005181,-0.18827148,-0.015232894,0.019790187,0.09898449,-0.07100813,0.18535843,0.09320715,-0.101267375,-0.21190588,0.028834263,0.104665644,-0.06438206,-0.110037275,-0.005433919,0.12820499,0.052083787,0.009642275,0.015637202,0.034184463,-0.120525636,-0.009557395,-0.011100214,-0.044346724,0.014351705,0.10067344,-0.074910805,0.053309318,0.040216837,0.14148282,0.19825801,-0.013766397,0.049540285,0.011402329,-0.07015913,-0.045089368,0.111363456,0.041500673,0.113239214,0.070728526,-0.04187724,-0.027726626,-0.05969608,-0.016021028,-0.050527383,0.23971404,0.03044307,0.026591409,-0.05528223,-0.13683935,-0.045821883,0.017106067,0.045356516,-0.044730045,-0.08883972,0.12292331,0.121267945,-0.059861135,-0.092416614,0.08336515,-0.023508253,-0.1624439,-0.22104755,-0.016464537,-0.037491705,-0.009521716,-0.003311212,0.0556301,0.018530414,-0.039772827,0.043349545,0.027736729,0.044753574,0.037262846,0.022870963,-0.04019714,0.039353404,0.0035255605,-0.0071327453,0.021659365,-0.04612778,-0.00080128293,0.13851184,0.012519373,-0.037603717,-0.06563182,-0.1319679,0.017081099,0.10462566,-0.07088071,-0.053670175,0.07472807,0.04340668,0.0547231,-0.052221935,-0.06540414,-0.09246049,0.04871821,0.12916094,0.016289571,-0.08640372,0.0055043423,-0.094602406,-0.061960135,0.04146741,-0.04175845,-0.068687275,0.092077725,0.030386768,-0.070284836,0.020789588,-0.0055403584,-0.009390465,0.05815677,0.19775149,-0.015283747,0.12057201,-0.07531421,0.06936644,-0.1019907,0.13539994,-0.015560888,0.045304477,0.026118457,-0.06795024,-0.033782803,0.021415763,-0.056102056,-0.10078042,0.062257357,0.009135948,0.06530345,0.08708922,0.040200982,0.05869089,-0.03814689,-0.014127648,-0.018306391,-0.15602486,-0.11200782,0.014794643,0.11557655,-0.13774262,-0.15273814,0.008218845,-0.08265913,0.032815903,0.073612176,-0.044325545,-0.18578278,0.053185236,0.11857605,-0.0056712492,-0.15353721,0.05519724,0.04396818,0.13988638,-0.14912483,0.106997214,0.06901978,-0.09128881,-0.11483055,-0.13353567,0.004824338,0.0040192525,-0.038646255,0.029729953,0.054394927,-0.10204067,-0.15122811,-0.009212397,0.12225067,0.05463749,-0.0016908649,0.078512326,0.12698214,0.049883615,0.05489496,0.025606444,-0.08678069,0.08020971,-0.114677265,-0.14284897,-0.09925633,-0.032350443,0.08365855,-0.034628604,-0.07467176,-0.05457164,0.015253104,-0.08377019,-0.0812002,-0.10879782,-0.0297963,-0.065673776,-0.08472742,-0.020652002,-0.06329305,-0.100744955,-0.097857386,-0.05009177,0.09731001,0.17288695,-0.10450836,-0.1461947,-0.0054487237,-0.07984506,-0.0022629637,0.011515846,0.043361485,-0.0298522,-0.11350085,-0.19240026,-0.09495058,0.058774374,0.065591305,0.1556981,-0.07832609,0.20807941,0.066200994,0.007122187,0.08892758,0.039675843,-0.09127856,0.05596616,0.09823216,0.003771799,-0.04672516,-0.07796088,-0.021355197,-0.033993855,-0.0069862828,0.024923826,-0.010264465,-0.14118627,-0.09841908,-0.12887219,0.072146855,0.0113374675,0.10185169,-0.034958526,-0.031202983,-0.13005964,-0.0064375508,0.0629431,-0.044773795,-0.13789259,0.0011089909,0.11273764,0.002312414,0.012110319,-0.12789512,-0.097726785,-0.07737705,-0.12231932,-0.038538344,0.16504449,0.14249147,0.044615973,0.07170376,-0.0056296303,0.0061415285,-0.11537747,-0.14570183,0.10653287,-0.09304042,-0.032141764,0.051361013,-0.1305669,0.013516601,-0.051116146,-0.05659651,-0.16441125,0.026908003,0.015434944,-0.14568527,-0.10451393,-0.04082659,-0.08933721,-0.12750131,0.072328456,-0.030241577,0.13888893,-0.069381654,0.110253595,-0.05636848,-0.08369241,-0.15443291,-0.120870605,-0.12999414,-0.011463843,0.006409926,0.016718762,-0.1798019,-0.015452818,-0.07537868,-0.031356636,-0.14366287,-0.16132908,0.10398567,0.15281877,-0.060798254,0.032704353,0.14575744,-0.068557836,0.06379399,0.0037311283,0.014762843,-0.23344634,0.08309248,-0.13931319,-0.18423806,-0.09309602,-0.09363917,0.03473078,-0.0083176205,0.022764698,-0.11669737,0.037802674,0.023706617,-0.17565617,-0.036868382,0.011687142,-0.118000105,0.11716754,-0.19692954,-0.09399489,0.04791784,0.026275925,0.12895702,0.011485807,-0.11731183,-0.107770376,0.1514421,-0.047146372,0.001839185,-0.04537135,-0.0065718954,0.1645883,0.045557752,0.06376374,-0.024307746,0.031376455,-0.02919662,-0.10668821,-0.09245814,0.046173297,-0.09299517,-0.039609753,-0.058003984,0.087471634,-0.027970674,-0.0061042896,-0.0021295424,0.023940414,-0.11196569,-0.031343494,0.07464637,-0.027911693,-0.09538593,-0.10979111,0.032194905,-0.045722485,-0.07967431,-0.07024218,-0.012698594,-0.122252144,0.01672872,-0.12992968,0.01144057,0.013248213,-0.03619997,-0.13920395,-0.09091132,-0.12013369,0.007459437,0.11903663,-0.09646807,-0.00039899594,0.108839594,0.062791936,0.029688697,-0.053041123,-0.3101503,-0.06392903,-0.00019036076,0.023769861,0.0027321677,-0.04664779,0.0035995129,0.007339396,0.005907072,-0.05118004,-0.010009893,0.03481028,0.055633146,-0.03586112,-0.012637118,-0.018109994,0.054769006,-0.0046551423,-0.06962692,-0.012403988,-0.07407231,-0.021802435,-0.029594637,-0.08403616,-0.16114445,0.021533867,-0.04443229,-0.029786851,-0.02882688,0.23678978,0.010829964,0.0136686,0.07264379,0.00016017191,0.04027767,0.01173306,0.004056492,-0.037768994,0.06359295,0.039382942,-0.056512445,0.05203282,-0.033816025,-0.0073840343,0.059939273,0.0337644,0.059792288,-0.02872688,0.06634073,-0.023663243,0.10069656,0.08644867,0.04678536,-0.08962855,0.18683405,-0.1126851,-0.09608166,-0.03522383,0.08683275,-0.09003086,0.102563605,-0.017383166,-0.08927639,0.058069788,-0.0011808615,-0.106446944,0.095752716,-0.019365476,-0.08460421,-0.0039669746,-0.058828857,-0.07958272,0.08456562,0.12353233,-0.028674789,0.0049823597,0.072417945,0.04643647,0.10108549,0.0036336367,-0.014053722,-0.041329242,-0.06641131,0.08636065,0.04693689,0.13067015,-0.11058906,0.10159351,-0.14344475,-0.19581367,-0.061584886,-0.05630703,-0.07515898,0.042175673,0.11724299,-0.08774065,0.051869743,0.04433658,-0.11019699,-0.13426116,-0.08128853,0.11039687,-0.071025595,-0.116490185,-0.008291804,-0.19583149,0.077174775,-0.08021553,-0.10259988,-0.0153380865,0.012434619,-0.15213385,-0.05661748,0.14814003,0.09287003,0.09015634,0.011866979,-0.16974558,-0.0044519603,-0.054200016,0.029713575,-0.07367956,0.07790327,0.08377301,-0.02998441,0.03700001,-0.02487205,-0.12338436,-0.03925229,0.033015147,0.0011682651,-0.05906477,0.08149702,-0.15157156,0.07642946,-0.041585997,0.03701955,-0.042947724,0.032292504,-0.024962462,-0.12465363,0.024643857,-0.08188791,-0.14535509,-0.026592469,0.061369184,0.10095796,-0.028300663,0.0014961348,0.052850287,-0.032008477,0.055572663,0.10751753,0.040434174,-0.1270398,0.06982913,-0.041627504,0.0037059716,0.028438797,0.027760053,-0.009747351,0.13826439,0.001093679,0.028794238,-0.05164083,0.066801794,-0.054611478,-0.12905312,0.005147507,0.0211534,-0.06914386,-0.026850503,0.048306666,-0.084813416,0.08491142,0.049771197,0.089708574,0.031982858,-0.03657755,-0.04706295,0.05131549,-0.0088314125,-0.094447084,-0.08623945,0.081088506,-0.06788483,-0.081203766,-0.11269551,0.057658266,0.06818006,0.023000918,-0.015558669,0.06559442,0.19113702,0.015028168,-0.037901696,-0.008990738,0.10037429,-0.07650593,-0.03221813,0.033793,0.07818507,0.05226238,0.051180836,0.0662432,0.0760548,-0.025781363,-0.018663362,0.09464824,-0.09597596,0.09604472,0.09593802,0.06203613,-0.13971332,0.048808224,-0.005394495,0.018933706,0.0073839617,-0.018312939,0.09716451,-0.063014634,-0.07314253,-0.05969008,0.01110363,-0.035420462,-0.021284083,-0.21424322,-0.08277472,0.03684888,0.082463786,-0.19035463,-0.10891975,-0.029034704,0.059381794,-0.0077984924,0.09017913,0.21842285,0.088546045,0.101098716,0.089632235,0.15635541,-0.006458716,-0.05378218,-0.006747014,0.09107021,0.065577835,-0.055470195,-0.08008114,0.05305948,0.15776469,-0.15764904,0.08216103,0.011718871,0.07779323,-0.09395171,0.15823816,0.0032995422,-0.007476619,-0.025931098,0.02769851,-0.027445346,-0.10675336,0.023950607,0.083143435,0.08932112,-0.019910168,0.023707101,0.0043538306,0.034544755,-0.050726403,-0.052193284,-0.1255571,0.070607975,-0.02910398,-0.08269823,-0.017228434,-0.06587921,0.04500387,0.014881746,-0.0053152116,-0.090377405,0.046748202,-0.051167324,0.063408986,0.03207805,0.16134699,0.027035743,0.15283233,-0.015764086,0.0072969054,-0.11696385,-0.013462982,-0.106913604,-0.039371222,0.07362461,0.06956711,-0.02039501,0.08035732,0.027318962,0.030308519,-0.0081131365,0.120350964,-0.11341929,0.0085501615,0.043727927,0.043182302,0.0495791,-0.12621598,-0.05083433,-0.045619126,-0.08189427,-0.031463623,-0.078222156,-0.07604891,0.019078547,0.09510971,-0.1562075,-0.13475417,0.12011027,0.073642656,-0.034907605,-0.056964137,-0.021854263,-0.0419273,-0.046212766,0.054693203,0.002144106,-0.055042725,-0.039350737,-0.04602642,0.041338906,0.029456852,0.02231858,-0.024789313,-0.04468643,0.040063877,-0.011780302,-0.027974904,-0.06878604,-0.09656995,0.00056320475,0.11578978,-0.035413355,-0.11349556,0.07620675,0.14190568,-0.09585275,-0.021142269,0.108426,0.060429886,0.031067204,0.05390944,0.14181195,-0.049584195,-0.060606577,-0.11608064,-0.015797844,0.01840509,-0.008628131,-0.03907677,-0.04442241,0.07073282,-0.08433275,-0.13156019,-0.01820261,0.0353874,0.034418523,0.010737975,0.11011525,0.014424433,0.07974497,0.10205025,0.08673034,-0.027505413,-0.048254207,0.09124246,-0.06347376,0.049243063,-0.20529883,0.067807,0.01121194,0.0836151,-0.17697297,0.01884886,0.21764201,0.063454024,0.12225436,-0.020594161,-0.05384055,-0.01012225,0.035263002,-0.06894144,0.023874136,0.061436582,0.011563043,-0.14630297,0.11426803,-0.115785904,-0.027771613,0.03224154,0.11443134,-0.13498417,-0.19342773,0.033425324,0.062706,0.04097353,-0.06100131,-0.06291732,-0.13509224,4.8851292e-05,0.15023933,-0.06474724,0.013960873,0.038671087,0.044368874,-0.12084324,-0.03674619,-0.039631844,-0.016041541,0.050785728,0.02547721,-0.029195782,-0.02770206,0.019894911,-0.05039303,0.056180876,-0.025660597,0.09112844,0.0021086459,0.1323618,-0.16632715,-0.13139765,0.038279787,-0.023595605,-0.060413294,-0.15611395,-0.11787407,-0.17465079,-7.1978306e-05,-0.0463769,-0.10842112,0.010076277,-0.12177459,-0.05401286,-0.009212187,0.024416996,0.0746166,0.08405046,0.07292038,-0.02532064,0.038304638,0.08928155,-0.14923522,-0.23497967,-0.053499334,-0.09234129,0.056074277,0.090238325,-0.017319992,0.017432345,0.00011234221,-0.065999165,-0.0065403935,0.082925424,0.081595786,-0.009605552,0.11095923,0.09947569,0.006901972,-0.19346857,0.020484485,-0.08257229,-0.002442836,0.0039277477,0.023258736,0.042357996,0.05369042,0.034007892,0.027890889,-0.11314963,0.0015548015,-0.08862509,0.02629019,0.14895356,0.005086604,-0.095283516,-0.104726605,0.03553187,0.012682083,0.009023867,0.017917372,0.04022954,0.06605059,-0.036514785,0.009863172,0.014185787,-0.039688714,-0.06492772,0.004323201,-0.05052383,-0.052277945,0.09761325,-0.10685665,-0.15797842,0.0017504515,0.23235358,-0.12256063,-0.00028741843,-0.025734276,-0.01631555,0.0041165114,0.03358282,0.08780017,0.038182773,0.12604749,0.087316036,0.028049042,0.023677215,0.059472255,-0.07064056,-0.15200108,-0.057262238,0.023787832,-0.013252478,-0.104516625,-0.011687327,-0.0914474,-0.09870605,-0.011962314,0.06309288,0.021119697,0.030131668,-0.04296786,-0.21255511,0.05632278,0.058819707,-0.040892202,-0.04598221,-0.115923576,-0.034782596,0.056156036,0.07510905,-0.043173976,-0.008039686,-0.029245075,-0.084820725,-0.18773001,-0.019000676,0.03492358,0.09432394,-0.07121023,0.053413227,0.014749126,-0.14417171,0.0492191,-0.08546619,0.11599006,-0.004588384,-0.07638231,-0.07952118,-0.0036472434,0.074402645,0.0040265745,0.060654845,0.08235432,-0.038809624,0.14392816,0.042027824,-0.06698284,-0.18579894,0.055231906,-0.058792576,-0.06172185,-0.0624052,0.061933074,0.052621447,0.06178993,0.002599666,0.1262384,0.065703966,-0.28622428,-0.22296241,0.0090840645,-0.062669106,0.14782436,0.08312169,0.05784915,-0.053082433,-0.033229552,-0.058010608,0.18342584,0.0648984,-0.07534171,-0.0102605475,-0.10467458,0.11719864,0.055613503,0.09734368,0.080503084,0.07877771,0.055689003,-0.08711976,-0.056344584,0.10147291,-0.016061176,-0.08042648,-0.035411485,-0.046388853,-0.13598046,-0.01990422,0.06627677,0.11879628,0.0027542228,-0.16179146,0.0034424644,0.021816252,-0.009732259,-0.050145876,0.11631574,0.01788776,-0.06812134,-0.022154262,-0.13764895,-0.11143575,-0.09961222,0.018673591,-0.0010448381,0.0021761565,-0.01950692,-0.1998139,0.045940224,0.03674641,-0.018357437,0.014499614,-0.09649704,-0.0721383,0.115252666,0.03605621,0.113854885,0.07418223,-0.02341687,0.00309782,-0.025974195,0.038634393,-0.012752107,0.035552036,0.01949598,0.038905237,-0.023391917,-0.04862819,0.04019541,0.026728304,-0.015798729,0.026538836,0.042142026,-0.036799498,0.016767945,-0.004308781,0.021703005,-0.019362342,0.09801539,0.1284702,0.0024800717,0.07053402,-0.15863004,-0.11163983,-0.005747737,-0.063593425,-0.06050443,0.14083126,0.013055568,0.014788624,0.056434516,0.065682225,-0.02953894,-0.024412282,0.09301078,0.037521735,-0.0022267166,-0.0064687193,0.00094486494,-0.031142361,0.014956432,0.0444693,-0.016351381,0.0014835733,-0.02002023,-0.027795922,-0.055225104,0.011686692,-0.09441691,0.07784414,0.06693664,-0.12463948,0.072008684,-0.010056077,-0.03845264,-0.09232245,-0.073059455,0.05323776,-0.093429424,-0.022240957,0.12530768,-0.04099429,-0.030442972,-0.022166772,0.0370405,0.045876596,0.05284615,-0.1337867,0.071937904,-0.09979957,-0.055369034,-0.07444195,0.055070702,0.0057232985,-0.028063467,0.09903597,-0.102815896,-0.08275689,-0.056440566,0.005282593,-0.12295532,-0.15651247,0.052353043,0.20352063,0.01958067,0.003987931,-0.09443782,-0.057702586,-0.042888917,-0.15899293,0.022503432,-0.10288931,-0.08103691,0.0981708,-0.006829336,0.00078911526,-0.097207494,-0.18193445,-0.070701934,0.2217017,-0.06818955,-0.16025396,0.06798026,0.057991922,-0.0745164,-0.089044794,-0.080145635,0.06401917,0.01327698,0.05219987,0.0076791467,-0.026435083,0.11397763,0.036111142,0.0238923,-0.04211235,-0.0073264525,0.051890004,0.0056030336,-0.118242964,0.07051044,-0.0052240985,-0.008107811,0.013677819,-0.11504623,-0.046520267,0.10814777,0.12720597,0.019934688,-0.015728889,0.09291945,-0.015282212,0.046382003,0.0309376,-0.10226294,-0.10298993,0.086613,-0.026707321,0.04056293,0.026459979,-0.10101475,-0.1311877,0.0037612403,0.02332635,-0.20283897,-0.09883658,0.068761654,0.15279032,-0.047423735,-0.096983366,-0.005875625,0.040015224,-0.08346059,0.04233922,-0.08823024,-0.05141068,-0.03695981,-0.03301664,-0.038902353,0.1631507,-0.13995987,-0.048994444,-0.021411432,0.17014788,0.037662983,-0.05907817,0.055977933,0.0012478052,-0.04525691,-0.059409812,-9.03225e-05,-0.008769723,0.011873359,0.09666916,0.053426344,-0.074558824,-0.09153422,-0.058010247,-0.06373192,-0.14449485,0.027069166,0.13612433,0.005246887,-0.16381468,0.01798694,-0.054720335,-0.060798302,0.0876854,-0.092278235,-0.15637489,-0.016127098,-0.009029436,-0.27618197,-0.08210234,0.047121767,0.021261849,-0.114631616,-0.012271703,0.121798724,0.0916085,0.008539099,-0.17719586,0.09117422,-0.044078276,-0.07596056,0.017226838,0.09872757,-0.12973708,-0.028670194,0.115806125,0.06656076,0.07398826,-0.100100264,-0.0892558,0.009151633,0.08092624,0.086641535,0.051124576,-0.19910471,-0.04650848,-0.071497284,-0.01813136,0.07007506,0.098120645,0.09202462,-0.005149079,-0.1557976,-0.020677725,-0.118598744,-0.029516952,0.05213362,0.20558636,-0.085464194,0.050887242,0.106424116,0.045746397,0.055702392,0.03682359,0.014613406,-0.09796903,-0.15264283,-0.13747698,0.0038745007,0.12388868,-0.013043216,-0.05108911,0.075782195,0.1685014,-0.020139951,-0.1217724,0.13934737,0.112638004,-0.03388833,-0.08473325,-0.044207606,-0.069894396,0.033784166,-0.002374053,0.07244965,-0.10752733,0.06108042,0.11940587,-0.062428825,-0.13224256,-0.027261999,-0.020377977,0.06764902,-0.059125207,0.052962855,-0.15314616,0.04865926,-0.004958653,-0.019752596,-0.009719744,-0.13861886,0.06763041,-0.018902304,-0.023177713,0.04541926,0.14764716,0.0066180285,-0.094936535,-0.047521107,0.040299524,0.0052282303,0.0964619,-0.011295469,0.031384055,-0.105656095,-0.03428664,0.06729522,0.105785325,-0.08715735,-0.093177736,-0.04078423,0.09680164,-0.04308703,-0.080922976,0.055887762,-0.100626595,-0.09094044,0.007238978,0.07920019,-0.09524852,0.018461125,0.012394358,0.06537467,0.11229002,0.080663145,0.10332758,-0.04325732,-0.14504233,-0.02047631,-0.003894733,-0.13272941,-0.11898913,-0.035763524,0.076571845,-0.08863197,-0.12642856,-0.04165817,-0.014077631,-0.024000864,0.04367437,-0.04757355,-0.008135329,0.054944824,-0.01688913,0.023638802,0.026313968,-0.0361097,0.02847345,0.034825325,-0.028334511,0.019872064,-0.008383991,-0.00072475086,-0.018138224,-0.004133746,-0.042764794,-0.0129300365,-0.0055931457,0.06310733,-0.03463416,0.077685006,0.05376023,0.035976555,-0.03248573,0.066930465,-0.05916235,-0.003651931,-0.11548988,0.023819158,-0.08442947,-0.041370843,0.0045891386,0.028124213,-0.021134164,-0.070740454,-0.0030466856,-0.03746044,-0.12241914,-0.016743599,-0.029293248,-0.039910983,0.09137184,0.07986581,0.0027037745,-0.08490721,-0.18840447,-0.085739605,0.042488206,-0.028303424,-0.12933157,-0.056356926,0.12186816,-0.008990472,-0.02793693,-0.0028906958,0.04247552,-0.13873446,-0.017459935,0.0878863,0.091525845,-0.21355103,0.021624068,0.084100366,0.09925316,-0.078676306,0.1366031,0.021138338,-0.028752308,-0.010038287,-0.11430367,0.106345125,-0.09711496,-0.06785018,0.08026179,0.1025596,-0.11300954,0.07704717,-0.09649213,-0.30998573,-0.14038853,0.044112876,0.07835538,-0.119636305,0.013087692,0.13725059,-0.05348712,0.073333174,0.07582838,0.12382737,-0.11409268,-0.10558576,-0.049525402,0.104069,0.19938459,-0.09667124,-0.28883028,0.037692606,0.14546157,-0.14437248,-0.16517301,-0.051066622,0.054142646,0.012328903,0.09237154,-0.12203549,-0.010369758,0.11629115,0.10584599,-0.032664914,0.023117095,0.13037851,0.06398472,-0.12362124,-0.0852824,-0.0017448931,0.03318753,-0.029456731,-0.02740376,0.09696345,-0.04405085,-0.0027423275,-0.013409664,-0.08794561,-0.0037949213,-0.05751728,-0.039052032,0.0782526,0.09659959,-0.13708451,0.04623034,0.036129724,-0.12608723,-0.18001929,-0.057721045,0.0049138176,-0.046302203,0.029643223,0.04387334,-0.006997841,0.098891705,-0.0021308037,0.030825103,0.013982289,0.10833867,-0.07382728,0.1051475,0.008567187,0.030079706,-0.0661798,0.21389888,-0.028115429,-0.14812686,-0.18217708,0.16303982,-0.066336714,-0.12350293,0.025791982,0.032225683,-0.10328066,0.117446736,-0.02787908,-0.044950344,-0.04751757,-0.08109982,-0.027737658,-0.03600288,-0.09162119,-0.06708122,0.057049472,-0.015276249,0.034976896,-0.015376247,0.048996136,-0.06899202,-0.14141124,0.102972284,0.11209187,-0.056490626,-0.07384693,-0.14612056,0.01817477,-0.109101616,-0.0407838,0.16327582,-0.11761178,-0.06482524,0.009221739,0.101284504,0.051284686,0.0316974,-0.05239977,0.028521715,0.0038369086,-0.10450315,0.077942565,-0.045433413,0.026522968,0.010228685,-0.01992879,-0.12810068,0.12512156,-0.008198324,-0.09674569,-0.02745347,0.0008499692,-0.03134876,0.07946996,0.09258155,-0.004563215,-0.03451601,0.14387842,0.071824476,0.016472993,0.18766092,0.03189137,-0.19204569,-0.09235586,0.04340262,0.009142923,-0.13902278,-0.09949119,0.0022868034,-0.04385001,-0.14421886,-0.11968194,-0.0746431,0.0015288871,0.033956915,0.03586183,0.058098596,0.05766169,0.17149341,0.13463634,-0.07711971,0.030551683,-0.048748437,0.05673534,-0.0292577,0.04603018,0.044776734,-0.17913616,-0.045835122,0.024112249,0.116467305,-0.19006108,0.062791914,0.15179642,0.01662972,-0.036455557,0.08204171,0.02052251,-0.12913893,-0.055057213,0.0597009,0.0062965164,0.058164902,-0.12463747,0.17292592,-0.00939663,-0.0019611856,-0.14954226,-0.010767182,-0.15838486,-0.023675587,-0.107572526,-0.0011961441,0.16416402,0.05774308,-0.09507918,-0.008528449,0.08312725,-0.17534205,-0.030089524,-0.020910252,-0.08121724,0.0322181,-0.017426755,0.049076058,0.051441003,-0.016259763,0.037550576,0.12785275,0.064706594,0.017754039,-0.19147749,-0.12871242,-0.027020413,0.03901786,0.020611005,0.015379656,0.01755024,-0.018479154,0.037510674,-0.06455367,0.020282988,-0.028303402,0.21039897,0.060705926,-0.016149882,-0.058345627,-0.056823164,-0.10686519,0.070350096,0.08351996,-0.10216113,-0.15369242,0.12843,0.18089676,-0.13279796,-0.0878769,0.03532057,-0.13887802,-0.16102783,-0.16436885,0.009865666,-0.024783721,-0.028236162,-0.010915155,0.017827688,0.030354831,0.023596635,-0.037397582,0.024070041,0.047139175,-0.042286158,-0.04198095,0.024419978,0.0063853874,0.008211912,-0.054994527,0.0475538,0.031197283,-0.014189067,-0.048762117,0.009723867,0.009430743,-0.00033847385,-0.053333987,0.103285015,0.112734705,0.021633875,0.055921633,0.10520545,-0.013080207,0.018724091,-0.061402783,-0.045434758,-0.058952123,-0.02113465,-0.036974892,-0.017484229,-0.06339604,-0.11462579,-0.121043675,0.14004098,0.06306454,-0.017126855,-0.06567212,0.090611845,0.060111646,0.060621385,0.046920888,0.0122131705,0.000552556,0.0401601,0.11791186,-0.067111626,0.09705009,-0.12676115,-0.05670139,-0.12614931,0.11857803,-0.01819923,0.047737967,0.11661188,0.013385503,-0.06980958,0.005130792,0.007504183,-0.0334379,0.052836116,0.03165194,0.0043072184,0.13409153,-0.09608645,-0.0076689585,-0.032396164,0.03449938,-0.052672535,-0.024214802,-0.07208452,-0.07609572,0.14022711,-0.027274422,-0.14042822,-0.115409076,-0.1857755,0.11012075,-0.023540162,-0.029770536,-0.057322904,0.017940857,-0.06665142,-0.1355179,-0.08399981,0.105744675,0.14524852,0.17078975,-0.09240957,-0.051300734,-0.014178952,0.020327438,-0.057757944,-0.11969979,0.20314759,-0.09897937,-0.012753761,-0.019164113,0.12522635,-0.16055055,-0.117939614,0.043089334,0.050498728,0.11351039,-0.022974188,0.018286627,0.037738923,-0.033161007,-0.008166106,-0.01024574,-0.12662141,-0.06842564,-0.10379608,-0.16786925,0.08828183,0.03570905,0.004353865,0.055947836,0.056614026,-0.022225715,-0.015360246,-0.13866055,-0.09598386,-0.09380095,0.006449953,-0.006192889,-0.18550572,0.025642626,-0.17812559,-0.14191206,-0.027041305,0.08761911,0.14906187,0.26193574,-0.013668398,-0.13784169,-0.04083847,-0.10250298,-0.15437372,-0.10564877,-0.123051986,0.016225558,0.036111303,-0.038096476,0.08725876,-0.052720662,-0.16832805,0.13683264,-0.11386239,-0.07862768,0.047571946,0.12981996,0.13612977,0.0068627396,-0.010324199,-0.0045095393,-0.10273225,-0.086702324,0.02138824,0.10805189,0.0875969,0.041123416,-0.016938934,0.05049295,-0.01337866,-0.05822292,-0.11708922,-0.06092885,-0.010064507,0.08024007,-0.005623925,0.022892103,0.08370001,-0.010312454,-0.036930367,-0.011040098,0.007905836,-0.108300775,-0.07925946,0.024692152,0.02282333,0.104521096,0.1330287,-0.18772659,0.08001557,0.09541821,0.03773825,0.0153932925,0.032449104,-0.09068302,0.07452536,0.08567455,0.02142949,0.0002428412,-0.021331204,0.0116557805,-0.092057794,0.09530528,0.0038891998,0.021963835,-0.19397743,0.06798495,0.109230556,0.10175855,0.024441147,-0.039213426,-0.06403101,-0.0007841017,-0.055265334,-0.042508326,-0.11740829,0.17895563,-0.050844394,-0.07097333,-0.016063826,0.14027725,-0.040710226,-0.09926084,-0.16302608,-0.13733117,-0.015660994,0.117421255,0.038535077,-0.054354087,-0.0030520614,0.13065845,-0.04211101,-0.19712402,-0.03675752,-0.087048106,-0.08758826,-0.024349555,-0.008423159,0.005442249,0.1372328,0.13142283,-0.04185525,0.041292757,0.09485666,-0.08331665,0.12339543,-0.13687827,-0.030772112,0.03442731,0.24985854,-0.17543396,0.0067441035,0.06368302,-0.06184116,-0.09765562,-0.014506029,-0.0026962894,0.027327005,0.030387351,-0.110274255,-0.050675925,-0.23315997,-0.14183359,0.04572288,0.07963498,0.15905347,-0.043721233,-0.019151492,-0.037532065,0.21440361,-0.15270865,-0.20644204,-0.03506592,0.013522426,0.056430247,-0.018477751,0.007810857,0.09819188,0.14548543,0.14997014,-0.052702714,-0.04659631,0.08104879,0.053416703,-0.023986261,-0.29716513,-0.13700148,-0.016616806,0.08975562,-0.0548611,0.05328236,-0.08402229,-0.06493897,0.042059343,-0.042283207,-0.03147956,-0.03520654,0.19006085,-0.09835675,-0.13446589,0.019649247,-0.22706324,-0.10786698,0.08453548,0.08169058,-0.010341246,0.02489759,-0.011142119,-0.19852069,0.10882739,-0.02011814,-0.039454702,-0.033096254,-0.061268866,-0.09216246,0.033440087,0.019900318,0.22471084,0.054091875,-0.015433562,-0.18059205,-0.006539068,-0.04077087,-0.048763044,-0.0075284904,-0.03923792,-0.048517488,0.0071279244,-0.008365704,-0.048183065,-0.043256562,-0.050424214,0.024102468,0.01338863,0.02671427,-0.028109333,0.053868238,-0.052127797,-0.0363181,-0.051403005,-0.11640715,-0.0040148706,0.14136128,-0.12339242,-0.1511916,-0.030145338,-0.063408464,-0.0073054214,0.11002122,0.0472524,0.0523718,-0.007995714,0.13974634,0.011501597,-0.10608605,-0.057295322,0.028542005,0.042447135,0.1456472,-0.044881273,-0.07688794,0.043763988,0.0093801655,-0.08857638,0.028386166,0.013258676,-0.028073145,0.012196506,0.06898568,0.0037963607,-0.0039402097,0.030923022,-0.059301574,0.10217199,-0.04680096,0.08792764,-0.07779928,0.15506493,-0.18913598,0.008560622,0.071956694,-0.078032166,-0.06285398,0.002725671,0.061154615,-0.037685867,-0.079852864,-0.015536904,0.050305575,-0.048691932,0.002862002,0.08101734,0.07156675,-0.069294564,0.023605157,-0.021786163,-0.016500162,-0.07852613,0.059311442,-0.060284957,0.15905964,0.045303207,0.02868661,0.0053403075,0.08053837,-0.032330275,0.13503952,0.049799796,-0.08958592,-0.044960745,-0.085968845,-0.0791103,-0.09562855,0.059681818,-0.08719507,-0.07657502,0.062463004,-0.057839766,-0.05583367,-0.15113981,0.06965032,-0.13760512,-0.1379495,0.17425826,0.023898244,0.1465485,0.12613688,-0.101408236,-0.11026374,-0.053414803,-0.17431471,-0.06574705,0.0316534,-0.047460128,-0.01569076,2.9994091e-05,0.12302358,0.17603731,0.04717905,-0.054799307,0.058033615,-0.032143157,-0.05762245,-0.07117347,-0.08063461,0.019925537,0.035734087,0.03693855,-0.057528473,0.07978123,-0.007837892,0.007390041,0.03420792,0.09706471,-0.086705595,-0.14846897,0.104222246,-0.07057989,0.06676603,-0.07987732,-0.00784411,0.01845606,0.09400516,0.024582332,-0.033114858,-0.19944254,-0.07524903,-0.040167045,-0.10956581,0.043872733,-0.016530795,-0.14677888,0.0021715646,0.18014424,-0.16854082,-0.010913496,0.14245169,0.095911905,-0.1369846,-0.051964737,-0.151526,-0.08288916,-0.093251936,-0.10417807,-0.07120443,0.041117772,0.102306776,0.13090008,0.03591925,0.11501273,0.16565682,-0.03404456,-0.16523218,-0.08055848,0.0589073,-0.055484403,-0.0893757,0.05366741,-0.040446095,-0.051144037,-0.0010308357,-0.04979584,-0.21012092,0.054903712,0.08761771,0.014531379,0.0016309144,-0.00060550706,-0.13099636,0.00668636,0.08467527,-0.03682748,-0.031944748,-0.1263436,-0.048566483,-0.025065698,-0.034859676,-0.15858963,-0.051618908,-0.12427884,-0.008961933,0.070894405,0.06150729,-0.032570615,0.10448958,-0.02754594,-0.12718995,-0.04587747,-0.035073984,-0.036864266,-0.038250353,-0.059052426,0.07499536,-0.058339894,0.025119528,-0.102435626,0.062329557,-0.11999573,-0.041597955,0.02520296,0.22927281,0.07685554,-0.05066165,0.014126902,-0.06398521,-0.112356015,0.015001871,0.065570414,0.059176344,0.22178677,0.15001227,-0.0120266965,-0.15834212,0.061979163,-0.23238035,-0.14658366,-0.058327984,-0.047174674,0.0018726661,0.00077014545,0.005945659,-0.14436963,-0.07439617,0.013848686,-0.07401577,-0.034548532,-0.12495561,-0.015745508,-0.18939663,0.2750194,-0.08325767,-0.09695627,-0.016669136,0.22122858,-0.15258977,-0.09976232,-0.042986594,0.053443342,0.05875022,0.04976546,0.021714468,0.028760595,-0.09245591,-0.015128544,0.053917445,-0.07282235,-0.020721836,-0.16258627,-0.0921182,0.2508451,-0.047596,0.0103043495,0.08274025,-0.012752156,-0.073076986,0.05226861,0.14470331,-0.14488696,-0.024645388,0.018767377,-0.068239816,0.03599995,0.023080662,-0.08994081,-0.14018026,0.035675187,-0.09020444,-0.009419405,-0.032572776,0.11719145,0.08843504,0.00795586,-0.12029451,-0.07391074,-0.120110326,-0.018939812,-0.06807179,-0.01400108,-0.053213425,-0.08082389,-0.08034237,-0.11111613,-0.1367473,-0.040197507,-0.053394824,-0.0699929,0.023713237,0.038709465,-0.12405546,0.0442072,0.08317624,-0.0148465205,0.05592532,0.052733783,-0.08591798,0.09278345,0.21727669,-0.03723266,0.05538309,-0.11394338,-0.03231203,-0.035978623,0.039100103,-0.027972605,0.007180911,0.024786022,0.043341354,0.032598156,-0.002520964,-0.0012405136,0.036330916,-0.034915898,0.0010622973,-0.01913814,-0.0423292,-0.022352276,-0.05522158,-0.03674455,-0.09709884,-0.0074937604,-0.022621682,0.08185163,0.09756827,-0.04253777,-0.09774434,0.11230474,0.13206615,-0.1238211,0.013370806,-0.060347535,-0.10079951,-0.024792321,-0.044423703,-0.05872232,-0.07013739,-0.07285404,-0.007100134,0.039802536,0.14440857,-0.05015221,-0.09117721,0.05867518,0.22394872,-0.064607196,-0.054984078,0.03930438,-0.008779002,-0.048788555,-0.037164107,-0.113248825,-0.15747628,-0.027120013,-0.09263532,0.0056421645,-0.09538076,0.011662717,-0.121069565,0.111085325,-0.09996565,-0.076908894,-0.018933898,0.1304198,-0.07878832,-0.16674662,-0.10920583,-0.10993986,-0.007499849,-0.032118198,-0.056595616,-0.10834482,-0.06951162,-0.05776744,0.07111446,-0.015209315,0.06871541,0.053079598,0.13789363,-0.087182075,-0.120920844,-0.041849412,0.06573459,-0.0066605564,0.0704239,0.022434045,0.121673614,0.08785344,0.07459832,-0.11100266,-0.04848242,-0.18451473,-0.02565761,-0.057665184,-0.14281616,0.046643354,-0.008086904,0.14017753,0.12078795,-0.026708264,0.10345696,-0.017881252,0.11974777,0.00018891184,-0.1264551,-0.022548938,0.047429632,0.08465992,0.01808285,-0.1874122,-0.07572284,0.08637256,0.0015770891,-0.0871961,0.014291173,-0.04697124,-0.04165686,0.06798141,0.07225273,-0.106984116,-0.17188089,-0.045615155,0.02495912,-0.0022246358,0.0594609,-0.015437877,-0.09852095,-0.0045634443,-0.019684486,-0.0139656365,-0.02959141,0.12194618,0.0018697169,0.053856567,0.020435827,-0.13188966,-0.029937025,-0.10859948,-0.089005515,0.10947469,0.050017305,-0.0043526827,-0.16409566,0.02440719,0.037935313,-0.0038395768,0.06471139,-0.22494939,-0.096192755,0.10096671,0.21262428,0.0018014672,0.0100226,-0.0023040348,0.18592042,0.11721056,0.11133688,-0.074464016,0.0049262727,-0.10443265,0.13195397,-0.037978284,-0.054120813,-0.08217101,-0.0779681,-0.042082712,0.107862085,-0.022053007,0.20721987,0.046602044,-0.118443996,-0.00010333717,-0.02170261,-0.17240596,-0.11158427,-0.035578217,0.057880253,0.07253458,-0.07862956,0.022499612,-0.10772503,-0.069432616,0.009549418,0.06764054,-0.16197062,-0.00782181,-0.032603476,0.0869566,-0.029414287,-0.03571566,0.0028891035,-0.047363117,0.04121162,-0.09197197,0.07727758,-0.20728022,-0.12232914,0.068002895,-0.013683237,-0.03585558,-0.042083666,0.07310229,0.056987002,0.11835281,-0.0043905247,-0.09304087,-0.13036321,0.027481275,0.0548591,-0.05467653,-0.10701134,-0.048612446,-0.102871574,0.019883612,0.13089389,-0.099078596,-0.18600363,0.03508392,0.05969255,-0.06841295,0.022635045,0.09066202,0.015906263,-0.016286666,0.03700846,-0.08367363,-0.16479549,-0.03668684,0.06874399,0.08980686,-0.03558739,0.17679724,0.07924702,-0.040167775,-0.10234183,-0.045208402,-0.0017721235,0.0020293156,-0.01926177,0.05844217,-0.09074133,0.04789058,0.013645924,-0.09674245,-0.14616793,0.038832013,0.07336898,-0.015806334,-0.1078837,-0.0077075316,0.08915737,0.07598473,0.003805973,0.033895794,-0.015742013,0.041463405,0.039058927,-0.05902322,-0.06687645,0.11967369,0.1028792,-0.038258918,0.058228288,-0.122019246,-0.00914473,0.07202615,0.031403344,-0.06943304,0.04607736,-0.20138569,0.041159622,0.0630129,0.05993761,-0.023143148,0.044808686,-0.11121832,-0.06831612,-0.06107015,-0.038815472,-0.12195467,-0.012184762,0.10689532,-0.07271824,0.02058003,0.011621303,0.075307,0.02334514,0.043167226,0.0004077325,0.021124896,0.042731836,-0.09374918,0.018761523,0.06606292,0.00029560848,-0.10918417,-0.043670103,0.08608699,0.005908293,0.03568169,-0.013676394,-0.033067774,-0.036420554,-0.007723807,0.045495506,0.040919363,0.0019755743,-0.004126343,0.052836284,0.07562191,0.038681496,0.0326464,0.0813432,0.10297715,0.012321605,-0.12534516,-0.13380226,0.13147609,-0.03675024,0.020961892,0.0060412153,-0.021151483,-0.1376116,-0.010374464,-0.049084008,0.026975619,0.049302213,-0.04220442,-0.038583465,-0.031230913,-0.013037367,-0.05409703,0.03650959,0.048963238,0.011901652,-0.009334539,-0.011945842,-0.02293501,0.035446744,0.021049626,-0.08072957,-0.017020404,-0.027859705,0.04641832,0.10449518,0.09747,-0.100415505,-0.08953483,0.058726348,-0.049373094,-0.052940663,-0.055827174,-0.07087845,-0.05006353,0.029481627,-0.05114227,-0.0525309,-0.045401692,-0.043611158,0.07856238,0.09143894,-0.031685606,0.01863331,0.059689045,0.08040705,0.010215706,0.0054727737,-0.085202985,-0.033719104,-0.06523283,-0.0375953,-0.04109384,-0.06905194,0.0061229835,0.09152328,0.10823964,-0.12769848,-0.076213285,-0.013876934,0.1352911,-0.07557814,-0.067627184,-0.0018433753,0.025352895,-0.058469232,-0.09303579,-0.044960625,-0.1759578,-0.029121112,0.08419021,0.12809227,-0.12933882,0.030314326,0.110141516,0.13335344,-0.076860085,-0.025911732,-0.07866338,-0.030866478,-0.053332902,-0.13988243,-0.13706774,0.09652731,0.085489154,0.013746797,0.0016149112,0.02619305,0.05859037,0.026499202,-0.043241374,-0.16385031,-0.13672005,0.094269514,-0.033241283,-0.087181136,0.017384421,0.07554614,0.0072418824,0.032532852,0.0005550219,-0.11152074,0.048732337,-0.092090756,-0.06114884,-0.020177653,0.029835556,0.0012163419,0.10428645,0.039652362,-0.07614129,-0.08786392,0.04913111,-0.0863643,-0.08339354,0.017924484,0.09432153,0.02025927,0.059513442,-0.081281684,0.004397803,0.008288599,-0.00010204877,-0.15294625,0.10437742,0.05943027,-0.04695825,-0.016389865,-0.041285824,-0.09348147,-0.13967884,-0.052941743,0.08827905,0.0017646924,-0.01672652,-0.1268961,0.020339796,-0.009058039,-0.12250163,-0.13402157,0.16849138,0.14228351,-0.1001602,-0.062246617,-0.06066613,-0.10407001,-0.1554618,-0.0023310916,-0.1460815,-0.10982167,0.06342465,0.12209359,0.009564101,-0.041351274,-0.030845864,0.097841956,-0.165603,-0.018938981,-0.05099605,0.042047434,0.10544739,0.038929597,-0.059095684,0.21528853,-0.07601616,-0.102283776,0.09389143,0.067324445,-0.04443256,-0.075664476,-0.06457201,-0.05192234,0.027723053,0.026040448,-0.013310891,-0.068133324,-0.030626215,0.029835194,0.06103837,-0.08623078,-0.044901393,-0.010479379,-0.019568868,-0.043506972,-0.03355781,0.08318028,0.08012313,-0.062581405,0.0043927836,-0.017210335,0.027662665,0.079016395,0.04568781,-0.12678872,0.10381,0.13903254,-0.22206432,-0.07346583,0.09226825,0.05502368,-0.02245407,-0.00056554936,0.018401384,0.10188229,-0.10756652,-0.05798881,0.07132378,-0.03350835,-0.01714834,0.046942726,0.07637391,-0.1641427,0.024711851,0.112363555,0.090429105,0.10166976,-0.1540891,0.0032249813,-0.06333225,0.109424494,-0.08313796,0.0036103448,-0.11040316,0.04416617,-0.09827573,-0.06433247,-0.06907646,0.017299572,-0.0029420822,-0.05916971,-0.11203726,-0.023666138,-0.0661343,0.15534751,-0.100225665,0.08104516,-0.119135216,0.058403764,0.10853293,0.04950223,0.0690914,-0.0030897635,0.06698159,-0.06807702,-0.08131145,-0.07747388,0.027793631,0.09257067,0.0771783,-0.026792495,0.031881075,0.16429687,0.061580922,-0.14201543,0.08458269,0.07851784,0.034533717,-0.09406484,0.023192467,0.02577178,0.05466412,0.08572938,-0.015380797,-0.11212664,0.004780622,-0.053940095,-0.08412981,-0.14895386,0.08781938,-0.04889424,-0.05619779,-0.0022640005,0.10771037,-0.17477274,-0.1113711,0.008433544,-0.058495007,-0.06479301,-0.05285552,0.057623453,-0.083418556,0.0031271249,0.066168904,0.08608053,-0.05086651,0.0073437043,-0.023703715,0.04623307,-0.060316022,-0.03611161,0.07610109,0.031486496,-0.10467031,0.0072275344,0.06771191,0.024359735,-0.08663129,-0.05085986,-0.0172219,0.09161626,0.008421652,-0.021434765,0.023528904,-0.030187035,-0.10097696,0.04133725,0.030068204,-0.022609351,0.053313836,0.04680406,0.119757645,0.026834035,0.0075846305,0.021526353,0.006648264,-0.11297398,0.022278657,0.009538958,-0.035604842,-0.11080313,0.13302264,0.12582785,-0.10148554,-0.18367484,0.042907283,-0.029523801,0.04364416,-0.02774827,-0.0028592732,0.0370862,-0.04928269,-0.04038965,0.0055191987,-0.029695757,-0.0057512624,-0.027721716,-0.0053604646,-0.03276075,-0.012663982,0.011343108,-0.042950843,-0.017295312,-0.035532523,0.044705573,-0.029285658,0.07136219,0.038214702,0.095282346,0.009069679,0.022683458,0.061634142,0.004913211,-0.035039395,0.076993786,0.05766628,-0.046092875,-0.045422647,-0.039148495,-0.050597753,0.049717564,0.017069763,0.02443186,-0.08288565,-0.018619444,-0.017602462,0.023590297,0.006946317,0.032607637,0.01516098,0.09993849,0.0028184585,-0.078279875,-0.09726858,-0.16920316,-0.08358337,0.06297292,0.06520403,-0.077426694,-0.046504166,0.15358646,0.08598744,-0.11661287,0.07661859,0.07553432,-0.12855196,-0.12802792,0.05136592,0.07828835,-0.0651405,-0.015409244,0.10586101,0.09351006,-0.05725463,0.011509796,0.029558146,-0.024735574,-0.12098526,-0.026380276,0.036626365,-0.090939224,-0.042788148,0.079898246,0.09450631,-0.045169305,0.09126452,-0.1436064,-0.16803838,-0.04036685,0.071637996,0.09550694,-0.1468394,-0.09080409,0.19165097,0.037415206,-0.11094953,0.08465816,0.1968672,0.00041957444,-0.07848901,0.08193957,0.07792363,0.108093694,-0.16805783,-0.1478226,0.011531145,0.049282465,-0.0750027,-0.08911336,0.09730644,0.07312934,-0.04547087,0.091683105,-0.024334475,-0.17696777,0.08151053,0.14523487,-0.011535618,0.043322977,0.046602976,0.1384178,-0.131243,-0.09135957,-0.08318506,0.07061265,-0.015257117,0.028581906,0.043454867,-0.08302142,0.07631575,-0.022971978,-0.042158913,-0.10895712,-0.055815097,-0.033136077,-0.002504925,0.21742631,-0.008533573,0.11020803,0.010256522,0.068484016,-0.11838527,-0.02124414,0.09515026,-0.024268512,0.03309354,0.0802641,-0.05197963,-0.06728174,0.051759142,-0.04646687,-0.20065014,-0.21221782,-0.20627873,0.034306,0.07559723,-0.058478344,0.07965549,0.112767555,0.063732095,-0.03742097,-0.07622195,0.092968374,0.019778868,-0.036200736,-0.0064038783,-0.1845519,-0.12785606,-0.22701739,-0.02785396,-0.009336879,-0.07165823,0.05851583,0.04983301,0.03968241,0.01224202,-0.07323516,0.049775876,0.023057764,-0.008115556,0.032905858,0.0022193724,-0.0024105632,0.12811631,0.19702247,0.12209469,-0.034579698,-0.08122651,-0.036079228,0.08148525,-0.103522904,-0.10741795,0.0059645995,0.01663401,-0.026311787,-0.085014805,-0.09862172,0.12521052,-0.12524971,-0.23494442,-0.22202528,-0.053424187,-0.112232946,-0.08150652,-0.13123083,0.058788568,0.113909595,0.03487261,-0.08342486,0.10984553,0.048370223,0.009625311,0.16268894,-0.022829356,-0.0024333992,-0.18641949,-0.0046872334,0.0033743246,0.06915049,-0.010686482,0.036299918,0.0067712427,0.10126672,0.03942991,-0.030966612,0.07880618,-0.015105283,-0.107853726,-0.037883736,0.0027906257,0.066672236,0.036758527,-0.042127825,-0.05857581,-0.03947354,-0.04006968,-0.042510856,0.023507744,0.0158422,-0.04787268,-0.013297375,0.096512444,-0.018462865,-0.014018764,-0.007697552,0.16456726,0.05718063,-0.037982102,-0.16868366,-0.14103264,-0.27133387,-0.14050883,-0.18255565,-0.077607624,0.1381558,0.05601733,-0.048892066,-0.0833484,0.03431784,-0.037973043,0.0034177129,-0.22890717,-0.10091704,0.16470937,0.2851528,-0.044044062,-0.025002455,0.06523801,0.122592725,-0.095726825,-0.008221835,-0.087480366,0.010032975,0.022176614,0.059967812,-0.0667753,-0.029581657,0.03254726,-0.045833923,-0.027790418,-0.21513425,0.015738625,0.07279652,0.03093291,-0.21808025,-0.056591045,-0.016590757,0.04654377,-0.052256834,0.14471018,0.066025846,-0.006963774,-0.018389799,-0.052003887,-0.057839252,-0.07693697,0.015378236,0.16269392,0.092954434,0.011169869,-0.09267472,-0.06422011,0.03232549,-0.014220232,-0.00055337924,0.097322114,0.11647246,-0.035027333,0.1147482,-0.061668932,-0.04013422,-0.13027933,0.030566124,-0.25335085,-0.12017696,0.08761403,0.18913859,0.08772388,0.013046494,0.07753951,0.024694271,-0.079315186,-0.16219051,-0.0074396217,0.050676737,-0.03136337,0.02377571,-0.011107185,-0.010547668,0.012731631,-0.030289827,0.012446843,0.049215678,0.017401244,-0.02596886,-0.0360871,0.029082801,0.022334293,0.023804719,-0.035810824,-0.018474363,0.028947568,-0.008439569,-0.1244196,-0.13856107,-0.07474448,-0.14854269,-0.011440134,-0.033077236,0.052872065,0.073109984,-0.06488474,0.0038059966,0.011353027,0.009199803,-0.057787534,0.17381957,0.0016060186,-0.03512443,-0.082980186,-0.032075558,-0.07376182,-0.060077902,0.047979593,-0.056308627,0.008142384,-0.03925015,0.16402447,0.058346312,0.07303387,-0.021374814,-0.06155954,0.09120779,0.109971575,0.18538834,-0.02059247,-0.04589697,-0.08602809,-0.1257438,0.09747982,-0.08906066,0.058634005,0.034161482,0.070215724,-0.03358616,-0.019601876,0.019002175,-0.07096937,-0.035241585,-0.025435787,-0.16552013,-0.15390697,-0.11991167,0.05408321,-0.029849816,-0.10473745,0.06832779,0.03707425,0.07474351,0.0007709708,0.13737334,0.12729536,0.022739148,-0.032825373,0.04299931,-0.031606063,0.07505675,0.029531512,0.088205546,-0.015242215,-0.067463055,-0.047018807,-0.06050827,-0.14728944,0.1385581,-0.044117816,-0.06302084,-0.11044975,-0.10275397,-0.03155373,-0.075256065,-0.1159447,-0.010701645,0.23060603,0.021419125,-0.00019702059,-0.032688517,0.055319127,0.04249811,0.037562214,0.004838471,-0.0090212,-0.11391476,0.053466927,0.054336883,-0.092391774,-0.07782192,-0.072408736,-0.08540434,-0.11616281,-0.0285914,-0.07142387,-0.12460047,0.0656331,-0.113631174,0.06804552,-0.015923133,-0.0846751,-0.030330073,-0.033479694,-0.07821173,0.034390844,0.03718422,0.09806018,-0.04565959,-0.144874,-0.13333301,-0.10598092,-0.030714652,-0.054512292,-0.062629275,0.023875777,0.110532954,-0.018407295,-0.14169283,-0.044447254,-0.012621226,0.03695859,0.082361214,0.00026653588,0.012788709,0.04974119,0.01398442,-0.0146744,-0.01366331,-0.020884586,0.1452854,0.10835612,0.16001561,-0.020926712,-0.048513446,0.0503662,0.014054266,-0.08431033,-0.07840431,0.026116634,0.055670425,-0.02205311,0.06318541,0.019874781,0.13260305,0.062415726,0.028937517,-0.01317986,-0.11049988,-0.12262091,-0.16638583,0.0006567677,0.047539126,-0.04535149,-0.124359705,0.029409897,-0.06556418,-0.060492277,0.011101234,0.022293318,-0.07818203,-0.03040853,0.153855,-0.093600005,-0.04658948,-0.02368264,-0.033992253,-0.10090835,-0.19295815,0.021907113,0.15647613,0.05304057,0.070888415,0.018918676,0.053894717,-0.034907628,-0.08848651,-0.09881599,0.14036858,0.04301773,-0.097354084,-0.057903636,-0.04500661,0.15086867,-0.060523674,-0.041994277,-0.1478413,-0.02058944,0.042357937,-0.0046565193,-0.009803259,-0.066895224,-0.12293258,-0.09662865,0.17893848,-0.03274579,0.067655735,-0.061651632,0.10730067,-0.06431165,-0.09794787,-0.0099791465,-0.06499741,-0.0133350175,0.009699519,-0.042209446,-0.036443826,0.15186058,0.09189248,-0.05199764,-0.056033894,-0.10055573,-0.11831695,0.03818469,0.19863963,-0.028752742,-0.035847217,0.11426275,-0.029219953,-0.032773152,-0.00441276,-0.016791506,-0.10672637,0.06669398,0.00461035,-0.05058786,0.08114675,0.18493086,0.03208602,0.07636311,0.042561594,-0.11776317,0.021255583,-0.00019023505,-0.09961663,0.097186916,0.0015100711,-0.13445643,-0.10817958,-0.18120317,0.062350944,-4.860337e-05,-0.03426959,-0.024578458,0.016023131,-0.1283513,-0.1442919,0.13241687,-0.033206,0.07018666,0.11385652,-0.0929763,-0.0626273,0.025187299,0.0017379452,-0.14719552,0.0048325704,-0.02727009,-0.15088192,-0.017770661,0.12055631,0.010519747,-0.030228157,0.02195589,0.14548723,-0.009124123,-0.031059716,0.031534635,0.092561334,0.018076606,-0.040345468,-0.124367386,0.022959257,-0.0009356812,-0.043683242,0.10919444,-0.16015996,-0.08482624,-0.082396664,0.16283076,0.076299,0.048761815,-0.09672525,0.0019750113,-0.019184094,-0.047692694,-0.04429283,0.026774904,0.066826195,0.10497459,0.1294521,-0.18958056,-0.034885045,0.042231977,0.059401963,0.025532624,-0.13774344,-0.19691578,-0.15446071,0.035986084,-0.040902272,0.0391648,0.0040745777,0.010366791,-0.038748384,-0.025348702,-0.027304845,0.018984009,0.027650628,0.0068837204,-0.026839042,0.045405872,0.052768562,-0.038402125,-0.03483127,-0.036573138,-0.14586817,-0.06559106,0.10179915,0.039164435,0.19147466,-0.07607975,0.0036384468,-0.01849334,0.0077631352,0.11307137,0.10211864,-0.040368903,-0.114819616,0.017490393,-0.119007014,-0.044326786,-0.037216667,-0.04154285,0.02252027,-0.028540358,0.10596526,-0.0089818,0.042990185,0.04331215,0.04942143,0.017802974,-0.003403217,0.04885641,-0.042887863,-0.04378188,-0.037666347,-0.0755547,-0.0006106146,0.08937172,-0.029752959,0.09375363,-0.119331926,-0.2048404,-0.054918285,0.038726162,0.1269223,0.04988199,0.039644487,-0.103366196,0.06858449,0.056527022,-0.13591158,0.12748392,-0.007260377,0.0762448,0.11174079,-0.13758332,-0.0068941712,0.106571876,0.06863131,-0.052809373,0.03971166,-0.021062857,0.03009269,-0.02130909,-0.14802377,-0.024316365,-0.0889415,-0.059835654,-0.10544095,0.025323307,0.062113423,0.045005534,-0.008165263,-0.19436511,-0.19608708,-0.19989468,-0.0049229334,0.05514348,0.0083729485,-0.056239996,0.0050671846,0.14572164,0.14216287,-0.06947206,-0.17580387,-0.062244777,0.07736596,-0.16293216,-0.11653443,-0.024975797,-0.15126142,0.010731934,-0.08947441,-0.093888335,0.04912453,-0.044459395,-0.026828548,0.056798093,0.14231718,-0.059131145,-0.0572745,-0.112263754,0.09031132,0.0153677035,0.10262165,-0.06285144,0.086715184,-0.13094795,-0.02522412,-0.122709155,0.0033667884,-0.019248517,-0.033631526,0.052601628,0.087795176,-0.0123592075,-0.0044059926,-0.0068706665,0.12501399,0.041925978,0.029275294,0.016763179,-0.005032168,-0.16244099,-0.14958023,-0.12224933,0.08633808,-0.024742603,0.021479264,0.15235677,0.1275527,0.070918374,-0.05731787,-0.10878135,0.08037578,0.031854533,0.18294853,-0.0028743031,-0.05165851,0.24135277,0.06527414,-0.06424458,-0.17335422,-0.025241029,-0.13134651,-0.06498283,-0.0547726,0.05365921,0.04119262,0.044455756,0.095474154,0.018976381,0.021853128,-0.023791298,-0.049589925,-0.031180521,0.10630788,-0.009402907,-0.06311425,0.03843629,-0.06851022,-0.117565855,-0.046782143,-0.0596226,-0.04239425,-0.11878732,-0.022149254,0.037629396,0.1154086,0.002577205,-0.013122034,-0.15906751,-0.03476749,0.00777729,0.02837531,-0.06982741,0.123057924,0.13857016,0.07330213,0.11746765,0.074043505,-0.01118216,-0.05727984,0.022494994,-0.08861659,0.029580511,-0.11876924,0.056845345,0.020470567,-0.08215133,-0.057328176,0.27472195,0.028885411,-0.11592303,-0.24720612,0.044905245,-0.048627324,-0.04249213,0.06084395,0.059877012,-0.012369991,0.023562608,0.06665281,0.12750904,0.11243075,-0.075975075,-0.083136745,0.120900765,-0.022390522,-0.009904981,0.01281078,0.10887653,-0.053760197,-0.014949262,-0.029250586,0.02066738,-0.033866268,-0.04644808,-0.045165524,0.04763286,0.03181521,0.04434213,-0.05592967,0.052463517,-0.051482126,-0.08972007,0.05078958,-0.04769726,-0.07455318,-0.050658848,0.020202592,-0.067731634,0.038798448,0.011280444,0.05902166,-0.051872972,0.114010334,0.062432572,-0.09688405,-0.0053369286,0.07076173,-0.11080713,-0.10777626,0.033949334,-0.025533523,0.051604632,0.0710977,0.014323661,0.0364222,0.06715614,-0.03998549,-0.11629923,-0.13944374,-0.0038761287,-0.045703717,-0.22500947,-0.023138026,0.18269812,0.11396364,0.056551002,0.058570687,-0.060138356,-0.14725466,-0.0120194955,-0.06260869,-0.053639688,-0.024122238,0.061919216,0.088455044,0.096431434,-0.028540777,0.20827866,0.033281647,-0.0142172715,0.02454726,0.035971854,-0.053965617,0.008901319,0.028687952,-0.013041725,0.04955676,-0.056493655,-0.086721666,-0.026584847,-0.02081967,-0.014129446,-0.00905165,0.115517884,0.074514985,-0.04678281,-0.032858733,0.0040822863,-0.015129719,-0.0063666166,0.12819034,-0.052388184,0.07688153,0.045883145,0.12784842,-0.01032598,-0.066115364,-0.09167775,0.13319863,-0.15909952,-0.23309137,-0.21367854,0.13361287,-0.009123518,0.0010114451,-0.021019718,0.042495575,0.05313602,0.033927325,-0.034471292,-0.02270669,-0.039038107,0.050061077,-0.010219644,-0.017835997,-0.0013249689,-0.024360025,-0.049066227,0.05146483,0.058971267,0.06758382,0.045413587,0.06520967,0.0041100425,-0.04425189,0.08636711,-0.00452821,-0.03237063,0.083097644,0.10585875,0.018307932,-0.0457993,-0.120541684,-0.10202168,-0.15044348,0.007991596,-0.05113682,0.009593945,-0.026620524,-0.03939885,-0.04330041,0.058100738,0.033895876,-0.018408187,0.029802661,0.04855667,0.02622349,-0.0215518,-0.03220591,-0.08867144,-0.066821694,-0.029264828,0.02857334,0.006468492,0.18575019,-0.11756956,-0.011190988,-0.050261218,0.013964044,-0.097967125,0.110467084,0.16072679,-0.050977178,0.033142027,0.18192437,-0.040883843,-0.1751642,0.065891884,0.0619701,0.08167067,0.111992925,0.0059324163,0.017172249,0.049166717,-0.066141866,-0.033314,0.027943889,-0.101779364,-0.038833395,-0.012154022,-0.0010814551,-0.087885514,-0.21973124,-0.038849864,0.059875023,-0.064539604,-0.107551396,0.09949752,-0.12698165,0.054425333,0.07862063,-0.18746978,-0.22813456,0.07773827,0.041779395,-0.15385382,0.060884323,0.14574489,0.05942811,-0.01255185,-0.030542105,-0.0532139,0.041092254,0.04786598,0.103822306,-0.0892671,0.049048223,-0.11264394,-0.0933359,0.068859875,0.024611518,-0.009947663,0.057809412,0.11477577,0.055665586,0.0009504707,0.053081974,0.0055545517,0.16360861,-0.123057984,-0.2238195,-0.03000423,0.16016455,-0.01900215,0.031530857,0.087549224,-0.087589115,-0.03462697,-0.13181435,-0.1057865,-0.095760986,0.014080537,0.0008916883,-0.08172221,0.17126776,-0.14099488,-0.11014102,0.0064525595,0.20899597,0.1691654,0.28992432,-0.079117976,-0.13718522,0.04596672,0.04239272,-0.15377729,-0.079140455,-0.04243797,0.023372138,0.000896311,-0.12861745,0.026363097,-0.003071012,-0.06376682,0.020918531,-0.09230831,-0.03822312,0.102612,0.20794487,0.03257903,0.019029675,-0.11317623,0.06730629,-0.061954994,-0.09602566,-0.049777,-0.040706098,0.091034964,0.028159088,-0.027916266,-0.015905954,-0.0025491742,-0.00049141253,-0.12574542,0.08486135,-0.014277777,0.09085476,-0.039793197,0.024871115,0.045860425,0.024363615,-0.010032204,0.13724422,-0.04083551,-0.082180925,-0.048036337,-0.081552684,0.0841123,0.1331976,0.12547553,-0.18622862,0.04342952,0.016184146,0.052562464,0.031176856,-0.0419356,-0.1974032,-0.034559656,0.012882558,0.0128239915,0.080056705,-0.07723012,0.021778895,-0.03171035,0.3239124,0.011636825,0.12550154,-0.0547618,-0.06458963,-0.06649685,0.12722681,-0.020179318,-0.010897508,-0.12571113,0.012784639,-0.12634566,-0.05231847,-0.06135808,0.15332115,-0.043554913,-0.042453896,0.035324447,0.1076105,0.09698597,-0.051460877,-0.16205166,-0.0527019,0.14255904,0.16070306,-0.04867561,0.033850946,-0.011143749,0.15348427,-0.07987842,-0.15157008,-0.012738545,-0.11440132,-0.043365065,-0.077686906,0.003687262,-0.013179703,0.08230564,0.032249823,-0.02475381,-0.0020247293,0.028475754,-0.13518631,0.10795018,-0.19658041,-0.056044612,-0.12673657,0.17516093,-0.051279742,-0.01690664,0.13287872,-0.035143554,-0.04465566,0.0209236,0.20569405,0.007390272,-0.037379,0.08109496,0.20177211,-0.06550873,-0.19089328,0.100301474,0.16435471,0.15796438,0.026632978,-0.11318814,-0.08028891,0.2556453,-0.03178541,-0.19914734,-0.030813636,0.051638138,0.04712082,-0.026167242,0.0130160265,0.06292714,0.08306926,0.18063252,-0.057966292,-0.033879243,-0.040554646,0.060483575,-0.008561823,-0.024828011,-0.15182027,-0.0281177,0.09036711,0.009608121,0.044973638,-0.10450918,0.01184466,0.05121038,-0.011135728,-0.0205743,-0.15065388,0.14676864,0.007575687,-0.040512946,0.07663286,-0.15937026,-0.05245156,0.10720181,0.07350606,0.022723718,0.029853301,-0.017883856,-0.059225734,-0.063105494,-0.10143058,-0.030707425,0.040873382,-0.016633987,-0.017886823,0.12548919,0.01783532,0.0932257,0.09626593,-0.014806188,-0.1609867,0.033664227,0.0019050392,0.04592567,0.004479503,-0.007943227,-0.02334599,-0.041502867,-0.019954896,0.008969249,0.047172107,0.010279302,0.0086354,-0.012403019,-0.040808633,0.035343736,0.04849083,0.050973617,0.10753775,-0.097147286,-0.16562884,0.008354426,0.077010304,-0.11913934,-0.1671511,-0.03230471,-0.01837108,-0.05115082,0.16052729,-0.023088673,0.020407898,0.0031988441,0.11384231,0.006578642,-0.059743978,-0.10603744,0.021587111,0.04042086,0.104572006,-0.045288265,-0.05513747,0.042659264,0.047216944,-0.0008186133,0.12027981,-0.0038447345,-0.039722804,-0.016042562,0.029121198,-0.029841835,-0.025303075,-0.017526656,-0.052496426,0.110842146,-0.028011382,0.03622738,-0.09634849,0.1159351,-0.1862479,-0.011856995,0.05764423,0.04492706,-0.03238305,-0.017403867,0.011277377,-0.12046889,-0.0955887,-0.073484235,-0.006677444,-0.031989124,0.045635376,0.050300088,-0.022680558,0.0002671373,0.024121132,0.11040001,0.12543984,-0.015640011,-0.029594604,-0.080461904,0.15758558,0.20686553,0.157951,0.10862533,0.11913805,-0.051997706,0.053210773,0.018443791,-0.0980619,-0.11745947,-0.07701886,-0.22031519,-0.064500004,0.14707974,-0.13317715,-0.045576457,0.0670929,0.023378016,0.10867506,0.032003693,0.12617469,-0.07150233,-0.11994119,0.1707566,-0.017149255,0.12969188,0.108921,-0.06256279,-0.14279282,-0.0943245,-0.13532156,-0.027298616,-0.004007629,0.11737761,0.19537567,-0.0059009586,0.14135224,-0.02409274,0.045436833,-0.016993754,0.048896518,-0.0980833,-0.2111288,-0.0404309,-0.16133888,-0.15285578,-0.031231139,-0.0802139,-0.123327725,0.09910319,0.06494853,0.01993344,0.17420073,-0.024212694,-0.023406759,-0.1381136,-0.038859107,-0.060706824,0.01585161,-0.121256225,-0.15678544,-0.071787566,-0.036801647,-0.0661763,-0.10306342,-0.21134137,-0.09757734,0.057469826,0.28426674,0.12935846,-0.051293105,-0.12091053,0.19581558,0.06877137,-0.068538114,-0.03754109,-0.039167054,0.04155705,-0.05533303,-0.014100563,-0.08934674,-0.14166118,-0.091429606,-0.07207523,0.16436985,-0.047424935,0.09870085,0.116846584,0.11319452,0.07118582,0.06279041,0.049487196,0.020433588,-0.048025813,-0.040905554,0.13940893,-0.059154965,-0.04058426,-0.08961219,-0.076246195,-0.096060626,0.0008426612,-0.006480857,0.004735954,-0.10335789,-0.023563914,0.019159293,-0.012887714,0.07706194,0.0337328,-0.019332126,0.118359156,0.08265747,-0.22879452,-0.1600595,-0.10434955,0.06449381,-0.11894742,0.0040837238,-0.018228136,0.14984196,0.03562269,0.035823595,0.038200095,0.19919728,0.067983754,-0.01300556,-0.036624793,0.019638563,-0.023228478,0.05591352,0.054742675,0.12383924,-0.058507133,-0.06760746,-0.19161782,0.23231801,0.027267106,-0.12114259,-0.11191208,0.059500054,0.053996008,-0.12881072,-0.02903556,-0.0036852919,0.10432315,-0.07753985,-0.18236218,-0.23171219,0.08162057,-0.017354282,-0.03164922,0.017537622,0.08099996,0.010665368,0.10014256,0.0488228,0.08569692,0.0120701175,0.090574145,0.020233655,-0.2234219,-0.12981747,-0.12610875,0.13315368,-0.013746038,-0.103378065,-0.19754437,0.13953383,0.09702857,0.04339147,-0.014890233,0.05154643,0.08847191,-0.014447976,-0.015743718,-0.1630348,0.04846609,0.043989968,0.21736744,0.08492539,0.029085243,0.087389305,0.0788883,-0.08160834,0.030420654,-0.0590757,-0.020737413,-0.13687591,-0.0057132496,-0.0723377,-0.07220971,0.032729182,-0.021556986,-0.13876742,-0.16870387,-0.06063171,-0.09366109,-0.06705885,0.040393,0.053221885,0.059531767,0.08047358,0.1597105,0.02641213,0.16493237,-0.019583013,-0.009687741,0.016896702,-0.071590155,0.012390636,0.004632929,0.15757923,-0.0005973681,-0.062209707,0.097415425,0.127067,0.074410066,-0.00739617,-0.021778034,-0.0721802,0.04833186,-0.06255429,0.017609734,-0.12087093,0.07587032,-0.062203825,-0.01168179,0.10484044,-0.0073704,0.01736789,-0.12075307,-0.058341928,0.0223498,-0.016933361,0.11394973,0.092982106,-0.019103833,0.060833503,-0.0061379424,-0.06194375,0.009929371,-0.033170138,-0.00034112218,-0.013346087,-0.020337865,-0.04790597,-0.0015655075,-0.04193955,-0.022154294,-0.04565663,-0.013194921,0.013862169,-0.0056009763,-0.019758008,0.04816293,0.017104762,-0.04018273,-0.113786295,-0.10293101,-0.089472085,-0.009206556,-0.014918339,-0.08007374,0.073576994,0.025188565,0.0869214,0.009426779,0.06749096,-0.035059094,-0.06704835,0.017507171,-0.06161954,-0.038463235,-0.089675955,-0.087471314,-0.075324684,-0.045231614,0.010483859,-0.062450953,-0.0015535904,0.060562458,0.090681106,0.10024433,0.07878005,-0.025581831,0.008686831,0.013332585,-0.0924512,-0.13586779,-0.20227024,-0.021430122,0.14037558,-0.07075114,-0.097037934,-0.10546008,0.089708365,0.10186748,-0.008641826,0.03735406,-0.05319814,0.08891832,-0.06918167,0.051380802,-0.003994158,-0.15080723,-0.1489418,-0.035911206,0.115987524,-0.10281177,0.10396036,0.13420701,-0.00155482,0.027239947,0.050519932,0.1538849,-0.011393516,-0.10748014,-0.058031242,-0.0053720023,-0.04810638,0.25692412,0.028153641,-0.054554775,-0.14895858,0.13940194,-0.042844526,0.009774079,-0.08641987,0.000657808,-0.114902474,-0.0046950076,0.041687936,-0.03963363,-0.06061155,0.036344238,0.007848397,0.07167938,0.20166332,-0.06623566,-0.13165708,-0.05580127,0.07829247,0.09930628,0.016196793,-0.059861284,-0.07084386,-0.063851945,0.004239284,-0.16987796,-0.042802382,-0.011844831,-0.095867865,-0.003658137,0.17637151,0.009661735,0.12662743,-0.02628198,-0.100079656,-0.08178001,0.10815941,0.00046658804,-0.08947271,0.029203784,0.036316063,0.024396285,0.012968115,-0.0072583724,-0.054623306,-0.057122976,0.016339319,0.011117583,0.20578013,-0.07357483,0.003097002,-0.045383334,0.060177073,-0.08507905,-0.13430141,-0.036471497,0.12982827,0.105089605,0.05737963,-0.015954785,0.07081987,0.107903086,0.0029309692,-0.08179781,-0.102683224,-0.0037464176,-0.004525137,0.017741531,-0.034446023,0.16154358,-0.0358805,0.037330326,0.004789422,-0.18494149,-0.14374651,-0.006448859,-0.023440965,0.08819646,-0.04042098,0.08055794,0.039186575,0.12608898,-0.06352462,0.01659549,0.10464076,-0.047277745,-0.075862065,-0.010415778,0.18894947,-0.17285663,-0.20170954,-0.21640363,-0.041530736,0.026019393,-0.02745499,-0.06273802,-0.036904767,0.068534695,0.17900014,-0.30994022,-0.11200491,0.12184401,0.05984202,-0.047116816,0.023226356,0.15965167,0.049525574,-0.074310385,-0.19683185,0.056297313,-0.03045197,-0.016115498,-0.10226207,0.13257939,0.09269875,0.16118823,-0.077253185,-0.047977075,0.026313813,-0.09230763,0.22464256,0.071261436,-0.14468269,-0.13396725,0.07359923,-0.11706085,-0.09239449,-0.08939298,0.07796381,0.032324925,-0.020252954,-0.0065984065,0.07966353,0.09102319,-0.052261014,0.027578963,-0.07096517,0.04705051,-0.042643588,0.053295664,0.20248927,0.35628998,0.1086648,-0.035390284,-0.06955251,0.061339267,0.007224354,-0.0071925367,0.06255593,-0.035706516,0.036753647,-0.15854144,-0.12158503,-0.17477527,-0.15509164,-0.06406767,-0.0324465,-0.045100447,0.018043647,-0.0747504,-0.12306256,0.002828171,-0.003728843,0.034485485,-0.118391514,0.045510553,0.06118978,0.0022747875,-0.029512057,-0.033825453,-0.10179173,-0.12702608,0.06014996,-0.1976913,-0.07922499,0.14070448,0.16272876,-0.063375436,-0.07741188,0.03208666,0.04261004,-0.15493488,-0.080815285,0.087587304,-0.07289225,-0.021059697,0.13671194,0.025420813,0.023095733,0.08625995,-0.015232689,-0.025289966,-0.06841446,0.116117224,-0.0046768226,0.0131927645,-0.087233625,0.04721264,-0.05872639,0.117601715,-0.093147285,-0.025638627,-0.14596955,-0.06993948,-0.13866213,0.091356985,-0.12541035,-0.054897755,0.23805457,0.0304851,0.1448479,0.00035072275,-0.05073335,-0.024015665,0.065853514,-0.030747969,-0.11573052,-0.11937053,0.009781065,-0.008740908,-0.017624835,-0.1527656,-0.12872803,-0.04831402,0.1780004,-0.24885707,-0.113002576,-0.05813529,0.01732153,0.08923912,0.0052745864,0.13063951,0.17199837,-0.1290248,-0.09070723,0.12935716,0.05086411,0.0077723386,-0.0131247165,-0.052345395,0.0020275495,-0.052747622,-0.041049615,-0.0040323706,-0.011132028,-0.028535629,0.007708251,0.04944708,0.022392211,-0.056105588,0.017390326,0.038141195,-0.01902072,0.17295566,0.16060628,-0.059160795,-0.0008388225,0.005758421,-0.016430747,-0.06132067,-0.055594742,-0.030341743,0.02467157,-0.13013428,0.013615146,-0.01657444,-0.10546272,-0.16470464,0.011761286,0.0091883745,0.0069937683,0.051155515,0.0056132847,0.011391702,-0.035624478,0.0050233393,-0.01229945,-0.037462983,0.035502266,0.04462568,-0.054839138,-0.025318615,-0.101549216,-0.08007507,-0.06746573,0.04867426,0.043522455,-0.08787337,0.046682592,0.036584247,0.04682357,0.043735832,-0.052433215,0.009770845,-0.10524468,0.026746234,-0.027164644,0.14612661,-0.087092035,-0.16863962,-0.030885885,0.022296594,-0.09022816,0.0644595,-0.08288046,0.08230648,0.16646731,0.15442032,-0.08161692,-0.0036972216,-0.0038908864,0.029599642,0.13573489,-0.083806366,-0.16137129,-0.16055873,-0.0042390926,0.21685016,0.16734512,0.06279095,-0.02835628,-0.052786794,-0.016597318,0.054078117,0.013478257,-0.12997285,-0.048240986,-0.13855155,-0.08309355,-0.0637941,0.01316716,0.047113393,-0.14895688,