-0.1793656,-0.09778391,-0.21491441,-0.24980322,-0.29926714,0.18750252,-0.20651242,0.29357612,0.0489809,-0.24628918,-0.16901553,-0.3280086,0.1963419,-0.12732922,0.31483313,-0.25808218,-0.18481916,-0.26977953,-0.19196242,0.29446512,-0.2465841,-0.30770144,-0.048542928,-0.25403395,-0.1486978,-0.19778942,0.301674,-0.0739924,0.20641388,0.27215543,0.37587106,-0.29101598,-0.29751447,-0.27140215,-0.07203059,0.2617808,-0.07525673,0.21102999,0.290779,-0.16121256,-0.03478039,-0.3083821,0.3088289,-0.3005983,-0.33273262,-0.06371917,0.22926128,-0.10829795,-0.11382826,-0.08908346,0.017756514,0.2484667,-0.27233905,0.1535856,-0.29683006,-0.17954761,-0.10750523,-0.36615893,0.31109273,0.29438415,0.23447078,0.017808141,-0.26677966,-0.25119486,-0.32435665,0.18241481,0.022007596,-0.08565985,0.26299435,-0.19202423,0.34343535,-0.3063869,-0.37326923,0.23100685,-0.28084156,0.16581307,-0.31772894,0.28931946,-0.34374952,-0.19601332,0.1642909,0.3772855,0.335916,-0.34369132,-0.39917994,-0.1896411,-0.41660354,-0.17349331,-0.2619775,0.39759398,-0.24350989,0.033030577,-0.2709149,-0.2492083,-0.33599785,0.17433989,-0.14055967,0.30218223,0.20984256,0.17368262,0.3359605,0.26364452,0.1600098,0.28221512,-0.12533188,0.2115514,-0.029337723,-0.14306878,-0.13113669,0.010040698,-0.020376278,0.16259329,0.16926154,0.30144158,-0.2692429,-0.15917122,0.24801835,-0.13181062,-0.25188023,-0.17060693,0.26941895,-0.2540593,-0.07957928,0.29732043,-0.1998111,0.006323471,-0.0068908473,0.38479918,0.13785475,0.16673018,0.014767846,-0.11760177,0.4193676,-0.10050022,-0.20714164,-0.09326261,-0.22409028,0.24756682,-0.22016233,0.12739171,-0.011025518,0.3092565,-0.09002904,-0.16791667,-0.09874395,-0.3121792,0.29635853,-0.09091811,0.24305332,-0.17363548,0.2867917,-0.09894526,-0.13822906,0.1618435,0.050144624,-0.14831606,0.38487592,-0.06275685,-0.16138099,-0.13336839,0.3050988,0.2992913,0.2366129,0.26963696,-0.23187436,0.20488647,-0.046261664,-0.030142065,-0.08749218,-0.16995691,0.13997126,0.23153694,0.29926515,-0.05037953,-0.15703915,-0.09615462,-0.016293254,-0.061277244,-0.15296017,-0.21271166,-0.1170185,-0.15050107,0.2022672,0.2477154,0.039282497,-0.08961058,-0.119763575,-0.0774341,-0.1022334,-0.16676426,-0.13015942,0.27942905,0.29656947,0.011205534,-0.107426964,-0.23017485,-0.00638094,-0.10780682,-0.17837901,-0.12425899,-0.24284744,0.27332968,0.47535083,-0.19851658,0.33999464,0.15745625,-0.1721081,-0.23942772,0.10183979,-0.17339014,-0.2432893,-0.122570716,-0.32463664,-0.104999006,-0.11504003,-0.26487365,-0.025563864,0.36083204,0.099544235,-0.29865262,0.25243965,0.07198141,0.18740316,0.29450428,0.34515628,0.3642451,-0.13171329,-0.059080176,-0.09609885,0.16756551,-0.29075032,0.37670287,-0.23176062,0.033743437,-0.23879522,-0.24724366,0.21705063,-0.10624729,-0.057217713,0.02623264,0.39333564,-0.26313695,-0.14508507,0.18549544,0.30453587,-0.08830778,-0.28685653,0.037645943,0.27982405,-0.0066882856,-0.15859178,-0.16555782,0.25232106,-0.21358442,-0.17887017,-0.28716204,0.039017227,-0.045183156,-0.15263082,-0.06631404,0.20202552,-0.034627207,0.24291465,-0.31178334,0.27136755,0.18345056,-0.08103207,-0.17357597,0.16423479,0.19668442,-0.24978,0.24506773,0.28103647,-0.2515593,0.27196366,-0.22329682,-0.16526332,-0.195363,0.19071944,-0.29816124,-0.13364018,-0.304364,-0.35794973,0.25898898,0.22551797,0.29310712,0.29757556,-0.1053472,0.27522257,-0.12268132,-0.058218516,0.18922205,0.094081484,0.26706493,-0.14925016,0.26825225,-0.12406721,0.35216537,-0.109825104,0.23508808,-0.2440438,0.25943547,-0.06376515,-0.40373814,-0.12369811,-0.07116816,-0.14448565,-0.23622109,0.3868749,-0.16981767,-0.2510871,-0.08951574,0.24099141,-0.378588,0.3029429,0.023052169,-0.3681603,-0.24826021,-0.3168109,0.26128972,-0.13385335,-0.30870306,-0.30518383,-0.20043565,0.26959684,-0.25149688,-0.08497481,0.3039841,0.18475628,-0.12791109,0.10913419,-0.22284234,-0.31749526,-0.20578504,-0.14723405,-0.0356997,0.2966086,-0.15436688,0.35067496,-0.17051256,0.35791752,-0.3362252,-0.19957171,-0.24729009,-0.23385409,0.2470479,-0.13934961,-0.103595875,0.2553528,0.283552,0.30036533,-0.07621102,-0.10787577,0.26220042,0.40356797,-0.020202346,-0.15190275,0.23025833,-0.23058239,0.3251605,0.24992834,-0.120361365,-0.29891548,0.29403105,0.17940949,-0.2970766,-0.059323177,0.050962076,-0.0869247,-0.32496548,-0.0731996,3.6925165e-05,0.2506,0.04644513,-0.24815215,0.3845041,0.23767026,-0.007150471,-0.22553909,-0.096029766,-0.2195936,0.36286667,0.30905387,0.14050776,0.24699852,0.26971036,-0.25016257,0.21468462,-0.07776059,0.38062942,-0.15014093,0.2273475,-0.16295719,-0.0676981,0.2513797,-0.33965027,0.18533638,-0.18627046,-0.061101586,-0.2677321,-0.05224282,-0.16047713,-0.04878652,0.22220364,-0.093880266,-0.14417338,-0.025315864,0.13578129,-0.022368701,-0.15630871,-0.12930407,0.33154458,0.10068565,0.23614742,0.18472394,-0.11017603,0.21925527,0.3861655,0.23421293,0.21741934,-0.12754695,0.25322592,-0.33389425,0.2595111,0.16223674,-0.15220945,-0.052731924,-0.14227171,0.07646273,-0.19390096,0.24571368,-0.09089534,0.106979534,-0.119517595,0.18810192,0.0068570627,0.27401647,0.0017623451,-0.05901505,-0.09586544,-0.028348269,-0.032096926,0.071889624,-0.14183754,0.275072,0.26540214,0.1928998,-0.14558816,-0.13103914,0.2200874,-0.2468927,-0.24345613,0.3983622,-0.18723892,0.42624158,0.23966397,-0.17382327,0.3085356,-0.11834357,-0.052571166,-0.025039705,-0.16688979,-0.31794965,0.23458636,-0.13388596,-0.019006575,-0.1902649,0.32068548,0.14455552,-0.17670651,-0.10695735,0.18346566,0.31543916,-0.23128386,0.045759592,0.0100127235,0.2945675,-0.28485417,-0.24463102,0.12817414,-0.22170158,0.35028255,-0.10916955,0.23393984,0.19847098,0.27915508,0.18005797,-0.19669466,0.05956603,-0.05679262,0.019111352,-0.10751952,0.25528994,0.3516683,0.37697902,0.14432523,-0.14701381,-0.03517331,-0.2041799,-0.18185353