-0.07648388,-0.044886973,0.1183881,-0.012319988,-0.15536791,-0.046162426,0.012071621,-0.07520007,-0.0070966207,0.0069981935,0.006536855,-0.04326683,-0.073736444,0.02168745,-0.14413626,-0.08867217,0.039659146,0.0018442875,-0.006395404,-0.022786953,-0.04304221,-0.034391053,-0.020254692,-0.019858029,0.012241495,-0.22141793,-0.24710368,-0.17597449,0.0063968585,0.11926324,-0.2722285,-0.2342316,-0.1045934,-0.22534724,-0.16097486,-0.21741492,-0.26482967,-0.12511396,-0.19166364,-0.28909603,-0.17258401,-0.22105889,-0.1620944,-0.10464097,-0.21418433,-0.2570682,-0.13743325,-0.3177026,-0.23511608,-0.18599525,-0.064575985,0.016622,0.09899245,-0.04999346,-0.17031214,-0.00059288373,0.08022518,-0.037975766,-0.0484478,-0.08346405,0.04556775,0.011098386,-0.15021853,-0.08701939,-0.015833367,-0.0225509,-0.13003306,-0.039853502,-0.00052349316,-0.03569955,-0.11770284,-0.074467,-0.06436712,0.03788737,0.10941809,-0.13369077,-0.030545594,0.16059908,0.023370342,-0.014348786,-0.051441602,0.0032546988,0.1262369,0.068186894,0.01443246,0.00092043914,0.10118893,-0.012194639,0.086218156,-0.08868509,-0.13374637,-0.01939409,0.10796999,-0.015955523,-0.14377339,0.024390753,-0.11643646,0.099386014,-0.10213866,-0.1303198,0.036696594,-0.06193031,-0.010142332,0.04044163,0.09418805,-0.18600066,-0.10119468,-0.06497966,-0.06321239,0.028488925,-0.18059579,-0.089414895,-0.03571465,-0.00097354915,-0.1042578,-0.15196791,-0.091931894,-0.013746287,-0.058751404,-0.073091246,-0.06936757,-0.112841986,-0.029569639,-0.083083466,-0.083970435,-0.20843048,-0.054798704,0.00991246,0.021655755,-0.26497185,-0.19749539,0.06085699,0.041011572,-0.1474896,-0.22468555,-0.019987784,0.01753163,-0.05440744,-0.16642691,-0.07293006,0.0800416,0.04512256,-0.23887973,-0.14787176,0.04661234,0.025220623,-0.17298205,-0.19425374,-0.0931138,0.117071345,0.03373206,0.023134148,0.011404381,0.06287764,0.19205388,0.029454127,-0.038004566,0.043510295,0.0047251224,0.039767534,0.08969224,0.0076912334,0.026083304,-0.08280916,-0.058373474,0.08330702,0.05751308,-0.10995413,-0.091121145,-0.1335059,-0.002929856,0.049060218,-0.18819483,-0.008586596,-0.04162268,0.24501495,0.13294393,0.14819282,0.16113989,0.07543561,0.25293764,0.15827845,0.038460772,0.12559104,0.11595626,0.23098105,0.16308133,-0.052015927,0.07460422,-0.023078613,0.09898138,0.12467052,-0.017393887,0.06873956,-0.038529,0.23973906,0.030861583,-0.07640598,-0.12116572,-0.07469683,-0.3344095,-0.14647396,-0.16354913,-0.0022347425,-0.22311777,-0.21106331,-0.10873168,-0.1095455,-0.03572168,-0.23433478,-0.16504902,-0.02796472,0.02380863,-0.08549034,-0.13541815,0.0005089138,0.02413143,-0.041843805,-0.019993538,-0.11776584,-0.07962612,-0.1686418,-0.029143035,0.1588798,0.045611743,-0.049131274,-0.06080707,-0.056696326,0.013927413,0.066916406,-0.19156928,0.0027947023,0.04134738,0.078826115,0.16590576,-0.22255151,0.1446165,0.00934565,0.084036954,0.06064612,-0.033848383,-0.01951784,0.023697302,-0.011909608,-0.2902316,0.09255155,0.0042850142,-0.017886415,-0.2595434,-0.24662234,-0.008249232,-0.010851803,0.03973376,0.08059402,-0.026203854,0.00188718,-0.0627412,0.009153539,-0.056252368,-0.022415066,0.029384455,-0.010223327,-0.05455569,-0.08317585,-0.023188287,-0.019744914,0.014975173,-0.027795436,0.011528888,-0.056971382,-0.014600318,-0.009938952,0.015831137,0.070179895,0.02827363,-0.09224355,-0.03329519,0.2070227,0.0023909537,-0.21964964,-0.16795503,-0.10821825,-0.030574834,-0.044493407,-0.16519362,-0.15797886,-0.042155102,-0.15178092,-0.035312966,-0.015241251,-0.12730244,-0.066456944,-0.2087869,-0.017383147,0.024593875,-0.17435007,-0.0012057788,-0.09271602,-0.19369677,-0.25924578,-0.11177429,-0.13904344,-0.06980287,0.011924989,-0.030253664,0.021695975,-0.015214715,0.042060856,-0.038451646,-0.039842818,-0.00059530576,0.044692684,-0.017282426,-0.113009766,-0.044227146,0.08322828,-0.073416725,-0.040591016,-0.18597196,-0.037414648,-0.04464235,-0.12627742,-0.08770858,0.001207992,0.05393351,-0.0833737,-0.16548076,-0.031829398,0.06764866,-0.028828828,-0.029209668,-0.10582606,0.06615721,0.031517617,0.01946755,-0.0050489306,-0.0813315,0.113497354,0.03698659,-0.008219681,-0.10936182,0.012127379,-0.05556349,0.080099836,0.035001777,-0.041776974,0.022240818,0.08099806,0.10682643,0.024071958,0.023598872,0.035722457,-0.014004392,-0.11066695,-0.12319402,0.011268203,-0.08943625,-0.081595235,-0.12688443,-0.12053793,-0.050311957,-0.081797466,0.015065669,-0.02246145,-0.13824564,-0.06420672,-0.07670777,-0.09643626,-0.087210506,-0.14949436,-0.0076536927,-0.03650074,-0.12967268,-0.15812469,-0.10150263,-0.102948375,-0.08648302,-0.21840948,0.016741522,-0.051213354,-0.12458515,-0.07227523,0.00729132,0.03434004,-0.10969945,-0.120595224,0.043098323,0.045606297,-0.097330414,-0.14306873,-0.016752467,0.15115157,-0.08028712,-0.30072328,-0.2540944,-0.087433495,-0.105787426,-0.20956683,-0.17762335,-0.059217356,-0.08507185,0.0124184005,0.040791582,-0.107219785,0.02753101,-0.11606184,0.15476242,0.13988695,0.10995139,-0.021429928,-0.04430293,0.13829829,0.04506144,-0.03987392,-0.17021854,0.110330276,0.057930786,-0.008173539,-0.0010379142,-0.10663359,0.0938705,0.021384865,0.06493701,-0.04936315,-0.043053526,0.022076296,0.1261131,-0.012312286,0.11103779,0.14330806,0.099554606,0.06736315,0.14868024,0.012567354,-0.0008930208,0.22294144,0.22523469,0.108630344,0.015415828,-0.09161296,0.25612766,0.09565386,0.14221267,0.0021324027,0.07390546,0.051096015,0.19202694,0.1582678,-0.016903693,-0.009995638,-0.16501597,-0.17422624,-0.07829953,0.029401833,-0.07476459,-0.17895687,-0.17932914,-0.07627559,-0.038071807,-0.04609953,-0.074790254,-0.06487946,0.04027961,-0.040056556,-0.12770575,-0.07884048,-0.06406958,-0.06722555,-0.012504046,-0.05095617,-0.05511195,-0.13525811,-0.14673506,0.11235687,0.12593171,-0.087361075,-0.15535058,-0.08544391,-0.03841179,-0.0009284058,0.010154816,-0.114184216,-0.025103323,0.018059248,0.09147307,-0.10606462,-0.0455547,0.13611312,0.043224182,0.06816049,-0.18128103,0.077335395,0.09735142,0.1241832,-0.16540734,-0.036058776,0.005489426,-0.059145067,-0.1279891,-0.21479653,0.08975587,-0.020072525,-0.1512303,-0.08277931,-0.12957914,-0.042403847,0.102603935,-0.0538419,-0.07333513,0.080251545,-0.14854182,-0.052832805,0.011438156,-0.069730476,0.02379272,0.056817204,-0.053839035,0.109990165,0.12382679,-0.06929455,0.13530684,-0.015077925,0.008229005,0.013628313,-0.002061422,0.1442302,-0.046260007,-0.16575731,-0.22462578,-0.29439652,-0.048335478,0.0011984264,-0.14327566,-0.13263601,0.06617619,0.20104046,0.0092988,-0.07562461,0.05658638,0.14776818,0.11208168,0.17799792,0.08604001,0.1231607,-0.047435317,-0.060648087,-0.07581201,-0.07755215,-0.15413535,-0.20326982,0.1098309,0.084917106,-0.030710546,0.07242309,0.08899523,0.07472299,0.018553352,-0.054107726,0.03399228,0.13359559,0.027300624,0.0230633,-0.024208866,0.033506986,0.03180859,-0.004469483,-0.020694809,-0.06379399,0.03173288,-0.09092825,0.014228097,0.07827324,0.022066815,0.1990872,0.15132105,-0.06902744,-0.07672727,-0.012218289,0.030155791,0.023774056,-0.109892696,0.0029845925,-0.016835311,0.048918713,-0.04465304,-0.25723386,-0.020094344,-0.035685077,-0.013121107,0.0047664065,-0.040642887,0.05912531,-0.115868255,-0.19825163,-0.2553313,-0.010644325,0.07296037,0.22354701,0.019303272,-0.2599685,0.027424613,0.04721436,-0.06159785,-0.13581361,-0.08744083,0.013484651,-0.035246573,-0.18706077,-0.08913714,-0.07191962,0.07111316,0.1464882,0.07442827,0.07812723,0.2120935,0.075663,0.1619096,-0.060814187,0.018471977,0.20217241,0.08714405,0.07871457,0.08230802,0.089408234,0.18910164,-0.051101577,-0.024852179,0.0006198968,0.002117046,-0.053602878,0.012208921,0.041314937,-0.099605784,-0.089447625,0.07878574,-0.050597187,0.080928035,0.02827484,0.020537661,0.06836815,0.0934341,-0.045352913,0.038676612,-0.068021424,-0.08666524,0.21740454,0.0728525,0.19082034,0.13432793,0.17899305,-0.11839285,0.073735826,0.06761133,0.12831612,-0.27502298,-0.11535804,0.10826535,0.116223454,-0.10810082,-0.24880806,-0.21345298,-0.0033002486,-0.008991642,-0.017564237,0.030476933,-0.31260356,-0.08147348,-0.1669853,-0.12331628,-0.105694465,-0.31608003,-0.1483133,-0.15880542,-0.12140587,-0.12282737,0.02683434,-0.010816005,0.10105637,-0.0597161,-0.19543202,0.047873817,0.038071528,0.13955915,0.14461805,-0.08933361,-0.0034585074,-0.023506949,0.13964927,0.069276884,-0.09054366,-0.14264438,-0.12802872,0.0014194299,-0.005172675,-0.27386305,-0.18277973,0.003916043,-0.017804414,0.047556203,-0.16674152,-0.0157818,-0.015821356,-0.03114527,-0.019830706,-0.03956717,-0.020942176,-0.044458203,0.095583655,-0.072385654,0.04514692,0.10414025,-0.06518138,-0.1447039,-0.16689989,0.055302933,0.022951297,-0.12514839,-0.19737257,-0.21376362,-0.0341264,0.032440767,-0.0067483876,-0.13038829,-0.08411985,-0.11893009,0.10119987,-0.07570402,0.16030602,0.11534671,0.16658968,-0.039243747,0.23337534,0.09207787,0.1650444,0.032994322,-0.06985312,0.04562778,0.054697838,0.054002255,-0.14402021,-0.12936391,-0.15651573,-0.057687495,-0.19246623,-0.1537663,-0.22770804,-0.19152246,-0.13643256,-0.13857533,-0.08993201,-0.10314057,-0.18718258,-0.042326104,-0.12187299,0.0551718,0.008724614,0.016858472,0.033815876,0.08824315,0.10835551,0.024850655,0.08872291,0.025372133,0.0820756,0.03314161,0.04617939,0.04832913,0.060950637,0.0085074855,-0.06828095,0.038890827,-0.1131336,-0.011698461,-0.02898889,-0.08043223,-0.14974771,-0.31040272,-0.07381898,0.043879483,-0.042112716,-0.2649271,-0.12267349,0.06717802,0.021308705,-0.081875965,0.01956731,0.024369512,0.01903529,-0.019396069,-0.040914524,0.10330623,-0.12894376,0.044378344,-0.038378425,-0.107310265,0.11545857,0.19938669,0.023177719,-0.18360998,-0.257171,0.060007174,0.013627567,-0.087422915,-0.06780092,-0.12077232,0.15617391,-0.051751286,0.039213136,0.15261598,0.056549232,-0.03938283,0.1517523,0.046760704,0.038917944,-0.054715287,-0.047020342,0.11658361,0.30219913,0.113365084,-0.06574036,-0.1126409,-0.11964713,-0.10535183,-0.12738495,-0.13533351,-0.09096284,-0.14816144,-0.13774055,-0.02112135,0.13596532,0.036573622,-0.0131148165,-0.13866283,-0.08979538,0.19251233,0.025198722,0.064274825,-0.16562535,-0.027763754,0.19371387,-0.062906034,0.019348247,-0.07021414,-0.09500222,-0.05936338,-0.03703877,-0.056751646,-0.22684182,-0.18841429,-0.097805835,-0.06558562,-0.10788601,-0.08280407,-0.06415424,0.100121595,-0.11877285,-0.06295055,0.03856278,0.043762006,-0.04342339,-0.24755818,-0.11438835,-0.10717662,0.08469449,0.016067985,0.049834467,0.18173909,0.27815053,0.1261932,0.029841991,-0.07259468,0.06487065,0.05219678,-0.049033538,-0.0033394464,0.013083161,0.032615155,0.044925865,0.02667919,-0.0820549,0.06895872,-0.083494656,-0.16192481,-0.11119015,-0.06908448,-0.12159317,-0.12618573,0.1265947,0.13142335,0.106490694,-0.03541704,0.12505317,0.14517616,-0.020994676,-0.08820469,-0.12870437,-0.11835627,0.020275375,-0.02234817,-0.13634525,0.06018672,-0.12748954,-0.16025625,-0.08205891,-0.09912031,0.1847726,-0.09525034,-0.03547454,0.018940711,-0.03684133,0.060375966,-0.1657158,-0.14086336,-0.086119495,-0.012523806,-0.027408568,-0.085078605,-0.05394538,-0.045233127,-0.1160653,-0.05585208,-0.11917395,-0.018867105,0.023550985,-0.11880805,0.023290075,-0.1097745,-0.22365472,-0.10929162,-0.12399676,0.080349065,-0.17756192,-0.18775189,-0.047672275,-0.10318941,0.022069886,-0.058046553,-0.035461374,-0.039094575,-0.027183568,-0.0025777875,-0.18734118,-0.20816933,-0.23052028,-0.1050265,0.0118481135,0.018343309,-0.041408647,-0.075008616,-0.021858409,-0.11989501,0.12595944,0.047849156,-0.1752996,-0.15338315,-0.0516035,0.0053541847,-0.12310659,0.123089455,0.059538983,-0.022425018,0.13664852,0.21099988,-0.13147467,-0.052927084,0.025968138,0.19964947,0.020654216,0.010053214,-0.009593993,-0.12427754,-0.1649546,-0.22070286,-0.19139832,-0.16447116,0.15798065,0.07064337,-0.044844087,0.047568105,-0.022094605,0.05936615,0.10736805,-0.05067341,-0.21984094,-0.009501106,-0.0065043266,-0.04206201,-0.20669638,0.116489224,0.11210674,-0.0672612,-0.09792487,0.080408834,-0.015373416,0.077079184,-0.10207611,-0.07689331,0.045875475,0.06306849,0.18466008,-0.16117917,-0.011841807,0.11803447,0.16572505,-0.017596353,-0.059487164,0.12156521,0.06247439,0.021657214,0.10628712,-0.1414431,-0.0015883995,-0.045393366,-0.0895913,-0.12734462,-0.031406242,-0.053818695,-0.0319001,-0.017652832,-0.014586023,-0.12540556,-0.06911604,0.09104717,0.04898569,0.015622964,0.0688998,0.11479447,0.07794156,0.03317234,0.11566522,0.02925028,-0.054735962,0.007913916,0.051063307,0.020425897,-0.07123887,-0.094301105,-0.06561757,0.09705957,0.14664397,-0.12374756,0.08538915,-0.03672607,-0.0007110299,0.11691678,0.18290688,0.0094490005,-0.04785508,-0.087518506,0.13754065,0.029473564,-0.05380726,0.035230868,-0.02285368,-0.06719567,-0.024447005,-0.14631224,-0.05747227,-0.14955203,-0.101265065,0.040537506,0.061566856,-0.06685131,-0.11709756,-0.039478295,0.07552254,-0.1165791,-0.11317871,-0.12123342,-0.06403645,-0.038242184,0.02985086,0.06718445,-0.004130756,-0.104239374,-0.07672252,0.109626345,0.14244837,-0.045025043,-0.11244494,-0.065703996,0.03806485,0.08191757,-0.007957086,0.0042554294,-0.20983554,-0.046541516,0.05244848,0.0393284,0.081979826,-0.08721887,-0.094809204,0.02889483,0.0072032926,-0.017902318,-0.12599833,-0.10043989,0.05757726,0.05756247,0.012442796,0.071432635,0.07382197,-0.03165228,-0.12244752,-0.11804668,-0.071806245,0.052050237,-0.15971655,-0.09380534,-0.12131574,-0.066530034,-0.06997023,-0.116440386,-0.06320032,0.03522778,0.13350302,0.030248685,-0.0239897,-0.15377639,-0.08584429,0.1759696,0.0028326632,0.0030880324,-0.10825126,-0.009495051,0.14168014,0.21214741,0.26300257,0.021899737,0.009721781,-0.05998101,-0.09858231,-0.14023033,-0.12383613,-0.16501246,-0.17720996,-0.04704818,-0.20232904,-0.25825524,-0.15609528,-0.051395193,-0.14904901,-0.22156282,-0.106238246,-0.15797277,-0.062296376,-0.06596514,-0.12101508,-0.10699097,-0.1600399,-0.17232934,-0.03510144,-0.21046682,-0.159171,-0.06912897,0.060660355,0.06373349,0.06698258,-0.10942458,-0.004098436,0.018345214,0.0821741,0.052939903,-0.100673705,0.33594507,-0.27716672,-0.11539615,-0.082749836,0.017513523,0.27903077,-0.198456,0.056539666,0.114631824,0.08340937,0.19775958,-0.21044508,-0.15182035,-0.121175274,-0.10976586,-0.027031392,0.04995795,0.025579473,-0.04707303,-0.12332561,-0.12126143,-0.011928574,0.047140624,-0.13807273,-0.10965573,0.11716437,-0.11825254,-0.20804727,-0.11546637,-0.045378674,0.2223054,-0.07707917,-0.04836189,0.019779941,-0.0006218351,0.23184283,-0.0019305848,-0.020608231,0.022611493,-0.020572182,0.14287902,1.9911124e-05,0.13359144,0.010985772,0.11424879,0.13531299,0.15570155,0.1164753,-0.016135499,-0.12037774,0.11351801,0.19464725,0.07131754,-0.095264025,-0.1032457,0.0018387738,-0.14656389,-0.20769623,-0.031245643,-0.07625893,-0.13146387,0.09412189,-0.10104857,-0.25623274,-0.4018801,-0.22341783,-0.06391667,-0.12429783,-0.17468807,-0.10865901,-0.20561442,-0.03685103,0.077313974,0.077495135,0.24134748,-0.18223368,-0.007921754,0.20107009,0.15209809,0.15281598,-0.0972531,0.11237298,0.0514636,0.069154195,-0.047213174,0.09331175,-0.073712595,-0.002743775,0.07453945,0.2208009,0.12580876,-0.034567814,-0.04598282,0.1396444,0.114005335,0.10338164,-0.1628392,-0.028118415,-0.0045605884,0.11964713,0.11155124,-0.13237067,-0.00696143,-0.023625908,0.008299596,0.032358825,-0.004631996,0.06398434,-0.07888227,-0.085668184,-0.022335095,-0.1836311,-0.1496326,0.077595636,0.02009788,0.056680046,-0.27352488,-0.15001361,0.14538811,0.2342363,0.36423331,-0.19060051,0.10098638,0.22488318,0.0698774,-0.06782905,-0.08363843,0.18364748,-0.013264517,-0.16085215,-0.31052214,-0.35102943,-0.047296472,0.07418167,0.08120286,0.007944697,0.045905035,-0.059874993,-0.046288025,0.12868764,0.21761587,0.044436008,-0.014166224,0.061675224,0.043710496,0.068168215,0.10547284,0.11021662,0.006511792,0.0006505562,0.03763528,-0.083565444,-0.09062909,0.09906558,0.08448811,0.123810135,-0.115169965,0.013919711,-0.11911853,0.038985357,0.029086784,-0.07711125,-0.01433014,0.110148616,0.011872972,-0.16517366,-0.16067635,-0.1184897,0.043685846,0.15450923,-0.04271543,-0.26053712,-0.15324724,0.071630076,-0.004721109,-0.015005298,0.09792448,-0.12186059,-0.06600046,0.016839912,-0.1434207,0.1261428,0.0695933,0.056425016,0.06853024,-0.09844943,0.024883041,0.0045926836,-0.16528794,-0.07331538,-0.019455831,-0.02923877,-0.026644593,-0.022543116,0.064836495,0.2246335,0.07870899,0.09703289,0.07837812,0.09535337,0.20413038,0.046699334,0.16977866,0.33329883,0.07492468,-0.05239994,-0.04730113,-0.015627122,0.034976352,0.21429743,0.14117812,-0.02447669,-0.022472192,-0.19136328,-0.0685148,0.17494972,-0.15866317,0.030124761,0.09471777,0.1525688,0.07125626,0.05872258,0.15919875,0.08936585,-0.03179057,-0.071813345,0.00023773793,-0.012126197,0.043365788,0.11380943,0.028993456,-0.09178383,-0.16634807,-0.07888038,0.05522657,0.008681467,-0.070906356,-0.09323064,-0.024364086,-0.09197179,-0.048525404,-0.1496065,-0.104570284,-0.041230123,-0.09826454,-0.0051455717,-0.15137784,-0.21577418,-0.13197438,-0.15192093,0.0034226452,-0.11856571,-0.20032409,0.08904348,-0.060743317,-0.06687165,-0.30921486,-0.10261631,0.023881279,-0.054982763,-0.16045873,-0.017650953,0.018630352,0.06125926,0.1263337,0.1432445,-0.030936701,-0.0505713,-0.10222101,-0.09259743,-0.02893901,-0.14194562,-0.2711074,-0.18143058,-0.11460237,-0.04596438,-0.2182673,-0.060198437,-0.02202068,-0.043813527,-0.014301171,-0.21540044,-0.038862877,0.09096247,0.07953225,-0.1114363,-0.018058613,-0.01615267,-0.014621297,-0.026964167,0.05221883,0.026786903,0.0893304,0.057367202,0.035940357,-0.09387514,0.058874685,0.0055629467,-0.08521532,-0.030296985,-0.048684027,-0.097240895,-0.16843691,0.05143569,-0.040563755,0.052406177,0.048171908,0.010150808,-0.05767321,-0.074481145,-0.05323608,0.009963619,-0.0069316165,-0.0012346623,-0.05211384,-0.14650695,-0.06507706,-0.1702446,-0.064417996,-0.13071464,-0.120760456,0.04298402,-0.01147644,-0.05533347,-0.011964324,-0.08521562,0.18632743,0.08812082,-0.05948178,0.023547312,0.066198535,-0.00023917343,-0.15443356,-0.021473853,-0.0076615624,-0.007987736,0.05149215,0.08764743,0.026388891,0.029081961,-0.05104145,-0.049275495,-0.018303301,-0.09750141,-0.010727298,-0.112421736,-0.05822783,0.015564298,-0.041574042,-0.07591543,-0.08082762,0.037017696,-0.028068246,-0.008133301,-0.076611385,0.02211948,0.004224307,-0.008487226,-0.07126607,0.013827241,0.061347906,-0.29753777,-0.257509,-0.08033767,-0.029851314,0.03834237,-0.16265933,-0.09473,0.09917805,0.0072874855,-0.025957365,-0.0062258467,0.18055855,0.14605695,-0.11111463,-0.0793752,-0.35570654,-0.11819171,-0.086866915,-0.18252929,-0.038841564,-0.26197615,-0.15697126,-0.14301562,-0.13338883,-0.020027664,0.15416948,0.1302254,0.068058185,-0.15473813,-0.14122257,0.008823954,-0.019514041,0.022177337,-0.09449268,-0.11182688,-0.083556384,-0.17258933,-0.0012036955,-0.010962309,0.035544388,-0.124195516,0.03466555,0.02391692,0.07074809,0.037269913,-0.044095717,0.02203853,-0.07544466,0.053396504,-0.034441285,-0.102047116,-0.041006286,0.096950375,0.07502514,0.19654544,-0.1685177,0.03268209,-0.014373364,0.03501131,0.12587614,0.03626522,-0.06936675,-0.18826085,-0.1540593,-0.16499445,0.1612809,0.012153021,-0.11307097,-0.12227604,-0.16193357,0.07952578,0.035599723,-0.073751286,-0.12089392,-0.05443256,-0.18024299,0.014412357,0.09676031,0.00968667,0.03579608,-0.103863046,-0.008100306,0.15363939,0.0543367,-0.0072488147,0.0042309165,0.19954139,0.28613624,0.071848564,-0.13235232,-0.091710456,0.13790853,0.18380633,-0.14075829,-0.06809464,-0.16200918,0.0014386964,-0.017817292,-0.01683651,0.041837677,-0.09853002,0.06618279,0.10718453,0.07885511,-0.048152003,0.100826286,0.07441015,0.06220048,-0.13272813,-0.13920034,-0.06572695,-0.024138937,-0.032795552,-0.116751194,-0.014783489,-0.034662608,-0.0045820377,-0.053123783,0.055059947,0.055899967,-0.09566044,0.0018375563,0.06433578,-0.004607545,0.0645841,-0.122962095,0.1800342,0.26975545,0.16428554,-0.098607175,-0.055315383,0.19799525,0.16242404,-0.03553371,-0.07073269,-0.03331594,0.00718234,-0.2079944,-0.23718674,0.013252126,-0.018086437,-0.13122222,-0.21258779,-0.09831241,-0.1128406,0.05534253,-0.2320186,-0.08355797,0.04110212,-0.17988345,0.06414601,0.15211692,0.15597972,0.02164237,-0.056625746,0.2632128,0.11932841,0.088787384,-0.09809369,0.044910148,0.22252521,-0.018823704,-0.11752865,-0.10964108,-0.01913121,0.042984474,-0.033438936,-0.019350572,-0.1011433,-0.054494847,-0.047505345,-0.01228988,0.03766205,-0.046391618,-0.16376501,-0.06333406,0.072025076,-0.02502776,-0.10778734,-0.2332677,0.07001517,-0.08908087,-0.13822155,-0.20282894,-0.21173984,0.07220349,-0.1311973,-0.08896794,-0.18329905,0.018669473,0.010878608,-0.10126715,-0.054900873,-0.10273608,-0.011869702,-0.035910167,-0.06923427,-0.104965955,-0.12552477,-0.07164848,-0.085710526,-0.038658902,0.15263432,0.04035353,0.13795027,-0.061655868,0.07714531,0.15737581,0.12520558,0.21615203,0.042694077,0.04104104,-0.038520496,0.14698099,-0.017001173,-0.107496,-0.1994161,-0.1928049,-0.12987767,-0.22974569,-0.019636208,-0.01397881,-0.023751695,-0.23279859,-0.13043647,-0.14002767,-0.11362772,-0.11336307,-0.14006536,-0.0022336016,-0.13167502,-0.057081915,0.06824422,0.22405191,0.11505309,-0.103905015,-0.027123842,0.050153628,0.15891275,0.0012364424,-0.0517567,0.029084928,-0.07317796,0.09362217,-0.03288364,-0.08663544,-0.013972242,-0.018717546,-0.0981512,-0.078971475,-0.08255453,-0.2530027,-0.042612042,0.08214801,-0.080810934,-0.10645215,-0.13468285,-0.07843299,-0.008328383,0.10141222,0.012413461,0.14225893,0.04767698,-0.20652282,-0.17049791,-0.047586076,0.05687234,0.08033464,0.04833606,-0.04504925,-0.014533227,-0.12744124,-0.07131336,0.08248183,0.023090089,-0.0321063,0.09232666,0.040387824,-0.020141518,-0.06245086,-0.04616164,0.06217897,0.097923785,0.0040275906,0.03172941,-0.025936494,-0.000430125,-0.16913594,0.066444166,0.33179745,-0.101534694,-0.16630647,-0.28671536,0.002618154,0.15714583,0.100596465,0.13212892,-0.088686675,-0.045554645,-0.02301954,-0.062225938,-0.17480408,-0.057630792,-0.04291466,-0.11948165,-0.22172706,-0.08944882,0.15115759,0.116780825,0.015600028,-0.1121787,-0.03686004,0.05524747,0.22835548,-0.116098784,0.022363229,-0.06936059,0.024338543,-0.05021184,-0.16962172,-0.21658644,-0.25103363,-0.1154076,-0.21763717,0.022870664,0.10152826,-0.17063443,-0.06465989,0.13692336,-0.020380164,-0.10637833,-0.07580591,-0.004608287,0.055644423,-0.13074543,-0.1700053,-0.13032132,-0.18111813,-0.0875903,-0.13623929,-0.19619077,-0.039136365,-0.034789518,-0.09486109,-0.045268573,-0.12957267,0.008905864,-0.10115496,-0.12761778,0.094350845,0.08798475,0.1609815,0.21437924,0.20277864,0.16649228,-0.14856958,-0.011248125,0.07188477,0.13200876,-0.08970808,-0.04641228,0.032541186,0.06275947,0.08856889,-0.011641548,-0.13699503,-0.20947966,-0.19880679,-0.037296765,-0.005540191,0.0039364533,-0.006575579,-0.15448554,-0.12458756,0.0013609825,-0.13011621,-0.15932748,-0.116834514,-0.040433582,0.018472346,0.07949638,-0.019878156,-0.08389178,-0.028352832,0.016121002,0.091710925,0.06428166,0.072781816,-0.08474678,0.11738184,0.06589237,0.091094345,0.17606902,-0.12456312,-0.07665838,-0.0929243,-0.03941977,0.12278307,-0.070285484,-0.16752255,-0.10526934,-0.16253717,-0.039745383,-0.002657302,-0.01384383,-0.029756283,-0.08144336,0.071999274,-0.11577863,0.025991863,-0.006704255,-0.06795742,0.001978069,-0.27893177,0.06568061,-0.010509999,0.05369471,0.14090815,-0.19453804,-0.053800285,0.08454514,-0.08163825,-0.009479136,-0.08850481,-0.053222597,0.05439637,0.061533444,-0.1603274,-0.20987165,0.014807862,-0.014206801,0.09066312,-0.029534932,-0.060913205,-0.27866554,-0.097518876,0.03480062,0.08698329,-0.0022273115,0.09906213,0.004663057,0.034669828,0.103436716,0.22477774,0.2357353,0.052118998,0.28048897,0.03533568,0.06921841,0.005312868,-0.14556496,-0.16117407,0.039649606,0.092671245,0.06267873,-0.049646158,-0.029085698,-0.013362115,0.019878622,0.034753624,0.068390876,0.03148872,-0.19322537,-0.03035685,-0.037969798,-0.032421026,-0.14211693,-0.26508817,-0.051162593,-0.017352514,-0.21897808,-0.078693524,0.11706915,0.04064657,0.20185031,-0.034818694,0.034149107,-0.045644842,-0.02992611,0.036058556,0.029232472,-0.08501578,-0.025117958,-0.055287767,-0.03916071,0.1305686,0.09973498,0.04182123,0.021616513,0.020918468,0.026297295,0.061804116,0.0052803275,0.0017986508,-0.14859006,0.11274355,0.09601733,0.030430572,0.018705023,-0.033818744,-0.028521676,-0.004995231,-0.051789682,-0.0469489,-0.2525463,-0.055054154,0.06773547,0.0487289,0.20134474,0.19017558,0.03864032,0.11517183,0.09898229,0.12343345,0.13110454,0.07967502,-0.17668733,-0.2555536,-0.08710952,-0.15567291,-0.050075855,-0.04945237,-0.05695229,-0.17099483,-0.23898987,0.05973229,0.039397027,-0.031086272,0.1217933,0.22046949,0.009219067,-0.12145483,-0.10524265,-0.085395046,-0.09518931,0.013092928,-0.032550015,-0.1692501,-0.09987303,-0.10043601,0.052173626,-0.017605878,0.029556185,-0.0125562735,-0.008202924,0.03406686,0.07999911,-0.097298056,-0.03862462,-0.10008834,-0.055218,0.08682559,0.036421422,-0.024889585,-0.030995416,0.0075639533,-0.0020134263,-0.014388041,-0.10323814,-0.13363585,-0.039509572,-0.085007615,-0.25562617,-0.15160702,-0.17891806,-0.091946654,0.12488644,-0.017207995,-0.23829202,-0.2314801,-0.015498531,0.20994473,0.13003193,-0.086524844,-0.0824575,-0.050857943,-0.10489535,-0.18870395,-0.109446146,-0.068071805,0.037308298,0.070950404,0.06873288,0.08967115,0.086794406,0.03802317,0.008516166,-0.021085318,0.08444083,-0.08498088,0.12103372,0.033458397,0.07345895,0.0029768432,-0.0112842675,0.1602784,0.024755169,-0.18098393,-0.10159731,-0.14308213,0.13846406,0.107843764,0.02507218,-0.041701958,0.2624061,-0.0039872327,0.029792897,-0.1483314,-0.10999321,0.02114099,-0.030739993,-0.12905656,-0.12097033,-0.119572274,-0.11910992,0.2015164,-0.012988391,0.023459699,-0.10108477,-0.22924538,0.031407706,-0.024979321,0.071422905,-0.033548206,-0.1878466,-0.019642845,-0.019191792,0.015020363,-0.090939775,-0.2778669,0.037587307,0.13606825,0.02711991,-0.08408336,-0.15551925,-0.12111519,-0.08158224,-0.1532432,0.012254656,0.056310184,-0.1569026,-0.16331668,-0.020984473,0.1681242,-0.010669041,-0.09057105,-0.047203925,0.109497726,-0.03070831,-0.12731534,0.066454366,0.030971177,0.04666797,0.043195833,-0.16867022,0.10189528,0.047677036,-0.010855485,-0.030534012,-0.20336327,-0.025481991,-0.13816723,-0.25000462,-0.093248114,-0.07983116,-0.068185985,-0.03953196,-0.13921098,0.09594925,0.026600286,-0.15363269,0.036734164,-0.00508986,0.12185427,-0.03738834,-0.06744159,0.08231823,0.13287409,-0.012675202,0.15055172,-0.16174604,0.00031200706,-0.11485005,0.064757556,0.06948573,-0.14325066,-0.2385624,-0.25053662,-0.016954975,0.15842026,0.029614594,-0.08914073,-0.11130224,-0.11295093,-0.16424832,-0.1554525,0.08496111,0.11654866,-0.05166666,-0.20792294,-0.047663014,-0.07352035,0.04453678,0.035277702,0.089912124,0.04682526,0.07245964,0.04446178,-0.12682116,-0.18415923,-0.034798104,-0.06397671,-0.079359286,-0.21826832,-0.28312513,-0.07632239,-0.09925111,-0.18989496,-0.19458039,-0.042146556,-0.00028920872,-0.038861338,-0.105208375,-0.03780429,0.08003732,0.14447956,0.06157533,-0.04289036,0.16612439,-0.09621031,0.14699127,-0.0801213,-0.01962515,-0.096051686,-0.16789843,0.08272723,-0.053511173,-0.095697895,-0.07608916,-0.110116735,-0.06833285,-0.0034668352,-0.07254289,-0.019860215,-0.039012264,-0.01942266,0.004587425,-0.08894375,0.083806016,0.18562125,-0.01062307,-0.074839845,0.09993033,0.14871639,-0.17428568,0.01244532,-0.18179311,-0.21329026,-0.19649014,-0.19884168,-0.1547187,-0.16620694,-0.17835619,-0.12746738,-0.017367192,-0.058351327,-0.1409132,-0.18215883,-0.12925732,-0.057705645,-0.17046393,-0.056971364,-0.03380042,0.10885276,0.11452813,-0.0901312,0.13938199,0.0075499145,-0.13667166,0.033242766,-0.010908524,0.12467617,0.013579436,0.27514857,0.08167942,0.12501839,0.006046882,0.028952472,0.10559729,-0.08538617,0.07194925,-0.041414775,-0.06796717,0.031012189,0.057254188,0.062270787,-0.2139456,-0.157399,0.046480875,0.18273842,0.3968403,0.10583058,-0.13376585,-0.038854804,-0.07853445,0.11574945,-0.0386944,-0.06856766,-0.015039703,0.027763428,0.10530616,-0.18273018,-0.017365364,-0.031172387,-0.06344278,0.01289602,-0.21312962,-0.07421694,0.0035949228,0.0026054657,0.035605658,-0.22850084,0.0941826,0.07694779,0.24401423,-0.044105522,0.022945572,0.10983297,-0.14683603,-0.19412641,0.07940612,-0.062194306,0.0058290567,-0.06349915,-0.10888416,-0.0029024894,-0.042084184,-0.024579462,-0.059740163,0.015921906,-0.15275106,-0.07579214,-0.12271991,-0.1151962,0.03876341,-0.045942742,-0.054995723,-0.3096483,-0.17281911,0.012244379,-0.10233646,-0.08721675,-0.07488316,-0.21659999,-0.080762915,-0.17262097,-0.072411045,0.071938835,0.21051751,0.06866368,-0.03140459,-0.11534713,0.032740843,0.07381416,-0.15898247,-0.0153872315,0.06288718,0.06726877,-0.21867561,-0.15340509,-0.047817342,-0.07025026,-0.16544433,-0.042742494,0.0074734427,-0.004432736,-0.00473391,0.02148947,0.039167408,0.011865926,-0.03725569,-0.0008906047,0.007363629,0.063777834,0.03284391,-0.14736995,0.03498887,-0.0027354276,-0.0754539,-0.14654335,-0.12437807,0.10430328,0.0049133147,-0.04779071,-0.17388658,-0.15183102,0.04304458,0.17277393,-0.106279515,-0.16838308,-0.06404011,0.27347755,-0.026043626,0.023992935,0.09942636,-0.0053401496,0.0684913,0.054116398,0.19792855,-0.009121332,0.077885345,0.094378956,0.0020981382,-0.09340346,-0.26331928,0.023974968,0.031989478,0.1668809,0.06657695,-0.16449949,-0.1324695,-0.051346544,0.19276926,0.002436568,-0.15419139,-0.10395269,-0.106946066,-0.17715086,0.05627423,0.039280172,-0.06665828,-0.05911984,-0.0079699885,-0.20867921,0.18286483,-0.079016514,-0.025323683,-0.041240666,-0.09688417,-0.07691019,-0.0328601,0.02013789,-0.11419016,-0.08710764,0.06439672,0.1726246,-0.029838491,-0.12896897,0.023022013,0.112180926,0.123605624,0.03226292,-0.059625294,-0.18720362,-0.043649755,0.1651922,0.014044743,-0.09267755,0.08040444,0.010044411,0.1281534,-0.14558935,0.075441,0.12689713,0.21116868,0.08788531,-0.2055348,0.21517761,0.20349476,-0.056964878,-0.12800165,-0.12999283,0.070864454,-0.117021896,-0.18764368,0.12755007,0.06661194,0.12851956,0.07351024,-0.0071962415,0.06335531,0.070169464,0.11031844,0.0109236585,0.03983489,-0.030628227,0.007327369,0.028015964,-0.00514943,-0.0059926314,0.011235029,0.02266651,0.06900136,0.021802353,0.038723778,-0.17697258,-0.062111188,0.06796503,-0.026357463,-0.009670265,0.051981453,0.12659107,0.04332412,0.07085915,0.16268012,-0.16240686,0.10063052,0.29661965,0.28227207,0.065064184,0.14517342,-0.03696318,-0.07658946,-0.090571396,-0.23590425,-0.111138806,0.16225116,0.065751605,-0.109790556,-0.29512775,-0.06351284,-0.037699144,0.051207297,0.061623227,-0.03854988,-0.036684763,-0.051065374,-0.030292466,-0.114156164,-0.16377763,0.08876176,-0.050853696,0.013847253,-0.027550047,-0.1172167,0.017697508,0.005810694,0.048488285,0.016870344,0.0357882,-0.05787935,-0.08505084,0.1218668,0.09016256,0.055629037,0.043137133,-0.088997096,-0.03661494,-0.0043476787,-0.0042819674,-0.07031588,-0.006206113,-0.010321568,-0.03701347,-0.06987589,-0.13399276,-0.022448467,-0.0019498571,-0.04914692,0.027846819,-0.14379922,-0.07854271,-0.068229705,-0.058703084,0.0388162,-0.1791714,-0.00069890916,0.06013749,0.0075815846,0.09184189,-0.044253547,-0.112661526,-0.023219869,0.07974452,0.06901264,-0.069157586,-0.17461832,-0.011414143,0.14641981,0.2698156,-0.06506919,0.0018875414,0.089761995,0.06840925,0.19253881,-0.03653169,-0.03255926,0.057109173,0.054938372,-0.06672679,-0.073255025,-0.0015124792,0.029451178,0.01653507,-0.026968468,-0.09625391,0.005118904,0.05717624,-0.042060852,-0.0412943,0.015826046,-0.051845398,-0.051944412,-0.03012427,-0.04662223,0.10227797,0.045679595,-0.055266544,0.037975043,-0.04170262,0.10800783,0.07979097,0.064020395,0.058319956,0.029556587,-0.04887084,-0.027890945,0.00903319,0.06416247,0.042370263,0.071145825,-0.0046137967,0.057055414,0.0038464216,0.008006702,-0.2743217,0.035106912,0.14687446,0.025874173,-0.043191683,-0.26581696,-0.15633245,-0.03958334,-0.17507488,-0.15048788,-0.09814256,-0.23588604,-0.2340996,0.019970363,-0.017827716,0.096026205,0.015108278,-0.09633128,-0.01760335,-0.10579594,0.05352962,-0.039958857,-0.042849854,-0.081294954,-0.14964417,-0.04617766,0.19417548,0.12328672,-0.051572315,-0.17296234,-0.12525746,-0.08932467,0.03288593,-0.11004266,-0.145596,-0.32557485,-0.22958912,-0.1346606,-0.05933957,-0.023546264,-0.05774594,-0.091013186,-0.122666486,-0.12586546,-0.04672459,0.02434491,-0.058349136,-0.14843024,-0.10270533,-0.094072096,-0.21039036,-0.15735288,-0.16594265,-0.08351642,0.005011817,0.14400971,0.04675711,-0.09032011,0.026493032,-0.06166118,0.11151069,0.104175195,0.033766963,0.020010645,0.01740318,-0.049835157,0.050468523,0.042864006,0.02243096,0.05585879,0.027746573,-0.00763096,0.10315102,0.07903145,0.01022444,-0.1564465,-0.17541638,-0.005857537,0.09363949,0.045489665,-0.26284236,-0.24573202,-0.20923774,-0.076682985,-0.054691672,-0.089548595,-0.20915455,-0.16480273,-0.19955559,-0.055889584,0.08968101,0.064601295,-0.036690798,-0.08876039,0.117042236,0.22329593,0.0978069,0.06326554,0.080983564,0.14751466,-0.052521568,-0.05638363,0.029377468,0.08677454,0.11903585,0.040760037,-0.006456224,-0.04198926,0.041451603,0.11771615,-0.06455067,-0.05466384,-0.014662426,0.010796608,-0.005498768,0.10541739,0.018875279,-0.007834216,-0.044130396,-0.02373081,-0.017448265,0.058312714,0.0056205145,-0.034081385,-0.050218225,0.036733877,0.0480633,0.032580037,0.015471709,0.09714527,-0.08510952,-0.13493465,0.018294329,0.14803044,0.05917976,-0.21824302,-0.2453492,-0.13712655,0.022699952,-0.079592824,-0.20289849,0.0039038972,0.092479184,0.14174095,0.12983435,-0.11193267,0.04625665,-0.011462901,0.041912723,0.11423938,-0.10101637,-0.063115194,-0.02564053,-0.12725334,-0.2085439,-0.016885962,0.069451235,0.112000234,0.10254493,0.06745061,0.009376293,0.114037044,0.058959574,0.09497911,0.09785942,0.15356159,0.13191321,0.059339765,0.07923713,0.10992702,0.011234804,-0.059079044,-0.08467243,0.038492374,-0.015276455,0.036875445,-0.060739286,-0.12271497,-0.08419916,-0.09681358,-0.079283535,-0.24942543,-0.09554088,-0.18195699,-0.08726893,-0.18203753,-0.118322104,-0.032354057,-0.08836924,0.085352026,-0.020438852,0.07211316,0.023070931,0.20124096,0.00039982924,0.09322307,0.08623184,0.09124355,0.062032845,-0.13480487,0.056583796,-0.04165983,-0.048989862,-0.027394684,0.14100605,0.05165455,0.09377286,0.10347544,0.1686697,-0.0006735155,-0.027176568,-0.09968432,-0.005979703,-0.023207793,-0.06087874,-0.18283977,-0.075161114,0.12781784,0.12890951,0.0733308,0.09553946,0.10878676,-0.012258206,0.01682265,0.10319908,-0.23071215,-0.13262454,0.022141134,-0.035116576,-0.20407641,-0.042261664,0.045066997,0.029918667,0.07038221,0.0066339076,-0.041756604,-0.05600344,-0.0167452,0.09784974,0.23487459,0.16169348,0.061783403,-0.0035508461,0.16130404,0.2828297,0.16074105,-0.0016569571,-2.0896156e-05,-0.014761827,0.00939305,-0.13352008,-0.18102664,-0.1430471,-0.10576629,0.025853517,-0.17188628,-0.11193556,-0.079175286,-0.07811996,-0.03534369,-0.0776247,-0.020295005,-0.044508245,-0.17989372,-0.07865812,0.11712185,0.00044510944,-0.039666887,-0.01943195,-0.027702672,0.08744181,0.06815583,-0.0009773935,-0.01467595,-0.14220197,-0.16544878,-0.047122728,-0.08257412,0.04462654,-0.014933728,-0.09160468,-0.088354394,-0.018585874,-0.15180567,-0.0069815395,0.04369478,0.039547704,0.015242734,-0.051764578,-0.08256868,0.18301941,0.008995788,-0.047585297,-0.12510185,-0.24253738,-2.3517994e-05,-0.068853065,-0.04835277,-0.02214743,-0.18764429,-0.07554049,-0.09377462,-0.14347646,-0.058916006,-0.20684716,-0.1398912,-0.10799488,-0.059196934,-0.046689328,-0.06321136,-0.17653598,-0.1369129,-0.06936032,0.035732426,-0.04938163,-0.09698397,-0.08333495,0.051396694,-0.07415271,0.075916335,-0.053670004,-0.08360267,0.087930344,-0.025662674,0.07459622,0.180084,0.1438623,-0.017571231,-0.059668463,0.08989987,0.09363515,-0.09391388,-0.2211042,-0.23347114,-0.1611874,-0.089325614,-0.045441385,-0.12727086,-0.11478995,-0.14609966,-0.088722,-0.101281784,-0.020668551,0.069845445,-0.008823435,-0.080972165,-0.023299593,-0.020061022,0.052145932,-0.11049528,-0.12018335,-0.062836826,-0.20273599,-0.09173614,-0.09715814,-0.046081986,-0.08359615,-0.16582416,0.020894982,0.14223835,0.007499565,-0.13449949,-0.010894701,0.061793208,-0.07377944,-0.0030189257,-0.029426198,0.0073046233,0.028683105,0.04744414,0.14668341,0.056410648,-0.032495964,-0.109728865,-0.0948473,-0.035480984,-0.22514598,-0.2851023,-0.069018476,0.06183333,-0.11519437,-0.22510572,-0.3075055,0.019495884,0.19787031,-0.12686202,-0.017752336,-0.01858146,0.1680405,0.22277203,0.11447837,0.27052495,0.13963336,0.13733983,0.04195322,0.019270012,0.07576186,0.17236586,-0.08905537,-0.21786518,-0.18090308,0.103927754,0.21688548,-0.095790006,-0.2023385,-0.014231878,0.01192911,-0.023797885,-0.08543328,-0.13929774,-0.107061476,-0.020579573,-0.08641453,-0.03644555,-0.114996076,-0.28532973,-0.16178691,-0.08204389,-0.04717155,-0.16530603,0.07595663,0.04005413,-0.12989976,-0.09094134,-0.20843375,0.037690584,-0.13097873,-0.0057504387,-0.22199969,-0.17666894,-0.13773374,-0.14378276,0.029540814,-0.020486316,0.08382217,-0.10988347,-0.0077079386,0.10005151,0.077956185,-0.08749209,0.013364706,0.09140204,0.22426079,0.008794084,-0.07330445,0.27617744,0.25158325,0.12992078,-0.08645044,-0.15897094,-0.13840343,-0.08604528,-0.13564914,-0.13411808,-0.040219363,-0.10793863,-0.12286952,-0.09462635,0.04244799,0.071856774,-0.15934463,-0.31194696,-0.19192366,-0.042321116,0.083322726,-0.18856183,-0.18007532,0.15103084,0.24838266,0.15229224,-0.27093357,-0.08323105,0.085116096,0.08549159,-0.011061308,-0.1967139,-0.013112051,0.21822566,0.15081683,-0.08859521,0.06743177,-0.04320409,-0.05271602,-0.09367284,-0.25628695,0.076833345,-0.16982165,-0.2681419,-0.08945501,-0.07596505,-0.20215867,-0.20046191,-0.11624846,0.0014897344,-0.17569055,-0.04709802,-0.092939325,-0.16763368,-0.117136076,-0.2289031,0.20617291,0.14075701,0.067925945,0.013737873,-0.19881485,0.1378322,-0.1073507,-0.024348626,-0.18261799,0.07196229,-0.052904803,-0.1558389,-0.15222213,-0.11427417,0.24232794,0.10912708,-0.026972868,0.0063948506,-0.061875593,0.0763195,0.10150194,0.18956208,-0.023209184,-0.057439934,-0.033806276,0.20202963,0.049809225,0.07265138,-0.108683795,-0.4055199,-0.110320866,0.07318367,-0.09868207,-0.16773617,-0.08257927,-0.19832917,0.047782395,-0.15351449,-0.109445065,-0.011239886,-0.01768026,0.10052739,-0.19850673,-0.1142958,-0.040909622,0.011960521,0.0933581,-0.09390904,-0.021924462,-0.19380112,-0.028896043,-0.10088596,0.07250278,0.16876534,-0.061083898,0.14031248,0.017401444,-0.08139017,0.020476768,0.048770096,0.09632763,-0.017322868,-0.027839866,0.16127564,-0.023511864,-0.29953822,-0.18580572,0.11998551,0.1098304,-0.13407546,0.095430255,0.04143803,0.012189965,0.22165121,-0.13223198,-0.12995839,0.055218894,0.17465064,-0.08393906,-0.11408308,-0.11627751,0.020850617,0.15282108,0.04485888,-0.086087644,-0.074876174,-0.0070804437,0.22513032,-0.14919755,0.04415623,-0.04737274,-0.10608602,-0.12968816,-0.08433853,0.122048035,0.04970324,0.0011349648,-0.053833034,-0.05616061,0.17449385,0.024010465,0.027972497,-0.060353465,-0.06162822,-0.06362535,0.0061887526,0.02536723,-0.0069988803,-0.048585255,-0.031365063,-0.020918861,-0.02798596,0.05700974,0.013245651,0.012459148,-0.032699186,-0.0027395606,-0.03067073,0.029625796,-0.029444851,7.7578945e-05,0.036706448,-0.048411075,-0.0063453377,-0.009269309,-0.04295906,-0.0016411451,-0.006597565,-0.0075747175,0.033611193,-0.03629371,-0.054464106,-0.010592089,0.03871091,-0.02499953,-0.014007494,-0.056974735,-0.06401135,-0.008476599,-0.015232449,0.0031562026,-0.042772017,-0.017601613,-0.03255407,0.013466601,-0.016668046,0.014876604,0.010464174,-0.010849643,-0.044359427,-0.038609892,0.057434592,0.03611127,0.05592839,-0.030822856,-0.06245577,0.037334733,-0.030381547,-0.06491475,0.023236457,0.006565729,-0.050476037,0.01950916,-0.046107955,-0.021414192,-0.009195823,0.0261787,-0.0025917902,0.030075746,0.0049797697,-0.020885231,0.012478803,-0.04354815,-0.045657773,-0.03280575,0.033010338,-0.016816277,-0.00013685405,-0.042529576,-0.045483213,-0.035544418,0.005950915,-0.04389268,0.045362778,0.005093692,-0.051369604,-0.06274317,-0.01946094,0.011769473,-0.04842047,-0.04737131,-0.013810094,0.02170043,-0.033768207,0.042408623,-0.05814791,0.009093527,-0.0055406615,-0.01557913,-0.009316103,-0.018339667,0.046809882,-0.038449187,-0.05789631,-0.01998103,-0.062270314,0.010516189,0.037237592,0.038780797,-0.0314645,0.012040878,-0.029366404,0.0009015048,0.00589084,-0.039471522,-0.058464866,0.04472617,-0.053064,0.05932219,-0.036955904,-0.009428088,-0.05407857,0.009106306,0.0023558715,-0.014942886,0.037446383,-0.061602924,-0.0517602,-0.06400099,-0.03348031,0.03521812,-0.022903832,0.0091735395,-0.0119186025,-0.023054546,-0.03514623,0.025402587,0.04518819,0.049339768,-0.042302918,0.032162745,-0.036747985,0.015994553,-0.03728134,-0.022013545,-0.009351174,-0.0140422,-0.034017235,0.020377483,-0.020024627,-0.0421852,-0.018738437,0.0021800583,-0.030718677,0.012027224,-0.039068557,-0.009084148,0.0072165793,0.028898371,0.0013844474,0.054534923,-0.04329347,-0.019620486,0.01073149,-0.03171313,0.028043546,0.042400844,-0.05326157,-0.043955576,0.024915125,-0.069486365,0.028591217,0.04110724,-0.0036740275,0.052407615,-0.01041279,0.028294407,-0.053408716,0.04040905,0.019525664,-0.050844714,-0.03389361,-0.014798165,-0.019673197,-0.018018326,0.038305942,-0.021846974,-0.051147673,-0.039228376,-0.016004983,-0.04771077,0.01845177,0.0029020205,0.014579969,0.018240357,0.05258312,-0.048533425,0.030004105,-0.020823903,-0.013577954,-0.010246607,0.032631297,-0.018541392,0.026854094,-0.04065478,0.018135803,-0.048611484,0.0410647,-0.017942475,-0.0045360737,-0.0007119234,-0.031620618,-0.019026034,-0.0056101866,-0.032602474,0.019049598,-0.031370264,-0.019191692,-0.021147044,0.032535005,-0.06096812,0.04428742,-0.05184975,-0.03753094,-0.0020138645,-0.028260637,-0.01839342,0.03790533,0.055248916,0.031809334,-0.010852225,0.054143623,-0.06387608,-0.007480366,0.0058889766,-0.019217102,-0.02256409,0.0042444933,-0.06221005,0.010847726,-0.030216437,-0.01431151,-0.013926819,-0.029258836,-0.06535634,0.02130546,-0.031195376,-0.040850427,0.019264366,-0.020128231,-0.19701181,-0.26337987,-0.1879721,-0.03533889,-0.034662005,-0.074823394,0.051471457,0.11391847,0.105323784,0.012304381,0.07787322,0.1748032,0.07383067,0.028337954,0.03181555,0.02111009,0.06946287,0.16237518,0.10001571,0.023225538,-0.022863667,-0.013616021,0.06280203,-0.0139833,-0.054742254,-0.1853798,-0.09302835,0.039645568,-0.0068167923,-0.09447622,0.03453163,0.006758707,0.033486042,0.01793923,-0.024568843,0.2274122,0.25026068,-0.0091587035,-0.028387435,-0.013200469,0.11343148,0.15069057,0.15899856,0.0053145275,0.015772238,-0.10512368,-0.058647357,0.07522309,0.0030544081,-0.033391338,-0.018688845,-0.07918003,-0.13017662,-0.09770712,-0.028564906,-0.08786918,-0.07212291,-0.018496402,0.048068497,0.08271255,-0.015295229,-0.027342953,0.03790477,0.062192395,-0.03929043,-0.023042895,0.0015492076,0.048268173,0.08897048,-0.03160607,0.0781379,0.03838353,-0.05403317,-0.13823466,-0.09949145,-0.13134688,-0.2461765,-0.21411383,-0.18239142,-0.18093802,0.010449911,0.10253401,0.029138884,-0.1656452,-0.21868867,-0.08471654,0.15362574,0.17343137,0.057179417,-0.15879111,-0.075081155,0.13557933,0.052355796,0.1011943,-0.04992052,-0.20141529,-0.0060863122,-0.07943107,-0.04274612,-0.04471761,-0.046546474,0.019476159,0.11406348,0.032935247,0.030813023,-0.07233443,0.03361347,0.034105904,0.03582295,0.07065773,-0.05953292,-0.14391646,0.031454697,-0.050466806,-0.016305894,0.13697673,0.07939221,0.07548243,0.11448851,0.09751088,0.11897557,-0.03487056,0.008721293,-0.037324682,-0.19155614,0.08695371,0.035096016,-0.028990937,-0.020068342,-0.045142278,-0.040707882,-0.16661012,0.057416726,-0.02768407,-0.020904241,0.064277045,-0.0001052364,0.04177021,-0.0024593368,0.062016815,0.17600581,0.15226077,0.04393965,0.05561559,0.04572148,0.03885976,-0.021223731,-0.014847434,-0.028524464,-0.04076692,-0.053524006,0.025553131,-0.17253007,-0.148335,-0.2023999,-0.12579252,-0.18861982,-0.14400387,-0.11380629,-0.14820878,-0.1349768,-0.039840695,-0.16909058,-0.17176397,-0.18168773,0.0624792,0.07853842,0.026721366,-0.057910915,-0.053972498,-0.04222748,-0.027938735,-0.05612369,-0.07021821,0.05592262,0.0047150347,0.0014310203,-0.18207861,-0.024062866,-0.06016859,-0.02230734,-0.10142868,-0.09369174,-0.061092995,-0.09895138,-0.19182634,-0.14245541,-0.09975932,-0.037687596,-0.12751468,-0.040447406,-0.073153965,-0.0040490082,-0.098090015,-0.034439057,-0.13284463,-0.08656676,0.019944282,0.054801058,0.058894753,0.005831412,-0.036023665,-0.11940208,-0.104297034,-0.031613432,0.121214435,-0.003236496,-0.105711766,-0.04605365,-0.017209016,0.019427009,-0.019745898,0.13230735,-0.075559795,-0.093166076,0.10749717,-0.014175246,0.080079004,0.049252477,-0.05010394,0.06200679,0.006062424,0.00985764,-0.021192404,-0.08942327,0.06457324,0.1216798,0.20439649,0.060467225,0.0782514,-0.07589107,-0.07535499,-0.13826542,-0.061532136,-0.010575369,-0.2757773,-0.17994738,-0.17311385,-0.054546233,-0.14192007,-0.015260271,-0.08281903,-0.032669913,-0.12592354,-0.21795225,-0.07926746,0.09657779,0.11974494,0.050495885,-0.15166791,0.026303288,0.02758881,-0.08362996,-0.033722214,-0.035048604,-0.008359133,-0.032415006,0.021527227,0.011234394,0.023183731,0.0884768,0.044345673,0.0636486,0.059045903,-0.03934448,0.051385235,-0.036395673,0.014314501,0.017932512,0.04030133,-0.08272828,0.0019810144,-0.06080146,-0.04059761,0.014461898,-0.06785375,-0.07776437,-0.13770308,-0.07231259,-0.02646734,0.024042735,-0.13970442,-0.10399423,-0.09996737,-0.13944614,0.18159491,0.14900792,0.06800303,-0.08485046,-0.051473975,0.20032848,0.19047777,0.11315977,0.004489291,-0.035675984,0.051047876,0.039910242,-0.030661106,-0.044902403,-0.108504646,0.07435604,0.01951837,-0.014853918,0.0052574254,-0.040986814,-0.082176544,-0.071513504,0.01752397,0.11915534,0.0025789756,0.07366204,0.087267876,0.09940887,0.04548398,-0.009276146,-0.05796004,-0.092619814,-0.026293058,-0.009256243,0.006409697,-0.057549637,-0.0809228,-0.017832821,-0.04414034,0.014141484,0.086113185,-0.009627498,-0.02567314,-0.15410042,-0.12898463,0.03738633,-0.00034231466,-0.0747159,-0.111093774,-0.09730011,0.04746305,0.106969714,0.0022303334,-0.07987004,-0.00052808196,0.012416506,-0.04723986,0.020032,-0.07357226,-0.06577623,-0.07207421,-0.06194079,-0.005464971,-0.0073437258,-0.01323109,-0.004404814,-0.022445193,-0.008997219,-0.08282516,-0.083849065,0.001435352,0.022315592,-0.06747626,0.016968084,-0.10360915,-0.010018671,-0.1001517,-0.059450094,-0.027494533,-0.07068909,0.14147304,0.037004463,0.045449033,-0.015686743,-0.04749114,0.10866718,0.15109064,0.13754205,-0.045194183,-0.15560474,0.0797295,-0.03888712,-0.02582801,-0.107110836,-0.08987875,0.015100764,-0.075518675,-0.041429937,0.0211698,-0.046482842,-0.030790403,0.021780794,0.038870562,0.010684862,0.0010155165,-0.033552922,0.10083918,-0.027271472,0.009145024,-0.10066816,-0.09408333,-0.12243077,0.0146429,-0.08417018,-0.03770437,0.0022671856,-0.0015982969,-0.056473866,-0.051407106,0.09837912,-0.117171146,-0.03466465,-0.09398998,-0.049431786,0.023661401,-0.075057976,-0.04292358,-0.11045035,-0.10291895,-0.035303812,0.027531795,0.018806001,0.03976405,-0.015971826,-0.010302711,0.036800876,0.111302204,0.1683469,0.07572369,-0.010967698,0.030459192,-0.03252346,-0.0378293,-0.02504255,-0.008709057,-0.11090596,-0.079851426,0.04891185,-0.007741303,-0.0029652074,-0.036120407,-0.09847495,-0.087049395,-0.08489797,-0.046188507,0.054605234,-0.07064033,-0.102080435,-0.053129636,-0.006025033,0.027840635,0.037738107,0.010657907,-0.025092164,-0.022750774,0.053039286,-0.03848183,-0.123808056,-0.10444443,0.016518481,-0.118502066,-0.04180842,-0.061477706,0.0018277821,0.025861466,0.010204199,-0.031324003,0.10409269,0.030167848,-0.071201846,0.021295266,0.054762565,0.01096097,0.020954836,0.003212119,-0.13714771,-0.06873586,-0.06172233,-0.11084279,-0.081643306,-0.009718449,0.054373093,0.13937221,0.015271219,0.005707293,-0.08031777,-0.01372465,0.014100813,-0.038194057,0.06433893,-0.06718694,-0.10272064,-0.14778657,-0.03781556,0.028746752,-0.091631554,-0.087989375,-0.10341301,-0.10004845,0.04219944,-0.06651262,0.07148169,0.039104156,-0.01815507,0.081804216,0.08907198,0.04767834,-0.00022260165,-0.044582676,0.08791603,0.089114316,0.015687384,-0.056694377,-0.06486366,-0.016631285,0.043462202,0.070873834,0.011938501,-0.009399315,-0.03036986,0.07757251,0.044627447,-0.047254212,-0.11751089,-0.0483644,0.046100758,0.042722646,0.009437989,0.034260377,-0.044779044,0.069823705,-0.000580096,0.0743678,-0.06599062,0.09509165,0.16190156,0.005504998,0.12049855,0.18667614,0.04221847,0.2402639,0.16596295,0.07098904,0.19599596,-0.05939301,0.14964142,-0.07193517,-0.24434577,-0.2901749,-0.35199848,-0.1619735,-0.08693687,-0.061456837,0.032774523,-0.122840315,0.025117612,-0.014165445,0.048405766,0.08005996,0.06576285,-0.017009497,-0.112306416,0.025062354,-0.0008728677,-0.18318076,-0.00024675127,-0.019131085,-0.056432236,-0.14136764,-0.30197784,0.04515361,0.126944,0.08179431,0.066972524,-0.18874507,0.06226537,0.101194926,0.07591998,0.012778528,-0.034072474,0.0062506013,0.004404997,0.027337698,-0.056995753,0.069832325,-0.054211337,-0.07950029,0.026205542,0.10059245,0.08897142,-0.19845507,-0.09035128,-0.20247144,-0.10773156,-0.13240582,-0.22400711,-0.104493216,-0.22392297,-0.24507594,-0.106576726,-0.062077995,-0.04008292,-0.019144163,-0.14458385,-0.18027526,-0.039986953,-0.0152956685,-0.10436923,-0.0705237,-0.04829318,-0.030220099,0.069648005,0.017012004,0.038348887,0.06659779,0.03670273,-0.09467189,-0.027505653,0.012372166,-0.10623562,0.26796392,0.22285858,0.0853998,-0.09313648,-0.20944808,0.30483136,0.19209878,-0.027186448,-0.017409552,-0.0073680975,-0.027586292,-0.04138412,-0.068028145,-0.15801951,0.18711211,0.08949816,0.0011350306,0.054444965,0.089190565,0.095094085,0.109736755,-0.038152855,-0.10941477,-0.118114494,-0.24522837,0.32365572,0.1219702,0.044090096,0.11586717,-0.2115268,-0.0030069347,-0.06170596,0.08938835,0.11269189,-0.024377478,-0.15392676,0.010168097,-0.037559986,-0.08976247,-0.12792236,-0.09583333,0.11623985,0.16235104,0.05393551,0.010225699,-0.094377115,-0.07674714,-0.18307993,-0.101163924,0.2217423,-0.13632874,-0.25931674,-0.20967235,0.007184397,0.17398955,-0.12969826,-0.1023976,0.047244415,-0.16015162,-0.24383909,0.036406755,0.046031266,0.043397993,0.15239973,-0.1254386,0.0324513,0.10228726,0.084411986,0.041043498,0.016364586,0.0044962224,-0.034850303,-0.0061197374,0.026486928,0.0758416,-0.0880368,-0.1031305,-0.053748082,-0.049470767,0.09804026,-0.06725159,-0.047691826,0.009068541,-0.114523746,-0.088757284,-0.12451504,-0.003787719,-0.08401377,0.07662348,0.065332666,-0.067545965,0.027598303,-0.053233124,-0.09718646,0.07696916,-0.026962295,-0.05334173,-0.17349094,-0.1401342,-0.030937638,0.085344456,-0.05877203,-0.015227587,0.0055221487,-0.11577259,-0.19845244,-0.15608607,-0.08675058,-0.11898228,-0.06864482,-0.068221994,0.032564376,-0.036289632,0.11277142,0.104101405,-0.19930382,-0.08531848,-0.032432996,0.1464746,0.0039687105,-0.2956931,-0.106536664,-0.03220444,-0.10688744,-0.24297352,-0.21145889,-0.09483898,-0.12206427,-0.24113603,-0.0047523594,-0.032156747,-0.016636439,-0.13154216,0.03012009,0.12193495,-0.122813456,-0.025224235,-0.12083093,0.00014821677,0.04893318,-0.0076049166,-0.022484738,0.039910965,0.028118644,0.08854447,0.037507515,0.042467568,0.06682277,-0.075569645,-0.045941725,-0.11436682,-0.03880927,0.009185087,0.014963416,-0.0054408303,-0.0053967102,0.05867915,-0.02035572,-0.0055949762,-0.031497993,-0.26837662,-0.10165805,-0.090084754,-0.15203446,-0.05678403,-0.060107954,-0.18841709,-0.21967301,-0.08050118,-0.011979417,0.06571868,-0.03170355,-0.053514212,0.12698503,0.04631041,0.04813496,0.09773601,0.06874548,0.057067852,-0.082672864,0.0818381,0.11248171,0.003959168,-0.1450279,-0.18604837,-0.183794,-0.007425229,0.15303421,0.08966262,-0.045624133,-0.10802094,0.018100698,0.10717967,0.15276086,0.14509566,0.06521847,0.064670525,0.20304589,0.06409072,0.042634904,-0.050035454,-0.043332405,-0.10707326,0.0060951207,0.07409042,-0.11248124,-0.06904783,0.018428564,0.07685907,0.078293756,0.10998531,0.063622735,-0.069525994,-0.15878704,-0.12882574,0.06744894,0.002262537,-0.15572771,0.003376698,0.0008565809,-0.15917008,-0.19720419,0.13442294,-0.000437264,0.033149663,0.117131084,0.010457813,-0.03786741,-0.07281618,-0.15241271,0.09706589,0.076867595,0.06878894,0.101792865,-0.06358158,-0.19303368,0.008331634,-0.047832474,-0.08101151,0.08534852,-0.2441503,-0.02863411,-0.039406486,-0.08882818,-0.029278668,-0.0072611016,0.10913618,0.10581088,0.101638675,0.04548449,-0.034679513,-0.027122812,0.09394101,0.041177787,0.107202366,-0.14777884,0.0942661,0.2045377,0.1463233,0.035617985,-0.2316124,-0.26023245,-0.022500273,0.078690276,-0.0208426,-0.29301462,-0.07181825,-0.004702795,0.14892201,0.20329681,-0.23398879,0.0666448,0.049858745,0.0010312415,0.124687895,-0.05776023,0.013445258,0.10267367,0.06563486,-0.0032214595,-0.11779137,-0.07609834,-0.12264075,-0.005047156,0.0044358517,-0.018511783,-0.18000655,0.047852375,0.08739969,-0.09520969,-0.2501514,-0.13435218,-0.10387911,0.006321358,-0.026046515,-0.022840204,-0.051440004,-0.079528056,0.08558037,0.04518935,0.0761449,-0.13340577,-0.08742371,-0.009928071,-0.024242897,0.0994692,-0.14936705,-0.0059195417,-0.011523259,0.039037157,-0.17714453,-0.16813065,-0.013184868,-0.092643656,-0.051125947,-0.20679866,-0.20300867,3.9329796e-05,-0.050209574,-0.12432553,0.078783795,-0.07113248,-0.11516112,0.028450545,-0.078001074,-0.008228467,-0.17658764,-0.054823056,0.006815336,-0.0960309,-0.13731952,-0.16624449,0.019409494,-0.04082603,0.068480745,-0.06254375,0.12570658,-0.0574212,-0.0031838303,-0.13497306,0.070706815,0.07815701,0.101905815,0.06524518,-0.07168678,-0.043854333,0.21291344,0.004495657,0.058743395,-0.0730939,0.03297826,-0.045347188,-0.051861368,-0.0703546,-0.06881225,0.08876245,-0.024743805,-0.07446851,-0.14595151,-0.07544958,0.18212506,0.15676525,0.13128842,-0.052519202,0.041627232,-0.16773707,-0.13779397,-0.03441582,0.030054703,0.03318829,-0.12686495,-0.03363729,0.25778985,0.05313864,0.16377534,0.02294264,0.14001207,-0.047949325,-0.021116186,0.047220495,-0.12595433,-0.04115715,-0.10676802,0.014951841,-0.082111634,0.05769281,-0.010067803,0.070253275,-0.011191838,-0.019919598,0.03287121,-0.016411914,0.09436058,0.08343969,0.007983586,0.078058995,0.12197837,0.103304766,0.13917014,0.08606486,-0.06683086,-0.0035856455,-0.016755732,0.021147644,0.019925954,0.021310918,0.01083801,-0.08852989,-0.12002719,-0.0028649312,-0.070939414,-0.10654484,-0.08303218,-0.24326077,-0.11305288,0.15217386,0.047338895,0.02147154,-0.13417463,-0.08193342,0.05094952,-0.09718198,0.05847588,-0.11905205,-0.15567176,0.060777746,-0.021995159,-0.029401744,-0.23275684,-0.2634092,-0.16316852,-0.17518175,-0.10286807,0.0614715,0.026111037,0.0680798,0.1616312,-0.078302845,0.043107357,0.09560109,-0.002038234,-0.108754784,-0.092806615,0.110255845,0.03601908,-0.032473505,-0.118086904,-0.15040419,-0.019359125,0.07317338,0.05327953,-0.11896606,-0.06139041,-0.07822708,0.09196683,0.10114969,0.05855418,-0.03310112,-0.03778072,0.13525422,0.10889839,0.060542595,-0.0062593534,-0.008909972,0.22425939,0.2048064,0.022702951,0.084093615,0.09192061,0.11026692,0.031928036,0.11961534,0.077820174,0.17475852,0.11174418,-0.1700176,-0.0067387796,0.09615871,0.08745976,-0.13410209,-0.23145348,-0.0548266,-0.0995502,-0.14710769,-0.2299358,-0.19421947,0.05635719,0.010957465,-0.027286515,-0.15038258,0.1267127,0.11965667,0.01116932,-0.18861312,-0.039132535,-0.02114425,-0.116395034,-0.42620653,-0.17950252,-0.12228003,0.03607444,-0.084773056,-0.312801,-0.2031386,-0.27947527,-0.07293329,-0.1257414,-0.18039478,-0.21068972,-0.24534841,0.020612024,0.04284512,-0.010979046,-0.18489245,-0.121836536,-0.07992101,-0.018510962,-0.006620306,0.022170285,-0.0069474718,-0.06605846,-0.09624052,-0.06302641,0.004352535,-0.035831377,-0.103220135,0.022398677,-0.06747035,-0.15008916,-0.1268539,0.094763935,0.06602787,-0.051732928,-0.13393483,0.09563052,-0.057944655,-0.042501133,-0.022587912,-0.20820473,-0.17341574,-0.040325638,0.036873765,0.09917459,-0.026330994,0.023938537,-0.07527942,-0.010414994,0.07831606,0.14736584,0.011646221,-0.012133307,0.124327436,0.18368115,0.20729104,-0.028200123,0.003769054,-0.0044086683,0.037572883,0.006426871,-0.055049647,0.19954516,0.06858778,-0.07982618,-0.02880369,-0.11424933,0.11570666,0.027789202,0.06834109,0.081670284,-0.07674309,0.009254463,0.027302623,0.16883129,0.17457514,-0.077330686,-0.019330062,-0.028921722,0.11311846,0.12470437,-0.10993871,-0.07614089,-0.009048799,0.14312367,0.06782516,-0.092350915,-0.20702639,0.05643129,-0.010830294,-0.16919376,-0.12003558,0.099484235,0.05131576,-0.11512041,-0.18616751,-0.0057624727,-0.054052237,-0.16371816,-0.030415656,-0.09492349,0.057546634,0.078141294,0.104233846,0.0008997231,0.12735328,0.21997546,0.1432964,-0.010283929,0.016402598,0.13570096,0.24171847,-0.08229553,-0.13336325,-0.12920453,-0.010348001,-0.030225495,-0.12815878,-0.049912672,-0.03697443,0.026933001,0.05558646,-0.076302364,-0.089088574,-0.1153209,0.094253175,0.21910334,-0.009215723,-0.2399469,-0.07066349,0.16031575,-0.117177166,-0.25390524,0.16061482,0.0380156,-0.05696028,-0.30967942,0.020068342,-0.025911212,0.10756576,0.05519926,-0.013903466,0.10439674,0.1574264,0.17031412,0.018407632,-0.11160561,-0.012509777,0.11051189,-0.009328103,-0.10436921,-0.04176821,-0.12902065,-0.055818774,-0.027211031,-0.034428824,0.002057882,0.0154282935,0.033290174,-0.03554492,0.028062223,-0.037586596,-0.27711508,-0.14202312,0.021342305,0.037149224,0.11489203,-0.15616721,-0.22183375,-0.19450304,-0.0807767,-0.13402832,-0.107279114,-0.2506251,-0.26559526,-0.17650105,-0.2931823,-0.19551232,-0.22197412,-0.21370855,-0.2071289,-0.11964533,-0.27258873,-0.34214428,-0.2106626,-0.13013503,-0.15922199,-0.06985149,-0.04884617,0.042432982,-0.17880712,-0.10215536,-0.051433973,-0.018640932,-0.036415357,0.04982944,-0.16976567,-0.039207052,-0.036336176,0.004428893,-0.006432391,0.054368842,0.07756548,-0.090489626,-0.057431385,-0.009012425,-0.055273872,0.038692422,-0.1465862,-0.041787814,0.11219704,-0.05435399,0.14476115,0.09385545,0.063829646,-0.0053975284,-0.07268105,0.21475405,0.21423213,0.14201745,0.09341036,-0.01779297,-0.013931311,0.075725906,0.06777168,0.14600281,0.08211967,-0.1953571,-0.0033847701,0.11138112,0.030137418,0.024049466,-0.005587954,-0.20388782,0.105797894,-0.021433856,-0.056570064,-0.13327208,-0.08567562,-0.08305377,-0.029348562,0.025817031,-0.15923509,-0.09069566,-0.0259128,-0.070354335,-0.027523514,-0.18171977,-0.11380224,-0.012136812,-0.093022846,-0.13413683,-0.17798695,-0.06533591,-0.11795704,-0.12089206,-0.26456457,-0.0926021,0.029815633,-0.05221559,-0.085100785,-0.08832576,-0.23878142,-0.026143705,-0.0072122244,-0.11357077,-0.17612402,-0.11367111,0.056352746,-0.008207967,-0.07073914,-0.2177076,-0.10018717,0.04135316,0.0011604963,0.034551006,-0.07898942,-0.008997808,-0.0018840431,-0.06575461,-0.18726602,-0.086218804,0.18244341,-0.09006826,-0.24532385,-0.06206631,0.019698337,-0.08344672,-0.026422177,0.18813294,0.1995711,0.054001775,0.06512771,-0.06076589,0.08923538,0.056757852,0.07390461,0.109242916,0.019977447,0.1527888,-0.060932048,0.059927326,0.16451892,2.1910824e-05,-0.0044467095,-0.030237436,0.055304132,0.024544872,0.04727519,-0.27242264,-0.00765845,0.08673125,0.016138809,0.07382028,0.0796782,0.039025623,0.08771484,0.076900125,0.15630135,0.12258872,0.17209135,0.14503492,0.19001433,0.13643019,0.06347462,0.13530928,0.0711085,0.1454852,0.040295538,0.06747725,0.15606406,0.108339764,0.1140756,0.020518318,-0.011401124,0.16518635,0.07692741,-0.20555463,-0.056509655,-0.09721165,-0.105527475,-0.066600755,0.026295071,-0.04043537,-0.081449635,-0.034488853,-0.16630302,-0.051373523,-0.029576926,-0.027559608,-0.0139308255,-0.18188278,0.016058762,0.13668238,-0.07511217,-0.020920008,-0.1309705,0.047713798,-0.09259776,-0.0038900084,-0.010297905,0.07759244,-0.0026457284,-0.054874334,-0.22827476,-0.14738141,-0.10064993,-8.8334215e-05,-0.13321935,-0.110511266,-0.117567465,0.06430768,-0.025633074,0.048736367,-0.03978226,0.06984522,0.06899727,0.03437441,0.12846766,0.050015595,0.15211762,-0.010204836,0.22448498,0.06139258,0.033023268,-0.061098985,-0.19781071