-0.09698482,-0.110966675,-0.03410443,-0.051058996,0.2227022,-0.2640212,-0.02085659,-0.24429157,-0.18437965,0.1580386,-0.24373797,0.0856753,-0.27033243,-0.16397063,0.01262044,0.11414497,-0.16608334,-0.029714342,-0.26858494,-0.21899128,0.5125153,0.2669777,-0.048530303,-0.05806916,-0.028550679,-0.030666599,0.06363268,0.2858121,0.29203486,-0.053070378,0.0095139425,-0.18448114,0.06283738,0.32358375,0.2293946,-0.28770688,-0.21244133,-0.0026651379,0.22960472,0.4035906,-0.14917849,-0.2412237,-0.46280864,-0.27595425,0.24196057,-0.036287233,0.073368184,-0.15839238,-0.4073504,-0.3339317,-0.11850791,0.061565574,0.079720534,0.19742407,-0.13090841,-0.1765407,-0.17952262,-0.09038737,-0.13696644,-0.4010999,-0.13414934,-0.015219492,0.024892418,-0.27981234,-0.31119534,0.052173894,-0.08074245,-0.122625105,-0.07413646,0.26412812,0.18988404,0.053196974,-0.14566761,0.2819089,0.28184122,0.08837265,-0.006045525,-0.05419108,0.088266976,-0.13438828,0.059270732,-0.14714335,-0.053143684,-0.21272157,-0.17566945,0.17326923,0.11322368,-0.16767697,-0.20644093,-0.24247575,0.1484396,0.3325678,-0.09293719,-0.27147955,-0.22543745,-0.12658219,0.45889962,-0.07688897,-0.16712923,-0.028845055,-0.08090208,0.2906275,0.34417623,0.4017093,0.379237,-0.23711789,0.041959543,0.07014237,-0.09787286,-0.44104373,-0.25503483,-0.22899656,-0.32939777,-0.31011468,-0.35854265,-0.18270187,-0.040009245,-0.32287207,-0.2728225,0.016844383,-0.2668485,-0.13648169,-0.1237153,0.28604484,0.10039098,-0.38752684,-0.10503444,-0.19197544,-0.107238546,-0.0138104055,-0.25286275,-0.28846878,-0.29558262,-0.28911662,-0.43651414,0.19348133,0.03721702,-0.024189467,0.028987894,-0.057714812,0.22941385,0.033026174,0.081620134,0.050419413,0.008845893,-0.36155644,0.17432919,0.13066639,0.067780174,0.13818361,0.19582944,-0.043373566,-0.021949228,0.30737722,0.1288903,-0.14999266,-0.1889125,-0.07290294,-0.06087173,0.24501231,-0.2479449,-0.10848709,-0.07441141,0.14827055,0.19806372,-0.22241281,-0.06263686,0.07842446,-0.009535286,0.12089824,-0.2109148,-0.021973968,-0.029042503,0.2722523,0.059220828,-0.06647173,-0.36851752,-0.3300045,-0.09838686,0.045413736,-0.04763328,-0.23100507,-0.287475,0.011395655,0.058099844,-0.03359785,-0.35860473,-0.16476871,0.01902878,0.16901666,0.0248812,-0.19056928,-0.056560125,-0.14850381,0.270724,-0.077438295,-0.20169932,-0.30582815,-0.23214225,0.47720903,0.0024239314,0.19324425,-0.5681049,-0.28620777,0.3651666,0.10184513,0.5748728,-0.18647915,-0.60779965,-0.0329122,-0.2498895,0.05095146,0.008733566,0.08249587,0.082861505,-0.08195585,0.21355754,0.34962276,0.2496654,-0.12355948,0.2659244,-0.1301822,-0.17998582,-0.07847898,0.17363916,-0.2550776,0.08770027,0.27432436,-0.034311756,0.022595186,-0.13368544,0.2593596,0.2554296,-0.29364103,-0.2419813,0.22618623,0.41422284,-0.19028963,-0.15146224,-0.26780063,0.033077627,-0.030239735,-0.300479,-0.19722769,-0.25975236,-0.033404067,-0.064465344,-0.05338693,-0.07875946,-0.052371513